0.24602148 -0.14242777
-0.15258895 0.33720398
-0.13840723 -0.15078358
-0.09535772 0.33809683
0.24243155 -0.11405893
-0.10347657 -0.09610362
-0.10827348 -0.11220659
-0.12366799 0.24726102
0.23768343 0.33148754
0.34367347 -0.10726719
-0.09767256 -0.12771320
0.33044073 -0.10005772
-0.15754217 -0.14135087
-0.11292246 0.24159539
0.24317874 -0.14675300
0.23961376 0.25817746
-0.10078371 -0.13111681
-0.12648594 -0.11453956
-0.10101427 -0.13793141
0.24705096 0.25510418
-0.10968636 -0.10183509
0.32616946 -0.12500948
-0.14767610 -0.10806921
-0.12093418 0.26049379
-0.15799846 -0.11450589
-0.14123665 -0.14187779
-0.11995086 -0.09982758
-0.09550463 0.25697240
0.33736777 -0.09834372
-0.12900062 -0.12749292
0.24934667 -0.14333306
-0.10233681 0.25027633
-0.14874437 -0.15033814
-0.10773890 -0.14042842
-0.13247608 0.25439611
-0.15660468 0.25991723
-0.13492724 -0.11546172
-0.14070477 -0.15624431
0.25726524 -0.10748229
-0.14923550 -0.15420870
-0.14097695 -0.14603671
-0.14250979 -0.14068300
-0.13737978 -0.14673914
-0.13694049 -0.10609844
0.33694783 0.34318098
0.23248497 -0.14416879
-0.11416958 -0.10051554
-0.09726901 -0.12798336
0.22763370 -0.14953917
0.23267080 -0.12339618
-0.15853618 -0.15482657
-0.11601381 -0.12322313
0.23854814 0.32707226
0.33116925 -0.11445125
-0.09810317 0.32113078
-0.10397958 -0.15323043
-0.13753572 -0.10822334
-0.09783988 -0.12010076
-0.08671658 0.33506694
-0.12090788 -0.11362626
-0.15284093 -0.14299282
0.32681432 0.23714982
-0.15926626 -0.14823879
-0.15020758 -0.13375938
0.33919188 -0.11325601
-0.12480488 -0.10143340
-0.11127280 0.24418068
0.25115764 0.22593597
-0.12151039 0.34036377
0.32468143 -0.12449117
0.23334049 0.32709002
-0.10460554 -0.12358586
-0.13965942 -0.10053036
0.25902000 -0.14810754
-0.10202780 -0.08710281
-0.11561704 -0.14109653
-0.12125491 -0.08642119
-0.15159795 -0.12585761
-0.14551178 -0.16088507
0.33994639 -0.13618210
0.23980129 0.25791812
-0.09668433 0.22307372
0.24872851 -0.14716588
0.23536175 -0.14136629
-0.13644563 -0.12932785
-0.12866944 -0.13651644
-0.14247526 -0.09585568
-0.14612128 0.23599046
-0.15852609 -0.15093997
0.25143567 0.24287558
0.24899361 -0.12897252
-0.15608151 -0.11394185
-0.12119175 -0.09921107
-0.14725026 0.23797028
-0.12101216 -0.11196161
-0.11671127 -0.13870628
0.22498426 -0.13540921
-0.14890060 -0.10547274
0.24435389 -0.13500293
-0.10521077 -0.10995625
-0.15509678 -0.12152942
-0.12750056 -0.10610610
-0.10640111 0.32617536
-0.10502289 -0.14094783
-0.14472379 -0.11259904
-0.10838715 -0.10518265
-0.11725244 -0.11762007
0.32138085 -0.11671261
0.24193062 0.25153783
0.32204956 -0.15558408
0.23600803 0.24669462
0.23924869 -0.14259659
-0.11995306 -0.10264163
0.33296692 -0.11850445
0.33796042 0.24535252
-0.15563294 -0.15107852
-0.10381711 -0.11772488
-0.12442324 0.33686718
0.23125707 -0.11964891
-0.10745110 -0.14493082
-0.14184867 -0.11843885
-0.15005098 -0.14924569
-0.10211001 -0.11643253
-0.10782669 -0.14256333
-0.11216717 -0.11749066
0.25133160 0.33581915
0.23054580 0.24364194
-0.11967080 -0.15173674
-0.14863129 -0.14650519
-0.10636584 0.24279410
-0.14918013 -0.14895374
-0.14703509 -0.14323467
0.24908815 -0.10059935
-0.14903833 -0.13963948
0.24551319 -0.10668450
0.25544479 -0.14873320
0.24207003 -0.14049438
-0.15720029 0.22153154
-0.16070107 -0.13974048
0.24265572 0.32839367
-0.11148592 -0.10812055
-0.14272185 -0.14898892
0.32886022 0.33747238
-0.10853101 -0.14778197
-0.14199826 0.25050873
0.23013397 0.31971845
0.23301752 0.24161471
0.33605802 0.32065392
-0.14291790 -0.11370566
-0.13099909 0.33621445
-0.09392659 -0.11852287
-0.10445680 0.24168241
-0.13930799 -0.09480566
-0.09610103 0.32737601
-0.11894766 -0.12145951
-0.09613717 0.31604850
-0.12621263 -0.12760080
-0.11836150 -0.15061384
0.23386581 -0.14525875
-0.12779512 -0.12624465
-0.11762084 -0.09257947
-0.09993908 -0.11432697
-0.10096580 -0.14653069
-0.15064327 0.22157921
0.32437822 -0.11932046
-0.11382856 -0.10135885
-0.14325596 0.31614476
-0.11300594 -0.13933842
-0.13881427 -0.11403020
-0.14172873 0.23691727
-0.10144398 -0.12149430
0.33705381 -0.13369235
-0.10104207 -0.11870243
0.24166214 -0.10085834
-0.14507215 0.23931830
-0.11819479 -0.14237720
-0.15343310 -0.14879607
-0.09367778 0.23315386
0.23243368 0.22263876
-0.14181149 -0.13287999
-0.14926019 0.32302850
-0.14504991 -0.12735370
-0.12930144 -0.09340106
-0.13349245 0.22925347
0.23779701 0.22244810
-0.15357938 -0.15857273
0.20603213 -0.14353226
0.23167513 -0.11763446
-0.09950652 -0.09582969
-0.12898283 0.22224705
-0.09460418 -0.09953509
0.33977801 0.23827027
-0.12142189 0.19345485
-0.13798235 -0.09327875
-0.13770238 -0.13495505
0.30202639 -0.09091327
-0.11596768 -0.08530080
-0.08537455 0.30508012
0.30390474 -0.09424075
0.29924321 -0.12400569
-0.13734186 -0.09204394
0.29779971 -0.09120460
0.30148634 -0.10219631
-0.09201438 -0.10491436
-0.13600792 0.20733468
-0.09315010 -0.11811746
-0.12659492 -0.13413453
-0.12661736 0.21316357
0.30394971 -0.10514111
-0.11235488 -0.10244484
0.29453892 0.21240927
-0.13357092 -0.12080695
-0.09184927 0.30234811
-0.08332220 -0.11042822
-0.12415257 -0.09365511
-0.11153845 0.19612552
-0.13707848 -0.10175528
0.21014297 -0.13228633
0.28734538 0.30213541
0.30403793 0.20782372
-0.11241158 0.29980090
0.20210573 -0.11260489
-0.13027340 -0.14092799
0.30324107 -0.12780781
-0.12807138 0.20610045
0.30288282 -0.13077518
0.21517892 -0.12997916
-0.12734693 0.20187619
0.20072144 -0.10970224
0.21611540 0.19711475
0.20048566 0.30257353
0.19152194 -0.13718498
-0.12765744 -0.14128265
-0.12147231 -0.12736998
-0.13030216 0.17775151
-0.13804495 -0.10359100
-0.11254769 0.29774866
-0.13618235 -0.12135644
-0.09604681 0.29623812
0.30751640 0.20482764
-0.15333615 0.24367212
0.24436553 -0.11716025
-0.12259888 0.23958588
-0.10971880 -0.11538480
-0.15448403 -0.10711517
-0.09713126 -0.11024031
-0.10804565 -0.10744984
0.32904428 -0.14452735
0.22036061 -0.12384956
-0.13342319 -0.09598116
-0.09789484 0.32455170
-0.11982269 -0.08853724
0.24252319 -0.13789484
-0.10803572 -0.14388560
-0.14211576 -0.12659031
-0.14683102 -0.15686694
-0.11524154 0.32644865
0.33173957 -0.09156512
-0.10701466 -0.14371473
0.21772435 -0.15323144
-0.09378703 -0.11459444
-0.12752828 0.32587078
-0.13809495 -0.11099877
0.33237022 -0.14725575
0.25193575 -0.09343448
-0.14242767 -0.12421933
0.32384932 -0.09942841
-0.11026323 0.22328959
0.32019699 -0.10067516
-0.13462131 0.33554298
-0.14068310 0.23184656
-0.11591531 -0.14390092
0.23158385 0.23441039
-0.10980221 -0.13989240
-0.14524040 -0.13902588
0.23384669 0.22606106
-0.13002004 0.32504502
-0.13348751 0.24854481
-0.15282232 -0.10699390
0.24695089 0.24190713
-0.12698288 0.25014141
-0.13227755 -0.13020875
-0.13468131 0.25919172
-0.12229601 -0.08734365
0.31974086 -0.13273250
0.22700356 -0.13738680
-0.09843232 -0.10899188
-0.10956386 -0.13052756
-0.14682059 -0.12424830
-0.13457869 -0.10630411
-0.14623570 0.24021417
-0.09173929 -0.10718911
0.22460130 0.32458910
-0.11972079 -0.09388865
0.33218476 -0.10792679
-0.09831339 0.22659387
-0.15516567 0.31647873
-0.10697582 0.32356995
-0.11927684 -0.10536376
-0.11480653 -0.11916247
0.23201993 0.24509805
-0.10900699 -0.15263402
-0.13704629 0.22412354
0.22190663 0.23237950
-0.09992210 0.32349911
-0.10427976 0.31597963
-0.09947365 -0.13755864
-0.15021358 -0.14116694
0.32829148 -0.10037326
-0.11208802 -0.10245100
0.23793216 -0.10202605
-0.11724542 -0.15090661
0.22459312 0.31534156
0.24396643 0.23460311
-0.09532965 -0.12155952
-0.09262071 -0.14315031
-0.11562752 -0.12147225
-0.12637705 -0.10473250
-0.15645604 -0.12877975
-0.09772992 0.21375258
-0.14682548 -0.13319309
0.33359292 -0.13579476
-0.13025495 -0.15138222
0.23593339 -0.14299451
-0.14898795 -0.09222179
0.23566443 0.25308758
-0.14002626 0.32825541
-0.13248219 -0.13364692
0.23464032 -0.14275117
0.21556300 -0.15212665
-0.14917016 -0.14340441
-0.14838396 -0.12127443
-0.11714032 -0.10594361
0.23587278 0.24218230
0.32200062 -0.10034383
-0.09297977 -0.14305605
-0.13505715 -0.13601159
-0.13310832 -0.11130843
0.22611612 -0.14584643
-0.12004159 -0.11207645
-0.13711144 -0.10994165
0.33302832 -0.12051030
-0.12133999 -0.10695237
-0.09284929 -0.15282539
0.25604859 -0.11643562
-0.09874895 -0.13120189
0.33626977 -0.08527344
-0.10812815 0.32696557
-0.14386615 -0.15412515
-0.10739021 0.24209367
-0.14802843 0.23016211
-0.14932762 -0.14424212
-0.08961519 -0.10521552
-0.09683166 0.32683653
-0.11275455 -0.13620314
-0.12587222 -0.13633156
-0.13201685 -0.08885877
-0.08966633 -0.09899297
-0.14934614 -0.10883182
0.34240800 0.24940339
0.23887098 0.32735807
-0.13768478 0.22422411
-0.09032326 0.34371239
-0.11925900 -0.12756486
-0.09505229 0.34330940
-0.15348330 -0.09981193
0.23810071 -0.14087313
-0.08933768 0.23797192
0.25432947 -0.11959407
-0.12220787 -0.15211517
-0.13917597 0.23947714
-0.13233271 -0.12737982
0.24983267 -0.10075845
0.24517269 -0.13898717
-0.13863543 -0.12040715
-0.13257693 -0.13337588
-0.16035442 0.24891885
0.24004962 0.24455306
0.25721887 0.26545009
0.22741547 0.32148436
-0.09481861 -0.09909696
-0.14021602 -0.15049194
-0.12659764 -0.11236350
-0.12223050 0.24496214
0.17128961 0.04844631
0.03948982 -0.03635127
-0.25611570 0.01134298
-0.04137269 0.06328794
