0.00894454 0.01249240
0.00569057 0.02125665
-0.00605841 0.01040578
-0.00874822 0.01444687
-0.02212178 -0.00615032
-0.00312347 -0.00298968
0.00503475 -0.00992934
-0.01744274 -0.00867677
-0.01528716 0.01310941
0.00831932 -0.01067711
0.01420665 -0.00668528
0.01249444 -0.00766221
-0.00232479 -0.01620411
-0.01314940 0.00815511
0.00271446 0.02522806
0.01699570 -0.00929759
0.02133245 0.01339930
0.00638360 0.01726769
-0.01372679 0.03164807
0.01810325 -0.01013794
-0.00445576 0.00588616
-0.01784388 -0.00496381
0.00951336 -0.01028471
-0.02005843 -0.00034166
0.00654470 -0.01641957
-0.01559424 -0.02182858
0.00680193 -0.00970743
0.00310706 -0.01076922
-0.03598510 0.00593230
-0.00226155 0.00662786
-0.00215582 -0.02166947
0.01896339 -0.00657404
-0.00540220 -0.01489623
-0.00944716 -0.00129235
-0.00641447 -0.01562647
-0.00377061 0.00737779
0.02750708 -0.03679339
0.00850659 0.00420336
0.00544363 0.00503083
0.02540346 -0.01295934
-0.01346794 -0.00228128
-0.00548807 0.02280934
0.00571973 0.01528600
0.01149209 -0.00248101
-0.00957489 -0.00628410
0.00011673 0.00337504
0.02869097 -0.01200775
-0.00844045 0.00734119
0.00750471 -0.00093438
0.01466166 0.00106258
-0.00459251 0.00398474
-0.00257729 0.00224509
-0.01496776 -0.01042080
-0.01494790 0.05044095
0.01067179 -0.01791939
0.00844633 -0.00108318
0.00537911 0.01964791
0.00995987 -0.01243985
-0.02452979 0.00526843
0.01526340 -0.03185157
-0.01463176 -0.00986283
-0.00391561 0.00903729
-0.00222945 -0.00439435
0.00101675 0.01473572
0.00045350 0.01428480
-0.01510250 0.00332653
0.00368828 -0.00474343
-0.01543277 -0.01706835
0.02995366 -0.01260427
-0.00377000 -0.02426320
0.02732242 0.01086323
-0.01510980 -0.00067329
-0.01050726 -0.00381446
0.00235067 -0.02556501
0.00801940 -0.01793140
0.00602745 0.00386010
0.01380806 0.01496936
-0.01570394 0.02436537
-0.02438861 0.00751357
-0.00492139 -0.02611793
0.02320928 -0.00478703
0.00633083 -0.01205268
0.01043199 0.01726802
-0.00883331 -0.00067307
0.02419442 -0.01277818
-0.00285977 -0.00562403
-0.01218686 0.00271600
-0.00595382 0.00319784
-0.02681449 0.00612464
-0.00460134 0.00670884
0.00716868 -0.00233376
0.00895227 -0.00236500
-0.00905479 0.00547701
0.00045873 0.01685166
-0.01364675 -0.00701106
0.00663408 0.00741785
-0.01062247 0.00894627
-0.01692316 -0.01170515
-0.00600586 0.01564639
0.00685436 0.00151374
-0.00412407 -0.01999453
0.02217108 0.00400894
0.01379777 -0.00946688
0.01901955 -0.00216213
-0.00672913 -0.00997624
0.00739862 0.00011163
0.01369449 0.00077158
-0.00624688 0.02240185
-0.00239183 0.00077660
0.02605059 0.01882311
0.01685799 0.00355916
-0.01443633 -0.02312742
-0.01033573 0.01123144
0.00024748 0.02882686
-0.00368916 -0.00005985
-0.01411947 -0.00381423
-0.02257282 -0.01574625
0.00232402 -0.00280213
0.00281292 0.01156535
-0.00079367 -0.01552669
0.01550965 -0.01902028
-0.00262290 0.00402825
-0.00951939 -0.00694240
-0.00699421 0.00148724
0.03176597 -0.00455662
0.02436588 0.00474775
-0.01870723 0.01224537
-0.01453870 0.00644478
-0.01060199 0.00361350
-0.00061357 -0.00489333
0.03467091 0.00050616
0.00849411 -0.00322988
-0.00415461 -0.01504554
-0.00288437 -0.02233728
-0.01112114 -0.00964134
0.01499925 0.01337717
-0.00399670 0.02040792
0.01093060 0.00883891
-0.00667568 -0.01751082
-0.00286133 -0.00949335
0.01346993 -0.00373024
0.01064711 -0.00670460
0.01730095 -0.00641753
-0.01700370 0.01975220
0.01938937 0.01480270
0.00524059 -0.00072541
-0.02183837 -0.00388214
-0.02596654 0.00089647
-0.02721264 -0.00018663
0.00625552 0.02373916
0.01487371 0.03108805
-0.00708333 0.01215314
0.00834189 -0.01431966
0.00625772 0.01956051
-0.02681576 0.01282045
-0.00431174 0.00795554
0.01500224 -0.00079541
0.00739239 -0.00429060
-0.00985842 -0.00904438
0.00301268 -0.00923336
0.01610528 0.00111604
-0.00460723 0.00873132
0.02360470 -0.00001976
-0.00467064 0.00951361
0.01404029 -0.00908277
-0.00679900 0.00985062
0.00234325 -0.00639219
0.02073582 0.00316673
-0.01535179 0.00212187
-0.00074489 0.00540192
0.02073891 0.00913459
0.00263841 -0.01935326
0.00424585 0.01063608
0.01459232 0.00249156
0.01844784 0.01263231
0.00097006 -0.02533709
-0.00311332 -0.00151181
-0.01210354 -0.03324568
-0.00325892 0.01282309
0.03518438 0.01137146
0.01474877 0.00178142
-0.01787145 -0.02433510
-0.01020522 0.02033501
0.03190300 -0.00585320
0.00744488 -0.01923294
0.00362727 -0.00858832
0.01247130 -0.02831219
-0.01163060 -0.00068303
0.00148909 0.04089009
0.00363611 0.01059452
0.01139623 0.01984346
-0.02703788 0.00312268
0.00287365 -0.00069252
-0.00645068 0.01090420
-0.00562793 0.01468000
0.00779851 0.00679811
-0.01709510 -0.02565753
0.00155775 -0.00039278
0.00345546 0.00024938
-0.01167937 0.01764196
0.01598820 -0.00894650
-0.00012103 0.02356557
-0.01277978 -0.00380421
-0.00547560 0.01179913
0.01595100 0.00483474
-0.02517233 -0.01125729
0.00715873 -0.00523576
0.02016408 0.00670192
-0.01944614 -0.01955277
-0.00676614 -0.00574444
-0.01807943 -0.00036986
-0.03229399 -0.00149276
-0.00213280 0.02979848
-0.00470287 -0.03567264
0.00734155 0.00776457
0.00552284 -0.01792940
0.01054614 0.00835299
0.01396126 -0.01815109
-0.00483251 0.01075884
-0.02099999 0.00387626
0.01799734 0.04254346
-0.02543413 -0.00922094
-0.02250736 0.02024650
0.02025956 -0.00006728
-0.01947352 0.00640622
0.00278587 -0.01051748
-0.00624902 0.02529550
-0.01527431 -0.01616239
0.00874522 -0.02254762
0.00507761 0.00318830
0.01502923 -0.01444170
-0.01734600 0.00846000
0.01144378 0.00703796
-0.01410448 -0.00931437
0.03829468 -0.00081748
0.02155687 -0.01195872
-0.02186148 -0.00625619
0.00352244 0.01447032
-0.00309210 -0.00510862
0.01289578 0.01367991
-0.00576408 -0.01411825
0.00310968 -0.02032912
0.00468094 0.00043275
0.00301706 -0.00175740
0.00982959 0.00124591
0.00433727 -0.00460529
0.00269316 -0.00426199
-0.01429658 0.00037572
-0.00730697 0.00079138
-0.01108117 -0.00899837
0.00864650 0.00514789
0.00409915 -0.00031321
-0.00505534 -0.02589095
-0.01456773 0.02460159
0.00316509 -0.02479143
0.00167543 0.02059164
0.00644739 -0.01462761
0.00579240 -0.01720036
-0.01050464 -0.00330734
-0.01025816 -0.00681924
0.01325403 0.00672472
0.01172331 -0.01941376
0.02694418 -0.00684154
-0.00297793 -0.01864922
-0.01689556 0.00526797
0.01326716 -0.01527810
0.01051975 0.00224880
0.00561209 0.00653847
0.00304563 -0.02570635
-0.00560884 -0.01842273
-0.01143641 0.01364428
0.00763882 -0.00177229
-0.02935206 -0.00363552
-0.02102694 0.00696662
0.00349481 0.00855629
-0.01571407 0.00419785
-0.00066641 0.00008727
-0.02831454 -0.00435113
0.00561325 -0.01468538
-0.01776134 -0.00889350
-0.00474667 -0.00240547
-0.00818697 0.03055500
0.00533051 -0.00449179
-0.00134547 -0.01165570
-0.01897980 -0.00221282
-0.01328871 0.02100480
0.01324858 0.01656925
0.00214682 -0.00148616
0.00120515 -0.00506459
0.00502714 0.00472313
-0.00193375 0.00269039
-0.02230912 -0.00131674
0.00227126 -0.02868207
-0.00451140 -0.02229293
-0.01231607 -0.00658121
-0.01480391 -0.00170475
0.00076414 0.00280226
-0.00749224 0.00790943
-0.00934741 -0.01783204
-0.01585559 -0.02095232
0.00855253 0.00761991
-0.00954603 -0.00934591
0.01055796 -0.01709536
0.01347299 0.00327918
-0.01858701 -0.01183650
0.03757880 0.02705060
-0.00717509 0.00096614
-0.00912809 -0.01791804
-0.01544069 -0.00529025
0.00120645 -0.00090637
0.00898667 -0.00683839
0.01678932 0.00891616
-0.01512100 0.00103037
-0.00916012 0.00504181
-0.03388227 0.00045598
-0.01997202 -0.00714007
-0.02498945 -0.01196806
-0.00303855 0.01171537
0.00528320 -0.01247962
0.00543865 0.01798079
-0.01363109 0.00399574
0.00316426 0.01895869
-0.02142405 0.03309913
-0.00423480 -0.00073246
-0.01000971 0.00375621
0.00450094 -0.00685332
-0.00474686 0.01115174
-0.00160185 -0.01004820
-0.02480746 0.00704089
0.00251218 0.00539294
0.00524794 -0.02530473
-0.01661383 0.00421465
0.00064116 -0.01252716
0.00199566 -0.00209323
-0.00450389 0.01248705
-0.00283208 0.00785386
-0.01218193 0.00592365
0.00244949 0.00358708
0.00058439 -0.00447147
0.01870317 -0.00932434
-0.00869057 0.00058459
0.00570649 -0.00249739
0.01482559 -0.01950826
-0.01173393 -0.01544534
0.00507155 -0.00346176
-0.00911518 -0.02045384
-0.00069850 0.01759293
-0.02744542 -0.00086711
-0.01453527 -0.00178673
-0.00034356 -0.00741116
0.01572217 -0.00838911
0.01358025 -0.00887229
-0.00107530 0.00037077
-0.00349781 0.01141384
-0.00610734 -0.00694731
0.03160067 -0.00901332
-0.00705262 0.00205393
0.00424379 0.02064921
-0.00889350 0.00018239
0.01197485 0.00145984
0.02855207 -0.01500098
-0.02027127 0.00224090
0.02202514 0.01495749
-0.01266474 0.04754396
-0.00961451 -0.00385577
-0.01026075 -0.00539590
0.00231191 -0.01640835
-0.01952746 -0.01693912
0.01429319 0.02128243
0.01529198 -0.00151827
0.00601853 -0.00029012
-0.00871899 -0.00270039
-0.00290925 0.01175565
-0.00859213 -0.00073656
-0.00414083 -0.01112155
-0.02817860 -0.01052663
-0.00589790 0.00397080
0.00119971 0.02442647
-0.01208560 -0.00567788
0.00492073 0.02990049
0.01047265 0.01114063
0.00922926 0.00195119
-0.01775613 -0.00176176
0.02591072 -0.01204506
-0.02783090 -0.00753720
0.00565110 -0.00935479
-0.00111942 0.00838638
0.00527220 -0.00605270
0.00696038 0.00754565
-0.00172632 -0.00315498
-0.01487202 -0.01655228
0.01189925 0.00280309
0.01131897 -0.02696403
0.01364591 0.00255745
0.00650148 -0.00613358
-0.00178599 -0.00694723
-0.00847259 0.00424533
-0.01357169 0.00067281
-0.00187532 -0.00791571
0.00307559 0.02054734
-0.00620067 0.01525298
-0.00338044 -0.00307711
0.00221784 -0.00648424
-0.00369573 -0.00021145
0.02786605 -0.00837960
0.00023160 0.00462202
0.00281084 -0.01356903
-0.01015244 0.00233704
-0.01224834 0.01058585
-0.00529335 0.00023654
0.01958704 -0.01345294
0.01371245 0.01261368
-0.01332416 0.00716779
0.00465261 -0.00935681
-0.02053637 -0.00884229
0.02138043 -0.01457362
0.00963262 0.01112594
0.00611737 -0.00619433
-0.01945203 0.00731999
0.01458244 0.00202660
0.01448814 0.01138123
-0.00709925 -0.00138886
-0.00324158 0.00456854
0.01680038 -0.01938728
-0.03919806 -0.01057546
0.00992026 -0.01618983
0.01065080 0.03627108
-0.01375704 0.01094831
0.00670658 -0.02175372
-0.00256620 0.00525621
-0.01018545 -0.00189914
0.00502972 -0.01026945
0.02847022 0.00298133
0.00032204 0.02298951
-0.00041428 -0.00629683
-0.01181520 -0.00933742
-0.01387194 -0.00753125
0.01222324 -0.00051964
0.00523298 -0.00754351
0.00953943 0.00155163
0.01939882 -0.00708834
0.01165325 -0.01995569
0.00444144 -0.00639637
-0.00253353 -0.00500239
0.00242221 -0.00548961
0.03076552 0.00153261
0.01282643 -0.00829540
0.00304768 0.00607485
-0.00221314 -0.00078738
-0.00470509 -0.01150080
-0.01281764 0.00474047
-0.01007408 -0.01318381
0.02382291 -0.01572916
0.01006686 0.00396019
-0.00547354 -0.01572317
-0.00604562 -0.01980939
-0.00237565 -0.01134727
-0.00557189 -0.00661011
0.00114836 -0.00098828
0.02378670 -0.00472977
-0.00348371 -0.01455770
0.00867153 -0.00167567
0.00759552 -0.00808525
-0.02193379 -0.00062800
0.00964673 0.00484273
0.00335359 -0.00431998
0.00537854 -0.00491254
-0.00727390 0.02628868
-0.00434489 -0.01060221
0.01358193 -0.01200548
0.01066877 0.02137438
0.02105911 -0.00634008
0.01440494 0.01508531
0.01323545 0.00850395
0.00752370 -0.02263597
-0.00639119 -0.00566342
-0.00566241 -0.00390869
-0.00273603 -0.01423634
-0.02239549 0.00435454
-0.00211851 -0.00277550
0.00855769 0.00140245
-0.01017360 -0.03014636
0.00631600 0.01964201
0.00796116 0.00821032
0.02148273 -0.02216402
-0.00043049 0.00804216
-0.00404114 0.02317502
0.00710265 -0.00913659
0.00896944 -0.02876871
-0.00300624 -0.02612452
-0.00850483 0.00777466
-0.00795316 0.00145495
0.00898870 -0.00368827
-0.00002005 -0.00931583
-0.01497502 -0.02468703
-0.00546531 -0.00413494
0.01145197 0.00350901
-0.00807379 0.00131193
-0.00442698 -0.00506800
0.01050166 0.00307909
-0.01414592 0.00441593
-0.00464609 -0.02117494
-0.00319979 0.00734328
-0.00443732 -0.00518139
-0.00709794 0.01305909
-0.00804040 -0.00238439
-0.00945583 -0.01576768
0.00039607 -0.00265839
0.01510098 0.01040903
0.00107553 0.00197001
-0.02033536 0.00613297
0.03318610 0.02145098
-0.00823613 0.00212385
-0.01293492 0.01510906
0.01877219 0.01717374
0.00249745 -0.00915652
-0.00603804 -0.00236893
0.00908157 -0.00000252
0.00930964 0.00912180
-0.01512624 -0.01983337
0.01110439 0.00047915
-0.00598533 -0.00394465
0.01124073 -0.00730374
-0.01979111 -0.00280437
0.00649193 0.00811880
0.00465032 -0.01260319
0.01737202 0.00686228
-0.00942883 -0.01022452
0.00824111 0.00191665
0.01504710 0.00136085
-0.02229142 0.00712092
0.00693259 0.01322584
0.01461446 0.02409812
0.00091518 0.00871048
-0.02956195 0.00253363
0.02323420 0.02692604
0.00849893 0.02331949
-0.00713862 -0.00329881
-0.00131560 0.00694750
-0.00887013 -0.02554918
0.01474871 -0.00290894
-0.02354977 -0.01187548
-0.00439325 0.00787487
-0.00587997 -0.01043226
0.02621358 0.01492902
-0.00941109 0.02016165
-0.01608389 0.00216916
-0.00338010 0.01332881
-0.00263026 -0.00377693
0.01736315 0.00072814
0.00746969 0.03196631
0.00778891 -0.00619027
-0.01194931 0.00011929
-0.03599216 -0.01333765
-0.01076794 0.01521863
0.01408373 0.01659770
-0.00079520 0.00356602
-0.01237020 -0.03134802
0.01623356 -0.02200614
-0.00487991 0.01888490
-0.00114652 0.01919360
-0.00017953 0.00257935
0.00250472 0.02363723
-0.02273403 -0.01885421
0.00805189 0.00271484
-0.01155134 0.00654268
0.00779215 0.00421057
0.00802632 0.00533227
-0.00401854 -0.01410174
-0.02965534 -0.01629982
0.00475905 -0.00900912
0.00794961 -0.00612333
-0.01196704 -0.00212101
0.00496387 0.01334156
0.01231882 -0.02204374
0.01004436 -0.00305491
0.02324408 -0.00654946
-0.01675308 0.00942900
-0.00329714 -0.00924624
0.01648506 -0.01049713
0.00342102 0.03288380
0.00543378 -0.01692308
-0.00659349 0.00249357
-0.02660665 -0.01146711
0.01010174 0.02468558
-0.00393249 0.00085137
-0.01054627 -0.01089809
0.01289616 0.02399061
0.00718024 -0.00157123
-0.00340927 0.00069423
-0.01884158 -0.00469817
0.02300753 -0.01574677
0.00544529 -0.00775886
-0.00359584 -0.00324199
-0.00405672 -0.01139025
-0.01502736 -0.00853621
0.00389890 0.03260499
0.01787426 -0.00040270
-0.00284646 0.00805743
0.00999550 -0.00591996
0.02595902 -0.00892430
-0.00303150 0.00780104
-0.00651057 0.03749542
-0.00509108 0.02268919
0.00333110 0.00826601
-0.00591879 0.00452695
-0.00989371 -0.01216499
0.00091193 -0.02663495
-0.00004450 0.00697328
-0.00145459 -0.00164956
0.00213675 0.00110164
-0.01600808 -0.01288662
0.00009906 -0.01416934
0.01134261 -0.00515844
0.00200055 0.00662630
-0.00329112 -0.00817162
0.00329016 -0.01972318
-0.01039104 -0.00280248
0.00526611 -0.00530930
-0.00052217 -0.00703831
-0.02172303 0.00264522
0.00464104 0.01192462
0.00282721 0.03716132
-0.00125235 -0.00874619
0.00072919 -0.00602333
0.01658934 0.00365089
-0.00718734 -0.01899276
-0.02307760 -0.00301913
-0.00558480 0.02456338
-0.01391074 0.01185856
-0.00557068 -0.01456052
-0.00939983 -0.00045804
-0.00796771 -0.00435515
0.00248323 0.00289143
-0.00191850 0.01001179
-0.00358165 -0.00112527
0.00285713 -0.01397997
-0.01422363 -0.01246221
-0.01609313 0.00299713
0.00052263 0.01565812
-0.00260640 -0.02817033
-0.01795354 -0.00087148
-0.01096342 0.02553932
0.00414304 0.01855715
-0.00192296 -0.00730395
0.00513381 0.02749179
-0.00336316 -0.00261264
-0.01391182 0.01355631
-0.00851307 -0.00196978
0.01824740 0.00042262
-0.02755313 -0.00480997
0.01295336 0.01012317
0.01533864 -0.00113224
0.00214362 0.01545425
0.01043718 0.00185600
-0.02394747 -0.00767846
-0.01429881 -0.01813670
-0.00672135 -0.00356567
0.00174230 -0.00002451
-0.00584993 0.00035316
-0.00404154 -0.01080280
0.01159557 0.01219779
-0.01164276 0.00546378
-0.01676288 -0.01525159
0.00336758 0.01099928
0.00956075 -0.03023050
0.00122530 0.00257021
-0.01389944 0.00254496
-0.01446744 -0.02081536
-0.00830724 0.02459218
-0.01487228 -0.02694460
0.01501800 0.02081940
0.00418983 -0.02077354
-0.00095638 -0.00379837
-0.00525344 0.01743135
0.01141551 -0.01317503
-0.00974740 0.00496345
-0.00313978 -0.01421568
-0.00153582 -0.01778637
-0.01308411 0.00316607
-0.00615691 -0.02354793
-0.01158915 -0.01523620
-0.00103013 -0.02886384
-0.00339787 -0.01066475
0.01915998 -0.00092269
0.02297581 -0.00559332
-0.00150043 0.00329762
0.00693363 -0.00513071
-0.00550313 0.02973322
0.00542417 -0.02432190
0.01569294 0.00133402
-0.01062441 -0.01074316
-0.00631780 -0.00654322
0.01261883 -0.01215304
-0.00712764 0.01161902
0.01764054 0.01781149
0.00159081 0.01504679
0.00276428 0.01315743
-0.00194156 0.00555145
0.01716308 -0.00347576
-0.00897022 0.01176100
0.00428545 -0.00426984
-0.01154878 0.02550374
0.03780388 -0.00944654
-0.01090145 0.01152127
-0.00640031 -0.01138141
-0.02186790 0.01175071
0.00583016 0.00340776
0.00088769 0.00084853
-0.00572089 0.01565404
0.00923792 0.00255595
0.00750547 0.00136508
0.01143218 -0.00130227
0.00677990 0.00129921
-0.00201767 -0.00671814
-0.00263510 0.00886384
0.00903037 -0.03259510
0.00472895 -0.00209811
-0.01269394 -0.01887229
0.02849965 0.00506692
0.00463143 0.01722721
0.00520739 -0.00915239
-0.00030370 -0.01213154
0.01010806 -0.02940708
0.01281010 0.00990391
-0.02291720 0.00209242
-0.04346163 -0.00740830
-0.01566490 0.01425912
0.00541786 -0.00613956
0.01457985 0.00058422
0.02477159 0.01236660
0.01445177 -0.00819903
-0.01567215 0.01023274
-0.01311940 0.00818217
0.01521868 -0.01707911
-0.01767449 0.00283992
0.01304250 -0.01078030
0.00728214 0.00537454
0.02140921 -0.01698616
0.00159369 -0.01470374
-0.00452305 0.01885393
-0.01115046 0.01058420
0.00563467 -0.00984839
0.00151879 -0.00974936
-0.00298603 0.01659112
0.00207479 -0.01747155
-0.01374613 0.02030931
-0.01104575 0.00271743
0.00944207 0.00010316
0.04230545 -0.00617317
-0.00169863 0.00351412
0.00708156 0.01725449
0.00849175 0.02085979
0.00609280 -0.01473723
0.00034046 0.00522129
-0.00687936 0.00444573
-0.02098242 0.01001554
-0.00175994 -0.00503912
0.00029124 0.00855934
-0.00709118 0.01165466
-0.01077408 0.00518388
0.01599241 0.00789897
0.02713849 -0.00354478
-0.02190810 -0.00067366
-0.02058035 0.00283104
0.00392523 0.02598426
-0.00343190 -0.01347277
-0.00217773 -0.00048760
0.00696517 -0.00940843
-0.02513403 -0.00994739
0.00483955 0.00350058
0.00048178 -0.01118178
0.00870680 0.01410992
-0.00325960 0.00884400
0.03345991 -0.01211465
-0.00858324 -0.01396364
-0.00203599 -0.00454079
-0.02181257 -0.00465429
-0.02972978 -0.01650418
0.00081610 0.00489596
-0.01723745 -0.00453729
-0.00279510 0.00341682
-0.01127129 0.01465923
0.01641117 -0.00984468
-0.00880981 -0.00055523
-0.01377072 -0.01445823
0.01006300 -0.02440728
-0.00469465 -0.01349189
0.01283831 -0.00115358
-0.00707551 -0.00208162
-0.01117655 0.02168612
-0.00125806 0.02685585
0.00768495 -0.02782927
0.01038505 -0.01311466
-0.01025996 0.00432089
-0.00775630 -0.00803373
0.02224755 -0.00325308
0.00089505 0.00423204
-0.01911687 -0.00965428
-0.02095038 0.01749613
0.00473168 0.00790803
-0.02013211 -0.01739026
-0.00672019 0.02323001
0.00649970 0.00372891
-0.00299428 0.00233110
0.00921167 0.01054103
0.01936021 -0.00532151
-0.01269240 -0.01920782
0.00143521 0.01109937
0.00801509 -0.00035673
-0.00875009 -0.00261597
0.02045060 -0.00366831
-0.02068043 0.00869017
0.00072494 0.00901521
-0.00409020 -0.01179515
-0.01419306 -0.00783383
0.00389154 -0.00313462
-0.00740459 0.00795152
0.02199667 0.00431312
-0.01524633 0.02262132
0.01830189 -0.00898215
-0.00746485 -0.00018057
-0.03280522 -0.02700363
0.01587636 0.00048828
0.00048955 0.00180845
0.00484634 0.00789428
-0.00526837 -0.00060018
0.00568662 -0.01612210
0.00205052 0.01434091
-0.01978765 -0.00866032
-0.01302168 -0.00392489
0.00141693 0.03030365
-0.00838170 0.04407182
0.02086419 -0.01476754
0.01843412 0.00542133
-0.00981904 -0.01553918
0.01673320 -0.00690752
-0.00160036 -0.01492535
0.00523404 -0.00595356
-0.01349790 0.00268614
0.01852187 -0.00884711
-0.01712306 0.01724477
0.03233501 0.00686025
-0.01071055 -0.01171713
-0.02234705 -0.01741773
-0.00297965 -0.00627090
-0.01735586 -0.00218679
-0.00862395 0.00529576
0.00329603 0.01069366
0.00510348 0.01563986
-0.00927016 -0.00217774
0.00394007 -0.01157381
-0.00523946 -0.01508094
0.02958464 -0.00803417
0.02160801 -0.02457518
-0.01746204 -0.01294449
0.01648629 -0.00426463
-0.00620074 0.01839781
-0.00420585 -0.00533499
-0.01571292 0.00067423
0.00496668 0.00747102
-0.02529233 0.00332016
0.01897731 -0.01020079
0.01141821 -0.01407367
0.00966820 0.00047760
0.00008445 -0.00721284
0.00747771 0.01473880
0.01033729 0.01997973
-0.02033775 0.01575877
-0.00200731 0.01385529
-0.02100795 -0.01978694
0.01244374 0.01679293
0.00798768 -0.00327157
0.00518778 -0.01197216
-0.00842442 0.01931218
-0.01298444 -0.01430942
0.00763454 -0.01238717
-0.00876092 -0.00890667
-0.01005313 0.01398817
0.02839656 -0.01128674
-0.00749462 -0.02136895
-0.00490558 -0.00072510
0.01117113 -0.01497324
0.01879311 -0.04607018
0.00698693 0.01473856
-0.02314066 0.01463873
-0.01899663 0.01225944
0.00209982 0.00650510
0.01452627 0.01720441
0.00246262 -0.02225972
0.02163191 -0.01414206
-0.03680922 0.00858837
0.01727977 0.01445480
-0.00887439 0.01800164
0.01006242 -0.01521987
0.00422933 -0.00283958
0.01257814 0.00638710
-0.00495136 -0.00372459
-0.02180208 0.00322606
0.00242902 -0.00272048
-0.02831353 -0.00626871
-0.00795969 -0.00023868
-0.00733536 0.01779872
0.01311356 0.00928491
0.00203735 -0.01346143
-0.01317393 0.00506811
0.03448267 -0.00874433
-0.01999449 0.01069345
-0.02070708 0.00532705
-0.01869901 -0.00344961
-0.00471338 -0.01418447
0.00618297 0.01133758
0.01766329 -0.00278060
-0.00268650 0.00044830
0.00811938 -0.01313660
0.00272080 0.01743383
-0.01078604 -0.02795647
-0.00262971 0.01015561
0.02659531 0.03201846
-0.02985949 -0.02970391
-0.00554870 0.02606507
0.01846109 -0.00398059
0.01255689 -0.00106997
-0.01353795 -0.00017805
-0.01916826 0.02927807
0.01390450 -0.01064415
0.00357701 0.00470786
-0.00598890 -0.02203279
0.00706582 -0.00473991
0.00227762 -0.00043450
0.02157428 -0.00671454
-0.04390528 -0.01320627
0.01104643 -0.00613429
0.00793116 -0.00389504
-0.00355671 0.00965933
-0.02196487 0.00698100
-0.02107311 0.00092561
-0.01217895 0.00823311
-0.01289233 -0.00876466
-0.00167124 -0.00707263
0.00898792 0.00061204
0.01242574 0.00089379
-0.00269652 -0.00604469
-0.02646590 -0.00315432
-0.02246865 -0.01729833
-0.00594371 -0.01166979
0.01258162 -0.00721046
-0.00504179 0.01701593
-0.00050997 -0.00094372
0.00523361 0.00722572
-0.02225169 -0.00570579
-0.01703441 0.01946953
-0.00801559 0.01639518
0.01395800 0.02016102
0.00486504 -0.01446644
-0.01043672 -0.01297789
0.01040548 0.03349561
0.01780669 -0.00953508
-0.00497376 0.02270233
0.00817437 -0.00082150
-0.00492771 -0.00781527
-0.02725068 0.00002652
0.02370785 0.00570973
-0.01491294 0.02689894
0.00491752 -0.00748623
-0.02420666 -0.01652207
0.02472290 0.00172871
-0.00047273 -0.00011375
-0.01026123 -0.01875471
-0.01107772 0.00679583
0.00612565 0.00875729
-0.01872090 0.02324208
0.01993389 -0.00178377
0.01712196 -0.00177828
-0.01667541 -0.00436673
-0.00807073 0.00021925
0.01837238 -0.02649689
-0.01211382 0.01892808
0.00093663 -0.01271457
0.00320417 0.01815922
0.00419201 0.00291566
-0.00103440 -0.01463882
0.00775400 0.01133432
0.01591520 -0.02180988
0.00458833 -0.00441431
0.00509425 -0.00010279
0.02434894 0.00394159
-0.00183861 -0.00682103
0.00129819 0.01227392
0.02066957 0.01204879
0.01017604 -0.01777230
0.00804328 0.02942192
0.00109899 0.00250962
0.02805164 -0.01260133
-0.01361579 -0.01152292
-0.00191782 0.00233065
-0.01070323 -0.00048507
-0.01583338 -0.01472396
-0.01563952 0.01761613
0.00099179 -0.00484744
0.02532606 0.00081578
-0.01070601 0.00353845
0.00008019 0.00518013
-0.00478029 -0.00919447
-0.01013363 -0.00832496
-0.00900559 -0.00951713
-0.00358644 -0.02461958
0.00691656 0.00729093
-0.00327550 -0.01362162
-0.00220146 -0.00209646
0.00238947 -0.00540667
-0.00578309 0.00439658
-0.00172680 -0.01147296
-0.02150898 -0.02051484
0.01390614 -0.00906833
0.00303151 -0.01199623
-0.00911652 -0.01268363
0.00317532 0.00280969
-0.00701913 0.03189459
-0.00126333 -0.01179059
-0.01532991 -0.00285460
0.00184287 0.00034187
0.00616828 -0.00969792
0.01284137 0.00323480
0.02377196 0.02246515
0.00249425 -0.00004796
-0.00163700 0.01041018
-0.01415703 -0.02206641
-0.00678573 0.00279215
-0.00216347 -0.00991623
0.00113277 -0.00957589
0.01021902 0.01355816
0.00592987 0.00220388
-0.02620394 0.00111152
-0.01876927 -0.00186012
0.00499244 -0.01347413
-0.01534617 -0.01325500
-0.00759389 0.01050455
0.01813991 0.02827461
0.01174261 0.02049594
0.00347282 0.02043405
0.00081737 0.00242057
-0.00417929 -0.01249753
-0.01306439 -0.00938258
-0.01481728 0.00518761
-0.00109571 -0.01380676
0.01529726 -0.01513716
0.00083747 -0.00478206
-0.01655637 -0.00089836
-0.00321367 -0.01197388
0.00285970 -0.00675325
-0.00362317 -0.01143547
0.00896115 0.01791484
-0.00058783 -0.01735929
-0.01932218 0.00005551
-0.01355764 -0.01404292
0.00197665 0.00995329
0.00028616 0.00161905
-0.01667230 0.00843830
0.00935063 0.00642010
-0.00828216 0.00597570
0.00286705 0.00123715
-0.02432511 -0.00239049
-0.01000720 0.03620538
-0.01209557 0.00326231
-0.01040790 0.00776942
0.01155130 -0.01028077
0.01959246 0.01168026
0.02301317 0.01655176
-0.01590880 0.01228697
0.00563611 -0.00274832
0.01012935 -0.00791521
0.02387756 -0.01198081
0.00182063 -0.01968893
0.01664797 -0.02773183
-0.02612250 0.01211388
-0.01666370 0.00030579
-0.02320565 -0.01012665
-0.00471719 -0.02443720
0.00995573 -0.01915817
0.01279416 0.02497365
0.02072066 0.00025504
0.00080383 -0.01187780
-0.00739540 0.00244201
0.03944701 0.01604083
-0.01452700 0.01342739
-0.00409957 -0.00522809
0.00850712 -0.00026941
-0.00036702 0.00687179
0.01521395 0.00122012
0.00203700 0.00767452
-0.01096056 0.00426960
0.01973820 -0.01985417
-0.00684926 0.02764747
-0.01210709 0.00501922
0.00206336 0.00475931
-0.01560290 0.00783078
-0.01108689 -0.00617519
0.00523160 -0.00936761
-0.00917072 -0.00219191
-0.00216416 0.00136238
0.01058031 -0.01086407
-0.00774159 0.00107391
-0.01335610 0.00748385
-0.00275614 -0.00553043
0.01061085 -0.01465958
-0.00063674 0.01252523
0.01069942 -0.02039174
-0.01832845 -0.00685678
0.00198844 -0.01628342
-0.01975850 0.01172632
0.00463902 0.02185396
0.01161598 0.01340235
0.00398509 -0.01598350
-0.01260371 0.00659721
0.00078151 -0.00653593
-0.01017995 0.00791650
-0.00237362 0.01049952
-0.01589660 0.01193625
0.00406314 -0.00239022
-0.00995199 0.02533827
0.01504063 -0.00403710
-0.01372227 -0.00187567
0.01037315 -0.00784391
-0.00774922 -0.01623106
-0.00156158 -0.01309232
0.00600556 0.00091707
-0.00648791 -0.00505732
0.00617316 -0.00546279
-0.00046181 -0.00382303
-0.01232705 -0.01818580
-0.00484094 -0.00821529
0.01509581 0.01610683
0.00024112 0.01631362
-0.00076747 0.00847085
0.00283547 -0.01092266
0.01384265 0.00836169
-0.01135403 -0.00914312
0.00372173 0.02717549
-0.00527256 0.03621463
0.00187957 -0.00010994
-0.00254963 -0.01765131
-0.00723739 -0.00621932
-0.00854014 0.02908873
0.00550968 -0.00523368
0.02186017 -0.01218523
-0.00646627 -0.00137810
-0.01658768 -0.00435399
-0.01015356 0.01258922
-0.00542182 0.00365292
-0.00439507 0.00608978
-0.00420044 0.04009485
0.00631442 0.00946100
-0.01285984 0.01766817
-0.01375989 -0.02498378
0.01683743 -0.00432483
-0.01006073 -0.01265904
0.00762586 -0.00308999
0.01088585 -0.02589260
-0.01468472 -0.00897168
0.01398673 0.02102614
0.02075487 0.02346395
0.00418099 -0.00446612
0.00903299 0.00256586
-0.00318010 0.00782458
0.01140589 0.01712598
0.01233443 -0.00658857
0.01175601 -0.00310104
0.00538367 -0.01372064
-0.00516659 0.00224578
-0.00057928 0.00721672
0.00259251 0.01504232
0.01391989 -0.00146316
0.00779549 0.00701955
-0.02251014 -0.00772821
0.00203683 -0.01115543
-0.01728495 0.02603902
-0.00901526 0.00452118
0.00139198 0.00367834
-0.01792249 -0.01721819
0.01557907 0.00681467
0.00183105 -0.00677047
-0.00643314 -0.00635374
0.02555151 -0.00085448
-0.01335812 0.00441092
0.01222786 -0.00555432
0.00556205 0.01126491
-0.00264712 0.01497312
-0.02822938 0.01391245
-0.01726522 -0.01284086
0.01465840 -0.01848845
0.00044367 -0.02369682
-0.00753946 -0.01164148
-0.00784262 -0.00998238
0.00096575 -0.01805145
-0.00198809 0.03063224
0.00591656 0.00126992
0.00027212 -0.00042222
-0.00014818 0.01546355
-0.01508888 0.01517477
-0.01145817 0.02244273
0.00129502 0.00984996
-0.00636357 -0.00238921
0.01749172 -0.01856679
0.00189396 -0.00515832
0.00152490 0.01668080
-0.00828133 0.02187352
0.00373657 -0.00691359
-0.01305317 -0.01806710
-0.02244153 0.00291125
-0.00015817 -0.01674075
-0.01276069 0.00838635
0.00441798 -0.01559895
0.00009423 0.01693355
0.01772732 -0.00134308
0.00415236 -0.01098170
0.00413726 0.01260270
-0.02655827 -0.00489435
0.01253770 -0.00175898
-0.02853786 0.01308842
-0.01877360 0.00837961
0.01464217 0.00460361
-0.01696785 -0.01694932
-0.01689845 0.00233708
-0.00357886 -0.02507175
0.00316313 0.00096636
0.02732342 0.00969651
-0.01537311 -0.00433583
-0.00504189 0.00379687
0.01223533 -0.00609819
-0.01418763 -0.00394057
0.01465919 -0.00684355
0.00702313 -0.01927110
0.01925381 0.01165806
-0.01409751 0.04133424
0.01952638 -0.00706985
0.00518118 0.00640361
-0.00761685 0.00575872
0.00420020 0.00601901
0.00258569 -0.01845938
0.01527293 0.00622283
0.01260205 0.00219961
-0.01626795 -0.00054246
0.01956169 -0.02072957
0.00495513 -0.02241941
0.02536121 0.02090046
-0.01206010 -0.01304007
0.01146713 -0.00521222
0.01710046 0.02389988
-0.00027946 0.01914238
0.00490548 -0.02131526
0.00447997 -0.00259261
-0.00266839 -0.02067050
-0.00855013 -0.01007972
-0.01513279 0.01672320
-0.00465638 0.00578614
0.03073356 -0.01091992
-0.01272102 -0.00455990
-0.01261994 0.00016871
0.01180325 0.01060560
0.01408314 0.03130180
0.00333630 -0.01262511
-0.00533105 -0.00925487
0.01001641 0.02114658
-0.01923050 -0.00718974
-0.01443088 0.00239697
0.00121262 -0.00034552
0.00116650 -0.00890308
0.01803303 -0.00574122
0.00112625 -0.01092767
0.00129962 -0.00956238
0.03413757 -0.00519575
-0.01956321 0.00689738
-0.00155421 0.00427855
-0.00229504 -0.01301340
-0.00424008 0.00578847
0.01628119 -0.00908144
0.00512095 -0.01129643
-0.00806186 -0.00642354
0.00076462 0.01016398
-0.00025634 -0.00516638
0.01506653 -0.01328714
-0.01091015 -0.00140547
0.00836578 0.01997592
-0.02050118 -0.01361600
0.01121610 0.00711016
-0.00428579 -0.00818447
-0.02556745 -0.00081822
0.00759305 -0.02242349
-0.00091063 -0.01009487
0.01200665 0.00691182
0.01161330 -0.00754094
0.00777155 -0.02253268
-0.00661363 -0.00275312
0.00126176 -0.01382801
-0.01225858 -0.01175203
-0.00190009 -0.01214709
-0.00147521 -0.00455167
0.00251709 0.01963916
-0.01427587 0.00236590
0.02602281 -0.00565484
0.00300352 -0.00294892
0.03054007 0.00570472
0.01854279 0.00558618
-0.01488541 -0.00840358
-0.00059596 -0.00175829
0.01207467 -0.00937343
0.00974744 -0.00489521
-0.01718282 0.00488306
0.01583657 0.02206561
-0.01358263 -0.00216659
0.01808085 0.01646579
-0.01000220 -0.00829762
-0.01645907 -0.00731475
-0.02006316 0.01346781
0.00977825 0.00776326
-0.02155688 0.01536714
0.01131876 -0.00736073
-0.00917103 0.01084496
0.03589777 0.00871564
0.00932967 -0.02285334
-0.00003191 -0.00931923
-0.01488933 -0.01334200
0.01870184 -0.01231700
-0.00179966 -0.01230762
-0.00165370 0.00857430
-0.01368555 -0.00554106
-0.02110760 -0.00918140
0.00262743 0.05540856
0.01230371 -0.00877800
0.00544819 -0.00592236
-0.01218270 -0.00936791
0.01892272 0.00586138
-0.02719949 0.00009760
0.00136490 0.01016643
0.01563858 -0.00023889
0.00732976 0.00991337
0.02112252 -0.02951462
0.00675836 0.00633284
0.00216654 -0.02625811
-0.00134743 -0.02585250
-0.01148490 -0.02877623
0.01902203 -0.01445505
-0.01272211 -0.00327141
-0.01790404 0.01133061
0.01223530 -0.02151116
-0.02070889 -0.00831874
-0.00348557 -0.00886334
-0.00654070 0.03643344
-0.03346645 0.03879233
0.00995169 -0.00239225
0.00031351 0.00491582
0.00631615 0.01276306
0.00235226 -0.01592418
0.01041455 0.00308477
-0.00758965 -0.00361415
-0.01634829 -0.01714572
0.02015267 0.01692993
-0.01500069 0.03514551
-0.00373665 0.00204809
-0.01795377 -0.02623482
-0.01245807 -0.00130442
0.01851516 -0.00006384
-0.01750392 0.01261050
0.00402567 0.00166292
0.02456491 -0.01662982
-0.00634570 -0.02752994
0.02173793 -0.02269402
0.00305360 -0.01407417
0.00184429 -0.01275449
0.01209616 0.01458870
0.00058368 0.00487150
-0.00587341 0.00575230
0.00154085 -0.00001827
-0.01134816 -0.01355932
0.00906534 0.01629705
-0.00636441 -0.00899518
-0.02781156 0.00569528
-0.00430192 0.01885641
-0.01128355 -0.02543756
0.00492214 0.01384537
-0.01210067 0.00187558
-0.00107672 -0.00276476
0.00459733 -0.00037740
0.02106765 -0.00041110
-0.03092984 -0.00567932
0.00808943 -0.00725982
-0.03193751 0.02391941
0.00358673 -0.00466970
-0.00413525 -0.00504847
0.01814737 0.00246514
0.00046017 0.00600591
-0.00316523 -0.01345879
0.00905065 -0.00391302
0.01053132 -0.01861638
-0.00326865 0.01054811
-0.03407280 0.00936603
-0.00966276 -0.01030518
0.00476240 0.00784123
-0.00312505 -0.00452604
-0.00458869 0.04749478
-0.01373760 0.00295922
0.00134756 0.00076780
0.00168644 0.01030250
-0.00627878 -0.01089242
0.01669242 -0.00133354
-0.02981502 0.01023881
-0.01407316 -0.00083533
-0.00793074 -0.01628261
0.01021380 -0.01435560
-0.00451726 -0.00574383
0.00828961 -0.01174401
-0.00287936 -0.00227525
-0.00984752 -0.01420426
-0.00710875 0.01519292
0.01328514 -0.00336036
0.03633135 -0.00471800
0.00137272 0.02213851
0.00216726 0.01588738
-0.00795341 -0.01396260
0.01473416 -0.02222681
0.00608246 0.00290595
-0.00602206 -0.02941830
-0.02550081 0.01072801
0.02272189 -0.03979595
0.02266872 -0.00923595
-0.01151411 -0.00114689
0.01199076 0.01028086
-0.00533134 -0.00058895
0.00845450 -0.00263678
-0.00173227 0.00326519
-0.00109814 0.00176099
0.01213906 -0.00328101
-0.00605410 -0.00055187
-0.02668822 0.01462662
0.00196193 -0.02044907
-0.01119604 -0.00839383
0.00556549 -0.01129668
0.01509366 0.03061039
-0.00010022 0.00680347
-0.03636639 -0.00483831
0.02034165 -0.02900651
-0.00175638 0.00542642
0.00329423 -0.00053124
0.02696335 0.01003267
0.01435585 0.00114481
-0.00886889 -0.00973443
0.00167547 0.00155291
0.01438652 0.01252135
0.02379684 0.01487069
-0.00896525 0.01272140
-0.01472665 0.00367063
0.00430671 0.02180367
-0.02172399 0.00026034
-0.00280314 0.00147042
0.02539675 -0.00801773
-0.02343473 -0.01635758
0.00311806 -0.00238481
-0.01169348 0.01575186
0.01016054 0.01613128
-0.01423497 0.00704321
0.01315075 0.00041734
0.02196776 0.01101823
-0.00236570 0.01096080
0.00078482 -0.00303950
0.02239167 0.01158960
0.01210992 -0.02078996
0.00331822 0.00035474
0.01869314 0.01099626
-0.00819141 -0.00423442
0.00139568 0.01710348
0.00357670 -0.02952044
-0.00474677 -0.00601258
-0.00570400 0.01358578
-0.00373995 0.00248521
-0.01282621 0.01158421
-0.00261744 -0.00212170
-0.01839153 0.00944596
0.00183876 -0.00027197
-0.01581308 -0.01720534
-0.00718456 -0.00710358
-0.00216426 -0.00283335
0.01655153 0.02569455
-0.02596479 0.00216748
-0.01941322 0.00244952
-0.01609178 -0.00263937
0.02210564 -0.00174325
-0.00880422 -0.00339205
-0.00154470 -0.00991054
0.02752627 -0.00369239
0.00449355 0.01853077
0.00927143 0.00537164
-0.01611734 0.01098022
-0.01712752 0.00769641
-0.02027917 -0.00995043
-0.00457287 -0.00149889
0.00601496 -0.01892382
0.00231673 0.00114018
0.04741771 0.00377683
-0.00129770 -0.01318089
0.00672906 -0.01945535
0.00716357 0.01147422
-0.01478726 -0.00679155
0.01643097 0.01285784
-0.00404927 0.01084533
-0.00455420 0.01303761
-0.00470659 -0.00139569
-0.01890526 0.02298051
-0.00805002 0.00640288
0.00281106 0.01666321
-0.01296507 -0.02865016
0.00046798 0.00406281
-0.01316218 0.00786671
0.00176884 -0.01197804
0.00491374 0.00456142
-0.00426680 0.00013159
0.02110899 -0.00197307
-0.03649201 -0.00541262
-0.01158589 0.01401320
0.00640201 -0.01456524
-0.02819404 0.02023985
0.02274381 0.01799418
-0.01272863 -0.00500934
-0.01377347 -0.00079541
0.00567092 -0.00828238
0.02313776 0.01100002
0.01915470 -0.00103958
0.01149295 0.00315593
-0.00458523 -0.01555458
-0.00606375 -0.00068160
0.02720189 -0.02429650
-0.00439449 -0.00550853
-0.00292599 0.00897380
-0.00173169 0.00305308
0.00900737 -0.00348923
0.00114126 0.00445040
0.00275208 0.01348557
-0.00314183 -0.00346757
0.01170553 0.01742152
-0.00701214 0.01402525
0.00423520 0.00060546
0.01423291 -0.00786180
-0.02054652 -0.00857569
-0.00079399 -0.00624726
0.01569982 0.01183979
-0.00989401 0.00633477
-0.01274722 -0.01240562
0.01253699 0.00576361
-0.00339012 0.00430771
-0.00044262 -0.00400332
-0.01364322 -0.00308272
-0.01634332 0.02878764
-0.00875673 -0.03083429
0.00535807 0.00784063
-0.00485146 -0.01052408
-0.00791572 0.02454061
0.00062431 -0.00344420
-0.00149068 -0.00748086
0.02054058 0.00844039
-0.01412810 0.01244089
-0.00446193 0.00845017
0.00481186 -0.01396820
-0.00050418 0.04722317
-0.03013775 -0.00035933
0.00284682 -0.00670381
-0.02493879 -0.05402847
0.03457341 -0.04144563
0.00283663 -0.00714175
0.00196557 -0.01787371
0.00157156 -0.01718374
0.00586778 -0.00085616
-0.00121916 -0.00252712
0.01727831 0.00517516
0.00866812 0.00108540
0.01291806 0.01676230
-0.00964211 -0.00928639
-0.00171339 0.00014986
-0.00237933 0.00325617
-0.02184732 0.00432052
-0.01285007 -0.00440650
-0.01129267 0.00660675
-0.00040526 0.02257540
0.01184077 -0.00631155
-0.01567070 0.00257790
0.00252907 -0.01564463
-0.00544439 -0.02143547
0.00652704 -0.00494184
-0.01071530 0.02606094
0.00130421 0.01058665
0.00403300 -0.00056402
0.00826954 0.01443707
-0.02598437 -0.01664021
0.01399874 0.00252887
0.00166031 0.01294132
0.00585885 -0.01105994
-0.02338264 0.01101265
0.00520928 -0.00435772
-0.01696691 -0.00798986
-0.02007972 -0.02101491
0.01193674 -0.00468163
-0.00586500 0.01075276
0.01997013 0.03839198
-0.01325830 -0.00529354
-0.01089571 0.00732152
-0.00202353 0.00725668
0.01587484 -0.00628557
0.01068109 0.03205554
-0.00066711 -0.01550593
-0.02027839 -0.00144462
0.00968020 -0.00877931
0.01010024 0.01559956
0.00060840 0.01461255
-0.01346064 -0.00663403
-0.01306897 -0.00346568
-0.00113897 0.00754387
0.02022882 0.00179763
0.01889874 -0.00515301
0.01207792 -0.00048944
0.00163415 -0.00115571
-0.01833645 -0.00240012
0.03015379 0.00604578
-0.01558386 0.00152866
0.02378498 -0.01731002
0.01559177 0.00810638
-0.00845590 -0.01647984
-0.00873739 0.00215524
-0.01173665 -0.01161675
-0.00197108 -0.01083614
-0.00417727 -0.01122119
0.01144105 0.01100474
0.00194799 0.00382075
0.00613435 -0.01339334
0.00592427 -0.00012456
-0.01215428 0.00500161
0.00455891 0.00904259
0.01659149 0.00129132
0.02845817 -0.02155600
-0.01538150 -0.01288938
-0.02162439 0.02224149
0.05655158 0.02612785
0.00310853 -0.00050027
-0.01106068 0.00095829
-0.02689503 -0.00210585
-0.00094022 0.00340535
-0.01719654 0.00809134
-0.01836392 -0.00259488
-0.01181109 0.01459828
0.00964228 -0.00296487
-0.00113004 0.01035228
-0.01564504 -0.00070568
-0.00659474 -0.02256405
-0.00247415 -0.01710419
0.02307317 0.01200247
-0.01071250 -0.00429759
0.00512573 0.00688695
0.00286239 -0.00352502
0.03031921 0.02513262
-0.00196538 -0.00287775
-0.03010725 -0.00140404
0.00700578 0.02403875
0.00478454 -0.01120972
-0.01324766 0.01651208
0.00510080 0.00092509
0.03344350 -0.02614517
-0.01331719 -0.00078486
-0.00600828 -0.01064509
-0.00683021 -0.00794013
-0.00808744 0.01989288
0.00082169 -0.00113735
-0.02275409 -0.01806962
-0.01360984 0.00483659
-0.00121727 0.00245009
0.01793001 -0.01027988
0.00946630 0.00453494
-0.00648417 -0.00050777
-0.00658474 -0.00266816
0.01628746 -0.00738236
0.02173518 -0.01328510
0.00216264 0.01811366
-0.00626858 0.00255872
-0.00393594 0.01310943
0.00993983 -0.02161654
0.00505439 -0.00641585
-0.01772503 0.00672279
-0.01062942 -0.01185478
0.00073298 -0.00202793
0.01168757 -0.00473090
-0.01886349 -0.00840433
-0.00284815 -0.00259547
-0.00175389 0.01729844
0.00419086 -0.01242509
0.00545887 0.00008040
0.00388695 -0.01557536
-0.01117861 -0.00053866
0.01006619 -0.00451996
-0.01103114 -0.01627636
-0.00198790 -0.03127549
0.02084971 0.00953757
0.02082705 -0.02279910
-0.00810510 -0.00792322
-0.00747889 -0.01190738
0.01987668 -0.02329259
-0.00999299 -0.00373340
-0.00686121 -0.00825922
0.01267648 0.00303101
0.02658485 -0.01018094
0.00458652 0.00344196
-0.00441580 -0.03339874
0.00360135 -0.01511535
-0.00118409 -0.01974182
0.00211499 0.00879113
0.00188806 -0.01783987
0.00922107 0.00457116
0.00898034 -0.00881005
0.00445014 -0.00184314
-0.00037952 -0.00845606
0.02223739 -0.02369787
0.01126300 0.00426178
-0.00499841 -0.01916909
0.01529577 0.00327720
-0.00374564 -0.00850177
-0.00701156 -0.00807999
-0.01093543 0.02124710
0.02333327 -0.01062966
-0.00605727 -0.00067591
-0.00121494 0.01310657
0.00118085 0.00055146
0.01556978 0.00483919
0.02022248 -0.02025088
-0.00652303 0.00465053
-0.00197625 0.00371081
0.00442427 0.00589761
-0.01156320 0.00731246
-0.01672743 0.00714865
-0.00803818 0.02011552
0.02080313 0.00539270
-0.01123207 -0.00395168
-0.01207577 -0.02050731
-0.00191015 -0.01101923
-0.02235761 -0.00461404
0.00504161 0.01076819
0.00679723 0.02396323
0.00598951 -0.00192966
0.02197529 0.01615072
0.01396702 0.01974364
0.00152853 0.01236791
-0.00559922 -0.02029364
0.01351600 -0.00445584
0.01223602 0.00545205
-0.02320157 -0.00090675
-0.00124511 -0.00938263
0.00358290 0.00850756
0.00423941 0.00357298
-0.00539628 -0.00619993
0.00205920 0.00741072
-0.01710991 0.01263178
-0.00067209 -0.00150401
0.03215856 -0.00137771
-0.00491678 0.01379565
-0.01478000 0.00168478
0.00232585 0.00216118
0.01530177 -0.01114719
0.00177099 -0.01184407
-0.01183875 0.00396179
0.00338905 0.01667593
0.01670005 -0.00981736
-0.00259086 -0.00674183
-0.00666183 0.00633336
-0.00785781 -0.01364073
-0.00251729 -0.02874342
0.02976220 -0.01556036
-0.03423737 0.01385536
0.00853071 -0.02081488
0.01408705 0.01465557
0.01843145 0.00283516
-0.00282487 -0.01216741
-0.00823307 0.00795323
-0.02690236 0.01382333
-0.00556871 0.01099668
-0.01118257 -0.00149889
0.01106600 -0.00291885
-0.00960599 -0.00266809
-0.00539994 -0.01461855
-0.01129796 -0.00769847
0.01174706 -0.01022341
-0.00295984 0.02513613
0.02110499 0.02714380
-0.01334655 -0.01899679
-0.00726151 0.00705299
0.00642015 -0.00347373
-0.02417548 -0.00670244
0.00734338 -0.00798657
-0.02390750 -0.02156335
-0.00174427 -0.02000251
0.01614803 -0.00834986
0.01618133 0.00958515
0.00127318 -0.00023962
-0.00207907 0.01730298
0.00778258 0.00151125
-0.01359802 -0.00651406
0.00285391 -0.00190279
-0.00843925 0.00337700
0.00244003 -0.00154094
0.01186705 0.02499193
-0.00476851 0.00148210
0.00533215 0.00377653
-0.01448517 0.00128396
-0.01109859 -0.00055399
-0.01418539 0.01053544
0.00183616 0.00373752
-0.00284785 0.01788868
0.00376812 -0.01906329
0.00284878 0.00435381
-0.02062861 -0.01176724
-0.00636119 -0.01644638
-0.00217495 -0.01548709
0.00941077 0.01721097
-0.00789862 -0.00306912
-0.00794537 0.00311601
0.00038785 0.01014187
0.02570017 -0.00542678
0.01204970 -0.01928790
-0.02056569 -0.01413307
-0.01975821 0.00658313
-0.00737879 -0.01478258
0.01460180 0.00830039
-0.01504359 0.00995826
0.02341626 -0.01190908
0.00356828 0.00061475
-0.00585151 0.00544817
0.02412930 -0.01309924
0.02230332 -0.02453517
-0.01159552 0.00978478
0.00771184 0.01212009
-0.01691463 -0.00336810
-0.00774046 -0.01546456
0.00037950 -0.00141262
-0.00045649 0.00119536
0.00719666 0.01787062
-0.00811682 0.00060735
0.02621936 0.00424158
-0.00442884 -0.03358285
-0.02511224 0.02287460
0.02119714 0.00554961
0.02185549 -0.00405959
-0.00155120 -0.00246075
-0.00440085 0.00133405
-0.02062220 -0.00084811
-0.00503907 0.01913635
0.00143971 -0.01035628
-0.02556943 0.00792140
0.00861456 -0.00006055
-0.01988953 0.00428772
-0.00568027 0.01506253
-0.00081834 0.01718652
0.00648491 0.01072165
0.00687001 -0.00702378
-0.01111332 0.00620677
0.00003686 -0.00587988
0.00380692 0.00015734
-0.01545480 -0.01090353
-0.02499084 -0.01020298
0.00181091 0.01669584
0.01266213 0.00295783
-0.00462694 0.00666527
0.02532400 0.00016580
-0.00981678 -0.00583445
-0.01948421 -0.00980314
0.00190565 -0.00280710
-0.01535636 -0.00756411
0.01306536 0.00370051
0.03083596 0.00557782
0.01576968 0.00582927
0.01953210 0.00114535
-0.00050346 -0.01535369
0.01177109 0.01145353
-0.03264531 0.00870622
-0.00437751 -0.01216970
-0.02069033 -0.03034323
0.00583124 0.00448551
-0.01658487 0.00905947
-0.00605334 0.02113524
-0.00573738 -0.00921306
-0.02301697 -0.00683912
0.02026409 -0.01167952
-0.00145503 -0.00355227
-0.00046808 -0.01028446
-0.00958338 -0.01463831
0.01804043 0.01603374
-0.01906717 -0.00430966
-0.00054396 0.01062424
-0.00504179 -0.01468945
0.00428950 -0.00510041
-0.00638260 -0.01132148
0.00234191 0.00640066
0.02041279 -0.00831580
0.00837156 0.02001070
0.00387961 0.01788492
-0.02120690 -0.00220343
-0.02017597 -0.00243139
-0.01075599 -0.02328195
-0.01821700 -0.00691513
0.02157806 -0.01060481
-0.00975263 0.02048212
0.04132211 0.01241448
-0.00527968 0.03124399
-0.01137227 0.00319562
-0.01427316 0.00107710
0.01027319 -0.03183847
-0.01065021 -0.00345002
-0.01673140 -0.01826946
0.00382896 -0.01152220
-0.01334140 0.01323222
-0.00071513 0.00458622
-0.00823080 -0.00677131
-0.00290562 -0.00081937
-0.00351627 0.02967187
-0.00178569 -0.00405386
0.00492174 -0.01342286
0.01784163 -0.02586853
-0.00735829 -0.01714304
-0.01149152 0.00537456
0.00576381 0.00082472
0.02376002 -0.03271703
-0.01081966 0.00760990
-0.00775760 -0.01817628
0.01166300 0.00698621
0.01957889 -0.02333215
-0.00885246 -0.00104685
-0.02211200 -0.00211588
-0.02716275 -0.00858805
0.00810300 0.01438436
-0.00749836 0.01362900
0.00382974 0.00633981
-0.00610305 0.00993418
0.00733612 -0.00957187
-0.00745038 -0.02208604
-0.02650408 0.00928078
0.00135091 0.00796480
0.03312911 -0.02256136
0.01756910 0.03222032
-0.00881322 0.01888104
0.02623358 -0.03137405
0.00757433 -0.00767143
0.01830713 -0.00337317
0.00179886 0.02205675
-0.01274267 -0.02852335
0.02019380 0.00903561
0.01121990 -0.01246752
-0.00050226 0.00057326
0.00015120 -0.00621974
-0.00494863 -0.00604670
-0.00117835 -0.02660091
-0.00636769 0.01075140
-0.00694960 -0.00779533
0.00121261 -0.01113473
0.00630177 -0.01594849
0.00906271 0.03221180
0.00385206 -0.01251113
0.02597840 0.01495154
-0.00852166 -0.02051131
0.02600606 0.01261930
0.01319650 0.01372773
-0.01346164 0.04135301
-0.00823985 0.01387935
0.01682199 0.00171840
-0.00554569 0.02936191
-0.01004362 -0.03292832
0.02169806 0.00313428
-0.00114691 0.02577643
-0.00386742 -0.02065592
-0.01884550 -0.00258206
0.00855781 -0.00682240
-0.03101888 0.00289338
-0.00060999 -0.02138286
-0.00419192 0.01018226
0.00331030 -0.00498491
0.01896612 -0.00529836
-0.01691508 -0.01967190
0.00182219 -0.01165356
-0.01673063 -0.01701953
0.01926458 0.00077854
-0.00025503 -0.00460859
0.00310134 0.01811290
0.01815574 0.00266967
0.00482636 -0.01277014
-0.02168140 -0.00575236
0.00457286 -0.00882882
-0.00846653 -0.03351177
-0.00378007 0.01128493
0.01265260 0.00882720
-0.00210103 0.00788574
0.00644148 -0.01194762
0.00354950 0.00464571
0.00861572 0.01381431
0.00436978 0.00955557
0.00620737 0.02034293
-0.01433391 -0.00895117
0.00232115 -0.00028911
0.00802168 0.01471575
-0.00110643 0.00094966
-0.00874880 -0.02681109
0.00409510 -0.01149170
0.00140164 0.02571421
-0.01119432 -0.00729412
-0.01345828 -0.01093306
0.00431206 0.01567337
-0.01242332 0.00333310
-0.01226874 -0.00518356
-0.02284469 0.00151016
-0.01048817 -0.02465027
0.01462279 0.01048192
-0.01168978 -0.00753663
0.00945799 0.00849332
-0.00213864 -0.00894472
0.00923927 -0.00511743
0.02004438 0.00733899
0.01471628 -0.01561763
0.00179539 -0.00641184
0.01200591 -0.01408051
0.01017974 0.02026568
0.02275920 -0.00446987
-0.02949570 0.00395391
0.00879805 0.02814228
0.01051467 -0.01497239
0.01322017 0.00178966
0.00660472 -0.00958674
-0.00044358 0.00603528
0.01694834 0.00486303
0.01428340 -0.00757376
-0.00037458 -0.00222423
0.01634415 0.00182730
-0.00251761 -0.00086957
0.00217552 0.01190318
-0.01785308 0.00986947
0.00296888 -0.00449286
-0.00309070 -0.00269729
-0.01021060 0.00595934
-0.01744784 0.00990906
0.00278534 0.02308171
-0.00480160 -0.01239058
-0.01992863 0.00138482
0.00782528 0.01816743
0.00359710 0.00115664
0.00109419 -0.01624393
-0.02183459 -0.02660990
0.00761626 0.03257866
0.01170471 -0.01200400
-0.01113334 -0.00625657
-0.00071062 0.01712170
-0.00339341 0.00775977
-0.03711400 -0.01968203
0.02313383 -0.00534300
0.01263368 0.01254025
-0.02243863 -0.02809026
0.00540476 -0.00688544
0.00749574 0.01239244
0.00906412 0.00352242
-0.01548896 0.01120435
-0.01446769 0.00222985
-0.01307398 0.00676081
0.01852603 -0.01351951
0.01398290 -0.00235801
-0.00933868 -0.01740539
0.00307675 -0.01816998
-0.01792803 0.00173644
0.00060976 -0.00795861
0.00302483 -0.01043641
0.00254238 0.01717690
0.01710165 0.00524542
-0.00444517 -0.00710139
-0.00008829 -0.01051406
0.02419863 0.00043044
-0.01208980 -0.00178063
-0.02024482 0.00148308
-0.01387997 0.03149411
-0.00514918 -0.01663627
-0.02862157 -0.00839802
0.02098713 -0.01485256
-0.00795745 -0.00693944
0.01506430 -0.00548564
0.00079615 -0.02967971
-0.02341050 0.00145059
-0.00143164 0.00515604
-0.00960824 0.01128996
0.02241305 0.01545394
-0.00740756 0.00217304
0.02064000 -0.00632212
0.00445778 -0.01031358
-0.01689558 0.00486966
-0.00701536 -0.00302486
-0.01155958 -0.01586202
-0.02058178 0.02195190
0.00870844 0.00027708
-0.02295652 0.01899466
-0.00187466 -0.01213435
-0.01110671 -0.00841921
0.00844434 -0.01485444
-0.01269060 0.00518061
0.00957920 0.01388209
-0.03241013 -0.00116531
-0.01753491 -0.00668990
-0.01221098 0.01050710
0.00456285 -0.01912989
-0.01153373 0.00214975
0.01437034 -0.00707927
0.00140562 -0.00060507
0.01188937 0.01488390
-0.00222751 -0.01634390
-0.01373120 -0.03468996
0.00740288 0.02759364
-0.00085888 0.00302896
0.02377579 0.00349603
0.00439919 -0.01643457
-0.00243878 0.00954235
-0.01338192 -0.01830619
0.01977436 -0.00378888
-0.01091833 0.02280210
-0.01241552 -0.00009696
0.01068247 0.01702963
0.01559571 -0.00350649
0.00607030 0.01212761
0.00515158 0.01592104
0.00382996 0.00704565
-0.00560861 -0.01287274
-0.01779310 -0.00476335
-0.00405096 -0.00922171
0.00109983 -0.01333528
-0.00103305 -0.01149845
0.00693575 -0.00663658
0.00304442 0.01036029
-0.01792968 -0.02686611
0.01177104 0.00189848
0.00347095 0.01077490
0.00149063 -0.01824800
-0.00608660 0.00402163
0.00562145 -0.00116796
-0.02051934 0.00739511
0.01658186 0.00301070
0.00398496 -0.02596989
-0.02849555 -0.01049123
0.00704941 -0.00795866
0.00934004 0.00702813
-0.01521144 -0.00078910
-0.01959139 0.00354846
0.00542223 -0.01819052
-0.01573384 0.01138264
0.00846189 -0.00620733
0.00675286 0.01529425
0.01196425 -0.00735718
0.00167530 0.00177032
-0.00517305 -0.01027154
0.01694221 -0.00391994
-0.00393904 -0.01336517
0.01512192 0.00483616
0.04145146 -0.00363972
0.01662267 -0.00277691
0.00311797 0.01117429
0.01682454 -0.00826654
0.00654478 0.00042029
-0.00881970 -0.00898898
-0.00103683 -0.02178612
-0.00716570 -0.01489157
-0.00956237 0.01045362
0.01326209 -0.01088878
0.02916257 0.02276961
-0.01731142 -0.02803748
-0.02464502 -0.01411068
0.01846891 0.03933192
0.00249953 0.00207183
0.01426931 -0.01335616
-0.00116592 -0.01574899
-0.01508840 -0.00878371
-0.00845092 0.01870369
-0.01775889 0.01845135
-0.00267011 0.00563774
0.00818825 -0.00277481
0.01900502 0.00175845
-0.00387536 -0.00054323
0.00150264 -0.00448271
0.01273869 0.00945855
0.00308459 -0.01110314
-0.00373985 0.00128681
-0.00812970 0.00518451
-0.00597505 -0.01944962
0.00624201 -0.00289466
-0.00168957 -0.00814843
-0.00483137 0.00465244
0.01506956 0.00412168
0.01569344 -0.01393705
0.03160260 -0.00305042
0.02727959 -0.00779851
-0.02296351 -0.00826243
0.01144418 0.01077627
0.00300927 -0.01928046
-0.00527431 -0.02693173
0.00640432 0.00521325
-0.01039388 -0.01469375
-0.01308171 0.00181785
-0.02141482 0.01108682
-0.00416192 -0.00501823
0.00063695 0.00676988
-0.01818794 -0.00720997
-0.00344642 0.03192328
0.01142689 0.01073112
0.00459168 -0.00969708
0.00730568 0.02055244
-0.02598424 -0.00173395
0.02303160 -0.00287202
-0.02359387 0.01834399
0.00115466 -0.00610911
0.02498343 0.01460129
-0.01565759 -0.00718194
-0.00963306 0.00721121
-0.01385746 0.00679564
0.01352586 -0.01305939
-0.01504755 0.00171732
0.00855538 0.00372180
0.02597602 -0.02761185
0.00440142 0.00620238
-0.03368735 -0.02746047
0.01134837 0.01537179
-0.00317931 0.02133820
0.01235636 -0.00232696
-0.00230632 -0.00310425
-0.01764952 0.00348373
-0.00437440 -0.01526129
-0.00563656 -0.01284477
0.00130585 -0.02844217
-0.02489796 -0.00398120
-0.01143269 0.01327319
0.00723643 -0.01299404
-0.00004491 -0.00397183
0.02606202 0.03207930
0.00217063 0.00899403
0.00826539 0.00553775
-0.00761253 -0.01339357
-0.00807118 -0.00891524
-0.01217130 -0.03183950
0.01709061 0.00014035
0.00814489 -0.02070386
-0.01141494 -0.00418036
-0.01557104 -0.00973671
0.00314006 -0.01899519
-0.01829397 -0.00574920
0.00563088 0.01603374
-0.00198886 -0.02124499
0.00343948 0.00461025
0.00378745 0.01602803
-0.01319588 0.00227240
0.00847495 -0.01223938
-0.01364471 0.01922992
-0.01178747 0.00875628
-0.00140502 0.00743349
0.02248979 0.01222398
0.00524723 0.01714544
0.00067136 0.03184666
-0.00686409 -0.01574638
-0.00151059 -0.03286642
-0.00941074 0.00737957
0.00014298 -0.02319711
-0.03358334 -0.00573172
0.00457653 -0.00945032
0.02051832 -0.01167275
-0.01351405 0.00220578
-0.01114669 -0.01111121
0.01494254 -0.01148921
-0.01075962 -0.00919327
0.02597982 -0.00881937
-0.00174738 -0.01406342
0.00871531 0.02357886
-0.00419936 -0.00575121
0.00585350 -0.01357258
0.00047579 -0.00310866
0.01126456 0.02155119
0.01934171 0.02036530
0.00153511 -0.01817946
0.00210043 0.00027382
0.00631778 0.02326340
-0.01844431 -0.00136385
0.00120133 -0.00528435
-0.00155861 -0.01967256
0.00211691 -0.01488308
0.00506074 0.00787885
-0.00228970 0.01081300
0.00379013 0.00722870
0.00768745 0.00479878
0.00339577 -0.01550409
-0.01931616 0.01982312
0.00287572 -0.01651435
0.01356852 0.00963815
-0.01706877 0.00245648
0.02097100 0.00637220
-0.00754095 -0.01075926
-0.00555251 -0.01444400
-0.03307102 -0.00590687
0.00240267 0.01769900
0.00566325 0.02438647
0.02089401 -0.02427623
-0.00196401 -0.01908270
-0.00276311 -0.01919122
0.00439056 0.00222123
-0.00145150 -0.01882737
0.00594286 0.00772709
0.00446041 0.00814765
-0.02123586 0.02606828
-0.00411761 0.00051733
0.02115002 -0.00551770
-0.00663626 0.01417467
0.00007631 0.00141849
0.02293354 -0.01314059
-0.00311142 -0.00706808
-0.01878257 -0.01645022
0.03343369 0.00215843
-0.01556838 0.02255050
-0.03258988 0.00793847
-0.00893976 -0.00417738
-0.00376632 0.00201615
-0.00902099 -0.01673163
0.01576640 0.00377438
0.01172716 0.02765600
0.00617811 0.01646673
-0.01406338 0.00202814
0.00902688 0.01277119
-0.02219173 0.00591774
0.00437916 -0.00573666
-0.00565221 0.02921160
0.00024749 -0.00356003
-0.01566751 -0.00872599
-0.01329829 -0.01376371
-0.00477125 -0.01329438
0.01139578 -0.02528789
0.01307153 0.00884936
0.00499405 0.01546935
-0.01474263 -0.00011608
-0.01064306 -0.00968071
0.02290738 -0.01998351
-0.00929577 0.00205674
0.00805198 -0.01238969
0.00384889 -0.00234754
0.00875434 0.00100692
-0.00075070 -0.01241764
0.00868117 0.00421658
0.00589912 0.00600993
-0.00929835 0.00776610
-0.00865362 0.00193255
0.00792693 -0.02234692
-0.00066395 0.01657120
-0.01107046 0.00759664
-0.01415627 0.00055931
0.00214529 -0.00675203
-0.01018031 -0.01899933
-0.01581103 0.04576292
-0.00542328 -0.02017778
-0.00536907 0.00097098
0.01500550 0.00169963
-0.00092152 -0.01808862
-0.00634022 -0.00185353
-0.01777664 -0.00559627
0.00091596 -0.02215874
0.01837864 0.00523835
-0.01113125 0.01297558
-0.00661145 0.01306386
0.00409264 -0.01129289
0.00336963 -0.02001696
0.02634278 -0.00551119
0.00572222 0.01048547
0.01307282 -0.00703872
-0.00309361 -0.00709356
0.00484223 -0.02052317
0.00723701 -0.00631887
-0.00181436 -0.00839219
0.01866843 -0.00984078
-0.00389506 -0.00610222
-0.02096893 -0.02412817
0.02030087 -0.00513925
-0.00259877 -0.00563172
0.00296753 -0.01688998
-0.01452895 0.00575316
-0.00769161 -0.00196792
-0.01272801 -0.00179104
0.02126749 0.01064285
0.00190426 0.02032444
-0.00589528 -0.01295839
-0.02277006 -0.01584205
-0.00652994 -0.01757392
0.00619130 -0.00282737
0.00375558 0.01260116
0.00118996 -0.01690442
0.00479038 -0.01580655
0.00037913 -0.00107397
-0.00611134 -0.01347328
-0.00957235 -0.00680639
-0.00794367 -0.00356933
0.02257240 0.00572187
-0.00923484 -0.00564902
0.01391398 -0.01210689
-0.00217292 0.02489927
0.00993347 -0.00216176
-0.01805320 -0.00111532
-0.01019136 -0.01539118
0.00124934 -0.01898247
-0.00278970 0.00045405
-0.00889869 0.01787181
0.01599023 -0.00357333
-0.00598077 -0.00939024
-0.01711703 0.00334257
-0.00128408 -0.01075782
-0.01970682 0.00006568
-0.02372229 -0.00930403
0.00060760 0.00594357
0.00971201 0.00095627
-0.00463415 -0.00983609
0.00081744 -0.01451438
-0.01124923 -0.00499314
-0.01200559 -0.01578732
0.00755415 -0.00843042
0.00919385 0.00818291
-0.00337922 -0.01659977
-0.00873648 -0.00357449
0.00268551 -0.00398069
-0.01334968 -0.02162862
-0.00129587 0.00533544
0.00073413 -0.00941703
-0.02965292 -0.02050531
-0.00225899 -0.00440155
0.01388970 -0.02629194
0.01199260 0.03294215
-0.01189792 -0.02041468
0.00989024 -0.00765267
0.00014448 0.01760325
-0.01661233 -0.01102227
-0.00417668 -0.01266523
0.00050188 0.00040287
0.01928383 0.01019912
0.00509029 -0.00677854
-0.00928288 -0.00213757
0.00972344 -0.00098800
0.00382214 0.00042530
0.00780340 -0.00964286
0.00725858 0.01824258
-0.01210498 0.00276259
0.01065331 -0.01708108
0.01637295 0.02743201
0.00294483 -0.01284056
-0.03870194 -0.00234917
0.02085372 0.04313911
-0.00563774 0.01112636
0.01987550 -0.00291514
-0.00488917 -0.01002820
-0.00881803 -0.00547929
-0.01379520 0.00537169
-0.00121776 0.01761820
0.00213930 -0.01307403
-0.00479298 -0.01017230
-0.00074201 0.00235222
-0.01821720 0.01331804
-0.00943899 -0.00736660
-0.01282757 -0.01434238
0.00195062 0.00259925
0.00272529 -0.01220394
0.02305710 0.00057252
-0.01200195 0.01289839
-0.02070316 -0.00232644
0.01029505 -0.00088224
0.00686640 0.01040021
-0.01690996 0.01485308
-0.03302338 0.00864972
0.00198144 -0.00444655
0.00344563 -0.01259073
0.00863108 0.00663648
0.00099482 0.01504756
0.00344154 0.03131444
0.00954041 0.00418450
0.00335930 0.01905002
-0.00994371 0.00044628
-0.00702935 0.01342515
0.00060051 0.01081246
0.01682978 0.01323181
-0.00654229 -0.00901800
0.00399544 -0.00074259
0.00328238 -0.01430636
0.01663570 -0.02486549
-0.01482092 -0.01493915
0.01758011 -0.01197586
0.00112006 -0.01277906
0.00033176 0.00148665
0.01381100 0.00403246
-0.00469592 0.01579277
0.03667696 -0.01993234
-0.02464385 -0.01495596
-0.02235861 0.00139875
-0.01265552 0.00352613
0.00906827 -0.00363809
-0.01162426 -0.01087628
0.02167150 -0.00810647
0.03426632 -0.00688910
-0.00201755 0.00298064
-0.00819664 0.01007343
0.01104160 0.01841910
0.02610999 0.00338401
0.01450982 0.00163228
-0.00214477 0.00511036
-0.00090271 -0.00546286
-0.00533174 0.00532112
0.01896635 0.00033654
-0.01380778 0.00581239
-0.00857443 0.02586979
0.00095482 -0.00377454
0.01661896 -0.00403861
0.00625272 0.00119303
0.00573672 0.04358920
0.01939823 0.00404041
-0.03755524 -0.01439898
0.00940782 0.00185273
-0.01576941 -0.02373645
-0.00816466 -0.01758814
0.01067999 0.00057230
0.00737600 0.00062312
0.01244743 -0.00240201
0.01180762 -0.00271748
0.01490557 0.01535348
0.00029650 -0.03492667
-0.00260372 0.00609834
-0.00171184 0.03731132
-0.00371739 0.00045409
0.01647874 -0.00979102
-0.01678600 -0.01170414
0.00776346 -0.02103213
0.01282829 -0.00857059
0.00810595 0.00047688
-0.00240253 0.00738199
-0.00876412 -0.01278681
-0.01013179 0.00118907
-0.00425487 0.03989971
0.00917780 -0.01284313
0.00951781 -0.00337145
-0.01238492 -0.00332055
-0.02238507 0.00926882
-0.03017494 0.00654863
0.01901728 -0.01236099
0.00920820 -0.02486520
0.02257248 -0.00660727
0.01714223 0.01418154
-0.00388961 -0.00380819
0.01061562 0.00328411
0.00575769 0.00989737
-0.02101232 -0.01088393
-0.01445885 0.01643959
0.00208215 0.01165087
-0.02165259 0.00075775
-0.01868962 -0.01121345
0.01047959 -0.00163038
0.00103925 0.00816039
0.00561198 -0.01625629
0.00452923 0.03532520
-0.01389304 0.00255974
-0.00674853 0.01170698
0.00990255 -0.03020165
-0.03025618 -0.01458472
-0.01280116 -0.00005905
0.00114438 -0.01760446
-0.00268053 0.00032571
0.01240129 -0.01419819
-0.00412125 0.00113628
-0.01384405 -0.00861246
-0.00921617 0.01358171
-0.01454004 0.00427716
-0.00557045 0.00887062
0.01119281 0.02550643
0.00301672 0.02653510
-0.01893310 -0.01373367
-0.00987990 0.02809328
0.00479135 0.00337842
0.03096587 -0.00521999
-0.00721699 -0.01612861
-0.01004799 0.00484210
0.00926869 0.00253347
-0.01096904 0.02437085
0.01380200 -0.00224363
-0.00917783 0.01976427
-0.00875903 -0.01270291
0.00506369 -0.00791315
0.02891301 0.00960315
0.00224729 -0.00366625
0.00938800 -0.01526105
-0.00382837 0.00932472
-0.03669731 0.01034006
-0.02067092 0.01438215
0.00095096 -0.01457981
-0.01292803 0.00305120
0.01150348 0.00826901
0.00326924 0.03228045
0.01943155 -0.00783912
-0.00002442 0.00194681
0.00363502 -0.02968964
0.03295202 0.02372488
-0.01123472 -0.00343603
0.00238134 -0.01744666
-0.00746882 -0.00950113
-0.00743232 -0.00139641
-0.00163208 0.01214090
-0.01203637 0.00227016
-0.00521565 -0.01003589
-0.01128828 -0.00498076
0.00862506 0.00932545
0.00854035 -0.00975671
0.00629950 -0.01519266
0.02826057 0.01218861
-0.02313520 -0.02515803
0.00770154 -0.01076172
0.01072159 -0.01707930
-0.02595356 0.02810510
-0.01671313 -0.01076645
0.00078892 -0.00378105
-0.00666762 0.00677385
0.00823803 -0.01048262
0.00797003 -0.00358288
0.02888612 0.02197934
0.00105666 -0.00579540
0.00124531 0.00583732
0.00630589 -0.01613390
0.01313648 0.03689629
-0.01071586 0.00500740
0.01302646 -0.00703379
-0.00343554 -0.00893768
-0.00027167 -0.00024615
-0.01070359 -0.01136142
0.01150489 0.00337652
-0.02099310 0.00941901
0.01323512 -0.00573230
-0.01650027 -0.00686666
0.00083857 0.00715406
0.01322840 -0.00152131
-0.02790103 -0.00322337
0.01414930 0.00181907
-0.00118203 -0.04147220
-0.01188082 0.01718308
-0.00184013 0.00018371
-0.00849031 -0.00767616
-0.00239949 -0.02182910
-0.01267148 0.02263525
0.01435361 -0.02518893
-0.00452384 0.00130566
-0.02003806 -0.02368402
0.00465155 -0.02336064
-0.00831238 0.00302951
0.01213003 0.00331467
-0.00857910 0.00112650
-0.00280278 0.01258173
0.00411689 -0.00724639
0.02336788 -0.00360681
-0.00144209 0.01468227
-0.00716428 -0.01178391
-0.00831621 0.01508382
-0.00019741 0.00104358
0.00241008 -0.00881167
0.00324283 0.00867533
0.00194347 0.01795358
-0.02971067 -0.00125909
-0.01542912 0.00171637
0.00008579 0.01026576
0.01069149 -0.00327655
-0.00170923 -0.00519061
-0.01389122 -0.00838276
-0.00209683 -0.00507707
0.02042414 0.01408474
-0.00413037 0.01663346
-0.00392858 0.00685329
0.00415940 -0.01520208
0.01695881 0.00377497
-0.01206932 -0.02230313
0.01469291 -0.02439474
0.02925579 -0.00501470
-0.01006353 0.02308389
-0.01278575 0.02331539
0.00047876 -0.01590308
0.01558550 -0.01110703
0.01434347 0.00698774
0.01234354 0.00810003
-0.00075055 -0.01253439
0.00153620 -0.01358021
-0.00897908 0.02032991
-0.01273809 0.00649882
-0.00982183 -0.01153702
-0.00689976 -0.00378936
0.00077406 -0.00855052
-0.00928556 0.00237248
0.01335423 -0.00341125
-0.00681016 -0.00027087
0.00058863 -0.00419152
0.01907570 -0.01285798
-0.00395091 0.00583435
0.02020340 -0.01760300
-0.00540498 -0.02033276
0.00749008 0.00961935
-0.00312820 -0.01774690
-0.01735514 -0.00194256
-0.00802618 -0.01508809
-0.02574788 0.00233547
-0.02782374 0.00094612
-0.00349671 -0.00037542
-0.01240170 0.00056713
0.00819766 0.00295070
0.00970085 -0.00180275
0.01652585 -0.00195131
-0.00718416 0.00017804
0.00395931 -0.01623514
0.03096353 0.00074200
0.00119788 -0.00590727
0.01458892 -0.02099952
-0.00058980 -0.01511512
-0.00310364 0.00239552
-0.00564558 -0.00546248
-0.00903415 -0.02920513
-0.00206703 -0.00534987
0.00464832 0.01459859
-0.00469561 -0.00536528
-0.00258335 -0.00998451
0.00827503 -0.01843815
-0.01964989 -0.00461005
-0.01397940 0.00463919
-0.01302372 0.00631472
0.00366913 -0.01843956
0.00545539 0.00133852
-0.00416367 0.00901090
-0.01127444 -0.00988062
0.00128132 0.04174544
-0.02224685 -0.01149905
0.01744534 -0.00034750
-0.03326143 0.02528961
0.01576432 0.00005982
-0.00320386 0.04006055
-0.00076210 -0.03038878
-0.00962360 0.00646813
-0.00182782 0.02329652
0.00144199 0.01238484
-0.00387680 -0.03071757
0.01793669 0.01288405
0.00074769 0.01486868
-0.00590616 0.00190946
-0.01604705 0.00233650
0.01286028 -0.00710041
0.00433909 -0.00689434
0.00211110 0.02252826
0.03454331 -0.00677353
0.02322213 -0.01971439
0.02038504 0.00153010
0.00037203 -0.01190069
0.01676629 -0.01072010
0.00220285 0.00863587
-0.00097428 0.00948201
-0.01111638 0.01285030
-0.00324469 0.00791534
0.00563789 -0.01519945
-0.02769161 -0.00025007
-0.01001997 0.00507637
-0.01058768 -0.01730662
-0.02434910 -0.00958831
-0.00860882 0.02717233
0.01226784 -0.00289571
-0.02316277 0.00768554
-0.01520289 0.03623608
-0.00689836 -0.01544857
-0.00427669 -0.00222253
0.01924717 -0.01676745
-0.01916720 -0.01738661
0.01634926 0.00207336
0.01531510 -0.01743419
-0.00367108 -0.00698057
-0.00804495 0.00061732
-0.00226292 0.01293803
0.00142138 -0.00533026
0.00422798 -0.01448908
-0.02452190 0.00306935
0.02611293 -0.00593768
-0.01559407 -0.01538911
0.01013377 -0.01966937
-0.01073827 0.01926391
-0.00960432 0.00361057
-0.00182213 -0.00848342
0.00253068 0.01739322
-0.00453958 -0.01291351
0.00592288 -0.00371602
-0.00043433 -0.01479227
-0.01340721 -0.02246739
0.00098522 -0.02872113
-0.00125992 -0.00422077
0.01384500 0.00624067
0.01299230 -0.00546041
0.01445587 -0.02473174
-0.00652319 -0.00812606
-0.00365354 -0.00608258
-0.00805677 0.01579755
0.01029079 -0.02475824
-0.00905377 -0.00135434
-0.00909315 -0.02534998
-0.00545059 0.00839118
0.01071160 -0.00528550
-0.00073946 -0.00352091
0.02287919 0.00152233
0.01621525 -0.00365296
-0.00566767 0.00452948
-0.00842343 0.01759882
-0.00259211 -0.00257359
0.01706657 -0.01898238
0.01334118 -0.02391054
0.02050956 0.00474802
-0.01589159 0.00361348
-0.01076304 -0.00226181
-0.02395366 -0.00528076
0.00586754 0.00634375
-0.01480059 0.02338221
0.01058506 -0.03244017
-0.00284008 -0.01421598
-0.01373048 -0.00443283
-0.01676841 -0.00184563
-0.00992988 -0.03085011
-0.00152451 -0.01084161
0.01495654 -0.01642028
0.02813021 0.00886686
-0.00395797 -0.01731704
0.00125759 0.00313976
0.01840192 -0.02364541
0.00179861 -0.00574518
-0.00166198 -0.01422107
-0.00311963 -0.00939952
-0.01709828 0.01761673
-0.00180566 -0.01372681
0.00069387 0.00640481
0.01685553 -0.01882241
0.00335447 0.01478759
-0.01020244 -0.00638683
-0.01132726 -0.00547884
0.01325226 -0.01225368
0.00415100 0.00553109
0.01171364 0.01472318
-0.00330336 0.01753518
-0.02385568 0.01407863
0.01293807 -0.00238029
-0.01691723 0.01395563
-0.00158733 -0.00423634
-0.01182278 -0.01470667
-0.00597442 -0.02096157
-0.02151932 -0.01423158
-0.00556382 0.01669044
0.02808291 0.00674871
-0.00758629 -0.00391643
0.03106821 -0.00376447
-0.01179101 -0.01272908
0.01425617 -0.01946951
-0.01842610 0.00586889
-0.00586870 0.01600605
-0.00458645 0.02988382
0.01168954 0.00334505
-0.00034627 -0.01286147
0.00356196 0.00591653
-0.01272858 0.00113005
0.00961963 -0.01013033
-0.00276504 -0.01601678
0.01350496 0.00265139
0.00815926 -0.00568575
0.00397585 -0.01458241
0.01559216 -0.01375322
0.00669681 -0.00601517
0.02142151 0.00933129
-0.02508627 -0.01222311
0.00174719 -0.01554740
0.00877029 -0.01021228
0.00335197 -0.02201472
0.02634875 -0.02374347
0.00318547 0.00793199
0.00826259 -0.00716944
-0.02025951 -0.01815668
-0.00580991 0.00691585
-0.00541726 0.02536825
0.01526868 -0.00854016
-0.01189141 0.00637028
0.00548612 0.01380208
-0.00699655 -0.00960198
-0.00764012 -0.01247696
0.00212193 -0.00365712
-0.00225333 -0.00487103
-0.02105155 -0.00943566
0.00082584 -0.02234771
-0.01226134 0.00302871
0.00337100 -0.00278723
0.02773190 0.01333192
0.00359767 -0.00900087
-0.01037411 -0.00111675
-0.00601104 -0.00519350
0.01922528 0.01378789
-0.00673870 0.00604927
-0.02707257 -0.00824254
0.00555274 0.00343370
-0.00221525 -0.03696607
0.02435192 -0.00102806
-0.00612463 0.03804558
0.00025011 0.00413064
-0.00355954 0.00804057
0.01903112 -0.00166657
-0.00094414 -0.00243745
0.01851775 -0.01951509
-0.02534908 -0.01612602
0.00296817 -0.00528532
-0.01152744 0.01721827
-0.00806756 -0.01314946
0.02507276 0.00847125
0.00825419 -0.00357602
0.00287987 -0.00607692
-0.03443555 0.00187547
-0.02364622 0.00894876
0.00633949 0.00017414
-0.02017762 0.01931874
-0.01889955 0.00084850
-0.00753664 -0.01342270
-0.00732486 -0.00883997
-0.00514712 -0.01303118
-0.00384107 0.00464659
0.00376296 -0.01545003
0.03063290 -0.00411361
-0.00981075 -0.01611213
0.00372780 -0.00254516
-0.00729359 -0.00647959
0.01346156 0.01948157
-0.00472767 0.02344879
0.00266332 -0.01133123
0.01749977 0.02173696
-0.01432761 0.00368343
-0.01344114 -0.00166213
0.00970147 0.00493918
-0.00241185 0.01278561
0.00573262 -0.00853898
-0.02034617 0.00052488
0.00636280 -0.00780344
-0.02049208 -0.00660848
0.00377761 -0.01188994
0.00298137 -0.01741475
-0.03384677 -0.01756810
0.00131401 0.00395046
-0.00283218 -0.00686476
-0.01911993 0.00003264
0.01655238 -0.00983885
0.02197527 0.00770751
-0.01342455 -0.01896513
-0.00765635 -0.01845963
-0.00334921 0.01666368
0.00204791 0.01666851
-0.00874002 -0.02072033
0.00805245 -0.00163784
-0.00146496 -0.00539411
-0.01687497 -0.00620858
0.00997452 0.00021159
-0.01114815 -0.00621220
-0.01483130 0.02645357
-0.01397780 -0.00223768
-0.00975568 -0.00119540
0.01474318 0.00010458
0.00954760 0.00263935
-0.01073976 0.01157115
-0.01743890 -0.03259527
0.00279119 -0.01384166
-0.00099866 0.00798806
-0.01108038 0.00813589
-0.00298748 -0.00570201
-0.01749173 -0.00637041
0.01214815 -0.02820098
-0.00686302 0.00240123
-0.00567388 -0.01181253
-0.00787376 0.00092285
-0.00424927 -0.00207255
-0.00605372 -0.00014902
-0.01307883 0.02128021
-0.00663962 -0.01135666
-0.00103296 0.02418081
-0.00182066 0.00301103
0.00170481 -0.02735773
-0.02641716 -0.01075574
-0.01631695 0.02725282
-0.00911798 0.01883894
0.00492533 0.01233442
0.00472117 -0.00794275
0.02084227 -0.00628856
-0.03130796 0.02317709
0.00970171 -0.00288600
-0.01912556 0.00870939
0.01102385 0.00546242
-0.01223798 -0.02115156
-0.00765023 0.00233075
0.00457529 -0.01615922
-0.00236642 0.00802481
-0.00333634 0.01189498
0.00883577 0.00202473
-0.01743523 -0.00236927
0.00686341 -0.00322511
0.00869580 -0.00646196
-0.00376551 -0.01131655
-0.00534360 0.00087442
-0.00299903 -0.00263304
-0.00340327 0.00377256
-0.02335298 0.00157058
-0.00029743 0.03511691
0.00867169 -0.00360156
-0.00050695 -0.00324464
-0.00936308 -0.01259631
-0.00420182 0.00148752
-0.00308038 -0.00687666
-0.01298060 -0.00346013
-0.00864799 0.01351359
-0.00833186 0.00770867
0.02750346 0.02540035
0.00642709 -0.00493971
-0.02127867 -0.00224265
0.04845506 0.00383345
-0.00337064 -0.01268402
-0.00888382 -0.01378338
0.03064420 -0.00377801
-0.00451340 0.01378465
-0.02588945 0.03110344
0.00839631 -0.01424151
-0.01409300 -0.01380228
0.00058055 -0.02802573
-0.01551910 -0.00862826
-0.01134908 0.01071997
-0.00292813 0.00386432
0.00179855 -0.00285355
0.01019144 0.01152009
0.01720609 -0.00655975
-0.00611915 0.01029545
-0.01530171 0.01850978
-0.02885921 -0.01582133
0.00980453 0.01679208
0.00828725 -0.02523777
0.01935101 0.00536379
-0.02830971 0.00493448
0.00215124 0.00165931
0.00865644 -0.01040759
-0.01342055 -0.00418113
-0.01246239 -0.00302046
-0.01875312 -0.01811256
-0.00583120 0.02113014
-0.02027947 -0.00988599
0.01470133 0.02271629
-0.00519569 -0.00397348
-0.01543619 -0.01825403
-0.00821763 -0.01646878
-0.00948508 0.00403011
-0.01569722 0.01801512
-0.00165259 0.00291730
0.00619937 0.00281952
-0.00710263 -0.00221520
0.02554068 -0.02083569
0.00868706 -0.03496826
0.00508519 -0.00312137
-0.00765576 -0.01387579
0.00748375 -0.02334296
0.00904742 0.02409371
0.02363245 0.01013338
-0.02002119 0.00024214
-0.00768705 -0.02049171
-0.00651356 -0.00312160
-0.01114710 0.00663543
0.00243561 -0.01068056
-0.00503507 0.01696333
0.00898090 -0.01495825
0.00185567 -0.00934982
-0.00806078 0.00234098
-0.00273708 -0.01177318
0.01469275 -0.00429674
-0.00379414 0.01083845
-0.00960214 -0.00182158
-0.01302082 0.02691907
0.00295889 0.00823163
-0.00094249 -0.00015889
0.00320409 -0.00387258
-0.00272836 0.00329680
-0.00618523 -0.01120534
0.00656332 -0.00201418
0.00882670 0.01026841
-0.02559193 -0.00562744
-0.02699037 -0.00277498
-0.02822318 -0.01298928
0.04300620 -0.01744548
-0.00413161 0.01475834
0.00261008 -0.02013758
0.01293971 -0.03679601
-0.00029144 0.02409855
-0.00353816 -0.03026866
0.00960039 -0.01590972
-0.01213094 0.00080565
-0.00075587 0.00449119
0.01364395 -0.01331351
0.00495998 0.00214396
0.00829531 0.00094541
-0.00483535 -0.01027578
-0.02677930 0.00709630
-0.00373905 -0.00244850
0.01161682 -0.00195854
0.00167457 -0.01428182
-0.00388569 -0.00290083
0.00195953 -0.00002204
-0.01613460 -0.00929206
-0.00064804 0.02638740
-0.01504837 0.01171566
0.02548804 -0.00289829
-0.01862171 -0.01989394
-0.00623609 -0.01870440
-0.01977005 0.00249031
0.00419156 -0.00570975
0.03757504 -0.00497860
0.01028270 -0.00565587
0.01207504 -0.00369819
-0.00845528 -0.00984039
-0.01100130 -0.01064176
-0.00063689 -0.00185964
-0.02159830 -0.00851559
-0.02052139 -0.01035483
0.00804174 -0.01571595
0.02850942 0.00355792
0.02213704 -0.00376909
0.00204871 0.00616009
-0.00495238 0.01793140
-0.00555854 -0.01197998
0.00342717 0.02481452
0.00750772 -0.00529465
-0.00950057 0.01968646
-0.01226347 0.00391826
-0.00565834 -0.01055428
0.00046509 0.01724594
-0.02765143 -0.01166608
-0.00312426 -0.01087022
-0.00458386 0.00409233
0.02753761 0.00254560
-0.02606138 -0.00814525
-0.00678042 0.00181912
-0.01139865 -0.01813769
-0.00459718 -0.00292272
-0.01445385 -0.00209257
0.00704315 0.00297864
-0.00623718 0.00550618
0.00237045 0.00006316
-0.00373700 -0.02371006
0.01728576 0.00166732
0.00872332 0.00315750
-0.00795439 0.01817000
-0.00203688 -0.00474963
0.00027126 0.00074533
0.00405261 0.00852826
0.01070479 0.02768271
-0.02251189 0.00449261
0.00844917 -0.02070525
0.01612129 0.00408211
0.00771734 0.00685764
-0.01755199 -0.01407741
0.04199007 -0.01290125
-0.01098758 0.00962345
0.02081779 -0.00643188
-0.01156594 -0.00717722
0.00916934 -0.01833888
-0.00041656 0.03578944
0.00174562 0.00380985
0.00704926 -0.00227481
-0.00543752 0.03596474
0.00237367 0.01022682
-0.01004668 -0.00340152
0.00400238 -0.01353908
0.00254059 -0.00605416
-0.00019969 -0.00587398
-0.02249897 0.00729187
0.00357871 -0.01341253
0.00686697 -0.02184539
-0.00296948 0.02267212
0.01345700 0.01167379
0.00230529 -0.00185057
-0.01064256 0.01738875
-0.01805814 0.00806199
0.00422463 0.01843195
-0.00574489 0.00423590
-0.00702658 -0.01426598
-0.01168800 0.00416617
0.00635256 0.00977446
-0.01116175 0.00514049
-0.01032223 -0.00847515
-0.02898550 0.00524122
0.02931129 0.00169057
-0.00359306 0.00057651
-0.00147776 -0.00493410
-0.01586201 -0.00466451
0.01600330 0.00695810
0.00967896 0.01257659
0.00177502 0.02513080
0.00649835 -0.00579733
-0.00350278 0.00043476
0.00840336 -0.00471582
-0.00217221 -0.01108852
-0.02349530 -0.00233036
-0.00274272 0.00332318
-0.00461302 -0.01620434
-0.00533586 0.01164950
0.01091630 -0.02790430
0.00202295 -0.02360909
-0.00851259 -0.00581904
-0.00486879 0.01218459
0.00307036 0.01997788
-0.01152532 -0.02052221
0.00491562 -0.01833958
-0.00057478 -0.02536041
0.01550033 0.02683502
-0.00929436 -0.01761732
-0.02625080 0.00005611
-0.02171646 0.01029735
0.00086976 0.01525887
-0.00806437 0.00244078
0.01927285 0.01018307
0.00536103 -0.01108171
-0.00528907 -0.01409271
0.00955600 -0.00087566
-0.02862479 -0.00320576
0.01476081 -0.02970256
0.00554759 -0.00070393
-0.02126839 0.00358873
-0.00338174 -0.00258423
0.00558009 0.02201947
0.00208338 -0.01050562
0.00992708 -0.02706194
0.01764120 0.02821094
-0.00161239 0.01809090
-0.00105183 0.00740789
-0.00688966 0.00720470
-0.02004546 -0.01551886
0.01503010 0.01279335
-0.00886314 -0.00648940
0.00434624 0.00184597
-0.01179587 -0.01360799
-0.00012899 0.02446363
-0.00813077 0.02713738
0.00081438 -0.00530322
0.00025648 0.01585386
-0.00673607 -0.00815896
-0.02358527 -0.01164863
-0.01310536 -0.00167380
-0.00801698 0.00230575
-0.03552602 0.00197876
-0.01941631 0.02377876
-0.01315059 0.00775839
-0.03247239 -0.00777129
-0.00576573 -0.03100116
0.00054029 -0.00364894
-0.00470717 -0.01288829
-0.01527259 -0.00676122
-0.01382166 -0.00031736
0.00112053 -0.00863393
0.00120658 -0.01672495
0.01774307 -0.03544092
0.00249622 -0.01272858
0.00794234 0.01555267
-0.00149771 0.01209961
-0.00037888 0.01136524
0.00386197 -0.01187804
0.01088622 0.01234451
0.00048865 -0.02027022
0.00461275 0.04486075
-0.00086023 0.00635021
-0.00526359 0.02226233
-0.00534639 -0.00992166
0.00734274 0.01904530
-0.00176698 0.00685159
0.03383150 -0.01125411
-0.00085915 0.00478898
-0.01390367 -0.01341691
0.01320511 -0.00680415
0.00423496 0.00188418
0.00652848 -0.01352876
-0.01679881 -0.01884416
-0.01184230 -0.00178198
-0.00683495 0.01439086
0.01453863 -0.00487317
0.00632026 -0.00742189
0.01132555 -0.00147254
-0.01413237 0.00797280
0.00832867 -0.02599676
0.01497530 -0.01118110
-0.01106611 -0.00998138
-0.01492130 0.00318897
-0.00760260 -0.00250965
-0.01549822 0.02320245
0.00540121 -0.00049937
-0.01588458 0.00823515
-0.00693676 -0.00626608
-0.00259702 0.01319676
0.02470656 -0.00416104
-0.00357976 -0.00232208
-0.01327589 0.02390432
-0.01262230 0.00207922
-0.00913898 -0.03564578
0.00060168 0.03048665
-0.00764461 -0.00417971
0.00538863 -0.01259377
-0.00931435 -0.01872353
-0.02810782 -0.00370930
0.00145654 0.00870031
-0.01726023 -0.00662069
-0.00609033 0.00019139
0.03368027 0.00364252
-0.01638282 0.00396748
0.00609994 -0.01178937
0.00457203 0.01962458
-0.00380019 -0.00628956
-0.01561995 -0.00159349
-0.01324752 0.01705623
-0.00322442 -0.01330312
0.00157955 -0.00657229
-0.01361338 0.00019861
-0.00084443 -0.01274606
-0.01575347 -0.00246987
0.00462298 -0.01222114
0.00033286 0.00305978
0.00972703 0.00324986
0.00122001 -0.00563104
-0.02317987 0.00970658
-0.02095176 0.02437596
0.02598490 0.01201558
0.00096730 -0.02505003
0.00525356 0.00684518
-0.00443872 0.01786285
0.01168767 -0.02470202
0.00110308 -0.02742744
-0.00870340 -0.00086742
0.01572137 -0.02093969
-0.01082115 -0.01711713
0.00838484 0.00688429
-0.01457103 -0.02873618
0.00999739 0.00335813
0.00968887 -0.01116665
-0.02768364 0.01164974
-0.00826977 -0.00610357
0.01367366 0.00111868
-0.01681728 0.01238404
-0.01147553 0.00704533
0.01188099 0.00584678
0.01510296 -0.01260594
-0.00664146 -0.01646178
0.04827332 -0.02851966
-0.00530394 0.01739712
-0.00594248 0.00772306
-0.00975687 -0.00995339
0.00079738 0.02367346
-0.00113683 -0.01678318
0.01168510 0.00656277
-0.00049291 0.02400600
-0.01216730 -0.00937459
0.00504071 -0.00032711
-0.00241942 -0.00756479
-0.00701407 -0.00983775
0.00723813 -0.01805282
0.01063800 0.00217102
-0.01857999 0.00667724
0.01113574 0.00683355
0.00123649 -0.00178338
-0.00864569 -0.02339164
-0.00165390 -0.01137382
-0.01087348 -0.01763036
-0.00478108 0.00104834
0.00097958 -0.00396389
0.00890819 -0.00102405
0.01119778 0.00902541
-0.01721060 0.00464647
-0.01341695 0.02081045
0.00127932 0.03502661
-0.01754593 0.02569037
0.00020394 0.01397299
-0.01874126 -0.01409440
0.01353396 -0.01005885
-0.01800485 -0.00637804
-0.00591880 0.02775501
-0.01803111 -0.00300734
-0.02336617 0.01229747
0.00895479 0.00605465
-0.00299950 0.00924416
0.00200648 0.00499939
0.00977864 0.00609168
-0.02286594 -0.00749348
-0.00352588 -0.00151711
-0.02094454 0.00450681
0.00921952 -0.00187028
-0.00845030 0.01735519
0.00027103 0.00619737
-0.00678156 -0.01274258
-0.00442333 0.00628829
-0.00491271 0.00489567
-0.00779009 -0.01576825
0.00403144 -0.01664305
0.01410527 -0.00684162
-0.01748003 0.02457649
-0.00595334 0.01232474
-0.00268199 -0.00579633
0.01800232 0.02439057
0.00408678 -0.02376897
-0.00606214 -0.00446192
0.02346473 -0.01427363
0.00924391 -0.02235529
0.02254539 -0.01681233
0.00821396 0.00732125
-0.00496803 -0.01986310
-0.01727985 0.01358655
-0.00439966 0.02565462
0.00601176 -0.02324261
-0.00415710 0.01371986
0.00739772 -0.01837555
0.00594039 0.00565629
-0.02192574 -0.02327527
0.01136815 -0.00997520
-0.01964973 0.01009973
-0.02595576 -0.01574009
-0.01482609 -0.01142243
0.01937125 -0.01521300
-0.00423868 -0.00312874
-0.01179035 0.00884348
-0.00872301 -0.00883610
-0.01036159 0.01404755
-0.03068558 -0.01544714
-0.00468413 -0.00309108
-0.00261318 0.00946584
0.00555365 -0.00684086
-0.00773263 -0.00688208
-0.00912524 -0.00868899
-0.00077127 0.01295827
-0.00597551 -0.00081047
0.00756614 -0.01327072
-0.00881406 0.00454191
-0.00167068 -0.00166474
-0.00643973 0.01401272
0.00028713 -0.00388662
-0.02297530 -0.01163424
-0.01529819 0.00515420
-0.01414961 -0.00165559
-0.00860120 -0.01595448
0.00075735 0.00071767
0.00121682 -0.01580721
0.00752183 -0.01704059
-0.01434068 -0.00596367
0.00814209 -0.02167970
-0.01750042 -0.01707724
0.01621744 -0.00087197
-0.00548776 0.00944442
-0.00547904 -0.00900284
-0.01674914 -0.00668493
-0.00731344 -0.02953545
0.01018879 0.02473358
0.03377981 0.01109585
-0.00091525 0.01798417
-0.01592200 -0.02601614
-0.01482583 -0.02055128
0.02098620 -0.00807597
0.00346866 -0.00839792
-0.00973817 -0.01287887
0.00421435 -0.01045658
-0.01584542 -0.00048555
0.00652997 -0.00028320
-0.00562659 -0.00770406
-0.01053536 -0.02363397
0.00993754 -0.01833252
-0.01664403 -0.00052360
-0.00752599 0.01707755
0.00804665 0.02465120
0.01026416 0.00488920
0.01902172 -0.01475580
-0.00758417 0.00530941
0.00410800 0.01208714
-0.00892520 0.00924142
0.01518053 -0.00341182
0.00481890 -0.00347271
0.01356434 0.02793313
-0.00753643 -0.01117850
0.02153306 0.00455517
-0.02338732 0.00161367
0.00922366 -0.00186902
0.00108992 -0.01113650
0.00171823 0.03152365
0.00500020 0.00277943
-0.00846824 -0.01181046
0.00461495 0.00199466
0.00232024 0.00060147
0.04108896 -0.01301502
0.00132410 0.02950513
-0.01472676 -0.01472965
-0.02663056 -0.01197709
0.00835624 0.02487536
0.00014904 -0.01007627
0.00175089 -0.01224531
0.00417738 0.00841182
0.00473544 0.01064513
-0.01221948 0.01705374
0.00231118 -0.01942946
-0.00095695 0.02620862
-0.00802071 0.01741440
-0.02351851 0.03204601
-0.00275415 -0.01247827
0.00489104 0.01292361
-0.00946491 0.00746997
-0.00182731 -0.00464496
-0.00482515 -0.00318398
0.01621616 -0.02479138
-0.01091210 -0.02500382
0.01601301 0.00802368
-0.01192648 -0.01411137
-0.00359703 -0.01141293
0.02085970 -0.00545742
-0.01516736 0.01611068
-0.01118955 -0.01740072
-0.01804617 0.00263293
0.01557966 0.01368965
0.01883883 0.01102052
-0.00604491 -0.01227644
0.00710258 0.03199995
0.00638238 -0.00849639
0.00487222 0.00162099
0.01687100 0.00242551
-0.01602223 -0.00230943
0.02149552 -0.01178247
-0.00962629 0.00609797
-0.00534286 -0.00133446
-0.00810581 0.02150923
-0.01925808 -0.01126284
-0.01400302 -0.01273188
0.00876479 -0.00034079
0.00634101 0.00656218
-0.00925586 0.00852135
0.01804618 0.00042730
-0.00858088 -0.00378955
-0.01471073 -0.00254635
-0.00245506 0.00916732
0.01932063 -0.00219101
-0.02844396 0.00989816
0.01060154 -0.00917398
0.00843295 -0.01118000
0.01187159 0.00118814
0.01112138 -0.00547299
-0.00229433 -0.01548063
0.00917638 0.01123600
-0.01450145 -0.01420034
-0.01159858 -0.02284954
-0.00753804 0.02327760
-0.00343971 0.00667072
-0.00322963 -0.01281546
0.01566503 -0.00361673
0.00625539 0.02680446
0.01063874 0.01981685
0.00641823 -0.00097043
0.00153007 0.01724852
0.00153530 0.00541211
-0.00445470 -0.01379591
-0.01167160 -0.00289798
0.01946774 -0.00361918
0.02796511 -0.00815427
0.00342161 0.00286379
0.00060778 0.00604588
-0.01663927 0.00409297
0.02781313 0.01830201
0.01018068 -0.00741151
0.00544559 -0.00184710
-0.00251284 0.04186547
-0.00207081 0.02295897
-0.01003013 -0.01053310
-0.00495615 -0.02283658
0.01514865 -0.01513125
-0.00262424 -0.00464818
0.01936532 0.04110254
-0.00635686 0.00473416
-0.00903970 0.00352390
-0.00511717 -0.01156287
0.00223592 -0.00179152
0.01372033 -0.00155565
0.00034548 0.00052790
-0.00225225 0.02164382
-0.00436213 0.00186787
0.02011756 -0.01051088
-0.00635537 -0.00962739
-0.01684487 0.01822506
-0.00323796 -0.01396050
-0.00361265 0.00239610
-0.01049208 -0.00102200
0.00897129 0.00207105
-0.00701832 -0.00611619
-0.00042387 -0.01779239
-0.00344922 0.00371677
-0.01476082 -0.01014473
-0.00925423 -0.01391889
-0.01531614 0.01205407
-0.01268649 0.00103745
0.00422007 0.02894536
-0.00555587 0.00708084
-0.01153034 0.01820119
-0.00091323 0.00162495
-0.00113354 0.00192374
-0.01693792 -0.01102517
-0.01148078 0.01111352
-0.01742075 -0.01985637
-0.01667469 0.02626168
0.01277577 0.04757119
-0.02020538 0.02605665
0.00160079 -0.00957910
0.00701304 0.00041993
0.03200365 -0.00823026
-0.01204061 0.00152992
0.00435816 -0.02076232
0.01276663 0.02152827
-0.02879719 0.00726296
0.00582565 0.02175930
-0.00368104 -0.00206282
-0.01128780 0.01313825
-0.00233137 0.00231253
0.00256839 0.00130618
0.00174999 0.03871341
0.00297662 0.00464722
0.00552644 -0.00686166
-0.00547919 -0.00999765
-0.02809436 -0.00120200
-0.00675631 0.00622850
-0.02388942 0.01152946
-0.00565193 0.01631933
0.01857083 0.02124040
-0.01409983 0.00116822
-0.00876080 -0.00007175
0.00326274 -0.00856857
0.00473123 -0.01358903
-0.01543495 -0.01174096
0.00718968 -0.01007622
0.00809479 0.00751441
-0.00436629 -0.00293126
0.00857358 -0.00977548
-0.01894438 -0.00355803
0.00523723 0.01475092
-0.00527835 0.00388158
-0.00799074 0.02198691
0.00182805 0.02799138
-0.01120185 -0.00551421
-0.02863408 -0.01719029
-0.03102232 0.01682832
0.00249670 0.01536833
0.01110748 0.01522299
0.01418538 -0.00769534
-0.02054278 -0.01158560
0.01094987 0.00423491
-0.01322426 -0.00654504
-0.00539180 0.00480996
0.03138313 0.00667970
0.00585001 -0.01884639
-0.00707519 0.02180511
0.00659197 -0.02455850
-0.01188268 0.00057269
0.00189904 0.00010079
-0.01851451 0.02080338
0.03045587 0.00795078
-0.00693518 0.02014695
0.03044769 -0.00441164
-0.01385532 0.00447280
0.00449952 -0.01992468
0.01156343 -0.00379491
-0.00262399 -0.02470763
0.00400334 -0.01655950
0.00032392 0.01526775
-0.00148494 -0.00545171
0.01523152 0.01198888
-0.01554202 -0.01010690
0.00285441 0.01130581
0.00771934 -0.01003398
0.01787451 -0.00071519
0.00122442 -0.01820137
0.01968773 0.02455358
-0.01389670 -0.00149713
-0.00266385 0.00219756
-0.01968645 0.00765553
-0.00402465 -0.00671826
-0.00270893 -0.01399366
-0.00692471 -0.01547632
-0.00477308 0.00275652
0.00387827 0.00187496
-0.00559900 -0.00183276
-0.02668899 -0.00399125
-0.00491271 0.03231396
-0.00647662 -0.01357736
0.02122565 -0.00584317
-0.01047027 0.02211361
0.01129789 -0.00551639
-0.00034831 -0.00245309
0.01594926 -0.00880199
0.01188615 0.01386830
-0.00781489 0.00134345
0.01835139 0.00217278
0.01455510 0.00304594
-0.00719332 -0.01121757
-0.01004215 0.01917914
-0.02039763 -0.00636337
0.00509638 -0.02413754
-0.00962246 0.00264279
-0.02789882 0.00109481
-0.00244538 0.00601557
-0.00589409 0.00185741
-0.01293861 0.00639403
0.00579935 -0.02058253
-0.02389806 0.01303124
-0.01425466 0.02284930
0.00402750 0.01232467
-0.03749165 0.01105589
0.01440153 -0.00802802
0.02537009 -0.01090455
-0.00492409 -0.00770488
0.02979184 -0.00273761
-0.03059881 0.01792325
-0.01122274 0.00972770
-0.00670342 -0.00898174
-0.01594462 0.01937255
-0.01389384 0.01116019
-0.01317149 -0.00793126
-0.00621754 0.00105803
-0.00761029 -0.03130046
0.00412260 0.01720424
-0.02113949 -0.00154921
-0.01488322 -0.00925946
-0.00211208 0.00460126
-0.02151632 0.00206665
-0.00212062 0.03257708
0.02222114 -0.00352866
-0.00261775 -0.01278609
-0.00105295 -0.02050242
0.00403715 -0.00086937
0.00927578 0.01087923
-0.01649869 0.02406111
-0.03682145 0.02436991
-0.02919336 -0.01976970
0.02151373 0.00076991
-0.00703641 -0.00514808
-0.01237469 0.00535287
-0.02055101 0.00066609
-0.01321259 0.01264146
0.00724438 0.01527514
-0.00311731 -0.01981989
-0.01988139 -0.00366155
0.00563195 0.00272381
-0.00189678 0.01344412
-0.00273694 0.00164002
0.01105189 0.00617035
0.00311799 -0.00351076
0.00276097 -0.01727600
-0.01202153 -0.00259356
0.00444485 -0.02192996
-0.01275596 0.00822659
0.02079186 -0.00569514
-0.01206479 -0.01330316
0.01334183 -0.00548134
0.01070306 0.01764039
0.00093425 -0.02835062
-0.02109565 -0.02275239
0.00437552 0.00254633
-0.01727678 0.01098734
-0.01620191 0.03960796
-0.03303021 0.00725707
-0.02260888 0.00471575
-0.01750150 -0.02138268
-0.01911360 0.01840506
0.02583485 0.00399692
-0.00144639 0.01528995
-0.01595211 -0.00734843
-0.00384793 -0.00983042
0.00374993 0.00767902
-0.00322681 0.01614379
0.00873581 -0.01489743
-0.00665731 -0.02398144
0.00296538 0.00178125
-0.02218421 0.03784078
-0.00694434 -0.01379234
-0.00180805 -0.00701865
0.01005546 0.01796468
-0.01779244 0.00505689
-0.01139219 0.00074381
0.00703375 0.01342785
0.03209836 0.00258253
-0.03006753 0.00588238
0.02798651 -0.00356269
0.00283365 -0.00688099
0.01653620 0.00721618
0.00818875 -0.00076021
-0.01091141 -0.00449508
-0.01188245 0.00976004
0.02775081 -0.01287231
0.00264724 -0.01592385
0.00049285 0.00443959
0.00423416 0.00232811
0.00055454 -0.00438896
0.00073072 -0.00399739
0.00092052 0.00318032
-0.01097241 -0.01106517
-0.00819290 0.00130178
0.00748427 -0.00798534
0.01497870 -0.01799096
-0.01659899 -0.00640704
-0.00375543 0.01470073
0.04176915 0.01354572
-0.00586140 -0.00206419
0.01927149 0.01380913
-0.00481912 -0.02909664
-0.00772992 0.01434983
0.00087201 -0.00766569
0.00153640 0.00374818
0.00109476 -0.02000405
-0.02329668 0.02615978
0.00874437 -0.00455177
0.01380431 0.01646665
-0.00040027 -0.01466383
-0.00108273 -0.01008303
0.02037708 -0.00203222
0.00336643 0.00940053
-0.02654124 -0.01074641
0.00304094 -0.00396465
0.01285724 -0.03961436
0.00112347 0.00773171
-0.00121773 0.00749198
-0.00730465 -0.01045110
-0.01035173 0.01166327
-0.01173711 0.00326844
0.00182327 -0.00728503
0.00642217 -0.00660552
-0.01230930 -0.01149012
-0.01065011 0.00297869
0.01929976 -0.02683481
-0.01419040 0.00118623
-0.00204614 0.01415128
-0.00622210 -0.00358844
-0.02465465 -0.01848018
0.00246098 0.00235066
-0.00576588 -0.00555783
0.00130812 0.03544298
0.00002483 0.03488157
0.00684479 0.04567147
-0.01969177 -0.00289911
-0.01299927 -0.01298223
0.01988316 0.00065624
0.00701659 0.00562806
-0.00514302 -0.00917821
-0.02009721 -0.00918169
0.01424167 -0.01767289
-0.00441826 -0.02758747
0.00457630 -0.02878906
0.01276329 0.01444407
0.01477414 -0.01628086
-0.03076922 0.03259668
-0.00715552 0.00496182
0.01675514 0.01607408
0.02250163 0.00114863
-0.00548231 0.00771289
0.01849697 -0.01803632
-0.00185850 -0.00880162
0.00716682 0.00203430
0.00825598 -0.00372216
-0.00264492 0.00235891
-0.00288237 -0.01247702
0.00645994 0.01579483
-0.01456176 -0.00288691
0.02672926 -0.00750334
0.00779334 0.00050127
0.00070507 0.00212321
-0.00721680 -0.01076406
-0.00904173 -0.01108869
-0.03037258 -0.01278051
-0.00358441 0.01916399
-0.00714895 0.00469879
0.00102609 0.00971064
-0.00719418 -0.01528409
0.01257560 -0.00569625
0.00061584 0.00974362
0.00106142 -0.00711663
0.00426108 0.01648728
-0.01761171 0.00277799
-0.00094649 0.01321703
-0.02760820 -0.02357055
0.00939962 -0.00671937
0.00598672 0.01558586
0.00079381 -0.00285901
-0.00496903 -0.01001655
0.00163193 0.01469266
-0.01758206 -0.01084702
-0.01162312 0.00399930
0.00129531 0.01434311
0.01837471 -0.02371581
0.00081424 -0.00755442
0.00313364 0.01225837
-0.02909322 -0.01744947
-0.00625168 -0.03508138
0.00184398 -0.02985214
0.00789740 0.00484269
0.02156447 0.01133509
-0.00770962 -0.01761157
-0.01008283 -0.00725356
-0.02111203 -0.01666769
-0.00780420 0.00025175
0.01356051 -0.01600312
0.00357533 -0.00335187
0.00742025 -0.01402683
0.00697333 -0.01705312
-0.00698590 0.00815326
-0.00965745 0.01562561
-0.00076844 -0.00470450
-0.01785211 -0.01025479
-0.00652179 0.01482188
0.00179484 0.00920608
0.00699846 0.00897356
-0.02047511 -0.00329653
-0.02527131 -0.00580571
0.00716876 -0.01072614
0.02409825 -0.00717726
-0.00647851 -0.01432450
-0.00454225 0.01534062
0.01841487 -0.01603284
-0.00632278 0.00290030
-0.00509372 -0.00642770
0.00661283 0.00477828
-0.02585804 -0.00405360
-0.00408404 0.01282553
-0.01324928 -0.01044835
-0.01488944 -0.01063390
-0.01967589 -0.00273659
0.01128869 -0.02691954
-0.01499477 -0.01607253
-0.00365081 -0.00487845
-0.00757354 -0.00261688
0.01856632 -0.00405700
-0.01217963 0.02445442
0.01132444 0.01402691
0.00151767 -0.00681260
0.00273632 0.02916851
-0.00952587 -0.01305230
-0.01164718 0.01255941
0.03032959 0.00003683
-0.01709250 -0.00716392
-0.00178001 -0.00157899
-0.01208661 0.01050961
-0.00005482 0.00948454
0.00150694 0.00451688
-0.01339933 -0.01142083
0.00014550 0.02018011
-0.00399800 0.00592589
-0.00989742 -0.01513935
0.00120660 -0.01372426
0.00206542 0.00635174
-0.03075432 0.00021905
-0.01358886 0.02866123
0.01452384 0.00271610
-0.01279962 -0.00248108
-0.02641478 -0.01265198
0.02492887 -0.01087415
-0.01200097 -0.02246978
0.00019769 0.01539012
0.01560806 0.00477474
0.01151424 0.03408013
0.02518288 -0.00083224
0.00925648 -0.00597691
0.01688286 -0.00130113
0.00188936 0.00183860
-0.01605320 0.00729243
-0.00644991 0.00250722
-0.00125023 -0.00086168
-0.00378346 -0.00205868
-0.01048281 -0.01408817
0.00284519 0.00444972
-0.02721230 -0.00205193
-0.00992740 0.00647277
0.00485535 0.01305479
-0.00704200 0.01524007
-0.02657064 -0.00015780
-0.00083777 0.00104316
0.02250853 -0.01871997
-0.00646098 -0.01168317
0.00282952 0.02810805
0.01208150 0.03653088
-0.01794313 0.01485875
0.01050227 -0.00886951
-0.00908203 0.01695915
-0.00805901 0.00398039
0.02320492 -0.02330969
0.01115800 -0.01096655
-0.02123112 -0.00001988
0.00147074 -0.00782117
-0.01525683 -0.00964454
-0.00940702 -0.00216307
0.00545962 0.00277132
-0.01017194 -0.00879775
0.01094831 -0.02139186
0.01051218 -0.00833245
-0.00144184 -0.00333845
-0.01660540 0.02476635
0.01400094 -0.03306013
-0.00268102 -0.00786686
0.00669426 -0.00943977
0.00066516 0.00115279
-0.02030684 -0.00226368
0.00360304 -0.02185613
0.01449748 0.00186688
-0.02020994 -0.01355478
-0.02128876 -0.01193998
0.00065148 0.00341090
-0.00906188 -0.00383033
-0.00276074 -0.01291298
-0.01282258 -0.00661701
0.01333620 0.01430735
0.01383945 0.00327567
0.00844567 -0.00843789
-0.01766952 0.01834747
-0.00488651 0.00652281
0.00220768 -0.00305356
-0.00215867 0.00742088
0.00414984 -0.01405483
0.00398105 -0.01386916
0.00215241 -0.01351751
0.03220898 0.01685440
-0.01900833 -0.02117681
0.00864261 0.00395163
-0.00789347 -0.00731681
-0.00439648 -0.01814682
0.00391778 -0.00240233
-0.01617768 0.00210894
0.00170353 -0.00418469
-0.01351769 0.01211422
0.01828534 -0.00343220
0.01115582 0.00808574
-0.01837503 0.01685878
-0.00310887 0.00987360
-0.00104415 -0.00921866
-0.00473063 0.00176639
-0.00699837 0.00914159
-0.01243969 -0.01141097
-0.01715904 -0.00482174
-0.00600402 0.00810887
-0.01562095 0.01329398
0.00828539 0.01558650
0.00693773 0.02253990
-0.01459137 0.00552520
-0.00574279 -0.00003350
0.00405091 0.00788242
-0.00320264 0.01461600
-0.02800780 0.01376833
0.00264775 0.00499887
-0.00395935 -0.00155025
0.01058313 0.00674377
0.02169495 -0.01939732
-0.01235578 -0.01372117
0.01312432 -0.00640029
-0.00749957 0.02047603
-0.00154249 -0.01313895
-0.00480912 0.00197632
-0.01433553 -0.00638111
0.00480980 0.00484743
-0.02789417 0.00499286
0.00124552 -0.02494231
-0.01540887 -0.01887114
-0.00621906 0.01027649
-0.01328300 -0.00990292
-0.01223192 -0.00582309
0.00669482 -0.01373367
-0.03682671 -0.00339580
-0.01636844 -0.00788901
-0.00899607 -0.00747280
-0.00666955 0.00300200
-0.00700330 0.02613244
0.01208284 0.02520739
-0.01727931 -0.00352241
0.00698097 -0.02767863
0.02157136 -0.00232341
-0.00466286 0.00602501
-0.00087392 0.01098986
-0.01636659 0.01334252
-0.00419867 0.02085610
-0.00156318 0.02116924
0.00140157 0.02809678
0.01657606 -0.00158904
-0.01165927 0.00659669
0.01120610 -0.00728612
0.00140358 0.00189441
-0.00450476 0.00317102
-0.00495511 -0.00114020
-0.01694525 -0.01481129
-0.03887288 0.00405842
0.02064545 0.00442418
-0.01639551 -0.01410520
-0.00876301 -0.00986944
0.00288108 0.01978019
-0.00037985 0.00768640
0.00320262 -0.01293042
0.00831148 0.01117412
0.01194386 -0.00855479
-0.00172124 -0.00616969
-0.00198000 -0.01332811
0.00270965 0.02451403
0.00316074 -0.01396670
-0.01023182 -0.00897723
-0.02559720 0.00174494
0.00205285 -0.00247382
-0.00360471 0.00733205
-0.00285564 0.00678917
-0.00346228 -0.00009599
0.00059203 -0.02190803
-0.00690745 0.02075521
0.00059943 0.02500888
-0.01094118 0.00315354
0.00264890 -0.01405539
0.01838819 -0.00327096
-0.00844735 0.00205463
-0.01959558 -0.00993709
-0.00011867 -0.01391885
0.00852520 0.00438542
-0.01340668 0.00035353
-0.00703874 0.00264043
0.00649007 -0.00392462
-0.02620166 -0.01650865
-0.00297720 -0.00063586
-0.00878753 -0.01453724
-0.01218413 -0.01246718
-0.01503397 -0.01775665
-0.01029174 -0.01977197
-0.01453253 0.01236151
-0.02956972 0.00441613
0.01665498 0.00189431
0.00230314 0.01483753
0.00290458 -0.00861023
-0.02373641 -0.00925889
-0.00549801 0.02583577
-0.01270773 0.00567162
-0.01192705 0.01616137
0.00282216 -0.00231544
-0.00029069 -0.01071780
0.00489981 -0.00591029
0.00230427 -0.01802884
0.01824726 0.01079335
-0.00961733 0.01956683
-0.02083645 0.01987758
0.00309756 0.00358123
-0.01612382 0.02059678
-0.01917529 0.01576807
-0.00371259 -0.01115557
0.00336583 0.01086304
-0.00566032 0.00774849
0.00213708 0.01647423
-0.01057614 0.01243179
-0.00163619 -0.02856939
-0.00131576 -0.01890793
0.00142176 -0.01440070
0.00357646 -0.01884669
0.01373592 0.00990582
0.00166737 0.02122861
-0.00932419 -0.00897036
0.00163325 -0.00036466
-0.01444508 0.01169995
0.00086137 -0.01407396
0.00409315 -0.00872788
-0.00252784 -0.00235993
0.00559039 0.00802550
-0.00427683 0.00207026
-0.01024370 0.02082793
0.01147179 -0.00706265
0.00512199 -0.00065478
-0.01010537 0.00899130
0.01652483 -0.01795831
0.00635344 0.00106397
-0.00217357 -0.00879738
0.01619505 -0.01250172
0.00048222 -0.01377301
-0.00435393 -0.00044985
-0.02265975 -0.01541386
-0.00851512 -0.02131051
-0.01344163 -0.00787625
-0.01687999 0.00387296
0.00188259 -0.00862687
0.00721403 -0.00414432
0.01036339 -0.01656856
-0.01040656 -0.01051886
-0.00263966 0.00289576
-0.00810071 -0.00081865
0.00896396 -0.01024707
-0.00878892 -0.00532644
0.01020693 -0.00967851
0.01724480 -0.01002744
-0.00266927 -0.01317372
0.00039386 0.00544529
-0.01149699 -0.00111417
-0.00415606 -0.00940897
-0.01329767 0.00090469
0.00200752 0.00942794
-0.00591919 0.00309457
0.01330359 -0.00359017
-0.00433274 -0.01741942
0.04113673 -0.00629661
0.01059747 0.00099748
0.00776556 -0.01732156
-0.00934419 0.01352997
0.02100117 -0.01099000
-0.00686645 -0.01659750
0.02387175 0.01449334
-0.00734827 -0.01020054
0.01813238 -0.01763680
-0.00716016 -0.00493497
-0.00305749 -0.00702698
-0.00470444 -0.00267470
-0.00669798 0.00102180
-0.00224957 0.01203593
-0.00351857 -0.00342613
-0.01843202 -0.00050033
-0.00617286 -0.00933976
-0.00417208 0.01138312
0.00717604 0.02673481
0.01459862 -0.00630439
-0.00574723 -0.01473913
-0.00099671 -0.01468283
0.01587064 0.02523326
0.02056511 0.01544045
0.00924575 0.00552895
0.01770996 -0.00729410
-0.01255277 -0.02512369
-0.01082325 0.00198805
-0.00390873 -0.00296274
-0.01246828 0.00196177
0.00263567 -0.01034338
-0.00868843 -0.01708510
0.00803321 -0.00896182
0.00049362 -0.02414813
0.01589283 -0.01334355
0.01536103 0.01042546
0.03181553 -0.00246617
0.01756207 -0.01794134
-0.00231764 0.01766477
-0.00464099 0.02331111
0.02090742 0.00940781
-0.01456143 -0.01796720
-0.01227673 0.00132331
0.00045160 -0.00749708
-0.00895749 0.01195654
0.01065909 -0.00461587
-0.03505969 -0.00277949
0.03842404 0.01007050
-0.00423612 0.00885379
0.00878937 -0.00799277
-0.00789602 -0.01432614
0.00158657 0.00378579
0.00054960 0.00920949
0.00525814 0.00991630
0.01139837 -0.00713966
0.00275393 -0.01094611
0.00171743 0.00334666
-0.02678991 0.01458802
0.00147881 0.02349417
-0.00288702 -0.01246820
0.01035000 -0.00604276
-0.00077539 0.01252157
-0.00742741 -0.01944564
0.00229389 -0.01290198
-0.02320959 -0.00910246
0.01439300 0.00687854
0.01033658 0.01672951
-0.01296786 -0.01051680
-0.00436265 0.01462651
-0.00253490 0.01045335
-0.00287650 -0.01160079
-0.02127052 0.01202122
0.00062496 -0.01926596
0.00006548 0.00982952
-0.01417702 -0.02333440
0.01763408 0.00012082
0.01026265 0.04193851
-0.00140942 0.01220594
0.01997242 0.00579345
-0.01646339 -0.02890408
0.00669273 -0.01539981
0.01189634 -0.00421201
0.00935709 -0.01859123
-0.01112541 -0.01171919
0.00766087 0.02586288
-0.01221004 -0.02248520
-0.00415991 0.00658274
-0.01798867 0.00331692
-0.01708490 -0.01312344
0.00164317 -0.02395078
-0.02121190 0.00226962
0.02623232 -0.00246462
-0.02324010 0.00712609
0.01853028 -0.00118123
-0.00989472 0.01081809
-0.00892646 0.00973077
0.00805339 0.00259939
-0.01576859 -0.00587027
-0.00080153 -0.00143818
-0.00034866 0.00712087
0.00620927 0.00614255
-0.02389191 0.01408693
0.00446889 -0.00618667
-0.01675175 -0.02506782
-0.00950009 -0.00275023
0.01572900 0.00999741
0.01047525 0.01865279
0.01301184 -0.02904732
0.01017569 -0.02435325
0.00040920 0.00109937
0.00745545 -0.01244567
-0.00002176 0.00113185
0.01245497 -0.00240531
-0.00580937 0.05178466
-0.00391078 -0.00286546
-0.00940038 -0.00518280
0.01280131 -0.00944754
-0.00177027 0.00618060
-0.01083916 0.00481393
-0.02297945 0.00553617
0.00139205 -0.00535728
-0.00490723 -0.00060035
-0.01523932 -0.00771663
0.00113789 0.00043060
0.00688019 0.01455140
-0.01964635 -0.02046878
0.00237365 0.00369292
-0.00781719 -0.00152556
-0.00114581 0.01508358
0.02031570 -0.00787817
-0.00696583 -0.00688599
-0.00457946 0.00013457
0.01440370 -0.00702454
-0.00263890 0.01545118
-0.00337204 -0.00485714
-0.00318884 -0.02708406
-0.00192923 0.01069811
0.00965456 -0.00935861
0.00331722 -0.00753178
0.01845758 -0.00444185
0.00489433 0.00599175
0.00567329 0.00520938
0.02413765 0.00718628
0.02681099 0.00806647
0.01675449 -0.00965637
