0.03871383 -0.06232434
-0.11913554 0.04364701
-0.12474416 -0.02687691
-0.05283011 -0.17093241
-0.12487997 0.08609169
-0.09899029 -0.07421304
0.11737955 0.05378642
-0.03989642 0.02355232
-0.00256122 -0.06289965
-0.08469274 0.01225445
0.11278083 -0.05326613
0.16670819 0.01140072
-0.11614533 0.09757040
-0.06477623 0.01247726
-0.03330053 -0.10350139
0.03844762 0.10009601
0.03608508 -0.08681082
-0.08339717 -0.17098638
-0.08976684 0.00449172
0.09771910 0.04084707
0.09887853 0.01657276
0.00273733 0.02901814
-0.07310244 -0.03131093
-0.01627214 -0.09173211
0.15715960 0.21411616
0.03693657 -0.05932856
-0.16621532 -0.09306572
-0.11550746 -0.08197319
0.00378139 0.05348653
-0.14038675 -0.10532203
-0.12307568 0.07526679
0.19034888 -0.03684662
-0.08088560 -0.03522377
-0.00575544 -0.01807396
-0.11727266 0.03669732
0.13460517 0.07454786
0.13402021 0.00692163
-0.12348678 0.04644035
0.16441190 -0.13067710
-0.06585585 0.17642157
0.11714635 -0.06852227
0.06281335 -0.00176093
-0.11445834 -0.05725370
0.16330652 -0.08341541
-0.06543287 0.04857986
-0.07682376 0.02294800
-0.11372041 0.01163122
0.01647689 -0.08485928
-0.00233493 0.02891392
0.02386321 -0.06795242
-0.07958992 -0.07434544
-0.07142290 -0.04859584
-0.13213465 -0.06236191
-0.00942343 0.02098039
-0.00600731 0.06059564
0.04089780 0.01653073
-0.11366099 -0.06063950
-0.00116126 0.03759427
0.08533576 0.12923914
-0.05328983 0.03730059
-0.05655645 0.12124084
-0.09974562 -0.03310259
-0.02523128 -0.00469793
-0.02849430 0.09276021
0.02381266 -0.00932508
0.04903619 -0.04144211
-0.04165897 0.08650091
-0.03496848 0.02642309
0.00651786 0.10317688
-0.00511929 0.00581485
-0.10569004 -0.02159360
-0.11944387 -0.00106091
0.14462249 0.13112912
0.03668207 -0.11124931
0.05445012 -0.07599526
-0.05774454 -0.10919873
0.03286065 -0.08535339
-0.09405545 0.21853732
0.01005825 0.29642612
0.19117139 0.21248846
-0.08337218 -0.13896964
-0.12201392 0.06965724
0.14711215 -0.06945258
0.01970683 0.30580896
-0.00585084 0.03330022
-0.09930711 0.10798517
0.00320507 -0.01557429
-0.04100596 0.13162199
-0.11536803 -0.02992656
-0.05834533 0.02146612
-0.00780724 0.23960859
-0.10912766 -0.09479090
0.09776370 0.01412985
-0.14756076 0.01774449
-0.16107936 -0.03550285
-0.11415870 0.02540825
-0.15308221 -0.04283094
-0.00703791 0.00044259
0.12141179 -0.03319491
-0.00506692 0.01286556
0.05962542 -0.02010604
-0.00061146 0.01808649
-0.00337939 -0.04149604
-0.03300664 0.05872147
0.05646270 0.01565423
0.01135691 0.05671920
0.07584388 0.03358676
-0.01484005 -0.01589763
0.03706227 -0.04176268
-0.14307649 0.03292486
-0.02915261 -0.02758567
0.01861254 -0.05353128
0.06015372 -0.03557478
0.08716892 0.02766389
-0.06759850 -0.04649492
-0.01653871 0.03041783
-0.03771803 -0.05915175
-0.05250063 0.05165868
0.00525888 0.01688910
-0.02564389 -0.01301869
-0.14611036 0.08603130
-0.03784709 -0.02712899
0.12372728 0.05893113
0.01675286 0.02467117
-0.03986158 0.05929115
-0.00105705 -0.06750818
0.02260944 0.06104657
-0.14412820 0.12438907
-0.06028296 -0.01618226
0.06059365 -0.01651872
-0.00956359 0.06982002
0.03287492 -0.13335073
0.03836579 -0.07973170
-0.14559042 0.15973182
-0.10859878 -0.03000470
0.05589795 -0.12202452
-0.06093289 0.06923921
0.01313010 -0.00419843
-0.01725750 -0.00556598
0.01378065 0.21915492
0.07593144 -0.02978857
0.04589434 0.01416642
-0.12046935 -0.01052136
-0.03131446 -0.02980434
-0.03820340 0.05253629
-0.17741591 -0.03494869
-0.12528579 0.10888623
0.10264268 -0.02879925
-0.17559567 -0.01602662
0.07470127 -0.08879030
-0.09017898 0.01465523
-0.04462929 -0.15703736
-0.00367601 0.05519985
0.12197460 0.00968725
-0.07861134 0.02828887
0.01263555 0.01060792
0.05270219 -0.08826298
-0.13374473 0.05202785
-0.12147307 0.06399065
0.12330696 -0.02197756
-0.01253599 0.10551664
0.04355147 -0.04973489
0.01424371 -0.04624446
-0.02467189 -0.04303665
-0.11852409 -0.03822626
-0.02630366 -0.02912820
-0.02612544 -0.05703247
0.14044452 -0.05540355
0.04878880 -0.08260470
-0.06187439 0.07457098
-0.10649372 -0.02353536
-0.09121177 -0.11570698
0.00452216 -0.07432416
0.04403511 0.03350860
0.05280334 -0.03489152
-0.03554123 0.08180978
0.05029462 -0.03414534
-0.06258538 0.15019754
-0.12821229 0.14687121
0.05196720 -0.09752351
-0.03167534 -0.03131736
-0.09847656 0.11557620
0.05846094 -0.06651577
-0.05202185 -0.12975480
-0.01036351 0.20414549
-0.01171374 -0.04856039
0.03283237 -0.04322720
-0.00189092 0.05625347
-0.00955639 0.09643759
0.00191647 0.00470401
-0.07490870 -0.08194405
0.02893300 0.00925765
0.01142716 0.07774640
-0.00927202 -0.11515565
0.04070292 -0.03500291
-0.00532759 -0.06156822
0.01535010 -0.06512883
-0.03113828 -0.00129006
-0.03660192 -0.05319624
0.07469089 0.06491093
-0.09933760 -0.14186624
0.06515956 -0.03754750
0.01898639 0.01423840
0.07588144 -0.00508678
0.01113813 0.03600208
-0.07291164 0.05796893
0.21465485 -0.04408925
0.17304620 -0.06505053
-0.08932982 -0.05015909
0.11531893 0.00938824
0.00434608 -0.09489702
0.00097351 0.01762711
0.16778873 0.14514877
0.05101391 -0.03598355
0.02996308 0.08306054
-0.06312645 0.05144024
-0.01414957 -0.04765694
-0.07655642 0.14932764
-0.07707795 0.21989289
0.04391140 0.11811291
0.09189756 0.04069554
0.11184090 0.07889953
-0.01388256 -0.03528132
-0.07621384 -0.02488063
0.00451473 0.07685344
0.04111857 0.04972638
0.02828090 0.25475273
-0.09353910 -0.05637263
-0.03955968 -0.00698371
-0.07849395 -0.11490756
0.02000146 -0.11125826
-0.04990513 -0.01520145
-0.06587087 -0.05979977
-0.07506285 0.07510736
0.02386638 -0.10121754
-0.01252983 0.12681647
-0.07786206 -0.00032166
0.19686066 -0.09740368
-0.04820194 -0.04880791
-0.03890459 -0.09256098
-0.08815086 -0.07929428
-0.03977105 -0.00314068
-0.02185623 0.07566565
0.02365016 0.07502961
0.02632002 -0.02873831
0.08502100 -0.08910990
-0.05537096 0.06539652
-0.06221166 -0.13137639
0.02159565 0.09631855
-0.09199452 -0.10068467
-0.01261586 0.16683336
-0.08707023 0.01935826
0.13317765 -0.08095299
-0.00215169 0.06291657
0.02993083 0.02179091
-0.02900631 0.00664746
-0.07614274 0.00581289
0.07504544 -0.01909988
0.02016618 -0.01187652
0.02076277 -0.00044919
-0.06951851 -0.00292787
-0.04852283 -0.03525447
0.05164992 0.06441568
0.07224049 -0.05195280
-0.03597607 0.03739040
-0.01425104 0.00474363
0.01896528 -0.02704722
-0.06345553 0.01953831
0.02184296 -0.01290530
-0.00041665 -0.07065009
-0.06214588 -0.00771272
-0.09278812 -0.02362838
0.05167457 -0.01244535
-0.00194105 -0.00698293
0.06395186 -0.02152704
-0.02295648 -0.04089690
-0.01968343 0.00448995
0.01420321 -0.02751271
-0.01061148 0.03646780
0.02843167 0.01421730
-0.00211972 -0.02658843
-0.00907885 -0.03733201
0.03336926 0.05955561
-0.01850091 -0.00416339
-0.00999023 0.00423147
-0.01865993 -0.01950148
0.07921079 0.01970065
0.02444282 -0.07409935
-0.07512956 -0.05439605
-0.00536536 0.20480229
-0.01312017 0.12866631
0.02336330 -0.08162881
-0.03559744 -0.05161053
-0.03038945 -0.10339613
-0.02141171 0.06400020
-0.09011428 0.11778010
-0.04890830 -0.08821709
-0.03575983 0.20014410
0.02236143 0.09658362
-0.07882757 -0.22373438
-0.11469648 -0.12510498
-0.12708580 0.14047059
-0.08527067 -0.04675202
0.19052826 -0.19516435
-0.05962526 -0.11414760
-0.04977829 -0.05787395
-0.08110612 0.03392953
-0.19458616 0.31141612
0.00873020 0.13490216
0.04728870 -0.07142664
0.18575270 0.12397271
0.07133904 0.01362363
0.02624190 0.02500871
-0.04633227 0.02974274
0.03674553 0.13266383
0.05731478 -0.03183633
0.07942617 -0.07825810
0.04019567 -0.00725474
0.07305242 0.03771739
-0.11792716 -0.00168515
0.15206578 0.12116080
0.09214258 0.11945768
-0.02006648 -0.09784986
-0.04983886 -0.14551035
0.01397678 -0.09285666
0.13900432 0.08781242
0.06686189 0.03914452
-0.08004145 -0.09158047
-0.01363394 0.00292606
0.04541672 0.13203554
-0.05084072 -0.12258983
-0.09111463 0.16961336
0.00821346 -0.03510455
-0.00059951 0.01006739
0.03929690 -0.06054220
0.15540010 -0.00145300
-0.00123059 -0.04186480
0.24661088 -0.06046530
-0.04913327 -0.14502804
-0.11728194 -0.09434862
-0.08052480 0.15161107
-0.14758995 0.05024764
-0.20464030 -0.24114877
-0.04467346 -0.02429640
-0.03896908 0.00307437
0.04124292 -0.11370831
0.00721190 0.11547051
0.00435916 0.00049466
0.08359966 0.26190850
-0.14172880 0.05573627
-0.07563249 -0.00616034
-0.13548109 0.41879022
0.02201173 0.06750072
-0.02646354 -0.08679668
0.22848481 -0.01611281
-0.00804863 -0.03857948
-0.06071334 0.00717610
-0.08175804 0.06081465
-0.17544243 0.08223976
-0.09455636 -0.02280178
-0.04681861 0.02333942
0.01669332 -0.02596053
-0.03582529 0.00062614
0.00494770 0.10345004
-0.07015030 0.19108039
0.02780718 -0.02493007
0.07586748 0.01278796
-0.03669224 -0.07535169
0.05994565 0.05281088
-0.04135809 -0.01611276
-0.00028983 0.10376298
-0.02638669 -0.07190193
0.04172909 0.02939862
-0.05731994 0.00200748
0.03573163 -0.04621979
0.14515774 0.12021015
-0.07332446 -0.07142844
-0.04040082 -0.08334325
-0.02715325 -0.03659615
0.09801428 0.05366499
-0.11432205 -0.06335030
-0.11493542 -0.03048506
-0.07047050 0.03414529
-0.02226429 0.02242817
0.01294729 0.07246120
-0.05687060 0.02236823
-0.08533404 0.01418558
-0.01900562 0.14519089
0.03096889 0.05078166
-0.05262215 -0.02908638
-0.05730573 0.06811027
0.00080959 -0.10222105
0.07819982 0.10189685
0.04942077 -0.07943063
-0.04217339 -0.05513062
-0.05170804 -0.03997312
0.07350823 -0.13608155
-0.12128232 0.03270902
0.01842539 -0.03362970
-0.05052156 -0.01205375
-0.05277129 0.02267825
-0.00743125 -0.01262714
-0.02214156 -0.12094500
0.04669857 0.18779305
-0.06236077 -0.15444735
-0.11077366 0.08536202
0.04109752 0.02232894
0.07946438 -0.00201657
0.02573399 0.01091593
-0.05615951 0.01903702
0.16616307 -0.00464285
-0.07010143 -0.05611673
-0.06201898 -0.20436360
-0.00539281 0.05495391
0.01485448 -0.14870240
-0.05975193 0.15101759
-0.11020555 -0.09964618
-0.08501340 -0.17396386
0.02214922 0.13894391
0.04269145 -0.13770798
-0.11878850 -0.13663445
-0.09799098 0.16611376
0.12407605 -0.11313248
0.04869465 -0.16776656
-0.08797012 -0.08518873
-0.03560185 0.03345285
-0.04971468 0.17196883
-0.12296166 0.04010874
-0.03501571 0.24922508
-0.07067329 -0.05196252
0.04943952 0.05305847
0.33387461 0.11338871
0.09132319 -0.09381609
-0.07524379 -0.07539205
-0.09235710 -0.17120641
-0.13446870 -0.16329236
0.01363501 0.04493324
0.00157787 -0.09961185
-0.04095057 0.23448189
0.10506499 -0.18569967
-0.06636439 -0.07804110
-0.09406897 0.14360249
0.07767179 0.15466991
0.01522965 0.11271339
0.23959920 -0.09751167
-0.17598595 0.15435944
-0.02020319 -0.00943766
0.01759558 0.12405886
0.02121181 0.05146095
0.00154435 -0.06944592
0.27102864 0.12674130
-0.06095659 -0.21621430
0.08068781 -0.08780787
-0.05149654 0.02205562
-0.02453883 0.16560464
0.02905972 -0.01608388
-0.03362850 -0.06300297
-0.01470666 0.08454371
-0.03329007 -0.02962132
-0.01214400 -0.07212719
-0.00681777 0.00765722
0.05758935 0.10805784
0.10083780 -0.01449218
-0.04758713 -0.05185295
0.01305602 0.04183509
-0.01891986 0.07958144
-0.11196846 -0.00845250
-0.07027257 -0.11002535
0.02851189 -0.03482388
-0.06877781 -0.03190317
0.00928952 -0.08269314
0.04338443 -0.04219444
0.07404132 0.09388777
-0.06727321 -0.05484466
-0.03754031 -0.05879454
-0.09810212 -0.02540660
-0.02945279 -0.09229285
0.00681565 -0.03660569
0.09422278 -0.04428665
0.04929994 -0.06109205
0.01969291 0.00192665
0.12986217 0.03208128
-0.14794309 -0.10938209
0.22245692 -0.00768798
0.10580132 -0.09104908
-0.07598889 0.00423296
-0.08085665 -0.13373050
-0.02379413 -0.11174040
0.02691646 -0.05989447
-0.08226173 0.06054697
-0.16532692 0.07676360
0.05015685 0.21493754
-0.06593280 -0.02354124
-0.08223841 -0.10577621
-0.04330918 0.03797682
-0.10768835 0.01808529
-0.12153006 0.48828337
0.03604914 0.05144868
-0.13769813 -0.23475763
0.13673453 0.13460541
0.04012442 -0.00089848
0.16289183 0.00657619
-0.12039153 -0.11763044
0.04587352 -0.02854378
-0.13367836 0.18825571
-0.04198008 0.10634114
-0.05604810 -0.08155623
0.00327543 0.13575837
-0.11877557 -0.13119991
-0.05371043 -0.06066862
0.01652648 0.19019634
-0.17969219 -0.04853293
0.12580208 0.16653672
0.04822185 0.09938495
0.07507235 -0.01192190
-0.15916526 -0.10697301
0.09155939 -0.08947801
0.05954424 0.04949658
0.04985293 -0.16067514
-0.05080730 -0.08986722
0.10091905 -0.04178671
-0.04933766 -0.07088759
0.09040851 0.02200839
-0.02706413 0.10548588
-0.03687760 -0.12901737
-0.17085288 -0.07118123
0.37040761 0.00094634
-0.05243758 -0.09089762
-0.08886690 -0.00417220
-0.03173755 -0.04380207
-0.01493483 -0.05095411
-0.14355236 -0.12901112
0.00959252 0.06695678
-0.15903527 -0.10658162
-0.00639241 -0.02560637
0.02431055 -0.11427479
0.10582269 -0.20258752
-0.10093537 -0.13316293
0.05510672 -0.04917050
0.13870457 -0.02509115
0.29714575 -0.03119018
-0.02817518 0.01138688
0.22453600 -0.01970357
-0.05420213 0.07042032
-0.01077555 -0.07279865
0.33208293 -0.07393809
-0.22992702 -0.06723148
0.13213705 0.02541822
0.06078201 -0.11083601
-0.03057155 0.24935307
-0.06269443 0.17960034
-0.22329298 -0.08537862
-0.01252516 -0.01451875
0.12282674 0.04434240
-0.01270652 0.06620431
0.00302216 0.04545731
0.04041129 -0.07631715
0.04611388 -0.09992215
-0.25250173 -0.03885452
-0.04179956 0.07087004
-0.09272440 -0.03654504
0.01098561 -0.10913497
-0.02652911 -0.04430965
-0.02131839 -0.07245679
-0.01830805 -0.10710610
-0.08419494 -0.05571800
0.01320983 -0.03835288
-0.01733425 -0.06500731
0.05383204 -0.05885888
-0.05368964 -0.08582344
-0.09332947 -0.00787808
-0.02941060 -0.04224705
-0.01817453 0.05250508
0.03585535 0.01092297
0.07034308 0.02806867
0.10278733 0.09470518
