0.00138906 -0.00425505
0.00008065 0.00106330
-0.00942565 -0.00160531
0.01141683 -0.00088246
0.00751870 -0.01016221
-0.00288255 -0.00518460
-0.00047429 -0.00614398
-0.00037365 -0.00091976
-0.00792788 -0.00443692
-0.00640419 -0.01949378
0.00086226 -0.01035106
0.00836172 -0.00071753
-0.00424708 -0.00834161
-0.00398354 -0.00076050
-0.00392578 -0.00204559
-0.00616835 -0.02588442
-0.00856071 -0.00442599
0.00083592 -0.00443246
0.00164727 0.00106414
-0.00035258 -0.00609439
-0.00404525 -0.00473226
-0.00297056 0.00084129
0.00582381 -0.01031133
0.00671113 -0.00358092
-0.00274618 0.01651331
-0.01965264 -0.00069393
-0.01737845 -0.00954708
0.00022949 -0.01198822
-0.00759095 -0.00279689
0.00975494 -0.00183962
-0.00422414 0.00244835
0.00140886 -0.01878574
0.01252204 -0.00487975
-0.01357375 -0.02745689
-0.00946543 0.00922966
0.00491455 0.01929694
-0.00073990 0.00219561
0.00967504 0.00382797
-0.03598690 0.00109478
0.01314048 0.00569390
0.01217117 -0.01104534
-0.00651531 0.00200432
-0.00549132 -0.00701102
-0.01242071 -0.00194929
-0.00141884 0.00992100
0.00261863 0.00254290
-0.00527876 -0.00314718
-0.00471788 0.00370168
-0.00248484 0.00370452
-0.00160716 -0.00978466
0.00534597 0.00163246
-0.00305768 -0.02011218
-0.00952312 -0.00134182
0.00500858 0.01816320
-0.00265155 0.00526336
0.00451197 -0.00061664
-0.00542274 0.00225759
-0.00262463 0.00532407
0.00435984 0.00458817
-0.01964228 0.00250953
0.00017650 -0.03345162
-0.00206533 0.01404559
0.00289521 0.00314349
-0.00615321 -0.00706372
0.00329170 -0.00254988
-0.00556548 -0.00992097
-0.00330960 -0.00938447
0.00365108 -0.00371574
0.00984108 -0.00614782
0.00122411 -0.00213313
-0.01111662 0.00634504
-0.00819211 -0.00913899
0.00723189 -0.00641912
-0.00484937 0.01227682
0.01195923 -0.00275306
0.00651485 -0.00246871
-0.01455644 0.00202984
-0.01904312 0.00673131
0.01427852 -0.01070091
-0.00210970 0.00224840
0.00383427 -0.00957402
0.00271558 0.00270056
0.00781034 0.00262310
-0.02255571 -0.00618101
0.00787681 -0.01177608
-0.00876686 -0.00014362
-0.00667448 -0.00502029
-0.00330710 -0.01607631
0.00178588 0.00118549
0.00194062 -0.00122889
-0.00378977 0.00986792
-0.00244282 0.00246195
-0.00599615 -0.00542492
0.00053225 0.00005518
0.00756256 0.00149953
0.00143845 -0.00459160
0.00107572 -0.01829026
-0.01362117 0.00030977
-0.00550634 -0.01583046
0.00101166 -0.01000949
-0.00082363 0.00559239
0.00975914 -0.01048429
0.00287020 0.00194394
-0.00289982 0.00204952
0.00059474 -0.00767029
-0.00300624 -0.03294626
0.02134782 0.01402715
0.00841297 0.00944743
0.00901501 0.00410952
-0.00162506 -0.00686946
0.01924928 -0.01266822
0.00539254 -0.00860079
0.00206890 -0.00179849
-0.01603684 0.00145043
-0.00783363 -0.01332590
0.00607780 -0.00248754
0.02027027 0.01116959
-0.01178032 -0.00816348
0.00499286 -0.00366505
0.00439754 0.00373300
-0.00872976 -0.01188803
-0.00857237 -0.00116788
0.02239360 0.00616678
-0.00360163 -0.00523747
-0.01512109 0.00732153
-0.01204715 -0.00119937
0.02007673 -0.01076356
0.00850705 0.00693560
-0.00803960 -0.01264540
0.00893546 -0.00575838
-0.01405508 -0.01700101
-0.00994797 -0.00871429
-0.00298662 0.02819968
0.00377132 -0.01279866
0.00388438 -0.01302807
-0.00041247 -0.00050197
0.00291020 0.00204287
-0.00086393 -0.00996696
-0.00216813 -0.00090975
-0.00015917 -0.01301551
0.00897212 0.00817764
-0.00584610 -0.02227376
0.00071553 0.00339200
0.00517066 0.02744851
-0.00435700 0.00752614
-0.00712607 0.01126988
0.00381526 -0.02270988
0.00779168 -0.00295854
0.00745600 0.01379692
-0.00719388 -0.00290981
0.00412626 0.00473146
-0.01023061 0.00847095
0.00117856 -0.02426848
0.00966301 -0.01745851
0.00868053 -0.01249067
0.00203562 0.01335858
-0.00570267 -0.00550388
-0.00275586 -0.00619166
0.00584661 0.00064813
0.00342942 -0.01067121
0.00384298 0.00766380
-0.01106635 0.00930125
0.00204036 0.00377610
-0.00323433 -0.00223309
-0.01184243 0.00729066
0.00113876 0.01210750
0.01028075 0.00746154
-0.01163061 0.00989869
0.01224287 -0.00042075
0.00307722 -0.00113486
0.00075417 -0.00594677
0.01674689 -0.00934418
-0.00165853 -0.00279128
-0.00394576 0.00693176
0.00602674 -0.01049042
0.00226316 -0.00079961
-0.00559044 -0.00203680
-0.00533216 -0.00257977
-0.01106680 -0.00982803
-0.01059490 0.00385368
0.00163431 -0.00804593
0.00929404 0.00396289
0.00164849 -0.00830452
0.00382843 -0.00804262
-0.00129079 -0.00743877
-0.01503523 -0.00330368
-0.00592690 -0.00095347
0.01444205 0.00196605
0.01392081 0.01901525
0.00078789 -0.00536523
-0.00731033 -0.00662471
-0.00639068 0.00619821
0.00680257 0.00501025
-0.00304746 0.00185811
0.01053640 -0.00769333
-0.01185595 0.00358126
-0.00919749 0.00749296
-0.00188451 0.00571811
0.00156646 -0.01327263
-0.00411415 -0.00250646
-0.00764831 -0.00215980
-0.00818705 -0.01177395
0.00614438 -0.00885203
0.00126271 -0.00600474
0.00810838 -0.00220917
-0.00584717 -0.00200419
-0.01721888 -0.00763947
0.00866631 -0.00626956
-0.01241485 -0.00153001
-0.00083223 0.01451979
-0.00493727 0.00374328
-0.00233230 -0.00138136
-0.01273975 -0.00623934
0.00298435 -0.01657935
-0.00180222 0.00874409
0.00712006 0.01821113
-0.00741586 -0.00480869
-0.00750034 -0.00839849
-0.01520606 -0.00646194
0.05514777 0.00448256
-0.02079580 -0.00097909
-0.00409886 -0.00283902
0.00193881 -0.00020597
-0.00364655 0.00832045
-0.00884675 -0.00309646
0.01669741 -0.01640575
0.01094294 -0.00924959
0.01096247 0.02444188
-0.00010782 0.00111691
0.00526805 0.00180282
0.00715656 0.00068636
-0.00535176 0.00110485
-0.00764853 -0.00673117
-0.00245082 0.01784182
-0.00286951 -0.00759956
0.00851038 -0.01616674
-0.00377290 0.02594171
-0.01350797 0.01273957
0.02751065 0.01990482
0.00239393 -0.01085232
-0.00288086 0.01262000
-0.00019343 0.02456387
-0.01000885 -0.00599570
-0.01743051 0.00955540
-0.02039600 -0.00827614
-0.01135948 0.00796854
0.02026143 0.01361366
0.00371545 -0.00221412
0.00491564 0.00638269
-0.00285707 -0.00081140
0.00302481 0.00960499
0.00425249 -0.01215402
-0.00823353 0.00426815
0.01411197 -0.02943479
-0.02647561 -0.00655549
0.00739173 0.00425108
0.03918714 0.01649884
-0.00437777 0.00934823
-0.00110070 -0.00243271
-0.00830346 0.00207402
0.00588615 -0.00781396
-0.01271862 -0.02132491
0.02741910 0.00980308
0.01914767 -0.01480146
-0.00487954 -0.00806848
-0.01553302 -0.00321788
-0.00989813 0.01558371
-0.00085025 0.00319563
-0.00382806 0.00629246
-0.00622021 0.00815604
0.00906587 0.00692961
0.01118217 -0.01315005
0.00582902 -0.02315135
0.02031951 -0.00963875
-0.00220118 0.00496472
-0.00583634 0.01076809
-0.00619175 -0.00933063
-0.00755513 0.00712233
-0.00594376 0.00848301
-0.00085651 -0.00319265
0.03490124 -0.00421425
0.01053409 0.03750644
-0.01611521 -0.00376966
0.02353428 0.00935978
-0.01523032 -0.02303338
0.00523534 0.00227610
0.01232827 0.01666046
0.01588918 -0.01608094
-0.00393558 -0.00351891
-0.01231993 -0.00814785
-0.00408799 -0.00329962
-0.00675514 -0.01754524
-0.00207080 -0.00742894
0.00303224 -0.00433839
-0.00373675 -0.00884234
0.00311521 0.00377964
-0.00103445 0.02203002
-0.00961577 -0.02101076
-0.00471693 0.00993114
-0.00151411 0.00316320
0.00503965 0.00734973
-0.01629179 0.00430992
-0.00433517 0.00045242
0.00877811 0.00026954
0.00701472 -0.00911590
-0.00452586 0.02222110
-0.00094254 0.00253254
-0.00282389 -0.01565457
0.00022247 0.00625787
0.00558047 0.00068064
-0.00445201 -0.00847636
0.01403180 0.00087880
-0.00790558 -0.00947113
-0.00500338 0.01030919
-0.00671916 -0.01368588
0.00183971 -0.00536169
-0.01097391 -0.00078242
0.01145475 -0.01260626
0.00626806 0.00567414
-0.01158897 -0.01026669
-0.01645182 0.01042362
-0.01638716 -0.02020732
0.00133618 -0.01607333
-0.00919917 0.00488383
-0.00451284 -0.00668630
-0.00826827 -0.00755370
-0.00426202 0.01304611
0.01168567 0.00939506
-0.00650026 0.00950264
-0.00688656 -0.01240072
-0.01703848 0.00705780
0.00895774 0.00849293
-0.00413550 0.00684523
0.00634532 -0.01006439
0.00273961 -0.00719866
0.01214398 0.00313590
0.00891571 -0.00870716
-0.01262457 -0.00785156
-0.00209494 0.00661213
-0.00578426 -0.01008177
0.00119388 0.00984365
0.01072851 0.01856363
-0.00772808 -0.01014367
-0.00948041 0.00647737
-0.00806327 -0.00464853
-0.00095244 -0.00314417
0.01320106 -0.00031599
-0.01021744 -0.00477339
-0.00177359 0.01252414
0.02316327 0.00347940
-0.00449590 -0.00557748
0.02563133 0.00849220
0.00386573 -0.01449868
0.00339875 -0.01354562
-0.01705691 0.00137890
-0.02018905 -0.01658013
0.00208920 -0.00345056
-0.02541823 -0.00671296
0.00102079 -0.00945216
0.00878803 0.02428915
-0.00274202 -0.02116642
-0.00681063 -0.01325659
-0.00906599 0.01438012
0.02019237 0.00896089
-0.00837434 -0.00874456
-0.00905666 -0.01026452
-0.01053024 -0.01763363
-0.00329788 -0.00903277
-0.01094206 -0.01565202
0.00875612 0.00058525
-0.00879199 0.01294666
-0.01037367 -0.00365483
-0.02086818 -0.00207358
0.02926748 -0.00594263
-0.00051277 0.01438111
-0.01080274 -0.00367256
0.00483227 0.01900636
-0.00194823 -0.01021541
-0.00648633 -0.01342450
0.01663055 0.00842633
-0.00528151 0.00057144
-0.00626908 -0.00848926
0.00212270 0.00827408
0.00318420 0.00484008
0.00511574 -0.01738118
-0.00253287 -0.00238364
0.00047664 0.01444968
0.00529516 -0.01943658
0.00431625 0.00962130
-0.01110161 0.00785583
0.00822726 -0.01698777
-0.00679276 -0.00144015
0.00813215 -0.01416655
0.00277085 -0.00931620
-0.00919271 0.01504448
-0.01473444 0.00893068
0.00008947 0.00374746
-0.03017018 0.00761857
0.00322439 -0.01070827
0.03162436 0.01487450
-0.00501531 -0.00715268
0.00113605 0.00436239
-0.00071615 -0.00223933
0.02052410 -0.00447795
0.00116364 0.00538400
0.00306948 0.01067492
-0.02057008 -0.00753699
-0.00906831 0.00450193
0.00854532 0.00427061
-0.00628416 0.02008756
-0.01567945 -0.01497614
0.00807950 0.00486980
-0.00621560 -0.01298532
0.01354734 -0.00676703
0.00867348 -0.00095156
0.00723356 0.00268108
-0.01236650 0.01912680
0.00185945 -0.01245445
-0.01043700 0.00474163
-0.01333365 0.01630711
0.00464632 0.00076638
-0.00182048 -0.00231067
-0.00856803 -0.00571556
0.01237624 0.01237075
0.00637670 0.01812004
-0.01503347 -0.00154914
-0.01304317 -0.00637668
0.00863019 -0.00438799
-0.00274996 -0.00852850
0.00514488 -0.01341371
-0.00206659 0.00504511
0.01183126 -0.00060541
-0.01151239 0.00363715
-0.00704213 0.00920354
-0.00965778 -0.01474937
-0.00702112 -0.00572686
-0.00116391 0.01194292
0.00268392 0.00286436
-0.01417537 -0.01036364
-0.01304755 0.00116682
0.01181073 -0.00789268
0.00735409 -0.00726065
-0.00603571 -0.00436455
-0.00767712 -0.00361463
0.00478918 -0.01684082
-0.00201143 0.00225438
0.00002347 0.00305206
-0.00542816 0.01272152
-0.00255224 -0.02126601
0.01044771 0.02040334
-0.00676750 -0.00884435
0.02163895 -0.00511114
0.01041338 0.01576744
0.01168867 -0.02100656
-0.01297834 -0.00585775
0.01169505 0.00755771
0.00513931 -0.00883143
-0.02871303 0.01890186
0.00654991 0.00893372
-0.01602452 -0.00732025
0.00451668 -0.01475076
0.01803013 -0.00253910
-0.00223646 0.01516279
-0.01090796 0.00135451
-0.00702354 -0.00344652
-0.00854789 -0.00833804
0.00467145 0.00963113
-0.00476392 0.02462175
0.02638992 -0.01131195
-0.00268963 -0.01119059
-0.01271939 0.02589973
-0.02260885 0.00460866
-0.00156764 -0.00461779
-0.00709307 -0.01894119
0.00364887 0.02245097
-0.01216059 -0.00273608
-0.00688253 0.00716528
0.02302700 -0.00318978
-0.01722243 0.00120148
-0.01074259 -0.00581643
-0.01137930 0.00242677
-0.00535224 0.00224527
0.00971101 -0.01708659
-0.01596509 0.00401122
0.00289715 -0.01267378
0.02155159 -0.00327422
-0.00987531 -0.00501871
0.00222834 0.00451236
-0.01041115 -0.00886252
0.00400925 -0.00298321
0.02201243 -0.00719826
-0.01990137 0.00826965
-0.00820588 -0.01178110
0.01879227 -0.01447470
0.00203090 0.02070339
-0.00371168 -0.00463047
0.01956165 0.00529582
-0.00106579 0.02175765
0.00650989 0.00015447
-0.00459270 -0.00191944
0.00186037 0.00209238
0.01629978 -0.01466311
-0.00046233 0.00998136
-0.00395689 0.00078645
-0.00843224 0.00443708
-0.00112964 0.00400310
-0.00261876 0.00030544
0.01516153 0.01700846
0.02451696 -0.03160174
-0.00201323 0.02079395
-0.01663539 -0.02557930
0.00324567 0.02222903
0.00219078 0.02206340
0.01252172 0.00871178
-0.02156262 -0.00651227
-0.00734135 -0.01836978
-0.01417327 0.01422197
0.02445710 -0.00450246
0.00735075 0.00952049
-0.00770389 -0.00207230
0.00758646 -0.00797157
0.00008299 0.01644893
-0.01984735 -0.01536850
0.01222333 0.00155860
0.01857040 -0.01549240
0.01940589 -0.01210706
-0.00023755 0.00516555
-0.01273894 0.00357879
0.00426882 0.00830048
0.00622155 -0.02207078
-0.00688450 -0.01342556
-0.00331432 0.00729534
-0.01394534 -0.00684260
-0.01649714 -0.00318016
0.01286199 0.00857743
0.01141418 0.01539546
0.01074830 -0.01299191
-0.00888034 -0.01568769
-0.00295676 -0.01628636
-0.01352854 0.01091086
0.00485175 -0.01062036
0.01388907 0.01508001
0.00809718 -0.02143941
0.00560553 0.00477367
-0.01752606 0.00661082
0.00626051 0.00981185
-0.01183681 -0.00940521
0.01580761 0.00144411
-0.00895860 -0.00342223
0.01827903 0.00953942
0.00953227 0.00038083
-0.02596888 -0.00315769
0.00460594 -0.01661661
-0.02309059 0.00433504
-0.01424200 -0.00047029
0.01144218 -0.00465800
-0.00511168 0.00304557
-0.00395843 -0.01006189
0.02149658 -0.00727510
0.00341633 -0.02155012
-0.00659382 0.00957738
-0.00518685 0.00347559
0.01566702 0.01572407
-0.01935636 0.00069841
-0.00948430 0.00218530
-0.00657932 0.00654595
-0.01328727 -0.02688901
-0.00209347 -0.00543461
-0.01105131 0.01242431
-0.00338967 -0.00084611
0.02604501 -0.00608110
0.01963125 0.01656880
0.00699848 -0.00925996
-0.01150226 0.00666374
-0.01144637 0.00010761
-0.00997215 -0.00888638
-0.01022357 -0.01028145
-0.00874383 0.00413465
0.00332976 0.00150293
0.02505362 -0.01022438
0.01620166 0.00133487
-0.00263856 0.02053328
-0.00867787 0.00440914
-0.01478276 -0.00339997
0.01808929 0.02295017
0.01900115 0.00698074
-0.00422834 -0.01816045
-0.01488305 0.00435207
0.00121669 0.01202772
-0.01936437 0.00511035
0.00502625 -0.01716409
-0.00964242 0.00115619
0.00070801 -0.00326201
0.01612372 0.01718706
0.00898712 -0.00377984
-0.00855500 0.00027504
-0.00311584 0.00752090
-0.01668072 0.00170195
0.02515194 0.01761779
0.00457560 -0.00766308
-0.00026493 0.00739271
-0.00625275 -0.00262704
0.00392112 -0.00486745
0.00439001 0.00685877
0.00293225 -0.00139532
-0.01640721 -0.00120485
0.01669195 -0.02351622
0.00920832 0.00984824
0.00298124 -0.00874313
0.00392530 -0.01147253
-0.00879702 0.00946045
0.01163087 -0.00904193
0.01225716 0.02316100
-0.01544709 -0.01022908
-0.02054998 0.00622260
0.02352850 -0.00490139
0.01433969 0.00330857
-0.00360949 0.00624976
-0.01881969 0.00752472
0.00540539 0.00493454
-0.00675074 -0.02047468
-0.01259199 -0.01718667
0.01637275 0.00024932
0.01372255 -0.00520772
0.01037387 0.00716061
-0.01267565 0.00386913
0.01686400 -0.00336872
0.02291264 -0.02068309
-0.02611529 -0.00022326
-0.00272502 -0.01147276
-0.01176296 -0.00191353
0.00158989 -0.00426599
0.01650783 0.00086557
-0.00271061 -0.00304030
0.00984540 -0.00005752
-0.01002052 -0.00810182
0.00880130 -0.01669159
-0.00650811 0.00442266
-0.00023164 0.02680873
0.00105770 -0.00354838
-0.00900158 -0.00221944
-0.00188907 -0.01160252
-0.00872737 0.00661541
0.00979631 -0.00055169
-0.01379792 0.00720277
-0.01363102 -0.00807838
0.01214293 0.00242115
0.01976861 -0.00926892
0.02359544 0.00972282
0.00493847 0.00020940
0.00813132 -0.00925677
0.00315601 -0.01100312
-0.01247024 0.00870008
-0.00679908 0.00334323
-0.00088696 -0.00906894
-0.00595910 0.00559777
-0.01220583 -0.00762960
-0.00191647 -0.00380996
-0.01245782 -0.01344662
-0.01845745 -0.00335081
0.01314304 0.02677505
0.00598624 0.00795297
0.00090976 -0.00437892
-0.00133228 0.01129304
0.02491475 -0.00654626
-0.01764904 0.00213374
-0.02311280 -0.00883161
0.00365876 0.00191840
-0.00931659 -0.00458101
0.00858168 0.01838925
-0.00520704 0.01691227
0.00205516 0.01310491
-0.00683499 -0.01640263
0.00311595 0.00041436
-0.02223831 -0.01865802
-0.00278758 0.01860199
-0.00646684 -0.00941710
0.00493140 -0.00661883
0.00587023 0.00870457
0.00932154 0.00564727
0.00212387 0.01224303
-0.00855434 0.01951619
-0.01884295 -0.01387657
0.00215542 -0.00104932
0.00064228 -0.01048511
0.01916994 0.00121695
0.01072221 -0.01991768
-0.00350932 0.00260503
-0.00047007 -0.00138381
-0.00938587 -0.00115948
-0.00066670 -0.01526459
0.00295540 0.01494571
-0.00337436 -0.00560076
-0.00566624 -0.00234059
-0.00301741 0.00024552
-0.02239385 0.01536066
0.01965845 -0.00301629
-0.00016095 -0.00968310
0.00760676 -0.01289003
-0.00028109 0.01156030
-0.01932860 0.00349197
-0.00155977 0.01783373
-0.00126746 0.00702405
-0.00046058 0.00535245
0.01082164 -0.00159963
0.00943309 -0.00429152
-0.02044537 0.01109644
0.01946430 0.00295730
-0.00009633 0.01039972
-0.00188268 0.00654219
-0.01258612 -0.00895032
0.00000747 -0.00989799
0.00594714 -0.00057764
-0.00770529 -0.00653982
-0.00796873 -0.00476322
-0.00413604 0.00974312
-0.00560470 -0.00475148
-0.00906111 -0.00855368
-0.02075893 0.00878491
0.00861152 -0.01001001
0.00737440 0.00703504
-0.00668361 -0.00402265
0.00397740 -0.00233628
0.01474832 -0.00593116
-0.00167635 0.01241387
0.02002449 0.01981618
-0.00072963 -0.00914313
0.00879372 -0.01375730
-0.00829754 -0.01847512
0.01477819 -0.01486756
0.00563244 -0.00226509
-0.01128755 0.00287357
0.00993268 -0.00159915
-0.00415389 0.01306723
-0.00027903 0.02193772
-0.00616194 -0.00353626
0.02230143 0.00635335
-0.02491679 -0.01331663
-0.00725393 0.00058996
0.01278955 -0.01053817
0.00966348 0.01035421
-0.01115497 0.00549392
-0.00590779 -0.00546912
0.00547796 -0.01598704
-0.00345958 -0.01353962
-0.00415305 -0.01539595
-0.01203819 0.00074281
0.00521200 0.01034323
0.00562589 -0.00401986
0.00477507 -0.01079664
0.00198821 -0.01210469
0.00158024 0.01120322
0.00717871 -0.00131001
0.00038399 0.01253503
-0.01397505 -0.00488284
-0.00523169 -0.00094517
-0.00374232 -0.00735103
0.00330111 -0.00925700
0.00010445 -0.01132165
0.00343184 -0.00861992
0.00558715 -0.01938947
0.00974466 -0.00735741
-0.00488950 0.00059917
0.01328476 -0.02362001
-0.00769610 0.01816590
0.00012092 0.00076606
-0.00269314 -0.00067601
-0.02132902 -0.00757177
0.00574817 -0.01153874
-0.01442078 0.01819881
-0.00555161 0.00278508
0.00779688 -0.00607854
-0.00869292 0.00158621
0.00561820 -0.00069789
-0.00921363 0.01245910
-0.00560995 0.00016201
0.01284598 -0.00258167
0.00968036 0.00289734
-0.00477485 0.00175668
0.01307504 0.00313778
0.00234049 -0.01385473
-0.00585609 0.01455393
0.00791288 -0.00858205
-0.02096989 -0.00923374
-0.00452976 0.01893328
-0.00235867 -0.01733235
0.00645193 -0.00302432
-0.00358528 -0.00908139
0.00814388 -0.02502195
-0.00095676 0.00851978
-0.01225569 0.00082033
0.02375499 0.02402512
-0.00205193 0.00666598
-0.00441761 0.02006463
0.01396073 -0.00911554
-0.00959607 0.00683075
-0.02226592 0.00523562
-0.00276672 -0.00531902
-0.00038919 -0.00280004
-0.00633199 0.00169632
-0.00047311 -0.01411214
0.00235504 -0.01467425
-0.00076026 -0.00543615
0.00087739 -0.00294891
0.00114516 -0.00474055
0.03549159 0.00893778
-0.00282116 0.01931894
-0.00321540 -0.00075634
-0.00564306 -0.00314615
-0.00513592 -0.00969908
0.00741827 -0.01495223
0.00791968 0.00047948
-0.01539253 0.01974251
0.00515162 0.00177273
-0.00201817 -0.02470811
-0.02094381 -0.00619028
-0.00676824 -0.00660603
0.01436260 0.00338875
0.01163010 0.03954816
-0.00469801 0.00064843
0.01020590 -0.00078368
-0.00977459 -0.00790188
-0.00795089 -0.00308732
-0.00208716 -0.00807048
-0.02066879 0.00045553
0.01976805 0.01568648
-0.00705954 -0.00912907
-0.00926954 0.01235502
0.01677052 -0.01852985
0.00880610 -0.00207927
0.00311107 -0.03342918
0.00598041 -0.00960782
-0.00890575 -0.01513628
0.00802473 -0.00861939
0.00269223 0.00144398
0.00754856 -0.00212421
0.02144734 0.03432037
-0.00428015 0.00394794
0.00683625 -0.01202138
-0.00445724 -0.00975179
0.00072554 0.00676426
0.00684545 -0.02341619
-0.01162345 -0.00836189
0.00626954 -0.01174486
-0.00428808 0.01028265
0.00771428 0.00055964
0.01334639 0.00943307
0.00066598 -0.00991001
-0.00600650 0.04451916
0.01506275 -0.00836844
-0.01979005 0.00643336
-0.01522262 -0.00100537
0.00167063 -0.00817846
0.01343989 0.00012234
-0.01384828 -0.01320751
-0.00492924 -0.00742796
-0.01144575 -0.02667757
0.01258431 0.00621546
0.01207026 -0.00950206
0.00770129 0.00354134
0.00815492 -0.00692639
0.00386838 0.01723859
-0.02646102 -0.00870593
-0.00203132 0.00543313
0.00653457 0.00219881
0.00747146 -0.00023388
0.01617069 0.01164400
-0.00941468 0.00391361
-0.01510075 -0.00664833
-0.00682916 -0.00440997
-0.00520562 -0.00506642
-0.01485184 -0.00707074
-0.00567454 0.00525171
0.00189748 -0.00511081
-0.00286226 -0.00590172
-0.02092300 -0.01494497
0.00920469 0.01205614
-0.01506002 0.00112835
0.01967985 0.01020973
-0.01411443 -0.01331795
-0.00628405 0.01691497
0.00409672 0.02801320
-0.00838480 -0.00900152
-0.00070279 0.00539788
-0.00590730 0.00101266
-0.01102837 -0.00072916
0.01074768 0.00953672
-0.00013701 -0.00503615
-0.00068322 -0.00806561
0.00479040 -0.00367303
0.01521088 -0.01495856
0.00429809 -0.00607885
0.00156002 0.00240955
-0.01187160 -0.00852205
0.01250387 0.00788871
-0.00514519 0.01003541
-0.00414763 -0.00139603
0.00652716 0.01366263
-0.00134577 -0.00086037
-0.00471283 0.00431614
-0.00433160 0.00431476
-0.01168242 0.00081324
0.02100651 0.00777150
0.00371272 -0.00353979
0.00093830 0.00191950
-0.00908732 -0.01956145
0.00609329 -0.00243896
-0.00080351 -0.00336445
0.00179376 -0.01012948
0.00834039 -0.02484243
0.00129567 0.00854387
0.01903029 -0.00475027
-0.01489835 -0.00643880
-0.01721265 0.00392991
0.00107653 -0.00038517
0.00211547 0.00251031
-0.00257808 0.01033355
0.00175462 -0.00275929
0.00388834 -0.00827980
-0.00548164 0.00045797
0.00605568 0.00009849
0.00214013 0.00460332
0.00413700 0.01385466
0.00968241 0.01050041
0.01604366 0.01037031
0.01006567 -0.01130311
-0.00736627 0.01062037
-0.00390596 -0.00253396
-0.00281484 -0.01652298
-0.00520715 0.00576821
0.00545649 -0.01903487
0.00749554 0.00070990
-0.00198164 -0.01215167
0.00802648 0.00652541
0.01028085 0.00008886
0.00929954 -0.01521173
-0.00697531 -0.00463438
-0.00919661 -0.01620064
-0.01141577 -0.01196490
-0.00701076 0.00528906
0.00364590 -0.01181296
0.00735357 0.01037135
-0.01411867 -0.01225241
0.03343923 0.00523807
0.00454507 0.00869729
-0.00659658 -0.01121314
-0.00387691 -0.01597350
0.00466359 -0.00425011
-0.01240533 -0.00211465
-0.01533632 -0.00087131
0.00077392 0.00251674
-0.00979950 0.01334041
-0.01300402 0.00259205
0.00699647 -0.00063229
-0.00799184 0.00257936
-0.01007163 0.00846980
-0.01792701 0.00917790
0.00210929 0.00676960
0.03256507 0.00073992
-0.01249738 -0.00687231
-0.00843388 0.00746434
-0.00154600 0.00101709
-0.01619707 -0.00992118
0.00787588 0.00505805
0.01723696 0.00738773
0.00047563 0.00146629
0.00859859 -0.01058440
-0.01843625 0.00298990
0.01068804 0.01562861
-0.00681746 0.00637177
-0.00566206 -0.00082300
-0.00543335 0.01154013
0.00896572 -0.00259647
-0.00521274 0.00279684
-0.02135619 -0.00842814
0.00322592 0.01274405
-0.01375536 -0.00076603
0.00022168 0.01147742
0.01072522 -0.00698367
-0.00477176 0.00092375
-0.01914685 0.01215725
-0.00021079 -0.00231388
0.02295655 -0.00325428
-0.01066106 -0.00531709
-0.00357747 -0.00238985
-0.00989114 -0.00918759
-0.00901024 -0.00560160
0.00633293 -0.00255351
-0.00615518 -0.00174547
0.00431848 -0.00708385
-0.00974645 -0.00102173
-0.01097492 -0.00854034
-0.01794726 -0.00595145
0.00175054 -0.01128428
0.00356637 -0.00860235
-0.01397373 0.02002728
-0.00234954 -0.01953565
-0.01785764 -0.00303781
-0.00080551 -0.00716170
-0.00003179 -0.00959854
-0.01009742 0.00288274
0.00012799 -0.00355689
0.01355413 0.00692625
-0.01128736 0.01001834
0.01042652 0.00328959
0.01270103 -0.02198283
-0.00018093 -0.01165899
-0.00356521 0.00878303
0.00091418 -0.00614568
0.00021436 0.00266135
0.00258113 0.00937749
-0.00220927 -0.00032624
-0.01446507 -0.01481561
-0.00602111 -0.01679751
-0.00316119 -0.00698308
-0.00262937 0.00316254
-0.00123386 -0.01115906
-0.00105247 0.00977655
0.01422325 -0.01643925
-0.01250460 -0.01317948
-0.00485598 -0.00936841
0.00323111 0.00236926
-0.01003427 -0.00152096
0.00043064 0.01079436
-0.00646816 -0.01447264
0.01257997 -0.00770823
0.00245539 -0.00750299
0.02579945 0.00237293
-0.00720302 0.00864894
0.00310114 0.00314371
-0.00513334 -0.00749611
0.01088578 -0.00248502
0.00101536 -0.00451823
-0.01211870 -0.00630957
-0.00350872 -0.00626801
-0.00161759 0.00230320
0.00696631 -0.00670504
-0.00077140 0.01557533
-0.00023698 -0.00286200
0.00263578 0.00201340
-0.00631125 -0.00753059
-0.00609018 0.00573452
-0.00249551 0.00810027
-0.00259193 -0.00771275
0.00529846 0.00683713
0.00372828 -0.02141770
-0.00375316 -0.00819912
-0.00695922 -0.00207028
-0.01199638 0.00463846
0.01011270 0.01540834
-0.00447653 -0.02357263
-0.00580924 -0.00667053
-0.01662805 0.00391218
-0.00944258 -0.00663686
-0.02710767 0.00494238
0.02833362 -0.01082023
0.01646611 0.00605664
0.00046539 0.00256917
-0.00817204 -0.00402837
0.00712556 -0.00838068
-0.00336621 -0.00462479
0.00372612 -0.02212500
0.00267028 -0.00476699
0.00452808 0.00951701
-0.01061728 -0.01745194
0.00051009 0.00500528
0.00253448 -0.00714286
-0.00006970 -0.01248505
-0.00212654 0.00023654
-0.00195555 0.01076037
0.00909152 0.00417970
0.00308993 0.01002008
0.00301019 0.00219818
-0.02183113 -0.01302426
0.01315557 -0.01245884
-0.00698466 -0.00500077
0.01116644 -0.00473524
0.00771064 0.00387480
0.00223835 0.00290267
-0.00324712 -0.00318014
0.00765560 0.00716397
-0.00811696 -0.00740637
0.01233858 -0.01689248
-0.00368821 -0.01012730
-0.00349077 0.00330963
-0.00758051 -0.00282142
-0.00266292 -0.00626228
0.00846717 0.01420639
0.00916842 0.00686925
-0.02007736 0.00718443
0.01858338 -0.00774440
-0.03468672 -0.00233965
0.00708737 0.02004039
-0.00110337 0.00457320
0.01201962 -0.00811122
-0.02089855 -0.01770455
-0.00672740 -0.00705191
-0.00045630 -0.01593908
-0.01292087 -0.01322805
0.01023379 0.00816804
-0.00826130 -0.00788862
0.01633366 0.01091704
-0.00872494 -0.00857487
-0.01000062 0.00537166
-0.01507268 0.00890039
0.02615173 -0.01194371
-0.00288740 -0.00740379
-0.00519284 0.00157832
0.01415091 -0.00034202
-0.02748183 -0.00235867
0.00424562 0.00755479
0.00227560 0.01339040
0.00933017 0.00156695
-0.00758661 0.02545373
-0.01643853 -0.00492038
-0.01141674 -0.00674362
-0.00632137 -0.03293490
-0.01750839 0.01922156
0.02911264 -0.01048999
-0.00454269 -0.01774208
-0.00981988 -0.02242317
0.00456128 0.01570853
0.01978199 -0.01196496
0.00937676 0.00052935
0.01676305 -0.01004697
-0.00188081 0.00562882
0.00749671 0.00845269
-0.01131169 -0.00329211
-0.01175582 0.01599625
-0.00076542 -0.00535853
0.00800967 0.00352832
0.02929842 -0.00420083
-0.00324584 -0.00038586
-0.01394955 -0.00021683
0.00051329 0.00194861
0.00747128 0.01800530
0.01872594 0.00542903
-0.01469711 0.00210143
-0.01315117 0.00396429
0.02002472 -0.00617629
0.00244018 -0.01992451
-0.01632903 0.00503053
-0.01471388 0.00611444
0.00808350 -0.01503272
0.01896827 -0.00596882
0.00031234 0.00712495
-0.00887299 -0.00774296
0.00631108 0.01582790
-0.00640210 -0.00691264
0.01415184 0.00969737
0.00569202 -0.00001467
-0.00194220 -0.00021391
0.01521979 -0.00388471
-0.01001109 -0.00853029
-0.00722734 0.00047242
-0.00591095 -0.00355706
0.01446822 0.01180923
-0.00670856 -0.00725541
-0.00828933 -0.01288800
-0.00640650 -0.00081270
0.00048064 0.02746547
-0.00168582 -0.00117571
0.01656509 -0.00598126
0.00473222 0.00120256
0.00243758 0.00340130
-0.01127289 -0.00082824
-0.00402943 0.00124340
-0.02170630 -0.00646820
0.01320935 -0.01727220
-0.00252976 -0.00871843
0.01036719 0.00525422
0.00566434 0.00433685
-0.01196959 -0.01693125
0.00250487 0.00505859
-0.01834617 -0.00229343
-0.00533266 0.01602197
0.00030066 -0.00320469
0.01294134 0.00021772
0.01982948 -0.01526780
0.00046327 0.01237090
-0.00941195 -0.01184115
-0.00816422 0.00519018
0.00562667 -0.02061651
0.01061134 0.00722250
0.00556435 -0.00910417
-0.00890124 0.01670083
-0.00310361 -0.00602632
-0.01435107 0.00461838
-0.01088164 0.00381994
0.00118211 -0.01549370
0.00255787 0.00437609
0.00400446 0.00748732
0.00882070 0.00497143
0.01465027 -0.01456362
-0.01779717 -0.00233253
-0.01408939 -0.00837024
-0.00105104 -0.00623868
-0.00097573 -0.00761448
-0.00394740 0.02473116
-0.00677026 -0.00642895
-0.00638402 -0.00122062
0.00373558 -0.00045487
-0.00602052 -0.00131253
0.00118025 -0.01086850
0.00737305 -0.00629156
-0.00709316 0.00789061
-0.00208246 -0.00169276
-0.00978132 0.00079357
-0.00107431 -0.00978991
0.00168209 0.00516815
0.00942226 -0.00911430
0.00704987 -0.00085313
-0.00353253 -0.01789453
0.00241869 -0.00811770
0.02210859 -0.00164195
-0.01249511 -0.01218933
0.00353363 0.01027597
0.04589880 -0.00289730
-0.00100567 -0.00328082
-0.00159936 -0.01319383
-0.00262830 -0.01944165
-0.00239769 -0.00443491
-0.00682573 0.00701628
-0.00099859 -0.01933298
-0.00615507 -0.00704188
-0.00174199 0.02787589
0.02286879 -0.00027180
0.01358123 -0.01436569
-0.00428077 0.00319795
-0.01958174 -0.00009134
0.00187978 0.00411812
-0.00712472 0.01689939
-0.00018080 -0.00856602
-0.00835662 0.00415572
-0.01267450 -0.00401406
-0.01128239 0.00196539
0.01722777 0.02074887
-0.00178237 0.02319483
-0.00027471 -0.00171866
-0.00091743 0.00916510
-0.00323323 -0.00167312
-0.01465057 -0.00530722
-0.01312705 0.00293389
0.00197312 -0.00728135
-0.01527606 0.00420542
0.00861703 0.00712352
-0.02173393 -0.02298171
-0.01199874 0.00128229
0.00385276 0.00029630
-0.00462578 0.00733179
0.01452363 -0.01247375
-0.01487886 -0.00145518
-0.01347908 0.00661586
0.00040588 0.00810752
-0.00102356 0.00689772
0.00387119 0.00579575
0.00647389 0.00224322
-0.01905378 0.04209047
-0.00934649 0.00012448
-0.01189934 0.00449187
0.00796676 -0.00274006
0.00237666 0.00092331
0.01667285 -0.00175755
-0.00295292 -0.01228954
0.00213881 -0.00248230
0.01410026 0.00461070
0.00417292 -0.02352475
-0.01884999 0.00544760
0.00072476 0.00061953
0.01258089 -0.00726214
0.00296707 0.00493258
0.01373757 -0.01791187
-0.00957283 -0.00936228
0.00622639 -0.02005332
0.00479509 0.00267205
0.02071365 0.01096407
0.00211725 0.00202284
-0.00262823 -0.00181010
-0.01057231 0.02885339
0.00935305 -0.01711116
-0.03488512 -0.00267112
0.00096115 0.00083424
-0.00179450 0.00093215
0.00590317 -0.00468405
-0.00558626 0.00203760
0.01496540 0.00444155
0.00254851 0.00049481
-0.01824686 0.02376020
-0.00221121 -0.00557311
-0.01728532 0.01246984
-0.00020336 0.02256790
-0.01185708 0.00167548
-0.00970008 -0.00395598
-0.00386362 0.02040098
-0.01849973 0.00572600
-0.01715840 0.02873998
-0.01380379 -0.01259727
-0.00220518 -0.00336109
0.01400041 0.01255925
-0.01641748 -0.00531122
0.00554583 -0.00654045
0.00401390 -0.00538328
-0.00713821 0.00335770
-0.00987938 -0.00901300
0.00079621 -0.00470671
-0.00027209 0.00474012
0.00301331 0.01479323
-0.02023655 0.01156227
0.01095365 0.01250125
0.01096652 -0.02376322
0.01999095 0.01501265
-0.00730205 0.01379966
-0.00672055 0.00323320
0.00248982 -0.01835462
0.01537874 -0.01090609
-0.00263733 0.00318430
0.00079750 -0.00427922
0.01627806 0.00775722
-0.00992937 -0.01981472
-0.01573806 -0.01005536
-0.00359765 -0.00163739
0.01752708 -0.01544101
0.00020909 0.00998207
-0.00558117 0.01595231
-0.00535897 -0.01049955
-0.00289530 -0.00708820
-0.00342634 0.00875071
-0.00686970 -0.00558694
-0.00848196 -0.00668786
-0.00313706 0.02274056
0.00688258 -0.00656825
-0.00362962 -0.01299452
-0.00390443 -0.01084581
-0.00293661 0.01128524
0.00874188 -0.00205022
-0.00704578 -0.00332234
-0.00064500 -0.01317171
-0.00767261 0.00726290
0.00453655 0.00933482
0.01137309 0.00363804
0.00768846 0.00836561
-0.01313275 -0.01133634
0.00040833 0.00117586
-0.00298537 0.00287453
-0.00572877 0.01592634
0.01813695 -0.01437529
-0.00760963 0.00498990
-0.00414846 0.01439117
-0.00271505 0.01490331
-0.00678905 -0.00710004
-0.02322949 -0.00851675
0.00359578 0.01169440
0.02647643 0.00390858
0.00498740 -0.00119600
-0.00572706 -0.01296159
0.00140091 0.00427385
0.01136913 0.01792665
-0.00137214 0.00165099
-0.01651878 -0.00877668
-0.00092798 0.00384735
0.00006763 -0.00077711
-0.00624419 -0.00722709
-0.00967777 0.00424679
-0.00232590 -0.01075029
-0.00730125 -0.00998168
-0.00028663 0.00622912
0.00756312 0.00653056
0.01252392 0.00806561
-0.01243255 -0.00259978
-0.00717848 0.00030847
0.00329894 -0.01081460
-0.00775974 -0.01914128
-0.00491495 -0.00810760
-0.00066551 0.00011503
0.01249787 -0.01229577
0.00290765 -0.00473039
-0.02633079 -0.00163504
-0.00232609 0.00147583
-0.01190436 -0.00233405
-0.00668749 -0.00393933
-0.01219272 0.00410512
0.00181008 -0.00991058
-0.00148637 -0.00162746
0.00657464 -0.00775811
0.00690662 -0.00966358
0.01127389 0.00493764
0.00787314 -0.00832195
-0.00429532 -0.00758549
0.02475179 -0.00793140
0.00165758 -0.00051896
-0.01024341 -0.00673007
-0.00493112 -0.00529193
-0.01674191 -0.01883478
-0.01403077 -0.01023604
-0.00559206 -0.00951941
-0.00607548 -0.00356743
-0.00660744 -0.00544055
0.00832825 0.00111469
0.00120220 -0.00316662
-0.00459374 -0.00190630
0.00742000 0.00832826
0.02456868 0.01148679
-0.01927412 -0.00320685
-0.01763585 -0.00015229
-0.00499773 0.00553893
-0.00972839 -0.01032830
0.00296518 -0.01062222
-0.00680822 0.00699798
-0.01060009 -0.00455640
0.00547027 0.00540170
-0.00161517 0.02214493
-0.02024184 0.00325231
-0.01979969 -0.02195200
-0.00798915 -0.00351800
0.00823811 0.00886544
-0.01887036 -0.00355430
0.00390946 -0.01316220
0.00901540 -0.01349122
0.00222912 -0.00803605
-0.00691353 -0.00314705
-0.00004778 0.00790612
0.00738185 -0.00783572
-0.00080454 0.00032927
-0.00602562 -0.01089742
-0.00130772 -0.00154745
0.00240699 -0.00154488
-0.01091031 0.00596955
0.00898251 -0.00042552
0.00238817 -0.00590032
-0.00074930 -0.00105872
-0.00870658 0.00393111
0.01134313 -0.01948982
0.00375509 0.02395107
0.01304565 0.01543264
0.00399191 0.01963919
-0.00421553 -0.00793476
0.00793601 0.00043824
-0.00938818 0.02520711
-0.01313037 0.01757448
-0.01714741 -0.02674675
0.00451546 -0.01554016
-0.00923024 -0.01178806
0.02631329 -0.01538318
-0.00565706 -0.00878798
-0.01910485 -0.00796487
-0.00773649 -0.00657156
-0.01439251 -0.00276101
-0.01060135 -0.01829989
-0.01691773 -0.00825501
0.01393540 0.02331256
0.01365433 0.00115733
-0.02036448 -0.01782954
-0.00823186 0.02216097
0.00101369 -0.00692872
-0.01342185 -0.00012994
0.00101912 0.00162086
0.01394888 -0.00142346
-0.00228198 -0.00342439
-0.00754714 0.00949591
0.02462110 0.01884009
-0.00131315 -0.00902785
0.00089606 -0.00589977
0.01024389 0.00261594
-0.00348228 -0.00766113
0.00432592 0.01589650
0.00494117 0.00981495
0.01005150 -0.00138382
0.00540128 -0.00553860
-0.00244182 0.01537162
0.00692061 -0.00106880
0.00589901 0.00412272
0.00161685 -0.01194156
0.01282792 -0.00973873
-0.01163204 0.00676763
0.00225323 -0.01485826
0.02132195 -0.00319018
0.00419369 -0.01218250
-0.00498336 0.00836572
-0.00696535 0.01844051
-0.00974129 0.00430881
-0.00022175 0.01778682
0.01674638 0.00797504
0.01678400 0.01713098
-0.00130525 0.01419380
-0.00596427 -0.00831622
-0.00355101 -0.00476328
-0.02196831 -0.00376180
0.00999212 0.01015778
-0.00608476 0.01129191
-0.00483242 0.00684473
0.01263029 -0.00253239
-0.00161668 0.01174901
0.01041268 0.01072545
-0.00203280 -0.00536286
-0.02344155 -0.00272497
0.00598111 0.00418476
0.00979634 0.01629322
0.00976437 -0.00302009
-0.00937533 -0.00080572
0.00812659 0.00291267
-0.00590115 0.00110730
0.00505228 -0.00607039
0.02327412 0.00234766
-0.00346321 0.03224106
-0.00264648 0.00335237
0.00860342 -0.01259565
0.01597486 0.01165558
-0.00831426 0.01417533
0.00471921 -0.00780038
0.00334754 0.00727291
0.00937468 0.00499329
0.00269357 -0.00931887
0.01367275 0.00295085
-0.00000767 -0.02052884
-0.00142176 -0.00217767
0.01099298 -0.00723901
0.00530538 -0.00372610
0.00033960 0.00629860
-0.00252967 0.00629901
0.01215665 0.00305191
0.01230146 0.00931223
0.00166775 0.00790435
-0.00259398 -0.00142650
-0.01800927 0.00673244
-0.01448178 -0.00879145
0.00592038 -0.00965291
-0.00934517 0.00092902
0.00272733 0.01541424
0.00247915 0.01713485
-0.00666997 -0.02687062
-0.00659350 -0.01345242
0.00403759 -0.01029629
0.00067585 0.00654009
-0.01127234 0.01620188
-0.00711213 0.00483522
0.00504823 0.01476934
0.00770728 0.00851296
0.02661841 0.03042434
0.03730212 0.02405979
0.01329244 -0.01097488
0.01378220 0.00093813
-0.01153438 -0.02029240
-0.00027446 0.00503040
-0.00444590 -0.00065202
-0.00644674 0.01081438
-0.01547484 -0.00374938
0.01375796 0.00109347
-0.00695624 0.00671875
0.01283312 -0.00319185
0.00745464 -0.00373826
-0.00281504 0.00655297
0.00465042 0.00858776
0.02018207 0.00394005
-0.00205058 0.00182830
-0.00383045 0.01329445
0.00414792 -0.00068361
0.00975684 0.03771668
-0.00587519 0.01622970
-0.00430301 0.01506906
-0.00072821 0.00314277
0.00067903 0.00956994
0.02264981 0.01529900
0.00777581 -0.00029961
-0.00156493 -0.00631687
0.00923845 -0.00624956
-0.01608329 0.03738425
0.00489627 0.00055526
0.00270387 -0.01601705
0.03206697 0.01688932
0.03513276 0.00655343
0.02639266 0.00783070
0.00107867 -0.01053423
-0.01427600 0.00178727
-0.01426630 -0.00967807
-0.01253177 0.00575299
-0.00349833 0.00153325
0.00608248 -0.00067968
0.00557735 0.00957665
-0.00774090 0.00708144
0.01069156 0.00564631
0.01538409 0.00446590
0.00150328 0.00058506
0.00355808 0.00761521
0.02293020 0.01702792
-0.00818621 0.00320206
-0.01184531 -0.00489628
0.00253649 0.00899346
-0.00190266 -0.00212295
0.00026221 -0.00606329
0.00596918 -0.00433719
-0.00609468 -0.01396441
-0.01573538 0.01228742
-0.00197375 -0.01434879
0.01179075 -0.00281117
-0.01765998 0.00511692
0.01359234 -0.00197863
0.00499050 0.00474104
0.01916522 0.00306697
0.00031284 0.00640634
0.01656352 0.00573405
0.00475378 0.02714410
0.03037042 -0.00114340
-0.00983959 -0.01258855
-0.00131455 -0.00678622
0.01598431 -0.00441800
-0.01459973 0.00729882
-0.00640366 -0.00951127
0.00360004 0.01870770
0.00560832 -0.00097271
0.01164112 0.01507249
0.01613661 0.03324418
0.00375099 -0.00087920
-0.01461980 -0.00676943
-0.00164479 0.00440046
-0.00927450 -0.01313579
-0.00335224 -0.00323538
0.01061307 -0.03376924
-0.00212986 -0.01445443
-0.01454432 -0.01653549
-0.02268515 -0.01848244
0.00586583 -0.00658838
0.01022609 -0.00500429
0.00157438 0.00063020
0.00775518 0.02354129
0.00543246 -0.01161052
0.00726291 -0.01760870
-0.00156962 -0.01202695
-0.00237266 0.00541938
-0.00661798 -0.02592122
0.00606123 -0.00481393
0.00353436 0.00694086
-0.01458756 -0.01332793
-0.00247740 -0.01094657
0.00765865 -0.00454381
-0.01628410 -0.00197838
-0.00182512 0.00969967
0.00840319 0.00485760
0.01172569 0.02981895
0.00652146 0.00229690
-0.00172241 -0.00628591
0.01389699 -0.00263274
-0.00853386 0.00620420
0.00657209 0.00095698
-0.01107341 -0.00699945
-0.00576299 -0.01477527
0.00191254 -0.01279303
0.00225211 -0.00547189
0.00233828 0.00572759
-0.00031626 0.00301096
0.01652738 0.01482939
0.00356418 0.00314101
0.01604236 0.00551973
0.00483261 -0.00709502
-0.01346159 -0.00837488
-0.01973584 -0.00938880
-0.03251165 -0.02567541
0.00083976 -0.00730807
0.00593869 -0.01428192
0.00581151 0.00659306
0.01675541 0.00461972
0.00711641 0.00206527
-0.00029852 0.00484044
-0.00083602 0.00420801
0.00275722 -0.00164870
0.01850591 0.00342634
0.00613230 -0.01127314
-0.00224903 0.01618351
-0.01189554 -0.00356403
-0.00041169 -0.00831788
-0.01339654 0.00191841
-0.01291715 -0.00580532
0.00522296 0.00967185
0.01264044 0.00886232
0.00036340 0.01381903
-0.00079060 -0.00497952
-0.01871146 0.01658593
-0.01654545 -0.01036915
0.00121345 -0.01683630
-0.00595527 0.02549667
0.00084528 -0.00994338
0.00685357 -0.00207592
-0.01021753 0.01247814
-0.01358829 -0.01231588
-0.01202301 0.01406325
0.01066176 0.00648339
0.00501352 -0.00628660
0.00702290 0.00650174
-0.00251668 -0.01149102
0.00201774 0.00012094
-0.00737925 0.00932769
0.01558331 0.01263239
0.01290972 -0.00779399
0.00952776 -0.00992055
0.00026039 -0.00182110
-0.00635522 0.00564373
0.01285369 -0.00476258
0.00290533 0.00354321
-0.02001003 -0.01538275
-0.01427009 -0.03783185
-0.05221232 -0.02380492
-0.05669413 -0.04418208
0.00453766 -0.01227233
0.01715290 -0.00794283
-0.00552921 -0.00564395
0.02272111 0.01891624
0.00689338 -0.00544457
0.01050116 -0.00741226
0.00523076 -0.01636931
-0.00285262 -0.00922612
0.00403561 -0.00064227
-0.00439902 -0.01897381
0.01598834 -0.00391915
-0.00406225 0.00736418
-0.00311549 0.00372017
0.00405178 -0.00144083
0.00590534 -0.00247751
-0.00111629 -0.00199867
0.02646980 -0.00114985
0.00439460 0.01311367
-0.00434044 -0.00329278
-0.01008493 -0.00246348
0.00232366 -0.00683348
0.00761385 0.00876938
-0.01446873 0.00688059
0.00580206 0.00467151
0.00526942 -0.00656723
-0.00575146 -0.01749398
-0.01641324 -0.01111965
0.00283832 0.00345022
-0.00655456 -0.01224250
-0.00255937 -0.01083334
-0.00734626 0.00708229
0.00373765 0.01208885
-0.00506844 0.00167798
-0.00302646 -0.00874782
0.00316768 -0.00495360
0.00751608 0.00214149
-0.01696255 -0.01581259
0.01894394 0.00805156
-0.00131546 -0.03256025
0.02396178 -0.00134526
0.01212342 -0.00591836
0.01357464 -0.01055377
-0.00216453 -0.01908689
0.03253538 0.01649658
-0.00591094 -0.02083687
-0.00034712 -0.00558970
-0.01440991 0.00612242
0.02840307 -0.00594370
0.01322932 -0.00862446
0.01574034 -0.00117571
0.00323467 0.00473243
-0.01606987 -0.00544344
-0.01432485 -0.01193675
-0.00126275 0.00479781
-0.01796975 0.01000105
-0.00125924 -0.01224330
0.01009654 -0.02058968
0.00308257 0.00609205
-0.00993958 -0.01046403
0.00442477 -0.00147404
-0.00972525 0.00725376
-0.00215500 -0.01818731
0.00069582 0.00813451
-0.00692634 -0.02238170
0.00514098 -0.00530276
-0.00399522 0.02571714
0.00647989 0.00507570
0.00466482 -0.00470854
0.01437864 0.00891290
0.01237071 -0.00594905
-0.01218028 -0.00906240
0.00021355 0.02362101
0.00669126 0.01018661
-0.00573684 -0.01197610
-0.00754411 0.00173251
-0.00558984 0.00846432
0.01362174 -0.01281780
0.00999024 0.03557735
0.00281367 -0.00088690
-0.02587837 -0.01332849
0.00016348 0.00345537
-0.00236867 0.01049049
0.00280627 -0.00039278
-0.00646619 -0.00726430
0.00756382 0.00694655
0.01297152 -0.01432820
-0.00452025 0.01807639
-0.00417487 -0.01993222
0.00035015 0.01437886
0.00448145 -0.00369492
-0.00904510 -0.00406338
-0.01432647 -0.00954796
-0.00434221 -0.00254575
0.00391163 -0.00048170
-0.01636720 -0.00588272
-0.00455282 -0.00085866
-0.00932298 0.00379410
-0.00824703 -0.00545807
-0.00830604 0.00463853
-0.00393960 -0.00324006
0.00783907 -0.00735404
-0.01255054 -0.01044905
-0.00138082 -0.01177726
-0.00971888 -0.00105316
-0.01906731 0.00386049
-0.00966475 -0.01627944
0.01405878 0.01614382
-0.01597703 -0.00683968
-0.01185490 0.00274879
-0.00114556 -0.01358430
-0.00315318 -0.00353285
-0.00180895 0.01210322
0.01423684 -0.00235545
-0.01606478 0.00616394
-0.00080772 -0.01285429
0.01141826 0.00796151
0.00464131 -0.02215662
-0.00701559 -0.00967350
0.00599755 0.01374765
-0.01283447 -0.00607681
0.00386329 -0.00398305
0.02014743 0.00684517
0.00683738 -0.00738249
-0.01056842 -0.00897305
-0.01575171 -0.00109114
-0.00239592 0.01191505
-0.00857912 0.01212982
-0.00943820 -0.02654444
0.01436725 -0.01122126
0.00055550 0.01719458
-0.02472324 0.02534929
-0.01354946 -0.00959605
-0.00622672 -0.00539339
0.00859474 0.00674417
-0.00173490 0.01578322
-0.01644996 -0.00124609
0.00193868 0.00230868
0.00440584 -0.01036482
-0.00333670 -0.00316991
0.00317961 0.00274610
0.00570843 0.00066853
0.00776868 -0.01765713
0.00148868 -0.00367820
-0.00529640 0.00051042
0.00921422 -0.01208045
0.00487005 -0.01556452
-0.01337117 0.00233782
-0.00813807 -0.01016693
0.01489277 0.00083142
-0.00826507 -0.00156289
-0.00397877 -0.00530573
0.00501685 0.00714100
0.00317432 0.00196450
0.00281090 -0.00212273
0.00447781 -0.01155627
-0.00331857 0.00594663
0.00297117 0.00207424
-0.01521208 0.00363460
0.00039666 -0.01314146
-0.00857597 -0.00011563
-0.01089811 0.01575712
-0.01529691 -0.00277757
-0.00605922 0.00131906
0.00641146 0.01057863
0.00746864 -0.00210704
-0.01595618 -0.00410665
-0.00377961 0.01050970
0.00751559 -0.01032790
-0.00804563 0.00286703
0.00439517 0.00870313
-0.01647996 0.00055043
0.00234342 -0.02163162
0.00776489 0.01447240
0.00815023 -0.02337849
-0.01071532 0.00351731
0.00047555 -0.00362993
0.00408294 0.00178977
-0.00318478 -0.00411180
-0.01634143 -0.00776984
-0.01142665 0.00782820
0.02742413 -0.02819541
-0.00695405 -0.02341139
-0.02839687 0.02806792
0.02207083 -0.00691529
-0.00496435 -0.01027543
-0.00715560 -0.00362374
-0.00470739 -0.00626548
0.01810877 -0.00483068
0.00373742 0.00554789
-0.00203823 -0.00825935
0.00054771 0.01525788
-0.02761263 0.01516796
0.01514392 -0.00114905
0.00728623 0.00208623
0.00419028 -0.00124957
0.01649200 -0.01160511
0.00627561 0.00866701
-0.00793942 -0.01063002
0.02206074 -0.01888599
-0.00020294 -0.01978686
-0.00763136 -0.00827531
0.00216711 0.00161056
0.00896563 0.01643292
-0.00193005 -0.02347195
-0.01114299 0.00179318
0.00112032 -0.00934807
0.00740858 -0.01021859
0.00359964 -0.00820695
-0.00051242 -0.02016266
0.00497158 0.00941359
-0.01447402 0.01207347
-0.00181310 0.01230428
0.00394907 0.01296718
0.00343360 -0.01327053
-0.00395161 0.00167389
-0.00604812 0.00456865
-0.01036247 -0.00770213
0.01538677 0.02636050
0.00925414 -0.00885486
-0.01447418 0.00587236
-0.00500858 -0.00045245
-0.00062356 -0.01367960
0.00987536 0.02395545
-0.02206620 -0.00309225
-0.00664088 0.00786316
-0.01021607 -0.00237230
-0.00003240 0.01517124
-0.02221810 -0.00889130
-0.00026287 0.00779690
0.00431113 0.00924151
-0.01813828 0.00063707
0.00334248 -0.00955694
-0.00611371 0.00910335
0.00135355 0.00289380
-0.00185769 0.01858621
-0.02295033 -0.00360783
-0.00949580 -0.01482705
0.00918133 -0.00730489
0.00470097 -0.00567558
0.00656596 -0.00552236
-0.00063814 0.04651472
-0.01436208 -0.02555708
-0.00259691 -0.01146751
0.00921430 0.00466570
-0.00691040 0.00199906
-0.01352781 0.00118058
-0.01970468 -0.02036801
0.00320439 0.01570298
0.00044152 -0.00058187
-0.01528953 -0.00604139
-0.00271155 0.00328094
0.00146138 0.00065568
-0.01218812 -0.01013020
0.00960250 -0.00101708
-0.02068518 -0.00102502
0.00042281 0.03111507
0.00334468 0.00492209
-0.01846852 0.01422944
0.01121025 0.02913003
0.00177282 0.02456511
-0.00773462 -0.01047637
-0.00510781 -0.00637003
0.02002289 -0.01080078
-0.01167311 0.00611689
0.00560374 0.01102025
0.00075776 0.01359425
0.00519318 -0.01276033
-0.00193087 -0.00171901
-0.00519952 -0.00352251
0.00340503 -0.01062852
-0.01129343 0.00260717
-0.00283927 -0.00063368
-0.01173031 0.00759000
0.00082904 0.00871860
0.00851043 -0.00621235
0.01146489 -0.00308313
0.00124770 0.01211520
-0.01008203 -0.01319082
-0.01606058 -0.00578605
0.01997317 0.01087616
-0.01406987 0.00490602
-0.03616280 -0.00331563
-0.01348446 -0.00656128
0.00796933 -0.00973978
-0.00249616 -0.00047728
-0.01730786 0.02402833
-0.00399069 -0.00172878
-0.01226023 0.00877367
0.00408672 -0.00951614
-0.01496440 -0.01675823
-0.01152651 0.00911213
0.00525338 0.01351961
0.00728312 -0.00919475
0.00159325 -0.00994130
-0.00356207 -0.00599689
0.00671239 -0.01006635
-0.00967102 0.02067813
0.00011717 0.00235111
-0.00668657 -0.00122225
0.00371538 -0.01709316
0.00143853 -0.02671772
0.00053735 0.02275566
-0.00268874 -0.00163873
-0.00378183 -0.00229448
0.00805073 -0.00664743
-0.01165510 0.00121890
0.01010283 0.00071336
0.00939466 -0.01800984
-0.00966109 -0.00148895
-0.00798022 -0.00140581
-0.00011750 0.00848428
0.01286956 -0.00668627
0.00070136 -0.01647055
-0.00337374 -0.00980493
-0.01558225 0.00004233
-0.00041498 0.00408400
0.00946351 0.00867686
-0.00394890 -0.00255898
-0.00351299 -0.00527489
-0.00584089 0.00829756
0.01427995 0.00658432
-0.02389592 -0.01483978
0.01283136 -0.01787019
-0.00702116 -0.00378789
-0.00400210 -0.00391420
-0.00527179 -0.00861968
0.00109418 -0.00062250
-0.00771622 0.01564172
0.01544997 0.02220330
-0.01887115 -0.00338519
0.00398242 0.00382385
-0.00009160 -0.00107668
0.00535331 -0.00588194
-0.01049627 0.00688482
0.01639191 0.01630300
0.00981463 0.01234498
-0.00199085 -0.01224804
-0.01432978 -0.00443074
0.01586933 -0.01933309
0.00838909 -0.00448529
-0.00896606 -0.00265041
-0.00484183 -0.00753663
-0.00004150 -0.01268384
-0.00739740 -0.01882057
-0.00865533 0.01434222
-0.00601664 -0.01266144
0.00330825 0.00138464
-0.00427076 -0.00000834
-0.00272896 -0.02312945
-0.00716958 -0.02089308
-0.00588919 0.01229484
-0.01151321 -0.00486861
-0.00278847 0.01185967
-0.01624680 -0.01179226
0.00805129 -0.00002184
0.00032780 0.01652416
-0.00421893 -0.00114142
0.01734007 0.02177639
-0.00155144 -0.00938249
-0.00184253 -0.00975870
-0.00130607 -0.01348105
0.00197516 -0.00747655
-0.02847416 -0.00088497
-0.02410292 0.00621135
0.00077094 0.00223847
0.00463172 -0.00450668
-0.00429051 -0.00938428
-0.01717316 -0.00805826
0.00223155 0.01326857
-0.00484527 -0.00450555
0.00768225 0.00154243
-0.00723600 -0.00332571
0.00253444 0.00561938
0.00032533 -0.01505712
-0.01165841 0.00348757
-0.01150331 -0.00483362
0.00655987 0.01278265
0.01412092 -0.01277535
0.00237448 -0.00570696
-0.01318531 -0.01116680
-0.00339353 -0.01253049
-0.01286635 -0.00182287
-0.01026566 -0.00748266
-0.00139770 0.00380130
0.00210977 0.00756491
-0.01145791 0.01520288
-0.01715194 0.01814291
0.00432013 0.00518698
-0.01146283 -0.00326913
-0.02068158 -0.01012548
-0.00672429 -0.02311838
0.00811916 -0.01287713
-0.00329807 0.00399987
0.00210014 -0.00247571
-0.00800071 -0.00190797
-0.00415554 -0.00668923
-0.00139585 -0.03163827
0.01442104 -0.00249555
-0.00952140 -0.00151553
0.00088649 0.02791104
0.00329117 -0.00015864
0.00217394 -0.00751124
-0.00319843 0.01363549
0.00803622 -0.00633698
-0.00264914 0.00229971
0.00041790 -0.00686886
-0.00003446 -0.00027995
0.01798236 -0.00647812
0.00863095 0.00167210
-0.00811108 0.00051215
-0.02061641 0.02081811
0.00167083 0.01021557
-0.00312447 -0.00052995
0.00444824 0.00072108
0.02248519 -0.01326542
-0.00181818 -0.00221502
-0.03004249 -0.01478802
-0.00817579 -0.01443017
-0.00197357 -0.00750827
-0.00720777 0.00491896
-0.00282279 -0.00730699
-0.00288623 0.00537869
-0.01177532 -0.00078585
0.01317706 0.00151176
-0.00172785 -0.00590261
-0.01650740 -0.00033713
-0.02137132 -0.00372155
-0.00565965 -0.00787384
0.00249283 0.01310546
-0.00213274 0.01338036
-0.00306402 0.01260974
0.01316199 0.01074967
-0.00353486 -0.00496352
-0.00264070 0.00547319
0.00540791 0.00849754
-0.01808030 -0.00672874
-0.01090414 0.01779299
-0.00758669 -0.01884311
-0.00838121 -0.04026533
-0.01476046 0.01646643
0.00184773 0.01679493
-0.01171719 -0.01112602
0.00032582 0.02100436
0.00975825 0.01986618
0.00389001 -0.02762285
-0.00716334 0.01645105
-0.00752731 0.01259414
0.00065705 -0.00169902
-0.00541500 0.01776129
0.00130397 -0.01157326
-0.01642135 -0.02363029
0.00877466 -0.01292822
0.00050590 -0.01478479
0.02587168 -0.00563586
-0.00526219 0.00148826
0.00751869 -0.01347600
0.00067230 -0.04178106
-0.00776765 -0.00610181
0.00500424 0.00610265
-0.00018285 0.00721639
-0.02049592 -0.00597323
-0.00107327 -0.00280542
0.01503727 0.00838840
0.00573009 0.01750249
-0.00279193 -0.00306122
-0.00420477 -0.00160943
-0.00480131 -0.01220601
0.00168495 -0.00109869
-0.00153442 0.00548359
-0.00017280 0.01540064
-0.03651273 -0.00532011
-0.00606438 0.00007005
0.01246946 0.00557614
-0.00430854 0.03548095
-0.01828109 -0.00680723
-0.00065062 0.01509576
-0.02584929 -0.00121969
0.02099547 -0.00640360
0.00277507 0.01181578
0.00469261 -0.00674972
-0.00126916 0.00610939
-0.00304181 -0.00127766
-0.00835621 -0.00935607
-0.02886325 -0.01476375
-0.00168312 -0.00534854
0.01805813 0.00365799
-0.00667020 0.03605371
-0.00731651 0.00449072
-0.02553363 0.00514142
-0.00270498 -0.00029400
0.01119283 0.00109223
-0.01307575 0.00395791
-0.01675950 0.04002099
0.00416213 -0.00536335
-0.00507881 -0.01131243
-0.00846757 -0.01212836
0.02097149 0.00058668
-0.00822698 0.01233724
-0.00315306 -0.00800879
-0.00344763 -0.01664055
0.00063017 -0.00750807
-0.00133973 0.01181047
0.01370544 0.00051977
-0.00522257 -0.00690164
0.00381766 -0.00443387
0.00435166 0.01125542
0.01132257 -0.01354238
-0.00472249 0.00258118
-0.00580624 -0.01366677
0.00277450 -0.00031643
0.00808335 0.00804155
-0.00316745 -0.00081305
-0.01877244 0.01389268
-0.00247181 -0.00228082
0.01506367 -0.00667316
-0.00034125 -0.00363388
0.00490349 0.00134629
-0.00018984 -0.00697413
-0.00228498 -0.00288610
0.00314537 0.01156543
0.00094776 0.00139798
0.00075012 -0.00812362
0.00636322 0.01000750
0.01200594 0.00083891
0.00668817 -0.00835314
-0.01294565 -0.00842265
-0.01793165 -0.00675885
-0.00022616 0.00221209
0.00279310 -0.00946501
-0.01529614 0.01696826
0.00714035 0.00846340
0.01159264 0.00534169
0.00929612 0.01266485
-0.00535457 -0.00594134
0.00471923 -0.01535750
-0.00721046 -0.00384781
0.00909652 0.00283703
-0.00526464 -0.02083784
-0.00619326 0.01467504
0.01076304 0.00165724
0.00384892 -0.00823085
0.01239684 -0.00679295
-0.00375407 -0.00485527
-0.00298283 0.00360887
-0.01686781 0.00542214
-0.01410024 0.01488456
-0.01085393 -0.01790942
-0.00844806 0.00009504
-0.00713995 0.00786684
-0.00219471 -0.01245357
0.00609354 -0.00365959
-0.00205250 0.02205355
-0.00522569 -0.00486866
-0.01144505 -0.01073048
0.00344508 0.01342943
-0.00528132 -0.01048110
-0.00682903 -0.00513427
-0.00225881 -0.00233891
-0.00476851 0.03109655
-0.01633973 -0.01105289
-0.00010980 0.00453590
0.00522739 0.01467752
-0.00072981 0.01267287
0.00511898 0.01520285
-0.00371356 0.03584023
-0.01542798 0.01186659
-0.01388355 -0.02265937
0.01085592 -0.00275758
0.00655678 -0.01047376
-0.00416652 0.00854514
0.00249258 0.00941714
0.00015124 0.00541591
-0.02801695 0.00934450
-0.01131510 0.02933259
-0.00459417 0.00036406
-0.01416165 -0.01790308
-0.01009775 0.01674751
-0.02611526 0.02362543
-0.00962859 -0.00054396
-0.00094285 0.00992761
0.00769710 -0.00142792
0.01066907 0.00628350
0.00698816 0.00059374
0.00691238 0.00294502
0.00198794 0.00393102
0.00569247 -0.00247784
0.02500457 -0.01115946
-0.01361527 -0.00823050
-0.00396348 -0.00809591
-0.01725077 0.01230617
0.02277224 -0.00978120
0.01207688 -0.03008940
-0.00853797 -0.00207606
0.01856402 0.00707959
0.02173146 -0.01461185
0.01187987 -0.02583330
0.01641840 0.00907208
-0.00830164 0.00170298
0.00871899 -0.01208706
-0.01069731 0.00780807
-0.00247034 0.02963591
-0.00264414 0.00206395
-0.02372977 0.00300127
-0.00907838 -0.00881310
-0.00141896 0.01229954
0.02852043 -0.00047176
0.01016637 -0.01811852
-0.00815849 0.00462147
-0.00906528 0.01199601
0.00469293 -0.01254773
-0.00341165 0.01127284
-0.00211696 -0.00656009
0.01954043 0.00831316
0.01607160 -0.00572389
-0.02220580 0.00118856
-0.01971570 0.00496306
0.01159392 0.00103860
-0.01174940 0.00494725
-0.00875678 0.00186165
0.00176314 0.00651366
-0.00300334 -0.00817043
0.00400510 -0.00818058
0.01041522 -0.00249392
0.01291304 -0.02743356
0.01407392 -0.02052642
-0.00404614 0.00624163
-0.02732621 -0.01161676
0.00173264 0.00903796
-0.00083098 -0.00052134
-0.01111767 0.00461691
0.00095511 -0.00235647
0.00913444 -0.00137271
-0.00591124 0.00019729
0.01798334 0.01128722
-0.00111857 0.01890611
-0.00573807 0.01882205
-0.01681664 0.01096140
-0.00754319 0.02125145
-0.01185865 -0.00874904
0.00171868 0.02564797
-0.01803256 -0.00359195
-0.01893413 0.01059525
-0.00665740 0.02329532
0.00703310 0.00122782
0.01292824 0.00339973
0.02716510 -0.00203710
0.00599932 -0.00321319
-0.02056905 0.00060752
0.00836815 -0.00128559
0.00331124 -0.00016145
-0.00317428 -0.00093684
0.00109921 -0.00831487
-0.01176443 0.00656841
-0.00319808 0.00432676
0.01432414 0.03313007
-0.01236502 -0.01774047
-0.00273905 0.01392979
0.00394712 -0.01309317
0.00457433 0.01404956
-0.01620331 0.01071477
0.00534780 -0.01269141
-0.01565258 0.01596338
-0.00307662 0.01140182
-0.00591498 -0.01339205
-0.00606576 0.00692008
0.00367438 -0.00675925
-0.00704291 -0.01415038
0.00694622 -0.00178322
-0.01635145 -0.00386820
0.01476534 0.01076129
-0.00873283 0.01252136
0.01618521 0.00106871
0.00783180 0.02002209
-0.00806825 -0.00688480
-0.00253012 -0.01766872
0.00313180 0.00429817
-0.00206114 -0.00183005
-0.00251579 -0.00981106
-0.00446967 0.00379196
-0.00121258 0.00317107
0.00166311 -0.00222544
-0.00054434 -0.00691386
0.00442312 -0.01607838
0.00565921 0.00330340
0.00894508 -0.00238170
0.00400490 -0.00749484
-0.00657509 0.00166620
-0.00292506 -0.00853973
0.01303234 -0.01053064
-0.00318515 0.01185392
-0.01058291 -0.01678671
-0.00831153 0.00328679
-0.00109904 0.00644850
0.00245000 -0.00946656
-0.00283149 0.01078529
0.01510979 0.00176659
0.00112108 -0.00702568
0.01203506 0.00065629
-0.00286436 0.00546914
-0.01443854 -0.01553178
-0.00705013 0.00027547
0.00707124 0.00489993
0.00531958 -0.00740439
-0.00614205 0.00581522
0.00828803 0.00556767
-0.00305144 -0.00117490
-0.00873573 0.00333664
0.01248265 -0.00020792
-0.00045375 -0.00171090
-0.01088640 0.00621274
-0.01447260 0.00769546
-0.00671410 0.01229741
0.00360875 -0.02169858
0.00328337 0.01653728
0.00714176 0.00068004
-0.01792918 0.00404546
0.00175121 -0.00055515
-0.00631532 -0.00119818
0.00234497 0.01134961
-0.01084547 0.00114883
0.00135644 0.00035641
-0.01520899 0.00004425
-0.00335641 0.01577664
-0.00516155 -0.00391672
-0.02575140 -0.00508075
0.01051519 -0.00516992
-0.00179288 -0.00611764
-0.01023334 -0.00658930
-0.01217160 -0.00572622
0.00528839 0.00411237
0.01004288 -0.00573825
-0.00840868 -0.00080007
-0.00189262 0.00929851
0.00349418 0.00678526
-0.00665222 -0.00067006
0.00405300 -0.00790527
0.00315144 -0.00198191
0.00179626 -0.00203271
-0.00040703 0.00205890
0.00545696 -0.01131513
-0.00144408 -0.00763363
-0.01139689 -0.00756513
-0.00306431 0.00374529
0.00123505 -0.00798284
0.00651094 0.00345467
-0.00397026 -0.01357457
-0.01161872 0.01139351
-0.00071110 0.00330167
0.00239110 0.00788920
-0.01931336 -0.00365928
0.01152118 -0.00213503
-0.00942878 -0.00347781
0.00685605 -0.00031447
-0.00408229 -0.01583712
-0.00552626 0.00436873
0.00377086 0.00440385
0.00898468 -0.00073041
-0.00511068 -0.01387408
-0.01099113 -0.01245962
0.00913820 -0.01939491
-0.01146374 0.00326038
0.00065262 0.01390318
-0.01444737 -0.02397967
0.00079364 0.00156617
0.00320919 -0.01187381
-0.00036925 -0.01875349
0.00687257 0.00405058
-0.00371873 -0.01373737
0.01319909 -0.00399830
0.01252665 0.00325712
-0.00066120 0.00607984
-0.00340960 -0.00920736
0.00791342 -0.01673227
0.00333678 -0.02038829
0.00970133 0.00947882
-0.01143511 -0.00507809
-0.00577095 -0.00561700
-0.00083258 0.00071401
-0.00906681 -0.00137184
-0.00052855 0.00143790
-0.00901438 -0.00914894
0.00791913 -0.00346608
0.00685300 0.00283084
0.00610529 -0.01597764
0.01214800 0.00406214
0.01136604 -0.00272463
0.02224976 -0.00843633
0.01520834 -0.01087053
0.00225258 0.01747913
0.00333156 -0.00522680
-0.01399011 -0.01097208
0.00035593 0.00189687
-0.00133047 0.00540770
-0.00855918 -0.00504988
-0.00065589 0.00141464
-0.01245422 0.00890187
0.00256512 0.00304015
-0.00111488 0.00426386
-0.00614973 0.00105152
-0.00242402 0.00476461
-0.00629850 -0.00054562
0.00239037 -0.00577175
0.00159256 -0.01017983
-0.00722787 -0.00197963
0.00660639 -0.01071232
-0.01711425 -0.01088902
-0.01492658 -0.00309970
-0.00378011 0.01847472
0.00029569 0.00192329
0.00803142 0.00292633
0.00446601 0.01048869
0.00723476 -0.01274750
-0.03169984 0.00136116
0.00013988 -0.00155829
0.00009797 -0.00505565
-0.00675381 -0.01043536
0.01158596 0.00758681
-0.00170810 0.00010018
-0.00744718 0.01177330
-0.00309511 -0.00488720
-0.00162790 0.01538697
-0.01461656 -0.00549207
0.00543398 -0.00636733
0.00930472 -0.01322990
-0.00437681 0.01361464
-0.00354998 -0.01614773
-0.00558387 0.00614539
0.00433671 -0.01313287
-0.00676225 0.00290156
0.00213767 -0.00155962
-0.01045700 0.01478234
-0.00269908 0.01883528
0.00313575 -0.00412449
0.01247093 -0.00360773
0.00029416 -0.00463257
0.00768497 0.00642646
-0.00650097 -0.01217794
-0.01546577 -0.00561172
-0.00314169 -0.00366654
0.00457408 -0.01176843
0.00861855 -0.01189477
0.00051535 -0.01620717
-0.00081472 0.00628418
-0.00411449 0.00536843
0.00933479 -0.00332162
-0.00456346 -0.00406627
0.00088930 -0.01607983
0.00720039 0.00362825
-0.02010568 -0.00504238
-0.00197312 -0.00441590
0.00595248 0.00923665
0.00684198 0.00939205
0.00637587 -0.01055328
0.00340186 0.01159430
0.00847866 -0.00173063
-0.00259606 0.01290494
-0.00242564 0.00975780
-0.01990449 -0.00157707
0.00253562 0.01053508
0.00128943 -0.00562548
-0.01568978 0.00419845
-0.00865525 -0.01382191
-0.00164052 -0.00658597
-0.01805817 -0.01124133
0.00298728 -0.01778940
-0.00883134 -0.00469776
-0.00802327 -0.00941755
0.01931813 -0.00202858
0.01051253 0.00514776
-0.00131219 -0.00757730
0.01557182 -0.00113230
0.00189728 -0.01319049
0.00719469 -0.00231166
0.00729097 -0.01297600
0.00330689 0.00080955
-0.00753771 -0.01479492
-0.00781281 0.00345594
0.00300937 -0.00229948
-0.00187080 0.00666411
-0.00184351 -0.01861999
-0.00436124 -0.01038777
0.00613277 0.00446446
-0.01966704 -0.00040998
0.01108507 -0.00477234
-0.02067535 -0.00336224
-0.00201309 -0.00561817
0.00513604 0.00164799
0.00560645 -0.00055577
-0.00287354 0.00898397
0.00650137 -0.01675942
-0.01713605 -0.00005970
-0.00718389 0.00890978
-0.00744543 -0.00622733
-0.00383953 0.00139718
0.01510891 -0.00891405
-0.00270282 -0.00503011
0.00988224 -0.00897107
0.01361430 -0.00359076
-0.00088560 -0.00855123
0.00760267 0.00757607
-0.00932978 0.01993030
0.01350795 0.00724884
0.01091640 -0.01516538
-0.00195320 -0.00562712
-0.01430706 -0.00664151
-0.01420968 -0.00164587
0.00652782 -0.00553710
0.02375583 0.00992998
-0.01379255 0.00837357
-0.00480950 0.01200806
-0.00379154 -0.00044303
0.00846353 -0.01341607
0.00179702 -0.02054104
0.00442387 0.00071179
0.00452135 -0.01170813
0.01444213 0.00285397
-0.00282445 -0.01717389
0.01148532 0.00781890
-0.01862539 0.02572680
0.00580966 0.00076803
-0.02263187 0.00573897
0.01135278 0.00168338
-0.00577895 -0.00132141
0.00121329 0.00547481
-0.00617674 0.00169160
0.01759222 0.01105857
0.00077942 -0.01026582
-0.00941241 0.00893031
-0.00387128 -0.00312884
-0.02073273 -0.00164357
0.02064290 0.00645489
0.01134971 0.00894536
0.01023893 -0.02821119
-0.02211094 0.02042529
0.00640070 0.00983066
0.00659934 0.00469620
0.02367217 -0.01085710
-0.01994423 -0.01354196
-0.00674258 -0.00857304
-0.00650384 0.03595007
-0.00691348 -0.00310911
0.01080702 -0.00066620
0.00002650 -0.00180254
0.00459302 0.00950469
-0.00847009 0.02766662
0.01790839 0.00031716
-0.00263863 -0.00276312
0.00727609 0.01366632
0.01341833 -0.00050407
0.00415985 -0.00297789
-0.00455111 -0.00540664
-0.01168223 0.00384337
0.00980096 0.02427063
-0.00388105 0.00705473
-0.01154144 0.00988082
-0.02803988 0.00229604
-0.00958648 -0.01319730
-0.00794805 -0.01173158
-0.01773439 0.00061067
0.02158205 -0.00654554
0.01487623 -0.01014191
-0.01592358 -0.00576899
-0.01215907 0.00295389
-0.00748984 -0.00327707
0.01185504 0.00259550
-0.00033193 -0.00486487
-0.01468420 -0.01387861
-0.00142161 -0.01219767
-0.00997248 -0.03060846
-0.00327602 0.00316630
0.00399012 -0.00228655
0.00432868 -0.01433476
-0.00421259 -0.00072064
-0.00159904 -0.00247779
0.01046941 -0.00104959
0.00781303 -0.00216174
0.00346959 0.03503402
-0.01173372 0.00189187
0.00864026 0.00244593
-0.00239465 -0.02582612
0.00299156 -0.00856659
-0.01253927 0.01921125
-0.01965836 0.01127629
-0.01718665 0.01007347
-0.01192505 0.00149501
0.00083345 0.00805552
-0.00720487 -0.01964163
-0.00192664 0.00771921
-0.00692549 0.00579821
-0.00123304 0.01989088
-0.01261769 0.02046810
-0.00206668 0.01576669
-0.01568669 -0.00820024
0.00382181 0.00678480
0.01165161 0.00148865
-0.02749121 0.00278658
-0.01985754 -0.00002509
0.00933692 0.02461842
0.01032783 -0.01134059
0.00548232 -0.01614261
0.00132891 0.00680949
-0.00340248 -0.00628992
-0.01790900 0.00866923
-0.00866933 0.02911042
-0.03334787 0.01785134
0.00434808 -0.01947448
0.01380553 -0.01015111
-0.00641458 -0.01317099
-0.01072768 0.01744711
-0.00702492 0.00675526
0.00597921 -0.01096542
0.00280986 -0.00978771
-0.00085364 -0.00298650
0.00678898 -0.00861480
-0.00937939 0.00191008
-0.00021239 0.00126742
-0.00053336 -0.01107294
-0.00794657 0.01442069
0.00045537 0.00220402
-0.02118585 0.00343964
0.00630084 -0.00486191
0.00792301 -0.01838199
0.00229857 0.01621189
0.00230867 0.00651118
-0.01498139 -0.00350656
0.00689957 0.00212861
0.03376449 -0.00721281
-0.00606683 -0.00215201
0.00051541 0.00217447
-0.01620748 0.01697365
0.01946947 -0.01135410
-0.02729705 0.00955248
-0.01819638 0.00577788
0.02010914 0.01947537
-0.00464493 0.01539724
-0.00655335 0.00031676
0.00160429 0.00373617
-0.01008567 0.01452848
-0.00371430 -0.01227849
-0.00188060 -0.02665340
0.00145748 -0.01055585
-0.00452590 0.01062098
0.00261115 -0.01288982
0.00446282 0.01775789
-0.00935201 -0.01179519
0.01886131 0.01354142
-0.00154681 0.00839317
-0.01207971 0.00634376
-0.00510113 -0.00279029
0.00796132 -0.00779459
-0.00639281 0.01196247
-0.00595207 0.01577066
0.00338579 -0.00665908
0.00822866 -0.01638289
0.01209909 -0.00132425
0.03414413 -0.00760120
0.00042839 -0.00229663
-0.01881938 0.00930488
-0.01261962 0.01459206
-0.00920662 -0.00296129
0.02100642 -0.00207982
0.00420714 0.00391700
0.00916635 -0.01860705
0.01296641 0.02621136
-0.00729559 -0.00256075
-0.01834257 -0.01360595
-0.00473923 0.01511742
-0.00833602 0.01352184
0.00895588 -0.01436686
-0.00274556 -0.01787493
0.01390808 -0.02859635
0.00146884 0.02151104
-0.00496191 0.01117746
-0.02170051 0.00172547
-0.01409496 -0.00341898
0.00057386 -0.01703173
0.00008413 0.01786135
-0.00305058 0.00291061
0.01832876 0.00419203
0.00403718 0.00617309
-0.01644363 0.01654449
-0.00328405 0.01460734
-0.01774457 0.03419347
-0.01142413 -0.00375708
-0.01875398 -0.00090847
-0.01825822 0.01155571
0.00531952 0.00281906
-0.01276832 -0.00513116
0.01568294 0.00276338
0.00823201 0.01136372
-0.00543590 -0.00820626
0.00916499 -0.00633719
-0.00577728 -0.01023965
-0.00834988 0.00228102
0.00394295 -0.00420523
0.01603868 -0.00234682
-0.01926223 -0.01865744
-0.00229784 -0.00122438
-0.01169340 -0.01439492
0.01873820 -0.01035145
0.00079391 0.00720227
-0.01067698 0.00491795
0.01586105 -0.02342430
-0.00459377 0.00126962
0.01107205 -0.00017368
0.01015313 0.01183020
-0.02225359 -0.00030643
0.00405270 -0.00943058
0.00970620 0.00451311
-0.00738907 -0.01030639
-0.00276214 -0.00138892
-0.00460581 -0.00892465
0.00426697 0.00280248
-0.00170188 0.00255320
-0.01088512 -0.00707550
-0.00602943 -0.00491535
0.01385287 -0.01366686
-0.00621491 -0.00342214
-0.01441773 -0.00159134
0.00380685 -0.00298138
0.02421019 -0.00155988
0.00626354 -0.00370484
0.00318657 0.01751750
0.00265186 -0.00884229
-0.01265376 -0.01192122
0.00816612 -0.00764183
-0.01773753 -0.00482506
-0.02395312 0.00175268
0.00456219 0.00224635
0.02664159 -0.02071859
-0.00970931 0.01054609
0.01424466 0.00015734
-0.01618150 -0.00219199
-0.02478492 -0.00154524
0.00655564 -0.02046465
0.00066867 -0.00302635
0.00656863 0.00896664
-0.00968164 -0.00429099
0.00849282 0.00517960
0.00459880 0.00963488
-0.00826089 -0.02183644
-0.00492618 -0.00347969
-0.00126808 -0.00930132
0.00911512 0.00487917
-0.00639254 -0.01197989
0.00671265 -0.00679607
0.01882940 -0.01273831
-0.00208645 0.01775314
-0.01410055 -0.00149499
-0.01824430 -0.01191899
0.00778541 0.00402665
-0.00900564 0.00530524
0.00823611 -0.00662769
0.00650298 -0.01061547
-0.02383887 -0.01646549
0.01061111 0.01410223
-0.00752526 0.02388675
0.00360990 -0.00137730
-0.01489644 -0.02590391
-0.00633119 0.00489640
0.00675196 0.02277739
0.02674161 -0.00332785
0.01514439 -0.02388887
-0.00370509 -0.00401719
0.00289937 -0.00225388
0.00507032 0.01677546
-0.01099407 0.00327573
-0.00060559 0.02255231
-0.00436985 0.00484278
0.00380683 -0.00181416
-0.00249814 -0.00059322
-0.00643035 0.00679043
-0.00367087 -0.00305415
0.00107578 0.00099312
0.00403197 0.01223542
-0.01006190 -0.01349677
0.01256206 0.00224471
-0.00317351 -0.00955107
-0.01703000 -0.00148901
-0.01580381 -0.00493671
-0.01193726 0.00747820
-0.01646332 -0.00656894
-0.00035464 0.00136779
-0.01926563 -0.02289775
-0.00220746 -0.00871282
0.00168529 0.03463641
-0.01971800 -0.01187036
0.01306415 0.00601647
0.00433747 -0.01917362
-0.01528272 0.00229496
-0.01568343 0.01449395
0.00766674 -0.00941544
-0.01010613 -0.01320206
0.00681260 0.00138342
0.01356492 0.01062238
-0.01310936 -0.00329391
-0.01651178 -0.01423894
0.00426256 0.00515912
-0.00259550 -0.00045832
-0.01593524 0.01105354
-0.00676190 0.00292290
0.01123054 0.00566348
-0.00771870 -0.00189805
-0.00743167 -0.00442005
-0.01387084 0.00573861
-0.01159872 -0.01646454
-0.00214620 -0.00382991
0.00425863 -0.00180815
-0.01631608 -0.00647542
0.00032219 0.00807415
-0.00166218 0.00954991
0.01154595 0.00801812
0.00712362 -0.01286600
-0.00387989 0.01185977
-0.00125789 -0.00821159
0.00224127 -0.00203589
-0.00604965 0.02636335
-0.01124468 -0.00995705
-0.00136531 -0.00963157
0.01244389 -0.00462780
-0.00149523 0.00159306
-0.00330400 -0.01167700
0.00435150 0.00103731
0.01283412 0.00076683
-0.01288687 -0.01622581
-0.00435633 -0.01557575
0.02703677 0.00143101
-0.00565768 0.01190975
-0.00845601 -0.00424151
-0.00926501 -0.01857752
0.00035409 0.00558780
0.00588654 0.00391150
-0.00965113 0.00066069
-0.00216722 -0.01163681
-0.00220968 -0.01144423
-0.00854092 0.00183941
0.01405662 0.00018992
-0.00407776 -0.01307160
-0.01661396 -0.00656182
-0.01558351 0.02553720
0.02762019 0.00205002
0.00592780 -0.00033555
0.01937132 0.01356534
0.00623435 0.00788786
-0.02152615 -0.02037169
0.00386940 -0.00807160
0.00668901 0.00274487
-0.00818405 -0.00815038
-0.00853887 -0.01997307
0.01370938 0.00367062
-0.00348356 0.01084183
0.00339749 -0.00392619
-0.01101641 0.00258065
-0.02562360 -0.00881514
-0.00232637 0.01009419
0.00358131 -0.02124107
-0.00904310 -0.00083718
0.00533004 -0.01928360
-0.00496155 0.01397832
-0.00609049 -0.00098064
-0.00166412 0.00584051
0.00100033 0.01634603
-0.00324079 -0.01031829
0.00943637 -0.00509070
-0.02161038 -0.00626112
0.00576038 -0.00329998
0.00206196 0.00983800
0.01275548 0.00458529
-0.02780038 -0.00616761
-0.00597915 0.01088285
-0.00204125 0.01363247
0.00216421 -0.01025366
0.00877173 -0.00062589
-0.01881665 0.00536924
-0.00884344 -0.01552278
0.00176570 -0.02588530
-0.00818195 0.00729159
-0.00019118 0.00243445
-0.00366589 -0.00662363
0.00236860 0.02389303
-0.00910334 -0.01146553
-0.00118968 -0.00444648
-0.00387181 -0.01024857
0.00698043 0.02915285
0.00632357 -0.02617533
-0.00668924 -0.00141753
-0.01014795 -0.01402856
-0.01998070 -0.00939617
0.00723854 0.01737696
-0.01325701 -0.01478567
0.00410048 -0.01894077
-0.00309849 0.00417585
0.01057278 0.01019536
-0.01665316 -0.00567035
0.01990236 0.00907724
0.01181100 0.01598097
0.00475160 0.00580284
-0.00073053 0.00401406
-0.03032964 -0.00505621
0.01039421 -0.01281412
-0.00100020 0.01004273
-0.01026741 -0.01097165
0.01881872 -0.02834349
-0.00681309 -0.01775767
-0.00234123 0.00105658
0.00096883 -0.00825907
0.00342820 -0.00869785
0.00145220 0.00666558
-0.00520163 0.00105000
-0.00557081 -0.01485458
0.01393412 0.01705590
0.01070415 -0.01309093
-0.00190607 0.00960407
-0.01310288 -0.00889626
0.00824052 -0.01581736
0.01985890 0.00358368
0.00135124 0.02118347
-0.00321415 -0.00908076
-0.01481477 0.01465353
0.00038159 -0.00289408
0.00181074 -0.01709097
-0.01093535 0.01106118
-0.00393180 0.00296081
0.00027022 0.00555105
-0.01054524 -0.00717079
-0.01557978 0.00061638
0.01117356 0.01295080
0.01745810 0.00261502
-0.01156958 -0.00294660
-0.01011000 -0.00614383
-0.00242691 -0.00024978
-0.00974596 -0.01934423
0.01431841 -0.00403317
-0.00262901 -0.01855912
0.03409401 0.00164843
-0.00236396 -0.00266777
0.01627925 -0.00445748
-0.00769898 0.00025752
0.01601514 0.00215759
-0.01254873 -0.00386868
-0.02628449 -0.00165923
0.00170455 0.01258373
0.00139569 -0.01581858
0.00589025 -0.00230708
0.00285623 -0.01653243
0.01789847 0.00881032
-0.00143775 -0.00587365
0.00777820 -0.01401537
-0.00761747 -0.00108560
-0.00348927 -0.00738834
-0.00967280 -0.00573120
0.00187981 -0.01126075
0.02318430 -0.00320722
0.00382955 -0.01005997
0.02254820 -0.01051941
-0.00591710 -0.00887661
-0.00786802 -0.02062953
-0.00442719 -0.00043146
-0.00005568 0.01295223
-0.00855751 0.00659932
0.01126765 -0.02318924
-0.01185363 -0.00270203
-0.00151052 0.01421462
-0.02297203 0.00200044
-0.00391339 0.00115101
-0.00710531 -0.00044198
0.00517248 0.00780035
-0.01218311 -0.00647319
0.01404264 -0.01615791
-0.00246770 -0.00030416
-0.00810939 0.02324536
-0.01251467 0.00405471
-0.01984415 -0.00231151
-0.01311478 0.01029821
-0.02374742 0.00099313
0.00188155 0.01139501
0.00870381 -0.00425297
-0.00032627 0.00282659
-0.01305552 0.00890246
-0.02066528 0.00882203
0.00567578 -0.02563014
0.01073252 -0.00357251
-0.01129825 0.00422138
0.00523198 -0.01424751
0.01328578 0.01785721
0.01708298 -0.00742263
-0.01711849 0.00315639
0.01534760 0.00051012
-0.00073018 0.00407942
-0.00293753 -0.00567256
-0.01470736 0.02846011
0.02814412 -0.00806897
0.00194485 0.00263032
-0.00307352 0.01780368
-0.01210538 0.00784149
0.00509682 -0.01428849
-0.00036927 -0.00509200
-0.00293982 0.00109748
-0.00854934 0.01222403
-0.00287865 0.00587853
-0.00927839 -0.00129003
0.01996357 -0.01049031
-0.01044226 -0.00828895
0.01853888 0.00718257
-0.00231853 -0.00881329
0.00309020 -0.01216085
-0.00961572 0.01182130
0.00025926 -0.00192545
-0.01688862 0.01740997
-0.01086993 0.00439335
0.00652529 -0.00803998
-0.00215096 -0.00751777
0.00954647 -0.01936145
-0.01555799 0.02088233
-0.01628984 -0.00058976
0.00847711 -0.03190409
0.00157762 -0.02148865
0.00831562 -0.00816473
0.00490247 -0.00919008
-0.01268678 -0.01015594
0.00086987 0.00288991
-0.00342616 -0.01571991
-0.00469535 -0.00679174
-0.00418191 -0.00612284
-0.00733964 0.00391793
0.00246823 0.02830956
0.00425679 -0.01931660
-0.00987052 -0.00624977
0.02028229 -0.01938794
0.02360352 -0.01098696
0.01028438 -0.01127148
-0.01092007 0.01812746
0.00265119 -0.00958051
-0.01019132 -0.01468859
-0.01650827 -0.00923486
-0.00566336 -0.00828157
0.00195949 -0.00158805
0.01412054 -0.00682871
-0.00925515 0.00801388
-0.01908172 -0.00684079
0.01520418 -0.01912011
0.01518591 0.00226431
-0.00016168 0.03604567
-0.01679585 0.00960370
-0.01665663 0.00021348
0.00412671 0.00044684
-0.00606113 -0.00698390
-0.00702555 -0.00466189
-0.00245657 -0.00663050
-0.00373599 -0.00713267
0.00954668 -0.01042723
-0.00299460 -0.00250664
0.00329979 -0.01216125
-0.00169096 0.00118706
-0.00737684 0.00304541
0.00728713 0.00029387
0.00389277 -0.00839697
-0.01452853 0.00982536
-0.00262948 0.01841253
-0.00223321 0.00052474
-0.01186233 0.00605285
0.00809744 0.00169413
-0.00962536 -0.00268177
-0.00684177 -0.00244988
-0.00004346 -0.02048244
-0.01731238 -0.00711428
-0.00027907 0.01185090
-0.01296753 0.01363868
-0.01178699 -0.02044101
0.00533157 -0.00987001
-0.00271174 0.00551698
0.02293302 -0.00420779
-0.00118898 -0.01920323
-0.01050773 -0.01226749
0.00205362 -0.00530386
-0.01125512 -0.00563410
0.01546710 -0.00603831
0.00914738 -0.01478049
-0.00468458 0.00922646
-0.02494811 -0.01495832
0.00523102 -0.00197565
-0.00231977 -0.00163483
0.00048019 -0.01346070
0.00283025 -0.00841705
0.00895753 -0.00950042
0.00287743 -0.00329574
0.00690225 0.00972522
-0.00148791 0.00812844
-0.00199421 0.00393435
-0.01462971 -0.00330589
0.00833745 -0.00550432
-0.00610960 -0.00528157
0.00051298 -0.00429731
-0.00336416 0.00706313
-0.00287537 -0.00143883
-0.00830776 -0.00580749
-0.00783038 0.02169363
-0.00011786 0.01162731
0.01777563 -0.01708581
0.01111936 0.00395300
0.00001109 -0.02048802
0.00511299 -0.02343647
-0.00537247 -0.01119444
0.00264324 0.01231238
0.00397062 -0.00291845
-0.01947905 0.00231639
-0.00138132 0.01735754
-0.01060045 -0.00349547
0.01090587 0.00870140
-0.00236829 0.03891635
0.01152053 -0.00010929
0.00895130 -0.00867690
0.00657855 0.01658432
-0.01173726 -0.02090679
0.00393944 -0.02089712
0.01229582 -0.00198572
-0.00955241 0.00168673
-0.00471935 0.00218557
-0.00329677 -0.00988709
0.00968966 -0.00290071
0.00695139 0.01116706
0.00426688 -0.00653502
-0.01133475 0.00231191
0.03370540 -0.02384869
0.02998234 -0.00598764
-0.00921955 -0.00012324
0.00532923 0.01075195
0.00838873 0.00040733
0.00919427 0.00880006
-0.00383925 -0.01456237
-0.00041485 -0.00018763
0.00206124 0.00528941
0.01429385 0.00505638
0.01299876 -0.03138978
-0.00441466 -0.00042095
0.01230856 0.01176902
-0.01689529 -0.01214272
0.00941014 -0.00766781
0.01297608 0.01091374
-0.00041962 0.00025657
0.00371010 0.00389253
0.00080617 -0.00877411
-0.00193627 0.01004454
-0.00003623 -0.00504338
-0.00516281 0.00061925
-0.00230947 0.01005714
-0.00137447 -0.00021843
-0.01390449 -0.00662650
-0.00039655 -0.01130655
-0.00035269 0.01283035
-0.01422502 -0.00979486
0.00237050 -0.00646582
-0.01088898 0.00319090
0.00122673 0.00333228
-0.00226210 -0.03967329
0.01567034 -0.01210389
-0.00776106 -0.00086257
-0.00491758 -0.01093917
0.00437838 0.02164599
-0.01112825 0.00271970
-0.01316128 0.00236789
0.00170624 -0.00172947
-0.00712248 0.00263338
-0.01136180 0.00060668
-0.00886294 -0.00264814
-0.00697979 -0.00701499
0.01098488 0.00338063
-0.01251197 0.00157669
-0.02765758 0.00611704
0.00274930 -0.00854390
-0.00424571 -0.01405560
-0.00908490 -0.00457454
-0.00357462 -0.01954611
-0.00376501 0.00673713
-0.00656125 0.01261283
-0.00685178 -0.00832638
-0.00309251 0.00762790
0.02394488 -0.02023683
-0.00386177 0.00704583
-0.00714341 0.00049271
0.00158743 -0.00515681
0.00294648 -0.03940614
-0.01502146 -0.00190137
-0.00137018 0.00724025
0.01138882 -0.00308878
-0.01426096 0.00612643
0.02236331 -0.02803530
0.01630348 -0.00435907
0.00447402 -0.00844111
-0.00181247 0.00235255
0.00796536 -0.02651962
-0.02886147 -0.00514311
-0.01087090 -0.00690064
0.00590818 0.01178082
0.00135563 -0.00779770
-0.02936433 0.00171354
0.01181921 0.00761392
-0.00808087 -0.00294649
-0.01061751 0.00208641
-0.00436822 -0.02823017
0.01130092 0.00857108
0.01005687 -0.00000339
-0.00578648 -0.00730646
0.01294586 -0.00040754
-0.01391680 0.00254868
0.00089862 -0.01860438
0.00686688 0.00409072
0.00386074 0.00583517
0.00683024 0.00895759
-0.00704393 -0.00511153
-0.00823114 -0.01091127
-0.01318239 -0.00929387
-0.01976149 -0.00955435
-0.01126271 0.00221970
0.00206763 -0.01425427
-0.01126564 0.00240686
0.00235625 0.01961191
-0.01997220 0.00119408
0.00374161 0.00323958
0.00429445 -0.00168425
0.00493041 -0.00688346
0.00388649 0.00171901
-0.00552946 -0.00685571
-0.00190027 -0.00568223
0.00546770 -0.00643023
0.00973233 0.00253521
-0.02445859 -0.00460644
-0.00300524 0.00083155
-0.00583093 -0.00699167
0.01403793 -0.00273017
0.00407608 -0.00452033
-0.03663452 0.00422340
-0.00035968 0.01730860
0.00830715 -0.00827633
-0.00650663 0.00254644
-0.00762022 -0.00245627
-0.01116465 -0.00742907
-0.00499283 -0.00111547
0.00488342 0.00347236
0.00167063 0.00158387
-0.00630374 -0.02253396
0.00048174 -0.01875417
0.00270841 0.00583587
-0.00655836 0.00744373
-0.00570513 0.01256354
0.01408562 0.01103584
-0.00067996 0.01227550
0.00913858 -0.00706555
-0.01042059 0.00487363
-0.00624258 -0.00718715
0.00706205 0.00641272
-0.02062599 0.00765488
-0.00375625 0.00459855
0.01060059 -0.00862189
0.00339081 -0.01515413
0.00566874 0.00409432
-0.00101869 0.00129033
0.00532879 0.00893778
0.02522718 0.01005672
0.00481766 0.00641586
-0.01388269 -0.00412590
-0.00854115 -0.01267741
0.00588170 -0.00539681
-0.00007061 0.00479612
-0.00002557 -0.00341465
-0.00896925 -0.00460088
-0.00965692 0.00348351
-0.00500711 -0.00470033
-0.00483327 0.00505119
-0.00404981 0.00524163
-0.00663027 -0.00778232
0.01426114 -0.00286356
0.00731534 0.00391761
0.00911232 0.00981798
-0.00388949 -0.00665005
0.00205276 -0.00676905
0.00611572 -0.02003498
-0.00390954 -0.01031412
0.00469279 -0.00555434
0.00038728 -0.00786758
0.02282046 -0.02174983
0.01592284 0.00521139
-0.00255694 0.01364493
-0.00455681 -0.00345609
-0.00150540 0.02664875
-0.00127782 -0.01326444
-0.01017470 -0.00220931
-0.00159600 -0.00736818
-0.00809119 0.00242703
-0.00042290 -0.01268189
-0.01838791 -0.00243501
-0.00404369 -0.00725736
0.01357161 -0.00524862
0.00062591 -0.00001117
0.01338087 -0.00077993
0.01463717 -0.00253823
0.00407664 -0.00103505
-0.00350927 0.00382895
0.00644972 -0.00623366
-0.00586510 0.01400765
-0.00329253 0.00332500
0.01866574 0.00008458
0.00805052 -0.00189107
-0.01596663 0.01320250
-0.00158132 0.00314814
-0.00205157 0.00131514
-0.01046876 -0.00337884
0.01017273 -0.00533021
-0.02983866 -0.01670790
-0.00959312 0.00744699
0.01167525 0.00144909
0.00170855 -0.00986117
0.02570923 -0.02568274
-0.01128382 0.01629535
-0.01510280 0.01511319
-0.00456239 -0.00773554
-0.00958285 0.01742446
0.00279831 0.01741705
-0.01526912 0.00950065
0.00917452 -0.00111930
0.01591495 -0.00839437
0.02002724 -0.00345368
0.00907045 -0.00583525
-0.01314473 0.01506771
-0.00792754 0.00602802
0.02594270 -0.02718320
0.02021306 -0.00144088
0.00319327 0.00849754
-0.00068975 -0.00259215
-0.00815800 -0.00364408
-0.01123944 -0.01480426
0.00617294 0.00008534
0.01071568 -0.00491693
0.00723911 -0.00892762
0.00131101 0.02303254
-0.01905165 0.01564118
-0.01873967 0.00213648
-0.00770662 0.00148680
-0.01121495 -0.00517522
-0.03968205 0.00622191
0.00389339 0.00641074
0.01205163 0.00394734
-0.00227289 -0.00148314
0.00428039 0.00792624
-0.00995339 0.00245777
-0.00407353 -0.00670823
0.00282314 0.00884831
-0.01227611 0.00772451
-0.01067953 -0.00999667
-0.00407804 -0.00283619
-0.00318231 -0.00394155
0.00382086 0.00603243
0.00451931 0.02096720
-0.00515193 0.01122589
-0.00439351 -0.00376089
