0.02895217 0.15103807
-0.23247793 -0.11122298
0.19196053 0.06445915
-0.16517134 0.06210450
0.01165792 0.13265815
0.12829344 0.21659461
0.17598553 0.30020824
0.01975645 -0.18246318
0.11041793 -0.13023607
0.02160662 -0.12534048
-0.05886265 -0.08104403
-0.14684384 -0.24775366
0.00245314 -0.11589798
0.19094764 -0.10989020
-0.03713680 0.00043081
-0.02052281 -0.11884217
0.08361956 0.17391013
-0.23737074 -0.06860683
-0.37388292 0.18620358
-0.13002615 -0.01640123
-0.23044895 -0.02905838
0.04458833 -0.26606727
0.00881721 -0.35386699
-0.00526641 0.07978021
0.10156921 0.10829349
-0.31006834 -0.03842234
0.12754779 -0.15668915
0.49795657 0.07899109
-0.32237545 -0.72034246
-0.22036335 0.60976005
-0.10996082 -0.24528329
-0.02691839 -0.16847697
-0.38605878 0.02159209
0.18855998 -0.01141575
1.84595180 0.21136706
0.17556976 0.10248545
-0.01020020 -0.14369506
0.27930224 -0.03998701
-0.05965910 -0.14403895
0.04315080 -0.19399366
0.19847782 0.36161453
-0.17940508 -0.06310640
-0.28791007 0.17247456
-0.06228567 -0.17166059
0.07729549 -0.02488387
0.24827434 -0.25518519
0.03145469 -0.12134601
0.13121375 -0.00594855
0.13631788 0.03921041
0.01462260 -0.02476983
-0.12998803 0.10221002
-0.10558814 -0.06454186
0.06867631 0.24129860
-0.05649346 0.09084089
-0.11883745 0.05722040
0.00956265 -0.07964443
-0.25064471 -0.08278801
0.16647001 -0.18697609
0.28656393 -0.03886469
0.00756370 0.07697213
-0.00159290 -0.00604740
-0.00082226 -0.00025396
-0.00499817 0.01528162
-0.01324364 0.00460411
-0.00120127 -0.00011924
-0.00077174 0.00479757
0.00231554 -0.00513753
-0.00403791 0.00607495
-0.01323437 0.00422616
-0.00083999 0.00705145
-0.00807481 -0.00516889
-0.00120380 0.01009783
0.26930490 -0.02148409
-0.05075336 0.02497710
0.27657020 0.07450048
-0.10409674 0.02215880
0.08663880 0.11614858
-0.12799630 0.16896421
-0.03566675 0.13347858
-0.13423173 -0.03133988
0.01216643 -0.14055847
0.25597829 -0.20391680
0.31196693 0.01176163
0.09159106 -0.15161622
-0.08177239 -0.07286808
-0.10009605 -0.04416855
-0.08110170 -0.07441464
0.23300204 -0.13286982
-0.09909400 0.43354478
-0.16234858 -0.37683320
-0.11367218 -0.14901330
-0.07310592 0.03089963
0.16758022 -0.03953703
-0.27611792 0.02462931
0.14124002 -0.03840442
-0.36104190 -0.00686733
-0.11004252 -0.05033152
-0.06730171 0.04962831
-0.12582572 -0.05185906
0.26068407 -0.08062471
-0.08620502 0.05805945
-0.04321408 0.32887197
-0.25796860 -0.25604075
-0.04689406 -0.28729892
0.07838137 0.09149683
0.26676965 -0.00729352
0.08256088 -0.10456239
0.24518351 0.25205028
0.09690014 -0.08801301
0.06566471 -0.26560926
-0.22208162 -0.07375567
0.02613030 -0.35845533
0.10418395 0.37256482
0.01717494 -0.10792322
-0.24149388 0.19385894
-0.10321268 -0.25993198
0.05559506 0.09635913
0.16062875 -0.11330204
-0.27976274 0.13402043
0.17378940 -0.06833605
0.12476777 -0.10654674
0.09699791 0.19541724
-0.29133475 0.07124304
0.25513762 -0.25883344
0.01902509 0.27783430
-0.44525117 0.31316149
-0.71947658 -0.21055092
-0.16988620 -0.19882828
0.23878013 0.03587384
0.42698342 0.01495636
0.56869823 -0.16796817
0.02780699 0.20128579
0.16938692 -0.07839265
-0.04107736 -0.35754180
0.38557664 0.06968087
0.46764103 0.41972685
0.07066983 0.07683277
0.32792673 -0.04331990
1.01562881 -0.18899110
0.01723078 -0.01896438
0.35762376 0.10968950
0.12875739 0.01859604
0.10014642 0.05120648
-0.00483534 -0.04740732
-0.32155779 -0.11135378
-0.48034415 0.21240428
0.14464338 -0.23576212
0.08773123 0.16996172
-0.38514388 0.55424953
-0.06471048 -0.34289971
-0.12411265 -0.11312787
-0.22007023 -0.01634827
0.05141019 0.15534087
-0.47923386 0.08940185
0.26605701 -0.07078923
-0.47341087 0.17658165
0.10706735 -0.05902809
-0.17245802 0.27819547
0.00824623 0.02805642
-0.30322230 -0.06875517
-0.02684858 0.08112226
-0.03612713 0.10913095
-0.10578737 -0.04970853
-0.10210788 0.13479884
-0.04181087 -0.16180333
0.27655494 -0.03779208
0.49837819 -0.04100304
0.04597336 -0.02448059
-0.76633042 -0.15024665
-0.14779125 0.11494225
-0.06168141 -0.69494438
0.35351330 0.16821013
-0.34774175 0.24942107
0.00201118 -0.18296793
0.18471697 -0.70579964
0.03778962 0.28375146
0.11545431 0.26786146
-0.77118117 0.11627445
-0.15338117 -0.10066959
-0.19992165 0.17563994
-0.01185115 -0.00122118
0.03358326 0.07986870
-0.00664680 -0.07272881
-0.00294741 -0.05940820
-0.05361819 -0.04598966
-0.12239337 0.15169707
-0.01413890 0.02504942
0.05079827 -0.00769586
0.12262514 -0.07138685
0.00056933 -0.00068606
0.11373679 0.34366164
0.10695024 0.09049487
