0.00110551 -0.00420915
0.00706087 0.00101830
-0.02216432 -0.00822612
-0.00011169 -0.00676805
0.00414325 0.00000000
0.00000000 -0.00000000
-0.00000000 0.00000000
-0.00000000 -0.00000000
0.00000000 -0.00000000
-0.01418125 0.00195527
-0.00732396 -0.00845842
-0.00025891 0.00028105
-0.00236470 -0.01599250
-0.01891994 -0.00002655
0.00239885 -0.00416931
0.00248290 0.01489630
0.00630009 0.00073020
0.00598733 -0.01474412
-0.00557138 0.00044007
-0.00110127 -0.00842504
-0.01773266 -0.01578040
0.00431054 -0.00828123
-0.00664538 -0.00451975
-0.00663696 0.00065505
0.00096741 -0.00675768
-0.00435142 0.00862307
-0.00547334 -0.00829043
-0.00000000 0.00000000
0.00000000 0.00000000
-0.00000000 -0.00000000
0.00000000 -0.00000000
0.00000000 -0.00000000
0.00000000 -0.00000000
-0.00000000 -0.00000000
0.00000000 0.00000000
0.00000000 -0.00000000
-0.00000000 0.00000000
-0.00000000 -0.00000000
-0.00000000 0.00000000
0.00000000 -0.00000000
-0.00000000 -0.00440283
-0.00316837 -0.00649909
-0.00417983 -0.00832736
0.00047121 -0.00101238
-0.01600533 -0.00917084
0.00340439 -0.00283520
-0.00312485 0.00168901
-0.01345623 -0.00581926
0.00335529 -0.00648029
-0.00959353 0.00000000
-0.00000000 0.00000000
0.00000000 -0.00000000
0.00000000 -0.00000000
0.00000000 0.00000000
-0.00565687 -0.00683323
-0.00084421 -0.00758789
-0.00720150 0.00485729
-0.00474141 -0.02605786
-0.00421183 -0.00000000
0.00000000 -0.00000000
-0.00000000 -0.00000000
0.00000000 0.00000000
-0.00000000 0.00000000
-0.00054171 0.01386403
0.00197609 0.00706903
-0.01718487 0.00157156
0.00803952 -0.00202976
-0.00229474 -0.01078656
-0.01053592 -0.00423322
-0.00586881 -0.01269501
-0.00625463 0.01109092
-0.01852436 -0.01210415
-0.00000003 0.00000006
0.00000013 -0.00000007
-0.00000015 -0.00000006
-0.00000004 -0.00000004
-0.00000016 -0.00344213
-0.00638091 0.00492014
0.00999276 -0.01244420
-0.00373366 0.01186622
-0.02004804 -0.00859450
-0.00000000 -0.00000000
-0.00000000 0.00000000
-0.00000000 0.00000000
-0.00000000 -0.00000000
0.00000000 -0.00182810
0.00121103 0.01197124
-0.01841990 -0.02382060
0.00468833 0.00811035
-0.01390673 -0.00332874
0.00034545 -0.00590900
0.00149251 -0.00652561
-0.01774670 -0.00635196
0.00226324 -0.01369043
-0.01557861 -0.00000000
-0.00000000 0.00000000
-0.00000000 -0.00000000
-0.00000000 0.00000000
0.00000000 -0.00000000
0.00300622 0.00401518
0.00582138 -0.00213554
-0.00652670 -0.00588668
0.00078911 -0.00703728
-0.01452133 -0.01028850
0.00202167 0.00556614
0.00785749 -0.00164748
0.00038093 0.00039266
0.00136123 -0.00030331
0.00194214 -0.00036289
-0.00259551 -0.00497097
-0.02056909 -0.01001487
0.00309374 -0.00595868
0.00200560 0.00000000
-0.00000000 -0.00000000
-0.00000000 0.00000000
-0.00000000 -0.00000000
0.00000000 -0.00000000
-0.01247214 0.00344762
-0.00108317 -0.00702557
0.00775545 -0.00617170
-0.00194467 -0.01368014
-0.00731752 -0.01172192
0.00355885 -0.00412300
-0.00730199 0.00121816
0.00366529 -0.00475834
0.00509975 -0.01692647
-0.01477385 0.00335972
-0.00142082 -0.00979633
-0.00968841 -0.01365444
0.00295383 -0.00964946
-0.00059353 -0.00825358
-0.00091805 -0.00346094
0.00639851 -0.00079747
-0.00761226 0.00624199
-0.00473180 -0.00919608
-0.00000000 0.00000000
0.00000000 -0.00000000
-0.00000000 -0.00000000
0.00000000 -0.00000000
0.00000000 -0.00000000
0.00000000 0.00000000
0.00000000 -0.00000000
-0.00000000 -0.00000000
0.00000000 -0.00000000
-0.00000000 -0.00000000
-0.00000000 -0.00000000
-0.00000000 -0.00000000
0.00000000 -0.00000000
-0.00000000 -0.00732357
0.00311432 -0.00222769
-0.00139034 0.00308572
-0.00529096 0.00365581
-0.01484863 -0.00415200
-0.00325055 -0.00172254
-0.00391124 0.00640742
-0.00801944 -0.00940522
0.00251748 -0.00936994
-0.00538278 -0.00000000
-0.00000000 0.00000000
-0.00000000 -0.00000000
0.00000000 -0.00000000
0.00000000 0.00000000
-0.00919695 0.00437217
-0.00354780 -0.00245206
-0.00599279 0.00086454
-0.00236088 -0.01986075
0.00195318 -0.00000000
0.00000000 -0.00000000
-0.00000000 -0.00000000
0.00000000 -0.00000000
-0.00000000 0.00000000
-0.00685806 -0.00677649
-0.00654506 -0.00813790
-0.02382438 -0.00011687
-0.00247758 -0.00170154
0.00591011 -0.00841750
-0.00473351 -0.00775350
-0.00840617 -0.00949611
-0.00288653 0.00192559
-0.01532715 -0.00514018
-0.00000015 -0.00000003
0.00000009 -0.00000007
0.00000002 0.00000001
0.00000002 0.00000004
-0.00000007 -0.00977648
0.00007882 -0.00048901
0.00333348 -0.00916938
0.00607930 -0.00187722
-0.01712055 -0.00370190
-0.00000000 -0.00000000
-0.00000000 0.00000000
0.00000000 0.00000000
-0.00000000 -0.00000000
0.00000000 -0.00580889
-0.00730297 0.00476824
-0.02086645 -0.02047284
0.00002314 0.00567061
-0.00637674 0.01207767
-0.00418069 -0.00230916
-0.00167319 -0.00566146
-0.01191996 -0.00641570
-0.00271702 -0.00796037
-0.00419809 -0.00000000
-0.00000000 -0.00000000
-0.00000000 -0.00000000
-0.00000000 0.00000000
-0.00000000 0.00000000
0.00328333 0.00180476
0.00398580 -0.00356918
-0.00757554 -0.01592397
-0.00721477 0.00070997
-0.01760642 -0.02449630
-0.00324632 0.00189473
-0.00666161 0.00169128
0.00836997 -0.00093355
0.00157064 0.00636572
-0.01182184 -0.02196071
-0.00828010 -0.00243654
-0.00368947 0.00689201
-0.00904568 0.00137879
0.00144753 -0.00000000
-0.00000000 -0.00000000
-0.00000000 -0.00000000
0.00000000 0.00000000
-0.00000000 0.00000000
-0.00263684 0.00385082
-0.00339012 -0.00399250
-0.01658335 -0.02431984
0.00546922 -0.00373676
-0.00908822 0.00064786
0.01551905 0.01193565
-0.00456375 -0.00842835
-0.02601582 0.00781177
-0.00477885 -0.01325262
-0.00284082 -0.00531132
-0.00308490 0.00279143
-0.00500785 -0.00370231
-0.00272882 -0.01524918
-0.00842174 -0.00058440
-0.00529483 -0.01135574
0.00239727 -0.01010760
0.00038994 -0.00133669
-0.01130253 0.00763987
-0.00000000 0.00000000
-0.00000000 -0.00000000
0.00000000 0.00000000
0.00000000 -0.00000000
-0.00000000 -0.00000000
0.00000000 -0.00000000
0.00000000 0.00000000
-0.00000000 0.00000000
0.00000000 -0.00000000
-0.00000000 -0.00000000
-0.00000000 -0.00000000
-0.00000000 -0.00000000
-0.00000000 -0.00000000
0.00000000 0.01135616
-0.00442889 -0.00423736
-0.00608897 -0.02226141
-0.00592819 -0.00022520
-0.00370760 0.00226931
-0.00042354 -0.00826126
-0.00991949 0.00153527
-0.01297949 0.00487718
-0.00922872 -0.00566310
0.00713477 -0.00000000
0.00000000 0.00000000
-0.00000000 -0.00000000
0.00000000 -0.00000000
-0.00000000 -0.00000000
0.00312940 -0.01655588
0.00131866 -0.00116290
-0.01802527 -0.00300222
-0.00584725 0.00431403
-0.00197663 -0.00000000
-0.00000000 0.00000000
-0.00000000 -0.00000000
0.00000000 0.00000000
0.00000000 0.00000000
0.00844370 0.00385971
0.00258264 0.00037750
0.00496469 -0.00445443
-0.00366401 -0.01011754
-0.01645491 -0.00186234
-0.00792692 0.00046172
-0.00840799 -0.01597652
-0.00836603 -0.00267519
-0.00042563 -0.00242650
0.00000012 -0.00000003
-0.00000005 -0.00000007
-0.00000003 -0.00000014
0.00000006 -0.00000020
-0.00000006 0.01048077
-0.00974859 -0.00462046
-0.02416430 -0.02280914
-0.00561314 0.00193762
0.00564294 0.00164699
0.00000000 0.00000000
-0.00000000 -0.00000000
-0.00000000 -0.00000000
-0.00000000 -0.00000000
-0.00000000 -0.01805420
-0.01722656 0.00633837
-0.00542804 0.00991933
-0.00349272 -0.01679702
0.00575569 0.00171122
-0.00650472 -0.01573427
-0.01553743 -0.00186560
-0.01210887 -0.00568932
-0.00353449 0.00161320
0.00195333 -0.00000000
-0.00000000 0.00000000
0.00000000 -0.00000000
-0.00000000 -0.00000000
-0.00000000 0.00000000
0.00679135 0.00253821
-0.01370934 0.00891512
-0.00476765 -0.00704075
-0.00299463 -0.00233165
0.00375309 0.00256523
-0.00241704 0.00431881
-0.00112098 -0.00218690
-0.00275834 -0.00552689
0.00123034 -0.00888779
0.00355620 -0.00178502
0.00431441 -0.00563875
-0.01628912 -0.00620316
0.00835852 -0.00657952
-0.00589999 -0.00000000
-0.00000000 -0.00000000
-0.00000000 0.00000000
-0.00000000 -0.00000000
0.00000000 -0.00000000
-0.00846968 0.00384010
-0.01615770 -0.00664323
0.01199956 0.00569814
-0.00240860 -0.01955790
-0.00132021 -0.00475861
-0.00766665 -0.00938676
-0.00864060 0.00394118
0.00306312 -0.01027035
0.00362688 -0.01719246
-0.00451479 0.00187820
-0.00261575 -0.01215187
-0.00689764 -0.00646000
0.00378567 -0.00859527
-0.00193738 -0.00994704
0.00160941 0.00018993
-0.00127997 -0.00962736
0.00305807 0.01135966
-0.00636286 -0.00625192
0.00000000 -0.00000000
0.00000000 0.00000000
0.00000000 -0.00000000
0.00000000 0.00000000
0.00000000 -0.00000000
0.00000000 0.00000000
-0.00000000 -0.00000000
0.00000000 0.00000000
-0.00000000 -0.00000000
-0.00000000 0.00000000
0.00000000 -0.00000000
0.00000000 -0.00000000
-0.00000000 -0.00000000
-0.00000000 -0.00578008
-0.00064077 -0.00252901
-0.00339290 0.00937932
0.00038596 0.00588142
-0.01381911 -0.00281375
-0.00073078 0.00049302
0.00533218 -0.00211556
-0.00788963 -0.00247644
0.00862017 -0.01260019
-0.01038536 -0.00000000
-0.00000000 -0.00000000
-0.00000000 -0.00000000
-0.00000000 0.00000000
-0.00000000 0.00000000
-0.00595447 0.00695632
0.00036087 -0.01223994
-0.00486353 0.00689638
0.00057129 -0.02424272
-0.00164118 -0.00000000
-0.00000000 -0.00000000
-0.00000000 0.00000000
0.00000000 0.00000000
-0.00000000 0.00000000
-0.00772882 -0.01428811
-0.01153408 -0.02229492
-0.01901633 0.00350212
-0.00831002 -0.00031694
0.00283515 -0.00324071
-0.00699785 -0.00777681
-0.00534393 -0.00674633
-0.00036293 0.00249620
-0.01044338 -0.00108868
-0.00000005 -0.00000005
-0.00000004 -0.00000004
0.00000002 -0.00000004
-0.00000007 -0.00000010
-0.00000006 -0.01590239
-0.00482148 -0.00008956
-0.00209187 -0.01145350
0.00430362 -0.00342046
-0.01033846 -0.00842450
-0.00000000 0.00000000
-0.00000000 -0.00000000
-0.00000000 0.00000000
-0.00000000 -0.00000000
0.00000000 -0.00382209
-0.00148435 0.00541026
-0.02765295 -0.00933130
0.00694238 -0.00338182
-0.02056980 0.01871817
0.00113402 0.00030025
-0.00178549 -0.00583494
-0.00931555 -0.00492312
0.00089637 -0.01031213
-0.00609424 -0.00000000
0.00000000 0.00000000
-0.00000000 -0.00000000
-0.00000000 0.00000000
-0.00000000 0.00000000
0.00253149 0.00027574
-0.00330889 -0.00635668
-0.00991844 -0.00879354
0.00552574 -0.00332806
-0.00938456 -0.01836879
-0.00519624 -0.00845305
-0.01060644 -0.00463311
0.02053560 -0.00894280
0.00388268 0.00298175
-0.00147636 -0.00445035
-0.00655259 -0.02417290
-0.02075760 0.00394336
-0.00409495 -0.00774969
0.01712015 0.00000000
0.00000000 -0.00000000
-0.00000000 -0.00000000
-0.00000000 0.00000000
-0.00000000 -0.00000000
-0.00213304 0.00318843
-0.00217867 -0.00449033
-0.00101144 0.00340320
0.00507631 -0.02107999
-0.01360237 -0.01248556
0.00315738 -0.00208085
-0.00222101 -0.00647489
0.00556675 0.00602391
-0.01138824 -0.01373424
-0.00714069 -0.00307806
0.00104165 -0.00854729
-0.01311269 -0.00311871
0.00463201 -0.01241514
0.00214127 -0.00807023
0.00141794 0.00863966
0.00102629 -0.01165443
-0.00785164 0.00313414
0.00035693 -0.00470601
-0.00000000 0.00000000
0.00000000 -0.00000000
0.00000000 0.00000000
-0.00000000 0.00000000
-0.00000000 0.00000000
-0.00000000 -0.00000000
0.00000000 -0.00000000
-0.00000000 -0.00000000
-0.00000000 -0.00000000
-0.00000000 0.00000000
0.00000000 -0.00000000
-0.00000000 -0.00000000
-0.00000000 -0.00000000
-0.00000000 0.00337583
-0.00165541 -0.00023552
-0.00057932 -0.00079322
-0.00368434 -0.00280841
-0.01577126 0.00349122
-0.00144623 -0.00355802
0.00110094 -0.00809136
-0.01620417 -0.00219722
0.00227372 -0.00566876
0.00436512 -0.00000000
-0.00000000 -0.00000000
-0.00000000 -0.00000000
-0.00000000 -0.00000000
-0.00000000 -0.00000000
-0.00161008 0.00580763
0.00879653 -0.01531984
-0.01434247 -0.00548336
0.00026501 -0.01086130
0.00951536 -0.00000000
0.00000000 0.00000000
-0.00000000 0.00000000
0.00000000 0.00000000
-0.00000000 0.00000000
0.01276649 -0.00200794
0.00053526 -0.00364319
-0.01204732 0.01251605
-0.00780974 0.00144055
0.00273135 -0.01699168
-0.01058922 0.00487520
-0.01024627 -0.01543776
0.00016894 -0.00318953
-0.01254936 -0.00123635
-0.00000008 0.00000002
-0.00000009 0.00000002
0.00000004 0.00000006
-0.00000004 -0.00000017
-0.00000017 -0.02129506
-0.00218063 0.01052292
-0.00464914 -0.01420353
-0.01225482 -0.00275984
-0.00602590 0.00073074
-0.00000000 0.00000000
-0.00000000 0.00000000
0.00000000 0.00000000
-0.00000000 -0.00000000
-0.00000000 -0.00956970
-0.00114222 -0.01232542
-0.01935052 -0.00481885
0.00485880 0.00022812
0.00652783 0.00018199
-0.00871875 -0.00545697
-0.00412348 -0.00970994
-0.02418766 -0.00203946
0.00088996 -0.01684654
-0.00119125 -0.00000000
-0.00000000 0.00000000
-0.00000000 -0.00000000
0.00000000 -0.00000000
-0.00000000 -0.00000000
0.00845299 -0.00139844
0.00462458 0.00355943
-0.00829489 -0.01641558
0.00048183 -0.00288447
-0.00439780 -0.00872242
0.00793236 0.00069432
0.00448463 -0.00278378
-0.00997724 0.00010140
0.00654816 0.00296927
-0.00305035 0.00223933
0.00196006 -0.00009929
0.00014690 -0.00400487
0.00806559 -0.00659875
-0.00358499 0.00000000
0.00000000 -0.00000000
-0.00000000 0.00000000
-0.00000000 -0.00000000
0.00000000 -0.00000000
-0.01176761 -0.00317815
0.00669111 -0.00654431
-0.00343967 0.00362556
-0.00572228 0.00012675
-0.00740451 -0.00072646
-0.00680702 -0.00749844
-0.00171734 -0.00494668
-0.00091370 -0.00709939
-0.00135874 -0.00326789
-0.01202610 -0.00585771
0.00880590 -0.01024630
-0.00380206 -0.00420125
-0.00105434 0.00027655
-0.00252906 -0.00288769
-0.00524692 0.00741587
-0.00214142 0.00143243
-0.00366704 0.00422369
0.00128175 -0.00769233
-0.00000000 0.00000000
0.00000000 0.00000000
0.00000000 -0.00000000
0.00000000 -0.00000000
0.00000000 -0.00000000
0.00000000 -0.00000000
-0.00000000 -0.00000000
-0.00000000 0.00000000
0.00000000 -0.00000000
-0.00000000 0.00000000
0.00000000 -0.00000000
0.00000000 0.00000000
-0.00000000 -0.00000000
-0.00000000 -0.01012549
0.00235518 0.00466900
-0.00971066 0.00409874
0.00017711 0.00111467
-0.00044266 -0.00634082
-0.00582522 0.00013140
0.00428515 -0.00259695
0.00095084 -0.00213035
0.00507171 0.00494420
-0.00958206 0.00000000
0.00000000 0.00000000
0.00000000 -0.00000000
0.00000000 -0.00000000
-0.00000000 0.00000000
-0.01065395 0.00612521
0.00692994 -0.00238960
-0.00065556 -0.00153298
0.00516024 -0.00399145
-0.01013181 0.00000000
0.00000000 0.00000000
0.00000000 0.00000000
-0.00000000 0.00000000
-0.00000000 -0.00000000
-0.00128765 -0.00861990
0.00965078 -0.00270122
-0.00665340 -0.00229236
-0.00272864 -0.00222889
0.00021448 -0.00914750
-0.00568859 0.00535712
-0.00561722 -0.00455728
-0.00464492 -0.00388015
-0.00897913 -0.00995487
-0.00000007 -0.00000004
-0.00000002 0.00000001
-0.00000004 0.00000003
-0.00000006 0.00000003
-0.00000001 -0.00769590
-0.00423945 0.00598624
-0.00097099 -0.00437300
-0.00258876 0.00477890
-0.00904422 -0.01271936
-0.00000000 0.00000000
-0.00000000 -0.00000000
-0.00000000 -0.00000000
-0.00000000 -0.00000000
-0.00000000 -0.00216844
-0.00170913 0.00623295
-0.00286012 -0.00322044
0.00201558 0.00152626
-0.00650755 -0.00399151
-0.00818880 -0.00780942
0.00126765 -0.00496275
-0.00512043 -0.00359707
0.00015341 -0.00747911
-0.00747001 0.00000000
-0.00000000 0.00000000
-0.00000000 -0.00000000
-0.00000000 -0.00000000
-0.00000000 0.00000000
-0.00492007 -0.00674026
0.00680354 -0.00307872
-0.00509234 -0.00523291
0.00306831 0.00951619
-0.00923499 -0.00128507
0.00243539 0.00229851
-0.00222255 -0.00243339
-0.00498165 -0.00042802
0.00689951 -0.00728607
-0.00901442 -0.00514574
-0.00834969 -0.00063727
-0.00288455 -0.00105189
-0.00038743 -0.00410338
-0.00303324 0.00000000
0.00000000 0.00000000
0.00000000 -0.00000000
-0.00000000 0.00000000
-0.00000000 0.00000000
0.00267605 -0.00518955
0.00479973 0.00145394
-0.00656866 -0.02079223
0.00844998 -0.00217831
-0.02328381 0.00678237
-0.00267960 0.00376161
-0.01050001 -0.00793966
-0.01761623 0.00668330
0.00144273 -0.00978300
-0.00471303 -0.00567335
0.00263235 0.00893547
-0.00355090 -0.01456834
0.00592007 -0.01152923
-0.02010404 0.01154712
-0.00514047 -0.01167212
0.00200033 -0.00751363
-0.01528174 0.01191156
-0.00179715 -0.00849793
0.00000000 0.00000000
-0.00000000 -0.00000000
0.00000000 -0.00000000
-0.00000000 -0.00000000
0.00000000 -0.00000000
0.00000000 -0.00000000
-0.00000000 -0.00000000
-0.00000000 0.00000000
-0.00000000 -0.00000000
0.00000000 -0.00000000
-0.00000000 -0.00000000
-0.00000000 -0.00000000
0.00000000 -0.00000000
-0.00000000 0.00823324
-0.00107475 0.00007869
0.00296933 -0.00599974
-0.01181759 0.00041162
-0.00143755 -0.01025278
0.00068158 -0.00367313
-0.00313883 0.00251916
-0.00214790 -0.01103147
0.00379698 -0.00819977
-0.00702697 -0.00000000
0.00000000 -0.00000000
-0.00000000 -0.00000000
0.00000000 -0.00000000
-0.00000000 -0.00000000
0.00240181 -0.00858342
0.00401222 -0.00089989
-0.01036572 -0.01851685
0.00556941 0.00118044
-0.01636561 0.00000000
-0.00000000 0.00000000
-0.00000000 -0.00000000
-0.00000000 -0.00000000
-0.00000000 -0.00000000
-0.00669780 -0.00938527
-0.00132329 -0.00126715
-0.00531208 -0.00950203
-0.00159191 -0.00811212
-0.01421602 -0.00552516
-0.00806404 -0.00156709
-0.00640756 -0.01625482
-0.02129710 -0.00142521
-0.00452038 -0.01582656
0.00000003 -0.00000007
-0.00000004 -0.00000002
-0.00000006 -0.00000019
0.00000003 -0.00000007
-0.00000011 0.00425628
-0.00614380 -0.00016122
-0.00642021 -0.01147565
-0.00800624 0.00639588
-0.00657679 -0.00096090
0.00000000 0.00000000
0.00000000 -0.00000000
-0.00000000 -0.00000000
-0.00000000 0.00000000
0.00000000 -0.00600763
-0.01270487 0.00695351
0.01236815 -0.00513695
-0.01065027 -0.00157244
-0.01206435 -0.01410628
-0.00243930 -0.00946745
-0.00847288 0.00271157
-0.00770520 -0.01284871
-0.00079200 -0.00683590
-0.00468430 -0.00000000
-0.00000000 -0.00000000
-0.00000000 -0.00000000
-0.00000000 -0.00000000
-0.00000000 -0.00000000
-0.00200279 -0.00312672
-0.00378125 -0.00166269
-0.00573456 -0.01410208
0.00738502 -0.00159084
-0.00847898 0.01208367
-0.00551581 -0.00472771
0.00398006 -0.00171523
-0.00556785 0.00403835
-0.00177188 -0.00860331
0.00346311 -0.00433096
-0.00431946 -0.00114766
-0.00652365 0.00046751
0.00433665 -0.00347349
-0.00218219 0.00000000
-0.00000000 -0.00000000
-0.00000000 0.00000000
-0.00000000 -0.00000000
0.00000000 0.00000000
-0.00589087 -0.00776983
-0.00013359 0.00494763
-0.00337785 -0.00481251
-0.01043903 -0.00097235
-0.00390861 -0.00303570
-0.00722422 -0.00546593
-0.01511083 0.00113374
-0.00802064 -0.01596411
-0.00479381 -0.00601793
-0.00280952 0.00005852
-0.00615376 -0.00827062
-0.00401446 -0.00282229
-0.00095953 -0.00643302
-0.00291586 -0.00250350
-0.00448352 -0.00176136
-0.00262033 0.00082837
-0.00434236 0.00205518
-0.00840761 0.00736717
0.00000000 0.00000000
0.00000000 -0.00000000
-0.00000000 -0.00000000
-0.00000000 -0.00000000
0.00000000 0.00000000
-0.00000000 -0.00000000
-0.00000000 -0.00000000
-0.00000000 -0.00000000
-0.00000000 -0.00000000
-0.00000000 -0.00000000
-0.00000000 -0.00000000
-0.00000000 0.00000000
0.00000000 -0.00000000
-0.00000000 -0.00598358
-0.00350377 0.00447180
0.00487648 -0.00351184
-0.00337970 -0.00161596
-0.00656381 0.00046678
0.00142841 -0.00446485
-0.00192650 0.00111988
-0.00051766 -0.00411993
0.00295349 -0.00676807
0.00221638 -0.00000000
-0.00000000 0.00000000
-0.00000000 0.00000000
0.00000000 -0.00000000
0.00000000 0.00000000
-0.00614911 -0.00204776
0.00370532 0.00720106
-0.00460641 -0.00537969
-0.00902301 -0.00462656
0.00167269 -0.00000000
-0.00000000 0.00000000
-0.00000000 -0.00000000
0.00000000 -0.00000000
-0.00000000 0.00000000
-0.00182468 -0.01072852
-0.01136703 -0.01387106
-0.01362526 -0.00410707
-0.00256093 -0.00570845
-0.00431152 -0.00301528
-0.00644532 -0.00061464
-0.00328511 -0.00423817
-0.00420995 0.00085056
-0.00436180 -0.00235827
-0.00000009 -0.00000014
-0.00000006 -0.00000007
0.00000002 -0.00000009
-0.00000000 0.00000001
0.00000001 -0.00535920
-0.00754717 0.00685802
0.00091088 -0.00617041
0.00295814 -0.00384926
-0.00349461 0.00160667
-0.00000000 -0.00000000
-0.00000000 0.00000000
-0.00000000 0.00000000
-0.00000000 -0.00000000
0.00000000 -0.00677379
-0.00710552 -0.00320110
-0.00857984 -0.00255966
-0.00118582 -0.00826518
0.00268669 -0.00224514
0.00134113 -0.00334111
-0.00596061 -0.00229740
-0.00232849 -0.00273246
0.00451276 -0.00158955
-0.00245784 -0.00000000
-0.00000000 0.00000000
-0.00000000 -0.00000000
0.00000000 0.00000000
-0.00000000 -0.00000000
-0.00232966 -0.00430740
-0.00472892 -0.00590472
0.00130190 -0.00456451
-0.00154059 -0.00640846
-0.00305789 -0.01245855
-0.00545710 -0.00083308
-0.00683952 -0.01024393
-0.00364146 -0.00677203
-0.00148263 0.00604699
