-0.15710771 -0.03047085
-0.02674559 0.06345351
0.00713158 -0.06261382
-0.02754881 -0.02830264
-0.07721241 0.11083977
0.01613574 -0.01591677
-0.02712601 0.03569855
0.00319880 -0.06380250
0.05360548 0.04360782
-0.04663451 -0.00727679
0.04360340 0.08179692
-0.07835485 0.01794410
-0.22855951 -0.07907119
-0.34871486 -0.36067754
0.45040277 -0.23108095
-0.20046207 0.32507774
-0.05487265 0.47091582
0.11932081 -0.43467888
0.57905763 0.27125338
-0.16240916 0.15001458
-0.03791724 -0.32589129
-0.42161438 0.05911519
-0.38809618 -0.05885096
-0.48990771 -0.16828825
-0.01587236 -0.00748037
0.00199920 -0.01121870
0.03356422 -0.02179196
-0.00792608 0.00423526
-0.01271081 0.00754009
-0.01143826 -0.01337722
0.00097260 -0.00713547
0.00425439 0.00826908
-0.00394248 0.02366985
-0.01802435 0.01286426
-0.01700834 -0.06762038
-0.00667527 -0.00170215
-0.00454860 -0.01379263
0.00979589 -0.04766812
0.00766056 -0.01788676
0.02681547 -0.01502999
0.00671301 0.01335018
-0.04346522 0.01737988
-0.04559466 -0.00053358
-0.02493818 -0.07699694
0.03876751 0.01191896
0.02135128 0.00501095
-0.08949891 0.01133172
-0.01068985 0.00264354
-0.12184975 -0.02189309
0.02232468 -0.07511058
-0.05611779 -0.05301926
-0.01831249 -0.01544056
-0.02501089 -0.00624015
0.04012059 0.01845252
-0.01053657 -0.06799748
-0.01011175 -0.05563353
0.12312642 0.08273898
-0.03144297 0.03382260
-0.12158470 -0.01795430
0.02195697 0.04716125
0.34831893 -0.06889520
-0.16077159 0.00337259
0.09419839 -0.12490559
0.12208013 -0.13042346
0.06697834 0.53049028
-0.23125909 0.15624443
-0.20586833 0.14341907
-0.14787497 0.06381616
0.02545490 -0.07502849
0.15460452 -0.12951903
0.11174257 -0.03157773
-0.10807741 -0.32107148
-0.06297023 -0.05985843
-0.00421149 0.16730066
-0.01941358 0.06040971
-0.09338077 0.01137368
0.05446943 -0.08345366
0.14497972 0.03214448
0.09255555 -0.07946288
0.03389157 0.05681616
0.09234551 0.09554353
0.08343126 0.05546680
0.02124165 0.01097614
0.12633897 0.02263197
0.01272654 0.00889583
0.00241993 -0.16634157
0.01145838 -0.01997129
0.12533784 0.08181191
0.02400284 0.08875865
0.07218896 0.05194351
0.04829847 0.10004208
0.08054726 -0.02155830
-0.10241032 0.12225434
0.00291407 -0.09298369
0.04088115 -0.12838654
0.00342632 0.04101150
-0.02830532 -0.04842953
-0.38143158 0.20872527
0.28812268 -0.17535202
-0.79195350 0.38316604
-0.14616370 0.33727381
0.08341870 0.57019335
0.43268102 -0.18593022
-0.13144904 -0.01279291
-0.26881567 -0.24407797
-0.08532529 0.02893953
0.29110482 -0.38419026
-0.17957249 -0.23546003
1.08476996 -0.01818154
0.03111666 0.28999591
-0.22976834 0.85071027
-0.33498147 -0.31832337
0.41757387 -0.30699939
0.02419753 0.30933857
-0.25721499 0.06302220
0.08715931 0.06505818
-0.03834759 -0.18771146
0.32158878 0.20023784
-0.00102605 0.39723071
0.09960055 -0.08475137
-0.11419742 0.41354254
0.02139863 0.03517867
0.05330488 0.06791757
-0.10657165 0.03742062
-0.05241274 -0.09206881
-0.04771442 0.01632201
0.11721749 -0.02472600
0.29225251 0.15661743
-0.04450088 -0.00459397
0.01279384 -0.03485890
-0.00798846 0.08056159
-0.10021123 0.01077824
-0.04920369 -0.06563071
-0.09709393 -0.01605908
-0.08352981 -0.05009617
0.02522070 -0.05663462
-0.02426049 -0.10755429
0.02562030 -0.09642485
0.03832337 0.00042260
-0.07821921 -0.12136697
0.03518883 0.02298602
-0.02719059 -0.01073374
0.01868995 -0.02629196
-0.11540068 0.00593160
-0.03021861 -0.00144926
-0.01187912 0.00003806
0.00804975 -0.04172035
0.00401878 0.01263773
-0.00996019 -0.00324817
-0.00449996 0.01171934
0.01292095 0.01592995
-0.00300083 -0.01698590
-0.00751728 0.00430330
-0.00223577 -0.00203611
0.02763628 -0.00071529
0.00998017 -0.01087063
-0.00482073 0.00365322
-0.00096103 0.00342423
-0.00091369 0.00181388
-0.00302380 -0.00032811
0.00263767 0.00209744
-0.00333818 0.00110616
-0.00468745 0.00219531
-0.00059010 -0.00621086
0.00083545 0.00003320
0.00362191 0.00109897
-0.00306180 -0.00239858
0.00209046 0.00402579
0.00534102 -0.06312551
-0.24743527 0.14969218
0.02755611 -0.14825734
-0.02787468 -0.07456422
-0.09585250 0.08327672
-0.13249403 -0.06487321
-0.04929960 -0.08135303
-0.07470214 -0.04923565
0.07189949 0.01192419
-0.16207904 0.03268360
0.12874410 -0.05412977
-0.06846356 -0.00506819
0.28057793 -0.10376962
0.23260759 -0.60241801
0.21584947 0.29862139
-0.53291494 0.14075685
0.11089905 0.23770919
0.27325034 0.38548571
0.20937163 0.28239518
-0.19713929 -0.32969624
-0.66149426 -0.29201460
0.35799307 -0.40638566
0.08864976 -0.08842052
0.16656037 -0.00080120
