0.00596071 0.00212806
-0.00379741 0.00059454
-0.00788746 0.02272003
0.00563435 -0.00528102
-0.01531991 -0.00588492
-0.00530329 0.00630552
-0.01075299 0.00381739
-0.00058754 0.00264687
-0.01033189 0.00781675
-0.00846780 0.00863935
0.01046824 0.01960335
-0.02821611 -0.02012479
0.01276356 -0.01756285
0.01797519 -0.00935485
-0.01124459 0.01418242
0.00168664 0.01178114
-0.00043997 0.00103822
0.01113204 0.00241306
0.00489716 0.00186403
0.01775614 0.00816114
-0.00452979 0.00151616
-0.00224066 0.00336091
0.00537026 -0.00576235
-0.00691850 -0.00680952
-0.01400653 -0.00691872
0.01168389 -0.01082039
-0.00625472 0.03226012
0.02178494 0.01467047
-0.00856553 -0.00198230
-0.02458568 -0.00824438
0.01716174 0.00159825
-0.00070043 -0.00871849
-0.01082414 0.00335573
0.01780829 -0.00372598
0.00171987 -0.00789354
-0.00086704 -0.00978702
0.01055919 0.00442798
0.00296490 0.00003232
0.00979503 0.01267176
-0.02285104 0.01050258
-0.04432078 -0.00104107
0.00344561 -0.01179005
0.00086710 -0.02253103
0.02227006 -0.00357758
-0.01976259 0.03026929
-0.00121789 -0.00411591
-0.00163307 -0.00775926
-0.00312353 0.01060631
0.00639286 -0.01296272
0.01440687 0.00552911
0.01815824 -0.01179300
0.00731653 -0.00019787
-0.00554373 -0.00465454
-0.00997971 -0.00741935
0.01817315 -0.01294024
-0.01667955 -0.00384100
-0.01252703 0.04538531
-0.00188316 0.00248727
-0.01820282 0.02544604
0.01636671 -0.01438033
0.00681442 0.01192955
0.01758873 -0.00657128
-0.00581081 -0.02744838
0.00945606 -0.01109903
0.00705730 -0.00824689
0.01300760 -0.00554724
-0.00611308 0.00402127
-0.01253529 0.00731299
-0.00875388 0.00116941
-0.00343377 -0.00247937
0.01013153 0.00216852
0.00184660 0.00250944
-0.01405668 -0.00376669
0.00758414 0.00040250
-0.00229015 -0.00357450
0.00191550 -0.00845432
0.00300576 0.02198919
-0.01275828 0.01099770
-0.01403276 0.01409627
0.02207154 -0.01671833
-0.00483554 -0.00813805
0.00370673 -0.00030529
0.00246685 -0.01692011
-0.00106507 -0.01104133
0.00144931 0.00925214
-0.00121351 -0.00604380
-0.00435063 0.02281806
-0.00446735 0.01503492
-0.00872699 -0.00665281
0.00952530 0.00291025
0.01117318 0.00733469
-0.00207116 -0.01277639
-0.00355021 0.01050547
-0.00766697 0.01079561
-0.01451312 0.00825668
0.00043154 -0.00305741
-0.02114586 -0.01201231
-0.01551266 -0.00363586
0.02335628 -0.00266505
0.00142586 0.00153235
-0.00468692 -0.00717244
0.02020399 -0.02091972
0.02090200 -0.00429977
0.01041211 0.01431923
-0.02329583 0.00574391
0.00825958 0.02368412
0.00475274 0.00220575
0.00335131 -0.03216241
-0.01211114 0.00747201
0.00433097 0.00283868
-0.01101069 -0.01350932
-0.00424711 -0.00390489
0.01438231 0.01321429
-0.00479378 0.01267603
-0.00169659 0.01464943
-0.01577597 -0.00885564
0.00841218 -0.00983686
-0.01634030 0.00591984
-0.01638372 -0.01061023
-0.01142560 -0.00949285
0.00436225 -0.00857981
0.01938674 -0.00551354
-0.00106853 0.00945646
-0.01196245 0.00505322
0.01258628 -0.00995042
0.00593180 0.00736854
0.00782120 -0.01816525
0.02756565 -0.00553570
0.00203920 -0.00527668
-0.00434298 -0.01748409
0.00072140 -0.01062830
-0.00015207 -0.00284316
-0.00321946 -0.02339040
-0.01393477 0.01526008
-0.00192945 0.01674685
0.00187627 -0.00650299
0.01038150 -0.00035274
-0.00075588 0.00975986
-0.02406193 0.01049869
-0.00195947 -0.00262770
0.00051442 -0.00524663
-0.00150985 0.01177036
0.00028193 0.01493647
0.00912474 -0.00126454
-0.00025054 0.00280191
-0.00016134 0.00630841
-0.01173460 0.00054268
0.00015419 -0.00389289
-0.00766333 -0.00981674
-0.00943689 0.00459500
-0.00218704 0.00435112
-0.01008437 -0.00654173
-0.00055226 -0.01673707
-0.02006557 0.00124216
0.03045062 0.00124065
0.00392209 -0.02789068
0.02082011 0.00858069
-0.00553761 0.00207263
-0.01238653 -0.00079579
0.00030495 -0.01071386
0.02797821 0.00090315
-0.00243633 -0.01811673
-0.00440599 0.01149127
-0.00571438 -0.01065683
-0.00212207 0.00333709
0.01870559 -0.01324870
-0.00333719 0.00224042
0.01068152 0.00981418
0.00531216 0.01671715
-0.01337695 0.01067306
0.00208226 -0.00527257
-0.00010582 -0.00188034
0.01394759 0.00271890
0.00429220 -0.01719386
0.00393203 0.00755701
0.00570364 0.00180041
-0.04075238 0.03809382
-0.00667089 0.00060864
0.01007007 -0.02354651
0.00863062 -0.00080125
-0.00336629 -0.01164730
0.02581020 -0.00569201
0.00050752 0.00692692
-0.01773763 0.00953622
0.00036290 0.00513756
0.00079041 -0.00456710
0.00157469 -0.01388570
-0.01263732 0.01835643
0.00772512 -0.01149352
-0.00489275 -0.00397578
-0.00011954 0.00891389
-0.00266845 -0.00426078
-0.01625904 -0.00201270
-0.01467100 -0.00063791
0.00482189 -0.00723970
0.01422735 0.00222385
-0.01165441 -0.00097360
-0.00719392 0.01455823
0.00876967 0.00875004
-0.01865347 -0.00954416
-0.00885177 -0.00138205
0.00732723 -0.02443694
-0.00004901 -0.01700287
0.00091969 -0.00297197
-0.01666674 0.00430583
-0.00806107 -0.00546417
0.01811486 0.01269711
-0.01163854 -0.01291176
0.00175311 -0.00265913
-0.01081977 -0.00814835
0.02723158 0.01120868
0.02400720 -0.00252690
0.01852315 0.01693297
0.02583126 -0.00280943
-0.01912512 -0.01417929
-0.01451357 -0.02311024
-0.00778210 -0.00834057
0.00369717 -0.00487753
0.00846786 -0.00094415
-0.00395914 -0.00914012
-0.00462458 -0.00070150
-0.00236587 -0.00527943
0.00644756 -0.00761856
0.00765816 0.00427637
0.00377026 0.00832182
-0.01201071 0.01889259
-0.00720114 -0.01081387
-0.02821821 -0.00788837
0.00260737 0.00911238
0.01148399 -0.00575455
-0.00072125 -0.00998922
-0.01472472 0.02815474
0.00591298 0.00742063
0.00890640 0.00248848
0.00522476 -0.01058533
0.00343621 -0.00080757
-0.00597792 -0.00952084
0.00449783 -0.00487283
0.00632363 -0.00028260
-0.00541872 -0.00205109
0.02965534 -0.01258888
-0.00010871 -0.00072805
-0.00760673 -0.00877918
0.00099196 0.00859509
-0.00755931 -0.01356828
0.02783157 -0.00611200
0.00027362 0.00760601
-0.01992933 0.02022715
-0.01223847 -0.00014113
-0.00942736 0.01069306
-0.00486475 0.00438531
0.00808758 0.00446336
0.01199564 0.00109907
0.00159746 -0.02140411
0.01271839 -0.00481634
0.00019549 -0.00663967
-0.00021913 0.00729664
0.00297209 -0.00296346
-0.00117061 -0.00396597
-0.00730360 -0.00487340
0.00900697 0.00030040
-0.00316686 -0.00622544
-0.00290861 0.02346414
-0.03068057 0.00553776
-0.00771938 -0.01935039
-0.01794048 0.00556520
0.01240547 -0.01465452
0.00104380 -0.00483121
-0.00641970 -0.01047639
0.01857793 -0.01308686
0.00938662 -0.00607361
-0.00124867 -0.00913355
0.02313019 0.00166894
-0.01008376 -0.01248098
-0.01462201 0.00449221
-0.00688846 -0.00121786
-0.01764496 0.02066744
-0.01436475 0.00207346
-0.01165644 -0.00640902
0.01005149 -0.00774279
-0.01822480 -0.00825462
-0.00702796 -0.00013906
-0.00697662 -0.00565212
0.01813659 -0.01206261
-0.01106864 -0.00917109
0.00405473 -0.00648418
0.00332445 -0.00407563
-0.00554582 0.00034164
-0.00257146 -0.01154553
0.00317766 0.00786641
-0.00917070 0.00103989
-0.01188910 0.00394654
-0.01408825 -0.02465606
-0.00044446 -0.00385009
0.00807596 0.00146728
0.00742692 -0.00031681
-0.01121267 0.01489400
-0.00130867 0.00516103
-0.00882392 0.00354466
-0.00104317 0.00010214
0.00291683 -0.01547152
0.00741425 -0.00263578
-0.00745550 0.02069658
0.00208351 0.00265395
0.01122955 -0.01471388
-0.00672330 -0.00957686
-0.01732459 -0.00661676
-0.00355958 -0.02075883
0.03462356 0.00173771
0.00308633 -0.01359034
0.01141407 -0.00673552
0.01126660 -0.00142046
-0.01225614 -0.00929229
-0.00920514 -0.00253460
-0.00033097 -0.01979483
-0.00112294 0.00087037
-0.00834636 0.00630758
-0.01545351 0.00783938
-0.01175876 -0.00247400
-0.02015042 0.00352769
-0.00240697 0.00369038
-0.00241177 0.00578504
-0.00812512 0.00981107
-0.01576041 0.01423632
0.00163583 0.00875730
-0.01186467 0.01026361
-0.00998412 -0.00833565
0.00662701 -0.00585319
-0.00499334 -0.01840183
0.00920073 -0.00229367
-0.00628247 0.00975595
-0.00891093 0.00113994
-0.00652122 0.01102780
-0.00172577 0.00577372
-0.01582375 0.00282105
-0.03383536 0.00492109
0.00142901 0.00241391
0.01121938 0.00263246
-0.00005304 -0.00579434
0.00766193 -0.00222176
-0.01392424 -0.00037376
-0.00573156 -0.00167173
-0.00488267 0.00553404
-0.00340914 -0.00926486
-0.00526038 -0.00501264
0.00212891 -0.00907874
-0.01223382 -0.00977778
0.01277369 -0.00352259
0.00186488 -0.01310668
-0.00797889 0.00115744
0.01393396 0.00015449
0.02392710 -0.00656747
-0.01404188 -0.00135880
-0.02150077 -0.00543257
-0.00271034 0.00077117
0.00059714 -0.00796605
-0.00311021 -0.01657464
-0.00570811 0.01502608
-0.00912020 -0.00796453
0.00340950 -0.00601492
0.00584972 0.01422751
-0.00602321 -0.00662979
-0.01349938 -0.00997998
-0.00592089 0.01273470
-0.00640630 -0.00411418
-0.00636786 -0.00538003
0.00576858 -0.00957758
0.00446516 0.01308609
-0.00465085 -0.02037848
-0.00264748 0.00081322
-0.00950414 0.00789106
-0.01306721 -0.00479958
0.00116060 0.00295832
0.01712002 0.00132752
-0.00553304 -0.00579698
0.00573400 0.00296740
0.01333995 -0.01175855
0.00407727 0.00554164
-0.00758641 0.00875458
-0.00872692 0.01583978
-0.00701526 0.00584170
-0.00425829 0.00651191
0.00763765 0.01495335
0.00645055 -0.01149575
0.00715323 -0.00750933
-0.00659308 0.00509658
0.00626104 0.02198858
-0.01103816 0.00753425
0.00619811 0.00092948
-0.01776572 -0.00797353
0.00447879 -0.00512597
0.00772923 0.00357926
-0.00907161 0.01394068
0.00822063 -0.00054656
0.00305743 0.00789554
-0.00846450 -0.00246874
0.00007475 -0.01683308
-0.00511020 0.01373712
-0.00885927 0.01228452
-0.00826707 -0.00235548
-0.01430697 -0.00608007
0.01666273 -0.00410462
-0.01104739 0.01783923
-0.01017577 0.00468655
0.01440595 0.00951403
0.01782309 -0.01655887
0.01067504 -0.00953385
0.02386272 -0.00513973
-0.00820100 -0.01558077
0.00147529 0.00083663
-0.00243578 -0.00161235
-0.00162491 -0.04901202
-0.00865066 0.01211376
0.01459561 -0.01727126
-0.00568052 -0.01021169
0.00733513 -0.00761357
0.00560232 0.00212815
-0.01222905 -0.00131631
-0.01086023 -0.00685657
-0.00162775 -0.00408790
0.00220465 -0.02039450
0.01480799 -0.00298520
-0.00467468 -0.00329410
-0.00628913 0.00174062
0.00066647 0.00534014
-0.01403652 -0.01266001
0.00812820 0.02030596
0.01011195 0.01288542
-0.00717765 0.00023132
0.00281461 -0.00548793
-0.00973046 0.00634262
-0.00718455 -0.00079533
-0.00675484 0.00064112
0.01212571 0.00117144
-0.00617351 -0.00415978
-0.01579738 -0.00228500
0.00085611 0.00425780
-0.00969595 -0.00221273
0.00040751 -0.00443536
0.01425998 0.01286844
0.01198623 -0.00586271
-0.00386348 -0.00394263
0.01277997 0.00515958
-0.01296920 -0.00096820
0.01169099 -0.00425931
-0.00727431 0.00788860
-0.00058206 0.00954835
-0.01465358 -0.00603465
-0.00549327 -0.01053199
-0.00857568 -0.02390507
-0.00327404 -0.00106876
0.00027324 0.00754218
0.00564356 -0.02054179
0.00871029 0.01388494
0.02458639 0.00279630
0.00871098 0.01151888
0.00113721 -0.00066622
0.00602901 0.00883225
-0.01772108 -0.01186837
-0.01543431 -0.00595951
-0.00040477 -0.01481448
-0.00481037 -0.00363778
0.00007695 0.01815484
0.02328312 0.00068083
0.00395745 0.00390017
0.00409761 0.01056238
-0.01093397 -0.01332460
0.00120298 0.00399751
-0.00680880 -0.01050632
0.01134759 0.01630100
0.00513208 -0.02251006
-0.00988043 -0.01508329
0.03425519 0.00019404
-0.00610054 0.00311930
0.01635380 0.00898284
0.00330206 0.00062041
-0.00846225 -0.00012480
-0.00339373 -0.00469753
0.00952432 0.01524827
0.00795283 0.00352315
-0.01473693 -0.02550658
-0.00633953 0.00499076
0.00406665 -0.00284291
-0.00082960 -0.00115276
-0.01324031 -0.02592030
0.00280249 -0.00102986
0.00069061 -0.00640891
-0.00787171 0.01486911
0.00237107 -0.00005966
-0.01817322 -0.00235436
-0.01088905 -0.00671072
-0.00652719 0.00704187
-0.00164497 -0.00404898
-0.02441411 -0.00462252
0.00324345 0.00368350
0.00625747 -0.01096468
-0.00339839 0.00364938
-0.00963777 0.01128979
0.00178260 0.01138923
0.02151605 0.00286802
-0.00185875 0.00081840
0.00725912 -0.00009101
0.00754444 0.01529021
-0.00683795 0.00327017
-0.00527425 0.00049799
0.00089122 0.00057446
0.00624418 0.01395766
-0.00323929 -0.01156638
0.00160669 0.01218989
-0.00203843 -0.00906742
-0.00033818 0.02474346
0.01697390 0.00266628
0.00368909 -0.00102006
-0.00720015 -0.00562875
0.00914731 -0.00435531
-0.00536495 0.00357932
0.00705672 0.00080639
0.01721790 0.00031201
-0.00498553 0.01030673
-0.00338723 -0.00827474
-0.00274970 -0.01595983
-0.00194539 -0.00568581
0.00017371 -0.01245878
-0.00069774 0.00430585
0.00360290 -0.01690683
-0.00162972 0.00581324
0.01379859 0.00074831
-0.00665947 0.01080003
0.00725006 0.00415066
0.00108448 -0.00186310
-0.00582413 -0.00621435
-0.01676658 -0.00636015
-0.00339595 -0.00904763
0.00813628 0.00564122
0.00360880 -0.00407548
0.00106095 -0.00442668
-0.01181649 -0.00003880
0.00190308 -0.00708199
0.00665692 -0.00534062
0.02490283 0.00748846
0.00208357 0.01917689
0.00152375 -0.01457184
-0.00215164 0.00126411
0.00791421 0.01689630
0.00278307 0.00377243
-0.00078742 -0.00642266
-0.00002818 0.00802525
-0.00229491 -0.00398886
0.01906437 -0.00387049
0.01494291 0.00826751
0.00393168 -0.00536620
-0.00886261 -0.00371836
0.03347191 0.00569021
0.01914266 0.00336594
0.00572304 0.01000480
-0.00197305 -0.00861121
0.00593802 -0.00253341
-0.00965020 0.02441943
-0.00344002 -0.00758498
0.00028154 -0.00063814
-0.00064544 -0.00107716
0.01038356 0.00038983
0.01376651 0.00617407
0.01219840 0.00143943
0.00012808 -0.00016162
-0.00014727 0.02266049
0.02390325 0.00894435
-0.00298050 0.00645742
-0.00238352 0.00890817
0.00626042 0.00607310
0.00028305 -0.02795501
-0.00340816 -0.00754901
-0.00199561 0.01499340
-0.01201764 0.00320391
0.01216374 -0.02121856
0.00972478 0.00969551
0.00851868 -0.00434608
0.00997761 -0.01074519
-0.00693714 -0.00845610
0.00497104 0.01323120
0.02393604 -0.00369613
0.00175334 0.00272708
-0.00643070 0.00768459
0.00676671 -0.00524209
-0.00492931 -0.02562301
0.01275851 0.00618938
-0.00062192 -0.01145746
-0.00726673 0.00171391
0.02198703 0.01145225
-0.02146335 0.00536923
0.00631714 0.00560764
0.01669070 0.00108489
-0.00206833 0.00063172
0.00378242 0.01273769
0.00709539 0.00002213
0.00574499 0.00340570
-0.00586532 -0.00501615
-0.01652817 -0.00771924
-0.00921528 -0.00019164
0.00063673 0.01073477
0.01360136 -0.01105207
0.00888693 -0.01808095
-0.00993556 0.00127495
0.00950204 -0.00128721
0.00712174 -0.02371467
-0.01732938 0.00856457
0.00204701 0.01383265
-0.00061069 -0.00557842
-0.00023667 0.00369588
0.01342875 0.00154823
0.02172482 -0.00793696
0.00076788 -0.01227024
-0.00528266 0.01380732
0.00705817 0.00634718
-0.00003879 -0.00033399
0.01929846 -0.01054300
-0.00745134 0.00681973
0.00332512 0.00400886
-0.00022365 -0.00215231
-0.00584679 -0.01142597
0.02004344 0.00745490
0.00243686 -0.00277366
-0.00872847 -0.00240996
-0.00465423 -0.02049901
-0.00668221 -0.00238426
0.00165980 -0.00360445
-0.00296648 -0.00013025
-0.01019045 0.00055656
0.00086158 0.00989507
0.01147686 0.00168848
0.01548525 0.00218841
-0.00547650 -0.01392810
-0.01509422 -0.00393528
-0.00188618 -0.00721274
0.01200502 0.01837230
-0.00899460 -0.00143848
0.01547989 0.00370417
0.01041520 0.01166733
-0.00864183 -0.00063068
0.02230053 -0.00570912
0.02307375 -0.01918131
-0.00012257 -0.00323188
-0.00631267 0.02350616
0.00273569 -0.01205487
0.00534193 -0.00687852
-0.00822203 -0.00386524
-0.01561301 -0.00053442
0.01179766 0.02304634
0.00639177 -0.01094771
-0.00319918 -0.00458522
-0.00256000 0.00148597
-0.00251777 0.00029939
-0.00814766 0.00110078
-0.00489641 -0.01123880
0.00920800 0.00509365
-0.00368813 0.00074840
0.00760102 0.00227214
0.01472451 0.01511935
0.00708316 0.00826555
-0.00358640 -0.03252479
-0.01492370 -0.00304785
0.01389482 -0.01271378
-0.01148660 -0.02188468
-0.01374317 -0.01123239
0.00983727 0.01158392
-0.01710436 0.01873558
0.00177358 0.01799884
0.00921318 0.00948788
0.01445342 -0.00890167
-0.00913776 -0.00414392
-0.00883510 0.00912399
-0.00442097 -0.01261151
0.01718944 -0.01959729
-0.02112393 0.01063002
0.00480856 0.00460039
-0.00205059 0.00000067
-0.01114035 -0.00307501
0.00472619 -0.00965345
-0.00473797 -0.01413757
0.03862803 -0.00464375
0.00221877 0.01295626
-0.00509650 -0.01668551
-0.01116008 0.00078154
-0.01360743 -0.00771511
0.02982823 0.00174625
0.01204267 -0.00247066
0.00293557 0.00893299
0.00754317 -0.01322909
-0.02561174 0.01463844
0.00506550 0.00552397
0.00010396 -0.01528833
0.00111099 0.00267996
-0.00600228 -0.00795212
0.02114796 -0.00060188
-0.01463650 0.01305644
-0.02209708 -0.00148760
0.01115325 0.01928340
-0.03415678 0.01055541
0.00768994 -0.00740412
0.00895378 -0.03189345
0.00463645 -0.00704487
-0.00237440 -0.01582390
0.01901041 0.01189059
-0.00815671 -0.00577451
-0.01699390 0.01840096
0.00865451 0.00071328
0.00653911 0.00996429
-0.00704778 0.00232583
-0.01399175 -0.01779607
0.01541127 0.00905298
-0.00930149 0.00171261
0.00977422 0.00562681
-0.01032676 0.01431249
0.00123250 -0.00717127
0.00359887 0.01224374
-0.00993182 0.01735000
0.00900820 -0.00979335
-0.00902260 0.00825218
-0.01172829 -0.00247313
-0.00312630 -0.00382839
0.01159079 -0.00724490
0.00146767 -0.00961129
-0.00455470 -0.01199888
-0.00886188 0.00063990
-0.00675187 -0.01569821
-0.00230912 0.00386220
-0.00648365 -0.01668075
-0.01223728 0.01516851
0.01263074 0.00735838
-0.01101715 -0.00206305
0.00064717 0.00815945
-0.00004923 0.00296389
-0.00651601 -0.01072672
-0.00104290 -0.00419990
-0.00597251 0.00622876
0.01373694 -0.00590190
0.00064159 0.00278008
0.00436773 0.00796143
-0.01909896 0.00797178
-0.00409489 -0.01424410
-0.00838398 -0.00852917
-0.00933533 -0.00807882
0.04124477 -0.00053411
-0.00180538 -0.01132317
0.00483427 -0.00894797
0.00211211 0.00268950
0.00230577 -0.03015609
0.00746618 -0.01021456
0.00004523 -0.00026205
-0.01809158 -0.00864456
-0.00252750 0.01363157
-0.00271417 -0.00458127
0.00770247 0.01286187
0.00217414 -0.00677614
0.01519132 0.00031201
-0.00167160 -0.02074444
0.00232235 0.00503123
0.00865167 0.01063968
-0.00290289 -0.02670893
-0.00399549 -0.00815599
0.03353288 -0.00951923
-0.00641825 0.00421715
-0.01353028 -0.01743260
0.01799064 -0.00648391
-0.00272169 0.00968088
0.00173489 0.00340642
0.00435577 0.01331366
0.00219877 -0.00450564
0.00683382 0.00027678
-0.02021037 0.01774767
0.00812896 -0.00073026
0.00058187 -0.01046535
0.00505430 0.00239055
0.00518191 -0.01597963
0.01202686 0.01392784
0.01342678 -0.01244241
-0.00735308 0.00003644
-0.00288552 0.00069045
-0.00754159 -0.00146629
0.00036082 0.00315342
-0.00016547 0.00635592
-0.01388813 -0.01460162
0.00094834 0.02983985
0.00611095 0.02327424
-0.00982236 0.00235299
-0.00372139 -0.02211648
0.01927448 0.01263746
0.01441255 0.00224053
-0.00794618 0.00264976
-0.01549581 -0.00881966
0.01215744 -0.00338679
-0.00557941 -0.00095233
-0.02447755 0.00893520
0.01911908 0.00139355
0.00541881 -0.01718211
-0.00800660 0.00928363
-0.01758868 -0.00564300
-0.01239290 -0.00296153
-0.00871703 -0.00201643
-0.00309018 -0.00430907
-0.00549822 -0.00662297
0.00291441 -0.00445318
-0.00421209 0.00544204
0.00751929 0.00632453
0.00120892 -0.01304615
-0.00119726 0.01278440
-0.00278053 0.00082401
0.00020492 0.00499254
0.00002129 -0.01073793
-0.00741272 -0.00764580
-0.00779867 -0.00582087
-0.00387619 0.01599857
-0.01700134 0.01587500
-0.00266651 0.00012371
-0.01681013 0.00113186
0.00288717 0.00707957
-0.01952079 -0.02008702
0.00022886 0.00167384
-0.00532060 -0.00020636
-0.01136126 0.02236284
0.01439802 0.01348135
0.02016350 -0.02119584
0.00553650 0.00317527
-0.01356273 -0.00591969
-0.00235802 0.00116697
0.00220983 -0.00060792
-0.00894252 0.00741628
-0.00210178 0.00711689
0.01312156 -0.00780615
0.00474860 0.00145301
0.00030564 -0.01005378
-0.00638209 0.01553188
-0.00571946 0.00417431
0.00525185 0.01424960
-0.00164313 0.00363494
0.01628527 -0.01001871
-0.00061798 0.01393385
-0.00056739 -0.01297135
-0.00030477 -0.01277226
0.00404071 -0.00843646
-0.00956313 -0.01126788
0.03115858 -0.01216516
0.03685559 0.01196851
0.01838442 -0.01046596
-0.01243519 0.00429597
-0.00281964 -0.00397269
-0.00302410 -0.00427842
0.00154212 -0.00208526
-0.01346247 -0.01128134
-0.01993442 -0.01452401
0.01964792 -0.00438628
0.00740416 -0.00269293
-0.00147824 -0.00106778
-0.01130063 -0.00207606
0.00202430 -0.00337741
-0.01192044 0.01217701
-0.01878795 -0.00002129
-0.00176993 0.01232788
-0.01017475 -0.02039057
0.01796038 0.00566793
-0.00609753 0.01946271
0.01480364 0.00702361
-0.01015591 -0.00765274
-0.00578438 -0.01894015
0.00168136 0.00688465
0.00684333 -0.01390689
-0.00308490 0.00304012
-0.00734650 0.02606663
0.02297961 -0.00097311
-0.00157703 -0.01009362
-0.01471345 0.00628732
0.00272875 0.00167687
0.01357654 -0.00564145
0.02657289 0.01313843
-0.00807940 -0.00863856
0.00076324 -0.01534546
0.00123692 -0.02408005
-0.00451682 -0.00424991
-0.01673388 -0.00015360
0.03281844 -0.00129133
-0.01066687 -0.01166373
-0.01265808 -0.02230724
0.01269644 0.02004047
0.00928919 -0.00274259
-0.00647917 -0.00628758
-0.00114783 -0.00772006
-0.00233621 0.00097305
-0.00269163 -0.01808239
-0.02486800 0.00785126
-0.00935412 0.01616224
0.01033604 0.00526650
0.00764493 -0.00003550
0.01369297 -0.00957050
-0.01997577 0.01098517
-0.00682948 -0.00403426
0.03299432 0.00726033
-0.01193436 0.00498595
0.00638856 -0.02326095
0.00135272 -0.00367153
0.00780006 0.01145195
-0.00297308 0.00861169
-0.00485608 0.01449954
-0.01045376 -0.00074974
-0.00287716 -0.00728746
0.01662340 0.00323979
-0.00562645 -0.00789192
-0.00862092 -0.01198371
-0.00726367 -0.00718817
-0.00998157 0.03622674
-0.00121245 0.00281315
-0.00147259 -0.01168137
0.00010311 -0.01392698
0.00742555 -0.01583539
0.00336221 0.01355670
-0.00871313 -0.00351660
-0.01812112 -0.02759319
-0.00884136 -0.01254624
-0.00576224 0.02860773
0.01158103 -0.02053731
-0.01145871 -0.00740031
-0.01081552 0.00432468
0.00558936 0.00493563
0.01049948 0.00306921
-0.00026779 0.01411755
-0.00438245 0.00572067
-0.00279337 -0.00115268
0.00642108 0.00980059
-0.00680276 -0.00891076
-0.01454148 -0.00007790
-0.00173935 0.00218709
0.00050202 0.01461229
0.00190128 -0.00834614
0.00447290 -0.00549039
0.00059589 -0.00115997
0.02036489 -0.00560570
0.00054333 -0.00202303
0.00809449 -0.00980941
-0.00936966 -0.01293269
-0.00487857 -0.00317747
0.00128582 -0.00650579
0.00501064 0.00485300
-0.00408793 -0.01228335
-0.01814035 0.02898729
0.00874419 -0.00190048
0.02216219 -0.00930723
-0.00530150 0.01471228
-0.00441597 -0.00468246
-0.00395046 -0.00001064
0.00246788 0.01688884
0.00024783 0.01192240
-0.01843609 -0.02374036
0.01407863 0.01698239
-0.01279103 0.01722620
-0.00102598 -0.02378285
0.00005275 0.02569892
-0.00156438 -0.00933883
-0.00078530 -0.00973544
-0.00563053 0.03346578
-0.01598918 -0.01447514
0.00272205 0.00296911
-0.01973580 -0.00940917
-0.00011958 -0.01005636
0.01528768 0.01863181
0.00859484 -0.03107465
0.01507322 -0.01725612
0.02447110 0.00527361
-0.00656959 -0.00853736
0.02589362 -0.00947710
-0.00211578 -0.00396313
0.02767849 -0.00590720
0.02209643 -0.00558037
0.01072883 -0.01748200
-0.00199000 0.00147894
0.01408939 0.00234083
-0.01804213 0.00436043
-0.00503199 -0.01905142
-0.01450801 0.01190706
-0.00457347 -0.00084733
0.00537782 -0.00528887
-0.01573065 -0.00144959
0.02225643 -0.02055021
-0.00036384 0.00739759
-0.01578488 -0.02581572
0.02421265 -0.00956326
0.00481214 0.00487144
0.02248547 -0.01504367
0.01212701 0.00583512
-0.00085691 -0.00093511
0.00102056 -0.00245774
-0.00391554 -0.00773496
-0.01170917 -0.00457153
0.00327300 -0.00479563
-0.00580805 -0.00579457
0.00578533 0.00953114
0.00118791 0.00395706
-0.00224005 0.00311302
-0.01068345 0.00842646
0.00463353 -0.00472804
0.00111535 0.01378709
0.01027083 -0.00279946
-0.00897975 0.00334070
-0.01579564 -0.01054964
0.01874029 -0.00803427
-0.01355292 0.00000189
0.00455411 0.01322348
0.02325340 -0.02086387
-0.00315809 -0.00813547
-0.01075005 -0.00093936
0.00266579 0.00985938
0.02111956 -0.02023358
-0.02373459 0.00182165
-0.01125885 0.00927508
0.03186418 0.00067481
0.00639242 0.00019656
-0.01867775 -0.00528057
-0.00202082 -0.00790229
0.00900896 0.00281736
0.00447842 -0.00008445
-0.00200613 0.02846123
0.00417998 -0.00730807
0.01087682 -0.01848036
-0.03768240 -0.00651301
-0.00710814 -0.01011867
0.00931494 0.00588644
0.00874809 0.00760409
-0.00560405 0.00407891
0.00381610 0.00969288
-0.00774224 0.02905861
0.00446524 -0.00730509
-0.01033588 -0.00709595
-0.02111265 0.02731754
-0.00999500 0.00653263
0.01570343 -0.02674818
-0.01311586 -0.00132762
-0.02046962 -0.02787382
-0.00029859 0.00503112
0.00535917 -0.01536474
-0.00561232 0.01259179
-0.00097849 0.01232818
0.00430904 -0.01636395
-0.01700598 0.01078706
0.01341981 0.00181531
0.00440781 -0.00281600
0.00047748 -0.02830229
-0.00615055 -0.00009315
-0.00694917 -0.00677163
0.02199527 0.00502732
0.01481324 -0.00894193
-0.00499528 0.02412867
0.01537972 0.00516918
-0.00452227 -0.02474513
-0.00546867 -0.01198992
-0.01420966 0.00267254
0.00987241 0.00644147
0.00240702 0.00035603
-0.01833485 -0.00319307
0.00718832 -0.00236143
-0.00060210 0.00541474
0.00310134 0.01289971
-0.00228453 -0.01102455
-0.00074689 -0.00641795
-0.01571828 -0.00155966
0.00505726 -0.00026287
-0.01037247 -0.00434107
0.00702401 -0.00599834
-0.01294260 0.02029161
0.01405340 -0.01391895
0.00225095 -0.00789979
-0.00392892 0.00177974
0.00753819 0.00535946
0.01036636 -0.00529522
0.01056912 -0.01574761
0.01587964 0.00344086
-0.00140134 0.00365391
-0.00507947 -0.01465978
-0.01535722 0.00775714
0.01468173 0.00941866
-0.01547070 -0.01776293
-0.00135190 -0.02075329
-0.00472502 -0.00407045
-0.00397791 -0.00518489
0.00763218 -0.00247884
-0.00401569 -0.00829585
0.00136085 -0.01097486
-0.01854452 -0.00566280
0.00693653 -0.01710056
0.00031239 -0.00947902
0.00264786 0.00352028
-0.01271852 -0.01569176
-0.00636539 0.01318283
0.00490455 -0.00767615
-0.00867491 0.00544396
-0.00247225 0.02775641
-0.01095758 0.01017036
0.01462198 -0.01158083
0.00154602 0.01640673
-0.02267059 0.00993979
-0.00401173 0.01601919
-0.01528003 -0.01593895
0.00417682 0.00313050
-0.00417078 0.00316074
-0.00378036 -0.00100854
0.01121929 0.00814124
0.01536390 -0.00307696
-0.00879504 -0.00982696
0.01238093 0.00043773
-0.00218411 -0.02847359
0.00577262 0.00290681
0.00454952 0.00524248
-0.01646467 0.00604536
0.00243854 0.00788660
-0.00135680 -0.00465967
-0.00130972 -0.00525415
0.00387802 0.01066779
-0.00615589 0.00133298
-0.01226677 -0.00905049
0.00485294 0.00042543
0.00696756 -0.00780417
-0.00721944 -0.00925268
0.00593535 -0.01755661
0.00358127 -0.00415095
0.00573999 0.01269827
-0.00256268 0.00163876
-0.01666660 0.00234288
-0.00182326 0.00605418
0.00541587 -0.00812941
0.00784738 -0.00428012
0.02200891 0.00880082
-0.01794787 -0.00244039
-0.01372245 0.00400210
0.01003423 0.00208132
0.00445092 0.00887481
-0.01306421 -0.01138559
-0.01235879 0.02422954
0.00653948 0.00487493
0.00577738 -0.00878832
0.00878988 -0.01871431
0.00524778 -0.01220574
-0.00944010 -0.00320113
-0.00360604 0.00013629
-0.01086174 0.00133567
-0.01122016 0.00660398
-0.01651955 0.01153217
0.00402553 -0.00559830
-0.01072795 -0.00780993
-0.01395255 -0.00412422
-0.00945032 -0.00735166
-0.00380816 -0.00530366
0.00961913 0.00394826
-0.00019438 -0.01786850
0.01238249 0.00236595
0.02435510 -0.02289893
0.00467173 0.00250296
-0.01187448 0.00351453
0.00240730 -0.01401080
-0.00997097 -0.00596441
-0.00366069 0.00691574
0.00463689 -0.00651907
0.00594277 -0.03516295
0.00537226 -0.00064745
-0.00266158 -0.00989747
0.00247711 0.00003684
0.01111375 0.00305726
-0.01048542 -0.00172747
0.01915874 0.00279018
-0.00084796 0.01582268
0.02076479 -0.00696233
-0.02024696 0.00254030
0.00330276 0.00348835
-0.01119120 -0.01209935
-0.00679325 -0.01233297
0.00382658 0.01137297
-0.00358544 -0.00632816
-0.00017844 0.00701981
-0.00543725 -0.01695338
-0.00498153 0.00158261
0.00024242 -0.00383665
-0.01525239 -0.00081339
0.00220055 -0.01117949
0.00832947 0.00654929
0.00102951 0.00354906
0.00111124 0.00613811
-0.00099696 -0.00900232
-0.00148209 0.01375776
-0.01581162 0.00405182
-0.00668985 0.01655652
-0.00593980 -0.00045152
-0.03154501 0.01249818
0.00511326 -0.00261685
0.00443254 -0.00775628
-0.00619048 0.00924187
-0.00610857 -0.00492122
-0.00584652 0.01454391
-0.01689135 -0.01292387
0.00097163 0.01036856
-0.01126441 -0.00582066
-0.01996399 0.02495721
-0.00653896 -0.00500928
0.01122421 0.01012283
-0.01386694 0.00370261
-0.00553491 -0.00067679
0.00233718 -0.00159653
-0.00663538 -0.00290606
-0.00002602 -0.00321254
-0.00514822 -0.00957343
-0.00243862 -0.00210218
-0.00512858 -0.00127176
-0.00050339 0.01156186
-0.01508451 -0.00342169
0.00226910 -0.00414469
-0.01736109 -0.00115177
0.00191092 -0.01575516
-0.00369766 -0.00230968
0.01218497 -0.00109221
0.01004556 -0.00187237
-0.00011244 0.00730929
0.01330434 -0.00848451
0.00221764 0.00854871
-0.00581625 0.01014410
-0.00741521 -0.00860415
-0.00979892 -0.00138416
0.01967668 0.01064525
-0.02153725 -0.01319278
-0.02546073 0.01213641
-0.01301471 -0.00058140
-0.00743372 0.00675963
-0.00784177 0.00163050
-0.00877380 0.01119329
0.00032293 0.00673588
-0.01663641 0.00118726
0.00704141 -0.00194604
-0.01212320 -0.01608152
0.00491409 -0.00093050
-0.00775909 -0.01070766
-0.01855388 -0.00408962
0.00369534 0.01441684
-0.01286035 0.00240616
-0.00679187 -0.00869908
-0.00119690 0.00556458
-0.00118692 0.00442657
0.00868345 0.00923799
-0.00851241 -0.01165736
-0.00221848 0.00772353
-0.00503805 -0.00951127
0.01076854 -0.01035201
0.00748789 -0.01616316
0.01798075 -0.00538527
-0.00878770 0.00797841
-0.00715846 0.02712181
-0.01473606 -0.01230697
0.00344094 0.01357664
0.00195907 0.01707075
-0.00538890 -0.00443685
-0.02391083 0.00181637
0.00329326 0.01315171
-0.01163494 0.00630384
-0.01200822 -0.00432973
-0.00995363 0.02189058
0.00029070 0.01080693
-0.01366173 -0.01826677
0.00303645 -0.00541998
0.00345430 -0.00466469
-0.00999690 0.02309097
0.00586489 0.00912362
-0.02163577 -0.01519962
0.00353979 -0.00649814
0.01101732 0.00374274
-0.01999479 0.00451128
-0.00435350 0.02880189
0.00370695 0.00125007
-0.00397589 -0.00353980
0.00143367 0.00016339
0.01145971 0.00471151
-0.01612307 -0.00533987
-0.00350986 -0.00425412
0.00446763 -0.00364717
0.01624769 -0.01446414
0.01032885 -0.00157798
-0.00424741 0.00930292
-0.00582028 0.00174067
0.00368308 0.00076999
0.00275925 -0.00768330
0.00252555 -0.01155823
0.00544733 -0.01227554
0.00061970 0.00603460
0.01463584 -0.00027537
0.01691712 -0.01346994
0.01981850 -0.00327694
-0.00804489 -0.00173498
0.02782363 -0.02390523
-0.01569808 0.01006918
0.01644107 -0.01138771
-0.00931439 0.01245999
0.02895640 -0.00996015
0.00607592 0.00289272
-0.01222978 0.00834555
0.00700095 -0.01836239
-0.00029136 0.01583320
0.00232610 0.00083689
-0.00510458 -0.01216779
-0.00642763 -0.00672022
-0.00026599 -0.00388044
-0.00938032 0.01644229
-0.00046273 -0.00347849
-0.01330934 -0.00425896
0.01495270 -0.00722532
0.02263183 -0.00897558
0.00950334 -0.01415081
-0.00915041 -0.00747173
0.00946843 0.00493798
0.00958575 -0.00899657
0.02026392 -0.01014722
0.00136695 0.01133349
-0.01137003 0.00534834
0.01975450 -0.00204128
0.01995690 -0.01415849
-0.01514821 -0.01320210
0.00205397 0.00648082
0.01780193 -0.00624938
0.01307906 -0.01196741
-0.00064750 0.03687738
-0.01678335 -0.02148918
-0.02037542 -0.01448759
0.02118471 -0.00591046
0.00139977 -0.02513501
0.00349324 -0.00271268
0.01726131 -0.00502652
-0.00441899 -0.01027488
0.00817312 -0.00666105
0.00030555 -0.02259288
-0.00015838 -0.00368011
0.00297708 -0.00265666
0.00725146 0.01039694
0.00891576 -0.01547569
-0.01625902 0.00064549
-0.00695294 -0.00122908
0.00206026 0.00266668
-0.00067329 0.00824681
-0.00757303 -0.00724386
-0.00868102 0.00006732
0.02219875 -0.00687180
0.01360966 0.02325212
-0.02079525 -0.01676087
0.00791066 -0.02281897
-0.00915937 0.01894106
-0.01058131 0.01401927
-0.00580693 -0.00257130
-0.00776151 -0.01818427
-0.00575463 -0.00228894
0.01737155 -0.00521225
0.00124996 0.01631606
-0.00109065 0.01826348
-0.00672633 0.00266574
-0.01312225 -0.01539086
-0.00592468 0.01415730
-0.00916755 0.00991131
0.01212707 -0.02160019
0.00233305 -0.00197417
0.00653021 0.00355357
-0.00030552 0.00499552
0.01435606 -0.00915345
0.00196155 0.00414288
0.00043402 -0.01033930
0.01930679 0.00652535
0.00726759 0.01168883
-0.00430669 0.02723067
-0.01341551 -0.00302841
-0.02393951 -0.01475338
-0.00150014 -0.00423057
0.00072813 0.00257318
-0.00828064 0.00153726
-0.00485413 0.00289979
-0.00546152 0.00464823
-0.00376883 0.00234044
0.02093666 0.00272832
0.01055888 -0.00236001
-0.03005265 -0.00963205
-0.00028565 -0.01265691
0.00899320 -0.00244377
-0.01709978 0.00795153
-0.00391483 -0.00528527
0.00345011 0.00847620
0.01596458 -0.02498576
0.02412958 0.00967128
-0.00623001 -0.00318174
-0.02199697 0.00983739
-0.00807311 -0.00119066
0.01835074 0.00609696
-0.00547565 -0.00861382
-0.00108676 0.00726018
-0.00592108 -0.00099169
0.01285038 -0.00096801
-0.01773683 -0.01230334
-0.00334736 -0.00241809
-0.00176850 -0.00292793
0.00837948 -0.01661919
0.01050640 0.00530213
0.00644650 0.00189178
-0.00631500 -0.00344899
0.00574502 -0.00394234
-0.00057854 0.00208494
0.01352265 -0.03779957
0.01958047 -0.00197919
0.00672308 0.01515109
0.00269400 -0.01053664
0.00675818 -0.00053254
-0.00845702 -0.02484863
0.01192937 0.00285203
-0.01123704 0.00349896
-0.00379765 -0.00625239
0.01369803 -0.03987644
-0.00090828 0.00193720
0.00603726 0.00465449
0.01288055 -0.02112240
0.00780559 -0.02627674
0.01361855 0.00732453
-0.00466904 -0.00124164
-0.00031313 0.00526080
-0.00065295 0.00658846
0.00016884 -0.01554729
-0.00670687 0.00267333
-0.00265218 -0.00735399
-0.00504670 -0.01102756
0.00839287 -0.01376265
-0.00292949 -0.00188823
0.00225613 -0.00063129
0.00795837 -0.00530081
-0.01325400 0.00419716
0.00486292 0.00321250
-0.00485303 -0.00472126
-0.00937236 -0.00086434
-0.00391102 0.02317116
-0.00989458 -0.00089486
0.00170989 -0.01506375
-0.00235457 0.00539160
-0.00386653 -0.00091970
0.00711597 0.00432687
-0.00066990 -0.03562746
-0.00430353 0.00513188
0.02588564 -0.00703493
-0.00731128 -0.02201097
0.00981414 -0.01381219
0.00857620 -0.01297805
-0.00419156 -0.00592540
0.01587293 -0.01144060
0.00570248 -0.00956337
0.00361681 -0.02421125
-0.00694681 0.00138344
0.01022373 -0.00739959
0.01545611 0.00199034
-0.00783935 -0.01713668
0.00709912 -0.00710905
-0.00231763 -0.00221559
0.01987149 0.00556884
0.00836212 0.00752583
0.00401631 -0.00681739
0.01054140 -0.00822303
-0.00318547 -0.00450408
0.00657521 0.01222535
0.00753233 -0.00796705
-0.03049703 -0.00092087
-0.00229867 0.02111441
-0.00358729 0.00995133
0.01768147 -0.02344063
0.00747457 -0.01969096
-0.01232595 0.00636907
0.03132571 0.00837091
0.00746420 -0.01088314
0.00506957 0.00554500
0.00850071 0.00757715
-0.00529708 -0.01747036
0.00414849 -0.00963270
0.01541521 -0.01526430
0.01719288 -0.01478856
-0.00776408 0.00459698
-0.01662854 0.00790025
0.00374269 -0.00727494
-0.00343027 0.00246183
0.02032497 -0.00864035
0.00087674 -0.02567156
0.00313653 0.00779614
-0.00180602 0.00778796
-0.01261817 -0.02832459
0.01005091 0.00893570
0.02367288 0.02517282
0.00343777 0.00813721
-0.00671666 0.00864949
0.00838122 -0.00738218
-0.00083342 -0.00531491
-0.00467442 0.01165464
-0.00167647 0.00974935
-0.02078370 -0.00285942
0.00193685 0.00085655
0.00127331 -0.00611986
0.00692611 -0.00008000
-0.00066555 -0.01046376
0.03195612 -0.00911477
0.00030381 0.00063192
-0.00818377 -0.00374737
0.01949976 0.00525081
-0.00131917 0.01971408
0.00210901 -0.01068354
-0.01041656 -0.01086109
0.00439373 0.00262428
0.00229005 0.00810804
-0.01301497 0.01278017
-0.00257379 0.00199779
0.00213843 0.00313323
-0.00593043 0.00282040
-0.00501143 -0.02002659
0.01322977 0.02202533
0.00573612 0.00715064
-0.01010850 0.00463010
-0.00909595 0.00100031
-0.01286029 0.00475667
0.01144191 0.00336995
-0.00810832 -0.00463976
-0.02026252 -0.00726470
-0.00642470 0.00052897
-0.00868122 -0.00714266
-0.01446488 -0.00088721
-0.00104261 0.00075774
0.00669542 -0.00884417
0.05437123 -0.00841716
-0.01932700 -0.02559530
0.01250489 -0.01110420
-0.02816352 0.00650095
0.02711329 -0.01283263
-0.01748432 0.01255806
0.01812710 0.00565787
0.00317028 0.01176055
-0.00952030 -0.00923282
0.01397810 0.00126025
-0.00899401 -0.02528664
0.00030710 -0.00597567
-0.01202767 -0.00801542
-0.00057040 0.01380518
-0.01507859 0.00106977
-0.00454351 0.01069106
0.00466516 -0.01169813
0.00203671 0.01472501
0.01925204 -0.00444160
0.00752172 0.00061738
-0.03109369 -0.00019459
0.02705838 0.00407064
-0.00786254 -0.02245825
-0.01453727 0.00254096
-0.00754369 -0.00681416
0.00835578 0.02299190
0.00997255 -0.00393952
-0.02354756 0.01103128
0.00078364 0.00174464
0.00748889 -0.00752372
0.01679776 -0.02354244
0.00477143 0.01389672
-0.01217848 -0.01638905
0.01099999 0.00228929
-0.00350313 -0.00924555
-0.01168488 -0.01230390
0.01450411 -0.00845960
-0.00699550 0.00374162
0.00796105 0.00764945
0.01010259 -0.00596833
-0.00252516 -0.00852677
-0.00122613 -0.01863497
0.02689638 -0.00200516
-0.00752791 -0.00316960
-0.01898994 0.00404151
-0.01712492 -0.00368816
-0.00613934 0.03618937
0.02438086 0.01455046
0.01004814 -0.00391879
-0.00670786 -0.00936014
-0.02427203 -0.00553922
0.01623283 -0.01171571
-0.00814590 -0.00994131
-0.02936801 -0.01279693
-0.00558644 -0.01359986
-0.01973939 -0.01228943
0.01790012 -0.01836386
-0.00284056 0.00276892
-0.00400434 -0.00126802
0.01023220 0.00531490
0.01915781 0.01669817
-0.00097030 -0.02064483
0.01347740 0.00205229
0.00868067 -0.00094543
0.00372302 -0.00585087
-0.01172911 0.00726938
-0.01785307 -0.01189333
0.00054563 0.00587036
0.00023597 0.01941275
-0.00886493 -0.01545642
-0.00064437 -0.00059147
-0.01856432 0.00604878
0.01548961 -0.00650279
0.00482234 -0.00649523
-0.00059878 -0.00759138
-0.01770114 -0.00529340
0.02167775 -0.00012931
-0.00312760 0.00510925
0.00519732 0.01577586
0.01713924 0.01102811
-0.00599988 -0.01184617
-0.00739972 -0.00450018
0.01023860 -0.00096196
-0.00202530 -0.00562410
-0.01067642 -0.00406746
-0.00108864 -0.00629572
-0.00704744 -0.01485477
0.00390031 -0.01043208
-0.00475538 0.00188739
0.00416462 0.00179048
0.00870867 -0.02140368
0.01372990 0.00949613
-0.00422852 -0.00900118
-0.01354575 -0.00639031
-0.00309390 -0.01543556
0.00610159 0.00051576
0.00582060 0.00329170
-0.00388502 -0.01326481
0.00405663 -0.00395744
-0.00579747 0.01174681
0.02083124 -0.01443749
-0.01431141 0.01108780
0.00361003 -0.00304438
-0.00195827 0.00665880
-0.01543036 -0.00037150
-0.00813978 -0.01794491
0.00632189 -0.01103818
-0.00496960 -0.00507017
0.01311145 0.00652013
0.00023956 -0.00605747
0.00274368 -0.00126164
-0.00191387 -0.00604934
-0.00250464 -0.01279576
-0.00057429 0.00155662
-0.01011887 -0.00569985
0.00519171 -0.01540991
-0.00701702 -0.00189168
0.00117682 -0.01258770
0.01001981 -0.00111671
-0.00060255 -0.00791078
-0.01012297 0.00544615
0.00144615 0.01856588
-0.00549337 0.00128643
-0.00634177 -0.02843017
0.00018518 0.00813628
-0.02159287 -0.01935710
-0.00104558 0.01319187
-0.00589312 -0.01329890
0.02980269 0.00772719
0.01881667 0.00248645
-0.00561528 -0.01693985
-0.00521393 -0.01185432
0.00919073 -0.02607797
0.00565691 0.01176358
-0.00781937 -0.02049157
-0.01178787 0.01640683
-0.00717167 -0.01609271
0.00474642 -0.00225398
0.00129102 0.00461012
-0.00629179 0.00370437
0.00053370 -0.00713916
-0.00893311 -0.00663098
-0.00563401 -0.02737439
0.03025774 0.01281034
0.01682719 0.01005611
0.00610560 -0.00303106
0.00408361 -0.00357723
0.02199835 -0.01700644
-0.00268333 -0.01690337
0.00248011 -0.00238468
0.01052802 0.00851073
0.00208168 0.00619674
-0.01315967 0.01003994
0.00711571 -0.00726628
-0.00564707 0.00481047
0.00545620 0.00959252
0.00530460 0.01246425
0.00214572 0.01070559
0.01313903 -0.01119651
0.00325972 -0.00795515
0.00736200 -0.01397573
0.00198257 -0.00204532
-0.01508256 0.02492267
-0.01441296 0.00470683
0.01039566 0.00018878
-0.00904293 0.00848105
0.01908370 -0.03182240
-0.00646656 0.00485326
-0.00397063 -0.00065169
-0.01414392 -0.01407368
-0.00125535 -0.00214528
-0.00223655 0.00844600
0.00777888 -0.00315333
0.00318503 0.00884856
0.00463444 0.00515142
0.00233528 0.01407983
0.00645605 0.00616155
-0.01283594 -0.02108152
-0.00089998 -0.00613943
0.00862654 0.00388786
-0.02198168 0.01510788
0.01750110 -0.01138316
0.01203570 -0.00241168
-0.01092042 0.01287899
-0.00296961 -0.00511871
-0.00078492 -0.01404466
0.00686406 0.00800799
0.00089065 -0.00867578
-0.01888330 0.01064124
0.00380991 -0.00575864
-0.00890352 0.00330981
0.00859385 -0.01686066
-0.00737428 0.00012854
-0.00924524 -0.01474137
0.00994916 -0.01453629
-0.00893793 0.01829308
0.01489196 -0.01806446
0.02724321 0.00843754
0.00003875 -0.01214977
-0.00687405 0.02876834
-0.00690178 0.00747100
-0.00609370 -0.00667330
0.00260924 -0.01473886
0.00080472 0.01793908
-0.01139338 -0.01961200
-0.00245915 -0.00397457
-0.00954878 0.01183249
-0.00038420 0.00465344
-0.00362447 0.01210571
-0.00148550 0.00624640
-0.01131074 -0.01430162
-0.00463547 -0.00330742
0.00272369 0.00682798
-0.00024724 0.00022026
0.00386368 0.00075354
0.01114795 0.00272182
-0.00127494 -0.00709858
-0.00491264 -0.00558778
-0.00685040 -0.00432438
0.00716367 -0.00608457
0.03298590 0.02685402
-0.00202466 0.00042454
-0.01363856 -0.00462071
-0.00096572 -0.00402127
0.00711824 0.00303758
-0.00972205 -0.01094882
-0.01289850 -0.00412840
-0.02109354 -0.00011695
-0.00384353 -0.00908448
0.01739529 -0.01924450
0.00766045 0.00387161
-0.00953243 0.01614409
0.01841353 0.00158465
0.01627309 -0.00384487
0.02907579 -0.00892258
-0.01876413 -0.02547901
0.00104503 -0.00498520
-0.00939586 -0.01638821
-0.00145387 0.00185137
-0.00910606 -0.00450606
0.01610591 -0.00401865
-0.00125829 -0.00444257
-0.00877016 -0.00419497
-0.00016973 0.00325230
0.00573695 -0.00243667
-0.00386524 -0.00635473
-0.00578679 0.00595602
-0.00282658 0.01769707
-0.00674340 -0.01394471
-0.01040583 -0.00757586
-0.00838122 -0.01001892
0.00769146 -0.02158950
-0.01789836 0.01815448
0.01138277 0.00037393
0.01562305 0.01019425
0.00248303 0.00948142
-0.01292690 0.02480990
0.00040856 0.00598403
0.00798184 -0.02040255
0.02789902 -0.01788783
-0.01834187 0.00114248
0.00769711 -0.01226840
0.00654355 -0.02277819
-0.00730432 -0.00306049
0.00061198 0.00218001
0.00181252 0.03828532
-0.00228432 0.00536271
-0.01225666 0.01013731
0.01163159 0.00028396
-0.00939241 -0.01678067
-0.00498483 -0.00378874
-0.01338761 -0.00087379
0.00467249 0.01721925
-0.00228034 -0.01105076
0.01157791 -0.01613440
-0.00160160 -0.00166827
-0.00302648 -0.00256845
-0.00159923 -0.01095152
-0.01164226 -0.00330153
-0.00383017 -0.00758775
-0.00501151 -0.00458047
-0.01695773 0.00053921
-0.00867719 -0.01525925
0.01213059 0.01868596
-0.00245735 0.00814921
0.00213371 0.00655358
-0.00525148 -0.01657279
-0.00491557 0.00586680
-0.01500894 0.00344516
-0.00447728 -0.00796103
-0.00194456 -0.01083822
0.00989812 -0.00365048
0.01435472 0.00889462
0.01127754 0.00837425
0.00038109 -0.00736669
0.00337788 -0.01290709
-0.01815179 0.01516990
0.01210914 -0.02358701
-0.01563901 -0.00416234
0.00764134 -0.00945428
-0.00338229 0.00435903
-0.00525053 -0.00825159
-0.00661533 -0.01153977
0.01878766 -0.01098360
-0.00322412 -0.01194912
0.00313897 -0.00754983
0.01724461 0.00776899
-0.00273092 0.01425275
-0.00783797 -0.00746338
-0.00335635 0.00199969
-0.00777605 -0.00692960
-0.01677375 -0.00429175
0.00477638 0.00708661
0.00841641 0.00188418
-0.00101430 -0.00071635
-0.03132545 -0.01321706
0.00497044 -0.01384448
0.00745464 0.00323725
0.01197379 -0.01522510
0.02421605 -0.00750005
-0.00503388 0.01252526
-0.00318591 -0.00000451
-0.00578807 -0.01707842
0.00692501 -0.01578058
-0.00943730 0.00540543
0.00490763 0.01102412
0.00623693 -0.00460552
-0.00554916 -0.01439902
-0.00353134 -0.00795380
0.00206109 0.00539044
-0.01147980 -0.00057581
-0.00219890 -0.00616867
0.00272559 0.00556220
-0.01678171 -0.00409454
0.00373045 -0.00588369
-0.01795918 0.00500925
-0.00877728 0.00608740
-0.00017011 -0.01045217
-0.01100297 0.00858792
-0.00012301 -0.00231167
0.00211422 -0.00197170
-0.00593054 0.00817446
-0.03117957 0.00553843
-0.00313584 0.00553169
-0.00795676 0.00514595
-0.01540628 -0.00278707
0.00504626 -0.00446443
-0.02191134 0.00615178
0.00070304 -0.00588107
-0.00859793 -0.01105371
-0.00123783 -0.01168697
-0.01451846 -0.01084407
0.01345412 0.01929007
-0.01051181 -0.01212089
-0.01274777 -0.00249135
0.00177107 -0.01777998
-0.01174534 -0.01927393
-0.00007058 -0.00892149
-0.00784798 -0.01307004
-0.00982474 0.01440451
-0.01393815 0.01370753
0.00843403 -0.01220604
0.00477200 -0.01338721
-0.00520898 -0.01168595
0.00824508 0.01116390
0.01245957 -0.00308763
0.01013033 0.00146701
-0.01579125 0.00290038
0.00247205 0.00588628
0.01113213 0.01170729
0.00204000 -0.00708459
0.00094531 0.00349580
-0.00158038 -0.00672966
0.01105404 -0.01020049
0.01055297 0.00347152
0.00069851 -0.00377878
-0.00514978 0.00744346
-0.00789367 0.00676256
-0.02839527 0.00414634
-0.00840663 -0.00280533
0.00413404 -0.00475151
-0.00428893 -0.00658654
0.00869089 -0.01512437
0.01789391 0.00800578
0.00267972 -0.01691096
0.00351720 -0.01733239
-0.01383607 0.01321492
-0.02736154 0.00028193
-0.00713753 0.00814529
0.00078268 0.00451994
0.00460833 0.00862234
0.00006488 0.02604356
-0.01187172 -0.00457183
-0.00762113 0.00344361
0.01059395 -0.01162737
-0.01022187 0.02214702
0.00923727 -0.01903403
-0.00950791 -0.01965049
-0.00908864 -0.00527101
-0.00799255 0.00354706
-0.02030689 -0.04664801
0.00386925 0.00322515
0.01653861 -0.00204090
0.00187447 0.00955560
0.00406599 0.00358197
0.04221516 0.00292201
0.00107321 -0.02376612
-0.00620091 -0.00098564
0.00799023 0.00364984
-0.00076393 -0.03006609
0.01947063 0.00208309
-0.01019336 -0.00352727
0.00905553 -0.01598755
-0.01139020 0.01383270
-0.00216609 -0.01421708
-0.00655584 -0.01535971
0.00475364 -0.00341697
0.01131794 0.00350113
-0.00149860 -0.00373979
0.00025298 0.01069814
-0.00174423 -0.00149583
0.00030479 -0.00519181
0.00163476 0.00040910
-0.01847617 0.00959601
-0.00886925 -0.00254538
-0.00177123 -0.00617264
-0.00571395 -0.00240530
0.00257316 0.00314872
0.00327902 -0.01004213
-0.01586486 -0.00702370
0.01476216 -0.00550567
-0.01185490 0.00216551
0.01898715 0.00130027
-0.00306781 0.00746840
0.00908516 -0.00487276
-0.01754134 -0.01522126
-0.00045866 -0.01173577
-0.00627012 -0.00184865
0.00539458 0.01077282
-0.00123818 0.01134984
0.00253680 0.00039463
0.01518056 -0.00250944
-0.00434319 -0.01245327
0.00684383 0.00738066
-0.00924254 -0.00540298
-0.00634385 -0.00572842
0.01145799 -0.00262164
-0.00775935 -0.00260456
0.00664547 -0.01023081
-0.00712945 -0.00325569
-0.01208609 -0.01344251
0.00752096 -0.00283471
0.00901917 0.00111047
0.00320721 0.00876993
-0.00294466 -0.00934062
0.00146239 -0.00378771
-0.00850588 -0.00387224
0.00271640 0.00830660
-0.00439468 0.00435791
-0.01772224 -0.01440854
0.01133784 -0.00004746
-0.01094784 0.00119551
-0.00105019 0.00037307
-0.00485498 -0.00529322
-0.00811777 0.00274729
-0.00067273 -0.00370627
0.00609435 -0.00211240
0.00352757 0.00159496
-0.00080952 0.00518108
-0.00521938 -0.00629031
-0.00608373 -0.00501489
0.00309230 0.00193701
0.00831613 -0.00960384
-0.01633812 0.00362894
-0.01053023 -0.00068729
0.00164549 0.00765952
0.00186389 -0.01233738
-0.02559555 0.00070769
-0.00284176 0.00597825
0.00032345 0.00178569
-0.00517631 -0.00893066
0.00423891 -0.02793058
0.01123002 0.00077813
0.00489348 0.00480148
0.00932863 -0.00111821
0.00119767 0.00338176
-0.01197805 -0.00238141
-0.00461884 -0.02068182
-0.00355448 0.00880574
-0.00008406 0.00257809
0.00279235 -0.00608914
-0.00466678 0.00315010
0.00083640 -0.00621826
-0.00258641 -0.00720697
0.00144605 0.00096621
-0.01782500 0.00045435
0.00072140 -0.00500606
-0.00650528 -0.01216923
-0.00749387 0.00354705
-0.00318626 -0.01268026
0.00885088 -0.00234357
-0.00929701 -0.00810307
0.00341164 0.00270953
-0.01065839 0.00351720
-0.00957779 -0.00228509
-0.00540237 -0.01221326
-0.01633849 0.00497392
-0.01215248 -0.00719390
-0.01280156 -0.01517778
0.00511712 -0.00078760
0.00300303 -0.00154981
-0.00212772 0.00433270
-0.00445541 0.01839502
-0.00257568 -0.01753418
-0.00457422 0.01008392
-0.00720861 0.00127648
-0.00164989 -0.00699067
-0.01368144 -0.00541652
-0.00615670 -0.00088134
-0.01378440 -0.01331550
0.00455956 -0.01178036
0.01001803 0.00042888
-0.01432945 -0.00092017
0.00073249 -0.00463917
0.00756635 0.00155702
-0.00370017 0.00561788
0.00416395 -0.01943909
0.00833963 0.00567851
-0.01085357 0.00424322
0.00038091 -0.00366298
0.00174569 -0.00117039
-0.00587565 0.00465161
0.01127678 0.00480578
-0.00574577 0.00469103
-0.00384619 -0.00105328
0.00829098 -0.00049885
0.00371330 -0.01528971
0.00042626 0.01220543
-0.00253408 -0.00659677
0.00827512 -0.00204601
-0.00751133 0.00370191
0.00761394 -0.00611959
-0.00022890 0.01336643
0.00278063 -0.00481116
-0.00418399 -0.00451554
0.00472272 0.00569490
-0.01114064 -0.01049483
0.00004254 -0.00097111
-0.00200564 0.00635501
-0.01236084 -0.00570175
-0.00294888 -0.00430007
0.00027308 -0.00603990
-0.01105320 0.00042552
-0.01186423 0.00263924
0.00478167 0.00170736
0.00759545 -0.00569408
-0.00053474 0.00196264
-0.00685411 -0.00135439
-0.00674975 -0.00297251
-0.00410548 0.00213143
0.01246084 0.00752934
-0.00652875 0.00299030
0.00030826 -0.01093549
0.00113592 0.00289991
-0.00442892 -0.00444616
0.00148392 0.00895793
0.00468063 0.00787881
0.00551337 -0.00263953
-0.00657679 -0.01270029
-0.00425227 0.00062098
-0.00102082 0.00398164
-0.00269393 -0.01321526
-0.00041778 0.00637304
-0.01213757 -0.00414532
-0.01369350 -0.00099682
-0.00656256 -0.01605195
0.01045789 0.01503031
0.00065832 -0.00771685
0.00202544 0.01205799
-0.00018561 0.00690766
0.00577893 -0.00507314
-0.00540797 -0.00085759
0.00096798 -0.00096941
0.00314922 0.00130061
-0.00116426 -0.00722123
0.00765165 0.01133443
-0.00110149 0.00150238
-0.00778409 -0.00837399
-0.00349584 -0.00570654
-0.00436638 0.00064291
-0.00074215 0.00138009
0.01048618 -0.00547567
0.00041306 0.00072223
0.00029639 -0.00224675
-0.00144023 -0.00100572
0.00177897 -0.00875707
0.00033841 0.00088199
0.00620174 0.00092970
-0.00231255 0.00059994
0.00716314 -0.00118305
-0.00640791 0.00043463
-0.00124186 -0.01071545
0.00651534 -0.00126435
-0.01174095 -0.00605941
0.00530710 -0.02092789
-0.00033924 -0.00625819
-0.00410778 -0.00688194
0.00445359 -0.00050513
0.00124513 0.00525760
0.01044060 0.00246002
-0.00149174 0.00490227
0.00531240 0.00751703
-0.01432260 0.00334154
0.00080845 0.00471884
-0.00232949 0.00982456
-0.00414630 0.01809666
0.01178935 0.00037903
0.00061578 0.00147730
-0.00783433 0.00596054
0.00726327 0.00653301
-0.00495804 0.00239580
0.00926426 -0.00949654
-0.00679040 0.00369165
0.00821917 -0.00601952
-0.00056330 0.00613864
0.00360944 0.01780562
0.00020874 0.00434247
0.00465609 -0.00755194
0.00951629 0.00622211
-0.00058853 -0.00786755
0.00519091 -0.00838449
-0.00418154 0.00339271
0.00079726 -0.00366730
-0.00591079 0.00206333
0.00959487 -0.01787611
0.00729016 -0.00333668
-0.00947392 0.00482333
0.00582727 0.00308521
-0.01210734 0.00507759
0.00720078 -0.00404487
-0.01368360 -0.00676782
-0.01219093 -0.00667199
-0.01028703 -0.00898767
0.00561370 -0.00868011
-0.00027443 -0.00887608
0.00427683 0.00664561
-0.01109537 0.00469865
-0.01534780 0.00820334
0.00431290 0.02782325
0.00389728 -0.00689857
-0.00312283 0.00667703
0.01440600 -0.00503527
0.00786972 0.00294772
-0.01123655 -0.02025273
0.01079876 -0.01496463
-0.00930789 0.00972595
-0.00989025 0.00981148
-0.00097529 -0.00161192
0.00054364 -0.00360984
-0.00442393 -0.00669252
-0.00506059 -0.00511992
0.01005968 0.00747813
0.00197700 0.01226908
0.00661492 0.00330411
-0.00576081 -0.00749765
-0.01670497 -0.00091700
-0.00937861 0.00385269
-0.00519603 -0.00099128
-0.00407673 0.00112765
-0.00804764 0.00661607
-0.01197955 0.00279282
-0.01103397 -0.01024532
-0.01206136 0.00403444
0.00050232 0.00904119
0.00068948 0.00217256
0.01631863 -0.00717719
-0.01629400 -0.01760294
0.00087153 0.00820652
0.00744083 -0.00631935
-0.01599117 0.00534537
-0.00536092 -0.00713186
0.00573504 -0.01228890
-0.00719984 -0.01399531
0.00284461 -0.00080170
-0.01795048 -0.00039383
-0.01379421 0.00112485
0.00630038 0.03511500
0.01234451 -0.01011146
-0.00751841 -0.00995890
-0.00736892 -0.00340530
0.00087822 -0.01381524
0.00523689 -0.00172547
0.00196497 -0.00113834
0.01086456 -0.00368824
-0.00746456 0.00367828
-0.00221405 0.00042726
-0.00351256 0.01207818
-0.00395811 0.01709834
-0.00188000 -0.01258889
0.01000663 0.00719055
-0.01294860 0.00499755
0.02290488 0.00706942
-0.01151757 0.00835433
0.00202579 -0.00073377
-0.00223149 -0.00656448
0.00205649 -0.00638478
0.00179743 0.00176462
-0.00712688 0.00845176
-0.01005993 -0.00477192
-0.01745329 0.01102975
-0.00786123 -0.00618607
-0.00313931 0.00275034
-0.00243674 -0.00586712
0.03236695 -0.00820344
-0.00502593 0.01054074
0.00981955 0.01373516
-0.01025671 0.01544511
-0.00889651 0.00753479
0.00128698 -0.00387039
-0.01410778 -0.01513090
-0.00701380 0.00569322
-0.00077638 0.00241398
0.01487034 0.00994309
0.00642747 -0.00727843
0.00925762 0.00453952
-0.02492183 -0.00583755
0.00467201 -0.00084142
-0.02319382 0.02137743
0.00773118 -0.00481564
0.01196656 -0.00662330
0.01911478 0.00312448
-0.00262774 0.01914369
-0.00832892 0.00655719
0.00650508 0.00566235
0.00096794 -0.01688162
0.00466159 -0.01217568
0.00066815 -0.00705023
-0.00748671 -0.00525905
0.00754409 -0.00985961
0.00295911 -0.00222334
0.00227508 -0.01785551
-0.00360666 0.00865720
-0.01133691 -0.00509620
-0.00869934 0.01206497
0.00412746 0.01537574
-0.01573968 0.00333455
0.00119229 -0.01904479
-0.00398135 0.02294546
-0.00141477 0.00575765
-0.00268503 -0.00374790
-0.01202495 0.01457778
0.00048042 0.00257259
-0.00441497 -0.00440391
0.00651716 -0.00341441
-0.00067332 -0.01006318
-0.01038958 -0.01318651
-0.00249127 0.00498651
-0.01244366 -0.00756449
0.00165353 0.00709756
0.02306137 0.00171251
-0.01252466 0.02083142
0.01551170 -0.01289806
-0.00514556 -0.01403172
-0.02011732 0.00068059
-0.00420756 0.00232082
-0.01227110 0.00344369
-0.01247429 -0.01527959
0.03146312 -0.01465842
-0.02180170 -0.01209162
-0.01770404 -0.00712698
0.01230328 -0.01048569
0.00478980 0.00338332
-0.00827868 -0.00175855
0.00454257 0.00467185
-0.01678430 -0.00128251
0.01589080 -0.00013463
0.00117354 -0.00435883
0.00230082 0.00195734
-0.01804781 0.00017739
0.00230878 -0.00285986
-0.01037098 -0.00675533
-0.00951365 0.02670906
-0.01806354 -0.01836406
-0.00422354 0.01173191
0.00195368 -0.00582807
-0.00011898 0.01912414
0.00118125 -0.01248569
-0.00946241 0.03389994
0.00237879 -0.02936169
0.01369090 0.04066430
-0.00347830 -0.01189278
-0.00078210 -0.01013830
-0.00577471 -0.00720798
-0.00725331 -0.00276516
0.00175953 -0.00535976
-0.01303187 0.01065986
-0.00499043 -0.00339130
-0.00832510 -0.00331677
0.00203970 -0.01389310
-0.01249133 -0.00066619
0.01208651 -0.00297043
-0.00151002 -0.01053349
-0.00590198 -0.00938873
-0.00645474 -0.00364283
0.00441932 -0.00210079
-0.00680649 0.01491176
-0.00841773 -0.00602644
0.00660959 -0.00924280
-0.00248418 -0.00789095
-0.00745519 -0.01629598
-0.01899376 -0.00580077
0.00368429 -0.00482007
0.00299580 -0.00068128
-0.00680984 0.00233570
0.00926883 -0.00234858
-0.00811183 -0.00502381
-0.00198987 0.00072778
0.00045372 0.00053837
-0.00296678 0.00544152
0.01207597 -0.00326362
0.01082118 -0.00598663
0.01009274 -0.00580088
0.00011677 -0.01240126
0.00667932 0.00169171
-0.00065303 0.00764197
0.00446390 -0.00200178
0.00400481 0.03498663
-0.00633784 -0.00162843
0.00540486 -0.00269508
0.00351042 -0.01053571
-0.01159008 -0.00850097
-0.00623794 -0.01285202
0.00120895 -0.00239653
0.00526378 0.00108768
0.00491974 -0.00436334
0.00275220 0.00970539
-0.00495890 0.00983445
0.00628473 -0.01357453
0.00932123 0.00187074
-0.00358031 -0.00095603
0.00300565 0.01102470
0.00218059 -0.00427787
-0.00008723 -0.00450754
0.00292559 0.01585600
-0.00700844 -0.02102243
-0.00622266 -0.02504104
0.00375711 -0.01141199
-0.00610610 0.01171483
0.00061722 -0.01232023
0.00041271 -0.00912898
0.00615033 0.00293722
-0.00806132 0.00275033
-0.00799204 0.00541414
-0.00422139 -0.00337167
-0.00935013 0.00241471
0.01063368 -0.01174356
0.00943678 0.00232671
0.00845701 0.00368010
0.00941561 -0.01001540
-0.00202275 0.00972736
0.00278697 -0.00474047
-0.00403079 -0.01148960
0.01071650 -0.01316762
-0.00194981 -0.01893733
-0.00451874 -0.01160486
0.00452176 -0.00338565
-0.00743924 0.00542849
0.02685957 0.01152449
0.00489108 -0.02671853
0.00924976 0.00352449
-0.01607347 -0.00616959
0.00888375 -0.01077083
-0.01026417 -0.00442012
-0.00676706 0.00333876
0.00209683 0.02176899
-0.01138926 0.00211862
0.00004003 0.00308053
0.00315347 0.00402152
-0.01729359 -0.00631208
-0.02504377 -0.03071444
-0.02145929 0.00328368
0.01749671 -0.01919783
-0.00896872 0.01053678
0.00032873 -0.02453791
0.01564496 0.00649711
0.01022088 0.01740564
-0.00332092 -0.00169734
-0.00309038 0.00134503
-0.00335399 -0.01278952
-0.01538007 -0.01104332
0.00385382 -0.00173147
-0.01996396 0.01892844
0.01811350 -0.02199894
0.02317618 -0.00331201
0.00587020 0.00473640
-0.01160062 0.00186627
-0.02258244 -0.00079102
-0.00205181 -0.00696015
-0.00823390 -0.00155177
-0.02381391 -0.00170621
0.01932598 -0.01785998
-0.00390966 0.00990691
0.01382114 -0.02473233
0.00170845 0.01021202
-0.01751047 0.00201770
0.00514562 -0.01496142
-0.01757891 0.01291781
0.00245607 0.00318030
0.00584351 0.00317975
0.00986967 -0.02756783
-0.00904596 -0.01373341
-0.02034542 -0.00985398
-0.00025948 0.01653363
-0.00306825 -0.00525115
-0.00698937 0.00295594
-0.01640171 0.01719031
0.00389263 -0.00155717
0.00570278 0.00327872
0.00804309 0.01160769
0.00003238 0.00924875
-0.00285592 0.00745795
-0.01535770 -0.00105411
0.01292172 0.00222414
-0.01410518 -0.00115330
-0.00424663 -0.00484976
0.00183038 0.00875534
0.00460492 -0.01025599
-0.01171105 0.01061152
-0.00959705 -0.00659045
0.00269670 -0.00516183
0.01502912 0.00309493
0.01318348 -0.00555302
-0.00308968 -0.00363200
-0.01180309 0.00231853
0.00549701 -0.01056330
0.00473523 -0.00560739
-0.00813610 -0.00329155
0.00525562 -0.01226285
-0.01120232 0.00844176
0.01516119 0.00989759
0.00167952 -0.01777222
-0.00625763 0.00186106
-0.01338423 -0.01828393
0.00885547 -0.00745778
0.01875614 0.00970331
-0.01844181 -0.01238069
0.01272825 -0.00156651
-0.01843085 -0.02034857
-0.01309060 -0.00361473
-0.00718965 -0.02100518
-0.01108021 -0.00938494
-0.00562784 -0.00999681
-0.01862319 -0.01467469
0.01106605 -0.00360461
0.00915417 0.00209134
0.00016691 -0.00488832
0.02015625 -0.00792003
-0.02223163 -0.01026990
0.00609958 0.00823844
0.02370654 0.01592573
-0.00353619 0.02604071
0.02189133 -0.00940448
-0.00795659 0.00498800
-0.00051187 -0.02593737
-0.01786171 0.00482032
-0.00999398 -0.00232110
-0.00097488 0.02140450
0.01443529 -0.01052318
-0.01623851 -0.00699366
0.00508085 -0.00298071
-0.01083738 -0.02311465
-0.00988279 -0.00276869
0.01215707 -0.00765417
0.00734369 0.00066257
0.02955279 -0.00458168
0.00010051 -0.00591196
0.00352006 -0.00018006
0.00531420 -0.01116532
-0.00179879 0.00984192
-0.01132954 0.00067730
-0.01780875 0.00718281
-0.01307046 0.00821509
0.01542673 0.00632362
-0.01423489 -0.00448930
-0.00509897 -0.00058862
-0.00053103 -0.00491562
-0.01065507 0.01757227
0.00214049 0.01063722
0.00986694 0.00497939
-0.00476986 0.00038146
-0.00419597 -0.01929023
-0.01248931 -0.00011574
-0.01548829 -0.01470333
0.00131987 -0.01078155
-0.00373852 -0.00067767
0.00183689 0.01455659
0.00151991 0.01719536
0.01158589 -0.01943747
0.00171389 0.00595988
-0.02230450 0.00337519
0.00830219 0.00748811
-0.00138595 -0.01521204
0.00474640 -0.00024046
-0.00618979 -0.02662201
-0.00031284 0.02211402
-0.01023440 -0.02837094
0.00979933 -0.00452041
-0.01133902 0.01145222
-0.01205823 0.02514575
0.01236160 0.00222897
-0.00693833 -0.00245011
0.00932827 -0.00369798
0.00296305 0.00342447
0.00757944 -0.00058299
0.00022760 -0.00968818
0.00404269 0.00066056
0.00227445 -0.00374121
0.00595182 -0.00149410
-0.01440605 0.00414321
-0.00142064 0.00187450
-0.00966380 0.00115372
0.02306410 -0.02257496
-0.00952936 0.00038762
-0.01848532 -0.00170244
0.01023030 -0.00779385
-0.01005270 0.00505140
-0.00395705 0.01234749
0.00748630 0.00193787
-0.01708442 0.01327494
0.00335518 -0.01660050
0.02446333 0.00208345
-0.00753112 -0.00696981
0.02508942 -0.00205715
-0.01742803 0.00280917
-0.01022580 0.01163680
0.00274290 -0.00099742
0.02598019 -0.00351510
0.00254164 -0.01985840
-0.01694241 0.01009816
0.00256186 -0.03460853
0.00740316 0.00391499
0.00843667 0.02424363
-0.00919908 0.00296289
0.01283044 -0.00416922
-0.02153591 -0.00541932
0.00784068 -0.01541572
-0.01074091 0.00255305
-0.00759069 -0.02473781
0.00361464 -0.00220911
-0.01331314 0.00609476
0.01801130 0.00624493
-0.01044451 0.02410382
0.03186176 -0.00337335
-0.01967775 -0.00839905
0.00363080 -0.00465307
-0.00360671 0.01279626
0.00146347 0.00106699
0.00122603 -0.00530246
0.00766048 0.00805814
-0.00145506 -0.01841828
0.00861904 0.00309024
-0.01729257 0.02193056
-0.00700354 -0.00160457
0.00753604 0.00770148
-0.01593208 -0.00353802
-0.01453065 -0.01460635
-0.00014239 0.00117323
0.00711963 0.00128945
-0.00655276 0.01614464
0.01842563 -0.01053649
-0.01960059 -0.00680222
-0.00130679 0.00075526
0.01015701 -0.00557710
-0.01567442 -0.00079869
-0.00422849 -0.00588146
0.00055493 -0.00790903
0.00315232 0.00706569
-0.00521734 0.00609352
-0.01408818 0.00820187
0.00439184 0.00771358
0.01052188 -0.01231728
-0.01192677 -0.01180084
0.03455916 -0.01339437
0.00061885 0.01839919
-0.00932942 0.00768434
0.00680814 -0.00767711
-0.00806165 -0.00408502
-0.01828498 0.00818425
0.01116588 0.01821225
-0.00997806 -0.01724297
-0.01174885 -0.01707277
0.02733847 0.01217645
-0.00175758 -0.00904194
-0.01073422 -0.00646452
0.01413533 0.01010024
-0.02279779 -0.01363740
-0.00421633 0.00953917
-0.01469722 0.01176898
0.02025652 -0.01087134
0.00239901 -0.00507493
-0.00510508 -0.00344415
0.00525559 -0.01595893
0.00015835 -0.01305112
-0.02442938 0.00376435
0.01856139 0.00565425
0.01190032 -0.01027960
0.03195602 -0.01977439
-0.00934224 0.00844846
0.01479444 0.00182257
-0.02487854 -0.00250477
-0.00676185 0.00106008
-0.00432407 -0.00792944
0.00323299 -0.00148886
0.01395889 0.00331154
-0.01355956 0.00213339
-0.00339220 -0.00229957
-0.01079328 0.01246541
0.01030135 0.00516080
-0.01221334 -0.02024516
0.01688444 0.00515914
-0.02148180 -0.00848023
-0.00382589 0.02508337
0.02843462 -0.02621027
0.01534467 -0.00131932
0.00081409 -0.01673841
-0.02469457 0.00938896
0.00150979 0.01374929
-0.01929881 0.01164806
-0.01347498 0.00116647
-0.01388405 0.00287075
0.00563898 0.02117486
0.01187534 -0.04222739
0.00178382 0.00538343
0.00198336 -0.00287129
-0.00769440 0.00048013
-0.00303024 -0.01273559
-0.01148086 0.02221046
-0.00208135 -0.02051574
-0.00921098 -0.00528779
0.00913912 0.01650920
-0.00752317 -0.02221140
-0.00510628 -0.00045666
-0.00524949 0.00022242
0.00037324 0.00192927
-0.00257635 0.00301108
-0.00041816 0.01690627
-0.01771141 -0.01264365
0.00376507 0.01752266
-0.00152029 -0.00112707
0.00629180 -0.01565233
0.00522853 -0.00517457
-0.00309270 0.00620183
-0.01189093 -0.00366282
-0.00750584 -0.00416217
-0.01679217 0.00981412
0.00344239 0.02426142
-0.01058431 0.00375295
0.00541628 0.00065532
-0.02179212 -0.01852564
-0.00141726 0.00354803
-0.00388312 0.00992511
-0.02716103 -0.01631707
-0.00799058 0.00837058
0.01537455 0.00436662
-0.00393813 -0.00877590
-0.00698835 -0.02113706
-0.01369969 0.00857640
-0.00339221 -0.01528326
0.00986712 0.00153507
-0.02251089 0.00282412
0.01732189 0.02296546
0.01090977 0.00675616
-0.02973286 0.00366569
-0.02175475 0.00805874
-0.00200879 -0.00633617
-0.00184762 0.00260662
0.01180600 0.00700320
-0.00698978 0.00917037
-0.00285104 -0.00940241
0.00335645 -0.00933057
-0.01222986 -0.01686860
0.01410688 -0.01557640
-0.00185683 0.00184725
0.00444973 -0.01122915
-0.02104122 0.01117182
0.01208870 0.00461129
0.00235527 -0.01201654
-0.00632547 0.00592193
-0.00142455 0.00659423
0.01038909 -0.00133955
-0.01693359 0.00767668
0.00220171 -0.00036108
-0.00746923 -0.00443170
-0.00275526 -0.01245603
0.00043860 -0.00038348
-0.01005877 -0.00507677
0.00383380 -0.00110279
0.00432009 0.00624272
-0.00670166 -0.00997130
-0.01282844 -0.00731416
-0.00442186 -0.00382299
0.02718287 0.00534441
-0.00544228 -0.00299018
-0.02616376 0.01174437
-0.00336258 0.01649425
0.00885051 -0.01534975
-0.00924865 0.00833230
0.00042523 0.00902934
0.00719557 -0.01961644
0.02226943 0.00586596
-0.01645348 -0.01424321
-0.00933990 -0.00118596
0.02682636 0.01797620
0.00214873 -0.00305456
-0.01438898 -0.01240017
-0.00006879 -0.01135609
0.00533510 -0.00002653
0.00565557 -0.00098210
0.00201913 -0.00127965
-0.00092424 0.00029205
-0.01150720 -0.01396172
-0.00492070 -0.00631004
0.00128593 -0.01332070
0.01587847 -0.00176141
0.01219646 0.00041470
-0.00658680 -0.00740297
0.01846073 0.01065405
0.00058790 0.00138440
0.00781485 -0.01507259
0.00457881 0.00902547
0.00905458 -0.02605039
-0.01033799 0.00048924
0.01904823 -0.00007467
-0.01242371 -0.00693763
0.00595579 0.00644878
-0.01792351 -0.01537452
0.01943526 0.02381470
-0.00486593 -0.00423672
-0.01506313 -0.00296675
-0.00217347 0.02451461
0.01243458 -0.01824182
-0.00214617 0.00120463
0.00441537 0.01805413
-0.00126623 -0.02172044
0.00661270 0.01597129
-0.01436300 -0.00959839
-0.01162375 0.00440577
-0.00713614 -0.01145568
-0.02339932 0.01244079
0.02354651 -0.01113381
-0.03000449 -0.00807805
0.00623894 0.01483957
0.01320095 -0.01070750
-0.01000437 -0.01648460
0.01284692 0.01024276
0.01965298 -0.01155248
-0.01910270 0.01770641
0.01595477 0.01196652
0.01789991 -0.00220968
0.00041182 -0.02358146
0.01216821 -0.01733632
0.00977543 -0.02284655
-0.00573141 -0.00856135
0.01468986 -0.01893269
-0.01899053 -0.01716920
0.00273726 0.00305965
0.01255944 0.02904488
0.00950681 -0.00642970
-0.00514317 0.00615795
0.01165515 -0.00346609
-0.00708141 -0.02452746
-0.00425933 0.00184514
-0.00497022 -0.00805335
0.00383603 -0.00369257
0.00248953 -0.01446193
-0.01844310 0.01084667
0.00905990 0.01828428
-0.01239709 0.01621461
-0.00880927 -0.00486727
-0.02226064 -0.00543318
0.01619225 -0.00217802
0.01310797 -0.00727241
-0.00190940 0.01787619
0.00238037 0.01297954
0.00836863 -0.00187441
0.00055104 0.01053734
-0.00035279 0.01694038
-0.01239130 0.00408490
0.00093025 0.02403899
0.00486255 0.00436505
-0.01405823 0.00333199
0.00039927 -0.00397645
-0.00605352 0.00812052
0.00751001 -0.00909652
0.01698501 0.00681011
-0.00839099 -0.00966332
0.01611752 0.00238534
-0.00761787 0.00826770
-0.01745896 -0.01700023
-0.00604704 0.00676757
-0.00368263 -0.01601697
0.01678007 0.02539630
0.00646499 0.01171621
-0.00022723 0.00933076
-0.00477651 -0.01503983
-0.00802117 -0.00254111
-0.00290538 -0.00493454
0.00467835 -0.00021865
-0.01276125 -0.00387084
-0.01434116 -0.01455652
0.00109385 -0.00704690
0.01849333 0.00879308
0.01774069 -0.00873431
0.00436143 0.00504918
-0.00217900 -0.00213191
-0.01584238 0.00747497
-0.01127268 -0.01439413
-0.00366681 0.00117216
0.00773661 0.01158477
-0.00414444 -0.00377026
0.01305921 0.01229722
-0.01021318 0.00135503
-0.00303221 0.02509011
-0.01488830 0.01671450
0.00392359 -0.00964586
-0.00124961 -0.01051220
0.00759815 0.00076430
0.00009502 0.01016494
0.00321193 -0.01367265
-0.01331157 -0.00804151
0.00422927 -0.01179737
0.00140476 -0.00091718
0.00841668 0.01113879
-0.00668788 -0.00424458
-0.00604800 -0.00107003
-0.00196843 0.00015785
0.01861948 -0.00571184
0.00139850 -0.02674434
-0.00185729 -0.00480984
-0.02067479 -0.00431841
-0.00382137 -0.01074492
0.01867436 -0.00198097
0.01043862 0.01272325
0.03320456 0.00234712
-0.00325755 0.00297093
0.01700142 -0.02497442
0.00992479 -0.00556782
0.01680866 0.00508877
-0.01187211 -0.01729215
-0.00986950 0.00107967
-0.00713525 0.02314039
0.00219589 -0.01487162
0.00936766 -0.00344611
0.00158307 -0.00499114
0.00725826 -0.00269711
-0.00677158 0.00006064
0.01735802 -0.00204690
0.01296213 0.00249737
-0.00973112 0.01367955
0.00891152 -0.00231389
-0.00341916 -0.00282950
-0.00626179 -0.01175267
-0.00102113 0.00949476
0.01297485 -0.01486219
0.01727493 -0.00090234
0.02792929 0.00059512
-0.00143140 0.00489885
-0.01073339 0.00778018
-0.00324415 -0.00839097
0.01591354 0.00017420
0.00736983 -0.01028428
-0.01479052 0.01169600
0.00699953 -0.02372152
0.01899976 0.00737297
-0.01066283 0.02891856
-0.00653474 0.00538027
-0.00842961 0.00277778
0.00713832 -0.01547518
-0.00073049 0.01278585
0.01155310 0.00270009
-0.00700470 -0.00619003
-0.00001728 0.00095985
0.00396028 0.00905121
0.00082690 -0.00198914
0.00678209 -0.01329621
0.01670442 0.01826053
-0.00552548 -0.00142352
-0.00735842 0.00026849
-0.00402667 -0.00125804
0.00267420 -0.01382430
0.00950614 -0.00536848
0.00431445 0.03823183
-0.01182401 -0.00392983
0.00401782 0.01733227
-0.01223097 -0.00095697
0.00938553 0.00766047
-0.00060054 0.00131962
-0.00684175 0.00570821
-0.00739896 0.01210492
0.00759694 -0.00633129
-0.00363230 0.00887144
-0.00095235 -0.01385105
0.01429757 -0.00715288
0.00353631 0.01378403
0.00452152 0.01607893
-0.00590289 0.00247591
-0.01595285 0.01074113
0.00916136 -0.00530524
-0.01175980 0.00139417
-0.00176207 0.00558071
-0.00297776 0.01364113
0.00434791 0.00935123
-0.00623337 0.01322662
-0.00490232 0.00618842
0.01852190 0.00128757
0.00139464 0.01740990
0.00885104 0.00011865
-0.01983348 0.00289460
0.00075300 -0.01333702
-0.00506867 0.00022135
-0.02146329 -0.01237667
0.00629330 -0.00124605
0.00290623 -0.00366872
0.00084422 -0.00526617
0.00288224 0.01716825
0.02270859 0.00297459
-0.01600727 0.00932587
-0.02090229 0.00598182
0.00964968 -0.00008205
0.01521191 0.01399754
0.00245603 0.00349097
0.00863837 -0.00151639
-0.00128327 -0.00221928
-0.01293587 0.00376712
-0.00519024 0.00143665
0.00041068 -0.00511641
-0.01420649 -0.00344214
0.00369600 0.00536612
0.00595981 0.01297209
0.01472935 -0.00708391
-0.02338800 -0.00364785
0.02109149 0.01063688
0.01627411 -0.00876784
-0.00261899 -0.00049108
0.00355839 -0.00675369
-0.00585048 0.01515662
0.00769391 0.00450617
0.01124566 0.00376680
0.00412791 -0.00350127
-0.00825474 -0.00484787
0.03073273 -0.02912727
-0.00403851 0.01101460
0.02329110 0.00411699
0.00419619 0.00067241
0.00296236 -0.00471518
-0.00897668 -0.00143280
-0.00588433 -0.00923957
0.00290788 -0.01303291
0.00588024 0.01602620
0.00693545 0.00553867
0.00310486 -0.02391954
-0.00051844 -0.00603933
-0.00404648 -0.00211430
0.01142940 0.01491547
0.01037770 0.02671071
-0.00253846 0.00752218
0.00217549 0.01078118
-0.01961551 -0.00288269
-0.00048039 0.01894139
0.01515840 0.01947408
0.02368650 -0.00193513
0.00099806 0.00036849
0.00009246 -0.01260532
-0.00945701 -0.00182971
-0.00950174 0.00235315
0.00422545 0.01980148
-0.00269360 -0.00237237
-0.01574507 0.00694428
-0.01051954 0.00868270
-0.00188970 0.00788248
0.00236027 0.01918289
0.00253849 0.01483655
-0.01216559 -0.01503202
-0.00446365 -0.00687111
-0.00027031 -0.01420709
-0.00702280 0.00659946
0.00655028 0.00041344
0.00496608 0.00193798
-0.00793704 -0.00609953
-0.01557266 0.00231027
-0.00416562 0.00515932
0.02338306 0.01680701
-0.01117942 0.01906558
-0.01473973 -0.01188760
0.02395300 -0.00791321
-0.01138490 0.00461359
0.01446948 0.01779368
0.01268323 -0.01070702
0.03239027 -0.00907753
0.01626721 -0.00334639
-0.01037874 -0.01457594
0.00003145 0.00590536
-0.01103201 0.00250806
0.01950754 0.01411267
0.00238732 -0.01405534
-0.01295767 -0.00364139
0.00517475 -0.00250228
-0.00425320 -0.00330267
-0.01506509 0.00697790
0.00251714 -0.01160964
0.00265019 0.00348050
-0.00815765 -0.02016835
-0.01835255 -0.00208453
0.00493631 0.00361837
0.00847830 0.01327963
-0.01711905 0.02080695
0.00509546 -0.01674403
0.01331043 -0.00068134
-0.00780161 0.00358322
-0.00703398 -0.00454515
0.00388304 -0.01087808
-0.02536599 0.00289908
0.00711165 -0.00262949
0.00745169 0.01687249
0.00201479 -0.01707339
0.01282723 0.00128198
-0.00712674 -0.00099223
-0.02168702 -0.01295260
0.01318307 0.00850007
-0.00112290 0.00529968
-0.00654502 -0.00692410
0.01899218 -0.01743283
0.00057185 -0.00169008
-0.01050991 -0.00400786
0.00528516 0.01791239
-0.00422296 0.00543846
-0.00307562 0.01070362
-0.00379943 0.00073523
-0.00227207 -0.01487412
0.02344511 0.00736580
0.01040520 0.00268789
0.00618114 -0.00757812
-0.00125692 -0.01167999
0.00143254 -0.00289370
-0.01280430 0.00093281
0.00708436 -0.00146644
0.01422896 0.00818714
-0.00839114 -0.01293518
0.00486567 -0.02230824
-0.00060081 0.02378890
-0.01134643 -0.01224792
0.00039871 -0.00900608
-0.00596421 -0.00581775
-0.00089301 0.00302111
0.02001244 0.01056855
-0.00242452 -0.01769375
0.00920908 0.02090984
-0.01054541 -0.01476413
-0.00240396 -0.01459494
0.00184440 -0.01400749
-0.00131519 -0.00012052
0.01384956 0.01934347
-0.00309180 0.00398278
-0.00678430 -0.00493399
-0.00730996 -0.00920630
-0.00329778 -0.00654673
-0.01476932 -0.02002123
-0.00019932 -0.00256687
0.00248063 0.00872582
0.01564727 -0.00848155
-0.00968765 0.00698578
0.00302522 0.00877873
-0.02819230 -0.02019287
-0.00243823 0.00320711
-0.00360021 0.00863797
-0.00584860 -0.00752450
-0.01439840 0.00426810
0.00566561 -0.01235339
0.00914882 -0.00423769
0.00126807 0.01829545
-0.00489642 -0.01363192
-0.00758132 -0.01390201
0.00556390 -0.00957614
-0.00390889 -0.00636984
0.00011015 0.00193524
-0.01024275 0.00405107
-0.00270469 0.01248380
-0.00669146 0.00127498
-0.00308151 0.00381933
-0.01704361 -0.00303831
-0.01897120 -0.00632332
-0.00475307 -0.00219899
0.00165915 -0.00483127
0.00212944 0.01446899
0.00373489 -0.00533239
0.02107701 -0.01829170
0.00396346 -0.01770904
-0.00007838 -0.02645945
-0.00677625 -0.01955432
0.00049189 -0.00650905
-0.00817522 0.01363099
-0.01436993 0.00928728
0.00387275 -0.00919015
0.01835061 -0.01864436
-0.01606495 -0.00894933
0.00916889 0.01546430
0.00039732 0.00085437
-0.01352913 0.00319543
0.01970168 -0.00984713
0.01869324 -0.00370325
-0.00279179 0.00757245
-0.02119491 -0.01878109
-0.00304435 -0.00537874
-0.00803225 -0.00414998
-0.00441034 0.00639169
0.01753053 -0.02034659
-0.00561832 -0.00903151
0.02254869 0.00006878
0.00385088 0.00912652
-0.00079468 -0.02147342
-0.00091050 -0.00319250
0.00071559 0.00331421
-0.01920855 0.00648907
0.00533246 -0.00235760
0.00414875 -0.00538667
-0.00603943 0.00118068
-0.01132615 -0.00961255
-0.00197441 0.02360135
0.00949080 0.00130343
0.00274074 0.00179096
-0.00886024 0.01192815
-0.02493110 0.00979291
-0.00214504 0.01323605
0.01268038 -0.02789814
0.00147287 -0.00257597
-0.01214299 0.00314707
0.00175325 -0.00240969
-0.00751778 0.01640909
0.00476132 -0.00937597
-0.01167730 0.00239361
0.00835460 -0.00887423
0.01021857 -0.00125731
-0.00120743 -0.02602177
-0.00675892 0.02179028
0.02034376 0.00420486
-0.00059755 0.00174415
-0.01263678 -0.00985809
0.01076347 -0.00822320
0.00487330 -0.02152621
-0.00128698 -0.00345594
-0.00297968 -0.02337310
0.00740492 -0.01843995
-0.00875957 -0.01003564
-0.00127721 -0.00585535
0.01282931 -0.00030976
0.01781351 -0.00630288
-0.01928620 -0.00056779
-0.00420428 -0.00133613
0.00159825 0.00627469
-0.00088453 -0.00379696
-0.01096068 0.02821410
-0.00438783 -0.01116054
-0.00121802 0.00258180
-0.00789247 -0.00930007
0.01770530 -0.00109122
-0.00658413 -0.00693957
-0.01324099 0.03019808
-0.00959831 -0.00361077
-0.00712233 0.00448777
-0.00253155 -0.04697312
-0.00332881 -0.00123267
0.01528037 0.00971553
0.00408817 0.00160421
0.00986001 -0.00088845
0.00193603 -0.00359461
-0.00820618 -0.00913857
-0.01412297 0.00787275
-0.01413548 0.00137753
0.01093265 -0.00742534
-0.01716078 -0.00683159
-0.00569760 -0.00247442
0.00651292 0.01508495
-0.01916153 0.00266471
0.01722631 -0.00853178
0.00011988 -0.01989759
-0.00882287 0.00122153
0.00748287 0.00873829
-0.00854202 -0.02089516
0.00599079 0.02207165
0.02550801 0.02139450
-0.00514882 -0.00845429
-0.01290523 -0.00328083
0.02331254 -0.00469468
0.01227079 -0.02491154
0.02564300 0.01373179
0.00323145 0.00038947
-0.00765767 -0.02064876
-0.01666834 0.01366524
0.01197768 -0.00976601
-0.00817058 -0.01343828
0.01866021 0.00923501
-0.00296808 -0.00642679
-0.01158378 -0.00450345
0.00392004 0.00606074
-0.01268721 0.00139866
0.00223410 -0.01722738
0.00652982 -0.01130908
-0.01312905 -0.00801877
0.00981536 -0.00280196
0.02623240 0.01572010
-0.04219906 0.00092796
-0.00353587 -0.00090538
-0.01000420 -0.00555416
0.01339976 -0.01191880
-0.01939122 0.00653005
-0.00948671 0.01535508
0.02219538 -0.00028148
0.00096910 -0.01933352
-0.00217847 0.00624013
-0.02690698 0.00179528
0.01055262 -0.01681437
-0.00272362 -0.00030863
0.00755249 -0.00815813
-0.00628624 -0.01032082
-0.00798627 0.00305966
-0.00369125 -0.01165620
0.01553762 0.00794673
-0.00730487 -0.00143286
0.02747155 0.01494070
-0.00234139 0.00512670
0.00170669 0.01024355
0.00045061 0.00047543
0.01539149 0.01020902
-0.01146296 -0.00695071
0.00220880 0.01680904
-0.01196605 0.00347479
0.00901524 -0.01268077
-0.00155138 0.00213079
0.00313000 0.01088349
0.01096373 0.02336651
-0.00353945 -0.01062329
-0.00770606 -0.00487430
-0.00472545 0.00904686
-0.01037267 -0.00824481
0.01031499 -0.01776459
-0.00432660 -0.00343584
-0.01159880 0.00686961
-0.00523777 0.01007962
0.00216799 -0.00095375
0.00509906 -0.00036149
-0.00465111 -0.02976835
-0.00856556 -0.01282432
-0.00772033 -0.00049111
-0.00710852 0.00564188
-0.00760757 -0.00101522
-0.03047314 -0.01160816
0.00000318 0.00394320
0.00585768 0.00346724
-0.00294966 -0.00165330
-0.00180694 0.01445701
-0.00160675 -0.00866055
-0.00159326 0.00485752
-0.00563704 0.01340476
-0.00584722 0.00077255
-0.00406565 0.00302174
0.00650130 -0.00206067
-0.00647832 -0.00698397
-0.00147589 0.01015837
0.01323334 -0.00179433
0.00465401 -0.00441876
0.00828993 0.00766392
-0.00282920 -0.01499782
0.01054993 -0.00095855
-0.01321261 -0.00054185
0.01877554 0.00277635
0.01331062 -0.00223849
-0.02059511 -0.01172282
0.01063265 -0.02294633
-0.00430959 -0.00166124
-0.00029453 -0.01263066
0.00126918 0.00205209
-0.00194995 -0.00799113
0.00818693 0.00086924
-0.00685292 0.00844970
-0.00495443 -0.00054750
0.00222156 -0.00212367
0.00561109 -0.01452857
0.00007382 -0.00530232
-0.00481039 0.00186231
0.00096360 0.00102536
0.00486699 -0.00107098
-0.02120712 0.00694961
-0.00919744 -0.01389430
-0.00428387 -0.00718129
-0.01668486 0.00272854
-0.00929351 -0.01967902
-0.00761013 -0.01925451
-0.00350085 -0.00984502
-0.00479585 0.00747738
-0.00978860 -0.00721010
-0.00892007 0.00004043
-0.00389032 -0.01931058
-0.02400907 0.01450936
0.00866513 0.00018750
-0.01065896 0.01285119
0.00656669 -0.00834575
-0.00261657 -0.01248186
0.00081689 0.00936822
-0.00471344 -0.00517435
-0.00272528 -0.00172859
-0.00476009 0.00145945
0.00172920 -0.00221553
-0.00233729 -0.01322452
0.00218331 -0.00328473
-0.00035338 -0.00011124
0.00129876 -0.01104953
0.00333731 -0.01104229
-0.00867771 0.01408952
-0.01999815 0.00919310
-0.00381982 -0.00058920
-0.00271828 0.00336641
-0.01826795 -0.00302755
0.00776693 -0.03460041
0.00283695 0.00626993
-0.02068723 -0.01106356
0.00431543 -0.00999024
-0.00754974 0.00949555
-0.01315010 -0.00998664
0.01533014 -0.00207875
0.00069255 0.00149174
0.00021240 -0.01932523
-0.00257441 0.00262591
0.00539078 -0.01552897
-0.00138818 0.00067342
-0.00183528 0.00664150
0.00168966 -0.00211413
-0.01279657 -0.00022352
-0.00160837 -0.00447079
-0.01595800 0.00061924
-0.00527955 -0.00061527
0.00053960 -0.00822580
-0.00141539 0.00409419
-0.00470876 0.00786206
-0.00367574 -0.00007968
0.00365244 -0.00206511
-0.01113718 -0.00676552
0.00676904 -0.00652642
-0.01127414 -0.00348760
-0.00407139 -0.00471140
-0.01920019 0.01402871
0.00638265 -0.00052657
0.00247496 -0.01324724
-0.00155050 0.01061651
-0.01112717 -0.00295881
-0.00863825 -0.00162927
0.00351759 0.00735051
0.01807695 -0.00058511
0.00251372 0.00429125
0.00843154 -0.01266505
-0.00121640 -0.00217216
-0.00856993 0.01031765
0.00479334 -0.00028117
-0.00531096 -0.00656882
-0.02104104 0.00005303
-0.00509971 -0.01493963
-0.01590167 0.00052433
0.00909286 0.00732714
-0.01035189 -0.00625743
-0.00027442 -0.00811228
0.00402021 -0.00644911
-0.00247191 0.00348009
0.00376648 -0.00057107
0.01242432 -0.00039238
-0.00085840 -0.00285880
-0.01055591 -0.00751616
0.00465830 -0.00499137
0.00843286 -0.00707661
-0.01523179 -0.00400982
-0.00600288 0.01035330
-0.00918379 0.01885723
0.00346224 -0.00556991
0.02425317 -0.01553001
-0.00185037 -0.00690913
0.00538540 0.00548069
-0.00005581 0.00276219
0.00933409 0.02096276
0.00175017 -0.00184376
0.00686727 0.00873994
0.01013628 -0.00225558
-0.00019822 0.00720871
-0.01876939 0.00342641
-0.00980177 -0.01427614
-0.01104702 0.00936144
-0.01352595 0.00470119
0.01088555 -0.03918369
0.00158300 -0.00591134
-0.00438613 0.00006795
0.00122290 0.00680956
0.00001214 0.00492680
-0.02245380 0.00452402
-0.01141613 -0.01103149
0.00343455 0.00687767
-0.00317821 -0.00032388
-0.00805438 0.02665028
0.01711111 0.00770841
0.01591911 0.00219829
0.00652697 0.00741619
0.00175855 -0.01010510
-0.02377833 0.00528655
-0.00794846 -0.00630348
0.00142692 -0.01093205
0.00293315 0.00532070
0.01146459 -0.01197616
-0.00799722 -0.00072115
0.00518515 0.00199554
0.01226912 0.00763875
0.00372072 0.00091988
0.01276943 0.00184722
-0.01197136 -0.01227654
0.00816970 -0.00144889
0.00888220 0.00156106
0.00638155 -0.00407489
-0.00881127 0.00964276
0.00073313 0.00098460
0.00161962 -0.00868656
0.01028895 0.01732859
0.02459321 -0.01755786
0.00465729 0.00433877
-0.00646757 0.00672592
-0.01642465 -0.00473389
0.01385462 -0.03725512
-0.01103659 0.00759575
0.00712462 0.00281362
