-0.01539674 0.03069704
0.00976365 -0.00680682
0.00358604 -0.01502759
0.00545120 0.00651945
0.01053586 -0.01460017
-0.00291886 -0.00089474
-0.00491907 -0.00760209
0.01133222 -0.02413419
0.01349685 0.02005694
0.01225454 0.00956673
-0.00336074 0.01862781
0.02381849 -0.01362583
0.00411337 -0.01413878
-0.00080522 0.00783429
0.00309388 0.01367680
0.00443595 -0.02068464
-0.00271127 -0.00895522
0.01845215 0.00040504
0.00084647 -0.01741302
-0.00951771 0.02339149
-0.00179066 -0.01673732
0.01550906 -0.00120816
-0.01982334 -0.00772067
0.00504568 -0.00273968
-0.01708310 -0.00743483
0.00735063 -0.00120291
0.00056503 0.03136873
-0.00221291 -0.01126549
-0.00794601 0.00050178
-0.00043283 0.01833863
-0.01984330 -0.00578175
0.00892907 -0.00865089
-0.00696349 0.02354300
-0.01276857 -0.00014261
0.02001522 -0.02254929
-0.00553787 0.01256064
-0.01078676 -0.01579505
-0.02147756 0.04884927
-0.00651333 0.00220364
-0.01655271 0.03657369
-0.01408303 -0.01049747
-0.01114733 0.00686197
0.01323485 -0.00886930
-0.01916720 -0.03033731
0.01711923 -0.00161329
-0.01315721 0.00473557
0.00849321 0.01178681
-0.03184393 0.00968427
-0.01124589 0.00394770
-0.02535160 -0.00985761
0.01272252 -0.01223067
0.01053641 -0.03120369
0.02019919 0.00209673
0.02319995 0.00128535
-0.02067402 0.00084407
-0.00909720 0.01002467
0.02762848 0.00026464
-0.01922456 0.00423486
0.02081417 -0.00141608
-0.01729342 0.00509990
-0.00659884 0.00207099
-0.01589702 -0.00375786
-0.00928488 0.00110965
-0.01042729 0.02092733
0.00377864 -0.00937157
-0.01998894 0.00093784
0.00116782 0.01197930
-0.00298747 0.01057643
-0.00426267 -0.01827627
-0.00067146 0.01424400
0.01381462 0.01247182
0.01264591 -0.01702067
0.01685669 -0.01509952
-0.00378205 -0.01464792
-0.00966381 -0.00392842
-0.01337035 -0.00462721
0.01160438 0.02501519
0.00838039 -0.01270746
-0.00867376 0.02125585
-0.00330828 0.00547777
0.00208650 -0.00086595
0.00407862 0.01135630
0.01427526 -0.01937398
-0.00854736 0.00029771
-0.00101206 -0.01078572
-0.01532040 0.00515820
0.01287052 -0.00719212
0.02212004 -0.01406953
-0.01893230 0.01523764
0.00878628 0.00653155
0.03213828 0.00273149
-0.02108749 -0.00390197
-0.01339901 -0.00078104
-0.00070115 -0.00367125
-0.01326390 0.00153535
-0.02074318 0.01797549
-0.00383630 -0.02473021
-0.00525724 0.01357376
-0.01620132 0.01386811
-0.00953736 0.01280634
0.00503499 -0.00023947
0.00634256 0.00388709
-0.00639253 -0.00190734
0.00787971 0.00478234
0.00091176 -0.00851816
-0.00988103 -0.00139406
0.00421375 0.02328909
0.00124934 0.00003638
0.02841161 0.00490258
0.00909826 0.00090795
-0.02099723 -0.00816429
0.00193639 0.01284671
-0.02320205 0.00069297
0.00683326 -0.00336457
-0.01411989 0.01476182
0.00509689 0.01183357
-0.01000092 -0.00245377
-0.00522399 -0.00749303
0.00624083 -0.01265777
-0.00342745 0.01424174
0.00382418 -0.01035737
0.00570040 -0.00484436
0.00492148 0.01465352
0.00183571 -0.00931591
-0.00292060 -0.00276019
0.00072300 0.00128098
-0.02801121 -0.01086304
0.01389021 -0.00396552
0.03224709 -0.01712010
-0.00249639 -0.00842729
0.00433033 -0.00580338
-0.00521671 0.01324623
-0.00688507 -0.00587856
0.02712415 -0.01171837
0.00921821 -0.00797821
-0.00125758 -0.00277693
-0.00062449 0.00944988
-0.01494557 0.02261463
0.00432310 -0.01573794
-0.00342899 -0.00094808
-0.01063259 -0.01443437
-0.00748431 0.00584144
0.01359676 -0.00160871
0.01332077 -0.01126886
-0.01208600 0.01249360
0.00207496 0.02692460
-0.00933915 0.01728386
0.01134563 0.01159789
-0.02208671 0.00043899
0.00111437 0.01686152
0.00608580 0.00596737
0.00007879 -0.00809195
-0.01827252 0.00823786
0.00385478 -0.00306974
0.01645858 -0.00645506
0.00851327 0.02932423
0.00074223 0.00309036
-0.02174493 0.00042562
0.02153731 0.01132723
0.00613218 -0.00101201
-0.01313858 0.00303891
-0.00103587 -0.03262505
-0.00593260 0.01434025
0.00247732 -0.00586771
0.00503522 -0.01031727
-0.01958022 -0.01887583
0.00479394 0.00466708
0.00449807 -0.00135536
-0.01932869 -0.00231438
0.00012213 0.00393128
-0.00186570 0.02351236
-0.02444488 -0.00233191
0.01127359 0.01159416
0.00723409 -0.01832298
0.00940117 -0.00602883
0.01039055 -0.01649282
0.00075378 -0.00890000
0.03285432 -0.00653272
-0.01879887 0.01387334
0.01525160 -0.00039752
-0.00554280 0.01263114
0.00148935 -0.01284658
0.00086206 -0.00817081
-0.01030185 -0.01786377
-0.00649695 -0.00182195
0.01946858 0.00683445
-0.00823696 -0.00362476
0.00555973 0.00922001
-0.02407466 0.03557108
0.00157549 -0.03443437
0.01272683 -0.01007880
-0.00537879 -0.00489355
0.01401277 -0.00386084
-0.00391430 0.01046692
-0.01301306 -0.00354837
0.00544403 -0.01098284
-0.00400865 -0.00283452
-0.00585701 0.01247961
-0.00154116 -0.02034940
-0.00523940 0.01788945
0.01052233 0.01990887
0.00720024 -0.02066076
0.01520525 -0.01163072
0.01236213 0.00165874
0.00823848 0.01858105
-0.00276058 0.00392775
0.00308372 0.01857368
-0.00460054 0.01779575
0.00425668 -0.02116040
-0.00615313 0.02090339
-0.00637390 0.00595786
-0.00444572 0.00028994
-0.00994707 0.00621130
0.00787067 -0.01600257
-0.01250671 -0.01591310
0.00793019 -0.00777753
0.01618934 -0.02197495
0.00041687 -0.01467412
0.01278436 -0.01446721
0.00959940 0.01185516
0.00858593 0.00190567
-0.02220056 -0.00808881
-0.00835141 -0.00289069
-0.01418058 0.01459587
-0.02934408 0.00075588
-0.01348319 -0.01140699
-0.00927873 -0.00658176
0.02846543 0.02002991
-0.01641418 0.01526470
0.00590090 0.00391597
-0.01376748 0.00375050
-0.00623434 -0.00520471
0.01342543 -0.01020210
0.00739886 -0.00779113
-0.01538152 0.00906949
-0.01470283 -0.00280316
-0.00407191 0.00563178
0.01876415 -0.01846598
0.01087902 -0.01341374
-0.01286527 0.00892959
0.01641479 -0.00951950
0.01967702 -0.01647451
0.01246591 0.02925615
-0.00014465 0.00103480
0.00924155 -0.00344289
-0.00080914 -0.00882802
0.00611112 -0.02919319
0.02047855 0.00287530
-0.02428157 -0.00064204
-0.00215220 0.01119289
-0.00937542 0.00696978
0.01766684 -0.03020936
-0.00195463 -0.01745490
0.00235558 -0.00971419
-0.00002091 0.01621409
0.00686855 -0.02131080
0.00922304 -0.00805128
-0.02543970 0.00935130
-0.01212843 -0.00163496
-0.00036511 0.00344394
-0.00164030 0.01345232
0.02303595 0.00510656
0.00709753 -0.00830886
-0.01598163 -0.00150437
-0.00953057 0.00956272
0.00402799 0.00827889
-0.01516710 -0.00884214
-0.01119165 0.01091131
-0.00217854 0.00156182
0.01406984 0.00871453
-0.02964048 -0.01091553
-0.02498173 -0.01305544
0.00460005 0.00714112
-0.00459477 0.02606424
-0.00473682 0.03382063
0.00590666 -0.01323447
-0.01752590 0.04047154
-0.00078308 -0.01510821
0.00650206 -0.00225029
-0.00194790 -0.00711661
-0.00835428 -0.01213536
0.00562300 0.01272637
-0.00007653 0.00324730
0.00547180 0.00426218
-0.01684211 0.00335155
0.02064332 -0.01314825
-0.01348944 0.00659718
-0.00191529 0.01064248
0.00173354 -0.01188108
-0.00318448 -0.00420537
0.00067027 0.00939673
-0.00218467 0.01111522
-0.00420300 0.00470663
0.01137482 0.00243411
0.00126889 -0.00900223
0.02612106 -0.01210487
0.00519861 0.02000494
-0.02391869 0.02023771
0.01465637 0.00672716
0.01756782 -0.01051331
-0.01032247 0.00847162
0.00507192 -0.01648683
-0.01372196 0.00955845
-0.01609034 0.01652345
0.01249374 0.02275470
-0.01744515 0.00750475
-0.01218858 0.01525486
-0.00128363 -0.02048730
0.01745690 -0.01077189
-0.00440999 0.01845690
-0.01064392 0.00748133
-0.00663286 0.02116268
-0.01063923 0.01192980
-0.02431414 -0.00543866
-0.00931461 -0.01417701
0.00265511 0.00517782
-0.01737893 -0.00158863
-0.01095561 0.00911692
0.00665404 0.00273072
-0.01084025 -0.01100661
0.01688899 0.00794643
0.02132199 0.00256964
0.01831032 -0.01373347
0.00363683 -0.00729255
0.01960151 0.00995510
-0.00241805 -0.01281272
-0.01126266 -0.01056713
0.00478037 0.00964978
-0.00969839 0.01834609
0.00442629 -0.00108556
-0.03251730 0.01706211
0.00415675 0.03774711
-0.02481560 0.01184623
-0.01583305 0.00524898
-0.00022400 -0.00869722
0.03095656 0.00502370
-0.00096739 -0.00400706
0.00083232 -0.00526038
0.00689456 0.00078836
0.00277375 -0.01552272
-0.01342172 -0.01788369
0.00116712 -0.01271997
0.02768647 -0.01939761
-0.01491171 -0.01553999
-0.00448478 -0.01077712
0.01243238 0.01150208
0.00353251 -0.01413061
-0.00166870 0.01074139
-0.00210843 -0.00244126
0.02811527 -0.01016990
-0.00425523 -0.00655193
0.00896053 -0.02318573
0.01647539 0.01164544
0.00036115 -0.02333745
0.00983480 -0.00824054
0.00252681 -0.01176651
-0.00068374 0.00199769
-0.00589660 -0.00106453
-0.01661611 -0.01302138
-0.00350938 0.00085316
0.02856123 -0.00225763
0.00159320 0.00386786
-0.00810463 0.00506934
-0.01508504 0.00450167
0.00820908 -0.01341448
0.00167032 -0.00749053
-0.00740092 0.00584691
-0.00399095 -0.00575038
0.00883193 -0.01655278
-0.00252679 -0.01134590
0.01023284 -0.01026851
0.01732339 -0.00825991
-0.02434971 -0.00351011
0.01235853 0.01721986
0.02211450 0.02131728
0.00454756 0.00786325
-0.00570422 0.00615811
0.01424925 -0.01132500
0.00189318 0.00896659
0.00517295 0.01268564
-0.00823306 0.02499524
-0.01550136 -0.00670249
-0.01724070 0.01347076
0.00470162 0.00094512
0.01225215 -0.01836630
-0.01604911 0.00308411
0.01976681 -0.01453571
0.01611358 -0.00281186
0.00253581 0.00489066
-0.00215309 -0.00551745
0.01896696 0.01508669
0.00015277 0.01186726
-0.00099736 0.01155644
0.00085436 -0.01084329
0.01263715 0.00023608
-0.00396872 0.01741825
-0.02119239 -0.00630907
-0.01003578 0.00462574
-0.01468018 -0.01533605
-0.01441648 -0.01049170
0.00848379 -0.01701198
-0.00361939 -0.01682540
0.00857816 0.00964446
-0.00917507 0.00677654
-0.00799926 0.01429299
0.02476430 -0.00268335
0.00729220 0.01281916
0.00308175 -0.01649752
-0.01677720 -0.00447978
0.00020046 -0.00453998
-0.01717714 0.00531083
0.02112958 -0.01104930
-0.01459534 -0.01184319
-0.00731750 -0.01123312
-0.02107607 -0.01258542
-0.01772357 -0.00043745
0.00839103 0.01759266
0.00867129 0.00034877
-0.00403676 0.00109130
0.00449182 0.01047464
0.00863454 -0.00532551
0.00368035 0.02013549
0.00175282 -0.00759542
-0.01254424 0.00747626
0.01340958 0.00082410
0.00918974 -0.00994205
-0.01294577 0.00225439
0.01008030 -0.02581468
-0.03086548 -0.00590502
0.00347657 0.00372822
0.00064984 -0.01103200
-0.00051920 -0.00183391
0.00525900 0.00443834
-0.01231948 -0.00121725
-0.00709125 -0.01096721
-0.01332556 -0.01166013
0.03109119 -0.01414041
0.00741048 0.02735206
-0.02048868 0.00465785
-0.00597466 0.01028010
0.00655555 -0.01499047
0.01551699 0.01227027
-0.00644138 -0.00666278
-0.00025644 -0.01580638
0.00283119 0.01731575
0.00052656 -0.00106462
-0.00232348 0.00968342
-0.01936403 -0.01673867
-0.01941422 0.00055719
-0.01690922 -0.01228246
-0.01136098 -0.00042776
-0.00815652 -0.01213539
0.02069891 -0.02755965
0.02899847 -0.00677210
-0.00362385 -0.00378668
-0.01932610 -0.00066346
-0.02077329 0.00776942
0.00278836 0.00741080
0.01955542 0.00744822
0.00085393 0.01877968
-0.00455597 -0.01299721
0.01931858 0.00184516
0.00667337 -0.00606163
-0.02136250 -0.02669313
0.00612146 0.00110005
0.00280510 0.00706508
-0.00682075 -0.00578118
-0.00172729 0.00126505
-0.00972108 -0.00813081
0.01802826 -0.01644440
0.01190216 -0.00022548
-0.00175243 0.00180802
-0.01143092 -0.00300817
-0.00953016 -0.00910519
0.00504160 -0.00833994
0.00599175 -0.01220831
-0.02014557 -0.00594666
-0.01009985 0.00693964
0.01238442 0.00040209
0.01742021 -0.01171904
0.00795273 -0.00016896
0.00138785 -0.00561808
-0.01993337 -0.00033656
0.01003023 -0.01009591
0.00831043 -0.01888789
0.00176846 0.00482907
0.00309566 -0.01086303
0.00356968 -0.01308376
-0.03561949 -0.00069821
0.00454829 -0.00837691
-0.00627965 -0.01061993
-0.00056134 0.01093362
0.00014414 -0.01961188
0.01554522 -0.00077542
-0.00725074 -0.01476628
0.02567104 -0.00102550
-0.00963668 -0.01463494
-0.01759548 -0.01591887
0.00342927 0.00888233
-0.01222659 0.00196210
0.01061927 0.02275239
0.01269362 -0.00357030
0.00113105 0.01024340
-0.00800669 -0.01767382
-0.00716676 0.00765801
-0.01359616 -0.02068969
0.01236386 -0.01780631
0.00043185 -0.00216840
-0.00707328 -0.00063507
-0.00373245 0.00082085
0.02075687 -0.00785235
-0.01064742 -0.00005575
-0.01041289 0.01624034
0.00935613 -0.01810442
0.00286692 0.00688938
-0.01536212 -0.00013058
-0.00191007 0.00230228
-0.01531722 0.01307075
-0.02047545 0.01630894
-0.02478189 -0.01971261
0.01453503 -0.00711103
-0.00434387 -0.00069208
-0.01105572 0.01300079
0.01062393 0.01081342
-0.00859432 0.02669565
0.01756457 0.01376430
-0.01300292 -0.01417995
-0.00604059 -0.00573062
0.00098434 -0.00642971
0.00690577 0.00474425
-0.00346531 -0.01328165
0.01618061 0.00139506
0.01694815 -0.02254876
-0.03397457 -0.00814379
-0.00801184 -0.00988398
-0.01075619 0.02117029
-0.01768580 0.01905853
-0.00746225 0.01171642
0.00908442 0.00237779
0.00460444 0.03322435
-0.00118666 -0.01070904
-0.00363979 -0.00099165
0.01423831 0.00275416
-0.00297858 -0.00770854
-0.00295998 0.01060952
-0.01016474 -0.00804862
-0.02042847 -0.00299056
0.00273368 0.00228099
-0.01119802 -0.01157783
-0.02234606 0.00137992
0.01309162 -0.01252697
0.02009279 -0.00915994
-0.01317711 0.00856636
0.00386093 -0.01003019
0.01056706 0.01633476
-0.00526572 -0.01270858
-0.02420331 0.00050902
0.00210915 -0.00435149
-0.00412555 -0.00417548
0.00714693 -0.00540571
-0.00766415 0.00195440
-0.00527413 0.01406194
0.01567380 -0.00583662
0.01443566 -0.00145644
0.00738371 0.00094084
-0.00476782 0.01777158
-0.00401540 0.00482168
0.02478019 -0.01442574
0.01184132 0.03185912
-0.01732060 -0.01259535
0.00867449 0.01373934
-0.00084645 0.00309579
-0.00683648 -0.00478841
0.00242195 -0.00393455
0.01591104 -0.01852296
0.00226301 -0.00868043
0.00514549 0.00717047
0.01016958 0.01535144
-0.00827212 -0.00944257
0.02131813 0.00079589
-0.00307432 0.00106958
-0.00183354 -0.00117212
0.00747710 -0.01687674
0.01214714 -0.00393803
0.00102964 -0.00025762
0.00472059 0.03196291
0.01284603 -0.00151675
-0.00045351 0.00267197
-0.03062212 -0.00854356
-0.00946803 -0.00543788
0.00463157 0.00461252
0.01172694 -0.00550505
-0.01581842 -0.01256165
-0.01237239 0.00465961
-0.00222905 0.00893321
0.00348245 -0.01243169
0.00937558 -0.00251474
-0.00769370 -0.00956040
-0.02088400 -0.00280264
-0.00466844 -0.00356043
-0.01374040 -0.00256093
0.00135334 0.02113869
-0.00785935 -0.01881246
0.00214371 -0.00208093
0.01380677 -0.00245498
0.00358712 0.01286669
0.00656318 -0.01944357
0.00248482 0.00930722
0.00350661 -0.00019972
-0.00254424 -0.00975061
-0.00123942 -0.00884716
0.02209994 0.00277072
0.00041462 -0.02030122
0.01559354 0.01590834
0.00718251 -0.01646538
0.01084890 -0.02568196
0.00257866 -0.00028757
0.01065862 -0.01089104
-0.00782886 -0.03301182
-0.00883881 -0.01113926
-0.00432990 -0.01023244
-0.00403143 0.00237218
0.01184120 -0.00357158
-0.00307597 -0.01157250
0.01980601 0.01868381
0.01218917 -0.01721468
-0.00253906 -0.01261385
-0.00412734 0.00560919
-0.00544395 0.00838778
0.00099430 -0.02008621
-0.00309952 -0.00210017
0.01165697 -0.01547560
-0.00205201 0.01146810
-0.00042951 0.00667640
0.01650390 0.00863554
-0.00678517 -0.02019930
0.00019196 -0.03827019
0.00892776 -0.00168928
0.00107176 0.01351042
0.00708280 -0.00571294
0.00374453 -0.01009088
-0.01885032 0.01231207
-0.00222100 0.01899695
0.02243278 0.00755813
0.01261618 0.00913218
0.00494889 -0.00433990
0.00647729 0.00984016
0.00242304 -0.01449585
-0.00662238 0.00627424
-0.01219817 0.00250222
-0.00990812 -0.01103228
-0.00581682 -0.00845418
0.01826223 0.00012490
0.00173012 -0.00617010
0.00988270 0.01058805
-0.01103129 0.00402360
-0.00522399 -0.00106185
-0.00528171 0.00180150
0.01492604 -0.01037767
-0.00222401 0.00884432
0.00186589 -0.02806105
-0.00773204 0.00116909
0.00021488 -0.00288477
0.00378606 -0.02494970
-0.00777430 0.01610610
-0.00927515 0.00976281
0.01256057 0.00427424
-0.00710306 -0.00088834
0.00429585 0.00360358
-0.00104089 0.02150080
0.00369357 0.00321601
0.00648790 0.00421527
-0.01515759 -0.00918427
-0.00547096 -0.00346204
-0.01348119 -0.01710778
-0.00855487 -0.00354132
0.01084647 0.00664198
-0.00940724 0.00166359
-0.01994362 -0.01450837
0.02190258 0.00662146
-0.00796326 0.01958969
-0.01088416 -0.01864224
-0.01680754 0.02842790
-0.01152211 0.01073486
0.00097827 -0.00147011
-0.00464957 0.00478677
0.00542616 -0.01450375
-0.00426173 0.00718466
0.01295173 -0.01092050
0.00835980 -0.01054354
-0.00081557 -0.00978084
0.00176717 0.01374872
0.01121120 0.00294188
-0.02130032 -0.00760684
0.00362715 -0.01646000
-0.00651287 -0.00633710
-0.00903214 -0.01752225
-0.01592954 0.00028002
-0.00653200 0.00900194
-0.00723839 -0.02244271
0.03044331 -0.01081216
-0.02282555 -0.00464532
-0.00617669 -0.01194852
-0.00937575 0.00316838
0.00375936 -0.00504023
-0.00515792 -0.01704036
0.00981325 -0.01433221
-0.00802516 -0.00728148
-0.00338825 0.00257924
-0.00862776 -0.00852802
-0.00990483 0.01070059
-0.01091950 -0.00154114
-0.00034803 -0.01274287
0.00804398 -0.00318786
0.02272492 0.01525436
0.00564145 0.02150414
0.00050846 0.00638450
0.00475844 -0.01400562
-0.00623320 -0.01651371
0.00006102 0.00204412
-0.00568662 -0.00194025
-0.00602868 -0.00531675
-0.00490279 -0.00658673
0.01215885 0.00330737
0.01028137 -0.01463557
-0.00036295 -0.00254332
-0.01489261 0.00005842
0.02075079 0.00872230
-0.01085121 -0.00437200
-0.01878469 -0.00990024
-0.00712951 -0.00878745
0.00443997 0.00071851
0.00984734 0.01819791
-0.01708379 -0.01465383
0.01539723 0.00642431
0.00636406 -0.00048362
-0.00038232 -0.01742107
-0.02401143 -0.01725530
-0.00414642 0.01138199
0.00620730 -0.00301087
-0.00550302 -0.00961802
-0.00059598 -0.00284316
0.00123339 0.00428254
-0.00455393 0.00831631
-0.00732910 0.00304741
0.01179774 0.00741056
-0.00346600 -0.01517512
0.00604627 -0.02756385
-0.00243908 -0.02382538
-0.00529412 -0.00287872
-0.00795086 0.01330986
-0.01599991 0.00971706
0.00413091 0.01771067
-0.00787386 0.00116317
-0.00136620 0.01847241
0.01633647 -0.02676020
0.00124018 0.00946383
0.01196842 -0.01338295
0.01105198 -0.01202819
-0.01412435 0.01630155
0.02122982 0.00924780
0.00589373 0.00112909
-0.01452084 0.00224116
-0.02008285 -0.01313470
-0.00079872 0.00597900
-0.00061743 -0.01611878
-0.01097804 0.02301214
0.00324306 -0.02546707
-0.00596313 -0.00164166
0.00118146 0.01379272
-0.00620802 0.00089806
-0.00129969 -0.01158698
-0.02486167 0.03358122
0.00425125 0.00883982
-0.01259216 -0.02175320
0.00603041 -0.01263770
-0.02466796 -0.01040865
-0.01837331 0.00319843
-0.00273134 -0.00204370
-0.00589218 0.01573106
-0.00045299 0.00045924
0.01646427 -0.02014010
0.00077380 -0.00820092
0.01003779 -0.01756052
0.00170018 0.01096664
0.02626794 -0.01487243
-0.01264243 -0.00533143
0.00051188 0.01833319
0.00278788 -0.00583864
-0.01962334 0.00049000
-0.02258304 0.00832999
0.01705501 -0.00737538
0.00041175 0.00047861
0.00158204 0.00540978
-0.01748119 -0.00408352
-0.00150923 0.00230590
0.01197582 -0.00296253
0.01947703 0.02034186
-0.01620417 -0.00455629
0.00409865 0.02862839
0.02215666 0.02115488
0.01820973 -0.00688634
0.01714313 -0.01955380
0.00624615 0.00221110
-0.01010197 0.00106133
-0.01542832 -0.00343707
-0.00266884 -0.00453677
-0.01707172 0.00050938
0.02381411 -0.01258824
-0.01428040 0.00097418
-0.01726798 -0.00687527
-0.00083876 0.01229427
-0.00160149 0.00254068
0.00268450 -0.01873544
0.00091392 -0.01617684
0.00143699 0.00456385
-0.01047551 0.00004930
0.02232754 0.00628105
-0.00358221 -0.01010218
-0.00265252 0.00747558
-0.01152772 -0.01796679
0.00310202 -0.00722246
0.01738512 0.01923222
-0.00429552 -0.00779129
0.00803568 -0.00602460
-0.00567647 0.00845306
-0.00523612 0.00083081
-0.01172799 0.01465445
-0.01134859 -0.00194628
0.01223269 0.03269612
-0.00544498 0.00381983
-0.00250738 -0.00130578
0.00186876 0.00262876
0.00772490 -0.01092028
-0.01155904 0.01416357
0.00054007 0.00588260
-0.00343739 0.00989309
0.00781795 -0.02733359
-0.02155959 -0.01007495
0.00773665 0.00143584
0.00694726 -0.00161099
0.02282049 0.00002789
-0.01692058 0.01108177
-0.00314250 -0.00460232
-0.01835283 -0.01794398
-0.01946571 0.00118629
0.00098164 -0.01274222
-0.00211417 -0.00264290
0.00468727 -0.02353444
-0.00772026 -0.00203773
0.01662825 -0.00143826
-0.00284975 -0.00880496
0.00215411 -0.00375839
-0.01347298 -0.02100926
-0.00826743 0.00042935
0.00161428 -0.00343643
0.02367590 0.01011559
-0.00353934 -0.01031759
0.00753232 -0.00603401
0.02361992 0.00319774
0.00121747 -0.00287596
0.00926770 -0.00216752
0.01168172 0.03520589
0.00074859 -0.00513431
0.01708056 -0.00066121
-0.00552258 -0.02037588
-0.01421957 -0.00472644
0.00831699 -0.01207796
0.00970936 0.00774930
0.00494999 -0.00296959
0.01399992 -0.00637786
-0.01815785 -0.00260243
0.00356172 -0.00679025
-0.01924110 0.00785625
0.00068799 -0.01241128
0.00272659 0.00632780
-0.01802547 0.00041198
-0.00912920 -0.00738112
0.00038362 0.00458282
-0.00700923 -0.01697600
-0.00903643 -0.01717236
0.00008698 0.00927041
0.00535696 -0.00085734
-0.00644629 -0.01082361
0.00650560 -0.01165455
0.00200800 -0.01929794
-0.00313665 0.03361203
-0.01498671 -0.00047867
-0.03064395 -0.01290792
0.00107442 -0.00787311
0.00159169 -0.02249419
-0.01371010 0.00300308
-0.01410306 0.00473261
-0.00009485 -0.01117790
0.02220603 0.02247645
0.00699892 0.02371913
-0.00269979 0.00241732
0.00368105 -0.01470396
-0.00976177 -0.00463064
0.00623546 0.00677589
-0.02440606 0.00859030
0.01062470 -0.00592059
0.00488134 0.00129639
-0.02521096 0.02934104
0.01077787 -0.01801370
0.00500631 -0.00380082
-0.01974402 0.00950393
-0.01375608 -0.01868964
0.01292729 0.00564257
-0.00586359 0.00684200
0.01680812 0.00223741
0.00489081 -0.00435487
-0.00020052 -0.00605487
0.02135715 0.01079832
-0.00603411 0.01283447
0.01786130 -0.00748870
0.00865267 0.02188703
-0.01432308 -0.03123183
-0.01184044 -0.01069740
0.00650807 -0.00292828
-0.01845166 0.00028901
-0.01170826 -0.00877579
-0.00438386 -0.01256690
-0.01587639 0.01017123
-0.01818763 -0.00088498
0.00521786 -0.00543940
-0.00159390 0.00840353
0.00298577 -0.02329218
-0.00489197 0.01320408
-0.00627798 -0.00027714
-0.00580554 -0.01386446
-0.00578479 0.00740529
0.00941531 -0.00203918
0.00433283 0.02879385
-0.01060097 -0.02051325
0.01508889 -0.00111231
0.00747244 -0.00472101
-0.01074986 -0.01204208
0.01032786 -0.02279644
-0.00440397 -0.00384449
0.01731699 -0.00752762
0.00684912 -0.01973599
-0.00942364 -0.01557672
-0.01099273 -0.00077182
-0.01432346 0.00437621
-0.00514251 0.00737244
-0.01739645 -0.00198951
-0.00430515 0.00840649
0.01647041 -0.01770163
-0.01282591 -0.01126215
0.00754284 0.00174686
0.00484543 -0.02020558
-0.00613910 0.01095435
-0.00543264 0.00217471
0.00619552 0.00093231
0.00230818 0.01523211
0.00372640 -0.01807963
-0.00336273 -0.00734411
0.00409341 -0.00551655
-0.00194521 0.00303532
-0.00957221 0.00756784
-0.01641541 0.01872298
0.02180579 -0.00307876
-0.01301127 0.00439222
0.00344108 -0.00330398
-0.00053787 -0.00599546
-0.01192950 0.02500523
-0.00127103 0.00577122
-0.00804638 0.00164826
-0.01299959 -0.00571763
0.00310115 0.00957444
0.01787228 -0.01003892
-0.01183997 -0.00496530
-0.00618114 0.01557007
-0.00901461 -0.01835809
-0.00070296 0.00356521
-0.00858363 -0.00092315
-0.00295862 -0.01385369
-0.00150292 0.00158096
0.00462681 0.01608484
-0.02414777 -0.00785563
-0.00965843 -0.00697943
0.01578356 0.00692580
-0.01717572 -0.01389136
-0.00366188 0.01173015
0.01666930 -0.01445003
-0.01117469 -0.00087875
-0.01373985 0.02331347
0.00413839 0.00856686
-0.02486398 0.01753923
0.00354900 -0.00332086
0.00045775 -0.00341450
-0.03064611 -0.01097755
0.00262749 0.00217017
0.00562054 0.00326226
-0.00377508 0.00356855
-0.00016025 0.00209904
-0.00329379 -0.00867836
0.03403632 0.00109281
0.00458783 -0.00289776
-0.00092735 -0.00245442
0.00947165 -0.00196535
-0.00753936 -0.02757695
-0.00445019 -0.00106780
0.01790224 -0.00168147
-0.02085344 0.02168498
0.00280105 0.01329752
-0.00023054 0.01547366
0.00733054 0.01336886
0.00802080 0.00351968
-0.00669036 -0.00957190
-0.00648726 -0.01084974
0.01505177 -0.00893603
-0.00467925 -0.01303190
0.00772692 -0.00698409
0.00228637 0.01531768
-0.00420571 -0.02414556
-0.01384863 0.00573470
0.00490442 -0.00226047
-0.00465574 0.02424531
0.01187303 0.00915948
-0.00833662 -0.01128089
-0.00187634 0.00629397
-0.00790644 0.01074951
-0.01094687 -0.01209091
-0.03013234 0.01451431
-0.01624690 0.00986044
0.01850653 0.00806901
-0.00399059 -0.00138968
0.00610956 -0.00323607
-0.01717163 0.00872450
0.01376372 -0.01281760
-0.00221858 0.00366082
-0.00654314 0.00474718
-0.00570232 0.01037079
0.01206261 0.00328079
-0.00410271 0.00121820
0.00429480 -0.01218222
-0.00352953 0.00907648
0.00319926 -0.01583920
-0.01357502 0.00497311
-0.02187360 0.00353584
0.00293393 0.01241889
-0.01279528 -0.00504622
0.00271633 -0.01145327
-0.00506773 -0.01603431
-0.00409558 0.01085440
0.00545210 0.02162342
-0.01313948 0.01549450
0.00875094 0.00284923
0.00702340 -0.00699251
0.00566058 -0.00046219
-0.01714633 -0.00401552
-0.01257368 0.00950861
0.00137914 -0.01438158
-0.03902122 0.01522987
0.01047276 0.02582095
-0.01018826 0.00728228
0.00239942 0.01061172
-0.01336575 0.01505988
0.00960873 -0.01652223
0.01013623 0.00384331
0.01472366 -0.00983279
0.00514967 0.01000439
0.01693226 -0.00076496
-0.00182761 0.01225148
0.01727976 -0.00820397
0.01106485 0.00433387
-0.00792106 -0.02077706
-0.00270907 -0.02210650
0.01081112 0.00255309
-0.01116015 -0.00856006
-0.00049328 -0.00232635
0.00145758 -0.01852352
0.01069853 -0.00093791
0.00675274 -0.00261732
0.00670067 -0.01287711
-0.00265314 -0.01013781
-0.02492518 -0.02228125
-0.00165272 0.00208072
0.00322605 -0.00330107
-0.01034280 -0.00907267
0.00944578 0.01021406
0.00359534 0.00014121
-0.00651341 -0.00309860
-0.01116443 -0.00824125
-0.00154757 0.00581563
-0.00610760 -0.00467905
-0.01079291 -0.00342934
0.01060590 -0.00878492
0.00774481 -0.01676532
0.00735325 -0.00393078
-0.00679064 -0.00354838
0.01935791 -0.00030194
-0.00758727 0.00124616
-0.01696921 -0.01516883
0.00290860 0.00257293
0.00079815 0.00585568
-0.01770347 0.01467580
-0.00521162 -0.00478142
-0.00364453 0.02681733
-0.00254167 -0.02812685
0.00103152 -0.01187617
0.01397609 -0.00121430
-0.00500711 0.00396250
0.00606872 0.00746449
0.00728420 -0.00491326
0.00595549 -0.00741142
0.00603831 -0.00330237
-0.01505925 -0.01211673
0.00791512 -0.00749865
0.00426767 -0.00178036
-0.01014975 -0.00115968
-0.01697480 0.00096611
0.00249445 -0.00892799
0.00924898 0.00065500
0.00051709 -0.00760040
0.00454752 -0.00661583
-0.00142478 0.00542749
0.00629850 -0.00846577
-0.00211410 0.00883550
-0.01363169 -0.00218044
-0.02400723 0.01814971
0.00130350 -0.01252040
0.00850936 -0.00152239
-0.01804384 0.00204788
-0.00943842 -0.01764078
-0.00944346 0.00758565
0.00782287 0.01915397
-0.02477226 0.00067747
0.00118198 0.00247262
-0.00112420 0.01073017
0.00384832 0.00520990
-0.01106575 -0.01883986
0.00164558 -0.00269919
0.00772798 0.00366106
-0.01852535 -0.00130925
-0.02542717 0.01715645
-0.01672085 0.00246238
-0.01513480 -0.01828129
-0.00885604 -0.00833637
0.00803591 0.00736425
0.00079323 -0.00564021
-0.01013025 -0.01351000
-0.00706569 -0.00466927
-0.01036709 0.00480037
-0.00631286 -0.00833570
-0.01587283 0.00447797
0.00029178 0.01190388
-0.00442355 -0.00038161
0.01064999 -0.01975032
0.01056306 -0.00384544
-0.01152490 -0.00784367
0.00813628 -0.00185914
0.01214978 -0.00207623
0.00280982 -0.00522871
0.01173934 0.00915306
-0.02465377 0.00573598
0.01858541 -0.01512132
0.01990348 -0.01339174
-0.02078962 0.00989840
0.00008763 0.01178027
-0.00030157 -0.02949478
-0.02166884 -0.01645269
-0.02048820 0.01651543
0.00448209 0.00709121
-0.01258031 -0.00632524
0.01134429 -0.00865990
-0.00305770 -0.01256344
-0.02355119 -0.01080096
0.01364382 -0.00460596
0.00368092 0.00874574
-0.01324556 0.00580859
-0.01379600 0.00387054
0.00305256 -0.00407257
0.00557700 -0.01339872
0.00051097 0.00543173
0.00014641 0.00886389
-0.00099206 0.01873495
0.00486409 0.00623850
-0.00036777 -0.00607741
0.01160613 0.01413581
0.02199878 -0.00554874
0.01013856 0.00446719
0.00003366 -0.01733984
-0.00261675 -0.01505715
0.00235931 0.01795568
-0.00232933 -0.01089172
0.02424922 -0.00266271
-0.00152261 0.00143878
-0.02622985 0.00851137
-0.01386466 -0.00288121
-0.00453902 -0.01442460
-0.00564104 -0.00373373
-0.02204524 0.00341002
0.01229009 -0.01084267
-0.01823072 -0.01173802
-0.00098159 -0.01359068
-0.01120863 0.03686555
-0.00576040 0.00277775
-0.00271715 0.00231554
-0.00011591 -0.01450086
-0.00568413 0.00127719
0.00371234 0.00257465
0.00945685 0.00822219
0.00103652 0.01144626
-0.00074562 -0.00891706
-0.01083856 -0.00332219
-0.00018545 -0.00517315
0.00589369 0.00818539
0.00223798 -0.01872984
-0.01133442 0.01201049
-0.01306853 -0.00582609
-0.00444566 0.00423921
0.00837170 0.00875343
-0.00237274 0.00524529
-0.01241234 -0.00042566
-0.01482096 -0.00378206
0.02138905 0.00614821
0.01697240 -0.00301712
-0.01512482 0.01589843
0.01467037 -0.00241801
0.01445063 0.00681428
0.00523438 0.00871522
0.02134983 -0.00895906
0.01796738 0.02110675
-0.01767770 0.01285636
-0.02347707 -0.02274545
0.00514608 0.00557995
0.01541594 0.00182213
0.01062727 -0.00120764
-0.00212196 0.00376959
-0.02772586 -0.01123550
-0.01235766 -0.00284968
0.01300040 -0.02675477
0.00275600 0.01918568
-0.00585826 -0.00230018
-0.02961084 -0.01780109
-0.01241555 0.00410429
0.00560750 0.00532623
-0.00579689 0.01027129
-0.02579908 0.01697756
-0.01892731 -0.01078851
-0.00623234 -0.00790247
0.00603231 -0.00330298
-0.00775284 -0.00561030
0.00456116 0.02923105
-0.00179078 0.00201639
-0.00477060 0.00405537
-0.00116471 -0.02168979
-0.02618578 -0.01162131
0.01576729 -0.00730590
0.00547221 0.00213989
-0.01974536 0.01506026
-0.00109241 -0.01018503
0.02051397 0.01195683
-0.00173007 0.00076955
-0.00217235 0.00085850
-0.01024435 -0.01928464
-0.00206293 0.02659206
0.03127734 -0.00770097
0.00555516 0.00810370
-0.01286419 -0.01074700
0.00400072 -0.01668825
-0.00892543 0.00288026
-0.01489910 -0.00090188
0.02470891 -0.00004948
0.00507039 -0.00367782
-0.00864477 -0.01739663
-0.00819029 -0.01371173
0.01460715 -0.00619801
-0.01976861 0.00094286
0.00792002 -0.00129687
0.02352538 0.00621530
0.01941813 -0.01133515
-0.00814100 -0.00918099
-0.00832326 0.00738375
-0.00282693 0.00509146
-0.00146532 -0.01319450
-0.01148219 0.00905979
0.00600707 -0.01058352
0.00604326 -0.00083612
-0.01083034 0.01486524
-0.00610918 -0.00077334
0.00376857 0.00293489
-0.01800596 -0.01005105
0.00134962 0.00472630
0.00004497 -0.00323001
-0.01855144 -0.01662921
-0.00189417 0.01151709
-0.00489849 0.02779575
-0.00239820 0.02697841
-0.00183242 -0.00001940
0.00309270 -0.00104844
0.01541515 0.00372283
-0.00602528 0.00853654
-0.01430046 -0.01264742
0.00789272 0.01668658
-0.01270637 -0.00316375
-0.00200410 0.00180264
-0.01404471 0.00399668
-0.01168245 -0.01901633
0.02121593 0.00020437
-0.01604477 0.01413911
-0.00588357 0.00901851
-0.01178007 0.00009265
-0.00097154 0.00559383
0.00727969 -0.01712392
-0.00865565 -0.00838202
-0.00319854 0.01324097
0.00280819 -0.00174009
-0.01351663 -0.01030019
-0.00078443 -0.00022055
0.00029999 -0.00337666
0.00983222 0.00415499
-0.00893336 -0.00268852
0.01016731 -0.01038608
-0.01630176 -0.01725655
0.00356355 -0.00508858
-0.00311074 -0.01219955
-0.01691684 0.01553121
-0.00301147 0.00464483
-0.01735137 0.01001186
-0.01452553 -0.01208422
-0.00102750 -0.00672313
0.00866649 -0.01639221
-0.00428940 0.01010297
-0.01569757 0.01776706
0.00421380 -0.01677303
0.00883070 -0.00077499
0.00476812 -0.00041315
0.01062840 -0.02177824
0.01127869 0.00677419
-0.00134456 -0.00645731
-0.00627361 -0.01182073
0.01045139 0.00431477
0.00775849 -0.00339081
0.00243514 0.01094734
-0.00897612 0.00360861
0.00078195 -0.01554610
0.00907756 -0.01503704
0.00680383 0.00328244
0.01095107 0.00152481
0.00038850 -0.02248544
0.00223458 0.00815975
0.00950636 -0.00005291
-0.00222809 0.01036046
-0.00116087 0.03297690
-0.01194750 0.00824345
0.00691095 -0.00611459
-0.01508838 -0.00565255
0.01274557 0.00741816
-0.00913023 0.00584184
0.00740113 -0.00093037
-0.01121775 -0.00949661
-0.00600774 -0.00122393
-0.01503754 -0.00429111
-0.00311704 0.00983828
-0.00401156 -0.00825216
0.00998201 -0.02028329
-0.00798501 0.00712502
-0.00098963 0.00308323
0.00856552 0.01975326
0.00427906 0.00919931
-0.01816995 -0.00902550
0.01370771 0.01294810
-0.00882907 0.00972027
0.01373664 -0.00254096
-0.01010629 0.00689937
0.01638118 -0.01190722
-0.00179822 -0.00067056
0.00228488 -0.01520090
-0.01190393 0.00223928
0.00632854 0.00336617
0.00660790 -0.00944367
-0.00659581 -0.02461532
-0.00365184 0.00314376
-0.01167081 0.00344045
-0.00815730 0.00493276
-0.01195503 -0.00404385
0.01377645 0.00281641
-0.00658817 -0.00355488
0.00653484 -0.00505561
0.00949897 -0.00358714
-0.00308093 0.00883234
0.00738155 0.00961029
-0.02169062 -0.00319139
-0.00368206 -0.00526434
0.01332708 0.00780997
-0.00535689 -0.00015130
0.00956500 -0.01156428
-0.01332167 -0.00834439
0.00673338 0.01325225
0.00095414 -0.00438989
0.01476653 0.00593096
-0.00383731 -0.00247699
0.02805179 -0.00405402
-0.00094441 -0.01127095
-0.01783011 0.01008131
-0.00853296 -0.01373002
-0.00751545 0.00281876
-0.02094439 0.00152989
0.00106159 -0.01613716
0.00365495 0.01036234
0.01579635 0.00453089
-0.01247142 -0.00989603
-0.01711273 -0.00374848
0.01168738 -0.00363552
-0.00071522 -0.00283889
-0.02102561 0.00150535
-0.00618088 -0.00296021
-0.00707583 -0.00165175
0.01541871 -0.00917333
-0.00824850 0.00138513
0.00595051 -0.02019653
0.02150109 0.00339695
-0.00875555 -0.00722989
-0.00559873 0.00100141
-0.01658326 -0.00239076
-0.01086400 0.00342953
0.00234471 -0.00520960
0.00925165 -0.01718182
-0.01717436 -0.01114475
-0.00585395 -0.00336430
0.00233046 -0.00632116
-0.00110525 -0.00020088
0.00308664 0.00696767
-0.01012959 0.00512269
0.00376768 -0.01171445
-0.00114034 0.01307027
-0.00654470 -0.01525890
0.01155245 0.00781554
-0.02480152 -0.00250500
-0.01069830 -0.02641414
0.00984056 -0.01115647
0.00970059 0.00673170
0.00564140 -0.02028799
-0.00815405 -0.01381856
-0.00484346 0.00414004
-0.00921348 -0.00882188
-0.01255528 -0.01983459
-0.00589048 -0.01477616
-0.00053681 -0.00850395
-0.00568233 -0.00453669
0.01168231 0.00611722
0.00078073 0.02432177
-0.00822897 -0.01780577
0.01088396 -0.00507587
0.01194440 -0.01503238
0.00491719 0.00964697
0.01544313 -0.02490161
-0.00137866 -0.00253653
0.00354988 -0.00076339
-0.01405467 -0.01708285
-0.00025601 0.00104485
-0.02279644 0.00164696
-0.00219323 -0.00914972
-0.01671298 0.02173650
0.00623387 0.00063532
-0.01357006 0.00061922
-0.01755646 -0.00674915
0.00234536 0.01675054
0.02578205 -0.02814473
-0.00784555 0.00933311
0.00633463 -0.01609702
0.00195122 0.00357714
0.00810525 0.00630097
-0.00455284 0.00282121
-0.00816277 -0.01104112
-0.00992298 0.00142141
0.01524495 -0.01458448
-0.00050673 -0.01532553
0.00941330 0.01892494
0.01009404 0.00685413
0.02387032 0.01219569
0.01305005 -0.01170909
-0.01132476 -0.00084512
-0.00856435 0.00544946
-0.00537580 -0.00439133
-0.01079129 0.00426047
0.02177831 -0.00138092
-0.00810953 0.02811758
0.00748240 0.00295857
0.00075957 0.00034516
0.00483961 -0.00365227
0.02131478 -0.00884102
0.01035711 -0.01338604
0.01257905 -0.00162241
0.00150955 0.00384258
-0.00321248 -0.00964954
0.00250868 -0.00303864
0.01053272 -0.01877655
0.01909657 -0.00049210
-0.00215835 -0.00869296
-0.00608161 0.00924412
0.01720705 -0.01520673
0.01130849 -0.00939787
0.01946416 -0.00129914
-0.01001878 0.01251262
-0.00415749 -0.00165208
0.00194127 -0.00466876
-0.00033382 0.00130821
0.01181344 -0.02703160
0.02183711 -0.01075376
-0.00968846 -0.00260243
0.01402474 -0.01551122
0.01106539 -0.00064943
-0.00829893 -0.01590312
0.01287678 0.00275694
-0.01869677 0.00539342
-0.00014822 -0.00079663
-0.00412434 0.00018054
-0.00107646 0.02098250
-0.00243193 -0.01024207
-0.00007625 -0.00394807
0.00083061 -0.00887398
0.01041490 0.02691562
-0.00651093 -0.00371480
0.00998596 -0.00136120
-0.00131350 0.00319464
0.00316362 -0.00509722
-0.00719628 -0.00995389
-0.02507373 0.00258870
0.00656073 0.02094071
0.00474385 0.02256248
-0.00332342 -0.02091084
-0.00136970 -0.00012489
-0.00116265 -0.02256016
-0.00213770 -0.00085077
0.01208931 -0.01009829
0.01097638 0.01002991
-0.00257813 0.00431016
0.00548290 -0.01138093
-0.01178544 -0.00566357
0.01994545 -0.00028826
-0.00653869 -0.00608546
-0.01209962 0.01161492
0.03305480 0.00601695
-0.01464718 -0.00191607
0.01533589 -0.01974501
-0.00660176 -0.00220963
-0.01698628 0.01309877
0.01023104 0.00696415
-0.00230143 0.01250781
-0.00511474 0.01002816
0.00232095 0.01484580
0.00196270 -0.00591122
0.01672474 -0.01257157
0.00676605 -0.00719352
-0.01540753 -0.01446185
-0.00136818 -0.01223920
-0.00074744 0.00153895
-0.00670602 0.00404109
0.00496003 -0.00562753
-0.00464496 -0.01676154
-0.00279617 -0.01136076
0.01599544 0.00070926
-0.00210628 -0.00103330
-0.00141793 -0.00052038
-0.00182622 -0.00680602
-0.00067525 -0.01210207
0.00878872 0.00763597
-0.00910965 -0.01275407
-0.00258682 -0.00963993
-0.01062671 -0.00531643
0.00989873 0.00669139
0.01048328 -0.00175984
0.00320164 0.00173648
0.00142743 -0.00365165
-0.00662781 0.01387419
-0.00030837 -0.00211795
-0.00480292 -0.01208873
0.01166563 -0.00075507
0.02723270 0.01912301
0.01428526 -0.01312570
0.00811565 0.00486975
0.01332658 -0.01189555
-0.00587519 -0.00245452
0.00488049 -0.00595027
0.01483888 -0.00081792
-0.02740292 -0.00609963
-0.00557851 0.00390421
-0.00163011 -0.00210797
-0.00509542 0.01812317
-0.00335701 -0.00368359
-0.00324905 0.00824351
-0.00880577 -0.00334294
0.01076325 -0.01544685
0.00931325 0.02891858
0.01256511 0.01218435
0.00632149 -0.01715547
-0.00468284 0.01754859
-0.01130227 0.00613771
0.01606297 -0.01706478
0.00443957 -0.02046326
0.00016334 -0.02311448
0.01669230 -0.00844480
0.02220276 0.00344189
-0.01133602 0.00420795
-0.00151191 -0.00003767
-0.00288169 0.00230872
0.00206385 0.00265975
0.00347032 -0.01482578
0.00113712 -0.00301809
0.00206471 -0.00631536
0.00326428 -0.00744314
-0.01422083 0.00830182
-0.00359258 -0.00651808
-0.01082780 0.01504991
-0.00750773 -0.00001591
0.00599241 0.00983848
-0.01114950 -0.00528359
0.00193961 -0.00495166
0.00125355 0.00948330
0.00333176 0.00480477
-0.00253941 -0.00139044
-0.00417143 0.00417050
0.00613627 -0.01587210
-0.00717722 0.01206487
-0.00871266 -0.01101520
-0.01465516 -0.01759358
0.02711208 0.00791381
-0.00473259 0.00517032
-0.00368740 0.00875840
-0.00564688 0.00417485
0.01617566 -0.01174996
-0.00491425 0.00124924
0.01059883 0.00501142
-0.01104207 -0.01871251
0.00735427 -0.00393600
-0.00350744 0.00540125
-0.01945155 -0.02322321
-0.01642715 0.01439102
0.01217880 -0.00156261
0.00485800 -0.00571505
0.00401235 -0.01803550
0.00209753 -0.00621667
-0.00306435 -0.00070523
-0.00512973 0.01111049
0.01365253 0.00875750
0.00180204 -0.00725778
-0.00781562 0.01829346
0.01115900 0.00410804
-0.00501089 -0.00510309
-0.00407004 -0.01012499
0.02392814 0.01502498
0.01293381 0.00710685
0.01091205 0.00253015
-0.00583913 0.00573228
-0.00221490 0.00773653
-0.00132192 -0.00879709
-0.00348488 -0.01048931
-0.00026004 0.00205634
-0.01913035 -0.01044786
-0.01227493 0.00216255
0.00093930 0.00973783
-0.01413282 0.00800268
0.01771110 -0.01326160
0.00529626 0.00431180
0.00634508 -0.00655472
0.01808117 0.00859309
0.01337663 0.03007288
0.00131295 -0.01210620
-0.02409222 -0.00523605
-0.01150581 0.00793053
0.00054286 -0.00017804
-0.00706417 -0.00901666
-0.00785855 0.00239292
-0.00497770 0.01786543
0.00159826 -0.00510090
0.00308111 0.00767523
-0.01189987 -0.01795049
0.02815509 -0.00672732
-0.00555956 -0.00592167
0.00372931 0.01466074
-0.03184998 -0.01777638
0.00071032 0.01997152
-0.00566051 0.01574631
0.01043261 -0.01092207
-0.00170585 0.00655778
-0.01169075 -0.02697945
-0.00276957 0.00195539
-0.00202687 -0.01694768
0.01185604 -0.01183997
-0.00589269 -0.00881806
-0.00722694 -0.00555377
0.00160708 -0.01965167
-0.00069256 -0.00338011
0.00697684 0.00722359
0.00031388 0.02902952
-0.01855318 -0.01433053
-0.00635106 -0.00315166
-0.03207172 -0.01536740
-0.01019893 0.00020661
-0.00420196 -0.00666846
-0.00626327 -0.00349185
0.01800716 -0.00329406
-0.00174399 0.00447817
0.00169817 0.00186466
0.03024633 0.00912654
-0.00462160 -0.00554021
-0.02365250 -0.00744051
-0.00574677 0.01437560
0.00782843 0.00721558
-0.01349223 -0.00467477
0.00754061 0.01834348
0.00368324 -0.01778045
-0.01671359 0.00640523
-0.00940495 0.02281062
-0.00644632 -0.00776767
-0.00492700 -0.00840557
-0.01865427 0.01309473
-0.01014989 0.00506134
-0.01099791 -0.00428709
-0.00259312 -0.00935788
-0.00943531 -0.01260388
0.01318647 -0.00097482
0.00552746 0.00490627
-0.01355391 -0.01637413
0.02787661 -0.00811073
0.00910982 -0.01568347
0.00637448 0.00241614
-0.00925166 -0.00536078
-0.01516680 -0.00881749
0.00953917 -0.00709360
-0.01008144 0.01215085
-0.02030087 -0.00086961
0.00630650 0.00670671
-0.01573655 -0.00007037
-0.00641216 -0.01108344
0.02865869 0.01854526
-0.01937133 -0.00821689
-0.01070031 0.01017619
0.00005740 0.00319377
-0.00196133 -0.01328143
-0.01584984 -0.00821715
0.00760178 -0.02803504
-0.00216819 0.00760636
0.00022434 -0.01877457
0.04801289 -0.01825694
-0.00167928 0.00828296
0.00834777 0.01338992
-0.02328786 0.01079544
0.01151802 -0.00880872
0.00359685 0.00012551
-0.00053472 -0.00827521
0.00000731 -0.00288494
0.00241179 -0.01607810
0.00801491 -0.02288041
-0.01494598 -0.00131105
0.00723983 0.00942797
0.00365066 -0.00420191
-0.00593077 -0.00262956
-0.00597329 -0.02116262
0.02345191 0.01263641
-0.00596315 -0.01742976
0.00604166 0.00253187
-0.01720187 -0.00208777
-0.01136073 0.01642550
0.01243853 -0.00441757
0.00667460 0.00179593
0.00991607 0.02915201
-0.01796358 -0.00067921
0.00687597 0.01808635
0.00561326 -0.00045965
-0.00363087 0.00532070
-0.01376658 0.00560139
-0.00214751 0.01290202
0.00206176 -0.00682047
-0.00974534 -0.01331155
-0.00632145 0.01131340
0.00532360 0.01008759
-0.01593547 0.01398294
0.00082084 0.01066949
-0.01226825 -0.00551302
-0.00351120 0.00713025
-0.02236076 0.01396391
0.00325408 -0.02615626
0.00869867 0.00882216
-0.01407393 0.01112004
0.01193772 -0.01679591
-0.00214233 -0.00527371
0.01228374 -0.01255169
-0.00991044 -0.01673624
-0.00664138 0.01667220
0.02422368 -0.00350579
-0.00795506 -0.00068631
0.00024903 0.01909333
0.00926008 -0.03279737
-0.00001282 0.02551484
-0.02249163 0.00846429
-0.01044330 -0.00945718
-0.00061726 -0.01089922
0.02165593 -0.00005812
0.00290983 0.00670208
0.00151361 -0.00150770
0.00066216 -0.01306462
0.00832011 0.01315205
-0.00850677 0.00594626
0.00871098 0.00255709
-0.02683083 -0.00424714
0.00622131 0.00439526
-0.01020208 -0.00655068
-0.00712201 0.00066406
-0.00566634 -0.00815109
0.03046205 0.00369533
-0.01191258 -0.00803730
0.00096229 -0.00473933
-0.02112092 0.01067325
-0.01740331 0.00204239
-0.00600168 -0.01896946
0.02493774 0.00554372
0.00196487 0.01091318
0.00641454 -0.02625607
-0.00962233 -0.00772458
-0.00013282 0.00212946
0.00395471 -0.00025317
0.01113994 -0.00944077
0.01142217 -0.00211249
-0.00207594 -0.01008092
-0.00536813 0.02325281
-0.00915018 -0.00380833
-0.02182382 0.01526697
0.00275944 0.00086933
-0.00469553 0.01078995
-0.03008796 0.00848293
0.00710391 -0.00625490
0.02449310 0.00035222
-0.00895040 -0.00878660
-0.00246135 0.02168071
0.00586369 0.01254085
-0.02120148 0.00394219
0.01013935 0.00573069
-0.01046059 0.01210478
0.01770533 0.00331725
0.00950329 -0.00632289
0.01014385 -0.01697847
-0.01708207 -0.00933780
0.00702650 -0.01623123
-0.00392863 0.01598734
-0.01413009 0.00407251
0.01329036 -0.00062883
-0.01943070 0.00365282
0.00931752 -0.02024265
-0.00520852 0.01987404
0.00928880 -0.01883204
0.00010953 -0.00733781
-0.01111045 -0.01203762
-0.02453780 0.01227737
-0.00560517 -0.00183224
-0.00453975 0.00223319
0.00374966 -0.00063470
0.00012923 -0.00061064
-0.01074124 -0.00494962
-0.00280503 -0.02122199
-0.00851598 0.00313732
-0.01712337 0.01189426
-0.00610062 0.00765622
-0.00032662 0.00257702
0.02749764 -0.00001456
-0.00156717 0.01604585
-0.00340171 -0.00984564
-0.00575396 -0.01714003
-0.00252090 0.01559025
-0.01244816 -0.01038237
0.01079466 0.00631140
-0.00607322 0.02453930
0.00643973 0.00031229
-0.00371390 0.00556354
-0.00313436 0.00228062
-0.01471600 -0.02120628
-0.00645941 -0.00258712
0.00858163 -0.00833681
0.00002458 -0.00182722
0.00145721 -0.02154476
-0.02182994 -0.00469211
0.00317581 -0.01705937
-0.00399025 -0.01560884
-0.00237637 0.01799056
-0.01363190 0.00429047
-0.00792116 0.00305769
0.00852276 0.01205290
0.01056826 -0.00612877
-0.00456708 -0.02083436
-0.00112550 0.00848559
-0.00596788 -0.00893389
-0.01146565 -0.01476886
0.02384151 -0.02254043
0.00355469 0.01150439
0.00896201 0.00829543
-0.00352809 -0.00299869
-0.01043447 0.01118518
-0.00471602 -0.00277984
0.00513526 0.00995699
-0.00637165 -0.00591494
-0.01992408 0.02265284
0.01533230 -0.01683909
0.00361260 -0.00679752
0.01898009 -0.01549379
-0.00441860 0.00037863
-0.01729955 -0.00814618
0.01237790 -0.00569449
-0.01227283 0.00390806
0.00485353 0.00637031
-0.00853884 0.00596784
-0.00401650 -0.00215807
0.01780243 0.02138408
-0.01606544 -0.00110335
0.01137604 -0.00416237
-0.00236528 0.01225318
0.01105546 0.01210480
-0.01130032 -0.01803782
0.00281713 0.00173110
0.01350320 -0.01088869
-0.00755828 -0.00750085
-0.00550497 -0.02413413
-0.01165560 0.01322064
0.00387994 0.00616369
-0.00050142 -0.00531745
-0.00605111 0.01078329
0.00817991 -0.00238068
0.00427229 -0.00882628
-0.00537779 0.00549416
0.01834355 -0.02403616
-0.00911037 -0.00068694
0.00559197 0.00521174
-0.02464081 -0.01509860
0.02434296 -0.00220401
0.00205865 -0.00310477
-0.00255214 -0.00706782
0.00013295 0.00156261
0.00469404 -0.01046580
0.00734793 -0.01086315
0.00653822 -0.00360904
0.01328805 0.02392902
-0.00965635 0.00435686
-0.00405335 -0.00197579
-0.00300877 0.00716355
-0.00891257 -0.00357682
-0.01765694 0.02832739
-0.01225875 0.01293718
0.00005003 -0.00671769
0.00647044 0.00347864
0.00482534 0.00868629
-0.00626787 -0.00891345
0.01007047 0.00760672
0.01487949 -0.00646975
0.02337638 0.00796508
-0.00293186 -0.03490332
-0.00270542 0.00019358
-0.00784899 0.01069267
-0.00537621 -0.02030647
0.00431716 -0.00055164
0.00233445 -0.00192529
0.00041706 0.01294852
-0.02331531 0.00339909
0.00290395 -0.00519548
0.00078919 -0.01610221
0.02764022 -0.02175037
0.00941407 0.01451923
-0.00603865 -0.00948082
-0.01218809 -0.00029524
-0.02589487 0.00403499
0.00471528 0.01239058
-0.01624350 0.02137513
0.00278890 0.01259063
0.00173502 0.00811633
0.00094650 0.00983588
0.00970943 0.01384452
0.00083630 0.00848796
-0.00777399 -0.00359849
-0.01736898 0.00140424
0.00143732 -0.02923778
0.02693951 0.02300380
0.00122104 0.01106203
-0.01123657 0.00008883
-0.01404144 -0.01222970
-0.00463377 -0.00023843
-0.00764583 -0.01060451
-0.00503195 0.00190905
-0.00004162 -0.01774244
-0.00562735 -0.00076516
-0.00771963 0.00773198
0.01319760 -0.00201029
0.00549303 0.00437442
-0.01060922 0.00507353
-0.01040708 0.00350832
-0.01191242 0.00910980
0.02066885 0.00398412
0.01542642 -0.02970172
0.00250350 0.00223439
-0.00860720 -0.00337661
-0.00280095 -0.01987446
-0.00587805 0.00810152
-0.00441528 0.00286541
-0.01851858 -0.00525994
0.01706408 0.01097912
-0.00116993 -0.01929763
-0.01079092 -0.00749701
-0.00093649 0.00380667
-0.00088392 0.00271954
-0.01853733 -0.01146337
0.00129139 0.00961170
0.00166104 0.01177882
-0.01336651 0.00932331
-0.00709552 0.00283535
-0.00836482 -0.00281878
-0.01561937 0.01819521
-0.01774639 -0.01436107
0.01329409 -0.00004443
-0.00381276 -0.01298293
0.00332734 0.00016503
0.00438978 -0.00019239
0.00480839 -0.00303275
0.00505875 -0.01011578
-0.01162392 0.00394686
-0.02069941 0.01262032
-0.00443313 0.00447564
-0.01527268 0.01627481
0.00420056 0.00052031
0.00022650 0.00823454
-0.00689580 0.00339380
-0.01930017 -0.00613738
0.01487674 0.00287630
0.00486633 0.01186147
0.01753274 -0.01154298
0.00481456 0.00650533
0.01701558 0.01301826
-0.01232074 0.00574050
-0.01050307 -0.00728099
-0.00543059 -0.00656437
-0.00206808 -0.00469469
-0.00800958 -0.00527258
-0.00761924 0.00676186
-0.02462695 0.00961996
-0.00655106 0.00446844
-0.00962181 0.00815155
0.00021395 -0.00281057
-0.00136911 -0.02398416
-0.01078845 0.00415103
0.00105322 -0.01021673
0.02350265 -0.00411426
-0.00115490 -0.01262365
0.03070858 -0.01592786
-0.01047766 0.01273528
0.01060139 0.01524639
-0.00359730 0.01429316
-0.00968613 0.03588336
0.00908799 0.00775377
-0.00243345 -0.00016413
-0.00764459 -0.00871820
-0.01667390 0.00487828
-0.01500043 0.01529206
-0.00769728 -0.00907828
0.00659381 -0.00039126
-0.01354634 0.00897391
-0.00866720 0.00325665
0.00635233 -0.00782318
0.00641344 0.00629395
-0.00656021 -0.00681335
0.00443259 0.01594181
0.00984800 -0.00151000
-0.01011615 -0.02337132
-0.00717371 0.00241928
0.00447226 -0.00643185
0.01556550 -0.00336886
-0.00259103 0.00636522
-0.01169003 -0.01476184
0.02095643 -0.01544065
0.00269058 -0.00265661
0.00629796 -0.00168413
-0.00261444 -0.00347322
-0.00372704 -0.01121337
-0.00984103 -0.02390714
0.00034421 -0.00087428
0.00219274 -0.01781903
-0.00037414 -0.00532232
0.01031367 0.00713822
0.00938749 0.00645659
0.00398121 0.00109193
-0.00212836 -0.00441140
-0.00436405 -0.01006519
-0.01215526 -0.01103551
0.02062939 0.01338622
0.00752328 -0.00346211
-0.00087918 -0.00546863
0.01214076 0.00358719
-0.00045946 0.00072264
-0.00453174 -0.01380894
0.01257717 0.00066358
-0.00999700 -0.00258193
0.01422219 0.00231678
0.02439444 0.00397038
-0.01783512 0.01772778
0.00253898 0.00347981
-0.00825871 -0.00066229
-0.00201599 -0.00474926
-0.01224417 0.00606754
-0.00588408 -0.00008055
0.00020281 -0.00462376
-0.02416853 0.01013750
-0.01899986 0.01429950
-0.01410298 0.00089696
-0.01738563 0.01935506
-0.00217419 -0.00411084
-0.00985251 -0.00058171
-0.00549223 0.00360001
-0.00613426 0.01020300
0.00334559 -0.01478993
-0.02130523 -0.00738445
-0.01196317 -0.01913269
0.00196462 -0.00449519
0.00683234 -0.01803658
-0.01090135 -0.01537193
0.00817516 0.00000555
-0.00795186 -0.01914674
-0.00462043 0.00376312
-0.00174785 0.00767472
-0.01351723 0.00399206
-0.02389281 0.00355015
0.02421870 -0.01920516
0.00670904 -0.01509749
0.00643536 -0.01642454
-0.01514045 0.00699711
-0.00153273 -0.00738132
-0.00058246 -0.00839612
-0.00971201 -0.00396430
-0.00904381 0.01155626
-0.00724482 0.02234094
-0.01089194 -0.00385408
-0.00117512 0.00517152
0.02349176 0.01911007
-0.00676791 0.00110808
0.01865022 -0.02039799
-0.00701540 0.00515199
-0.01058388 0.01074883
0.00451688 -0.01938125
0.00512380 -0.00976936
0.00952704 -0.00401998
0.00328980 -0.00905763
-0.00242461 0.00714887
0.01039753 0.01003975
-0.01031434 0.00261734
-0.01808873 0.00750777
-0.00458592 -0.00187304
0.00061931 0.00359411
0.00313342 0.02071160
0.00399749 0.00698165
-0.00259306 -0.01037356
0.01456341 -0.00064276
0.02540902 0.00277267
-0.00338303 -0.00959261
-0.00649659 0.00422258
-0.01075364 -0.00933741
-0.01428445 0.00766226
0.00469189 -0.00060366
0.01686290 -0.00822528
0.00543461 -0.00660560
-0.00983806 -0.01493586
-0.00950008 -0.00266576
-0.00305566 -0.00844040
-0.00267023 0.00453317
0.02809531 -0.00022132
-0.01120305 -0.00978863
-0.00165019 0.00271344
-0.00342081 -0.00122145
-0.01377509 -0.00722824
-0.00261243 -0.01623397
-0.00733624 -0.00156785
0.01206768 -0.00430503
0.00443628 -0.00254417
-0.00408612 -0.00016800
-0.01016895 -0.00407516
-0.00811327 0.01367964
-0.00199317 -0.00283883
-0.01158171 -0.00361251
0.00249896 0.01057052
0.01248642 0.00483551
0.01010932 -0.00469437
-0.00601257 -0.02198035
-0.00013948 -0.00049095
0.00732044 0.01925172
-0.00546125 0.01353245
0.00615469 -0.00163409
0.01579263 0.00029539
-0.00192445 -0.00607103
0.00252155 -0.00853179
0.00549276 0.00240725
-0.00287276 -0.00013634
0.00020672 -0.00147729
-0.00404534 0.01597711
-0.00376487 0.02893392
-0.00491988 -0.00081414
-0.00622953 -0.00584757
0.00032662 0.03061816
0.00364156 -0.00255920
-0.00572200 -0.00446695
-0.00471157 0.02350469
-0.00882284 -0.00100871
0.00395255 -0.00823662
0.00103142 -0.01413727
-0.00971326 -0.00289894
0.02333474 -0.00603991
-0.00497895 -0.00213592
0.02095394 0.00082695
0.00958611 0.01279149
-0.00014772 -0.01962894
-0.01164624 -0.00289273
0.00246590 0.02520998
-0.00450732 0.01354864
0.00616863 -0.00855640
-0.01047133 0.00982588
-0.00287254 0.00425412
0.01098762 0.00246745
0.01140687 -0.00395698
-0.00487248 0.00067900
-0.00542783 -0.00652660
-0.01609429 -0.01834793
-0.00175700 -0.00945633
0.02406770 -0.00466259
0.00181442 -0.01572502
0.00189634 -0.00091845
0.00116916 -0.00264977
0.00408396 -0.01607572
-0.00321185 -0.01696788
0.00415827 -0.00164416
0.00527522 -0.00603676
-0.00623642 -0.00443631
0.00230982 0.00078164
-0.00887597 -0.00302994
0.00202186 0.00229237
0.00759128 0.00055802
-0.01588312 -0.01302480
-0.00601330 0.01672263
-0.00700579 -0.00124354
-0.00553139 -0.00787551
0.00057740 -0.01168133
0.00178738 0.00007339
0.00595886 0.00242334
-0.00211769 0.00848477
0.00634697 -0.00255404
0.00224459 0.00233279
-0.00627364 -0.00355024
-0.00340772 -0.00102785
-0.02746407 -0.00700480
-0.00322549 0.00140844
0.00236447 -0.00075656
0.01652362 0.01120554
-0.00293417 0.00647690
-0.00460447 -0.00253894
0.01318349 -0.00689474
-0.00563135 -0.01200533
0.00114941 -0.00099886
0.01199559 -0.00452252
-0.00663631 -0.00005303
0.01497522 -0.00173118
-0.00012535 -0.01203156
-0.00223026 -0.02073911
0.01797517 -0.00635536
-0.01627534 -0.00588881
-0.00146159 -0.00183833
-0.00996839 -0.00186795
0.00130274 0.00987785
0.00124162 -0.00796059
-0.01418879 -0.00648128
-0.00297325 0.01605446
0.00291203 -0.00170801
-0.00432442 -0.00499405
0.00419314 -0.00449299
-0.00069218 0.01830584
0.00602049 -0.00269017
-0.01602500 0.00666251
-0.00491685 0.02354728
-0.00222643 -0.00035334
-0.00266875 0.00679558
0.00206611 -0.00989776
0.00889217 -0.00218964
0.02003205 -0.03284337
-0.00517646 -0.00156987
0.00328538 -0.00511294
-0.01387728 0.00990894
-0.00848121 0.00500559
-0.00964494 -0.00083489
-0.00752821 -0.01226518
-0.00041895 -0.02484287
-0.00313881 -0.00369195
0.00581271 -0.00393920
-0.00381336 -0.00985007
-0.01819465 0.00176233
-0.01348202 -0.02006541
-0.00569990 0.00622725
-0.01937909 -0.00321648
-0.02163623 0.01029981
-0.00094961 -0.01185441
-0.00174888 -0.00214114
-0.02310107 -0.01014468
-0.00542780 0.00875544
-0.02282268 -0.00043365
0.00026086 0.01500622
-0.00340532 -0.01082550
-0.01483908 -0.00367713
-0.00823288 -0.00717499
0.00060315 0.01671491
-0.00253543 0.00064568
-0.01682537 -0.01367974
-0.00577847 0.00693976
0.00442022 -0.00217549
-0.00977050 -0.01306781
-0.00064113 -0.01045149
0.01670371 -0.00696114
0.00244407 -0.00070274
-0.00083323 0.01036291
-0.00736913 -0.00312963
0.01874946 -0.00777229
-0.00395892 0.00250511
0.00714971 0.00360938
-0.00693746 0.03193042
-0.00441156 -0.02264192
0.01182637 -0.00476312
-0.00106229 -0.00876336
-0.00598843 -0.00290408
-0.00864889 0.00044310
0.03626744 -0.00294940
-0.00291192 -0.00567052
-0.00767386 0.00059528
0.00739424 0.00824031
-0.00487801 -0.01074701
0.01345371 -0.00635998
0.01050813 -0.01114522
-0.00406434 0.03430025
0.00494790 -0.00360288
0.01335758 0.01306079
-0.00193381 0.00811808
0.00030816 0.00263058
-0.00903970 0.00464132
-0.00309139 -0.00166433
0.00377177 -0.00083837
-0.00282310 0.01139435
-0.00166458 0.00638640
0.00690973 0.00057424
-0.00655146 -0.02699135
0.00236215 -0.01071303
0.00969038 -0.00632965
0.00117835 -0.00785512
-0.00371109 -0.01455558
0.00171206 -0.00394598
-0.00320073 -0.00161117
-0.00465207 -0.00845914
0.00572109 0.00238258
0.00165582 -0.02067842
-0.00613209 -0.00928849
-0.02046916 -0.00012809
-0.00530723 -0.01309270
-0.00267849 0.00370559
-0.00778990 -0.00773008
-0.00320121 -0.00309085
0.00114566 -0.00763950
-0.01407567 0.00064633
-0.00891137 0.01585254
-0.00146932 -0.00183579
0.01120780 -0.00018937
0.01121733 -0.01967955
-0.00047308 -0.03059154
0.00757807 -0.00214618
-0.00724057 -0.00993870
0.00131254 -0.01056076
-0.01397060 -0.00148964
-0.01394064 0.00812810
-0.00478887 -0.00044251
-0.00069493 -0.00363742
0.00183980 -0.01195670
-0.00257662 -0.01603404
0.00827678 0.00023755
0.00536184 0.00556057
-0.00521304 -0.00006955
-0.00193083 0.00097635
-0.00797702 0.00181749
-0.00214771 -0.01148126
-0.01309476 0.00125069
-0.00815887 -0.00518751
-0.00368748 0.01958590
-0.02474027 0.00183437
-0.00763816 0.00796091
-0.00589324 0.02173549
0.00175211 -0.00398883
-0.01028478 0.01490008
0.00278741 -0.00631499
0.01142525 -0.00235082
-0.01066523 -0.00965793
0.00101509 -0.01891270
-0.01058507 -0.00031428
-0.00019192 0.00147860
-0.00401268 0.00543632
0.00067413 0.00298641
0.00704349 -0.00367651
-0.00247431 -0.00325008
-0.00733652 -0.00169297
0.00874135 -0.02414750
-0.00422909 -0.00982692
0.01353951 -0.00354112
-0.00109689 -0.01235551
-0.00445803 0.01035984
0.00676228 0.00025733
-0.01478722 -0.00209274
-0.00348887 -0.01209524
-0.00376928 0.00665189
-0.00140727 -0.00412146
-0.00158185 -0.01269509
-0.01661872 -0.00356053
-0.00638415 0.00261771
-0.00503420 0.01182426
-0.00524203 -0.00728413
-0.00472014 -0.01191143
0.00204701 0.00366515
-0.00628050 -0.00022130
-0.00554730 -0.00922523
-0.00354514 -0.01859944
0.01168015 -0.00494517
-0.01097596 -0.00612104
-0.00105577 0.00334998
-0.00758612 -0.00111003
-0.02076858 0.00626447
-0.00317314 -0.02587195
-0.00758289 -0.00290319
0.01154448 -0.02065813
0.00337820 0.00759725
-0.00779827 -0.00415523
0.01596180 0.00102939
0.00005081 -0.00564021
-0.01418371 -0.00529273
0.01918464 -0.00603012
-0.00431189 0.02032450
-0.00235189 -0.00311045
-0.00738868 0.00197319
-0.00387385 0.01510625
0.00569792 -0.00188105
-0.01476636 0.00641768
0.00112136 -0.01361208
-0.01312068 -0.00598940
0.00107451 -0.00866210
-0.00540554 0.00531041
0.01555927 -0.00266797
-0.00940715 0.00346646
-0.00577557 0.01340108
-0.01656878 -0.00279668
-0.02103242 0.00126637
0.00127234 -0.01989483
-0.01054913 -0.00395356
0.00365036 -0.02279308
-0.00297278 -0.00979101
0.00421104 -0.00162924
-0.00913200 0.00088714
0.00350951 -0.00759099
0.02405694 0.00065273
-0.01408857 -0.01568611
0.00158985 0.01125572
-0.00448549 -0.00143641
-0.02115268 -0.01794974
-0.00228511 0.00414599
-0.00874884 -0.00463928
-0.01418747 0.00649752
-0.00280063 -0.00467625
0.00170670 -0.00054814
-0.01534127 0.00083152
0.00156557 -0.01375071
0.01219950 -0.00397926
0.00494543 -0.00515760
-0.00294160 -0.00371613
-0.00585686 -0.00428573
0.01140048 -0.00385857
0.00083151 -0.01252431
-0.00487167 -0.00328187
0.00856868 -0.01579371
-0.00126898 0.00629548
-0.01088509 0.00161779
-0.00438360 -0.00489172
-0.00229567 -0.00519447
-0.00304658 -0.00265415
-0.01411028 -0.00605199
-0.00205002 0.00910285
-0.00857696 -0.00046813
-0.00790762 -0.03326822
-0.00291258 -0.00115593
-0.02530005 -0.00309013
0.00403731 -0.00379845
-0.00991092 0.00139840
-0.01753576 0.00100627
0.01650972 0.01201645
-0.00095291 0.00819672
-0.01574578 -0.00001754
-0.01815307 -0.00825396
-0.00052696 0.00164280
0.02865116 -0.00100509
0.01581274 -0.02659917
-0.00218576 -0.00109652
-0.01742504 0.00046690
-0.00566426 -0.00868955
0.00129573 -0.01150327
-0.01096925 -0.00165390
-0.02164962 0.01642868
0.00117113 0.02317739
0.00570777 -0.00492480
-0.01013001 0.00355636
-0.00527971 -0.00271362
-0.00052860 -0.00168314
-0.01282613 -0.01505650
-0.00350018 0.02142675
-0.00271352 -0.00205219
-0.00443981 -0.01380596
0.00018108 -0.01027423
0.00117609 -0.00209574
0.00923310 -0.01342360
-0.00480942 -0.02464726
0.02182201 -0.00073582
-0.00095433 0.00770768
-0.00520186 -0.01136602
-0.01727767 -0.00489375
0.02834709 -0.00890156
-0.00381440 -0.01085431
-0.00872303 0.00512324
0.03061588 0.00940160
-0.00212743 -0.00894443
-0.00193583 0.00102526
-0.00981739 0.01111760
0.00249746 0.02345001
0.00499688 0.00027282
-0.00868791 0.00918970
-0.00348025 -0.01834181
0.01563272 0.00512013
0.02455891 -0.00459503
-0.00575626 0.02823238
-0.01886881 -0.00144081
0.02238998 -0.02139669
-0.00419916 0.00902322
0.00596219 -0.00571003
0.01234335 -0.00218011
-0.00612531 0.00498452
0.01216994 0.00035618
-0.00943698 0.01867230
-0.00427636 0.00827215
-0.01216218 -0.00707774
-0.01822894 0.00405427
-0.01199623 -0.01649269
0.03081986 -0.00278692
0.01182767 0.00291429
-0.00349867 0.01717516
-0.01283506 0.00373828
-0.01486683 0.00406176
-0.00653215 -0.00177173
-0.00845820 0.00390943
0.00336284 0.00727924
0.00042003 -0.00161934
0.02251733 -0.00369523
0.00416035 -0.00830521
-0.00019600 0.02619653
0.00193153 -0.00234224
-0.01439392 -0.00224796
-0.00450247 0.01766544
0.00916024 0.00313343
0.00369950 0.00470425
0.00198762 0.00546081
-0.01246050 -0.00144327
-0.00404806 -0.01585764
-0.00049140 0.01388238
0.02832622 -0.00300324
0.00640989 0.00314611
-0.00117748 -0.00647614
0.01349684 0.00063408
0.01890032 -0.01114743
-0.00515592 -0.00146851
-0.00847846 -0.00017090
-0.01470132 0.00713866
-0.00347804 -0.00477606
-0.00467820 -0.00465547
-0.00557667 -0.01352929
-0.00408872 -0.01195578
0.00872285 0.00117658
0.00009633 0.01491586
-0.00472642 -0.00650184
0.00540363 -0.00149015
-0.00172419 -0.01542375
0.00127830 -0.01822255
-0.00448506 0.00015674
-0.03047643 0.02132302
-0.00421264 -0.00061100
0.00104846 0.00166182
-0.00094943 0.00214377
-0.00333227 -0.00101824
-0.00013862 0.00034419
-0.01562310 0.00852390
0.00055051 0.00882976
0.01121565 0.00501512
-0.02327712 -0.01236613
0.00335178 -0.01225205
-0.00819089 -0.01448889
0.01291209 -0.00791831
0.02729549 0.00482642
0.00648109 0.00698109
0.01461009 -0.00380657
-0.01377993 -0.00882166
-0.02491088 -0.00736527
-0.02771910 -0.01135562
-0.00911906 -0.01667167
0.01397571 0.00175106
0.04293353 -0.00704480
0.00879429 -0.02719016
-0.01156048 -0.02201161
-0.01878393 0.01558510
0.00330543 0.01111913
0.00547214 -0.01461064
-0.01591959 -0.01041349
0.00965414 0.00289241
-0.00213626 0.01238041
-0.01229296 0.00821870
0.00871694 0.00211325
-0.01479403 -0.00613678
-0.01514091 0.01694590
0.01375239 0.00892078
-0.01336152 0.00420129
0.00547805 0.01790974
-0.00320999 -0.01258159
-0.00249798 0.00130076
0.00036453 0.00258727
0.00897573 0.00988996
-0.01359188 -0.00638517
0.01261235 -0.00207971
-0.00090575 -0.01264147
0.00725386 -0.00801617
-0.00946689 0.01243112
0.00362800 0.00379586
0.00695313 -0.00772758
0.01460547 -0.00720036
-0.01987244 -0.00620117
-0.00487181 -0.01202942
-0.01902368 0.01743589
-0.00415505 -0.00974149
0.01708368 -0.00727263
0.01384114 -0.00310099
-0.01554180 0.00497142
-0.01506673 0.00609624
0.01061809 0.02220272
0.01154963 0.02288884
-0.01627248 -0.01231330
0.00447185 0.00160238
-0.00560879 -0.01199751
0.00816482 -0.00043176
-0.00196602 -0.01261448
-0.00393626 0.01066418
-0.01102592 0.00444715
-0.00399116 0.00133763
0.01320439 0.00764857
-0.00599018 -0.01046804
-0.02158749 0.00263629
0.03067260 0.00380829
0.00402142 -0.00110353
0.01692469 0.00985635
-0.00518325 0.02538683
-0.01978153 -0.00289929
0.00034039 -0.00818640
-0.02623167 -0.00322490
-0.00670188 -0.00236543
0.00501519 -0.01881537
0.00461368 -0.01053571
0.01863947 0.01232566
-0.00380377 0.00613466
0.00574469 -0.00517183
0.00248862 -0.02398342
0.01457881 -0.02614137
0.00448984 0.01804402
0.00407830 -0.02100321
-0.00165888 -0.01246255
-0.01704240 0.01830054
-0.01812277 0.01335296
-0.00796096 0.00611728
-0.01520471 0.00192972
-0.02318333 -0.02506371
-0.01487404 0.01847672
-0.00432598 -0.00695698
-0.00820980 -0.00153511
0.00901781 0.00364442
-0.02016576 -0.01028880
-0.00806908 0.02753323
0.00390580 0.02060288
-0.01936725 -0.03423287
0.02090971 0.01164259
0.01648589 -0.01085823
0.01321009 -0.02694037
0.01205811 -0.01375102
-0.00295399 0.00335778
-0.00393300 0.01862105
-0.00838830 -0.00401414
-0.02639475 0.00516659
0.01683376 0.00569920
0.00355409 -0.01987878
-0.00620477 -0.02414572
0.01263044 0.00452526
-0.01153904 0.01765036
-0.01277406 -0.01656800
-0.00822354 -0.00243566
0.02001745 0.00467152
0.01339310 -0.00903242
-0.00959442 -0.02826129
-0.02782998 0.00960096
-0.00885644 0.00415064
0.00190496 0.00991067
0.02009718 0.00812235
-0.03071834 -0.02088431
-0.02610054 0.02031794
0.04301852 0.00156701
0.00096685 -0.00108348
0.00878171 -0.02334891
-0.00048833 -0.00925455
0.01234641 -0.00562792
0.00243725 -0.01149209
0.01437428 0.00151375
0.01562691 0.00186386
0.02355613 -0.01935738
0.00277562 0.02947878
0.00411973 -0.00634346
-0.00801309 -0.00590533
0.00206324 -0.00718228
0.00373699 -0.00885650
0.01350017 -0.00974603
-0.01090882 0.00868530
0.01322515 0.02390291
-0.02134226 -0.00535245
0.01440807 0.00842795
0.00958135 0.02897429
0.00016542 -0.00541530
-0.01075122 -0.00631131
-0.00293288 -0.00573804
-0.01091301 -0.00942130
0.00040389 0.00707788
0.00249488 -0.00469845
-0.00606863 0.00749038
-0.01674272 0.00054900
0.00282863 0.00908565
-0.00868519 0.01185132
-0.01304650 -0.01092435
-0.01450041 -0.01060100
0.02409329 -0.00388451
-0.00150692 -0.01198749
-0.00447095 -0.00594196
0.01225084 0.00504373
0.01035030 0.00576039
-0.00723672 -0.01579014
0.02822920 -0.01301013
-0.00459565 -0.00239524
-0.00457255 -0.00098558
-0.00343543 -0.01363245
-0.00365843 -0.00363437
-0.01924525 -0.00106316
0.03024866 -0.01244183
0.00355355 0.03164914
0.01478975 -0.00853072
-0.01762291 0.00096485
0.00990471 -0.00871259
0.02545881 -0.00778410
-0.01628047 -0.00332434
-0.01665075 -0.01097165
-0.02329788 -0.02374332
-0.00282924 -0.01612229
0.01109616 0.01420117
-0.00821873 -0.01854628
-0.01683303 0.01665108
-0.01659080 0.02735425
-0.00029294 -0.02802433
-0.00499887 -0.01521481
-0.00023307 0.00784228
0.00451871 -0.01602850
0.00587680 0.03304309
0.00845003 -0.02015080
-0.01426155 -0.02259955
0.00879384 0.00445732
-0.00987935 0.00151335
-0.01241400 -0.02097896
0.00540697 0.00849306
0.00617219 0.02717200
-0.01306471 -0.01184687
-0.00812586 -0.00596904
-0.00974144 0.01658806
-0.01356570 -0.00195864
0.01175052 -0.00436784
0.02123059 0.00687104
-0.01970064 -0.00990120
-0.02124871 -0.00223695
0.02054873 -0.00673989
-0.00646778 -0.01139630
-0.01306785 0.03349495
-0.00205916 -0.01903203
0.00019274 -0.01429743
0.00752984 -0.00011599
-0.02880086 0.00998605
0.00136356 -0.00767143
-0.01720049 -0.02267505
-0.00123487 0.00966869
-0.02163316 0.01371855
0.01555996 -0.00592603
-0.01185758 0.00114386
-0.00984172 -0.00379342
-0.01269767 0.01799515
-0.01383333 -0.00497205
-0.00840725 0.02334374
-0.01262480 0.00789056
0.01101314 -0.00881034
-0.02174623 0.01726693
0.00957507 0.00089469
-0.00685155 0.00389208
0.01196542 0.02053857
-0.01375690 0.00290832
0.00725933 0.00424170
-0.00674297 -0.00934162
-0.03089010 -0.01069653
0.01558695 0.03865877
0.00846338 -0.02113852
-0.00152184 0.00743932
-0.01289529 0.01328034
-0.01948949 0.03492889
-0.00490089 -0.00514160
-0.00621539 0.01102314
0.01497568 0.00577116
0.00310347 -0.00625267
0.00450677 -0.00813360
-0.00988931 0.00282136
0.00299645 -0.00236948
0.00262541 -0.01686189
0.00981850 0.00066681
-0.00609560 -0.00870157
-0.01274573 -0.00548349
-0.00900583 0.00810849
0.00389561 -0.03412895
0.00412738 -0.02084619
-0.01991869 0.02832524
0.01383560 0.03084856
-0.00373410 0.00442580
-0.00402097 -0.00155353
0.00355429 -0.01480872
-0.00479050 -0.01387937
0.00383890 -0.00451728
0.00799983 -0.00677103
-0.00565043 0.00865027
-0.01616167 0.01671630
0.01556410 -0.00587010
0.00204620 0.00056207
0.01219009 -0.02540263
0.01285031 -0.01479511
-0.01781434 -0.01678008
0.00866289 -0.00811573
0.01913192 -0.00310858
-0.00382763 -0.00506529
-0.01155594 -0.00483507
0.00091032 -0.01056214
0.03941513 -0.00681372
-0.00711589 0.00144320
0.01411759 0.02301866
-0.00065851 0.00093888
-0.00990065 0.01969348
-0.00662897 0.00606128
-0.00680154 -0.03023461
0.01997643 -0.00728597
-0.00335275 -0.00749273
-0.01772888 -0.01458755
-0.01793039 0.00059939
-0.01859112 -0.01252517
0.00335926 -0.00913249
0.00822911 -0.00860706
0.00793035 0.01684197
0.01049513 -0.00541652
0.00275394 -0.01621410
-0.00185827 -0.01151757
0.00740292 0.02752795
0.03279283 -0.01369382
0.02088919 -0.00906008
0.01113265 0.00852744
-0.00739590 -0.00468070
-0.00582264 0.01366636
-0.00512442 -0.00637830
-0.01597922 0.00771687
0.00186624 -0.00097128
0.00086222 -0.00597872
0.00263472 0.00031004
0.01531072 0.00297202
-0.01805511 -0.01448821
-0.01479335 -0.01329598
0.01113757 0.01447343
-0.01137266 0.04237938
0.00872697 -0.00623221
0.00324502 0.01218371
-0.00574102 0.00123074
0.01074376 -0.01438698
-0.01610820 0.02824058
0.00583166 -0.00446641
0.02110476 -0.01984535
0.01236948 -0.00681739
-0.00426932 0.01001764
0.00099447 0.00523561
-0.00276470 0.01417178
0.02079127 -0.01151212
0.00209421 -0.00318817
-0.01748155 0.00766545
-0.01267798 0.00636729
0.01818264 -0.00815464
-0.00277942 0.01942160
0.02912227 -0.00780003
-0.01932513 -0.00224879
-0.00161886 0.00161657
-0.00606104 -0.01697021
-0.00847815 0.00939743
0.01790124 0.00262307
0.00469504 0.00657294
-0.01812374 -0.01963415
-0.00614208 -0.00470266
-0.01599793 0.02457097
0.00480839 -0.00506060
0.00800250 -0.02110799
0.00202823 0.00241323
0.00195423 -0.00538274
0.01995167 0.00667053
-0.00711094 -0.01792807
-0.00519347 0.00548167
-0.01779366 0.01469338
-0.01128312 -0.01543476
0.00141695 -0.00478461
0.00807509 0.03109761
-0.00968889 -0.00621546
-0.02277412 -0.02955738
0.00470942 0.03206468
-0.00921385 -0.01420518
-0.01770856 0.03611834
0.01980032 0.00838951
0.00810600 0.01954676
0.01361888 0.00443217
-0.00096050 -0.00026515
-0.00896647 0.00352815
-0.01111414 -0.02329045
-0.01904226 -0.00988810
0.02627854 -0.01910453
-0.00857428 0.00671959
0.01172580 0.02175118
-0.01690212 -0.00530354
0.00989715 0.00692265
0.00829607 0.00371386
-0.00385979 -0.00925785
0.00305102 0.00193511
-0.00244070 -0.01616302
-0.01054775 -0.01080644
0.00529244 -0.00014160
-0.00635331 0.00823869
-0.01664481 -0.00034489
-0.01400161 -0.00763655
0.02280366 -0.00677896
-0.00388522 0.01664996
-0.02152563 0.00865313
-0.00052435 -0.01566780
-0.00536475 -0.01234179
-0.00160187 -0.01275188
0.02466938 -0.01236208
0.02523962 0.01013247
-0.01557563 0.00523413
-0.00955363 -0.00752454
0.02204757 -0.02548125
-0.01141276 -0.01026767
0.02486957 0.01532941
-0.01513425 0.01722951
0.00619234 0.01632868
-0.00073789 0.00009134
0.01565724 0.00976601
-0.01795954 -0.00837433
-0.00799263 0.00936303
-0.00833875 -0.00261524
-0.00897982 0.01193494
-0.01243997 -0.01579757
0.00209094 0.00235232
-0.00862707 0.01241967
0.02010715 -0.00589650
0.02383665 -0.00452158
0.01581102 0.00602509
-0.00857656 0.01977456
0.00058252 0.00212435
0.01276016 -0.02827188
-0.00112797 0.00658022
-0.00698130 -0.00360459
0.01600039 -0.00197628
0.00832988 0.01724663
-0.02465962 -0.00650780
0.00031732 0.00704132
-0.00471277 0.01651364
0.01122289 -0.02367481
0.00210546 -0.03159210
-0.01877711 0.01832026
-0.01466826 -0.01424691
0.00086269 -0.01455381
0.01423472 -0.01652248
0.00840712 0.00183579
-0.01055531 -0.01915755
0.00016611 0.00390942
0.02448853 -0.00731756
-0.01101289 -0.00504573
0.00602367 -0.00039087
-0.00602383 0.00244391
-0.00931547 0.00500498
0.00698780 -0.01531241
-0.00017651 0.00325314
-0.02400741 -0.01490575
-0.00841019 0.03266122
-0.01965030 -0.01798476
0.00026857 -0.00201994
0.00890293 -0.00761449
0.02148191 0.00755273
-0.00447185 -0.02126313
0.00208551 0.01468515
-0.01078445 0.00745594
-0.00462518 -0.00919007
0.02310685 0.00784427
-0.00638549 -0.01046161
0.01600843 -0.01060840
-0.00877226 -0.00540591
-0.00696779 0.00798398
-0.02045023 0.00928217
-0.00541330 0.02059362
0.00704772 0.01103094
0.00548562 0.00553774
-0.00817672 -0.02520833
-0.00655074 -0.02656439
-0.02656080 0.00799234
-0.00549061 0.02875590
-0.02743287 0.00012789
-0.01388929 -0.01091204
0.00053431 -0.00772520
-0.02048979 -0.00772407
0.02795155 -0.00963210
-0.00539016 -0.00448383
0.00063639 -0.00070695
0.00838397 -0.00514697
-0.00478219 0.03681283
0.00001378 -0.00259174
0.00900277 0.00509675
-0.00005235 -0.01729703
0.01696967 -0.00169476
-0.00183797 0.00254060
-0.00928931 0.03278947
-0.00321939 0.00281643
0.01250035 -0.00178016
-0.00588872 -0.01983816
0.00196290 0.00234994
-0.00023863 -0.01446819
-0.00585343 -0.01354359
0.00126514 -0.00550562
-0.01016765 0.01317196
-0.00320052 0.01042981
0.01418095 -0.00694932
-0.00414297 -0.00436805
-0.01096901 -0.00081558
-0.00263531 -0.00417276
-0.01330698 0.00571166
-0.00612485 -0.00118623
0.00347867 -0.00141382
-0.01020555 0.00404045
0.00199432 -0.00767387
0.01608840 0.00243956
0.00155127 -0.00219257
-0.00163301 -0.02570663
-0.00615290 -0.00152552
0.01006040 -0.01764210
0.00282935 0.00563324
0.00193825 -0.00321258
-0.01412380 0.00918871
-0.00301941 -0.01532725
-0.01482799 -0.00221478
0.00873562 -0.00967222
-0.00774996 0.00003816
-0.00323053 -0.00052457
-0.00858820 -0.00632406
0.00563340 -0.01062276
0.00581681 -0.00500598
-0.01736266 -0.01109949
-0.00459104 -0.02207060
-0.00118009 0.00453308
-0.00114908 -0.00963319
-0.00608574 -0.00328774
-0.01622066 -0.00122505
0.02973114 -0.01406155
0.00287571 0.01800986
0.00021497 -0.00252722
0.00243576 0.00896834
-0.00225713 -0.01611984
-0.01483910 -0.00168248
-0.01412769 -0.02549927
-0.00650257 0.03220629
-0.00944774 -0.00390533
-0.00343603 -0.00171583
0.00093666 -0.00019030
-0.00898096 -0.00745217
-0.01061492 0.00849572
0.00554173 0.00805104
0.02566324 -0.00011622
0.02675153 -0.00235667
-0.00165762 0.00067458
0.00599616 -0.00084990
-0.00703607 0.02607124
-0.00037202 -0.01562305
-0.03760023 -0.00861276
0.02227504 -0.01097098
-0.00594937 0.02113980
-0.00611368 -0.00170603
-0.02286528 -0.00787202
-0.00673449 -0.01427639
0.00269663 -0.00447162
0.00499951 0.01544619
0.00415364 0.00291186
-0.01854762 -0.00808211
0.01581564 0.01301342
0.00084319 0.00845169
-0.00579318 -0.00066841
-0.01959566 -0.01820379
-0.00747892 0.00320829
0.00674246 -0.00264646
0.00191301 -0.01974910
-0.00316054 0.01097522
-0.00969534 -0.00623543
0.01300187 0.00128511
-0.00278724 0.00001721
-0.00145500 0.00138002
-0.01056757 0.00269876
-0.00383245 -0.01657937
-0.01136781 0.00008705
0.00831110 -0.00612868
-0.00049425 0.02204270
-0.01323849 -0.00469421
0.00104208 -0.00780760
0.00166070 0.00852196
0.00710351 0.00101311
-0.00454581 -0.01193915
-0.00345914 -0.00004277
0.00203245 -0.00067296
-0.01299645 0.00321301
-0.00685213 0.00292645
0.00361557 -0.00104598
-0.01937703 -0.01282416
-0.00378421 -0.00337905
0.01743033 -0.00308486
-0.00175972 0.00103397
-0.00097369 -0.00748433
-0.00804649 -0.00132084
-0.00542094 0.00477048
0.00188473 -0.01175202
-0.01579081 -0.00671480
0.01014931 -0.01217186
-0.00066817 -0.00611561
-0.00805248 -0.00406962
0.00963637 -0.00041633
-0.00572370 -0.02913151
0.03378560 0.00013709
0.00888305 -0.02163144
0.00011669 -0.01810013
0.02387066 -0.00273631
-0.00071151 -0.00896805
-0.00153435 0.00150746
0.02706806 -0.00146965
0.00617237 0.00377218
0.00057497 -0.01701965
-0.01514245 0.00130484
-0.00087185 0.01862675
0.00267434 0.00194110
-0.00568137 -0.00875812
-0.00708476 -0.01314001
0.00085874 0.01887991
-0.00899404 0.00034446
0.00101247 0.00146506
-0.00203603 0.01209025
0.00174794 -0.00117154
-0.00454422 0.00239986
0.00237817 -0.00830531
-0.00825777 -0.00442834
0.00364722 0.01151560
-0.00323385 0.00916687
-0.00059146 0.00335774
-0.00536491 -0.00334656
-0.01058629 -0.01602121
-0.00206641 0.00132222
0.00709094 0.00043769
0.00199039 -0.00929465
0.00097774 -0.00142197
0.01649045 0.01000421
0.00208494 -0.01934924
-0.00238105 -0.00207736
-0.01785076 -0.00985776
-0.00893036 0.02866470
0.00825146 0.00084235
0.00297654 -0.00559948
-0.00237776 -0.01294378
-0.00337062 0.00337433
-0.00781878 -0.02002600
-0.00438786 -0.00426979
0.00232056 -0.00328610
0.01021583 -0.00737767
-0.00571247 0.01233678
-0.00710287 -0.00268952
0.00639472 0.00431041
-0.00398721 0.00808938
-0.00865912 -0.00609738
-0.00984909 -0.01948834
0.00195514 0.01868292
-0.00145609 -0.00055029
0.01066669 0.00738353
-0.00487004 0.00581575
0.00772621 -0.00505734
-0.00918102 -0.01479723
0.00413350 -0.00189273
0.00095519 -0.00467116
0.00146502 0.00711456
-0.00086242 -0.00031383
0.01270249 0.00109626
-0.00673927 -0.00849445
-0.00611240 -0.01838911
0.00213040 -0.00701617
-0.00679935 -0.00911088
0.00543368 -0.00726840
-0.00029943 -0.00756744
-0.01315737 -0.01649565
-0.00000720 -0.02426544
0.00511732 0.00450795
0.01663182 0.02463668
-0.00416347 -0.00416973
0.00118799 0.00406970
-0.02189081 0.01551928
0.00226597 -0.00541544
0.01913196 -0.00003656
-0.00265971 0.00292603
0.00324223 0.01228031
-0.01270505 -0.00216213
0.00449414 -0.00524415
-0.00474217 0.00091047
0.01059462 -0.00297881
-0.00945971 -0.00169717
-0.00038706 0.00226340
-0.00018456 -0.00685115
-0.01509734 -0.00925937
-0.00537663 -0.00844785
-0.00634337 0.00011098
0.00084040 0.01008298
0.00028879 0.01188757
0.01276467 0.00694042
0.00967014 -0.01091518
-0.00238457 -0.00218082
-0.00608411 -0.00787568
0.00712469 0.00373214
-0.00290285 0.00271191
-0.01274285 -0.00303704
-0.00955891 -0.00775701
-0.00426796 -0.00116667
0.00080345 0.00689688
0.00850601 -0.01208104
-0.00307774 -0.00914930
-0.00362239 -0.00572529
0.00160369 -0.00632631
0.00053953 -0.01495977
0.00742694 0.00245750
0.00339125 0.00762806
0.00156464 -0.00011564
-0.00548689 0.00288183
-0.00898505 0.00880659
0.00504974 -0.00578838
0.00742522 -0.00329096
-0.00320577 -0.01088009
0.00203231 -0.00393666
0.00635154 0.00040296
0.00051859 -0.00817440
-0.00664659 0.02514558
-0.00951837 0.00224458
0.00270708 -0.01288343
-0.00070728 -0.02004076
-0.00619965 -0.00535744
0.00181014 0.00960288
-0.00348542 0.02213108
0.00054431 -0.00718565
0.01888094 0.01597792
0.00091706 -0.00840538
0.04085976 -0.00323084
-0.00740182 0.00147505
-0.00028819 -0.00235319
-0.00498238 0.00058882
-0.01379586 0.00144579
0.00086608 -0.00599782
-0.02575752 -0.00051614
-0.02428289 0.01828081
-0.00352776 -0.00840174
0.03765352 -0.00362735
0.01070365 -0.01281307
-0.00186218 -0.01247091
0.00828498 -0.00609033
-0.01449333 0.01569506
0.00322704 0.00601597
0.01806319 -0.00220010
-0.01138406 -0.00923365
-0.00707555 -0.02546725
-0.00536296 -0.00049240
0.00130335 0.02495579
-0.00372397 -0.01599034
0.00643141 0.00032547
-0.01748121 0.00938560
-0.00009270 -0.01387175
-0.01470125 -0.00112599
-0.01093057 -0.00990706
-0.00298702 0.00681961
-0.01967496 -0.00295776
0.00724761 -0.00319846
-0.00172203 -0.02104366
0.01881317 -0.00112870
-0.00688795 -0.00539910
0.00307782 0.00877589
-0.01797644 -0.00606576
-0.00182340 -0.01156236
-0.00530761 -0.01888535
0.00501711 -0.01534589
-0.01628257 -0.00794360
-0.00146502 -0.00782820
-0.00606187 -0.00368445
-0.01575804 -0.02711153
-0.00057904 -0.00207153
0.00282044 -0.00020394
0.00689039 0.00725322
-0.00788197 -0.01036301
-0.00261423 -0.00002791
0.01318544 0.01095024
0.00049571 0.01916255
-0.02626704 -0.00607024
0.00102333 -0.00778922
-0.00552586 0.01251308
-0.01302724 -0.00264771
0.00404611 -0.01921772
-0.00236864 -0.02002723
0.02676068 0.00011465
0.00157187 0.01033779
-0.00694617 -0.00140962
-0.00685831 -0.00643470
0.00610190 0.00942424
-0.00615886 -0.00144798
-0.02511705 -0.00107694
-0.00050149 0.01540283
-0.00833339 0.01635798
0.00041385 -0.00045227
0.00236491 0.01127697
-0.00343992 -0.01781687
-0.01682123 -0.00389516
-0.01357231 0.00487746
-0.00310142 0.01644685
0.00849000 -0.00178427
-0.00451278 0.01201924
-0.00658561 0.01205112
-0.02334634 0.00253391
0.00695255 -0.00349961
0.00145904 -0.01323943
0.00590651 -0.00302735
-0.00238240 0.02347997
0.00559647 -0.00224957
-0.00667938 -0.00098269
0.01500058 0.01208339
-0.00197105 -0.00348311
0.01218341 0.00137096
-0.00331734 0.02484752
-0.00330394 0.00194494
0.00909140 -0.00424791
0.00687372 -0.00098160
0.00064815 -0.00788413
-0.01829074 -0.00398255
-0.00712756 -0.00188920
-0.00585289 -0.01993074
0.00821246 -0.00313672
-0.01272064 0.00901374
-0.00041111 -0.00608996
-0.00626758 -0.00652013
-0.01046874 0.01609778
0.01229643 -0.01530116
0.02940754 0.00470286
-0.02475917 -0.01315908
-0.00868334 -0.02159076
-0.01190513 -0.00137924
0.00931052 -0.01437570
-0.00110336 0.01176740
-0.02098675 -0.00556640
-0.01482704 0.02785779
-0.00583675 -0.01395072
-0.02840166 0.00132730
-0.00190557 0.01184271
-0.00224680 0.00162217
-0.00064845 -0.00390373
-0.01044058 0.00168897
0.00562988 -0.00239460
-0.00491016 -0.00463970
-0.00870461 -0.02431561
-0.00123786 0.00514674
0.01049024 0.00065670
0.00269426 -0.01176567
-0.00409217 -0.01968545
0.02303878 -0.00710733
0.00946652 0.00908857
-0.00075296 0.00027376
-0.00985601 -0.00405889
0.00777625 0.00540094
-0.00156590 0.00137745
0.00641339 0.00161438
0.00193130 -0.00602589
-0.00199893 -0.01018034
-0.00267771 -0.00309468
0.01252829 0.02282583
0.00178479 0.00895146
-0.00485457 -0.00608570
-0.00619710 -0.01284497
-0.00164584 -0.02913154
-0.00376528 -0.00116514
-0.00603293 0.00234718
-0.00733762 0.00923316
0.01727943 -0.00432602
0.00201704 -0.01985072
0.00207330 0.00962211
0.00806193 -0.00436401
0.00291772 0.00530176
-0.00112801 -0.00538874
0.00569833 -0.00245245
-0.01911166 -0.00216715
-0.01026972 -0.00576644
0.01279541 -0.01150292
0.01853931 -0.01039818
0.00409543 -0.00316119
0.00206883 -0.00304889
0.01202701 -0.00779270
0.00177837 0.00702765
-0.00411705 -0.00067015
-0.00700885 -0.00230208
-0.00296541 0.00308197
-0.00828062 -0.00122091
0.02041104 0.00436272
-0.00000811 0.01452894
-0.00965039 -0.00499347
-0.01994994 0.02275986
0.00371987 0.00750467
0.00467103 -0.00128176
0.00285706 0.00640676
-0.00514351 0.00678127
-0.02278947 -0.00679493
0.00285309 -0.00059089
-0.00454696 -0.00265688
0.01154754 -0.00478969
0.01192901 -0.00833953
-0.00420332 -0.00224077
-0.02493715 0.00002376
0.00196922 0.00713758
-0.00749263 0.00246642
-0.01622782 0.00235954
-0.00264856 -0.02728119
-0.00193918 0.00467093
0.02446589 -0.00598941
-0.00871180 -0.00404752
0.00138544 0.00274787
-0.00170330 -0.00154501
0.00781711 0.01996192
-0.00513152 0.01746530
-0.00581904 -0.00349095
-0.01327119 0.00147877
-0.00514561 -0.00460865
-0.01310590 -0.00790134
-0.01963456 -0.00438199
-0.00190525 -0.01285349
-0.01057967 -0.00584436
0.01652910 0.00649452
-0.00962182 -0.00566821
-0.01383096 0.00014673
-0.02303823 0.00074931
-0.00152792 0.00065315
-0.00574583 -0.00471288
-0.01199152 0.00277190
-0.01130934 -0.00652089
-0.00377325 -0.00373027
0.02246369 -0.01542184
-0.00892859 -0.03379056
-0.00983588 -0.00389724
-0.02542922 0.02203536
-0.00089394 0.00132246
-0.01290935 -0.01597409
-0.01981808 -0.02935890
-0.00676745 0.01732405
0.00640931 -0.00198351
0.01853505 0.00037638
-0.00796367 -0.00263241
-0.00783035 -0.00132022
0.00060495 0.01613983
-0.00322924 0.01126445
0.01129046 -0.00492922
-0.02486367 -0.01106614
0.00228309 -0.01440386
-0.00098826 -0.00420629
0.00314676 -0.00298492
-0.00664804 -0.01192611
0.00156576 -0.00208462
0.00298484 -0.01254881
-0.00516951 0.01251854
0.00137448 -0.01015503
0.00118088 -0.01919982
-0.01006821 -0.01015046
-0.00885640 -0.00103638
0.00857213 -0.00001206
-0.00519140 -0.02502025
-0.01229463 -0.00050160
-0.00133057 0.01412787
0.00134776 0.01388917
0.00243326 -0.01125499
-0.01420763 0.00049077
-0.01013867 0.00015675
-0.01142209 -0.00154617
-0.00429476 -0.00258505
-0.00100439 0.00037985
0.00078635 -0.00510080
-0.00588007 0.00203050
0.00066533 -0.01702075
-0.01180292 -0.00178942
0.01490979 0.00540824
-0.00155323 0.00039899
-0.02584103 0.00143827
-0.01028502 -0.02219197
-0.00945942 -0.00464478
-0.02771047 -0.00664476
0.01628844 -0.00150452
-0.00129919 -0.00973348
-0.00023291 -0.00798264
-0.02875822 -0.00082321
-0.00044318 0.02110034
0.00763676 -0.00531059
0.00687551 -0.00506024
-0.00742129 0.00186415
-0.00733277 -0.00579837
-0.00526675 -0.00308833
0.00181211 -0.01845956
-0.00914367 -0.00760404
-0.02429139 0.00877748
-0.01044394 -0.02969495
0.00421450 -0.00384058
0.01447250 0.01142219
-0.00889901 -0.03242731
0.00545008 -0.00018390
0.00364629 -0.00825432
0.00169065 -0.01812582
0.00288795 -0.00707233
-0.00368503 0.00735497
-0.00809191 -0.00941253
-0.00486043 -0.00803391
-0.01253397 -0.00782281
-0.01235645 -0.02290243
0.00880502 -0.00703587
-0.01300021 0.00017307
-0.00096058 -0.00022211
0.00052977 -0.00351872
0.00042726 0.00391730
-0.00472400 0.00203708
-0.00589228 0.00127668
0.01958057 0.00829766
-0.00431936 -0.00355240
-0.02676034 -0.00639327
-0.01124268 -0.02075963
-0.00697745 -0.01712587
0.03329574 -0.01033009
-0.01421307 0.00221664
-0.00294167 -0.00073095
0.00857711 -0.00490293
-0.01237224 -0.01686770
-0.00430116 0.02060502
-0.00016033 -0.00682983
-0.00221597 -0.00791552
-0.00061598 -0.01336140
-0.00594001 -0.00394971
0.00103797 -0.00448206
-0.00388926 0.00952699
-0.01236418 0.00081157
0.00229840 -0.00927605
-0.00720927 -0.01719498
0.00487910 -0.00902675
0.00001862 -0.01348695
-0.00267235 0.00804871
-0.00981461 -0.00771486
0.00607018 0.00711917
-0.00516006 0.00106959
-0.00900856 -0.00307461
0.00440734 -0.00677472
-0.00729278 -0.01152544
0.00097077 -0.00627460
0.00534088 -0.01448862
-0.00343045 0.01170591
0.00059885 -0.00519201
0.00476210 -0.00405121
-0.00139503 0.00801089
-0.00401843 -0.00055038
0.01719375 0.01050812
-0.00710817 -0.01799096
0.00055367 -0.00311149
0.01054348 0.00065331
0.00014157 -0.00466396
0.00674255 -0.00690039
0.01925300 -0.00528234
-0.00580185 -0.01539896
0.00876321 -0.00550813
0.01709010 0.00385938
-0.00969823 0.02524306
-0.00249711 0.00106200
-0.01714564 -0.00660474
-0.00056605 -0.03105839
-0.00888659 -0.00591972
0.01532682 -0.00150732
-0.00284879 -0.01355812
-0.01128184 0.00025605
-0.00223844 0.00226962
-0.00869032 -0.01340477
0.01215778 -0.01106114
-0.01399243 -0.01197257
-0.00503253 -0.00199084
0.00136157 -0.00425467
-0.00336671 -0.00890082
0.00185217 -0.00235398
0.00464177 -0.00300965
-0.00174282 -0.00221230
-0.01213424 0.00716773
-0.02273431 -0.00616453
-0.00982191 0.00246974
-0.00449234 0.00087745
-0.00273951 -0.00307929
0.02233002 0.01699323
-0.00219756 -0.01116720
0.01461493 -0.00371372
0.00855788 -0.00531137
-0.00901660 -0.00802142
0.00995725 -0.00795462
-0.01103587 0.01005555
-0.00547935 -0.00606603
-0.00995150 -0.00429481
-0.01541438 -0.00511554
-0.00745782 0.00577130
-0.02394425 0.00193227
-0.01185206 0.01249979
-0.00303671 -0.00385112
0.01920843 -0.00670785
-0.01462485 -0.00438875
-0.00344703 0.00927822
-0.00418739 -0.01087995
-0.01011101 -0.01678943
-0.00447864 -0.00203288
0.01578172 -0.00165813
0.00322896 -0.02010595
-0.00534990 -0.01570494
-0.01313597 -0.00889982
-0.02872911 0.00082874
-0.00495394 -0.03364738
-0.01489971 -0.00798600
0.00380069 -0.00479946
-0.00510259 0.00975055
-0.01869821 -0.00114019
0.01128398 0.00355944
-0.00878381 -0.02909236
-0.00795400 -0.00575198
-0.01132691 -0.01259919
-0.00497451 0.02046746
-0.00135442 -0.00712203
0.03696880 -0.01424144
0.00210198 -0.00518984
-0.00527563 -0.00268432
0.00838606 0.00041400
-0.00683629 -0.01909673
0.00632084 -0.00721073
-0.01930862 -0.01376050
0.00379814 -0.00795977
0.01323029 -0.00483702
-0.01169081 0.00465188
-0.00431114 -0.01187987
0.00682417 -0.00440550
-0.00160374 0.00244689
-0.00793893 0.00063038
-0.00423066 -0.00374405
0.00216322 -0.00281297
-0.00198215 -0.00640063
-0.00116464 -0.00661562
-0.00195060 -0.01167368
-0.00837072 0.00277105
-0.01104658 -0.00415882
-0.00536914 0.01068641
-0.00670890 -0.01323273
-0.01930901 -0.00162379
0.00521022 0.00284276
-0.00668024 -0.02422459
-0.01678924 -0.00342983
-0.00133793 0.01145401
-0.00633301 0.00626715
-0.02570369 -0.00463152
0.00705470 -0.00042034
-0.00464103 -0.01257832
0.00348726 -0.00210285
0.03881507 -0.00242638
-0.00053809 0.03111831
0.01440983 -0.00954878
0.00284477 -0.00450372
0.00147487 -0.00813747
0.00302974 -0.00179214
0.00456917 0.01237770
-0.00788121 -0.00102730
-0.00744801 0.00260914
-0.01155329 0.00230655
-0.00080443 0.00411981
-0.00553538 -0.00858468
-0.01431889 -0.00229891
-0.01345261 0.00302505
0.00751830 -0.00235011
0.00470549 -0.00367074
-0.00673302 -0.02202809
-0.00886610 -0.00764670
0.00862639 0.00236545
-0.00386053 0.01719937
-0.00768567 -0.00666788
-0.02731862 -0.00772430
-0.00027992 -0.00654504
0.00096434 -0.00360732
-0.00540726 -0.00812530
-0.00097689 0.00936403
0.00371480 -0.00667660
0.02266794 -0.00731335
-0.00464308 0.02022357
0.01409618 -0.00834183
-0.00853093 -0.02343302
-0.00270343 -0.00800064
-0.01988907 -0.00056518
-0.00351437 -0.01227463
-0.00709984 -0.01945497
0.01832158 -0.00553332
-0.00652916 0.01101408
-0.00351101 0.00878561
-0.02000513 -0.00652670
-0.03569433 0.00111110
-0.01341642 -0.02689507
-0.00880941 -0.00709683
-0.00133613 -0.01609459
-0.00772272 -0.02602199
-0.01041530 -0.01007487
-0.00547015 -0.00323670
-0.00211292 0.00022093
0.00921857 -0.00475736
-0.00526196 -0.00229891
-0.00630397 -0.03525967
0.00191440 -0.00679393
-0.00664071 -0.00756277
-0.00786029 -0.00815069
-0.01643275 -0.01579550
-0.03081392 -0.00593318
-0.00427065 0.00713687
-0.01392172 -0.00624355
0.01029446 -0.02164824
-0.00185376 0.00594182
0.00541314 -0.00667658
-0.01136946 0.00253126
-0.00206374 -0.02154229
0.00182532 -0.00307786
-0.01872738 -0.02649602
-0.00394039 0.01090595
-0.00774204 -0.00646452
-0.00004400 -0.01841207
-0.00087577 0.02777662
0.03034754 -0.00363313
0.01968577 -0.01787728
-0.00597774 -0.02849367
-0.01185901 -0.01355306
0.01663546 -0.01201929
-0.00070849 -0.01553154
-0.00853795 -0.00525345
0.01785850 -0.00465407
-0.00778416 -0.00502111
-0.00489497 -0.00025819
-0.01671702 -0.02768725
-0.00689250 0.00911452
-0.01569207 -0.00397130
-0.01835668 0.00494881
-0.00130417 -0.03424655
-0.00214786 -0.00555141
0.00911746 -0.00602028
-0.00678990 0.00128001
0.01692578 -0.00388118
-0.01705540 0.01583671
-0.00868118 0.01213498
0.00053352 0.00358714
0.01811725 0.03209527
-0.00592380 0.00305487
0.00244464 -0.00510577
-0.00570214 0.00310642
-0.00124963 -0.02730511
-0.01299079 -0.00394593
-0.00518530 -0.00874585
-0.00598349 -0.00336935
-0.00573781 -0.00222625
0.00157307 0.00984869
-0.00817566 -0.02298266
-0.00358483 -0.00499289
-0.01595991 0.00273444
-0.00600332 -0.01160431
0.00127428 -0.00690024
-0.00453467 -0.00796838
-0.00367863 -0.00716872
0.00123533 0.00015688
0.01269221 -0.00076163
-0.00353344 -0.00646944
0.00986725 -0.00263044
0.02899383 -0.00655602
0.00065064 -0.01345638
-0.00505992 0.00125271
0.00552733 -0.01303220
-0.00816572 0.01408209
-0.01655348 -0.00938753
-0.00682341 0.00755219
-0.00331482 -0.00449725
-0.00321974 -0.00948491
-0.01740525 0.02553947
-0.00661721 -0.00449763
-0.02366738 -0.00221903
0.01154358 -0.00645480
-0.00517499 -0.00837239
-0.01314913 -0.00775132
-0.02299100 -0.01348246
-0.00517610 0.00019718
0.01386708 -0.00621558
-0.04211466 -0.01990025
-0.00747419 -0.01666291
-0.01999958 -0.00474521
0.00363459 -0.00370723
-0.00241695 0.00502393
-0.00273294 -0.00423061
0.00561091 -0.02457052
-0.00395307 -0.01239923
-0.01311766 -0.00534398
-0.00957482 0.00020785
-0.01109743 -0.01669511
0.00155791 -0.00136148
-0.01581241 -0.00511879
-0.00997528 -0.01344898
-0.01239073 -0.01057567
-0.00573987 0.01304727
-0.00459906 0.02152401
-0.00282537 -0.00983216
0.00430449 -0.00296741
-0.01047283 -0.03741391
0.01491077 -0.00325369
-0.01823924 -0.00664167
-0.00563856 0.05239421
-0.01575697 -0.00301544
-0.00773004 -0.01495396
-0.00419704 0.00046516
-0.00008037 -0.00516562
-0.00672986 0.01049914
-0.00337036 0.00823803
-0.01008137 0.00235568
-0.00015510 -0.00557210
-0.01963241 -0.02212637
-0.00517530 -0.01594904
0.03166270 -0.01147735
-0.00243197 0.01940932
-0.01704453 -0.00590803
-0.02020893 0.00817216
-0.00046513 -0.01316164
0.00737431 -0.00357023
0.00190444 0.00129069
-0.00299066 0.00379509
0.00313183 -0.00317673
-0.03217101 -0.00288057
-0.00594934 -0.01110904
-0.00388455 -0.00565679
0.01745811 0.00932418
-0.00481998 -0.00267973
-0.00949673 0.00151926
-0.01046856 -0.00321529
-0.00823985 -0.01846825
0.00140965 -0.00877202
-0.00764053 -0.02858932
-0.00103074 -0.01807199
-0.00051923 -0.00898766
-0.03316004 0.00182015
-0.00419290 -0.01354324
0.00069961 -0.00759981
0.01774228 0.01971588
-0.00084690 0.00669852
-0.00074129 0.00501158
-0.00481068 -0.02134681
-0.00171527 0.00476201
-0.00165728 -0.00899562
-0.00742182 -0.00512479
-0.00245088 0.00516436
-0.00475655 -0.00374729
-0.00225985 0.00314882
0.00795775 -0.00438767
0.00721272 -0.00200092
-0.01106615 -0.00189465
-0.00871066 0.00423959
-0.00307675 -0.00976185
-0.00457278 0.00149964
-0.01207340 -0.00198048
-0.00939216 -0.00430506
-0.00725887 -0.00498719
0.00259507 0.00975496
0.01229100 0.00047135
-0.00142816 0.01661888
-0.00409777 -0.00173078
-0.01157390 -0.00429151
-0.00728231 0.00812849
0.00716098 -0.02202310
0.01628175 -0.01899797
0.00837530 -0.00304642
0.00334079 -0.00630813
-0.00358476 0.01075944
0.00372307 0.00298289
-0.01311474 0.01441752
0.01121499 -0.00352049
-0.00425833 -0.00876129
0.00547966 -0.01315510
0.00061996 -0.00651826
0.00897450 0.00988662
0.00632487 -0.01391108
-0.01920114 0.01159877
0.00142422 0.00802155
-0.00973192 0.01207403
-0.00432941 -0.01077610
-0.00473109 -0.02062669
-0.00933175 0.01128784
-0.01311532 0.00151887
-0.00037382 0.00023835
-0.00273961 -0.00538159
-0.01332824 0.01363506
0.00700302 0.00323698
0.00733792 -0.01172880
0.00596231 -0.00611671
-0.00492715 0.00973241
0.01831097 -0.00878375
0.00041912 -0.00989678
0.00654697 0.02491620
-0.00707966 -0.00629957
-0.00358747 -0.00179191
0.00233880 0.00140128
-0.00314267 -0.00143159
0.00047946 -0.00554690
-0.00630877 -0.00418848
-0.00823476 0.01200389
0.00820640 -0.01107267
-0.00370167 -0.01415257
-0.00440146 -0.00784793
0.00511138 -0.01239183
0.00333509 0.01724312
0.00240536 -0.01583069
0.00918612 -0.00602612
-0.00212730 0.00330910
-0.00309773 -0.00538936
-0.00029795 0.00388769
0.00158880 0.00221883
-0.00895721 -0.00108761
-0.01400691 0.00338735
-0.00228187 0.01270855
0.01160711 0.00172772
-0.00505475 0.01498298
-0.01628572 0.00738956
-0.01032071 0.00043287
0.01138419 0.00731790
-0.01419516 -0.01105738
-0.00285390 0.02055407
-0.01086312 -0.00899032
0.00513816 -0.00413518
-0.01084510 -0.01288436
-0.00355056 -0.02131474
-0.00709154 0.00364647
0.00335431 -0.00409043
0.00206890 0.00672400
0.00852491 -0.01338776
0.00943086 -0.00059525
0.00286105 0.00778102
-0.01457641 -0.00416232
0.00821327 -0.00819987
0.02357361 -0.00639853
0.00378445 -0.00663235
0.00928349 -0.00098327
-0.01719820 0.00714182
0.01276252 0.00817945
-0.00853317 -0.00155416
-0.01439377 0.00118189
-0.00990765 -0.00773535
0.00056854 0.00116574
0.01685840 -0.00089110
-0.01431337 -0.01097679
0.00701064 -0.01846826
-0.00939277 0.00567666
-0.01490007 -0.00436311
0.01161699 -0.02643603
-0.00850252 -0.01007724
0.03580010 0.00621840
0.00973256 0.01456603
0.00553497 0.00283441
0.01098690 0.00724489
-0.00006173 -0.00128376
-0.00875583 -0.00046482
0.00342599 0.00704362
0.00218915 -0.01285081
-0.00268381 0.00130970
-0.01501353 -0.01588189
-0.00347888 0.01250292
0.00764905 -0.00047836
-0.00685361 0.00535400
0.00250873 0.00454917
-0.01000277 -0.00086787
-0.00099758 0.00359122
-0.00143021 0.00344427
0.01475754 -0.00353015
-0.01665999 0.00359452
0.00329917 0.00765247
-0.00186006 0.00275852
0.01041758 -0.00161767
-0.00667742 -0.01188022
-0.01263370 0.00734837
0.01998560 0.01141418
-0.00976110 -0.00992671
-0.00100541 -0.00049862
-0.00036526 0.01800272
-0.01688143 0.00227702
-0.00442076 0.00110119
-0.01313090 -0.00623549
-0.01073169 -0.01065423
0.00242038 0.00574156
-0.02464683 0.00347839
-0.00281430 0.02146038
-0.01037132 -0.00087517
-0.00929123 -0.01193000
-0.00412572 0.01117787
0.00698054 -0.01751126
-0.00508542 -0.01138895
-0.00823034 -0.02047805
0.00107983 0.00097527
0.00641919 -0.01711913
-0.00719932 0.00006154
0.01286381 -0.00710725
-0.00755477 0.01001467
-0.00250650 0.00390296
-0.00481906 -0.00714268
-0.00187924 0.00076340
0.00082464 0.02612127
-0.01491436 -0.00548992
0.00034103 0.00243307
0.00372967 -0.01058761
0.00212022 0.00017240
0.00606999 0.00155396
0.00964436 -0.00669622
-0.00064672 -0.00120345
-0.01453321 -0.01850564
0.00872314 0.01419376
-0.00442811 0.00482457
0.00471807 0.01259118
0.01268951 -0.01032294
-0.00476404 0.00705175
0.00182186 0.01455255
0.00145724 -0.00868133
0.01329196 -0.00414373
-0.00609611 -0.02338676
0.00242684 0.00805410
-0.00936367 0.00657171
0.01339582 -0.00258918
-0.01017858 -0.00494737
-0.00755083 -0.00002303
0.00147981 0.00315745
-0.00251528 -0.02427480
0.01395792 0.01153844
0.00077544 -0.00375050
-0.00975946 0.01135644
0.01679562 0.01073243
-0.00633015 -0.00866788
0.00379166 -0.00955165
-0.00415374 0.00237995
0.01906126 -0.00451889
0.00924835 -0.01607491
-0.00133733 -0.00746731
0.00204387 -0.00327726
0.01430502 -0.00438295
0.01132360 0.00415458
0.00733947 -0.00372648
-0.00273820 -0.00752554
-0.00494114 0.00024602
0.02405047 -0.00088215
-0.01136377 0.00023946
0.00988216 -0.00711380
-0.01431338 -0.01819907
0.00039618 0.00719085
-0.02415201 -0.00422025
-0.01893066 0.02170013
-0.00050811 0.00755808
0.01378976 -0.01269759
0.00588786 -0.01189287
0.00969635 -0.03106150
0.01189837 0.00454729
-0.01343524 -0.01494523
-0.00500963 0.00502984
0.00975656 -0.02194041
-0.02030762 0.00492405
-0.00504191 0.01582607
0.00997679 -0.01871720
0.00449781 -0.00444716
-0.00204872 -0.00578004
-0.00023648 -0.00345904
0.01292863 -0.00066502
-0.01401489 -0.00019926
0.00479061 -0.00144628
-0.00611751 0.00842806
-0.00498106 -0.01092614
0.00614514 0.00333259
-0.00147044 0.01019080
0.01283947 0.00487673
-0.02085566 -0.00546720
-0.00475632 0.00640427
-0.00202167 0.01416470
-0.02547884 0.01824970
-0.00098021 0.01731649
-0.00264706 -0.03131628
0.00464515 -0.00400564
0.00164441 -0.02080925
-0.00542414 -0.01623632
-0.00365781 -0.00181767
-0.01413783 0.00186155
-0.01551542 0.00368837
-0.00468865 -0.00929898
-0.00655171 -0.01810740
-0.01498512 -0.00700760
0.00699204 -0.00805255
-0.00845695 -0.02423769
-0.00844734 -0.01384435
0.00859727 0.00168708
0.00511229 0.01008516
-0.00525034 0.00154250
-0.00529569 -0.00652377
0.00748908 -0.00054490
0.00600157 -0.01240636
0.02425081 -0.00059790
-0.01124158 -0.00033896
0.00482537 0.00044532
-0.00254476 -0.00533372
-0.00647272 -0.00567911
-0.00561839 -0.02326045
-0.01142208 -0.00408988
-0.01659119 -0.00220352
-0.00372497 0.00701290
0.00210336 0.00842601
-0.00330257 0.00279211
0.02003354 -0.00139448
-0.00617229 -0.00747694
-0.01682703 -0.00356839
-0.00342463 0.00617877
0.00800963 -0.01173976
0.00389421 -0.01153225
0.00165575 0.01127175
0.00904180 0.00226098
-0.00759332 0.00813320
-0.00742096 0.00132080
0.00922274 0.00568972
-0.01431663 0.00792027
0.01717766 -0.00627726
0.00047801 -0.00399318
0.00981168 -0.00994737
0.00153165 0.00055444
0.00764573 -0.01084597
-0.00104069 -0.00375862
-0.01195030 0.01160979
-0.00849490 -0.00703944
-0.00066524 0.00206485
0.01749435 0.00581805
-0.01188176 -0.00467426
-0.00117349 -0.00125457
-0.00085202 0.02209960
-0.00001646 -0.00455187
0.00050665 0.02389506
0.01530349 0.01524406
0.01711780 -0.00126920
0.00742665 0.00205120
-0.00133594 -0.00332626
-0.01816752 -0.00800846
0.00069121 0.00196193
-0.00367037 -0.01107498
-0.00579002 0.00046277
0.00846028 -0.00695142
-0.01279598 0.00107700
0.00321641 -0.01414576
-0.01981113 -0.01166245
-0.01006692 -0.00902784
-0.01198241 0.01765952
-0.01027202 -0.00926296
-0.00107670 0.02425000
-0.00174975 -0.00408052
-0.00659449 -0.01219067
0.00611101 -0.02073363
0.00050070 0.00035705
-0.02026806 -0.00118077
-0.00955905 -0.00362715
0.00780005 -0.01017646
-0.01252599 -0.00933785
-0.00839245 -0.00618200
0.00472537 0.00731363
0.00498071 0.02901156
0.00077640 -0.00784913
0.00130145 0.00244399
-0.00305682 -0.02153980
-0.00300200 0.01305638
-0.00725190 0.01023275
0.00186745 -0.00505466
-0.00554741 0.01030269
-0.00517044 -0.01436798
0.00636246 0.01261247
0.00141121 0.00692151
-0.00487909 -0.00496933
-0.00920089 -0.01265961
0.00467797 -0.00646318
-0.00335377 0.00532510
0.01160163 -0.01916371
0.00273400 0.00074153
-0.00679722 -0.01486701
-0.00213958 -0.01326829
-0.00976814 -0.00114471
0.00168922 -0.00831592
-0.01723817 -0.00916571
-0.00057492 0.00257982
-0.01002995 -0.00089820
0.01472415 0.00309167
-0.01945390 0.01018088
-0.00955304 0.00377626
-0.00849298 -0.00108220
-0.01409330 -0.00594694
-0.01111684 -0.00410728
-0.00798277 -0.00500562
0.00832617 -0.00199310
-0.01340037 -0.00824123
-0.00520683 0.01704875
-0.01252824 -0.00321085
-0.01564831 0.01111122
-0.01364448 -0.02421440
-0.00700005 0.01623697
-0.02247779 -0.01109143
-0.00233416 -0.00660745
0.00316271 -0.00261286
0.02233254 0.00056740
0.01914092 -0.00935945
-0.01167565 -0.00122414
-0.00489801 0.00392261
0.00504899 0.01411962
-0.02242838 -0.00711796
-0.01114731 0.00437763
0.03093431 0.01255785
0.00033958 0.00053766
-0.00340448 0.00048443
-0.00664398 -0.00830932
0.02581378 -0.00712951
0.02480000 -0.01523582
-0.00628458 0.00770295
-0.01232698 0.01201488
0.00665535 0.01503225
-0.00508347 0.02483651
0.00696854 -0.00807516
0.02256707 0.00064601
0.00687627 -0.00909720
-0.01037025 0.00465618
-0.00517936 -0.00260503
-0.01900329 -0.00397126
-0.00689429 -0.00468970
0.00617494 0.00380163
-0.00714656 -0.00874073
0.01534694 -0.00495756
0.00041514 0.00003086
-0.01484506 0.01261189
-0.01143681 -0.00437848
0.00564315 0.00211102
0.00472166 0.00239094
-0.00009797 -0.00874923
0.01076310 0.00826657
-0.00871487 0.00896237
-0.00644879 -0.00069752
-0.00311650 -0.00473413
0.00730595 -0.00964698
0.00368499 0.01964596
0.00786783 -0.00250619
-0.02137174 -0.00348928
0.00584715 -0.01487041
0.01157998 0.00153336
0.00448819 0.00805938
-0.00025143 0.01653610
-0.01486157 -0.00913813
-0.01657021 -0.00871843
0.00381536 -0.00738571
-0.00864708 -0.00365072
-0.00407007 -0.00325367
-0.00837384 -0.01019656
-0.00974423 0.00486279
-0.00480779 0.01144872
-0.01154474 -0.00723480
-0.00360340 0.00595402
-0.00040657 -0.01917747
0.00638737 0.00168697
-0.01307809 0.00722261
0.01985171 0.00534095
0.00392357 0.00318183
0.00303188 0.00421202
0.00250615 -0.01099362
-0.00029753 -0.00528805
0.01551335 -0.00541429
-0.00947222 -0.01909967
-0.00251009 -0.01328524
-0.00232045 0.01093572
0.01531593 0.00162211
0.00797204 -0.00139450
-0.00464521 -0.01329317
0.00178536 -0.00467543
0.00336044 0.00180667
-0.00800745 -0.01200201
0.00312521 0.01684528
0.00856530 -0.02102632
0.00075201 -0.00014896
-0.00442597 0.00279092
0.00350521 0.00634129
0.00416278 0.00874363
-0.01521030 -0.00551201
-0.00808308 0.02363860
0.01804077 -0.00019418
