-0.01642278 -0.00616871
0.00684398 -0.00482124
-0.00600351 0.02977025
0.02379158 0.01034363
-0.00930868 -0.00151410
-0.01176535 0.00167138
-0.00941189 0.00196185
0.00766515 -0.00283767
0.00225423 -0.00376440
0.01696430 -0.01056129
-0.01792717 0.02119317
-0.02195709 -0.02152261
-0.00391860 -0.00564468
0.02329449 -0.00555377
0.00054372 -0.00922400
-0.00058115 0.01843436
0.00771117 -0.00473085
-0.02889907 0.01484587
0.01011935 -0.00723816
-0.00843171 0.02340327
0.00260077 -0.01893440
0.00614486 -0.00990287
0.00180277 -0.01333216
-0.01653035 -0.00340142
-0.02666330 -0.02087316
0.03135493 0.01428064
0.03422551 0.01359556
-0.00246977 -0.02026452
-0.00265127 0.01052796
0.01081128 0.01680177
0.00408518 -0.00107778
-0.00644516 -0.00453895
0.01341418 0.01313794
-0.01361381 0.01183491
0.03346557 -0.00218384
-0.00656527 -0.00462227
0.00926333 -0.01601751
-0.00977374 -0.00472861
0.01310480 0.00846445
-0.00552783 0.02477566
-0.00547389 -0.00894199
-0.00421526 -0.00808701
0.00538937 0.00839098
-0.01022582 0.00686871
0.00143450 -0.00919061
-0.00066948 -0.01029309
0.01471241 -0.01545427
-0.00076856 0.01080888
0.01018052 0.00786338
-0.00322556 0.00438571
-0.00449111 -0.01326707
-0.00785556 0.00382162
0.00795380 0.01239063
0.01017720 -0.00968406
0.00722467 -0.01323757
-0.00521832 -0.00344955
-0.00160967 0.00488302
0.02853779 0.00906380
0.00059437 0.00542090
0.00787529 0.00863844
-0.01237261 0.01002495
0.02460188 -0.00222331
-0.00024574 -0.01139833
-0.00082281 -0.01530041
-0.01351310 0.00262099
-0.00928370 -0.00251143
0.00639718 0.00150058
0.00513649 -0.00570968
-0.00881147 -0.00460882
-0.00132102 -0.02436428
0.00094880 0.01627863
0.02034684 -0.00043897
0.00902261 -0.01101586
0.00638074 0.00012935
-0.00541973 -0.01697712
-0.01085601 -0.00850639
-0.01163225 -0.00424668
0.00910342 0.01235297
-0.00938054 -0.00640592
-0.00080756 -0.00506887
-0.00492886 -0.00243529
0.01060235 0.01634332
-0.00775443 0.00846284
-0.00966452 -0.00867753
-0.02101650 -0.00783238
-0.02381719 0.00043277
0.00493117 -0.00879471
-0.00847084 0.00636565
0.00933780 0.01405024
0.00402127 -0.01002711
-0.01563623 -0.00798094
0.00699448 -0.00140360
0.01909654 -0.00104505
0.01043168 -0.01795233
0.01613823 -0.00993782
-0.01003120 0.00325111
0.00262557 -0.00397780
0.00722393 0.01488858
0.00824521 0.00899774
0.01077137 -0.01163436
0.00466703 -0.01612167
-0.01109465 0.02138750
0.01734899 0.02285563
-0.01166534 0.00386681
0.02507493 0.00729869
0.00988066 0.01192002
0.00138199 -0.00054773
-0.02783882 -0.00731128
-0.00441816 -0.00131930
-0.00346516 -0.00693233
-0.01118188 -0.00929781
0.00442865 0.01303011
0.00724585 -0.01566412
0.00145529 0.00469984
-0.00020624 0.02904788
-0.00581205 0.00526727
-0.03524814 0.00183243
0.01370586 0.00572337
0.00199666 -0.00618218
-0.02089480 -0.01848121
0.01078498 0.02158507
0.00232173 0.00055793
-0.00576848 -0.00874961
0.00959489 -0.00344841
0.00657351 0.00504904
-0.00048421 -0.00796906
0.00777144 -0.01014578
0.00307177 0.00432277
0.00383275 -0.01301925
-0.00915454 0.00095465
-0.00727207 -0.00582437
0.00811005 -0.00617897
0.00427005 -0.00749077
-0.01348470 -0.00004043
-0.01220392 0.00066327
-0.00796375 -0.01630095
-0.00522257 -0.00032038
0.00082249 0.00000429
-0.01176744 0.02470900
0.01955611 -0.00745423
-0.00578626 0.00886401
0.00736457 0.01828269
-0.01074757 -0.00645923
-0.01829699 0.00383554
-0.00636911 0.00109092
0.01059334 0.01044882
-0.01472641 -0.01032476
0.01407014 0.01612673
-0.00827637 0.00815274
-0.00257756 -0.00680292
-0.00911912 -0.00527942
-0.00395254 -0.01308116
0.00364513 0.00588530
0.01867314 0.00571820
-0.00536480 0.00055221
0.01013375 -0.02595913
-0.01262864 0.00212468
0.00286280 -0.00966098
0.01262286 0.00146704
-0.00152919 -0.00543067
0.00759001 0.00122621
-0.00284110 -0.01007200
-0.00128479 0.00753517
0.00958718 0.00066868
0.02128271 -0.02401237
-0.00217082 -0.00613894
0.00044163 -0.00122191
-0.00460474 -0.01403710
0.01012490 0.03196900
-0.02146450 -0.00993497
-0.00638907 0.00495737
-0.01282345 -0.00024662
0.01646853 -0.00089039
-0.01211116 -0.01529706
0.00620236 0.00540713
-0.00035936 -0.00840355
0.02504406 0.00112454
0.00151986 -0.00561625
0.01117686 0.00053912
0.01397483 -0.00184575
0.00507455 -0.00701685
-0.01351101 -0.01676452
-0.02192018 0.00934097
0.00873834 0.03889185
-0.00916145 0.01145354
0.01304002 0.01658084
0.01479769 0.02172685
-0.02201930 -0.00953247
-0.03320168 -0.00392320
-0.00586295 -0.00632360
-0.00881904 -0.01588755
0.01195174 0.01004571
0.01136544 0.01328773
-0.00014193 -0.00326317
0.00431944 0.00087691
0.01795226 -0.02605667
-0.01867403 -0.00551432
0.01575258 0.00359860
-0.01390185 -0.00436852
0.01887213 -0.01830481
0.03063806 -0.00344251
0.03203725 -0.02226766
-0.00730907 0.00452069
-0.01557658 0.00500213
-0.00417952 -0.01384880
0.00764654 0.01122589
0.00171298 -0.01104363
-0.00801297 0.01684021
-0.00547091 0.00098033
0.00855586 -0.02913792
0.00186172 -0.01539918
0.01474461 0.00741294
0.01944095 0.00406127
0.00540231 -0.01301211
0.00825066 -0.01290162
0.00230707 -0.01899438
0.00719169 0.00365448
0.00716062 0.00139649
-0.01721101 -0.00969378
0.01182526 -0.01211046
-0.02819552 -0.00631332
0.00425733 -0.00831454
-0.00221881 -0.00108235
-0.01243474 0.01023227
0.00797537 -0.00137217
-0.01068709 -0.02910221
0.02099617 -0.00651957
0.02309963 0.00270333
-0.01256812 0.00834582
0.04420131 0.01335057
-0.00246621 0.00599480
-0.00709770 -0.02745007
-0.01474115 0.01067565
0.00475818 0.00660895
-0.00429369 -0.00102425
0.00138124 -0.01897785
0.01677982 0.00108288
-0.00124179 -0.01170328
-0.01450808 0.00511553
0.02758270 -0.00282340
0.01037915 -0.00095673
-0.00235469 -0.02118253
-0.00245967 -0.01066964
-0.01681761 0.00013965
-0.00828430 -0.00876300
0.01554188 -0.00153221
0.00829889 0.00773044
-0.00373212 0.00113971
0.00195020 -0.00284124
-0.01075386 0.00107319
-0.00699106 0.01642907
-0.01271799 -0.01905541
0.01469323 -0.00064252
0.01338057 -0.00610639
-0.02946943 0.02276044
0.00358678 -0.02085526
-0.01541633 -0.00003684
0.01363742 -0.00763873
0.00724623 0.01486233
0.00399296 -0.01985862
-0.01740565 0.01412822
-0.00640863 0.01504271
0.00631763 0.00559545
-0.00898108 -0.00183391
-0.01151121 -0.01893216
0.01010318 0.01037701
-0.00642687 0.00758565
0.00531605 0.01475557
0.00268981 -0.00175517
-0.03879584 -0.01472317
0.00013978 0.02906796
0.00201367 -0.01891495
0.00843797 -0.00623095
-0.00827272 -0.01616776
-0.01376191 -0.00487772
-0.01217983 0.01104825
0.00481847 -0.02267952
-0.00467707 0.01412334
-0.01955152 0.00276283
-0.00086016 0.00651167
-0.00979804 -0.00880102
-0.00138977 -0.02191790
-0.00827632 -0.01461428
-0.00224027 0.02094647
-0.00179433 0.00324050
0.00067412 -0.00295470
0.00814434 -0.01334730
0.01225170 -0.01278873
-0.00046531 0.00425356
0.00255581 -0.01438838
-0.01172485 -0.00889563
0.00181145 -0.00917211
-0.01303107 0.01413392
-0.01545062 0.00641845
0.00344449 -0.04146338
-0.01265872 0.00634997
-0.00010037 0.00527777
0.00418958 -0.01831179
0.00123919 -0.00508921
-0.00232910 -0.00540131
0.01341488 0.00057074
0.00005595 0.01391472
0.00104176 0.00972846
-0.00362165 -0.01613781
0.01485347 -0.01196961
0.00481728 -0.00034169
0.01106852 0.00853491
-0.00326782 -0.00802652
0.01827794 -0.00812034
0.00016491 -0.00694582
-0.01808188 -0.01670293
-0.01040010 0.00384048
-0.00086920 -0.00823655
-0.00954061 0.00334832
0.01279619 0.00063236
-0.00838927 -0.00136630
-0.01037081 0.01159376
0.00592332 -0.01474384
0.02256462 -0.00187819
-0.00251404 -0.00743528
-0.00392083 0.00024824
-0.00162594 -0.01862968
-0.00531982 0.02050216
-0.01630215 -0.00420590
-0.00430714 -0.00167175
-0.00095238 -0.00663177
0.00262133 -0.01282153
0.00349400 0.00451621
-0.02083380 0.00345492
-0.01617643 0.00816839
0.01303696 0.01162886
0.01331762 0.00669645
-0.01951580 -0.01620955
-0.00482078 -0.01632334
-0.00938007 0.01141201
0.00167645 -0.00033374
0.01120310 -0.01860363
0.01946984 0.00784211
-0.00923496 0.00802356
0.00350685 -0.01209197
-0.00257525 -0.00897021
0.00028231 0.00135677
-0.00836756 -0.00555299
-0.00572564 -0.00656407
-0.01252596 -0.00908299
0.00050203 0.00001616
-0.01217304 -0.00668253
-0.01708260 -0.00571733
0.00555819 0.00749150
-0.00932746 0.02601082
-0.00877019 0.00144167
0.01416172 0.02786792
0.00696287 -0.01044577
0.00673644 -0.00043138
-0.01540024 -0.01603666
-0.01786589 0.00340892
0.00819437 -0.01084921
0.00834387 0.00188030
-0.00655765 0.00688495
-0.01959242 -0.00963577
0.00864107 -0.01669511
-0.01722969 -0.01356858
0.01858765 0.01328329
-0.00374824 -0.00067045
-0.02643789 -0.01089281
-0.00339392 0.01051577
-0.01986050 -0.00719213
-0.00558216 0.00476429
0.01250111 -0.01053435
-0.00743410 0.00501285
-0.00291193 -0.00450671
-0.01616333 0.00106777
0.00363812 0.02606333
0.03075840 0.00833071
-0.00425669 0.01470830
-0.00590182 -0.01196226
0.01042109 -0.00657777
-0.00015558 -0.00636869
-0.00558192 -0.00302391
0.01588571 0.00329803
-0.01550939 0.02956671
-0.01048060 -0.02244398
0.02804914 -0.00233842
-0.00202276 0.00162408
0.00037910 0.01525722
0.01334265 -0.01345491
-0.00773329 0.00543602
0.00948600 -0.00546824
-0.00000462 0.00319133
0.01321051 -0.00342923
0.00437981 -0.00461617
-0.01976221 0.00658312
0.00660736 0.00121405
-0.01564039 -0.02884524
-0.02051102 0.00283725
0.02164817 -0.03021047
0.00833448 0.00358880
0.00839429 0.00246353
-0.01394380 -0.00565355
-0.00414024 0.00770522
-0.01129614 -0.00214617
-0.01080941 0.01261398
0.00022105 0.01569751
0.00482153 0.01519297
-0.00833427 0.01786064
0.01618413 -0.00408428
-0.00719327 -0.02062535
-0.00452362 0.01340399
-0.00205199 0.01482112
-0.02029985 -0.00300123
0.00631245 -0.00888251
-0.00646315 0.01502522
-0.02063334 0.00693418
0.01535283 0.00632958
-0.00911516 0.00786083
0.01182866 0.00138088
-0.00099135 0.00620520
-0.00237923 -0.01818639
-0.00027115 0.00358739
0.00486088 0.00900898
0.00475432 -0.02139274
0.00293155 0.00490336
0.02211893 -0.00453847
-0.01934607 0.01503304
-0.01269267 -0.00228446
0.02442133 -0.02929591
0.01068293 0.01982751
0.00153647 -0.00337498
0.00152610 -0.00757848
0.00259302 -0.00492670
0.00264694 0.00875274
0.00066938 -0.01817237
-0.00298112 -0.00065640
-0.00340245 0.00233491
-0.00586274 0.00417669
-0.00060881 0.00626187
-0.00733878 -0.00542726
-0.00194545 -0.01082149
0.00019341 -0.00347053
-0.00113158 -0.00032466
-0.00321240 -0.00284933
-0.00523924 -0.00143828
0.00101136 -0.00304210
0.00401978 -0.00284915
-0.00433597 -0.00188491
0.00405585 0.01126466
0.00280984 0.00351599
0.00283355 -0.01628284
-0.00616820 -0.00132533
0.00266283 0.00511024
-0.00256585 -0.00437157
0.00678877 -0.00079950
-0.00199409 -0.00886221
-0.00862448 -0.01100711
0.00220732 0.00023174
-0.00058799 -0.00407476
-0.00214596 -0.00968700
0.00440554 -0.00533293
-0.00226951 0.00177502
-0.00630763 0.00281763
0.00575765 -0.00628391
-0.00764687 0.00079803
-0.00194897 -0.01207757
0.01160972 -0.00704196
0.00731750 -0.00371999
-0.00388274 -0.00707145
0.00696648 -0.01069346
-0.00053855 0.00054017
0.00486722 -0.00918412
-0.00428400 0.00017142
0.00591494 -0.00448048
0.00339740 0.00032445
-0.00005891 -0.00096575
0.00510823 -0.00438681
-0.00018161 -0.00584886
0.00015539 -0.00916034
0.00047476 -0.01083478
-0.00113399 0.00294239
0.00621700 -0.00046854
0.00389145 0.00595041
-0.00543234 -0.00541236
0.00007585 0.00411667
0.00357287 -0.00901275
-0.00079692 0.00454440
0.00301162 0.00219128
-0.00091552 0.00080653
0.00796267 0.00174956
-0.00366644 -0.00002495
-0.00688807 0.00790888
-0.00734339 0.00483203
-0.00367293 0.01119650
0.00419703 -0.00049000
-0.00547377 -0.00284936
-0.00404862 -0.00563310
0.00496507 0.01036461
-0.00026209 0.00228995
-0.00412772 -0.00174320
0.00419183 -0.01110675
-0.00304895 -0.00984890
0.00278474 0.00083354
-0.00087534 -0.00052154
-0.00088354 -0.00491269
-0.00388359 0.00269109
-0.00473987 -0.00106755
-0.00341299 -0.00624261
0.00257710 -0.00262330
-0.00868695 -0.00045616
-0.00312180 -0.00551356
-0.01028830 0.00388391
-0.00341249 -0.00714288
0.00751419 -0.00149131
-0.00530533 -0.00584426
0.00066204 0.00262371
-0.00526917 -0.01447886
-0.00126838 -0.00644585
0.00457651 0.00339428
-0.00772817 -0.00335495
-0.00262249 -0.00010664
-0.00401234 -0.00817549
0.00007545 0.00949669
-0.00698007 0.00219583
0.00096976 -0.00005128
-0.00095280 -0.00103416
-0.00073213 -0.00361329
-0.01383840 -0.00642818
0.00244185 -0.01247211
0.00592995 -0.00005065
-0.00579618 -0.01228398
0.00055321 -0.01368164
-0.00387728 -0.00675824
-0.00554940 0.00031282
-0.00059724 0.00243485
-0.00361876 -0.00084314
0.00753351 0.00691538
-0.01221012 0.00527884
0.00880350 0.00713783
0.00231329 -0.00101672
0.00369011 0.00429407
-0.00267248 0.00028556
0.00080021 -0.00484690
0.00025778 -0.01334117
0.00123706 -0.00570683
-0.00644567 0.00354286
0.00109126 -0.00382582
0.00233564 0.00517552
-0.00513910 -0.00175510
-0.00422973 -0.00288770
0.00095131 -0.00223839
-0.00193711 0.00895125
-0.00190226 -0.01115418
-0.00597916 0.00083196
-0.00441883 0.00402878
0.00011796 0.01834793
-0.00185521 0.00127097
-0.01152065 0.00122175
-0.00399706 -0.00373497
0.00179927 -0.00128937
0.00097823 -0.00244305
-0.00389955 -0.00442823
-0.00028259 0.00290476
0.00035018 -0.00730052
-0.00234271 -0.00971200
-0.00311505 -0.00060347
-0.00676388 0.00023775
-0.00512355 -0.00211838
0.00102176 -0.00010760
-0.00014804 0.00479150
-0.00050349 0.00425983
0.00120685 -0.00034662
-0.00644757 0.00269410
-0.00840575 -0.00977379
-0.00213210 0.01146992
0.00181631 -0.01142803
-0.00446760 -0.01243248
-0.00768242 -0.00543443
0.00803040 0.00574193
-0.00172379 -0.00126190
-0.01462748 0.00451019
0.00146270 -0.00121430
0.00716811 0.00401596
-0.00087623 -0.00700003
-0.00573292 -0.00055973
0.00190476 -0.01732006
-0.00633760 -0.00815771
-0.00740587 -0.00553336
-0.00176415 0.00214083
-0.00847850 -0.00174108
0.01295267 -0.00716704
-0.00414177 -0.00216095
-0.00295170 -0.00570775
0.00171137 -0.00083043
0.00027464 0.00215598
-0.00058797 -0.00567380
0.01133535 -0.00562098
0.00684633 -0.00449306
0.00183280 -0.00518998
0.00281734 0.00490692
-0.00199669 0.00254850
-0.00590699 -0.00059818
-0.00256421 -0.00891575
-0.00867507 -0.00980012
-0.00366426 -0.00386756
-0.00514137 -0.00410338
-0.00702254 -0.00048340
-0.00173538 0.00425154
0.00312996 0.01027587
-0.00122035 0.00939625
0.00338671 -0.00632415
0.00304643 -0.00419973
-0.00097903 0.00742917
0.00334499 -0.00840692
0.00916191 -0.00875912
-0.00341289 -0.00389965
-0.00937560 -0.00050705
0.01158591 -0.00339680
-0.00949671 0.00195880
-0.00882528 0.00322307
0.00575633 -0.00300579
-0.00826894 -0.00447253
-0.00596460 0.00319604
-0.00130841 -0.00036228
-0.00048650 0.01090005
0.00146834 0.00660386
-0.00444728 -0.00388750
0.00040604 -0.00519059
-0.00954422 0.00615424
-0.01199841 0.00158185
0.00475911 -0.00858376
-0.00141833 -0.00352121
0.00010881 0.00392448
0.00487089 0.00441707
0.00542470 -0.00443593
-0.00584079 -0.00237281
-0.00183830 -0.00751921
0.00112104 -0.00161314
0.00337749 -0.00355842
-0.00201357 -0.00505726
-0.00809766 0.00024203
-0.00825343 -0.00438767
-0.00105623 -0.00322496
0.00198179 0.00354727
0.00263093 0.00017405
-0.00325315 0.00731999
0.01279315 -0.00426275
-0.00575219 0.00225467
0.00196930 -0.00139698
0.00288518 -0.00069812
-0.01266483 0.00253297
-0.00744434 0.01678054
0.00893167 -0.00115235
-0.02833044 -0.00981494
0.02052573 0.00331841
0.00599086 -0.00644882
-0.00925864 -0.00648942
-0.01794822 -0.00715819
0.01341346 -0.01415453
0.00106093 -0.00231471
-0.00594468 0.00738364
0.00207640 -0.01066640
0.02339667 -0.01228567
0.00310190 0.00742692
0.00395937 0.00497670
-0.00575696 -0.01565774
0.00265121 -0.01399234
-0.00633556 0.00602902
0.00345058 -0.00456525
-0.00363520 0.01682530
0.01105694 -0.00478723
0.00122176 -0.01632724
0.00016722 -0.01760002
0.01619132 -0.01079904
-0.01318932 -0.00786676
-0.02841115 0.00822445
0.00564350 0.02370949
0.01958413 -0.00523851
0.00717578 -0.00579754
-0.00584083 0.00056391
-0.00239688 -0.01968739
0.00621270 0.00433616
-0.01652278 -0.00085789
0.00187381 0.01551142
-0.00622009 -0.00956145
-0.01419239 0.00281826
-0.01284868 -0.00627391
-0.00168319 -0.00853263
0.01892992 0.01097192
-0.01917436 -0.00717299
0.00163891 -0.00245194
0.01385281 -0.00838225
0.01844087 0.00463225
-0.00379419 -0.00491808
-0.01791187 0.00048346
-0.00935732 0.00794963
-0.00485895 0.01242014
-0.00374644 0.01543384
0.00498448 0.02109367
0.00388269 -0.02698416
0.00974240 -0.01180272
0.01408903 0.00460177
0.00812838 -0.01966298
-0.02195836 -0.01382058
-0.01123832 0.00413320
-0.00596078 0.02174735
-0.01105203 0.00498183
-0.02160212 -0.01037632
0.00896838 0.00665761
0.00474205 -0.00797660
0.00169856 0.00636288
0.00431242 -0.04024781
-0.00701667 0.00312600
-0.00253911 0.00620723
-0.00172016 -0.00638402
-0.01453029 -0.00453987
-0.00826133 0.03175778
0.00231612 0.00109817
0.00723970 -0.01155948
-0.00385263 0.00611286
-0.00736430 0.01544313
-0.02034566 0.01818570
0.03496946 -0.00065627
-0.00478383 -0.00498676
-0.00848630 0.00566580
0.00193087 0.00152416
0.02324371 -0.00754085
-0.00189673 -0.00507946
-0.01003132 -0.00401821
-0.00274516 -0.01746164
0.00538930 0.00620274
0.01678421 0.00301297
-0.00158250 0.00061888
-0.00278719 0.00847571
-0.00083233 -0.00582057
-0.00345065 -0.00344299
0.01491817 0.00573180
-0.02152993 -0.02317426
-0.00371699 -0.00798232
0.00904161 0.02527282
-0.00124605 -0.00312475
-0.00000628 -0.00422975
-0.00884660 0.00227601
0.01846500 -0.02103571
0.00182198 0.02046620
0.00341522 -0.01900002
0.00635670 -0.00508319
-0.00228683 -0.00300088
0.00767530 -0.00637542
-0.00886660 -0.01341402
-0.00303825 -0.00722635
-0.00538470 -0.01728289
-0.00321568 -0.00627181
0.01868423 -0.00846949
-0.00349032 0.01063941
0.01461178 -0.00453305
0.00441913 -0.00667488
0.00555396 -0.00956891
-0.02389015 -0.00524618
-0.00364875 -0.02022637
-0.00477556 -0.01138232
0.00356205 0.00105155
0.01772190 -0.00760124
0.00301452 0.00818107
0.00459842 -0.00670070
0.00088875 0.00560760
-0.00849449 -0.00555018
-0.00675427 -0.02573194
-0.01025518 -0.00456642
-0.01614478 0.01641314
-0.00001158 0.01770207
0.00152375 0.00955000
0.00844355 0.00370099
0.00267391 -0.00772066
0.01025079 -0.00750632
-0.00588522 -0.00044814
-0.01876834 0.00640533
-0.00031096 -0.00201830
0.00417809 -0.00095761
-0.00040758 -0.00030375
-0.00526591 0.00069691
0.00473894 0.00507533
-0.00697570 0.00356601
0.00243230 0.01688275
-0.00177991 0.00458485
0.00528688 0.00658119
-0.01029310 0.00683741
0.00687634 -0.01237426
0.02080057 -0.00240290
0.00549338 -0.01755013
0.01278954 -0.00206165
0.01452113 0.01593557
0.01308096 -0.00449802
-0.01192019 -0.01413898
-0.00442356 -0.02235605
-0.00069334 0.00559651
0.00426622 -0.00560572
0.00958450 -0.00894529
0.01202527 -0.00123406
0.00176227 -0.00004767
-0.01428111 -0.00159397
-0.00721669 -0.00410740
-0.00753594 -0.00383816
0.00073850 -0.00649306
0.02007816 -0.01714145
-0.01636228 -0.00740805
-0.00905827 0.03524193
-0.00341946 -0.00423984
-0.00294858 -0.00950744
0.00258836 0.01007325
0.00668665 -0.00486689
-0.01843208 0.01134385
-0.00518078 0.00788880
-0.00360107 0.00571689
0.00324969 0.01744667
-0.01462925 -0.01555027
0.00851547 -0.01369581
0.00090975 0.01244998
0.00379164 0.02349075
-0.00031538 0.00457477
-0.01211866 0.00976349
-0.00837021 -0.02222571
0.00173115 -0.00214083
-0.01937539 -0.00797762
0.00391133 0.01361972
0.00254442 -0.00102367
0.00425054 -0.00559138
0.00357692 -0.00547392
-0.01426596 0.00189367
0.00058208 0.00841119
-0.02687381 -0.00326442
-0.00022733 -0.01105917
-0.00559411 -0.01324035
-0.01286090 0.01006200
0.01085117 0.00894044
0.01254950 0.02000894
0.01166151 0.00014973
0.01144227 0.00882597
-0.00727526 -0.01413304
-0.00516550 -0.00528251
0.01224157 -0.02753790
0.00470836 -0.00303809
-0.00160124 -0.01168752
0.02641740 0.00484638
-0.00771860 -0.00873503
0.00677579 -0.01321885
-0.01656905 0.01531335
0.00126548 -0.00282101
-0.01796741 0.01759473
-0.00676546 0.00123268
-0.01887514 0.01016720
-0.01635802 -0.01004405
0.02296733 -0.00233018
-0.00089115 -0.01079633
-0.00632933 -0.00303126
-0.00829803 0.01318231
0.02789447 0.02037888
-0.01614046 -0.00159673
0.02181546 0.00102557
-0.00329904 -0.01216867
0.02488133 -0.00695062
-0.01575640 -0.01578494
-0.01921162 0.00072973
-0.01205974 0.00501703
-0.01143728 -0.00356139
0.00024979 -0.01026903
-0.00365029 0.00389420
-0.00680595 -0.00201327
-0.00007790 0.00598544
-0.01638052 -0.00093824
0.00526419 0.00319392
0.01977545 0.00821717
-0.00167388 -0.00643957
-0.00037373 0.01196226
-0.01453225 0.00635527
0.01075361 0.00596072
0.00945264 0.01386129
-0.00389809 0.00281209
0.02329476 0.01240523
-0.00340052 -0.01369012
-0.01680655 -0.00971105
0.00119005 -0.00312264
-0.00189185 0.01177487
-0.02215679 -0.00532892
0.00290442 -0.00804322
-0.01100886 0.03095794
-0.00006843 0.00083437
0.02777229 -0.00587984
0.01125448 -0.01226472
-0.01075953 -0.00786035
-0.00866927 0.00492479
-0.00362283 -0.00784666
0.00393375 0.00855323
0.00110627 0.00605252
0.00164714 0.00733122
0.00366189 0.02145533
0.00489849 0.00493896
-0.02367989 -0.01250079
0.01577221 0.01209948
0.00313789 -0.00784478
-0.01301813 0.00302820
-0.00814797 0.00832024
-0.00220745 -0.01557090
-0.00525922 -0.00076340
-0.00067256 0.01995254
0.00150067 0.00548354
0.00192971 0.00221965
-0.00116721 -0.00534549
0.01392671 0.00027879
0.01339654 0.01634696
0.00183303 -0.00299660
-0.02322026 -0.02559370
0.00569974 -0.02476976
0.01579482 -0.00702279
-0.01828943 0.02688808
0.01655704 -0.00294604
-0.00266321 -0.00171387
-0.00390549 -0.01871685
0.01746878 0.02462140
0.00576899 -0.01514520
-0.02329427 0.00352225
0.00799494 -0.00400228
0.00535675 0.00163880
-0.01178708 -0.01100082
-0.00557884 0.01629096
-0.02269999 -0.01312016
0.00390118 -0.00530139
-0.00477196 -0.01002671
-0.00513031 0.01050238
-0.00458838 0.00992135
-0.00714395 0.00626030
-0.00274782 0.00533290
-0.00439974 -0.00235215
-0.00598441 0.02142124
0.00373350 0.00074145
0.00510271 -0.00000124
-0.00096155 -0.00780307
-0.00247911 0.00787606
0.00116581 0.01162558
0.00040199 -0.00084937
-0.00562295 0.00204772
-0.00113167 -0.00274603
-0.01517050 -0.01008724
0.00083691 -0.00997754
-0.00609823 -0.01573355
0.00143719 -0.01862286
-0.00845827 -0.00594067
0.04052926 0.00599392
0.00456330 -0.01546745
-0.00949279 -0.00857671
-0.00277649 -0.00162155
-0.00280565 -0.00511531
-0.00712210 -0.00426104
0.00331918 0.01909742
-0.00482302 -0.01204310
0.01260892 0.00321138
0.01586719 -0.00558384
0.02721490 0.00941260
-0.02149884 0.00831253
0.01250943 -0.02563860
-0.01732375 -0.01415433
-0.00239456 -0.01603760
-0.00942429 -0.00722106
-0.00514585 -0.00098520
0.00254373 0.00383375
-0.00632718 -0.00245533
-0.01577235 -0.00936491
0.00543086 0.00326050
-0.01024480 0.02461122
-0.00670220 -0.00035646
0.02666738 -0.00674292
-0.00136597 -0.01032746
-0.01768101 -0.00904870
0.00619796 0.01231460
-0.00512234 0.01937680
0.01051371 0.01396624
0.00272025 -0.01074382
-0.00279861 0.00929528
-0.00938742 0.00645401
-0.00410115 0.00219197
0.00081285 -0.00687594
-0.00704085 0.00662970
-0.01544203 -0.01500282
-0.00725286 0.00115067
-0.00529309 -0.00825433
0.00433791 -0.00965696
0.00278732 0.01115499
0.01544065 -0.01142775
-0.00138098 -0.00224355
-0.00250752 -0.00691393
-0.01176054 0.00715888
0.00869344 0.00990055
-0.00517207 -0.01208222
-0.01031394 -0.01074911
-0.00440488 0.00789763
0.00178464 -0.00231174
-0.00624515 -0.00365506
-0.00560459 0.01361915
0.00439073 -0.00334600
-0.00915258 0.00741664
0.00584743 -0.00815808
0.01421361 -0.00965238
0.00536412 0.00119677
0.00795234 -0.01229193
-0.00202237 0.01324575
0.00886961 -0.00174951
-0.01508873 -0.00135193
-0.00574166 -0.01039421
0.00126729 0.02669815
-0.01241943 -0.00457764
-0.00324537 0.00607078
0.00789555 0.00154224
0.00489093 -0.01402477
-0.00628085 -0.00355277
0.00210910 -0.01447784
0.00212275 -0.00899723
-0.00225640 -0.01565486
-0.01118198 0.00275908
-0.01155953 -0.01561808
-0.00767457 -0.01085461
0.00965200 0.00244534
0.00704203 -0.00490275
0.00814924 0.02177210
0.01224563 0.01226980
-0.00777458 -0.00595403
-0.00557935 0.00408124
0.00093619 -0.00518146
-0.00878755 0.01503354
0.00378152 -0.00259017
-0.00421559 -0.02031440
0.01191678 -0.00698465
0.00825346 0.00849402
0.01119278 -0.01324227
0.00976901 -0.00643881
0.01235611 0.00135253
0.00853348 0.01755834
0.00970166 -0.00814467
-0.01290728 -0.02905789
0.00969467 0.00660797
-0.00476755 -0.00181996
0.00152492 0.00788399
-0.00028821 -0.00236213
0.00077478 -0.00480601
-0.01477566 -0.00216946
-0.00648148 -0.00698016
0.01502064 -0.00669655
0.02836716 -0.00920045
-0.00228580 0.00658842
-0.00747899 -0.00456788
-0.01472738 0.00921163
0.00622321 0.02309835
0.00691582 0.00379487
-0.00146417 0.00475104
0.00287259 0.01649038
-0.00032902 -0.01746353
-0.01794613 0.00483040
0.00596971 -0.00297403
0.01056950 0.00734066
-0.00558710 0.00209417
-0.01834232 0.00282836
-0.00906336 0.00861293
0.00555281 0.00328663
-0.00384548 0.00094629
0.00166068 0.01628214
-0.00367616 -0.01124258
-0.00081631 0.00600702
-0.00400849 0.01193651
0.00595139 -0.00412189
-0.02358410 -0.02856660
0.01688930 -0.00120638
-0.00142152 0.00725383
-0.01659805 -0.00077185
0.00014183 0.01433924
-0.00351435 -0.00213679
0.01956690 0.01199762
-0.01213448 -0.00786655
0.00744639 0.00947023
-0.00891241 -0.01260488
-0.01163075 -0.02143450
-0.00075062 -0.01320356
0.00888557 -0.01208496
0.01091294 0.00676336
0.01126033 0.01130143
0.00660719 -0.00728698
0.01218654 0.00620349
-0.00311426 -0.01192182
-0.01394668 0.01530922
-0.00309098 0.00845060
0.00034785 0.00762029
0.00269342 0.00164261
-0.00951374 0.00225031
0.00106061 0.00246839
0.01803736 -0.01789195
0.00574682 -0.02116094
-0.00881957 -0.00205526
-0.00296222 -0.00343569
-0.01957269 -0.00125713
0.04883702 -0.01266401
0.01077359 -0.00436100
-0.01835850 -0.00280620
-0.01305287 -0.00257934
-0.00084887 0.00896968
0.00781365 0.00713139
-0.01321355 -0.00225680
-0.01336323 -0.00516512
-0.00876711 -0.00575877
-0.01173578 0.01236919
-0.00393500 0.00554992
0.00232820 0.00536433
0.03655086 0.01568995
0.01095233 -0.00651601
0.00330551 -0.00672513
-0.00855829 0.00033991
-0.00961691 -0.00003916
-0.00279681 -0.00507404
-0.00572114 -0.01027448
-0.00668083 -0.01377214
-0.00377687 0.00326985
0.00151317 0.02813708
0.01745570 0.00763398
-0.00930412 -0.01403294
-0.00429495 -0.00658173
-0.00458171 -0.01803202
-0.00828966 -0.00098640
-0.01479459 0.00572118
-0.01265257 0.01641556
-0.02527971 0.01840350
0.00901880 0.00136835
0.01571277 -0.03860719
0.00680390 -0.01710283
0.00340524 -0.01170583
-0.00071775 0.02294275
-0.01868310 0.00656045
-0.01241212 -0.01507216
-0.00996972 0.00389616
-0.01521888 0.01011325
0.00876096 0.01817482
-0.00432892 0.00837961
0.00456868 -0.00949273
-0.01264432 -0.01829460
-0.00494020 0.00903684
0.01759498 0.00265715
0.00468582 -0.00845180
0.00253339 0.00776785
-0.01257541 -0.00277791
-0.00987476 0.02279536
-0.01212886 0.00565162
0.00304360 -0.00702912
-0.00337756 -0.01576228
0.01130357 -0.01698735
-0.00917517 0.00020941
-0.00632887 0.00861192
0.01113543 -0.00313535
0.01054150 -0.01096091
-0.01193956 0.00868397
-0.01067289 -0.01481386
0.00217605 0.00664139
-0.01005857 -0.00436451
-0.00912268 -0.00169657
0.00177121 -0.01980391
0.03179098 0.00197333
-0.00067780 0.00850706
-0.00560077 0.00533007
-0.01041127 0.02414160
0.00307542 -0.02128591
-0.00262094 0.00294399
-0.00138572 -0.00448573
-0.00586889 -0.00283604
0.00850829 0.00440316
0.02447740 -0.00359171
-0.00007401 -0.01381858
-0.02066838 0.00260546
-0.00233817 0.00909301
-0.00525108 0.00993744
-0.01374222 0.00830752
-0.01331863 -0.00459330
0.02382590 -0.01288476
0.02695052 -0.00989221
-0.00325592 0.00794010
-0.00618492 0.01966190
-0.00016651 -0.00118623
0.00891762 0.01875133
0.01406561 -0.01008639
0.01642810 -0.01262554
-0.02264076 0.01101126
0.00592543 0.00673107
0.00939235 0.01352245
0.00167983 -0.01041320
-0.01202519 -0.01033563
0.01275393 0.00383851
-0.01302242 -0.01141566
0.00808566 -0.01976125
-0.00873483 0.01738858
-0.03096670 0.01999802
-0.00745851 0.00907896
-0.00470635 0.00525665
0.00624323 -0.02418084
-0.00587548 -0.01576320
0.01067821 0.00913711
-0.00717796 0.02167212
-0.00399975 -0.01573994
0.01426194 -0.01760114
0.02213709 -0.00709015
-0.00435091 0.00128633
-0.01182618 -0.00391460
-0.00706173 0.02003021
-0.00431721 0.00165273
-0.01127335 0.00302655
-0.00143205 -0.01778212
-0.00062992 0.00591409
0.00264466 -0.01131081
-0.00843531 -0.00193533
-0.00365635 -0.00245122
0.00038785 -0.01166552
-0.02550165 -0.00186973
-0.01123251 0.00634649
0.02468729 -0.00792497
0.01933401 -0.00363176
-0.01060496 -0.01932669
-0.00358471 0.00000699
-0.01728412 0.00812765
-0.00741085 0.01985800
0.01907188 0.00195766
-0.01146617 -0.00594362
0.00271379 -0.00167402
0.01004857 0.01472569
-0.01104401 0.00618195
-0.01356976 -0.02841246
0.00192999 0.00174637
-0.02223911 0.01857562
0.00560271 0.00194417
0.02521406 -0.01852981
0.00678839 -0.01101498
0.00013331 -0.00508657
0.00868997 0.00022020
0.00545240 0.04513910
0.00443387 0.02074109
-0.00967377 -0.01973360
-0.00266883 0.00363378
0.01162488 -0.00614150
-0.01810484 0.00611722
-0.01064020 0.00551390
0.01007132 0.00464863
-0.01270064 -0.00952344
0.01160901 -0.00504351
-0.00982471 0.00782775
0.01421094 0.00219073
0.01848654 -0.00768882
0.01097805 -0.00466815
-0.02447393 0.01550419
-0.00219673 0.00207643
-0.01319589 -0.01300756
0.00978419 0.00478671
0.00314054 -0.00329925
-0.00025495 -0.01518953
-0.00932499 0.00934003
-0.00812370 0.00763709
-0.00836112 0.00226840
0.00815782 0.01098492
-0.01052603 -0.00322992
0.00480092 -0.00735045
0.00535539 -0.00394688
-0.00831374 -0.01355898
0.01681676 0.00660247
0.00365949 0.00984818
0.00736521 -0.00763058
0.00387830 -0.01341653
0.02469155 0.00843273
0.00679591 0.00182966
-0.00474236 0.00840426
0.02677228 0.01197099
-0.00848719 0.00741514
-0.00361265 0.00275546
-0.02491730 0.01679659
-0.00724370 -0.00025895
-0.00141205 0.00355928
0.02852505 0.00290178
-0.03430763 0.01073130
0.01875426 -0.01397302
0.02699776 -0.00866506
-0.00931085 -0.00527054
0.00638349 0.00029160
0.00995771 0.00975437
0.00534012 -0.01935408
0.01242284 0.00232061
0.00471853 -0.00636484
0.00382088 0.01009354
0.01029211 -0.00052393
-0.00742266 -0.00606272
-0.00778633 -0.00200342
0.00063420 -0.02065030
0.01301310 -0.01450603
-0.00890418 0.00951381
-0.00652067 -0.00715062
-0.00803564 0.01441360
0.00287726 -0.02324716
0.00051537 -0.01579763
0.02361307 0.00554366
-0.01507330 0.00326851
-0.01018509 0.00160163
0.01225293 -0.00991451
-0.01153243 0.01014894
-0.00236016 -0.01143099
-0.00351551 -0.00775161
-0.00523459 -0.00798745
-0.00697721 -0.00216511
0.00777765 -0.00898969
-0.00743875 -0.01806032
-0.00197736 -0.00145444
-0.01082768 0.00212121
0.00322573 0.01145585
-0.01220614 0.00628224
0.00402451 0.00392079
-0.00584259 -0.01105112
0.00009996 -0.00927274
-0.00121772 0.00864296
-0.00500593 0.00269677
-0.00677498 0.00061182
-0.00524493 0.00411944
0.00169631 -0.00649783
0.01622345 -0.00114381
-0.00673188 -0.00049351
-0.01245356 0.00443370
-0.00891601 -0.00928176
0.03039818 -0.01191511
-0.01482404 0.01725904
0.00418469 -0.01244804
0.00165112 -0.00392665
-0.00366713 0.00512730
0.01442187 0.00535923
0.01033760 -0.00330825
0.00393368 0.00065196
-0.00423031 -0.01008132
0.00342536 0.00974047
0.00862870 -0.01634910
0.00870354 0.01922049
0.00843936 -0.01467740
-0.04030403 0.00488198
-0.00422363 0.02155073
-0.00497269 0.00145603
-0.00767810 -0.00808980
-0.00410317 -0.01648331
0.01547695 0.01435739
0.00081358 -0.00109934
-0.00612812 0.00653820
0.02728664 -0.01265287
-0.00349297 0.00101099
-0.02201679 -0.00092394
0.00816908 -0.00748569
-0.00890824 0.00435086
-0.00728911 -0.00873126
0.00431430 0.01047420
0.02520856 0.02668608
-0.00527280 -0.00357837
-0.00469796 -0.00294149
-0.00201116 0.00084000
0.02245092 -0.01095147
-0.01181679 -0.00745161
0.01140744 0.00915725
-0.00493265 -0.03375825
0.01120370 -0.00475276
0.00601956 -0.01124478
-0.00247816 0.00567626
-0.00490365 0.00545568
-0.00420062 -0.00423296
-0.00477093 0.00260815
-0.00990565 -0.00037763
-0.00367017 -0.00208096
-0.01075975 -0.01037276
0.00539146 -0.00908051
-0.00394873 -0.00662141
-0.00533189 -0.00534215
-0.01327607 -0.00763900
0.01141720 0.00713138
0.00537290 -0.00615075
-0.00225790 0.00586405
-0.01049204 -0.02077205
0.00585438 -0.03103546
0.00676978 -0.01278085
-0.02340749 -0.02386742
0.00760866 0.00270358
-0.01024072 -0.00290301
-0.01420577 0.00556744
0.00125472 -0.00704720
-0.01505582 0.00673553
-0.03230758 -0.01480639
0.00895686 0.01010409
0.00961873 -0.01862048
-0.00238332 0.02004464
-0.02241290 -0.00923671
-0.01606296 0.01807619
0.01112488 0.02267218
0.00842747 -0.00404264
-0.02119069 -0.01050732
-0.01902199 -0.00832202
-0.00477509 -0.00728560
-0.01053147 0.00152842
-0.02110040 0.00012952
-0.01111566 -0.00988955
0.02235892 -0.00438068
-0.00410288 -0.00733584
0.00379584 0.01253387
0.01071633 -0.00134655
0.02139996 0.03812649
-0.00048146 -0.02114474
-0.01404249 -0.00960848
0.00195211 0.00095569
-0.00971460 -0.00784095
0.00209421 -0.00212793
-0.00051206 -0.01492940
0.00921593 0.00343267
0.02483096 -0.00147717
-0.01990388 0.00598365
0.02521271 0.00101441
-0.01902126 -0.02050126
-0.01848787 -0.00283742
-0.00049639 0.00844172
0.00415622 -0.01000171
-0.01998649 0.00589153
-0.00879223 -0.00990134
0.00029778 0.00169539
0.00291145 -0.00855207
-0.00253523 0.00210396
0.00157294 0.00868381
0.00110170 -0.00908300
0.00476771 -0.00627258
-0.00966861 -0.00704624
-0.01228999 -0.00202320
0.00006155 0.00068918
-0.00353445 -0.00304956
-0.00607794 -0.01103761
0.02414287 0.00787836
-0.00847776 -0.00064621
-0.01121622 -0.00696337
-0.00721352 0.00382149
0.00259135 0.00687920
0.00002163 0.00271521
-0.00409166 0.01141872
0.01247911 0.00197185
0.01543961 0.00811760
0.00009756 -0.02464164
-0.00896389 0.01853376
0.00632153 -0.00199363
-0.02061985 0.01310539
0.01019549 -0.01467403
0.02848829 0.00302870
0.01526929 -0.02459587
-0.00924425 -0.00411442
-0.00530647 -0.00623903
-0.01062825 -0.01274936
-0.00395337 -0.00236169
-0.01199717 -0.00650876
0.01203982 0.00724471
-0.00286821 -0.00894567
-0.00678302 0.00145242
-0.01628046 0.00135391
0.01905654 0.00018482
0.00833253 0.00632743
-0.00347405 -0.01239126
-0.00824316 0.00117760
0.00257132 0.00340236
0.01051145 0.00317030
0.00158826 0.00417697
-0.00084015 -0.01221817
-0.00473959 -0.00087960
0.02028733 -0.01181643
0.00172041 -0.00482305
-0.00989969 -0.00621667
-0.02036336 -0.01212379
0.01330821 0.00508971
-0.00846298 0.00249804
0.01076577 -0.00779210
0.00619666 0.01935108
-0.00450047 -0.01305395
0.01075245 -0.00269849
-0.00273533 0.01673809
-0.01421450 -0.01274752
-0.00097696 0.00222382
0.00534741 0.00415633
0.00086027 -0.01782134
0.00603079 0.00418007
-0.01637657 -0.00250103
-0.00597104 -0.01368763
0.00196423 0.00841145
-0.00335484 0.00512370
0.00666725 -0.00259425
-0.00930515 0.00642071
0.00272297 -0.00348895
0.00126022 -0.01346889
-0.03057874 -0.00179718
0.00298671 0.02919588
-0.00342643 -0.00194141
-0.01374963 0.00829807
0.01955244 0.00845710
-0.00795818 -0.01757016
-0.00845723 0.00738329
-0.00721644 0.01631248
-0.01887960 -0.01869686
-0.02448287 0.02368892
0.03727873 0.02226789
0.01017598 -0.01210126
-0.00375519 -0.00903799
-0.00674662 0.00303084
-0.00376519 0.02074341
0.01515842 -0.01705322
-0.00648945 -0.01607086
0.00522256 0.00497908
-0.01065503 0.00008160
0.01641560 -0.02488838
0.00425428 -0.00432943
0.00248814 0.00188352
0.00288825 0.02051685
-0.01091099 -0.03605212
-0.01790641 0.02741698
-0.00873184 0.00062128
-0.00776188 -0.00405436
-0.01148518 -0.01654687
0.00533421 0.00098210
0.01737618 -0.01239853
0.00298787 -0.00887430
-0.00065560 -0.00384568
0.00761183 -0.00718098
-0.00302776 0.00228264
0.00048832 0.00371832
-0.01286298 0.00777945
-0.00073432 0.00231635
-0.02926366 -0.01637707
0.01562066 -0.01233681
0.00801093 0.00851105
-0.02750614 0.00624407
0.01289188 -0.00438822
0.01266217 -0.01336635
0.00555447 0.00454180
0.00106311 0.00342615
-0.00301515 -0.01855404
-0.01072341 -0.01136384
0.01036051 0.01662346
-0.00371674 -0.01712748
-0.00287868 -0.01847340
-0.00089293 0.00225654
0.00087097 -0.00256938
-0.01297044 -0.00941719
0.00441314 0.00483813
0.01273886 -0.01261209
-0.02382718 0.00052532
0.00781333 0.01236504
0.00030667 0.01150320
0.00007000 0.00708701
-0.00494021 -0.00384008
-0.00223478 -0.00281883
-0.01076799 -0.00676190
0.00916212 -0.01105132
0.03016073 0.00291709
-0.00339446 0.00983848
-0.00316852 0.00807208
-0.00574432 0.00955377
0.00727302 0.00114283
-0.00496654 -0.02786322
-0.01245478 -0.00345194
0.00496281 -0.00823201
-0.01699630 0.01294537
-0.01605404 0.00124163
0.00095873 -0.00768519
0.00160600 -0.02175054
0.00712319 0.01639174
-0.00452515 0.01077059
0.00960516 -0.01754145
0.01514653 -0.00917694
-0.00921920 0.00918812
-0.00037558 -0.01394101
-0.00946464 -0.00188867
0.01843169 0.00590721
0.00630250 0.00371275
-0.01719884 0.00492061
-0.00356545 0.01921969
-0.00363066 -0.00114172
0.01713228 -0.00222100
-0.00710486 0.00417441
-0.00885405 0.00193652
-0.00801229 0.00397714
0.00903895 0.00348213
-0.00479950 -0.00433813
0.00189457 -0.00858331
-0.01224970 -0.01039517
-0.00753494 0.00943276
0.01282804 -0.00048499
-0.00023744 -0.01312922
-0.00266226 -0.00195869
-0.00453082 0.00018421
-0.00343020 0.00361160
-0.01760308 -0.01460775
-0.00523920 0.00095933
-0.01369379 0.00274701
0.00790171 0.00718256
-0.00034303 0.01770168
0.00688607 -0.00697430
-0.01719375 -0.00949745
-0.01285686 -0.00755228
0.00678649 0.00073238
0.00274387 -0.00120110
0.00083580 -0.00426290
-0.00526854 -0.00211238
0.00874199 0.02015644
0.00245347 -0.00590133
0.00548590 0.00413608
0.01691693 -0.01863519
0.01532000 -0.02719998
-0.01274467 0.01644074
0.01291276 0.02177022
-0.02655497 -0.00540583
0.00272498 -0.01650875
-0.01522938 -0.02516981
-0.00066029 -0.00267534
-0.01117867 -0.02104158
-0.00683296 0.01131824
-0.01255053 0.01654726
-0.00302951 -0.00771989
-0.00493381 -0.02566740
0.00169925 -0.00899091
-0.02400127 0.00667349
-0.00136026 0.03482474
0.01467221 0.00088588
-0.00124331 -0.00664145
-0.02133649 -0.01056643
-0.00442338 -0.00931074
-0.00036031 -0.02155814
-0.00932462 0.01101544
-0.01294193 0.01398479
-0.00662831 0.00633577
-0.00618911 0.00772079
-0.00274968 -0.01190751
0.00758184 -0.01035654
-0.00264918 0.00505410
-0.00107706 0.01462194
-0.01654897 -0.00580752
0.01249357 -0.01190959
0.01985009 -0.00615956
-0.00011217 -0.00506659
-0.00827996 -0.00299456
-0.00380262 -0.00119957
0.00713339 -0.01269439
-0.01451031 -0.00820708
-0.00330739 -0.00545077
-0.00663640 0.00087607
-0.00673822 0.00017221
0.00505273 0.00779303
0.00539215 -0.00485501
0.00302512 -0.02812939
-0.00874690 0.01329755
0.00285761 0.00876119
-0.01638303 0.01841266
-0.00486045 0.00929158
0.02640432 -0.02117953
-0.00877403 -0.00915963
-0.01616537 0.00920536
-0.00806693 -0.00315615
0.00433836 -0.02739725
-0.00099110 -0.00509358
0.00453706 -0.00258076
-0.00191440 0.00760724
0.00735758 -0.01432840
0.01133151 -0.00749477
-0.01832240 0.00790731
-0.00738598 -0.00718291
-0.00189413 0.00142477
-0.00649136 -0.01136130
-0.00147461 -0.01859213
-0.00343418 -0.01965545
-0.01645972 -0.00304747
0.01032954 0.00997983
-0.00048416 -0.01540854
-0.00539059 0.00534006
0.00637614 -0.00396074
-0.00701543 0.01013002
-0.00112593 0.00868732
0.01682328 0.00052553
-0.01176811 -0.00382245
0.00403068 -0.01196029
0.00510978 0.01001901
-0.01572614 0.02320386
-0.00434822 -0.00574169
0.00853772 0.01044326
0.00493386 -0.00424720
0.00104503 -0.01604171
-0.03755938 -0.00181047
-0.00430130 0.00938370
-0.02070170 0.00370814
-0.00404276 0.00986250
0.03003482 -0.02364882
-0.01590978 0.00688662
-0.01783313 -0.01482889
-0.00723500 -0.01849119
0.00347158 0.02276424
-0.00864873 0.00203207
0.00672152 -0.00761513
-0.01857662 -0.00887617
-0.00159154 0.00608306
0.01697410 0.00399364
-0.00222942 0.00158355
-0.01395976 0.02392305
0.00056369 0.01039142
0.00744638 -0.02358771
0.00499624 -0.00584303
0.00867137 0.00912025
0.01080398 0.00316720
0.01975944 -0.00505050
-0.00160376 -0.00056588
-0.00864242 -0.00587301
-0.01045576 -0.01328447
0.01516625 -0.01896787
0.00440310 0.01766512
-0.03305288 0.00527177
-0.00589165 -0.00942270
0.00547652 -0.00613980
0.00490418 -0.01769830
-0.02067355 0.02856079
0.00072044 0.00367983
0.02146496 -0.01417635
0.00116220 -0.01907141
0.00445413 -0.00026031
-0.00075386 0.00189306
-0.00920797 -0.01108784
-0.00553600 -0.00250086
-0.01532198 0.01160214
-0.00762617 -0.02853874
0.00736057 0.00823615
-0.01110173 0.00135231
0.01348395 0.01692084
0.00672428 0.02031622
-0.02652420 0.00250382
0.00057608 -0.00328714
-0.00887308 -0.00483578
0.00475521 0.01969703
-0.01021927 -0.01614359
-0.00580194 -0.00461870
0.01571825 -0.00126656
-0.01340338 -0.00257688
-0.00981922 -0.00511801
-0.00651813 -0.00199525
-0.00756467 -0.01287436
0.00217453 0.01350362
-0.00618051 -0.00647016
0.02518911 -0.01584616
-0.01172514 -0.01097249
-0.02281945 0.00471839
0.00345184 0.00776582
-0.01310721 -0.02655814
0.00305438 0.00426433
0.00671799 0.00264487
-0.00601355 0.00548857
-0.00347698 -0.01561213
-0.00689533 0.00029372
0.00444365 0.01045107
-0.01353814 -0.00163152
-0.01009482 0.00628994
0.00621231 -0.00286101
-0.01747319 -0.01192825
-0.01264535 -0.01327817
-0.00305604 0.01177100
-0.00478717 0.00575016
-0.00811041 0.01008511
-0.00828606 -0.01966763
0.00879936 -0.00251514
0.00266951 -0.01136543
-0.00298839 -0.02157640
-0.00245955 0.00109157
-0.00132519 0.00766284
0.00183649 0.00822650
0.00134494 0.00191238
-0.00865439 -0.01571869
-0.00100253 0.00324688
0.00209456 0.00371294
0.00340784 0.00397026
-0.00478390 -0.01910882
-0.00877592 0.01178085
-0.01695502 -0.01049913
-0.00295765 0.00413498
0.01227543 0.00333554
0.01125825 -0.02089403
-0.00061598 -0.02053091
-0.00774390 -0.00749554
0.00038040 -0.01660416
0.00445140 -0.00997207
-0.00796869 -0.00307306
-0.01607604 -0.00942325
-0.00293552 0.00839723
0.02340353 -0.00211469
-0.01282001 0.01756356
-0.00508510 -0.00632151
0.00514751 0.00463014
-0.00538032 -0.01739805
-0.00143166 -0.02807642
-0.00598335 -0.00195648
0.00606191 0.01764080
-0.00092512 -0.00911496
-0.01043045 -0.00038579
-0.00868256 -0.00737049
0.00958773 0.00678663
-0.00310303 -0.00804192
0.00181570 0.00821858
0.00960284 0.01641116
-0.00761149 -0.00081477
-0.02435008 -0.00151664
0.00245105 0.00232923
-0.00351530 -0.01430176
-0.00824990 -0.00295258
-0.00149888 0.01257707
-0.00060762 0.00491942
-0.01820618 -0.01783856
0.00741713 -0.01643212
-0.01296135 -0.00078183
0.01282871 0.01892130
0.00572650 0.00511420
0.00117388 -0.00021595
0.00107254 -0.00121918
-0.00674872 0.00409421
-0.00149601 0.00803761
-0.00289460 -0.00428293
-0.00781148 -0.01042525
-0.00097291 -0.00280548
-0.00988542 0.01218413
-0.00185014 0.00377998
-0.01111348 0.00035937
-0.03447329 -0.01235278
0.00803507 0.02000620
-0.02737265 -0.01550717
-0.02227855 -0.01075703
0.00950670 -0.01326295
-0.01553312 -0.01020883
-0.01242362 -0.01148252
-0.00366795 -0.00945569
-0.00610253 0.02554637
-0.00183373 -0.01228557
-0.00734067 -0.02195745
0.03313688 0.00270511
0.00643190 -0.00006269
-0.00880215 -0.01267045
0.01311075 0.01119914
0.01444798 0.00575366
0.00598185 -0.01762963
0.00910260 -0.00281199
0.00462066 0.00660946
0.00530499 -0.00507824
-0.00718125 0.00682872
-0.02697235 -0.00358428
-0.01854885 -0.02879947
0.00181978 0.00665426
0.00733448 -0.00207502
-0.01443625 0.00112875
-0.00989251 0.00141313
0.03045661 -0.00131109
-0.00382887 -0.00645297
0.00052757 0.00675301
0.00091224 -0.00288324
-0.00080341 0.00164900
-0.00473399 -0.01228136
-0.00285984 -0.01252323
-0.01001610 -0.00329272
0.00315090 -0.00454977
-0.00418217 -0.00431861
-0.00732386 0.00613953
0.00317079 -0.00104031
0.00514239 -0.00205583
-0.00151154 0.00421453
0.01984943 -0.00413866
-0.00617712 0.00910727
0.00358322 0.01478889
-0.00042973 -0.00813409
0.01624606 -0.00497327
-0.00235037 -0.00118456
-0.02443710 0.00456797
-0.00151441 -0.00441405
-0.00936035 -0.02970750
0.00127347 -0.00453404
0.00354937 -0.00677381
-0.00781511 -0.01026447
-0.01164059 -0.00996790
0.00395145 0.00232096
0.00643066 0.00320199
0.00417271 -0.00301049
-0.01195018 -0.00805136
-0.00501937 -0.01388640
-0.01520020 0.00499990
0.00436765 -0.01168422
-0.00406634 0.00128155
0.01069798 -0.00667526
0.02606415 0.00764305
0.00085960 -0.01330807
-0.02508949 0.00308096
0.00334862 -0.00309668
0.00288608 0.00553673
-0.00761975 0.00215692
-0.00502018 -0.00392419
-0.00747552 -0.00410702
-0.00211099 -0.01358494
-0.01969545 -0.01674305
0.00088528 0.02302051
-0.01472965 -0.00570225
-0.00647628 0.00863588
-0.01779873 -0.01626660
-0.01345192 0.01712276
-0.01443942 -0.01045918
-0.00253968 -0.00881243
0.00369718 -0.00158785
0.02919690 0.01412808
-0.00398299 0.01050093
-0.00186252 -0.00197968
-0.00193429 0.01180928
0.00044062 -0.01981020
0.01549520 -0.01608202
-0.00667909 0.01644264
-0.00759506 0.00554103
0.00241739 0.01666577
0.02723312 -0.02453451
-0.00717503 -0.00646692
0.01159568 0.00950648
0.01010051 0.01129833
0.00152069 -0.01550208
0.01542328 0.01403407
0.01657224 0.00363861
-0.01250865 0.00257606
0.00919345 0.00425358
-0.01789808 0.00100158
0.00794396 -0.01061011
0.00157666 0.00597377
-0.01107271 0.00281613
-0.01240346 0.03354714
-0.00296940 0.01319107
-0.00691779 0.00854141
-0.00613597 0.00351359
-0.00700337 0.00108656
-0.02046233 -0.02006549
-0.00472469 0.00739099
0.02143170 -0.00515941
-0.00290532 0.00464134
-0.00979404 0.01107639
0.00021403 -0.00613408
0.00205110 -0.02233860
0.00798991 -0.00352794
0.01617433 -0.01205188
-0.00272641 0.04144354
-0.00761688 0.00058946
0.00698161 -0.00059025
-0.01153723 0.00601321
0.00151900 -0.01246560
0.00789565 0.00774427
-0.00806284 0.00739528
-0.00696178 0.00772091
-0.00075222 0.01870282
-0.01071879 -0.00360485
-0.00332439 -0.00203100
-0.01303916 -0.00225418
-0.00567759 0.00707011
0.00159614 -0.00563384
0.00181693 -0.00776952
-0.01467557 -0.00975343
-0.00085145 -0.01524801
0.00875432 0.00705904
0.00102412 0.01430334
-0.01180649 -0.00101654
-0.01109243 0.00603489
0.00559184 0.01511715
-0.02061240 -0.02868251
-0.01011550 0.00150408
0.01236572 -0.00726056
-0.01557409 -0.00923408
-0.00711939 0.02572322
0.00625652 0.01408030
-0.01386094 0.00044977
0.01752109 -0.01137360
0.00237081 0.01322963
-0.01987836 0.00555449
-0.00692822 -0.00087992
0.00132934 -0.01093722
0.01045851 -0.01538309
-0.01113660 0.02058577
-0.01625380 0.01235242
0.01167802 -0.00658866
-0.00186862 -0.00619102
-0.01057806 -0.00902656
0.01339615 -0.01479511
-0.01695952 0.00900890
-0.01368227 0.01958186
0.01721532 0.01678257
0.01467460 -0.00319537
-0.01580146 -0.00840353
-0.01279933 0.01624805
-0.01174961 -0.01044029
-0.00841272 0.00734787
0.01133523 -0.01611894
0.00519024 0.00547215
-0.00672203 0.01105229
-0.00557159 -0.00333937
0.00868686 -0.01160420
0.00102466 -0.01164656
0.01344561 -0.01840218
0.00571387 -0.01548308
-0.01316054 -0.01870063
0.02041419 -0.02843602
-0.00379796 0.01331648
-0.01060645 0.00891456
0.00296216 0.00947131
0.00802908 0.00528065
-0.01597439 0.01294526
-0.00038194 0.00372373
0.00215068 0.01134058
-0.00285360 0.00086982
0.02062815 -0.03379915
-0.01457987 0.00870725
-0.01316444 -0.00081020
-0.00195459 0.00263807
-0.00247721 -0.00248223
-0.00540254 0.00267957
-0.01574852 -0.01680972
0.00226041 0.01127264
0.00682882 0.02124451
0.00282373 -0.00368920
0.00505106 -0.00070354
-0.00712603 -0.02322459
-0.01000273 0.00108120
-0.01306411 0.00981035
-0.01467592 0.01059559
0.00693915 0.00497400
-0.00854897 0.01162204
0.00127937 0.00427528
0.00435192 -0.01064584
-0.00767242 0.00349347
-0.01750952 -0.01160721
0.00605392 -0.00592311
0.00013767 0.00218638
-0.00738785 -0.01746623
-0.00155288 0.00038990
-0.00237935 0.00984641
0.00719986 0.01157443
-0.02472126 0.00480044
-0.01350681 -0.00535131
-0.00086217 -0.00619401
-0.04263330 -0.00643358
-0.01008458 0.01788387
-0.02011470 0.00719275
0.00004051 0.00012919
0.01222571 -0.01191968
0.00756420 0.01539280
0.00651434 -0.01048105
-0.00461581 -0.00400767
-0.00470374 -0.01118944
0.02109279 0.00317949
-0.01927694 0.00991897
-0.00669026 -0.01116810
0.01321610 -0.00989075
0.01050902 0.01862513
0.01293526 0.00985720
-0.01271683 -0.02502374
-0.00813659 0.00110431
0.00432317 -0.00031087
-0.01152966 0.00709739
-0.00062381 -0.00473226
0.02486869 -0.00214565
-0.01370487 -0.01234113
-0.01711925 -0.00788277
-0.01738919 0.01348754
-0.01402008 0.00458179
-0.01189052 0.00262891
0.00995628 -0.00595357
0.02318727 -0.00519743
0.00935837 0.00754244
-0.00129230 0.00937760
-0.01050717 -0.00865083
-0.02439713 0.00465219
0.00228308 -0.01167074
0.01304930 0.00304323
-0.01729855 0.00162764
-0.01011358 0.00357714
0.00599946 0.00800962
0.00494765 0.00741148
-0.00566707 -0.00581065
0.00382421 0.00007497
-0.01373353 0.01191500
-0.01220192 0.00531404
0.00667677 0.01606492
0.01425991 -0.00323510
-0.00950746 0.00128406
-0.01353205 0.00272048
0.00242239 -0.00065503
0.00705300 -0.00604674
-0.00267398 -0.00800305
0.01254496 -0.01793162
-0.00418417 0.00685436
0.01172159 -0.02046833
0.00310245 0.00135099
0.00493382 0.01432586
-0.01277568 0.00138066
-0.01539174 0.03529190
0.01118279 0.00047272
0.00611793 -0.01099693
-0.01227828 -0.00962020
-0.00867230 0.00953815
0.01687455 -0.01333149
-0.00622846 0.02588701
-0.00033049 -0.01130010
0.03948436 0.00381606
0.01019577 -0.02933452
0.02021427 -0.00650493
-0.00776772 0.00285221
-0.00407831 0.00699734
0.00343279 0.01558246
-0.00350699 -0.01194382
-0.01553800 -0.00600342
0.00020851 0.00811856
0.01101844 -0.00263934
0.01140244 -0.01086427
-0.00187157 -0.00747463
0.00204067 0.00019621
0.01123911 -0.01736616
-0.01559454 0.00661295
-0.00753692 0.02597092
0.00337215 -0.01141437
0.00354010 -0.00110284
0.01257673 0.01254674
-0.01104971 -0.00047707
-0.00457238 -0.00161295
-0.00021447 0.00205204
-0.01581787 0.00323912
0.02695987 -0.01459408
-0.01668355 0.02020443
-0.00702261 -0.00569068
-0.00127181 0.00518606
0.02059359 -0.00820794
0.00449710 0.00289915
-0.00525026 -0.00379839
-0.01068204 0.00059921
-0.01790682 -0.01329113
-0.01695580 -0.02513878
0.01286207 -0.00945587
0.00396854 0.00251411
0.00079897 0.02112653
-0.01459408 -0.00489876
-0.01964868 0.01538165
0.00080498 0.01076575
0.00372827 0.00181321
-0.00694545 -0.00414677
0.01921021 -0.00638386
0.00709182 -0.00392269
-0.00985005 0.00089355
-0.01026893 -0.01176827
-0.01750951 -0.00756155
-0.01293137 0.01370346
-0.01583453 0.00198818
-0.00236318 0.00081632
-0.00862210 0.00277964
-0.00264087 0.00937981
-0.00681478 -0.00617844
-0.00109134 -0.01284698
0.00213195 -0.01923302
0.02469552 -0.00220001
-0.00366884 -0.01668839
-0.00157696 0.00692970
0.00633177 0.01506022
-0.00882193 -0.00420479
-0.00576952 -0.00808832
0.00500691 0.00356836
-0.00656396 0.01218515
0.00038694 -0.00050099
-0.01014051 0.00407849
0.00639634 -0.00438604
-0.01082704 0.00940529
0.00509097 0.01109879
-0.00365616 -0.00606715
-0.00043323 -0.00191756
0.00024714 0.00105613
-0.00337693 -0.00382366
-0.00359935 0.01314963
0.01358792 -0.01192378
-0.01508972 -0.00655069
0.00057354 -0.00566646
0.00833116 -0.01604724
-0.00056495 0.01894229
0.00393873 -0.00407825
-0.01676404 -0.02590364
0.00404353 -0.00784530
0.00786143 0.00653974
-0.01368610 0.00696598
-0.01579720 -0.00217803
0.00830049 -0.01065534
0.01190636 0.01118053
-0.00782643 0.00535844
-0.01153916 -0.00676550
-0.00158716 -0.02034771
0.01041864 0.00030653
0.01288155 0.01470073
0.00151258 -0.01398450
-0.00874545 -0.01987329
-0.00544172 0.00452804
0.01351239 -0.01496398
0.02878956 -0.00378145
0.00025924 -0.00533783
-0.00924338 -0.01196433
0.00010130 0.00691975
-0.00341166 -0.00641800
0.00221131 0.00544989
-0.00830632 0.00187554
-0.00043229 -0.00699157
-0.00775254 0.01838911
-0.00380865 0.00797409
-0.01538951 0.00076706
-0.00378901 -0.01130373
0.01287858 0.00466249
-0.01517257 -0.00649050
-0.00662170 0.00587443
0.01194800 0.00998139
-0.00308030 0.01330082
-0.01757717 -0.00457673
-0.01207218 0.00337736
-0.01479824 -0.00686909
-0.00689005 -0.01545469
0.00335013 -0.00272594
-0.00951021 -0.00794847
0.00990919 0.00312968
-0.01175945 -0.00306155
-0.00935583 0.02577046
0.00577356 -0.00070922
0.00773943 -0.01362820
-0.00844410 0.00961964
-0.00739832 -0.01577991
0.00049378 0.00173650
0.00084826 -0.00950399
-0.01171836 0.00504002
-0.00485171 -0.00718149
0.02387541 -0.01621206
-0.00242415 -0.01327531
0.00894980 0.00356295
-0.00589133 -0.00695379
-0.00123664 -0.01082277
-0.00605814 0.01034690
0.00551962 0.01297988
-0.00714101 0.00451285
0.00291556 -0.00849148
-0.00706789 -0.00972952
-0.00527570 -0.00809618
-0.01338579 0.00694161
-0.01469539 0.00514827
-0.00410482 0.00601871
-0.03153201 0.00473877
-0.01604054 0.01025452
-0.00431792 -0.01133720
0.00022369 -0.01415474
-0.00276400 -0.00551763
-0.00907759 -0.00666013
-0.00853276 -0.01261329
-0.00627452 0.01442650
-0.00148918 -0.01288509
0.00562908 -0.00680744
0.01585560 -0.00618300
0.00513198 -0.01208363
-0.02416989 0.00107195
0.00361884 -0.01766343
0.00527946 -0.00765612
0.01491519 -0.00175966
-0.00446653 -0.00534049
-0.00579390 -0.00845457
-0.00287874 0.00081954
0.00036646 -0.00954108
0.00001366 0.00662611
0.00897148 0.00004433
-0.00076089 -0.01186706
-0.00676439 -0.00877644
0.01700640 -0.01112846
0.03725050 0.00538378
0.01739300 0.00235603
0.00132770 -0.01870458
-0.00490600 -0.03930405
-0.01730620 -0.01781062
-0.00785766 -0.00323455
-0.00430567 0.00964333
0.00829273 0.00254934
0.00432836 -0.00095175
-0.00358384 0.00316358
0.00361457 0.00039306
0.00955241 0.00467827
-0.00944322 -0.02301522
-0.00035602 0.00928220
-0.00518801 0.02530890
0.01407757 -0.00580265
-0.01064573 -0.00513311
-0.00426053 0.00681049
0.00051366 -0.01235566
-0.00200823 -0.00769630
-0.00162935 -0.00702758
0.00478476 0.00514216
-0.00435418 -0.00230837
0.00318396 0.00404668
-0.00858965 -0.01235269
-0.01075943 0.00000544
0.00073125 0.00471879
-0.00352525 -0.00209678
0.00066861 -0.00209122
-0.00546204 0.02519585
-0.00370967 0.01093006
-0.00242007 0.00655511
-0.01553936 -0.00897218
0.01522286 0.01033369
0.01159848 0.00064404
-0.00102495 0.00495570
0.00882892 -0.01006022
-0.00467668 -0.01065912
0.01660899 -0.00580428
0.00475981 -0.00870365
-0.02389781 -0.00437039
-0.01267262 -0.00318338
0.03525993 -0.00323762
0.00868287 0.01198658
-0.01665358 -0.01306277
-0.00968905 0.00823402
-0.00675046 -0.01087454
-0.00675515 0.00342792
-0.00554459 0.00141506
0.00617108 0.02429276
0.00561877 0.00534527
-0.01007655 -0.01751872
-0.00491162 0.00757593
0.00282489 0.00939668
-0.00366769 0.01334588
-0.01152934 -0.00564437
-0.01135182 -0.00064956
0.01121026 -0.00755767
0.00386728 -0.00275722
0.00914940 0.00702806
-0.01898475 0.00566141
-0.00654662 -0.00280968
-0.02708917 -0.01714389
0.00148209 -0.00838586
-0.00596534 -0.00571674
0.01956045 0.00230894
-0.00181849 -0.00142294
-0.01020187 0.00486541
-0.00377440 0.00020781
0.03139959 -0.00127695
0.00761499 -0.00079436
-0.01285464 -0.00811146
-0.01091879 0.01181906
-0.00957556 -0.00633378
0.02475527 -0.00662427
0.01294671 -0.00207559
0.00388027 -0.00879171
0.00143591 -0.01571824
0.01409526 -0.01558339
-0.00061098 0.01656139
0.00493899 0.00524130
-0.00658760 -0.00826150
0.01167102 -0.00922929
-0.00119390 0.00858281
-0.00298879 -0.02197137
-0.00255299 -0.01781893
-0.01321688 -0.02273147
-0.00921204 -0.00101895
0.01718825 0.00980754
0.02097480 -0.01353698
0.02457812 0.01153318
0.02132886 0.01542203
0.01608809 -0.01559915
-0.01115205 -0.01973324
-0.01624977 -0.00483915
0.00333089 -0.00736542
-0.01644671 0.00628787
0.00380274 -0.01738501
-0.00596472 0.00299106
0.00420636 -0.01154815
-0.01006089 -0.00042482
-0.00729901 -0.01236795
0.00774663 0.00147454
-0.00062416 0.01732460
0.00154080 -0.00168483
0.00947387 0.01939732
0.00700733 0.00482043
-0.00276443 -0.00064774
0.00878131 0.00098791
-0.00457232 0.01303822
0.01636008 0.01225990
-0.00258971 -0.00369206
-0.00979024 0.00877898
0.00876838 -0.00189236
0.00143880 0.00276318
0.01014688 0.00068858
-0.00165792 -0.00372203
-0.00825712 -0.01227383
-0.00297899 -0.00758234
0.00230639 -0.00662218
-0.00222548 -0.00625445
-0.00009268 0.00248583
-0.00039357 -0.00848329
0.02049039 -0.01274994
-0.00168790 -0.00369539
0.01469723 0.01591365
-0.01348279 0.00841068
0.00940144 -0.00000874
0.01205248 -0.00059246
0.00128487 0.00889921
0.01098988 -0.01535445
0.00545221 -0.00027145
0.00356742 0.00216114
0.00314506 -0.01373460
0.00136648 0.00644417
0.00428035 -0.01518016
0.01727349 -0.00649383
-0.01549777 -0.01060628
-0.01823024 -0.00084421
0.00079368 -0.01045117
-0.01153256 -0.01515271
0.01644467 0.00090183
0.00971380 -0.00833365
-0.00191239 -0.00996413
0.02098233 0.00476479
0.01101557 -0.00502107
-0.01769865 -0.00722683
-0.00299367 -0.00398334
-0.01248826 -0.00327752
0.00156847 -0.00737048
0.00333992 0.01274086
-0.00209108 0.00541504
0.00595975 0.01403223
0.00795911 0.00254436
-0.00454661 0.01418474
-0.00222756 0.00627575
-0.01481448 -0.01699784
-0.00265026 0.01108074
-0.01970041 0.00189213
0.01432508 -0.00361675
0.01158553 -0.00053884
-0.01685581 0.00449238
-0.00550174 0.00805902
-0.00244413 0.00499309
-0.01057767 -0.01044668
0.01263292 -0.00528610
0.01544623 0.00789200
0.00328531 0.00355169
0.00559105 0.00469778
0.00197388 -0.01526820
-0.00843596 0.01005604
0.01037854 0.00214733
0.00475445 0.00852725
-0.00735842 0.00504404
-0.00266180 0.00411583
0.00014210 -0.00235370
0.00873208 -0.01604094
-0.00541498 0.00709329
0.00858127 -0.01430247
-0.01047016 -0.00083504
0.00341821 0.00374501
0.00971426 0.01146403
-0.01371552 -0.01807587
-0.00574326 -0.00626050
0.00326372 -0.01649431
-0.01432522 0.00542645
-0.01045445 -0.00947587
0.01160125 -0.00174441
-0.00766502 -0.00956289
0.01473185 0.00339837
0.00162755 -0.01253392
0.02281956 -0.00647090
-0.00122714 -0.00116988
-0.01406242 -0.00007531
-0.01548737 -0.00651026
-0.00242482 -0.00437502
-0.00233694 -0.00966338
-0.01402064 -0.00903974
0.01570290 -0.00680771
0.01504433 0.00505080
0.00264439 -0.00531816
-0.01240731 -0.01871732
0.00174798 -0.00526750
0.01828537 -0.00479441
0.00192042 -0.00546728
-0.01908550 0.00645835
0.00946616 0.00424519
-0.02009089 0.00003508
-0.00240208 -0.01645185
-0.00519314 -0.01267067
-0.01586958 -0.00889549
0.00528889 0.00313180
-0.00186901 -0.00001687
0.00205638 -0.00997617
0.01513456 0.00120755
-0.01301881 -0.00759554
-0.01461649 0.00318851
-0.01085230 -0.00845498
0.02319123 -0.00338649
0.01452128 0.01740448
-0.00008209 -0.00472994
-0.00903178 -0.00048158
0.00149512 -0.01758858
0.00246812 -0.00095586
-0.00875933 0.00613499
-0.00132570 0.01590439
-0.00943914 -0.00584916
0.00039504 -0.01966666
-0.00186520 0.00065247
-0.00300953 -0.00289504
0.00520937 -0.02609581
0.00737444 0.00343120
0.00013746 0.00065029
-0.00788855 0.00224858
0.00121660 -0.01155537
-0.00425903 -0.01071659
0.00876752 0.00305380
-0.00712805 -0.00601502
0.00238446 -0.00102251
-0.00838666 -0.00610802
-0.00840011 -0.00352406
-0.00196787 0.00544700
-0.01092099 -0.01006855
-0.01584259 -0.00328372
0.00474949 0.00566237
-0.01287054 0.01032828
-0.00932964 -0.00667519
0.01933925 0.01248298
-0.00750037 0.01814630
-0.02701245 -0.00812251
0.00191377 -0.00674703
-0.00177214 0.00394233
-0.01247753 -0.00101753
-0.00668580 -0.00658229
0.00498670 -0.01330486
0.02342880 0.00200082
-0.01170153 -0.00406030
0.01071777 -0.01672111
-0.01422931 -0.00549639
-0.00785575 0.01428324
-0.00807988 -0.00595255
0.00592399 -0.01595595
0.00958794 -0.01112191
-0.01298472 -0.00424734
0.00661975 -0.01946564
-0.01747289 -0.01885133
0.00801773 0.00630386
-0.00688847 0.00691667
-0.00459410 -0.00052862
0.01093303 -0.01111897
0.01636272 -0.00359628
0.01163061 0.00333399
-0.01131759 -0.00835332
-0.00807619 -0.01452248
-0.00686031 0.00616375
0.01317799 -0.00827792
0.00579426 0.00167244
0.00503648 -0.00292787
-0.00599267 0.00220987
0.01893698 -0.00384881
0.00735892 -0.00817310
0.00311151 -0.00274391
-0.00644466 0.00733916
-0.00935686 -0.00350956
0.01763466 -0.00118672
-0.02898074 0.01064997
-0.00623376 -0.00787997
0.01133543 -0.02377021
0.00647772 -0.00758721
0.01108783 -0.02407476
-0.00166607 0.00118798
-0.01467652 -0.00722517
-0.01514171 0.02409732
-0.00283249 0.01026962
0.00090422 -0.01397252
0.00197605 -0.01155239
-0.01317616 0.00106625
-0.00223276 0.02051925
-0.00879211 0.00720070
0.01096228 -0.00473567
0.01530059 0.01024184
-0.00501735 0.01920190
0.00266888 0.01717398
0.00624214 -0.00931489
-0.01427993 -0.01125390
-0.00795275 -0.00704410
-0.00941844 -0.01683193
-0.00923997 -0.00801646
0.00688623 -0.00430385
0.01943029 -0.00563236
0.00390066 -0.00194900
0.01604810 -0.00639439
0.00154230 0.00126586
0.00499702 -0.00783119
-0.00083519 0.00962383
-0.00322470 -0.01311245
0.00389176 -0.01421203
-0.00648754 0.00383088
-0.01136580 0.01739835
0.00965998 -0.00272843
-0.01287667 -0.00316530
-0.01314256 -0.00639919
0.01270584 -0.01619837
0.02064560 -0.00737861
-0.00232856 -0.00717834
0.00928722 -0.00325237
0.00425801 -0.00707423
0.00995983 -0.00150539
0.00341467 -0.00883044
0.00438408 -0.01186207
0.02128742 0.01418743
-0.00161223 0.01848717
0.02165551 -0.01578805
-0.01058429 -0.00798899
-0.00052969 0.00191944
0.00814886 -0.00690285
0.00392573 -0.00162036
-0.00691155 0.00220745
-0.00489020 -0.01470254
-0.02470154 0.00138544
0.00003548 -0.01718762
-0.03528375 -0.00903875
0.00688592 0.02686081
-0.00201955 -0.00427188
-0.00633053 -0.00570801
-0.01956056 -0.01378996
-0.00574611 0.00555155
-0.00652214 -0.00100102
-0.00483073 0.00234668
-0.00697729 -0.00104503
-0.00405733 -0.01925255
-0.01123714 -0.00131714
-0.00587898 -0.02462398
0.00148249 0.01339246
0.01823543 0.01629112
-0.00469757 0.00913377
0.00293174 0.01079136
0.00316471 -0.00424599
-0.01179331 -0.01560966
0.00597373 0.02676524
-0.00467601 0.01212759
-0.01856469 -0.00258172
0.00695122 -0.01017404
-0.00337879 -0.01209731
0.00625312 0.00407750
0.01476560 -0.00629162
0.01881197 -0.01018767
-0.01336099 -0.01269035
-0.00211667 0.00359913
-0.00761961 -0.01037735
-0.00363624 -0.01934874
0.00012619 0.00147010
-0.01145227 -0.00565466
0.00829127 -0.01066112
-0.00371247 -0.02067607
-0.01421725 0.02483104
0.01178052 -0.01097430
0.00405369 0.00548196
-0.00474842 0.00232909
-0.01252909 0.00864515
0.00374659 -0.00987417
-0.01938990 -0.00998696
0.00865520 0.00189883
0.01954318 -0.01047763
0.00429250 0.01053331
-0.00206814 -0.01235283
0.01205719 0.02620202
0.00248371 0.00774579
-0.02275441 0.04304553
-0.00325358 0.00149255
0.00191973 -0.00050878
-0.00073348 -0.01156080
-0.02234147 -0.00345261
-0.00171075 0.00668229
-0.01102065 0.00532480
-0.00308216 -0.01526876
-0.00002269 -0.01471995
-0.00111295 0.00351514
-0.00742901 -0.00699393
-0.00062284 0.02567324
-0.00499958 -0.00798199
-0.00720647 -0.00509157
0.00291697 -0.00490335
0.00233456 0.00117536
-0.00907060 0.00496422
-0.00953178 -0.00816652
-0.01051138 0.01195702
-0.00177374 -0.00117267
0.03419587 0.00507206
-0.00263140 -0.00541408
-0.00470028 -0.00445387
-0.00613735 -0.00313237
-0.00612840 -0.00197774
-0.00578798 -0.00872453
-0.00522823 0.00990215
-0.01303458 0.00025733
-0.01469052 0.02337972
0.02160277 -0.01671077
0.00225029 0.00667550
0.00261334 -0.01205292
-0.00726759 -0.00423961
-0.00257163 0.01322758
-0.00263554 -0.00582315
-0.00105603 0.00762160
-0.02112207 -0.01053543
-0.00697147 -0.00460044
-0.00029300 0.00663764
0.00573883 -0.00660622
0.00127397 -0.01964508
0.01137021 0.01770069
0.00220334 0.00079620
0.00150567 0.01854083
-0.01062804 0.00315638
-0.00304173 0.02734871
0.00335858 -0.01854209
-0.00831030 -0.02810825
-0.00520345 0.00447535
0.00118895 0.01063084
-0.01442476 -0.00272692
-0.01360391 -0.01645485
0.00496738 -0.00202132
0.01099094 -0.01359896
-0.02062218 0.00191903
-0.00649185 0.01331343
0.02151390 -0.00976458
-0.00225940 -0.00938413
-0.02522377 -0.00537560
0.01303070 -0.00586790
-0.00564569 -0.00063196
0.01454094 -0.00734705
-0.00520350 -0.00228951
-0.00257558 -0.00859021
-0.00040319 0.00325840
-0.01551688 0.00776478
-0.01332397 -0.00023334
0.00733690 -0.00041374
-0.00584822 -0.00359093
-0.00801063 0.01223016
-0.00376581 -0.00987539
0.01475285 0.00406981
-0.00670204 -0.02656093
-0.00610875 0.00433368
-0.00343993 0.00246584
0.01408054 0.00343145
-0.01256178 -0.00319455
-0.01779328 0.00326514
0.00659014 -0.00288470
-0.00301784 0.02272655
-0.01686609 0.00768349
-0.02572130 0.00187597
0.01114487 -0.01825878
-0.01689580 -0.00350912
-0.00686009 -0.01439334
-0.00365704 0.00824625
-0.00635429 -0.00018860
0.00386965 0.00172096
0.02064499 -0.01587132
-0.01305793 0.01389825
-0.01214332 -0.01854485
0.01141358 -0.00754298
-0.00623306 -0.01069625
-0.01153257 0.00689772
0.00287482 0.01479447
0.01530768 -0.00056244
-0.00299245 -0.01022954
-0.00978746 0.01269812
-0.00774537 0.01000800
-0.00387711 0.00240447
-0.00010734 -0.00348969
-0.00563039 -0.00311461
-0.00498197 -0.00837184
0.00325021 -0.00598034
-0.01035108 -0.00517092
-0.00234961 0.00475880
-0.00925123 0.01992845
-0.00358502 -0.00679899
-0.01469994 -0.01360241
-0.00245969 0.00665570
-0.02276124 -0.02611532
-0.00877931 0.00569525
-0.00716240 0.02528412
0.00296134 -0.00411236
0.00529007 0.02692274
-0.01238236 -0.00162477
-0.01258475 0.00288949
-0.00033669 0.00730788
0.02149723 0.00238483
0.00572607 -0.00296540
0.00556652 -0.01004956
-0.00374052 0.00420499
0.01415881 0.00540831
-0.00331799 0.01700685
0.00486066 0.01833258
-0.00433770 -0.00398827
-0.00719392 0.00325626
0.00844323 -0.00191554
-0.01137606 -0.02928312
-0.00942929 -0.00763705
0.01919289 -0.00356744
0.00157859 -0.00973183
0.00655590 -0.00003701
-0.00096281 0.01681267
-0.00503641 -0.00816889
0.00884177 -0.01062649
0.01594660 -0.01514770
-0.01819690 -0.00014731
-0.00021669 -0.00560132
0.01007487 -0.00760485
-0.01992221 -0.01926114
0.00879189 0.01026768
-0.00110503 -0.00318408
0.00702462 -0.01643364
-0.00788046 -0.01576977
0.00188094 0.01414773
0.00849270 0.01346357
-0.00774162 0.00067922
0.00551519 0.02036964
-0.01842079 0.00846125
0.00743842 -0.00962259
-0.02574238 0.00210855
0.02438370 -0.01079884
-0.00035149 0.02542389
0.00163481 -0.03005424
0.00265578 -0.01772385
-0.00065098 0.00093655
0.00639146 -0.00379715
-0.00267790 0.00609325
0.00278204 -0.00453207
0.02183271 -0.00362882
0.00120731 -0.01142591
-0.00656331 -0.00175389
-0.00715872 -0.00727068
-0.00341661 0.00176461
0.00175673 -0.00235818
-0.02473253 -0.02109588
-0.01159402 0.00112874
-0.00305126 -0.01115595
-0.01665573 0.00810349
0.01647112 0.01214113
0.02549774 -0.00816652
-0.00609627 -0.00171644
-0.00691187 0.00898642
-0.00334878 0.02354276
-0.00566572 0.00746730
-0.00645472 -0.01766529
0.00048397 -0.00929523
-0.01829114 0.00755254
-0.01338778 0.00705736
-0.03122795 -0.02250004
0.01399001 -0.00202498
-0.00828657 0.02326252
-0.00435014 0.00534244
0.00156934 -0.00515759
-0.02270048 0.00821217
0.01691737 -0.01907900
-0.00814999 -0.00973616
-0.00873636 0.00974555
0.00698430 -0.00218197
0.00620891 -0.00430447
0.00176179 -0.00043078
-0.00882379 -0.00499813
0.00113059 0.01208559
-0.00833406 -0.01973790
0.00010894 0.01544371
-0.00491030 -0.00873813
-0.00862288 0.00376589
-0.00101734 -0.00571425
0.00210528 0.00293132
0.00162199 -0.00154160
-0.00444304 -0.01667213
0.00600585 -0.02055201
-0.00088274 0.00564268
-0.00426205 -0.00395407
0.02304575 -0.01250935
-0.00166187 0.01162017
-0.00518436 -0.01349451
0.00398917 0.00639302
-0.00273960 0.00454897
-0.00318023 -0.01318996
0.00509738 0.00074182
-0.00893503 0.00101408
0.01912832 0.00516769
0.01402315 -0.01366318
-0.00058417 0.01097643
0.01674736 0.00571863
0.00473403 0.00187519
0.00272198 0.00675231
-0.00141303 0.00947237
-0.01496393 0.00215338
0.00391100 -0.01626724
-0.01167079 0.00202989
0.00331489 0.00357978
-0.00637512 0.00105991
-0.01003456 -0.02387261
0.00160956 0.00680917
0.00215736 0.00616075
-0.01035195 -0.01241322
-0.00288171 -0.00418740
-0.00179000 -0.00414002
-0.01197082 -0.00887716
0.00384496 -0.00430925
0.01816437 0.00219799
0.03035090 0.00945373
-0.00825191 -0.00952689
-0.00195790 -0.00678171
-0.00105337 -0.01959122
-0.00042940 -0.00365881
-0.01691396 0.00186404
-0.00933915 -0.00934915
-0.00057698 0.00607968
-0.00792850 0.00789435
-0.00572941 0.01475421
0.00397989 0.00145600
-0.00851919 0.01262308
-0.02365110 0.01734301
-0.00722749 0.03327551
-0.00902691 -0.01089518
0.00312519 0.01627890
-0.00668711 -0.00829799
-0.00935597 -0.01160319
-0.00183118 -0.00406153
0.01160534 0.00000949
-0.00441061 0.00519475
0.00141922 -0.01137551
0.00292765 -0.02569114
0.00524943 0.02688519
0.00581729 -0.01181658
0.01228034 0.01388411
-0.00622319 0.00097881
0.00442158 -0.00048436
-0.01662584 -0.00578391
-0.00018351 0.00417037
0.01508887 -0.00478940
0.00383523 -0.02541243
-0.00429696 0.00517058
-0.00477318 -0.00819755
0.00539715 0.01225784
-0.00747300 -0.00598255
0.02861012 -0.00015920
-0.01225789 -0.01163817
0.00908759 0.00654702
0.00211214 0.00459528
-0.00632608 -0.02510706
-0.01359333 0.00013824
-0.00086962 -0.00134489
-0.00363705 -0.00501799
-0.00536835 0.00121860
-0.00738609 -0.00342236
0.00454308 -0.00299490
-0.00010748 -0.00345319
-0.00435976 -0.00244784
-0.00610079 0.00336024
-0.00252210 -0.00781665
0.00101754 0.00542587
-0.00753623 -0.00495810
-0.00649113 0.00296537
-0.01229758 -0.00157644
0.01843816 -0.00688746
-0.00343006 -0.00676492
0.00053881 -0.01218810
-0.01448469 -0.00453925
-0.01059514 -0.00868103
-0.00187203 0.01057886
-0.00598385 -0.01395544
0.00117236 0.00179036
0.01676900 -0.00489340
0.00715741 -0.00639900
0.00152904 -0.00121360
-0.01322847 -0.00181234
-0.02142363 -0.00816644
-0.00352556 -0.00967573
0.01180853 -0.00557878
-0.00646999 -0.01048844
-0.00963696 -0.01061916
-0.00001068 -0.01021499
-0.00003779 -0.00575701
-0.01054139 -0.00420475
-0.00177215 0.00479522
-0.00406805 -0.00666093
-0.00420571 -0.00101340
-0.01179526 -0.00383487
-0.01481355 -0.00657676
-0.00645392 0.01487980
-0.00178956 0.00222780
-0.00301432 -0.00776815
-0.00928539 0.00601792
-0.00545232 0.00391559
-0.01173688 -0.01509100
0.01786147 0.00253509
0.00021707 0.00790092
0.01241731 -0.01051906
-0.00575666 -0.01359827
-0.00373326 -0.01228320
-0.00686965 -0.01883849
0.01013337 -0.02017668
0.00585231 0.01635300
-0.00808747 -0.00691647
-0.01179817 0.00324830
0.00606412 0.00086068
-0.00715993 0.01789506
-0.00078401 0.00489381
0.00776517 0.01432004
-0.00469995 0.00235554
-0.01017109 0.01684445
0.00351149 0.00379601
-0.00706887 -0.00760539
-0.01153326 0.00708529
0.00037529 -0.01437654
0.02399240 0.00071839
0.00896453 -0.01997809
0.01818636 0.00913531
-0.00421180 -0.00582826
-0.00104190 -0.00198070
0.00064447 0.00211130
0.01453848 -0.00373712
-0.00550643 -0.00411672
0.00514767 -0.00504536
-0.00111339 0.01995946
-0.01759008 -0.01731048
-0.01648806 -0.00393754
-0.00246826 0.00849582
-0.00676045 -0.00739512
-0.00845050 0.01809459
-0.00228704 0.00015349
0.03236653 0.00235499
0.00378666 -0.00796360
0.01085638 0.00040161
-0.00009688 0.00285411
-0.01100234 -0.00165879
-0.00875326 -0.00245236
0.00181555 -0.00537486
0.01233380 -0.00265778
-0.00766443 -0.00858351
-0.00632636 0.01146418
-0.00428425 -0.01318437
0.00124348 0.01904139
-0.01578838 -0.00775099
0.00681220 -0.01985499
-0.01193332 0.01468582
-0.01217273 -0.01054955
-0.00484283 -0.01205921
-0.01421869 -0.00044593
0.03835505 -0.01591835
-0.00116320 0.00004442
0.00035902 -0.00901237
0.00896347 -0.00142524
-0.00137911 0.00405426
-0.00528780 -0.01135898
-0.00084714 -0.00558033
0.01097029 -0.00354274
0.01231403 -0.00564743
-0.02592306 -0.00186979
0.00300473 -0.01914176
-0.00413266 0.01304354
-0.00686428 -0.00252825
-0.01495892 -0.02027618
-0.00418887 0.00808340
-0.00782762 -0.00811469
0.01107182 -0.01212986
0.00064848 0.00112717
-0.00449686 0.02437359
-0.00445942 -0.00455814
0.00405324 -0.01193737
0.00293816 0.00488627
-0.00472162 0.00842811
-0.01589382 -0.00692243
-0.00541471 0.01146556
0.01536406 -0.00492314
0.00042222 -0.00625373
0.03130349 -0.00022377
0.02167056 -0.02312744
-0.01442291 -0.00569093
-0.02044825 -0.00249374
-0.00713914 -0.00468966
-0.00668436 -0.00923134
-0.00324011 0.00625193
-0.01406634 -0.00415125
-0.00113593 -0.00464219
0.01261711 0.00791197
-0.01260887 0.01341473
-0.00783041 -0.00129481
0.00072120 -0.00218849
-0.01828912 -0.02483567
0.01520690 -0.00289435
-0.00270719 -0.02339904
-0.00769818 0.01306090
-0.00980402 -0.01498034
-0.02549551 -0.00724033
0.00554937 0.01796291
0.00189511 -0.00840799
-0.01441534 -0.00247248
-0.00954685 0.00174588
0.02022105 0.00482856
0.01065715 -0.01757374
0.00428165 -0.00450820
-0.01501470 -0.00717433
-0.01003547 -0.00048808
0.00619073 -0.00815855
-0.00975289 -0.01802059
-0.00329565 -0.00732769
0.00211004 0.01169949
-0.00650657 -0.00156800
-0.00423683 -0.00619110
-0.00096757 -0.02109409
-0.00938961 -0.00578655
-0.01560827 0.00915975
0.00272915 0.00255170
-0.00925189 0.00757482
0.00735099 0.01393019
0.00946859 0.02213333
-0.01463667 -0.01007368
-0.00572087 0.00232956
-0.00243054 0.00213352
-0.00730750 -0.01283749
-0.01234409 0.00661453
-0.00962089 0.00622089
0.00495049 -0.01780789
-0.00834870 0.00217200
-0.00655832 0.01212652
-0.01986610 -0.00360412
0.00817614 0.00409424
-0.00201108 -0.00305890
-0.00683060 -0.00860412
-0.01067111 -0.00131376
-0.00428066 -0.00556213
0.00778549 0.00439199
0.01865585 0.00547001
0.00005066 0.00100032
-0.02180446 0.01122424
0.00010415 -0.01739426
0.00466868 -0.03258941
0.00065147 -0.01661066
-0.00968188 0.01452957
0.00244592 -0.01074034
-0.00082522 -0.01265506
0.00771554 -0.01026124
-0.01059760 -0.00337335
0.00606366 -0.00989463
0.00348829 -0.01047460
-0.01638031 0.00794658
-0.00183777 0.01213415
0.00826562 -0.00746830
0.01374181 -0.00331218
0.01028251 -0.01093205
0.00561843 0.00557077
0.00569023 -0.00905822
-0.00454118 -0.00614059
0.00494873 -0.00498688
0.00385746 0.00115245
0.00679634 0.00633252
0.00505920 -0.01524843
-0.00564318 -0.01651425
-0.00123764 -0.01421085
0.00468673 -0.00242630
0.00197800 -0.02034939
-0.00646495 0.00138347
0.00088054 0.00011670
0.00695014 -0.00206791
0.02005909 -0.01791889
0.00964393 -0.00105487
0.00107604 0.01152840
0.01343577 -0.00585994
-0.00749363 -0.00125679
-0.00105878 -0.00944038
-0.00582329 -0.00983955
-0.00337652 0.00272547
-0.00447094 -0.01063917
0.00361618 0.00303736
-0.02124578 0.00946767
-0.00364120 0.00695010
-0.00093166 0.01263599
-0.00293071 0.00535609
0.00357192 -0.01880100
-0.01188460 -0.00287764
-0.02130127 0.02145674
-0.01984060 -0.00825468
0.00230774 0.01182232
-0.02085839 -0.00234222
-0.00012209 -0.00048834
0.00412387 -0.00037424
-0.01190193 -0.01458079
-0.00363005 -0.02058253
0.01727999 -0.01355432
0.00490769 -0.00264624
0.00465088 -0.00500412
0.01349719 0.01114201
-0.00276090 -0.00271109
-0.00547890 -0.01052352
-0.00479228 -0.02146055
-0.00022990 0.00756024
-0.00527304 -0.00880990
0.00248264 -0.00773782
0.01261022 0.00126248
-0.00076211 0.00534623
-0.00756552 -0.00461300
-0.02015393 -0.01572279
-0.01123683 -0.01500696
0.00556782 -0.00458782
-0.00120062 -0.01078159
-0.00442851 0.00513739
-0.01370955 -0.01225461
0.00983465 0.01513420
-0.01405958 0.01822985
0.00244587 0.00078706
-0.02184482 0.00420504
-0.02795981 0.00845489
-0.00398720 -0.00475455
0.00514115 -0.00928364
-0.01039925 -0.03683080
0.00619207 -0.01517546
-0.01045371 -0.00767048
0.00033854 0.00950466
0.00277047 0.00684882
-0.00230236 -0.00914633
0.00052629 -0.00741007
0.00065568 -0.00570960
0.00428312 -0.01225938
0.01705958 -0.00073748
-0.01824733 0.00366597
0.00006168 0.00435255
0.00131273 -0.00026938
0.01021127 0.00064326
0.02415132 -0.02658517
0.00013977 -0.00922153
0.00196857 0.00857739
-0.00203632 -0.01306931
-0.01093048 -0.02227407
0.00919958 0.00484078
-0.00364634 0.00051354
-0.00364585 -0.02527779
0.00977793 -0.01405071
0.00927471 -0.01912364
0.01231974 0.00328328
-0.02614829 -0.00820508
0.00760560 -0.00217650
0.00316796 -0.02287700
-0.00430995 0.00865878
0.01143357 -0.00596834
0.00059729 -0.00725744
-0.00913631 0.00581734
-0.00802189 -0.00549678
0.00743798 -0.00916282
-0.01076729 0.00967553
0.01793111 -0.00027938
0.00732915 -0.01998430
0.00806438 -0.00164980
-0.00521852 0.00721099
0.00877995 0.00072914
-0.01513156 -0.00365451
-0.04242314 -0.00112654
0.01000550 -0.02581337
-0.00969290 -0.00832312
0.00175742 -0.00081117
0.00161218 0.02237798
-0.00623623 0.01089307
0.00872231 -0.00805562
0.01130286 -0.00784408
0.00143981 0.00746820
0.00159124 -0.01237998
0.00503163 0.01961908
0.00963391 -0.00730983
0.00008047 -0.01106006
0.00335314 -0.00678173
-0.00303196 -0.00490958
0.00568407 -0.00874034
0.00596509 0.01296860
0.00206496 0.00571783
-0.00816748 -0.01606663
0.00282995 -0.01911730
-0.01506312 -0.00545497
-0.01568122 0.01198646
0.00026978 -0.01326018
0.00809025 -0.00192257
-0.01666010 -0.00058268
-0.00524454 0.00476182
0.00381658 -0.00374748
-0.00105720 -0.00721019
0.00281122 -0.01404073
-0.01856517 0.02231015
0.02246882 -0.01249142
-0.00134730 -0.00858155
-0.01657929 -0.00851775
-0.00313124 -0.00602524
0.00784880 0.00513299
0.00851149 0.02232747
-0.00270826 0.01410742
-0.01255427 -0.02330980
0.01027606 -0.00847632
-0.01682897 -0.00772192
-0.01329369 -0.00562130
-0.00043740 0.01356589
0.01495494 0.01236465
0.00224736 -0.00920034
-0.00496684 -0.00350603
0.01485727 -0.00204617
0.01184010 0.02359639
-0.01098278 0.00450738
-0.00031680 -0.00839622
0.00695785 -0.00646802
-0.00538559 0.00986185
-0.00672866 -0.00738271
-0.01067748 -0.00084621
-0.01905153 0.01452008
-0.00268657 -0.01131766
0.00685715 0.00927775
0.00279797 -0.01269014
-0.00246266 0.00776002
-0.00513988 -0.00249970
0.00242390 0.02067749
0.01422116 0.01206122
0.00680217 -0.00705820
0.00258259 -0.01353639
-0.00203209 0.00602727
0.00638031 -0.00535447
0.00019300 -0.00374571
0.00504602 0.00549847
0.00601193 -0.00045243
-0.00551039 0.01763158
0.02236410 0.01726285
-0.02208826 0.01722402
0.00642446 -0.00911546
0.01123455 0.00256917
0.00443376 -0.00771944
-0.02428479 0.01030462
0.00416897 0.01161326
-0.00321260 -0.00228904
-0.00336508 0.00037349
-0.01889159 0.01164013
-0.00640721 0.00045155
0.01736963 0.00182738
0.00498454 -0.00171436
0.00055024 -0.00347487
0.00291827 -0.00094852
0.00590157 -0.01078713
0.00985042 0.02969654
-0.00994531 0.00136995
0.01138323 0.00038304
0.00468034 0.00397878
-0.02039604 0.00024824
-0.00129233 -0.01016639
0.01879701 -0.00954297
0.00745751 0.00830186
-0.00172481 0.01755650
-0.00115606 0.01299569
-0.01465620 -0.00257405
-0.00148365 -0.01860605
0.00581100 -0.01025855
0.01905372 -0.00365014
-0.01823032 0.01194409
0.01097076 -0.01116479
0.00315898 -0.00346956
0.00332486 -0.00416991
-0.00326881 -0.02262953
-0.01065616 -0.00052288
-0.01228084 -0.01554994
-0.00971365 0.01031263
-0.00009732 0.01615288
0.00225096 -0.01053449
0.01439612 -0.00255258
0.02119355 -0.01009314
-0.00132611 -0.02297334
0.01323318 -0.00693742
0.00913314 -0.00100270
0.02035457 0.00768926
-0.00247524 0.00434876
0.01383914 0.00815311
-0.00370938 -0.00179007
-0.00566594 -0.00407955
-0.00430162 -0.00348089
-0.00856568 0.00566393
0.00004409 -0.01504919
0.00487630 -0.00988519
0.01611528 0.00405773
0.01276579 0.00127016
-0.00148309 0.01109467
0.00599236 -0.00156157
-0.00359373 0.01207624
-0.00142638 -0.00039438
0.00134582 -0.00901991
0.00116531 0.00084659
0.00190448 0.01181003
-0.00939395 -0.00183106
0.00397928 0.00047551
0.00454059 0.00331414
0.00521174 -0.00243005
0.01245074 0.00116447
-0.00462384 0.00035789
0.00818219 0.01362177
0.00290939 -0.00281939
0.00648116 -0.01420594
-0.00172527 -0.00403285
-0.01939725 0.00823781
-0.01301135 0.00114445
0.00319920 -0.00216915
-0.00147981 -0.01882853
0.01094653 -0.00624959
-0.00724416 -0.01495903
-0.00639992 -0.01868638
0.02240798 0.01306842
-0.00023713 0.02150801
0.00309037 -0.00856402
0.00450009 -0.00536755
0.01233094 -0.01048879
0.01152724 -0.00073159
0.01227262 0.01087256
-0.00945068 0.01182556
0.00753035 -0.01574012
-0.00473725 -0.00425319
0.00468123 -0.00457351
-0.00830725 -0.00948363
-0.00017025 -0.00934883
0.00353038 -0.00145204
-0.00814493 0.01021553
-0.00042629 -0.00804729
0.00034285 -0.00726774
0.00120584 0.01473337
-0.00378427 0.02053454
0.01724055 -0.00950720
-0.00559557 -0.00072095
-0.00905450 -0.00398354
-0.00566901 0.00398341
0.00665771 0.01847571
-0.01630553 -0.01662026
-0.00743239 -0.00044849
-0.01237214 -0.01347085
0.00136437 0.00264005
-0.00751599 -0.00191705
0.02023754 0.00474582
0.00008254 -0.00765612
0.00940329 -0.01116998
-0.00954369 -0.00720600
0.02788796 -0.00017732
-0.00309690 -0.00549183
0.00020498 0.00987497
-0.00343097 -0.00571512
-0.00906376 0.00788539
0.01313874 0.00371419
0.00130174 0.00053514
0.03073227 -0.01454359
0.00203409 -0.01005827
0.00538685 -0.00530295
-0.00539072 0.00807928
-0.00121423 -0.00320279
0.01947963 -0.00496444
0.00068983 0.00597448
0.01120620 -0.01022060
0.02631367 -0.00151280
0.00239159 -0.00977767
-0.00793689 -0.00265569
0.01053569 0.00135195
-0.00854991 -0.01220968
-0.00496893 -0.00492944
-0.00034665 0.00882248
-0.00075714 0.01703173
0.00117457 -0.00060131
0.01179187 0.02512285
-0.01871457 0.00085989
-0.00512312 -0.00599605
-0.00203021 0.00785267
0.01839030 0.00233463
-0.00599391 -0.00958285
-0.00695657 0.00183397
-0.01182245 0.00029156
-0.00514790 -0.00029292
0.00652122 -0.01402931
-0.01820152 0.00619113
-0.00215358 -0.01173412
0.03016735 -0.00495971
-0.01277210 0.01517982
-0.00158986 0.02497177
0.00695822 -0.00162927
-0.00375673 -0.00174883
