-0.01810627 0.00789359
-0.00278744 -0.01035551
0.00886319 0.01217563
0.00281575 -0.00124032
-0.00455131 -0.01964516
-0.02351305 0.01325827
0.00709849 0.01293980
-0.03394035 0.00601241
-0.03678093 0.01038163
0.00490543 -0.00434521
0.01286542 0.00057541
0.00803462 -0.01324766
0.00187274 -0.00746009
0.01656447 0.01296008
0.00008410 0.00031075
0.01795827 -0.03221220
-0.00852373 -0.01454770
0.00168515 0.00990609
0.01010866 -0.00414376
-0.00703517 0.00023664
0.00034528 -0.00793815
-0.01212250 -0.02192649
-0.02258324 0.01572309
-0.00632073 -0.01330787
0.00215543 0.00226756
0.02267617 0.01576037
-0.00048124 -0.00165068
0.00395172 0.00995038
-0.02486339 0.01003253
0.00245349 0.00083330
-0.00491239 0.01172972
-0.01395995 -0.00395005
-0.00442606 -0.00942284
0.00073212 0.00712420
0.00869964 0.00483241
-0.00265866 0.00165297
0.00470798 0.01079758
0.01713188 -0.00268840
-0.00020437 -0.00027175
0.01209588 -0.03318105
-0.00113452 -0.00441276
-0.01633001 0.01192182
0.00740627 0.00248269
0.01559092 -0.01554242
0.00810422 -0.00609883
-0.01352867 0.00354011
-0.00700913 -0.00061859
0.01830001 -0.00576203
0.02377206 -0.01678577
-0.00214329 -0.00073641
-0.00813416 0.00018996
-0.02102318 -0.00193266
0.02009537 0.01201488
-0.02495709 -0.02180890
-0.00323470 0.00259725
-0.00216488 -0.01387146
-0.01686352 -0.00899232
0.00700950 0.00570154
-0.00527326 -0.01352484
-0.01898320 -0.00524722
0.01176582 -0.01103076
-0.00892602 -0.00609591
0.02477520 0.00801418
-0.00836482 -0.00198030
0.01358153 0.01273839
0.01373880 0.01514385
-0.02116887 -0.00711040
0.01256571 0.02126158
0.00711901 0.00796853
-0.02450451 -0.00338399
0.01380236 0.01736169
-0.00465068 -0.00603038
-0.01863201 -0.00648647
-0.02532725 0.04711825
0.00765271 -0.00143752
0.01107715 0.01026126
0.00764141 0.00191001
-0.00677467 0.01529974
0.00202672 -0.01089193
-0.00808956 -0.02052503
0.00085509 -0.03249041
-0.03005075 -0.00914751
-0.00381704 -0.01353865
-0.00727758 0.03664400
0.01753290 -0.01345804
-0.00384016 0.00498992
-0.00977030 -0.00192791
0.00947408 -0.01213002
-0.00057308 -0.02007134
-0.00378365 -0.01736961
0.00617665 -0.00211424
0.00148948 0.01295643
0.00291849 -0.01239953
0.00065339 -0.00663297
-0.00533042 -0.01378323
0.01165623 -0.00574658
-0.00072993 -0.02603693
-0.00503464 0.00176471
-0.00591520 0.00119658
0.00695930 -0.00730333
0.02714496 -0.00352771
0.00782816 0.01476241
-0.00080222 -0.01194861
0.00289243 0.01511865
-0.00133593 -0.00611659
-0.01471944 0.02555117
-0.00783402 -0.00947774
0.00868082 0.01138983
-0.02300461 -0.00069967
-0.00573759 -0.00693824
0.00472629 0.00907653
0.00123062 0.01090983
-0.02083439 0.00410012
-0.00470921 0.00683219
-0.00481563 0.00563860
-0.00792416 -0.00577163
-0.02301277 -0.02043353
0.02019122 0.00267473
-0.01217714 0.00559988
-0.00505709 0.01661786
0.00078206 -0.03048622
-0.00970879 -0.00108025
0.01485622 -0.02004584
-0.01380072 -0.01233020
0.01454708 0.02068708
-0.00462095 -0.02545226
0.03442473 -0.03115420
-0.04034295 -0.00338459
0.00620162 -0.01085558
0.00541083 0.00970550
-0.00331822 0.00508100
-0.01706383 0.00478227
0.01850530 0.01457261
-0.00610933 -0.01260088
-0.01268887 -0.00899198
0.01991361 0.00191612
0.00281659 -0.00496733
-0.02191239 0.01551430
0.00257111 -0.01208484
-0.02002705 0.02538886
0.00478231 0.00939253
0.00291635 0.00025332
-0.00533800 0.00120304
-0.00122946 0.00515148
0.02822058 0.00113240
-0.01562315 -0.00277707
-0.01774627 -0.01107968
-0.02012041 0.01002922
-0.00389362 -0.03521106
-0.00506393 -0.01973128
0.03198010 -0.02157928
0.00301802 -0.02494204
0.01673692 0.00770078
0.00973006 -0.00120189
-0.00156510 0.00599714
0.01054682 0.00463070
0.02488216 0.00846352
0.02014135 0.00215641
0.00069491 -0.00434922
-0.00238016 -0.01251105
0.01613555 0.00638639
0.00467899 0.00686937
-0.00784322 0.02607965
-0.00871641 -0.01188930
-0.00816995 0.00435322
0.03047496 0.03202285
-0.00650024 0.00682760
0.00380123 0.01031973
0.00432850 -0.01317070
0.00901175 -0.02028134
0.00759990 -0.01520048
0.02981048 0.00524580
-0.02000822 0.01537553
-0.00218470 -0.01966675
0.01122848 -0.01518694
-0.00701164 -0.04134607
-0.00194249 -0.00137192
0.00696635 0.00374151
0.01023429 0.00222700
0.03213020 -0.00914938
0.00252128 0.01676146
0.02226507 -0.01700580
0.00159421 0.00008251
0.00593446 -0.00652997
0.01161215 -0.00565555
-0.02374238 -0.01179765
-0.00147967 0.00181768
-0.01808061 0.01235368
0.01706693 0.01719206
0.00969576 0.02346760
0.01610556 -0.00435060
0.00346181 0.00866815
0.00789702 -0.01836160
0.01901242 0.00813146
-0.00000296 0.00025239
-0.00985983 0.00358971
0.02431191 0.01345781
0.00345120 -0.00601590
-0.00091613 -0.01970246
0.00831888 0.00715528
-0.00684928 0.00008857
-0.01372637 0.00158143
-0.01760064 -0.00573219
0.00896656 -0.01097694
0.01512869 -0.00698131
0.00001484 0.02357840
-0.00395132 0.01865492
-0.02293910 -0.00511461
0.00630412 0.01644259
0.00313347 -0.01079453
-0.00877654 -0.00903146
-0.02852506 -0.02314461
0.01723094 -0.01151383
0.01173901 0.00449050
0.00303994 -0.00608162
-0.00711549 -0.00184552
-0.00335176 -0.00494195
0.01590130 0.00125116
-0.02508546 -0.01955495
-0.02628024 0.02731343
0.03660407 -0.02808294
-0.00788480 -0.00779973
0.00790309 -0.01405457
0.00921765 0.00266809
0.00268450 0.03018053
0.00004013 -0.01226366
0.00879866 0.02282256
0.00004228 0.01315153
0.00780872 -0.02235093
-0.00717174 -0.02100951
-0.00218384 -0.00137206
-0.00819741 0.00835341
0.00320898 -0.00277451
-0.01047297 -0.01143015
-0.00386088 0.03367206
-0.00860307 0.00868531
0.00738091 -0.02288133
0.01703751 0.00566302
0.00199935 0.01940299
0.00770899 -0.01564494
-0.00103610 -0.00579392
0.02686597 0.01047297
0.00542416 0.00410571
-0.03366723 -0.01407126
-0.00742301 0.00256624
0.00419127 0.02253886
-0.00489456 0.01927404
0.00967146 0.00473472
0.00890463 -0.03049876
-0.02084221 0.00885694
-0.00189521 -0.01303618
0.00645594 0.03067020
-0.02085290 -0.01132080
-0.00971146 -0.01824257
-0.00614941 0.00523514
0.01384963 0.01489235
0.00972057 0.01401937
-0.02743967 -0.01123062
-0.00888065 -0.00852562
0.00215851 0.01057463
0.04557497 -0.02374206
0.02890231 0.01360922
-0.00877594 -0.02355275
-0.01995099 -0.00038747
-0.00612297 -0.00669070
-0.01214835 0.01044384
-0.00791527 0.00386562
0.01114282 -0.00831348
-0.00219651 0.00288040
-0.00678619 -0.00766598
0.01895424 0.01043448
0.00526780 -0.00424717
-0.01995696 -0.00294400
-0.01209819 -0.01224549
0.02413062 0.00893342
0.00198798 -0.00115871
-0.01464677 0.00753922
-0.00024375 -0.00197562
0.00542217 0.01157565
-0.00015274 0.01664897
-0.00563392 -0.00800526
0.02799200 0.01235809
-0.00624795 -0.00647766
-0.00073687 -0.00110962
-0.00373919 -0.00321793
0.00888078 -0.00110853
0.00507298 0.00112955
0.00800001 0.01342370
-0.00117518 -0.02266059
-0.01593349 -0.01192461
-0.00678439 0.00876036
-0.01026422 0.02550703
0.01611974 0.00308786
-0.00991899 -0.01030686
-0.00721688 0.00552490
0.01113176 -0.00017048
-0.01414634 -0.00317124
-0.01301677 0.01552588
-0.01774078 0.00342646
-0.01589122 0.01327612
-0.01199271 -0.01344336
0.00708149 0.00632577
0.01119837 0.01005816
-0.02024934 -0.00306108
-0.01775367 0.00070695
0.01792555 -0.01719572
0.01128490 -0.01370059
-0.02320484 -0.00182773
0.00244723 -0.00383665
-0.00871951 -0.00185751
-0.00637581 -0.00877396
-0.00647743 -0.00990533
0.00545216 0.01652928
-0.00726802 0.01304075
-0.01893384 -0.00775535
0.01978443 -0.00276009
-0.02299475 0.01413142
0.01875432 0.01219250
-0.02036360 0.01333362
-0.01256258 0.00741234
0.01485690 0.01879058
0.02365311 -0.00263544
-0.00657032 -0.00571018
-0.01177149 -0.00341175
-0.01620716 -0.00155958
0.00517649 0.00003037
-0.00383662 -0.00728346
-0.00613122 0.02518990
-0.00667770 0.00820656
0.00627482 0.00833771
-0.02063103 -0.00517479
-0.00598423 -0.01328786
0.00504438 0.01214853
0.00200780 0.01055434
-0.00205190 -0.01874562
0.03396745 -0.00873643
-0.02298255 -0.00163822
-0.01207962 0.00603248
-0.00870249 -0.00903194
-0.00674098 -0.01111703
-0.01685514 0.00494383
0.00309725 -0.00001375
0.01203603 0.00071170
-0.00629938 0.00651899
-0.01221777 0.01699016
0.02385083 0.01924794
0.00010488 0.02171228
0.01066728 0.00734551
-0.01627674 -0.01082844
-0.01929639 0.01212229
-0.01941706 0.01095881
0.00516362 -0.01335305
-0.03465681 0.00835569
0.01094619 -0.00921616
-0.01583530 -0.00340377
-0.01515963 0.00011383
-0.00444364 0.00195912
-0.00653347 0.00263044
-0.00461863 -0.01030918
-0.01030851 0.00089941
0.00586197 0.00937508
-0.01604252 -0.00811438
-0.00558324 0.02717309
0.00942724 -0.00192149
-0.02922078 -0.00021158
-0.00946661 -0.00131966
-0.01185070 -0.00222658
0.01902660 -0.00378950
0.01159045 -0.01227581
0.00598538 0.00341399
0.00419147 0.02540548
-0.00113642 0.01127173
0.01715114 0.02821250
0.00571964 -0.01768012
0.01792586 -0.02659061
-0.00186912 -0.00044479
0.02509932 0.00316095
0.01484622 0.02942489
0.00927611 0.01460412
-0.02129989 -0.01385113
-0.01017198 -0.00435035
0.01634491 0.00079784
-0.01726748 -0.02264780
-0.00901249 0.00844447
-0.01348924 -0.00841286
-0.00095136 -0.00213199
-0.00350857 0.02292604
0.00175464 -0.00784861
0.03336320 0.00814666
0.01668267 -0.01724996
-0.02259068 -0.01519822
0.01340203 0.00513978
0.01369939 -0.01762796
0.01708933 0.00147999
-0.01353776 0.01360055
0.01826518 0.01502228
0.01079613 0.01134114
-0.01512459 0.00402355
0.00774872 0.00392374
0.00256949 0.03225953
0.00362903 0.02431916
0.01908150 0.00414397
-0.02389479 0.00923406
-0.00851373 0.01254489
-0.01405620 0.00212205
0.03609801 0.00004343
0.00654518 -0.01977347
-0.01497990 0.00621815
0.01180239 0.01168844
0.01425033 -0.00010946
-0.01220887 0.01314742
0.00322711 0.00062893
-0.00132705 0.00382315
0.01632536 -0.00005732
-0.00082464 -0.00116523
-0.00055581 0.02261665
0.00551069 -0.00946392
-0.01002973 -0.00495104
0.01245437 0.00274151
-0.00986977 -0.00509915
0.01650795 -0.01063157
-0.00505244 -0.01301133
0.00160640 -0.00399972
-0.00847328 -0.00372160
0.01746361 0.00178648
-0.02626340 -0.03217175
0.01522025 0.00785506
-0.01714296 -0.02148187
0.01392623 -0.00780364
-0.01618195 -0.02234733
0.01612016 0.00052564
0.01265069 -0.02362941
-0.00783519 0.01147321
0.00611116 -0.01053416
0.02557801 -0.00857029
0.00600901 -0.02718727
-0.01125306 0.00282753
-0.01440878 -0.00450480
0.01638261 0.01089452
-0.02190246 -0.01888402
-0.00658161 -0.00094084
-0.00329120 0.00744852
-0.01404687 -0.00162831
0.02486272 0.00248666
0.00382504 -0.00688933
-0.01287494 -0.00656061
-0.00027977 0.01165582
-0.00937064 0.01066432
0.01920054 -0.00152672
0.00386063 0.00973666
-0.01377464 -0.01735467
0.00123961 -0.01409203
-0.00447724 -0.00484911
0.01091253 0.00431333
-0.00495584 -0.00707350
0.00532875 0.02138604
0.01041625 0.01429059
0.00430572 0.00850604
0.00945213 0.00327265
-0.00096955 0.00390949
0.02591966 -0.01509029
0.01869021 -0.00199101
-0.01138314 -0.00866444
-0.00237713 -0.00888005
-0.00313850 -0.00026073
-0.00818177 0.01448943
0.01956828 -0.00312359
-0.02027216 -0.02409817
-0.00851304 -0.00822813
0.00088744 -0.01373983
-0.00967065 0.01361556
-0.00391621 -0.00373330
0.01571342 0.01008316
0.01284624 -0.00013431
-0.00562426 -0.00858402
-0.01428785 -0.03229207
-0.01471855 0.00313397
-0.01428815 -0.00527886
0.01174916 -0.01312474
-0.02339492 0.00799863
-0.01646045 0.01468238
-0.00439357 0.00183024
0.00309060 0.00681403
-0.01879668 -0.01005270
0.00344289 -0.02014341
-0.01733653 0.02399937
-0.01313979 0.00344995
-0.00442452 -0.01163995
-0.00634438 0.00662382
-0.01414548 -0.00456604
0.00380301 -0.00008444
-0.00347978 -0.01096539
-0.00084227 0.01489207
-0.01155819 0.00549248
0.01242886 -0.00007721
0.01236924 -0.01681770
0.00876293 -0.02313974
0.00184962 -0.00450650
-0.00426728 0.00417372
-0.00409359 -0.00956957
-0.00561202 -0.00117142
0.01434987 0.00883204
0.00116033 0.00849164
-0.00382908 0.00020368
-0.01206726 0.01521337
-0.01508388 -0.00184929
0.03590538 0.00159247
0.02065272 0.02366721
-0.00162654 0.00033231
-0.00691843 -0.01569943
0.01551525 -0.02136435
-0.01281397 0.01068577
0.01371167 -0.00032065
-0.01021558 -0.01468909
-0.00826487 0.01628158
0.01498907 -0.01695484
-0.02475080 -0.00137146
-0.00787137 0.00372241
0.01192963 -0.00101737
0.00917205 -0.00465709
0.01731569 0.02129859
-0.01635383 0.00675476
0.00770741 0.00523956
0.00606643 -0.01308222
0.01187611 -0.01271238
-0.01556183 0.02447880
-0.00414827 0.00288618
0.00564892 -0.00756821
-0.02173397 0.01547932
-0.00950611 -0.02290258
-0.00649930 0.01370974
-0.00690867 -0.00818427
-0.00600272 -0.01558275
0.00763797 0.00824914
0.01211452 0.00381705
0.01541107 -0.00707009
-0.00310382 -0.01477783
0.00822240 0.01565757
-0.00785009 -0.00557999
0.00139467 -0.00338512
0.03136206 -0.00427464
-0.00035785 -0.00594378
0.00143983 -0.00997997
-0.01822664 0.00171000
0.00821990 0.00330067
0.00036896 0.01192181
-0.02021549 0.00383628
-0.00599867 -0.01197776
-0.00579389 0.00879014
-0.00739017 -0.00348426
0.02842919 -0.00920063
-0.01537864 -0.01543403
0.00223397 0.00310811
0.00758338 0.00273249
-0.00993118 0.01854654
0.00692641 -0.01098726
-0.01054485 -0.00121596
0.02106306 -0.02847462
0.01301380 -0.00938681
-0.00582618 -0.01149268
0.00368560 -0.01285140
0.00263760 -0.01542312
0.02204507 -0.02950673
-0.01198906 -0.01719721
-0.00616566 0.04302116
0.01999580 -0.00660909
-0.00111643 0.00115522
0.01234150 0.01248925
0.00036069 -0.00009975
-0.00101849 -0.01407124
-0.01802339 0.02218981
0.01625055 0.00357726
0.00694122 0.01341956
-0.00295761 -0.01859715
-0.00994984 0.01088633
0.00786412 0.00587518
-0.00195432 0.01885777
0.01026702 0.01842838
-0.00293826 -0.00268191
0.00667983 -0.00650274
0.01201373 -0.00766464
0.00146248 -0.01715178
0.01394883 -0.02305928
0.00435187 -0.00054139
-0.01714002 0.01450108
-0.02571466 0.01151245
0.01369631 -0.00875383
0.00222582 0.02077487
-0.00400044 0.00824409
-0.02349154 -0.01387780
0.00950009 0.01330785
0.02174049 -0.00521289
0.00415436 0.02413082
-0.00120680 -0.00550079
0.01006259 0.02465317
0.00481138 -0.01299248
0.02235518 -0.00123362
-0.01259450 0.00561063
0.02937559 0.00490836
0.01769698 -0.00250019
-0.00508339 0.00566681
0.00548067 0.00376446
0.00262672 -0.00103362
-0.00063049 0.01771246
-0.02186267 -0.01298584
-0.00262816 -0.00186906
-0.01521507 0.00143351
-0.00672203 0.01311313
0.00014901 0.00551758
0.00539621 0.00417799
0.02528740 0.00077841
0.01363989 0.00978385
0.02795813 -0.02200129
-0.01799757 -0.01816604
0.01014622 -0.00296323
0.03175380 0.01974482
-0.00037903 0.02463035
0.01912213 -0.01783124
0.00323299 -0.00002776
0.00833422 -0.00456150
0.00892485 -0.01925328
0.00376380 0.00493139
0.03667684 -0.01573870
-0.00366784 0.01761524
0.01177002 0.05020268
-0.01038890 -0.01944397
0.00420303 0.00055273
-0.01067199 -0.00650524
-0.00214462 0.00064734
0.01452573 0.02566447
-0.01665395 0.01296655
-0.00431535 -0.00392053
-0.00689329 -0.01771873
-0.00893188 0.02558911
-0.00366983 0.00417003
-0.01941111 0.00631016
-0.01168588 0.00041394
0.00010937 0.00302495
0.01881856 0.02761102
-0.00736252 -0.00445444
-0.00198503 -0.00958157
-0.01766225 0.01052430
-0.01480126 -0.02995616
0.00562156 0.01777676
-0.01372077 -0.00076367
-0.00015733 0.01049038
-0.00129923 -0.00399946
-0.00371827 -0.00211104
0.01334334 0.01442786
-0.00870189 0.00919273
-0.00357648 -0.02058451
-0.01065303 0.03195253
0.01131869 -0.00080208
-0.02394785 0.00624885
-0.01555818 -0.01252774
-0.00089577 0.00741489
-0.01168352 -0.01082372
-0.00498147 0.01251944
-0.01097244 0.00513252
0.01146948 -0.03066946
0.00269884 -0.00004619
0.00977056 -0.00694950
0.00284938 -0.00890001
0.00625366 -0.01377459
0.00511178 -0.00129519
-0.00392170 0.00878262
-0.01664058 -0.00325511
-0.00150239 -0.00285127
-0.00607022 0.00355544
0.00761010 -0.01050864
0.01646616 -0.00511359
0.00329519 0.00931711
-0.01915500 0.01623655
0.02491772 -0.01718953
-0.02573406 -0.00446939
-0.01193751 -0.00009245
0.00204090 -0.00789680
0.01305924 -0.02225639
-0.00195479 0.00248467
-0.01048137 -0.00241543
0.01078403 -0.00015366
0.02177859 -0.01127461
-0.00807448 0.02802493
0.00351617 0.00350571
0.02531536 -0.02128176
0.00366524 -0.00689664
0.01589924 0.00720172
-0.00015307 -0.00369297
0.00811963 -0.02149038
-0.00553947 -0.01077288
-0.01045086 0.00099739
0.00634353 0.02440117
-0.00499372 -0.00867818
-0.00456926 -0.00690206
0.00736621 -0.01323853
0.00460141 0.02038559
0.01367442 -0.01343729
-0.02457141 0.00297799
-0.00036105 0.01225648
0.00585560 -0.00505457
-0.00129145 0.01755914
0.04192181 0.00737456
0.01001791 -0.00881871
0.00000949 -0.00967541
-0.01149776 0.02362622
0.00522749 -0.01320662
0.00057019 0.00894888
0.00175497 0.01131355
-0.01461327 -0.00803828
-0.01499705 0.01049327
-0.00237512 -0.00676311
0.00935109 0.00100814
0.00753743 0.01118936
-0.01024732 -0.00320758
0.01001550 0.01760712
-0.00440128 -0.00436597
-0.02876182 -0.00265808
-0.00472873 0.01592460
-0.00871667 -0.01973006
-0.01201614 -0.01156659
-0.01888604 0.00791196
-0.01575799 -0.00862705
-0.01985855 -0.01164185
-0.00933115 0.00500496
-0.00300764 -0.01711563
0.00258947 -0.00034446
-0.00467904 0.01580084
-0.01551368 -0.02017309
-0.00300838 0.01591319
-0.00513021 -0.00323206
0.00022014 0.01687233
-0.01425549 -0.02809800
0.00143497 0.01694809
-0.00135671 0.00629194
0.00104209 -0.00078111
-0.00796508 0.01581875
0.00716909 -0.00414923
-0.00902062 0.01132417
-0.00484710 0.00640739
-0.00762497 0.00042431
-0.00499734 0.01159795
-0.02482241 0.01261738
0.00187950 0.01280661
0.00072290 0.00569609
-0.02316961 0.03185601
0.00322707 -0.01813700
-0.00237479 -0.02014697
-0.02775128 -0.00036718
0.01140835 -0.00671677
0.02547394 -0.00240314
-0.01402573 0.02065992
-0.00359071 0.00317327
0.00319019 0.00119991
-0.01536213 0.00743513
0.00636754 0.01207720
-0.00308379 0.00386943
-0.01514330 0.00852843
-0.01130448 0.00270768
-0.02847640 0.02109011
-0.01858007 -0.00366330
-0.00234439 -0.01610752
-0.01318630 -0.00007377
0.01852811 -0.00056483
-0.01654946 -0.00034534
-0.00038650 -0.00531745
-0.03055702 0.00651060
0.01910065 0.02274251
0.00390268 -0.00438859
-0.01023196 0.00593312
-0.02000557 0.02535823
0.00643628 -0.00403185
0.01965691 -0.00785344
-0.01115522 -0.03287515
0.01079789 -0.01327409
-0.00529850 0.00099769
0.00811935 0.01034646
0.00097261 0.01699703
-0.00663509 -0.00577097
0.00184374 -0.00489070
-0.02381447 0.02029899
-0.00776979 -0.01188918
0.00595899 0.00582919
-0.00353506 0.00369230
-0.00735761 -0.01102314
0.00499142 0.00880609
0.00234847 0.01370005
-0.00549003 0.02627839
-0.01598336 -0.00220931
-0.00727414 0.00407870
0.00477218 0.00439494
-0.00793495 -0.02778585
0.00177774 0.00099971
0.02716088 0.02088938
-0.01106373 0.00267160
-0.00358734 -0.00848761
0.01207269 -0.00009948
-0.00444711 -0.00459992
-0.00781556 -0.01726267
-0.00462493 -0.01108184
-0.00347484 -0.02503706
0.01564337 0.01118206
-0.01875312 -0.00697787
-0.00292173 -0.00995940
0.01025647 -0.01682269
-0.00994322 0.01273666
0.02287324 0.01241294
0.00290220 0.01261191
0.00330309 -0.00586260
0.01380432 -0.00799547
-0.03440906 0.00918421
0.02438171 -0.00063754
0.02122018 0.00183767
0.01271336 0.01917172
-0.01924576 -0.00328423
-0.00597836 -0.01033215
0.00745149 -0.01253808
-0.02465500 0.00538025
0.00227730 0.00054835
-0.01971676 0.00348772
-0.01424490 -0.01360635
0.01310327 0.02114719
-0.00746492 0.02436857
0.00724877 -0.00970842
0.01293225 -0.00517960
-0.00879242 0.00806197
-0.00750452 -0.01023716
-0.00666757 -0.02239107
-0.00565683 0.00443446
0.01246723 0.00949789
-0.01192307 0.00944174
-0.01375451 -0.00626129
0.01260879 0.00116663
-0.01857516 0.00329515
-0.00130282 0.00762175
-0.02528377 -0.01526139
-0.01652951 -0.01386996
0.02775017 0.00761657
-0.02459614 -0.02494622
-0.02129832 -0.00687886
0.00567270 0.01662897
-0.00600184 0.01522687
-0.00240620 0.00201354
0.01462492 -0.01332061
-0.00252169 0.01610840
-0.01453193 -0.01681300
0.01685941 0.00652971
0.00008013 -0.00354034
0.01016348 -0.00141532
-0.00830422 -0.01045598
0.01168212 0.00235128
0.00505827 0.00668212
-0.00529425 0.00518078
0.01437615 -0.01700410
0.01350767 0.04385394
-0.01747998 -0.03883424
-0.01563646 -0.01143862
0.01003429 0.01544563
-0.02442468 -0.00422019
-0.00392016 -0.00395600
-0.00204741 0.01368722
-0.00138293 -0.01663531
0.00090894 -0.01689030
-0.00993747 -0.00034083
-0.01532866 -0.00603173
0.00086563 0.01114129
0.00435750 -0.02476930
-0.00062069 -0.01362254
-0.01465579 -0.00655135
-0.02606470 -0.01795855
-0.00527526 0.01467273
-0.02160417 -0.00094796
0.02878888 -0.01485179
-0.00988962 -0.01451150
0.01230037 -0.00761784
0.03714513 -0.00781155
0.02399244 -0.00279829
-0.00190586 0.00964588
0.00577859 -0.01341157
0.00904200 0.00758942
0.01042641 0.02537105
-0.00702827 0.02050641
0.00026727 -0.03217596
-0.02155666 0.00441042
0.01109301 0.02907445
-0.01176445 0.01509685
-0.00247448 0.02252996
-0.00623903 0.01253053
0.02045549 -0.01794307
0.00805627 -0.00414302
0.01594234 0.00491740
0.00279652 0.02914562
0.00791733 0.00021536
-0.00790567 -0.01305867
0.00572757 -0.00478506
-0.00137906 -0.00057895
-0.00227603 0.00129487
0.01309722 0.00682052
0.00669744 0.01385808
0.00020434 0.01813148
-0.00474289 0.03465515
-0.01728939 -0.00528887
-0.01541427 -0.01232680
0.00761934 -0.01798145
-0.00507361 -0.03624188
-0.02079484 -0.00142994
-0.01085981 -0.01459038
0.01301601 -0.01381780
0.02113955 -0.00193715
0.01157907 0.00942193
0.01079706 0.01649237
-0.00798489 0.00134497
-0.03339110 0.01037589
0.00649564 0.00336471
-0.00272967 -0.00844843
-0.01662761 0.01116366
-0.01760483 0.00561107
0.03297328 0.00290201
-0.00359682 -0.02606291
0.01160696 0.00451912
-0.00137341 0.01483631
0.00257152 0.01096788
-0.01796861 0.00096584
-0.00555747 0.01464213
0.01762122 0.00933103
-0.00320959 -0.02105884
-0.01128023 -0.00468882
-0.00407266 0.02677417
-0.00516388 -0.00448472
0.01085460 -0.00224509
-0.00287898 -0.01814913
0.01511521 0.00978350
-0.00735127 -0.00528910
-0.01356139 -0.00482763
0.00909852 -0.00665099
0.01166208 -0.00164744
-0.02043248 0.00412513
-0.00259700 -0.01246396
0.01533546 -0.02777688
0.01130695 0.01259123
-0.01410819 0.01007203
0.00361120 -0.01812766
-0.02317453 -0.00058346
-0.00591813 -0.01889565
0.01023000 0.00520458
-0.00065722 -0.00376613
0.00030661 -0.01550221
-0.00720015 -0.01484223
0.00919509 -0.00086075
0.02763543 0.01146385
-0.01904259 0.01185701
0.00550889 0.00468050
-0.01320205 -0.03109878
-0.01322436 0.00128562
0.01197331 -0.00000900
0.00876085 0.03882040
-0.01312075 -0.01225184
0.00069803 0.02424590
0.01693647 -0.01413527
0.01279373 -0.00371532
-0.00416152 0.01268734
-0.00184984 -0.01940212
0.02622788 0.00298651
-0.00393374 0.01598875
0.00275859 -0.03847893
0.01313371 -0.00039952
0.00692086 0.00116491
0.00259108 -0.00573390
-0.00930258 0.01342633
-0.00774518 -0.00903401
0.02928673 -0.01419680
0.00075065 -0.00962524
-0.00491505 0.00088022
-0.01840667 -0.01687039
-0.01139156 0.00505592
-0.01004782 0.00257585
0.01294154 -0.01244164
-0.00653152 -0.00819671
0.00729989 0.00314088
-0.00823740 0.00508481
-0.02451341 0.00763869
-0.00834087 -0.00235809
0.00677936 0.00678483
-0.00763494 -0.00949386
-0.02205728 -0.02190126
-0.01034076 -0.00009897
0.02425856 -0.00398256
-0.00046093 -0.02266753
0.01305215 -0.01093827
0.01486057 -0.00818690
-0.02501151 0.01428538
-0.00269225 -0.00604289
0.00133818 0.01036936
0.03862999 -0.02976157
0.00785357 -0.01944191
0.00648781 -0.00203396
0.00741995 0.00110598
-0.01005887 0.01676498
-0.01639644 0.00210238
-0.01691734 -0.01578393
0.02627412 -0.00572177
0.00275114 -0.00708306
-0.01285517 -0.01751362
-0.01256777 0.01067307
0.01348076 -0.00096695
-0.00347003 -0.00303035
-0.00011087 0.01444336
-0.01686968 -0.00217713
-0.00435218 0.00361535
-0.00537832 0.01996705
0.00674051 0.01627616
-0.00178657 0.03328998
-0.01419993 0.01330578
0.01445998 -0.00461586
0.00000656 0.00183032
-0.00829200 0.00598785
-0.01357851 -0.00592216
0.02216875 0.01674869
0.00419945 -0.00881806
0.00710398 -0.03631090
0.00637204 0.00135756
-0.00222622 -0.01019141
0.00242003 0.00299663
0.00092983 0.03729425
-0.00046703 0.01926970
0.01799123 -0.01949745
0.01160877 -0.00116831
-0.00910278 -0.00813782
-0.02555354 -0.01885411
-0.01258891 0.01119164
0.01783664 0.00560751
-0.03004356 -0.00134308
-0.01410249 0.00544606
-0.01176323 -0.02186296
-0.01507887 -0.00507037
0.01008819 0.01019640
-0.01622788 -0.01998266
-0.01475208 0.00507037
-0.01154328 0.00582671
-0.01041991 -0.00323994
0.02875510 0.02647031
0.00248880 0.01259092
-0.01806032 0.01646917
0.02219571 -0.00128643
0.00113261 -0.01883488
-0.02217531 0.00936949
-0.00145166 -0.00780941
0.00946411 -0.00455044
-0.01854663 0.00612437
0.01685171 0.00372873
-0.00591568 -0.00647655
-0.03444976 0.00053318
0.00555194 -0.00634565
0.01466568 0.00943881
0.01118082 0.01441023
-0.00873480 0.00976698
0.00195055 0.00799186
-0.00940955 0.00476849
-0.02003080 -0.01429465
-0.01577925 0.00295368
0.00263812 -0.01903408
0.01465788 -0.03591746
0.01052564 0.00372289
0.01361623 -0.00622204
-0.01341993 -0.00409865
-0.01716404 0.00510621
-0.00657223 -0.00604941
0.00271806 0.01140344
-0.00783319 0.00198165
-0.00253976 0.02025522
0.00560658 0.01240105
0.00766266 -0.00697298
0.00895656 -0.00042404
-0.00990932 -0.00551589
0.02088628 -0.01842327
0.03120527 0.01031903
-0.00566286 -0.01295144
-0.01072672 -0.00142375
-0.01216387 0.00463149
-0.02632435 0.00479433
-0.01836750 0.00508132
0.00570515 -0.03061473
-0.00936572 0.01133915
-0.00578337 0.01816949
-0.01388786 -0.01209244
-0.02874567 0.00032040
0.00203720 0.01682022
-0.00888914 -0.01620527
-0.01759183 -0.00578201
0.00377752 -0.00122121
0.01132545 0.02616957
0.02470305 -0.00582843
0.01145100 -0.01054637
0.00574246 -0.00191965
-0.00151041 -0.00615880
0.00260489 0.00781256
-0.00833152 -0.01339833
0.00626788 -0.01836581
0.02399768 -0.00901281
0.00347890 -0.01361457
-0.00156341 0.00294306
-0.00161411 0.00363975
0.00516299 0.00035225
0.00384265 -0.01663896
-0.01228436 -0.00261859
0.00217601 0.02676009
-0.01358642 0.01883131
0.00284500 -0.00343195
0.00065084 0.01730874
-0.00391590 -0.01319930
-0.00659585 -0.01855574
0.00774932 0.00007140
-0.00979969 0.00038691
0.00639246 0.00406732
-0.00577464 -0.00356731
0.00541372 0.00032844
0.01488918 0.02100517
0.00735568 -0.00967004
-0.01526344 -0.01149955
0.00070161 0.00570122
0.00990843 -0.02439952
0.00262392 -0.00249339
0.00969063 0.00579938
0.01195796 0.01797582
0.01053824 0.01030235
0.00465565 0.00424969
0.01727032 0.02418438
-0.00073603 0.00170864
0.00091390 0.01124596
0.00182067 -0.01969420
-0.01083434 0.01255926
0.00582347 -0.01028284
0.00818936 -0.03157557
0.02061850 -0.00593101
0.02037238 0.01277459
-0.01089310 -0.01777004
-0.02672344 0.00968948
-0.00813606 0.00290495
-0.02055950 0.01581898
0.00292092 -0.01430919
-0.00012434 0.00254103
0.02134769 -0.02996145
0.01059370 -0.02175080
0.02110550 0.01382692
-0.00592304 0.01225620
0.01249155 0.00795571
0.00316066 -0.03779663
0.01083137 0.00917904
0.01689433 0.01990836
-0.03436930 0.01285749
0.01310247 -0.01945095
0.00827630 -0.00350098
0.00384489 0.02702410
0.00274185 -0.02627062
-0.00978074 -0.02175678
0.01305088 -0.01000023
-0.02009067 -0.00836947
0.00825580 0.03536437
0.00203535 0.00281110
0.00000677 -0.00551739
-0.01460653 -0.02252967
0.00476391 -0.01022663
0.00379424 -0.00368573
-0.01047184 -0.02390676
0.01565642 -0.01581135
0.01387228 -0.00172556
-0.01190978 0.00410848
-0.01533562 0.00440605
0.02014337 -0.00656557
-0.02093185 -0.00440011
0.02055409 -0.01080071
-0.01092820 0.00491316
0.00647882 -0.01096996
-0.00825682 -0.00756461
-0.00300257 -0.02185853
-0.01182628 0.00071863
-0.02465077 -0.01770059
-0.01021046 -0.01236324
0.00942189 0.00739308
-0.00517415 -0.00503932
0.01691937 -0.00373703
0.00680825 -0.00380113
0.01933956 0.01620427
-0.00152158 0.02113947
0.01743437 -0.02534767
0.02450784 0.00720141
-0.00114629 0.00533131
0.02129634 0.02738095
-0.01991362 -0.02275470
0.00434670 0.00666256
-0.03441775 -0.00854500
0.00202314 -0.01219088
-0.00882147 0.03117197
0.01334800 0.00504343
-0.02398891 0.00740937
0.01981260 -0.01199195
-0.00221774 -0.01801475
0.00629312 -0.02382340
-0.01199469 0.02982484
0.00437759 0.00171799
0.00563317 0.02054797
-0.01120928 0.01128404
0.01649061 -0.02506709
0.00061672 -0.01417849
-0.01269130 -0.01240466
0.00010963 -0.01194249
0.00719517 -0.00035680
0.00577621 -0.00871793
-0.00788409 0.00192288
-0.01129322 0.01663847
0.01928704 -0.00151430
0.00981030 0.02031742
-0.00565069 0.01472464
-0.00865141 -0.02631581
0.03102175 0.00027856
-0.01649257 -0.00188696
-0.00039245 -0.00994079
-0.02568045 -0.00093533
0.01477160 -0.00851372
-0.00712036 -0.02105862
-0.00775883 -0.00495267
-0.00131472 0.01502925
0.00737075 0.00876723
-0.01213206 -0.00564640
0.01457280 -0.00501436
0.00923353 0.01244096
0.01136635 0.00203760
-0.01183912 -0.01929038
-0.01998073 0.01400079
0.02238976 0.01747563
-0.00682859 -0.01294062
0.02922995 0.01485725
-0.01338470 0.00094867
-0.01840517 -0.00328309
-0.00388740 -0.00915433
0.01661823 -0.03031105
0.00842498 -0.01430013
-0.00842580 -0.02705403
-0.00670487 -0.01474576
-0.01292526 0.00594768
0.00728945 0.00750578
0.00102576 0.02653078
-0.00266473 -0.01276368
0.01264706 0.00625876
0.00863345 0.01668753
-0.01686734 0.01351779
0.00454052 -0.00935741
0.00230123 -0.01612673
0.00088890 -0.00271305
0.01778146 0.01416585
-0.00484064 -0.01381836
-0.04059389 0.01624229
0.01071894 -0.00152544
0.01564625 0.00524363
-0.02231589 -0.02001880
0.01438916 -0.00158555
-0.00966162 0.02053399
-0.00626082 0.03579080
0.00725013 0.01016008
-0.00070523 0.00036326
-0.00945553 0.00216319
0.02269700 0.01595617
0.01041769 -0.01598764
0.01850275 0.00721203
-0.01234963 -0.00774542
-0.02630829 -0.01468100
-0.01639237 -0.01626779
-0.00416697 -0.00541708
0.02536606 0.00796760
-0.00913500 -0.00425421
-0.01570663 -0.00131720
0.00911787 -0.00622485
-0.01792965 -0.02447712
-0.00888476 0.01768935
-0.00448243 0.02888909
0.03297025 0.00314587
0.02727389 0.02747440
-0.00288012 -0.00740106
0.01284583 -0.01465619
-0.01397821 0.01202652
-0.00414307 0.01904465
-0.01290880 -0.00640092
-0.00549588 -0.01207291
0.00285020 0.01142670
0.00084228 -0.01574203
0.00984612 0.03543950
-0.00737780 0.02515057
-0.00623057 -0.00645883
0.00203782 -0.02559321
-0.02007909 -0.00531261
0.00037973 0.01824730
-0.00278813 0.01024214
0.03790096 0.00807084
0.00576920 0.00784730
-0.00095234 0.00841052
-0.00487741 0.00366533
0.01479349 0.01319992
-0.00043299 0.01451210
-0.00268867 0.01572274
0.00336144 -0.00850373
0.02327343 0.00414879
-0.00207889 0.00899668
-0.00019542 -0.00921295
-0.00060645 0.03908441
-0.00091193 0.00036288
0.00416434 0.00704206
0.03186135 -0.00618315
-0.01560066 -0.00656675
0.02919739 0.00730034
-0.01695414 -0.01817368
0.02072394 0.00615116
-0.00173914 -0.00959236
-0.00812469 -0.01176599
-0.00342812 -0.00008029
-0.00549974 -0.00567084
0.00020353 -0.00101419
0.00373255 -0.00462788
0.01062318 -0.01311083
-0.00433170 0.00539756
0.03257962 0.02711003
-0.00344512 -0.01232961
-0.00372184 -0.00822184
-0.00841890 -0.01004576
0.00693750 -0.00836061
-0.01529635 -0.01218122
0.01259505 -0.02126060
0.01028829 0.02715257
-0.00963341 -0.00276542
0.01358567 0.00358990
-0.00779403 -0.00672096
0.00954954 -0.02100698
-0.00204951 -0.01487555
0.00004499 -0.00407756
0.01397707 0.03201167
0.00327259 -0.01342877
-0.00398941 -0.01612333
-0.00410834 -0.00045020
0.01780060 0.03098838
-0.00873522 0.00900288
-0.02198475 0.02319925
-0.01063573 -0.00727669
0.01228979 0.00198711
-0.02001020 0.00016100
-0.01163284 -0.02733611
-0.01580068 -0.01115974
-0.00119048 -0.01599130
0.00726049 -0.03469501
0.00797784 0.00315840
0.00041107 -0.00619744
-0.02511103 0.01018358
-0.01411382 -0.00186972
0.00182228 -0.00858424
0.01949189 -0.00069636
-0.02362298 0.00587928
0.00893563 -0.01119181
-0.00210432 0.02229288
-0.00825218 0.00224940
-0.01682502 0.02947224
-0.00973142 -0.02020260
0.02977273 0.00909306
-0.01281540 -0.00821931
0.00342731 0.00448474
-0.00464573 0.00917336
0.01360652 -0.00532285
-0.01062603 -0.01245569
-0.00956612 -0.02045999
-0.01832676 0.00842946
-0.00607572 0.01167451
0.00198945 -0.00286605
0.01368327 0.00214457
-0.00812313 0.00472947
-0.01442058 -0.00337171
0.00420722 0.02236214
-0.00377118 -0.01908232
-0.00124119 0.01396888
0.02170366 -0.01929652
0.00335729 -0.01089098
0.00093106 -0.01628324
0.02028727 -0.00589244
0.00633495 0.00920285
0.02116235 -0.01409550
-0.01461246 0.00000780
0.01514697 0.00871214
-0.00099610 0.01139053
0.00912902 0.00316143
-0.01764255 0.00421919
0.02528220 -0.02515749
-0.01845004 -0.01637113
-0.00227035 -0.00152583
-0.02427925 -0.00446938
-0.00943586 -0.00708290
-0.00209884 -0.00000196
0.01752024 -0.02327538
-0.00826246 0.00317360
-0.00301290 -0.00738822
0.00829048 -0.01575029
0.00108997 -0.02922878
-0.00845420 -0.00120065
0.00701226 0.01661322
-0.00964501 -0.02257012
-0.02982731 0.03830775
0.03191291 -0.00974296
0.01373808 0.01167951
-0.00568631 -0.01552803
-0.01310968 0.00367140
0.00286301 0.01497808
-0.01877047 -0.01067844
0.01522137 0.00643395
0.01190153 -0.00424242
-0.02733922 0.00216156
0.01567034 0.02004759
-0.01513952 0.01107547
-0.03115126 0.02039333
0.00289649 -0.00463114
-0.00890713 -0.03353697
0.00954911 -0.01167709
0.00159183 -0.02196887
0.02464562 0.04381901
-0.00962081 0.03299881
-0.00502661 -0.00441833
0.00442272 -0.01257292
0.00994179 -0.02027642
0.00872937 0.00129763
0.00684624 -0.02809242
-0.01488902 0.02098441
-0.00052076 0.02727051
0.00126200 -0.00980694
-0.00005429 -0.00493440
-0.02331967 -0.00066752
0.01119049 0.01548574
0.02028526 0.02007131
-0.03083938 -0.01561264
0.01627609 -0.02698729
0.01210230 -0.01672119
0.02375105 0.01373362
-0.02500959 -0.00953777
0.00758389 -0.00684332
0.01577179 -0.01168708
0.00930668 -0.00418596
0.01566143 0.00163832
-0.00417928 -0.01024187
0.00313279 -0.00053322
0.00398964 0.00642558
-0.00990124 -0.01408168
0.01368990 0.02082415
0.03633443 -0.00228334
-0.00855277 0.03918523
-0.01478635 -0.00863813
0.01608446 -0.00576704
-0.02431678 -0.00391199
0.00931106 -0.02042655
0.00152040 -0.02202784
0.00817756 0.03771124
0.01630375 -0.00841769
0.00801123 -0.01301839
-0.00714942 -0.01702351
-0.00990986 -0.00719247
-0.02511533 -0.01293077
0.00172346 0.01882118
-0.01856716 -0.02543305
-0.00619389 0.02148910
-0.00203739 -0.01231215
-0.01526409 0.00053799
-0.01698214 0.00127450
0.01169200 -0.00286067
0.03102181 -0.01132676
-0.01245244 0.01378643
-0.00547428 0.02219520
-0.01976987 -0.00489624
0.00763660 0.00294750
-0.00299691 0.00467692
0.00810151 -0.00037488
0.00299131 -0.02239283
-0.00448061 0.02551572
-0.02354170 0.00079125
-0.00003184 0.00122482
0.00649500 -0.02086352
-0.01359748 -0.02676780
0.00090774 0.00924983
-0.01465834 0.01732756
0.01760970 0.00209140
0.01601266 0.01620182
-0.00347178 0.01775285
-0.00786021 0.02788206
-0.01748791 0.00937278
0.00739298 0.00907537
-0.00117241 -0.00042595
-0.01329272 -0.01711648
-0.02614901 0.02029826
-0.01861233 0.01624027
-0.01245804 0.00188727
0.02003789 -0.01735523
0.01885710 -0.00806014
-0.01145840 -0.02575557
0.00105638 0.01279770
0.00801526 -0.01360648
0.00123480 0.04208944
0.00277137 -0.00299601
0.01088095 -0.01199438
-0.00411522 0.02582730
-0.01311151 0.00674048
0.00430018 -0.02419481
-0.01542652 -0.01958929
0.00651074 -0.00698204
-0.01380317 0.00265567
-0.01417475 -0.01124814
-0.02888019 -0.02574391
-0.01335675 -0.01181933
-0.01471606 -0.00760523
-0.00131869 -0.01204881
0.01302364 0.00084374
-0.00431037 -0.01165475
-0.01189520 -0.00226298
-0.03050924 -0.00807847
0.02718817 -0.00976579
0.01056552 -0.00060257
-0.00569801 -0.02159243
0.02270523 0.01164669
0.00148318 0.01760848
0.00361940 0.02576762
-0.00755605 0.00033601
-0.00319077 0.00731653
-0.00920027 0.01835642
-0.00795140 -0.01151850
0.00610422 -0.01384734
0.00296447 0.00034347
-0.02444026 -0.00623397
-0.00384839 0.02711018
0.00392456 0.01653102
0.00156904 -0.00816973
0.00475438 -0.00355938
0.00349691 -0.01550026
0.00295666 0.01194955
-0.01934484 0.01489248
-0.00804422 -0.01095154
0.00808134 0.00242880
-0.02411308 0.01315358
0.00528943 -0.00766719
-0.00389035 -0.00760719
-0.00348937 0.00954412
-0.00570343 -0.00287129
-0.00017473 0.00148717
0.00724933 0.01088245
0.00561506 0.00076670
0.01437176 -0.00699108
-0.00058916 -0.01573064
-0.00070716 0.01448827
-0.01348212 0.00146010
-0.00070734 0.00443519
0.01415391 0.01053875
-0.00231043 0.02506046
0.01891866 0.00172295
0.01190189 -0.00521359
0.00565074 0.01295540
-0.00506126 -0.00457360
0.02086050 -0.01983040
0.00250202 -0.01135626
0.00228628 -0.00478919
0.00890759 -0.01562886
-0.03367043 -0.02011249
-0.01431778 0.01066497
-0.01404498 0.01066238
0.02344658 -0.00308434
-0.00096440 0.00698580
0.00122186 0.02014757
-0.01228347 -0.01798538
-0.00147070 0.00561561
0.00326945 -0.00055840
0.00387964 0.00031563
-0.00804249 -0.00388465
0.00996319 -0.01536454
-0.00814888 0.00351734
0.00471515 -0.01399366
-0.00990707 0.00967135
-0.00802419 -0.02079458
0.00455252 -0.00998805
0.02777668 -0.02014354
-0.01509579 -0.00247069
0.00197938 0.01193781
-0.00253584 0.00760366
-0.00172171 -0.00372290
-0.01484743 -0.00649464
0.00874109 -0.01708050
0.00425274 -0.00742030
0.00423398 -0.01171760
-0.01129480 -0.00752873
0.00983324 0.00295801
-0.00444152 -0.00939083
-0.00034257 0.00678321
0.02583843 0.01671556
0.00562474 -0.02617619
0.04038588 0.00179552
-0.01744997 0.00842491
-0.00742475 -0.01648375
0.01127956 0.00122178
0.01484283 0.00983034
-0.01781935 0.00793848
-0.01192588 0.00641168
-0.03059017 0.00164958
-0.02416284 -0.02403920
-0.00401781 -0.00806792
0.01282938 -0.00268237
0.00254582 0.04286281
-0.03525387 -0.02162807
-0.00705053 0.00038704
-0.00828969 -0.02137701
0.00810203 0.04409645
0.00480933 -0.00481282
0.00897676 0.01677396
-0.01465714 0.01311902
0.01051101 0.00257803
0.00472793 -0.01445540
0.00151331 0.00704519
0.00634408 -0.01826815
-0.00160154 -0.02125319
0.01179259 -0.01307655
0.01175066 -0.00247370
0.02106334 -0.01121850
-0.00417922 -0.02102602
0.01172485 -0.00632503
-0.00905920 -0.01806855
0.00784657 -0.01392399
-0.01266280 -0.00814576
0.01734572 -0.00435441
-0.00474463 -0.00588539
0.00021463 -0.01686894
0.01080925 -0.00965877
0.01793785 -0.02669238
0.01563463 -0.00986185
0.00129343 0.00979583
-0.00019955 -0.01675646
0.00596441 -0.01149690
0.00090792 0.00597920
-0.01219870 0.02115250
-0.00087798 0.02207998
0.01174893 -0.01159959
-0.00461737 -0.00742011
0.00511712 0.02502483
0.00674956 -0.00616452
0.01152360 0.00151847
-0.00859856 0.00693680
0.01945680 0.00234909
0.00281966 0.00297327
0.00436083 0.00830440
0.00665646 -0.00324152
0.01645868 -0.01745570
-0.01629206 -0.00134617
0.00633340 -0.00117773
0.01118758 -0.01253610
-0.01146415 0.02037640
-0.00788082 0.02243062
0.00964351 0.00188000
-0.00210173 -0.00150576
0.00311581 -0.00643886
-0.00297342 -0.00254570
0.00040430 0.00525184
-0.00850306 -0.00625010
-0.01065838 -0.00033927
0.01099575 -0.01364258
0.00953761 -0.02063645
-0.01877343 -0.01017922
0.01203452 0.01742261
-0.00565082 -0.00182073
0.01667933 -0.01741783
-0.01105690 -0.02000601
0.01952703 0.00352816
0.00472618 0.01790420
0.00126382 0.01103468
-0.01794020 0.01558597
-0.01276324 0.00774121
0.02471259 0.00740261
-0.00720424 -0.00349389
-0.00910735 0.00116621
-0.01290982 0.00971234
0.00154303 -0.00393592
-0.00585070 -0.01448323
-0.00108967 -0.00902102
0.00255519 0.01268411
0.00338240 0.02316980
-0.00015353 -0.00705639
0.00442476 -0.02377453
-0.00383429 0.00775372
-0.01154883 -0.00514836
-0.00635364 -0.00574881
-0.00177207 0.01421396
-0.02098599 0.00172304
0.00028229 0.01622655
-0.00095754 -0.00368174
0.01529561 0.01467605
0.00076214 -0.02365768
-0.00019368 0.02481241
-0.02125183 0.02667033
0.00916633 -0.00417138
-0.00338710 -0.02313839
-0.00761532 0.00078118
0.01926148 -0.00646404
0.00899732 0.00907591
-0.00683888 -0.00431687
-0.01741539 -0.01633675
0.01710572 -0.02299490
0.04202266 0.00501040
0.00746127 0.04320287
0.00448187 -0.02169642
0.01423558 -0.01934576
0.03546006 -0.00981467
-0.00353277 -0.01588188
-0.01197777 0.01310240
0.00061165 -0.00986146
-0.01826821 -0.00934810
-0.01755288 -0.02262234
0.00239791 0.01127546
0.01364077 -0.00926234
-0.00757105 -0.02515938
0.01843026 0.01027360
0.00716446 -0.02015572
-0.00758639 -0.02844346
0.01954078 -0.01550183
-0.01189610 0.00638305
-0.01107321 0.01142992
0.01475770 -0.00582246
-0.00535004 0.01605069
0.01058339 -0.01001475
0.00159065 0.00494976
-0.00246183 -0.01016456
0.00486819 0.00836930
0.00048350 0.00842232
-0.00614143 0.00036752
0.01140243 0.00881144
-0.01334102 0.00035806
0.00787548 -0.00251831
0.00123422 -0.01718801
-0.00415031 -0.00034478
0.00198870 0.00982265
-0.01325846 -0.00566905
-0.00184098 0.00012162
-0.02893012 -0.00708572
0.01363367 -0.00883570
0.00062446 0.01402363
0.00909545 0.01581593
-0.01310291 -0.00811505
-0.00634520 0.02960682
-0.00064807 0.02810211
-0.00213939 -0.00826560
-0.01066115 0.00404701
-0.01257921 -0.00117391
0.00102628 -0.00272096
-0.00547942 0.02032106
-0.00490721 0.01021729
0.01491578 -0.02865160
0.00163496 0.02580717
0.00929688 -0.01485027
0.00220379 0.00277543
0.01307921 -0.02025672
-0.00694797 0.00067780
-0.01111542 -0.00335800
-0.00547654 0.00336124
-0.00096775 0.00444665
0.00109904 0.01723172
-0.01642513 0.00108423
-0.00037936 0.00970864
0.02040825 -0.00024217
0.00213803 -0.00264589
0.00265085 -0.02203653
-0.00009400 0.02686615
-0.00705982 -0.00339041
-0.00840732 -0.01329329
-0.01583205 0.01257235
0.00200307 -0.01690190
-0.01166375 -0.00685656
0.02334235 0.00188857
-0.01651627 -0.00055438
0.00565674 0.00060244
-0.02882538 -0.00102226
-0.00584049 -0.02103816
0.00921046 0.00308101
0.00147929 0.00516794
-0.00733087 0.01460207
-0.01252498 0.02157347
-0.01151639 -0.00286130
0.01878349 0.02418418
0.00335904 0.02353221
0.00350339 -0.00923140
-0.00066177 0.01205509
-0.00666408 0.01467476
0.02968570 0.00922929
-0.00456340 0.00634818
0.01677648 0.00592093
0.00282723 -0.01932144
-0.00345209 -0.00983935
0.00905153 -0.00532770
-0.01157689 -0.02708992
-0.00372556 0.00294914
-0.01419740 0.01109574
0.01049033 0.02379435
0.01949928 0.00146691
0.00286506 -0.02351109
-0.00056662 -0.01368828
-0.02490711 -0.01315096
0.01072666 -0.00339715
-0.00807179 0.00531111
0.01033217 -0.00574430
-0.00165583 0.00874477
0.00371591 -0.02464959
-0.01570293 0.01216375
-0.00200881 -0.01254482
0.01459169 0.00335549
-0.00453073 0.00671695
-0.01162938 0.00108962
-0.01222056 -0.02775486
0.00250389 0.00574274
0.00433332 -0.01457274
-0.00514662 -0.00954372
-0.01809356 -0.02106453
-0.00913704 0.00797161
0.03982935 -0.02312365
-0.00278017 0.01279374
0.01071221 0.00814800
0.00391131 0.02253563
0.00565298 -0.00142984
-0.00577736 0.00033469
0.01300385 -0.00238870
-0.00536326 -0.01091461
-0.00328615 -0.01077635
0.00242998 -0.01645881
-0.00570044 0.01978215
0.00153169 0.01097849
-0.00154176 -0.02507008
0.00075998 -0.02835131
0.00607917 -0.00349491
0.00854020 -0.01785702
0.00209223 0.01351260
-0.00041730 0.00386213
0.00473923 0.01242779
0.01874732 0.00276882
-0.00058319 -0.01423268
0.00941438 0.00678832
-0.01596764 -0.02595739
-0.00529966 0.00770760
-0.01890232 0.03391816
-0.02203502 0.00925783
0.00265442 0.00306120
0.00026898 -0.01598624
-0.00834439 -0.02420572
0.00364363 -0.00933071
-0.00513072 -0.00397086
0.00972323 -0.00273464
-0.01200858 -0.00135242
-0.01721101 0.00399191
-0.02723636 -0.02254454
-0.00459094 0.00731589
0.00017705 -0.00965969
-0.00148290 -0.00210229
0.01533125 -0.01564182
-0.02052746 -0.03167525
0.01045533 0.00595629
0.00318957 0.00737813
-0.00504973 0.00797816
0.00441236 0.00250715
-0.00241894 -0.02729226
0.02173208 -0.01723045
0.01630308 0.01185531
0.00061029 -0.00875768
0.01097630 0.02436388
-0.00749808 -0.00993361
-0.01452240 0.00813455
0.02102670 -0.00238178
0.00170977 -0.01623700
0.01847006 0.00607224
0.00069871 0.00765214
0.01694709 0.01068200
-0.01416807 0.01995756
0.02392534 -0.00240909
-0.00127192 -0.00150335
-0.01840145 0.02831203
0.00770803 -0.01205883
-0.01221211 0.00816890
-0.00650483 -0.00001036
0.01520801 -0.00687091
0.01164680 -0.01991852
-0.01361325 -0.01294762
-0.00065084 0.03886113
0.01143393 -0.02175630
-0.00334957 -0.01583899
-0.01537302 0.01543712
-0.00787270 -0.00461929
-0.01062813 0.01615523
0.00457335 0.00675022
-0.00190801 0.02398238
-0.00561511 -0.00252972
0.00104697 -0.00863526
0.00540900 -0.00252086
-0.00068473 0.02065656
0.01436189 -0.01199474
-0.00496327 -0.02453291
-0.01925333 0.01513650
-0.01270144 0.01518649
0.04215689 0.00750041
-0.00059824 -0.00235542
0.02546671 0.00520815
-0.01608649 0.01142703
-0.02450205 0.01042420
-0.00874990 -0.00509660
0.01300050 -0.01105162
-0.00493965 -0.00494788
-0.00481062 0.00521821
0.00620212 -0.00816141
-0.02916135 -0.00403233
-0.00136379 -0.00509690
0.03111608 -0.00498556
-0.00427948 0.00490129
0.01826598 0.00448044
0.02160302 0.01137098
0.01020722 0.01620480
-0.02240124 -0.00853998
0.02439093 0.01064065
-0.00236052 -0.02090937
0.00368556 0.00261869
-0.01148697 -0.01821478
-0.03081900 0.00050121
0.00548523 0.00447596
-0.01506690 -0.00279163
-0.01512260 0.00700227
0.00153667 0.01413121
0.00070571 -0.00985911
-0.00378683 -0.02028233
-0.01166790 0.00687340
0.00561853 -0.01932159
0.01096151 -0.00143008
0.03277428 0.00327151
-0.02307440 0.00754061
-0.01658641 -0.01277417
0.00888512 -0.01055648
-0.01312481 0.02569843
-0.00845592 0.02139164
-0.00135288 -0.00498188
0.01477072 -0.00995691
0.00506264 -0.00030071
-0.01178235 0.00598305
-0.02621409 0.00159732
-0.00319961 0.02131391
0.03775914 -0.00236449
0.02243144 -0.00087903
-0.00226901 0.01256323
0.00178625 0.01780340
0.00271230 -0.00054358
-0.01236429 -0.01346218
0.01175566 -0.00607586
0.00417501 -0.00619609
-0.00859931 0.00803068
-0.00591291 0.00311039
-0.00531313 -0.00148049
-0.01984065 -0.01242193
-0.01449182 -0.00391559
0.00481639 -0.01058321
-0.00554247 -0.00384060
-0.01674627 0.00287109
0.01006779 0.00121418
-0.01323596 0.00913644
-0.01126464 -0.01092002
-0.00847245 -0.01908425
0.01174775 0.00285525
-0.03008094 0.00345067
0.01742207 0.01708599
-0.01738847 -0.00466072
0.00952265 -0.00683861
0.01674924 -0.00806930
-0.00712265 0.02204100
-0.02207550 -0.00272778
0.02043455 -0.00042118
-0.01202054 0.00482257
-0.00659001 -0.00828070
-0.03893318 0.01848141
0.01674481 0.01164488
0.00652902 0.00476133
-0.00198527 -0.01996034
0.00967667 0.02229417
-0.01283318 0.01664597
-0.00675698 -0.02311942
-0.00957385 0.00348749
-0.01465881 0.00286507
0.00067442 0.00526657
-0.00161791 0.00654927
-0.01263385 -0.01674328
-0.00481909 0.01039196
0.00238237 -0.02659944
-0.00445345 -0.00555366
-0.00973290 -0.00362317
-0.01883966 0.00759047
0.00190721 0.00664723
-0.00520842 0.01516269
-0.01992161 0.02309298
0.00473798 -0.02282926
0.00750375 -0.02345640
0.01299958 0.01007509
-0.00263420 -0.01269357
-0.00411914 -0.00439116
0.00501255 -0.02054422
0.00025386 0.00088197
-0.01951146 0.02069532
0.01824351 0.00918483
0.01692161 0.00455184
0.00647906 0.00288579
-0.01577668 -0.00399715
-0.00673677 0.00131709
-0.00578239 0.00141045
0.01348324 -0.02313839
-0.00823830 -0.01624531
-0.01147962 -0.00599933
0.00079272 -0.00557203
-0.03074334 -0.01121354
-0.00525937 0.02288128
-0.02047972 -0.01742132
0.00244373 0.02911421
-0.00278471 0.00473880
0.00070945 0.01732520
-0.02039722 -0.00529996
0.00558814 0.00332498
-0.00506426 -0.00244882
-0.02636015 -0.02161594
-0.01751965 0.00128457
-0.01446094 -0.01313973
0.01245195 -0.00613230
-0.02793918 0.00102681
0.01795704 -0.02087006
0.02810512 0.00637812
0.03446252 0.01484551
0.00934041 -0.00576657
0.00582038 -0.01713902
0.00544691 -0.00068668
0.00370416 0.00608469
-0.02201334 0.00323186
0.00499834 -0.00067730
0.00941582 0.00575820
0.00790081 -0.00780596
0.00736691 -0.00310409
-0.00359988 -0.00207715
-0.00079597 -0.00033982
-0.00705837 -0.00689393
0.02179062 0.01647009
0.01642410 0.02080052
0.00810918 -0.00220734
0.02498978 0.00751695
-0.01188632 -0.00773375
-0.00910866 -0.02801945
0.00078993 -0.01365862
0.00003100 -0.00899491
-0.00761216 0.02272942
0.01416469 -0.00361482
0.00614528 0.01809608
0.00614057 0.00103907
-0.00472626 0.01896333
-0.00440438 -0.01097014
-0.00750045 0.01899611
-0.00237248 0.02157987
-0.00361605 0.01949048
0.01326473 -0.01222677
-0.00127056 0.00389551
-0.00635173 0.01907320
0.00370234 -0.00270255
0.02039353 0.00269412
0.01220992 -0.00631916
-0.02752072 0.02094401
0.00171004 -0.01866570
0.01884041 -0.00406620
-0.00444417 0.00238416
-0.01873430 -0.00791464
-0.00576850 0.00702459
-0.01730276 0.00233665
-0.01046718 -0.00425740
-0.00182841 -0.00212052
-0.00079745 -0.01052165
0.01037116 0.02206597
-0.02121827 -0.00098884
-0.01727149 0.00103316
-0.00551605 -0.01052003
-0.00106845 0.01933094
-0.01283065 -0.01680636
-0.00569837 0.02031777
-0.01377365 0.00973685
0.01579810 -0.01956964
0.01316906 -0.01309152
-0.03258455 0.01708707
-0.01288338 0.01224802
-0.00917950 0.00378962
0.01364684 -0.01238728
0.01011654 -0.00759103
0.00270723 0.02054170
-0.00729262 0.00113034
-0.01122251 -0.00080167
-0.02744184 -0.01546380
-0.01012611 -0.01791446
-0.01623270 -0.00335765
-0.00857793 0.05294966
-0.01185100 0.01787745
0.01522086 -0.00535241
-0.02163864 -0.00554564
-0.01475564 -0.00459599
-0.01293829 -0.01009369
-0.00769251 -0.00553616
0.02154146 0.00392143
0.00992431 -0.00263052
0.00606106 0.03053966
0.01163431 0.00943804
0.01657635 0.01313862
-0.00224016 -0.01137280
-0.00153221 0.01058667
0.00477075 0.01398797
0.00536339 -0.00947386
0.00720857 0.01226310
-0.00734246 -0.00552910
-0.00867044 0.00297539
-0.01973984 0.02872064
0.00469478 -0.01514890
0.00523702 0.01111526
0.01843996 0.01425170
0.01614920 -0.01083843
-0.02197466 0.01144044
-0.00518917 0.00290841
0.00226445 0.00824989
-0.01308350 0.02230003
0.01127477 -0.01055751
0.00911090 -0.01922421
-0.01479105 0.02192558
-0.00030748 0.00750051
-0.01628637 0.01663471
0.00858747 -0.00739258
0.00061526 -0.00884058
0.00773021 -0.00025179
0.02044372 -0.01386719
-0.00140490 -0.01592689
0.01035797 -0.01529193
-0.00914335 0.01250063
-0.01045061 -0.00087425
-0.00185266 0.01639582
-0.00253432 -0.01057208
-0.01358048 0.00240269
0.00166015 0.00040016
0.01175736 0.00403703
0.02521407 0.01089030
-0.02238783 0.01457283
-0.01020302 0.00593823
0.00156343 0.00013113
0.00732764 0.00027480
-0.00603947 -0.00836532
-0.00056955 0.00390481
0.02315160 0.01480310
0.01630238 0.00627646
0.00574409 0.02644246
0.01011168 0.03672963
0.00228349 0.00698276
-0.00996114 0.00803538
0.00568532 -0.00595511
0.02356749 0.01067948
0.00392932 0.01342005
-0.01465669 0.00221184
0.01483467 -0.02671316
0.00993620 0.00254745
0.02180230 -0.00415063
-0.01185755 -0.01405683
-0.02180339 0.01720050
-0.00927669 -0.01136642
0.01759844 -0.01215835
-0.00863906 0.00106902
0.00694417 -0.00531059
0.00937645 -0.00598035
0.01328870 -0.00778243
-0.01528273 -0.00316102
-0.00157090 0.00309933
-0.01458773 -0.00604345
-0.00166477 0.03125582
-0.01160352 0.01900752
0.02646277 0.00536497
-0.00919020 -0.00110343
-0.00053113 0.00858651
-0.00669779 -0.00371361
-0.00579992 -0.00992604
-0.01213237 -0.00732859
0.01754967 -0.00097557
0.01271331 0.00663577
-0.00229064 -0.02020519
0.00084778 0.00189483
-0.00447185 0.00851602
0.02049172 0.03982884
-0.01685764 0.02438618
0.02062668 0.00883280
0.01315479 0.00971905
-0.01658837 0.01961711
0.00058832 -0.02272719
-0.00801518 0.01898913
0.00409081 -0.01269282
-0.00022288 -0.01161751
-0.00025858 0.00226504
0.01626341 -0.00692557
-0.00620124 -0.01503017
0.01680734 -0.00730941
0.00617215 -0.01811377
-0.01562773 0.01101768
-0.01966505 -0.00954563
-0.00361370 -0.01440797
-0.00748082 0.01382868
-0.01256525 0.01529548
-0.00733136 0.00164102
0.00540432 0.00256496
0.00585812 -0.00152127
-0.01825818 -0.00868982
0.00449301 -0.00745749
-0.00360938 -0.00191828
0.00005215 -0.01155154
-0.01589772 -0.00555495
-0.01645724 -0.01956008
0.00063205 0.00518472
-0.00099031 -0.01775752
0.00085272 0.01706722
0.00609701 0.01392552
0.00723251 0.00864059
0.00501811 -0.00503240
0.00305396 -0.00535510
-0.03530588 -0.01662827
0.00273207 0.03065893
0.00440814 0.01451087
-0.01066516 0.01503198
-0.00605811 0.00126643
-0.01518628 0.00624930
-0.01106497 -0.00483493
-0.01109320 0.01428010
0.01637117 -0.01959254
-0.00159510 0.01516160
0.00986426 -0.00305474
0.00623590 -0.00718012
0.01296096 0.00274870
-0.00403001 0.01047084
-0.00388848 0.00326515
-0.00239672 0.00599197
0.01420689 0.00639570
-0.00265278 -0.01760731
0.02041916 -0.01783382
-0.01396808 -0.00834951
0.00224739 0.03642202
-0.01930285 -0.00360512
0.01845541 0.00431158
-0.00135326 0.00295601
-0.01138964 0.00037888
-0.02870162 0.02055770
0.00688127 -0.00779973
-0.00643735 0.03247575
-0.02605999 0.01573340
0.02504506 -0.00897373
-0.01567318 -0.02367869
-0.01903279 -0.01323954
0.00290296 0.03625677
0.01661335 -0.00604441
-0.00592973 -0.00004157
-0.00824140 -0.00387043
0.00602884 0.00396014
0.01824168 0.00512915
0.00691505 -0.01702853
0.01289439 -0.02181887
-0.00963917 -0.00352109
-0.01461864 0.00111324
-0.00147863 -0.00750051
-0.00990376 -0.01993780
-0.01806934 0.00540541
0.00340856 -0.00757275
-0.01695783 0.01207177
-0.01181004 -0.03313982
0.01288031 0.01233510
-0.00893713 0.02324782
0.00690490 -0.01068497
0.00907070 -0.01079740
0.01233895 -0.00323841
-0.01470435 0.00571455
-0.00987460 0.02367643
0.00108668 0.00319995
-0.01336234 0.01016854
-0.00782618 0.00590535
-0.02227393 -0.00525489
-0.00647739 -0.00422602
0.01522776 -0.01187173
-0.00236938 0.00406340
0.00475249 0.00340223
-0.01122360 -0.00321276
0.02327378 -0.00538016
-0.01236964 -0.00987215
0.00099172 -0.00304469
0.00012985 0.00463108
-0.01143259 0.01390245
-0.00869512 0.00366632
0.00001362 0.01939931
-0.01026801 -0.00329412
0.01398761 -0.01519901
0.00181973 0.01021913
0.00201104 -0.01614421
-0.02082057 -0.00429021
0.01425300 0.00635777
0.01823319 -0.00483241
0.01370378 -0.00404574
0.01904339 0.01542533
0.00884415 0.02258326
-0.00126677 -0.00086475
0.00393721 -0.02316906
-0.02096997 0.00433963
0.00693021 -0.00488821
-0.01370038 -0.00052249
-0.00297827 -0.01521611
0.00690463 -0.00498142
-0.02356515 0.00316484
-0.01025739 -0.00691588
-0.00008200 -0.00227941
-0.00124798 0.01420513
0.00469698 -0.01378811
-0.03259734 -0.01266825
0.00635240 -0.00297739
0.02015425 0.00796341
0.00792511 -0.01327730
-0.00756461 0.02000517
0.00630388 -0.02413290
-0.00520898 0.00912732
-0.02536793 0.01862621
-0.01078340 -0.02553888
0.00155802 -0.00343979
0.00311302 -0.02307995
0.00591767 0.00085174
0.01983672 -0.03498369
-0.00463505 -0.01742258
-0.00180908 0.00003307
0.00558819 -0.01284013
-0.01802142 -0.00786730
0.03299538 0.00685185
0.01109693 -0.01953973
-0.00747660 -0.00681023
0.00104690 0.00484674
-0.01248610 -0.02455553
0.02003780 -0.00102955
0.01383776 -0.00565691
0.01359395 -0.00233588
-0.02681560 -0.02071229
0.01753386 -0.00045881
-0.00697726 0.00977042
-0.01752092 0.00430483
-0.00140542 0.01502083
-0.01586577 0.00764967
-0.00805343 0.02465659
0.00901697 0.01226401
-0.03071288 -0.01448522
-0.00130202 0.00279513
0.01456628 0.02164379
-0.02352861 -0.01029731
-0.00154761 -0.00972883
0.01573319 0.01325967
0.00011753 -0.00636460
-0.00548783 0.00137882
0.00414494 0.00916755
-0.01248276 0.01463820
0.01684562 0.00662493
-0.00290787 -0.01754434
-0.01903067 0.00543071
-0.01450032 0.01591310
0.01496806 -0.01933443
-0.03322004 -0.01721274
0.01107947 -0.00187071
0.00150452 0.00575027
0.01416310 0.01540215
-0.00191100 -0.00426355
-0.02158628 -0.00858122
-0.00363929 -0.00339166
0.02191878 0.01228294
0.01771847 0.00139114
0.00458408 -0.01751882
-0.00636580 -0.00897088
-0.00692702 -0.01715844
-0.01224592 0.01760167
-0.00816743 -0.00317870
-0.00118244 -0.00946168
0.00891743 0.02982394
-0.01034985 0.00440984
-0.01891865 0.02198350
0.00041009 0.00495875
0.00195772 -0.00670002
0.00115139 0.01306084
-0.01737338 -0.00590050
-0.00654074 -0.00708897
0.00972185 0.00106640
-0.00031447 0.02829751
-0.00019684 -0.00809187
-0.00703492 -0.00084507
-0.01400234 -0.00629866
0.00078478 -0.01366357
0.00777452 -0.02117384
0.01304028 0.01281985
0.01689946 -0.00913642
-0.04510998 -0.00943633
0.00028403 -0.00338116
0.02668878 -0.01946723
0.01683540 -0.00492210
0.00978026 0.03266820
0.02102968 0.00537818
-0.02451695 0.02264514
-0.01528378 -0.01124836
-0.01378375 -0.02271292
-0.01455024 0.00008157
0.00544533 -0.00581787
-0.00176626 -0.00414575
0.00495761 -0.01412737
0.00579596 0.00519911
-0.00398252 -0.00062966
0.00399500 0.01772903
-0.00670104 0.00244145
0.01284266 -0.00312406
0.01793825 -0.03129653
-0.01079860 0.00347886
-0.01027762 -0.00513422
0.00611129 0.02579737
0.02053651 -0.00066279
-0.00961858 -0.00726050
0.00163175 -0.01349926
-0.00691341 -0.01179112
-0.00509438 0.01899982
0.00486208 -0.02135978
-0.00211521 -0.00173324
0.01810750 0.02879659
-0.00607547 0.01132294
0.02540545 -0.00003801
0.00470630 -0.01800772
0.00143840 0.02141565
-0.00063486 -0.02217153
-0.00511877 0.02988172
-0.00385416 0.00326309
0.00865214 -0.02911888
0.02120600 0.00655342
-0.03769736 -0.00314602
-0.00684272 0.01314715
-0.00517103 0.00122261
0.01017873 -0.00068725
0.00129689 0.00779070
0.01201908 0.00918616
-0.01430725 -0.00853848
-0.01239031 -0.01892950
-0.00645387 -0.00440402
-0.00590130 -0.01453429
-0.01047195 -0.00539770
-0.02129124 -0.01382110
-0.00952117 0.03503165
-0.00661750 0.03308163
-0.02856711 -0.00579774
0.01681841 -0.00940698
-0.00786412 -0.00434915
0.00946051 0.01106592
-0.01155496 0.01324892
-0.00410345 -0.02220597
-0.00245193 -0.03646434
0.01608552 -0.00466830
-0.01367040 -0.00602591
-0.01960163 0.00614257
0.00207682 0.01861469
0.00968771 0.00172648
0.00505019 0.00696162
0.01408368 -0.02135844
-0.00782302 -0.00519700
-0.00726408 0.02109525
0.00379974 -0.02160657
-0.00027395 -0.00313278
-0.00599085 -0.02030488
-0.00918519 -0.00347442
0.02455801 0.00994091
-0.00504201 -0.00726794
-0.01436044 0.00129146
0.04183676 -0.01546758
0.01892647 0.00753942
-0.00876953 0.01019757
-0.00585017 0.00295413
0.01662660 0.01150195
0.01465862 0.01233879
-0.00021527 -0.00960735
-0.01062648 0.01346491
0.01344421 0.00288825
-0.00262861 0.01475995
-0.01025724 -0.01897920
0.00460932 -0.02119180
0.02582227 -0.01300184
-0.00691634 0.01009250
-0.02114732 -0.00795467
0.00008075 -0.00218043
-0.02081003 0.00259091
0.01929415 0.02145718
-0.01275534 -0.02654158
0.01061691 0.00692188
0.01422827 0.00389913
-0.00661385 -0.01367737
-0.02204493 0.00584483
0.01347292 0.00725605
-0.02992357 0.00803522
0.02707127 -0.00502721
0.00949145 0.00594534
-0.01640781 -0.01102412
-0.01605223 -0.00280628
-0.00230045 -0.00518828
-0.01035959 0.01369774
-0.00033147 0.02162722
0.01549529 0.03613357
-0.00298774 -0.00247914
0.00441193 -0.00718060
0.02020691 0.00165865
-0.01566407 0.00579907
-0.01072813 -0.02460207
0.00987264 -0.02240709
0.00011281 -0.00081220
-0.01757538 -0.01136514
0.00749627 -0.00687777
-0.00676369 -0.00664561
-0.00436567 -0.01128330
-0.00727645 -0.01551128
0.02822739 0.00240216
0.03073225 0.03011550
0.01696721 0.01598725
0.01589783 -0.01397137
0.00660595 0.01280837
-0.02467467 -0.01083185
-0.02706727 -0.00506993
0.01776967 -0.01419761
0.01060471 0.00081823
0.00069809 0.00106652
0.02616810 0.01318714
0.01424671 -0.00126522
0.02915337 0.04815852
0.00779383 -0.01356619
-0.04619538 0.00540016
-0.00828153 0.02444810
0.00584010 -0.00323519
-0.00304572 -0.01463945
-0.00565849 -0.01626189
-0.00601182 -0.01372686
0.01589916 -0.01043889
-0.01197465 -0.00058874
0.00830143 -0.00050232
-0.03143343 -0.01293506
-0.01743999 -0.00889338
-0.01170082 0.00253958
-0.02595749 -0.00445269
-0.02305625 0.02862832
0.00548874 -0.00518378
0.00970396 -0.00496599
-0.00520744 -0.00841550
0.02233801 -0.00873238
-0.00627265 -0.00240361
-0.00222650 0.00922752
0.00123805 -0.00005725
0.01655115 -0.01771218
-0.00066695 -0.01255316
0.01414712 -0.00133605
-0.01432144 -0.01172654
-0.01391440 -0.04397853
-0.00243239 -0.00160711
-0.00620913 -0.02609933
-0.00233651 -0.01055482
-0.01134586 -0.01497396
0.00960624 -0.01789907
0.01546170 -0.01292387
0.00627342 -0.03541185
0.02414625 0.00981948
0.00808339 0.01846173
-0.01352327 -0.00785267
0.01520544 0.00019635
-0.00095757 0.01888311
-0.02011275 0.01995340
0.00820609 0.01515732
-0.01598184 0.00604039
-0.00324584 -0.01696846
-0.00645714 0.00542366
-0.02185338 0.00501197
0.03450852 0.00032304
-0.01263482 -0.01392657
-0.00424482 0.00077360
-0.01674355 -0.00309188
-0.01172112 0.00682579
0.01638361 0.00573780
0.01747636 -0.01459185
0.00445680 -0.00925772
-0.00795112 -0.01070157
0.01400718 -0.00268690
-0.00654023 0.00241501
0.00366761 0.00376165
0.01151107 -0.01108182
0.01532707 0.00311033
-0.01846830 0.00068104
-0.00549979 -0.00997156
0.02520231 0.01469785
0.01061832 -0.02791686
0.03007780 0.01104895
-0.02405745 0.00210132
-0.00628312 -0.01507875
-0.00368547 0.01912963
-0.01070671 0.01032864
-0.02775478 0.01254162
0.00337273 -0.00047157
-0.00521802 0.00620322
-0.00454637 0.00132015
0.00075272 -0.00308527
-0.00454705 0.00697585
0.01734777 0.01639044
-0.03292856 -0.02370510
0.00939236 -0.03091488
0.00076024 -0.02219205
0.00536706 -0.02171541
-0.00172849 0.00760934
-0.00199503 -0.00770718
-0.02759557 0.00430539
0.02351238 0.00840857
0.01028704 0.02375728
0.02162041 0.01831307
0.00486484 -0.01249458
-0.00081815 -0.00856196
-0.01395695 0.01218412
0.01292468 0.01894919
-0.00319870 0.01508411
0.02386245 -0.00982791
0.00654797 0.01363907
-0.01755818 0.01271880
-0.01877068 0.03996516
0.00268805 -0.00119715
-0.00533729 0.00555797
0.01893731 -0.00261273
-0.00343960 0.00271717
-0.00840712 0.02376160
-0.01001268 -0.01078510
0.00802500 -0.00536083
-0.00243180 0.00237444
-0.00541507 0.03597342
-0.00828993 -0.00753934
-0.00273267 0.01596586
0.01466682 -0.01478758
0.01492260 -0.00080995
0.00609297 -0.01291189
-0.01577882 -0.03590390
-0.00379595 0.01604627
-0.00000063 0.01052084
0.01184288 -0.01177679
0.01787206 0.01531773
-0.00319218 -0.00317591
-0.01014718 0.01140477
0.00586146 0.00564742
0.00809185 0.01478493
0.00812437 -0.01666904
-0.01412970 0.00694576
0.00675297 0.01253079
-0.00350116 -0.01735206
-0.02418429 0.01052229
0.01489117 -0.01558120
-0.00765805 -0.01928541
-0.00887937 0.01698981
0.01018906 -0.01794628
0.00255129 -0.00583442
-0.00084805 0.01274513
-0.01778798 -0.00766801
0.01605005 -0.01679371
-0.00765773 0.01514350
0.01009213 -0.00936268
0.00007873 -0.01395947
-0.02524360 0.00748974
-0.02334163 0.01510752
-0.00373950 -0.02996186
-0.00552559 0.00712890
0.02022658 0.00297210
0.01923447 -0.00105545
-0.00560360 -0.00142669
0.02595066 -0.01763986
0.02075908 0.02830191
-0.01032574 0.02167390
-0.00426495 0.00465005
0.03223784 -0.01072123
0.02057310 0.01326874
-0.00131834 0.01432240
-0.02225330 -0.01851498
0.00171354 0.03951156
-0.00722837 -0.02447855
0.00176356 -0.00184221
-0.01962494 -0.01318406
-0.00604223 0.00126132
0.01454952 0.00995945
-0.00803513 -0.00885459
-0.01478160 0.02550790
0.01533366 -0.00972577
0.00540958 0.00189024
0.00028925 0.01647738
0.01412878 -0.00654582
-0.00822908 0.00782240
-0.01614780 -0.00850439
0.02409337 -0.00564027
-0.01983687 -0.00968527
-0.00000938 0.03585439
0.00406879 -0.00967772
-0.04295788 -0.00103287
0.00167725 0.00078951
0.00605093 -0.00604886
-0.00073383 -0.02146854
-0.01668440 -0.02075697
-0.00431448 0.01011692
0.00233469 -0.01031295
-0.00661613 -0.00148162
-0.01049874 -0.02432334
0.00447495 0.01492803
0.00389530 -0.01586714
-0.02242415 -0.01087137
0.00678624 0.01549956
-0.00647386 -0.00612236
0.01837374 0.01379041
0.01188940 0.00898582
-0.02341736 0.00033344
0.00682191 0.00556892
-0.00322071 0.00643859
-0.00257533 -0.00546409
0.00952754 -0.00126776
-0.01850388 -0.01625959
0.00672717 0.00062633
-0.01123591 0.00138093
-0.00765336 -0.00199413
-0.00176143 -0.00399257
0.01001490 -0.01431002
-0.02345188 0.01276048
-0.00075976 0.01719190
-0.00167326 -0.01782925
0.01512501 -0.01963044
-0.00268872 0.01652396
0.01525375 -0.01515702
0.00780374 0.00868823
0.00023866 -0.01460749
-0.00573550 0.00928963
0.01434104 0.01393431
0.00086882 0.00179365
-0.01360566 -0.02721330
-0.00288344 -0.00896747
0.00135643 0.00818936
0.00872622 0.02299806
0.00408366 -0.00209716
-0.00333855 -0.00283758
0.01346154 0.00357449
-0.00438539 -0.01262645
0.01263361 0.02993256
0.02776051 0.01154052
-0.04177164 0.00280605
0.01615934 -0.00700382
-0.01056274 0.01447897
0.00604499 0.00194811
0.01742456 0.01404018
0.00916053 -0.01866218
0.00245851 0.02096046
-0.02619366 -0.00137086
0.02097759 -0.00998231
-0.00577805 -0.00420736
0.01166020 -0.00067868
0.00395160 0.01325592
0.00934665 -0.01589627
-0.02602525 -0.00987672
0.00514637 0.02018917
-0.01578578 0.01884119
-0.01657612 0.01737544
-0.01225549 0.00231150
-0.01583832 -0.01794494
0.01380561 -0.01106469
0.00662453 0.00050524
0.01136362 -0.00203988
0.00623756 -0.00042162
-0.00561986 0.01408569
-0.01696990 0.00041846
0.01061361 -0.00867427
-0.00127082 -0.00414656
0.00713100 -0.01010688
0.00143242 -0.00196469
0.00466484 0.02787646
0.01576963 -0.00120983
-0.01108113 -0.01183827
-0.01899343 -0.00428937
0.01016970 0.02085846
0.01517978 0.01162172
0.01763012 0.00122597
0.01554641 -0.01145339
-0.01813533 -0.01169597
-0.00948320 0.00545417
-0.00530268 0.02172230
0.01652572 0.00377904
-0.00863252 0.00030781
-0.01669870 -0.00800185
-0.01081884 0.00064842
-0.01621528 -0.00467304
0.01705181 0.00116126
0.00370193 0.02123586
-0.01892006 -0.00639112
0.01255619 0.00073738
-0.01656801 -0.00586992
0.00438633 0.00551066
0.01064149 -0.01025966
-0.00673674 -0.01127568
0.00181770 -0.00442732
-0.00369673 0.01856949
0.02311745 0.00330594
-0.01888346 0.00445148
-0.00021866 0.01848820
0.00540751 -0.00167353
-0.00547532 0.02470160
0.01399024 0.00307563
0.00032299 -0.00833362
-0.00677575 -0.02593215
0.02042947 -0.00448038
-0.01258812 0.00615748
-0.01541828 -0.00387369
0.00696206 -0.00147824
-0.01368000 0.01008154
0.01194846 0.00773253
0.00998525 0.02588241
-0.00447241 0.02025571
-0.00469051 -0.01227501
0.00656431 0.02153167
0.01759082 -0.00494456
-0.01998804 0.01877082
0.00283135 0.00595402
-0.02462946 -0.00793784
-0.00446287 -0.00987771
0.02372349 -0.01245399
0.00013022 -0.00016525
-0.01994455 0.01079180
0.01573814 -0.02202091
0.00088405 -0.01461779
0.00009493 -0.02010764
0.00086216 -0.01053633
-0.02030740 0.02325275
-0.00529822 -0.00094238
0.01960560 0.02226337
0.00006280 0.00916357
-0.00896741 -0.01305086
-0.00008299 -0.00572004
0.02351718 -0.01496175
-0.01432645 0.00825243
-0.00493096 0.01115108
0.00102719 -0.01772011
0.00314656 0.01801192
0.00007144 -0.01103523
-0.01903148 -0.00725941
0.00708091 0.01040815
-0.01761890 -0.01253384
0.00097154 0.01704141
-0.00279561 0.01180037
-0.01777328 0.01210484
-0.01654576 0.00759814
-0.01199062 0.02205176
-0.00964578 -0.00816009
-0.01623039 0.01792379
-0.02101793 0.01559395
-0.01698808 -0.01050554
0.01623007 -0.01368228
0.01135262 0.01628234
-0.00830574 0.00359286
-0.00308168 -0.01850344
0.01435155 0.02870178
-0.00040633 -0.00213819
0.00764832 0.02876201
-0.01908115 -0.00431958
-0.00369054 -0.02415196
0.01458229 0.00993961
-0.01501288 -0.00921689
-0.00120018 -0.00620907
-0.00434367 0.01199321
0.00787614 0.00127816
-0.01258949 0.00945210
-0.01064542 -0.00659507
-0.03220523 -0.01856754
0.00160962 0.01529178
0.00132660 -0.00452039
-0.01164564 0.00051314
0.00227423 0.00076463
0.00002278 -0.00508198
-0.00415815 0.00592458
-0.00420353 0.00168065
0.01449933 0.01586388
-0.02617368 -0.00459955
-0.00262926 -0.00632688
-0.01640680 -0.01063614
0.02720219 -0.01888488
0.00408513 0.01290019
-0.02215370 0.00234470
0.00510439 -0.00840157
-0.00531369 -0.01162213
-0.03069701 0.01499211
-0.00235286 -0.01071527
0.02102288 0.03770953
0.00383904 0.00915547
0.00969526 -0.01356930
-0.00968731 0.02318180
-0.01248795 0.01012838
0.00205951 0.01943205
-0.02398617 0.00003085
0.01075070 -0.00140908
0.03980074 -0.01943516
-0.00606137 -0.00108635
-0.00488227 0.02097652
0.02387182 -0.01550539
-0.00621271 -0.00795422
0.00695493 0.00130799
-0.01921480 0.01091638
0.01319203 0.00600028
0.01138531 -0.00213182
0.01344308 0.01049491
-0.01276689 -0.02206802
-0.01409707 -0.01078138
0.02732473 0.02914922
0.00247781 -0.00693124
-0.00564615 -0.00201468
0.03117689 0.00129215
0.00857846 -0.00036300
-0.01950490 0.00485330
0.01608319 0.02857726
0.01025715 -0.02692370
-0.00587906 0.00816955
-0.00111595 0.00859275
0.01085898 0.02164427
0.01222788 -0.02077783
-0.01892536 -0.02909442
0.00705268 -0.01682927
-0.00356005 -0.00883799
-0.00212995 -0.00818194
-0.00790172 0.00018118
-0.00738854 -0.00056607
-0.03824434 0.00851823
0.00636249 0.01080642
-0.02526173 0.01227717
0.00703413 0.01430963
0.00025811 -0.00122704
0.00504194 0.00268295
-0.02218571 0.00195847
0.01918940 0.00272304
0.02884841 -0.00709288
-0.01830898 0.00825047
-0.02521764 0.00729102
-0.00039510 -0.00498776
-0.00555977 0.01830626
-0.01162098 -0.01519052
-0.00228570 -0.00374507
0.00655784 -0.00484003
0.00225281 -0.01658946
-0.01146696 0.01397790
0.01171008 0.01293104
-0.02292632 -0.04132883
0.00830954 0.01331493
-0.00934213 0.00578192
-0.01896089 -0.00192648
0.00583921 -0.02092140
0.01019090 -0.00441024
0.00064869 0.00673943
-0.01855523 -0.00974369
0.01459738 -0.01161197
0.01293404 0.00530447
-0.00177626 0.00410008
-0.00261365 -0.01309254
0.00632421 -0.01136005
0.00257240 -0.00119771
-0.00369276 0.00615516
-0.00398573 -0.01106038
0.00117090 0.01945942
0.00368542 0.00907100
0.00693815 0.00351231
-0.02511634 -0.01597346
-0.01597884 -0.01388311
-0.00065660 -0.01748326
0.00745984 -0.00370879
-0.00010746 -0.02479261
0.00060861 -0.01506835
0.00847448 -0.00356771
-0.00570451 0.02807215
0.01830350 0.00056452
0.00975220 0.00501152
-0.00055246 0.00750568
-0.00443571 0.01422781
0.01369107 -0.01200092
-0.00657313 0.01168759
-0.00767666 0.00111409
0.01640248 -0.01042644
-0.01197453 -0.00875241
-0.01399667 -0.01147427
-0.00025734 0.01566737
0.00200616 -0.00984400
-0.01489823 0.00118473
0.00064060 -0.00383978
0.00148644 0.00369750
-0.01912539 0.01001189
0.02081560 -0.00068410
0.00299877 0.00910558
-0.00796960 -0.02418605
0.01165066 0.00041916
-0.00694409 -0.02877948
-0.00647518 -0.01926662
0.00529743 -0.02162224
0.00874567 0.00242337
0.00456697 -0.01209554
-0.00028754 -0.01842126
0.01854906 0.00101939
-0.00151966 0.00691835
-0.02087982 0.00153392
-0.00168509 -0.02761217
0.00476638 -0.02047482
0.01691839 -0.02021683
-0.00126496 0.00778751
-0.01353216 0.00543532
0.00740736 0.04099278
0.01265863 -0.00867077
0.00109007 0.00224268
0.01692510 -0.00893318
-0.00789869 0.00251111
-0.01690291 -0.01332556
-0.01491728 0.01693785
0.01770857 0.00216471
0.01388872 -0.01822509
-0.00329518 -0.02096440
-0.02289523 0.00787347
-0.00768765 0.01987613
-0.00166344 0.00354458
-0.02397744 0.01151433
-0.00778278 0.00803259
-0.00742258 0.00914337
-0.01626788 -0.01870784
-0.00389888 0.04591997
-0.00592186 -0.00722183
-0.01267941 -0.00448655
-0.01136436 -0.02247999
-0.01659315 -0.01387824
-0.01334458 0.00740660
0.00618369 0.01235672
-0.00677275 0.00095923
0.00209603 0.00041916
-0.00894813 0.00522328
-0.00479691 -0.00496171
-0.00772073 -0.00275287
-0.00018763 -0.00563186
0.00661521 -0.00679412
0.01294020 -0.02333313
-0.00632473 0.00192737
-0.00302830 0.02484513
0.00864562 -0.02430648
-0.01213319 0.00303416
0.01200511 0.00459409
0.02417104 -0.00488255
-0.02025561 0.00679038
-0.01987107 -0.02164282
0.00852743 -0.01666186
-0.02514642 -0.00742879
0.00329821 -0.00343077
0.01229915 -0.00133289
-0.01453709 0.01398294
-0.00415161 -0.02016376
0.01401670 -0.02246478
0.00108413 0.00490520
0.00527881 -0.00249641
-0.01641434 -0.01534521
-0.00840165 0.02987487
0.00632543 0.01276175
-0.00963171 0.00033251
0.01445196 0.02151288
-0.00564613 0.01305548
-0.01394906 -0.01346484
-0.01250144 -0.00051959
-0.02305642 0.00672797
0.00421119 0.01423857
-0.01079951 -0.00475054
0.01410314 0.02595163
-0.00447363 -0.00432472
0.00736626 -0.01762493
-0.00049405 0.01050853
-0.00419702 0.00673481
0.01292449 -0.00709892
-0.00099432 0.00269238
-0.00631136 0.00726105
0.00254113 0.00239634
0.02253914 -0.00267330
-0.02056933 0.01261182
0.01837429 -0.01974836
-0.01203166 0.01114588
0.01332330 0.00303176
0.01286781 -0.01549681
-0.00333173 -0.00348185
-0.00821417 -0.01416571
-0.01267304 0.00286261
0.00919906 0.03852161
0.00793006 0.00054160
-0.00029974 -0.02346406
0.00655909 -0.00156861
-0.00329247 -0.00198639
-0.01212000 -0.00216636
0.01792920 0.00968564
-0.01403589 -0.00810343
-0.00514066 0.01537635
0.03260116 0.00200161
0.00890963 -0.00006766
-0.01997019 -0.01805838
-0.00171463 0.00840214
0.00318130 0.01346503
-0.00624496 -0.01274045
-0.00713989 -0.00292079
0.00585267 0.01176140
-0.01471141 -0.01917749
0.03867595 0.02065454
0.03543936 -0.02125967
-0.00400008 0.01475807
-0.01169440 -0.00804381
-0.02192182 -0.00656580
0.00704482 0.00773597
-0.00698850 -0.01419134
0.01019760 -0.01626298
0.00286532 0.00718421
-0.03182445 -0.00628192
0.01845553 0.00140928
-0.01808748 -0.00877902
-0.00602414 0.00823191
-0.02391309 0.00116773
-0.02517702 -0.00353445
0.00702112 -0.00193085
0.00044706 0.01732604
-0.00948794 -0.00980946
0.02320297 -0.00985983
0.01287781 0.02450699
-0.01331458 0.00172992
0.00555352 0.00859189
0.01529226 -0.00639456
0.00065922 -0.01056681
0.00429196 -0.01223247
0.00071564 -0.01726381
-0.00886615 0.00987995
0.01532535 -0.01689861
0.00332003 0.03142680
-0.01908834 -0.01414556
0.01074212 -0.01498645
-0.00375318 0.00045577
-0.01432110 -0.02108466
-0.01105392 -0.00272484
-0.01411419 -0.00793692
-0.01193135 -0.01163713
0.02000172 -0.01114116
0.02222880 -0.01476779
0.00771287 -0.00075377
0.03030568 0.00319802
0.01219502 -0.00252562
-0.00535423 -0.00943107
0.02121385 -0.00211307
0.00234890 -0.00312997
-0.00722363 -0.00234457
0.00096353 0.01477911
-0.00578107 0.00898294
0.03498156 0.02468171
0.02184843 -0.02874806
-0.00234701 0.00069769
0.01824896 0.01483929
-0.00421548 0.00045204
0.00495613 0.00778892
-0.01297829 -0.00983362
-0.01407272 0.01406190
-0.01141139 0.02106396
-0.01213837 -0.00881212
0.00033170 -0.01801664
0.01274194 -0.00502943
-0.01754455 0.01828171
-0.01175556 -0.00632887
-0.01204626 0.00523881
0.02475209 -0.00794451
-0.01062473 0.00252835
-0.01856857 -0.00784283
-0.01906395 -0.00212003
-0.00113165 -0.01171985
0.00962747 0.00109895
0.01683163 -0.01745871
0.01431823 0.02025025
0.01597621 0.01000535
0.01301738 0.02379202
-0.02760605 0.02736402
-0.01389009 0.01288433
0.00112072 0.00478330
-0.02895565 0.01701353
-0.00274440 -0.00301521
-0.01704330 -0.00286388
-0.01146038 0.02480242
-0.01120272 0.02653368
-0.03149735 0.02495452
0.01496862 -0.02169765
0.00626628 -0.01027389
0.01027623 -0.01552455
-0.00321492 0.01947043
0.01697158 0.01546040
-0.00447062 0.01125261
0.00766463 0.02694683
-0.00713921 -0.01474645
-0.00338335 0.00886649
0.00672977 0.00537010
0.00829327 0.00096923
-0.00364217 -0.00135261
0.01032374 -0.01545077
0.00865009 -0.01163640
-0.00286906 -0.01305404
0.01883959 0.00354123
-0.00699515 -0.00787035
-0.00767103 0.00317710
0.01112365 -0.01646582
0.00045837 0.02746770
0.00461920 0.01374737
0.01282808 -0.00729784
0.02405782 -0.01378541
-0.00285876 0.01124647
0.00855086 0.01423729
-0.02158375 0.00054664
0.01598887 -0.00865104
-0.00664124 0.00258380
0.00899197 0.00115755
-0.00837188 -0.00552833
-0.00516520 0.01183398
-0.00720822 0.01640624
0.00413869 0.00339942
0.01464688 -0.01513457
0.00591347 0.02172192
0.00693538 -0.01465203
-0.01725953 -0.01193183
0.01995910 0.00267176
-0.00517637 0.02500819
0.00175021 0.00865846
-0.01559563 -0.02109658
0.01307686 0.00989231
-0.01766478 -0.00393481
-0.00437561 0.02345507
0.03180371 0.00558112
-0.01738280 -0.01932904
-0.03233524 -0.01513217
-0.00151533 0.00184777
-0.02622292 0.01872315
0.03112783 0.00349408
0.00574039 0.03104612
0.02051397 -0.00689291
-0.04723991 0.01634431
0.01380401 -0.01342049
-0.02260479 -0.00484897
0.01089806 0.00555887
0.00694873 0.01117786
-0.00175768 0.00272884
0.00788567 -0.00581340
-0.00467345 -0.00382245
-0.00709671 -0.01718237
-0.02293865 -0.00315239
-0.00952879 -0.01831768
0.00210352 -0.00897740
0.02981369 -0.00746780
0.01270135 0.00103314
0.00251998 0.01486180
-0.02313853 -0.00214330
-0.01657762 0.00605696
0.02023755 -0.01753481
0.01980686 0.00749116
-0.02147240 -0.00343451
-0.01812279 -0.00508193
-0.00377286 0.00866225
0.00125189 0.00867074
-0.00220152 0.02595648
-0.01135307 -0.00092060
0.00060244 0.01242868
-0.00560537 -0.01772724
0.01268726 -0.00490662
-0.00543624 0.01826529
0.00301899 -0.00308286
0.01435224 -0.01322452
-0.01193124 0.01473795
-0.00028136 0.00199616
-0.00447479 0.00559053
-0.01641231 0.01371135
-0.01196847 -0.00545251
-0.00509161 0.01116342
0.01432369 -0.00646780
0.02637687 -0.00045828
0.00704547 -0.01409134
0.00289936 -0.01060031
0.00001538 0.02020049
0.00599165 -0.00973377
-0.01831919 0.01721836
-0.00341544 0.00344371
0.01225848 -0.00264417
-0.00433172 -0.00792496
0.01524579 0.00107733
0.00126480 -0.00350948
-0.01500582 -0.01089229
0.01208715 0.01570720
-0.01745319 0.02040822
-0.01069193 0.01302511
0.01646170 -0.01332008
-0.00202982 0.00498243
-0.02797934 -0.00749860
-0.00920049 -0.00416191
0.01318420 0.00653499
-0.00776223 -0.00134097
-0.00391379 -0.00476751
0.00835927 0.01050510
-0.01340453 0.00930184
0.00791917 -0.00342488
0.00085609 0.01198508
-0.00297958 0.00490544
-0.01300543 0.01508757
-0.00428654 -0.01311032
-0.01101997 0.01756868
0.00591541 -0.00184048
0.00739560 -0.02111712
-0.00878865 0.01695332
0.01134862 -0.03048675
0.00321130 -0.00566918
0.00837937 -0.01256223
-0.00322330 -0.00853416
-0.00739630 0.04536374
-0.00597466 0.00619314
-0.01254132 -0.00628779
0.00321435 -0.01469396
0.02700156 -0.02095377
-0.02064583 0.02533670
-0.00350573 -0.00086175
0.00414171 -0.01038322
0.01943747 0.01026177
0.00775316 -0.01328500
0.01050176 0.00693543
0.01391758 -0.01167853
-0.00671976 -0.01196615
0.02181449 -0.02013169
-0.00320356 0.00774772
-0.00948780 -0.02058852
-0.01765892 -0.00264239
-0.01866224 0.01130643
-0.00236040 -0.01844729
-0.02878526 0.02786726
-0.02189966 -0.00803107
-0.00480385 -0.01408411
0.00672149 0.00770001
0.00413361 -0.00081894
0.00618331 0.00681700
-0.00642775 0.00861013
0.00296670 0.00572329
0.00869425 -0.00404864
0.01849458 -0.01285163
0.03397114 0.00924490
-0.00244062 -0.01369281
-0.01946158 -0.01358221
0.01622179 -0.00366164
0.01223487 -0.00919823
-0.00018387 0.00131007
-0.00435609 0.01448304
0.01326456 0.02686608
-0.02691129 -0.01576889
-0.01998938 -0.01228142
0.01681047 -0.00155447
-0.00988668 -0.01104292
0.01136662 0.00522797
0.01808085 -0.00894066
-0.01841587 -0.00815770
0.01297807 -0.01028118
0.02111214 -0.00075299
-0.00283834 0.01067103
-0.00396684 -0.02587920
0.01520693 -0.00308583
-0.00184872 -0.00633422
-0.00663204 -0.01299905
-0.02501745 -0.01033498
-0.00599885 -0.01720813
0.00637372 -0.02252546
0.00931851 0.00161249
-0.02504616 -0.01051570
0.02417873 0.00216464
-0.03380207 -0.01158540
-0.01989514 -0.00644990
0.01153078 -0.00051211
-0.03240670 0.00086985
0.00763891 0.01293633
-0.00685398 -0.00751081
0.00411558 -0.00626665
-0.01051334 -0.01686407
0.01926812 0.02259029
0.01573705 -0.01425795
-0.03595518 0.00899807
-0.02728057 0.00487484
-0.02287628 -0.01519207
0.02454598 -0.00518701
0.00324275 0.00808274
0.02466566 0.00041121
0.00797807 -0.01198136
-0.00134194 0.00961683
0.00249267 0.01370167
0.00252324 -0.01242938
-0.02640155 0.00055689
0.02149207 0.00631545
-0.00850562 0.01023867
-0.00087227 -0.02019550
-0.00379695 0.01934438
0.03617724 -0.00044623
0.01365751 -0.01711180
0.00546508 0.00667782
0.01020645 -0.00846052
-0.00644563 0.01247027
-0.03015806 0.00148144
-0.01225981 0.00824575
-0.02061449 -0.02193323
-0.00929870 -0.00770852
-0.00073267 -0.00681863
0.00871321 -0.01356643
-0.00300343 -0.00534379
0.00794609 -0.00405573
-0.00250554 0.02124820
0.00872458 -0.00364696
-0.02681732 -0.01280289
0.01080243 0.01422385
-0.01837633 0.00563766
0.00918329 0.01055183
-0.01646441 -0.00052639
0.02140318 -0.00249073
0.02250520 0.00265630
-0.00801122 0.00275722
-0.00963629 0.00113306
0.00446725 -0.01692456
-0.00747645 -0.00566238
0.01504316 0.00823431
-0.00988005 0.00124467
-0.00737234 0.02765831
-0.00613141 0.00553855
0.00336261 0.00407706
0.01172475 0.00269015
-0.01451777 0.00904426
0.00889110 -0.00665454
0.00098380 0.00722459
0.01688047 0.00184748
-0.01428971 0.00718695
0.02209398 0.02100606
-0.02037592 -0.01846727
0.01368031 -0.00118553
-0.02977460 -0.00251203
-0.01813302 -0.00481930
0.00213259 -0.00271397
-0.00768249 0.00345400
0.00230820 -0.00434515
-0.01259205 0.01150074
0.00868423 0.00049151
0.03971060 -0.00701796
-0.02129135 -0.00884550
-0.00693866 -0.02368852
-0.00369875 0.00950869
0.00116762 -0.00566333
0.01684717 -0.00945044
0.00109304 -0.02960321
-0.00932584 0.00742809
-0.01133216 -0.00797533
-0.00112784 0.00677224
-0.00957108 -0.01931652
0.02113957 -0.00956198
0.00649029 -0.01962206
0.00934201 -0.01150196
0.01242771 0.02360700
0.00744774 0.02191159
0.01167498 -0.01607262
-0.01290314 -0.01289789
-0.00102784 0.01470568
0.00410419 -0.01246322
0.00280791 0.00382534
0.00296348 -0.02596420
-0.00520487 0.02749814
0.01298449 0.00667263
0.00834142 0.00179811
-0.00815155 0.00766788
0.00823445 -0.00635219
-0.00476266 -0.00081039
0.00074810 -0.01574538
-0.00695522 -0.01953928
0.00334890 0.00530369
-0.00109876 0.01111990
0.01496539 -0.02218462
0.00723938 0.01012646
0.02325727 -0.00469476
-0.01686663 -0.01031154
-0.01255405 -0.00676295
0.01242062 0.00573466
0.00115630 0.00175019
-0.01405291 -0.01754931
0.01324051 -0.00029754
-0.02518128 0.00022802
0.00144553 -0.01260008
0.01416945 -0.00023113
0.01446948 -0.00259609
0.01594550 0.01716028
0.03391742 -0.00210273
0.00925560 -0.03022448
-0.01202832 -0.01454206
-0.01669209 0.03250502
-0.00098609 -0.03390068
0.01210476 0.00953645
-0.02229642 0.02493795
0.00176418 -0.00966732
-0.01436385 -0.03549460
0.00800616 -0.00045083
-0.01436152 0.01798789
-0.00426677 -0.01311981
0.00177451 0.01786988
-0.03093640 -0.00520059
-0.01305063 -0.00457294
0.00712331 -0.01478843
0.01759286 -0.01892613
-0.00155805 0.02905985
-0.01107862 -0.02367568
0.02103618 -0.00165451
0.01083864 -0.00271451
-0.00789325 -0.00389195
0.01013362 0.02202439
0.01562712 -0.03090762
0.01337785 0.02441760
0.01506608 0.02934718
-0.01355694 0.01026260
-0.00379216 -0.00466266
0.00294329 0.03035916
0.02121666 -0.00825668
0.00906730 -0.00679725
-0.00207501 -0.02935906
-0.01669114 -0.00218808
0.00708218 0.01481759
0.00448472 0.00855783
-0.01005711 0.01272274
0.02134502 -0.01403185
-0.00370828 -0.00914656
-0.02198883 0.01389873
-0.00822447 -0.00667232
0.01536019 -0.00634742
0.01568103 0.02224750
0.00673532 -0.02198783
-0.00277785 0.00434602
-0.00069745 -0.02253083
0.00699235 0.03776543
0.01181937 0.00407133
-0.00413525 -0.00338711
0.00582555 -0.01002266
-0.00993986 0.00805532
0.00596040 -0.00732351
-0.01156288 0.01049202
0.01391889 -0.00959231
-0.00112127 0.00587931
-0.01133671 -0.02278535
-0.00634199 -0.00906202
-0.03356713 0.01018234
-0.01785363 0.00439352
0.02814601 -0.00147892
0.00009430 -0.00895982
0.01598331 -0.00586907
0.01072304 -0.00708117
-0.00884843 0.00058778
0.02589656 0.00002335
0.03161955 -0.01245920
-0.00630881 -0.00397849
-0.00334278 0.01554242
-0.02926924 0.00853005
0.02921374 0.01545452
-0.00810767 0.02446219
-0.01336849 0.00737191
-0.00976685 -0.01231485
-0.00844757 0.00922911
-0.01601490 0.00303681
0.00176986 -0.01386706
0.00720510 0.01528767
-0.00233655 0.01501251
0.02729376 -0.02705261
-0.00774822 0.00085798
-0.00089219 -0.00025320
0.01395172 -0.00954073
0.02746411 -0.01961621
0.02328181 -0.01724343
0.02706576 0.01940566
-0.01364058 0.00903783
-0.00266601 -0.01222589
-0.01153439 -0.01421198
-0.01066405 0.00103977
0.01459386 -0.00164208
0.01907988 -0.00573132
-0.01439639 0.03535521
0.00432779 -0.01192349
-0.00230742 0.00444881
-0.02075964 0.00450412
-0.00164460 -0.00473073
-0.00584282 -0.00850294
0.00643192 0.00216908
-0.00805498 0.00067596
0.00130881 0.02907460
0.00399461 0.01343933
0.01110458 0.01605105
-0.00091973 0.00605495
-0.00935404 -0.00800736
-0.00621355 0.00639692
-0.00779335 0.00984571
-0.00463764 0.00320738
-0.00664453 0.00124401
-0.01778362 0.00427960
0.01047397 -0.00275726
-0.00920787 -0.02194025
-0.00977020 -0.00144113
0.01260428 0.01555101
0.02649959 0.02233377
0.00556684 -0.01164397
-0.00999919 0.02303945
-0.00264794 0.00367759
-0.00085028 0.01593376
0.00785731 0.00229806
-0.00853835 0.01415448
-0.00134387 0.00737088
0.01432415 -0.00376034
-0.01224194 -0.02461524
-0.01740784 -0.01879768
-0.01190169 -0.00612132
-0.00841914 0.00017948
-0.01384358 -0.00723569
-0.00424838 -0.01269004
0.01772644 0.01636160
-0.00623346 -0.01593194
0.00401450 0.00696197
-0.00109176 0.00900024
0.00165354 -0.00116456
0.01990719 -0.00635059
0.00498952 -0.01669830
0.01721214 -0.02118509
-0.01494115 0.00453464
0.00529003 0.00420227
-0.01268005 -0.01087929
-0.00142911 -0.00066800
-0.01848643 0.00488694
0.01909357 -0.00935428
-0.01048658 -0.00343967
0.01175211 0.02369444
-0.00134954 0.00118232
0.00620398 -0.01647618
0.01351876 -0.00348167
0.00342616 -0.00875251
0.02004251 0.00410153
-0.00855179 -0.00895636
-0.01511047 -0.00721588
-0.00857839 -0.01934814
0.01414142 0.00959749
0.00922607 0.00343287
-0.00513024 0.00982340
-0.01488135 -0.00415205
-0.01980485 0.03258476
0.02636067 -0.01114246
-0.00477547 0.01752612
-0.00958724 -0.01439988
-0.00488262 0.00860135
-0.02674319 0.01108476
-0.01703488 -0.00700984
-0.01779604 -0.00369757
0.02446864 -0.00542487
0.01192305 -0.03253803
-0.01129956 0.00641874
0.02409280 -0.00500185
0.00142112 -0.01762627
-0.01100042 -0.00051467
-0.02191951 -0.01373492
-0.01590229 0.00404512
-0.00239336 -0.00881014
0.02769569 0.00824229
-0.00581896 -0.00590276
-0.00960539 -0.00625092
-0.00810540 -0.00156261
0.01100466 -0.00634630
-0.00031704 0.01206405
-0.00293492 -0.00254750
0.02278182 -0.00548984
0.03153419 0.00644542
0.00336390 -0.00479128
0.00093476 -0.00873895
-0.02226266 -0.01033633
0.01008135 0.01546096
-0.02771345 -0.02816367
-0.01225175 -0.01179423
0.02113522 0.01446770
0.02580643 0.01742041
-0.00887614 -0.01129956
0.04701608 0.00793330
-0.00702250 0.00550514
0.00064839 -0.01157147
-0.00686835 0.00446338
-0.02579831 0.01094491
0.00611484 -0.00149231
0.01022902 -0.00197434
-0.02337079 -0.00437214
0.00824858 -0.01751504
-0.00098577 -0.00377909
0.02297787 -0.01317204
0.00432756 0.00032832
0.02622688 -0.01758141
0.00361606 -0.01391216
-0.03455557 0.00561176
0.01007545 -0.01936597
-0.02267848 0.00755450
0.01537693 -0.00756396
-0.01614007 0.02015569
-0.01137913 -0.00171534
-0.00514345 0.02149315
-0.01593958 0.00222169
0.01177020 0.00365425
-0.01374623 0.01081055
0.00381845 -0.00934777
0.01442468 0.01881068
0.02735364 -0.01412999
-0.00248696 0.00660687
-0.00592697 -0.01136583
0.01035773 0.01510678
0.01373284 0.03155777
-0.00226899 -0.00313745
-0.00469537 0.00395981
-0.00518196 0.01165789
0.00727491 -0.00493683
-0.01518801 -0.00565360
-0.00782029 0.01604918
-0.01085265 -0.00628917
0.01271411 -0.00593745
-0.01285827 -0.02015725
0.01894043 0.01320957
-0.01499535 0.01054432
0.00674683 -0.00036510
-0.01523808 -0.00039437
0.01534931 -0.00296212
0.00503528 -0.00396182
-0.01204158 -0.02940936
0.01389115 0.00612462
-0.02520920 0.02562651
0.00267848 -0.00865424
-0.00717265 -0.01206798
0.00112180 0.00353182
0.00550687 -0.01518587
0.00103383 0.02182173
-0.00669270 0.00449569
0.01313300 -0.01296261
-0.00737651 0.00620544
0.00977254 -0.01347334
-0.00043865 0.00557131
-0.01643906 0.00978777
-0.00742751 -0.02406002
-0.01661364 0.01420301
0.01134408 0.00574315
-0.01402623 0.01767977
0.00583326 -0.00562109
0.00666333 -0.00897796
-0.00048176 -0.00527914
-0.01954564 0.01150004
0.00143845 0.01382546
-0.01613898 -0.01068432
0.00636555 -0.00432134
-0.01231396 -0.00092720
0.02366933 -0.03470640
0.01058490 -0.03324414
0.01093491 0.00513889
0.00843948 -0.00689443
0.00847630 -0.01092691
-0.03956739 0.00515804
0.03251932 -0.01185516
-0.00335344 -0.00466563
0.01206660 -0.01814883
0.00942088 0.02519491
0.00234679 0.00217406
-0.00715132 -0.01294636
-0.03546055 0.00552430
0.04158096 0.00814608
0.01126343 -0.01839675
-0.03490765 -0.00777550
0.00268397 -0.00819108
-0.01578270 0.00729187
-0.00237676 0.01043406
-0.01097142 -0.00078882
-0.00162239 -0.01536881
0.01023056 0.00847410
-0.00413724 -0.00207692
-0.01423280 0.00217738
0.00249657 0.01096254
0.03161500 -0.00696441
-0.01629498 0.00882967
-0.00179297 0.01293531
-0.01707161 0.00078666
0.00168342 -0.01262610
0.01550741 -0.01201052
-0.00493840 -0.00542780
-0.01063187 0.00200105
0.00184913 -0.00577917
-0.00034884 -0.02431822
-0.00113815 -0.00245244
-0.01028910 0.02448446
0.00764114 -0.00997954
0.01168212 0.00343552
0.00811145 -0.01557293
0.00987785 0.00713182
0.01118991 0.00535678
0.01323263 -0.00458064
0.03315758 0.00583442
-0.00193461 0.00393210
0.00225561 0.01008584
0.01034576 0.00103117
-0.00222325 -0.00616411
-0.01012283 -0.00994245
0.03957332 -0.00715306
-0.03844187 -0.00149007
0.03349637 0.01262654
-0.00829017 0.01822187
-0.01540683 0.00148550
0.00390031 0.00371035
0.01155796 0.01329392
0.00078916 -0.00744565
-0.00788277 -0.01297072
-0.01245392 -0.00510611
-0.01631094 -0.01114057
0.02034905 -0.00811003
0.01149090 0.00625381
0.00083574 0.03252728
0.01077249 -0.01674526
-0.00098237 0.01091246
0.00126720 0.00480962
-0.00245582 0.00663067
-0.01153110 0.01868678
-0.01143621 -0.00078019
-0.00392384 -0.00756429
0.01251222 -0.00408788
-0.01197398 -0.03221541
-0.02129815 0.01845582
0.03461995 0.00118493
-0.00879800 -0.00720239
-0.00828006 -0.00176706
0.02240293 -0.00397864
0.00875483 -0.00033952
-0.00139903 0.04153500
-0.02108915 -0.00337047
-0.01932335 -0.00903754
0.00500124 0.01519307
0.00954152 -0.00893959
0.00714999 -0.03452925
0.01146879 0.03615559
0.00188412 0.00508505
-0.00059783 -0.00988078
-0.00524286 -0.00679570
-0.00365265 -0.02018753
0.01636348 -0.00113662
-0.01737409 -0.01100297
0.01703502 -0.00002851
-0.01482255 -0.01112444
-0.04002573 0.01984140
0.01392078 -0.01138502
0.02008630 0.00970636
-0.00022931 0.01822040
-0.01697529 -0.00945160
0.00899746 0.00921633
-0.00865100 -0.00303040
0.00730969 0.01094112
-0.00824140 0.00276936
-0.00935140 -0.02203608
-0.00248258 -0.00464932
-0.02673895 -0.01957398
0.01611694 -0.00672698
-0.00010034 -0.01486362
0.00860163 0.00226112
0.02006784 0.00839846
-0.00478310 -0.00392465
0.01172788 -0.01489775
-0.02392537 -0.01054193
0.02166896 0.01440977
0.01826935 -0.01190171
-0.00625418 -0.00517026
-0.01327490 -0.01959901
0.00678574 0.00836692
-0.02159417 0.00981781
0.00533065 0.01900881
0.02089075 0.00124557
0.03483235 0.00317285
0.00354267 0.02873675
0.00490675 0.01234905
-0.01409934 -0.00819904
-0.01876716 -0.00019350
-0.01708549 0.01865742
0.03182878 0.00968198
-0.00191599 -0.01746056
-0.00688488 0.01841784
-0.00403583 -0.00821706
-0.01226138 0.01518195
0.00736289 0.01110954
-0.01858426 0.00474851
-0.00715866 -0.00710332
0.00577413 -0.00354603
0.02004169 -0.02314165
0.00332859 -0.02732638
-0.00976071 -0.00862417
-0.02753694 0.02143907
0.02199128 -0.00051161
0.00054305 -0.00747583
-0.02366508 -0.00566960
0.00682488 -0.02615292
-0.02102626 0.02068161
0.02090626 0.00010792
-0.00044012 0.00282040
-0.02098306 0.00734947
0.01947202 -0.00782387
0.01657559 -0.00735670
-0.02032002 0.02953792
-0.00300456 -0.01911589
0.00684006 -0.00766818
-0.01748674 -0.00155728
-0.02211821 0.00751526
-0.01992658 -0.03730126
0.02558940 -0.00249947
0.00517811 0.00872010
-0.00532499 -0.00072808
-0.00746688 0.01521851
-0.00811159 -0.00813866
0.01679015 -0.00125758
-0.00911193 -0.01104787
0.00451997 -0.01354538
-0.00481701 0.00285942
-0.00478760 0.00340869
0.00331067 -0.00581316
-0.00193291 -0.00089234
0.01539743 -0.00639395
-0.01205636 0.00513399
-0.01007157 -0.01438334
-0.00068326 -0.00385678
0.01239588 -0.00229858
-0.00873777 0.00037857
0.00404147 0.00884757
0.01388741 0.00721398
0.00646211 0.00403968
0.00804744 0.02610204
-0.00431973 -0.02410715
0.00386374 -0.00387025
-0.01061642 -0.01626539
-0.00589866 0.00515700
0.01017998 -0.00179279
-0.00008387 0.00220754
-0.00322138 0.00588399
0.02633211 0.00362808
0.03905616 0.00710025
0.01664495 -0.02298701
0.00356296 -0.00176160
-0.01539277 0.02002194
0.00025059 0.00285882
0.00100070 0.00748738
0.01647021 0.00485786
-0.01844813 -0.01253508
-0.00274172 -0.00004565
0.00502925 0.01075171
-0.01096802 -0.01902852
0.02316014 0.02321712
0.00322444 -0.01953061
-0.00872596 0.00281239
0.02753829 -0.00466755
-0.01136395 -0.00023288
-0.00706322 -0.02624942
-0.00744817 -0.00512239
-0.00313234 -0.00005037
0.00004661 0.01716666
0.00542581 0.01399277
-0.01892789 0.00231625
-0.00319784 -0.01911504
-0.01125129 -0.00030653
0.00288669 -0.00638950
0.00221962 0.03308694
0.02176749 -0.01706784
-0.00289703 0.00787462
-0.03000730 -0.01758672
-0.01241357 -0.00433655
0.00857972 -0.00192310
-0.00408722 0.01341787
0.01005458 0.00970946
0.01411631 0.00859206
-0.00512642 0.01101182
-0.00264819 -0.01032585
0.00347644 -0.00143022
-0.00705998 0.01543190
-0.01644687 0.00500496
-0.03759011 0.00036733
-0.01646815 -0.02198337
0.00848013 0.00588276
0.03426579 -0.00746459
-0.02162011 -0.01035682
-0.00625330 -0.00301589
-0.00697083 0.01575988
-0.01025915 -0.01271285
-0.02783040 -0.00049019
0.01298463 -0.00046127
-0.01602257 -0.01719992
-0.00038466 0.00216577
-0.03111337 -0.00052717
0.00482158 -0.01284152
0.00529683 0.01490154
0.00271816 -0.01554639
-0.00707990 0.02455103
0.00952602 -0.03582555
-0.01380664 0.01558213
0.00096769 -0.00030723
-0.00850312 0.00454167
0.00373754 0.00326979
-0.01955519 -0.00387951
-0.02280123 -0.00972949
-0.00022086 -0.02887317
0.00791222 0.00445527
-0.00161541 0.01579689
-0.00995413 0.01187005
0.01142790 -0.00139755
-0.00231457 0.02060331
-0.00728327 0.01256990
0.00284045 -0.02071629
-0.00019378 -0.00237024
0.00388942 -0.01014040
-0.00339588 -0.00357335
-0.01247600 -0.00797263
-0.00839154 -0.00465014
-0.00051890 -0.00749227
0.02641446 -0.00078293
0.01563119 -0.01812763
-0.00896083 0.00570906
-0.00706044 0.00919392
0.00337897 -0.01690493
-0.00187741 0.02558008
-0.00392457 -0.01637395
0.00834703 -0.00470850
-0.02085354 0.00109288
-0.00691800 -0.00169237
0.01259221 -0.01389187
-0.01474584 0.00958676
-0.01367198 -0.00026853
-0.00892803 0.00724924
0.01073277 -0.00450072
0.01349783 0.00006128
0.00196397 -0.01244765
-0.00664978 -0.00591594
0.00103247 -0.00238465
0.02544527 0.00258221
-0.00256483 -0.00767141
-0.00444370 -0.00316552
-0.01686464 -0.00868258
-0.00040212 -0.01509912
0.01159741 0.00190478
0.00900595 0.00511462
-0.00194636 -0.00240488
-0.00908631 0.00859215
-0.01570429 -0.00735095
0.02399852 -0.02215434
-0.01515877 0.02067414
-0.01804080 -0.00709854
-0.00689890 0.00018150
-0.00779790 0.00847123
0.03372202 -0.02125030
-0.00924880 0.01086103
-0.01540291 0.01308372
-0.02973622 -0.00385358
-0.01064830 0.01852660
0.00000433 -0.00313995
0.00561735 0.00362358
-0.02453820 0.00968743
-0.01702058 0.00707024
0.03006636 -0.00465999
0.01338327 0.00993871
-0.03168314 0.00878051
-0.01871897 0.01659890
0.00078289 0.02004888
-0.00850574 0.00390290
-0.02172294 0.00188179
-0.00426149 0.02487344
-0.01578750 0.01865685
0.02798360 0.00292014
0.00296333 0.00891868
-0.00518047 0.03054043
0.01630691 0.02368264
-0.01330725 -0.00101058
-0.00015820 0.00478000
0.00684393 0.03700578
0.00582172 -0.02415004
0.02792046 -0.02207653
-0.03001780 0.00544186
0.02805557 0.01328565
0.00497750 0.00679953
0.03246242 -0.00412679
-0.02170023 0.01150219
0.00070149 0.00007103
-0.02106249 -0.01066321
0.00631896 0.00065708
0.00046114 -0.01039902
0.01024407 -0.01117293
-0.01193877 0.00161729
-0.00153702 0.00423337
0.01391432 0.01674451
-0.00420569 -0.00576901
-0.01904600 -0.00946874
-0.01151946 -0.00438915
0.02121489 0.00884095
-0.01351164 -0.00471145
0.00931649 0.02450730
0.00745150 0.01759524
-0.00439899 -0.02025361
-0.00646990 -0.00342397
0.00775976 -0.00068230
0.00074772 -0.01338301
-0.00111339 -0.00444302
0.01994626 -0.00543771
-0.00839345 0.01491279
0.00126531 -0.00810516
0.00318443 0.00159100
-0.00872381 -0.00472744
-0.00312004 -0.01263751
-0.02173354 0.01804573
-0.01761128 0.01945381
0.01140047 0.00136016
-0.00763074 -0.01683867
-0.01211801 0.01067093
-0.01296160 0.00192437
-0.01509625 0.00438702
0.00641007 0.00222600
-0.00419826 0.02394631
0.00143650 -0.00418221
-0.00686540 -0.00049152
0.00348715 0.00314238
-0.02430120 0.01255487
-0.00210512 -0.01894476
-0.01622360 -0.01769359
-0.00459034 0.01716737
0.00083061 -0.01165779
-0.00937989 -0.01078014
-0.01227325 0.00824243
0.00435973 -0.02109909
0.00266242 -0.01121871
-0.01386079 0.01104136
-0.00614951 0.02390094
-0.01749391 -0.01081450
0.00602736 -0.02236412
0.00747174 -0.01115185
0.00474164 -0.00181529
0.00263435 -0.00440808
0.00175205 -0.02600273
-0.00525216 -0.00328233
-0.00022883 0.01289560
0.00361523 -0.00857629
-0.01930558 -0.00772075
-0.01234919 -0.00472733
0.00426999 0.00526468
-0.01617834 0.01276838
-0.01436731 0.00699379
0.00216247 -0.00518461
-0.00062140 -0.00405794
-0.00313140 -0.00930397
0.00896244 0.01096813
0.02532688 -0.01846963
-0.03700045 -0.01874219
0.02002032 0.00431230
-0.01284411 0.00660286
0.02048770 0.01308261
0.01180738 0.00520356
-0.01012128 0.00734829
-0.01817735 0.00097321
0.00705664 0.00023444
-0.01980886 -0.01154299
-0.02071864 0.02535799
0.00159505 0.01226254
0.00548648 -0.00263341
-0.01776003 0.01488315
-0.00450670 -0.02293555
0.00489791 -0.00391800
0.01221750 0.00254217
-0.00462530 0.00980648
-0.01804290 0.00784777
0.01549326 -0.00058763
0.02190633 -0.00489543
-0.00555246 0.00579847
0.00481706 0.00609305
-0.00476109 -0.03150385
-0.01342576 0.02552669
0.01030624 -0.01068040
-0.00646976 0.03205388
-0.00407840 0.01888619
-0.00804361 -0.01850835
-0.00456583 -0.00503314
0.00089798 0.00401526
0.01499169 0.02179430
0.01545290 -0.01241763
-0.01887907 0.00737346
0.00487923 0.02137446
-0.01653170 -0.00548430
0.00416018 -0.00452559
-0.00549177 0.00153736
0.01381257 0.01805531
0.00278735 -0.00627654
0.01505397 -0.00464288
0.01122812 -0.01338374
0.02315663 -0.02540598
0.02212284 -0.02109653
0.00565332 -0.00672957
-0.00397721 -0.00794810
-0.02346178 -0.00902701
0.01307921 0.00424475
0.00740252 0.00652925
0.02753921 0.00616662
0.00518588 0.00360652
-0.02013144 0.00837033
0.00693336 0.02702590
-0.00815387 -0.00560259
-0.00231886 0.01585405
-0.00048887 0.00706867
0.02453239 0.01804769
-0.00147716 -0.03365064
-0.00935555 -0.00308157
0.00441627 0.02319582
0.00766230 0.02722328
-0.03075016 0.02156534
-0.01847486 0.00820562
0.01124129 0.01635015
0.00057921 -0.00176417
0.00676750 -0.01905906
0.00761366 0.00947517
-0.01842046 -0.00684298
0.00564772 0.00193099
-0.01568226 0.01106795
0.00490441 0.00573199
0.02039143 0.00523786
-0.02726903 -0.00661460
-0.00912725 -0.01422307
-0.01661314 -0.00334079
-0.00548748 -0.00482380
-0.02329694 0.00334932
-0.01271395 -0.00308138
-0.00259663 -0.02059847
0.02785822 0.01000435
-0.00059525 -0.02057526
0.02728300 0.02467484
0.01355547 0.00565541
0.00294087 0.01086146
-0.00993677 0.00970425
-0.01148604 0.00774063
0.01790914 0.02137204
-0.02550190 -0.00111533
0.00298311 -0.00081642
-0.00741996 -0.00850101
-0.01658915 0.01618006
-0.01119204 -0.00525133
0.02187255 0.01163455
-0.00211527 -0.02213945
0.02275441 -0.00075321
0.00347220 0.00751615
0.02976043 -0.00677896
-0.01791969 0.00370744
-0.01184511 0.00775190
-0.00502387 0.01683312
0.01563456 -0.00187372
0.00935902 0.00675214
-0.01055369 -0.02737863
-0.03228564 -0.00372837
0.00529602 0.01116085
-0.01663559 0.01033258
-0.01963510 -0.00827071
0.01068956 -0.01376138
0.00078897 -0.00106756
-0.00377057 0.00847267
-0.02200802 -0.02147497
-0.01332235 -0.01263080
-0.00642860 0.00482029
-0.00220050 -0.03623671
-0.00002185 -0.04172792
0.01476486 -0.00585947
0.01788298 0.02682751
0.00871015 0.01817914
-0.02111234 0.00767852
0.00192405 -0.00766882
-0.02957257 0.01110490
-0.01090221 -0.00726637
-0.00563460 0.00169996
0.01569978 -0.01526365
-0.00678206 -0.02302983
-0.01197827 0.02275044
0.02068186 -0.01490098
0.00007337 0.01361610
0.02137902 0.00367013
0.02865070 -0.01353490
0.00025663 0.01714596
-0.01123446 -0.01223403
-0.00214634 -0.01904398
-0.02568784 0.01367611
-0.00744289 0.01457247
-0.01245693 -0.01117056
0.00821744 -0.01127910
0.00399011 -0.00894261
0.01025574 -0.01677469
-0.00825249 -0.00770625
-0.01661739 -0.01714374
0.02889995 -0.01057573
-0.00507848 0.01246282
0.01215755 -0.00131656
-0.01302579 0.02577062
0.01488566 -0.00623703
-0.00423281 -0.00809399
-0.01920508 -0.01685141
0.01015632 -0.00343388
-0.00008414 0.01011716
0.00943611 0.00950469
0.01834628 -0.00944349
0.00102690 0.02296930
0.01871944 -0.01207278
-0.01071467 -0.00824099
0.00274418 -0.00829211
-0.00101130 -0.00304181
0.00984681 0.00474464
-0.01136850 0.00469230
0.03577289 0.01632186
0.00060083 -0.00230300
-0.01137386 0.02809867
0.00692670 0.01603030
-0.01104254 -0.01684496
0.01722380 -0.00960895
-0.01030916 -0.01237492
0.00049396 0.00559503
-0.00917245 -0.03052855
-0.00125329 0.00643519
0.00140812 0.00203285
-0.02235024 0.00616259
-0.00571440 0.00595774
-0.01309350 0.02504380
0.00666573 -0.01577502
0.00139338 -0.01062252
0.00958475 -0.00126732
-0.01617456 -0.02976626
-0.01153347 0.00155183
-0.00042988 -0.00545336
0.00108140 -0.00830192
0.00117592 -0.01284897
-0.02435546 -0.00575091
0.01456651 0.01321546
-0.00886871 -0.00992049
0.01324990 -0.00884691
-0.01063111 0.01575053
0.00483369 0.01857459
-0.01932207 -0.01339731
0.00879249 0.01227891
-0.00613082 0.00067365
0.00473346 0.00576600
-0.00405837 0.00005633
-0.00727274 0.00149801
-0.00394509 -0.00331763
0.01007190 -0.01128392
-0.00369747 -0.00192671
0.00238956 0.00030373
0.01394391 0.01944103
-0.02310757 -0.00657385
-0.01014248 -0.00540437
0.02304912 -0.00588291
-0.02233311 0.00937705
0.01393705 0.00326449
