-0.00317648 -0.00123207
0.00053350 -0.00109932
-0.00119252 -0.00121773
0.00415931 0.02162460
-0.00326039 -0.00134922
-0.00128476 -0.00243824
-0.00122904 -0.00114588
-0.00152031 -0.00013303
-0.01958403 0.00236476
-0.00002628 0.00147083
0.00049639 -0.01338973
-0.00055593 -0.00077355
0.00206754 -0.00203075
0.00133094 0.00116179
0.00182999 -0.00046856
-0.00158211 -0.00107161
0.00054712 0.01278168
-0.00397936 0.00674947
-0.00137810 -0.00263216
0.00065390 -0.00319887
0.00109897 0.00214639
0.00553717 0.00256838
-0.01891196 -0.00167676
-0.00229987 0.00109275
-0.00132288 0.01368571
-0.00133212 -0.00160318
-0.01218241 -0.00505413
-0.02670231 -0.00516898
0.00072752 -0.00401516
0.00573218 0.00177367
-0.00105344 -0.00970485
-0.01950944 0.00231005
-0.00332841 -0.00036917
0.00049016 0.00040623
0.00100098 -0.01489789
0.00147075 0.00170668
0.00260445 -0.00232128
0.00200106 0.00194916
-0.00889762 0.00410707
-0.00916831 0.02179495
0.00254515 -0.00170503
0.00194342 -0.00037391
0.00153950 -0.00526905
0.00061267 0.00341429
-0.01842195 -0.00084483
0.00277028 -0.00201526
-0.00151426 0.00072829
-0.00055192 -0.00221868
0.00180543 0.02126145
-0.00061463 0.00069951
-0.01723121 0.04046637
0.01326736 -0.00307806
-0.01486314 -0.01017382
0.00336896 0.00052264
0.00293199 -0.00085253
0.00416832 -0.00293792
-0.00117615 0.00277160
0.02074980 0.00006494
0.00041076 -0.00087013
-0.00073716 -0.00214119
0.00039331 -0.00173662
-0.00171369 0.00121399
-0.01732661 0.00058845
0.00026696 0.00043903
-0.00092511 -0.00200549
0.01061740 -0.00513155
0.01201554 -0.01416666
-0.00283371 -0.00089628
-0.00286350 -0.00308639
-0.00226800 0.00115596
0.00161128 0.00173094
-0.01876800 0.00119948
-0.00078861 0.00032805
-0.00055816 -0.01124711
0.00979233 0.00282920
-0.00298719 0.00278219
-0.01354668 0.00067461
-0.00138974 0.00102225
0.00018623 -0.00086637
-0.00167558 0.01898675
0.00168553 0.00088737
0.00004022 -0.00000931
0.00156907 0.00004871
-0.00307356 0.01505267
-0.00110265 0.00276020
0.00080867 0.00283630
-0.00147828 0.00115224
0.00031408 -0.00060485
0.00044544 0.00141105
-0.01785520 -0.00074299
0.00049558 -0.00176123
-0.00186997 -0.00294141
0.00040318 -0.00113692
0.01223660 -0.01163473
0.00820864 -0.00226872
-0.00419094 -0.00021054
0.00120462 -0.00098343
0.00085603 -0.01609180
-0.00034598 -0.00069726
-0.00310162 -0.00264933
0.00256292 -0.00748820
-0.00058978 -0.00493037
0.00905475 0.02679658
-0.00229574 -0.00137722
0.00111933 -0.00097902
-0.00028658 -0.00101142
-0.00173652 -0.00068527
-0.01787108 0.00037728
0.00046924 -0.00030144
0.00131808 -0.00596639
-0.01008099 0.00284155
-0.01402823 0.01213372
-0.00752437 -0.00465876
-0.00277886 0.00027329
0.00188814 -0.00032056
-0.00140151 0.00095306
0.02498883 -0.00018430
-0.00215009 0.00096030
0.00043650 -0.00188223
0.00120418 -0.00022030
0.00130406 -0.02023093
-0.00115735 0.00113996
-0.00147330 -0.00015609
0.00112340 0.00038004
0.00060773 0.00278375
-0.01302018 -0.01388456
-0.00205870 -0.00044883
-0.00039475 -0.00239331
-0.00702053 -0.00288692
-0.00372951 0.01744261
-0.00263193 0.00171361
-0.00067208 0.00050313
-0.00127343 0.01162168
-0.00746539 0.00141860
0.01404160 -0.00007488
-0.00107992 0.00111731
0.00010544 0.00248901
-0.01642596 -0.00361355
-0.00034542 -0.00138008
0.00180569 -0.00365733
0.00050147 -0.00194117
0.00164187 0.00311895
0.00190699 0.00482966
-0.02058841 0.00120595
-0.00170944 -0.00067528
-0.00117694 -0.00084428
-0.01293641 0.00023111
0.00278453 -0.01325788
0.00037579 -0.00235662
-0.00176579 0.00200959
0.00146400 -0.00215888
-0.00243876 -0.02010993
-0.00082608 -0.00111052
-0.00203302 -0.00006277
-0.00169570 0.00045143
0.00078188 0.00034071
-0.00043880 -0.01919430
-0.00091263 -0.00220237
0.00024609 -0.00206900
-0.00154591 0.00247171
-0.00314103 0.00272454
-0.01611226 -0.00132633
-0.00034744 -0.00104932
0.00031684 0.00032954
0.00149546 -0.00142510
0.00219158 -0.01750953
-0.00640056 -0.00064609
-0.00002298 0.00086050
0.00023351 -0.00031283
-0.00205224 -0.00091182
0.02420584 -0.00396826
-0.00022678 0.00097555
-0.00004412 0.00012242
-0.00031124 -0.00233402
0.00053042 -0.01797681
0.00393099 -0.00115875
-0.00032919 -0.00153152
-0.00091557 -0.00181359
-0.00284837 -0.01671807
0.00471682 -0.00087458
0.00036432 0.00125269
-0.00144584 -0.00164449
0.00325993 0.00658816
0.00336889 -0.01576099
-0.00081658 0.00017400
0.00029688 -0.00081648
0.00025833 -0.00011195
0.00088022 -0.00432104
-0.01606301 0.00408234
0.00010629 0.00082405
-0.00020441 0.00121673
-0.00167619 -0.00147908
-0.00135764 -0.01595082
-0.00921380 -0.00088914
0.00112377 -0.00030556
0.00132093 0.00005235
-0.00329473 -0.00011056
-0.01952081 -0.00069185
0.00186469 -0.00053594
-0.00052960 0.00111738
0.00150712 -0.00591518
0.01962328 -0.01325861
-0.00256301 0.00071243
0.00020904 0.00184978
-0.00248226 0.00033341
-0.00198142 -0.01753637
-0.00016376 -0.00103418
-0.00071093 -0.00190628
-0.00013229 -0.00237121
-0.00038452 -0.00183186
-0.00173466 0.02267870
-0.00764119 0.00040435
-0.00040447 0.00142660
-0.00001048 -0.01677727
-0.00149111 -0.00019573
-0.00286333 -0.00056882
0.00025756 -0.00050052
0.00024537 -0.00323719
-0.00051652 -0.00222111
0.00271134 -0.01812058
0.00015068 0.00056881
-0.00004361 0.00242503
-0.00106823 0.01970827
-0.00076829 -0.00277085
-0.00130310 -0.00565840
-0.00214677 0.00015624
-0.00277023 -0.00169985
0.01607599 -0.00323314
0.00681012 -0.00182137
-0.00065787 -0.00201892
0.00013094 0.00260205
-0.00020660 -0.00134136
0.00092713 -0.00252312
0.01554103 -0.00548338
0.00235563 -0.00065936
-0.00000481 -0.00113530
-0.00096069 0.00001150
0.00217251 -0.01457284
0.00446650 -0.00173355
-0.00243222 0.00030033
-0.00202233 0.00030620
-0.00149812 -0.00321456
-0.00213188 0.01647248
0.00240081 0.00219987
0.00146390 0.00026611
-0.00249939 -0.00185930
-0.00327350 0.01761958
-0.00016909 0.00270066
0.00035320 0.00229559
-0.00280179 0.00066405
-0.01901151 0.00002360
0.00134047 0.00284227
-0.00149732 0.00138803
0.00349399 0.00068226
0.00608942 -0.02367706
0.00053526 -0.00214216
0.00207493 -0.00049422
-0.00128628 -0.00061748
0.00073574 -0.00802692
-0.00148511 -0.00497545
-0.00491732 0.01356498
-0.00391738 -0.00285436
-0.00063688 -0.00129688
-0.00134895 -0.00043196
0.00036918 0.02423299
-0.00331860 -0.00140505
0.00110138 -0.00251375
-0.00069671 -0.00020840
-0.00057920 0.00268236
-0.01729446 -0.00024193
-0.00013208 0.00248386
-0.00209299 0.00051945
-0.00364256 -0.00506225
-0.00120415 0.01905167
-0.00219810 -0.00103750
-0.00283742 -0.00256299
-0.00156747 0.01770051
-0.00178383 -0.00080211
-0.00041090 0.00310888
0.00115902 -0.00059718
0.00562331 0.00163791
-0.00123954 0.00116589
0.00097359 -0.01802724
-0.00002128 -0.00171896
-0.00248960 -0.00151906
0.00071278 0.00063845
-0.00125606 0.00216848
0.02508563 0.00028356
-0.00081254 -0.00276322
-0.00155605 -0.00146398
0.01696553 0.00014153
0.00043998 -0.00502454
0.00381696 0.00220622
0.00197604 0.00180213
0.00201155 0.00615761
-0.00250343 -0.01506915
-0.00079559 -0.00466292
0.00036562 -0.00048324
-0.00217070 -0.00438930
-0.00779383 -0.00254509
-0.01291490 -0.00112548
-0.00435646 0.00012072
0.00067456 -0.00018977
-0.00020174 -0.02116934
-0.00098251 -0.00181324
-0.00368675 0.00170543
-0.00178352 -0.00022391
-0.00202090 -0.00310038
0.00051697 0.00217478
0.01158792 -0.01132725
-0.00134943 -0.00049030
-0.00178103 0.00180585
-0.00517767 0.00130491
0.00053188 -0.00503709
-0.00089366 -0.00694530
-0.00257983 0.00040962
0.00151277 0.00044994
-0.00045699 -0.00214961
-0.01480707 -0.00012357
-0.00140549 -0.00090899
0.00124558 0.00143719
0.00092921 -0.00028112
-0.00067772 0.00039626
0.01645916 -0.00171016
-0.00021668 0.00037551
-0.00127088 -0.00095820
0.00108932 0.00061966
0.00238935 -0.01895439
-0.00317730 -0.00075718
-0.00003981 -0.00118474
-0.00449519 0.00400757
0.00210907 0.01618419
-0.00131524 0.00081963
-0.00001097 0.00128657
0.00016233 0.00043620
-0.00037303 -0.00085129
-0.00034271 0.02722945
-0.00117336 0.00073820
-0.00018254 0.00022651
-0.00049125 -0.00009661
-0.00224668 0.00057214
-0.01633626 0.00916277
0.00058252 0.00216580
0.00197426 -0.00080256
-0.00090347 -0.00150841
-0.00314257 0.02022745
-0.00998232 -0.00144703
0.00062632 0.00119233
0.00043176 0.00075809
-0.00131139 0.00057495
-0.02113353 0.00052633
-0.00069359 0.00272589
0.00099180 0.00590987
-0.00388952 -0.00267953
-0.00007855 0.01427952
0.00204181 -0.00092489
-0.00082731 -0.00149746
0.00125238 -0.01327950
-0.00119946 0.00367248
-0.01225271 -0.00141894
-0.00108658 -0.00143563
-0.00067225 0.00443315
0.00113768 -0.00009427
-0.01553503 -0.00100358
0.00032208 -0.00021396
0.00075337 -0.00023795
0.00124559 -0.00074391
0.00078015 0.00233228
-0.01785720 -0.00198016
-0.00143841 -0.00084143
0.00132367 -0.00125700
0.01609432 -0.00624473
-0.00017999 -0.00215190
0.00259629 0.00071120
-0.00099676 0.00117405
0.01593808 -0.01632910
-0.00055410 0.00060473
-0.00049626 0.00180250
-0.00258239 -0.00212210
-0.00179410 -0.00075772
0.00449824 -0.00202487
0.00223786 -0.01956926
0.00043455 0.00098878
-0.00159923 -0.00143634
-0.00383943 -0.00341760
0.00349005 -0.01456185
-0.00686357 0.00001200
0.00073473 0.00086528
-0.00053835 -0.00012795
-0.01669604 -0.00061097
0.00270303 0.00068544
-0.00367655 -0.00185069
-0.00124515 0.00023599
-0.00045748 0.00049781
0.00038983 0.00307995
-0.01908235 0.00014813
0.00065438 0.00327080
0.00043286 -0.00138501
-0.00324034 -0.00015525
-0.00057149 0.01872524
-0.00060942 0.00020842
-0.00182814 -0.00072407
-0.00289999 0.00253637
-0.00292011 0.00123677
-0.01595139 -0.00205588
-0.00197792 -0.00101242
-0.00336106 -0.00238362
0.00203168 0.00143948
0.00283264 -0.01822258
0.00104837 0.00086874
0.00170069 -0.00015930
-0.00276078 0.00019165
0.00145155 0.01908132
-0.00297513 -0.00162321
-0.00003594 -0.00059945
-0.00040157 0.00340931
-0.00066890 -0.00005138
-0.01941799 0.00041128
0.00025371 -0.00134012
-0.00155379 -0.00147322
0.00132637 0.00070500
-0.00032298 0.00472489
-0.01820557 -0.00165439
-0.00013037 0.00064736
-0.00134151 0.00315894
-0.00459425 -0.00088420
0.00520514 -0.01639836
-0.00221924 -0.00183583
0.00018988 -0.00101803
-0.00006754 -0.01778137
0.00329460 0.00690756
0.00482853 -0.00215542
-0.00165005 0.00103420
-0.00178917 -0.00401978
-0.02019202 -0.00033428
0.00021969 0.00341754
-0.00049338 -0.00148090
-0.00042483 -0.00045737
-0.00146922 0.01797773
-0.00016440 0.00151616
-0.00073620 0.00076299
-0.01782944 -0.00102867
0.00037864 0.00090252
0.00178218 -0.00007448
-0.00116517 -0.00255125
-0.00001117 -0.00025332
-0.00134718 0.00310058
0.01456131 -0.00364652
0.00870372 -0.00312454
0.00099405 0.00132017
-0.00306925 0.00051427
-0.00001493 0.00247636
0.00139903 -0.02136421
-0.00193177 0.00148583
0.00515309 -0.00061887
0.01313693 -0.00056673
-0.00009949 -0.01468071
-0.00503463 -0.00359499
-0.00260365 -0.00005289
-0.01323434 -0.00149827
0.00072103 -0.00365268
-0.00268664 -0.00733895
-0.00002454 -0.01836367
0.05305573 -0.00001755
-0.00051241 0.00066007
0.01397532 -0.00027433
0.00051728 0.00034073
0.00005658 -0.00278438
0.00248255 -0.01176589
0.00343580 0.01628891
-0.02068938 0.00070522
-0.00051539 -0.00235148
0.00294371 0.00051863
0.00288899 0.00107517
0.00454098 -0.02047547
0.00359717 -0.00147227
0.00161757 0.00093042
-0.00076678 -0.00054989
-0.00019639 -0.00116572
-0.01972576 0.00068096
0.00055452 0.00047789
-0.00190645 -0.00008147
-0.00945573 -0.02104628
-0.00434208 -0.00693731
-0.00698833 -0.02124357
-0.00692755 0.00305018
0.00142976 -0.00086116
0.00291357 0.01929100
-0.00094555 -0.00047056
-0.00089202 0.00103079
0.00094264 0.00201751
-0.00299956 -0.00166522
-0.00033257 -0.02088084
0.00076725 0.00065244
0.00201474 -0.00139804
-0.00221249 0.00972001
-0.00291892 -0.00531878
-0.01783890 0.00099218
-0.00378886 -0.00060916
0.00177515 -0.00123581
-0.00276283 0.00036008
-0.00080647 0.01919612
-0.00014859 -0.00049585
-0.00367856 0.00132931
0.00077607 0.00238073
-0.00004738 0.00036814
0.00306098 0.00796764
0.00232006 0.00221603
0.00011173 0.00094472
-0.00087577 -0.00095474
0.01964654 0.00464134
-0.00210239 -0.00604719
-0.00119016 0.00034039
0.00099107 0.00024940
0.01458682 -0.00068594
0.00369027 0.00322498
-0.00133854 0.00288329
-0.00058509 0.00036380
0.00096946 -0.00104289
-0.00032229 0.01434506
-0.00280853 -0.00031812
-0.00089635 0.00109871
0.00297210 0.00075365
-0.00221497 0.01104611
-0.01561385 0.00670620
-0.00209744 -0.00013211
0.00373820 -0.00068861
-0.00131068 0.00235670
-0.01795964 0.00067196
0.00126922 0.00169229
-0.00072088 -0.00095091
-0.00471557 0.00331008
-0.00194519 -0.00447707
-0.02458604 -0.00015517
0.00057558 0.00429296
0.00025730 -0.00086169
-0.00046111 -0.00052444
0.00107607 -0.01839257
-0.00094429 0.00121069
0.00169142 -0.00205907
0.00666982 -0.01082817
0.00470564 -0.01750374
-0.00001181 -0.00615579
-0.00225917 0.00157949
0.00397750 -0.00016024
-0.00075169 -0.00021471
0.00137336 -0.02135858
-0.00008571 0.00023429
0.00096300 -0.00082941
-0.00343487 -0.00148117
-0.00122811 -0.00045711
-0.02263836 0.00144799
0.00103960 0.00304695
0.00145540 -0.00283085
0.00139215 -0.00051012
0.00482823 0.01264529
-0.01668336 0.00136410
0.00301676 0.00276605
0.00183392 -0.00760224
-0.00142308 0.00079285
0.01711300 -0.00087344
0.00010251 0.00276297
0.00175353 0.00088715
0.01090492 0.00203661
-0.00278148 0.01540886
0.00073947 -0.00155725
-0.00117364 -0.00273345
-0.00057666 0.01218264
-0.00410541 -0.00193087
-0.00500196 0.00052082
-0.00190261 -0.00212886
0.00189015 -0.00251101
-0.00077372 -0.00096406
0.00330679 -0.02389557
0.00077773 -0.00023299
0.00478209 -0.00105918
-0.00063610 -0.01602798
0.00237723 0.00144258
0.01031433 0.00123586
0.00125941 0.00044385
-0.00098390 -0.00252535
-0.00137934 -0.00190248
-0.02450090 -0.00114158
-0.00174520 0.00386094
0.00024271 -0.00173760
-0.00054104 0.00117857
-0.00074479 0.00023271
-0.01881947 -0.00070955
0.00230906 0.00142945
-0.00028407 -0.00079936
-0.00218080 -0.00131790
0.00190690 -0.01807868
-0.00135587 -0.00185898
0.00275696 -0.00190734
-0.00192395 0.00055709
0.00008635 0.00071409
-0.02064167 0.00415073
0.00072404 0.00034810
0.00033202 -0.00070795
0.00017786 -0.00013399
0.00163338 -0.02082214
-0.00098947 0.00023459
0.00184303 0.00244527
0.00019306 0.00053683
-0.00380166 0.00144309
-0.01954693 0.00104752
0.00061197 0.00345703
0.00275905 -0.00261439
-0.00080119 -0.00090135
0.01872753 -0.00031374
0.00066712 -0.00196816
0.00123092 0.00035149
0.00032062 -0.00465428
0.00694521 -0.00129640
-0.01742498 -0.00040063
-0.00007546 0.00325697
0.00237147 -0.00168373
0.00143005 -0.00033397
-0.00537576 0.01376640
0.00427661 0.00024712
-0.00149849 -0.00165760
0.00131645 -0.00206135
0.00091076 0.00540215
-0.01710841 -0.01027504
0.00015510 0.00422466
0.00124996 0.00097576
0.00071848 0.00021087
0.00302442 -0.02514904
-0.00173305 0.00171697
0.00042666 -0.00025168
0.00322658 -0.00352604
-0.00654833 0.01503547
0.00358021 0.00185602
0.00228485 0.00063015
-0.00150535 -0.00005770
0.00084004 -0.00139515
0.01435925 -0.00090697
-0.00038199 -0.00110278
-0.00076778 -0.00242854
0.00080189 0.00031320
-0.00057645 -0.00857847
0.02273170 -0.00721439
0.00028154 -0.00426487
0.00086881 -0.00101564
0.00792679 -0.00137895
0.00039548 -0.00380181
-0.00023133 0.00173237
0.00117031 -0.00002982
0.00176521 -0.00096511
0.00072509 -0.00134450
-0.02102689 -0.00157881
0.00125857 0.00293331
0.00002675 0.00045724
0.01625380 -0.00000445
0.00113466 -0.00097456
-0.00366664 -0.00038898
0.00094779 0.00008678
-0.00052200 0.01298288
0.00151329 0.00006537
-0.00271381 0.00148337
-0.00106812 -0.00047147
-0.00024381 0.00105016
-0.00191488 0.00070826
0.00132836 0.01597798
-0.00512931 0.00070315
-0.00146159 0.00084100
-0.00071103 -0.00282992
0.00217272 -0.00239762
-0.01596239 0.00060677
-0.00089754 -0.00148991
-0.00213451 -0.00064485
-0.00085532 0.00283900
0.00042682 -0.00185588
0.01649572 -0.00305665
0.00061288 -0.00099877
0.00126500 0.00315925
-0.00033839 0.00160111
0.01905026 -0.00486017
0.00014438 -0.00181593
-0.00011442 0.00083073
0.00003498 -0.02312183
0.00089219 0.00188783
0.00239694 -0.00101870
-0.00163195 0.00043448
0.00014617 -0.00407499
0.01795538 0.00006141
-0.00158876 -0.00285344
-0.00118738 -0.00307144
0.00314873 -0.00159858
-0.00705377 0.00086480
0.00574299 -0.00342139
0.01323938 -0.00165128
-0.00090827 0.00044378
-0.00030804 0.00094472
-0.00091956 -0.00052159
-0.02098367 -0.00200837
-0.00063810 0.00048810
-0.00069562 -0.00177297
0.00100396 0.00018456
0.00135511 -0.01947718
-0.00043146 -0.00102604
0.00208696 0.00116179
0.00013933 -0.00099302
-0.00605686 -0.00173877
0.02037309 -0.00076949
-0.00106978 -0.00266972
0.00197345 0.00131854
0.01576056 -0.00074912
-0.00128800 -0.00160911
-0.00087372 -0.00049048
0.00337895 -0.00361469
-0.00047456 0.00048961
0.00137566 -0.00016630
0.01369416 0.00220268
-0.00041752 0.00025874
0.00035239 -0.00121623
0.00026537 -0.00021007
0.00171961 -0.01867840
-0.00105689 -0.00077216
-0.00052876 0.00185123
0.00036511 0.01577217
-0.00131861 -0.00000422
-0.00482492 0.00133370
-0.00232212 0.00065915
0.00108637 0.00060487
-0.00431535 -0.00135494
-0.01706930 0.00099659
-0.00533841 0.00375383
0.00041684 0.00041239
0.00030014 -0.00894218
-0.00041893 -0.01419550
-0.01037637 0.00709413
-0.00057713 0.00205217
0.00188209 0.00198165
-0.02565891 0.00024633
0.00049351 0.00285023
-0.00007696 0.00015168
0.00153190 -0.00119263
-0.00132304 0.00033966
-0.00007364 0.01313462
-0.01326165 0.00249762
-0.00056053 -0.00056881
0.00200196 -0.00783981
0.00352774 0.00126267
0.00552952 -0.01034598
0.00945589 0.00327894
0.00009692 -0.00089948
0.00016556 -0.00167970
-0.00014029 -0.01852749
-0.00055840 -0.00110849
0.00380622 0.00119477
-0.00097044 0.00258621
-0.00013408 -0.00089639
0.00111512 0.01722065
-0.00135696 0.00056668
-0.00037161 0.00363559
-0.00085712 -0.00020276
0.00022415 0.00004737
-0.02331426 0.00000565
0.00132607 -0.00068544
-0.00085391 -0.00183383
0.00623016 0.00141648
0.01716918 -0.00449562
0.00082612 -0.00184631
0.00021435 0.00311680
-0.00179650 0.00182653
0.00046354 0.00219822
-0.02053506 -0.00239528
-0.00114423 -0.00111461
-0.00196983 0.00131985
0.00091181 -0.00125090
-0.00078744 0.01551476
-0.00698831 -0.00017529
-0.00291076 0.00260686
0.00239739 0.00009501
0.00069036 -0.00235834
0.02093895 -0.00317559
-0.00328079 -0.00127732
-0.00034003 -0.00015897
-0.00128509 -0.00043468
-0.00089331 0.01561897
-0.00199735 0.00109549
-0.00088419 -0.00053089
-0.00060130 0.01268787
-0.00064665 0.00143267
0.01554563 0.00350863
-0.00200242 0.00302916
-0.00211254 -0.00043864
0.00764026 -0.00202242
-0.00109901 0.00840987
0.00058598 -0.00321475
-0.00158498 -0.00285137
-0.00170434 -0.00190688
-0.00138769 -0.01932705
-0.00083314 0.00061144
0.00189846 0.00143818
0.00082410 -0.00052408
-0.00149009 -0.00152517
-0.00006730 0.01301742
-0.00288276 -0.00101642
0.00095872 -0.00129460
-0.00097529 0.01390247
-0.00321068 -0.00188936
-0.00112722 -0.00047336
0.00017076 0.00067285
-0.00091958 -0.01019124
-0.02008211 -0.00052092
0.00263565 -0.00077450
0.00118142 0.00041945
0.00096221 -0.00547915
0.00155836 -0.00348807
0.00156756 0.00002052
0.02005448 -0.00184090
0.00061546 0.00007055
0.00203396 -0.00361926
-0.00550919 0.00394878
-0.01752388 0.01122017
-0.00114594 -0.00080696
-0.00189308 -0.00001061
0.00118403 -0.01813360
0.00298518 0.00225121
0.00369586 -0.00025098
-0.00123524 0.00012940
0.00058972 0.00055872
-0.00069468 -0.00067438
0.00046415 -0.02299936
0.00379624 0.00021166
0.00425767 0.00211710
-0.00270086 0.00033890
0.00064319 -0.00148426
0.01993947 -0.00099867
0.00071886 -0.00039614
0.00067162 0.00020257
0.00134612 -0.00244840
0.00068699 -0.01710957
-0.00017956 -0.00013960
0.00196425 0.00229483
-0.00200716 -0.00237220
0.00081806 -0.00168483
0.01984548 -0.00053523
0.00075802 0.00087692
-0.00050702 0.00093499
0.00108133 0.00195716
0.01770926 -0.00007876
-0.00188613 -0.00220062
0.00070618 -0.00083537
-0.00170575 -0.00119343
-0.00053781 -0.02654910
-0.00063804 -0.00057963
0.00234752 -0.00054314
-0.00216970 0.00307480
-0.00193251 -0.00082952
0.00129179 0.01862432
-0.00223068 0.00044127
-0.00281666 0.00240091
0.00057698 0.00109394
-0.00184580 0.00652059
0.01244592 0.00376047
0.00085143 -0.00403720
0.00627600 0.00121146
0.01650191 -0.00286317
-0.00022438 -0.00034989
0.00108286 -0.00100876
0.00092433 0.00116835
-0.00160328 0.00453370
0.00103617 0.00332021
-0.01705911 -0.00042654
-0.00402654 0.00168710
-0.00051284 0.00526429
-0.00149442 -0.00121811
0.00029702 -0.02016632
0.00224741 -0.00793028
0.00091286 0.00117021
0.02814322 -0.00582875
-0.00320266 -0.00247905
-0.00781015 -0.00188309
-0.00365834 -0.00093999
-0.00079459 0.00263077
0.00471682 -0.00060757
-0.01691200 0.00526911
-0.00630721 0.00428264
0.00139069 0.00075533
-0.00741136 -0.01612412
-0.00250622 -0.00707650
-0.01131937 0.01936079
0.00759862 0.03170327
-0.01457197 0.00035338
-0.01399510 0.00121698
-0.00062579 -0.01159907
-0.00297000 -0.00325079
0.00195523 0.00567616
-0.00985223 0.00624217
0.00178536 0.00104482
0.01192632 -0.00147178
0.00313249 0.00086069
0.04233698 -0.00270814
0.00178531 0.00233069
-0.01799833 0.00018378
-0.00157598 -0.00071602
-0.00059902 0.00255344
0.00313629 -0.00556917
0.00438735 -0.01797372
-0.01371366 -0.00185653
0.00337175 0.00461851
-0.00345804 -0.00154490
-0.00229475 0.00004821
-0.00512902 -0.01954772
0.00000437 -0.00351767
-0.00055137 0.00326040
-0.00065166 0.00016913
0.00356786 0.00059366
-0.01332249 -0.00186124
-0.00638923 0.00252970
-0.00163111 -0.00088269
-0.13134314 -0.00328230
0.00435027 0.00110969
-0.00487187 -0.02450269
-0.00373190 -0.00212929
0.00154071 0.00182838
-0.00115835 -0.02194728
0.00178262 0.00318738
0.00255441 0.00184718
0.00225938 0.00000290
-0.00288035 0.00138578
-0.00229279 -0.01606934
0.00036735 -0.00819068
0.00312501 -0.00034568
-0.00321514 -0.01454523
-0.00280448 -0.00807786
0.01839000 -0.00630782
0.01105032 -0.00666494
-0.00129879 -0.00002793
0.00030686 0.00026536
0.00187170 -0.02110307
0.00055992 -0.01536059
0.00340733 0.00286292
-0.01099995 -0.00987951
0.00230914 -0.00260489
-0.00083386 -0.01224227
-0.00498179 -0.01080658
0.00183362 0.00171367
-0.00066263 0.00274326
-0.01876380 0.00258280
-0.00082835 -0.00404728
0.00005398 -0.00065442
0.00162410 0.00371203
-0.01970194 0.00179847
-0.00521731 0.00078141
0.00343459 -0.00185101
0.00195280 0.00206127
0.00086243 0.00213563
0.00231805 -0.02138124
0.00305005 -0.01367922
0.00287161 0.00087574
-0.00034220 0.00257256
0.00354205 -0.01370919
-0.00852517 -0.00639449
-0.00405427 0.00048097
-0.00197482 0.00097838
0.00063233 -0.00305768
-0.01587738 -0.00110998
0.00207471 -0.00811850
-0.00234723 0.00075821
-0.00346988 0.00197006
0.00432037 0.00287459
-0.02122023 -0.00268649
-0.00976095 0.00089158
0.00281009 0.00271740
0.00346623 0.00037367
0.00343523 -0.01765405
0.00037454 -0.01040175
0.00193012 0.00044651
-0.01197010 0.00259410
-0.00589648 0.02786615
0.00152181 -0.01044759
-0.00583472 -0.00272597
-0.00422759 0.00056383
0.00210234 0.00097019
0.00059909 -0.01488386
0.00208042 -0.00286121
0.00031787 -0.00227394
0.00191211 -0.00080388
-0.00824023 -0.01052625
0.02410046 -0.00549259
0.02150264 -0.01195359
-0.00675021 0.00317922
0.00121863 0.00077213
-0.00277170 -0.01330055
-0.01100483 -0.00110870
-0.00169479 0.00071148
-0.00297918 0.01114838
-0.00126171 0.00130569
-0.02130114 -0.00200561
-0.01038729 0.00065679
-0.00114072 -0.00194338
-0.01183650 0.00010048
-0.00300367 -0.01318258
0.00130355 -0.00210974
0.00840460 0.00164787
0.00030639 -0.01651736
0.00057886 -0.00467299
0.00953350 -0.00315969
0.00069922 -0.00112041
-0.00184977 0.00085731
-0.00029395 0.00347511
0.00186688 -0.02610853
0.00308777 -0.01287758
0.00201959 -0.00086285
-0.00722821 0.02338439
-0.00317193 0.00562961
-0.01539330 0.00386999
-0.01083604 -0.00206243
0.00020600 0.00157700
-0.00099270 0.00294615
-0.02110747 0.00239125
-0.00133241 0.00243368
0.00089081 0.00239942
-0.00153115 0.00115807
0.00028041 0.00157872
-0.01656683 0.00073798
-0.00561645 0.00287685
0.00085407 0.00485384
0.00112073 0.00017581
0.00054825 -0.01460476
-0.00124306 -0.00858134
0.00325964 0.00216215
0.00116916 -0.00019251
0.00199879 -0.00010064
-0.02026242 0.00385349
-0.00878793 0.00161679
0.00401941 0.00326027
-0.00055127 0.00051154
0.00010096 -0.01440681
0.00638531 -0.00553406
0.00445256 -0.00688081
-0.00073802 -0.00165721
0.00159639 -0.00044318
-0.01682671 -0.00148528
-0.01215039 0.00237385
-0.00258563 0.00278583
-0.00001490 -0.00419448
-0.01721722 0.00170426
0.00528028 0.00819924
0.00156366 0.00075056
0.00037172 0.00094820
-0.00974218 -0.00018217
-0.01498034 -0.00212183
-0.00360660 0.00048001
0.00468120 -0.00341034
-0.00104580 0.00004374
-0.00430432 -0.01715599
-0.00098276 -0.00208489
0.00453035 0.00115300
-0.00036839 -0.00028740
-0.00195187 -0.00124012
-0.01937869 0.01497107
-0.00411887 0.00596239
-0.00570413 -0.00827031
-0.00278845 -0.00542646
-0.01289105 0.02286388
-0.00234796 0.02386597
-0.01303349 -0.00495440
-0.00513833 -0.00877799
0.01157096 -0.01725372
0.00953620 -0.00302369
0.00030376 -0.00637316
-0.00192899 0.00213379
0.00038713 0.00405120
-0.01708711 0.00304964
0.00236510 0.00332032
0.00215414 0.00701877
-0.00082089 -0.00091859
-0.00007933 -0.00053173
-0.01933515 0.00917282
-0.00287834 0.00302118
-0.00349159 0.00199918
-0.02096825 0.00315347
-0.01006509 -0.00049023
-0.00098562 -0.00112462
-0.00069510 0.00102052
-0.00314676 -0.00024157
0.00057067 0.00502392
-0.02133051 0.00224000
-0.00925569 0.00177734
0.00206075 0.00279292
-0.02252229 0.00220182
-0.00581198 0.00346105
-0.00058480 0.00056298
-0.00232528 0.00152827
0.00019410 -0.01823298
-0.00303086 -0.00643145
-0.00006596 -0.00358006
0.00037798 -0.00240235
0.00115114 0.00174838
0.00153724 -0.00017556
0.00139538 -0.01820387
-0.00683145 -0.00285030
-0.00576800 -0.00287106
-0.00494842 -0.01194318
-0.00438307 -0.01604130
0.02325865 -0.01582761
0.01193726 -0.01156675
-0.00043425 0.00157994
0.00034077 -0.00204700
-0.00085436 -0.00170768
-0.01805485 0.00295559
-0.00763017 0.00182157
-0.00139747 -0.00201906
-0.00083264 0.00123628
-0.02421473 0.00266189
-0.00226588 -0.00198819
-0.00009404 -0.00000740
0.00352057 -0.02242606
-0.00241806 -0.01750932
0.00084413 0.00077197
0.00421778 0.00327859
-0.00150603 0.00317507
-0.02736800 -0.00098452
-0.04981976 0.01498951
-0.00095965 0.00161502
0.00175254 0.00143544
-0.00428714 -0.00132608
-0.00484038 -0.00232681
-0.01729720 -0.00199648
-0.00670023 0.00263466
-0.00113717 -0.00012999
-0.00031198 0.00012071
-0.01829377 0.00671415
-0.00651051 -0.00087524
-0.00197416 0.00393983
-0.00043219 0.00052596
-0.00166362 -0.01459890
-0.00126799 -0.00247266
0.00269020 -0.00454348
0.00398436 0.00211788
0.01127881 0.00159542
-0.01983543 0.00540564
-0.00750608 0.00330077
0.00118032 0.00018689
-0.02014749 0.00313554
-0.00607774 -0.00075038
-0.00024072 -0.00237119
0.00142320 0.00105303
-0.00299185 -0.00023730
0.00106557 -0.00029304
-0.01875685 -0.00175905
-0.01455960 0.00550642
0.00338251 0.00446911
-0.00202783 -0.00108238
-0.00067547 -0.01679975
-0.00061232 -0.00551426
-0.00347241 0.00265979
0.00452857 -0.01883535
0.00097473 -0.00515333
0.01115871 -0.00148029
0.00458915 0.00050238
0.00016796 -0.00815070
-0.00330654 -0.00222621
0.02560525 -0.00417637
-0.00577768 -0.00873808
-0.00815493 -0.00243202
0.00306503 -0.01296723
0.00113241 0.02241236
-0.00490743 -0.01069517
-0.00711821 -0.00586406
-0.00395970 -0.01298092
0.02643552 -0.00570165
0.02623655 -0.01032518
-0.00098107 -0.01149166
-0.00825813 -0.00857970
0.00636897 -0.00132896
0.00103215 -0.01261556
-0.00765408 -0.00294296
0.00082381 -0.00156295
0.00138037 -0.01338144
-0.00353917 -0.00242419
-0.00509075 0.01814116
-0.00976411 0.00179714
-0.00608255 -0.00100787
0.00056572 0.00315676
0.00299981 -0.01757396
-0.00024593 -0.00112278
-0.00241605 0.00025786
0.00259433 -0.00252916
-0.00154931 0.00190818
-0.00218549 -0.01969136
0.00163061 -0.00625822
-0.00185480 0.00078287
-0.00809925 -0.00387540
-0.00420392 -0.00522619
0.02331027 -0.00596814
0.02465584 -0.00968461
-0.00451337 0.00459747
-0.00323109 0.00089261
-0.02214253 0.00118857
0.00221436 0.00096069
0.00096151 -0.00014044
-0.00037788 0.00059600
-0.00094016 0.00130993
-0.01805148 0.00433690
0.00025964 -0.00215107
0.00220233 0.00020840
-0.00002932 0.00128030
0.00317953 -0.01881632
-0.00030126 -0.00652304
-0.00218868 -0.00247154
0.00247222 0.00106428
0.00343129 0.00340813
-0.02699096 -0.00018509
-0.00798476 -0.00118131
-0.00072549 0.00008938
0.00193467 0.00242463
0.00381968 -0.02689930
0.00550053 -0.02117943
0.00335795 0.00069713
-0.00022852 -0.00676276
0.00570121 -0.00728895
-0.01383440 -0.00614913
-0.00371161 -0.00305649
-0.00003409 0.00052237
-0.01518777 0.00214947
-0.00777813 -0.00973206
-0.00058323 0.00151101
0.00379499 0.00697383
-0.00132859 -0.00006941
-0.00173858 -0.01539636
0.00698720 -0.00135053
0.00047439 -0.00238994
-0.00089795 -0.00341799
0.00358117 0.00155475
0.00123728 -0.01830238
0.00948769 -0.00783287
-0.00037490 -0.00204983
0.00105951 -0.01967845
0.00109384 -0.00539090
0.00125319 0.00063760
-0.00183473 0.00170370
0.00100087 -0.01249694
0.02068622 -0.00825232
0.01305413 -0.01129557
-0.00642038 -0.00820873
-0.00066530 -0.00505666
-0.00061135 0.00221889
0.00285673 0.00192602
-0.02001459 0.00197821
-0.01176242 0.00641961
-0.00349741 0.00481360
-0.00149368 -0.00092155
-0.01460498 -0.01165316
-0.00149308 -0.00350216
0.00217291 -0.00243597
0.00148112 -0.01998353
0.00322524 -0.00715506
-0.00066963 0.00137756
0.00168097 0.00030551
-0.00043261 0.00249838
-0.00046038 0.00126440
-0.00281331 -0.02139333
0.00069380 -0.01232916
0.00122397 -0.00225992
0.00270045 -0.00104270
0.00075042 -0.00098432
-0.01875913 0.00129057
-0.00795062 0.00361935
-0.00078534 0.00141708
-0.00392745 -0.00042425
0.00208191 -0.01476499
0.00038508 -0.00390258
-0.00017434 -0.00328436
0.00144928 0.00370272
0.00594462 0.00558106
-0.02293501 0.00065749
-0.01917040 0.00850441
-0.00066218 0.00115854
0.00315036 -0.00330260
-0.02149874 0.00127707
-0.00008960 0.00794812
0.00039729 0.00280765
-0.00724265 -0.00840475
-0.00715376 0.02776124
-0.00685732 -0.00768074
-0.01861316 -0.00727392
-0.01086939 -0.00093283
0.00229818 0.00045644
0.00517363 -0.01858404
-0.00262180 -0.00664334
0.00363966 -0.00169919
-0.00115979 0.00101719
0.00337888 -0.00323762
-0.01534148 -0.00540200
-0.01120065 -0.00110695
0.00044010 0.00236258
-0.01779465 0.00378259
-0.00942000 0.00230434
0.00082617 0.00136779
-0.00023159 0.00155385
0.00289958 0.00514353
0.00075048 0.00519163
-0.00365882 0.00059659
0.00637958 -0.01544501
-0.00325007 -0.00243924
0.00104753 -0.00097191
0.00946625 -0.00307183
-0.00058948 0.01492515
-0.01494496 -0.00255094
-0.00334590 0.00121112
0.00037190 -0.01073641
0.00015618 0.00035470
0.00403623 -0.00187695
0.00035994 -0.01793075
0.00492416 0.00185072
0.00640889 -0.00064987
0.00470572 0.02264327
-0.00040642 -0.00199047
-0.00314553 -0.00145997
0.01051367 -0.00231029
-0.00208946 -0.00821968
-0.00489216 0.01362266
-0.01412952 0.00674096
0.00023931 0.00285399
0.01017080 -0.01036028
-0.00254211 0.00471000
-0.00645412 -0.00604953
-0.01658879 -0.00657581
0.00548213 -0.00514504
-0.00211519 0.02748863
-0.00234819 0.02151978
-0.06896772 0.00444835
-0.00290293 -0.00246565
-0.00151610 -0.00416700
-0.00251276 -0.01132671
-0.00166559 0.00236010
0.00145476 0.00441066
-0.00472263 0.00655087
-0.00604714 0.00158469
-0.00468588 -0.01238406
0.00437653 -0.00133975
0.00809356 0.00014704
0.00819993 -0.00740059
0.00234502 0.01088640
-0.01439399 -0.00234231
0.00135461 0.00614598
0.00142851 0.00538562
0.00184774 -0.00403889
0.00753208 -0.01299150
-0.00285847 0.00195609
0.02598341 0.03965719
-0.00643404 -0.00548774
-0.00059340 -0.00650990
-0.00457267 0.00211584
0.00742056 0.00175760
0.00503739 -0.00493167
-0.00116810 0.00131395
-0.01435111 -0.00410976
-0.00528258 0.00081503
0.00707841 -0.00102124
0.00587039 -0.00503613
-0.00216606 0.01105344
-0.01489190 0.00081416
-0.01264145 0.00549915
-0.00129168 -0.02586470
0.02024660 -0.00388088
0.00303364 -0.01231076
-0.00297462 0.00017975
0.00497781 0.00047111
0.00844110 -0.00618341
0.00033488 0.01582831
-0.01710320 -0.00025206
-0.00068383 -0.00266025
0.01018224 -0.00883577
0.00412213 0.00210493
0.00432773 0.01010105
-0.00957097 0.00728523
0.00101209 0.00073493
-0.00267653 -0.00010126
-0.00966734 -0.01344271
-0.00080780 0.00039744
0.00154217 -0.02049214
0.00873189 0.00221782
-0.03451912 0.02835267
-0.00138475 0.00228205
-0.00693146 -0.00084122
0.00789241 -0.00171532
0.00788958 -0.00233487
-0.00030901 0.01235225
-0.01533476 -0.00266010
-0.01494934 0.00244995
0.00600919 0.00315363
0.00294418 0.00011295
0.01682738 -0.00771403
-0.00545776 0.00560249
-0.00028358 0.00222629
-0.00353386 -0.00699677
0.00744769 -0.01281448
0.00096607 -0.00094886
0.00215633 0.00534575
-0.00169356 0.00667533
-0.00184441 -0.00175813
0.00887788 -0.01734143
-0.00341717 -0.00050175
0.00706986 -0.00100054
0.00646469 -0.00047982
-0.00000442 0.01432974
-0.01354515 0.00133128
0.00297629 -0.00185676
0.00080473 0.00210981
-0.00916842 0.00368546
-0.00854395 -0.00047599
-0.00366932 -0.00268115
0.00637388 0.00044637
0.00723950 -0.00185664
0.00100398 0.00818534
-0.01360318 -0.00253690
-0.00007869 0.00528583
0.00059748 0.00451294
-0.00325902 0.00001539
0.00958668 -0.01481798
-0.00410835 -0.00124350
0.00248668 0.00401251
0.00633564 0.00243690
-0.00202472 0.00766482
-0.00457308 -0.00875545
0.00281508 -0.01933507
0.00159359 -0.00897220
-0.00053507 -0.00250063
-0.02999610 0.02425591
-0.00211796 0.00340451
0.00484806 0.00005217
0.00560350 -0.00743663
-0.00254084 0.00750807
-0.00779228 -0.00025151
0.00829221 -0.00026939
0.00018691 0.01159066
-0.01472745 -0.00274554
-0.00064667 0.00555990
0.00052705 -0.00486689
0.00473288 -0.00745036
0.01004711 -0.00613452
0.00080777 0.01994966
-0.01806807 -0.00102125
0.00004665 0.00449161
-0.00080529 0.00609093
-0.01130002 0.00088455
0.00641603 -0.00851068
0.00031495 0.00795285
0.00045349 0.00138514
-0.00940459 -0.00102569
-0.00309659 -0.01756897
-0.00400507 -0.00087505
0.00080350 0.00614393
-0.00215980 0.00599528
-0.00355183 0.00110939
0.00951140 -0.01328445
-0.00094888 0.00044859
0.00795442 -0.00136677
0.00335749 -0.00291047
-0.00069234 0.01343574
-0.01363461 -0.00285758
-0.00121456 0.00486486
0.00134773 0.00689809
-0.00453107 -0.00092334
0.01178961 -0.01400132
-0.00296542 -0.00067336
0.00666511 -0.00236398
0.00475254 -0.00178843
-0.00170062 0.00821463
-0.01308147 -0.00471555
0.00079106 0.00596703
-0.00022171 0.00422736
-0.00595985 -0.00192406
0.01146246 -0.01418944
-0.00128185 0.00400443
0.00029344 -0.00192197
-0.00302279 0.00174419
-0.00246796 -0.01462102
-0.00223438 -0.00069318
0.00161748 0.00523116
-0.00509291 0.00485195
0.00519074 -0.00698924
-0.00623003 -0.01069121
0.00318936 0.00341874
0.00336068 -0.00835151
0.00530840 -0.00478300
-0.00197317 0.00980825
-0.01550940 0.00894143
-0.00327089 0.00423872
0.00527949 0.00578254
-0.00282756 -0.00327337
0.00885846 -0.00983362
-0.00696248 0.00009795
0.00717063 -0.00066368
0.00135043 -0.00174271
0.00013916 0.00987233
-0.01455862 -0.00264205
-0.00634695 0.00149563
0.00083346 -0.00507870
0.00359539 -0.00134391
0.02352042 -0.00713322
-0.00525422 0.00465937
-0.00063607 0.00214881
-0.00289371 -0.00157556
-0.00331852 -0.01323256
-0.00058724 -0.00299186
0.00012151 0.00552665
0.00514285 0.00685871
0.00033937 -0.00288364
0.00994496 -0.01463188
-0.00742763 0.00916797
-0.00001586 -0.00056171
0.00949191 -0.01373582
-0.00238851 0.00161352
-0.00035132 -0.00109491
0.00045147 0.00554222
-0.00063701 0.00759905
-0.00238689 -0.00343931
0.01544688 -0.01447085
-0.00230177 0.00939758
-0.00098438 0.00189843
0.00873548 -0.01316534
0.00046858 0.00036905
0.00739612 -0.00255958
-0.01555021 0.00261629
0.00018060 -0.03028080
0.02426840 -0.00352679
0.00116368 -0.01152735
0.00140079 0.00127380
-0.01227884 0.00116796
-0.01059831 0.00188151
-0.00075387 -0.02381951
0.02075515 -0.00461039
0.00163752 0.00440846
-0.00024342 -0.00139513
-0.00802655 -0.00169832
0.00761761 -0.01221691
0.00494146 -0.00106953
-0.00071633 0.01030189
-0.00070543 0.00598222
-0.00095373 -0.00199427
0.01261061 -0.01159901
0.00129174 -0.01880107
-0.00243391 -0.01785215
0.00846086 0.00011424
-0.03436188 0.02454853
-0.00707690 -0.00131340
0.01290988 -0.00531632
0.00160767 0.01114772
-0.01634406 -0.00039636
-0.00112018 0.00516407
-0.00007008 0.01652996
-0.01055974 -0.00070810
0.01726792 -0.02061991
-0.00000082 -0.00359858
0.02682419 0.00450957
0.00141626 0.00794439
0.00315664 0.00392406
-0.00436342 -0.00530951
0.00971562 -0.01034498
0.00142842 0.00577580
0.00102510 0.00639433
0.00057420 -0.00279595
0.00917389 -0.01354122
0.00006601 -0.00239962
0.00690782 0.00121432
0.00576829 -0.00513356
0.00079312 0.01126973
-0.01406715 -0.00016273
-0.00243530 0.00646540
0.00159809 0.00711575
-0.00650688 -0.00038250
0.01031360 -0.01396554
-0.00375328 0.00857489
-0.00303651 -0.00159874
0.01202198 -0.01111605
-0.00055113 -0.00227372
0.00424233 0.00102556
-0.00105904 0.00695327
-0.00231954 0.00756874
-0.00393689 -0.00215710
0.01219563 -0.01199394
-0.00284147 -0.00210360
0.00581936 -0.00240858
0.00605385 -0.00273012
-0.00038712 0.00904354
-0.01384316 0.00026955
0.00786660 -0.00140426
-0.00214380 0.00852197
-0.01145313 -0.00095750
-0.00036609 -0.00120419
0.00169281 0.00336858
-0.00293000 0.00261003
-0.00180991 -0.00164456
-0.00343764 -0.00906238
0.00108215 -0.00369937
0.00419238 0.00156399
0.00422468 0.00606548
-0.00463332 -0.00399154
-0.00746722 -0.00265375
-0.00483370 0.00552895
-0.00452822 -0.00143353
0.01015846 -0.01629373
-0.00509874 0.00088634
-0.00056288 -0.00241285
-0.01773427 0.00503943
0.00325470 0.00039190
-0.00197703 0.00479299
0.01876992 -0.00498507
-0.00495737 -0.00108216
0.00268746 0.00349512
-0.01286982 0.00456005
-0.00022815 -0.00155358
0.00466405 -0.01014426
0.00486920 -0.00324711
-0.00337274 -0.00322579
-0.00042531 0.00131414
-0.01276282 -0.00269549
0.00026303 -0.00088444
-0.01761836 0.00051959
-0.01447500 0.00481912
-0.00119341 -0.02891725
0.02386735 -0.00267704
0.00185573 0.00597625
-0.00202746 0.00444924
-0.00240954 -0.00059746
0.01147167 -0.01411710
-0.00352288 -0.02045596
0.00398897 -0.00123396
0.00747957 -0.00411357
0.00837157 0.02674101
-0.00027970 0.00236542
0.00173539 0.00671802
-0.00236469 0.00640551
-0.00202345 -0.00001264
0.01021022 -0.01378886
0.00013329 -0.00217430
0.00712014 -0.00234885
0.00442936 -0.00247707
-0.00025996 0.01236887
-0.01419590 -0.00069292
0.00178786 -0.02348570
-0.00126419 -0.02194731
0.01477601 -0.00249442
-0.03811367 0.02474931
-0.00162541 -0.00173310
0.00554520 -0.00338281
0.00937983 -0.00461756
-0.00918018 0.01377747
-0.01892835 -0.00063859
0.00310726 -0.01179843
0.00516234 -0.00646556
-0.00044876 -0.00250457
-0.02267181 0.01838186
-0.00572881 0.00647983
0.00397775 -0.00063063
0.00992809 -0.01079659
-0.00057889 0.00583636
-0.00639803 -0.00239792
0.00742238 0.00168867
-0.00476293 -0.00366467
-0.00061474 -0.00133888
-0.01247659 -0.00033959
0.00193057 0.00017677
0.00618391 0.00032779
0.00729392 -0.00170019
0.00027950 0.01170802
-0.01407888 -0.00232408
-0.01708410 0.00812936
-0.00095086 -0.03620134
0.02649363 -0.00373692
0.00364845 -0.01025752
-0.00150026 0.00470334
-0.00372109 0.00038649
0.00682438 -0.01358273
0.00068720 -0.00060257
-0.00088299 0.00109004
-0.00033959 0.00517742
-0.00082302 0.00887509
-0.00496137 -0.00014646
0.01594289 -0.01596846
-0.00309721 0.00467781
0.00439047 -0.00572244
0.00006021 0.00142762
-0.00483690 -0.00489128
-0.00674993 0.00038426
0.00951231 0.00332139
-0.00081106 0.01062986
-0.01242504 0.00051542
-0.00073880 0.00199252
-0.00259597 -0.00259071
0.00635885 0.00058551
0.00851631 -0.00507014
-0.00104061 0.01560019
-0.01631994 0.00113655
-0.00381638 0.00483089
-0.00056221 0.00633969
-0.00398015 0.00048276
0.01435138 -0.01489543
0.00078053 -0.00112350
0.00575413 -0.00008219
0.00016088 0.00153205
-0.00141214 0.01221733
-0.01062712 -0.00288904
-0.00166260 0.00074353
0.00157205 0.01101511
-0.00353932 -0.00270265
0.01618700 -0.01516135
-0.00625234 0.00815903
-0.00234637 0.00238685
-0.00471482 0.00233170
-0.00306579 -0.01777701
-0.00149468 -0.00089685
0.00390640 -0.00047117
-0.00032797 -0.00280976
-0.00335767 0.00206751
-0.01733262 -0.00451601
0.00225412 -0.00032885
0.00482758 -0.00054207
0.00872364 -0.00435268
-0.00108447 0.01543588
-0.01471252 -0.00015626
0.00051070 0.00663146
-0.00038137 0.00923580
-0.00403151 -0.00149866
0.00941125 -0.01119130
-0.00375503 0.01044291
-0.00338604 -0.00148420
0.01538098 -0.01343768
-0.00099539 -0.00337126
0.00436472 -0.00031522
-0.00119014 -0.00121480
0.00219479 -0.00146361
-0.00059509 -0.00058144
-0.00062507 0.01009739
0.00028748 0.00028955
-0.00047218 -0.00007766
-0.00043220 -0.00283596
0.00062809 -0.00145323
0.01525495 -0.00165286
-0.00027253 -0.00009945
-0.00013505 -0.01394541
0.00092229 0.00347100
0.00029463 -0.00120940
0.00007181 0.00065957
0.00037771 -0.00096196
-0.00044775 0.00313191
-0.00161473 0.00757852
-0.00219472 -0.00355903
-0.00271214 0.00184411
-0.00089584 0.00245402
0.00113800 0.00154172
0.00136711 0.00107378
-0.01753620 -0.00017187
-0.00123860 -0.00125773
0.00053578 -0.01342681
-0.00017909 -0.00277582
0.00692114 0.00151747
-0.01873267 -0.00558819
0.00056391 -0.00652060
0.00291641 -0.00049004
-0.00001773 -0.00854051
-0.00883584 -0.00099900
-0.00237706 -0.00043817
0.00148002 0.00061665
0.00005554 -0.01499941
0.00252964 -0.00267506
-0.00066651 -0.00126830
-0.00044264 -0.00479614
0.00547759 -0.00725317
0.01205047 0.01328605
0.00147610 0.00020191
-0.00046301 -0.00036212
0.00360560 0.00144946
-0.00124058 -0.00404583
0.01058271 -0.00128978
-0.00121449 -0.00158995
-0.00021406 0.00042332
0.00134570 -0.00300817
0.00071303 0.00936605
-0.00094747 -0.00072573
-0.01097322 0.02942336
0.00254173 -0.00502003
-0.00582018 -0.00227308
0.00224283 0.00008780
0.00042437 -0.00099126
-0.00026388 -0.00119090
0.00104015 0.00025226
-0.01776292 0.00342320
-0.00073781 0.00001384
-0.00042017 0.00218073
-0.00182493 0.00088272
-0.00127411 -0.00041727
0.01264615 -0.00049165
-0.00000280 -0.00069919
-0.00015141 -0.00181548
0.00828642 0.00062278
0.00505734 -0.01196944
-0.00025181 -0.00051004
0.00060760 0.00247073
-0.00026966 -0.00105187
-0.00070154 -0.00001715
0.01484437 -0.00065092
0.00268901 -0.00102988
0.00014702 0.00232526
0.00476988 -0.00027916
-0.00062091 0.00167570
-0.01190511 -0.00088212
0.00061684 -0.00022888
0.00102274 -0.00053150
-0.00112321 -0.01670890
-0.00248237 -0.00031573
-0.00009141 0.00120801
-0.00144637 -0.00047384
-0.00188149 0.01054469
0.00010166 -0.00205814
-0.00084876 0.00113909
0.00158666 0.00068105
0.00038296 -0.00060081
-0.00093388 0.00024895
-0.01978320 0.00568290
0.00052469 0.00217363
0.00207740 0.00080986
-0.00233198 0.00199271
0.00827612 0.00992355
-0.00746722 -0.00129507
-0.00007303 0.00099161
0.00111032 0.00005247
0.00169308 0.01276215
0.00172023 -0.00019166
-0.00305101 -0.00314727
0.00009293 0.00234929
0.00047709 -0.00224131
0.00280324 0.01169122
-0.00108120 0.00229102
0.00062573 0.00085306
0.00080331 -0.00139365
-0.00259085 -0.00185337
0.01137037 -0.00231711
0.00009312 -0.00015428
0.00268000 -0.00288480
0.00491079 0.00308881
-0.01476121 0.00590604
0.00785470 0.00001711
-0.00128298 0.00014204
-0.00039089 -0.00006437
-0.00313284 -0.00093168
0.01205799 0.00047243
-0.00079449 0.00084776
0.00168759 -0.00127450
-0.00030714 -0.00092937
0.00063742 -0.01867176
0.00036076 0.00015020
0.00036429 -0.00060909
-0.00131996 0.00106351
0.00038189 0.00316741
-0.01532439 0.01006455
0.00015070 -0.00223274
0.00009729 -0.00165567
-0.00500610 -0.00010205
-0.00216061 0.01471616
0.00056361 0.00139034
-0.00070867 -0.00018467
-0.00112683 -0.00935693
0.00132535 -0.00032997
-0.01290255 -0.00228113
0.00076634 0.00060843
0.00086417 0.00034160
0.01202480 -0.00110690
-0.00028366 -0.00184609
-0.00054342 0.00030944
0.00201907 0.00294246
-0.00107279 -0.00203893
0.00089562 -0.00043980
0.01839084 -0.00467714
-0.00013103 -0.00066053
-0.00005065 0.00181594
-0.01242049 0.00162813
-0.00027122 -0.01479826
0.00201808 -0.00105425
-0.00300982 -0.00106921
0.00117804 0.00067328
-0.00216991 0.01539825
0.00002152 0.00048270
0.00032737 0.00009453
-0.00015873 0.00172923
-0.00262979 0.00139310
-0.00188467 0.01445849
-0.00125551 0.00146321
-0.00017009 -0.00024284
-0.00062222 0.00227234
0.00197124 -0.00243252
0.01147258 0.00159338
0.00026094 0.00138960
0.00084889 0.00136023
-0.00257130 0.00090383
-0.00046982 0.01184203
-0.00857435 -0.00239517
-0.00113412 -0.00222188
0.00066595 0.00188749
0.00021414 -0.00065605
0.01285097 -0.00226789
0.00049080 -0.00226484
0.00157588 -0.00123410
0.00161677 -0.00162846
0.00068737 0.01317747
0.00061216 -0.00010805
-0.00006931 0.00042423
-0.00057154 0.00065853
-0.00115400 0.01285058
-0.00175427 -0.00024292
-0.00006893 -0.00195656
0.00156590 0.00353531
0.00132686 -0.00837523
-0.00146122 0.01302546
0.00083792 0.00107584
-0.00129120 -0.00025636
0.00055635 -0.00177843
0.00008354 0.00360434
-0.01650760 0.00451705
0.00020852 0.00074673
0.00054577 -0.00183333
-0.00210842 -0.00149699
0.00195557 0.01064026
-0.00981721 -0.00054565
0.00007966 -0.00063026
0.00153430 0.00119239
-0.00114334 -0.00419598
-0.01966317 -0.00018821
-0.00179643 0.00295150
0.00106009 0.00346725
0.00126936 -0.00518978
0.01175120 -0.00015144
-0.00377255 -0.00049903
-0.00124376 -0.00032435
0.00105306 0.00016625
-0.00048366 -0.01713070
0.00384645 -0.00136731
-0.00033476 0.00090149
0.00069880 -0.00050410
-0.00172610 0.00070268
0.00247621 -0.02075942
-0.00175142 -0.00039203
0.00070641 0.00011172
0.00296934 -0.01756869
0.00104034 -0.00075834
0.00299510 0.00071850
-0.00008358 -0.00128005
0.00009680 -0.00118436
-0.00117945 -0.00029430
-0.00022745 0.01087681
-0.00149337 -0.00002258
-0.00079680 0.00079765
-0.00025932 -0.01790732
0.00040393 -0.00322178
0.00016567 0.00234266
-0.00044337 0.00175776
-0.00072939 0.00169455
0.01221160 -0.00251386
0.00105216 0.00106941
-0.00049954 -0.00003382
0.00052394 0.00183205
-0.00101322 0.00221374
-0.00108684 -0.00240190
0.01157345 0.00185845
-0.00041508 0.00065548
0.00062255 -0.00089879
0.00329148 -0.00060206
0.00055213 -0.01433493
0.00233308 -0.00016414
0.00045994 -0.00020287
-0.00026568 0.00128249
-0.00000056 0.00035973
0.00152478 -0.01554015
0.00056729 0.00100866
-0.00249811 -0.00139283
-0.00088522 -0.00031105
-0.00096055 0.01369562
0.00039725 0.00064526
-0.00135341 -0.00219536
0.00119412 -0.00084759
0.00991135 -0.00029779
-0.00119137 0.00066742
-0.00033235 -0.00171249
-0.00192670 -0.00069860
0.00131127 0.01752268
-0.00031720 -0.00300893
-0.00163813 0.00182942
-0.00122781 -0.00141309
-0.00059078 0.00441370
-0.00255730 0.00091681
-0.00080720 -0.01338189
0.00021680 -0.00116998
0.00089686 -0.00104044
0.00090333 -0.00102391
0.00326709 0.01093359
-0.00049091 -0.00019813
-0.00098903 0.00042198
-0.00031557 0.00223785
-0.00160846 -0.00046970
0.01095855 -0.00074404
-0.00014974 -0.00151855
0.00120887 -0.00101374
-0.00075383 -0.00495258
0.00131368 -0.01810482
-0.00285672 -0.00002801
0.00138317 -0.00104263
-0.00040865 -0.01543040
0.00271996 -0.00138166
-0.00000650 0.00017900
-0.00186437 -0.00022200
-0.00268372 0.00169567
-0.00146782 0.00011908
-0.00037951 -0.01715555
0.00301584 -0.00160703
-0.00032741 0.00079814
-0.00057854 0.00098308
0.00042363 -0.00041221
0.01308010 -0.00096537
-0.00034657 -0.00186158
0.00104546 0.00028454
-0.01557250 0.00181030
-0.00262910 -0.00453108
0.00017517 -0.00081731
0.00103611 0.00237624
0.00020597 0.00280504
-0.00119368 -0.01506252
0.00084953 0.00335794
-0.00028953 -0.00062199
-0.00067538 -0.00125697
0.00577525 -0.00073853
-0.01283994 0.00707315
0.00487750 0.00114680
0.00051965 -0.00000605
-0.00191487 -0.02025482
0.00131331 0.00154071
0.00282048 0.00059483
-0.00002882 0.00204178
-0.00002889 -0.00309521
-0.00086828 0.00407125
0.00778383 0.00815093
-0.00269471 0.00179386
-0.00146323 -0.00080568
0.00320769 0.00147573
-0.00001654 -0.00723458
-0.00796981 0.00758371
0.00080287 -0.00229645
-0.00155969 0.00105153
-0.00145449 0.00207260
0.01061978 -0.00089734
0.00117581 -0.00097713
0.00069632 -0.00164210
-0.00118924 0.00264586
-0.00065622 0.00193696
0.01316820 -0.00234928
-0.00126061 -0.00046161
0.00087296 0.00195690
-0.00041466 0.00119762
-0.00122418 -0.01772306
-0.00020412 0.00007806
0.00022666 -0.00076037
-0.00165114 -0.00396950
0.00108844 0.00808628
0.00155573 -0.00015037
-0.00083278 -0.00038852
-0.00023653 0.00123704
0.00029820 -0.00084306
0.00063310 0.01346288
-0.00022215 -0.00173509
-0.00027107 -0.00127662
-0.00261301 -0.00140633
-0.00183186 -0.00192759
-0.01763643 0.00556664
-0.00283647 -0.00109000
0.00002918 -0.00086011
0.00116739 -0.00288065
0.00083535 0.01537291
-0.00199552 -0.00239665
0.00016223 -0.00125609
0.00138188 0.00253773
0.00038316 0.00101259
-0.01941057 0.00344844
-0.00115512 -0.00013047
0.00142428 0.00228643
0.00439505 0.00089267
-0.00369945 0.00960988
-0.00499450 0.00090828
-0.00299659 -0.00214374
0.00110927 -0.01365276
0.00159430 -0.00152969
-0.01037027 0.00207660
-0.00067183 0.00161604
0.00132340 -0.00053496
0.00191332 0.00239645
0.01405933 -0.00405907
-0.00091841 -0.00082951
0.00168319 0.00021808
0.00210703 -0.00029852
-0.00121474 -0.00204098
-0.01726119 0.00188908
0.00004061 0.00055001
-0.00150739 -0.00061407
0.01258429 -0.00205192
0.00032530 -0.00009946
-0.00022183 -0.00093482
-0.00125674 0.00078569
0.00409380 -0.01693458
0.00105729 0.00082247
0.00045882 -0.00020801
-0.00261762 -0.00028102
-0.00130270 0.00041507
-0.00361573 -0.00290362
0.00209981 0.01392806
-0.00064669 0.00030578
0.00030487 -0.00053341
-0.00296931 0.00442304
-0.00301591 0.00325103
-0.00057574 0.00223873
-0.00019586 0.00019372
0.00076834 -0.00006313
0.00986333 -0.00278759
-0.00082006 0.00072843
0.00141870 0.00009807
-0.00110080 -0.00151599
-0.00212036 -0.00281804
-0.00024206 0.00157427
0.01259225 -0.00315666
-0.00202011 0.00048096
0.00199328 0.00150575
-0.00015631 -0.00085025
0.00073353 -0.01874764
0.00516401 -0.00300348
-0.00021432 -0.00032363
0.00071460 0.00435543
0.00005658 -0.00154866
0.01091179 -0.00085744
-0.00080823 -0.00139103
0.00008130 -0.00178661
0.00180527 -0.00401765
0.00091568 0.01359580
-0.00009227 -0.00073117
0.00039098 0.00023440
0.00171110 -0.00088802
0.00008363 -0.01605646
0.00384356 0.00219420
0.00010347 0.00160028
0.00218186 0.00574894
0.00042280 0.00088930
-0.01911433 0.00070305
0.00112649 0.00049412
-0.00124851 -0.00100034
0.00052882 -0.00148959
-0.00012858 0.00144307
0.01408721 0.00250677
0.00083019 -0.00073100
-0.00019789 0.00172081
-0.00497016 0.00127079
-0.00544141 -0.01616474
0.00380268 -0.00140675
-0.00013215 -0.00053441
-0.00268038 0.01336225
-0.00099480 0.00195601
-0.00305613 -0.00067792
-0.00372551 -0.00084855
-0.00146681 -0.00416438
-0.00280063 -0.00053320
-0.00443668 0.02339671
-0.00238469 -0.00179812
-0.00133767 -0.00157418
-0.00074584 -0.00233394
-0.00141278 -0.00443988
0.03587812 -0.00292968
-0.00221247 0.00067232
-0.00030505 -0.02085716
-0.00435661 0.00253718
0.00019310 -0.00291108
-0.00103401 -0.00272312
-0.00016562 -0.00212929
0.00004888 -0.00096347
0.00031155 0.02904252
-0.00619609 -0.00033603
-0.00028842 0.00302213
-0.00074657 -0.00212055
0.00317990 -0.00093131
0.00771077 -0.00497978
-0.02225656 -0.00114271
-0.00051253 -0.00077232
0.00136457 -0.01797456
0.00052692 -0.00255734
-0.01532035 -0.00631018
-0.03508684 -0.00911964
0.00240169 -0.00686686
0.01182328 -0.00454439
-0.00063359 -0.01364655
-0.04281925 -0.00289819
-0.00022887 0.00563046
-0.00194925 -0.00105977
-0.00098396 -0.02169586
0.00024821 -0.00283440
-0.00256733 -0.00062954
-0.00017475 -0.00853630
-0.01426423 -0.00529381
0.02895021 0.02688156
0.00734059 -0.00257511
-0.00169327 -0.00157996
0.00498322 0.00786471
-0.00373918 -0.00868808
-0.02507488 -0.00029111
-0.00255495 -0.00251814
-0.00094410 -0.00150797
0.00031443 -0.00076555
-0.00011162 0.02480088
0.00045973 -0.00201837
-0.03180113 0.04392992
0.01432369 0.00081433
-0.01954403 -0.00722637
0.00649613 -0.00035481
0.00138300 0.00085337
0.00458452 -0.00294280
0.00151855 0.00162840
-0.02685792 0.00039528
-0.00431040 -0.00103843
0.00093194 -0.00202009
-0.00127043 -0.00285803
-0.00465998 -0.00067178
-0.02622023 -0.00114311
-0.00005241 -0.00268392
-0.00225226 -0.00468260
0.02149890 -0.00439114
0.00937802 -0.01968991
-0.00243991 0.00200203
-0.00030362 -0.00221763
-0.00216020 -0.00167071
0.00194580 -0.00135866
0.03724536 0.00255779
-0.00247680 0.00057438
0.00148132 -0.00018602
0.00421801 0.00036131
-0.00042182 0.00456632
-0.01508974 -0.00214132
-0.00016158 -0.00015867
0.00070456 -0.00119084
-0.00185858 -0.02495882
0.00043776 0.00001831
0.00013759 0.00339259
-0.00262537 0.00284990
-0.00357073 0.03177619
0.00062802 -0.00370695
0.00066867 0.00127281
-0.00215845 0.00407005
0.00015264 0.00005076
-0.00273250 -0.00161310
-0.02735339 -0.00190731
0.00078626 0.00259033
-0.00029105 0.00592612
-0.00214634 -0.00082407
0.02310590 -0.01674902
-0.01291576 -0.00326380
0.00037392 0.00017584
0.00203153 0.00170923
0.00211036 -0.02618147
-0.00172865 -0.00139940
-0.00404309 -0.00236620
-0.00091111 0.01142603
0.00021753 -0.00527465
-0.00039815 0.02754751
-0.00121055 -0.00182824
-0.00120095 -0.00010663
-0.00114870 -0.00056916
-0.00137330 -0.00111472
-0.02452696 0.00154142
-0.00103199 -0.00094758
0.00140502 -0.00353492
-0.01728541 0.01097154
-0.02186443 0.00083442
-0.01315094 -0.00026802
0.00016201 -0.00001671
0.00099599 0.00019425
-0.00049403 0.00054948
0.02612027 0.00111754
-0.00023475 -0.00192413
0.00084694 -0.00408294
-0.00221643 -0.00048660
0.00104545 -0.02642547
-0.00298478 -0.00021498
0.00155423 0.00000639
-0.00219220 -0.00199248
-0.00324630 0.01408371
-0.02052277 -0.01857110
-0.00166489 -0.00000517
-0.00104155 0.00017537
-0.00987204 -0.00326352
-0.00710388 0.03268553
0.00058823 -0.00042904
-0.00097707 -0.00274526
0.00039927 -0.01398155
0.00234252 0.00041341
-0.01800943 -0.00281478
-0.00139061 -0.00098566
-0.00285136 0.00149946
0.02936926 -0.00502266
0.00148177 -0.00388929
-0.00021217 -0.00186677
-0.00132258 0.00052744
0.00093776 0.00432910
-0.00040746 0.00073207
-0.02936374 0.00384633
-0.00137340 -0.00190394
-0.00067941 -0.00133837
-0.01822615 -0.00008399
0.00274901 -0.02219254
-0.00002013 0.00065602
-0.00019603 0.00195902
-0.00177860 0.00255341
0.00318206 -0.03003120
-0.00014946 -0.00183718
-0.00182323 -0.00005455
0.00051713 0.00050389
-0.00086056 -0.00041001
-0.00351978 -0.02831714
-0.00348409 -0.00011171
-0.00164607 0.00151329
-0.00052053 0.00303832
0.00173361 0.00044140
-0.02462189 0.00065195
-0.00082978 0.00370178
0.00027451 0.00144226
-0.00106077 -0.00308012
0.00123573 -0.02543746
-0.00538377 -0.00230910
-0.00223850 -0.00381728
0.00096754 0.00099163
-0.00214790 -0.00223937
0.02727206 -0.00353321
-0.00192462 0.00071582
0.00161828 -0.00108271
0.00062943 -0.00383337
-0.00077141 -0.02600918
0.00046677 -0.00199434
0.00067851 0.00171313
-0.00318995 0.00203747
-0.00506280 0.03350072
-0.00186003 -0.00332414
-0.00145500 -0.00066582
0.00131685 0.00097440
0.00880362 -0.00832808
-0.00648591 -0.02246046
-0.00078454 -0.00078184
-0.00110206 -0.00063890
-0.00004290 0.00121198
-0.00018353 -0.00869331
-0.02413821 0.00811981
-0.00365524 -0.00188807
0.00038788 -0.00144077
-0.00162797 -0.00200316
0.01113265 -0.02352439
-0.01236440 0.00282107
-0.00079018 0.00358309
0.00130958 -0.00223875
-0.00139905 -0.00449566
-0.02678762 -0.00410973
0.00136899 0.00268477
0.00001119 0.00600783
-0.00146731 -0.00788695
0.03310388 0.01314342
-0.01271201 0.00257681
0.00167588 0.00733549
-0.00913329 0.00176794
0.00140936 -0.02448245
-0.00017013 -0.00652386
0.00050922 -0.00201327
-0.00039296 -0.00033789
-0.00076966 -0.00256498
-0.00319865 -0.02918706
-0.00218131 0.00355752
-0.00159026 0.00059068
-0.00258748 -0.02322963
-0.00199804 0.00078824
-0.00596071 0.00362402
-0.00144104 -0.00048334
-0.00051699 -0.00057706
-0.00170527 -0.00052175
-0.00010223 -0.02508005
-0.00319867 0.00241274
0.00048233 0.00088988
-0.00257229 -0.02629637
-0.00187153 -0.00458482
0.00147505 -0.00508215
-0.00221643 0.00036410
-0.00096600 0.00155114
0.03175832 -0.00147506
0.00345438 -0.00154380
-0.00153117 -0.00218904
-0.00174787 0.00081496
-0.00067283 -0.00186103
0.00019666 -0.00350321
0.03030659 -0.00766773
0.00223853 0.00021961
0.00247119 -0.00034378
-0.00757891 0.00445438
-0.00527683 -0.01937562
0.00521846 0.00136640
-0.00293341 0.00143852
-0.00208836 -0.00021644
0.00339625 -0.00052309
0.00132927 -0.02176802
-0.00248513 -0.00009969
-0.00060151 -0.00270925
0.00108116 -0.00122046
-0.00003804 0.03410897
0.00475782 0.00116245
0.00055917 -0.00124941
0.00054454 0.00114418
-0.02666348 0.00091602
-0.00170245 0.00092631
-0.00162415 -0.00169800
0.00050927 -0.00217128
0.00610514 0.04168329
-0.00065118 -0.00805563
-0.00065479 0.00365167
0.00166597 -0.00364844
0.00157547 -0.01162664
-0.00087034 0.00837153
-0.00430772 -0.01942026
-0.00232306 -0.00388055
-0.00089274 -0.00213197
0.00065419 -0.00423442
0.00066321 0.02620376
-0.00196922 -0.00279240
-0.00408284 0.00018119
-0.00128475 -0.00399892
-0.00097998 0.00186423
-0.02655561 0.00160070
-0.00069044 0.00133903
-0.00092972 0.00245610
-0.00130558 -0.00898450
-0.00161602 -0.02505839
0.00032493 0.00054163
-0.00159335 -0.00220946
0.00253340 -0.02330296
-0.00173313 -0.00423736
0.00047493 -0.00008398
0.00151515 -0.00129019
0.00144686 0.00035848
-0.00325511 0.00246828
0.00059540 -0.02347424
-0.00052997 -0.00189332
-0.00267155 -0.00049218
-0.00018807 0.00136799
0.00101936 0.00065054
0.02864528 -0.00149418
0.00131665 0.00049692
-0.00231770 0.00164653
-0.02317011 0.00152272
-0.00242565 -0.00694399
0.00616643 -0.00039285
0.00195968 -0.00029163
-0.00228457 0.01174452
0.00247937 -0.02016585
0.00129345 -0.00762615
-0.00134351 -0.00127361
0.00104638 -0.00093867
-0.01295146 0.00493443
-0.02167866 -0.00948965
0.01074877 0.00161993
-0.00190105 -0.00063631
-0.00461826 -0.02834551
-0.00485818 -0.00114355
0.00189975 0.00255111
-0.00164317 0.00107542
-0.00013758 -0.00514304
-0.00022293 0.00371644
0.02506008 -0.01248990
-0.00534714 0.00194286
0.00631371 0.00140214
-0.00731416 0.01028165
0.00405404 -0.01410167
-0.01181081 0.01859494
-0.00091188 -0.00479964
0.00238895 -0.00165267
-0.00184275 -0.00006258
-0.02442681 -0.00260660
0.00040746 0.00069508
0.00100739 -0.00196620
-0.00219027 0.00056861
-0.00168660 0.00005067
0.03271495 -0.00089879
-0.00065302 0.00049288
-0.00091356 0.00478668
-0.00703898 0.00103767
0.00154455 -0.02646606
-0.00351131 0.00010478
0.00047840 -0.00321698
-0.00230302 -0.00893381
-0.00130629 0.03337853
-0.00449154 -0.00103015
-0.00063520 -0.00064066
-0.00325321 0.00094763
0.00023426 0.00078997
0.00058454 0.03104404
0.00077292 -0.00149784
-0.00187456 -0.00022740
0.00042503 0.00166773
0.00018014 -0.00197020
-0.02400800 0.00984809
-0.00524349 -0.00237610
-0.00404223 -0.00297231
-0.00043800 -0.00121182
-0.00015872 0.03963266
-0.00146395 -0.00194382
0.00032754 0.00373197
-0.00062473 -0.00503401
0.00225862 -0.00119996
-0.02801205 -0.00109721
-0.00175693 -0.00156735
0.00428595 0.00409618
0.01427959 -0.00444122
-0.00370082 0.02665045
-0.01076416 -0.00101217
-0.00326435 -0.00240724
-0.00156637 -0.01824444
-0.00226563 0.00128881
-0.01841550 -0.00081719
0.00150780 0.00028408
0.00233829 0.00110354
-0.00022628 0.00466036
-0.02485732 -0.00362839
-0.00097683 -0.00138635
-0.00296826 0.00230283
-0.00068725 -0.00354716
-0.00274421 -0.00663803
-0.02399268 -0.00255574
-0.00056219 -0.00099114
0.00097762 -0.00037093
0.03134253 -0.00232663
-0.00053596 -0.00259055
-0.00061883 -0.00005819
-0.00561412 0.00054603
0.01630712 -0.02341116
-0.00259488 -0.00121170
0.00100915 -0.00081355
-0.00085813 -0.00165129
-0.00209470 0.00101708
-0.00490717 -0.00095441
0.00313023 0.03567829
-0.00379791 -0.00086980
-0.00171039 0.00010450
-0.00376989 -0.00197341
-0.00178449 -0.01930839
0.01028503 -0.00083538
0.00103960 0.00030619
-0.00037490 -0.00029999
-0.02262041 -0.00191966
0.00031294 0.00236999
-0.00280235 -0.00233680
-0.00086762 -0.00193299
-0.00111999 -0.00102271
0.00237142 0.00157354
-0.02629071 0.00021907
-0.00044484 0.00138583
-0.00035582 0.00071913
0.00077412 -0.00024041
0.00059655 -0.02576913
0.00655528 -0.00047520
-0.00167139 -0.00133083
-0.00106427 0.00400095
-0.00309245 -0.00157525
-0.02124126 -0.00151567
-0.00318971 -0.00193971
-0.00215315 -0.00535400
0.00052227 -0.00308702
-0.00064508 0.03655183
-0.00696958 -0.00141477
0.00057400 0.00350693
-0.00062234 -0.00036442
-0.00466375 -0.02401466
0.00166077 0.00994911
0.00132520 -0.00142039
0.00255978 -0.00084470
0.00499636 0.00468151
-0.02546122 -0.00463374
0.00003250 -0.00043835
-0.00066418 -0.00252794
0.00371719 -0.00419952
-0.00244986 0.00162709
0.03485053 -0.00677864
0.00007586 -0.00187427
0.00076703 0.00004910
-0.00996517 -0.00708906
-0.00205402 -0.02534674
0.01015469 -0.00093831
0.00172528 -0.00101049
-0.00150531 0.03294057
0.00060054 0.00566988
0.00083337 -0.00227095
-0.00086815 -0.00220350
0.00051453 0.00269566
0.00828795 -0.00069230
0.00162982 0.00111204
-0.00130400 -0.00159880
-0.00081544 -0.00116056
-0.00081938 0.01602822
-0.00341611 -0.00073709
0.00100533 -0.00172039
0.00690534 -0.00138412
-0.00110068 -0.00038355
0.00024213 -0.00127457
0.00101157 0.00093635
0.00433047 -0.00108824
0.00095492 0.00020532
-0.01989235 0.00625319
-0.00638334 0.00039365
0.00164628 -0.00004382
0.00136332 -0.00283226
0.00370675 -0.00000127
-0.00087005 0.01498240
-0.00018934 -0.00268030
0.00104701 0.00240739
-0.01769034 0.00121027
0.00215249 0.01016480
0.00169745 0.00310643
0.00220534 -0.00224781
-0.01596846 0.00064333
0.00149925 -0.00174486
-0.00607891 -0.00608905
-0.00083644 -0.00970759
0.04316243 -0.00071060
0.00022689 0.00158040
0.00298517 0.00069701
-0.00098332 -0.00177291
-0.00278286 0.00356865
-0.00078349 0.00815426
-0.00382219 0.00774978
0.00943196 -0.00103915
-0.00226646 -0.00114722
0.00150093 -0.00002475
0.00404061 -0.00094807
-0.00319293 0.01735510
0.00011358 0.00152850
-0.00161607 0.00030462
0.00067365 0.00139443
-0.00100820 -0.00145803
0.01043188 -0.00058530
0.00259738 -0.00053969
0.00066642 -0.00025802
-0.00608064 -0.01409027
-0.00440548 -0.00453756
-0.00534692 -0.02013102
-0.00628353 -0.00049335
-0.00187908 -0.00206681
-0.00106721 -0.02335176
0.00093942 -0.00046599
-0.00085973 -0.00083338
-0.00126195 -0.00152445
-0.00014878 -0.00100368
-0.00006746 0.01819646
-0.00046292 -0.00091862
0.00014679 0.00134723
0.00192202 -0.01356667
0.00093746 0.00418413
0.01105536 0.00079677
0.00273593 0.00347988
0.00051419 0.00018154
-0.00080440 -0.00066139
-0.00073360 0.01530362
-0.00316831 -0.00048424
0.00046929 -0.00240847
0.00046049 -0.00795733
-0.00126624 0.00189363
-0.00379378 0.00714793
0.00025279 -0.00026031
0.00119724 0.00069396
0.00059372 0.00033403
-0.02109110 -0.00030053
-0.00105382 0.00210598
0.00089973 0.00158586
-0.00099946 0.00077762
-0.02188454 0.00015013
-0.00174533 -0.00291123
-0.00156547 -0.00292297
0.00202226 -0.00118520
0.00152266 -0.00029635
0.00011209 0.01100734
0.00118712 -0.00120079
0.00092978 -0.00153459
-0.00056553 -0.00237765
0.00147801 -0.01631058
0.01093522 -0.00913081
0.00332241 0.00228970
-0.00132100 -0.00048672
-0.00129673 -0.00435642
0.01045098 -0.00023931
-0.00022346 -0.00303248
0.00041303 -0.00056776
0.00051843 -0.00220002
0.00026935 0.00119399
0.00979077 -0.00100077
0.00136165 0.00134363
-0.00190671 0.00116027
0.00006530 0.00081529
-0.00067298 0.01705339
-0.00391650 0.00178701
-0.00421609 0.00064009
0.00179990 0.00544744
-0.00227178 0.01064240
0.00006830 0.00365205
0.00061746 -0.00350049
-0.00071285 -0.00121721
-0.00071281 -0.00171554
-0.00273159 0.00950752
0.00030185 -0.00037482
-0.00067752 0.00029082
0.00061180 -0.00000244
-0.00103369 0.00191714
0.01726235 -0.00195607
-0.00191677 -0.00045281
-0.00082263 -0.00064197
0.00121743 0.00338138
-0.00163479 0.01028508
0.01107431 -0.00191241
-0.00265713 -0.00311965
0.00255557 0.00195024
0.00170052 0.00039821
-0.02342646 0.00047617
-0.00051381 -0.00190634
0.00013069 -0.00112864
-0.01305951 0.00100755
0.00030606 -0.01832122
-0.00317177 0.00180017
-0.00116584 0.00075220
0.00013946 0.01210198
-0.00029855 -0.00040408
0.00476149 -0.00087543
0.00027756 0.00047585
0.00246753 0.00234835
-0.00037286 -0.00122457
-0.00177314 0.02212894
-0.00344629 0.00245809
0.00038160 -0.00260588
0.00034006 0.01086341
0.00071490 -0.00230990
0.00819507 -0.00360209
-0.00050006 -0.00066116
0.00002435 -0.00116045
0.00014251 -0.00069825
0.01391324 0.00222355
-0.00034532 0.00016199
0.00012771 -0.00282403
-0.00247908 -0.00047776
-0.00056268 -0.00105427
0.01792423 -0.00165730
0.00085517 -0.00075645
-0.00269834 -0.00108677
0.00180891 -0.00062468
-0.00119911 0.01706238
-0.00080117 0.00298606
-0.00121847 0.00045945
0.00105263 -0.00079955
0.00002588 -0.00020763
0.01750487 -0.00088218
-0.00041332 -0.00268289
-0.00293351 -0.00039917
-0.00145594 0.00322294
-0.00083292 0.01162525
0.00205751 0.00066951
0.00170499 -0.00004644
-0.00023639 0.00039819
0.00079239 -0.00062962
0.01770091 -0.00278921
-0.00019798 0.00133235
-0.00263681 0.00297440
0.00104794 0.00118708
0.01157934 -0.00135365
0.00101919 0.00185357
-0.00100136 -0.00070301
-0.00136692 0.00188729
-0.01126999 0.00038386
0.01160200 0.00024806
0.00039290 -0.00598103
0.00407747 0.00051745
0.00224253 -0.00091093
-0.00026974 0.01026723
-0.00651657 0.00138891
0.00211567 -0.00201291
0.00081687 0.00082210
0.00058988 0.00316711
0.01571041 0.00842512
0.00016545 -0.00045270
0.00028900 0.00021847
0.00131249 -0.00008161
0.00039906 0.01586859
-0.00053389 -0.00060380
0.00131084 -0.00080690
0.00054660 -0.00097085
0.00340858 -0.02265313
0.01061313 -0.00059020
-0.00404601 0.00899573
-0.00043977 0.00383468
0.00008785 -0.00007313
0.00248891 -0.00165381
0.00071713 -0.00170645
-0.00165800 0.00064453
-0.00174873 -0.00046967
0.00025685 0.00187914
-0.02664177 0.00367599
0.00080358 0.00088678
0.00212079 -0.00035142
0.00831229 -0.00006419
0.00191597 0.00077831
-0.00122724 -0.00273531
-0.00405536 -0.00155408
0.00010577 0.00161909
0.00116430 -0.00065379
0.01818597 -0.00237894
-0.00015385 -0.00218221
-0.00243300 0.00045617
-0.02461282 0.00029584
0.00396012 0.00191491
0.00229316 0.00298689
-0.00012322 -0.00100117
-0.00024143 -0.02102980
0.00213238 0.00075221
-0.00055498 -0.00149337
-0.00089166 0.00013034
-0.00082507 -0.00059070
0.00087385 0.00005362
0.00074773 -0.02088098
0.00310079 0.00070656
0.00068739 -0.00001455
-0.00083958 -0.00118834
-0.00486345 -0.00177028
0.01152261 -0.00396252
0.00022630 0.00136773
0.00263235 0.00032400
0.00073479 0.00154737
0.00115228 0.00087403
-0.02169793 0.00219865
0.00090039 0.00514359
0.00024864 -0.00273013
-0.00013326 -0.00118123
-0.02593994 0.00396802
0.00015817 0.00223504
0.00061054 0.00121185
-0.00163757 0.01033951
-0.00151612 -0.00225110
-0.00015892 -0.00036932
0.00088908 -0.00061630
-0.00101038 -0.00188166
0.01795070 -0.00304770
0.00053218 0.00476818
-0.00089035 -0.00320165
-0.00060149 0.00199120
0.00559167 0.00107502
0.00138545 0.00191641
-0.01804412 0.00276155
0.00242791 -0.00178153
0.00031085 -0.00096500
-0.00154364 0.00145080
0.01076484 0.00062985
0.00000686 0.00438506
0.00077370 0.00013627
-0.00193619 -0.00140194
-0.00009057 0.01573403
-0.00079095 -0.00059259
-0.00298580 -0.00165674
-0.00194353 0.00290707
0.00307203 -0.00027893
-0.02419984 -0.00185620
-0.00134954 0.00185920
-0.00161386 0.00127316
-0.02322187 0.00164078
0.00238259 0.00105990
0.00019472 0.00368692
0.00174412 0.00090524
-0.00003070 0.00029880
-0.00051782 -0.00068895
0.01072907 -0.00160702
-0.00011994 -0.00126637
0.00193118 -0.00001287
-0.00126758 0.00215714
-0.00096495 0.01014777
0.00240291 0.00119098
0.00101811 -0.00188457
0.00106988 -0.02245430
0.00041514 0.00089314
0.00094097 0.00016222
0.00143763 -0.00121364
-0.00127054 -0.00152456
0.00433786 -0.00007446
0.00830766 -0.00081223
0.00583382 0.00066271
0.00039992 0.00001962
0.00041211 0.00762694
0.00021906 0.00821888
0.00197019 0.00367375
0.00137854 -0.00144782
-0.00156795 -0.00017575
0.01618014 0.00238735
-0.00005788 0.00642576
-0.00137698 -0.00278730
0.00017964 0.00156378
0.00068661 -0.00075869
0.00059540 -0.01871934
0.00836105 -0.00048687
0.00135346 0.00356537
-0.00200216 0.00418033
-0.00300113 -0.00240784
0.00072107 -0.00006229
0.00689826 0.00083103
0.00086846 0.00408571
0.00002874 -0.00174589
-0.00096640 0.00853017
-0.00143312 0.00105923
0.00133596 -0.00187683
-0.00125812 -0.00073155
0.00062494 -0.00005433
0.00045070 -0.02285405
0.00037959 0.00061776
0.00237723 0.00049212
0.00041676 0.00073474
-0.00033365 0.00137097
0.01813385 0.00028347
-0.00171600 0.00182435
-0.00085705 0.00066478
-0.00400200 0.00091217
-0.02438129 0.00249661
-0.00352863 0.00169546
0.00172148 -0.00095642
-0.00135933 -0.00101685
0.00013620 -0.00031808
0.01203518 0.00072169
0.00187440 -0.00011258
0.00039388 -0.00079664
0.00058604 0.00209406
0.00017578 0.00987035
0.00293851 0.00178619
0.00006256 -0.00247884
0.00005558 0.00004561
-0.00013305 -0.00017567
-0.02908781 0.00414787
0.00217387 0.00207830
0.00059065 -0.00089232
0.00070014 -0.00100597
0.00022465 0.01164534
0.00048990 -0.00055021
-0.00015834 -0.00565757
0.00089654 0.00324749
-0.00079728 0.00018514
-0.01873549 -0.00560920
0.00066273 0.00013547
0.00011103 -0.00028590
0.00587034 -0.00050243
0.00173190 0.00836366
-0.00379307 0.00105151
-0.00162609 -0.00066055
-0.00135470 0.00213058
0.00050732 0.00948035
0.00063662 -0.00113722
0.00165359 -0.00240730
-0.00283382 0.00019971
-0.00102870 0.00153944
-0.00082404 0.00985541
0.00009281 -0.00023410
-0.00001351 -0.00191758
-0.00015007 -0.02220525
0.00220972 0.00003272
0.00336002 0.00209882
-0.00073172 0.00034408
-0.00035732 0.00424771
0.01191586 0.00018184
-0.00086782 0.00531594
-0.00175920 -0.00134899
-0.00007224 0.00129614
-0.00000973 -0.00168390
0.00064339 0.00030615
0.01595140 -0.00218661
-0.00221518 0.00207391
-0.00114106 0.00206811
0.00446794 -0.00455007
0.00941182 0.00475125
-0.00285242 -0.00052930
0.00324869 0.00015322
-0.00057017 0.00990898
0.00073455 -0.00084216
-0.00106364 0.00251941
-0.00207170 0.00303308
0.00161351 0.00031820
-0.00057182 -0.00184834
-0.00034584 0.01766348
-0.00247568 0.00251314
-0.00332089 -0.00343872
0.00129149 -0.00006076
0.00013796 -0.00109642
-0.02471878 -0.00112649
0.00264279 0.00013895
-0.00019989 0.00087907
-0.00131191 0.00100298
-0.00071233 0.01571140
-0.00004176 0.00036719
-0.00084264 -0.00087340
-0.00078083 0.00112373
-0.00114134 0.00016806
0.01459262 -0.00559848
-0.00161395 0.00100152
-0.00126127 -0.00092034
0.00074278 -0.00131964
-0.02121419 0.00077613
0.00270243 0.00160174
-0.00013445 -0.00008362
0.00121164 0.00010974
-0.00218415 0.01145054
-0.00012952 -0.00110466
0.00180228 -0.00097740
0.00124326 0.00173848
0.00043472 -0.00028336
0.00074849 0.01546502
-0.00058180 -0.00048673
0.00199110 -0.00197412
-0.00013211 0.00322965
-0.00001153 -0.00496247
0.00982619 0.00036270
-0.00009121 -0.00084456
-0.00220918 -0.00232936
0.01518155 -0.00123473
-0.00040148 0.00018453
0.00043119 -0.00029289
-0.00323050 -0.00112222
-0.00161644 0.00047643
-0.00004593 0.00150463
0.00099503 0.00021768
-0.00286789 -0.02305201
0.00074268 -0.00176844
-0.00024919 -0.00153884
-0.00178623 -0.00307461
0.00045464 -0.00036942
0.02338845 -0.00135441
0.00062612 0.00117976
-0.00221327 -0.01885864
0.00073747 0.00037423
-0.00199152 0.00349616
-0.00195170 -0.00263280
0.00065459 -0.00007213
0.00015260 0.00018217
0.00292897 -0.02099051
0.00090188 0.00384633
-0.00185306 -0.00147447
0.00040198 0.00610846
0.00107746 0.00062298
0.00439203 -0.00067425
-0.02220003 0.00131643
0.00268215 -0.00131409
0.00129157 0.01281209
-0.00022761 0.00162222
0.01288614 -0.00838855
-0.02450984 -0.00746906
0.00703216 -0.00896125
-0.00555008 -0.00567049
0.00022663 -0.01068671
-0.01414367 -0.00022786
-0.00034256 -0.00177954
0.00115326 0.00041655
0.00014076 0.01762914
-0.00106418 -0.00120385
-0.00081041 -0.00367432
0.00111024 -0.00222198
0.00849871 0.00053841
0.01273013 -0.02224581
-0.00393392 0.00181966
-0.00184356 0.00016766
-0.00278378 0.00409111
0.00128449 0.00553613
0.02013821 -0.00359778
0.00026597 -0.00064512
0.00038966 -0.00065012
0.00158384 0.00293518
-0.00149614 -0.02153764
-0.00008484 -0.00121310
-0.00915251 0.05018712
-0.00178530 -0.00602349
-0.01206230 -0.00614318
-0.00159883 0.00445054
-0.00138797 -0.00157058
-0.00115158 -0.00112680
-0.00059988 -0.00059710
0.01718254 -0.00048277
-0.00052333 -0.00112323
0.00036686 -0.00050496
0.00140396 -0.00025793
-0.00056437 -0.00092226
-0.02495602 -0.00041922
-0.00299447 -0.00130971
0.00082540 0.00051538
-0.01595589 0.00412861
-0.00953356 -0.01712265
0.00342138 0.00021519
-0.00343133 0.00036756
-0.00088884 -0.00100012
0.00081895 -0.00028965
0.02263154 -0.00294612
0.00189701 -0.00034889
-0.00200709 -0.00025958
-0.00156128 -0.00243723
-0.00130475 0.00134615
0.01364598 -0.00009504
-0.00005401 -0.00172487
-0.00067119 -0.00012075
0.00000809 0.01599610
0.00158910 -0.00186075
-0.00099141 -0.00033990
0.00017188 0.00050657
0.00148578 -0.02407782
-0.00021073 0.00128336
0.00123375 -0.00152153
-0.00186496 -0.00150883
-0.00034918 0.00108018
0.00341511 -0.00055749
0.02071295 -0.00141178
-0.00109678 -0.00021735
0.00051857 0.00351991
-0.00133600 -0.00705257
-0.01363215 -0.01639658
0.00664240 -0.00214694
-0.00094974 -0.00218414
-0.00029697 -0.00347050
-0.00461506 -0.02292320
0.00177691 0.00026380
0.00044357 -0.00120294
-0.00204009 -0.00157464
0.00501393 0.00071603
-0.00094180 -0.02598706
0.00180507 -0.00033199
0.00029480 0.00047031
0.00244907 -0.00079015
0.00299327 -0.00239603
0.01923117 -0.00118511
-0.00136558 0.00188647
0.00147701 0.00738342
0.00466237 -0.00404243
-0.01840125 -0.00332047
0.00540317 0.00101643
-0.00118018 -0.00032603
-0.00048055 0.00132782
0.00166163 -0.00091098
-0.02169950 -0.00027277
0.00073675 0.00132959
-0.00217566 -0.00159540
-0.00097763 -0.00048220
-0.00015594 -0.02385193
0.00065890 -0.00056751
0.00149127 -0.00077072
-0.00061719 0.00127523
-0.00038141 -0.00146575
0.01653264 0.01185347
0.00211256 0.00033662
-0.00168087 -0.00090309
-0.00747592 0.00166731
0.00206229 -0.02444618
0.00285235 -0.00118203
-0.00265302 0.00088580
-0.00183607 0.01100163
0.00494111 -0.00031385
0.01285460 0.00088874
-0.00073027 0.00025929
0.00154255 0.00213268
0.01839784 -0.00207699
-0.00311220 -0.00212028
-0.00017279 -0.00053270
-0.00247842 0.00012894
0.00033254 -0.00303445
0.00247355 -0.00136643
0.02439473 -0.00672932
-0.00045040 0.00173488
-0.00037385 -0.00037500
-0.01667989 0.00114900
-0.00234478 0.01656258
-0.00064637 0.00136159
0.00131089 -0.00009782
0.00195695 -0.00241145
0.00025581 -0.02821118
-0.00010654 0.00122878
-0.00055781 0.00159122
-0.00045795 -0.00038228
0.00027004 -0.00377336
0.00029010 -0.02456374
-0.00098199 -0.00017972
-0.00098738 -0.00046022
-0.00089019 0.00156342
-0.00138096 0.00077567
-0.02254173 -0.00111095
-0.00023075 -0.00096780
0.00794660 -0.00010620
0.00054073 -0.00075667
0.00005370 0.02039303
0.00913301 -0.00052209
-0.00060608 0.00112379
-0.00017759 0.00124639
0.00120066 0.00049667
-0.02117235 -0.00208242
0.00030661 -0.00063946
0.00049924 0.00055374
0.00044922 -0.00065654
0.00009225 -0.02413194
-0.00097674 0.00106117
0.00066213 -0.00183679
-0.00139478 0.00028827
0.00070400 0.01680104
-0.00058525 -0.00060806
-0.00046909 -0.00188838
-0.00003008 0.00086388
-0.00171338 0.00352383
0.00321839 -0.02261572
0.00349533 0.00035194
0.00124170 0.00081575
0.00131501 -0.00021176
0.00044901 -0.00765245
0.02062294 -0.00830792
0.00124135 0.00024020
-0.00091674 0.00153369
-0.00223511 0.00319830
0.00541703 0.01795100
-0.01312474 0.00065822
-0.00102266 -0.00093931
0.00075618 -0.00067364
0.00014360 0.00441058
-0.02584800 -0.00077096
0.00012069 -0.00179623
0.00174705 0.00294327
-0.00249780 -0.00692135
-0.01941741 0.00512679
0.00323437 0.00175344
-0.00022954 -0.00332706
-0.00011112 0.00120499
-0.00104226 0.01949558
-0.00282815 -0.00204795
-0.00072403 0.00085372
-0.00045717 -0.00163976
-0.00156161 0.00033466
-0.00447029 0.01900919
-0.00501927 -0.00110693
-0.00164087 0.00086174
-0.00030627 0.01797678
-0.00009014 -0.00087650
0.00254008 -0.00092055
0.00448264 -0.00225808
0.00050185 0.00001198
-0.00140592 0.00464912
-0.00489287 0.01952780
-0.00267844 0.00203650
-0.00113286 0.00045005
0.00038856 0.01682064
0.00026510 0.00357395
0.00501012 0.00411859
0.00053457 -0.00173071
0.00063923 -0.00123428
-0.02267293 0.00621430
-0.00022657 -0.00006943
0.00115395 0.00114551
-0.00055671 -0.00227739
0.00035281 -0.00018164
-0.00035690 -0.00030834
-0.02172313 0.00838557
0.00036995 -0.00239395
-0.00105787 -0.00078603
-0.00286694 0.00370950
0.00106167 -0.01976897
0.00056092 0.00072406
-0.00192787 -0.00164363
-0.00169568 -0.00469522
0.00143784 0.00126144
0.00102409 0.01459694
-0.00045674 -0.00105112
-0.00247373 0.00042829
0.00163989 0.00424886
0.00015185 -0.02646228
-0.00042236 -0.00103974
-0.00082424 0.00186950
0.00021166 -0.00222408
0.02137422 -0.00030753
-0.00127109 0.00033297
-0.00266255 -0.00156381
-0.00331275 0.00011208
-0.00286385 0.03157378
-0.00107769 -0.00027795
-0.00335504 0.00140710
0.00098447 0.00010384
-0.00300204 0.00716871
0.00001279 0.00558919
-0.00215313 0.01208979
0.00052190 -0.00097139
-0.00244705 0.00158406
0.00046803 0.00278299
0.00185280 -0.02311537
-0.00115544 -0.00277166
-0.00231279 -0.00175162
-0.00027634 0.00065814
-0.00054294 -0.00059062
-0.02268988 0.00065108
-0.00301973 -0.00052887
-0.00161212 -0.00057091
0.00101343 -0.00713492
-0.00315063 0.01679249
-0.00171520 0.00037201
0.00438018 -0.00138173
0.00162405 0.01487132
0.00040301 -0.00062076
-0.00086292 0.00007768
-0.00061303 -0.00062451
-0.00028488 0.00046855
-0.00078403 0.00309350
0.00127940 0.02149692
0.00024589 -0.00112871
-0.00098648 -0.00000639
0.00111159 0.00117677
0.00133177 -0.00013882
-0.02373503 0.00019515
0.00072064 0.00067545
0.00099397 0.00084313
0.01543035 0.00167056
0.00261969 -0.00317755
-0.00005081 0.00046419
-0.00008482 0.00085578
-0.00103035 -0.00317692
-0.00065180 -0.01837240
0.00101130 0.00551008
0.00039563 -0.00062998
-0.00114602 0.00133984
0.00965181 -0.00185203
-0.01688363 -0.01337931
0.00613991 0.00159350
0.00153828 0.00152101
0.00269619 -0.02790506
0.00194262 -0.00224594
0.00139235 -0.00038751
-0.00145625 -0.00186613
-0.00122995 0.00080349
0.00348860 -0.00540028
-0.01652842 -0.01110002
0.00172870 -0.00173004
0.00269563 -0.00004721
0.01018695 -0.00345784
-0.00269112 0.00552405
-0.01856234 0.01229245
-0.00096923 -0.00169412
0.00215909 0.00256073
-0.00418918 -0.00121567
-0.02463296 0.00001321
-0.00223572 0.00083045
-0.00086334 -0.00301720
0.00046636 -0.00229532
0.00449704 0.00013691
-0.02296609 0.00303851
-0.00053775 -0.00157075
-0.00152360 0.00146159
0.00300678 -0.00033618
0.00036081 -0.02375868
0.00303596 0.00077394
-0.00394821 0.00063589
-0.00208156 0.00513654
-0.00014323 -0.02523136
0.00003671 0.00139238
0.00077486 0.00145442
0.00075641 -0.00026137
0.00054839 0.00101990
0.00041659 -0.02371472
-0.00125147 -0.00160493
0.00013260 -0.00247845
-0.00281068 -0.00006376
-0.00274088 -0.00080463
0.02015883 -0.00650833
-0.00034064 0.00156027
-0.00049201 0.00054672
0.00009105 -0.00020891
-0.00140261 -0.03040518
0.00685676 -0.00115160
0.00116816 -0.00264556
-0.00014709 -0.00115933
-0.00089030 -0.00136075
0.02326105 -0.00199444
-0.00043603 0.00168851
-0.00031231 -0.00146278
0.00962744 0.00116849
0.00301641 -0.01977918
0.00786216 0.00033219
-0.00116062 -0.00059211
-0.00095882 0.01544738
-0.00047308 -0.00154926
0.01390770 0.00061471
0.00082649 -0.00094478
0.00145772 0.00374025
-0.00302792 -0.00063191
-0.02102404 -0.00152978
0.00271129 -0.00036711
0.00022293 -0.00186282
0.00076648 -0.00193903
-0.00152761 -0.00277737
0.02010476 -0.00433852
-0.00006786 -0.00016005
0.00155782 0.00003420
-0.02362838 0.00412610
-0.00128623 -0.00105922
-0.00150652 0.00104695
-0.00059827 0.00099176
-0.01082778 -0.02243680
0.00172103 0.00470080
0.00201567 0.00105937
-0.00307990 -0.00023003
0.00130579 -0.00161295
-0.00179979 0.00196768
-0.00323713 0.02102969
-0.00165311 -0.00184505
0.00087374 0.00120820
-0.00120809 0.00074482
0.00046583 0.01469029
0.01202139 -0.00064910
0.00058797 0.00111530
0.00140341 -0.00153637
0.01878962 -0.00233503
0.00469207 0.00077728
-0.00162991 0.00074871
0.00311538 -0.00103483
0.00028409 0.00014470
0.00387790 -0.00226714
0.02067198 -0.00126062
0.00024010 -0.00227993
-0.00290816 -0.00503618
-0.00313484 -0.00051221
-0.00254989 0.01726491
-0.00399716 0.00109193
-0.00140877 -0.00046377
-0.00005366 -0.00002430
-0.00374037 0.00037367
-0.02172401 0.00141941
-0.00084206 0.00019931
-0.00234293 -0.00104175
-0.00288884 0.00142026
-0.00294562 0.02064596
0.00021091 -0.00051566
-0.00066218 -0.00309648
0.00096981 0.00292963
0.00230214 0.01629333
-0.00316923 -0.00217235
-0.00052438 -0.00250553
-0.00162776 0.00361180
0.00073729 -0.00036884
-0.02590116 0.00016718
-0.00155622 -0.00186829
0.00052360 0.00180915
0.00174845 0.00032933
0.00161695 -0.00220324
0.02139069 0.00302798
-0.00041251 0.00142085
-0.00105232 -0.00037691
0.00346281 -0.00031888
0.00441108 0.01928806
0.00277901 -0.00158320
-0.00174786 -0.00027844
0.00133091 0.01954868
-0.00451344 -0.00432015
-0.00099408 0.00057422
0.00135046 0.00188691
0.00075647 -0.00190360
-0.00258203 -0.00039711
-0.00105018 0.00110017
-0.00047468 -0.00359344
0.00030265 -0.00076642
-0.00598965 0.01931816
-0.00240324 -0.00207452
-0.00172929 0.00006756
-0.00549515 -0.00079120
0.00110595 -0.00343716
-0.00137508 -0.00045124
-0.00291637 -0.00252712
0.00076694 0.00159585
0.00259223 -0.00108125
-0.00583797 -0.00598825
0.00101560 0.00060899
-0.00075753 0.00039084
0.00135037 0.00124921
0.00049448 0.00538969
-0.00368083 -0.00575585
-0.00181631 0.00015666
0.00187291 -0.00054492
-0.00495152 0.00013777
0.00104866 -0.00296600
0.00165840 -0.00080363
-0.00083433 -0.00100159
-0.01076604 -0.00162779
0.00055462 0.00053294
-0.00123510 -0.00644451
-0.00096922 -0.01170841
0.02968354 -0.00001101
-0.00083580 -0.00027145
-0.00600512 -0.00245058
0.00066736 0.00129676
-0.00223393 0.00010083
-0.00441008 -0.00620556
-0.01007697 0.01519432
-0.00949730 -0.00050078
-0.00268361 -0.00603160
0.00222313 0.00230523
0.00747196 -0.00213676
-0.00431234 -0.00598524
-0.00016288 -0.00039152
-0.00077792 0.00220064
0.00010336 -0.00093129
-0.00063516 -0.00062562
-0.00547001 -0.00104312
0.00440525 0.00004693
-0.00177921 -0.00052727
-0.00568760 -0.01340403
0.00052202 0.00241824
-0.00235427 -0.01265025
-0.00227420 0.00080932
-0.00029964 -0.00014346
-0.00008839 -0.00592807
0.00079459 -0.00496031
-0.00061339 -0.00046247
-0.00119470 0.00030942
-0.00056727 -0.00165942
-0.00030689 -0.00691383
0.00081432 -0.00091438
-0.00086549 0.00010388
-0.00025321 -0.00389269
0.00065121 -0.00235805
-0.00686716 -0.00061218
-0.00302667 0.00546157
-0.00042700 0.00023876
-0.00018540 -0.00095246
-0.00076846 0.01661799
-0.00143743 -0.00081021
-0.00165026 -0.00013986
0.00316628 -0.00258531
-0.00037406 -0.00141572
0.00219696 -0.00281575
0.00245359 0.00170140
-0.00336614 -0.00097690
-0.00041964 0.00205078
-0.00633055 -0.00142086
-0.00432071 -0.00245541
-0.00067947 -0.00049339
0.00053944 -0.00161865
-0.00663387 0.00071464
-0.00057542 -0.00126235
-0.00138278 -0.00072165
-0.00061949 -0.00234716
0.00290211 0.00220616
-0.00055419 -0.00875697
-0.00111207 0.00039243
-0.00002091 -0.00201765
0.00462874 -0.00306176
-0.00329505 -0.00518282
-0.00613187 -0.00677579
0.00105672 -0.00167788
0.00231790 0.00104312
0.00031026 0.00117755
-0.00563881 0.00158007
0.00280056 0.00014224
0.00013619 0.00037651
0.01292127 0.00280902
0.00075852 -0.00080753
-0.00325610 -0.00378783
-0.00001340 -0.00042071
0.00117571 0.00041094
-0.00073705 -0.00063828
0.00345351 -0.00691896
-0.00221451 0.00155293
-0.00112513 -0.00187435
0.00234185 -0.00572771
0.00416618 -0.00865120
-0.00014729 -0.00467874
-0.00393474 0.00139660
0.00419692 -0.00071913
-0.00120960 0.00034317
-0.00073542 -0.00708061
0.00093119 0.00053005
-0.00051427 -0.00117627
-0.00120195 -0.00236464
-0.00099344 -0.00025370
-0.00784582 -0.00011823
-0.00042006 -0.00086471
0.00039658 -0.00235025
-0.00165826 -0.00442921
0.00530020 -0.00730871
-0.00539446 0.00085741
0.00014212 0.00214424
0.00179615 -0.00470334
-0.00027288 -0.00378132
-0.00642724 -0.00015770
-0.00097898 0.00055556
0.00121941 -0.00433205
-0.00515219 0.00477762
-0.00084061 -0.00566377
-0.00036355 0.00199559
0.00212245 0.00181816
0.00091159 0.01412047
0.00369321 -0.00096917
-0.00233825 -0.00107006
-0.00207516 0.00018870
0.00681975 -0.00039560
-0.00045031 0.00000327
-0.00203343 -0.00516408
0.00026498 0.00006735
0.00065410 -0.00091438
-0.00168780 -0.00505586
0.00003116 -0.00298796
-0.00814872 -0.00160009
-0.00056771 0.00157547
0.00095132 0.00119206
0.00018464 0.00116010
-0.00643958 -0.00084774
-0.00067149 -0.00064770
0.00167301 -0.00097140
-0.00144213 0.00020788
-0.00138314 -0.00172879
-0.00833898 -0.00193404
-0.00126686 0.00240819
0.00083429 -0.00160210
0.00005255 -0.00024589
-0.00049814 -0.00082932
0.00296140 0.00075509
-0.00104164 0.00368547
-0.00124572 -0.00047635
-0.00025516 0.00074990
-0.00646036 -0.00084931
0.00038178 -0.00058031
0.00002930 -0.00116390
0.00276553 -0.00076604
-0.00210308 -0.00699403
-0.00082611 -0.00050670
0.00123622 0.00209550
0.00068282 -0.00141029
-0.00085518 -0.00185592
-0.00806399 0.00131992
-0.00062869 0.00016478
0.00320598 -0.00077097
0.00274900 0.00129936
0.02036761 0.00100043
-0.00141759 0.00058748
0.00183099 -0.00087459
-0.00027768 -0.00292338
-0.00316194 -0.00171530
-0.00537788 0.00003995
-0.00010142 -0.00241850
-0.00185291 0.00112108
0.00047534 0.00221913
-0.00050804 -0.00892638
-0.00372489 0.00002023
0.00168215 -0.00471681
-0.00072417 -0.00190662
0.00035143 0.00799366
-0.00771681 -0.00483857
-0.00105979 0.00076500
-0.00391854 -0.00116315
0.00085571 0.00174819
-0.00100571 -0.00766334
0.00031293 0.00462812
-0.00019666 -0.00158006
0.00625341 -0.00302060
0.00084215 -0.00912995
0.01472684 -0.00592805
-0.00169730 0.00504561
-0.00366276 0.00067950
0.00098352 0.00094427
-0.00726836 -0.00078254
-0.00054108 -0.00089526
-0.00089303 -0.00009043
0.00086265 -0.00344047
0.00065950 -0.00488511
-0.00899419 0.00240749
-0.00163579 -0.00077918
-0.00009315 0.00054734
-0.00714444 -0.00049962
0.00220970 -0.00191874
-0.00032150 -0.00096818
-0.00149723 -0.00035651
-0.00188380 -0.00200782
-0.00035210 -0.00087806
-0.00763645 0.00105708
0.00134267 -0.00029358
0.00121337 -0.00009162
-0.00625899 -0.00096455
-0.00250907 0.00223116
0.00179640 -0.00013873
0.00010862 0.00224664
0.00038023 -0.00678855
0.00072374 -0.00291968
-0.00339328 -0.00020937
-0.00048070 0.00097821
0.00124994 -0.00190756
-0.00052969 0.00133119
-0.00054325 -0.00692885
-0.00086183 -0.00058876
0.00075296 0.00167188
0.00162283 -0.00090179
-0.00087236 -0.00159979
-0.00418817 -0.00302410
0.00059499 -0.00143370
-0.00172545 -0.00013988
-0.00066643 -0.00019006
0.00136561 0.00058925
-0.00607667 -0.00049272
0.00283965 -0.00172073
-0.00136748 -0.00120277
0.00066035 -0.00057645
-0.00626054 -0.00084186
0.00146340 -0.00006999
-0.00013034 0.00064021
0.00172005 -0.00813609
0.00034669 -0.00146914
-0.00030851 -0.00017348
-0.00144486 -0.00200199
0.00012921 0.00015279
-0.01073652 -0.00147988
0.00137791 -0.00433576
-0.00153427 -0.00046779
0.00084081 -0.00084370
-0.00359004 0.00015279
0.01055025 0.00135889
-0.00511434 0.00010869
0.00179551 0.00122547
0.00053024 -0.00042017
-0.00265634 -0.00016977
-0.00842880 0.00136698
-0.00003406 0.00279628
0.00350023 -0.00056183
-0.00025345 -0.00025383
-0.00146711 -0.00569043
-0.00197078 0.00030515
0.00001943 -0.00046875
-0.00096430 0.00066102
-0.00207761 -0.00117814
-0.00723580 -0.00045073
-0.00167840 0.00078434
0.00102200 0.00232949
-0.00531435 -0.00076130
-0.00476786 -0.00017426
-0.00247012 0.00118903
-0.00270885 -0.00019492
0.00349492 -0.00124544
-0.00006648 -0.00173480
-0.00617589 0.00328078
0.00110026 0.00120134
-0.00159375 0.00032740
-0.00237659 0.00073055
0.00086258 -0.00838524
0.00203941 0.00049590
0.00231629 -0.00040871
0.00043836 -0.00673409
0.00035572 0.00142816
-0.00186836 0.00090917
-0.00101233 0.00013680
0.00002844 0.00194956
0.00129059 0.00012109
-0.00528286 0.00245018
-0.00209068 0.00117571
0.00027930 -0.00095438
0.00122991 -0.00454129
-0.00287512 -0.00721250
-0.00931545 0.00946636
-0.00281869 -0.00332148
-0.00168539 -0.00031728
-0.00670194 0.00218059
-0.00300955 0.00592609
-0.00089815 0.00160394
0.00027982 0.00075028
-0.00235958 -0.00000854
0.00327942 -0.00478965
-0.00415248 -0.00134714
-0.00305299 -0.00276643
-0.00114134 0.00124620
0.00326017 -0.00245832
-0.01172591 -0.01748694
0.01256568 0.00259170
0.00180105 -0.00268421
-0.00020535 -0.00134551
0.00163847 -0.00756037
0.00265329 -0.00068091
0.00179625 0.00049474
0.00032140 -0.00230747
-0.00141289 -0.00071777
-0.00070182 -0.00630993
0.00101168 -0.00033337
-0.00119327 -0.00048462
0.00365241 -0.00149259
-0.00129311 0.00016739
-0.00710651 0.00005930
0.00124057 0.00186022
0.00001852 -0.00047664
-0.00134445 0.00016083
-0.00782848 0.00009602
0.00201101 -0.00215244
-0.00057270 -0.00033067
0.00062594 -0.00113367
-0.00060290 0.00172847
-0.00812828 0.00059931
-0.00200715 -0.00084722
0.00258304 -0.00050322
0.00080953 -0.00151262
-0.00003622 -0.00936749
0.00030754 -0.00030717
-0.00056108 0.00054446
-0.00140269 -0.00047667
0.00084839 0.00165327
-0.00744045 0.00202632
-0.00098918 0.00050668
-0.00197754 0.00038435
-0.00054225 -0.00085442
0.00020525 -0.00980936
-0.00056340 -0.00003806
-0.00275159 -0.00276213
-0.00441323 0.01078179
-0.00117023 -0.00237958
-0.00590516 -0.00443009
0.00248415 0.00520853
-0.00090248 -0.00165284
-0.00473446 -0.00159516
-0.00281809 -0.00703246
0.00026866 0.00016330
-0.00356852 -0.00146146
-0.00006126 -0.00012521
0.00140078 -0.00532485
-0.00029324 -0.00223214
0.00219205 0.00037520
0.00059747 -0.00144686
0.00002187 -0.00171546
-0.00250704 -0.00733076
-0.00011559 0.00100627
0.00440175 -0.00023763
0.00054582 -0.00629525
0.00198983 -0.00143209
-0.00003326 -0.00144833
0.00052545 -0.00237045
0.00055787 -0.00209363
-0.00624056 -0.00090224
-0.00115779 0.00273969
-0.00067579 -0.00055353
-0.00076313 -0.00190096
0.00002907 -0.00099341
-0.00064155 0.00088924
0.01445101 -0.00271908
-0.00131285 -0.00302715
-0.00053400 -0.00168375
0.00085028 -0.00068151
-0.00665716 0.00935927
-0.00093291 0.00052998
0.00435396 0.00059195
0.00113296 -0.00747971
0.00037795 -0.00080255
0.00000904 -0.00032103
0.00181977 -0.00294213
0.00063075 -0.00095204
0.00002302 -0.00030873
0.00002160 -0.00731195
0.00208650 -0.00013406
-0.00067086 -0.00116240
-0.00463797 0.00185299
-0.00092527 -0.00031670
-0.00659660 -0.00243154
0.00262137 -0.00168865
0.00060458 0.00302833
-0.00156202 -0.00158101
-0.00111706 -0.00374344
-0.00117041 -0.00180173
0.00104018 -0.00032940
-0.00031080 0.00149893
0.00188772 0.00030868
-0.01721586 0.00148485
0.00147805 -0.00013296
0.00164486 0.00101909
0.00057320 0.00072655
-0.00714297 -0.00168307
0.00725905 -0.00247832
0.00065774 0.00069315
0.00236567 0.00079751
0.00231220 -0.00805648
-0.00237942 -0.00361522
0.00133635 -0.00144251
0.00038837 0.00477737
-0.00020809 -0.00072063
-0.00282159 0.01824193
-0.00310533 -0.00114125
-0.00385095 0.00151448
0.00035904 -0.00190906
-0.00259760 0.00143989
-0.00964440 0.00669688
0.00052479 0.00098433
-0.00262717 -0.00168439
0.01130802 -0.00078963
-0.00392778 -0.00045572
0.00004095 -0.00178997
-0.00102966 0.00073857
-0.00927896 -0.00465628
-0.00190254 0.00464227
-0.00266895 -0.01069267
0.04448012 -0.00857970
-0.00013666 -0.00550870
-0.00047622 -0.00024096
-0.00081520 0.00097550
0.00043772 -0.01073720
0.00080076 0.00153251
-0.00311209 -0.00042589
0.00056116 -0.00484317
0.00115313 -0.00064122
-0.00044072 0.00159735
0.00140883 -0.00400755
-0.00219846 -0.00144639
-0.00212999 -0.00044833
0.00034534 0.00232746
0.00107068 0.00041347
-0.00397765 0.00244258
-0.00030995 -0.00357944
0.00458691 0.00164485
0.00097358 -0.01205940
0.00145983 -0.00223306
-0.00180804 -0.00161057
-0.00810489 0.00117096
0.00132286 -0.00393474
-0.00037858 0.00044434
-0.03934491 0.03987273
0.00030958 -0.03256493
0.00220507 -0.01780290
-0.00197278 -0.02565689
-0.03586161 0.00038519
-0.00308243 -0.00166358
-0.00246861 -0.00050665
0.00057830 -0.00083392
-0.00174565 0.00182207
-0.00564872 0.00184821
-0.00069856 -0.00097856
0.00005078 -0.00051196
0.02735968 0.00037611
-0.00250586 -0.00270026
-0.00064384 -0.00058151
-0.00160179 -0.00070280
0.00059843 -0.00905314
0.00073916 0.00163304
-0.00710779 0.00166187
-0.00102537 0.00300458
-0.00031346 -0.00350536
0.04264576 -0.00219638
-0.00114715 -0.00545189
-0.00209238 -0.04450919
-0.02170479 -0.03888253
-0.03316199 -0.03913811
0.03399662 0.00000483
-0.00549760 -0.00260850
-0.00253305 -0.00249101
0.00076118 0.00356162
0.00101405 -0.00188204
0.00338435 -0.00814003
-0.00310720 -0.00123325
-0.00646553 0.00069780
-0.00039463 -0.01098215
0.00107422 0.00094529
-0.00574517 0.00038344
-0.00117930 -0.00342340
0.00004778 0.00058615
-0.00729703 -0.00217825
0.00160449 -0.00585217
-0.00004852 0.00180718
-0.00341472 0.00286148
0.00150201 -0.01080289
0.00104570 0.00124844
-0.00018592 0.00056026
-0.00090730 -0.00178253
0.00109094 -0.00022623
-0.00010080 -0.00808027
0.00047721 -0.00143472
-0.00149605 -0.00119865
-0.00352752 0.00085727
0.00274469 -0.00169856
0.00082723 0.00131656
-0.00147947 -0.00145361
-0.00241120 -0.00223423
-0.00308793 0.00439152
-0.00156461 0.00407004
-0.00134059 0.00121987
-0.00362136 -0.00219899
-0.00124026 -0.00144413
-0.00133382 -0.01168238
0.00099084 -0.00161793
-0.00478372 -0.00386432
-0.00211983 -0.00004521
0.00273282 0.00060726
-0.00319429 -0.00153135
0.00139788 -0.00513282
-0.00144649 -0.00169687
-0.00198625 0.00043805
-0.00255795 -0.00082058
0.00015347 0.00008191
-0.00884480 0.00021588
0.00510370 0.00444203
-0.00677848 -0.01126227
0.04943462 -0.01107935
0.00587198 -0.00354843
-0.00117785 0.00014584
-0.00501836 -0.00135335
-0.00021237 -0.00880754
-0.00004216 0.00118377
-0.00371006 -0.00213024
-0.00130302 -0.00474276
-0.00009931 -0.00080869
0.01334853 0.00008784
-0.00065686 -0.00520419
0.00421118 -0.00058732
0.00177165 -0.00165242
-0.00510380 0.04640922
-0.00166551 -0.00054983
0.00141928 -0.00004672
-0.00069422 -0.00144016
0.00019345 0.00100112
-0.01441824 0.00118370
0.00185857 0.00007503
-0.00119255 -0.00092618
-0.00286998 0.00276008
0.00038580 -0.00885272
-0.00345111 -0.00034017
-0.00624364 -0.00339950
-0.00142299 -0.00601433
0.00044086 0.00124133
-0.00951979 0.00072957
0.00079523 -0.00080634
-0.00036636 -0.00043777
-0.00593293 -0.00113481
-0.00041321 -0.00708816
0.00167628 0.00118892
-0.00184639 0.00040843
-0.00061619 -0.01206487
-0.00559213 -0.00002683
-0.00077551 0.00218138
0.00155504 -0.00559852
-0.00201798 -0.00121801
-0.00590359 0.00054057
0.00236296 -0.01452392
0.00383514 0.00114242
-0.00117548 -0.00155079
0.00018964 -0.00484292
-0.00025881 0.00126699
-0.00304473 -0.00108321
0.00077751 -0.00848369
-0.00481215 -0.00234488
-0.00348009 0.00008409
-0.00253271 -0.00056318
-0.00079597 -0.00035592
-0.00711274 -0.00105832
-0.00105949 0.00007059
0.00125092 0.00026418
-0.01149636 -0.00003718
-0.00227547 -0.00984317
-0.00140757 -0.00265574
-0.00138652 -0.00035695
0.00030512 -0.01405164
0.00060497 -0.00035864
-0.00316379 -0.00026988
-0.00112256 -0.00363289
0.00174155 0.00290157
-0.01065191 -0.00405276
0.00093312 -0.00781613
-0.00035004 -0.00167060
0.00257212 -0.00044502
-0.00424803 0.04628528
-0.00332654 -0.00170898
-0.01007793 -0.00117255
-0.00225447 -0.00063094
-0.00093263 -0.00101700
-0.01546497 0.00089803
0.00138347 -0.00367412
0.00051712 -0.00126720
-0.00114813 -0.00032984
0.00018634 0.00500326
0.00116315 0.00018722
-0.00422657 -0.00033835
-0.00061806 -0.00328076
-0.00323649 0.00145318
-0.01276529 0.00171020
-0.00098631 0.00182474
-0.00129340 -0.00229427
-0.00148151 0.00057279
-0.00113536 -0.00713297
0.00043730 0.00097011
-0.00410181 0.00136316
0.00071731 -0.00460836
0.00091932 0.00150163
-0.00877957 0.00156781
0.00070984 0.00190541
0.00183402 0.00025975
-0.00032167 -0.00020046
-0.00029710 -0.01338636
0.00113011 0.00154365
-0.00066292 -0.00188025
-0.00011453 -0.00385007
-0.00178046 0.00009804
-0.00963953 -0.00010366
0.00078356 -0.00633767
-0.00103598 -0.00161772
-0.00088366 -0.00048764
0.00121417 -0.00220856
-0.00228243 0.00099754
-0.00444835 -0.00280726
0.00020048 0.00304628
0.00139875 0.00129529
-0.00805356 0.00082149
0.00351341 -0.00349622
-0.00102487 -0.00059064
-0.01257723 -0.00126244
-0.00164574 -0.00004953
-0.00274551 0.00002197
-0.00156774 -0.00029836
0.00066125 -0.00229616
0.00162036 0.00196116
-0.01018323 0.00351922
0.00052266 -0.00357876
-0.00175766 -0.00111187
-0.01220117 0.00107617
-0.00092965 -0.00080654
0.00096062 0.00089482
-0.00579808 -0.00039520
-0.00291565 -0.00709892
-0.00118967 -0.00071637
0.00183781 -0.00050637
0.00013478 -0.00402792
-0.00100243 -0.00152451
-0.00270320 0.00034504
-0.00157890 -0.01183525
-0.00189539 0.00083074
-0.00556136 0.00083091
-0.00030781 -0.00236007
0.00302815 0.00142287
-0.00475462 -0.00190530
0.00143974 -0.00337852
-0.00543738 -0.00080401
0.00035532 -0.00151917
0.00165687 0.00008633
-0.01328753 0.00052702
-0.00603719 -0.00033727
-0.00325660 -0.00657040
-0.00251446 -0.00076116
-0.01807235 0.00368789
-0.00066194 -0.00371683
0.00012251 0.00341566
-0.00071445 -0.00721159
0.00158204 -0.00049106
0.00257739 0.00192873
-0.00249046 0.00052256
-0.00254015 0.00061645
-0.00896628 -0.00050759
0.00043122 0.00456104
0.00050826 -0.00423814
-0.00370975 -0.00161878
-0.00250912 0.00129067
0.00049674 -0.00286374
-0.00834571 0.00034352
-0.00886098 0.00361319
-0.00130979 0.00198959
-0.00315956 -0.00746296
0.04597541 -0.00571810
-0.00179061 -0.01140035
-0.00289618 -0.00186384
-0.00167730 0.00090428
0.00071301 -0.01387237
0.00358525 0.00328843
-0.00549068 -0.00376937
-0.00174526 -0.00174845
0.00061141 0.00057553
-0.01547399 0.00136359
0.00149210 -0.00260017
-0.00235452 -0.00069150
-0.00873553 0.00065489
0.00061019 -0.00129558
-0.00133418 0.00059437
0.00160052 -0.00313346
-0.00044286 -0.00297448
-0.00126762 0.00041006
-0.01221380 0.00134285
0.00054082 -0.00707675
0.00480415 0.00006310
0.00709897 -0.00269873
-0.00242378 0.04849970
-0.00250609 -0.00061373
-0.00431820 -0.00154901
-0.00056169 -0.01157265
0.00046886 0.00361757
-0.00182568 0.00225733
-0.00061805 -0.00221885
0.00131411 -0.00069996
0.00743197 0.00197938
0.00109245 -0.00171172
-0.00199978 0.00182344
-0.00358878 -0.00165787
-0.00109784 -0.00188142
0.00057510 -0.00109814
0.00708769 0.00039929
0.00003401 -0.00106006
0.00138458 0.00173360
-0.01661202 0.00249138
-0.00055557 -0.00319944
0.00170441 0.00105102
-0.00613524 -0.00312791
-0.00128358 -0.00057401
-0.00097309 -0.00029278
-0.00461395 -0.00043317
0.00022307 -0.00505520
-0.00252492 0.00035642
-0.00676074 -0.00141413
0.00064125 0.00207718
0.00043706 0.00078849
-0.00516966 -0.00327238
-0.00190794 -0.00236239
0.00112944 -0.00089494
-0.00211004 0.00139440
0.00048469 -0.00490970
-0.00135804 -0.00082936
-0.00254019 0.00045268
0.00014934 -0.01416373
0.00146477 0.00126192
0.00176422 0.00112196
0.00029328 0.00010911
-0.00117135 0.00209191
-0.01267177 0.00109464
0.00343473 -0.00747757
-0.00355417 -0.00156957
-0.00170037 0.00051554
-0.00015941 0.00675174
-0.00100469 0.00302993
-0.00264361 0.00550109
0.00009296 0.00193537
-0.00314080 -0.00192297
0.05008174 -0.00048497
-0.00153394 0.00109167
-0.00330725 -0.00114011
-0.00066924 -0.00244322
-0.00050990 -0.00956613
0.00870764 -0.00126984
-0.00636261 -0.00346412
-0.00274736 -0.00578036
0.00087708 -0.00067543
-0.02116859 -0.00032501
0.00071728 0.00105580
-0.00270764 -0.00307227
-0.00126347 0.00288216
-0.00033563 -0.01413185
0.00341269 -0.00119446
-0.00340472 -0.00181126
-0.00085178 -0.00245252
0.00047037 0.00196874
-0.00772128 -0.00298350
0.00156640 -0.00028945
-0.00345782 -0.00129165
-0.01027853 -0.00000502
-0.00023477 -0.00544426
-0.00026700 -0.00145921
-0.00190077 0.00002578
-0.00203305 0.00285056
0.00072821 -0.00300624
-0.00150505 -0.00155514
-0.00021380 0.00124661
-0.00103387 -0.00119262
-0.00191584 0.00028007
0.00002509 -0.00885606
-0.00055604 -0.00109397
-0.00675153 0.00044618
-0.00200293 -0.01199841
-0.00175464 0.00215221
-0.00155257 -0.00129138
-0.00113459 -0.00137778
-0.00160487 0.00010716
-0.00791146 0.00244862
0.00256001 0.00373147
-0.00071384 0.00232803
-0.00401735 -0.00227958
0.00010290 -0.00268721
-0.00022825 0.00133061
-0.01444729 0.00036187
-0.00047307 -0.00115368
-0.00440598 -0.00033395
-0.00129667 0.00156714
-0.00048653 -0.00579307
0.00072444 0.00078841
-0.00226099 -0.00015329
-0.00075878 -0.00604556
0.00020640 -0.00026194
-0.00094333 0.00057204
0.00154767 -0.00717086
-0.00270832 -0.00070657
-0.00689322 0.00062698
0.00072617 -0.01232352
-0.00054008 0.00222001
-0.00389297 -0.00150413
-0.00177122 -0.00691695
-0.00022051 0.00003254
-0.00899306 0.00041319
0.00113465 -0.00864189
-0.00024166 -0.00096640
-0.00352848 0.00121598
0.00077846 -0.01338263
-0.00006772 -0.00101787
-0.00347056 -0.00240235
-0.00158766 -0.00492644
0.00171914 0.00219756
-0.01585201 0.00046928
0.00088994 -0.00771074
-0.00364120 -0.00095629
-0.00130178 -0.00312048
0.00419379 -0.00159157
-0.00627465 0.00322948
-0.00291412 -0.00190643
-0.00193885 -0.00518545
0.00103371 0.00273182
-0.00418876 -0.00244387
0.00020082 -0.00246772
-0.00191173 -0.00044746
-0.00354021 -0.00000881
0.00129486 -0.01356344
-0.00249211 0.00118214
0.00196394 -0.00204287
-0.00151004 -0.00007832
-0.00152677 0.00011417
-0.01120062 0.00390040
0.00057895 -0.00114363
-0.00101112 -0.00037281
-0.00848718 -0.00032328
0.00137361 -0.00629387
0.00125806 0.00076882
0.00306221 0.00120225
-0.00036205 0.00059806
-0.00616576 0.00176380
