-0.00000000 -0.00000000
-0.00000000 0.00000000
0.00000000 0.00000000
0.00000000 -0.00000000
0.00000000 0.00000000
0.00000000 -0.00000000
0.00000000 0.00000000
-0.00000000 -0.00000000
-0.00000000 -0.00000000
0.00000000 -0.00000000
-0.00000000 0.00000000
0.00000000 0.00000000
0.00000000 0.00000000
0.00000000 -0.00000000
0.00000000 -0.00000000
0.00000000 -0.00000000
-0.00000000 -0.00000000
0.00000000 0.00000000
-0.00000000 0.00000000
0.00000000 -0.00000000
0.00000000 0.00000000
-0.00000000 0.00000000
0.00000000 0.00000000
0.00000000 -0.00000000
0.00000000 0.00000000
0.00000000 0.00000000
0.00000000 0.00000000
-0.00000000 0.00000000
0.00000000 -0.00000000
-0.00000000 -0.00000000
0.00000000 0.00000000
0.00000000 0.00000000
0.00000000 0.00000000
-0.00000000 0.00000000
0.00000000 -0.00000000
0.00000000 0.00000000
0.00000000 0.00000000
0.00000000 0.00000000
0.00000000 -0.00000000
-0.00000000 0.00000000
0.00000000 0.00000000
0.00000000 -0.00000000
0.00000000 0.00000000
0.00000000 0.00000000
0.00000000 0.00000000
-0.00000000 -0.00000000
-0.00000000 0.00000000
-0.00000000 0.00000000
0.00000000 0.00000000
0.00000000 -0.00000000
-0.00000000 -0.00000000
0.00000000 0.00000000
-0.00000000 0.00000000
-0.00000000 -0.00000000
-0.00000000 0.00000000
0.00000000 -0.00000000
0.00000000 0.00000000
-0.00000000 -0.00000000
0.00000000 -0.00000000
0.00000000 -0.00000000
0.00000000 0.00000000
0.00000000 0.00000000
-0.00000000 0.00000000
-0.00000000 0.00000000
-0.00000000 0.00000000
0.00000000 -0.00000000
0.00000000 0.00000000
0.00000000 0.00000000
0.00000000 0.00000000
0.00000000 0.00000000
0.00000000 -0.00000000
-0.00000000 0.00000000
-0.00000000 0.00000000
-0.00000000 -0.00000000
-0.00000000 -0.00000000
0.00000000 0.00000000
0.00000000 0.00000000
0.00000000 0.00000000
0.00000000 -0.00000000
-0.00000000 -0.00000000
0.00000000 0.00000000
0.00000000 0.00000000
-0.00000000 0.00000000
0.00000000 0.00000000
0.00000000 0.00000000
0.00000000 0.00000000
0.00000000 -0.00000000
0.00000000 0.00000000
0.00000000 -0.00000000
0.00000000 0.00000000
-0.00000000 0.00000000
0.00000000 0.00000000
0.00000000 0.00000000
0.00000000 0.00000000
0.00000000 0.00000000
0.00000000 -0.00000000
0.00000000 0.00000000
-0.00000000 0.00000000
0.00000000 -0.00000000
0.00000000 -0.00000000
-0.00000000 0.00000000
0.00000000 -0.00000000
0.00000000 0.00000000
0.00000000 0.00000000
0.00000000 -0.00000000
0.00000000 -0.00000000
-0.00000000 -0.00000000
-0.00000000 0.00000000
-0.01022778 0.00014600
0.00588742 -0.00239540
0.01494238 0.00348559
-0.00379410 0.00554077
-0.00335883 0.00000000
-0.00000000 0.00000000
0.00000000 0.00000000
-0.00000000 -0.00000000
-0.00000000 -0.00000000
0.00765126 0.00709303
-0.00402304 0.01073952
0.01067249 0.00095869
-0.00184275 0.00585611
-0.00170157 -0.00294304
-0.00201843 -0.00517249
-0.00201847 0.00110426
-0.00264233 -0.00379451
0.00072046 -0.00408332
0.00145550 0.00232416
0.00865864 -0.00246213
-0.00177361 0.00885423
-0.00450342 -0.00099492
-0.00635337 0.00170367
0.00382459 0.00472109
0.00372229 0.01124748
0.00032541 -0.00400984
0.00560948 0.00100841
-0.00177720 -0.00285108
-0.00173547 -0.00678382
0.00521429 -0.00515823
-0.00649872 -0.00598982
-0.00385952 -0.00228225
0.00166405 0.00807943
0.00278958 0.00572540
0.01076842 0.00121930
0.00261115 -0.00226653
0.00041336 -0.00197586
-0.00426071 0.00523893
0.00513042 -0.00026411
-0.00415025 0.00209591
-0.00331442 0.00183260
-0.00148492 -0.00342144
-0.00099928 -0.00053249
0.00111959 -0.00438855
0.00058243 0.00233762
0.00416980 0.00849489
0.00411513 0.01159473
0.00070454 -0.00122962
-0.00284649 0.00210938
-0.00815756 0.00053320
-0.00255720 0.00674637
0.00009714 0.00573529
-0.00103693 -0.00062191
-0.00335140 -0.00758654
-0.00495380 0.00769637
0.01175233 -0.00510235
0.00399974 0.00128514
-0.00972958 -0.00218800
-0.00860060 0.00268883
0.00454544 0.00494542
0.00004354 0.00650528
0.00524698 -0.00622440
-0.00238034 -0.00435788
0.00194772 0.00351494
0.00230738 -0.00128604
0.00336217 0.00488256
-0.00451121 -0.00049708
0.00477471 0.00404452
0.01645400 0.01273536
0.00078368 0.00375973
0.01403422 -0.00526554
0.00315049 -0.00283161
-0.00228673 -0.00740484
-0.00818809 -0.00554550
-0.00777355 -0.00204926
-0.00660967 -0.00497156
0.00072434 0.00692896
0.00279447 -0.00449072
-0.00815048 0.00130924
0.00055253 0.00345896
-0.00813066 -0.00316716
-0.00488523 0.00409755
0.00917326 0.00191100
0.00927893 0.00144749
-0.00275952 0.00101251
-0.00469447 0.00632361
0.00808348 0.00005792
0.00046318 0.00567685
0.00134752 0.00044213
-0.00528537 -0.00159092
-0.00832830 -0.00318632
-0.00427933 -0.00616845
-0.00699719 -0.00184754
-0.00203651 -0.00281620
-0.00073853 0.00088724
-0.00156704 -0.00287647
-0.00306218 0.00843327
-0.00065348 -0.00588549
-0.00054489 0.00421506
0.00571435 0.00478041
-0.00449700 0.01196715
0.00704816 -0.00366393
-0.00189666 -0.00280042
-0.00719114 0.00189059
0.00690788 0.00088413
-0.00029879 0.00201248
-0.00174883 -0.00058453
0.00053077 -0.00230729
-0.00551378 -0.00058707
0.01343617 -0.01107975
0.00672307 0.00093901
0.00778291 0.00646753
-0.00284367 0.00000000
-0.00000000 0.00000000
-0.00000000 -0.00000000
-0.00000000 -0.00000000
-0.00000000 0.00000000
0.00289159 0.00038826
0.00243820 0.00602722
0.00811496 -0.00588271
-0.00193459 0.00090803
0.00076737 -0.00480900
0.00684689 -0.01114549
0.00204238 0.00441553
0.00715008 -0.00110774
0.00382080 -0.00501991
-0.00619089 -0.00534565
0.00409699 -0.00603668
0.00934014 0.00781848
-0.00447885 0.00182627
-0.00143084 -0.00199385
-0.00335859 0.00456693
-0.00319740 0.00738352
-0.00315827 0.00486331
0.00963427 0.00200852
-0.00177517 0.00299661
-0.00494386 0.00790823
0.00536344 -0.00226010
-0.00932078 -0.00191347
-0.00818294 -0.00775783
0.00406784 -0.00257437
-0.00490245 0.01376761
0.01143010 -0.00054110
-0.00009226 -0.00214882
-0.00030353 -0.00025579
0.00354520 0.00022733
-0.00039493 -0.00647117
0.00342174 0.00100925
-0.00443758 -0.00140444
-0.00262529 -0.00466575
-0.00285286 0.00038485
-0.00034322 -0.00482290
-0.00039427 -0.00142885
0.00122721 0.00368503
0.00238921 0.00356002
0.00626385 -0.00019346
0.00412247 -0.00125261
-0.00356621 -0.00008918
-0.00175387 0.00359674
-0.00119810 0.00900766
-0.00131914 0.00499848
0.00049234 0.00103263
-0.00356585 0.00942837
0.00372872 -0.01206501
0.01612246 0.01088394
-0.00683395 -0.00349071
-0.00813671 0.00046478
0.00020104 0.00603906
-0.00594582 0.00040634
-0.00082231 -0.00199645
0.00331161 -0.00088494
0.00101776 0.00128921
-0.00073302 0.00027947
0.00313311 0.00067109
-0.00192591 0.00134898
0.00429376 0.00368066
0.01172436 0.00341122
-0.00546667 0.00716992
0.01373365 -0.00178338
-0.00668184 0.00571307
-0.00329861 -0.00321024
-0.00788420 -0.00080992
-0.00167834 -0.00067608
-0.00234499 -0.00132965
-0.00233338 0.00757284
0.00371190 -0.00511135
0.01112855 0.00266651
-0.00223837 -0.00925923
0.00146079 0.00146046
-0.00140589 -0.00325884
0.00974127 -0.00401352
0.00704434 0.00105576
0.00371023 0.00270876
-0.00082293 0.00402757
0.00101068 -0.00790629
0.01253992 0.00194090
-0.00244079 -0.00857959
-0.00449923 -0.00186538
-0.00506082 0.00183457
-0.00268098 -0.00446301
-0.00018008 -0.00427533
0.00294325 -0.00358160
-0.00191517 0.00426038
-0.00304205 -0.00176895
0.00322932 0.00607622
-0.00188967 -0.00636578
0.00602552 -0.00279015
-0.00316507 -0.00357553
0.00521139 0.00654308
0.01089298 -0.00477442
0.00340852 -0.00296109
0.00107491 -0.00423025
0.00709553 -0.00019822
0.00794021 0.00085392
-0.00008112 -0.00149225
0.00421243 -0.00403848
0.00000000 0.00000000
0.00000000 -0.00000000
-0.00000000 -0.00000000
-0.00000000 -0.00000000
-0.00000000 -0.00000000
-0.00000000 0.00000000
-0.00000000 -0.00000000
-0.00000000 0.00000000
-0.00000000 0.00000000
-0.00000000 0.00000000
0.00000000 -0.00000000
0.00000000 0.00000000
-0.00000000 -0.00000000
-0.00000000 -0.00000000
-0.00000000 0.00000000
-0.00000000 0.00000000
0.00000000 -0.00000000
-0.00000000 -0.00000000
0.00000000 0.00000000
0.00000000 0.00000000
-0.00000000 0.00000000
-0.00000000 -0.00000000
0.00000000 0.00000000
-0.00000000 -0.00000000
-0.00000000 -0.00000000
-0.00000000 -0.00000000
-0.00000000 -0.00000000
0.00000000 0.00000000
0.00000000 0.00000000
0.00000000 0.00000000
0.00000000 0.00000000
0.00000000 0.00000000
-0.00000000 0.00000000
-0.00000000 -0.00000000
0.00000000 -0.00000000
-0.00000000 0.00000000
0.00000000 0.00000000
0.00000000 -0.00000000
0.00000000 -0.00000000
-0.00000000 -0.00000000
-0.00000000 0.00000000
0.00000000 -0.00000000
0.00000000 0.00000000
0.00000000 0.00000000
0.00000000 0.00000000
-0.00000000 -0.00000000
0.00000000 -0.00000000
-0.00000000 0.00000000
0.00000000 -0.00000000
-0.00000000 0.00000000
0.00000000 -0.00000000
0.00000000 -0.00000000
-0.00000000 0.00000000
0.00000000 -0.00000000
-0.00000000 -0.00000000
0.00000000 -0.00000000
0.00000000 0.00000000
-0.00000000 -0.00000000
0.00000000 0.00000000
0.00000000 0.00000000
-0.00000000 -0.00000000
0.00000000 -0.00000000
-0.00000000 0.00000000
-0.00000000 0.00000000
-0.00000000 -0.00000000
-0.00000000 0.00000000
-0.00000000 -0.00000000
-0.00000000 -0.00000000
-0.00000000 -0.00000000
-0.00000000 -0.00000000
0.00000000 -0.00000000
-0.00000000 -0.00000000
-0.00000000 0.00000000
0.00000000 -0.00000000
0.00000000 0.00000000
-0.00000000 -0.00000000
-0.00000000 -0.00000000
0.00000000 0.00000000
-0.00000000 0.00000000
0.00000000 -0.00000000
-0.00000000 -0.00000000
0.00000000 0.00000000
0.00000000 -0.00000000
-0.00000000 -0.00000000
-0.00000000 -0.00000000
-0.00000000 -0.00000000
-0.00000000 -0.00000000
-0.00000000 0.00000000
0.00000000 -0.00000000
-0.00000000 -0.00000000
0.00000000 0.00000000
0.00000000 0.00000000
0.00000000 0.00000000
0.00000000 0.00000000
0.00000000 -0.00000000
0.00000000 0.00000000
-0.00000000 0.00000000
0.00000000 -0.00000000
-0.00000000 -0.00000000
0.00000000 0.00000000
-0.00000000 0.00000000
0.00000000 0.00000000
0.00000000 -0.00000000
-0.00000000 -0.00000000
0.00000000 -0.00000000
-0.00000000 0.00000000
0.00000000 0.00000000
0.00000000 0.00000000
-0.00449146 -0.00411049
-0.00601498 -0.00479114
0.00656205 -0.00214076
-0.00220971 0.00552039
-0.00149967 -0.00000000
0.00000000 0.00000000
-0.00000000 -0.00000000
0.00000000 0.00000000
0.00000000 0.00000000
0.00669643 0.00042650
-0.00601985 0.01154753
0.01516001 0.00013854
-0.00141014 0.00913120
0.00187705 -0.00267105
0.01810440 0.00340884
-0.00560156 -0.00051189
-0.00459756 0.01079742
-0.00634107 0.00171117
0.00033667 -0.00375235
0.01100466 -0.00000938
-0.00662090 0.00698550
-0.00635714 -0.00202162
-0.00065949 0.00809903
-0.00230233 -0.00477776
0.00795111 0.00990380
-0.00267565 0.00331484
0.01047557 0.00361914
-0.00399602 0.00522833
0.00574240 0.00571321
0.00481285 0.00075933
-0.00123675 0.00090977
-0.00142226 -0.00213391
0.00480868 0.00980629
-0.00639271 0.00202169
0.01592450 0.00238678
-0.00295759 0.00564123
0.00006933 -0.00715869
-0.00561343 0.00887595
0.00246659 -0.00310902
-0.00141076 0.00235338
-0.00569687 -0.00270131
0.00095439 -0.00056910
-0.00045356 0.00115708
-0.00013242 -0.00095724
0.00186030 -0.00322540
0.00284987 -0.00406887
-0.00645432 0.00150123
0.00584608 -0.00006921
-0.00895807 0.00797829
-0.00789406 -0.00099280
-0.01076061 -0.00549588
-0.01034611 0.00012361
-0.00622796 -0.00747158
-0.00870173 -0.00095847
-0.00194219 0.00782008
0.00666647 -0.01744773
0.00616172 0.01571474
-0.01256961 -0.00527321
-0.00415542 -0.00088859
-0.00367979 -0.00488813
0.00041165 -0.00246209
0.00386594 -0.00819009
-0.00415874 -0.00151416
0.00258727 0.00245105
-0.00076223 -0.00209850
0.00502882 0.00345832
-0.00492525 -0.00205877
0.00469471 0.00512441
0.02106092 0.01829029
-0.00502702 0.00278841
0.01869156 0.00000015
-0.00792853 0.00456123
-0.00945909 0.01091237
0.00067912 -0.00626812
-0.00642946 0.00378559
-0.00270904 -0.00811657
-0.00282260 -0.00011511
0.01706159 -0.00514188
-0.00791036 -0.00144619
-0.00353818 -0.00252143
-0.00292519 -0.00641342
0.00565238 -0.00321144
-0.00102856 0.00699487
0.00781346 -0.00210608
-0.00346895 0.00556911
-0.00075187 0.00391873
0.01263867 0.00036864
-0.00297260 0.00237801
-0.00127688 -0.00656320
-0.00281325 -0.00009412
-0.01054122 -0.01042510
-0.00294540 -0.01232355
-0.00458887 -0.00940284
-0.00093373 -0.00400492
-0.00121720 0.00762416
-0.00008177 -0.00633486
0.00838687 0.00364610
-0.00130324 -0.01246891
0.00749156 0.00985436
-0.00042497 -0.00936005
-0.00921386 0.00897004
0.01299549 -0.00450932
-0.00398930 0.00783140
-0.00178223 -0.00631158
0.00728260 0.00361703
0.00529206 0.00459781
-0.00090862 -0.00021303
0.00509996 -0.00547424
0.00000000 0.00000000
-0.00000000 -0.00000000
0.00000000 -0.00000000
-0.00000000 -0.00000000
-0.00000000 0.00000000
0.00000000 0.00000000
0.00000000 0.00000000
0.00000000 -0.00000000
0.00000000 0.00000000
0.00000000 0.00000000
-0.00000000 0.00000000
0.00000000 0.00000000
-0.00000000 0.00000000
0.00000000 -0.00000000
-0.00000000 -0.00000000
-0.00000000 -0.00000000
-0.00000000 -0.00000000
-0.00000000 -0.00000000
-0.00000000 -0.00000000
0.00000000 -0.00000000
0.00000000 0.00000000
-0.00000000 0.00000000
-0.00000000 0.00000000
0.00000000 -0.00000000
-0.00000000 0.00000000
-0.00000000 -0.00000000
-0.00000000 -0.00000000
-0.00000000 0.00000000
-0.00000000 0.00000000
-0.00000000 0.00000000
-0.00000000 -0.00000000
0.00000000 -0.00000000
0.00000000 0.00000000
-0.00000000 0.00000000
0.00000000 -0.00000000
0.00000000 0.00000000
0.00000000 0.00000000
0.00000000 0.00000000
0.00000000 0.00000000
-0.00000000 -0.00000000
-0.00000000 0.00000000
0.00000000 0.00000000
0.00000000 0.00000000
0.00000000 0.00000000
0.00000000 0.00000000
-0.00000000 0.00000000
0.00000000 -0.00000000
-0.00000000 -0.00000000
-0.00000000 0.00000000
-0.00000000 -0.00000000
0.00000000 -0.00000000
0.00000000 -0.00000000
-0.00000000 -0.00000000
0.00000000 -0.00000000
-0.00000000 0.00000000
0.00000000 -0.00000000
0.00000000 -0.00000000
-0.00000000 0.00000000
-0.00000000 -0.00000000
0.00000000 0.00000000
-0.00000000 -0.00000000
0.00000000 0.00000000
-0.00000000 -0.00000000
0.00000000 0.00000000
0.00000000 -0.00000000
0.00000000 0.00000000
-0.00000000 0.00000000
0.00000000 -0.00000000
0.00000000 0.00000000
-0.00000000 -0.00000000
0.00000000 -0.00000000
-0.00000000 -0.00000000
-0.00000000 -0.00000000
-0.00000000 -0.00000000
-0.00000000 -0.00000000
-0.00000000 -0.00000000
0.00000000 0.00000000
-0.00000000 -0.00000000
-0.00000000 -0.00000000
-0.00000000 -0.00000000
-0.00000000 0.00000000
0.00000000 0.00000000
0.00000000 0.00000000
0.00000000 -0.00000000
-0.00000000 0.00000000
0.00000000 0.00000000
-0.00000000 -0.00000000
-0.00000000 0.00000000
-0.00000000 -0.00000000
-0.00000000 0.00000000
0.00000000 -0.00000000
-0.00000000 -0.00000000
-0.00000000 -0.00000000
0.00000000 -0.00000000
-0.00000000 0.00000000
-0.00000000 -0.00000000
-0.00000000 0.00000000
-0.00000000 -0.00000000
-0.00000000 0.00000000
0.00000000 0.00000000
-0.00000000 0.00000000
0.00000000 -0.00000000
-0.00000000 0.00000000
0.00000000 -0.00000000
-0.00000000 -0.00000000
-0.00000000 -0.00000000
-0.00000000 -0.00000000
-0.00000000 -0.00000000
-0.00818354 0.01586948
0.00606821 0.00190502
-0.01343333 -0.01756943
-0.00571668 -0.00563767
-0.01978481 0.00000000
0.00000000 0.00000000
-0.00000000 0.00000000
0.00000000 0.00000000
-0.00000000 -0.00000000
0.00648261 -0.00102669
-0.00829757 -0.00223911
0.00420652 0.00715474
-0.00930166 0.00509952
-0.00361159 -0.01233287
-0.02156237 -0.00096202
-0.00573647 0.02362298
-0.00571990 0.00887570
-0.00982218 -0.00922897
0.00662572 0.00641961
-0.00403944 -0.00021792
-0.00650781 -0.00699951
-0.01277221 -0.01348770
-0.00439402 -0.00738921
0.00322192 0.00478789
-0.00257658 -0.00981690
-0.00130444 -0.00373887
-0.00438802 -0.01253731
-0.00727762 -0.00582331
-0.00221009 -0.00446783
0.02314960 0.01061787
-0.01260972 0.01243561
0.00513949 0.00871361
0.00356541 -0.01021429
0.00113405 -0.00101623
0.00629005 -0.00775071
0.00235507 0.01153245
0.00660250 0.00504485
-0.00421136 -0.00184015
-0.01025060 0.00029074
-0.00678892 -0.00359125
-0.00373819 -0.01467653
-0.01025023 -0.00981860
-0.00995203 -0.00830909
-0.01263023 -0.01093643
-0.00794938 -0.00848992
0.00510736 0.00730310
-0.00297231 0.00876803
-0.00538235 0.00260403
0.00198563 0.00897656
0.00721963 0.01498344
0.01936949 -0.00024772
0.00796823 0.00009711
-0.00112985 -0.00340051
-0.00285190 -0.01036189
0.01109794 0.01214354
0.00012873 0.01316947
0.00342075 0.00239673
-0.00168659 0.00255014
0.01709948 0.00325541
0.00241445 0.00188634
0.00225524 -0.01637420
-0.00830233 -0.00779344
-0.00424022 -0.00847313
0.00059326 0.00079907
0.00219935 0.00068637
0.00152575 0.00264770
0.00240855 0.00181842
0.00374019 -0.00035499
-0.00830699 -0.00866553
0.00064750 0.00144014
0.00906998 0.00289063
0.00184869 -0.00618756
-0.00279929 -0.00204588
-0.00807801 0.00987521
0.02073172 -0.00312515
0.00723468 -0.00929797
-0.00358790 -0.00601925
0.00096441 0.00080826
0.00363525 0.02792354
0.00395779 -0.00306863
-0.00706858 0.00818202
0.00324163 0.02611087
0.00224399 0.00333541
-0.00854977 -0.00995952
-0.01218622 0.00781882
-0.00229267 -0.00633197
-0.00471192 -0.00864778
0.01316436 0.01812410
0.01385478 0.00436563
-0.00432613 0.00969440
0.00979515 0.00430551
0.00460671 0.00989431
0.00372216 0.00301839
0.00147770 0.00445071
-0.01285867 -0.00811407
0.00153541 0.01095817
0.00556315 0.01703200
-0.01436889 -0.01015166
-0.01158959 -0.00039677
0.01082492 0.00616956
0.00210561 -0.00647416
-0.00656548 0.00495800
-0.00545680 0.01295863
0.00398741 -0.00487363
-0.00184621 -0.00425769
-0.00139471 0.02004325
0.01557547 0.00133129
0.00525631 0.01268125
-0.00081721 0.00306164
0.00604069 -0.00597540
0.00819123 0.00277202
-0.00141135 0.00322258
-0.00069867 0.00000000
0.00000000 -0.00000000
0.00000000 0.00000000
-0.00000000 0.00000000
0.00000000 0.00000000
0.00563144 0.00932097
-0.00067019 0.00798169
0.00831355 0.00578694
0.00475156 0.00637836
0.00825132 -0.00015467
0.01044313 0.00366785
-0.00145131 0.00143779
0.00308025 0.00293117
0.00781583 0.00291092
0.00322931 0.00283040
0.00015899 0.00459878
0.01030273 0.00414484
-0.00059590 0.01050646
0.00222582 0.00303594
0.00254457 0.00138856
0.00202658 0.00846320
-0.00066612 0.00342387
0.00335722 0.00338872
-0.00192758 0.01110642
0.00234776 0.00615640
0.01349296 0.00776727
0.00053197 0.00587796
0.00198646 0.00000599
0.00188749 -0.00209591
0.00477303 0.01223543
0.00109250 -0.00110198
0.01273918 0.00580831
0.00239747 0.00185574
-0.00197753 0.00195032
0.00263989 -0.00013477
-0.00322326 0.00030935
-0.00018976 0.00827215
0.00480148 -0.00290752
0.00640298 0.01249989
0.00675474 -0.00178658
0.00588115 0.00765286
0.00665387 0.00564223
-0.00206636 0.01277060
0.00723852 0.00271347
0.00116180 0.00628504
0.00576793 0.00160420
-0.00259473 0.00058728
0.00338557 0.00505096
0.00468617 0.00192843
0.00826046 0.00373264
0.00575031 0.00467927
-0.00330854 0.00557212
0.01118994 0.00387750
-0.00853969 0.01129548
0.00735037 0.00476154
0.00447475 0.00306746
-0.00240943 0.00792650
0.00320444 -0.00698711
-0.00309476 -0.00637311
0.00275812 0.00336141
0.00221737 0.00259753
0.00403133 0.00324544
0.00035318 0.00293744
0.00416602 0.00980595
0.01445151 0.01195304
0.00291724 0.00894268
0.01191291 -0.00704659
0.00433275 0.01147989
-0.00276475 0.00523518
-0.00653211 0.00124694
0.00696914 -0.00209481
-0.00171033 0.00755668
0.00420871 0.00857605
0.01321462 0.00171598
0.00061941 0.00919030
0.01135378 -0.00029121
0.00160988 0.00716246
0.00412812 0.00329663
0.00710583 0.00098395
0.00977956 0.00285621
-0.00349042 0.00246418
0.00626053 0.00628141
0.00731131 -0.00004596
0.00511701 0.00377707
0.00338839 -0.00161043
0.00315564 0.00814011
0.00015976 0.00020824
-0.00250058 -0.00250892
0.00989253 -0.00261084
-0.00306708 0.01276115
0.00613339 0.00309501
0.00667810 0.00186923
0.00098638 0.00545048
-0.00464275 -0.00143450
0.01198730 0.00430152
0.00618154 -0.00051611
-0.00576861 0.00717739
0.01022661 0.00511928
-0.00241922 0.00390868
0.00784661 -0.00410170
0.01046067 0.00321167
0.00563763 0.00655261
0.00598624 0.00166253
-0.00085283 0.00313798
