-0.00012354 -0.00056108
-0.00027645 -0.00000600
-0.00046483 -0.00004305
-0.00019990 -0.00031036
-0.00022046 0.00000000
-0.00000000 -0.00000000
-0.00000000 0.00000000
0.00000000 0.00000000
-0.00000000 0.00000000
0.00004763 0.00022909
0.00036649 0.00015546
0.00039369 0.00042424
0.00039607 0.00050743
0.00007550 0.00012776
-0.00020909 -0.00003676
0.00045327 0.00006977
-0.00003125 0.00017080
-0.00038765 -0.00002703
0.00017592 -0.00004820
0.00054946 0.00026184
-0.00064564 0.00077081
0.00013442 -0.00050984
0.00065067 -0.00007317
-0.00041907 0.00007630
0.00002658 -0.00041837
0.00017481 0.00001869
-0.00020209 -0.00007384
-0.00001946 0.00062250
0.00001374 -0.00002702
0.00032835 -0.00014070
0.00009484 0.00007336
-0.00036144 0.00008878
-0.00004526 0.00055358
0.00008016 -0.00021107
0.00057896 0.00019567
-0.00002822 0.00049427
0.00004058 -0.00011303
0.00005544 -0.00000331
-0.00001115 0.00028590
0.00025554 0.00023127
0.00011669 -0.00010050
-0.00029983 0.00025824
-0.00019100 -0.00087360
0.00015253 -0.00001294
-0.00065758 0.00015633
0.00024383 0.00019512
0.00065676 0.00027309
0.00030329 0.00091813
0.00063229 0.00056400
0.00087886 -0.00014329
-0.00057520 0.00002894
-0.00031872 -0.00050335
0.00018837 -0.00026489
-0.00039097 0.00011522
0.00041594 0.00021925
0.00068773 0.00063948
0.00026417 0.00096889
0.00068471 0.00045462
0.00100389 0.00003123
-0.00053174 -0.00006336
0.00020254 -0.00057130
0.00031221 0.00013380
-0.00024263 0.00028397
-0.00000000 -0.00000000
-0.00000000 -0.00000000
0.00000000 0.00000000
-0.00000000 0.00000000
0.00000000 0.00019470
-0.00004353 0.00038409
0.00025784 -0.00019261
0.00019534 0.00007969
-0.00026173 0.00000002
0.00019959 0.00003624
-0.00018933 0.00047268
0.00004483 -0.00027759
0.00001806 -0.00010690
-0.00013703 0.00016387
0.00041862 0.00021386
0.00019515 0.00050183
-0.00006747 0.00017971
0.00023520 -0.00012589
-0.00017042 -0.00052323
-0.00003709 -0.00010056
-0.00042383 0.00002780
0.00012682 -0.00016459
-0.00020812 0.00003537
0.00056691 0.00061998
0.00026937 0.00045366
0.00037711 0.00045059
0.00042679 0.00033978
-0.00032393 -0.00042195
-0.00011323 -0.00030982
-0.00044855 -0.00021560
-0.00026952 -0.00069999
-0.00052080 -0.00012672
0.00036522 0.00009953
0.00021043 0.00002347
-0.00010220 0.00031906
0.00005590 -0.00009281
0.00005868 0.00001783
0.00033401 0.00007877
0.00020231 0.00036018
0.00044249 0.00038764
0.00013073 0.00023726
0.00033015 0.00011168
0.00030767 0.00051804
0.00007520 0.00010419
0.00038548 0.00002132
0.00273611 0.00629089
0.00124227 0.01049154
0.00969425 0.00285673
-0.00301523 -0.00639767
-0.00266350 0.00000000
-0.00000000 -0.00000000
0.00000000 0.00000000
-0.00000000 -0.00000000
0.00000000 -0.00000000
0.00103706 -0.00146206
-0.00078527 0.00213183
0.00074475 -0.00143592
0.00047102 -0.00445213
-0.00250519 0.00978859
0.00602458 -0.00031326
-0.00045815 -0.00919672
-0.00637943 -0.00049566
-0.00252564 -0.00327841
0.00438993 0.00838461
-0.00120763 -0.00330437
0.00053639 -0.00098775
-0.00135426 -0.00035013
-0.00000468 0.00050061
0.00368701 -0.00219291
0.00406450 0.00529925
-0.00390655 -0.00480413
-0.00570039 -0.00203335
0.01508565 0.00260942
-0.00653249 0.00715854
-0.00011143 0.00041116
0.00496320 0.00291606
0.00452706 0.00235689
0.01106436 -0.00181226
-0.00142541 0.00249734
-0.00271071 0.00243087
0.00204967 -0.00043701
0.00226967 0.00018034
-0.00027341 0.00378418
0.00301125 -0.00272976
-0.00302188 -0.00344673
-0.00091074 -0.00525337
-0.00852087 -0.00342884
-0.00314330 -0.00521848
-0.00124948 0.00046883
-0.00143597 -0.00140206
0.00034176 0.00098161
0.00272534 -0.00146671
0.00031062 -0.00061187
-0.00114531 -0.00148490
-0.00166583 0.00776285
0.00817252 -0.00156862
0.00291012 0.00567618
0.00023748 0.00073554
-0.00295359 -0.00417901
-0.00200334 0.00716396
-0.00187621 -0.00638825
0.00626891 0.00126471
0.00174340 0.00259848
0.00026799 0.00655814
0.00731557 0.00383968
0.00208198 0.01336844
-0.00110305 -0.00399722
-0.00351223 -0.00211442
0.00000000 0.00000000
-0.00000000 -0.00000000
-0.00000000 -0.00000000
-0.00000000 -0.00000000
-0.00000000 -0.00580211
0.00478350 0.00081036
-0.00318746 -0.00486253
-0.00350716 0.00199334
-0.00040530 -0.00446018
0.00995165 0.00129020
-0.00025084 0.00100944
-0.00811099 -0.00165671
0.00253621 -0.00134814
-0.00215589 0.01133545
0.00549845 -0.00088919
-0.00258701 -0.00309557
-0.00182422 0.00492373
-0.00484664 0.00042826
0.00499274 0.00555147
-0.00358356 0.00680323
0.00818110 -0.00250478
-0.00366708 -0.00570202
-0.00023138 0.00831356
0.00316499 -0.00063671
-0.00411861 -0.00530607
-0.00408600 0.00208021
-0.00122919 -0.00114371
0.00588646 0.00577945
0.00309033 0.00465375
-0.00215691 -0.00454788
-0.00020948 0.00106700
0.00196430 0.00861766
-0.00011511 -0.00350006
-0.00118329 0.00005087
0.00302302 -0.00477175
-0.00432478 -0.00254410
0.00031580 -0.00140343
-0.00178009 0.00154486
0.00046582 -0.00209058
0.00120607 -0.00422575
-0.00152127 0.00194321
0.00084756 -0.00036806
0.00350124 0.00094416
-0.00110690 0.00027969
0.00045045 0.00123920
-0.00000000 0.00000000
0.00000000 -0.00000000
0.00000000 -0.00000000
-0.00000000 0.00000000
-0.00000000 -0.00000000
-0.00000000 -0.00000000
0.00000000 0.00000000
-0.00000000 -0.00000000
0.00000000 -0.00000000
-0.00000000 -0.00000000
0.00000000 -0.00000000
-0.00000000 0.00000000
-0.00000000 0.00000000
-0.00000000 -0.00000000
0.00000000 0.00000000
0.00000000 0.00000000
0.00000000 -0.00000000
0.00000000 -0.00000000
-0.00000000 -0.00000000
-0.00000000 -0.00000000
0.00000000 -0.00000000
-0.00000000 0.00000000
0.00000000 -0.00000000
-0.00000000 0.00000000
-0.00000000 -0.00000000
0.00000000 -0.00000000
-0.00000000 -0.00000000
-0.00000000 0.00000000
0.00000000 0.00000000
0.00000000 -0.00000000
0.00000000 0.00000000
-0.00000000 -0.00000000
-0.00000000 -0.00000000
-0.00000000 0.00000000
-0.00000000 -0.00000000
-0.00000000 0.00000000
-0.00000000 -0.00000000
0.00000000 -0.00000000
-0.00000000 0.00000000
-0.00000000 -0.00000000
0.00000000 -0.00000000
0.00000000 0.00000000
-0.00000000 0.00000000
0.00000000 0.00000000
0.00000000 0.00000000
-0.00000000 -0.00000000
-0.00000000 -0.00000000
0.00000000 0.00000000
-0.00000000 0.00000000
0.00000000 -0.00000000
0.00000000 -0.00000000
-0.00000000 0.00000000
-0.00000000 -0.00000000
0.00000000 -0.00000000
-0.00000000 -0.00000000
-0.00000000 -0.00000000
-0.00000000 -0.00000000
-0.00000000 -0.00000000
0.00000000 -0.00000000
0.00000000 0.00000000
-0.00000000 -0.00000000
0.00000000 0.00000000
-0.00000000 -0.00000000
-0.00000000 0.00000000
-0.00000000 -0.00000000
0.00000000 -0.00000000
-0.00000000 -0.00000000
-0.00000000 -0.00000000
0.00000000 0.00000000
-0.00000000 0.00000000
0.00000000 -0.00000000
0.00000000 0.00000000
-0.00000000 0.00000000
0.00000000 0.00000000
0.00000000 -0.00000000
0.00000000 0.00000000
-0.00000000 -0.00000000
-0.00000000 0.00000000
0.00000000 -0.00000000
0.00000000 -0.00000000
0.00000000 -0.00000000
-0.00000000 -0.00000000
0.00000000 -0.00000000
0.00000000 -0.00000000
-0.00000000 0.00000000
-0.00000000 -0.00000000
-0.00000000 -0.00000000
-0.00000000 -0.00000000
-0.00000000 -0.00000000
-0.00000000 -0.00000000
-0.00000000 0.00000000
-0.00000000 0.00000000
0.00000000 -0.00000000
0.00000000 0.00000000
-0.00000000 -0.00000000
-0.00000000 -0.00000000
-0.00000000 -0.00000000
-0.00000000 -0.00000000
-0.00000000 -0.00000000
-0.00000000 -0.00000000
-0.00000000 -0.00000000
0.00000000 0.00000000
-0.00000000 0.00000000
-0.00000000 -0.00000000
-0.00000000 0.00000000
0.00000000 -0.00000000
0.00000000 -0.00000000
-0.00000000 -0.00000000
-0.00029063 -0.00019471
0.00003660 -0.00002043
0.00026869 0.00010190
0.00020736 0.00055202
0.00031998 0.00000000
0.00000000 -0.00000000
0.00000000 0.00000000
-0.00000000 0.00000000
0.00000000 -0.00000000
-0.00023297 -0.00026877
0.00005743 0.00002953
0.00006850 0.00003927
0.00008017 0.00031807
-0.00008757 -0.00004088
0.00014233 0.00006875
0.00022793 0.00052229
0.00012142 -0.00032272
-0.00016320 -0.00012314
-0.00014199 0.00000538
-0.00005971 0.00005034
0.00039116 0.00028836
-0.00017422 0.00023181
0.00021897 -0.00038527
-0.00015273 -0.00009050
-0.00018383 0.00013119
-0.00002667 0.00002965
0.00040889 0.00008135
0.00013974 0.00043494
0.00039820 0.00046341
0.00034444 -0.00024026
0.00004241 0.00023022
-0.00007951 0.00000155
0.00011703 0.00008101
0.00002848 0.00036492
0.00016929 -0.00006268
0.00009603 0.00017762
-0.00021837 -0.00012676
0.00026536 -0.00002525
0.00001342 0.00001226
0.00013441 0.00028732
-0.00011633 -0.00044254
-0.00029715 -0.00023351
-0.00018932 0.00003689
0.00002581 -0.00026910
-0.00014172 -0.00029371
-0.00007079 0.00008019
0.00014781 0.00001645
0.00013692 0.00014980
-0.00006259 0.00012316
0.00002414 -0.00037335
-0.00013363 -0.00022370
0.00033290 0.00056638
0.00010212 -0.00005314
0.00040279 0.00017061
-0.00001524 0.00012549
-0.00010187 -0.00004059
0.00026519 0.00012505
-0.00006844 0.00017356
0.00037299 -0.00029373
0.00013872 0.00015455
0.00005120 0.00042879
0.00022818 -0.00004470
0.00047103 0.00021337
-0.00000000 -0.00000000
-0.00000000 0.00000000
0.00000000 -0.00000000
0.00000000 0.00000000
-0.00000000 -0.00014297
-0.00005111 -0.00005997
-0.00020782 0.00027078
0.00033493 -0.00015042
-0.00001627 0.00006808
0.00016765 0.00020326
-0.00001289 0.00054578
0.00041617 0.00004428
0.00012581 0.00006727
-0.00015780 0.00003592
0.00003246 0.00020215
0.00043660 0.00054417
0.00007110 0.00001986
0.00018413 -0.00006685
-0.00050430 -0.00017322
0.00001444 0.00000311
0.00035782 0.00005691
-0.00002484 0.00043544
0.00006679 -0.00000736
-0.00016015 -0.00004921
0.00033952 0.00035866
0.00003399 -0.00012208
-0.00008647 -0.00005946
-0.00039172 -0.00005634
-0.00013901 0.00027705
0.00054760 0.00020077
-0.00022055 0.00009404
0.00003408 -0.00004162
-0.00004055 -0.00023640
0.00012569 0.00008822
-0.00023172 -0.00018693
0.00019139 0.00011165
-0.00029106 -0.00025970
0.00003238 0.00003312
0.00004122 0.00008258
-0.00007687 0.00020461
-0.00010921 -0.00003386
0.00005077 0.00029307
-0.00000781 0.00007905
0.00005382 -0.00003404
0.00011961 0.00002051
-0.00000000 -0.00000000
-0.00000000 0.00000000
0.00000000 0.00000000
-0.00000000 -0.00000000
0.00000000 -0.00000000
0.00000000 0.00000000
-0.00000000 0.00000000
-0.00000000 -0.00000000
-0.00000000 0.00000000
-0.00000000 -0.00000000
-0.00000000 0.00000000
0.00000000 -0.00000000
0.00000000 -0.00000000
-0.00000000 0.00000000
0.00000000 -0.00000000
0.00000000 -0.00000000
-0.00000000 -0.00000000
-0.00000000 -0.00000000
-0.00000000 -0.00000000
0.00000000 0.00000000
-0.00000000 0.00000000
0.00000000 0.00000000
0.00000000 -0.00000000
-0.00000000 -0.00000000
0.00000000 0.00000000
-0.00000000 0.00000000
-0.00000000 0.00000000
0.00000000 0.00000000
-0.00000000 0.00000000
-0.00000000 -0.00000000
-0.00000000 -0.00000000
-0.00000000 -0.00000000
0.00000000 0.00000000
0.00000000 -0.00000000
-0.00000000 -0.00000000
0.00000000 -0.00000000
-0.00000000 -0.00000000
-0.00000000 0.00000000
0.00000000 0.00000000
-0.00000000 -0.00000000
-0.00000000 -0.00000000
-0.00000000 0.00000000
-0.00000000 0.00000000
0.00000000 -0.00000000
0.00000000 0.00000000
-0.00000000 -0.00000000
-0.00000000 0.00000000
-0.00000000 -0.00000000
0.00000000 -0.00000000
-0.00000000 -0.00000000
-0.00000000 -0.00000000
0.00000000 -0.00000000
-0.00000000 -0.00000000
-0.00000000 -0.00000000
-0.00000000 -0.00000000
-0.00000000 0.00000000
-0.00000000 -0.00000000
0.00000000 -0.00000000
-0.00000000 -0.00000000
-0.00000000 -0.00000000
0.00000000 0.00000000
0.00000000 0.00000000
-0.00000000 0.00000000
-0.00000000 -0.00000000
-0.00000000 0.00000000
0.00000000 0.00000000
0.00000000 0.00000000
0.00000000 0.00000000
0.00000000 0.00000000
0.00000000 0.00000000
0.00000000 0.00000000
-0.00000000 0.00000000
0.00000000 -0.00000000
-0.00000000 0.00000000
-0.00000000 -0.00000000
-0.00000000 0.00000000
-0.00000000 0.00000000
0.00000000 -0.00000000
-0.00000000 -0.00000000
-0.00000000 -0.00000000
-0.00000000 -0.00000000
-0.00000000 -0.00000000
-0.00000000 -0.00000000
0.00000000 -0.00000000
-0.00000000 -0.00000000
0.00000000 0.00000000
-0.00000000 -0.00000000
0.00000000 -0.00000000
-0.00000000 -0.00000000
-0.00000000 -0.00000000
-0.00000000 -0.00000000
-0.00000000 -0.00000000
-0.00000000 -0.00000000
-0.00000000 -0.00000000
-0.00000000 -0.00000000
-0.00000000 -0.00000000
-0.00000000 -0.00000000
-0.00000000 -0.00000000
-0.00000000 -0.00000000
-0.00000000 -0.00000000
-0.00000000 0.00000000
-0.00000000 -0.00000000
0.00000000 -0.00000000
-0.00000000 0.00000000
-0.00000000 -0.00000000
-0.00000000 -0.00000000
-0.00000000 -0.00000000
-0.00000000 -0.00000000
0.00017483 0.00018496
0.00009774 0.00029645
0.00026254 -0.00002551
0.00005810 -0.00007461
-0.00021274 0.00000000
-0.00000000 0.00000000
-0.00000000 0.00000000
-0.00000000 -0.00000000
-0.00000000 -0.00000000
0.00033091 0.00013351
-0.00007801 0.00021199
0.00013327 -0.00009042
0.00009555 -0.00008937
-0.00011561 0.00026206
0.00015522 -0.00001876
0.00004463 -0.00006098
-0.00018212 -0.00014927
-0.00012104 -0.00020961
0.00027339 0.00046711
0.00017643 0.00017313
0.00024834 0.00014101
0.00012218 0.00005633
0.00004435 0.00020591
0.00020051 -0.00001576
0.00020340 0.00017857
-0.00009455 0.00001487
-0.00009383 -0.00013399
0.00052552 0.00030105
-0.00014326 0.00040336
0.00030104 -0.00010736
0.00015338 0.00019123
0.00001627 0.00036828
0.00053751 0.00023847
0.00027218 0.00032110
0.00018008 0.00009629
0.00005397 0.00005005
0.00019286 0.00011935
-0.00005561 0.00017320
0.00012896 -0.00010368
0.00001057 -0.00006670
-0.00012888 -0.00037024
-0.00032658 -0.00033135
-0.00015435 -0.00006948
-0.00009471 -0.00006079
-0.00007182 -0.00022569
0.00040623 0.00023739
0.00000023 0.00022360
0.00010659 -0.00004333
-0.00002015 -0.00011713
-0.00008495 0.00061481
0.00033646 -0.00001603
0.00048131 0.00029400
-0.00001549 0.00024732
0.00001740 -0.00011774
0.00046381 0.00058870
0.00015747 0.00028299
0.00039559 0.00025267
0.00009423 0.00009985
0.00012536 0.00029973
0.00045350 0.00019315
0.00029148 0.00049459
0.00001391 0.00018694
0.00010045 -0.00021053
0.00000000 0.00000000
0.00000000 -0.00000000
-0.00000000 0.00000000
0.00000000 -0.00000000
-0.00000000 -0.00013479
0.00008481 0.00003634
-0.00010385 -0.00000633
-0.00005265 0.00003905
-0.00003812 -0.00015031
0.00015254 0.00000517
-0.00011875 0.00015624
0.00001217 -0.00008344
0.00008225 0.00007246
-0.00003146 0.00029571
0.00025517 -0.00016648
0.00005970 0.00011527
-0.00010561 0.00006055
0.00002548 -0.00012849
0.00051747 0.00031760
0.00002538 0.00041330
0.00028285 -0.00001899
0.00012584 -0.00003738
-0.00006700 0.00031735
0.00031899 -0.00000991
0.00005585 0.00007729
-0.00007957 -0.00003585
-0.00001762 -0.00012488
0.00030149 0.00020112
0.00003068 0.00029842
0.00016455 -0.00000550
0.00000790 0.00002505
-0.00003968 0.00032819
0.00006759 -0.00016183
0.00002529 -0.00000996
-0.00010949 -0.00009393
-0.00015283 -0.00010156
0.00040590 0.00011439
-0.00009763 0.00022790
0.00009551 -0.00006395
0.00010288 -0.00007175
-0.00005456 0.00025210
0.00012682 -0.00004139
0.00020701 0.00018403
-0.00004180 0.00000267
0.00008832 0.00001277
-0.00000000 -0.00000000
-0.00000000 0.00000000
0.00000000 0.00000000
0.00000000 0.00000000
0.00000000 0.00000000
-0.00000000 -0.00000000
0.00000000 0.00000000
0.00000000 -0.00000000
0.00000000 0.00000000
0.00000000 0.00000000
-0.00000000 0.00000000
0.00000000 0.00000000
0.00000000 0.00000000
0.00000000 0.00000000
0.00000000 0.00000000
0.00000000 0.00000000
0.00000000 -0.00000000
0.00000000 0.00000000
0.00000000 0.00000000
0.00000000 0.00000000
0.00000000 0.00000000
-0.00000000 0.00000000
0.00000000 0.00000000
0.00000000 -0.00000000
0.00000000 0.00000000
0.00000000 0.00000000
0.00000000 0.00000000
0.00000000 0.00000000
-0.00000000 0.00000000
0.00000000 0.00000000
0.00000000 0.00000000
0.00000000 0.00000000
0.00000000 0.00000000
0.00000000 0.00000000
0.00000000 -0.00000000
0.00000000 0.00000000
0.00000000 0.00000000
-0.00000000 0.00000000
0.00000000 0.00000000
0.00000000 0.00000000
0.00000000 -0.00000000
-0.00000000 -0.00000000
0.00000000 0.00000000
0.00000000 -0.00000000
0.00000000 -0.00000000
0.00000000 0.00000000
0.00000000 0.00000000
0.00000000 0.00000000
0.00000000 0.00000000
0.00000000 0.00000000
0.00000000 0.00000000
0.00000000 0.00000000
0.00000000 0.00000000
0.00000000 0.00000000
0.00000000 0.00000000
0.00000000 0.00000000
0.00000000 0.00000000
0.00000000 0.00000000
0.00000000 -0.00000000
-0.00000000 -0.00000000
0.00000000 0.00000000
0.00000000 0.00000000
0.00000000 0.00000000
0.00000000 0.00000000
0.00000000 0.00000000
0.00000000 0.00000000
-0.00000000 0.00000000
0.00000000 0.00000000
0.00000000 0.00000000
-0.00000000 0.00000000
0.00000000 -0.00000000
-0.00000000 0.00000000
0.00000000 0.00000000
-0.00000000 0.00000000
0.00000000 -0.00000000
0.00000000 0.00000000
-0.00000000 0.00000000
0.00000000 -0.00000000
0.00000000 0.00000000
0.00000000 -0.00000000
0.00000000 0.00000000
0.00000000 0.00000000
-0.00000000 0.00000000
0.00000000 0.00000000
0.00000000 0.00000000
0.00000000 0.00000000
0.00000000 0.00000000
0.00000000 0.00000000
0.00000000 -0.00000000
0.00000000 0.00000000
0.00000000 0.00000000
0.00000000 0.00000000
0.00000000 0.00000000
0.00000000 0.00000000
0.00000000 0.00000000
0.00000000 -0.00000000
0.00000000 0.00000000
0.00000000 -0.00000000
0.00000000 0.00000000
0.00000000 0.00000000
-0.00000000 0.00000000
0.00000000 0.00000000
0.00000000 0.00000000
0.00000000 0.00000000
0.00000000 0.00000000
0.00000000 0.00000000
0.00000000 0.00000000
0.00000000 0.00000000
0.00000000 0.00000000
-0.00000000 0.00000000
0.00000000 -0.00000000
0.00000000 0.00000000
0.00000000 -0.00000000
0.00000000 0.00000000
-0.00000000 -0.00000000
0.00000000 0.00000000
-0.00000000 -0.00000000
0.00000000 -0.00000000
-0.00000000 -0.00000000
-0.00000000 -0.00000000
-0.00000000 -0.00000000
-0.00000000 0.00000000
0.00000000 -0.00000000
-0.00000000 0.00000000
0.00000000 0.00000000
0.00000000 -0.00000000
-0.00000000 0.00000000
0.00000000 -0.00000000
-0.00000000 -0.00000000
0.00000000 -0.00000000
0.00000000 0.00000000
0.00000000 0.00000000
0.00000000 -0.00000000
-0.00000000 -0.00000000
-0.00000000 -0.00000000
-0.00000000 0.00000000
0.00000000 -0.00000000
0.00000000 0.00000000
0.00000000 -0.00000000
-0.00000000 -0.00000000
0.00000000 -0.00000000
-0.00000000 -0.00000000
-0.00000000 0.00000000
-0.00000000 -0.00000000
-0.00000000 -0.00000000
-0.00000000 -0.00000000
-0.00000000 -0.00000000
0.00000000 -0.00000000
-0.00000000 -0.00000000
-0.00000000 0.00000000
-0.00000000 0.00000000
0.00000000 0.00000000
-0.00000000 0.00000000
-0.00000000 0.00000000
0.00000000 -0.00000000
-0.00000000 0.00000000
-0.00000000 -0.00000000
0.00000000 0.00000000
-0.00000000 0.00000000
0.00000000 0.00000000
0.00000000 0.00000000
0.00000000 0.00000000
-0.00000000 0.00000000
0.00000000 -0.00000000
-0.00000000 0.00000000
-0.00000000 -0.00000000
0.00000000 -0.00000000
0.00000000 -0.00000000
0.00000000 -0.00000000
-0.00000000 -0.00000000
-0.00000000 -0.00000000
0.00000000 0.00000000
0.00000000 0.00000000
0.00000000 -0.00000000
-0.00000000 0.00000000
0.00000000 -0.00000000
-0.00000000 -0.00000000
-0.00000000 -0.00000000
0.00000000 0.00000000
0.00000000 -0.00000000
0.00000000 0.00000000
-0.00000000 -0.00000000
-0.00000000 -0.00000000
-0.00000000 -0.00000000
-0.00000000 0.00000000
-0.00000000 0.00000000
0.00000000 -0.00000000
-0.00000000 -0.00000000
-0.00000000 -0.00000000
0.00000000 -0.00000000
-0.00000000 -0.00000000
-0.00000000 -0.00000000
-0.00000000 0.00000000
-0.00000000 0.00000000
0.00000000 -0.00000000
-0.00000000 0.00000000
-0.00000000 -0.00000000
-0.00000000 -0.00000000
-0.00000000 0.00000000
0.00000000 0.00000000
-0.00000000 0.00000000
0.00000000 0.00000000
0.00000000 0.00000000
0.00000000 -0.00000000
-0.00000000 -0.00000000
-0.00000000 -0.00000000
-0.00000000 -0.00000000
0.00000000 -0.00000000
-0.00000000 -0.00000000
-0.00000000 -0.00000000
-0.00000000 -0.00000000
0.00000000 -0.00000000
-0.00000000 -0.00000000
-0.00000000 -0.00000000
-0.00000000 -0.00000000
-0.00000000 -0.00000000
