-0.02959500 0.02871855
-0.02047126 0.08175293
-0.00023824 0.09323530
0.00138943 0.07526862
-0.00935258 -0.10967962
0.07725944 0.07415579
0.10102936 0.01018116
-0.10133235 0.02820359
-0.04881358 0.03599620
0.03240832 -0.03306727
-0.00413013 0.05139861
-0.01403624 -0.02870594
-0.06493591 0.04058992
-0.01690086 0.02872101
-0.10171514 0.03259951
0.08224636 0.05159746
-0.04562970 0.03644319
-0.01328195 -0.00318690
-0.17428374 -0.04063048
0.08085176 -0.02310433
-0.05754044 -0.01199420
-0.00247747 0.08991273
-0.03142365 0.07289765
0.09627231 -0.03920739
-0.04912176 0.02857079
-0.02178361 -0.05968992
-0.14373551 -0.01721326
-0.07205418 -0.02593621
0.02419944 -0.06864561
-0.04284719 0.10454605
0.03240400 0.00540195
-0.01945073 0.03235754
0.09428132 -0.08559344
-0.10262398 -0.11429496
0.00954785 -0.07499644
-0.09931617 -0.05725969
-0.06334692 -0.03964409
0.09760568 0.06452604
0.14972140 -0.12473120
0.02387849 0.05327964
-0.07861263 -0.01907105
0.11487260 -0.12320781
0.18959171 0.05292482
-0.03747499 -0.09852853
0.02977490 -0.05848521
0.13441695 -0.07441389
0.01012098 -0.08803225
0.04529528 -0.04910957
-0.19330311 0.13333237
-0.00845753 -0.11014031
-0.02550460 -0.05528150
0.05183288 0.00492576
-0.03561769 0.01497248
-0.11655281 0.01077413
-0.03369084 0.01279765
0.02521478 -0.00884004
-0.06053459 -0.05532479
0.00308230 0.12936752
-0.09447732 0.03970945
0.01935053 -0.02944119
-0.08829582 -0.01119790
-0.07873587 0.03527645
-0.16445908 0.08902875
-0.06295250 0.09549709
-0.12296645 -0.02935283
0.13501297 -0.05940469
0.03717311 0.00538504
-0.05171062 0.07620782
-0.02269008 -0.00707865
-0.00358578 -0.01453979
-0.13665490 0.03429478
0.08885258 -0.07447816
-0.05421186 0.02469176
-0.01988330 -0.12000110
0.03233536 -0.05954385
-0.01921108 -0.00268372
0.09146584 -0.05336414
0.00596616 0.00197766
0.00026070 -0.12058688
-0.04399776 0.01566294
-0.08123855 0.02460308
0.06124777 -0.02171371
-0.04502935 -0.00071860
-0.01102984 -0.02757297
0.11050953 -0.06538471
0.08064669 0.01340001
-0.01278921 -0.08720393
0.07212131 -0.09742598
0.02354206 -0.02052646
-0.13323027 -0.06732003
-0.12890899 -0.08490606
-0.01123867 -0.07460564
0.04881980 0.07777787
0.14328685 0.01626525
0.01860501 0.01415525
-0.13187209 0.05843892
0.02552073 0.09048838
0.06361105 -0.08126456
-0.04151914 0.05517673
0.01963698 0.13613623
0.04902737 0.00999868
-0.05322252 0.10254002
0.14334336 -0.02805958
0.02878251 -0.03858497
-0.13732286 0.05102128
-0.00968418 0.05452549
0.06053107 0.10280923
-0.05326091 0.02580506
0.00917702 -0.03402779
-0.03320994 0.02304525
0.01320601 0.00165319
-0.03012921 -0.00597493
-0.05084040 -0.06809887
-0.02680158 0.00886172
-0.04296374 0.05478951
0.03665326 -0.03330992
0.00228690 -0.05338791
-0.07774553 -0.01727713
-0.02740186 -0.00822535
-0.04279026 0.03811866
0.11086251 0.01194534
0.08243881 0.07303970
-0.10421248 0.03207480
-0.00027702 -0.09296487
-0.02148016 -0.05605135
-0.03449960 0.01614834
-0.01454862 -0.04458346
0.02564350 0.05047400
0.00559635 -0.08419113
0.00591383 -0.04965752
0.02170531 0.03487904
0.00086828 0.01804022
0.05603766 0.06066087
-0.05596595 0.00762423
-0.00499758 -0.03920217
-0.02748831 -0.01312751
0.00281177 0.01559339
-0.05508710 0.01495302
-0.03992993 -0.05290641
0.00091616 -0.06362709
0.00671472 0.09147354
-0.03145092 0.00486852
0.01090866 -0.02210640
0.08812709 0.10359141
0.01982978 0.06428540
-0.06726908 -0.03175253
-0.03228033 -0.04003386
-0.03519668 0.01200068
-0.08523107 0.01322849
-0.06642392 0.08135911
0.03072386 -0.03349043
-0.08616743 -0.04093523
0.05337906 -0.05888942
0.00922628 0.04544592
0.08100111 -0.10521314
0.04861657 0.08172069
0.09733886 -0.03286222
-0.08345902 0.00603888
0.00205128 0.02704813
0.09301135 -0.02810784
0.00992903 -0.09490964
0.02477795 0.02839047
0.11993456 -0.06925889
0.02254672 -0.00266108
-0.03202656 0.04328568
-0.02787657 -0.02235413
0.02153463 -0.14367856
-0.00280438 0.00457169
0.02151987 -0.02220577
-0.08318262 0.03926545
-0.01313579 0.06083959
0.01456925 -0.01986110
-0.03605173 -0.00958676
-0.10063269 0.05090031
0.00620693 0.00758328
0.00499450 -0.08278288
-0.06148255 -0.04766026
-0.12330370 -0.06706753
0.04549800 -0.05594914
-0.02174696 0.04834649
-0.02249247 0.06384025
0.00149312 0.00478289
-0.02017553 0.07273054
0.15697476 -0.02776743
0.08852885 -0.05477669
0.01314928 0.04731011
-0.04566771 -0.01493375
0.03730967 -0.01322725
0.11184657 -0.05252083
-0.07769043 -0.11000010
0.02508355 0.00289575
-0.05132071 0.11109298
-0.06867584 0.01161655
0.07139108 -0.10047977
-0.00718195 0.04902076
-0.02761559 0.04117908
-0.07111070 0.02931538
-0.01344544 0.00653258
0.04925781 0.07132923
-0.07366238 -0.06041031
0.13204332 -0.05907913
0.16080888 0.14452520
-0.08790257 -0.04282407
0.04271805 -0.01502089
0.05445208 -0.03032276
0.00879126 0.06293222
0.01999059 0.02572794
-0.00098999 -0.11421967
-0.09598923 -0.09674256
-0.09281799 0.00684372
-0.01609407 0.06834918
0.03422450 -0.08688903
0.10181563 0.00079007
0.04165431 -0.02995934
-0.05461416 0.04419544
0.02888474 -0.00318725
-0.02515378 0.04398922
-0.00087211 -0.01822639
-0.00769988 -0.09531944
0.04048454 0.04180437
0.03399707 0.07895663
-0.09998360 -0.02352448
-0.05855653 0.04841419
-0.03952244 0.00193504
0.02440617 0.13276497
0.00141489 -0.00569503
-0.07231860 -0.04134743
0.08145531 -0.02417931
0.02543310 -0.03744655
-0.04737772 -0.01715158
-0.14804730 -0.05226132
-0.02483609 -0.04105909
-0.00493694 0.01002648
-0.03792416 -0.00075605
-0.00771921 0.01843764
0.00409609 -0.02621929
-0.00892484 0.01824207
0.03217269 -0.04126576
0.09944540 -0.01346759
-0.01516840 -0.05946871
-0.08935085 0.02964536
-0.02716267 -0.02156605
-0.06435724 -0.01224241
0.05832530 -0.10761587
0.00412766 -0.05692434
-0.04444015 -0.07540769
-0.02605550 -0.08257166
0.04151298 -0.04767626
-0.14462917 -0.00807104
-0.11440417 0.08513137
-0.00171751 0.02900040
-0.03008536 -0.02376571
0.04076517 0.01776152
0.07748619 -0.08970104
-0.01284107 -0.10234082
-0.07679700 -0.03756635
-0.00741598 -0.07497062
-0.07776891 -0.06907579
-0.07140417 0.17804408
0.00993738 -0.00790401
0.05295319 0.06128642
0.00598547 0.04625060
-0.01811058 0.01733723
0.01944660 -0.12020936
-0.10863355 -0.01568304
0.02916064 -0.05850323
0.10826860 -0.08907513
-0.04794217 0.16612178
-0.03476119 0.09228557
0.09458721 0.03285465
0.00347406 -0.10976528
0.09401419 -0.11793284
-0.01939362 0.03761647
-0.11567342 0.04422479
0.13998473 0.06600212
-0.05599742 0.20318165
-0.08103070 -0.02708894
0.03494647 -0.01144463
-0.03554950 -0.02801024
-0.00109910 -0.16507593
0.00694867 0.03021279
0.11433114 -0.01567562
-0.02624906 -0.01908142
-0.00223322 -0.06557957
-0.09100721 -0.11357757
-0.01353747 0.11070433
-0.12888665 0.04231433
-0.00542075 0.04455508
0.01103884 -0.00095366
-0.04461912 -0.06361546
-0.04270790 -0.03671025
0.01788013 -0.09996330
-0.02443622 0.04466435
0.02076674 0.06565336
-0.03363749 -0.10420058
-0.03592763 0.07582001
0.05888712 -0.03538094
-0.13607992 -0.00246430
-0.17724416 0.08631942
-0.02932280 0.05364713
0.02250067 0.01980846
0.05398117 0.06310295
0.07620965 -0.04155868
-0.11053404 -0.04233377
-0.00820792 -0.02704861
0.02422042 0.02906203
-0.00973649 -0.08713851
0.04901353 -0.03576696
-0.00433645 0.01023605
-0.05686054 -0.02572643
0.00975262 0.02649694
-0.00497554 -0.01545174
-0.04383146 0.03528870
-0.02476269 0.09974113
-0.08356915 -0.03558098
0.04617272 -0.04580177
-0.04106459 -0.06676008
-0.06664324 -0.03216972
0.07186060 0.06911601
-0.11824408 0.00175252
-0.05058783 -0.11956450
0.00894939 0.02788720
0.02269666 0.08034168
-0.12086747 -0.01525893
0.01185855 -0.01527621
0.00375889 -0.12806521
0.08624794 -0.02891250
-0.01939921 0.08263607
-0.09985678 -0.06459199
0.05507622 0.07459290
-0.04795354 -0.00597723
-0.04898913 0.01525081
-0.13657424 0.00337480
-0.00806494 0.02742459
-0.01611794 0.05417297
-0.02639722 -0.01188707
-0.04252615 -0.08815661
-0.12065840 0.01581347
0.01865132 -0.05401596
0.03890910 -0.00897336
0.01015520 0.02698576
0.01240578 0.07827915
0.04862634 -0.05182594
0.02234699 -0.08174478
-0.05169236 -0.02294458
0.03530016 0.08624372
-0.03442324 -0.08024766
-0.00220794 -0.05432913
0.02147419 0.06955441
0.05692370 -0.10296691
-0.00178402 -0.06207091
-0.00215581 0.06831052
-0.03423553 0.01191329
-0.01775092 0.00086104
0.00222326 0.02722004
-0.00765613 0.09984311
0.02108976 0.08521623
-0.08750917 -0.02260874
0.03106071 0.00040263
-0.07792436 -0.13566150
-0.06606434 -0.00088884
-0.00222092 0.06894274
0.03510329 -0.02553666
-0.01218195 0.05276310
-0.05528166 -0.15574421
-0.03340742 0.04215235
0.03274709 0.01884949
0.00677344 -0.06053129
0.05171343 0.11365543
-0.03591128 0.07631097
-0.04250744 0.00704896
0.09655751 0.13619192
-0.09033360 0.08738736
-0.00253005 -0.03900817
0.02036600 -0.05795715
0.07329831 -0.09216800
-0.01820787 -0.02784491
0.03135327 0.00442396
0.09832508 -0.00058340
0.12365208 0.00348067
0.08661783 0.07033319
0.00817079 -0.08422984
0.03670037 0.07827809
-0.07143283 0.03270161
0.02124116 0.01979651
0.00227528 -0.01404898
-0.01772046 0.01720460
0.06936243 0.12656766
-0.07529547 0.05108375
-0.01809009 0.02685681
-0.01817226 0.13123839
-0.08513107 0.08401346
0.10717767 -0.06309774
-0.03890060 0.03179586
-0.04091395 -0.10547225
0.01939097 0.04394472
-0.04128396 -0.02477919
-0.03948415 -0.00137170
-0.11366701 -0.02959729
0.01609165 0.04453747
0.04561147 -0.06080935
-0.02052941 0.06681725
-0.01121815 -0.00079501
0.10259514 -0.01268153
-0.08478831 -0.10045633
-0.05362332 -0.02500755
-0.05281537 0.08474386
-0.12603247 -0.05373126
0.05136273 -0.00405778
0.04653349 0.00105605
-0.02630932 0.05044001
-0.07255157 0.02528538
-0.06785983 -0.03149838
-0.01424140 -0.02037095
-0.03988812 0.01627782
-0.00209196 -0.08814705
-0.00811399 -0.03588718
-0.06571909 0.00675683
0.02372256 0.03465519
0.02716277 -0.03017449
0.04589098 0.00826627
0.02891581 0.01220401
-0.01652279 0.03898029
-0.00381989 -0.00827818
-0.06518874 -0.01414612
-0.03462888 0.03104051
-0.06419504 -0.02680221
-0.03562946 0.02900186
-0.05764066 -0.03818730
-0.01474265 0.03925319
-0.03506095 0.01604658
-0.13968813 0.06635912
-0.04054484 0.01178738
-0.12023880 0.04785891
-0.00120998 0.00364306
-0.03170465 -0.02575292
-0.09559791 -0.02457094
-0.10311142 0.11078695
0.01301400 -0.06457505
0.05354435 0.03164470
-0.04870061 0.01942243
0.00555985 0.02262820
-0.04378420 0.07796842
-0.04162163 -0.01548979
0.00290652 0.12926751
-0.07362149 0.00755928
-0.03631588 0.00227753
-0.05876916 0.03178971
0.05930803 -0.07696478
-0.11619307 0.05133747
-0.06145750 -0.07159401
-0.01954733 -0.00426664
-0.04675381 0.14941910
0.01143402 -0.03189574
-0.06671102 -0.07835802
-0.06217843 -0.06311402
0.06415270 -0.04072003
0.00439362 -0.04648111
-0.04416957 -0.15276033
-0.07225684 0.10141842
0.06097816 -0.04969086
-0.05418687 0.04573143
0.00442965 -0.05290652
0.01474243 -0.06156604
0.07511624 0.01840903
0.03817278 -0.03807915
0.05609344 -0.00828040
-0.02236076 0.01035457
-0.05018323 0.07268794
-0.01652370 -0.02667093
0.02733048 0.09020632
-0.02664745 0.03472614
0.07012095 -0.04543380
-0.00263022 0.00383392
-0.05595453 -0.11603371
-0.01884252 -0.01647814
-0.00797451 0.01534911
-0.02953144 0.00468602
-0.02615006 -0.04240745
-0.02632523 0.04242102
-0.01828537 0.04550384
0.05220744 -0.05200474
0.13570403 0.16393273
-0.03072865 0.00866713
0.07566342 0.02038038
-0.11534341 -0.00043807
-0.08982230 0.06431717
0.01467186 -0.06796468
0.08050077 0.01746987
0.05663656 -0.03752922
-0.05014355 -0.02698941
-0.10464411 -0.06630667
0.02888996 -0.00430453
0.00419063 0.06537870
0.01603033 -0.04788305
-0.01864223 0.02638742
0.03814236 0.03366501
0.05212308 0.01444161
-0.06655232 0.08913630
0.06140028 -0.09356549
-0.01536302 0.10496248
0.04579530 -0.00108748
-0.09120310 -0.06330492
0.03973917 0.06896986
-0.06082536 -0.00919584
0.00879183 0.00019537
0.00697738 0.09734325
-0.13297185 0.04625600
0.05001365 0.09106925
-0.03708277 0.04379445
0.03518457 -0.03483275
-0.01127720 0.00256737
-0.02314055 -0.07159900
0.06282307 -0.01782245
0.17409296 0.00614323
-0.00681211 -0.07182739
-0.07305989 -0.04576534
0.08615001 -0.00302440
0.05478361 0.01045667
0.01205126 0.05707288
-0.08119850 -0.00800868
0.05140499 0.04387955
0.00190635 -0.12292752
-0.05722953 0.10562446
-0.00236376 0.00779589
-0.02144591 -0.00185868
-0.04072085 -0.06904646
-0.06102894 0.00136363
0.06486607 0.02164984
-0.07260507 0.12160197
0.13032095 0.00464086
0.08025046 -0.02269402
0.02734481 0.06026246
0.00334954 -0.09950306
0.00859653 -0.04711558
-0.01004892 0.05617130
0.04276684 -0.12820061
0.10116081 0.07004032
-0.03197926 0.05196019
0.07351505 -0.04701329
0.01352274 -0.00110563
0.06808243 -0.07058319
-0.06370658 0.03197047
0.00463754 0.02508144
-0.01923939 -0.01964548
-0.08275825 -0.08088660
0.05885302 0.10710455
-0.04381145 -0.04320726
0.07840031 -0.05731074
-0.01614630 -0.05708950
-0.02163640 0.20690358
0.04264029 -0.03079780
-0.00474565 0.04366808
-0.02333238 0.05214375
0.06904847 -0.01513970
0.00952498 -0.01747168
0.01463587 0.01418012
0.00451586 -0.01908048
-0.03521521 0.00229798
0.06852866 -0.00197600
0.01283052 -0.02751367
-0.03494341 -0.06346929
0.06204163 -0.08381521
0.02024560 0.05701430
-0.05382480 0.06909731
0.00713092 -0.02558785
-0.05692932 -0.04422728
0.05235843 -0.00483480
-0.06222687 0.03348662
-0.00624979 -0.04759129
0.03493444 -0.03896173
0.03468555 -0.00061056
0.00167973 -0.11277888
-0.04406778 0.04231738
0.01158043 -0.03411286
0.06117636 -0.08500056
0.00216814 -0.04917540
0.06199328 0.03330503
0.00416136 -0.13173492
0.01620728 -0.00179635
0.03875403 -0.07052112
-0.04427348 -0.07318955
0.06704742 0.05999746
0.05995101 0.06294035
-0.07746343 -0.04926168
-0.03137231 -0.01171210
-0.02446261 -0.08319223
-0.02056412 0.07755371
0.03642919 0.04160537
0.02106370 -0.09839022
0.05632079 0.06607974
0.09294725 0.01359396
-0.02846735 -0.15880813
-0.01688264 0.00612939
0.03450523 0.04461600
-0.00852148 0.06730059
0.08386149 0.01180614
-0.02408906 -0.05975524
-0.04252319 -0.05820444
-0.05958386 -0.04330086
-0.00100113 -0.07222182
0.06867012 0.04664270
0.03818009 -0.00512418
0.02018268 -0.04438036
-0.08108918 -0.06097673
-0.04658038 0.13685922
-0.00641596 0.03319286
0.03505389 0.00433646
-0.10267555 0.01899013
0.00067947 0.00168261
0.01882757 -0.00864148
-0.01733351 -0.01981209
-0.08598721 -0.00225877
-0.00400514 0.01219565
0.13633993 -0.02061746
-0.00679564 0.02734119
-0.00418505 0.04567028
-0.02010199 -0.03404428
0.06986228 -0.04681814
0.10187086 -0.07796537
-0.03338378 -0.12373241
-0.10109185 0.01915616
0.04339045 -0.03040411
-0.02195210 -0.03259095
-0.06755104 -0.01195942
0.11536676 -0.11958292
-0.07559608 0.07353876
0.04873807 -0.06194767
0.04960204 0.00067968
-0.08540501 -0.03493579
0.05326027 0.02416082
-0.04157426 0.01365570
0.00392076 -0.01368030
-0.04160919 -0.03809458
-0.03466586 -0.04919076
-0.02389632 -0.01334466
0.04859839 0.06976018
0.10496359 0.02350332
0.05385217 -0.01773789
-0.07020190 -0.02027901
-0.06048076 0.06858541
0.03564608 0.01170863
0.03794333 -0.04179325
0.02101026 -0.05331737
-0.03440232 -0.05727941
0.01393672 -0.01998951
0.02233320 -0.00862202
-0.00305859 -0.00594074
-0.07192543 0.01377821
-0.03371917 -0.13084818
0.00990447 0.08370847
-0.01422703 0.01823261
-0.06093168 -0.00314638
-0.12298851 0.01950454
0.07376017 -0.03930569
-0.00648335 0.01524466
0.13322982 0.07909399
0.05975207 -0.04060548
0.04450396 0.01571130
0.03571337 -0.04632199
0.05022140 0.00287970
0.04274677 -0.05390493
0.04426270 -0.05399825
-0.02666353 -0.03887990
-0.02202670 -0.00649021
0.07313681 0.05441947
-0.00968617 -0.03248243
0.10183144 -0.03910609
0.01810682 -0.05196561
-0.00364024 -0.04763161
-0.04108715 0.04591558
0.04401949 0.00732074
0.02921762 -0.02311298
0.06578343 0.02950729
-0.01899446 -0.11484571
0.01889569 0.03006946
-0.08355615 0.02301854
-0.02186333 -0.02540445
-0.02220274 -0.06083893
0.00244795 -0.06314000
0.01145579 -0.06395005
0.06795336 0.03190666
0.05441295 -0.02993262
0.01965607 -0.00792052
-0.05946814 -0.03774348
0.01853637 -0.00571261
0.07497597 0.03000021
-0.01069845 -0.00818637
-0.00912451 -0.00504161
0.02931498 -0.11044987
-0.05241193 -0.03156404
-0.04675841 0.05598209
-0.04038380 0.03062277
0.00207955 -0.03635539
0.03992853 -0.03063980
0.05986939 -0.10094444
0.01515405 0.00603604
0.03660993 -0.02095277
-0.01190465 0.18446927
0.06973820 -0.08214486
-0.03633452 -0.06622233
-0.04392634 0.01303509
0.02967132 0.02532092
-0.02658301 -0.04692128
-0.03801195 -0.13527168
0.03237752 0.07635883
0.05104945 0.02735342
-0.12323928 -0.03128037
-0.03383896 -0.01884649
-0.04656823 -0.01111832
0.00323869 0.01868937
0.04101714 0.05247217
0.00946453 -0.01397329
-0.06603925 -0.00821054
0.16502801 -0.04668926
0.02879945 0.08344813
0.02761330 -0.06411136
0.04706728 -0.10727869
-0.00410194 -0.00030151
0.04802179 -0.07785697
-0.04220588 0.00266110
-0.03751650 0.00059944
0.01806108 0.02083068
-0.03878903 0.02567037
-0.01872091 0.04021246
-0.06770801 0.02964308
-0.00624917 -0.03861136
-0.02323415 -0.00869725
-0.00698445 -0.01748086
-0.01580518 -0.00005877
0.01223897 -0.00959935
0.02033702 0.00354864
-0.08464806 0.03141298
0.03130528 -0.03146361
-0.00038202 -0.05880525
-0.02712802 0.00902331
0.00194799 0.03248539
-0.01547639 0.00884239
-0.00355309 0.02552926
0.00443505 0.01979900
0.00936162 0.00012486
-0.03659178 0.00609891
-0.02074223 0.03382514
0.04222095 0.00525055
-0.00104862 0.01647923
0.07346632 -0.03564927
-0.03942885 0.00077912
-0.04628151 -0.01218653
0.00790018 -0.00586635
-0.06355653 0.06637496
-0.00178401 -0.02631947
-0.02889916 0.03083797
0.03860056 0.02317771
0.05271997 -0.03298024
0.03803876 -0.00472375
-0.01451299 0.02705857
-0.01344679 -0.01369991
-0.01015212 0.00317798
-0.04904402 0.06616996
-0.04744899 0.03620134
0.00990659 0.07473900
0.01521960 0.02770346
0.03075627 0.04367086
-0.03764608 -0.00459122
-0.04805284 0.04336558
-0.01675634 -0.01841626
0.04712947 0.02926259
-0.04071864 -0.06456462
-0.07582021 0.00034831
0.00939356 0.03305382
0.08750281 0.02543782
-0.02834536 0.00093828
0.06379102 0.04357664
-0.03917566 0.04553232
0.00325576 -0.00427555
0.06072319 0.02716545
0.00995408 -0.03083876
-0.02414731 0.06821336
0.00386444 0.00026876
-0.03111371 -0.02841917
-0.00986690 -0.02857176
0.01743941 -0.02543390
0.06638085 -0.01864217
-0.06862405 -0.07997502
-0.07436321 0.08252446
0.10713529 -0.01021411
-0.00434538 -0.03471723
-0.02456506 -0.07026488
0.04560283 -0.01951920
-0.07700356 0.00293351
-0.06255239 -0.03129336
-0.04369505 -0.09299444
-0.07035007 0.00095586
-0.00040613 0.04759846
0.02596387 -0.05273227
-0.00325868 0.01785056
-0.06519293 -0.00671157
-0.00170476 -0.00321812
-0.02646367 -0.00944975
-0.02567987 -0.08762211
0.00416672 -0.06808145
-0.00568263 0.05275346
-0.02052569 -0.03668554
0.06706131 -0.06419978
0.01054208 -0.00366446
-0.06911759 0.02623371
0.02197494 0.09663819
0.01089363 -0.02655810
-0.13042030 -0.07223522
-0.04341560 0.02384316
0.03341158 -0.07264140
-0.06204170 -0.00889208
-0.00501205 0.03122872
0.06466108 -0.03882775
-0.01755034 0.02646975
-0.09405787 0.05061715
0.00227870 0.01249525
-0.05760140 -0.00780598
0.01604363 -0.07958525
0.00686500 0.01391592
-0.03732867 -0.12012070
0.03639888 0.01356203
-0.04834218 -0.01324927
0.06356532 0.02759325
-0.00209523 -0.08038043
-0.00730419 -0.01268412
-0.04964915 -0.02324607
0.03322272 0.02259449
-0.09573625 0.03547044
0.12597208 0.04831571
0.02656962 0.08944197
-0.05419387 -0.12920882
-0.00260233 -0.12407476
0.19982624 -0.04175207
-0.07279401 0.21684822
-0.03513199 -0.01043345
-0.05617469 -0.01922931
0.05709904 -0.05016517
-0.06436021 -0.06006887
-0.00224967 0.00941946
-0.15781888 -0.02927250
-0.05251781 -0.17238079
-0.11131459 0.03575769
0.32156661 -0.07889787
-0.06020601 -0.07025310
-0.04075664 -0.00519422
0.02189364 -0.06495498
0.07599902 -0.02344810
0.11451703 0.06697094
0.00165349 -0.06243834
0.14831324 -0.06331321
-0.04221400 -0.01825820
-0.08417320 0.03295209
-0.01536582 -0.13979955
0.07201619 -0.10782140
0.00993862 -0.05453200
-0.04774448 0.04232768
-0.06562231 -0.01345643
-0.11190223 -0.07876998
-0.02867677 0.04438130
0.08988280 0.01282221
-0.02182507 -0.08147261
0.00541758 -0.03905554
-0.04818825 0.00667862
-0.00822774 -0.09293947
-0.02091425 -0.02264009
-0.03281714 -0.14738941
-0.02524112 0.70173097
-0.01432904 0.06094245
0.03227361 -0.03387079
-0.08658613 -0.08335414
-0.07280437 -0.03573081
0.13154931 0.02159048
-0.12077937 -0.03453452
-0.12459555 -0.05575955
-0.09652767 -0.05622969
-0.13457093 -0.02917705
0.05154761 -0.07523324
-0.03017535 -0.05307744
-0.04947115 0.06461448
0.18749529 0.05220731
-0.02039189 -0.00823977
-0.18338774 0.13736084
-0.06230009 -0.00864259
-0.03089787 -0.07585306
-0.03946839 -0.03206207
-0.02041771 0.08518326
-0.09759035 -0.00357385
0.05366547 0.02771847
-0.08792391 0.08745767
-0.05149977 0.00201307
-0.02662885 -0.11546984
-0.05854804 0.06456777
0.04860726 -0.14210339
-0.14734852 0.01550093
-0.00456215 -0.10088971
-0.01243248 -0.09287913
0.16439827 -0.06031605
-0.03430703 -0.09215523
-0.04209905 -0.10857652
0.04713632 0.01249538
-0.04934803 -0.04338105
0.03468827 0.14306362
-0.03447198 -0.02661712
-0.06551933 0.06005886
0.07145627 -0.04051102
0.04710385 0.02857254
0.02691770 -0.00577140
-0.15655746 0.07001252
-0.04602291 -0.00775778
0.00623803 -0.12123371
0.04727858 0.01994085
-0.00180658 0.00257170
-0.03482224 -0.01354737
-0.00260726 0.08021852
-0.05613409 -0.10181027
0.05703606 0.04191564
0.02010192 -0.07800415
-0.03808926 -0.01278699
0.04277603 0.01795145
0.03083955 -0.03556646
0.07656391 -0.06796572
-0.01540128 -0.00508054
-0.08538476 0.03731475
-0.04674631 -0.08860750
-0.04080918 -0.06794102
0.08377362 -0.01397593
0.08327374 0.01653170
0.09021319 -0.00644042
0.00337394 -0.08737737
-0.00660085 0.02181412
-0.04586296 -0.12000045
-0.02710996 0.03856470
-0.04748636 0.01735700
-0.07152687 -0.08259298
-0.03708784 -0.02011698
-0.03820121 -0.01782876
0.06937193 0.14599299
0.04204053 -0.06299024
-0.05783224 -0.00181275
0.10403915 -0.01387985
-0.05156438 -0.08362130
-0.02649765 -0.06888296
0.01847560 -0.03312016
0.00993909 -0.06999265
-0.03577223 -0.10482538
0.00349236 0.09017918
-0.10437337 0.04478533
-0.08655179 0.01235824
0.04243774 -0.00188510
-0.03825510 -0.04220047
-0.03728603 -0.06373090
-0.00023048 -0.00238198
-0.08435384 -0.00565282
-0.00292481 -0.00082353
0.00196197 0.00485564
0.02094455 -0.01307676
-0.05283827 -0.06833491
-0.14011769 0.03506318
0.10510569 0.02989429
0.07125444 -0.02070188
-0.06053566 0.08080781
0.02307531 0.04646474
-0.02848047 0.01744262
-0.12861033 -0.07241406
-0.03933560 -0.04112011
-0.04278395 -0.02041842
-0.05841996 0.11042651
-0.03567364 -0.13043064
0.01652554 -0.01141894
-0.01396509 -0.01005234
0.13479863 0.02597102
0.07787513 -0.00464710
-0.04573737 0.01761939
-0.00692255 0.00326676
-0.10406988 -0.03859570
0.03812034 -0.06750584
-0.04093214 0.00460278
0.05413859 -0.08031813
0.01694163 0.01607175
-0.03405369 0.01350074
-0.06340564 -0.02707903
-0.00217389 -0.04914775
-0.01378751 -0.02723744
0.09319384 0.11096085
0.04492368 0.06123217
-0.09778472 -0.07320179
0.02970068 0.00092441
0.00996764 0.04848815
-0.01165939 0.02488576
0.09969459 -0.06086086
0.01086313 -0.06317581
-0.02227755 0.06048379
0.01214527 -0.07612482
0.01770917 0.01180352
-0.02410203 -0.03570725
-0.09949000 0.07896922
-0.01891663 -0.01353528
-0.00196266 0.03487832
-0.06567221 0.12537056
-0.02804077 -0.03150059
0.02351433 -0.00359253
0.02436916 0.02604177
-0.06538992 -0.09514681
-0.16892730 -0.00490391
-0.05904640 0.08330097
-0.02054059 -0.08130150
-0.03777432 0.00960678
0.02267575 -0.08261391
0.04897046 0.03004229
-0.09625713 0.01050564
0.02666354 -0.03112943
-0.00926827 0.07082497
0.02998775 -0.13285041
0.05175441 -0.07307459
-0.00686582 -0.02197262
-0.03953990 0.08015140
0.00352359 -0.01820640
0.02982524 0.02445341
-0.07102734 0.00817662
-0.01306223 0.03892944
0.00748443 -0.00946037
0.08495905 -0.00427624
0.03384128 0.01575764
-0.05852464 -0.08555054
-0.09045961 -0.04819141
0.02711432 -0.03893575
0.02736833 0.09519869
-0.10578649 -0.08228859
0.01890467 0.01176021
0.03686699 0.06094019
0.09775481 0.00509344
0.04017590 -0.02293153
-0.08868172 0.00684120
-0.01704169 -0.10070375
-0.06903189 0.05822155
-0.04964454 -0.05079425
0.01336218 -0.03115903
-0.09289883 0.11205471
-0.09714482 -0.02548563
0.01917315 0.02115397
-0.07577293 0.10314983
-0.09352130 -0.00626573
-0.00678757 -0.03998211
-0.02266373 0.02866300
-0.02843050 0.01175655
0.08391544 0.00645984
-0.01250857 0.06829436
-0.00118806 0.00844391
-0.02353632 0.02416271
0.01961025 -0.00045666
-0.03135603 -0.00826601
0.00725430 0.06960043
-0.04718965 0.00844692
-0.03322591 -0.00385437
-0.02916687 0.00533037
-0.04530472 -0.04577772
0.02189046 -0.07037416
-0.07531310 -0.08640102
0.00142826 0.03579449
-0.03241802 -0.03590729
-0.06064732 -0.05714082
0.04901723 -0.02808782
0.00776275 -0.02795599
-0.04224503 0.01670547
0.00453169 0.00218597
-0.09269603 0.04935431
0.00030703 -0.06102578
-0.08155908 -0.01891534
-0.02787532 -0.00137714
-0.01663842 -0.00021200
0.04980666 0.04586973
-0.04283214 0.02067408
0.02861174 0.07032646
0.04663395 0.00421812
0.03487372 0.00469222
-0.02261038 0.03634238
0.01263390 0.04246812
-0.04440270 -0.01241375
-0.00762025 -0.04171960
0.06850839 0.00997597
0.01067794 0.01702982
-0.01089428 -0.08283074
-0.05798850 -0.02181249
-0.00290012 -0.10918351
-0.02128184 -0.06598175
0.00542529 -0.02750722
-0.11318570 -0.01181100
-0.03310995 -0.02025294
0.04732449 0.00639027
-0.02833043 0.03642436
0.03632256 -0.01316699
0.04177359 -0.11266944
0.00103250 0.02090405
0.13330871 -0.06398889
0.04368170 0.00585834
0.07010813 -0.00100092
0.05503955 -0.05814891
0.05354996 0.03948779
-0.12575988 0.12620805
-0.09730001 0.03682973
-0.01059280 -0.01138257
-0.02455292 -0.07255849
-0.01903629 -0.04698570
0.00206430 -0.06742142
-0.09180793 -0.06123143
0.13123266 -0.02072473
-0.06524256 -0.08779990
-0.04808550 0.01512165
-0.00855073 -0.06715841
-0.05681481 -0.03668433
-0.00374101 -0.00265237
-0.09702972 0.00329315
-0.03941675 -0.09154286
0.01096374 -0.06269551
-0.01310912 -0.06868468
0.03197045 -0.18354264
0.10676298 0.20079051
0.09974552 -0.04166889
0.00393240 0.02123734
-0.09308872 0.02792942
0.04768449 -0.10339997
-0.01023157 -0.05651860
0.07495377 -0.08124034
-0.06914485 -0.13181482
-0.09441801 0.05148684
-0.01080153 0.03794131
0.19131516 0.12810118
0.02885716 -0.10026768
-0.00699642 -0.01571011
0.06890391 -0.09431446
0.12394617 -0.10403317
0.04857243 0.04315717
-0.01119309 -0.00731891
0.04309246 -0.09791531
0.03757023 0.06144753
0.04757809 0.07246379
-0.01382346 -0.07855386
0.00041795 0.10681920
-0.02000609 0.10059380
-0.14697260 -0.02067852
0.04809673 -0.06300340
-0.02351038 -0.01859365
0.14436267 -0.05238565
-0.05996994 -0.06838463
0.10527564 0.05470820
0.06306563 0.07630790
-0.05627989 -0.08182655
-0.10207897 -0.19746926
-0.04053387 -0.13480769
-0.07886314 -0.10636532
0.10383061 -0.02806601
