-0.00825412 -0.00764992
-0.00702694 0.00317044
-0.00158586 0.00679016
0.00119762 0.00284848
-0.00598857 0.00000000
0.00000000 0.00000000
-0.00000000 -0.00000000
0.00000000 0.00000000
-0.00000000 -0.00000000
-0.00254278 -0.00642763
-0.00536415 -0.00517543
-0.00977477 -0.02017957
0.00340826 -0.00691896
-0.00613666 -0.00197624
-0.00767026 0.00149882
-0.00053577 0.00160499
-0.01194542 0.00005148
-0.00156235 -0.01288699
-0.00111355 -0.00788636
-0.00538081 -0.00078621
-0.00466659 -0.00678997
-0.00051499 -0.00441342
-0.00589433 0.00075220
-0.00724414 -0.00823299
0.00241674 -0.00953850
-0.00864925 0.00117987
-0.00250485 0.00592220
-0.00000000 0.00000000
-0.00000000 0.00000000
-0.00000000 0.00000000
0.00000000 0.00000000
-0.00000000 0.00000000
-0.00000000 0.00000000
0.00000000 -0.00000000
0.00000000 0.00000000
0.00000000 -0.00000000
0.00000000 -0.00000000
-0.00000000 0.00000000
-0.00000000 -0.00000000
-0.00000000 -0.00000000
-0.00000000 -0.00076960
-0.00477428 -0.00454721
-0.00712466 -0.00903782
-0.01216007 -0.00168776
-0.00583320 -0.00401310
-0.00352178 -0.00256562
-0.00911638 0.00376332
-0.00852161 -0.00047971
-0.00177875 -0.00038849
0.00311297 -0.00000000
0.00000000 0.00000000
-0.00000000 -0.00000000
0.00000000 -0.00000000
-0.00000000 -0.00000000
-0.00406842 -0.01059490
-0.00756227 -0.00246794
-0.01305937 -0.00968297
0.00025153 0.00422765
0.00036834 0.00000000
-0.00000000 0.00000000
-0.00000000 0.00000000
-0.00000000 0.00000000
-0.00000000 -0.00000000
-0.00263089 -0.00545991
-0.00211730 -0.00076083
0.00606223 0.00287331
0.00793664 0.00496206
-0.00722791 -0.00419021
-0.00811470 0.00232248
-0.00323743 -0.00552201
-0.00511135 -0.00067443
-0.00327313 -0.00253539
0.00000007 -0.00000003
0.00000004 0.00000006
0.00000001 -0.00000004
0.00000005 -0.00000008
-0.00000009 0.00036553
0.00285232 0.00039023
-0.00263620 -0.01261236
-0.00117566 -0.00136181
0.00262264 -0.00269118
-0.00000000 -0.00000000
0.00000000 -0.00000000
-0.00000000 -0.00000000
0.00000000 -0.00000000
0.00000000 -0.00909698
-0.01605386 -0.00432313
-0.00426807 0.00501053
-0.00367246 0.00093737
-0.00121898 -0.00037505
-0.00531955 -0.00904188
-0.00438882 -0.00163487
-0.00563525 -0.00267367
-0.00088034 -0.00245568
0.00040863 -0.00000000
-0.00000000 -0.00000000
-0.00000000 -0.00000000
-0.00000000 -0.00000000
-0.00000000 0.00000000
0.00289438 -0.00308866
-0.00528250 0.00425997
-0.00639678 -0.00196104
0.00281732 -0.00127293
0.00431616 0.00154487
-0.00772483 -0.00264963
-0.00159581 -0.00240278
-0.00099284 -0.00501397
-0.00007071 -0.00614174
0.00212341 -0.00310524
-0.00015488 0.00099148
-0.00358712 -0.00077624
-0.00351434 0.00328341
0.00179973 -0.00000000
0.00000000 0.00000000
-0.00000000 0.00000000
-0.00000000 0.00000000
-0.00000000 -0.00000000
-0.00138205 0.00095505
-0.00066292 -0.00031932
-0.00238065 -0.00181113
0.00072228 -0.00200969
-0.00398203 0.00241120
0.00361550 0.00177976
0.00255798 0.00368261
-0.00133508 0.00095592
0.00270785 -0.00234244
0.00059145 -0.00258969
-0.00321408 0.00042450
-0.00355245 -0.00327929
-0.00256482 0.00017120
-0.00319224 -0.00143160
-0.00104834 -0.00049896
0.00039166 -0.00311265
-0.00307676 -0.00733679
0.00037575 -0.00117181
-0.00000000 -0.00000000
-0.00000000 -0.00000000
0.00000000 0.00000000
0.00000000 -0.00000000
-0.00000000 0.00000000
0.00000000 0.00000000
0.00000000 0.00000000
0.00000000 -0.00000000
-0.00000000 -0.00000000
0.00000000 0.00000000
-0.00000000 -0.00000000
-0.00000000 -0.00000000
-0.00000000 -0.00000000
-0.00000000 -0.00060684
-0.00006260 -0.00136978
0.00135698 -0.00449744
-0.00123263 -0.00103246
-0.00166540 -0.00194697
-0.00003055 -0.00136580
-0.00140977 0.00194227
-0.00438982 -0.00201677
-0.00314624 -0.00043280
-0.00096009 0.00000000
-0.00000000 0.00000000
0.00000000 -0.00000000
0.00000000 0.00000000
0.00000000 -0.00000000
-0.00078666 -0.00187094
-0.00055340 0.00049442
-0.00551058 -0.00047894
-0.00273069 0.00001022
-0.00170127 -0.00000000
0.00000000 0.00000000
-0.00000000 -0.00000000
-0.00000000 0.00000000
-0.00000000 -0.00000000
0.00124736 -0.00009325
0.00541210 0.00192566
0.00114167 0.00554342
0.00675288 0.00603741
0.00214841 -0.00002551
-0.00362555 -0.00286923
-0.00029875 -0.00469785
-0.00324615 -0.00266542
0.00013835 -0.00284249
0.00000006 0.00000005
0.00000007 0.00000004
-0.00000000 -0.00000005
0.00000005 -0.00000005
-0.00000006 0.00105555
-0.00110403 0.00316875
0.00257333 -0.00054261
0.00302334 -0.00373625
0.00290840 0.00007878
0.00000000 -0.00000000
-0.00000000 0.00000000
-0.00000000 0.00000000
-0.00000000 -0.00000000
-0.00000000 -0.00311502
-0.00346197 0.00384477
-0.00498539 -0.00588308
0.00225990 0.00270486
-0.00124491 -0.00312339
-0.00089459 -0.00379373
-0.00294564 0.00034539
-0.00272354 -0.00301658
-0.00105962 -0.00016073
-0.00296894 -0.00000000
-0.00000000 -0.00000000
-0.00000000 -0.00000000
0.00000000 -0.00000000
0.00000000 0.00000000
0.00026374 0.00345439
-0.00065960 0.00285332
-0.00035611 -0.00227299
-0.00005659 -0.00283353
0.00062692 -0.00175672
0.00210562 0.00062593
0.00306818 0.00026832
0.00015140 -0.00109236
0.00296927 -0.00000900
-0.00612538 -0.00468690
0.00555959 -0.00358619
-0.00116509 0.00115644
-0.00323424 -0.00269195
-0.00124002 0.00000000
0.00000000 0.00000000
0.00000000 -0.00000000
0.00000000 -0.00000000
-0.00000000 -0.00000000
0.00023648 0.00043920
-0.01502807 -0.00289855
-0.00605419 -0.00149419
-0.00594413 -0.00893828
-0.01605648 -0.00121204
-0.00195389 -0.00906023
-0.00324005 -0.00781384
-0.00932225 -0.00073607
-0.00756580 -0.00918910
-0.00394576 -0.00204659
-0.00411896 0.00009557
-0.00086724 -0.00399940
-0.00954401 -0.01487393
-0.01306582 0.00267913
-0.00174336 -0.00098323
-0.00361058 -0.00713349
-0.00493133 0.00164735
-0.00173853 -0.00486440
0.00000000 -0.00000000
0.00000000 0.00000000
-0.00000000 0.00000000
-0.00000000 0.00000000
-0.00000000 -0.00000000
-0.00000000 0.00000000
-0.00000000 -0.00000000
-0.00000000 -0.00000000
-0.00000000 -0.00000000
-0.00000000 0.00000000
0.00000000 -0.00000000
-0.00000000 -0.00000000
0.00000000 -0.00000000
0.00000000 0.00291455
-0.00772326 -0.00992207
-0.00406136 -0.00481596
0.00519174 -0.00666339
-0.00400279 -0.00715453
-0.00022668 -0.00485424
0.00313573 -0.00595190
-0.00421157 0.00118432
-0.00124577 -0.00291983
-0.00614827 -0.00000000
0.00000000 -0.00000000
-0.00000000 0.00000000
0.00000000 0.00000000
-0.00000000 0.00000000
0.00029600 0.00022738
-0.00289782 -0.00731626
-0.00626371 0.00133492
-0.00028868 -0.00040709
-0.01094689 0.00000000
0.00000000 0.00000000
-0.00000000 0.00000000
0.00000000 -0.00000000
0.00000000 -0.00000000
-0.00582857 0.00469654
0.00358125 0.00313736
0.00172001 -0.00319267
-0.00849958 -0.01167211
-0.01103332 -0.00048108
-0.00381401 0.00414191
-0.01089314 -0.00753789
-0.00439549 -0.00855387
-0.01244346 -0.01495734
0.00000001 0.00000000
-0.00000009 -0.00000008
-0.00000005 -0.00000002
-0.00000003 -0.00000013
-0.00000016 0.00226107
-0.00551575 0.00398366
-0.00517960 -0.00176796
-0.00137341 -0.00229787
-0.01046153 -0.00831868
0.00000000 -0.00000000
0.00000000 -0.00000000
-0.00000000 0.00000000
-0.00000000 0.00000000
-0.00000000 -0.00268193
0.00586034 -0.00466863
0.00314899 -0.00339213
-0.00407964 0.00090690
-0.00369950 -0.01525341
-0.00181616 -0.00179204
0.00360812 -0.00374726
-0.00706387 -0.00406340
-0.00415742 -0.00399267
-0.00479918 -0.00000000
0.00000000 -0.00000000
-0.00000000 -0.00000000
0.00000000 -0.00000000
-0.00000000 0.00000000
0.00224317 -0.00083359
0.00047735 0.00042790
-0.00474574 0.00410621
-0.00073631 0.00124509
-0.00034645 0.00422816
0.00080425 -0.00441632
-0.00246315 0.00302344
-0.00533776 -0.00667924
-0.00630370 -0.00397625
0.00268658 -0.01359064
-0.00351550 -0.01005950
-0.00969470 0.01035782
-0.00227224 -0.00619252
0.00275249 -0.00000000
-0.00000000 -0.00000000
0.00000000 -0.00000000
-0.00000000 -0.00000000
-0.00000000 -0.00000000
-0.00281801 -0.00009469
0.00306410 0.00627301
-0.01643169 -0.00615780
-0.00238085 -0.00897040
-0.01072466 0.00273638
-0.00125095 0.00330076
-0.00228933 -0.00012998
-0.02806040 0.00759634
-0.01448577 -0.01197083
0.00523005 -0.00830937
0.00303560 -0.00207043
-0.01009300 -0.00789558
-0.00292924 -0.01541311
-0.00883663 0.00090759
-0.00777177 -0.00451953
0.00213315 -0.01796261
-0.00006290 -0.00164345
-0.00445471 0.00285353
0.00000000 0.00000000
0.00000000 -0.00000000
0.00000000 -0.00000000
0.00000000 0.00000000
0.00000000 -0.00000000
0.00000000 -0.00000000
-0.00000000 -0.00000000
-0.00000000 0.00000000
-0.00000000 -0.00000000
-0.00000000 -0.00000000
-0.00000000 0.00000000
-0.00000000 -0.00000000
0.00000000 0.00000000
0.00000000 0.00603447
-0.00537071 -0.00067461
0.00355405 -0.01982197
-0.00529508 -0.00861911
-0.00917152 0.00630667
0.00155994 -0.00978094
-0.00117358 0.00000908
-0.01617604 0.00373739
-0.00456899 -0.00419857
0.00499544 -0.00000000
-0.00000000 -0.00000000
-0.00000000 0.00000000
-0.00000000 -0.00000000
-0.00000000 -0.00000000
0.00156998 -0.00773659
0.00285692 -0.00156702
-0.02030353 0.00086646
-0.00489964 0.00535983
-0.00158506 0.00000000
-0.00000000 0.00000000
-0.00000000 0.00000000
0.00000000 0.00000000
-0.00000000 0.00000000
0.00672826 -0.00576575
0.00017141 -0.00660097
0.01193696 -0.01676573
-0.00190990 -0.01428394
-0.00702886 -0.00354711
-0.00916438 0.00030663
-0.00728058 -0.01609488
-0.00441496 -0.01104919
-0.00329162 0.00009862
0.00000001 0.00000007
-0.00000004 -0.00000003
-0.00000012 -0.00000013
-0.00000005 -0.00000013
-0.00000001 0.00934447
-0.01472249 0.00152781
-0.02403389 -0.01715048
-0.00294818 -0.00892230
-0.00638795 0.00132064
0.00000000 0.00000000
-0.00000000 -0.00000000
-0.00000000 0.00000000
-0.00000000 -0.00000000
-0.00000000 -0.01444777
-0.00360530 0.00145484
-0.00971873 0.00128255
-0.00232277 -0.00111133
-0.00914539 0.00487422
-0.00225602 -0.01072410
-0.00581318 -0.00081285
-0.01055096 -0.00084783
0.00181478 -0.00186591
0.00839364 -0.00000000
-0.00000000 0.00000000
-0.00000000 0.00000000
-0.00000000 -0.00000000
-0.00000000 -0.00000000
0.00706512 0.00936192
0.00067069 0.00863754
-0.00636345 -0.00038344
0.00170954 0.00047168
-0.00245806 0.00251183
0.00032299 -0.01475129
-0.00910998 0.00436601
0.00517902 -0.01334838
0.00479686 -0.00877158
-0.00932363 -0.00623401
0.00523183 -0.00828148
-0.00884381 0.00640616
-0.00326708 -0.00040889
0.00150075 0.00000000
-0.00000000 0.00000000
-0.00000000 -0.00000000
0.00000000 -0.00000000
-0.00000000 -0.00000000
0.00071326 0.00740150
-0.00511003 -0.02495348
-0.00770281 -0.00986381
-0.00079882 -0.03107238
-0.01070207 -0.00462287
-0.00779492 -0.00764946
-0.00392373 -0.01909249
0.00069513 0.01060065
-0.02184327 -0.01197820
0.00024703 0.00020173
-0.00527542 -0.01141313
-0.01357878 -0.00189921
-0.00437427 -0.01444457
-0.01083910 -0.01118137
0.00256971 -0.00338478
-0.00584066 -0.01969308
0.00405109 0.00627909
-0.00532037 -0.01059794
-0.00000000 -0.00000000
0.00000000 0.00000000
-0.00000000 0.00000000
0.00000000 0.00000000
-0.00000000 -0.00000000
-0.00000000 -0.00000000
-0.00000000 -0.00000000
-0.00000000 0.00000000
-0.00000000 -0.00000000
-0.00000000 0.00000000
0.00000000 -0.00000000
-0.00000000 0.00000000
0.00000000 -0.00000000
0.00000000 0.00709838
0.00005705 -0.00340127
-0.01764881 -0.00328950
0.00144161 -0.00370909
-0.01409088 -0.00556762
-0.00628275 0.00456135
0.00485574 -0.01150128
-0.02038842 0.00896150
0.00079664 -0.00342014
-0.00149673 -0.00000000
0.00000000 0.00000000
-0.00000000 0.00000000
0.00000000 -0.00000000
0.00000000 0.00000000
-0.00344077 0.00575488
0.00084808 -0.03241666
-0.01862533 -0.00261980
0.00036576 -0.01392132
-0.01306875 0.00000000
0.00000000 0.00000000
-0.00000000 0.00000000
0.00000000 -0.00000000
0.00000000 -0.00000000
-0.00603160 0.00097723
0.00254292 -0.02337762
-0.00026390 0.00217929
-0.00587977 -0.01804250
-0.01325582 -0.00796250
-0.00518060 0.01041353
-0.00511544 -0.01397109
0.00045133 0.00595179
-0.01663614 -0.00749104
-0.00000012 0.00000009
-0.00000002 -0.00000010
-0.00000010 0.00000008
-0.00000001 -0.00000024
-0.00000002 -0.00431038
0.00211295 -0.00516117
-0.01440918 -0.00592105
-0.00640032 0.01090169
-0.01589490 -0.02348617
-0.00000000 0.00000000
0.00000000 -0.00000000
-0.00000000 -0.00000000
-0.00000000 0.00000000
0.00000000 0.00046465
-0.00607006 0.00771270
-0.01867506 0.00299722
-0.01351736 0.00495569
-0.01188739 0.00464803
0.00026217 -0.00317458
0.00423847 0.00222477
-0.01725852 -0.00443317
0.01111349 -0.00635148
-0.00158535 -0.00000000
0.00000000 0.00000000
0.00000000 0.00000000
-0.00000000 0.00000000
-0.00000000 0.00000000
-0.00905263 0.00361793
0.00215771 -0.00347483
-0.01223728 0.00375478
0.00569550 0.00403113
0.01042719 0.00878307
-0.00313790 -0.00536873
-0.00388074 0.00036980
-0.00151879 0.00416986
-0.01411930 -0.01992077
-0.01148814 -0.00613240
0.00113648 -0.00027670
-0.00005940 0.00295875
-0.00257032 0.00025501
-0.00158360 0.00000000
0.00000000 0.00000000
-0.00000000 -0.00000000
0.00000000 -0.00000000
-0.00000000 -0.00000000
0.00018363 0.00884257
0.00212117 -0.01127457
-0.01992020 -0.00448094
-0.00158214 -0.01553713
-0.00487800 0.00369882
0.01121739 0.00880091
0.00698984 -0.00798541
-0.00640700 0.00869315
-0.00989795 -0.00889667
-0.00810377 -0.00755524
0.00226444 -0.00812284
-0.01413119 -0.00987779
-0.00299594 -0.01036275
-0.00620512 -0.00430126
-0.00903117 0.00121870
-0.00264102 -0.01418314
0.00039727 0.00160331
-0.00210953 -0.00540314
-0.00000000 0.00000000
0.00000000 -0.00000000
0.00000000 0.00000000
-0.00000000 0.00000000
-0.00000000 0.00000000
-0.00000000 -0.00000000
0.00000000 -0.00000000
0.00000000 0.00000000
0.00000000 0.00000000
0.00000000 -0.00000000
0.00000000 -0.00000000
-0.00000000 -0.00000000
-0.00000000 -0.00000000
-0.00000000 0.00006652
-0.00203078 0.00382359
-0.01476587 -0.01909920
-0.00210299 -0.00847040
-0.00355624 -0.00851079
-0.00814147 -0.00644796
0.00291954 -0.00574460
-0.01245776 0.00036044
-0.00274122 -0.00008476
-0.00194462 -0.00000000
0.00000000 0.00000000
0.00000000 -0.00000000
0.00000000 -0.00000000
-0.00000000 -0.00000000
-0.00733663 -0.00089999
0.00223231 -0.00785771
-0.00927904 0.00428743
0.00050243 0.00030799
-0.00607291 0.00000000
0.00000000 0.00000000
0.00000000 0.00000000
-0.00000000 0.00000000
0.00000000 -0.00000000
0.00297401 0.00827592
0.00622909 0.00917551
0.00831297 -0.00699330
0.00631441 -0.00771235
-0.00494333 -0.01164660
-0.00462213 0.00571173
-0.01341350 -0.01311236
-0.00838427 0.00012565
-0.01012390 -0.01106404
0.00000007 0.00000006
0.00000004 -0.00000001
-0.00000016 0.00000003
0.00000002 -0.00000016
-0.00000010 -0.00119684
-0.00134243 0.00429208
-0.01327922 -0.00702445
0.00191407 0.00428564
-0.00196794 -0.00911418
-0.00000000 -0.00000000
0.00000000 -0.00000000
-0.00000000 -0.00000000
-0.00000000 -0.00000000
-0.00000000 -0.01219942
0.00502009 -0.00266966
-0.00991502 -0.00690550
-0.00488699 0.00077583
0.00054667 -0.00033114
-0.01533138 -0.01364909
-0.00050670 -0.00927158
-0.01131611 -0.00765290
0.00193154 -0.00034649
0.00168844 -0.00000000
-0.00000000 -0.00000000
0.00000000 0.00000000
-0.00000000 0.00000000
-0.00000000 -0.00000000
0.00224671 -0.00459039
0.00410311 0.00510853
-0.00590886 0.00424860
0.00136216 -0.00026302
0.00699854 0.00999121
-0.00467617 -0.00035180
0.00042811 0.00677346
0.00214343 0.00358608
0.00564110 -0.01769541
-0.00010698 -0.00050657
0.00034419 0.00041704
0.00018124 -0.00054460
-0.00011123 0.00053215
-0.00046251 0.00000000
-0.00000000 -0.00000000
0.00000000 -0.00000000
-0.00000000 -0.00000000
-0.00000000 -0.00000000
-0.00196144 0.00002510
0.00295897 0.00053562
-0.00094307 0.00043691
-0.00003027 0.00166151
-0.00110053 -0.00049524
-0.00011348 0.00129634
-0.00079556 -0.00008133
0.00001050 -0.00084401
-0.00036496 -0.00033323
-0.00079564 0.00024398
0.00147628 0.00010100
-0.00005314 0.00041030
0.00021250 0.00143883
-0.00027091 -0.00017172
-0.00090266 0.00080615
0.00073315 0.00058325
-0.00056566 -0.00136941
0.00073164 0.00036265
-0.00000000 -0.00000000
0.00000000 -0.00000000
0.00000000 0.00000000
-0.00000000 0.00000000
-0.00000000 0.00000000
0.00000000 -0.00000000
0.00000000 0.00000000
-0.00000000 0.00000000
-0.00000000 -0.00000000
0.00000000 -0.00000000
0.00000000 -0.00000000
-0.00000000 -0.00000000
-0.00000000 -0.00000000
-0.00000000 -0.00141940
-0.00003509 0.00218161
0.00082525 -0.00040818
0.00053813 0.00079626
0.00118730 -0.00055529
-0.00029353 -0.00053593
0.00108105 0.00106189
0.00000154 -0.00074323
-0.00029793 0.00069252
-0.00099975 -0.00000000
0.00000000 0.00000000
0.00000000 0.00000000
0.00000000 -0.00000000
-0.00000000 -0.00000000
-0.00118020 -0.00036358
0.00281351 0.00143396
-0.00067644 0.00002185
-0.00100512 0.00176057
-0.00072376 0.00000000
-0.00000000 -0.00000000
-0.00000000 0.00000000
0.00000000 0.00000000
-0.00000000 -0.00000000
0.00014143 -0.00003076
-0.00004211 0.00023853
0.00040417 0.00009791
-0.00077399 0.00035430
0.00019776 -0.00136010
-0.00066358 0.00098964
0.00011978 -0.00038893
-0.00100574 -0.00034781
0.00054831 -0.00058123
-0.00000000 -0.00000001
-0.00000002 0.00000001
-0.00000001 -0.00000001
0.00000001 0.00000001
0.00000000 -0.00072864
0.00034573 0.00169901
0.00093171 -0.00021772
-0.00065113 -0.00001247
0.00080301 -0.00018816
-0.00000000 0.00000000
-0.00000000 -0.00000000
-0.00000000 -0.00000000
-0.00000000 -0.00000000
0.00000000 -0.00099607
0.00067989 0.00246137
0.00106406 -0.00036970
0.00144399 0.00140770
0.00145775 -0.00065434
-0.00106145 -0.00072524
0.00027995 0.00076437
0.00038460 -0.00089741
0.00027620 0.00095062
-0.00023423 -0.00000000
-0.00000000 -0.00000000
-0.00000000 0.00000000
0.00000000 -0.00000000
-0.00000000 -0.00000000
0.00029970 -0.00099062
0.00045306 0.00089079
-0.00050907 -0.00094949
-0.00031692 -0.00000977
-0.00023286 -0.00157614
-0.00017754 0.00080197
-0.00014455 0.00025355
0.00037262 -0.00188071
0.00051907 0.00019683
-0.00696802 0.00149758
0.01520304 -0.00481598
-0.01236952 0.00433867
-0.00028124 -0.00973749
0.00890380 -0.00000000
-0.00000000 0.00000000
-0.00000000 -0.00000000
-0.00000000 0.00000000
0.00000000 -0.00000000
-0.01153845 -0.00685609
0.00144207 -0.01882642
0.00085575 0.01352847
-0.00479955 -0.01071978
0.00086477 0.00318715
-0.00627564 0.00353577
0.00317829 0.00414518
0.00297182 0.00655991
-0.00261465 -0.01125695
-0.01695377 -0.00440552
0.00550936 -0.01283355
-0.01025258 0.00461922
0.00259501 -0.00322562
0.00254656 -0.01303299
-0.00067482 0.00365563
-0.00566951 -0.00689216
0.00418237 0.00385426
-0.01049093 0.00363361
-0.00000000 0.00000000
0.00000000 0.00000000
-0.00000000 0.00000000
0.00000000 -0.00000000
-0.00000000 0.00000000
0.00000000 0.00000000
0.00000000 0.00000000
0.00000000 -0.00000000
0.00000000 -0.00000000
-0.00000000 -0.00000000
-0.00000000 -0.00000000
-0.00000000 0.00000000
-0.00000000 -0.00000000
-0.00000000 -0.00791561
-0.00290204 0.00543167
-0.00931199 -0.00383105
0.01752086 0.00052648
-0.00815894 0.00391250
-0.00735203 -0.00181289
0.00762866 -0.00542715
-0.00484504 0.00577746
0.00695645 -0.01229627
0.00110287 -0.00000000
0.00000000 0.00000000
-0.00000000 -0.00000000
-0.00000000 0.00000000
-0.00000000 -0.00000000
-0.00625530 0.00094498
0.00969400 -0.01011833
0.00132812 0.02072023
-0.00401128 -0.01117636
0.00365025 -0.00000000
0.00000000 -0.00000000
-0.00000000 -0.00000000
0.00000000 -0.00000000
-0.00000000 -0.00000000
0.01126655 0.00021642
0.00833933 -0.00821207
-0.00071712 0.01056793
0.01188328 0.01223961
0.01059249 -0.01431661
-0.00804329 0.00109947
-0.01237142 -0.00843475
0.00398535 0.00176564
-0.00544254 -0.00037129
-0.00000011 0.00000004
0.00000006 -0.00000005
-0.00000007 0.00000003
0.00000002 -0.00000006
-0.00000007 -0.01156411
-0.00143406 0.00833438
-0.00274040 -0.00121393
0.00536463 -0.00582883
-0.00412871 0.00417303
-0.00000000 -0.00000000
-0.00000000 0.00000000
0.00000000 -0.00000000
-0.00000000 -0.00000000
0.00000000 -0.00182291
0.00999133 0.00905586
-0.01742287 -0.00045129
0.00981500 -0.00413850
0.00045329 0.00251094
-0.00993393 -0.00666041
0.00240569 -0.01146042
-0.01084450 -0.00347357
-0.00856367 -0.01153331
-0.00358054 -0.00000000
-0.00000000 0.00000000
-0.00000000 0.00000000
0.00000000 0.00000000
0.00000000 -0.00000000
-0.00613454 0.00831174
-0.00086202 -0.00913816
-0.00108546 -0.00323581
0.00776289 -0.01349109
-0.00282808 0.00272494
0.00253662 0.00159607
0.00395440 0.00716634
0.00207047 0.00600050
-0.00128485 -0.00084549
