-0.13823092 -0.00669984
-0.04490568 0.04002602
0.00941882 -0.08648594
0.06574898 -0.04510737
0.07000084 0.02493935
-0.11988906 0.01113503
-0.02705190 -0.00163946
-0.01013011 -0.04457770
-0.08931966 -0.02291888
-0.10033720 -0.00215833
-0.09091848 -0.07916149
-0.03999304 -0.02925232
-0.06108943 -0.05191337
-0.05711063 -0.01725703
-0.08219284 -0.00672302
-0.14852864 -0.01244365
0.07050136 -0.07804398
-0.11291964 -0.03490495
0.02746511 0.07268698
-0.06937712 0.04847795
-0.06506681 -0.03207926
-0.13712928 -0.04734411
0.03145440 -0.10954045
-0.03763743 0.02152997
0.01722528 -0.02319917
-0.05362663 -0.02587357
-0.02918622 -0.05900749
-0.21284649 -0.02437471
-0.13146761 -0.10530952
-0.01266248 0.09879717
0.01843364 -0.02974319
-0.03480108 -0.00203059
-0.07690125 0.05778166
-0.00434001 -0.06691997
-0.07199480 -0.01401708
0.03890454 0.03650457
-0.00807297 -0.04744656
0.10767120 -0.00708166
0.00054415 0.03489380
-0.07425439 0.01395903
0.08572263 0.14699663
0.00101837 0.01825793
-0.01899113 -0.05175208
0.04893467 -0.00082880
0.04073037 -0.02401787
-0.03290949 -0.07319969
0.09093552 0.00188586
-0.03934580 0.05644578
0.00022521 -0.02151169
0.05648778 -0.01173988
0.06150367 -0.00328309
-0.01516578 0.03873138
-0.02231342 -0.04798214
0.00665281 -0.04296706
-0.01142152 -0.02216896
-0.06486004 0.02607133
0.01328039 -0.01904236
-0.13480000 -0.03102030
-0.08697419 0.10953224
-0.00533699 0.04447982
0.00109688 -0.00744000
0.00077696 -0.00915464
-0.00564032 0.10993209
0.03987191 -0.02913120
0.00947488 -0.01688382
0.01502526 0.07884867
0.07224330 0.05699402
0.04450826 0.05137279
0.07706448 0.09959676
0.02358459 0.04363021
-0.09937145 0.03485367
-0.08775679 -0.08586363
-0.02498560 0.03803993
-0.00694112 -0.04787683
0.01536621 0.03301492
0.01587586 -0.00987951
-0.07442922 0.02503094
0.04114491 0.03139218
-0.05508078 0.03285883
0.04965934 -0.04740325
0.00186166 -0.05168572
-0.03906983 -0.01567125
0.04207841 -0.03837660
-0.00513627 -0.05335289
-0.00881923 -0.07746401
-0.02969240 -0.01334727
0.07571032 -0.03532743
0.05874148 -0.06708597
0.01282643 0.01716606
-0.03340768 0.00826355
-0.03090256 0.03466982
0.01413083 0.06886079
-0.07257795 0.02783823
0.00716298 -0.06173625
0.01121305 0.06489331
0.01324785 -0.00870792
0.06128128 0.10668810
-0.06057255 0.03445878
0.01816380 -0.04652186
-0.04193674 0.06125735
-0.00387695 0.05903041
-0.11618745 0.07762893
-0.06638227 -0.06235838
-0.02442019 -0.00162130
0.04878838 0.05329376
0.02350373 0.06673960
0.01334611 -0.03238549
-0.00256091 -0.02421729
-0.05563493 -0.02878767
-0.06399646 0.08716348
-0.05878597 -0.00283284
-0.01898197 0.01361168
0.02234333 0.06402743
-0.03672677 0.00755783
-0.06546637 0.02523757
0.01130499 0.03952168
0.08469816 -0.04289382
-0.03653172 0.00433879
-0.08883202 -0.05342117
-0.00069459 -0.00573230
-0.02404045 0.00807420
-0.02290956 -0.05664818
0.03978465 -0.00670731
0.05328627 0.05611756
0.02635367 -0.10452382
-0.01444470 0.12405676
-0.03223078 -0.13017696
0.05084103 -0.07173712
-0.06100881 -0.00673615
-0.03144982 0.01211188
-0.03835960 -0.00833530
0.01886192 -0.10212567
0.04448602 0.00340440
0.00674390 -0.07181251
0.08310577 0.01554535
0.09766291 0.07034368
0.06175391 -0.08953810
-0.03473343 -0.01239199
0.02902487 -0.01314806
0.07799898 -0.01868566
0.02792925 0.05046346
-0.06472097 -0.05997906
-0.00179813 -0.05053794
-0.08817349 -0.00659880
-0.02223801 0.00366536
0.01218658 0.05612149
0.05633349 0.00947708
-0.01145434 -0.00574523
-0.02600108 -0.03473251
-0.01307402 -0.03159019
-0.01352809 0.01061811
-0.04533577 -0.05744524
0.02106699 0.01939873
0.02782159 -0.05184060
-0.02349184 0.00934530
0.04836936 0.12779002
-0.04013362 0.02062601
-0.05605464 -0.03029318
0.01132810 -0.03227393
0.03798934 0.01901212
-0.00791007 -0.03347923
0.01882823 -0.02496218
-0.03427021 0.01722995
-0.01167870 0.03235045
-0.05089901 -0.00383769
-0.02411173 -0.00382885
0.03970409 -0.01217388
0.00098176 -0.06515490
-0.02747142 -0.02913981
0.06251674 -0.01674187
-0.03367846 0.03308684
-0.01304938 0.00952390
-0.02900666 -0.02616514
0.03187400 -0.00393026
0.00557476 -0.04070987
0.01719926 0.03588376
0.03859503 -0.04730710
-0.01266002 -0.03557193
-0.02773346 -0.04672359
0.00773820 0.01694683
-0.04176461 0.03964645
-0.06933768 0.07016916
0.03482446 -0.01448913
0.10935647 0.07061170
-0.05777150 -0.02533097
-0.04600772 -0.06767304
-0.03889414 0.01510892
0.15274422 -0.03231432
0.02949257 0.05855110
0.00826379 0.06833304
0.10446416 -0.02514525
-0.04900921 -0.02226761
-0.05565356 -0.06941226
0.06883848 -0.10293692
0.08255818 -0.12504271
0.03138402 0.02384508
0.01108954 -0.15555076
0.06733543 0.00136464
-0.04636468 -0.03914365
-0.00082492 -0.04171189
-0.08039416 0.04997108
-0.02446054 0.03844272
-0.03333171 0.07910014
0.04404593 -0.02473394
-0.01648642 0.01022597
-0.06288018 0.01356336
-0.03915124 -0.05022360
0.01731838 0.00954415
-0.16449900 -0.09961458
-0.02172091 0.03878821
0.02620129 -0.00062119
-0.06942669 -0.04598784
-0.13388418 0.05809746
-0.10283463 0.05076121
0.00830257 -0.14943780
0.03399465 -0.06651623
0.00006047 0.00008302
-0.00012181 0.00008816
0.00027496 -0.00006105
0.00002903 0.00003030
-0.00008736 0.00008162
-0.00013511 -0.00033019
0.00000757 -0.00001693
0.00008552 -0.00024899
0.00008824 -0.00020469
0.00017818 -0.00003804
-0.00007879 -0.00002994
-0.00012060 -0.00008260
0.00002551 -0.00067771
-0.00001697 -0.00003729
0.00006581 0.00005352
-0.00003284 -0.00008503
0.00011940 0.00012749
-0.00004213 0.00024865
-0.00001603 -0.00003815
0.00024497 -0.00009228
0.00000453 0.00005284
-0.00017888 -0.00007534
0.00003916 -0.00002673
-0.00001636 -0.00006342
0.00001761 0.00015568
0.00015869 0.00005440
-0.00014296 0.00002623
0.00005967 -0.00005019
-0.00009007 -0.00003842
-0.00003567 -0.00012309
-0.00000659 0.00014445
-0.00009178 0.00012416
0.00042578 -0.00000092
0.00008866 0.00006420
0.00004373 -0.00004541
0.00015832 0.00000092
0.06048612 0.03547866
0.04442891 -0.03052042
-0.01828104 0.03915073
0.02511892 -0.01818707
0.00254070 0.02755695
0.04507319 -0.05968973
-0.01203703 -0.04973541
0.05107054 -0.04772995
0.05176671 0.00194129
0.02852838 0.03216420
-0.06733003 0.03050422
-0.02728867 0.01085210
0.01943349 0.03516211
-0.04913144 -0.07948469
0.01807015 -0.01424654
0.00590535 -0.00091646
0.01925719 -0.00682002
-0.04795730 -0.02324661
0.01134501 -0.02249894
-0.06031802 0.05309947
-0.02346853 -0.02991519
0.02192597 -0.06753977
-0.01699571 -0.01819142
0.00563970 -0.00555597
0.03691421 -0.00285043
-0.04973824 0.05524532
0.05385688 -0.08689119
-0.02434351 -0.01486516
-0.01354651 0.02792702
0.03303677 -0.00555266
0.02471741 -0.03418531
-0.02512653 -0.03830637
0.07095769 -0.03055451
-0.01510189 -0.00371411
-0.02499405 0.07049461
-0.03558000 0.07259760
-0.10169525 -0.14559671
-0.00425405 0.02326787
-0.07050869 0.06810240
0.14004505 -0.08265250
-0.23708224 -0.09533552
0.00529445 0.12037663
-0.07454025 -0.03822795
0.02398142 0.00536358
-0.08496709 0.01022726
0.12046861 -0.09046981
0.07051031 -0.07791979
-0.07724935 -0.03409742
0.02248075 -0.00518663
0.04262836 -0.07955170
0.17728429 -0.01885253
0.03512621 -0.03426890
-0.07644553 -0.02699634
-0.00485652 0.02897863
-0.14490971 -0.02891282
-0.02307013 0.17970198
-0.05824501 0.05455091
0.00664237 -0.04800941
0.03982790 0.01775220
-0.01423342 0.02616748
0.00021322 0.03099377
0.04468616 0.06189085
-0.07595908 0.04905326
0.06676042 -0.01853710
0.05375798 0.02529778
-0.08556921 -0.01777141
0.09994885 0.07318106
-0.00320432 0.01492078
-0.02553046 -0.02540175
-0.01060846 0.00726552
0.07229120 -0.07210863
-0.01829590 -0.06031651
0.00279761 -0.09177366
0.03399254 0.04960158
-0.02607549 0.03850213
0.10634883 -0.09010080
0.05451885 -0.00782170
-0.05361844 0.07477209
0.01051532 -0.09315348
0.04287161 -0.02736416
0.00796101 -0.05329189
-0.02782244 -0.04263589
-0.05955566 -0.08350332
0.00928712 0.06784438
-0.06847498 -0.01507056
-0.01529371 0.03878788
-0.10946816 0.00402435
-0.01394768 -0.00156123
-0.08806898 0.01529568
0.05309565 0.01154281
0.09365442 -0.05938417
-0.01193524 -0.01507283
0.06103795 0.06628316
0.03863446 -0.04505929
-0.02866554 0.02049090
-0.04591727 0.03577896
-0.05075512 -0.12205228
0.07247638 0.10019115
0.02404474 -0.01984183
-0.05406259 0.01955075
-0.04500746 0.05860622
-0.13096486 -0.03497132
-0.02079163 0.07664591
0.08391751 -0.05572104
-0.02964564 0.04264251
-0.05276043 -0.09685232
0.00900283 0.08193555
0.04557473 -0.10803026
-0.07293193 -0.04460497
0.00498580 -0.01493314
-0.03145033 -0.07457903
-0.03152769 0.10265454
-0.00736828 -0.02807806
0.00936356 -0.05556114
-0.01721492 0.00101356
-0.05061914 -0.01932492
-0.00383543 -0.10713774
-0.09725451 -0.09792549
-0.12961127 0.10168932
-0.08036619 0.11682420
0.01609143 0.08993641
-0.02988965 0.01202216
0.07826781 -0.03244138
-0.06599835 -0.03363362
0.04695965 0.00361891
-0.01918384 0.02007718
-0.03595772 0.04565802
0.08684707 0.12579504
0.05232850 -0.11998472
-0.06977662 0.02270254
-0.02111763 -0.08423264
-0.03543507 0.02509806
0.11708180 0.01405332
-0.13664496 0.01194384
0.06927630 -0.05565887
0.01188563 0.12279549
-0.08498911 0.00324643
-0.03137454 0.15128331
0.05408530 -0.01028404
-0.05947205 0.00005308
0.00668383 0.08580783
0.01078824 -0.05075689
0.02622066 0.05080203
0.02118666 0.04319562
0.00014588 -0.00012221
-0.00026133 -0.00046001
0.00025303 -0.00007302
0.00045924 -0.00025376
-0.00013115 -0.00019123
-0.00004335 -0.00028672
0.00029296 -0.00023200
-0.00028837 -0.00026141
-0.00004750 0.00005231
-0.00017329 -0.00036929
-0.00013141 -0.00011966
-0.00034145 -0.00013686
0.00155829 -0.00011482
0.00023930 -0.00023607
-0.00080492 0.00050100
-0.00034015 -0.00026474
0.00006343 -0.00022708
-0.00018241 -0.00041754
-0.00019875 0.00020705
-0.00032115 0.00019543
-0.00021207 -0.00038610
0.00016919 -0.00017400
0.00014292 -0.00025129
-0.00026724 0.00011563
0.00031925 0.00027817
-0.00017112 0.00006912
0.00006156 0.00020902
-0.00011165 -0.00023328
0.00050214 -0.00000458
0.00034945 0.00031904
0.00003930 -0.00004626
0.00008040 -0.00059667
0.00021336 -0.00002762
0.00002115 0.00012594
-0.00028826 0.00012787
-0.00002539 -0.00012870
0.10734259 -0.01028656
0.01008328 0.02940205
-0.01638051 0.01039299
0.01707528 -0.01338138
-0.04987175 -0.04914767
0.05808222 -0.05168782
-0.00089471 -0.01426340
-0.01750106 0.04898737
-0.00888434 0.07797024
-0.07837129 -0.09069060
-0.00775715 0.11031730
0.01358381 -0.01486807
-0.08233573 -0.03076453
0.05363775 0.02374134
-0.03993554 0.01257819
0.04343372 0.01892235
0.01301187 0.05400177
0.03230206 -0.09028540
-0.00123605 -0.07020215
0.07076313 -0.08526777
0.03171701 -0.04470404
0.06110825 -0.01083738
0.09905270 -0.02552237
0.02828993 0.11476853
-0.06029122 -0.01923077
0.00905747 -0.03477683
-0.04486943 -0.06639197
-0.07748928 -0.06060245
-0.02423868 -0.00108212
-0.06189381 -0.01729074
0.01933824 -0.07977895
0.00743259 0.03040896
0.02142487 -0.08131710
-0.03752200 -0.07363137
0.05908542 0.04227603
-0.05054275 -0.00304304
0.02514779 0.00614958
-0.13387735 -0.05837302
0.07454310 -0.14043815
0.00118317 -0.04759409
0.01872847 -0.02952676
0.00057066 -0.01370320
-0.09830247 0.00749208
0.11446936 0.00047812
-0.05040496 0.06508474
-0.12716575 0.04194244
-0.04690563 -0.03174622
-0.00908824 0.06886951
0.03599555 -0.00967071
0.04195322 -0.03822944
-0.08060844 0.04801607
-0.07807161 0.04004893
0.04658697 0.08698502
-0.01631943 -0.03427197
0.06525920 -0.13690487
0.11346545 0.07270403
-0.01358752 -0.04869342
0.03149024 -0.04332086
0.01384780 0.02748881
0.03198924 0.00676366
-0.12020621 0.01667719
-0.06229639 0.08567031
0.02788623 0.09038093
-0.03595043 0.06808361
-0.08550702 0.11001632
0.03414281 0.00171650
0.09981418 -0.13580871
0.04203178 -0.09622000
0.00586620 -0.05538678
0.05020270 -0.11981691
0.07276199 -0.06387054
0.05157878 0.08995682
-0.09089377 0.09646990
0.00300244 -0.04307564
-0.00606551 0.00328697
0.02370476 0.01524410
0.06549510 0.04005521
-0.00688138 0.00449690
-0.03575765 0.03644992
0.00132204 0.04033666
0.05869195 -0.00878924
-0.02413568 -0.05037033
0.01673407 -0.04653365
0.01289925 0.03265880
-0.00549195 0.10106330
-0.00841111 -0.03848317
0.01621821 -0.02503081
0.00425254 0.01236714
0.01996502 0.02935638
-0.02827037 -0.02728653
0.00983604 0.01055211
0.06164853 0.02456684
0.03223465 -0.09225594
0.00151839 0.04220180
0.04233805 0.01363900
-0.03483319 0.02849749
0.02617663 -0.02564210
0.01272876 -0.02979632
-0.08405085 -0.09525695
0.00582419 -0.02787689
-0.05427264 0.03587100
-0.04093273 -0.03307119
-0.02127324 -0.01378430
-0.07328152 -0.02791322
0.02039887 0.05172544
0.02528491 -0.05848359
0.02255749 -0.04728615
-0.01107303 -0.00437746
-0.01877119 -0.06120218
-0.01485654 0.05540324
0.01515813 -0.02385976
-0.00970188 -0.04212528
-0.00615692 0.14709546
0.03371685 0.04296673
0.06923428 -0.03266730
-0.05822453 -0.04392504
-0.02337699 0.07032117
-0.02784997 0.08122367
0.04176698 0.03980403
0.08139636 -0.00280120
0.03445590 0.00669631
0.07260223 0.10000177
-0.05452375 -0.08838512
0.02539486 -0.14554983
-0.11970850 0.02225856
-0.02017362 -0.08903857
0.03061007 -0.03453539
-0.14749072 0.03949111
-0.00624639 0.07994088
-0.04709958 0.01686529
-0.05126510 0.05439395
0.07210802 0.08568861
0.05899871 0.03682676
0.09437159 -0.06597085
-0.01446287 0.00169138
-0.02238681 0.03218559
-0.11785247 0.00944388
-0.05915074 -0.00001103
-0.06184117 0.05468843
0.00694808 0.01636254
-0.03971935 0.07385779
-0.01703144 -0.02392880
0.03630122 0.01030338
0.04246547 0.02286969
-0.05107525 0.01434035
0.01212259 0.02289281
-0.02931817 0.02891639
-0.02805099 -0.04146108
-0.03926564 -0.06367651
-0.04445663 -0.01468716
-0.02892309 -0.02653629
-0.04358183 -0.01268772
-0.00089110 -0.10245688
-0.03377502 0.03105294
0.05029831 -0.00028708
-0.04447622 -0.00794092
0.03205732 0.02796869
-0.00269378 0.03879364
0.06025174 -0.03546417
-0.01173252 0.04769686
-0.02177936 -0.00555919
0.02878282 0.04095247
-0.01306459 0.02098650
0.03900305 -0.04513519
0.01833222 -0.05918842
-0.06004141 -0.03147001
-0.07244984 0.05897356
-0.03474224 0.00951954
0.03985967 0.03888529
-0.02767243 0.00358530
0.01275847 0.01455140
0.01704177 0.00130614
0.03821941 -0.01707678
-0.02239715 -0.02380812
0.04330733 0.00468972
-0.00475479 -0.03355232
0.05607421 0.01620325
0.02948461 -0.01346818
0.03114761 -0.01663449
-0.01650259 0.04915288
0.02682706 0.02787993
0.02524790 -0.03488987
-0.01770544 0.01157323
-0.02738419 0.07736935
0.02030131 -0.01072101
0.00432956 0.07092644
-0.04515535 -0.02484720
-0.07034950 0.03495233
0.04474375 -0.00405608
0.01536781 0.02822721
0.01496272 0.04961470
-0.13478293 -0.00196597
0.00578541 0.02707654
-0.01379498 -0.07617314
0.04120333 -0.02369073
-0.00276595 0.01887069
0.02630489 -0.08207369
0.00433538 -0.05135543
0.07067142 -0.06246471
-0.01297973 0.00199517
-0.03839504 0.00527864
-0.07818364 0.03677169
-0.03954720 0.04633550
-0.03975055 0.10833187
-0.05023043 0.03876897
-0.04582023 -0.11335757
-0.05549027 -0.04810389
0.00346861 -0.03917585
-0.06468189 -0.02864007
-0.03878025 -0.10288451
0.11982111 -0.07763048
-0.02468876 -0.06280341
-0.10133743 0.07656418
0.00121933 -0.01873739
0.00932989 0.00189137
0.02649661 -0.00765431
-0.03654733 -0.13304982
0.00613856 -0.06349848
0.00036780 0.03271775
0.02300535 -0.10138173
0.00728465 0.00392059
0.05300590 0.04209311
0.13386625 -0.07965691
0.04409028 -0.07210662
-0.06699195 0.07820126
-0.03386132 -0.00026348
0.03661853 0.20878188
-0.07392518 -0.15220648
-0.05297115 0.04823013
-0.07839293 -0.09050244
0.03061813 -0.07264639
-0.11005219 -0.09890807
0.00783031 0.03272038
-0.04770280 -0.04799512
0.05064243 0.17391555
0.14520463 -0.02856555
-0.06695137 0.03183341
-0.04105587 0.05239256
-0.16331425 0.13575034
0.06137391 0.00318041
0.00029378 0.05745976
0.17971072 0.05156552
0.10897888 0.03146122
0.08071469 -0.05697720
-0.05170422 0.08472028
-0.01431805 -0.11147027
-0.07364353 0.07871719
0.07054891 0.13729517
-0.03677426 -0.00359043
-0.08698238 0.08068267
-0.08941029 0.01526894
0.02138690 -0.08489882
-0.08755946 -0.13149820
-0.12847851 -0.02073674
0.00476955 -0.01134565
-0.03394692 -0.02827069
-0.00829900 0.02928142
-0.05655677 -0.03806313
0.06561700 -0.01703743
-0.00073731 -0.04933812
-0.01145386 -0.03911314
0.02231949 0.01924810
-0.03869204 -0.04729347
0.00420227 0.00422667
-0.05868737 -0.05158401
-0.01723335 0.02073600
0.01226941 -0.01362844
0.03132530 -0.06899650
-0.01679602 0.03103884
-0.04022340 0.11686892
-0.05690791 0.04276236
-0.00986173 0.02367210
-0.04304965 0.00667800
0.00215098 -0.03374939
0.04441737 -0.05250369
0.01492714 0.00187860
-0.00150486 -0.06485220
0.02619894 -0.01762656
-0.05622263 -0.08537495
-0.05626165 -0.05026031
-0.04597182 -0.04414956
0.02192476 0.02110549
-0.08899727 0.00156133
0.01215008 0.05051744
0.00864622 0.01508737
-0.01047478 -0.01125065
-0.08162915 -0.00678457
-0.11408362 -0.00343147
0.07843544 0.03183559
-0.07992969 -0.11212679
-0.04044018 0.07337439
-0.02738479 -0.04827771
-0.07665947 -0.14666142
-0.01325608 0.02388379
-0.00834406 0.00975323
0.02881325 0.01143823
0.07706963 0.03624228
-0.04295914 -0.01243854
0.05114884 -0.05035460
-0.03216992 0.01495237
-0.03777899 -0.01158652
0.04600713 0.02384670
-0.05226709 -0.00938122
0.00881144 -0.03896733
0.01676685 -0.09565242
0.16987081 0.05414648
-0.05618249 0.03720032
0.02043636 -0.01791356
-0.05485765 0.04171901
0.01282928 0.08243261
-0.00434459 0.08161669
-0.03951661 -0.02128199
0.01367442 -0.04547034
-0.07761641 0.00569928
0.00729820 0.01522915
0.06560592 -0.08126666
0.05480609 0.03455124
0.00894903 0.04500023
0.01137491 0.12518977
-0.10155657 -0.02147515
0.04396874 -0.04618925
0.04551454 0.08106132
0.02299286 -0.01494178
0.01836165 0.03723938
-0.12770000 -0.03616005
0.15285841 -0.03352506
0.08393793 -0.12830660
0.02846254 -0.07860350
-0.06026692 -0.07346772
0.10293190 -0.03216420
0.13191845 -0.01987350
0.14962083 -0.06782041
-0.11228365 -0.08004506
0.16502729 0.06751417
-0.02428251 -0.04993871
0.02034266 -0.04074436
-0.11831047 -0.16718425
-0.13687477 -0.13439541
0.08372379 0.07016128
-0.01727107 -0.02650562
-0.09724798 -0.08765033
-0.02276156 -0.03859805
-0.03302132 0.10825852
0.01124386 -0.05004349
0.04585275 0.00697172
-0.14775072 0.10782034
0.03538531 -0.00222175
0.16834228 -0.07495195
0.05503468 -0.07158764
-0.03475283 0.03640534
-0.02481633 -0.12267170
-0.00247985 0.01363832
-0.10193195 -0.04484888
0.01463574 -0.05265094
-0.06056134 -0.00567569
0.08356827 -0.00749804
-0.11168844 -0.04627976
-0.10209183 -0.02488406
-0.07566793 -0.01053012
0.00757469 -0.05017256
-0.15139538 -0.06446610
-0.12895252 0.04664044
-0.00877835 -0.06031031
0.04000228 0.00255772
0.05270486 0.03182421
-0.03929534 -0.02259321
-0.05216675 -0.01541425
-0.10458308 0.00504303
-0.11189078 0.04466280
-0.08045986 0.00753009
-0.14346848 -0.10706249
-0.10396248 0.06084036
-0.12095382 -0.10046846
-0.02897034 -0.05357548
-0.10916930 -0.10242441
-0.15315327 -0.09736270
-0.04715738 -0.13935266
-0.09854902 -0.13518913
-0.09740888 0.06052656
-0.03862283 -0.00952518
-0.15290549 -0.10560057
-0.10621458 -0.06590297
-0.01339425 -0.09118655
-0.04186773 -0.06719702
-0.00348815 0.12246508
-0.00588727 -0.00976220
0.04000937 -0.08765010
-0.14257784 0.02310011
-0.14901607 -0.24215820
-0.05956824 0.04770444
-0.13535275 -0.12747592
-0.00324910 0.02990599
-0.11473043 -0.07339776
-0.06716495 -0.03508873
-0.14214611 -0.04042381
-0.09656554 0.02160162
-0.00749179 -0.03137427
0.08379637 0.04592790
-0.00679293 -0.07990721
-0.01477706 0.01703228
-0.00160715 0.07466386
-0.05863522 0.00814631
-0.02697793 -0.00952284
0.03500492 0.06105784
-0.11247103 0.02019626
0.04158372 -0.02311558
0.04005673 -0.06980662
-0.01026425 0.08899859
-0.01362696 -0.01951381
0.00972795 -0.07137439
-0.09875799 -0.01054245
-0.07558747 0.05638839
0.08775244 0.03652541
0.04094739 0.03345930
0.00766226 -0.03210266
0.00949716 -0.07274190
0.05516290 -0.11131146
-0.01402325 -0.10894236
0.01796521 -0.01330271
0.05092837 0.04665833
-0.00963081 0.00720796
0.06102917 -0.08794297
-0.04233665 -0.03119357
0.01031103 0.02975287
-0.04343247 0.05276480
0.03212844 0.04398022
-0.05012781 0.03569486
0.10250945 -0.00000324
0.12576477 0.01121861
-0.00225237 -0.07828014
-0.07505893 0.01808383
0.01034232 -0.02861766
0.05313651 0.00228070
0.03515423 0.00938455
-0.03214779 0.07162251
-0.04803920 -0.09607443
-0.04727948 -0.05688636
0.04130283 -0.03964343
0.00279325 -0.11746828
0.04888203 0.05810939
0.02342754 -0.04082268
0.09981742 -0.05792150
-0.08199480 0.03858259
-0.07294065 0.00194608
-0.01520551 -0.06856931
0.05127809 -0.02447235
0.09926878 -0.05236970
-0.04644282 0.01046323
0.04348708 -0.01278488
-0.04876148 0.03855047
-0.02907712 -0.04467105
-0.04959307 -0.06155020
0.00591302 0.02005050
0.03839688 0.02742806
-0.10529885 -0.07877084
-0.02064489 -0.08408541
0.01763508 -0.12252028
0.02956598 -0.04470489
0.05452904 -0.05104645
0.00145729 0.01524260
0.12007312 -0.08995305
-0.01808032 0.02378787
0.10130039 0.01969955
-0.06863545 -0.08557735
0.04205642 -0.14148635
-0.10686699 -0.01630126
0.07609148 0.06487042
-0.02722641 -0.13058287
-0.06032652 -0.03296171
-0.11676608 0.19395964
0.08647680 -0.12808289
-0.01402538 -0.02478235
0.21398896 -0.02119990
0.03558533 0.02945838
0.10149751 0.01688724
-0.03465530 -0.07148793
0.06913108 -0.03062947
-0.01337954 -0.04498165
-0.09166317 0.11728840
-0.05318544 0.03630605
-0.07208534 -0.16052489
-0.06117957 0.09563005
0.01118194 -0.09180669
0.08076750 -0.07981906
0.08308873 0.04990225
-0.07148641 -0.00200606
-0.00674262 0.00057152
-0.04521736 -0.11678798
0.01964541 0.01045568
-0.04213195 0.13732940
0.06407759 0.07231671
0.10956928 0.05180874
0.14223491 0.01861555
0.08950777 0.03163169
0.02297073 -0.08802605
-0.03365490 -0.12890595
-0.10811659 -0.12643929
-0.07337981 0.19105329
-0.04790483 -0.01321344
0.06608395 0.05146794
-0.08291307 0.05218685
-0.06686392 0.00606316
-0.10115751 0.02765092
0.05834284 -0.02659592
-0.03228777 -0.00302895
-0.08581676 -0.00578459
-0.09025966 0.02103446
0.02207772 -0.04107706
0.05021721 -0.03485409
0.01260939 0.04501705
0.05952815 -0.05612737
-0.00887479 -0.05365511
0.07008991 -0.09594739
-0.09998155 -0.01575882
0.00459840 0.07955181
-0.06803389 0.01257976
0.01105489 -0.07988724
-0.02301711 -0.06260435
0.12588762 0.02454202
-0.03158859 -0.04608338
-0.01758124 0.00175694
-0.05655256 -0.02207708
-0.04473540 -0.01074304
-0.08775149 -0.00135024
-0.01911969 0.03207683
-0.11108214 -0.02135361
0.03429833 0.02711043
-0.04864767 0.00541289
0.05554546 -0.01879645
-0.01633674 0.01945502
0.01098104 -0.09098167
-0.01840919 -0.06617866
-0.05984495 0.08414092
-0.03299732 -0.00790709
0.00334002 -0.01774960
0.09381630 0.03869780
-0.02874414 0.02847528
0.00930474 -0.00603981
-0.04570793 0.14093083
-0.11989003 -0.02030911
0.04608433 0.08447017
-0.00474648 -0.19232656
-0.00018887 0.19884609
-0.01624715 -0.07527415
-0.04547816 -0.01976769
-0.02682147 0.02340991
-0.13277180 -0.05234212
-0.02060980 0.01882655
-0.12326422 -0.05716644
0.01829860 0.00632487
0.00268186 0.10667163
0.04232490 0.02268511
0.10173646 -0.05133195
-0.01210389 0.07186202
-0.02279284 -0.05301470
0.03744759 -0.09138445
-0.01222798 0.13482092
0.05022440 0.00549268
0.01338550 0.05053751
0.04450496 0.04714348
-0.10457672 0.00706112
0.09748649 -0.04088942
0.01394100 -0.01976494
-0.04373295 0.01027570
-0.08528775 -0.01314886
0.03149239 -0.11674614
-0.04349052 -0.09311137
-0.02138645 -0.04512072
0.08275253 -0.07436529
-0.00786258 -0.01632812
-0.08508342 -0.02482100
-0.07213712 0.00639289
-0.02107222 0.08506258
0.03351625 -0.03102706
0.04919124 0.00240705
-0.00303000 0.06449368
-0.05874313 -0.04402239
0.01266643 -0.04210421
0.04707887 -0.05799549
0.03757903 -0.08821720
0.00996624 0.01535023
-0.01740016 0.06382934
0.00066581 0.01577401
-0.02945821 0.00257060
-0.03268946 0.01077299
-0.01311092 -0.01287721
0.01523010 0.01504276
0.05290141 -0.08094034
-0.01140154 -0.02316369
-0.04607720 0.01236399
0.01606965 -0.03828189
-0.01156275 -0.09316049
0.06942997 0.04538814
0.05320604 -0.01184065
-0.03292190 0.02649266
-0.02660168 -0.05700515
-0.03261656 0.04750613
0.03370197 -0.11383300
0.02573408 0.05068725
-0.06625123 -0.03366050
0.03778161 0.04575900
-0.02496422 0.06420393
-0.02322648 0.00587688
0.10872873 0.02634901
0.00548613 0.09682553
-0.00873849 0.00841318
-0.03020834 -0.05732734
-0.01201683 0.05332290
-0.00571905 -0.01165401
0.08457204 0.03417502
-0.02050149 -0.03033731
-0.00041168 0.00682496
-0.06001444 -0.01642119
-0.11877094 0.01628866
0.01713626 -0.02733934
-0.00722853 -0.00225748
-0.00409139 -0.01239967
0.03073061 -0.00038203
-0.02414532 -0.03816159
-0.01767819 -0.01447449
-0.05703749 0.05977289
0.02463382 -0.01910165
-0.02179730 0.00462095
-0.00407070 -0.02392547
0.07265012 -0.04090279
0.05176587 -0.05296134
0.05544030 -0.00138444
0.03516354 0.05402033
0.02623151 -0.10286208
-0.08041288 -0.01805191
-0.02466739 -0.03187541
0.09746034 -0.01770851
0.02418961 -0.06760602
-0.08033658 -0.06187526
-0.08056950 -0.03829107
0.04521722 0.03605762
0.01254567 -0.06571025
-0.00745458 0.06845742
0.03171035 -0.00800867
-0.00170525 0.01754051
-0.00286214 0.04458502
-0.04826352 -0.04741837
0.03580971 -0.02315827
0.00620896 0.03794638
0.03935732 0.04816170
0.03924043 -0.09682927
0.08348848 0.01993180
0.04502980 -0.02067444
-0.00599277 0.16195916
-0.03305812 -0.03789756
-0.07457836 0.05127067
0.06477267 -0.04695178
0.02781642 -0.00728907
-0.03883816 -0.06796281
0.11784432 -0.04752849
-0.05040781 -0.03946887
-0.08308948 0.06994995
-0.03069434 0.06091103
0.04981392 -0.13098185
0.06013373 0.02222198
0.05111734 0.04658261
-0.08210135 0.05511009
0.04312174 -0.04568595
-0.08314939 -0.03269235
0.02253302 0.02585343
-0.00217971 -0.02489114
-0.02306667 0.03935479
-0.01136313 -0.14286114
-0.11697399 0.06616481
-0.06239656 -0.04912945
0.06021100 -0.02850028
-0.02184987 0.01591742
0.10330602 0.00723009
-0.02888339 0.07043972
-0.03978195 0.04790331
0.08486665 -0.02584941
-0.01032859 -0.03190463
0.00367856 -0.02852624
0.05266655 0.00863852
0.12184864 -0.02686454
0.03608420 0.07177500
-0.00251742 0.02118837
-0.06134237 0.06474666
-0.05054951 0.06497507
-0.05862606 -0.03569696
-0.01618163 -0.00511457
-0.06069679 -0.01584599
0.01206735 0.01159906
-0.00134531 0.02841174
-0.05352687 -0.02510438
0.03510170 0.01888545
-0.02939375 -0.08877990
-0.02197758 -0.06529912
-0.01111427 -0.00615087
-0.00781123 0.03116408
-0.02928877 -0.02294342
0.08145927 -0.02251718
-0.06975073 -0.02762168
-0.07536560 -0.01649517
-0.00994009 -0.01663495
0.00911410 -0.01750539
-0.03149882 -0.02924851
-0.08226818 -0.04798724
-0.05671564 -0.02572628
-0.03686329 -0.01382387
0.06804082 -0.02270891
-0.04126997 -0.05217837
0.02279525 0.01674747
-0.02713728 -0.00906986
-0.02680016 0.04351673
0.03338373 0.05551073
0.00870923 -0.01547009
-0.04648677 -0.06096111
-0.02888597 0.09449769
-0.00821893 0.07040732
0.00600552 -0.00330941
0.01876049 -0.01643869
0.01813363 -0.01827178
-0.02319185 0.02465465
-0.09511193 0.04139558
