0.14448629 0.03523930
0.20925781 -0.04194475
0.04690338 0.06612144
0.07346221 -0.15573528
0.04261332 0.05359174
0.07750525 -0.03802079
0.04035982 -0.07845880
-0.07105011 -0.07988384
0.00426974 -0.11093479
0.01881940 0.01253162
0.00864320 -0.10390653
-0.06566551 0.00613552
-0.04191301 -0.02869825
0.40718400 -0.03977782
-0.02499713 0.07642702
-0.05989468 -0.04437930
-0.04967692 -0.02247070
-0.03914316 -0.00692507
-0.14091067 -0.02382360
0.02969757 -0.02256059
-0.11317853 -0.00487661
-0.05277464 -0.00876955
-0.03860847 0.01242604
-0.06186166 0.06304849
-0.00294982 -0.03698422
0.02530546 -0.12943341
-0.08275660 -0.02401000
-0.00529800 -0.13931093
-0.05486703 -0.11598838
-0.04358027 -0.07545211
-0.06842748 -0.10524686
0.02135065 0.12959658
-0.01205182 -0.15502411
-0.05178514 0.12009135
-0.00657727 -0.00358916
0.08768382 0.00993412
-0.12793224 0.05191050
-0.09129155 0.00872113
-0.19462375 -0.04416426
-0.00757678 -0.17427598
-0.10362002 0.11935970
0.18004566 0.11151592
-0.08552491 -0.10077102
-0.00118092 0.03747535
0.41071621 0.14215381
0.26298445 -0.07049458
-0.07268265 -0.07431852
-0.01805970 0.02053005
-0.05451909 0.01254608
0.05955707 0.00332273
-0.05669878 0.04733494
0.07356776 0.19260581
0.04356616 -0.08289818
-0.14621951 -0.10202920
-0.12183717 -0.05792405
-0.06013810 -0.04319472
-0.15565215 -0.06086441
-0.06675827 -0.10181832
0.00607833 0.20643450
-0.10839684 0.13825811
-0.13777775 0.01014528
-0.04290752 0.04064893
-0.07278250 -0.02646520
-0.16594779 -0.01492746
-0.10812739 -0.08695544
-0.08932110 0.35496220
0.16488749 -0.06800367
-0.06346453 0.04920521
0.02063775 -0.05092301
-0.01386718 -0.07463377
-0.01694609 0.08663955
-0.17905168 -0.02395381
0.03112104 -0.04311579
0.02796110 0.10210385
0.01051730 0.02418672
-0.02353523 -0.03123382
0.06007615 0.04540759
-0.02963307 0.03679352
-0.02971157 0.02326193
-0.03456191 -0.00482658
0.09869913 0.05924372
0.01734627 0.00533465
-0.07458761 -0.00962597
-0.02263405 0.01577703
0.00509868 -0.00467064
0.02820621 -0.10047720
-0.04358649 0.04402348
-0.00606229 0.02786245
-0.07239605 0.04380996
-0.11101066 -0.06038697
-0.03650374 0.06947663
-0.03070877 -0.01923868
-0.02308849 -0.05962152
-0.02993420 0.00731993
-0.08197070 -0.11557660
-0.03330545 0.03812190
-0.00045686 -0.02199648
-0.03459248 0.00282988
0.01590151 -0.00765106
-0.00016314 0.02297803
0.02857221 -0.02081907
-0.00077247 0.00169189
-0.00562567 -0.01769071
-0.00410598 0.02899813
-0.05266578 0.00762658
-0.02831435 0.04638851
0.01708079 0.00205707
0.02144279 0.01430015
-0.03188911 -0.03920685
-0.08209612 -0.02295198
0.02894099 -0.02742287
0.01379675 -0.00263915
0.02103728 -0.00055501
0.01053190 0.00222353
0.01177001 0.02148340
-0.04334151 -0.04659560
0.03685304 -0.00229949
0.04170024 -0.05886043
0.06525591 -0.01531645
0.00689521 0.03107036
-0.16036415 -0.08443683
-0.01093015 -0.00506919
0.07629521 -0.03984737
-0.07728721 -0.01822594
-0.01099396 -0.04996856
0.01905121 0.00429529
-0.01868335 -0.02968692
-0.07217667 0.04100037
0.08055920 -0.01770299
-0.04747269 -0.06105336
0.06793657 0.06365919
-0.00997490 0.02983666
-0.00323588 -0.04626010
0.00027188 -0.03228004
0.00820326 0.05833231
0.00746338 -0.10221708
-0.04558950 -0.03555217
-0.00378751 -0.00921201
-0.04143259 -0.03218405
-0.02907865 -0.02794069
-0.01375153 -0.03410950
-0.07398119 0.02357218
-0.02169372 -0.00883042
0.03238539 -0.00965098
0.06581993 0.10154446
-0.11534786 -0.15861784
-0.01711462 -0.02877702
-0.06783633 -0.06970128
0.02782598 -0.05255343
-0.04652613 0.10682381
-0.01344605 0.13434348
0.00427849 -0.00810165
0.08994162 -0.09170522
-0.09637138 -0.10148700
0.21628432 -0.12435225
0.08322418 0.06697697
-0.06547238 -0.07273702
-0.06195460 0.01458156
-0.02424202 0.01056487
0.03923129 -0.08819643
-0.11570640 -0.02993564
-0.05757947 0.01611680
-0.10967679 -0.07014386
0.00680922 0.04431762
0.08766626 -0.07602710
-0.07190795 0.05695836
0.02047962 0.09858109
0.15119815 0.04351174
-0.08528557 0.20257753
0.00445517 0.11988424
0.13853991 -0.00448270
-0.04356210 -0.09829708
-0.03091360 -0.06026383
-0.02789204 0.00921823
-0.09582900 -0.04221059
0.04640586 0.06120693
-0.08427129 -0.08347388
-0.03597993 -0.01982303
-0.04531934 0.08092146
-0.06546121 0.00217869
0.00950037 0.21773458
-0.03981939 0.03357520
0.02136210 -0.04045888
0.11082751 -0.01895779
-0.01017473 0.02584439
0.12017493 -0.10613833
0.02086516 -0.02158116
0.17278475 -0.00952586
-0.03948864 0.02378421
0.16360345 0.10237852
-0.07879563 -0.02062918
-0.10013486 -0.06352853
-0.00023339 -0.04422370
-0.14448901 0.10087399
0.06551218 -0.06480362
-0.00397707 -0.21335934
-0.02242016 0.22409160
0.08614469 0.00153372
0.04108650 -0.15006810
-0.00351098 -0.00816120
0.00512017 -0.02025129
-0.03982538 -0.04024586
-0.13002214 0.24287908
-0.13611078 -0.10728841
0.00257297 0.01580296
-0.10404394 -0.04660653
0.04475057 -0.11046963
-0.00886899 0.03324137
0.09176543 0.04304799
-0.02076753 0.03151292
-0.07775956 0.00513477
-0.03090626 -0.09319228
0.04647823 0.19442242
0.05893742 -0.04273345
-0.07471022 0.13778612
-0.12030348 -0.11297639
-0.07686768 -0.08135697
0.13601361 0.01782810
-0.04772700 -0.19258112
0.32182047 0.31188557
-0.05612180 -0.04650987
-0.05990350 -0.08107569
-0.15830144 -0.14208530
0.07268596 -0.12463415
-0.02613476 0.01089805
-0.01468759 -0.05024316
0.13332239 -0.01541633
0.00452208 0.15419057
0.08030497 -0.09622017
-0.14874639 -0.16951042
-0.09458254 0.01137656
-0.04841029 0.11855640
0.29445595 -0.09432393
-0.06285501 0.11608818
-0.04576574 -0.11603186
0.17081206 -0.00260131
-0.04084440 -0.02030868
-0.02413716 -0.09530935
-0.04456266 0.06683078
-0.08746668 -0.03729869
0.08234292 -0.01915849
-0.08881934 0.19395392
0.00067777 -0.04638643
-0.07167976 -0.06262784
0.07472745 0.14405015
-0.19395784 0.09619581
-0.06825197 0.00179215
0.05507315 -0.07605574
0.14141434 -0.03599993
-0.04981462 0.10482242
-0.01228591 -0.01518731
0.02110208 0.05414138
0.04296469 0.09607125
-0.09112456 -0.03452331
0.03220695 -0.06308945
-0.01872870 0.03823331
-0.14822538 0.06358550
-0.01432166 0.02460199
0.04519692 -0.15792470
0.03326925 0.01653499
-0.04014715 0.04902465
0.01130755 0.09672359
-0.18174911 0.05782769
-0.09915580 0.07021526
0.03108878 -0.02130519
-0.05048515 0.00309094
-0.03834555 -0.00067205
0.01192781 0.04260505
0.06785998 -0.05134335
0.00945037 0.02495687
-0.02650433 -0.02730205
0.00846279 0.01359436
-0.03247030 -0.00394500
-0.04487017 0.04282552
-0.03921760 -0.02271143
0.01103712 0.05941101
-0.01198005 -0.05157546
-0.02873232 -0.06146874
0.02546299 -0.01264518
-0.00466339 -0.04576879
0.02316833 0.00465769
-0.06616715 0.04416733
-0.02546071 -0.05127868
-0.03036537 -0.00571047
-0.01803995 -0.02290721
0.08211997 -0.02982327
0.00729535 -0.01293071
0.07808611 -0.02621787
-0.08324796 -0.02802553
-0.06258518 -0.02203757
0.04525971 0.01757214
0.03710443 0.09975690
0.07242708 -0.03884710
0.04533744 -0.01834978
0.00916608 -0.02826097
-0.00902834 -0.02430824
0.03010506 -0.01864531
-0.01367342 0.02179964
-0.00495673 0.00075765
0.00623791 0.06190544
-0.02949576 0.01102836
-0.04746128 -0.02534985
0.07452200 -0.02465370
0.03553950 -0.03085392
0.02928223 0.03143372
0.06513655 0.01338260
-0.03417204 0.03403899
-0.03991703 0.03691999
-0.01700383 -0.00394600
0.07370140 -0.05136029
0.05481367 0.02776394
0.00885539 -0.01955760
0.02692836 0.01029283
0.03851777 -0.01555560
-0.03437810 -0.02588954
-0.01206908 0.05526881
0.10636736 -0.15442243
-0.03768047 0.07360981
-0.01049849 0.04284867
0.02720182 0.14284454
-0.00336917 -0.14358485
0.01671656 -0.02641909
0.01322266 -0.04761129
-0.00571488 0.12940225
-0.04249784 0.09213039
-0.00971907 0.11558299
-0.00500993 0.02974608
0.01778668 -0.07773384
-0.05776446 0.03111097
-0.00659240 0.01696536
-0.00171488 -0.01992941
-0.03143027 -0.02674163
0.01313079 0.05282002
0.00835179 -0.03835203
-0.06224641 -0.02484598
0.03673749 0.01539437
0.01215903 -0.01643847
0.05436195 0.01164174
-0.03504039 0.03134971
0.06741241 -0.04836950
0.01984121 0.02084757
0.01226759 -0.00990760
-0.05073957 0.01130733
0.02274414 0.01894665
-0.06044444 0.04953511
-0.02093572 0.06648237
-0.10359409 -0.07586879
0.02685060 -0.07134940
0.09455109 -0.06283704
-0.07936997 0.08601566
0.01162653 -0.05690605
0.07931359 -0.05988504
0.01129169 0.02271617
-0.05284840 -0.07117894
-0.01107309 -0.01877388
0.07525972 -0.09407654
0.07957720 -0.01957611
0.05694301 -0.05561936
-0.01453572 0.05850664
0.06427763 0.02833674
0.09823475 0.02601380
-0.14144436 -0.19527997
-0.03413085 -0.10001484
-0.10910513 -0.00970350
-0.10084131 0.03656007
0.01898236 -0.03605444
0.19304614 -0.14072305
0.18813872 -0.13925745
-0.06789052 -0.13820019
-0.13264310 0.06448945
0.04143164 0.10052155
0.06452328 0.08431067
-0.05051800 0.19519334
0.01179356 -0.13482575
0.09870768 -0.03380170
-0.01751138 0.01372138
-0.05748348 0.01126985
-0.00704840 0.18373151
0.01418412 0.02866518
0.32030329 -0.06509053
0.06635492 -0.01147894
0.09366844 -0.11406288
-0.07884794 0.12499885
-0.21411698 0.08899284
-0.14236170 -0.00140672
-0.07040457 -0.02064677
0.00767374 -0.05424524
-0.05165938 -0.03307516
-0.10500960 0.04709173
0.02241424 -0.06366111
0.10398999 -0.06402070
-0.04053326 -0.01097972
-0.06143836 -0.07580784
-0.07712959 0.13032670
0.10456340 -0.07039525
-0.20898461 -0.10605408
0.08940374 -0.07026406
-0.06342641 0.03347006
-0.01767266 -0.12011340
0.10394506 0.07772888
-0.09407936 -0.17902252
0.15345439 0.07971966
0.12481049 0.08971956
-0.21864937 -0.00663854
0.10302463 0.03589308
0.05654074 0.01448065
0.14736748 0.14808908
-0.00334009 0.22424391
-0.06908406 -0.01111418
0.09373904 -0.06864011
-0.06718515 -0.00900121
0.04944272 0.00264016
-0.19029292 0.14514059
0.03061122 -0.09659079
-0.01125267 0.07437022
0.15344021 -0.13803059
-0.12638256 0.13866870
0.02568619 -0.09180912
-0.03641145 0.06966291
0.00214079 -0.07912226
0.18220939 -0.00382165
-0.12585695 0.08766667
0.04553141 -0.07334580
0.15247361 0.06181881
0.05950115 -0.04312188
0.01114411 -0.09599962
0.03495165 0.13545945
-0.04164490 -0.19320326
-0.13836418 0.04598546
-0.11600026 -0.03703738
-0.03182683 -0.00218585
0.02405193 -0.00063984
0.04618413 -0.04044649
-0.12678836 0.04438319
-0.07654095 0.01542157
0.00925563 -0.01728440
0.04986150 0.03431261
-0.13115075 -0.02802655
-0.10051188 0.07573181
-0.01638607 -0.00450122
-0.08937056 0.00770298
-0.06100206 0.09898087
-0.12601608 -0.16425857
0.19311078 -0.08341641
-0.01026764 -0.07440220
-0.07150313 0.20786816
0.00241409 -0.07485451
0.45893443 -0.09874070
-0.13144937 -0.01733011
0.08735967 -0.05310348
-0.07988752 -0.03157513
-0.08041278 0.07738852
0.19217110 -0.07161200
-0.12641263 0.10886561
0.07693821 -0.07495198
0.17781436 0.11796803
-0.01379290 -0.00147183
-0.05579675 0.06081306
0.14483243 0.16523460
0.09830439 0.05085032
0.01624831 -0.00086987
-0.03130349 0.04491990
-0.07966691 -0.08684995
-0.03707918 0.09396165
-0.00895717 -0.06268878
-0.01507987 0.04935159
-0.17058657 0.06963512
-0.06958422 -0.03712310
-0.05511695 0.27008268
0.00163375 0.07711663
-0.02740605 -0.05708560
-0.10414398 0.01662723
-0.03003178 0.16071436
0.02067126 0.14229392
0.04356997 -0.04477064
-0.03312617 -0.05395095
-0.03208793 0.02766039
0.23781231 -0.09569979
-0.04300017 -0.08728942
-0.06295813 -0.06667124
0.07408284 -0.01060474
-0.03692068 0.05102980
-0.00264246 0.05796071
-0.00352943 0.01124732
0.04487818 0.07072714
-0.04982146 0.03091286
0.01423211 0.04177005
-0.03096156 -0.00270584
-0.04038573 -0.02880596
0.05208538 0.00259415
-0.06486984 0.07322679
0.00851769 -0.05118710
-0.01092091 0.07849816
0.00829582 -0.01767538
-0.04664667 -0.05801267
-0.00360149 0.02627291
0.01389517 -0.04766382
-0.08792899 0.02672310
-0.02355029 0.04176953
-0.03109988 0.01880472
-0.07479825 0.02427314
-0.04657285 0.02939527
-0.07999244 -0.09001730
-0.06381430 0.01576121
-0.04667297 -0.01239882
-0.11547048 0.00139321
-0.01476805 0.12083217
0.05909590 0.03573516
0.03024121 -0.04879950
0.05519276 -0.04602845
0.02413376 -0.03861457
-0.02501947 0.06836244
0.06544098 -0.04356183
-0.01953644 0.03688342
-0.00656185 -0.05291719
0.01863015 -0.02142351
-0.05180225 -0.07208645
-0.06970820 -0.05092106
0.01533682 -0.06059682
0.03637302 -0.10008161
-0.09093008 -0.05871708
-0.00234684 -0.06141111
0.00085010 0.07902289
0.02071990 -0.02276169
0.03065432 0.08156709
0.06033983 0.01673182
0.02363093 0.02975017
-0.01124792 -0.00110879
0.05433821 -0.09204389
0.02848792 -0.19017397
-0.00668090 -0.16699059
-0.00330524 0.04454968
0.07005101 -0.01921471
-0.02487779 -0.09912108
0.06546040 -0.18029778
0.19800571 0.02938875
-0.05139292 -0.13816626
0.01296337 0.02291338
0.40695769 -0.16179335
0.04316332 0.06306184
0.06879411 -0.11729428
0.00135518 0.01878455
0.01988233 -0.06086845
0.10131784 -0.07548524
-0.02278233 -0.01761415
0.00920684 -0.13911971
0.19326138 -0.02642941
-0.07009126 0.16874172
0.05139346 -0.09841798
-0.06999604 -0.02418345
0.35881823 0.00528560
0.08834026 0.02090682
-0.04022568 0.10286684
0.01451129 0.10452221
0.24582390 0.30142972
-0.00313658 -0.11307726
0.09676493 -0.04475281
-0.11054643 -0.02007025
-0.05717431 0.01980570
-0.12640937 0.23794189
-0.00605361 -0.13273881
-0.02204535 0.07389812
-0.10156458 -0.21628189
0.14915292 0.04211716
-0.17828186 0.01861342
-0.12208236 0.09372936
-0.22303593 0.12482159
-0.09293446 -0.08541305
-0.00532706 -0.07934038
-0.08213868 0.03526535
-0.03198072 -0.08128274
-0.09954616 0.18374656
0.13060975 -0.04548752
-0.08171400 -0.08125270
0.05980057 -0.08894713
0.01014720 -0.13891213
