0.00471957 0.01651899
0.00049609 -0.00146614
0.00897890 0.00851057
0.01035699 0.00670739
-0.00020137 -0.00003025
-0.00454948 -0.00694588
-0.00449644 -0.00042976
-0.00006672 0.00368743
0.00018692 -0.00058500
0.00141788 0.01266133
-0.00276491 -0.01799201
-0.01160359 -0.01285159
-0.00565143 0.00052731
-0.00484752 -0.02752713
-0.00181836 -0.00397240
0.01032872 0.01295990
-0.02722609 0.00395164
0.00577093 -0.00423068
0.01550484 0.00324478
0.01492957 0.01495628
-0.02434832 0.00692788
-0.00209594 -0.00041771
0.00467833 -0.00431244
0.01953580 0.00692843
0.00002695 -0.00480760
-0.01010226 0.01262100
0.00108566 -0.01650358
-0.00961380 0.02321606
-0.00669602 -0.01946816
-0.00176065 -0.01994757
0.01399345 -0.01094230
0.01584295 0.01708448
-0.00475292 -0.00108665
0.01627584 -0.00940150
-0.01269200 -0.01657460
0.00865408 -0.01209104
0.01183608 0.01382370
0.00208194 -0.00701332
-0.00510923 -0.00353867
0.00390651 0.01157659
0.00050012 0.00764289
0.01060076 -0.00495117
0.01774704 0.01442358
0.00388113 0.00157012
-0.01219351 -0.00904261
0.01007336 -0.01072365
0.00504678 0.00846297
-0.02588294 0.00228867
-0.01114078 0.01235203
-0.01266225 0.00414346
0.02564066 0.00164532
-0.01158287 0.01435007
0.01037704 0.00430019
0.01904095 0.01169654
0.01877129 -0.02385939
0.00590070 0.01297477
-0.02919933 0.01452110
-0.01130763 0.00662818
0.00376120 0.02939834
-0.00472499 -0.00152981
0.02459169 -0.02328620
0.01558976 0.00401072
0.00564902 -0.01032512
-0.00403610 -0.00767737
-0.00920195 -0.00689400
-0.00527528 -0.00649764
-0.00720291 -0.00125749
-0.00433991 0.00264515
-0.01875272 -0.02550282
0.01125304 -0.00560943
-0.00972099 0.00822302
0.00444253 -0.01161790
-0.03242871 0.00492412
-0.00578712 0.01630814
0.01960191 0.00860454
0.00012465 0.00637329
-0.00109710 -0.02550938
0.00325018 -0.00431997
-0.00817384 0.00845863
0.00653394 0.00769883
0.00338001 0.02240515
-0.00076308 0.01982893
0.02276870 -0.02403809
0.00204584 0.00328389
0.01775026 0.01505953
-0.00685160 -0.02752858
-0.01377236 -0.00141845
0.00741920 0.00890514
-0.00891011 0.00401984
-0.00569654 0.01629301
-0.00909378 0.01149040
0.02687396 -0.01018519
0.00234539 -0.00129696
0.01385883 0.02656635
-0.00706328 -0.01960766
0.01577195 -0.00560020
0.00770105 -0.00769675
-0.00245835 0.02008812
-0.01683669 -0.00072797
-0.00977520 0.00125447
-0.00249877 -0.02724196
0.00282173 0.00479385
0.00069650 0.01885868
0.00298638 -0.00676623
0.01655861 0.00256853
-0.01502759 -0.00009982
-0.00891460 0.00214122
-0.01226219 0.00014410
0.00790290 0.00544426
-0.01158430 -0.01023338
-0.01000059 0.00529927
-0.00007991 -0.01646062
-0.00113430 0.00920220
-0.00453278 0.00007408
0.00080683 0.01008621
-0.00141093 0.00380196
-0.00075970 0.00995302
0.00554469 -0.01490433
-0.00557873 -0.00494062
0.00124855 0.00040525
-0.00456560 -0.00672290
0.02068958 0.00587629
-0.00361970 -0.00049519
-0.01161184 0.00027957
-0.00177555 -0.00833819
-0.01222686 -0.00008537
0.00392477 0.01668078
0.00537947 -0.00160717
0.01435568 -0.00657846
-0.00741768 -0.00328958
0.01049019 0.00630393
-0.00088632 -0.02360781
-0.00151749 -0.00394032
-0.00403645 0.00008821
-0.00927351 0.00082930
-0.01637603 -0.01645931
-0.00383596 0.00649748
-0.00496019 -0.00256350
-0.00183333 -0.01544058
0.01463261 0.00139762
0.01116667 -0.01110001
0.00464203 0.02098312
0.00329899 -0.01031660
0.02287465 0.00283378
-0.00148100 0.00461069
-0.00323790 -0.00370952
-0.00276601 0.00219224
0.00035282 -0.00132513
-0.00423520 0.00210434
0.00053829 0.00716912
-0.00719120 -0.00701134
-0.00102268 -0.01012128
-0.00613190 0.00414930
0.00275283 0.00623491
-0.02498277 -0.00880651
-0.00203852 -0.00120945
0.02495867 0.02787169
0.00556940 -0.00369429
0.00270725 -0.01065574
-0.02244535 0.00260429
-0.00614387 0.00015152
-0.00439747 0.00548414
0.00755398 0.02771956
0.00099356 -0.00487347
0.01421957 0.01496364
-0.01406513 0.03102865
0.00744408 0.00416625
0.01436141 0.00598298
-0.00374050 -0.01140395
-0.00258366 -0.00934226
-0.01810533 0.00748247
0.00462093 -0.00234949
-0.00679454 0.00211569
0.00477725 -0.00140419
-0.00601642 0.00142281
-0.00124150 0.01766220
0.01117143 -0.01129416
-0.00550574 0.00304641
0.02652910 -0.00149896
-0.01013108 0.00767040
-0.01363640 -0.00645648
0.00750171 -0.00522450
-0.00110521 0.00524056
0.00245602 -0.01972658
-0.00289792 -0.01212478
-0.01300544 0.00382924
0.00983516 0.00107273
-0.00361412 0.00578602
0.00822316 0.00297144
0.00460380 0.00206184
-0.00849625 -0.00009129
-0.00728586 0.00368333
0.00390328 -0.01154881
-0.00500051 0.00830773
0.01571627 -0.00545670
0.01029866 0.00967752
-0.00334569 -0.00935078
0.01656663 0.00991003
-0.00482776 -0.00282738
0.00844018 -0.01609758
0.00514683 -0.00077153
-0.00045284 -0.02165303
0.00429394 0.01128135
0.00138567 -0.00866800
0.00888892 -0.01247059
-0.01102005 -0.00477238
0.01735816 -0.01000342
-0.00389031 -0.00781681
0.00104827 -0.00752886
-0.00068457 -0.00229860
0.00054938 -0.00635917
0.01623307 -0.00225241
-0.00373616 -0.00052918
-0.00117702 -0.00419780
0.00317801 0.01496771
-0.00526444 0.01794769
-0.02242116 -0.02001806
-0.01227589 0.00260541
-0.00185933 -0.01365015
0.00012235 0.00983111
0.01116484 -0.00510254
-0.00478435 -0.00911624
-0.00461474 -0.00845263
-0.00663338 -0.00320499
-0.00587423 -0.00899421
-0.00762821 -0.00687515
0.00183026 0.01049979
-0.00513922 -0.00609419
-0.01252190 0.00381329
-0.00083634 0.01907329
0.02530287 0.01840589
-0.04349636 -0.02677361
0.00682576 -0.00016870
0.00906602 -0.01691154
0.00554168 0.00023925
0.01161002 -0.00844078
-0.01337752 -0.01045120
-0.01016436 -0.01242130
0.01301451 -0.00627975
-0.01930555 -0.00698245
0.00858338 -0.00332309
-0.02426241 -0.00115645
-0.00214055 0.00091560
0.00494156 0.00315266
0.00640684 -0.00194485
-0.00086447 -0.01170712
-0.01359791 -0.00454733
-0.02968034 -0.00617560
0.01147790 -0.00570212
-0.00728247 -0.00298610
-0.00832596 0.01009487
-0.00512120 -0.00350635
-0.02054958 -0.01268188
-0.00931178 0.00278744
0.00257047 -0.00989691
-0.00073377 0.00838584
0.01480117 0.00340447
0.03173911 0.02348783
-0.00734413 -0.01948559
-0.01242102 0.01723297
0.01804765 0.01734462
-0.00055554 0.00211602
0.00994851 0.00718376
-0.00013399 0.01596490
0.00506453 -0.02544922
-0.00122421 0.01230503
0.00426809 -0.01786785
0.01531522 0.02350453
0.00526453 0.01130596
0.00390512 0.00493592
-0.00303532 -0.00648192
0.00833715 -0.00099502
0.00796804 0.00946886
0.00805619 -0.02872216
0.00622534 -0.00461100
-0.00680092 -0.01175012
0.02707187 0.00225221
-0.02099283 -0.00436288
-0.00578317 0.01965881
-0.00583626 -0.00908662
-0.01180566 -0.00883901
-0.00928250 -0.00999934
-0.00806237 -0.00749729
-0.00659268 0.00439428
0.01825158 0.01323741
-0.01586115 -0.03481970
-0.01686710 0.00222084
-0.00046952 -0.01762838
0.00185142 0.01586648
0.02107854 -0.03690151
-0.00465318 -0.01660834
-0.00899534 -0.00664457
-0.01271065 0.02735814
-0.00031174 0.01201920
-0.01612659 -0.00607196
-0.00096026 0.00302805
-0.00990792 -0.02195125
-0.01482148 -0.01909164
0.00370503 0.01233599
0.01690523 -0.00370002
-0.01225887 0.00046588
0.01718148 0.02506393
0.01321703 0.02036175
-0.02749981 -0.00348074
0.01146432 0.01601134
-0.02739392 -0.02764685
0.00422317 -0.00503176
-0.00053858 -0.01775848
-0.00298430 0.01205125
0.00543398 0.02030090
0.00974154 0.01146268
-0.00229365 -0.00899395
-0.01715448 0.02001547
0.00726313 -0.00753332
-0.00939945 -0.00464049
-0.00792370 0.00803001
0.01778991 0.02354165
0.00536172 0.00900190
-0.02548221 0.00669504
0.00517076 0.01726460
-0.00753977 0.00293540
-0.00694148 -0.00939145
-0.00780174 -0.00596293
-0.00358357 -0.01910240
-0.00840393 0.00928823
0.00248571 0.00579493
0.00429355 -0.01315789
0.00727146 -0.02125606
-0.00616039 -0.00273912
-0.00166878 -0.00023500
0.00108599 -0.00238357
-0.00017544 -0.00337906
-0.00007574 -0.00152645
0.00609817 0.01192440
-0.00328732 -0.00141641
-0.00983887 -0.00197000
0.00496567 0.00569791
-0.01089931 0.00018979
-0.01237548 0.01267098
0.00672204 0.00590738
0.00210647 -0.00373430
0.00052344 -0.01580738
-0.00095905 0.02034746
0.00145643 -0.00339899
-0.00372177 -0.01233897
-0.00348142 -0.00864882
0.01095028 -0.00477140
0.00989773 0.00148638
-0.00381521 -0.00753435
-0.00939104 0.00303114
-0.01272543 0.00078180
0.02073044 0.00285538
-0.00712438 0.00496189
-0.00338499 0.00239326
0.00017544 0.02220635
-0.01320002 -0.01114326
0.01067726 0.00533201
-0.00811650 -0.00082658
-0.01264242 -0.00510821
-0.00211522 0.02265950
0.00077775 0.01497797
0.00217409 -0.00160249
-0.00495192 -0.00989614
0.00512333 -0.00889883
0.00056326 0.02852673
0.01384661 0.02281891
0.01593432 0.00564172
0.00115800 0.00526044
-0.02013493 -0.00673083
-0.00473206 0.00323185
-0.00774219 -0.02105247
-0.00846082 -0.00551741
-0.00521326 0.00367725
0.01080593 -0.00894430
0.00596184 -0.00245907
-0.00020429 -0.02222257
-0.00073459 -0.00264649
0.00153841 0.01503981
-0.01466648 0.00841821
-0.00165223 -0.02675102
0.00223822 -0.01220555
-0.00291716 0.00781366
0.03016400 0.00388527
0.01891912 0.01078580
-0.02069421 -0.01151731
-0.01210139 -0.00728918
-0.01046403 -0.00439398
-0.00125655 -0.00066673
-0.00136862 -0.00446092
-0.00363451 0.00036456
-0.00300972 -0.00091684
-0.00177436 -0.00101922
-0.00175050 0.00051501
0.00451735 0.00411314
-0.00906121 -0.00832411
-0.01800789 -0.00831473
0.00766641 -0.01192688
0.01168455 0.01188274
-0.00719029 0.01161571
0.00608621 0.01148156
-0.01656656 0.00655221
-0.00415282 0.00017923
0.00317579 -0.00314903
0.00958823 0.00312923
0.01067333 -0.01258579
-0.00566180 0.01682675
-0.00330836 0.00037134
-0.00731514 -0.01100010
0.00138176 0.00120215
0.01117539 0.00008866
-0.00146168 -0.00120430
0.00933803 0.00850825
-0.00156445 0.00457415
-0.00423027 -0.00271387
0.01259210 0.01150613
-0.00318624 0.00910135
-0.00435556 -0.00971195
-0.00194440 -0.00080204
-0.01856727 -0.00446776
-0.00646163 0.01283181
0.00287377 -0.00423318
-0.01562768 0.00594016
0.00323152 -0.02240953
-0.00701400 0.01208638
-0.00790418 -0.00904306
-0.00767603 0.00426186
0.00481021 0.00968746
-0.00761646 0.01496394
-0.00518970 -0.00360756
-0.00447815 -0.00719040
0.00740765 -0.00136792
0.01818933 -0.00655621
-0.00317934 -0.01255876
0.02169059 0.01434430
0.02324905 -0.01685170
0.01437244 -0.00318582
-0.00544692 -0.00524007
-0.00190772 -0.00119305
-0.00716174 -0.00379650
-0.00012856 -0.01120239
-0.00638594 -0.00701763
0.00879704 0.00503804
-0.02286769 0.01514682
-0.01093644 -0.01888306
0.00105814 -0.01605131
-0.00214827 0.00445521
-0.00600493 -0.01475827
-0.00421192 -0.01259774
0.01518104 -0.00984726
0.00990784 -0.01248420
-0.02046740 0.01447839
0.02805361 -0.00127869
0.00803571 -0.00007013
-0.00868492 -0.00910424
-0.00401508 -0.01482215
-0.01431076 -0.00284952
-0.00783885 0.00927163
-0.01940287 0.00121310
-0.00484492 -0.00121481
0.02267810 -0.00557466
-0.01132607 -0.00687937
-0.02071950 0.00020456
0.00142979 0.00102956
0.00759954 -0.02371446
0.01832497 0.01517277
0.00008800 0.00156232
-0.01097911 -0.00514554
-0.02023919 -0.00260133
-0.00238292 -0.00054952
-0.00106222 0.01659932
0.00576478 -0.01657672
0.00013442 -0.00080627
-0.00758024 0.00438546
-0.03416320 0.00603767
0.00672924 -0.00249811
0.03448074 0.00924181
0.00562480 0.02472097
-0.02430514 0.01120078
0.01568492 -0.00674436
-0.00864512 -0.00278737
0.01401463 -0.00515010
-0.00246976 -0.01815421
0.03045799 0.01395646
-0.00396799 0.00345531
-0.02297148 0.00154078
-0.00450518 -0.00308078
-0.03526255 0.02614554
0.02224358 0.00419648
0.01225568 -0.00997574
0.00190412 -0.00964658
-0.01143910 -0.01539983
0.00625002 0.01764844
-0.00676560 0.00507802
-0.00136260 0.01133866
0.01091782 0.00840168
-0.00518480 -0.00279716
-0.00141704 -0.00891051
-0.00782407 -0.00236381
-0.01400075 -0.01269854
-0.00984589 0.00582717
-0.00638344 -0.01212988
0.00947496 -0.02064788
-0.00234146 -0.00536934
-0.00211275 0.00688578
0.01154089 -0.01633762
-0.01645843 0.01511636
-0.00561230 -0.00653985
-0.01227835 0.00082162
-0.01168871 0.02419296
-0.00608664 -0.02292907
-0.00777775 -0.01559750
0.00788483 0.01423053
-0.00036293 -0.00743664
-0.00789620 0.00776541
0.00462894 -0.00342882
0.02074443 -0.03034985
0.00276576 -0.01261128
-0.00287001 0.02132640
-0.00195891 -0.00429652
-0.00554249 -0.00547224
-0.01853319 0.02536917
0.00448875 -0.01994229
-0.00006552 0.01788843
0.00939402 -0.00357852
-0.00538879 -0.01230628
-0.02126855 0.00521930
-0.01310245 -0.00333271
-0.02513077 0.00693070
-0.00366377 0.01589443
0.00467294 0.03216004
0.00535982 -0.01678597
-0.01616352 0.02335384
-0.00661240 0.00068083
-0.00326318 -0.00935504
0.00096390 -0.00465127
0.01356878 0.01404858
0.00109864 -0.01307840
0.00692951 -0.02055559
0.01042771 0.00173232
-0.00973785 -0.01408508
0.01654571 -0.00259575
-0.01729775 0.01905763
0.01703543 0.00546933
-0.01314563 -0.00255857
-0.01600556 -0.00175065
0.00170766 -0.00406185
-0.00202003 -0.00262985
-0.00368141 -0.00305321
-0.00230634 -0.00093126
0.00400601 0.00021816
0.00372683 0.01488718
-0.00384770 0.00923050
-0.03990614 -0.01729298
-0.01496845 0.00888335
0.02733577 0.00030186
-0.02763366 -0.00221782
-0.01713252 0.00715882
0.02946897 -0.00366680
-0.00563471 -0.01161979
-0.00001509 0.00475518
-0.00405523 -0.00536790
-0.00105564 -0.00624921
-0.02042087 0.00763078
-0.00015246 -0.01016827
0.01129933 0.00918255
-0.00319498 -0.01085343
-0.00544325 -0.01873763
-0.00121745 -0.00090191
0.01985798 -0.02891460
-0.01331670 0.00757421
-0.01235154 0.01819881
0.02246880 0.00111283
0.00124158 -0.00111219
-0.00089256 -0.00917288
-0.02149611 0.00658672
0.00125042 0.00086434
-0.00259470 0.00759978
0.00120232 0.02394256
0.00831711 0.00555585
-0.01600321 -0.02040062
-0.01950236 -0.01252961
-0.00204850 0.00145418
0.02060146 0.02786709
0.02886945 0.00540622
0.03025718 0.01711365
0.00036106 0.01088258
-0.01153232 -0.00092671
0.00945831 -0.01078479
0.01338987 -0.00436672
-0.01350392 0.00565726
0.01352671 -0.01777684
0.00754865 0.01442864
-0.00704660 0.00562870
-0.00232647 -0.01190776
-0.00118587 -0.00367301
0.01388448 -0.00253905
0.00191595 -0.01390310
0.01306273 -0.01807161
-0.01207954 -0.00670708
-0.00383008 -0.01667916
0.02610763 0.01611375
0.01775819 -0.00086674
-0.00424382 -0.01960064
-0.00081835 -0.00141515
-0.01025195 -0.00211943
-0.00000231 -0.00617746
-0.00361857 -0.00190495
-0.00268029 -0.00966107
-0.00398063 -0.01260416
-0.00300469 -0.01994111
-0.02465782 0.01027707
0.02018481 0.01200738
-0.00984356 -0.02020705
0.01143119 -0.02815474
-0.00992416 0.00076358
0.00974720 0.02512570
0.01787999 0.02252805
0.00709258 -0.00265035
-0.04344036 -0.01791162
-0.01404233 0.01585820
0.00653755 0.02144590
-0.01045908 0.00869502
-0.00969219 0.01124502
0.03424568 0.00349046
-0.01343282 -0.00715824
-0.00861620 0.02222846
0.00569697 -0.00471158
-0.03085761 -0.03524151
-0.02670157 0.01045497
-0.00012499 0.01094091
-0.00205925 0.00674895
0.00092918 -0.01082785
0.02334092 0.00471759
-0.00194094 0.02256908
-0.00106709 0.00523494
0.00319603 -0.00285197
-0.00665423 -0.00252533
0.00059268 -0.00392684
0.00213770 -0.01093998
0.00174959 0.01075799
-0.00696336 0.01654373
0.01229048 -0.00002071
-0.01520603 -0.00072951
0.00381536 0.01635037
0.00623802 0.00423612
-0.02044136 -0.01654743
-0.01329562 -0.01481290
0.00341463 0.00414549
-0.01390722 0.01671629
0.00114669 -0.00749150
0.00352775 -0.00851735
-0.01107868 0.03334025
0.01323058 -0.00191123
-0.00661786 -0.01287232
-0.00382425 -0.00057106
-0.00331988 -0.00602864
-0.00241254 -0.00124765
-0.01580901 0.00811560
-0.00472088 -0.00400322
0.00008480 -0.01845879
-0.01168599 0.01689792
0.01027857 -0.00291841
0.01348829 -0.00558369
-0.02241372 0.01088859
0.00229703 0.00185829
-0.01266542 0.00496749
0.00370478 -0.01456047
0.01857774 0.00501867
-0.02854895 -0.01684592
0.00564324 -0.00923257
-0.01494639 -0.01100035
0.00289658 0.00227155
0.00031962 -0.00408831
-0.01930675 -0.00257988
0.02220462 0.00308352
-0.01114229 0.00678786
-0.01355117 -0.00671880
0.02098648 -0.00796176
-0.00323268 -0.00160253
0.00574365 0.01303417
-0.02394300 0.01016967
-0.00489055 -0.01720068
-0.00173185 0.00447612
-0.01301313 -0.03147584
-0.01158150 -0.00189398
-0.00180995 -0.00609569
-0.00411491 -0.01103807
-0.00568373 0.02713657
0.01540533 0.01637697
0.02061767 0.02040153
0.01339174 -0.00493568
-0.01339883 -0.00238320
0.01191797 0.00059674
-0.01506253 -0.01529275
0.02236807 0.00267044
-0.01298892 0.01008018
-0.00066602 0.00402683
0.00126915 -0.01509400
0.00179522 0.00106414
-0.00937990 0.00849549
0.00259880 -0.01172135
-0.00129977 0.00667760
0.00729964 -0.04569342
0.00728085 0.00103451
-0.03152344 0.00386508
0.00298356 -0.01524825
-0.00355557 -0.00599851
-0.01660527 -0.01560119
0.01946367 -0.01403165
-0.03257157 0.00689050
0.02323077 0.00564495
-0.00283729 -0.00780165
-0.00787716 -0.00565226
-0.00366631 -0.00639853
-0.01033921 -0.00539233
-0.00335692 0.00703530
0.00572259 -0.00914613
0.00051793 -0.00759240
-0.01096449 -0.01385308
-0.01073021 -0.02365351
-0.01410673 0.00043361
-0.00126239 0.00830809
0.00718214 -0.00573641
-0.00406429 -0.00709771
-0.00615955 -0.00433693
0.01006663 0.00377038
-0.01192005 0.00717550
0.01595085 -0.00453344
-0.01490138 0.01185629
-0.01670354 0.00995522
-0.00761594 -0.01441655
0.00821709 -0.01402984
-0.00431104 0.02596977
0.01335976 -0.00811477
0.00046265 0.01700551
-0.00341516 -0.00067494
0.00732305 0.01170957
-0.01837931 0.00640375
-0.00678307 0.00821145
-0.00183726 -0.01786743
0.00205533 -0.01106889
0.01377519 0.01569409
-0.00559423 -0.02083152
-0.00474315 -0.00576320
-0.00658381 -0.01169195
0.00224846 0.01732053
-0.02049162 0.00908246
-0.01871657 0.00808142
-0.00550498 -0.00670590
0.00058657 -0.01551471
-0.01460713 0.01946596
0.00126382 -0.01217152
0.01342183 0.00250749
-0.01508733 0.00773185
-0.00081790 -0.00881075
-0.00459823 0.00624752
0.00470636 0.00436281
0.00830460 0.01958939
-0.00238523 -0.01135454
-0.00018579 -0.00992359
-0.00440152 -0.00592153
-0.00279915 -0.00371162
-0.00012495 -0.00517207
-0.00502159 -0.00274807
-0.00250173 -0.00229223
-0.01087699 -0.01862794
-0.00039379 -0.01332071
-0.01188048 -0.00215607
-0.00193456 0.00760727
0.01852313 -0.00035733
-0.00557543 0.01633720
0.03202431 0.00746763
-0.00679169 0.01381472
0.00780207 -0.03582256
-0.00073392 -0.00247546
-0.01132111 0.00380884
-0.00328022 -0.02172406
0.01659141 -0.01226718
-0.00282278 0.00992333
-0.01129130 -0.01048646
0.00946759 -0.00475299
-0.02204942 0.00144685
-0.01042248 0.00932068
-0.01761814 -0.00583984
0.00707237 -0.01179663
0.02284532 0.01293668
-0.02293374 0.03660961
-0.00657708 -0.00491064
-0.01081184 -0.01951497
0.00443985 -0.00958685
-0.00700332 0.01699033
-0.01999369 -0.00019761
-0.00696932 -0.01005948
0.00805937 -0.00614341
-0.00682349 -0.00889870
0.00451288 -0.00375187
0.02144671 0.00136454
0.01879487 -0.00725774
0.02358397 0.01359499
-0.02668124 0.01041246
0.00257731 -0.02824908
0.01060796 -0.01656616
-0.02172772 -0.00467638
-0.03147413 0.00301303
0.00532767 -0.02149084
0.01146004 0.02736618
-0.00083051 -0.01148092
0.01932075 -0.00500784
-0.00653876 0.03286707
-0.01206122 0.00086899
0.00622126 -0.01775613
-0.00955560 0.00832373
-0.01180335 0.00750895
-0.00075388 -0.02505265
0.03656705 0.00858111
0.00711181 -0.00218372
0.01285593 0.01044759
-0.04262066 0.00126351
-0.01140129 0.00779892
-0.00849361 -0.00719180
-0.00682435 -0.01037026
-0.00566938 -0.00501921
-0.01150020 -0.00562921
-0.00345158 -0.00128072
-0.01273158 -0.00803084
0.00290741 0.00780275
-0.00726994 -0.00002548
0.00331807 -0.03290758
-0.01113908 0.00290961
0.01098940 -0.00408336
0.00848199 0.02096904
-0.00139139 0.00499572
-0.01632025 -0.01312188
-0.01558281 0.01729190
-0.01648011 0.00801124
0.01736877 0.00073119
-0.00436822 -0.00829199
0.01791626 -0.00416350
-0.00005357 0.01564055
0.01401457 -0.01259625
0.01561685 -0.00704041
0.01131231 -0.00638713
-0.02235278 0.01995952
-0.00883443 -0.00475352
0.01239849 0.02047711
-0.00860794 -0.01549835
0.01558396 0.00254598
-0.00235538 0.00996071
0.00767889 -0.01170628
-0.00401513 0.00092676
-0.02925286 0.00069412
-0.01893285 -0.00181963
0.00051817 0.00175029
0.01352065 -0.00434222
-0.00480748 -0.00336345
0.01368578 -0.01841130
-0.01412952 -0.00217121
-0.00447557 0.00532823
0.00818150 0.00821176
0.01610521 -0.00155573
-0.01024339 0.00215409
-0.00582845 -0.00712060
0.01919039 -0.00322003
0.01933056 -0.00800640
-0.00023763 0.00817880
-0.00866895 0.00661788
-0.03113369 -0.03262042
-0.00410695 -0.00629836
0.00124682 -0.00370916
-0.00553530 -0.00684114
0.00018389 -0.00237674
-0.00259410 0.00299862
-0.00255073 -0.00450120
-0.02369849 -0.01419159
-0.00253797 -0.00474643
-0.00428834 -0.00268268
0.00456833 0.00472906
-0.00579133 0.01045685
-0.00179504 0.00911868
0.01696831 -0.00884843
-0.01218961 -0.00187099
-0.03402018 -0.01288097
0.01407754 0.00402857
-0.00174257 -0.01028712
-0.00662917 0.01531558
-0.00938368 -0.00790783
0.00435338 -0.00812600
-0.00655847 -0.00570172
-0.00443224 -0.02381093
-0.03307417 -0.00711186
0.00280016 -0.00505482
-0.00776985 0.00830800
0.00162465 0.00600104
0.01784598 -0.01776303
-0.00263129 0.01810491
-0.01278042 0.00727753
-0.01381420 -0.02198397
0.00403035 0.00144433
0.00703789 -0.00851115
0.00161744 0.00584026
-0.01150486 -0.00988956
-0.00570773 -0.00743301
-0.01809986 -0.00747272
-0.00310361 0.00346354
0.00541856 0.01943894
0.03467210 0.02280383
0.02399736 -0.00604344
-0.03293518 0.01480041
-0.00784141 -0.00007129
-0.01959028 -0.02692096
-0.01118250 -0.00506940
-0.01050304 0.02256765
-0.00220859 0.01602700
0.01762550 0.00286070
-0.01113572 -0.01057227
-0.00799783 -0.01293469
0.01455638 -0.01114275
0.00946220 0.02954093
-0.01126517 -0.02478154
-0.01178536 -0.01685992
-0.00623856 0.02718238
-0.00063954 0.00067858
0.04020182 0.00474530
-0.00095785 -0.00708184
0.00760766 -0.02967655
-0.01972637 -0.01264682
-0.00357012 0.01946224
0.00134090 -0.00280686
-0.00381321 -0.00201128
0.00101118 -0.00366386
-0.00108487 0.00190335
-0.00254935 0.00033752
0.01031499 0.00434286
-0.00016922 -0.00031170
-0.00371388 0.00948613
-0.02396798 -0.02886485
-0.00249355 0.01709392
-0.00013147 0.00501930
-0.00952057 -0.00176744
-0.01702674 -0.02133919
-0.03115618 -0.00356437
-0.00584220 0.00459955
-0.00107238 0.00113914
-0.00012338 0.00022671
-0.00152701 -0.01551278
-0.01675903 -0.01206042
-0.02008777 -0.00385739
-0.00603692 -0.00535120
0.00477928 0.01075245
-0.00077548 -0.00484620
-0.00266935 -0.00071070
-0.00623749 0.00152453
0.00911039 0.00456547
-0.01131605 -0.00296680
-0.01101243 -0.00232800
0.00530928 0.01026689
-0.00223791 0.00654033
-0.00251411 -0.00973845
0.00587833 -0.02320619
-0.00122939 -0.00166563
0.00437803 -0.00295125
-0.00593718 -0.01611926
-0.00751442 0.00848810
-0.03738898 -0.01000674
-0.00941860 -0.01423419
0.01031561 0.01380259
-0.00478106 0.02561972
-0.00846221 -0.01165533
-0.00602132 0.00663520
-0.01047107 0.00033204
0.00812360 0.00582297
0.03629533 -0.00413541
0.00532601 -0.00209459
0.00906979 -0.00897670
-0.00175534 0.01345449
-0.00300240 0.01423628
0.00289697 -0.00139579
-0.00373842 -0.00937976
-0.00383313 -0.00326895
-0.00575459 -0.01185624
-0.00396054 0.00160937
0.01062004 -0.00201265
0.00626692 -0.00104645
-0.01261857 0.00431464
0.00803313 -0.01487767
-0.01446598 -0.00649744
0.00177493 -0.00403623
-0.02685568 0.00180998
-0.00536043 -0.00892024
-0.00641217 0.00524269
0.00680855 0.00103374
-0.00202392 0.01101926
0.01859076 0.01514674
0.00179371 0.02430122
0.00618756 0.00320595
-0.00930495 0.00044602
0.00174572 0.00539654
0.01032143 -0.00917569
0.00472946 0.01420291
-0.00973268 -0.01847192
0.00132768 -0.00924486
-0.04413171 -0.00120595
0.01240009 -0.00195202
-0.00316505 0.00933026
-0.00273114 -0.00897838
0.00443048 0.01406886
-0.00840362 -0.00272320
-0.00346842 -0.01079137
-0.00082046 0.00452631
0.00876571 0.00477159
-0.00110352 0.01414908
0.00757517 -0.00062687
-0.00725290 -0.01026622
-0.00896613 -0.00194342
-0.01045878 0.02959759
0.06527118 0.02869377
0.05599290 0.07883083
0.00752711 0.00747977
-0.00353328 0.00165332
-0.01204124 -0.00427321
-0.00971128 -0.00151690
-0.01106811 0.02593706
0.00718668 0.00695183
0.00512736 0.00357724
0.01162247 -0.00280914
0.01898553 0.00065683
0.01852896 0.00195658
0.00267156 0.00461630
0.00396041 -0.01033777
-0.00658444 -0.00083390
-0.02635071 -0.00056753
0.01487384 0.01181714
-0.00560489 0.02721395
0.02653151 0.00009952
0.01766598 0.00863168
-0.01454695 -0.01554191
-0.01197938 -0.01140816
-0.00886757 -0.00365054
-0.01437267 -0.01178718
0.00034557 0.00304360
-0.00468859 -0.01757145
-0.01176645 0.01137829
0.00312225 0.00512549
0.01208910 0.01677825
-0.01947702 -0.02020015
-0.01781008 -0.02037663
-0.01933498 -0.01201399
-0.00179841 -0.00203559
0.01672120 -0.00570236
-0.00647945 -0.01062651
-0.01511582 -0.02828854
-0.02771523 -0.01053557
-0.02151736 0.00161499
0.00339959 0.00388872
0.01143880 0.01298445
0.01410027 0.01674370
0.00943002 0.01511222
-0.00084034 0.01405163
0.00031573 -0.00562382
0.00326360 -0.01337498
-0.03550411 -0.00150475
-0.01924884 -0.01330507
0.00005709 -0.01168746
-0.00100559 -0.01673985
0.00723186 0.01422131
-0.01161389 0.02136830
0.01487319 0.00171370
-0.00042681 -0.00262221
-0.00383742 -0.00616066
0.00709547 0.00116628
0.00993676 -0.00712459
0.00402066 0.01414713
0.01204423 0.00842669
0.00717266 0.01626346
-0.00010425 -0.00355307
0.00085552 -0.00662805
-0.00672408 -0.00911198
-0.01907599 -0.01955751
-0.02202074 -0.01126815
-0.01454259 -0.01337680
0.00277471 -0.00179060
-0.01118641 0.01435915
-0.00770494 0.00856734
-0.01203117 -0.02498107
-0.00766729 0.00061024
-0.00459993 -0.00734005
0.00372768 0.00103870
-0.00378376 0.00795560
0.00360027 -0.00180974
-0.01496575 -0.00374098
0.00081360 -0.00345832
-0.00949905 0.01288605
-0.00402404 -0.01309277
-0.00262463 0.00551886
-0.00943660 0.00927726
-0.01581589 0.00184425
0.00983916 -0.00153819
0.00799460 -0.01468911
0.02172249 -0.01249041
-0.01383096 -0.00523450
0.01530982 0.00106620
-0.01647565 0.00792706
0.01136606 -0.00005121
-0.00429399 -0.01209124
0.01000357 -0.01136137
0.00114694 -0.01340803
-0.01905924 -0.00950779
-0.03210666 0.01196165
-0.00099311 0.00079437
0.00045476 0.01263297
0.04381623 -0.02138384
-0.00094086 0.03243599
-0.01821038 -0.00845664
-0.00434598 0.01866220
-0.01537603 -0.01693290
0.03643949 -0.00367818
-0.00291904 -0.00395773
-0.00750818 0.00534556
-0.00470909 0.00336946
0.00257200 -0.02310718
-0.00626990 0.02030933
0.02915719 0.00629207
0.00189934 0.00830929
0.00162380 0.00033499
-0.02212131 -0.01196573
0.01174455 -0.02041984
-0.01390202 0.00142071
-0.01202494 -0.00879161
-0.01681394 0.01180917
0.01148509 0.02024087
-0.01027574 -0.00717822
-0.00156319 0.00298531
0.00161530 -0.01490980
0.02706671 -0.00849831
0.02696064 -0.02486608
-0.00928503 -0.00991620
0.00117504 -0.00650585
-0.02331426 0.03622189
0.02609164 0.01524504
-0.01366192 -0.00461879
0.01787667 -0.00512357
-0.00079457 -0.01585330
-0.00606088 -0.01938209
0.00216754 -0.00883515
-0.01027246 0.00374943
-0.00328014 -0.00641529
0.00219463 0.00668947
0.00003301 0.01970975
0.00030195 -0.00356466
-0.00523273 0.00729725
0.00928915 -0.00825133
0.00412279 -0.00410372
-0.01011531 0.00652328
0.00320781 0.00307968
0.00642183 0.02887016
0.01502442 -0.00872372
0.00114233 -0.01456561
-0.00216303 0.01253061
-0.00324325 -0.00460720
-0.00243384 0.01629418
0.00753577 -0.01484270
0.01188632 0.00020096
0.00693344 -0.00446909
-0.01228706 0.00448470
-0.01324188 -0.01607333
-0.00518569 0.00078878
-0.01615079 0.00485859
0.00086044 -0.00896691
-0.00101806 0.00847597
-0.00107277 -0.00135095
0.00140072 -0.00038006
-0.00675363 -0.00275466
0.01697780 -0.01631096
-0.00360798 0.01988300
-0.01209896 -0.00681342
-0.01197018 -0.00138420
0.00975889 -0.00163826
0.01726658 0.00648863
-0.01668828 -0.01025790
-0.01535196 -0.00474827
-0.00273047 -0.01794061
0.00043792 0.01449157
-0.02038749 0.00665207
0.01223607 -0.00938716
-0.00641516 0.00408890
-0.00367737 -0.01994392
0.00555076 0.01287758
-0.01143967 0.00111421
0.00906413 0.00590089
-0.01757274 -0.00827285
-0.00813684 0.00713887
-0.00437544 0.01881934
0.01216232 0.00094283
-0.00314968 -0.00485777
-0.00379948 -0.00264742
-0.00252797 0.00006368
-0.00036343 -0.00151990
0.00326627 0.00168813
-0.00682469 -0.00547982
0.00856063 -0.01381203
-0.01914012 0.00418758
-0.01943064 -0.00872708
-0.00080444 -0.01310215
-0.00309321 0.01245894
-0.02789391 0.00557686
-0.00841839 -0.00251985
0.01179987 -0.00527038
0.00169973 0.04108901
-0.03872136 0.02393560
0.02919778 -0.02255183
-0.01976600 -0.00600114
-0.00219069 -0.02296278
0.00414310 -0.00083729
-0.00423351 0.00149797
0.00747430 -0.00982331
0.01137745 0.00031146
0.01481069 -0.01470390
0.01943405 -0.01781179
-0.01968518 0.01471756
-0.01410009 -0.00191084
-0.01186925 0.00060657
0.01273148 -0.03834124
0.00951447 0.02056375
-0.03062838 -0.00321762
0.00286478 0.00269924
-0.01057996 -0.00177901
0.00060888 -0.00220132
0.00412177 0.00517299
-0.01006776 0.02020402
0.00180196 -0.01346168
0.04650244 0.01610364
-0.02071004 0.03279417
0.03254982 -0.00850046
0.00099404 0.00159101
0.01404735 -0.00286892
-0.01632687 0.01361823
0.01716980 -0.02082399
0.00077957 -0.01358141
0.00146760 -0.00420555
-0.01059288 -0.01101026
0.02436651 0.00496609
-0.00796085 -0.01179777
0.00557276 -0.01786702
0.01338767 0.01456470
-0.03728620 0.01423806
0.02895099 -0.03783165
0.00613282 0.00348259
0.00321783 -0.01097061
0.00872815 -0.00944572
0.01483894 0.01286825
-0.01163859 -0.00010362
-0.00001906 -0.00256672
-0.00530507 0.00504975
-0.00581262 -0.00738165
0.00192472 -0.00222277
-0.00660300 -0.01039452
-0.00359086 -0.00094187
0.01244125 -0.00997947
-0.01723857 0.00600973
-0.00616020 -0.00713462
-0.00822041 0.00590179
-0.00691710 -0.00514837
0.01491780 -0.02089489
-0.00331848 0.00052627
-0.00437139 0.00590308
-0.00981451 -0.00567196
-0.02145828 0.01932420
-0.02366664 -0.00927403
0.00597322 0.02256678
0.00592409 -0.00987068
-0.02465677 -0.00560566
0.00716637 0.00427386
-0.01044833 0.01374679
-0.01380922 -0.01109396
-0.00971553 -0.00303428
-0.01151800 0.00547505
-0.02963351 0.00543792
-0.00543557 0.02214056
0.00068707 -0.00857445
0.00343923 0.00416101
0.00495671 0.01523814
-0.00562657 -0.01183082
-0.02994034 0.00833323
0.03482240 0.00113116
-0.00603407 0.00160023
-0.00588998 0.01053792
-0.01475652 0.00548243
0.00126878 -0.00463680
-0.00506037 -0.00925794
0.00851466 0.01137248
-0.00941382 0.01142328
-0.01598813 0.01662873
-0.00292882 -0.01313078
-0.00418932 0.01216625
-0.02612426 -0.01422844
0.01520811 0.00055145
0.00458362 0.00278991
0.01293968 0.00034447
0.00935406 0.00767515
0.00412529 0.00925718
-0.02407951 -0.00265419
-0.00397986 -0.00173741
-0.00583497 -0.00201710
0.00101005 -0.01177031
-0.00531188 -0.00151800
-0.00292626 0.00675629
-0.00732411 0.00852330
-0.00569367 -0.00662321
0.01438019 -0.00704396
-0.00892201 0.01083456
0.01075075 -0.00407866
0.00953507 -0.00642724
0.01567143 -0.00018190
0.00026135 -0.00278356
0.00253653 -0.01814891
0.00455532 -0.02950083
0.02292294 -0.00992878
-0.00447759 0.02949739
-0.01092740 -0.00981839
-0.00437038 0.03073549
-0.01109611 0.00697823
-0.00211509 -0.00370161
-0.00156311 -0.02180893
-0.00733219 0.00015060
-0.02962511 0.02864457
-0.03125390 0.02521283
0.03084848 -0.03360314
0.01425248 -0.00075997
-0.00868061 -0.01018622
-0.03689131 0.01294469
-0.02760885 -0.01723520
0.00345282 -0.00685754
-0.00159157 -0.00274472
0.00274905 -0.00245677
-0.00287784 -0.00321127
0.00267515 0.00044589
-0.00062466 0.00823449
-0.00804893 0.01127557
-0.00346642 0.00450812
0.02718548 -0.00082223
0.00199075 0.00976623
-0.01235236 -0.01209714
0.00277677 -0.01540076
0.00479632 -0.02705845
-0.02122425 0.01273682
0.00002947 -0.01186432
-0.00285038 0.00603636
-0.00643539 0.01249299
-0.01700636 0.00753915
0.02279864 -0.03107120
-0.00789777 -0.00127167
-0.00315844 -0.04016851
0.01977393 -0.02529971
-0.02436030 0.01486536
-0.01590100 -0.00081598
-0.02312488 0.01911223
-0.02124272 0.00541093
-0.00396724 -0.00832375
0.01308779 -0.01168993
-0.00732818 -0.00216732
0.00073643 -0.01071191
-0.00477990 0.00188158
-0.01003757 -0.01167797
-0.00438536 0.01059659
-0.00475160 -0.00601431
-0.01610334 -0.00380845
-0.00562466 -0.00240711
-0.00683765 0.01372210
-0.00736537 -0.00628781
-0.01225470 0.02767288
-0.01574986 0.02387152
0.01763686 -0.00240980
0.00156534 -0.00839647
0.00869873 -0.00476185
0.01598417 -0.02146545
0.00756774 0.00343711
-0.01782929 0.00146044
-0.00243191 -0.00004633
0.00004547 -0.00806451
0.00223307 0.00346973
0.01537655 0.00907505
-0.02078462 0.01122403
-0.00334266 0.00475270
0.00540749 -0.00644692
-0.00443766 -0.00472483
0.00117876 0.00674037
0.00189214 -0.01041252
-0.00229924 0.00433821
0.00093372 -0.00827610
0.01358989 0.01795528
-0.00365391 -0.00360918
-0.02395947 0.01254080
0.02247561 -0.01311935
0.02478567 0.00703161
0.00652076 -0.00741174
-0.00500142 -0.00092939
-0.00655570 0.00044874
-0.00270202 -0.00734111
0.01193957 -0.00155390
-0.00658225 0.00285740
0.00916353 -0.00957442
0.02612987 -0.01448904
0.00002723 0.01641405
-0.03096567 0.00398249
0.01879580 0.00379834
-0.00387569 0.01948020
0.02075149 -0.00398150
-0.01154766 0.00732108
-0.01335881 -0.00038772
-0.00161508 -0.00526338
-0.00097018 0.00079849
-0.00279071 -0.00158341
-0.00477221 -0.00229761
-0.00892562 -0.00732516
-0.01251576 -0.00750991
0.00823564 -0.00498812
-0.00184333 0.01341494
0.02645619 -0.00126584
0.03590740 0.00513388
0.01609530 -0.00281761
0.01270753 -0.00541623
0.01264755 0.00972491
0.00937185 -0.01906111
0.00216628 -0.00832816
-0.01388850 -0.02347923
0.00276851 -0.01764173
0.00821627 0.00404551
-0.00537579 -0.00157634
0.00302669 0.01566441
-0.00619669 0.00041767
0.00786585 0.01144597
0.01585589 0.00354028
-0.01095012 0.00519673
-0.01815244 -0.01542100
0.00329087 -0.00144620
-0.00344145 0.00845584
0.00159834 -0.00360282
-0.01196867 -0.01567258
-0.00062783 0.01277645
-0.01359271 -0.00183723
-0.00075842 -0.00451369
-0.00461104 -0.00499461
0.00894149 0.00724483
-0.01552341 0.01445771
0.01311594 0.04050786
0.02377968 0.01777408
0.02153871 -0.01792718
-0.01766111 0.00691678
-0.00783013 -0.00561813
-0.01867840 -0.00877351
-0.01419674 -0.01672147
-0.00238977 -0.00500416
0.00499200 0.00834010
0.00614152 -0.00883240
-0.00395329 -0.00750492
-0.00509103 0.01581317
-0.00912159 0.01255074
-0.00221629 -0.00514785
-0.01547571 -0.01651952
-0.00360909 -0.02241864
-0.02009939 0.00056648
-0.00873612 -0.00796963
0.00826211 0.01035243
-0.02094166 -0.00970808
0.00304729 -0.00586943
-0.01368539 -0.00405738
-0.01773323 0.01078156
-0.00751472 -0.00887517
-0.01106873 -0.00802256
-0.00568331 -0.00629636
-0.00744980 -0.00594374
-0.00270383 0.01524966
-0.00106671 0.00873465
0.01211428 -0.00599064
0.02132945 0.00070708
-0.00809741 0.00752679
0.00444400 0.01864044
-0.00833754 -0.01053792
-0.00071327 -0.01191357
-0.00439507 0.00027501
-0.00845856 0.00033534
0.00526515 -0.00284465
-0.00507973 -0.01020205
-0.00223729 0.00566335
-0.00928505 0.01257819
-0.00719612 -0.00709628
-0.00008593 0.00553654
0.02239765 0.00459570
0.00935323 0.00565514
0.00984283 -0.00506987
0.00689911 0.00953087
-0.00959487 0.00406978
0.01310688 0.00515943
-0.00002052 0.00166262
0.01173499 0.00722980
-0.00191843 -0.01023166
0.00969931 -0.01433023
0.00695034 0.01011227
0.00333244 0.00443206
-0.00882716 -0.00452859
-0.00042056 0.01147490
-0.00684739 -0.01168607
0.00592877 -0.00677457
-0.01589436 -0.01229342
-0.01139013 -0.00747447
0.01484599 -0.00195954
-0.00248452 0.00374228
0.03299434 -0.00015270
0.00542355 0.00236617
-0.00609214 -0.00948148
-0.00013496 0.01070717
-0.00616297 -0.00838385
-0.00553802 -0.00908848
-0.01226084 -0.02229455
0.01333257 0.00095239
0.01013091 0.02478244
0.02504241 -0.00034358
-0.00314870 -0.00658113
0.00118866 -0.00159044
-0.00757038 -0.00068039
-0.00304438 -0.00796018
-0.00675877 -0.01042418
-0.00503682 -0.00978735
0.00234438 -0.00136536
-0.01536711 -0.00415630
0.00466996 -0.00671966
0.03686849 0.01238294
-0.01743621 -0.00487734
-0.01348163 -0.02967543
0.03285320 0.01542697
0.00751613 -0.01470915
0.00837879 -0.01346538
0.00330671 -0.00035962
0.02201641 -0.02467290
-0.00043294 0.00294115
-0.02164738 -0.02917082
-0.00759562 0.02454592
-0.00819407 0.01410438
0.01653721 -0.00825998
-0.02403438 0.00709039
0.02128489 -0.01000610
-0.02626031 0.02858053
-0.03269088 0.01583057
0.00940992 0.02292226
-0.00690365 -0.00034505
-0.00082813 -0.01185334
-0.01624178 0.02081555
-0.03314566 -0.01351530
-0.01101417 -0.01384981
-0.00428644 -0.00327625
0.00414062 -0.00053294
-0.00014424 0.00414161
-0.00104811 -0.00785922
-0.00242900 -0.00462181
-0.00613041 0.00678267
-0.00309899 0.00537464
0.04576355 0.01154219
0.01626059 -0.00340269
-0.00920742 0.00576521
-0.00424211 -0.01469439
0.01684218 -0.02771740
-0.02074287 -0.00251747
-0.00965068 0.00539756
0.00514985 0.02442544
0.00076158 0.02123666
0.00189649 -0.01297034
0.01879275 -0.02426499
0.01556992 -0.00535554
-0.00725507 -0.01412698
0.04040491 -0.05065118
-0.00259092 -0.01232601
-0.02910002 -0.01818004
-0.02721515 0.01172076
-0.01234915 0.00910251
0.00850961 -0.00464254
-0.00134677 -0.01022739
-0.01327287 -0.00102289
-0.00529497 -0.01556928
-0.00049478 -0.00434294
-0.01446864 0.01186783
0.01278811 -0.02062701
-0.01059315 -0.01355447
-0.02303489 0.00124279
0.00434242 -0.01290193
-0.00783919 -0.00197213
0.01281198 -0.04198572
-0.03492863 -0.00644095
-0.00975985 0.01685839
0.00580416 0.01618040
0.00859495 0.00937671
-0.02365862 -0.00471832
-0.00483115 -0.02835930
0.00670372 0.01008308
-0.00530692 -0.01764880
-0.01072473 0.01091421
0.03940075 0.00681202
0.00850826 0.00723575
0.00596708 0.01933841
0.00393399 0.01305721
0.00145928 -0.01518230
-0.01924171 -0.01772091
-0.01506534 0.00641790
0.02238367 0.00783386
0.01595396 0.00160197
-0.00941405 0.00820887
-0.00803946 0.00449158
-0.01570854 -0.00195146
-0.00145441 -0.01510986
-0.01708117 -0.00397980
0.00727694 0.00056234
0.01916668 -0.00098868
0.00446414 -0.00869723
0.00012620 0.01246619
0.00646122 -0.00306029
-0.00164915 -0.00971057
-0.00781756 -0.01342198
0.01775508 0.00952620
-0.00071066 -0.00516596
0.00395676 -0.02015884
-0.00270349 0.00154530
-0.02656157 0.00676101
0.00429518 0.00445898
-0.02924924 0.01481987
0.01559549 0.00566586
0.01229339 0.00476919
0.00267399 -0.00335009
-0.00238617 -0.00034598
-0.00261268 -0.00676905
-0.00218582 -0.00429282
0.01147868 -0.00132024
0.01219570 -0.00695839
-0.00749356 -0.00673158
-0.00591063 -0.00109326
-0.00763522 -0.00705106
-0.05363805 0.02287153
-0.00868771 0.02598932
-0.04182264 0.00219055
-0.03437285 -0.00167962
-0.00063180 0.01838663
-0.02213974 0.03036816
-0.01663227 0.00646099
0.00322594 -0.00057825
-0.00713131 -0.00399920
0.02319478 -0.00562349
0.01185594 -0.02302089
0.00921218 -0.01059044
-0.00271924 0.00134073
-0.01370545 -0.00131662
0.01808251 -0.01897528
0.03162565 -0.01272878
0.01285562 -0.00442968
-0.00040981 0.00426260
0.00102538 -0.01408030
0.00626414 -0.00696639
-0.00192074 -0.01161456
-0.00247206 -0.01213898
0.00940102 0.00760996
-0.00263073 0.00409121
-0.00742488 -0.00312498
0.01135496 0.00979478
0.00566713 -0.00229787
0.02365270 -0.00747226
0.01878102 0.02677715
0.00140367 0.01841108
0.02640563 0.01959616
0.01251291 -0.00020498
-0.00515601 -0.00835976
-0.02227894 0.00545466
-0.00397813 0.00454415
-0.00595382 -0.00091913
-0.01024419 0.00185875
0.01060546 -0.03091880
0.01062922 -0.00896915
0.00613202 -0.00142561
0.01487546 0.00029032
0.00430924 0.00122227
-0.02422808 0.00121886
-0.00486423 -0.00557666
0.00567264 0.00587743
0.01889855 -0.00669149
0.02562398 -0.00865089
-0.00227143 0.01068140
0.01951402 0.00974746
-0.00118936 0.00352187
-0.00262404 -0.00252019
-0.00130448 -0.00374586
-0.00885162 -0.00597008
-0.00804205 0.00421731
-0.00879242 0.00369609
-0.00391442 0.01740621
-0.00292287 0.00873405
-0.00942151 -0.00202718
-0.00808239 0.00332941
-0.01020188 -0.00673024
0.00423651 -0.00703171
0.00427479 0.00081342
0.00264638 0.00316230
-0.02159733 0.00386706
-0.01679302 0.01003986
-0.01516011 -0.00903979
-0.01287460 -0.00671495
0.01157625 0.00767057
0.00094437 0.00535038
-0.04467483 0.03539325
-0.00593218 0.00415863
0.00786230 -0.00587015
-0.00182228 0.01039371
-0.00315599 -0.00049088
-0.02706277 -0.01156222
-0.01526712 0.00578799
-0.00627171 -0.03065654
0.00776881 0.00452834
0.00362219 0.01889269
-0.00095684 0.01347902
-0.01711209 -0.02094704
0.01996159 0.02685510
0.01730632 0.01891029
-0.03346957 -0.00461100
-0.01048697 0.00096970
0.01199275 -0.00756401
-0.00313207 0.00056846
-0.01641035 0.01133517
-0.00297021 0.01153593
-0.00350587 0.00321047
-0.02256333 0.01979994
-0.02114425 0.00418707
0.01253675 -0.00188529
-0.01754847 -0.01426235
