0.00015528 -0.00188732
0.00163365 -0.00314432
-0.00059988 -0.00030961
-0.00457316 0.00641711
-0.00454810 0.00143797
-0.00108861 0.00237093
-0.00024192 -0.00094482
-0.00106847 -0.00083197
0.01597594 -0.00646876
0.00039358 -0.00052803
0.00141067 -0.00136161
-0.00382504 -0.00084788
0.00075834 -0.00030263
0.00058791 0.00001496
0.00007566 0.00065331
-0.00129498 -0.00158879
0.00051197 -0.00010067
-0.00364647 0.00125048
-0.00159973 -0.00074377
-0.00056240 -0.00464132
0.00063013 0.00181803
-0.00084718 -0.00145663
0.00849244 -0.00236404
0.00097486 -0.00213914
-0.00147436 0.00516572
-0.00390282 -0.00231884
-0.02550364 0.01044889
-0.03041958 -0.00767829
-0.00488877 -0.00682322
0.00096675 -0.00378232
-0.00052993 -0.01064913
-0.01294905 -0.00044513
0.00003071 0.00056961
-0.00267919 -0.00113182
0.00243117 -0.00052280
-0.00718476 0.00062225
0.00078673 0.00009544
0.00245519 0.00127209
-0.02103095 0.01048987
0.00443050 0.00531238
-0.00087220 0.00030524
-0.00147284 0.00090227
0.00094232 0.00160564
-0.00064959 -0.00080717
-0.03696109 0.01099959
0.00025505 0.00169870
-0.00313857 0.00081986
-0.00047311 -0.00221971
0.00106612 0.00856169
-0.00267169 0.00163822
-0.00587236 0.05812344
0.00151216 0.00082856
-0.00510958 -0.00371832
-0.00068950 -0.00341066
-0.00027997 -0.00249485
0.00212470 -0.00146661
-0.00254691 0.00059007
0.00338176 -0.00261316
-0.00262673 0.00030276
-0.00027092 -0.00194330
0.00028067 -0.00092299
-0.00173827 0.00031444
0.01288527 -0.00572102
0.00199727 -0.00223015
-0.00091311 -0.00144124
0.00649934 -0.00523784
0.00563562 0.00421875
-0.00539652 0.00015955
0.00000238 -0.00252133
-0.00195256 -0.00257867
0.00097780 0.00030301
0.01629748 -0.00632808
-0.00254757 -0.00172205
0.00095753 -0.00018810
-0.00296554 0.00139981
0.00076355 -0.00047524
0.00807755 -0.00316070
0.00014631 0.00019586
0.00045729 -0.00114923
0.00063370 0.00437768
-0.00370181 -0.00442918
0.00056446 0.00042843
0.00039546 0.00045501
-0.00096006 0.00890911
-0.00132693 0.00109075
0.00125551 0.00041219
0.00023468 0.00111391
0.00036023 0.00080863
0.00065388 0.00080329
0.01383759 -0.00692967
-0.00145634 0.00020385
0.00310573 -0.00214129
-0.00047613 -0.00040380
0.00243153 0.00417941
-0.00162072 0.00087621
0.00012197 0.00378308
0.00125086 0.00037485
0.00173040 0.00632407
-0.00437381 0.00100048
-0.00181195 -0.00490899
0.00058223 0.00132453
-0.00174824 -0.00468785
0.00427311 0.01221699
-0.00617711 -0.00124009
0.00095720 -0.00312289
0.00017572 0.00103614
-0.00027980 -0.00117187
-0.03621887 0.00577960
-0.00055839 -0.00043568
0.00168243 -0.00166423
-0.00873960 0.00752507
-0.00225997 -0.00007771
-0.01439621 0.00035035
-0.00129432 -0.00122212
0.00025393 -0.00106789
-0.00119049 0.00031206
0.01202794 -0.00455016
-0.00031403 0.00027484
-0.00100853 -0.00008697
0.00297967 -0.00247254
0.00025262 0.00604871
-0.00543300 -0.00012529
0.00077521 0.00199293
-0.00122053 -0.00138508
-0.00210798 0.00115991
0.00827655 -0.02660385
-0.00064328 -0.00038114
-0.00075315 -0.00212522
0.00000132 -0.00305770
-0.00012846 0.01070473
-0.00790493 0.00156603
-0.00002363 -0.00092907
-0.00204072 0.00202640
-0.00374516 0.00084973
0.00538823 -0.00197369
-0.00201935 -0.00136387
-0.00237770 0.00225618
0.01200453 -0.00610054
-0.00135795 0.00068995
0.00091471 -0.00198765
-0.00058695 -0.00169507
0.00225035 0.00431217
-0.00153399 0.00151340
-0.04483725 0.00520539
0.00151093 0.00192374
-0.00080966 0.00036488
0.00547428 -0.00582885
0.00241692 0.00729972
-0.00527680 -0.00164218
-0.00423737 0.00820175
0.00004149 0.00051373
-0.00385768 0.00759879
-0.00449585 -0.00440831
0.00086561 -0.00335184
0.00105365 -0.00227102
0.00188255 0.00108729
0.00027218 0.01263162
-0.00650236 -0.00254471
0.00164491 -0.00193099
-0.00071032 0.00130568
-0.00034351 -0.00017878
0.01241286 -0.00374254
-0.00138019 -0.00070334
0.00004320 0.00157218
0.00033124 0.00258531
0.00073767 -0.04122503
0.01075056 0.00129052
-0.00102711 -0.00143333
0.00173154 0.00209427
-0.00070412 0.00237342
0.00921291 -0.00259726
-0.00234468 -0.00099597
-0.00208270 -0.00120528
-0.00036303 -0.00308534
0.00340888 0.01307886
-0.00329099 -0.00004316
0.00026281 0.00154060
-0.00012595 0.00015113
-0.00127829 0.00435671
-0.00425733 0.00012142
-0.00133369 0.00099344
-0.00006387 -0.00121472
0.00438523 0.00229206
0.00077756 0.01237422
-0.00703934 0.00209714
0.00058343 0.00188016
0.00055227 0.00062014
-0.00282638 0.00129727
0.01019332 -0.00574621
-0.00208605 -0.00091221
0.00036640 0.00019737
-0.00120269 0.00072003
0.00027988 -0.03464068
0.01366455 0.00062453
0.00031963 -0.00281555
-0.00152964 0.00058968
-0.00162897 -0.00263410
0.00419706 -0.00284536
-0.00162404 -0.00147064
0.00115501 -0.00141222
-0.00434207 0.00203924
0.00557591 0.00558903
-0.00094330 -0.00123617
-0.00052813 0.00326519
-0.00141533 -0.00095738
-0.00301775 -0.00150552
-0.00668976 -0.00058391
0.00189743 -0.00075597
-0.00298565 -0.00408419
0.00278528 -0.00017886
-0.00105094 0.00692543
-0.00394358 0.00181903
0.00038309 -0.00220902
0.00102083 0.01288042
-0.00556867 0.00079606
-0.00849020 0.00609303
-0.00025188 0.00089104
-0.00280598 -0.00518185
0.00222932 0.00106970
-0.00264822 -0.03947558
0.00623939 0.00343462
-0.00088043 0.00084489
-0.00269593 0.00688560
-0.00473347 0.00030605
-0.00144864 -0.00567717
-0.00063260 0.00145250
-0.00036171 0.00089015
0.00812277 -0.00252589
0.00265596 -0.00154788
-0.00136866 -0.00071283
0.00127413 0.00034717
0.00045334 -0.00422746
0.00367212 0.00158947
0.00665342 -0.01368439
0.00080431 -0.00109121
-0.00103432 -0.00013223
0.00349215 -0.00414266
0.00053241 0.00692810
-0.00670723 0.00042706
-0.00068263 0.00002877
0.00011337 0.00003453
0.00192882 -0.00267113
0.00030974 0.00536555
0.00069118 0.00003621
-0.00177945 0.00068283
0.00062401 -0.00128450
-0.00004604 0.01055938
-0.00653613 -0.00050875
0.00399422 0.00131434
-0.00208418 -0.00045886
-0.04194024 0.00159589
-0.00305252 0.00177533
-0.00082964 0.00062779
-0.00094947 -0.00417075
0.00184235 0.02057713
-0.00071053 -0.00239207
0.00012844 0.00065680
-0.00060032 0.00171309
-0.00006231 -0.01609859
0.00650602 -0.00005073
-0.00394360 0.00313614
-0.00137474 -0.00254093
0.00218342 -0.00277230
0.00050752 -0.00340539
0.00162854 0.01073995
-0.00491329 -0.00351667
-0.00196922 -0.00148155
-0.00133625 0.00043231
-0.00045250 -0.00183869
0.01418720 -0.00356618
0.00041196 0.00068143
0.00093498 -0.00045453
-0.00089709 -0.00046784
0.00108447 0.00567672
-0.00543003 -0.00061312
-0.00172745 -0.00011557
-0.00023534 0.00677903
-0.00318583 -0.00034287
0.00104189 -0.00272508
-0.00003390 -0.00127533
0.00195358 -0.00050464
-0.00061593 -0.00147607
0.00118098 0.01200779
-0.00465984 0.00086550
-0.00394755 0.00111190
-0.00078758 0.00043989
0.00065627 0.00095328
0.01087372 -0.00603423
0.00079631 0.00015076
0.00046021 -0.00013893
0.00626883 -0.00705407
0.00159185 0.00099317
-0.00285710 -0.00056899
-0.00044857 0.00031228
0.00139527 0.00049831
-0.00233011 -0.00342939
-0.00453708 -0.01391241
0.00142032 0.00051434
-0.00130994 -0.00241575
-0.02136480 0.01228211
-0.00129393 0.00170709
-0.00158596 -0.00053813
0.00166488 -0.00284282
-0.00064653 0.00860086
-0.00332673 -0.00133413
0.00118399 0.00080631
0.00096851 -0.00004080
-0.00016305 -0.00046025
-0.00099126 0.00095351
0.00000429 0.00048467
-0.00112844 0.00242032
0.00372187 -0.00045901
-0.01061938 0.01113524
-0.00101459 0.00274597
-0.00065917 -0.00238612
-0.00138024 -0.00465147
0.00415649 0.00113675
0.00292398 -0.00333750
0.00569389 -0.00579938
-0.00255359 -0.00070139
-0.00028192 -0.00107490
-0.00049012 0.00058425
-0.00404971 0.00167512
0.00848576 -0.00558415
0.00147515 -0.00035835
0.00191898 0.00077579
-0.00030194 -0.00117101
0.00101647 0.00839961
-0.00265676 -0.00206326
-0.00036229 0.00040536
-0.00247410 -0.00049529
-0.00169221 -0.00069439
-0.00172168 -0.00079256
0.00038530 0.00119399
-0.00143536 0.00103777
0.00128022 -0.00104586
0.00019896 0.01237711
-0.00411927 -0.00155771
-0.00082046 0.00017332
-0.00115728 -0.00090572
-0.00321028 -0.00063600
0.01252441 -0.00557971
-0.00137807 0.00035065
-0.00041980 0.00147623
-0.00012497 -0.00083435
0.00051599 0.01081092
-0.00859991 -0.00182704
-0.00142675 0.00082195
0.00079704 -0.00287266
-0.00070424 0.00129170
0.01421680 -0.00538298
-0.00023053 -0.00039101
0.00306725 0.00233876
0.00270821 -0.00487976
0.00167738 0.00651573
-0.00282208 0.00000983
-0.00120498 -0.00090359
0.00049280 0.01001824
-0.00671945 -0.00037183
0.00684561 -0.00193224
0.00188643 -0.00131723
0.00175057 0.00059258
-0.00171192 -0.00184756
0.00691374 -0.00427853
-0.00210377 -0.00043349
0.00205713 -0.00075024
0.00049003 -0.00128770
0.00378309 -0.00112067
0.01091953 -0.00745429
-0.00078939 0.00312403
-0.00110268 0.00094999
0.01138123 -0.00521680
-0.00170772 0.00117496
0.00334568 -0.00026543
0.00012925 -0.00274020
0.00730769 0.00687309
-0.00275825 -0.00084505
-0.00093027 0.00158799
-0.00078137 -0.00060508
-0.00181930 -0.00045007
-0.00349244 0.00073264
0.00070942 0.01395716
-0.00652561 0.00045620
-0.00098169 -0.00351953
-0.00060315 -0.00529400
0.00496027 -0.02611253
0.01375855 -0.00734040
-0.00040058 0.00134506
0.00130014 -0.00119890
-0.03514052 0.00822492
-0.00081083 -0.00006204
-0.00126748 -0.00145482
0.00075003 -0.00074560
0.00078621 0.00175488
0.00191750 -0.00040862
-0.03875512 0.00745378
-0.00050245 0.00033345
0.00158268 0.00151176
-0.00386947 -0.00084504
0.00059001 0.00471046
-0.00446787 0.00003048
-0.00004387 0.00006735
0.00156174 0.00039799
-0.00261449 0.00056927
0.01109058 -0.00491688
0.00273722 -0.00103257
-0.00453386 -0.00123521
-0.00032560 -0.00140907
-0.00080929 0.01406394
-0.00671987 -0.00188877
-0.00388339 0.00383802
-0.00141882 0.00205837
-0.00152841 0.00321295
-0.00259428 -0.00248186
-0.00103482 -0.00408231
0.00557303 0.00134278
-0.00313230 0.00167322
-0.00374141 -0.00355475
-0.00205975 0.00064541
0.00012393 -0.00221937
0.00133797 -0.00105174
-0.00199384 0.00045371
0.01300648 -0.01079090
-0.00116781 0.00213718
-0.00345161 0.00091079
0.00016959 -0.00104219
0.00084868 0.01123272
-0.00403121 -0.00002684
0.00303388 -0.00119521
0.00225378 0.01359068
-0.00736651 0.00250906
-0.00361754 0.00118570
-0.00517720 -0.00146670
0.00152243 0.01580688
-0.05838129 0.00042409
0.00032365 -0.00316148
0.00096197 0.00014277
0.00131538 0.00035020
0.00605113 -0.04604863
-0.00176111 -0.00357164
-0.00206295 -0.00314426
-0.02663696 0.00083562
-0.00183132 0.01091009
-0.00644503 -0.00299632
0.00171805 0.00057763
-0.00359131 0.00219412
-0.00053020 0.00421216
0.06880514 -0.02051239
-0.00877292 -0.00577779
0.00844056 0.01632837
-0.00688307 0.00097218
-0.00200112 -0.00419640
0.00058721 -0.04152483
-0.00711609 -0.00513342
-0.00506448 0.00272199
-0.02531105 -0.00238748
0.00023971 -0.02145041
-0.00938701 -0.00911809
0.00273482 -0.00064175
0.00029661 0.03800973
0.00509603 0.01640471
-0.00046898 0.01573996
0.00022069 -0.06225965
0.09699792 -0.00645180
0.00256070 -0.00373490
-0.02848847 0.00502341
-0.00245992 -0.00298141
0.00630396 -0.01085425
-0.00192314 -0.01083867
0.00378299 -0.01924463
-0.02623896 0.01570900
0.00245929 -0.00294115
-0.00620821 0.00916498
-0.01471359 -0.00415116
-0.00517352 -0.03294293
0.01084444 -0.00286095
-0.00291055 -0.00190721
-0.00396089 -0.00157814
0.00869768 0.00946869
-0.04707096 -0.00111682
-0.01178101 0.00310207
-0.00231755 0.00111287
0.03031679 -0.03252092
0.02812587 0.01182617
-0.00443258 -0.06485731
0.00153264 0.00274011
-0.00370256 -0.00476179
0.00722773 -0.04092073
-0.00673418 -0.00139520
-0.00413331 -0.00373258
-0.00762374 -0.00269426
-0.00371198 -0.00390360
-0.00067978 -0.04485492
0.00073530 -0.00698671
-0.00377245 -0.00388572
-0.02588512 0.05108231
-0.01742995 0.00744219
-0.02811095 -0.00451045
-0.00017621 -0.00159315
-0.00167954 0.00211859
-0.00116672 -0.00465130
0.00307765 -0.04850889
0.00557384 -0.00681264
0.00461225 0.00067148
-0.02234447 0.01832400
0.00428539 0.00495204
-0.00251054 -0.02562096
-0.00195013 0.00036340
0.00329758 0.00061376
-0.00010255 0.00324351
-0.03880404 0.00324796
0.00683026 -0.00420262
-0.00344774 -0.00365622
-0.00047514 -0.03187357
0.07012001 0.00397624
0.01670490 -0.00289699
-0.00212288 0.01722507
-0.00894064 0.00345744
-0.00425030 -0.00109069
0.00193216 -0.04965190
0.00018847 0.00070393
-0.00491110 -0.00147951
-0.00392583 0.00252260
0.00126633 0.05486851
-0.03573860 -0.01668913
-0.00394990 0.00170797
0.00505029 -0.00165468
-0.00059593 0.01330336
-0.04142888 -0.00089560
-0.00883154 0.00205070
-0.00118539 -0.00477151
-0.01267416 -0.00421174
-0.00163599 0.01371541
-0.07105686 -0.00144336
-0.00431767 -0.00787412
-0.00010120 -0.00123154
-0.00399492 -0.00345915
0.00179997 -0.03681645
0.00525488 -0.00485148
0.00056379 -0.00037957
-0.00455887 -0.01573312
0.01806431 -0.02356990
0.00379142 -0.01222847
-0.00661393 0.00544492
0.00156078 0.00277175
-0.00001802 0.00078452
-0.00164448 -0.04589042
0.00098970 0.00113975
-0.00388668 -0.00301395
-0.00413711 -0.00322995
-0.00196122 -0.00001750
-0.03815923 -0.00860156
0.00020452 -0.00038577
-0.00093908 -0.00017704
-0.00139486 0.00221354
0.00817206 -0.02625607
-0.02105291 -0.00467645
0.00526894 0.00059960
-0.00584251 -0.01470172
-0.00433416 -0.03700373
0.07685184 -0.01688617
0.00312124 -0.00907520
-0.00052847 0.00569580
-0.01890188 -0.01069509
0.00171669 -0.02752031
-0.00366774 -0.00518133
-0.00250287 -0.00012061
0.00504770 -0.02917678
0.00039203 0.00861761
-0.00447181 -0.00333925
-0.00326772 -0.00450567
-0.00937270 -0.00386846
-0.00139251 -0.00086885
0.00712417 -0.05609932
-0.00192141 -0.00435441
-0.00486889 0.00140571
-0.00414409 -0.02281526
0.00199588 0.01408870
-0.02312766 -0.00018239
-0.00591436 -0.00115342
-0.00202240 -0.00495650
-0.00529712 -0.00079062
-0.06298050 -0.00027324
0.00616793 0.00380033
-0.00002935 -0.00118602
0.00474126 -0.00797708
0.00286343 0.00001767
-0.04756983 0.00387761
-0.00831307 0.00395558
0.00150365 0.00215545
0.00101711 -0.00164360
0.00757954 -0.04295942
-0.00001982 -0.00716403
0.00040005 -0.00446602
0.00330781 -0.00256463
-0.00103080 0.00633161
-0.04033614 -0.00266700
-0.00143272 -0.00026062
0.00103912 0.00159168
0.00178770 -0.00302480
0.00227143 -0.04733540
-0.00533744 -0.00349886
-0.00412528 -0.00307339
0.00078290 -0.00636094
-0.00661114 0.00315354
-0.04234285 -0.00282532
-0.00451514 0.00237669
-0.00314354 -0.00493294
0.00047860 -0.00826069
-0.03099488 0.00129472
-0.00344345 -0.00034566
-0.00099312 -0.00462233
0.00077721 -0.00102962
-0.01387056 -0.00937011
-0.02630815 -0.00181662
-0.00696462 0.01394097
-0.00284293 -0.00237685
-0.00286103 -0.00007078
-0.00563027 -0.03407017
0.02700883 -0.00116267
-0.00817147 -0.00669698
-0.00054512 0.00206797
-0.00162490 -0.00115096
-0.03359448 -0.01182559
-0.00632715 -0.00443508
0.00169701 0.00406393
0.00292620 0.00083931
0.00502475 -0.04103917
-0.00180616 0.00181057
-0.00252684 0.00215572
-0.00570712 0.00735090
-0.00623535 0.07646207
-0.03280889 -0.01499557
-0.01402652 0.00295603
0.00197017 -0.01233988
-0.00238758 -0.00077141
-0.03854617 -0.00069905
-0.00940927 -0.00129728
0.00795773 -0.00091346
-0.00001247 -0.00617014
-0.00266141 0.00130057
-0.03614992 -0.00835149
-0.00373150 -0.00109455
-0.00269672 0.01067427
-0.04116895 0.00374049
0.00101152 -0.00365425
0.00318761 -0.00186030
0.00692016 -0.00047620
0.00701528 -0.00323659
-0.00510956 0.00459850
-0.04351970 0.00322557
-0.00426763 -0.00993803
-0.00304860 0.00697157
-0.04163511 0.00105114
-0.00230439 -0.01075118
-0.00867868 -0.00525317
0.00079379 -0.00347964
-0.02446715 0.07190418
-0.02512340 0.00718885
-0.00598996 -0.00281891
0.01447222 -0.00302395
0.00188481 -0.00099926
0.00240070 0.00485662
-0.02410125 0.07139809
-0.02245951 0.01494066
-0.00259123 0.00038698
-0.00235054 -0.01701662
0.00272222 -0.00570172
-0.02710643 0.02101880
-0.00330724 -0.00940874
-0.00241928 -0.00057883
-0.00217390 0.00057278
-0.00527248 0.00501859
-0.03501439 0.00465979
-0.00347207 -0.00782342
0.00060736 0.00838388
0.00822939 -0.02552371
0.07606819 -0.01207340
0.02271870 -0.01919353
0.00389055 0.00272477
0.00777573 -0.04825730
-0.00233761 0.00450529
-0.00500334 0.00292604
-0.00986673 0.00358021
-0.00395990 0.02013344
-0.06876200 -0.00319970
-0.01441075 -0.00678130
-0.00015413 -0.01065088
-0.00170198 -0.00346183
-0.01154357 -0.00124758
-0.01482481 0.00364610
-0.02866437 0.00041426
-0.00459064 -0.00359679
-0.00054243 0.00218639
-0.00287754 -0.00467745
-0.04833701 -0.00507427
-0.00317090 -0.00772103
-0.00285824 -0.00124451
-0.00954629 -0.00379733
0.00363526 -0.04059770
-0.00179531 -0.00134950
-0.00386347 0.00114934
0.00722511 -0.00331002
-0.00320073 0.00330713
-0.03871819 -0.00040404
-0.00305715 -0.00043801
-0.00044684 0.00136247
-0.03421392 0.00122925
-0.00584413 -0.00364084
-0.00190601 -0.00932201
-0.00162011 -0.00240717
0.00530442 -0.00280458
0.00073664 0.00512932
-0.03891514 0.00003784
-0.00584077 0.00249038
-0.00575048 -0.00234486
-0.00235392 0.00188441
0.00612527 -0.04618185
-0.00105267 -0.00135190
-0.00181009 0.00156449
0.00141584 -0.03877728
0.00630118 -0.00161714
-0.00698000 0.00485283
-0.00452289 0.00025566
-0.00126938 -0.00229170
-0.00941502 0.00141156
-0.02509242 0.00583102
-0.00854766 -0.00210235
0.00092060 -0.00433063
-0.00120806 -0.02158621
-0.00256983 -0.02199997
-0.01236966 -0.00613975
0.00291549 0.00373845
-0.00218664 0.00177657
-0.04574789 -0.00129328
-0.00182841 -0.00626059
0.00474756 -0.00181696
-0.00076681 -0.00157725
-0.00417267 -0.00125757
0.01254243 0.06030718
-0.02720599 -0.00109670
-0.00917739 -0.00535404
0.00867866 -0.03214977
0.01689828 0.00279781
0.00269487 0.00579207
-0.02753564 -0.00552148
-0.00271232 -0.00461260
-0.00173555 -0.00382985
-0.00476339 -0.04673582
0.00344209 -0.00105579
-0.00098619 -0.00260357
-0.00317017 -0.00065562
0.00564485 0.00897090
-0.02104723 0.07436100
-0.01721563 0.01489848
-0.00703688 0.00783196
-0.00065019 -0.00676105
-0.00000000 -0.00060731
-0.04096352 -0.00289983
-0.00027531 -0.00205201
-0.00107588 0.00482028
-0.00673922 0.01166549
0.07506073 -0.02248766
0.00065086 -0.00887651
-0.00097884 0.03122123
0.00246890 -0.00088624
0.00109021 0.00707938
-0.04672534 0.00150651
0.00170664 -0.00542541
-0.00726427 0.00141985
-0.00461517 -0.00273653
0.00277865 -0.03634297
-0.00636550 -0.00373284
-0.00297433 -0.00035083
0.00176731 0.01134687
0.02392964 -0.02227446
0.08362418 -0.03717704
0.00206209 0.00708723
-0.00307878 0.00149496
-0.00810513 0.01892936
0.00975909 -0.04586311
0.00297199 -0.00334081
0.00102789 -0.00033750
0.00050376 -0.01004268
0.00263947 -0.02010085
0.06498632 -0.02151790
0.00595245 -0.00278634
0.00012192 0.00290652
-0.02831923 0.00093802
-0.00258835 -0.02415562
-0.00263063 -0.00600497
0.00118872 -0.00277169
0.00143999 -0.00081097
-0.00463742 -0.04420396
-0.00001182 0.00516847
0.00157659 0.00107078
-0.00582686 0.00183962
-0.00359094 -0.00593928
-0.00115376 -0.03882761
0.00181894 -0.00113566
-0.00240017 -0.00630951
-0.01941353 0.07046644
-0.01410757 0.00862850
-0.00375879 -0.00139543
0.01598784 0.00064179
0.02331000 -0.01091000
-0.03436847 0.00077449
-0.00760023 -0.00827265
-0.00044236 -0.00637277
-0.00463480 -0.00203013
0.00604244 -0.00119020
-0.00303075 0.00756757
-0.04788711 0.00564273
-0.00819219 -0.00207757
0.00202934 -0.00504895
-0.00584233 0.00067879
-0.02635514 -0.01086264
0.00003491 -0.00136110
-0.00050719 -0.01133984
0.00259164 -0.03871003
0.00532598 0.00197639
-0.00171202 -0.00400964
0.00011470 -0.00216976
-0.00319641 -0.00298357
-0.00115526 -0.00615297
0.00835766 -0.04427217
0.00292345 -0.00434705
-0.00032193 0.00468873
-0.00156500 -0.00464312
0.00439358 0.00471814
-0.04301013 0.01049029
-0.00421907 0.00157093
0.01417754 -0.00795635
0.00565127 -0.00178813
-0.00169924 -0.04366745
-0.00143862 -0.01013835
0.00044290 -0.00167874
-0.00446043 0.00039844
-0.00543655 0.00965412
-0.05377497 0.00159016
-0.00768228 -0.01167251
-0.00151191 -0.00718245
0.00343305 -0.00608262
-0.04585418 0.00662581
-0.00393245 0.00088580
-0.00475786 -0.00430702
-0.00562554 -0.00345817
0.00347864 -0.04500424
0.00288037 0.00385859
-0.00691976 -0.00044707
0.00442059 -0.00359308
-0.00373571 -0.00418126
0.00979965 -0.04496399
0.00489617 -0.00610954
-0.00080191 0.00508038
0.00328520 -0.00876748
-0.00346753 -0.00734694
-0.02620754 -0.00294204
-0.00430531 -0.00105332
-0.00407189 0.00579568
-0.04093482 0.00432248
0.00750593 -0.00535423
-0.00559861 -0.00748459
0.00363567 -0.00043466
-0.00202714 -0.00279618
-0.00129017 -0.00617523
0.02923622 -0.00116835
-0.00265341 0.00566151
0.00076999 0.00086867
-0.00155006 0.00162502
-0.00116372 -0.01687562
0.00359898 -0.00068580
-0.00167376 -0.00264160
-0.01237715 0.00068879
0.00313778 -0.00482192
-0.00068590 -0.00032217
0.00148553 0.00236883
-0.00238719 -0.00123443
0.00098531 -0.00215708
-0.01346919 0.00255581
-0.00204555 0.00158800
-0.00262332 -0.00163029
0.00056019 0.00001761
0.00398586 0.00472647
0.00191895 -0.01333996
-0.00282055 0.00001987
-0.00333552 -0.00103425
-0.01170966 0.00140218
-0.00051329 -0.01230994
0.00910823 0.00293245
-0.00112535 0.00224777
-0.01935964 0.00592375
0.00477713 0.00390471
-0.00316244 0.00010037
0.00124391 -0.01948687
0.05235127 0.00249489
0.00348139 0.00041155
-0.01459093 -0.00021167
0.00018142 -0.00260466
-0.00039985 -0.00091240
0.00226889 -0.01147670
0.00075051 -0.01392470
0.02404371 -0.00117307
-0.00188729 0.00169989
0.00002299 0.00098121
0.00130726 -0.00200981
-0.00198660 -0.01828435
-0.00006054 -0.00109638
-0.00200808 0.00119749
0.00631591 -0.00069137
-0.00420579 -0.00291969
0.02681770 -0.00063921
-0.00074483 0.00582849
0.00225287 -0.00150357
-0.01021700 -0.02427091
0.00177082 -0.00611026
-0.01182981 -0.02359717
-0.00086182 0.00390329
0.00039761 0.00202081
-0.00241999 -0.01860962
0.00628664 0.00197654
0.00197850 -0.00091856
0.00030516 0.00023263
0.00276928 0.00223342
-0.00204180 0.03667586
-0.00390740 -0.00068119
0.00395623 0.00003452
-0.00027111 -0.01108779
0.00194186 0.01213086
-0.00976312 -0.00463933
0.00153389 0.00408640
-0.00106453 0.00045520
-0.00077902 0.00258106
-0.00201965 -0.01660294
-0.00164690 0.00171495
-0.00307990 -0.00219500
0.00920112 -0.00155872
0.00103348 0.00411725
-0.00270701 -0.01261432
-0.00119095 -0.00365017
-0.00179212 -0.00092289
-0.00029794 0.00104987
-0.01590171 -0.00311211
-0.00370345 -0.00509897
0.00352101 -0.00106212
-0.00002982 -0.00112145
-0.01527267 0.00029462
-0.00094700 -0.00473979
0.00035470 -0.00217442
0.00113911 -0.00243717
-0.00008146 -0.00019922
-0.00020447 -0.01709174
0.00370123 -0.00005836
-0.00222221 -0.00073330
-0.00645265 -0.00232290
0.00353571 -0.01212709
0.02405921 -0.00763894
0.00040214 0.00215869
0.00134477 0.00305082
0.00057762 0.00048840
0.03397287 -0.00462937
-0.00119624 -0.00858740
0.00387970 0.00241962
-0.00866032 -0.00476462
-0.00836353 0.00006223
0.03257997 0.00067554
-0.00137591 0.00934884
-0.00325345 -0.00329593
0.00142851 -0.00081807
0.00067375 -0.01858477
0.00133792 -0.00009955
-0.00240085 -0.00010427
-0.00763912 -0.00500894
0.00088187 -0.01110557
0.01033767 0.00214086
0.00203348 -0.00373157
-0.00012788 0.00035429
0.00082883 -0.00343773
-0.00167035 0.02998102
0.00165073 -0.00015049
0.00325361 -0.00023373
-0.00279551 0.00135022
-0.00059243 0.00367003
-0.01726686 0.00361036
0.00032571 -0.00268769
-0.00230740 0.00061226
-0.00032589 0.00062094
-0.00131168 -0.01436232
-0.01279184 0.00072923
-0.00240351 -0.00629480
-0.00357086 -0.00420590
-0.00039051 -0.00005777
-0.01549513 -0.00102134
0.00040284 -0.00127450
-0.00330621 0.00041393
-0.00875802 -0.00232206
0.00219381 -0.01341892
-0.00034908 -0.00237713
0.00227871 0.00040735
0.00043970 -0.01362931
0.00250961 -0.00202471
-0.00156546 0.00339686
-0.00183997 0.00007513
0.00008715 -0.00395626
-0.00325404 -0.00285269
0.00330045 -0.02163068
0.00293354 0.00030212
0.00653273 0.00084848
0.00291251 -0.00977995
-0.00045606 0.00165390
-0.01363029 -0.00287312
-0.00235933 -0.00131841
-0.00054908 0.00938937
0.00413212 0.00037703
0.04268709 -0.00139098
0.00222667 -0.01868422
0.00051772 0.00736883
-0.00048892 0.00065510
0.00289515 -0.00452111
0.03692162 -0.00206792
-0.00165254 -0.00163694
-0.00393131 -0.00078795
0.00545177 0.00173465
-0.00631847 0.03432364
-0.00484556 0.00175782
0.00010417 0.00021791
-0.00153760 -0.00206521
-0.00050570 -0.00077095
-0.02009042 -0.00218201
-0.00008590 0.00410276
0.00121792 -0.00035161
0.00146471 -0.00064096
0.00050216 0.03024994
0.00229031 -0.00266743
0.00802888 -0.00037478
0.00034879 0.00512896
0.00217544 -0.00031912
0.03570350 -0.00107649
-0.00197074 0.00380218
-0.00470605 0.00115081
0.00071608 0.00213721
-0.01642389 0.00319438
0.00126011 0.00035166
-0.00300866 0.00118768
-0.00012360 0.00742585
-0.00620876 0.00038355
0.03214779 -0.00854001
-0.00018577 -0.00347014
-0.00147409 0.00246699
0.00176401 0.00187849
0.00895057 -0.01568779
-0.00349762 0.00149499
-0.00200152 -0.00100741
-0.00348725 0.00035634
-0.00063451 -0.00405502
-0.01266278 -0.00685895
-0.00222614 -0.00004536
0.00014022 -0.00223879
-0.00292664 -0.00074784
-0.00101394 -0.01591796
-0.00061661 -0.00205570
-0.00083091 -0.00046391
0.00236092 -0.00249378
-0.00227851 -0.01239812
-0.00923086 -0.00087763
-0.00122702 0.00091389
0.00198448 0.00240286
-0.00092940 0.00051852
-0.01725896 0.00037315
0.00127637 -0.00165142
-0.00100838 -0.00038123
-0.00110366 0.00120083
0.00179132 0.00498196
-0.01895592 -0.00085271
0.00075229 -0.00248023
-0.00277517 -0.00030048
-0.01465356 -0.00092011
-0.00098130 -0.00371896
-0.00041908 -0.00025474
0.00169241 0.00118415
-0.00852507 0.00038972
-0.00265252 0.00314927
-0.01795737 0.00241872
-0.00170218 -0.00176189
0.00100632 -0.00011999
-0.01743716 0.00008733
-0.00211933 -0.00232166
-0.00186141 -0.00241644
0.00162169 -0.00308941
0.00056000 -0.01591204
-0.00203936 0.00312884
-0.00035693 -0.00000161
-0.00185440 0.00284998
0.00095847 -0.00112617
0.00033492 0.00113274
-0.00036800 -0.01509609
-0.00474221 -0.00241810
-0.00038143 -0.00139625
-0.00092561 0.01064758
-0.00135630 0.00199458
-0.01254783 -0.00487118
0.00387249 -0.00140839
0.00045724 -0.00072432
-0.00064285 -0.00174177
0.00015046 -0.00007771
-0.01522582 -0.00162313
-0.00536292 -0.00116680
0.00023286 -0.00125111
-0.00047478 0.00113589
-0.02089666 0.00535172
0.00031164 0.00123432
-0.00154840 -0.00218850
0.00210468 -0.01760761
0.00076217 -0.00262655
0.00281472 -0.00067312
-0.00352724 0.00288991
-0.00117178 -0.00277058
-0.02047003 -0.00185225
0.00018351 -0.00264862
0.00252083 -0.00098427
0.00085371 0.00161048
-0.00794591 -0.00070679
-0.00153265 0.00100675
-0.01340664 0.00039459
0.00034927 -0.00027518
-0.00142978 0.00147961
-0.00215432 -0.00147625
0.02896452 -0.00106530
0.00144466 0.00667741
-0.00161525 -0.00117722
0.00858398 -0.00210551
-0.00390636 0.03458147
-0.00033703 0.00083133
0.00198340 -0.00133577
-0.00192030 -0.00099947
-0.00533039 0.00058154
-0.01831226 0.00026542
-0.00196849 0.00047229
-0.00363132 -0.00414377
-0.01500994 -0.00037417
-0.00094221 0.00013749
-0.00419712 -0.00081753
0.00039100 -0.00039800
0.00057790 0.00151396
-0.00212837 -0.00051660
-0.01772496 0.00146464
0.00351657 -0.00221251
0.00050182 -0.00195521
0.00070205 -0.00154851
0.00037686 0.03123678
-0.00112399 0.00269717
0.00521341 -0.00073366
-0.00173393 -0.01394183
-0.00048428 -0.00223293
-0.00313353 -0.00120438
-0.00244300 0.00273636
-0.00257725 -0.00016127
0.00583851 0.00073205
-0.01411741 0.00057767
-0.00509506 0.00012882
0.00073978 -0.00022721
-0.00035036 -0.00842056
0.00165536 -0.01292379
0.01400933 -0.00216472
0.00399422 -0.00038025
-0.00103320 -0.00247243
-0.01936043 0.00112189
0.00120150 -0.00329072
-0.00233108 0.00008105
-0.00148504 0.00217953
-0.00064974 -0.00231769
0.00179097 -0.01357226
0.01644554 -0.00249947
0.00033378 0.00551692
-0.00011987 -0.00358869
-0.00336824 -0.00129155
-0.00213693 0.00157264
-0.00798201 -0.00077434
-0.00253114 0.00252489
0.00224386 0.00244877
0.00055917 0.03312000
-0.00475442 0.00473784
-0.00665868 -0.00113499
0.00115603 -0.00210641
0.00268750 -0.00193982
0.00230634 -0.01641825
0.00069055 0.00225023
0.00008728 -0.00378974
0.00059988 -0.00012032
0.00085966 0.00253975
-0.01457216 -0.00070072
-0.00072313 -0.00192864
-0.00384996 0.00030359
-0.00147855 -0.00172752
-0.01608114 0.01112450
0.00092847 -0.00178070
-0.00118402 0.00066898
-0.00170776 -0.00009482
-0.00087064 -0.00228025
0.03342218 0.00004608
-0.00238216 0.00856393
-0.00392371 0.00126893
-0.00038285 0.00133979
-0.00240038 -0.01566242
0.01387892 0.00322710
-0.00046896 -0.00360988
-0.00108985 0.00018373
-0.00233263 0.00126794
-0.02175274 -0.00162716
0.00167738 0.00158418
-0.00150123 -0.00112084
0.00418347 -0.00198622
-0.00161007 -0.01967169
0.00048754 0.00080283
0.00024622 -0.00193188
0.00365484 -0.00567244
0.00056863 -0.00073578
-0.01501759 -0.00346711
0.00175267 -0.00066355
0.00150591 -0.00090791
-0.01063552 0.00038152
0.00367990 -0.01169572
0.00112255 -0.00444794
-0.00321580 0.00055972
0.00051200 0.00724793
0.00122442 0.03370012
-0.00672507 -0.00556263
-0.00221929 0.00105177
-0.00219678 -0.00155115
0.00144015 0.00100871
-0.00065955 -0.01597325
-0.00175386 0.00036865
-0.00274734 -0.00174690
0.00134439 -0.01747087
0.00110615 0.00012518
-0.00024469 0.00034487
-0.00227364 -0.00270360
-0.00149170 0.02118285
-0.01245233 -0.00130762
0.00343299 -0.00069952
0.00083365 -0.00159894
-0.00331147 0.00811756
-0.00154777 0.00108006
0.00071505 0.00172727
-0.01694058 -0.00107316
-0.00127842 -0.00464050
-0.00062746 -0.00112035
0.00329354 -0.00071557
-0.01205781 -0.00936669
-0.00140417 -0.00027846
-0.00207768 -0.00074356
0.00156032 -0.01524945
0.00120780 -0.00164147
-0.00200253 0.00248117
-0.00143983 0.00172851
-0.00178390 -0.00147019
-0.00014717 -0.00263673
0.00321919 -0.01756252
-0.00165132 -0.00026946
0.00542201 -0.00170057
0.00252291 0.00077630
-0.00117038 0.00101794
-0.01354719 -0.00181843
-0.00025942 0.00005595
-0.00163777 -0.00250457
0.00090312 0.00285949
-0.00463741 0.03094571
-0.00400956 -0.00132427
-0.00217380 -0.00547478
-0.00044782 -0.00104414
-0.00185324 0.00049693
-0.01711636 -0.00279463
0.00093306 -0.00592624
-0.00272252 0.00112894
-0.00163519 -0.00084706
-0.01863761 -0.00010106
-0.00156983 0.00213674
-0.00086018 -0.00295673
0.00568937 0.00480363
-0.00040870 -0.01901178
-0.00028542 -0.00006807
-0.00238281 -0.00005557
-0.00068211 0.00008800
0.00029870 0.00182633
-0.00046162 -0.01680358
-0.00551557 0.00024040
0.00047841 -0.00267969
-0.00298583 -0.00127562
0.00355944 -0.00516855
-0.01667000 -0.00099703
-0.00179326 0.00177554
-0.00971233 0.00063754
-0.01497853 0.00078138
0.00626962 0.00006596
-0.00307341 0.00226497
-0.00004826 0.00007405
-0.00000000 -0.00000000
-0.00000000 -0.00000000
-0.00000000 -0.00000000
0.00000000 0.00000000
-0.00000000 0.00000000
-0.00000000 0.00000000
0.00000000 0.00000000
0.00000000 -0.00000000
0.00000000 -0.00000000
-0.00000000 0.00000000
0.00000000 -0.00000000
-0.00000000 -0.00000000
0.00000000 0.00000000
-0.00000000 0.00000000
0.00000000 -0.00000000
-0.00000000 0.00000000
0.00000000 -0.00000000
-0.00000000 0.00000000
0.00000000 -0.00000000
0.00000000 0.00000000
0.00000000 -0.00000000
0.00000000 -0.00000000
-0.00000000 -0.00000000
0.00000000 0.00000000
-0.00000000 -0.00000000
-0.00000000 0.00000000
0.00000000 -0.00000000
-0.00000000 0.00000000
-0.00000000 -0.00000000
-0.00000000 -0.00000000
0.00000000 -0.00000000
-0.00000000 0.00000000
-0.00000000 -0.00000000
0.00000000 -0.00000000
-0.00000000 0.00000000
-0.00000000 -0.00000000
-0.00000000 -0.00000000
0.00000000 0.00000000
0.00000000 -0.00000000
0.00000000 -0.00000000
-0.00000000 0.00000000
0.00000000 0.00000000
-0.00000000 0.00000000
0.00000000 -0.00000000
-0.00000000 -0.00000000
0.00000000 -0.00000000
-0.00000000 0.00000000
-0.00000000 -0.00000000
0.00000000 -0.00000000
0.00000000 0.00000000
-0.00000000 -0.00000000
-0.00000000 0.00000000
-0.00000000 0.00000000
0.00000000 -0.00000000
-0.00000000 0.00000000
0.00000000 -0.00000000
0.00000000 0.00000000
-0.00000000 -0.00000000
-0.00000000 0.00000000
-0.00000000 -0.00000000
-0.00000000 0.00000000
-0.00000000 -0.00000000
-0.00000000 -0.00000000
-0.00000000 0.00000000
0.00000000 0.00000000
-0.00000000 -0.00000000
0.00000000 -0.00000000
0.00000000 0.00000000
0.00000000 -0.00000000
-0.00000000 -0.00000000
-0.00000000 -0.00000000
-0.00000000 0.00000000
0.00000000 0.00000000
0.00000000 0.00000000
-0.00000000 -0.00000000
-0.00000000 -0.00000000
0.00000000 0.00000000
0.00000000 -0.00000000
-0.00000000 0.00000000
-0.00000000 -0.00000000
-0.00000000 0.00000000
-0.00000000 0.00000000
-0.00000000 -0.00000000
-0.00000000 0.00000000
0.00000000 0.00000000
-0.00000000 -0.00000000
-0.00000000 -0.00000000
0.00000000 0.00000000
0.00000000 0.00000000
0.00000000 -0.00000000
-0.00000000 0.00000000
0.00000000 0.00000000
-0.00000000 0.00000000
0.00000000 -0.00000000
0.00000000 0.00000000
-0.00000000 0.00000000
0.00000000 -0.00000000
0.00000000 -0.00000000
0.00000000 0.00000000
-0.00000000 -0.00000000
-0.00000000 -0.00000000
-0.00000000 -0.00000000
0.00000000 -0.00000000
-0.00000000 -0.00000000
0.00000000 -0.00000000
0.00000000 -0.00000000
0.00000000 -0.00000000
-0.00000000 0.00000000
-0.00000000 0.00000000
-0.00000000 -0.00000000
0.00000000 -0.00000000
0.00000000 -0.00000000
-0.00000000 0.00000000
0.00000000 -0.00000000
-0.00000000 -0.00000000
-0.00000000 -0.00000000
-0.00000000 -0.00000000
-0.00000000 0.00000000
-0.00000000 -0.00000000
-0.00000000 -0.00000000
-0.00000000 -0.00000000
0.00000000 0.00000000
0.00000000 -0.00000000
0.00000000 0.00000000
-0.00000000 -0.00000000
0.00000000 0.00000000
0.00000000 -0.00000000
0.00000000 0.00000000
-0.00000000 -0.00000000
-0.00000000 -0.00000000
-0.00000000 -0.00000000
0.00000000 0.00000000
-0.00000000 -0.00000000
0.00000000 -0.00000000
0.00000000 0.00000000
0.00000000 0.00000000
0.00000000 -0.00000000
0.00000000 0.00000000
-0.00000000 0.00000000
-0.00000000 -0.00000000
0.00000000 0.00000000
-0.00000000 0.00000000
0.00000000 -0.00000000
-0.00000000 -0.00000000
0.00000000 -0.00000000
-0.00000000 0.00000000
-0.00000000 0.00000000
0.00000000 -0.00000000
-0.00000000 0.00000000
-0.00000000 0.00000000
-0.00000000 -0.00000000
0.00000000 -0.00000000
-0.00000000 -0.00000000
-0.00000000 -0.00000000
-0.00000000 -0.00000000
0.00000000 -0.00000000
-0.00000000 -0.00000000
-0.00000000 -0.00000000
0.00000000 -0.00000000
-0.00000000 0.00000000
-0.00000000 -0.00000000
-0.00000000 -0.00000000
-0.00000000 0.00000000
0.00000000 -0.00000000
-0.00000000 0.00000000
-0.00000000 -0.00000000
-0.00000000 -0.00000000
0.00000000 -0.00000000
0.00000000 0.00000000
-0.00000000 0.00000000
0.00000000 0.00000000
0.00000000 0.00000000
-0.00000000 -0.00000000
0.00000000 -0.00000000
0.00000000 -0.00000000
-0.00000000 0.00000000
0.00000000 -0.00000000
0.00000000 0.00000000
-0.00000000 0.00000000
-0.00000000 -0.00000000
-0.00000000 -0.00000000
-0.00000000 -0.00000000
-0.00000000 -0.00000000
-0.00000000 -0.00000000
0.00000000 0.00000000
-0.00000000 0.00000000
-0.00000000 -0.00000000
0.00000000 -0.00000000
-0.00000000 -0.00000000
0.00000000 0.00000000
0.00000000 -0.00000000
0.00000000 -0.00000000
-0.00000000 -0.00000000
0.00000000 0.00000000
0.00000000 0.00000000
-0.00000000 0.00000000
-0.00000000 0.00000000
0.00000000 -0.00000000
0.00000000 -0.00000000
0.00000000 -0.00000000
-0.00000000 0.00000000
-0.00000000 0.00000000
-0.00000000 0.00000000
-0.00000000 0.00000000
0.00000000 0.00000000
-0.00000000 0.00000000
-0.00000000 0.00000000
-0.00000000 0.00000000
0.00000000 0.00000000
0.00000000 0.00000000
-0.00000000 0.00000000
0.00000000 0.00000000
0.00000000 0.00000000
0.00000000 0.00000000
0.00000000 0.00000000
0.00000000 -0.00000000
-0.00000000 0.00000000
-0.00000000 -0.00000000
-0.00000000 -0.00000000
0.00000000 -0.00000000
-0.00000000 -0.00000000
-0.00000000 0.00000000
-0.00000000 -0.00000000
0.00000000 -0.00000000
0.00000000 -0.00000000
-0.00000000 0.00000000
-0.00000000 0.00000000
0.00000000 -0.00000000
0.00000000 0.00000000
0.00000000 0.00000000
-0.00000000 0.00000000
0.00000000 -0.00000000
-0.00000000 -0.00000000
-0.00000000 -0.00000000
0.00000000 -0.00000000
-0.00000000 0.00000000
-0.00000000 -0.00000000
-0.00000000 -0.00000000
0.00000000 -0.00000000
-0.00000000 -0.00000000
0.00000000 -0.00000000
-0.00000000 0.00000000
-0.00000000 0.00000000
0.00000000 -0.00000000
-0.00000000 0.00000000
-0.00000000 -0.00000000
-0.00000000 -0.00000000
-0.00000000 0.00000000
0.00000000 -0.00000000
0.00000000 -0.00000000
-0.00000000 -0.00000000
0.00000000 -0.00000000
-0.00000000 0.00000000
0.00000000 -0.00000000
-0.00000000 0.00000000
0.00000000 -0.00000000
-0.00000000 0.00000000
-0.00000000 0.00000000
-0.00000000 0.00000000
-0.00000000 0.00000000
0.00000000 -0.00000000
-0.00000000 0.00000000
-0.00000000 -0.00000000
-0.00000000 -0.00000000
0.00000000 0.00000000
-0.00000000 -0.00000000
-0.00000000 -0.00000000
0.00000000 -0.00000000
-0.00000000 -0.00000000
-0.00000000 0.00000000
-0.00000000 0.00000000
-0.00000000 -0.00000000
0.00000000 0.00000000
-0.00000000 -0.00000000
-0.00000000 0.00000000
-0.00000000 0.00000000
0.00000000 0.00000000
-0.00000000 -0.00000000
0.00000000 -0.00000000
-0.00000000 -0.00000000
0.00000000 -0.00000000
0.00000000 -0.00000000
0.00000000 0.00000000
-0.00000000 -0.00000000
-0.00000000 -0.00000000
-0.00000000 -0.00000000
-0.00000000 0.00000000
-0.00000000 -0.00000000
-0.00000000 0.00000000
0.00000000 -0.00000000
-0.00000000 0.00000000
0.00000000 -0.00000000
0.00000000 -0.00000000
0.00000000 -0.00000000
-0.00000000 0.00000000
0.00000000 -0.00000000
-0.00000000 0.00000000
-0.00000000 -0.00000000
0.00000000 -0.00000000
-0.00000000 -0.00000000
-0.00000000 -0.00000000
0.00000000 -0.00000000
0.00000000 0.00000000
-0.00000000 0.00000000
-0.00000000 0.00000000
0.00000000 -0.00000000
-0.00000000 -0.00000000
-0.00000000 -0.00000000
0.00000000 -0.00000000
0.00000000 0.00000000
0.00000000 0.00000000
-0.00000000 -0.00000000
-0.00000000 -0.00000000
-0.00000000 -0.00000000
-0.00000000 -0.00000000
0.00000000 -0.00000000
0.00000000 -0.00000000
-0.00000000 -0.00000000
-0.00000000 -0.00000000
-0.00000000 -0.00000000
0.00000000 -0.00000000
0.00000000 0.00000000
0.00000000 -0.00000000
0.00000000 -0.00000000
-0.00000000 -0.00000000
0.00000000 -0.00000000
0.00000000 -0.00000000
0.00000000 -0.00000000
0.00000000 0.00000000
-0.00000000 0.00000000
0.00000000 0.00000000
-0.00000000 0.00000000
-0.00000000 0.00000000
-0.00000000 -0.00000000
0.00000000 -0.00000000
-0.00000000 -0.00000000
0.00000000 -0.00000000
0.00000000 0.00000000
-0.00000000 -0.00000000
-0.00000000 0.00000000
-0.00000000 0.00000000
0.00000000 -0.00000000
-0.00000000 -0.00000000
-0.00000000 0.00000000
-0.00000000 -0.00000000
-0.00000000 -0.00000000
-0.00000000 0.00000000
-0.00000000 -0.00000000
0.00000000 0.00000000
-0.00000000 -0.00000000
0.00000000 -0.00000000
-0.00000000 -0.00000000
-0.00000000 -0.00000000
-0.00000000 -0.00000000
-0.00000000 -0.00000000
-0.00000000 0.00000000
0.00000000 0.00000000
-0.00000000 -0.00000000
0.00000000 -0.00000000
-0.00000000 -0.00000000
0.00000000 -0.00000000
0.00000000 0.00000000
-0.00000000 -0.00000000
-0.00000000 -0.00000000
-0.00000000 -0.00000000
0.00000000 0.00000000
-0.00000000 0.00000000
-0.00000000 -0.00000000
0.00000000 -0.00000000
0.00000000 0.00000000
0.00000000 0.00000000
0.00000000 -0.00000000
0.00000000 -0.00000000
0.00000000 0.00000000
-0.00000000 -0.00000000
0.00000000 -0.00000000
0.00000000 -0.00000000
-0.00000000 -0.00000000
-0.00000000 -0.00000000
0.00000000 -0.00000000
0.00000000 0.00000000
0.00000000 0.00000000
-0.00000000 -0.00000000
0.00000000 0.00000000
-0.00000000 0.00000000
0.00000000 -0.00000000
0.00000000 0.00000000
0.00000000 -0.00000000
0.00000000 0.00000000
0.00000000 -0.00000000
0.00000000 -0.00000000
-0.00000000 -0.00000000
-0.00000000 0.00000000
-0.00000000 -0.00000000
0.00000000 0.00000000
-0.00000000 -0.00000000
0.00000000 -0.00000000
-0.00000000 -0.00000000
0.00000000 0.00000000
-0.00000000 0.00000000
-0.00000000 0.00000000
0.00000000 0.00000000
0.00000000 0.00000000
0.00000000 -0.00000000
-0.00000000 0.00000000
0.00000000 -0.00000000
-0.00000000 -0.00000000
-0.00000000 0.00000000
-0.00000000 -0.00000000
0.00000000 -0.00000000
-0.00000000 0.00000000
-0.00000000 -0.00000000
-0.00000000 0.00000000
-0.00000000 -0.00000000
0.00000000 -0.00000000
0.00000000 0.00000000
0.00000000 -0.00000000
-0.00000000 -0.00000000
-0.00000000 -0.00000000
0.00000000 0.00000000
-0.00000000 -0.00000000
0.00000000 -0.00000000
-0.00000000 -0.00000000
-0.00000000 0.00000000
0.00000000 0.00000000
-0.00000000 -0.00000000
-0.00000000 -0.00000000
0.00000000 -0.00000000
-0.00000000 0.00000000
-0.00000000 0.00000000
-0.00000000 0.00000000
-0.00000000 -0.00000000
0.00082500 0.00052682
-0.00251122 -0.00042081
0.01254856 0.00007625
-0.00205770 0.00031161
0.00090796 -0.00081796
0.00163095 -0.00236317
0.00103922 -0.02989109
0.00023947 -0.00016764
-0.00226886 0.00229835
0.01252173 -0.00150367
-0.00104433 -0.00121752
0.00345349 0.00167808
-0.00131988 0.00141052
0.00038583 -0.00082590
-0.00183966 0.00106000
-0.02496471 0.00608035
0.00202484 0.00423119
0.00115704 -0.00254348
-0.00041562 -0.00155533
-0.00001947 -0.00184263
-0.00085359 0.01172398
0.00611224 0.00037936
0.00345949 0.00058823
0.01191836 0.00064623
0.00081487 0.01156351
-0.00716786 0.00144974
0.00065790 0.00218228
-0.01699054 0.00023416
0.00004204 -0.00441768
-0.00960467 -0.01399383
0.00021582 -0.01966013
0.05862224 -0.00126400
-0.00126518 -0.00001154
0.01517431 -0.00100737
0.00026532 -0.00122495
-0.00365849 0.00432428
0.00122349 0.00789134
0.00454181 -0.02234922
0.01722593 -0.00665073
0.00131965 0.00053678
-0.00262236 -0.00489584
-0.00801294 0.00146949
0.00491720 0.01676309
-0.00194608 0.00205165
0.00151989 0.00031579
0.00334425 0.00155194
0.00194793 -0.00104708
0.01330474 -0.00080886
-0.00169286 0.00299389
0.00139095 0.00009912
0.00158974 -0.01743132
-0.00367996 -0.00839521
-0.00476796 -0.02631680
-0.01024350 -0.00088799
-0.00400944 -0.00008507
-0.00039733 0.01476341
0.00127803 0.00388146
0.00185074 0.00109421
-0.00151550 0.00002256
0.00091575 -0.00120871
0.00173196 -0.03056998
-0.00284737 -0.00296102
0.00081274 -0.00090816
0.00090685 -0.01876139
-0.00000827 0.00008526
0.01220762 0.00303199
0.00504806 -0.00185924
-0.00045637 -0.00170458
0.00013080 -0.00011056
0.00090787 -0.02951930
-0.00179749 0.00038135
0.00337412 -0.00229676
-0.00781439 -0.00168354
0.00011166 -0.00140390
-0.00378874 0.00899264
0.00140643 0.00209833
-0.00194417 -0.00100873
0.00205963 0.00157679
0.01551998 0.00293956
0.00318412 0.00237467
-0.00396604 0.00034038
-0.00054002 0.00217850
-0.02712765 0.00073075
0.00006920 0.00058426
0.00077721 -0.00145536
0.00178147 0.00266480
-0.00009763 0.00248251
0.00198350 0.02068256
0.00178625 0.00169745
-0.00307596 -0.00230469
-0.00319522 0.00138636
-0.00258406 -0.01864175
-0.02168201 0.00556573
-0.00135628 0.00338219
-0.00100233 -0.00138271
-0.00362124 -0.00447231
-0.02850921 -0.00007051
0.00058693 0.00480731
-0.00077211 -0.00114673
-0.00171523 -0.00099332
-0.00226925 0.00036745
0.01565501 0.00173140
-0.00245898 -0.00029042
-0.00118134 0.00030089
0.00182176 0.00297534
-0.00039724 0.01645427
-0.00193512 0.00404774
0.00159169 -0.00260084
0.00255849 0.00882476
-0.00870093 0.01503166
0.00067622 0.00846873
-0.00302135 -0.00270393
-0.00033864 -0.00036683
0.00032656 0.00153091
0.00034143 0.01561401
0.00116311 -0.00161048
0.00277300 -0.00171678
0.00158908 -0.00015959
-0.00087305 0.00016445
0.01736346 -0.00194045
-0.00253843 0.00064531
0.00107205 0.00059837
-0.00154271 0.00264407
-0.01047610 0.01577680
0.01081566 0.00368545
-0.00236988 0.00293542
-0.00092677 0.00581143
-0.00046703 0.00302839
-0.02670749 0.00059587
-0.00366804 0.00060666
-0.00144613 -0.00165891
0.01088445 -0.00363756
-0.00064640 0.01332433
0.00179404 0.00097861
-0.00054543 -0.00146585
-0.00037702 -0.02513845
-0.00142076 0.00205583
0.00155182 -0.00033872
0.00835847 -0.00143308
-0.00524701 -0.00086261
-0.00387499 -0.00040090
-0.00263423 0.01906414
-0.00362637 0.00507951
-0.00046699 -0.00088290
-0.00172267 0.01133726
0.00056534 -0.00191736
0.01644972 0.00305212
0.00227804 -0.00117029
0.00054929 0.00130092
-0.00264858 -0.00163207
-0.03490352 0.00054405
-0.00183863 0.00535842
0.00023954 -0.00252162
-0.00135543 0.00035829
-0.00354133 0.00166621
-0.03060201 0.00055862
-0.00374751 0.00012143
0.00145080 -0.00158062
0.00086999 -0.00127640
0.00255007 -0.02798798
-0.00314681 -0.00234258
0.00099659 -0.00017157
-0.00131019 -0.00004809
-0.00007872 0.00032294
0.01574718 0.00382249
0.00290724 -0.00022649
-0.00105576 0.00036157
-0.00113296 0.00157597
0.00081539 0.01337277
0.00173718 -0.00166876
0.00133688 -0.00185083
0.00103849 -0.00098385
-0.00113182 -0.00022117
-0.03108873 -0.00051816
-0.00464212 0.00351235
-0.00287963 -0.00073060
-0.00072328 -0.00252690
-0.02753872 0.00200965
0.00015726 0.00193230
0.00166994 0.00016572
-0.00371821 0.00035162
0.00456759 0.00957046
-0.02678974 0.00166201
-0.00042181 0.00360946
-0.00302210 0.00007213
-0.00045389 0.00090196
-0.00789507 0.01858134
-0.00746300 0.00163606
0.00077186 0.00116592
0.00166296 -0.00298653
0.00191408 -0.00676521
0.01646694 0.00503132
0.00282021 0.00288643
-0.00283197 -0.00168926
0.00090966 -0.00101381
0.00196238 0.01776647
0.00085289 0.00090289
0.00009779 -0.00071273
-0.00389888 -0.00155054
0.00308642 -0.02310658
-0.01116353 0.00533252
0.00887501 -0.00180558
-0.00519706 -0.00042084
-0.00027816 -0.00159286
0.01627689 -0.00118380
0.00261673 -0.00312131
-0.00037239 -0.00183274
-0.00212762 -0.00144201
0.00148953 -0.00459326
0.02170125 0.00082525
0.00402248 0.00018544
0.00023851 -0.00077472
0.01350591 -0.00082688
0.00123482 0.00440813
-0.00269985 0.00123584
-0.00653529 -0.00340221
0.00001897 -0.00119056
0.00058815 0.00022931
0.01616632 -0.00360588
0.00479061 0.00183121
-0.00395284 -0.00001263
0.01604616 0.00113417
0.00656842 0.00207582
0.00351249 0.00194885
-0.00034039 0.00019935
-0.00095535 -0.02624706
0.00234705 -0.00039721
0.00183629 0.00063272
-0.00073465 -0.00153550
-0.00066820 0.00102020
-0.00000540 0.00030107
0.00337148 -0.02571598
0.00498005 -0.00277756
0.00190910 0.00144505
-0.00282001 -0.00729973
-0.00320949 0.00089976
0.01415130 -0.00246337
0.00026137 0.00596625
-0.00224751 -0.00046400
-0.00064826 -0.00120363
-0.00022596 -0.00073750
0.01246471 0.00087175
0.00405332 0.00023710
-0.00078563 -0.00252402
-0.00082731 -0.00163483
-0.02854946 0.00453549
-0.00262441 0.00212822
0.00121470 -0.00303439
-0.00264489 0.00984535
-0.00224787 0.00172734
0.00075495 -0.00029704
0.00262004 -0.00039631
-0.00028332 0.00719701
-0.03747667 -0.00064032
-0.00129444 0.00231814
-0.00284627 0.00119953
-0.00137891 -0.00010395
0.00600077 -0.00045604
-0.00418961 -0.00383523
0.01190865 -0.00097649
0.00064537 -0.00265990
-0.00064720 -0.00096710
0.00131441 0.00039236
0.01412516 -0.00015879
-0.00235423 0.00200206
-0.00056509 -0.00015271
0.00347480 -0.00120370
0.00115407 -0.02799059
-0.00109418 -0.00338982
0.00292600 -0.00163263
-0.00029012 0.00070699
0.00732993 -0.00066767
0.01790531 -0.00105695
-0.00134143 -0.00341709
-0.00197694 -0.00097914
0.01562916 0.00256741
0.00725719 -0.00077181
0.00046270 -0.00284182
-0.00195723 -0.00020585
-0.00299599 0.00017812
0.00291471 -0.00047394
0.02009512 -0.00333085
0.00078026 -0.00115143
0.00192213 0.00141152
0.00119998 -0.00116711
0.00008383 0.01290940
-0.00104697 -0.00183466
0.00007723 0.00002279
0.00125371 0.01567260
-0.00054931 0.00115938
0.00713178 -0.00132457
-0.00135482 -0.00107882
-0.00051812 -0.00079122
0.00362875 0.00045508
0.01346056 -0.00250024
0.00487595 0.00104615
0.00011192 -0.00154329
0.00015188 0.00735039
-0.00071149 0.01392117
-0.00990780 -0.01007209
-0.00255375 -0.00083246
0.00268711 0.00021955
0.01653589 0.00017718
0.00272221 -0.00283510
0.00023374 -0.00233720
-0.00169887 -0.00084549
0.00312062 -0.00025400
-0.00375074 -0.02136946
-0.01760083 0.00172553
0.00125370 0.00110048
-0.00122598 0.00539934
-0.00630003 -0.00006339
0.00743105 0.00858809
-0.01475002 -0.00211309
0.00233045 0.00038866
-0.00057908 -0.00120619
-0.00210288 -0.02814379
-0.00098878 -0.00100628
0.00321619 0.00020394
-0.00310374 0.00128827
-0.00306099 0.00010287
0.00004068 -0.02744940
-0.00043627 -0.00317357
0.00363210 0.00217720
-0.00085682 0.00076747
0.00070701 0.00076615
0.01900077 0.00091372
0.00253906 -0.00062859
-0.00028901 0.00038188
0.00383299 -0.00152821
-0.02878779 0.00677634
-0.00131914 0.00423972
0.00243454 -0.00169252
-0.00005876 -0.00037886
-0.00007689 -0.00093092
0.01634765 -0.00013861
0.00144328 -0.00000275
-0.00174757 0.00079360
0.00089029 -0.00096347
0.00013440 0.02146154
0.00406344 -0.00150788
-0.00115791 -0.00262313
0.00095436 -0.00002411
-0.00102557 -0.00056275
-0.03426510 0.00093389
0.00085830 0.00360510
-0.00014878 -0.00071075
0.00224131 0.00053823
0.00050038 0.02282634
-0.00251648 -0.00207620
-0.00130182 -0.00048238
0.00257068 -0.01176131
-0.00038588 0.00349544
-0.02248423 0.00609613
-0.00260079 -0.00568550
-0.00029950 -0.00132559
0.01104476 0.00116164
0.00456182 0.01257096
0.00252393 0.00526176
0.00090816 -0.00193798
-0.00123128 -0.00142130
-0.00021850 -0.02626690
0.00424463 0.00048032
0.00005515 0.00116343
-0.00371393 -0.00049730
-0.00053447 0.00143054
0.00110038 0.01954768
0.00085402 0.00206119
-0.00386991 0.00047680
-0.00032748 -0.02770446
0.00074171 -0.00352353
0.00232431 0.00208397
0.00033734 0.00015940
-0.00121823 0.00923108
0.01433417 -0.00088962
0.00309637 0.00223414
-0.00136150 0.00163988
0.00004925 0.00358500
-0.00204641 -0.00074012
-0.00004609 -0.00219977
-0.03094257 0.00135299
0.00157992 0.00149747
0.00056042 0.00326975
0.00085129 0.00242698
0.01149733 -0.00574573
0.00079284 -0.00110910
-0.00564375 -0.00342177
-0.00112297 0.01339140
-0.00246953 0.00464342
-0.00344954 -0.00335638
-0.00342715 0.00094029
-0.00046760 0.00166141
-0.00084865 0.00336976
-0.00078577 0.01624060
-0.00478008 0.00405462
-0.00191797 -0.00280278
0.00173514 -0.00186457
-0.00104433 -0.00252888
0.01998013 -0.00362493
0.00355450 0.00017370
0.00153483 0.00099776
-0.00174564 -0.00130232
0.00092274 -0.02660398
0.00076940 -0.00290570
0.00105667 0.00097838
0.00106948 -0.00004054
-0.00035472 -0.00004529
-0.03033092 0.00285213
0.00068959 0.00250725
-0.00054243 -0.00158023
0.00066386 0.00390876
0.01263567 -0.00487270
-0.00136173 -0.00066176
-0.00140564 0.00096625
0.00029956 0.00137052
-0.00132052 0.01727741
-0.00045770 0.00058943
-0.00198312 -0.00123815
-0.00161503 -0.00152145
0.00142655 0.00044119
-0.00012997 -0.02807873
0.00201372 0.00166275
0.00054833 -0.00104815
-0.00097859 0.00411537
-0.00069330 0.00276239
0.01831497 -0.00571947
0.00102516 -0.00235314
0.01276540 0.00141185
-0.02783032 0.00091173
0.00224838 0.00135970
-0.00137109 0.00353163
-0.00272922 -0.00024997
-0.00080644 -0.00324569
0.00341642 -0.00005694
-0.02451317 0.00207373
0.00036039 -0.01941663
0.00123243 -0.00116717
-0.00285689 -0.00331283
0.00003479 0.02138742
-0.00175094 -0.00355484
0.02185856 -0.00028958
0.01945673 0.00194199
-0.00027420 0.01069948
-0.00165927 -0.00207621
-0.00660601 -0.00304383
0.00048375 -0.00028779
0.00610276 -0.00268723
-0.01671753 -0.00094286
-0.00224689 -0.01475751
-0.00401686 0.00157969
-0.00282508 -0.00723995
-0.00359542 -0.00286270
-0.00115004 0.01755890
-0.00203281 -0.00265805
0.00455732 -0.00074233
-0.01157296 -0.00065866
0.00119750 -0.01187871
0.00401097 0.00284436
-0.00473306 0.00093414
-0.00215312 0.00920754
-0.00218207 0.00914503
0.00762774 0.00506110
0.00228256 -0.00085604
0.00021383 0.00144065
0.00165236 0.00185010
-0.01922175 -0.00042287
-0.00088296 -0.01260644
0.00011077 0.00187733
0.00090452 -0.00882460
-0.00276942 0.01221779
-0.01332835 -0.00363676
0.00968881 -0.00992793
-0.00223042 0.00257964
0.00777460 0.00310198
-0.00508748 -0.01306802
-0.00311751 -0.00406735
-0.01210398 -0.00180477
0.00046559 0.00350835
-0.00105110 -0.00017837
-0.01607929 0.00000692
0.00166856 -0.01533273
0.00101936 0.00049392
0.00066275 -0.00396690
0.01330336 0.00871890
0.00020318 -0.00501187
0.01015071 -0.00157914
0.00253832 0.00315426
0.00025423 -0.02517724
0.00151911 0.00081531
-0.00899728 0.00105068
0.00180619 -0.00327393
-0.00198995 -0.00332692
0.00003749 0.02009309
-0.00303967 -0.00118551
-0.00941894 0.00091908
-0.00223407 -0.01875191
0.00079800 -0.00116079
0.01217806 -0.00214246
-0.00367940 0.00916359
-0.00079563 -0.00079859
-0.00591353 -0.00379478
-0.00076275 0.02269294
-0.00542407 -0.00190651
0.02228186 -0.00149276
0.00812241 -0.00696511
0.00211575 -0.00302095
-0.00259649 -0.01209613
-0.00037766 0.00101124
-0.00778315 0.00560183
0.00156743 0.00242804
-0.01639617 0.00179044
0.00081489 -0.01167654
0.00127714 -0.00383048
-0.00023874 -0.00077070
-0.02337040 -0.00142707
-0.00075484 -0.01297934
0.00005851 0.00151294
0.00436217 0.00012949
0.00420067 0.00507553
0.00260084 -0.02218765
0.00312769 0.00209740
-0.01750009 0.00078182
0.00035400 -0.00054574
-0.00013006 -0.01230088
0.01238773 -0.00178357
-0.01152682 -0.00714103
-0.00172258 -0.00411367
-0.00271061 -0.00394623
0.02016018 0.00029475
-0.00146007 -0.00109761
0.00013436 0.00081134
-0.00678859 0.00160209
0.00265652 0.00089056
-0.02955216 -0.00008885
0.00010740 -0.02399401
0.00187710 -0.00064233
0.00684237 0.00140427
0.00051742 -0.01554727
-0.00034526 -0.00232044
-0.00997669 0.00001000
-0.00232880 -0.00584813
-0.00097867 0.01671065
-0.00290030 -0.00398533
0.00791010 0.00113294
-0.00578458 -0.00103929
-0.00146133 -0.00124928
0.00083968 -0.01923184
0.00072966 -0.00124699
-0.01939018 -0.00263917
-0.00403215 -0.00474895
-0.00259476 -0.00137469
0.02044805 -0.00006310
0.00046191 0.00785688
-0.00057675 -0.00135966
0.00153419 0.00127284
0.00450134 -0.01448028
-0.01234529 0.00283621
-0.01030671 -0.00470039
0.00181041 0.00509447
0.00057155 -0.00269869
-0.01436404 -0.00044950
-0.00383129 -0.01597421
-0.00133640 -0.00075145
-0.00868710 0.00359462
0.00004595 -0.01155976
-0.00010079 0.00182368
-0.00587704 -0.00079521
-0.00122027 0.02019569
0.00278481 0.00121009
0.01916344 0.00035252
-0.00403236 -0.00077596
-0.00136970 0.00302616
0.00371195 0.00785541
0.00108923 -0.02840139
0.00327486 0.00605003
-0.01185866 0.00543176
0.00166613 0.01527662
0.00021809 -0.00368383
-0.00016659 -0.00016241
-0.00451499 -0.01299171
0.00047523 -0.00557991
-0.00386955 -0.00215321
0.02385028 0.00056478
-0.00271132 -0.01050953
-0.00108621 -0.00543982
-0.00611538 -0.00226523
-0.00244077 -0.00107118
0.01929625 -0.00062358
-0.00248140 -0.00985585
-0.00146497 -0.00218875
-0.00147038 -0.00259109
-0.00057617 0.01875874
0.00016189 -0.00222087
-0.00876941 -0.00105888
0.00168203 0.00528989
0.00715171 0.00100456
-0.02084158 -0.00058610
-0.00013167 -0.01214611
-0.00015659 -0.00152791
0.00145166 -0.00198009
-0.00155888 -0.01558967
0.00214290 0.00163487
-0.01807699 0.00006706
-0.00321937 -0.00159703
-0.00296081 -0.00107617
0.01958038 -0.00153434
-0.00142531 -0.00826657
-0.00172096 -0.00203646
-0.00190704 -0.00268281
0.02180730 -0.00045439
-0.00107091 0.02243056
0.00074972 -0.00240238
-0.00249515 -0.00069877
-0.00953970 -0.00256064
0.01780612 -0.00417977
-0.00463107 -0.00689894
0.00320034 -0.00042912
0.00081226 -0.00234094
0.00141881 -0.01506708
-0.00678104 0.00228390
-0.01176399 -0.00271993
0.00021649 -0.00219789
-0.00079333 0.00508183
-0.01245608 0.01119531
0.00973491 -0.00949749
0.00428630 -0.00345016
-0.00402632 -0.00564774
-0.00247954 0.02038343
-0.00066061 -0.00245874
0.01203457 0.00098941
0.00172270 -0.00108086
0.00745846 -0.00901927
0.01222731 -0.00084132
-0.01220016 0.01773499
-0.00415757 -0.00029574
0.00209259 0.00603435
-0.02215669 -0.00052640
0.00355135 -0.01651650
-0.00101373 0.00282968
-0.00083381 0.00217321
-0.00036356 -0.00021938
-0.01700059 0.00332962
-0.00048512 -0.00937964
0.00449913 0.00090007
-0.02340679 0.00020519
-0.00020654 -0.01251073
-0.00011152 -0.00033373
0.00292402 0.00090976
-0.00086728 -0.00080180
0.00194772 0.00157144
-0.02019798 -0.00098068
0.00338955 -0.01179770
0.00230681 0.00290938
-0.02189480 0.00074084
0.00072958 -0.00706426
0.00137363 -0.00179253
0.00173524 0.00179417
-0.00270311 -0.02094933
-0.00216736 -0.00144094
-0.01230861 -0.00023573
-0.00099667 0.00259199
-0.00064166 0.00032875
0.00087855 0.00358393
0.00087290 -0.01712760
-0.00652685 0.00116174
-0.01370524 -0.00151446
-0.00111877 -0.00131760
-0.00105509 -0.00098767
0.01680299 -0.00272839
-0.00278419 0.01038988
-0.00484421 0.00260901
0.00339229 0.00119113
-0.00010140 0.00156571
-0.01412491 -0.00141913
0.00161509 -0.00373666
0.00120433 0.00219073
0.00396186 -0.00157406
-0.02378693 -0.00066825
0.00245232 -0.02086491
-0.00099047 -0.00095678
0.00232210 -0.02739650
-0.00273499 0.00617050
-0.00651435 0.00044906
0.00132998 0.00009838
-0.00222059 -0.00205728
0.02706227 0.00128288
-0.00413729 0.02479527
-0.00204807 -0.00732598
-0.00472766 0.00007181
-0.00533137 0.00126353
0.00892599 -0.00286280
-0.01334546 0.00535209
-0.00142131 -0.00722395
-0.00110889 -0.00039856
0.00008882 0.00196330
-0.02035553 0.00231442
-0.00072571 -0.01693445
0.00324125 -0.00047200
-0.00495399 -0.00310186
-0.00054532 0.01821472
-0.00268821 0.00105150
-0.00866779 0.00143384
-0.00046352 0.00312768
0.00191051 0.00012868
-0.01648941 0.00144771
-0.00016770 -0.01122332
0.00124446 0.00139251
-0.01869984 0.00145742
0.00203277 -0.00563565
0.00050396 -0.00045492
0.00073934 0.00305644
0.00018846 0.00114487
0.00164707 0.00214818
-0.02083633 -0.00023917
0.00162239 -0.01591542
0.00380825 0.00384587
-0.00006013 0.00215144
0.00091441 -0.02155808
-0.00005380 0.00243023
-0.02256121 0.00099761
-0.00035020 -0.01844933
-0.00055776 0.00015456
-0.00485886 -0.00115899
0.00098551 0.00522656
0.00144697 -0.00444847
-0.00435190 0.00105881
0.01724354 -0.00157380
-0.00606117 0.01069961
0.00026611 -0.00304068
-0.00247836 -0.00894670
-0.00399391 0.01297320
0.00169792 0.00243205
0.00797000 -0.00586548
0.00050748 -0.00156672
0.02343515 0.00113312
-0.00222595 0.01032039
-0.00024747 -0.00588682
-0.00162816 -0.00358447
0.00048080 0.00034183
-0.00041934 -0.01378064
0.00995722 -0.00198594
-0.01478219 -0.00196029
-0.00132894 -0.00631590
-0.00142413 -0.00315160
-0.00566464 0.00580451
0.01047064 -0.00847983
0.00351920 0.01399098
-0.00347702 -0.00262670
-0.00371027 0.01874967
-0.00219477 -0.00267309
-0.00860444 -0.00072449
-0.00401911 -0.00103562
0.00134546 -0.00062169
-0.00153925 -0.01844739
0.00180110 -0.00275788
-0.01872791 -0.00350481
-0.00046032 -0.00358637
-0.00095197 0.00056889
0.02008697 -0.00348748
-0.00157100 0.00873007
0.00156337 0.00310314
0.00145477 0.00155540
-0.02356480 -0.00269090
0.00237867 -0.02374336
0.00086532 0.00071831
-0.00095401 -0.00000758
0.00368472 0.00300864
-0.02301869 -0.00000957
-0.00060762 -0.02101768
0.00394932 -0.00019517
-0.00099538 0.00301502
-0.00016530 -0.02039750
-0.00232674 0.00220699
-0.01211945 -0.00317468
-0.00021153 -0.00071785
0.00381913 0.00090113
-0.02818323 -0.00121627
0.00355305 -0.02235371
0.00010272 0.00206848
0.00181317 0.00162288
0.00183568 -0.02821583
0.00197720 0.00289308
-0.02126351 0.00278498
-0.00270302 0.00746536
0.00160483 -0.00416279
-0.00662531 -0.00593517
-0.00161428 -0.01103523
-0.00277873 0.00049348
-0.01685686 0.00081887
0.00234857 -0.01462616
-0.00299651 -0.00149914
0.00216325 0.00538801
-0.00622692 -0.00128455
-0.00143454 0.01953976
0.00025703 -0.00376995
-0.00898437 0.00021090
-0.00396422 0.00023446
-0.00289831 0.00309786
-0.00308108 -0.01810287
0.00350379 0.00028747
-0.01544637 -0.00050289
-0.00076968 -0.02357686
0.00018254 0.00048344
-0.01541547 0.00010017
0.00394958 0.00643662
0.00188342 -0.00511217
0.01925181 -0.00073406
-0.00458249 0.00923574
-0.00041116 -0.00382744
-0.00307977 -0.00507534
-0.00268053 -0.00473817
-0.00271484 -0.00272621
0.02195149 -0.00002148
-0.00336449 0.02291825
-0.00155826 -0.00036617
-0.00133263 -0.00112387
-0.00657371 0.00210456
-0.00001295 -0.00859555
0.00539313 -0.00276290
0.00095432 -0.01949901
0.00043103 -0.00227316
-0.00603743 0.00175263
-0.00285672 0.00091484
0.00193891 0.00151003
0.00545818 0.00400547
0.00122887 -0.02180078
0.00049994 0.00016542
-0.01235467 0.00103087
-0.00148290 0.00456420
0.00150906 -0.00183193
-0.01742027 -0.00069871
-0.00007625 -0.01012174
-0.00025700 0.00132488
-0.00378670 -0.00123997
0.00098155 0.01628596
-0.00091151 -0.00128752
-0.00797278 -0.00083321
-0.00441384 -0.00627149
-0.00619141 -0.00302551
0.02015167 -0.00218244
-0.00207620 0.02197638
-0.00211071 -0.00021522
-0.00006441 0.00088548
-0.02251334 -0.00098138
0.00002569 -0.01228265
0.00048937 0.00290707
-0.00520320 -0.00572280
-0.00286377 0.02185278
-0.00004256 -0.00424127
0.00847563 -0.00086684
-0.00441343 -0.00161940
-0.00240124 -0.00312378
-0.00137230 0.02138541
-0.00178686 -0.00141460
0.02265243 -0.00195432
-0.00032930 -0.00323087
0.00137708 -0.00336464
-0.01756637 0.00076333
0.00010367 -0.01326179
0.00201102 -0.00024445
0.02154876 -0.00080723
-0.00133015 0.02177442
-0.00180063 -0.00330438
-0.00599811 -0.00216163
-0.00785100 0.00094874
-0.00327229 -0.00752226
-0.00538628 -0.00388800
-0.03501881 0.00049209
-0.00517971 0.00165727
0.00164215 0.00109938
0.00235458 0.00086689
0.00202473 0.01139102
-0.00154485 0.00102630
-0.00078168 0.00061160
-0.00063047 0.00324141
-0.00106219 -0.00102680
-0.00004983 -0.00095780
-0.00049368 0.00164120
0.00031997 0.00029746
0.00144055 0.00175804
-0.00157969 -0.00108830
-0.00140294 0.00009718
0.00098428 0.00099057
-0.00045759 -0.00060827
-0.00144443 0.00201692
-0.00179669 0.00194879
-0.00030117 -0.00244139
-0.00094255 -0.00071770
-0.00982932 0.00288614
0.00049737 0.00433507
0.00146017 -0.00266431
-0.01338746 0.01743782
-0.00074684 -0.01561354
-0.01009725 -0.01512751
-0.00035773 -0.00923544
-0.01111742 0.00131914
-0.00072867 0.00131670
0.00001587 0.00145179
-0.00156387 0.00162287
-0.00032052 -0.00005555
-0.00071889 0.00123655
-0.00038818 0.00435967
0.00162044 -0.00146198
-0.03095845 0.00170490
0.00218179 -0.00059063
0.00049018 0.00002328
0.00159780 0.00115589
-0.00017118 0.00223477
0.00294848 0.00046706
-0.00272132 -0.00127516
-0.00077652 -0.00244919
-0.00116022 -0.00040416
-0.02656563 -0.00053706
-0.00129859 0.00245316
0.04836018 -0.02602170
-0.00770396 -0.02610379
-0.01967956 -0.00972632
0.03167392 0.00013703
-0.00194527 -0.00243145
-0.00340817 -0.00134611
-0.00254345 0.00379183
-0.00258273 -0.00261077
0.00747270 0.00024678
-0.00113249 -0.00027311
-0.00021506 0.00031695
-0.00042793 -0.00070400
-0.00006046 0.00056545
0.00067451 -0.00044837
0.00011529 0.00523525
0.00044274 -0.00010696
0.00299226 0.00208560
-0.00017863 -0.00312090
0.00281863 0.00198064
0.00179375 0.00226763
0.00144620 0.01276913
0.00220836 0.00166031
-0.00260980 0.00121429
-0.00065798 0.00048053
-0.00002846 0.00024314
-0.00229951 0.00488425
-0.00018241 -0.00098678
-0.00055638 -0.00146816
0.00183560 -0.00095576
0.00363996 0.00177924
-0.00026581 0.00519960
0.00015995 0.00101927
0.00094785 -0.00005033
0.00280676 -0.00029778
-0.00090654 0.00037876
0.00037765 0.00368313
0.00059200 0.00233948
0.00210831 -0.00003768
0.00191453 0.00808696
0.00136849 0.00347740
-0.00083510 0.00062310
-0.00040345 -0.00040400
0.00021136 -0.00200903
0.00050525 -0.00319008
0.00196861 0.00115807
0.00069534 -0.00109214
0.00200286 0.00043800
-0.00012909 0.00126759
0.00027897 -0.00106269
-0.00832897 0.00080967
-0.00945183 -0.00978385
-0.00630028 -0.00851440
-0.04049421 0.00006583
-0.00699153 0.00027470
0.00041111 -0.00071067
-0.00099846 -0.00095661
-0.00059551 0.00199826
-0.00043709 -0.00114260
-0.00057918 0.00056043
-0.00130880 0.00122261
0.00050542 -0.00086730
-0.00894549 -0.00007796
0.00009053 -0.00322567
-0.00224803 -0.00113183
-0.00262330 -0.00135618
-0.00016622 -0.02978303
0.00039361 -0.00099595
0.00010261 -0.00133568
0.00046445 0.00161240
0.00014466 0.00042234
0.00233661 -0.00055249
0.00003673 0.00214398
-0.00226738 -0.00061602
-0.00043336 -0.00524501
0.00025752 0.00682837
0.00277221 -0.00004058
0.00166668 0.00013945
-0.00048231 0.00231062
-0.00136481 0.00012819
0.00507339 0.00006273
-0.00080484 -0.00054403
-0.00111414 -0.00168584
-0.00645430 0.00136700
-0.00105693 -0.00828457
0.00030303 -0.00145385
0.00094730 0.00082337
0.00047171 0.00914785
0.00043636 -0.00026235
-0.00003793 0.00118982
0.00142051 0.00210060
-0.00184049 0.00017030
0.00188812 0.00078355
-0.00160572 0.00499602
0.00071455 -0.00317384
0.00276189 -0.00045206
0.00033399 0.00159189
0.00058295 0.00030637
0.00485814 0.00034279
-0.00040886 0.00009163
-0.00141025 -0.00375478
-0.00008162 -0.00126754
0.00129896 0.00268521
-0.00156453 -0.00149688
-0.00190313 -0.00140236
-0.00037366 0.00158463
0.00067934 -0.00110513
-0.00090050 0.00095691
0.00033463 0.00212288
-0.00034060 -0.00060388
-0.00078909 -0.00199585
-0.00052662 -0.00259343
0.00047075 0.00004774
0.00179251 0.00061140
-0.00050782 -0.00268839
0.00364000 0.00337128
0.00137459 0.00166446
-0.00053594 -0.00310312
0.00058141 -0.00089555
-0.00229512 -0.00028575
-0.00044908 -0.03142228
0.00014973 -0.00036229
-0.00056976 -0.00191486
-0.00084463 0.00116350
0.00005969 -0.00075817
-0.00126140 -0.00214679
0.00064297 0.00163393
0.00172778 0.00012830
0.00119824 0.00173747
-0.00070462 0.00158152
0.00133123 0.00010636
-0.00076541 -0.00361512
-0.00241930 -0.00408093
-0.00654556 -0.00125554
0.00359520 0.00122829
-0.00162132 0.00162765
0.00003168 -0.00041131
-0.00015207 -0.00086281
0.00045316 0.00815492
0.00045428 -0.00093412
-0.00159623 -0.00035413
0.00196359 0.00044455
-0.00159045 -0.00000979
0.00305997 0.00341748
-0.00121263 -0.00079835
-0.00006746 0.00020636
0.00334046 -0.00099216
0.00019789 0.00191402
0.00126395 0.00009791
-0.00006808 0.00045689
0.00026403 -0.00073363
0.00041895 -0.00179514
0.00753057 0.00115210
-0.00203602 0.00093768
0.00146413 0.00032671
0.00161907 0.00206458
-0.00145461 -0.00075348
0.00018732 -0.00000786
-0.00133176 -0.00005982
-0.00038976 -0.00257578
-0.00078756 -0.00077663
-0.00858238 0.00391743
-0.00005208 0.00096986
0.00134327 0.00183430
0.00797522 0.00118051
0.00014137 0.00102947
0.00121358 0.00063814
-0.00021190 0.00063899
-0.00107753 -0.00090998
0.00064939 -0.00027052
0.00212339 0.00119050
-0.00139731 -0.00499561
-0.00294065 -0.00343617
-0.01335839 0.00054923
-0.00279469 -0.00009715
-0.00080619 -0.00326112
-0.00179289 0.00143122
-0.00028611 0.00534057
-0.00061918 -0.00076764
-0.00062058 0.00009973
0.00038047 -0.00023416
0.00009490 0.00088567
0.00004350 -0.00173298
0.00012382 0.00419490
0.00057211 -0.00072206
0.00054114 0.00067411
0.00011705 0.00069232
-0.00181326 -0.00053742
0.00522433 0.00213666
-0.00009987 0.00177087
-0.00180143 -0.00362595
0.00112093 -0.00217773
-0.00331742 0.00020885
-0.01396964 -0.00112196
0.00058787 0.00188476
0.00188259 0.00255789
0.00412041 0.00074357
0.00490105 -0.00412102
0.00183243 -0.00084371
-0.00172387 -0.00083310
-0.00058930 0.00255803
-0.00049990 0.00109893
-0.00055629 0.00007002
-0.00125870 -0.00017154
0.00748515 -0.00458924
0.01523131 0.00371849
-0.00076106 0.00667232
0.00601436 0.00176983
-0.00157826 -0.00193925
0.00282768 -0.00086646
-0.00230912 0.00097827
-0.01049018 -0.00058704
-0.00488088 -0.00150111
-0.00225018 -0.00412789
-0.00177912 -0.00100233
-0.03258436 0.00100924
-0.00160034 -0.00039734
-0.00153995 -0.00142903
-0.00187542 0.00023014
-0.00100694 -0.00145906
-0.00083606 0.00035398
-0.00208600 -0.00483833
-0.00253404 -0.00169295
-0.00184409 -0.00169510
-0.01203623 0.00121856
-0.00176152 -0.00216859
-0.00325370 -0.00268374
-0.01217659 0.00047098
-0.00188816 -0.00096525
-0.00180116 -0.00412924
0.00073905 -0.00033345
0.00167866 0.00335814
0.00004469 0.00270601
0.00825795 0.00231103
0.00133099 -0.00377793
-0.00125166 -0.00137299
-0.00459460 0.00120370
-0.00091460 -0.03255025
0.00198767 -0.00100220
-0.00113722 -0.00305678
-0.00227305 -0.01290109
0.00183259 -0.00106178
0.00150869 -0.00137589
-0.00273260 -0.00111621
-0.00024942 -0.00035076
-0.00755573 -0.00017470
0.00072173 -0.00118919
0.00162480 0.00116213
0.00010624 0.00065824
-0.00003837 0.00249469
-0.00184232 -0.00112349
-0.00248478 0.00427436
0.00074909 0.00236371
-0.00132795 -0.00036186
0.00195470 0.00230048
-0.00058737 0.00057803
-0.00126617 -0.00082719
0.00218460 0.00009405
0.00040332 0.00136219
-0.00147736 -0.00153356
0.00116361 0.00001949
-0.00044363 0.00022108
-0.00195345 -0.00110101
0.00136519 -0.00299332
0.00002652 0.00080654
0.00332668 -0.00191703
0.00011234 -0.00063937
-0.00215377 0.00111651
0.00016136 0.00065708
0.00156197 0.00103252
-0.00109703 0.00047278
0.00219205 0.00193354
0.00209148 0.00155494
0.00126107 0.00322417
-0.00004130 0.00062766
-0.00149532 0.00147130
0.00084085 0.00049280
-0.00073504 -0.00017109
0.00352557 0.00301170
0.00053608 0.00366745
0.00082090 0.00077635
-0.00140341 0.00108060
-0.00301342 -0.00238294
0.00178623 0.00131775
-0.00339959 -0.00106601
-0.00082979 -0.00360732
-0.00201328 -0.00101235
-0.03132056 0.00031800
-0.00123954 0.00223708
0.00189991 0.00016280
-0.00021528 0.00238446
0.00038159 0.00698273
-0.00817454 0.00031444
0.00302269 0.00163943
0.00236416 0.00244683
0.00145915 0.00096398
0.00535852 0.00050457
0.00392588 0.00257365
0.00128266 0.00240607
0.00083069 0.00207197
0.00276744 0.00899195
0.00290674 0.00173522
0.00238167 0.00071513
0.00041506 0.00171669
0.00300553 0.00057769
0.00396109 -0.00269643
-0.00065434 0.00068439
-0.00130243 0.00005070
0.00731332 -0.00041021
0.00176591 0.00418928
-0.00110502 0.00052729
-0.00033438 -0.00039391
-0.00090056 0.00060557
-0.00186072 0.00002219
0.00249512 0.00157689
-0.00160310 -0.00020620
-0.00012837 0.00149941
-0.00071893 -0.00022882
0.00224447 0.00727484
0.00233576 0.00138573
0.00164652 0.00136548
0.00058909 0.00479503
0.00013755 0.00061357
0.00085107 -0.00160441
0.00055568 0.00234686
-0.00146619 0.00137290
0.00318102 0.00338101
-0.00031337 -0.00214719
0.00086263 -0.00179359
0.00107486 0.00147144
0.00208815 0.00257200
0.00230665 0.00086745
0.00935118 0.00084014
0.00129565 -0.00244929
-0.00063267 -0.00118237
0.00108355 -0.00265536
0.00202575 0.00573712
0.00094555 0.00110173
0.00096478 0.00062768
-0.00067838 0.00254434
0.00061983 -0.00182033
-0.00025028 0.00102095
-0.00105572 0.00207302
-0.00089602 0.00098404
0.00021029 0.00035985
-0.00102820 0.00272568
0.00016596 -0.00056896
-0.00168809 -0.00256752
-0.00305320 -0.00354211
-0.00294275 -0.00159570
-0.01342393 0.00038148
-0.00149961 0.00090446
-0.00112465 -0.00052034
0.00155141 -0.00028707
-0.00136063 -0.00146400
-0.00040215 -0.00061734
0.00389484 0.00300146
0.00361463 0.00512199
0.00311925 0.00188511
0.00843013 0.00205152
0.00035333 -0.00542053
-0.00160871 -0.00274593
-0.00178769 -0.00405922
0.00440253 0.00283798
-0.00523523 0.00719305
-0.00041987 0.00064128
-0.00057248 -0.00019025
-0.00010646 0.00107638
0.00286738 -0.00155940
0.00054479 0.00199165
0.00162171 0.00107334
0.00089540 0.00141454
0.00062875 0.00828358
0.00175349 0.00016180
0.00019531 0.00070377
-0.00001567 0.00131696
-0.00088605 0.00010324
0.00750507 0.00599382
0.00510993 0.00284056
0.00127559 0.00109828
0.00738744 -0.00092315
-0.00051470 -0.00223459
0.00290934 0.00102070
0.00560901 -0.00029147
0.00087968 0.00101250
-0.02106695 -0.00248299
-0.00227935 -0.00057812
0.00007571 0.00057781
-0.00014503 -0.00128602
0.00772638 -0.02128458
0.00125622 0.00418448
-0.00622350 0.00180305
-0.01418147 -0.00361061
-0.00018348 -0.00465329
-0.00334914 0.00174215
-0.00221821 -0.00394969
0.00074672 -0.00261297
-0.00363426 -0.00216010
-0.02125483 0.00012182
0.01090884 -0.00614254
-0.00044440 0.00431289
-0.00110158 0.00187406
-0.00350415 0.00088245
-0.00321871 -0.02357755
0.00162932 0.00304601
0.00036613 -0.00316886
0.01957324 -0.00379966
-0.00325849 -0.01281563
-0.00797466 -0.00834046
-0.00370043 0.00216569
-0.00844606 0.01365412
-0.00165553 0.00818538
0.00463979 -0.02064897
0.00112625 -0.00799490
0.04556015 -0.00013543
0.00045111 0.00427562
-0.02170497 -0.00082904
0.00358880 -0.00475766
0.00235203 -0.00381414
0.00665647 -0.01249898
0.00461476 -0.01036096
-0.01802083 -0.00400849
-0.00297103 0.00373536
-0.00040023 -0.00178907
-0.00358540 -0.00006712
0.01012163 -0.02042121
-0.00767718 0.00233521
0.00001959 -0.00222993
0.00212051 -0.00212335
0.00025223 -0.00221332
-0.01805717 -0.00045200
-0.00105622 -0.00065157
0.00067342 -0.00100785
0.00400175 -0.12230752
-0.00138453 0.01125134
-0.00734770 -0.01865417
-0.00008391 0.00016496
0.00021169 -0.00344557
-0.00326839 0.03123765
-0.00263769 -0.00633662
0.01638204 -0.00075380
-0.00636249 0.00499577
0.00146741 0.00063839
0.00406504 -0.01711278
-0.00376471 0.00137289
-0.00851002 -0.00252957
0.00310965 -0.01458857
-0.00245839 -0.00579827
-0.01577065 -0.00000920
-0.00477161 -0.00675503
0.00049448 -0.00048375
-0.00126345 0.00148583
0.00499423 -0.02167406
-0.00164058 0.00183854
-0.00549720 0.00029213
-0.01168731 0.00689823
0.00237224 -0.00635386
0.00134916 -0.01551239
-0.00162733 0.00045457
-0.00209955 -0.00239633
-0.00111425 -0.00353850
0.03289741 -0.00609831
-0.00191829 0.00606279
-0.00309410 -0.00308159
0.00149479 0.00004330
-0.02148745 -0.00407438
0.00502599 0.00331465
0.00037506 0.00076731
0.00279474 0.00100321
-0.00069513 0.00027529
-0.00090852 -0.02158804
0.00099117 0.00284934
-0.00751508 -0.00020338
-0.00303014 -0.00113952
-0.00300047 -0.01509160
-0.00892428 0.01362506
-0.00330912 -0.00381264
0.00363797 -0.00179180
-0.00248131 -0.00192190
-0.01855637 0.00022901
0.00012886 -0.01532801
-0.00778222 0.00390452
-0.00398960 -0.00413252
-0.00026921 -0.00288932
-0.02594852 -0.00018459
-0.00132431 0.00028750
-0.00050174 -0.00221665
0.00020300 -0.00102114
-0.00096025 -0.02213253
-0.00016966 -0.00222786
0.00409451 -0.00456189
-0.00511108 -0.00524096
-0.00211840 -0.01622954
0.00006742 -0.00774922
-0.00356434 -0.00284101
0.00419485 -0.00047754
-0.00313543 0.00316777
0.00108759 -0.02076847
0.00082934 -0.00184616
0.00346240 0.00278498
-0.00388052 -0.00099991
-0.00049976 -0.00232485
-0.02349219 0.00163284
0.00440248 -0.00352598
0.00127958 -0.00106538
-0.00667630 -0.00308080
-0.00145712 -0.01687804
-0.01469297 0.00123183
-0.00066674 0.00472230
-0.00373872 -0.00669553
0.00011856 -0.00043819
-0.02085442 -0.00187972
0.00352966 -0.00135361
-0.00015570 -0.00781797
0.02060622 -0.00955740
-0.00725324 0.02489576
-0.00375615 -0.00548231
0.00166139 -0.00476346
0.00118554 -0.01778883
0.00006021 -0.00135132
-0.00359821 -0.00171929
0.00026956 0.00049463
-0.00447262 0.00093121
-0.00448479 0.00494863
-0.00649373 -0.02663563
0.00207945 0.00240632
-0.00708390 -0.00097628
0.00164212 -0.01655803
0.00033471 0.00069032
-0.01573079 0.00166802
0.00053355 -0.00606918
0.00021088 -0.00075726
0.00234950 -0.00116828
-0.02116409 0.00151616
0.00247180 -0.02913258
0.00431803 0.00395566
0.00103765 0.00187952
-0.00447657 0.00240117
-0.01906555 -0.00226162
0.00329172 -0.00796783
0.00015920 -0.00045660
-0.00181772 0.00205243
0.00429648 -0.01826904
0.00197117 0.00525371
-0.00595882 -0.00431140
-0.00248398 0.00149232
-0.00060881 0.00064196
-0.02247513 -0.00542355
-0.00052972 -0.00553496
-0.00148500 -0.00159036
-0.00131038 -0.00193267
-0.00252306 -0.02367680
-0.00288367 -0.00248163
-0.00180955 -0.00253806
0.00206800 -0.00206866
0.00148379 0.00318109
-0.01976762 0.00372172
0.00388305 -0.00958494
0.00302142 -0.00415398
-0.00106525 -0.00269753
-0.02188167 0.00156229
0.00121415 -0.00636234
0.00006185 -0.00003173
-0.00072036 -0.00573626
0.01462288 0.00522094
-0.01526952 0.00654744
0.00380859 0.00096115
-0.00507394 -0.00031676
-0.00334612 0.00159494
0.00004366 -0.01915608
-0.00388164 -0.00368112
-0.00168263 0.00245674
0.00140927 -0.00227300
-0.00005710 -0.00459813
-0.02148618 -0.00989756
-0.00097891 0.00037171
-0.00035399 -0.00380299
-0.00111697 0.00149846
0.00483145 -0.02348732
0.00209313 0.00049114
-0.00521163 -0.00069998
0.00079691 -0.00054297
-0.00752521 -0.00918597
-0.01360999 -0.00103683
0.01070981 0.00085061
-0.00296261 -0.00034968
-0.00139077 -0.00002002
-0.02244328 0.00251049
0.00369004 -0.01032229
0.00033671 -0.00163778
-0.00697089 -0.00102293
-0.00420717 -0.01760813
0.03332609 -0.01173151
-0.00734734 0.00436060
-0.00339623 0.00216085
-0.02136398 0.00326793
-0.00014709 -0.00819575
-0.00029125 0.00272397
-0.00026299 0.00064886
0.00061435 -0.00171896
0.00082128 -0.00283641
-0.02293781 -0.00128979
0.00283296 -0.00272507
-0.00187253 -0.00624736
0.02693797 -0.00494289
-0.00769847 0.01298215
-0.00847707 -0.01034610
-0.00439301 -0.00828374
0.00203415 -0.02077476
-0.00164579 -0.00083855
-0.00535278 0.00067717
0.00058956 0.00020941
0.00137747 0.00062906
0.00014066 -0.00030262
-0.00367559 -0.01695020
-0.00532227 -0.00017740
-0.00634588 -0.00342126
0.00003898 0.00461146
-0.00250519 0.00482500
-0.01666002 0.00478518
-0.00251855 -0.00080418
-0.00174790 -0.00200771
-0.00949409 -0.00167005
-0.00248076 -0.00616311
0.02422567 -0.00491060
-0.00639742 0.01114089
0.00244432 -0.00101753
0.00019732 0.00171137
-0.02384306 -0.00150792
-0.00092411 -0.00897780
0.00108963 -0.00339136
0.00015553 -0.02322058
-0.00061407 -0.00180434
-0.00283981 0.00121855
-0.00230565 0.00219873
0.00189082 0.00074097
-0.02944870 -0.00054431
0.00284590 -0.00383710
0.00134755 0.00122111
0.00109380 -0.00503054
-0.00998876 -0.00282091
-0.00662365 -0.01063229
0.02332191 -0.00388889
-0.00663002 0.00986962
-0.00002682 -0.00014920
-0.00001160 0.00058448
-0.01866706 -0.00444953
-0.00194338 -0.00721863
-0.00493143 -0.00455230
0.00016466 0.00054121
-0.00109623 -0.01529571
0.00282825 0.00239249
-0.00251151 0.00106849
-0.00558728 -0.00308603
-0.00767668 -0.00780921
0.02522790 -0.00657687
-0.00699855 0.01209891
-0.00624408 -0.00937638
0.02339474 -0.00364743
-0.00664238 0.01102189
-0.00170878 -0.00865569
-0.00370879 -0.01026186
-0.00246306 -0.00108605
0.00194091 0.00024178
-0.02222614 0.00238733
0.00045152 -0.00193204
0.00024748 -0.00129623
-0.00023415 -0.00036988
0.00109442 -0.02153438
-0.00205232 -0.00222056
-0.00273248 0.00018094
-0.00622939 0.02424051
-0.00605567 -0.00627539
0.00389574 -0.00323993
-0.00860168 -0.00471602
-0.00596487 0.00063274
-0.00431546 -0.00086341
-0.01771546 -0.00001892
-0.00832391 -0.00113816
-0.00156141 -0.00058450
-0.00583092 -0.01117555
0.00180225 -0.01402055
-0.00563652 -0.00722110
-0.00076169 -0.00059505
0.00419043 0.00144992
-0.02523879 0.00012277
0.00078184 -0.01259389
0.00066691 0.00211277
-0.00142453 -0.00131596
-0.00239611 -0.00244593
-0.00390219 -0.01536585
-0.01079969 0.00204781
0.00074234 -0.00323609
0.00430096 -0.00422746
0.00022655 -0.00329949
-0.00519018 -0.00260803
-0.00304750 -0.00257484
-0.00432516 0.00738451
-0.00100409 0.00427340
0.00048804 -0.01806385
0.00007446 -0.00158622
-0.02131258 0.00416843
0.00386153 0.00461197
-0.00134541 -0.00061984
0.00119751 -0.02190548
0.00194371 0.00047288
-0.00656470 -0.00050017
0.00208678 0.00164263
-0.00190682 0.00153088
-0.02359178 -0.00548062
-0.00033540 -0.00504836
0.00297265 -0.00290185
0.01006203 0.00051129
-0.02299120 0.00059220
-0.00007485 -0.00756813
0.00064209 0.00356460
-0.00112452 -0.00063428
-0.00042274 0.00226299
-0.02213529 -0.00316783
0.00114800 -0.00021208
-0.00294006 0.00084977
-0.00138583 -0.00117991
0.00147675 -0.02041506
-0.00791076 -0.00347054
-0.00119183 0.00242106
-0.00017400 -0.00123239
0.00260024 -0.00142159
-0.02579828 -0.00290330
-0.00167584 -0.00936594
0.00133742 -0.00119704
-0.00084620 0.00215040
0.00008128 -0.02597200
0.00159245 0.00226605
-0.00990835 0.00271551
-0.00420373 -0.00339058
-0.00150238 0.00087353
-0.01577682 0.01088144
-0.00279914 -0.00628975
-0.00063218 0.00124700
-0.01525207 0.00100932
0.00033469 -0.01418828
0.00152488 0.00371870
-0.00004491 -0.00624398
-0.00057465 -0.00162080
0.00191397 -0.01550958
-0.00240142 -0.00087928
-0.01554675 0.00263406
0.00021724 -0.00030949
-0.00076040 -0.00067377
0.00263664 -0.02210023
-0.00407812 0.00006816
-0.00384048 -0.00023169
-0.00110205 -0.02239780
0.00054907 0.00073593
-0.00360616 -0.00003329
0.00236531 0.00117216
-0.00009074 -0.00691399
-0.02159957 -0.00224951
-0.00366756 -0.00245631
0.00026170 0.00194444
0.00178809 -0.00251710
-0.00141914 0.00281223
-0.00001828 -0.00115611
-0.02355897 0.00034594
0.00267267 -0.00692875
0.00049121 -0.00303305
-0.00896669 0.01114225
-0.01445400 -0.01108693
0.00097245 -0.00388598
-0.00796620 0.00039902
-0.00409387 -0.01956407
-0.00169989 0.00110964
-0.00174027 -0.00293089
-0.00390902 -0.00106909
-0.00062103 0.00167158
0.00129510 0.00225877
0.00152627 -0.02384599
0.00057364 0.00066802
-0.00165798 -0.00022451
-0.00738326 -0.00131130
-0.00426555 -0.00837444
0.02733258 -0.01012908
-0.01133389 0.01006172
-0.00598962 0.00044515
-0.00076711 -0.00199845
0.00246419 -0.01686462
0.00082416 0.00600740
-0.00610980 0.00467475
-0.00158118 -0.00339980
0.00250714 -0.00386517
-0.02433300 0.00829900
0.00241697 -0.00117619
0.00041308 -0.00153696
-0.00466717 0.00029507
0.02882065 -0.00853914
-0.00821066 0.01744583
-0.00984652 -0.01321300
-0.00219639 -0.00101441
0.00259095 -0.02659136
0.00038733 0.00252088
-0.01966460 -0.00207630
0.00042635 0.00127855
0.00000070 -0.00141295
0.00104528 -0.02212290
-0.00249615 -0.00139288
-0.00271846 -0.00405095
0.00198264 -0.00276409
0.00008807 0.00735803
-0.02063854 -0.00338969
0.00236092 -0.00129633
-0.00401939 0.00103922
-0.02108668 -0.00120011
-0.00109333 0.00071133
-0.00208061 -0.00129809
0.00088856 0.00216140
-0.00471003 0.00440759
-0.00153281 0.00173137
-0.02378786 0.00034931
0.00230922 -0.00089745
0.00063557 0.00004517
-0.00340862 -0.00143788
-0.00072366 -0.02582136
0.00267380 0.00171603
-0.01262842 0.00095333
0.03282933 -0.00582295
-0.00649301 0.01578642
-0.00803001 -0.00283486
-0.00256490 -0.00208201
0.00154883 0.00084329
0.00270383 -0.00159314
-0.02091309 0.00726639
-0.01039995 -0.00205035
0.00064552 -0.00103020
-0.00943349 -0.00940952
-0.00193415 -0.01230978
-0.00717344 0.02983223
0.00667033 -0.01311983
0.01723967 0.00039012
-0.01722889 0.00013782
0.00208038 -0.01674971
-0.00367653 -0.00200810
-0.00147434 0.00382744
-0.01272702 0.01429946
0.00019530 0.00669532
0.00291980 -0.02481297
-0.00053569 -0.01422723
0.04959099 -0.00617316
0.00259120 0.00229624
-0.02287732 0.00009462
-0.00000680 -0.01069400
-0.00252951 0.00376119
0.00262725 -0.00637988
0.00561811 -0.02002030
-0.01850647 -0.00178811
0.00367471 -0.00073568
-0.00019352 -0.00407622
-0.00545662 0.00038688
-0.00670624 -0.02449374
-0.00013772 0.00101944
-0.00864736 0.00178498
-0.00119084 -0.00059743
0.00138742 -0.00103230
-0.02082393 -0.00255262
-0.00553300 0.00171887
-0.00073289 0.00071364
0.00325610 -0.14544865
0.00430276 0.00706979
-0.01134840 -0.03670573
0.00443161 -0.00085139
-0.00066006 0.00415433
-0.00100875 -0.02723194
-0.00110413 0.00144302
-0.00613593 0.00064339
0.00204990 -0.00068406
-0.00302274 0.00115602
-0.00224820 -0.02199755
0.00006352 -0.00226346
-0.00519349 -0.00243935
-0.00245848 -0.01709322
-0.00320740 -0.00839095
0.02798613 -0.00733083
0.00286394 0.00268135
-0.00089706 0.00073199
-0.00141391 -0.00163346
0.00105259 -0.02518965
0.00059424 -0.00176610
-0.00699817 0.00180564
-0.01244292 -0.01044557
0.00183904 -0.00586104
-0.00541320 -0.01460535
-0.00440737 0.00173939
-0.00598296 0.00132049
-0.00055542 0.00444514
-0.02228574 0.00424075
0.00087777 -0.00833759
-0.00040563 -0.00236315
0.00264969 0.00096053
-0.02518551 0.00171706
-0.00068702 -0.00434233
0.00445192 -0.00029211
0.00316051 0.00107988
0.00126123 0.00112145
0.00158415 -0.02480926
0.00138760 0.00088982
-0.01092589 -0.00123081
-0.00189466 0.00055705
0.00304159 -0.01929614
-0.01071266 -0.00647387
-0.00384940 -0.00084282
-0.00129960 0.00416197
0.00101346 -0.00620503
-0.01919831 0.00089291
0.00205328 -0.02411560
-0.00162330 0.00318372
-0.00997619 0.00428602
0.00313943 0.00198647
-0.03096946 -0.00292872
-0.00101194 0.00157963
-0.00006183 0.00028605
0.00502722 0.00041418
-0.00007252 -0.02137827
-0.00030358 -0.00177312
-0.00592347 -0.00097399
-0.01350691 0.00117124
-0.00556570 0.03275709
0.00117066 -0.01266511
0.00731874 -0.00033925
-0.00747592 0.00019167
0.00412611 0.00081059
0.00489839 -0.02001524
0.00268643 -0.00085212
-0.00325517 -0.00246431
0.00498884 0.00194394
-0.00862264 -0.00857906
0.03528807 -0.00467439
-0.01363491 0.01963461
-0.00776302 0.00201810
0.00071098 -0.00082015
-0.00639771 -0.01710303
-0.01304591 0.00016060
-0.00145760 -0.00233674
0.00028975 0.01934099
-0.00117495 -0.00461199
-0.02626018 0.00017990
-0.00337446 -0.00459945
-0.00042448 -0.00211987
-0.01450120 -0.00225536
-0.00441659 -0.01678997
0.00073141 0.00008023
0.00253366 0.00502834
-0.00103725 -0.01953509
0.00081153 0.00419861
0.00438408 -0.00487890
0.00048146 -0.00017405
-0.00182374 -0.00090915
-0.00182510 0.00104152
0.00195104 -0.03015397
0.00055759 0.00293257
-0.01281470 -0.00201263
-0.00753829 0.02378815
-0.00434881 -0.00521073
-0.01637473 0.00300902
-0.00407170 -0.01202220
-0.00169179 -0.00098179
-0.00119414 0.00370622
-0.01855460 0.00314507
-0.00148537 -0.01934321
-0.00175748 0.00231665
-0.00310725 0.00131967
-0.00059710 -0.00009988
-0.02085430 0.00071524
0.00144731 -0.00636235
0.00364294 0.00186555
0.00080866 -0.00081447
-0.00167266 -0.01820808
-0.00048241 0.00421723
-0.00804537 0.00043713
-0.00007655 -0.00126898
0.00260017 -0.00395636
-0.02517816 -0.00092101
-0.00094291 -0.01353537
0.00181856 0.00209796
-0.00135495 0.00030810
0.00186313 -0.02285188
0.00836908 0.00240063
-0.00495171 -0.00551254
-0.00130771 -0.00254984
-0.00016161 -0.00310611
-0.01829562 -0.00326377
0.00190857 -0.01282817
-0.00202060 0.00016937
-0.00227777 -0.00308228
-0.02130283 0.00021192
0.00384246 -0.00012522
0.00065587 -0.00023032
-0.00073971 0.00077564
-0.01224474 0.00175848
-0.01770432 -0.00086390
-0.00273371 -0.00045058
0.00650019 -0.00395013
-0.00236144 -0.00028339
-0.00465255 -0.01956851
-0.00484575 0.00081079
-0.00240033 0.00193897
-0.00373106 0.00258556
0.00147605 -0.00474154
-0.02454605 0.02034771
-0.00134213 -0.01319859
0.00454298 -0.00807116
0.00045364 -0.00598705
-0.01353833 0.03674048
-0.00083905 -0.01046902
0.01456004 -0.00660915
-0.00896189 -0.00314698
0.01213291 -0.02386508
0.00901671 -0.00048719
-0.00239486 -0.00442635
-0.00354973 -0.00139012
-0.00071526 0.00479789
-0.02261993 -0.00101911
0.00538349 -0.01563137
-0.00042965 0.00617558
-0.00072290 0.00049044
0.00098291 -0.00236339
-0.02320565 0.01269448
0.00155417 -0.00394766
0.00240298 0.00040636
-0.02388447 0.00328491
0.00214113 -0.00809162
-0.00067609 0.00085237
-0.00304950 -0.00070872
-0.00371622 -0.00104951
0.00206995 0.00532641
-0.02495697 0.00093829
0.00049191 -0.00802366
0.00131831 0.00311582
-0.02586504 0.00255708
0.00228896 -0.00719994
0.00001530 0.00027974
-0.00319224 0.00178307
-0.00157445 -0.02323684
-0.00490093 -0.00214732
-0.00310263 -0.00522604
-0.00035618 -0.00329558
0.00149043 0.00107667
-0.00130232 0.00035120
0.00289241 -0.02218354
-0.00849970 -0.00336181
-0.00330972 -0.00653943
-0.00945490 -0.01246480
-0.00384645 -0.01256154
0.03275270 -0.01837050
-0.00819183 0.00441616
-0.00382216 0.00302875
0.00010076 -0.00341089
0.00061691 -0.00243512
-0.02224241 0.00380759
0.00291510 -0.00862570
-0.00036158 -0.00410597
0.00025930 -0.00133789
-0.02839191 0.00451154
-0.00044448 -0.00021458
-0.00098085 -0.00237384
0.00117257 -0.02669091
-0.00267042 -0.00385498
-0.01029557 0.00219724
0.00134772 0.00176915
-0.00245630 -0.00012228
-0.03319486 0.00051374
-0.00046735 0.00241703
-0.00120327 0.00067466
-0.00084280 0.00192396
-0.00727618 -0.00332653
-0.00442386 -0.00445390
-0.01834816 -0.00087551
-0.00272321 -0.00633063
-0.00100645 -0.00176699
0.00081212 0.00006555
-0.02391575 0.00783526
-0.00064430 -0.00133592
0.00097864 0.00536552
-0.00132807 0.00064692
-0.00041914 -0.01413824
-0.00274175 0.00759437
-0.00341939 -0.00547767
-0.00053891 0.00667824
0.01276009 0.00201064
-0.02342892 0.00551205
0.00617511 -0.01027485
0.00197853 -0.00034242
-0.02348472 0.00298708
0.00295556 -0.00595652
0.00062980 -0.00308750
-0.00114725 -0.00033587
-0.00635049 -0.00027692
-0.00026370 -0.00157684
-0.02198743 -0.00402214
0.00271296 -0.01078597
0.00436524 0.00359024
-0.00162790 -0.00254099
-0.00267579 -0.02584866
-0.00034210 0.00013610
-0.00730913 0.00081817
0.00476256 -0.02454048
0.00021937 0.00297493
0.00527136 -0.00205512
0.00263838 0.00253305
-0.00103440 -0.00691387
-0.00610130 -0.00269857
0.03055397 -0.00619630
-0.00860249 0.01050843
-0.00538315 -0.00716376
0.00506526 -0.01600912
-0.00014701 0.02734618
-0.01021114 -0.01446233
0.01196028 -0.00292969
-0.00701343 -0.01353586
0.03576253 -0.00645107
-0.00999747 0.01940134
-0.00177344 -0.01165993
-0.00616480 -0.01214974
0.00404546 -0.00031226
0.00309059 -0.01842458
-0.01021497 -0.00203857
-0.00518800 -0.00398920
0.00193992 -0.01752829
0.00023975 -0.00049923
-0.00904814 0.02474838
-0.01331910 -0.00182064
0.00973770 -0.00424772
0.00255063 0.00521634
0.00382609 -0.01677566
0.00094575 -0.00114284
-0.01799152 -0.00120446
0.00042468 -0.00254191
-0.00384564 0.00374838
-0.00310362 -0.02565966
-0.00065224 -0.00099670
-0.00627686 -0.00089789
-0.00702982 -0.00155593
-0.00397213 -0.00534726
0.03558780 -0.00769495
-0.00842601 0.01697206
-0.00521179 0.00478661
-0.00642623 -0.00002828
-0.02793749 0.00366266
0.00160781 -0.00601247
0.00118498 0.00014565
-0.00050232 -0.00298526
-0.00170381 0.00037315
-0.02487261 0.00486528
0.00391540 -0.00326570
-0.00043980 0.00075323
-0.00178254 -0.00011636
0.00365977 -0.02380628
-0.00423854 -0.00104970
-0.00549906 -0.00426808
-0.00019518 -0.00265890
0.00123820 -0.00129680
-0.03357079 0.00337875
0.00261909 -0.00526156
0.00097858 -0.00131178
-0.00267763 0.00033396
0.00237068 -0.03033143
0.00396927 0.00109011
-0.01703118 -0.00215569
-0.00511316 -0.01246537
0.00305888 -0.00911943
-0.02027355 -0.00686990
-0.00081995 -0.00305866
-0.00222578 -0.00051633
-0.01766775 0.00074562
-0.00222300 -0.01748024
-0.00082970 0.00531197
0.00644322 0.00293016
-0.00094737 -0.00146006
-0.00327527 -0.01701562
0.01097859 -0.00267124
-0.01210620 -0.00085874
0.00009460 -0.00483410
0.00165924 0.00264608
-0.00070635 -0.02256030
0.00987943 -0.00415207
-0.01005094 -0.00125049
-0.00134361 -0.02621959
0.00396228 0.00421198
-0.00189335 -0.00013400
-0.00172324 0.00195072
0.00145437 -0.01463690
0.03214493 -0.00871175
-0.01648840 0.00825290
-0.00972387 -0.00989622
-0.00003506 -0.00945154
-0.00201058 0.00259416
0.00401910 -0.00252920
-0.02463728 0.00443617
-0.00071239 -0.01035149
-0.00390158 0.00852872
-0.00238451 0.00008555
-0.01528288 -0.01410560
-0.00312082 -0.00334052
0.00163548 -0.00222894
-0.00034072 -0.02531146
0.00544538 -0.00139277
-0.00642110 0.00287828
-0.00019673 0.00061675
-0.00353844 0.00444581
0.00054689 -0.00111955
-0.00423576 -0.02403191
-0.00095454 -0.00105363
-0.00948530 -0.00234819
0.00289057 -0.00188914
-0.00121198 0.00039121
-0.02169242 0.00092599
0.00084722 -0.00714713
-0.00185986 0.00393182
-0.00612503 0.00024977
0.00450851 -0.01435918
0.00183456 0.00335145
-0.00919759 -0.00496251
0.00097432 0.00210058
0.00370318 0.00169199
-0.02762047 0.00198811
0.00132241 -0.00890972
-0.00266618 -0.00093534
0.00121873 -0.00433784
-0.02618315 0.00180618
-0.00405495 -0.00847457
0.00122251 0.00341709
-0.00492915 -0.01057843
-0.00893105 0.03815671
-0.00795507 -0.00867246
0.02463053 -0.00725372
-0.01532383 -0.00145398
0.00077897 -0.00282675
0.00121057 -0.02278422
-0.00343339 0.00533033
-0.00687974 -0.00268827
-0.00330283 -0.00037252
0.00278865 -0.00332001
-0.01982404 -0.00563009
-0.00283100 -0.00925611
-0.00863013 -0.00136166
-0.02217508 0.00224292
-0.00344209 -0.00248359
-0.00068376 0.00271163
-0.00241119 0.00320454
0.00404262 0.01484991
0.00497034 0.00133598
-0.00014262 0.00019742
-0.00022489 0.00037686
-0.00092508 -0.00009774
0.00107938 0.00072658
-0.00143090 0.00256691
0.00005024 -0.00319274
-0.00288389 0.00129271
0.00140647 -0.00017880
0.00015724 -0.00154463
-0.00100156 -0.00114672
0.00017497 -0.00007846
-0.00085129 -0.00142630
0.00201277 0.00080361
0.00161644 0.00293462
0.00271717 0.00437561
-0.00152666 0.00166398
0.00114671 -0.00294061
-0.00184913 0.00044402
-0.00095396 -0.00090067
0.00327122 -0.00050458
-0.00121372 -0.00137593
-0.00240608 0.00003967
-0.00114269 0.00051608
-0.00134672 0.00195780
-0.00127120 -0.00278236
-0.00559385 0.00179776
0.00251259 -0.00064138
0.00368226 0.00213405
0.00082999 -0.00085080
0.00218422 -0.00168181
-0.00038903 -0.00032752
-0.00139022 -0.00217352
-0.00042652 -0.00061445
-0.00094177 0.00001707
0.00564144 0.00454535
0.00272513 0.00553112
0.00881362 0.00459066
0.00044601 0.00508874
-0.00038402 -0.00374589
-0.00258878 0.00058590
-0.00254984 -0.00454265
-0.00164057 -0.00288761
-0.00427665 -0.00295589
0.00906130 0.00700928
-0.00129882 0.00018637
0.00010416 0.00062324
-0.00109335 0.00093657
-0.00014111 0.00139121
-0.00020639 0.00076510
0.00378809 -0.00057099
-0.00055759 -0.00141818
0.00277111 0.00137906
-0.00118419 -0.00020999
-0.00021043 -0.00109632
0.00084561 -0.00055051
-0.00141168 -0.00002044
0.00033030 -0.00112136
0.00020597 0.00077059
0.00041092 0.00152640
0.00035805 -0.00003858
0.00127061 -0.00041692
-0.00094080 -0.00163593
-0.00041017 -0.00394267
-0.00212001 -0.00009409
0.00143127 -0.00523700
-0.00114239 -0.00025529
-0.00024097 -0.00047148
-0.00077641 -0.00075067
-0.00075972 -0.00094080
0.00073388 -0.00010273
0.00293460 0.00239637
-0.00146717 0.00234867
-0.00163603 -0.00208683
-0.00121717 -0.00212063
-0.00208820 -0.00273885
0.00071113 0.00109228
-0.00095088 0.00252398
0.00098922 0.00006145
0.00136180 0.00042580
-0.00103571 -0.00017135
0.00028117 -0.00063234
-0.00059896 -0.00043970
-0.00048870 -0.00066156
0.00046994 -0.00122038
-0.00138704 0.00034541
-0.00011850 -0.00039766
0.00089033 -0.00067158
0.00021568 0.00032603
-0.00135821 -0.00197154
-0.00267900 -0.00062092
-0.00112280 -0.00385653
-0.00334614 -0.00315721
-0.00195762 -0.00156580
-0.00134246 -0.00108213
-0.00022020 -0.00007010
-0.00107566 -0.00008721
-0.00059232 0.00010478
-0.00753469 -0.01019681
0.01749295 0.00098187
-0.00008675 0.00143915
0.00140341 0.00103422
-0.00088941 -0.00149925
0.00146843 0.00012903
-0.00034789 -0.00087120
-0.00076479 -0.00094145
-0.00004816 0.00022956
0.00497956 -0.00321341
-0.00381559 0.01346554
0.00565884 -0.00246396
-0.00103412 0.00344211
0.00573663 0.00501342
-0.00204686 0.00156158
-0.00032989 0.00023226
-0.00067937 -0.00037894
-0.00124228 -0.00308261
-0.00274171 -0.00255522
0.00041708 -0.00069731
-0.00180424 -0.00036620
-0.00083141 -0.00128872
0.00038189 -0.00025894
-0.00137899 -0.00030856
-0.00197702 -0.00126139
0.00317299 -0.00010796
0.00467529 0.00563270
-0.00277657 -0.00115195
-0.00147835 -0.00047464
-0.00314068 -0.00046879
0.00002239 -0.00127688
-0.00138523 -0.00155729
-0.00255228 -0.00243299
-0.00217440 -0.00208151
-0.00127410 -0.00186332
-0.00170942 -0.00106063
0.00002889 -0.00010478
-0.00082579 0.00054408
-0.00031688 -0.00100350
0.00420798 -0.00078662
0.00109633 -0.00260583
-0.00331401 -0.00001925
0.00141171 -0.00048045
0.00099093 -0.00036497
-0.00081422 0.00046583
-0.00072530 -0.00272184
-0.00156586 -0.00176533
-0.00298486 -0.00083400
-0.00206103 -0.00018891
-0.00109178 0.00042536
-0.00020441 -0.00017010
-0.00022313 0.00059145
0.00037316 -0.00039577
0.00051970 -0.00063903
0.00175320 -0.00093064
-0.00037498 -0.00091685
0.00003336 -0.00093224
-0.00104356 -0.00062324
0.00041852 -0.00077499
-0.00118787 0.00004670
-0.00151433 -0.00037712
-0.00008382 -0.00092831
-0.00067277 -0.00061968
-0.00236686 -0.00098268
0.00000350 -0.00201494
-0.00182823 -0.00059828
-0.00047556 0.00013067
0.00054576 0.00806899
0.00953674 -0.00081262
0.00010207 -0.00026084
0.00072683 -0.00097757
0.00008142 0.00288728
0.00012512 0.00177724
0.00138491 -0.00094539
-0.00060301 0.00030416
-0.00542536 -0.00442741
0.00039344 -0.00041854
-0.00010830 -0.00004358
0.00012815 -0.00033217
-0.00048717 0.00031471
0.00021068 -0.00075435
-0.00113878 0.00062803
0.00016286 0.00648480
0.00472924 0.00311912
0.00554494 0.00356953
0.00312567 0.00071210
-0.00286100 -0.00071138
-0.00229362 0.00060158
-0.00062150 0.00186832
0.00092601 0.00041569
-0.00195723 -0.00295689
-0.00076795 0.00242525
-0.00366122 -0.00274600
-0.00046194 -0.00398336
-0.00243377 -0.00227351
-0.00243404 0.00033465
-0.00032089 -0.00172172
-0.00081962 0.00026220
-0.00177217 -0.00018570
-0.00097986 0.00322191
-0.00102478 0.00816736
-0.00119312 -0.00481089
0.00706828 0.00657640
-0.00329877 -0.00270857
-0.00005328 0.00016327
-0.00119615 0.00047632
-0.00015387 -0.00065852
-0.00055676 0.00070537
-0.00235029 -0.00200008
0.00057962 0.00362129
0.00348781 0.00222139
0.00489242 0.01011508
0.00469154 -0.00060787
-0.00171287 -0.00062317
-0.00119218 0.00004212
0.00013358 -0.00094253
-0.00093715 -0.00088437
-0.00034799 -0.00259983
0.00075534 -0.00032099
-0.00016459 -0.00029382
-0.00103918 -0.00081846
-0.00059830 0.00053480
0.00088371 0.00035266
-0.00054293 -0.00044289
0.00015258 -0.00035003
-0.00034976 -0.00013312
-0.00134769 -0.00164399
-0.00117351 -0.00158529
-0.00331256 -0.00132931
-0.00161740 0.00090746
-0.00007062 -0.00157541
-0.00152870 -0.00179965
-0.00154081 -0.00098281
-0.00181205 0.00002197
-0.00155695 -0.00111824
-0.00278548 -0.00232104
0.00125704 -0.00473212
-0.00508743 0.00077808
-0.00280214 -0.00357585
-0.00072348 -0.00009238
-0.00093846 -0.00214496
-0.00012778 0.00076416
-0.00032680 0.00003289
-0.00102244 -0.00018160
0.00092769 -0.00123701
0.00075245 -0.00125059
-0.00051859 0.00018834
-0.00028880 -0.00092230
0.00061089 0.00064578
0.00203617 -0.00124173
0.00011527 -0.00005146
-0.00019927 0.00014987
-0.00005656 -0.00003658
-0.00085908 -0.00034392
-0.00102360 -0.00034239
-0.00074348 -0.00082772
0.00036795 -0.00042553
-0.00072228 -0.00104311
-0.00114946 0.00010733
0.00113803 0.00033402
0.00018095 0.00071158
-0.00013390 -0.00095851
-0.00030829 -0.00141363
0.00333954 0.00068262
-0.00276515 0.00075746
0.00022893 -0.00327594
-0.00343315 -0.00175534
0.00075700 0.00042361
-0.00021841 -0.00028302
0.00106590 0.00059597
-0.00217600 -0.00122077
-0.00125219 -0.00187499
0.00057980 0.00078864
-0.00029184 0.00025672
-0.00069825 -0.00204705
-0.00007104 0.00060404
-0.00037639 -0.00041335
-0.00123335 -0.00016521
-0.00000922 -0.00052935
0.00009935 -0.00001029
-0.00186878 -0.00174627
0.00019269 -0.00042277
0.00038987 0.00049495
-0.00040078 -0.00021956
0.00020647 0.00442028
0.00911877 -0.00085325
-0.00049329 0.00107159
0.00076571 0.00016987
-0.00003369 -0.00005990
-0.00006079 -0.00158714
-0.00019805 -0.00059627
-0.00173125 -0.00227809
0.00092184 -0.00064842
-0.00148650 -0.00237684
-0.00050096 -0.00048715
0.00468289 0.00332019
-0.00064860 0.00084744
-0.00044836 -0.00015667
-0.00329692 -0.00241240
0.00123680 0.00263822
-0.00313489 0.00393322
0.00108205 -0.00445122
-0.00207610 0.00018747
-0.00137603 -0.00025624
-0.00111751 -0.00010212
0.00027666 0.00002091
0.00020982 -0.00023724
-0.00191912 -0.00094321
0.00008586 -0.00380012
-0.00342184 -0.00106335
-0.00239095 -0.00172691
-0.00155127 -0.00502048
-0.00469043 -0.00104990
-0.00178120 -0.00632783
0.00617184 0.01086328
0.00306617 -0.00044504
-0.00299538 0.00001391
0.00067568 -0.00113953
-0.00005576 0.00049601
0.00019929 0.00088755
0.00000497 0.00152667
0.00211877 0.00044535
0.00010561 -0.00043382
-0.00000782 0.00082638
-0.00071779 0.00018255
-0.00186939 -0.00295544
-0.00032753 0.00080267
0.00070935 0.00028537
0.00006714 0.00076270
-0.00042225 -0.00084446
0.00078142 -0.00172221
0.00198241 -0.00009778
-0.00135568 -0.00091971
0.00086404 -0.00012839
0.00460225 0.00057440
0.00034155 0.00101965
0.00143077 -0.00034656
0.00133045 -0.00058678
0.00038222 -0.00162461
-0.00162275 -0.00025435
-0.00397928 -0.00191213
-0.00144198 -0.00491143
-0.00315275 -0.00300159
-0.00080866 -0.00082991
0.00170689 -0.00169283
-0.00122107 -0.00031944
0.00011197 0.00024290
0.00041194 -0.00239125
-0.00207658 -0.00039944
-0.00068393 -0.00053406
-0.00008394 -0.00027282
-0.00069526 0.00024785
-0.00236977 -0.00292088
-0.00168282 -0.00113416
-0.00154018 0.00036059
0.00013604 -0.00225912
-0.00132230 0.00068730
-0.00044046 0.00083952
-0.00193208 -0.00030501
-0.00057841 -0.00150727
-0.00362098 -0.00187203
-0.00108699 -0.00124908
-0.00094463 -0.00107828
0.00159496 0.00094983
0.00005862 0.00007943
-0.00021856 -0.00228083
-0.00137014 -0.00051368
0.00049844 0.00015145
0.00084047 -0.00217037
-0.00104279 0.00099259
-0.00078004 -0.00009411
0.00043201 0.00073909
-0.00010199 0.00028709
0.00017936 -0.00091028
0.00005242 0.00152789
-0.00149736 -0.00069807
-0.00024415 -0.00038283
-0.00034499 0.00048855
0.00123278 -0.00057734
-0.00128601 -0.00116108
-0.00047061 0.00078329
0.00159320 -0.00059364
0.00028768 0.00010788
0.00029673 -0.00159879
0.00304541 0.00012336
-0.00061702 0.00130386
0.00207674 -0.00032616
-0.00361181 -0.00305355
-0.00090423 -0.00120565
-0.00155370 -0.00109216
-0.00014753 -0.00047970
-0.00103089 -0.00078199
-0.00079663 -0.00129648
-0.00309308 -0.00097607
0.00029542 -0.00037355
0.00028592 -0.00083017
-0.00033204 0.00046261
-0.00122575 -0.00109223
0.00068895 -0.00195677
0.00412227 0.00131248
0.00118289 0.00102503
0.00032973 -0.00163087
0.00024516 -0.00074051
-0.00085224 -0.00055941
0.00030355 -0.00125200
-0.00126805 0.00048089
0.00022049 0.00012873
0.00162883 0.00109608
-0.00029856 0.00033979
-0.00088029 -0.00007213
0.00075443 -0.00053948
0.00072046 0.00042685
-0.00074083 0.00156748
0.00180112 0.00034979
-0.00009950 -0.00038009
-0.00165488 0.00091375
-0.00039754 0.00013009
-0.00049708 -0.00039347
-0.00101392 0.00023293
-0.00058082 -0.00222066
0.00085964 -0.00110068
-0.00136243 0.00009235
0.00033480 0.00015877
0.00095647 0.00047352
-0.00131039 -0.00126345
-0.00073765 0.00085856
-0.00079270 -0.00325132
-0.00279731 -0.00524090
-0.00386318 0.00012809
-0.00027545 0.00010294
0.00119021 -0.00119616
