-0.00213197 0.00228795
0.00020451 -0.00367770
0.00034077 -0.00124816
0.00522905 0.00848651
0.00906414 -0.00087028
0.00042880 -0.00239762
0.00396393 0.00318036
0.00337937 0.00402057
0.00343421 0.00429749
-0.00375986 -0.00351708
-0.00371610 -0.00143759
-0.00098619 -0.00118897
-0.00167584 -0.00364328
-0.00122174 0.00063017
0.00777244 0.00726547
0.00517233 0.00870492
0.00865086 0.00537253
0.00777988 0.00834254
0.00369478 0.00512338
0.00592152 0.00429831
0.00430945 0.00542842
0.00326393 0.00398303
0.00405253 0.00258086
0.00336263 0.00255709
0.00071503 0.00253483
0.00169798 0.01031033
0.01015608 0.00948199
-0.00457202 -0.00371244
-0.00959373 -0.00029921
-0.00248904 -0.00202719
-0.00043623 -0.00132175
-0.00071668 -0.00879527
-0.01016251 -0.01047559
-0.00937276 -0.00946778
-0.01072211 -0.00771226
-0.00903198 -0.00978264
-0.00114685 -0.00120460
-0.00330663 -0.00196592
-0.00221945 -0.00329307
-0.00240986 -0.00175893
-0.00236003 -0.00686738
0.00824756 -0.00660151
-0.00640162 0.01027294
-0.00331648 -0.00340092
0.00990452 -0.00004614
-0.00527870 -0.00620627
-0.00683376 -0.00599016
-0.00598852 -0.00714072
-0.00712392 -0.00773649
-0.00871016 0.01677824
0.01762557 0.01697703
0.00903880 0.00534429
0.00817871 0.00666172
0.00375834 0.00874583
0.00846321 0.00720574
0.00678202 0.00763984
0.00767415 0.00775005
0.00697874 0.00726671
0.00682794 0.00877646
0.00894221 0.00972209
0.00985873 0.00945056
0.01011348 0.00472555
0.00472049 0.00613457
-0.00465274 -0.00537147
-0.01162568 -0.00115357
-0.00335357 -0.00470761
-0.00263186 -0.00344564
-0.00441499 -0.00029639
-0.00139168 -0.00124079
0.00409020 0.00365079
0.00376858 0.00376339
0.00367831 0.00348408
-0.00028400 -0.00056410
0.00015202 0.00042941
0.00058215 0.00082409
0.00079546 0.00042450
0.00070502 -0.00186823
-0.00242092 -0.00193014
-0.00194241 -0.00126823
-0.00204080 -0.00239755
-0.00129571 -0.00259111
0.00048047 -0.00177744
-0.00319240 -0.00040283
0.00192879 -0.00158983
0.00013518 -0.00001987
-0.00058260 -0.00045302
-0.00020635 -0.00165103
-0.00195565 -0.00277006
-0.00279899 -0.00327248
-0.00275119 -0.00281085
0.00154483 0.00192181
0.00107098 0.00180426
0.00196932 0.00203878
0.00258475 0.00287645
0.00257324 -0.00410120
-0.00338797 -0.00390877
-0.00419586 -0.00372107
-0.00397587 -0.00108107
-0.00185022 -0.00320699
0.00000000 0.00000000
-0.00000000 -0.00000000
-0.00000000 -0.00000000
-0.00000000 -0.00000000
-0.00000000 0.00134144
0.00053990 0.00192218
0.00000539 0.00009901
0.00032243 0.00039454
0.00026394 0.00025334
-0.00362472 -0.00377946
-0.00409706 -0.00305555
-0.00392883 -0.00372436
-0.00352579 -0.00384065
-0.00380133 0.00115638
0.00193233 0.00195699
-0.00035546 0.00162108
-0.00083337 0.00212573
0.00198289 0.00338660
-0.00000000 -0.00000000
-0.00000000 -0.00000000
-0.00000000 -0.00000000
-0.00000000 -0.00000000
-0.00000000 0.00300335
0.00298271 0.00275218
0.00104180 0.00100401
0.00218168 0.00272568
0.00141488 0.00159333
-0.00299649 -0.00264461
-0.00297524 -0.00302150
-0.00240002 -0.00301378
-0.00385993 -0.00355635
-0.00438428 -0.00060149
0.00035966 0.00008990
-0.00032344 -0.00004309
-0.00005501 -0.00074265
-0.00073464 -0.00047015
-0.01453000 -0.01655175
-0.01613490 -0.01661818
-0.01603861 -0.01615600
-0.01425083 -0.01437483
-0.01417892 0.00188667
0.00092372 0.00307929
0.00563285 0.00531328
0.00650527 0.00573157
0.00616861 0.00686763
0.00461829 0.00504776
0.00527769 0.00477577
0.00546038 0.00426124
0.00448414 0.00442418
0.00483092 0.00204190
0.00205863 -0.00270872
0.00328084 0.00282717
0.00066552 0.00224321
0.00128088 -0.00013121
0.00400563 0.00425978
0.00368601 0.00079727
0.00012984 0.00065106
0.00006033 -0.00034468
0.00089918 0.00143956
0.00055142 0.00161821
0.00039356 0.00098394
0.00086109 0.00508847
0.00406497 0.00534674
0.00299735 0.00434859
0.00255901 0.00145916
0.00091201 0.00092537
0.00190542 0.00022986
-0.00116992 0.00712038
-0.00772629 -0.00467278
0.00369719 -0.00657286
-0.01118193 0.00092673
-0.00760537 -0.00815456
0.00797607 0.00737024
0.00875717 0.00892577
0.00765750 0.00888254
0.00511505 0.00483070
0.00542588 -0.00120681
0.00060834 0.00113668
0.00001152 -0.00178452
-0.00089886 0.00449756
0.00407645 0.00564262
-0.00100539 0.00005526
0.00007623 -0.00080037
-0.00279901 -0.00223302
-0.00280083 -0.00299551
-0.00299368 -0.00606287
-0.00574536 -0.00539478
-0.00464809 -0.00399612
-0.00391721 -0.00482845
-0.00333988 -0.00412523
-0.00313299 -0.00250128
-0.00210700 -0.00177328
-0.00188596 -0.00001013
-0.00192397 0.00013432
0.00234995 -0.00005011
-0.00017772 0.00182518
0.00370632 0.00380469
0.00467196 0.00297975
0.00321153 0.00312451
-0.00014379 -0.00058854
-0.00083364 -0.00032685
0.00132972 -0.00008302
-0.00400044 -0.00294368
-0.00501984 0.00646760
0.00566829 0.00886583
-0.00045039 0.00158277
-0.00012125 -0.00092473
0.00183270 -0.00014059
-0.00041586 0.00109105
-0.00131604 -0.00233326
-0.00328511 -0.00119916
-0.00193224 -0.00221693
0.00053642 -0.00487714
-0.00589230 -0.00548634
-0.00497506 -0.00446788
-0.00533131 -0.00279312
-0.00310417 -0.00453734
0.00515245 0.00704189
0.00694937 0.00059711
0.00006356 0.00081995
-0.00054895 -0.00111474
-0.00033008 0.00647341
0.00729949 0.00890397
0.00080456 0.00197881
0.00049886 0.00106731
0.00222698 0.00128179
0.00325601 0.00432427
0.00385573 0.00238896
0.00093259 0.00239558
0.00181879 0.00149706
0.00268000 -0.00031959
-0.00144239 -0.00084839
-0.00207356 -0.00205636
-0.00165924 0.00076247
-0.00128757 -0.00021004
-0.00000000 -0.00000000
-0.00000000 -0.00000000
-0.00000000 -0.00000000
-0.00000000 -0.00000000
-0.00000000 -0.00190811
0.00653309 0.00315384
-0.00268567 0.00400436
0.00247983 -0.00211679
0.00464006 0.00127726
0.00141335 0.00190192
-0.00022028 0.00343554
0.00363950 0.00136851
0.00294742 0.00247531
0.00077108 -0.00292816
-0.00257983 -0.00340526
-0.00240638 -0.00270305
-0.00326209 -0.00198118
-0.00141393 -0.00233053
-0.00126130 0.00052486
0.00005151 -0.00274481
-0.00056013 0.00007439
-0.00205166 -0.00028578
-0.00124418 0.00000000
0.00000000 -0.00000000
0.00000000 0.00000000
0.00000000 0.00000000
0.00000000 0.00000000
-0.00272588 -0.00251987
-0.00189236 -0.00160143
0.00398318 0.00400750
-0.00055405 0.00377771
0.00192649 0.00192571
-0.00394592 0.00096023
0.00046451 -0.00740166
0.00132579 -0.00101194
-0.00743654 0.00128938
0.00011132 -0.00178706
-0.00035309 0.00609928
0.00834197 0.00331123
0.01085401 0.00940598
0.00643621 0.00882464
-0.01105671 0.00075317
0.00951589 -0.03726425
0.00075525 0.00636859
-0.00631434 0.00075391
-0.00845642 -0.00917298
-0.01121470 -0.00406588
-0.00416709 -0.00448773
-0.00422219 -0.00324810
-0.00449354 -0.00116554
-0.00206221 -0.00374094
-0.00185128 -0.00223757
-0.00439560 0.00558571
0.00410097 0.00445416
0.00290685 0.00330739
0.00269138 0.00243393
0.00263533 0.00166530
0.00394338 0.00390148
0.00311815 -0.01855576
-0.01828015 -0.01651549
-0.01042159 -0.01091464
-0.01058932 -0.01234002
-0.01352928 -0.01250704
0.00321454 0.00434899
0.00722640 -0.00285750
0.00043038 0.00093001
-0.00222662 0.00019524
0.00088119 -0.00000000
-0.00000000 -0.00000000
0.00000000 -0.00000000
0.00000000 -0.00000000
-0.00000000 0.00000000
-0.00517656 -0.00405070
-0.00838521 0.00075417
0.00055325 0.00186676
0.00125151 0.00112210
0.00255419 0.00831030
0.00720656 0.01074921
0.00902534 0.00949774
0.00998041 0.01219314
0.01145818 0.01275576
0.00044694 -0.00410841
-0.00169185 0.00346972
-0.00399975 -0.00205783
0.00152148 -0.00553278
-0.00417838 -0.00606163
-0.00594351 -0.00684461
-0.00446019 -0.00376615
-0.00472476 -0.00497931
-0.00369017 -0.00497112
-0.00880832 -0.00852997
-0.00963653 -0.00627753
-0.00610295 -0.00617785
-0.00674306 -0.00586674
-0.00689166 -0.00065517
-0.00162600 -0.00172553
-0.00108820 -0.00110827
-0.00280231 -0.00119420
-0.00212418 -0.00250491
-0.00049971 -0.00097380
-0.00220402 -0.00204377
-0.00173084 -0.00329380
0.00092364 0.00060104
-0.00016575 -0.00258240
-0.00014290 -0.00281817
-0.00059607 0.00074860
-0.00119112 -0.00065972
0.00041545 -0.00134212
-0.00753174 -0.00873695
-0.00957290 -0.00860396
-0.00842307 -0.01027878
-0.00774439 -0.00728087
-0.00695805 0.00018346
0.00060105 0.00220131
0.00145123 0.00034538
0.00396221 -0.00082262
0.00188966 0.00467840
0.00020117 -0.00020357
0.00024845 -0.00139690
0.00415410 0.00005343
-0.00138284 0.00371447
0.00417068 0.02611015
0.00470544 -0.00421176
0.00748010 -0.00023591
-0.00232028 0.01024319
0.00134434 -0.00056229
-0.00189300 -0.00203270
-0.00226752 -0.00237692
-0.00175146 -0.00006230
-0.00213577 -0.00145341
-0.00114971 -0.00289945
-0.00243006 -0.00275780
-0.00206225 -0.00219948
-0.00202966 -0.00280222
-0.00293005 -0.00160090
-0.01149062 -0.01201524
-0.01240755 -0.01203906
-0.01244737 -0.01342535
-0.00857554 -0.00903655
-0.01000009 -0.00303302
-0.00329752 -0.00358712
-0.00300033 -0.00207573
-0.00176976 -0.00403558
-0.00428656 -0.00323198
0.00037791 0.00148036
0.00156797 -0.00024028
0.00093607 -0.00103439
-0.00276974 -0.00310571
-0.00344027 0.00335612
0.00027230 0.00101765
0.00314368 0.00092576
0.00072212 0.00198011
-0.00005492 -0.00178313
-0.00226565 -0.00225014
-0.00247916 -0.00202323
-0.00050727 -0.00079847
-0.00316577 -0.00277772
-0.00175597 0.00604109
-0.01588290 -0.00791118
0.00422932 -0.01080365
-0.00313237 0.00196594
-0.00815088 -0.00429769
-0.00457251 -0.00530005
-0.00612283 -0.00364987
-0.00340708 -0.00402444
-0.00437496 -0.00322182
-0.00421829 0.00180356
0.00144161 0.00307418
0.00036268 0.00071097
0.00116492 0.00068426
0.00079207 0.00109503
-0.01153795 -0.01194897
-0.01404183 -0.00890821
-0.01004250 -0.01013379
-0.00932258 -0.00928788
-0.01058797 -0.00246583
-0.00240266 -0.00225890
-0.00194661 -0.00309722
-0.00132538 0.00291687
0.00192955 0.00137828
-0.00074456 0.00108430
0.00238559 -0.00156034
-0.00017322 0.00169074
-0.00024791 0.00065619
0.00296272 -0.00617844
-0.00543660 -0.00593966
-0.00256000 -0.00571421
-0.00197782 -0.00538867
-0.00502839 -0.00527763
0.00572691 0.00291253
0.00345663 0.00256382
-0.00037653 -0.00014874
0.00230891 -0.00167584
0.00089876 -0.00868508
-0.01002799 -0.01157740
-0.00280812 -0.00395271
-0.00386843 -0.00484907
-0.00557518 -0.00649891
0.00188746 0.00175439
0.00076562 0.00265268
0.00184883 0.00094685
0.00372014 0.00352523
0.00149088 0.00344637
0.00401484 0.00255236
0.00025087 0.00179272
-0.00013811 0.00212356
0.00168535 0.00100417
-0.00217947 -0.00157992
-0.00289504 -0.00247595
-0.00183149 -0.00236492
-0.00338961 -0.00283234
-0.00325199 -0.00074539
-0.00031406 0.00030509
-0.00036562 -0.00069071
0.00047145 -0.00257285
-0.00136795 -0.00168692
0.00115986 0.00124237
0.00328211 0.00049613
0.00141773 0.00330405
-0.00048481 -0.00171611
-0.00100418 -0.01691597
-0.01620647 -0.01756430
-0.01616786 -0.01588065
-0.01757773 -0.02044636
-0.02078640 -0.01901679
-0.00833955 -0.00889409
0.00026424 -0.00249125
-0.00357052 0.00161493
-0.00187915 -0.00211643
0.00283770 -0.00134683
-0.00122778 0.00101461
0.00019402 -0.00024040
0.00187711 -0.00289979
-0.00202506 0.00021192
-0.00304691 -0.00389135
-0.00423353 -0.00184659
-0.00236489 -0.00269020
-0.00195899 -0.00257093
-0.00281610 0.00133910
-0.00830396 -0.00773090
0.00237723 -0.00745123
-0.00555665 0.00013857
-0.00623183 -0.00758316
-0.00172404 -0.00054341
0.00185955 -0.00564551
-0.00210898 0.00095772
0.01049845 0.01100405
0.01371952 -0.00475443
-0.00377209 -0.00573103
-0.00354366 -0.00246600
-0.00297530 -0.00313829
-0.00285277 -0.00367570
-0.00198803 -0.00253335
0.00121806 -0.00274143
-0.00293351 -0.00100079
-0.00344032 -0.00292423
-0.00127329 0.01203759
0.01123180 0.01210259
0.01132021 0.01125483
0.01170916 0.00934588
0.00922389 0.00888863
0.00309194 0.00337711
0.00351541 0.00313682
0.00381458 0.00404259
0.00471750 0.00461553
0.00403410 -0.01098573
-0.00966222 -0.01220071
-0.01067764 -0.00891928
-0.00867345 -0.01333731
-0.01202815 -0.01327513
0.00228348 0.00247534
0.00214800 0.00210874
0.00225836 0.00178296
0.00174719 0.00205320
0.00159708 0.00258506
0.01227991 0.01262775
0.00266077 0.01075796
0.01020264 0.00218822
0.01037680 0.00984986
-0.00057707 -0.00316455
-0.00291727 -0.00063196
-0.00116785 -0.00370752
0.00539309 0.00393202
-0.00148346 0.00290882
0.00255294 0.00423648
0.00074937 0.00069090
0.00206076 -0.00046729
-0.00046956 0.00095710
0.00711455 0.00768156
0.00293255 0.00527762
0.00617164 0.00274768
0.00650962 0.00771879
0.00369019 -0.00727951
-0.00723422 -0.00839515
-0.00719599 -0.00689357
-0.00757784 -0.01029549
-0.01040648 -0.01002957
0.00000000 0.00000000
0.00000000 -0.00000000
-0.00000000 0.00000000
-0.00000000 -0.00000000
0.00000000 -0.01689729
-0.01470929 -0.01156310
-0.01192184 -0.00906603
-0.00558950 -0.02084206
-0.01001857 -0.00714621
-0.00577005 -0.00492270
-0.00557179 -0.00387926
-0.00226690 -0.00210584
-0.00301919 -0.00194039
-0.00161730 0.00501090
0.00423970 0.00543385
0.00144135 0.00055705
0.00154242 0.00275211
0.00251862 0.00551022
0.00000000 0.00000000
0.00000000 0.00000000
0.00000000 0.00000000
0.00000000 0.00000000
0.00000000 -0.00166938
-0.00163664 -0.00169411
0.00080564 0.00045238
0.00029090 -0.00516824
-0.00319654 -0.00465493
-0.00821737 -0.00749021
-0.00773227 -0.00817350
-0.00842962 -0.00852491
-0.01085820 -0.00997649
-0.01117248 -0.00285922
-0.00258857 -0.00265827
-0.00202409 -0.00133063
-0.00041431 -0.00214850
-0.00130724 -0.00070343
-0.00129657 -0.00104395
0.00014208 -0.00175808
-0.00137190 -0.00075946
0.00742316 0.00662392
0.00844399 0.00476780
0.00418828 0.00412530
0.00770351 0.00732608
0.00885331 0.00707958
0.00689927 0.00918865
0.01227306 0.01141093
0.01202097 0.01210309
0.01181871 0.01198568
0.00888106 0.00898195
0.00833527 -0.00658281
-0.00599307 -0.00288819
-0.00888294 -0.00933688
-0.00751752 -0.00851054
-0.00885304 -0.00730598
-0.00249871 -0.00225216
-0.00370775 -0.00250505
-0.00234565 -0.00271562
-0.00233585 -0.00216892
-0.00280896 -0.00090988
-0.00053599 0.00039018
-0.00166763 -0.00111447
-0.00076398 0.00176768
0.00027460 0.00194836
-0.00324715 -0.00325494
-0.00309537 -0.00324606
-0.00268097 -0.00224237
-0.00313470 -0.00274349
-0.00209839 -0.00215945
0.00233631 -0.00003708
-0.00195052 0.00130626
0.00200550 -0.00035051
0.00312551 0.00129311
0.00312151 0.00261721
0.00203908 0.00000253
0.00136852 0.00090222
-0.00248209 -0.00222167
-0.00138939 0.00392174
0.00361817 0.00454746
0.00017165 0.00026911
-0.00090933 0.00113281
-0.00008178 0.00037797
-0.00096197 0.00347597
0.00153233 -0.00106652
0.00313178 0.00062767
-0.00018078 0.00263606
0.00132325 -0.00534685
-0.00429020 -0.00555807
-0.00570147 -0.00500023
-0.00534746 -0.00617469
-0.00568986 -0.00597375
-0.00138808 -0.00201310
-0.00010620 -0.00225988
-0.00203514 0.00014711
-0.00315985 -0.00412064
-0.00607895 0.00340250
0.00318606 0.00308153
0.00350149 0.00339462
0.00342014 0.00353752
0.00338816 0.00330279
-0.00568698 -0.00378863
-0.00212198 0.01072182
0.00747345 0.00538462
0.01048358 0.00811927
0.00859067 -0.01432453
-0.01450531 -0.01212534
-0.01348757 -0.01374291
-0.01250203 -0.01255408
-0.01265901 -0.01145568
0.00491898 0.00653174
0.00400974 0.00188831
0.00323208 0.00173007
-0.00048751 0.00146477
0.00035227 -0.00636758
-0.00686500 -0.00821049
-0.00650872 -0.00697045
-0.00764167 -0.00973824
-0.00963885 -0.00976496
0.00313080 0.00342566
0.00409344 -0.00013370
-0.00002128 0.00207769
-0.00010842 -0.00010104
0.00143203 -0.01595856
-0.01774468 -0.01463235
-0.01474801 -0.01584798
-0.01299369 -0.01245130
-0.01436744 -0.01117154
0.00265994 0.00266884
0.00318584 0.00031317
0.00060232 -0.00002095
0.00062935 0.00066977
0.00049677 -0.00335013
-0.00269488 -0.00208251
-0.00099808 -0.00277235
-0.00296460 -0.00128740
-0.00399829 -0.00446307
-0.00000000 -0.00000000
-0.00000000 -0.00000000
-0.00000000 -0.00000000
-0.00000000 -0.00000000
0.00000000 -0.00030819
0.00147838 0.00064087
-0.00204900 0.00469160
0.00476284 -0.00345191
0.00307598 0.00433230
-0.01756255 -0.01806564
-0.01403053 -0.01482343
-0.01543798 -0.01096369
-0.01275424 -0.01382700
-0.00931395 -0.00237002
-0.00231168 -0.00312547
-0.00237541 -0.00227698
-0.00327495 -0.00372080
-0.00334382 -0.00471493
-0.00435869 -0.00244613
-0.00178907 -0.00123043
-0.00141630 -0.00216163
-0.00236734 -0.00150111
-0.00173235 -0.00000000
-0.00000000 -0.00000000
-0.00000000 0.00000000
-0.00000000 -0.00000000
0.00000000 -0.00000000
-0.00266908 -0.00192379
-0.00165412 -0.00298490
-0.00260634 -0.00198495
-0.00281608 -0.00130959
-0.00078288 -0.00103099
0.00049886 -0.00175825
-0.00226409 0.00251520
-0.00079650 0.00239530
0.00477382 -0.00082959
-0.00144208 -0.00163283
-0.00272478 -0.00110200
-0.00114831 -0.00105743
-0.00392215 -0.00322920
-0.00240740 -0.00039425
-0.00084783 0.00120298
-0.00113013 -0.00079460
0.00087761 -0.00127981
-0.00138206 0.00089463
-0.00440543 -0.00427939
-0.00469329 -0.00580777
-0.00493367 -0.00626441
-0.00692746 -0.00527412
-0.00625337 -0.00166285
-0.00107286 0.00106824
-0.00018429 -0.00039785
0.00182203 -0.00716954
-0.00524987 -0.00512568
0.00030496 0.00030207
0.00256569 -0.00071238
-0.00101301 0.00096863
0.00672595 0.00712864
0.00257959 0.00436338
0.00409754 0.00336216
0.00510829 0.00523099
0.00391378 0.00435085
0.00463271 0.00330890
0.00052637 0.00128841
0.00017954 0.00223883
0.00222547 0.00021241
0.00109871 0.00149549
0.00045709 -0.00000000
0.00000000 0.00000000
0.00000000 0.00000000
0.00000000 0.00000000
0.00000000 -0.00000000
-0.00272305 -0.00293888
-0.00363726 -0.00371391
-0.00396368 -0.00484810
-0.00140836 -0.00353330
-0.00415704 0.00460372
0.00438826 0.00395695
0.00262607 0.00211330
0.00075837 0.00096659
0.00101008 0.00104984
0.00060806 -0.00032389
0.00493603 0.00186106
-0.00090875 0.00424602
0.00163704 -0.00491203
-0.00125809 0.00641465
0.00566399 0.01009171
0.00057287 0.00016622
0.00228115 -0.00135168
-0.00002820 0.00269806
-0.00368426 -0.00301412
-0.00425261 -0.00415861
-0.00324065 -0.00409187
-0.00489899 -0.00467148
-0.00529370 -0.00088186
-0.00168492 -0.00168137
-0.00087237 -0.00166502
-0.00107084 -0.00074969
-0.00160635 -0.00115843
0.00122915 0.00163933
0.00318230 0.00097571
0.00134579 0.00246890
0.00460558 0.00405408
0.00450814 0.00097003
0.00140061 0.00373175
-0.00001901 -0.00065110
0.00129750 0.00031472
0.00005159 0.00243737
-0.00027664 -0.00071153
-0.00060541 -0.00167075
-0.00135279 -0.00216348
0.00410044 0.00394576
0.00483041 -0.00138543
-0.00135789 -0.00331526
-0.00131500 -0.00203493
-0.00380026 -0.00135207
-0.00122122 -0.00086629
0.00028930 0.00575552
0.00513650 0.00487161
0.00763245 0.00727033
0.00276778 0.00637985
0.00642244 0.01574246
0.00281700 0.00085848
0.00984822 -0.00028114
-0.00063216 0.01563081
0.00376683 -0.00132103
-0.00413618 -0.00490403
-0.00635650 -0.00131062
0.00001543 -0.00214854
-0.00310365 -0.00342995
-0.00190974 -0.00117938
-0.00168476 -0.00044058
0.00754695 0.00696761
0.00339241 0.01111430
0.00859209 0.00457299
-0.01144588 -0.01194525
-0.01018700 -0.01066163
-0.01094278 -0.00986050
-0.00901247 -0.00973730
-0.00929781 -0.00120074
-0.00067721 -0.00252202
-0.00107990 -0.00126011
-0.00207311 -0.00078681
0.00096835 -0.00048760
-0.00089231 -0.00086364
0.00020534 -0.00109018
-0.00153686 -0.00046559
0.00029829 0.00021492
0.00083084 -0.00298446
0.00591050 0.00181397
-0.00374523 0.00318323
0.00293184 -0.00232276
0.00607764 0.00564246
-0.00150151 -0.00098035
-0.00244147 -0.00187567
-0.00193648 -0.00227151
-0.00136912 -0.00017987
-0.00065223 -0.00173349
0.00383937 0.00288803
-0.00141073 0.00289378
0.00190445 -0.00123778
0.00276387 0.00150776
0.00988262 0.00991284
0.01391169 0.00418591
0.00394912 0.00504618
0.00274783 0.00395550
0.00574079 0.00192944
0.00190123 0.00171931
0.00152108 0.00148210
0.00130463 0.00128446
0.00142712 0.00124723
0.00334651 0.00380806
0.00283360 0.00176570
0.00175066 0.00108839
0.00119384 0.00115499
0.00038634 -0.00236060
-0.00164975 -0.00196930
-0.00009482 -0.00213682
-0.00357617 -0.00581886
-0.00511936 0.00015467
-0.00121574 -0.00040242
-0.00321169 0.00264868
0.00321986 0.00011539
0.00312973 0.00281988
0.00075400 0.01507635
0.01399326 0.01496684
0.01547735 0.01459465
0.01587322 0.01398491
0.01411951 0.01303735
0.00602893 0.00289179
0.00460955 0.00125553
0.00015693 0.00082124
0.00172118 -0.00086486
-0.00037597 0.01120578
0.00936045 0.00873653
0.00315122 0.00198513
0.00174213 0.00156826
0.00067272 0.00118181
-0.01088524 -0.01141860
-0.01036657 -0.01007436
-0.01123329 -0.00983496
-0.00667390 -0.00817723
-0.00686112 -0.01475793
-0.01541205 -0.01439155
-0.01133098 -0.01063793
-0.00976645 -0.00935661
-0.00950300 -0.00789945
0.01176486 0.01132334
0.01115972 0.00380595
0.00338739 0.00304423
0.00820793 0.00305932
0.00309197 -0.00020658
0.00065684 0.00118257
-0.00008598 0.00225882
0.00191642 -0.00318088
-0.00167625 -0.00143544
0.00199893 0.00219411
0.00171649 0.00117786
0.00241425 0.00166567
-0.00178277 -0.00257956
-0.00307650 -0.01683972
-0.01665550 -0.01671807
-0.01660398 -0.01715368
-0.01712766 -0.01850069
-0.01880021 -0.01815511
0.00377823 0.00399029
0.00465650 0.00134175
0.00135383 0.00068284
0.00256533 0.00135294
0.00067922 -0.01150745
-0.01116431 -0.00958953
-0.01066059 -0.01020853
-0.00904130 -0.01410337
-0.01321433 -0.01281610
-0.00335990 -0.00450342
-0.00424195 -0.00254345
-0.00294645 -0.00328250
-0.00201787 -0.00283660
-0.00299083 0.00138298
-0.00554354 -0.00574727
0.00247639 -0.00435906
-0.00272619 -0.00032059
-0.00227079 -0.00161690
-0.00757487 -0.00743955
-0.00801523 -0.00804572
-0.00779930 -0.00847910
-0.00656594 -0.00650064
-0.00658084 -0.00740557
-0.00739310 -0.00775659
-0.00398226 -0.00365385
-0.00344628 -0.00421140
-0.00432562 -0.00375984
-0.00111312 -0.00161121
-0.00134125 -0.00074517
-0.00106780 -0.00087882
0.00100005 -0.00038376
-0.00098260 0.01270587
0.01162391 0.01142056
0.01177793 0.01167242
0.01097310 0.01016527
0.00991581 0.00960037
0.00535767 0.00495520
0.00588335 0.00239817
0.00205009 0.00230437
0.00360215 0.00307513
0.00264915 -0.00978482
-0.00793325 -0.00797665
-0.00866654 -0.00632653
-0.00685628 -0.05174615
-0.00907363 -0.00967221
-0.01201105 -0.00880956
-0.00941090 -0.01327203
-0.00749650 -0.00679009
-0.04944708 -0.00728357
-0.00772056 -0.00135688
0.00079898 0.00037497
-0.00176056 -0.00265680
-0.00296972 -0.00253341
-0.00207521 -0.00198975
-0.00046800 -0.00063864
-0.00300654 0.00013752
-0.00000751 -0.00403314
0.00421308 0.00484789
-0.00166871 0.00240091
0.00235679 0.00307273
0.00022336 -0.00022034
0.00010806 0.00234520
-0.00128161 -0.00080022
0.00585176 0.00602614
0.00282625 0.00662244
0.00528717 0.00259192
0.00526142 0.00649625
0.00337067 -0.00661203
-0.00678888 -0.00673559
-0.00620057 -0.00592130
-0.00570052 -0.00872732
-0.00882527 -0.00829381
-0.00000000 -0.00000000
0.00000000 -0.00000000
0.00000000 0.00000000
-0.00000000 0.00000000
0.00000000 0.00260765
0.00286262 0.00262180
0.00177621 0.00199864
0.00171900 0.00130573
0.00185662 0.00162752
-0.00457174 -0.00409877
-0.00471673 -0.00290990
-0.00237921 -0.00237545
-0.00309129 -0.00185448
-0.00181266 0.00322650
0.00234082 0.00260514
0.00139055 0.00010768
0.00157255 0.00412975
0.00343769 0.00536691
0.00000000 0.00000000
0.00000000 -0.00000000
0.00000000 0.00000000
-0.00000000 0.00000000
0.00000000 -0.00307180
-0.00295322 -0.00311837
0.00117457 0.00024670
0.00126143 -0.00404556
-0.00402823 -0.00371137
0.00158978 0.00100499
0.00126384 0.00416237
-0.00145318 -0.00057982
0.00541628 0.00500948
0.00521650 -0.00173378
-0.00168586 -0.00154545
-0.00111227 -0.00059126
-0.00015724 -0.00163876
-0.00086475 -0.00040085
-0.00193771 -0.00173411
0.00096297 -0.00081115
-0.00176241 0.00015158
0.00606554 0.00567072
0.00662079 0.00349767
0.00338552 0.00318175
0.00630947 0.00576898
0.00758375 0.00525213
0.00570387 0.00821406
0.00459885 0.00332365
0.00358513 0.00064884
0.00195951 0.00216786
-0.00143760 -0.00156541
-0.00132053 -0.00557229
-0.00511377 -0.00412696
-0.00665312 -0.00637794
-0.00646730 -0.00742649
-0.00656652 -0.00663012
-0.00283707 -0.00274976
-0.00259518 -0.00202967
-0.00203101 -0.00149991
-0.00176973 -0.00185067
-0.00131672 -0.00459552
-0.00276130 -0.00225090
-0.00588088 -0.00416569
-0.00346025 0.00532797
0.00460944 0.00627710
-0.00250395 -0.00279576
-0.00301927 -0.00244214
-0.00221148 -0.00220346
-0.00247339 -0.00146212
-0.00184691 -0.00254603
0.00204463 -0.00002996
-0.00260044 0.00007550
0.00088620 0.00071656
0.00238915 0.00089109
0.01361842 0.01238668
0.01255287 0.01234796
0.01245319 0.01236679
0.00888933 0.00896768
0.00906493 0.00566225
0.00535513 0.00544103
-0.00072134 -0.00067360
-0.00016579 0.00139186
-0.00069691 0.00064157
-0.00098982 0.00198281
0.00136735 -0.00088488
0.00252118 0.00147655
-0.00063883 0.00290148
0.00239276 -0.00297890
-0.00284362 -0.00323352
-0.00442426 -0.00431256
-0.00422241 -0.00531192
-0.00485952 -0.00421842
0.00112382 0.00162860
0.00187663 0.00050969
0.00032063 0.00154181
0.00242979 0.00104320
0.00163737 0.00334004
0.00356734 0.00330712
0.00350529 0.00328923
0.00352009 0.00255280
0.00331020 0.00304247
-0.00602565 -0.00542669
-0.00456192 0.01245615
0.00465765 0.00398412
0.00789930 0.00620884
0.00562345 0.00119378
0.00157385 0.00143392
0.00219159 0.00149735
0.00033542 0.00206170
0.00096633 0.00045581
-0.00271209 -0.00352246
-0.00294905 0.00051627
0.00062925 0.00088077
0.00016571 0.00096269
0.00112418 -0.00583055
-0.00631125 -0.00644175
-0.00586746 -0.00617425
-0.00579546 -0.00828935
-0.00825011 -0.00752838
0.00335940 0.00300652
0.00307074 0.00089492
0.00027958 0.00151467
0.00096204 0.00033926
0.00142703 -0.01797180
-0.01987165 -0.01916819
-0.01525872 -0.01557717
-0.01506907 -0.01259429
-0.01361818 -0.01280111
0.00093152 0.00109891
0.00142615 0.00172331
0.00196270 0.00207847
0.00267763 0.00208146
0.00235466 -0.00461686
-0.00257915 -0.00236497
-0.00106401 -0.00147419
-0.00331200 -0.00136835
-0.00338473 -0.00437390
0.00000000 0.00000000
0.00000000 0.00000000
0.00000000 0.00000000
0.00000000 0.00000000
0.00000000 -0.00022236
0.00176157 0.00016173
-0.00131654 0.00511473
0.00483128 -0.00253423
0.00365144 0.00454995
0.00304102 0.00336481
0.00355339 0.00045764
0.00102020 0.00082643
0.00140755 0.00104156
0.00134385 -0.00295788
-0.00318229 -0.00369789
-0.00285173 -0.00306917
-0.00385712 -0.00412613
-0.00397494 -0.00528375
-0.00350747 -0.00086058
-0.00072470 -0.00124061
-0.00031114 -0.00163571
-0.00179208 -0.00028122
-0.00045934 -0.00000000
-0.00000000 -0.00000000
-0.00000000 -0.00000000
-0.00000000 -0.00000000
-0.00000000 -0.00000000
-0.00244803 -0.00217186
-0.00177323 -0.00322442
-0.00363214 -0.00247306
-0.00183880 -0.00174843
-0.00100459 -0.00099135
0.00216623 -0.00186894
-0.00155407 0.00371628
-0.00107192 0.00125192
0.00359353 -0.00083559
-0.00203122 -0.00224108
-0.00179547 -0.00003468
-0.00117141 -0.00183793
-0.00201205 -0.00178155
-0.00329890 -0.00070447
-0.00062271 0.00147837
-0.00086204 -0.00037935
0.00082558 -0.00064125
0.00006338 0.00090570
-0.00465375 -0.00454139
-0.00478529 -0.00764300
-0.00675521 -0.00803330
-0.00966825 -0.00778278
-0.00899748 -0.00216063
-0.00140192 0.00052151
-0.00130294 -0.00130299
0.00092936 -0.00440002
-0.00209002 -0.00201589
0.00352220 0.00280770
0.00214586 0.00245115
0.00218341 0.00102190
0.00674764 0.00699502
0.00199339 0.00300592
0.00312751 0.00281861
0.00361706 0.00361505
0.00286541 0.00278628
0.00334191 0.00251665
0.00081056 0.00120955
0.00098159 0.00248524
0.00218072 0.00180599
0.00101526 0.00177406
0.00214503 -0.00000000
-0.00000000 -0.00000000
-0.00000000 -0.00000000
-0.00000000 -0.00000000
-0.00000000 -0.00000000
-0.00419126 -0.00439549
-0.00305382 -0.00225664
-0.00310619 -0.00197190
-0.00186396 -0.00357939
-0.00198090 -0.00284452
-0.00297659 -0.00318605
-0.00341317 -0.00286875
-0.00325825 0.00022733
-0.00354743 -0.00357502
-0.00148402 0.00352838
0.00359115 0.00119392
0.00166041 0.00321429
0.00091305 -0.00216899
-0.00253150 -0.00433560
-0.00325617 -0.00316590
-0.00484783 -0.00365444
-0.00384335 -0.00522498
-0.00425076 -0.00425337
0.01166321 0.01073414
0.01108221 0.00093748
0.00087218 0.00107865
0.00556049 0.00057047
0.00123934 0.00066432
0.00126260 0.00130128
-0.00019845 0.00023084
0.00082899 -0.00004073
0.00020233 0.00079170
0.00000379 -0.00057679
0.00066242 0.00055673
0.00011367 0.00104660
-0.00278782 -0.00279522
-0.00410260 0.00417781
0.00509057 0.00557974
-0.00047371 0.00041711
0.00112877 0.00103075
0.00010435 0.00119786
0.00078750 0.00047405
-0.00000533 0.00012469
-0.00088548 -0.00158067
0.00249817 0.00291113
0.00265971 -0.01250699
-0.01312482 -0.01254426
-0.01209765 -0.01263394
-0.01200238 -0.00973203
-0.01050552 -0.00864679
0.00021408 0.00664697
0.00568508 0.00353848
0.00827618 0.00783715
0.00203005 0.00741764
0.00715773 0.00880793
-0.00078473 0.00277901
0.00990480 -0.00026389
0.00137727 0.02210022
0.00368413 -0.00111248
-0.00456368 -0.00366316
-0.00418087 0.00868833
0.00814375 0.00366251
0.00775989 0.00774190
0.00449633 -0.00417095
-0.00374055 -0.00444546
-0.00106763 -0.00111125
-0.00226690 -0.00157495
-0.00235894 -0.00172553
0.00150752 0.00181757
0.00252334 0.00067458
0.00163150 0.00240580
0.00266910 0.00367406
0.00398546 -0.00263653
-0.00221634 -0.00280856
-0.00151484 -0.00204841
-0.00197121 -0.00207257
-0.00080016 -0.00173464
-0.00014382 0.00000680
0.00073948 -0.00102888
-0.00107525 -0.00007441
-0.00022887 -0.00085462
-0.00045944 -0.00054161
0.00181328 0.00263134
0.00004998 0.00042479
0.00237406 0.00130362
0.00188594 0.00303267
-0.00156550 -0.00151289
-0.00214511 -0.00173865
-0.00190582 -0.00192117
-0.00233933 -0.00108751
-0.00151788 -0.00158316
0.00369665 0.00170608
-0.00106281 0.00173616
0.00183356 -0.00084168
0.00165668 0.00081263
-0.00409297 -0.00427742
-0.00414833 -0.00427527
-0.00362004 -0.00419928
-0.00509902 -0.00428282
-0.00454834 0.00147376
0.00155772 0.00120989
0.00122772 0.00132523
0.00100616 0.00089785
0.00120993 0.00100277
0.00232941 0.00175700
0.00231596 0.00147525
0.00089839 0.00099260
0.00125831 0.00119653
0.00115701 -0.00317133
-0.00237313 -0.00183586
-0.00095492 -0.00313980
-0.00369793 -0.00407528
-0.00465760 -0.00003505
-0.00368197 -0.00325138
-0.00342641 0.00376588
0.00395757 0.00278540
0.00369074 0.00311099
0.00274465 0.01784902
0.01694524 0.01635669
0.01736044 0.01781875
0.01721460 0.01525470
0.01584342 0.01567363
-0.00098784 -0.00068528
-0.00061975 -0.00160506
-0.00180709 -0.00104755
-0.00169345 -0.00203785
-0.00146965 0.01467799
0.01317657 0.01358866
0.00537232 0.00386244
0.00431897 0.01448215
0.00230957 0.00232262
0.00041005 0.00144233
-0.00065784 0.00034607
0.00088258 -0.00083202
0.00339789 0.00533542
0.00425694 0.00449177
0.00504620 0.00346545
0.00240513 0.00238603
0.00192554 0.00383875
0.00331225 0.00324354
-0.00365133 -0.00361399
-0.00391761 -0.00467615
-0.00455520 -0.00523107
-0.00491292 -0.00518756
-0.00576338 0.00000554
-0.00031196 -0.00016172
-0.00004748 -0.00121021
-0.00048586 0.00114209
0.00015772 0.00072201
0.00060840 0.00046773
0.00136262 0.00092580
0.00036402 0.00159291
-0.00013488 0.00109032
-0.00092868 -0.01759973
-0.01708525 -0.01872888
-0.01679400 -0.01641994
-0.01880574 -0.01689314
-0.01647059 -0.01773417
-0.00520984 -0.00509215
0.00265410 -0.00360886
-0.00434218 0.00115720
-0.00338895 -0.00245069
0.00210225 0.00053393
0.00010727 0.00041263
0.00135591 0.00085654
0.00067644 0.00423031
0.00324636 0.00259582
-0.00226697 -0.00272012
-0.00356553 -0.00144066
-0.00265892 -0.00238344
-0.00129728 -0.00152298
-0.00167457 -0.00041952
-0.00587795 -0.00622542
0.00037449 -0.00498831
-0.00537325 0.00041645
-0.00540542 -0.00624992
-0.00159816 -0.00125994
0.00005900 -0.00287665
-0.00193141 -0.00044136
0.00848579 0.00902400
0.00991124 -0.00678032
-0.00627534 -0.00792172
-0.00350800 -0.00248861
-0.00301709 -0.00242707
-0.00177695 -0.00313463
-0.00167143 -0.00204535
0.00014160 -0.00201472
-0.00216329 -0.00101822
-0.00182606 -0.00143045
-0.00069799 0.01266603
0.01161300 0.01322961
0.01180169 0.01155193
0.01320146 0.00988404
0.00892239 0.01037451
0.00367021 0.00542448
0.00659906 0.00321138
0.00525584 0.00397805
0.00432474 0.00474795
0.00450514 0.00393334
0.00399574 0.00382724
0.00600611 0.00588543
0.00593982 0.00634899
0.00609791 0.00654278
0.00150856 0.00158025
0.00155053 0.00116395
0.00137684 0.00112867
0.00069275 0.00088433
0.00079096 0.00119740
0.00910182 0.00906208
0.00116519 0.00669764
0.00675363 0.00107350
0.00660993 0.00587884
-0.00385328 -0.00496676
0.00133909 -0.00185934
-0.00351673 0.00079503
-0.00500478 -0.00775897
0.00108255 -0.00352072
-0.00303015 -0.00089675
-0.00334967 -0.00575127
-0.00150950 -0.00416118
-0.00399709 -0.00248889
0.00103132 0.00136494
-0.00027291 -0.00092748
-0.00113145 -0.00073302
-0.00294256 -0.00309176
-0.00146717 -0.00778328
-0.00730326 -0.00803189
-0.00796051 -0.00698266
-0.00798786 -0.01140411
-0.01086560 -0.01169929
0.00000000 0.00000000
-0.00000000 0.00000000
-0.00000000 -0.00000000
0.00000000 -0.00000000
-0.00000000 -0.01588519
-0.01449499 -0.01240792
-0.00734761 -0.00769231
-0.00907917 -0.00741825
-0.00741671 -0.01087995
-0.00507261 -0.00418767
-0.00420123 -0.00477012
-0.00438376 -0.00438136
-0.00437134 -0.00431944
-0.00448535 0.00343362
0.00383932 0.00604630
-0.00084329 0.00109289
0.00042705 0.00069235
0.00117216 0.00216543
0.00000000 0.00000000
0.00000000 0.00000000
0.00000000 0.00000000
0.00000000 0.00000000
0.00000000 0.00130371
-0.00027607 0.00061316
0.00397135 0.00624456
0.00455935 0.00769393
0.00614881 0.00484667
-0.00877676 -0.00754008
-0.00820140 -0.00882643
-0.00827867 -0.00909456
-0.01034400 -0.00976720
-0.01080200 -0.00218784
-0.00176311 -0.00188977
-0.00263551 -0.00250440
-0.00245608 -0.00244123
-0.00243465 -0.00252422
0.00007755 0.00134322
0.00094728 0.00088251
0.00116668 0.00162591
-0.00179063 -0.00113461
-0.00153874 -0.01183485
-0.01053405 -0.01233287
-0.00973139 -0.01050913
-0.01174962 -0.01128356
-0.01314077 -0.01388584
0.01090761 0.01073179
0.01163714 0.01048281
0.01048643 0.01178182
0.00779997 0.00761329
0.00906157 0.00193290
0.00284995 0.00547691
-0.00088725 -0.00190385
0.00026420 -0.00007192
-0.00074235 0.00068079
-0.00278684 -0.00215175
-0.00265285 -0.00101739
-0.00117623 -0.00116584
-0.00134621 -0.00081133
-0.00160438 -0.00993502
-0.01031271 -0.00919273
-0.00998575 -0.00981011
-0.00961217 -0.01011774
-0.00937191 -0.00957253
-0.00321333 -0.00356351
-0.00418468 -0.00207708
-0.00231618 -0.00241626
-0.00131455 -0.00154923
-0.00179895 -0.00145836
0.00327422 0.00056543
-0.00170731 0.00226327
0.00246505 0.00013715
0.00226464 0.00003955
0.00256095 0.00251637
0.00254906 0.00140053
0.00142063 0.00168431
-0.00280312 -0.00242931
-0.00180193 0.00876223
0.00759055 0.00894888
0.00423167 0.00358249
0.00414312 0.00653233
0.00705643 0.00720413
-0.00154198 -0.00071528
-0.00037698 -0.00111695
-0.00190538 0.00086999
-0.00274842 -0.00336908
-0.00172786 -0.00430361
-0.00301491 -0.00400266
-0.00566726 -0.00474028
-0.00543462 -0.00561286
-0.00512971 -0.00618044
-0.00006376 -0.00043990
-0.00013100 -0.00010459
-0.00003729 0.00002814
-0.00148676 0.00050314
-0.00196733 0.00339664
0.00286947 0.00279681
0.00274001 0.00271176
0.00251284 0.00248292
0.00234758 0.00220108
-0.00293338 -0.00172747
-0.00165582 0.00079043
-0.00053231 -0.00154117
-0.00576237 -0.00485358
-0.00633057 -0.00208329
-0.00275498 -0.00102997
0.00171960 0.00096461
0.00181105 0.00118691
0.00107433 0.00142037
0.00667630 0.00749915
0.00606059 0.00203964
0.00372858 0.00085621
0.00081470 0.00082697
-0.00083286 -0.00642224
-0.00645090 -0.00793209
-0.00612918 -0.00628410
-0.00754566 -0.00992415
-0.00935054 -0.01067834
-0.00747524 -0.00791015
-0.00748488 -0.00566215
-0.00642484 -0.00566735
-0.00515893 -0.00506260
-0.00548999 -0.00356005
-0.00442499 -0.00250111
0.00144266 0.00073539
0.00207166 0.00090481
0.00097820 0.00244453
0.00327694 0.00328413
0.00231748 0.00320540
0.00281651 0.00221505
0.00379287 0.00315350
0.00271706 -0.01008800
0.00714714 0.00565409
-0.00053361 0.00734100
0.00715064 0.00124402
0.00872140 0.00959298
0.00000000 0.00000000
0.00000000 0.00000000
-0.00000000 0.00000000
-0.00000000 -0.00000000
0.00000000 0.00185979
-0.00489771 -0.00246502
0.00152109 -0.00528033
-0.00318154 0.00170892
-0.00448573 -0.00182636
-0.01668912 -0.01638923
-0.01295454 -0.01579687
-0.01589574 -0.01245626
-0.01384759 -0.01415410
-0.01146520 0.00024396
0.00019901 0.00034758
0.00052151 0.00044167
0.00061595 0.00364677
0.00258875 0.00398607
-0.00389481 -0.00231103
-0.00377476 -0.00155699
-0.00193643 -0.00241448
-0.00264673 -0.00111363
-0.00180001 0.00000000
-0.00000000 0.00000000
0.00000000 0.00000000
0.00000000 0.00000000
0.00000000 0.00000000
-0.00161635 -0.00197718
-0.00196704 -0.00140488
-0.00220633 -0.00237153
-0.00218448 -0.00192457
-0.00228595 -0.00016671
0.00072801 -0.00059750
-0.00008783 0.00073186
-0.00012191 0.00335345
0.00137769 -0.00008555
-0.00062791 -0.00068315
-0.00172925 -0.00083835
-0.00195248 -0.00012225
0.00032908 -0.00101018
-0.00178135 0.00201605
0.00049973 -0.00021369
-0.00002667 0.00016225
-0.00014136 -0.00084786
-0.00252805 -0.00065166
0.01238223 0.01299096
0.01277110 0.00412880
0.00033828 0.00188905
0.00257054 0.00016135
0.00181311 -0.00096125
-0.00124186 -0.00031354
0.00022357 -0.00021706
0.00014239 0.00686820
0.00566693 0.00605061
-0.00379728 -0.00269400
0.00157139 -0.00425243
-0.00476925 0.00112909
-0.01347928 -0.01208264
-0.00452954 0.00493460
0.00427426 0.00383250
0.00533867 0.00505245
0.00455233 0.00446403
0.00419424 0.00395706
-0.01168922 -0.01242629
-0.01464836 -0.01266271
-0.01139517 -0.01361526
-0.01185433 -0.01046249
-0.01252876 0.00000000
0.00000000 -0.00000000
0.00000000 0.00000000
-0.00000000 0.00000000
0.00000000 0.00000000
0.00200002 0.00223424
0.00044695 0.00323873
0.00316744 0.00123043
0.00253568 0.00265119
0.00088368 0.00886288
0.00787080 0.00661934
0.00642557 0.00510643
0.00546279 0.00539228
0.00510972 0.00530657
-0.00063234 0.00073810
0.00500509 0.00003191
-0.00125213 0.00252293
0.00081002 -0.00184888
-0.00229110 0.00638803
0.00622518 0.00958439
0.00169643 0.00119585
0.00259641 0.00134265
0.00167486 0.00322685
-0.00643366 -0.00525033
-0.00572413 -0.00700726
-0.00630044 -0.00679721
-0.00734012 -0.00715738
-0.00770677 0.00096814
0.00023287 0.00026127
0.00097137 0.00034568
0.00116408 0.00078965
0.00027732 0.00055467
0.00076221 0.00188380
0.00131461 0.00056049
0.00106325 0.00112852
0.00084483 0.00099835
0.00024441 -0.00634500
-0.00690567 -0.00730856
-0.00463995 -0.00489799
-0.00539515 -0.00344388
-0.00366197 -0.00349124
-0.00005412 -0.00122046
0.00010085 -0.00133439
-0.00136418 -0.00061046
0.00122160 -0.00003377
0.00323542 0.00164348
0.00121662 0.00033441
0.00012345 -0.00002765
-0.00128356 0.00615731
0.00631727 0.00461146
0.00070766 0.00210322
0.00308529 0.00131746
0.00299536 0.00359811
-0.00048279 0.00047138
0.00053373 0.00756781
0.00122802 0.00025301
0.00893810 -0.00023209
-0.00099342 0.01817006
0.00338492 -0.00183569
-0.00360733 -0.00429548
-0.00660427 -0.00120560
-0.00100606 -0.00302973
-0.00339690 -0.00401197
-0.00454612 -0.00159391
-0.00200550 -0.00096633
0.00714693 0.00522904
0.00188210 0.00918998
0.00675372 0.00286773
0.00083669 -0.00053219
0.00073678 0.00141437
0.00096518 0.00132471
0.00260094 0.00121371
0.00091424 -0.00113933
-0.00158364 -0.00213359
-0.00062147 -0.00040729
-0.00101265 -0.00173823
-0.00242618 -0.00217895
-0.00297511 -0.00003042
-0.00115430 -0.00052938
-0.00044969 -0.00176826
-0.00511326 -0.00258928
-0.00437309 -0.00094613
-0.00129233 -0.00226986
-0.00037788 -0.00211927
-0.00038808 0.00129862
-0.00137355 -0.00199131
-0.00130080 -0.00154227
-0.00241485 -0.00168109
-0.00127506 -0.00165069
-0.00253211 -0.00336585
-0.00286198 -0.00413622
0.00599074 0.00315474
-0.00415747 0.00323202
0.00008163 -0.00368171
0.00432114 0.00040181
0.00644109 0.00618746
0.00976253 0.00219803
0.00142212 0.00230687
0.00206425 0.00190017
0.00294782 0.00203415
0.00160359 0.00156953
0.00127493 0.00120781
0.00122647 0.00097325
0.00089791 0.00103736
-0.00777146 -0.00718040
-0.00783993 -0.00933201
-0.00970838 -0.00991551
-0.00866694 -0.00913584
-0.00973182 0.00048305
0.00306871 0.00040052
0.00367779 0.00425880
0.00094610 0.00021028
0.00117960 0.00081166
-0.00086554 -0.00066934
-0.00320506 0.00002446
0.00051923 -0.00054200
0.00010186 0.00060420
-0.00008256 0.01268552
0.01230007 0.01377856
0.01203981 0.01194238
0.01398744 0.01068318
0.01027489 0.01176468
0.00637119 0.00327588
0.00356260 0.00202211
0.00074011 -0.00021246
0.00183759 0.00043511
-0.00085962 -0.00026846
0.00030813 0.00001521
-0.00248388 -0.00247649
-0.00225903 -0.00307592
-0.00166578 -0.00230728
-0.00211242 0.00033587
0.00057557 -0.00120081
-0.00035293 0.00126903
0.00293318 0.00485215
0.00763183 -0.01417689
-0.01390361 -0.01609836
-0.00795993 -0.00889509
-0.00971532 -0.00930888
-0.00895969 -0.00910540
0.00990230 0.01031113
0.00904041 0.00521383
0.00432575 0.00474766
0.00567623 0.00503786
0.00535433 0.00035673
0.00035888 0.00009213
0.00054997 0.00086969
0.00075518 -0.00348875
-0.00187474 -0.00233097
-0.00058940 -0.00111092
-0.00068968 0.00065287
-0.00009617 0.00082820
-0.00571362 -0.00573364
-0.00703874 -0.00177505
-0.00130715 -0.00173632
-0.00027777 -0.00133071
-0.00092135 -0.00228388
-0.00228690 -0.00359037
0.00416890 0.00554024
0.00060756 0.00245716
0.00245773 0.00060039
0.00162213 0.00185413
0.00021580 -0.00736425
-0.00916546 -0.00981830
-0.00763455 -0.00740627
-0.01012935 -0.00868808
-0.01004954 -0.01329722
-0.00247151 -0.00228016
-0.00316177 -0.00371988
-0.00316318 -0.00275199
-0.00443074 -0.00383700
-0.00252833 -0.00645057
0.00905827 -0.00715978
-0.00505143 0.00875568
-0.00602314 -0.00282075
0.01320431 0.00129820
-0.00629213 -0.00677341
-0.00715074 -0.00687495
-0.00662109 -0.00712823
-0.00624819 -0.00627543
-0.00575727 -0.00533186
-0.00459723 -0.00434825
-0.00477439 -0.00447429
-0.00488103 -0.00635463
-0.00562836 -0.00585416
0.00924097 0.00852993
0.00698012 0.00925981
0.00873461 0.00820323
0.00993744 0.01012090
0.00972085 0.01103006
0.01108115 0.01091351
0.01207426 0.01118340
0.01185181 0.00623944
0.00654949 0.00726055
-0.00303572 -0.00328970
-0.00836679 -0.00495926
-0.00736709 -0.00856447
-0.00795854 -0.00821680
-0.00927910 0.00372018
0.00334824 0.00359696
0.00602085 0.00548056
0.00572995 0.00608808
0.00549725 0.00623968
-0.02400759 -0.02217227
-0.02323151 -0.00807246
-0.00611125 -0.00828647
-0.00831734 -0.00555014
-0.00848691 -0.00107948
-0.00210879 -0.00227935
-0.00087126 -0.00071432
-0.00220857 -0.00131215
-0.00025535 -0.00095445
0.00018818 -0.00190547
-0.00164516 0.00046145
-0.00005552 0.00003621
0.00322147 0.00464484
-0.00028460 -0.00338215
-0.00225388 -0.00381334
-0.00230503 -0.00233662
-0.00400496 -0.00361868
-0.00314459 -0.00482800
-0.00200091 -0.00208805
-0.00036575 -0.00239316
-0.00256682 -0.00091405
-0.00197893 -0.00156767
-0.00115907 -0.00378424
-0.00373512 -0.00340066
-0.00344545 -0.00313648
-0.00320364 -0.00219817
-0.00409682 -0.00401380
-0.00000000 -0.00000000
-0.00000000 -0.00000000
-0.00000000 -0.00000000
-0.00000000 -0.00000000
-0.00000000 0.00240838
0.00181426 0.00308290
0.00014001 0.00021885
0.00047281 0.00033170
0.00034830 0.00039801
-0.00375786 -0.00369595
-0.00426456 -0.00312075
-0.00411142 -0.00457831
-0.00399005 -0.00400461
-0.00470575 -0.00376406
-0.00543699 -0.00379409
-0.00525800 -0.00268411
-0.00420889 -0.00365612
-0.00280036 -0.00340043
-0.00000000 -0.00000000
-0.00000000 -0.00000000
-0.00000000 -0.00000000
-0.00000000 -0.00000000
-0.00000000 0.00109888
0.00037908 0.00009560
0.00236212 0.00059399
0.00162960 -0.00033795
-0.00130126 -0.00080432
0.00261249 0.00166078
0.00257018 0.00147178
0.00059365 0.00176879
0.01285355 0.01174921
0.01529889 -0.00043409
0.00015800 -0.00040719
-0.00051458 -0.00070941
-0.00106020 -0.00134621
-0.00104040 -0.00121639
0.00232200 0.00116081
0.00017175 0.00054169
0.00006813 -0.00081412
0.00229577 0.00204779
0.00099020 0.00445731
0.00406937 0.00542654
0.00633512 0.00682097
0.00712766 0.00674563
0.00669555 0.00751578
-0.00224292 -0.00181233
-0.00178528 -0.00280480
-0.00310748 -0.00238696
-0.00700609 -0.00663704
-0.00530990 -0.01182369
-0.01279290 -0.01639991
-0.00756876 -0.00887948
-0.00972359 -0.00829674
-0.00858738 -0.01008223
-0.00281317 -0.00281642
-0.00339015 -0.00332302
-0.00326088 -0.00319553
-0.00363566 -0.00374746
-0.00386102 0.00405685
0.00361742 0.00508518
0.00291223 0.00282248
0.00381232 0.00323933
0.00244920 0.00222167
0.00072848 0.00196331
0.00083755 0.00047382
0.00018401 0.00042036
0.00140115 -0.00012376
0.00046301 0.00724230
-0.00780959 -0.00468279
0.00351295 -0.00778783
-0.01050833 0.00213501
-0.00675868 -0.00823075
0.01014479 0.00973421
0.01022241 0.01019019
0.00937999 0.01014937
0.00482942 0.00436724
0.00498561 0.00065829
0.00075135 0.00210489
0.00038708 0.00015533
-0.00063144 0.00173323
0.00012759 0.00342169
-0.00041474 -0.00211919
-0.00082347 -0.00036257
-0.00299928 -0.00194923
-0.00162491 -0.00241252
-0.00086525 -0.00254848
-0.00239354 -0.00251885
-0.00212745 -0.00203612
-0.00198239 -0.00246030
-0.00209661 -0.00238299
-0.00191811 0.00134131
-0.00071573 -0.00117288
-0.00002734 -0.00115973
0.00721234 0.01018631
0.01125753 0.00304365
0.00285040 0.00445147
0.00498010 0.00453010
0.00520226 0.00470173
0.00473352 0.00475922
0.00041935 0.00004152
-0.00001900 0.00089301
0.00115443 0.00139551
-0.00181669 -0.00240478
-0.00319247 0.00629488
0.00586493 0.00763972
-0.00048971 0.00260742
0.00091125 -0.00122033
0.00101855 -0.00001446
-0.00344835 -0.00261902
-0.00496540 0.00117647
-0.00016421 0.00167844
0.00211028 0.00127848
0.00325202 -0.00432675
-0.00442895 -0.00437472
-0.00405302 -0.00394247
-0.00399682 -0.00414936
-0.00454170 -0.00450168
-0.01052470 -0.01034630
-0.01103041 -0.00889639
-0.00978078 -0.01121729
-0.01016440 -0.00971052
-0.01107300 -0.00089333
0.00098222 -0.00001265
-0.00222660 -0.00260354
-0.00086095 -0.00106241
-0.00069697 0.00108670
0.00389914 0.00533798
0.00431909 0.00410406
0.00378255 0.00434247
0.00342598 0.00363324
0.00479339 -0.00110677
-0.00160567 -0.00160991
-0.00101926 -0.00161216
-0.00127490 0.00036441
-0.00087177 -0.00051867
-0.00000000 -0.00000000
0.00000000 -0.00000000
0.00000000 0.00000000
-0.00000000 0.00000000
0.00000000 -0.00103743
0.00438551 0.00276750
-0.00090117 0.00360785
0.00332526 0.00012068
0.00470224 0.00187769
0.00444068 0.00514436
0.00371438 0.00119503
0.00127638 -0.00038985
0.00005866 0.00005341
-0.00135698 -0.00273766
-0.00696627 -0.00291170
-0.00328990 -0.00347395
-0.00325758 -0.00326091
-0.00287270 -0.00317533
-0.00108605 0.00107505
0.00014285 -0.00148426
-0.00011255 0.00040283
-0.00226694 0.00047636
0.00051601 -0.00000000
-0.00000000 -0.00000000
-0.00000000 0.00000000
0.00000000 -0.00000000
0.00000000 0.00000000
-0.00259396 -0.00206337
-0.00185206 -0.00123268
0.00318259 0.00262292
0.00107299 0.00675238
0.00635726 0.00083800
-0.00356664 0.00053532
0.00051040 -0.00722168
0.00117659 -0.00285374
-0.00905448 0.00130369
-0.00239808 -0.00272295
-0.00267878 -0.00087216
0.00063601 -0.00224536
-0.00403476 -0.00414202
-0.00410496 0.00920836
-0.00506885 0.00147091
0.00450588 -0.02442590
0.00075124 0.00325021
-0.00656167 0.00068048
-0.00752224 -0.00827859
-0.00926330 -0.00446592
-0.00565098 -0.00531765
-0.00534248 -0.00474927
-0.00595485 0.00212430
0.00156271 -0.00004400
0.00134283 0.00067864
-0.00095620 0.00579205
0.00580614 0.00451765
0.00063293 0.00147026
-0.00091051 0.00140523
0.00133396 -0.00131082
0.00357885 0.00361112
-0.00201307 0.00394170
0.00351422 0.00532015
0.00453351 0.00442862
0.00513803 0.00471652
0.00425954 0.00495410
0.00292981 0.00246402
0.00598945 -0.00220437
0.00132246 0.00236282
-0.00102959 0.00131283
0.00173562 -0.00000000
-0.00000000 0.00000000
-0.00000000 -0.00000000
0.00000000 -0.00000000
-0.00000000 0.00000000
0.00200125 0.00258912
-0.00018526 0.00460350
0.00793993 0.00603232
0.00413579 0.00554083
0.00511982 -0.00117025
-0.00078812 0.00087101
0.00043752 0.00062066
0.00137631 0.00215070
0.00163030 0.00253547
0.00189305 -0.00394038
0.00023884 0.00293271
-0.00489229 -0.00276295
0.00125821 -0.00935186
-0.00801983 -0.00677126
-0.00581782 -0.00764700
-0.00517240 -0.00479598
-0.00499750 -0.00590231
-0.00540616 -0.00547461
0.01073725 0.01039056
0.00943202 0.00501944
0.00352733 0.00457371
0.00526740 0.00445118
0.00581709 0.00056805
0.00164236 0.00210257
-0.00032777 0.00082909
0.00063555 -0.00052467
0.00022684 0.00070758
-0.01005461 -0.01100139
-0.01205178 -0.01139751
-0.01035351 -0.01196405
-0.01333584 -0.01353522
-0.01577485 0.00211399
0.00365973 0.00143654
0.00009734 0.00017015
0.00045539 -0.00041628
-0.00027125 0.00046672
-0.00696452 -0.00788574
-0.00828206 -0.00770112
-0.00796477 -0.00889328
-0.00719018 -0.00723448
-0.00780422 -0.00172103
0.00020504 -0.00067733
0.00033618 -0.00003313
0.00054127 0.00437929
0.00680214 0.00918893
0.00065954 0.00088038
-0.00189950 -0.00136640
0.00058118 0.00026278
-0.00283168 0.00092421
0.00203329 0.02487775
0.00402381 -0.00336032
0.00976914 -0.00032088
-0.00085723 0.01295091
0.00086954 -0.00043826
-0.00064926 -0.00034234
-0.00071131 0.00627283
0.00862920 0.00540829
0.01046364 0.01296440
0.00763538 -0.00287392
-0.00264667 -0.00309020
-0.00140894 -0.00120667
-0.00215158 -0.00149810
-0.00137071 -0.00157478
0.00248664 0.00286326
0.00151002 0.00225188
0.00153027 0.00120673
0.00446891 0.00395542
0.00222887 -0.00371301
-0.00305659 -0.00228883
-0.00360567 -0.00295885
-0.00152653 -0.00523599
-0.00475727 -0.00234992
0.00007034 0.00114275
0.00084549 0.00005844
0.00126237 -0.00074911
-0.00303696 -0.00150019
-0.00273581 0.00464252
-0.00536018 -0.00132516
0.00542600 -0.00313255
-0.00232519 0.00377242
-0.00453075 -0.00456615
-0.00205008 -0.00141360
-0.00100594 -0.00210871
-0.00094707 -0.00025232
-0.00445243 -0.00370957
-0.00124273 0.00377108
-0.01038746 -0.00596703
0.00361688 -0.00678393
-0.00488742 0.00215800
-0.00564146 -0.00542547
-0.00544464 -0.00577082
-0.00737748 -0.00451051
-0.00481081 -0.00493596
-0.00506035 -0.00489095
-0.00484912 0.00353416
0.00315592 0.00424989
0.00131855 0.00129057
0.00164106 0.00162608
0.00153432 0.00195165
-0.01259440 -0.01319939
-0.01556458 -0.01095453
-0.01211859 -0.01251548
-0.01117482 -0.01131645
-0.01241962 -0.00054474
-0.00149061 -0.00042795
0.00018565 -0.00189461
0.00203392 0.00040562
-0.00147706 0.00172570
0.00170115 0.00101049
0.00431496 0.00017630
0.00180743 0.00185960
-0.00114945 0.00137615
0.00027598 0.00282646
0.00288494 0.00307932
0.00363483 0.00271465
0.00417680 0.00368762
0.00322487 0.00352217
-0.00207793 -0.00060252
-0.00020986 -0.00355649
-0.00199025 -0.00167161
-0.00555617 -0.00337548
-0.00308986 -0.00308408
-0.00257635 -0.00418272
-0.00188339 -0.00215179
-0.00154406 -0.00343365
-0.00296209 -0.00305546
-0.00049409 0.00283374
0.00209080 -0.00205034
0.00049954 -0.00056456
0.00475216 0.00725249
0.00877422 -0.00802123
-0.00765283 -0.00896526
-0.00076221 -0.00252327
-0.00227617 -0.00041906
-0.00110258 -0.00069721
0.00658078 0.00651410
0.00566449 0.00427154
0.00414577 0.00412259
0.00462564 0.00460002
0.00453808 0.00071472
0.00662791 0.00648785
0.00481002 0.00817285
0.00850359 0.00410090
0.00671036 0.00764889
0.00254544 0.00324482
0.00296800 0.00354125
0.00385356 0.00401952
-0.00162413 -0.00002429
-0.00054137 0.00092729
0.00189323 0.00117827
0.00052425 0.00133744
0.00071135 0.00678408
0.00624312 0.00509022
-0.00075644 -0.00076752
-0.00469795 -0.00043593
-0.00153801 -0.00162508
-0.00049504 -0.00051856
-0.00042282 -0.01677572
-0.01788930 -0.01846872
-0.01664104 -0.01746081
-0.01833924 -0.01619992
-0.01782263 -0.01968780
-0.00388976 -0.00435923
-0.00562965 -0.00454331
-0.00485780 -0.00563773
-0.00473417 -0.00457122
-0.00477800 -0.00558399
0.00664503 -0.00660414
-0.00433280 0.00654060
-0.00449737 -0.00357743
0.00806433 -0.00202051
-0.00934569 -0.00979581
-0.01078502 -0.00969515
-0.00976449 -0.01086493
-0.01106724 -0.01147194
-0.01214704 0.01184746
0.01184013 0.01231486
0.00504958 0.00259106
0.00416842 0.00347762
0.00164751 0.00569293
0.00774092 0.00648981
0.00506176 0.00696416
0.00631077 0.00589176
0.00739051 0.00685657
0.00674356 0.01572355
0.01503965 0.01577630
0.01672347 0.01562005
0.01649795 0.00951712
0.00962394 0.01065027
-0.00157433 -0.00222138
-0.00726955 -0.00059230
-0.00342493 -0.00395731
-0.00220112 -0.00318918
-0.00356453 0.00411956
0.00319204 0.00334947
0.00839426 0.00772168
0.00801790 0.00906020
0.00825420 0.00931425
-0.01155593 -0.01128896
-0.01111028 -0.00355181
-0.00173352 -0.00449870
-0.00451722 -0.00387843
-0.00753658 -0.00252965
-0.00229506 -0.00227752
-0.00269241 -0.00224813
-0.00287441 -0.00283975
-0.00178572 -0.00254414
-0.00209395 -0.00271049
-0.00203930 -0.00130339
-0.00147736 -0.00120774
-0.00269637 -0.00229414
-0.00003728 -0.00417119
-0.00276981 -0.00411669
-0.00388026 -0.00414984
-0.00482629 -0.00537892
-0.00489697 -0.00604255
0.00143158 0.00090756
0.00072884 0.00141071
0.00069684 0.00180752
0.00213220 0.00164695
0.00189771 -0.00731175
-0.00691615 -0.00719787
-0.00740767 -0.00663591
-0.00700808 -0.00573209
-0.00692583 -0.00757652
0.00000000 0.00000000
0.00000000 0.00000000
0.00000000 -0.00000000
0.00000000 0.00000000
-0.00000000 0.00395674
0.00312570 0.00430367
0.00100219 0.00108307
0.00134873 0.00120594
0.00130292 0.00129729
-0.00754818 -0.00733650
-0.00845140 -0.00648049
-0.00675513 -0.00734759
-0.00715608 -0.00746456
-0.00754425 -0.00221685
-0.00267781 -0.00230777
-0.00345809 -0.00198283
-0.00336216 -0.00402145
-0.00201545 -0.00344924
-0.00000000 -0.00000000
-0.00000000 -0.00000000
-0.00000000 -0.00000000
-0.00000000 -0.00000000
-0.00000000 0.00186982
0.00148862 0.00086159
0.00257365 0.00095956
0.00232632 0.00200974
-0.00072705 -0.00018666
0.00279709 0.00309836
0.00310115 0.00197598
0.00211508 0.00277612
0.01219530 0.01140868
0.01291244 -0.00325945
-0.00247547 -0.00332320
-0.00247422 -0.00228042
-0.00278338 -0.00310610
-0.00296622 -0.00303936
-0.00652350 -0.00850708
-0.00747142 -0.00819091
-0.00858489 -0.00748098
-0.00935256 -0.00903852
-0.00874814 0.00567418
0.00478689 0.00653124
0.00955353 0.00915346
0.01077082 0.01028958
0.01012185 0.01130583
-0.00521997 -0.00497082
-0.00491870 -0.00590167
-0.00584439 -0.00512766
-0.00916938 -0.00885189
-0.00823112 -0.00274692
-0.00330179 -0.00704190
0.00069464 -0.00026542
-0.00152981 0.00030585
-0.00078598 -0.00158094
0.00355796 0.00360741
0.00339007 0.00070850
0.00028590 0.00088822
0.00016691 0.00003018
0.00130816 0.00123787
0.00124315 0.00162415
-0.00075166 -0.00056245
-0.00007092 0.00769572
0.00761850 0.00858530
-0.00014611 0.00036352
0.00024790 -0.00102625
-0.00162007 -0.00082807
-0.00038195 -0.00084771
-0.00128412 0.00581175
-0.00551854 -0.00330945
0.00268252 -0.00582928
-0.01004281 0.00219015
-0.00514239 -0.00676122
0.01489949 0.01383138
0.01493487 0.01496503
0.01399132 0.01490036
0.00934874 0.00890068
0.00948611 0.00429507
0.00422239 0.00568531
-0.00069425 -0.00002963
-0.00254854 0.00506988
0.00541743 0.00660490
-0.00068653 -0.00115862
-0.00005249 -0.00057198
-0.00412513 -0.00254660
-0.00264244 -0.00438697
-0.00283117 -0.01128290
-0.01054534 -0.01095217
-0.00768892 -0.00722014
-0.00734592 -0.00870885
-0.00774606 -0.00787511
-0.00211449 -0.00077342
-0.00098888 -0.00176115
-0.00033219 -0.00039318
-0.00138022 0.00207979
0.00418889 0.00421856
0.00398420 0.00591170
0.00872603 0.00856450
0.00953624 0.00827730
0.00803664 0.00886715
-0.00248982 -0.00191405
-0.00241182 0.00032156
-0.00026232 -0.00057332
-0.00615266 -0.00629853
-0.00765675 0.00954730
0.00930617 0.01135031
-0.00080210 0.00191361
-0.00038523 -0.00254891
-0.00020634 -0.00369361
-0.00912955 -0.00873445
-0.01060000 -0.00679134
-0.00703974 -0.00613377
-0.00597679 -0.00566285
-0.00387770 -0.00748818
-0.00801140 -0.00850271
-0.00736852 -0.00747198
-0.00809147 -0.00629081
-0.00778916 -0.00855510
0.00009422 0.00145211
0.00148896 -0.00138777
-0.00188165 -0.00201027
-0.00239301 -0.00290118
-0.00216940 0.00195644
0.00291600 0.00365314
0.00025763 0.00049361
0.00040888 0.00099507
0.00156444 0.00131179
0.00526437 0.00634124
0.00627873 0.00344703
0.00277581 0.00319707
0.00230090 0.00196057
0.00281314 -0.00193571
-0.00284628 -0.00203701
-0.00181562 -0.00261796
-0.00191379 0.00011174
-0.00183026 -0.00110214
-0.00000000 -0.00000000
-0.00000000 -0.00000000
-0.00000000 -0.00000000
-0.00000000 -0.00000000
-0.00000000 -0.00127158
0.00747508 0.00435311
-0.00220659 0.00451456
0.00317769 -0.00241378
0.00516870 0.00194996
0.00476326 0.00600918
0.00464216 0.00259057
0.00276430 0.00068541
0.00156375 0.00085741
-0.00073042 -0.00363140
-0.00371846 -0.00450028
-0.00405000 -0.00404634
-0.00485786 -0.00390667
-0.00348859 -0.00484165
-0.00341220 0.00127549
0.00100887 -0.00248580
0.00050912 -0.00009820
-0.00282992 0.00052945
-0.00052045 -0.00000000
-0.00000000 -0.00000000
0.00000000 0.00000000
-0.00000000 0.00000000
0.00000000 -0.00000000
-0.00355241 -0.00342988
-0.00275936 -0.00256931
0.00209588 0.00169405
-0.00127624 0.00314011
0.00175687 0.00071302
-0.00305792 0.00038558
0.00061736 -0.00491684
0.00087977 -0.00195459
-0.00731721 0.00103528
-0.00004973 -0.00094752
0.00004684 0.00600567
0.00775943 0.00232067
0.00910239 0.00800261
0.00347904 0.00646902
-0.00216893 0.00077326
0.00663960 -0.00717883
0.00049071 0.00182633
-0.00826463 0.00048173
-0.01456745 -0.01483439
-0.01715633 -0.00829738
-0.00774009 -0.00906981
-0.00857572 -0.00786606
-0.00946102 0.00225639
0.00171904 0.00063541
0.00163577 0.00087544
-0.00045292 0.01339242
0.01188943 0.01209930
0.00345122 0.00388865
0.00154509 0.00285597
0.00354429 0.00084655
0.00593709 0.00626939
0.00210447 -0.00979539
-0.00977891 -0.00829521
-0.00825574 -0.00814732
-0.00869384 -0.01034142
-0.01103120 -0.01048110
-0.00027965 0.00056941
0.00342964 -0.00606256
-0.00254364 -0.00221864
-0.00614407 -0.00293207
-0.00337962 -0.00000000
-0.00000000 -0.00000000
-0.00000000 -0.00000000
-0.00000000 -0.00000000
-0.00000000 0.00000000
-0.00234527 -0.00242041
-0.00453066 0.00293416
0.00308568 0.00373564
0.00303607 0.00337044
0.00408304 0.00327268
0.00306904 0.00498054
0.00467147 0.00482302
0.00563659 0.00878450
0.00815211 0.00937232
0.00100327 -0.00271187
-0.00109803 0.00363514
-0.00345081 -0.00185872
0.00247332 -0.00646618
-0.00599227 -0.01102603
-0.00988629 -0.01153582
-0.00800998 -0.00700044
-0.00760247 -0.00870296
-0.00769494 -0.00835105
0.00675115 0.00619204
0.00557296 0.00349356
0.00276150 0.00297874
0.00391678 0.00328408
0.00384027 0.00068278
0.00063886 0.00071555
-0.00007508 -0.00033843
-0.00096757 -0.00050513
-0.00139534 -0.00103218
-0.00498626 -0.00596552
-0.00672618 -0.00597962
-0.00557684 -0.00654581
-0.00594474 -0.00571176
-0.00759678 0.00248636
0.00413077 0.00225192
0.00206050 0.00227106
0.00150241 0.00141642
0.00177290 0.00103909
-0.01071961 -0.01200311
-0.01257145 -0.01168244
-0.01213486 -0.01339723
-0.01326488 -0.01175259
-0.01265748 -0.00417838
-0.00344591 -0.00246447
-0.00349691 -0.00320375
-0.00158418 -0.00347914
-0.00049395 0.00210827
0.00025209 0.00207080
0.00137951 -0.00082632
0.00110207 0.00108903
-0.00164065 0.00558097
0.00593283 0.03039320
0.00482727 -0.00336441
0.01422396 -0.00027563
-0.00231137 0.01485219
0.00248370 -0.00014657
-0.00038241 0.00039572
-0.00027867 0.00528353
0.00689148 0.00390006
0.00899851 0.00998102
0.00484782 -0.00512364
-0.00462612 -0.00521703
-0.00272175 -0.00265630
-0.00347606 -0.00415274
-0.00412484 -0.00383834
-0.00393784 -0.00456018
-0.00444600 -0.00445632
-0.00536354 -0.00505222
-0.00044997 -0.00094212
-0.00194635 -0.00529171
-0.00561901 -0.00516025
-0.00454099 -0.00421114
-0.00354017 -0.00639826
-0.00695455 -0.00564326
-0.00197697 0.00036887
0.00022637 -0.00105419
0.00054938 -0.00197381
-0.00513224 -0.00423287
-0.00534044 0.00257372
-0.00243124 -0.00017550
0.00307100 -0.00106191
-0.00109888 0.00165801
-0.00267349 -0.00346002
-0.00335932 -0.00359942
-0.00312526 -0.00268796
-0.00184249 -0.00152057
-0.00430883 -0.00420444
-0.00314946 0.00405597
-0.01399843 -0.00692591
0.00419113 -0.00859114
-0.00243816 0.00274634
-0.00585663 -0.00303596
-0.00932528 -0.00947070
-0.01105428 -0.00696287
-0.00711597 -0.00727767
-0.00760267 -0.00690856
-0.00723576 0.00452818
0.00409476 0.00528175
0.00166879 0.00191852
0.00220944 0.00183747
0.00197026 0.00220376
-0.01916231 -0.01983507
-0.02234461 -0.01637212
-0.01738987 -0.01805229
-0.01637691 -0.01670073
-0.01755085 -0.00117388
-0.00185189 -0.00156323
-0.00019917 -0.00124263
-0.00122979 0.00365558
0.00246644 0.00146979
0.00092239 0.00134637
0.00397939 -0.00013820
0.00170114 0.00239727
-0.00056001 0.00096045
0.00106843 -0.00346286
-0.00342109 -0.00348959
-0.00328983 -0.00321381
-0.00361229 -0.00273428
-0.00276569 -0.00261505
-0.00020691 -0.00181779
-0.00032664 -0.00241529
-0.00331279 -0.00264055
-0.00379413 -0.00400022
-0.00351555 -0.00820205
-0.00831683 -0.01028329
-0.00527834 -0.00528019
-0.00488946 -0.00720975
-0.00698428 -0.00745550
-0.00334278 -0.00291921
-0.00434084 -0.00308765
-0.00313993 -0.00457603
-0.00641653 -0.00623908
-0.00128443 0.00030911
0.00033362 0.00077433
0.00144026 0.00243805
0.00340006 0.00380155
0.00366332 0.00446526
-0.00512641 -0.00479265
-0.00525192 -0.00369485
-0.00274629 -0.00311669
-0.00429334 -0.00333091
-0.00393494 -0.00207268
0.00774912 0.00746309
0.00400872 0.00868029
0.00885288 0.00438371
0.00547048 0.00282981
0.00166316 0.00443159
0.00289585 0.00088082
0.00265908 0.00239905
0.00401859 0.00574840
-0.00188957 0.00312383
0.00349978 0.00186181
0.00072944 0.00160002
0.00038481 0.00904017
0.00967862 -0.00221795
0.00010771 0.00010437
-0.00087295 -0.00106250
-0.00175278 0.00001165
0.00071613 0.00085487
0.00225867 -0.00699662
-0.00656235 -0.00277371
-0.00534265 -0.00589764
-0.00293344 -0.00515605
-0.00465469 -0.00154041
0.00040760 0.00018880
-0.00017753 -0.00035430
-0.00089232 -0.00133080
-0.00009523 -0.00056894
-0.00105155 0.00416098
-0.01088911 -0.00872844
0.00196969 -0.01029761
-0.00653985 -0.00832233
-0.01285511 -0.00869443
-0.00995632 -0.00887344
-0.00961526 -0.01000579
-0.00945877 -0.01009237
-0.01243406 -0.01261403
0.00291339 0.01388726
0.01366914 0.01244734
0.00511570 0.00426921
0.00541610 0.00325542
0.00270118 0.00639003
-0.00010211 -0.00100672
0.00085906 -0.00268260
-0.00454404 -0.00254285
-0.00332637 -0.00458514
-0.00157818 0.01521059
0.01415723 0.01420300
0.01355436 0.01284901
0.01381713 0.01089431
0.00943605 0.00100373
0.00285415 0.00350316
0.00492856 0.00187886
0.00387062 0.00514904
0.00408608 0.00485473
0.00520038 -0.00474431
-0.00453020 -0.00454608
-0.00514827 -0.00361459
-0.00491041 -0.00611317
-0.00537283 -0.00638170
0.00355088 0.00377813
0.00386840 0.00173801
0.00138234 0.00080000
0.00125130 0.00127581
0.00074184 -0.00223398
-0.00261965 -0.00293945
-0.00235843 -0.00185960
-0.00307386 -0.00301600
-0.00207811 -0.00213609
-0.00105017 -0.00209739
-0.00105747 -0.00075258
-0.00054867 -0.00249101
-0.00053468 0.00016737
0.00048586 0.00152188
0.00149771 0.00143989
-0.00034091 -0.00066334
-0.00008677 -0.00093358
-0.00103511 -0.00081246
0.00822674 0.00839249
0.00322732 0.00777778
0.00911892 0.00438960
0.00614227 0.00659746
0.00219882 -0.00971912
-0.00920321 -0.00955234
-0.00952645 -0.00875294
-0.00895582 -0.00992846
-0.00869490 0.00171830
-0.00000000 0.00000000
-0.00000000 0.00000000
-0.00000000 -0.00000000
-0.00000000 -0.00000000
-0.00000000 0.00575074
0.00517081 0.00555554
0.00270279 0.00256697
0.00203778 0.00231207
0.00227981 0.00193763
0.00592797 0.00695892
0.00733642 0.00071508
0.00251286 0.00248210
0.00086293 0.00235968
0.00347082 0.00902460
0.00572024 0.00812844
0.01217569 0.01065848
0.01366865 0.01610947
0.01510660 0.01938003
0.00000000 -0.00000000
0.00000000 0.00000000
0.00000000 0.00000000
0.00000000 0.00000000
0.00000000 -0.00262125
-0.00287991 -0.00288413
0.00010566 -0.00090612
-0.00012856 -0.00465598
-0.00525812 0.00389109
-0.01081000 -0.01015180
-0.01040015 -0.01131214
-0.01090438 -0.01119474
-0.01814502 -0.01813732
0.00205593 0.00822022
0.00874978 0.00900605
0.00333531 0.00406398
0.00437193 0.00345177
0.00376666 0.00448318
-0.00199872 -0.00139080
0.00230979 -0.00134318
-0.00087675 0.00281351
0.00153260 0.00255988
-0.00190708 0.00757723
0.00621387 0.00674140
0.00827632 0.00699154
0.00983354 0.00761975
0.00677675 0.01012578
0.01579458 0.01504938
0.01491239 0.01457918
0.01417997 0.01512797
0.01232738 0.01137851
0.00113539 -0.00304747
-0.00207924 -0.00098831
-0.00235513 -0.00164889
-0.00114250 -0.00253924
-0.00210599 -0.00137410
0.00170169 0.00159336
0.00155382 -0.00096177
-0.00105335 -0.00059087
-0.00129347 -0.00144924
-0.00028273 0.00140975
0.00178937 0.00171518
-0.00006941 0.00029644
0.00089213 0.00876293
0.00800023 -0.00183867
-0.00318562 -0.00328618
-0.00354339 -0.00431687
-0.00421040 -0.00412586
-0.00279537 -0.00232294
-0.00378638 -0.00377269
0.00205306 0.00058090
-0.00375567 0.00478827
0.00100175 0.00224720
0.00349834 0.00167451
0.01628628 0.01376542
0.01442506 0.01503040
0.01354006 0.01383288
0.01256049 0.01163278
0.00047340 0.00679672
0.00566674 0.00743747
-0.00019999 0.00019055
0.00225999 0.00444835
0.00377900 0.00061684
-0.00018527 0.01325587
0.01123499 -0.00065049
0.01048659 0.00786017
0.00060309 0.00958316
0.00783998 -0.01508699
-0.01490819 -0.01539253
-0.01057850 -0.01020291
-0.01027635 -0.01056166
-0.01021338 -0.01020706
-0.00411739 -0.00407110
-0.00376053 -0.00548381
-0.00461977 -0.00247056
-0.01584590 -0.01304609
-0.00246913 -0.00894717
-0.00765506 -0.00768104
-0.00381412 -0.00099457
-0.00434956 -0.00583086
-0.00300030 -0.00475671
-0.00420574 -0.00413437
-0.00348046 0.00800381
0.00458909 0.00316154
0.00735309 0.00598664
0.00009586 -0.00594341
-0.00485652 -0.00440693
-0.00582863 -0.00609676
-0.00641122 -0.00574262
-0.00590097 -0.00698942
-0.00477121 -0.00456732
-0.00423028 -0.00661724
-0.00636665 -0.00559559
-0.00645239 -0.00515702
-0.00443685 -0.00803090
-0.00919587 -0.00976248
-0.00779233 -0.00819015
-0.00925929 -0.00828469
-0.00831481 0.00143587
0.00134421 0.00174440
0.00219324 -0.00570986
-0.00461806 -0.00370737
-0.00806737 -0.00701322
-0.00500164 -0.00030219
-0.00087772 -0.00126373
-0.00084121 -0.00100505
-0.00065178 0.00189898
0.00105579 0.00022674
-0.00238233 -0.00256987
-0.00233397 -0.00246024
-0.00266941 -0.00210567
-0.00142878 -0.00216882
-0.00181413 -0.00457365
-0.00307530 -0.00285829
-0.00169272 -0.00277922
-0.00283572 -0.00259193
-0.00378015 -0.00157667
-0.00000000 -0.00000000
-0.00000000 -0.00000000
-0.00000000 -0.00000000
-0.00000000 -0.00000000
-0.00000000 0.00207031
-0.00378460 -0.00138257
0.00340025 0.00077594
-0.00006794 0.00128360
-0.00241978 -0.00110145
0.00127650 0.00138550
0.00159490 0.00076545
0.00127766 0.00222465
0.00152198 0.00106298
0.00260587 -0.00237787
-0.00255970 -0.00420003
-0.00224999 -0.00213790
-0.00392880 -0.00403315
-0.00345035 -0.00086724
-0.00590811 -0.00323012
-0.00290228 -0.00280923
-0.00260470 -0.00362420
-0.00265325 -0.00327723
-0.00197310 -0.00000000
-0.00000000 -0.00000000
-0.00000000 -0.00000000
-0.00000000 -0.00000000
-0.00000000 -0.00000000
-0.00433121 -0.00309787
-0.00375776 -0.00426058
-0.00399236 -0.00355546
-0.00796472 -0.00654957
-0.00117966 -0.00137753
0.00259032 -0.00146468
0.00014936 0.00499994
-0.00126835 0.00388344
-0.00293070 -0.00085351
0.00040019 -0.00053478
0.00036105 0.01043745
0.01013324 0.00322707
0.00940347 0.00915976
0.00037585 -0.00008971
-0.00031338 -0.00007052
-0.00104166 -0.00009666
0.00004588 0.00071792
0.00084173 -0.00016090
-0.01152740 -0.01081626
-0.01092373 -0.00937913
-0.00899840 -0.00945092
-0.01091126 -0.00970090
-0.01029232 -0.00801937
-0.00700459 -0.00210306
-0.00668555 -0.00641496
-0.00248801 -0.01231230
-0.01025615 -0.00306269
-0.00001670 0.00073914
-0.00089527 -0.00076994
-0.00005437 -0.00141987
0.00514755 0.00591089
-0.00337411 -0.00684998
-0.00670935 -0.00691553
-0.00433190 -0.00378421
-0.00517419 -0.00723334
-0.00622537 -0.00609371
-0.00264717 -0.00257891
-0.00322144 -0.00272849
-0.00138273 -0.00472530
-0.00213438 -0.00179404
-0.00350467 -0.00000000
-0.00000000 -0.00000000
0.00000000 -0.00000000
-0.00000000 0.00000000
0.00000000 -0.00000000
-0.02988285 -0.03181848
-0.02860914 -0.02531624
-0.02720220 -0.02372160
-0.02315263 -0.02454401
-0.02201273 0.00205130
0.00176513 0.00132297
-0.00002068 -0.00052771
-0.00168526 -0.00282224
-0.00316022 -0.00436961
-0.00476429 0.00613074
0.00000055 -0.00235073
0.00431371 0.00076123
0.00289149 0.00863476
0.01040364 -0.00829459
-0.00670170 -0.00763151
-0.00661332 -0.00466876
-0.00535553 -0.00662054
-0.00541441 -0.00549081
-0.00979064 -0.00915829
-0.01013982 -0.00799060
-0.00731515 -0.00770869
-0.00833034 -0.00821109
-0.00847061 -0.00105453
-0.00141414 -0.00214266
-0.00168854 -0.00185927
-0.00295022 -0.00130002
-0.00175593 -0.00079558
0.00033241 0.00117223
0.00307582 0.00067858
0.00168473 0.00317014
0.00409668 0.00586186
-0.00303423 0.00254600
0.00303656 0.00314643
0.00377171 0.00426760
0.00434406 0.00472317
0.00524420 0.00468564
-0.00090503 -0.00115853
-0.00086080 -0.00242634
-0.00197461 -0.00227049
-0.00066346 -0.00027193
0.00186566 -0.00508050
-0.00589838 -0.00430666
-0.00533440 -0.00576445
-0.00425413 -0.01137283
-0.01052669 -0.00142533
-0.00098432 0.01010111
0.00855090 0.00243632
0.01144142 0.01100180
0.00313316 0.01449316
0.01302407 0.03213578
0.00328284 0.00210103
0.01056827 -0.00024190
-0.00634701 0.00888286
0.00663239 -0.00282340
-0.00615291 -0.00669504
-0.00740920 -0.00126739
-0.00112327 -0.00326203
-0.00484628 -0.00342135
-0.00143221 -0.00569388
-0.00455807 -0.00532778
-0.00183465 -0.00217281
-0.00310922 -0.00425842
-0.00358489 -0.00045790
-0.00508414 -0.00419117
-0.00279120 -0.00484145
-0.00455868 -0.00311605
-0.00147913 -0.00182204
-0.00030876 -0.00028199
-0.00073700 -0.00087385
-0.00049932 -0.00090436
-0.00087147 0.00289823
0.00324465 -0.00220515
-0.00159610 0.00334283
0.00370630 0.00436924
0.00622184 0.00415615
0.00836525 0.00874574
0.00090663 -0.00619783
0.00859681 -0.00164522
-0.00942862 0.00360985
0.00021071 0.00294523
0.00931701 0.00831420
-0.00043479 -0.00074536
-0.00121940 0.00025317
-0.00023148 -0.00026463
0.00362769 0.00375408
-0.00127263 0.00074016
-0.00084194 0.00294480
0.00155699 0.00002017
0.00686865 -0.00174243
0.00084343 0.00549405
-0.00699496 -0.00694210
-0.00761708 -0.00502465
-0.00426216 -0.00495566
-0.00535791 -0.00473731
-0.00551604 0.00420567
0.00405396 0.00404468
0.00210625 0.00188788
0.00117698 0.00160228
0.00150784 0.00101160
-0.00089971 -0.00045849
-0.00000533 -0.00118283
0.00078903 0.00092101
-0.00166137 -0.00006019
0.00007407 -0.00236937
-0.00070287 -0.00106841
-0.00016351 -0.00033364
-0.00288418 -0.00035477
-0.00183313 0.00100154
-0.00603541 -0.00596124
-0.00694853 -0.00618727
-0.00565237 -0.00666185
-0.00472486 -0.00450783
-0.00592161 -0.00292259
-0.00400785 -0.00324590
-0.00139644 -0.00269288
-0.00141602 -0.00193040
-0.00407565 0.00183197
0.01333875 0.00653104
0.00911386 0.00677698
0.00284274 0.00454392
0.01016155 0.00667024
0.00458294 0.00949371
0.00770856 0.00780052
0.00514553 0.00395751
0.00457395 0.00445688
0.00313461 0.00363265
-0.00139007 -0.00088132
-0.00202834 -0.00203313
-0.00173352 -0.00304289
-0.00508710 -0.00485744
-0.00703667 0.00250526
0.00378535 0.00382453
0.00053975 0.00104890
0.00053519 0.00131227
0.00155345 0.00128073
-0.00764322 -0.00720788
-0.00772713 -0.00443965
-0.00317271 -0.00324354
-0.00445089 -0.00372274
-0.00374693 -0.00238295
0.00615288 0.00652648
0.00363184 0.00678390
0.00699278 0.00737984
0.00567835 0.00753149
0.00097852 0.00272640
0.00376212 0.00170468
0.00261764 0.00358415
-0.00426110 -0.00109857
0.00226189 0.00677859
0.00614470 0.00447053
0.00464852 0.00404013
0.00279878 0.01642959
0.01538853 0.01389225
-0.00058368 -0.00098866
-0.00179099 -0.00027579
-0.00058346 0.00076377
0.00234199 0.00258586
0.00362364 -0.00057470
-0.00041386 0.00069618
0.00053361 0.00028394
0.00157775 0.00804838
0.00673410 0.00902677
0.00203023 0.00232295
0.00203594 0.00149507
0.00141266 0.00071204
0.00196888 0.00177973
0.00131577 0.00213764
-0.01103942 -0.00553759
0.00121312 -0.00886770
-0.00350652 -0.00003991
-0.01324564 -0.00871447
-0.01163683 -0.01132818
-0.01207283 -0.01113055
-0.01106167 -0.01222158
-0.01511741 -0.01571637
-0.01618123 0.01105664
0.01051685 0.01010550
0.00398771 0.00300896
0.00347942 0.00314565
0.00239954 0.00481449
0.00100263 0.00032234
0.00098171 -0.00255043
-0.00340595 -0.00202006
-0.00238546 -0.00245274
-0.00045353 -0.00066665
-0.00226403 -0.00204137
-0.00157573 -0.00294695
-0.00283107 -0.00456539
-0.00490776 -0.00547765
-0.00410686 -0.00381350
-0.00266752 -0.00254898
-0.00137175 0.00105420
0.00098244 0.00160163
0.00302836 0.00490125
0.00457117 0.00420676
0.00713630 0.00655570
0.00596377 0.00877188
0.00811736 0.00745846
0.00439357 0.00450163
0.00465965 0.00255750
0.00254757 0.00223090
0.00191445 0.00199047
0.00155236 -0.00052821
-0.00198959 -0.00213052
-0.00034262 -0.00171176
-0.00164643 -0.00093440
-0.00187606 -0.00139307
-0.00418119 -0.00580310
0.00139282 -0.00301588
-0.00373685 0.00000616
-0.01075590 -0.01534343
0.00161160 -0.00465643
-0.00377792 -0.00442364
-0.00514987 -0.00489501
-0.00344876 -0.00601800
-0.00511845 -0.00442767
0.00094433 0.00053865
0.00029288 0.00051870
0.00163304 0.00124853
-0.00159023 -0.00205411
0.00091666 0.00180923
0.00084244 0.00099495
0.00094406 0.00108363
0.00133748 0.01071784
0.01002183 0.01050816
0.00000000 0.00000000
-0.00000000 0.00000000
-0.00000000 -0.00000000
0.00000000 0.00000000
-0.00000000 0.00607125
0.00544841 0.00594931
0.00261225 0.00265320
0.00252894 0.00229309
0.00212697 0.00209045
0.00610800 0.00570296
0.00599887 0.00078502
0.00089538 0.00177074
0.00133675 0.00117210
0.00236049 0.01184739
0.00962619 0.01190294
0.01088923 0.01037743
0.01286796 0.01370378
0.01302534 0.01715925
-0.00000000 -0.00000000
-0.00000000 -0.00000000
-0.00000000 -0.00000000
-0.00000000 -0.00000000
-0.00000000 -0.00314364
-0.00322014 -0.00356829
-0.00089986 -0.00185143
-0.00132399 -0.00271630
-0.00387767 -0.00410285
-0.01065981 -0.01019656
-0.01077592 -0.01091339
-0.01085266 -0.01102377
-0.01504046 -0.01650088
-0.01774240 0.00739562
0.00733641 0.00775145
0.00332649 0.00344369
0.00432871 0.00386120
0.00356890 0.00439242
-0.00195365 -0.00221646
0.00059440 -0.00143514
-0.00113854 0.00133727
0.00043433 0.00209265
0.00569152 0.00798818
0.00656694 0.00723048
0.00956199 0.00846795
0.01166451 0.00856239
0.00800179 0.01182792
0.01650429 0.01598519
0.01619734 0.01510180
0.01534228 0.01507475
0.01136498 0.01135607
0.00937692 0.00115343
0.00203939 0.00265889
-0.00115417 -0.00074307
-0.00068456 -0.00046332
-0.00025930 0.00043540
0.00239620 0.00230780
0.00237248 0.00044090
0.00002690 0.00031326
0.00023143 -0.00008167
0.00045812 -0.00557099
-0.00535493 -0.00424360
-0.00609512 -0.00582342
-0.00486126 -0.00298267
-0.00120410 0.00288495
-0.00169115 -0.00190692
-0.00205501 -0.00226338
-0.00266574 -0.00295002
-0.00162076 -0.00145997
-0.00295912 -0.00292370
0.00207833 0.00102566
-0.00316422 0.00352998
0.00060405 0.00005505
0.00238712 0.00174477
0.01742707 0.01559069
0.01647378 0.01575696
0.01471404 0.01542173
0.01275852 0.01248850
0.01062148 0.01647772
0.01543862 0.01628286
0.00811359 0.00749151
0.00880986 0.01181723
0.01354586 0.01394088
-0.00076216 0.00802322
0.00809113 -0.00104022
0.00570655 0.00487349
-0.00292326 0.00321058
0.00370456 0.00786916
0.00687272 0.00671326
0.00428323 0.00262492
0.00238942 0.00378801
0.00367734 0.00364665
-0.00424082 -0.00460727
-0.00396125 -0.00472444
-0.00422212 -0.00328770
-0.01425535 -0.01301213
-0.01200289 -0.00959560
-0.00804081 -0.00860531
-0.00549536 -0.00379706
-0.00565706 -0.00728743
-0.00624030 -0.00832111
-0.00657195 -0.00535863
-0.00525535 -0.00417439
-0.00386636 -0.00452537
-0.00884772 -0.00719093
-0.00848614 -0.00846431
-0.00829185 -0.00794861
-0.00741656 -0.00783397
-0.00824820 -0.00755607
-0.00755616 -0.00806287
-0.02054873 -0.02134237
-0.02106580 -0.02330875
-0.02409185 -0.02232767
-0.02073131 -0.02090646
-0.01919310 0.00025619
0.00024297 -0.00061233
-0.00041731 0.00095985
0.00007012 0.00813457
0.00801670 0.00809078
0.00008746 0.00056890
0.00037012 -0.00152253
-0.00068355 -0.00045404
-0.00237733 -0.00208001
-0.00179223 0.00640299
0.00748754 0.00662188
0.00361803 0.00381913
0.00210345 0.00331005
0.00351615 0.00233268
-0.00373065 -0.00411326
-0.00368188 -0.00246334
-0.00332486 -0.00261566
-0.00162319 -0.00249193
-0.00183944 -0.00490440
-0.00327016 -0.00175776
-0.00359201 -0.00377448
-0.00288727 -0.00239810
-0.00441315 -0.00383867
-0.00000000 -0.00000000
-0.00000000 -0.00000000
-0.00000000 -0.00000000
-0.00000000 -0.00000000
-0.00000000 0.00053293
-0.00193774 -0.00050969
0.00031068 -0.00049503
-0.00129455 0.00007010
-0.00244768 -0.00258167
0.00188869 0.00374856
0.00309432 0.00136790
0.00229308 0.00084140
0.00039775 0.00086330
0.00001465 -0.00235872
-0.00260800 -0.00408922
-0.00197990 -0.00192275
-0.00398976 -0.00392528
-0.00354563 -0.00581582
-0.00495496 0.00377025
0.00351563 0.00801168
0.00705184 0.00453360
0.00842756 0.00429125
0.00251039 0.00000000
0.00000000 0.00000000
0.00000000 0.00000000
0.00000000 0.00000000
0.00000000 0.00000000
-0.00212419 -0.00210475
-0.00272345 -0.00265264
-0.00260914 -0.00253502
-0.00603017 -0.00608398
-0.00667098 0.00017801
-0.00048506 0.00120887
0.00172045 0.00182287
0.00044123 -0.00418010
0.00018037 0.00076792
0.00082535 -0.00046446
0.00000841 0.00843703
0.00891685 0.00436957
0.01050825 0.01005013
0.00656562 0.00037804
0.00052488 -0.00117492
-0.00020189 0.00025555
-0.00036804 0.00000778
0.00031512 -0.00025245
-0.01469278 -0.01388185
-0.01405680 -0.00940642
-0.00909469 -0.01065955
-0.01037627 -0.01001404
-0.01159740 -0.00186459
-0.00202180 0.00042546
-0.00116409 -0.00129509
0.00098464 0.00008027
-0.00206802 0.00001569
0.00209342 0.00316240
0.00101834 0.00132172
0.00159599 -0.00058539
0.00271632 0.00428750
0.00278808 -0.00662362
-0.00628920 -0.00670213
-0.00330303 -0.00348745
-0.00484508 -0.00509530
-0.00523812 -0.00575035
-0.01335032 -0.01343947
-0.01354709 -0.01470136
-0.01323619 -0.01549586
-0.01368557 -0.01387938
-0.01518811 0.00000000
0.00000000 -0.00000000
0.00000000 0.00000000
-0.00000000 0.00000000
0.00000000 -0.00000000
-0.00992266 -0.01022412
-0.00851187 -0.00590364
-0.00805399 -0.00757089
-0.00676248 -0.00751931
-0.00706611 0.00549790
0.00457590 0.00413810
0.00196045 0.00156460
0.00110751 0.00152749
0.00122537 0.00059216
-0.00343742 0.00665049
-0.00139958 -0.00220271
0.00531158 0.00012879
-0.00154032 0.01031542
0.00774646 -0.00964238
-0.00827852 -0.00923695
-0.00847990 -0.00667436
-0.00721172 -0.00793205
-0.00691122 -0.00783718
-0.01430252 -0.01388230
-0.01448961 -0.01008073
-0.00923972 -0.00980626
-0.01019747 -0.01042395
-0.01072904 -0.00010313
-0.00001007 -0.00079817
-0.00031587 -0.00017733
-0.00086233 -0.00026235
-0.00043669 -0.00168924
-0.00000899 0.00050739
0.00184442 -0.00000693
0.00044193 0.00132591
-0.00389268 -0.00211087
0.00145683 -0.00021459
-0.00041255 -0.00043348
0.00287353 0.00280738
0.00229491 0.00321103
0.00333579 0.00246019
-0.00886539 -0.00906167
-0.00928712 -0.01034405
-0.00980479 -0.01040836
-0.01336669 -0.01099227
-0.01039409 0.00018347
-0.00086671 0.00097305
-0.00116373 -0.00149380
0.00081053 -0.01053961
-0.01044065 -0.00944111
-0.00005782 0.01006071
0.00872481 0.00305129
0.01162822 0.01152582
0.00209376 0.01331024
0.01353671 0.02863025
0.00372202 -0.00235838
0.01527612 -0.00025914
-0.00018421 0.00834090
0.00048153 0.00006647
-0.00675585 -0.00713548
-0.00817548 -0.00159049
-0.00106150 -0.00363963
-0.00327432 -0.00239836
-0.00518176 -0.00621373
-0.00587249 -0.00663163
-0.00308404 -0.00320668
-0.00365257 -0.00645107
-0.00522199 -0.00552873
-0.00610597 -0.00572775
-0.00503903 -0.00615316
-0.00623516 -0.00514839
-0.00132840 -0.00157302
0.00176302 -0.00045313
-0.00010663 -0.00094803
-0.00035519 -0.00064181
-0.00092846 0.00276082
0.00227939 0.00258993
-0.00299471 0.00165538
0.00196905 0.00314492
0.00582450 0.00346740
0.00721530 0.00752343
0.00552344 -0.00174188
0.00630842 0.00098961
-0.00316750 0.00265472
0.00035784 -0.00368350
0.00470799 0.00282019
-0.00057442 -0.00056012
-0.00129767 0.00058412
0.00043121 0.00024609
0.00421871 0.00367178
0.00382800 -0.00002484
-0.00070813 0.00142421
0.00031005 -0.00052729
0.00501352 0.00054320
0.00122795 0.00296545
-0.00794494 -0.00768684
-0.00858374 -0.00702269
-0.00599826 -0.00649571
-0.00650907 -0.00594913
-0.00681433 -0.00668010
-0.00564964 -0.00685645
-0.00514524 -0.00401020
-0.00654404 -0.00677873
-0.00581875 -0.00747615
0.00126284 0.00238567
0.00255427 -0.00139026
0.00041695 0.00093403
-0.00225206 -0.00098981
-0.00020708 0.00023451
0.00222762 0.00012251
0.00449252 0.00612578
-0.00167542 0.00678016
0.00914970 0.00100347
-0.00416192 -0.00467415
-0.00484488 -0.00477239
-0.00472778 -0.00570547
-0.00413348 -0.00434570
-0.00487338 -0.00627600
-0.00647794 -0.00555746
-0.00506948 -0.00540000
-0.00383154 -0.00697214
-0.00671535 -0.00461775
0.00617968 0.00160405
0.00354629 0.00345815
0.00018823 0.00168942
0.00515820 0.00131046
0.00398770 -0.01165419
-0.01132702 -0.01125679
-0.00666351 -0.00567984
-0.00639188 -0.00756645
-0.00659034 -0.00750768
0.00404433 0.00396665
0.00310383 0.00397369
0.00336024 0.00247141
0.00404194 0.00453360
0.00334229 0.00357902
0.00511270 0.00432641
0.00009871 0.00093357
-0.00049283 0.00099344
0.00110844 -0.00010833
-0.00402619 -0.00361174
-0.00428875 -0.00400460
-0.00306796 -0.00353400
-0.00407160 -0.00376814
-0.00416343 -0.00057828
0.00015252 0.00110314
-0.00038091 -0.00141259
-0.00081437 0.00044552
-0.00111483 -0.00085865
-0.01305827 -0.01360221
-0.01017864 -0.01234788
-0.01177737 -0.00902301
-0.01462249 -0.01320297
-0.01099630 -0.01611142
-0.01569140 -0.01734754
-0.01548962 -0.01566185
-0.01767039 -0.01120691
-0.01190900 -0.01231795
-0.00986851 -0.01044698
-0.00353229 -0.00335630
-0.00373386 -0.00005199
-0.00272825 -0.00263604
0.00159744 0.00108279
0.00143893 0.00113620
0.00216799 0.00234456
0.00136038 0.00664193
0.00629169 0.00542091
-0.00316518 -0.00318156
-0.00333938 -0.00218155
-0.00217187 -0.00231029
-0.00213087 -0.00199037
-0.00165024 0.00170159
-0.00687499 -0.00475422
0.00224541 -0.00514962
-0.00236871 0.00073815
-0.00623266 -0.00598164
-0.00306314 -0.00274804
-0.00109727 -0.00461583
-0.00386756 -0.00178714
0.00676267 0.00726699
0.00909509 -0.00704041
-0.00664656 -0.00793344
-0.00442252 -0.00377352
-0.00466586 -0.00356751
-0.00320887 -0.00479615
-0.00094682 -0.00125609
0.00054602 -0.00274667
-0.00314972 -0.00186895
-0.00253271 -0.00169121
-0.00159951 0.00434185
0.00246853 0.00208193
0.00390068 0.00220288
0.00198201 -0.00062669
-0.00122873 -0.00247325
-0.00593544 -0.00632999
-0.00567188 -0.00176341
-0.00124753 -0.00076148
0.00029811 0.00005440
0.00132892 0.00306523
0.00305687 0.00239439
0.00581947 0.00587892
0.00583111 0.00644969
0.00632676 0.00656867
0.00159702 0.00162435
0.00126799 0.00167147
0.00180878 0.00153194
0.00133274 0.00143957
0.00130991 0.00429840
0.00877497 0.00890633
0.00385054 0.00775102
0.00843508 0.00402238
0.00790344 0.00750569
-0.00241209 -0.00424253
0.00076255 -0.00193308
-0.00355051 -0.00009814
-0.00375199 -0.00552491
0.00063823 -0.00423634
-0.00303692 -0.00038053
-0.00371223 -0.00505077
-0.00226161 -0.00491439
-0.00499211 -0.00277938
-0.00004346 -0.00018661
-0.00036117 -0.00254943
-0.00273594 0.00018183
-0.00304056 -0.00401357
0.00005662 0.00293867
0.00080819 0.00105974
0.00165206 0.00155553
0.00158538 0.00858320
0.00758267 0.00789775
0.00000000 -0.00000000
-0.00000000 0.00000000
0.00000000 -0.00000000
-0.00000000 -0.00000000
-0.00000000 -0.01498018
-0.01232548 -0.01153659
-0.01181430 -0.01018899
-0.00883768 -0.01206069
-0.01140247 -0.01147112
-0.01022280 -0.01049698
-0.01142235 -0.00713182
-0.00699059 -0.00724638
-0.00646571 -0.00684668
-0.00720206 0.00779753
0.00700500 0.00851914
0.00091546 0.00005128
-0.00049377 0.00148469
0.00071021 0.00339338
-0.00000000 -0.00000000
-0.00000000 -0.00000000
-0.00000000 -0.00000000
-0.00000000 -0.00000000
-0.00000000 -0.00142308
-0.00068279 -0.00197196
0.00072119 0.00003657
-0.00057924 -0.00180415
-0.00214644 -0.00271209
-0.00729220 -0.00682878
-0.00753891 -0.00731969
-0.00732658 -0.00798131
-0.00838243 -0.00879457
-0.00862954 -0.00579582
-0.00555851 -0.00587476
-0.00417696 -0.00349272
-0.00330321 -0.00388025
-0.00379707 -0.00390904
0.00181189 0.00224542
0.00216153 0.00211828
0.00230372 0.00205083
0.00473587 0.00508532
0.00554004 0.00429177
0.00379797 0.00366575
0.00857003 0.00800837
0.01000909 0.00772663
0.00772318 0.01026804
0.01275693 0.01176310
0.01225641 0.01226808
0.01211920 0.01239686
0.00944409 0.00934175
0.00836979 0.00302555
0.00347423 0.00598397
-0.00089320 -0.00121160
0.00015590 -0.00014587
-0.00038831 0.00066004
-0.00307671 -0.00284881
-0.00349156 -0.00195339
-0.00144783 -0.00213927
-0.00191315 -0.00188567
-0.00287250 -0.01234762
-0.01229891 -0.01087602
-0.01277881 -0.01241757
-0.01121400 -0.00978297
-0.00914735 -0.00701686
-0.00305113 -0.00281053
-0.00265718 -0.00160212
-0.00161428 -0.00125187
-0.00195439 -0.00166518
-0.00168255 -0.00186373
0.00065660 0.00104884
-0.00076232 0.00115710
0.00059933 0.00100295
0.00172394 -0.00026393
0.00446464 0.00380000
0.00326021 0.00346854
0.00290809 0.00232502
-0.00048560 -0.00074294
-0.00057012 0.00975434
0.00852150 0.00868801
0.00459250 0.00391432
0.00392882 0.00592719
0.00617590 0.00762626
-0.00199454 -0.00123379
-0.00126291 -0.00130220
-0.00198761 -0.00152219
-0.00242671 -0.00408748
-0.00235813 0.01342773
0.01218774 0.01164445
0.00366760 0.00127228
0.00078917 0.00235364
0.00173654 0.00153588
0.00092522 -0.00028183
0.00146927 0.00071199
0.00020830 0.00182264
-0.00074975 -0.00040268
-0.00207217 0.00215350
0.00193026 0.00206142
0.00208859 0.00191525
0.00231374 0.00215606
0.00201003 0.00187852
-0.00323745 -0.00442772
-0.00156806 0.00080526
-0.00008657 -0.00161416
-0.00412556 -0.00379538
-0.00518811 -0.01635524
-0.01690404 -0.01555056
-0.01280862 -0.01327642
-0.01160337 -0.01253587
-0.01244415 -0.01056705
0.00393092 0.00398280
0.00283167 -0.00020615
0.00028413 0.00000833
0.00039681 0.00034102
0.00045019 -0.00261757
-0.00233336 -0.00331294
-0.00365699 -0.00176234
-0.00282903 0.00401781
0.00412657 0.00467787
-0.01006733 -0.01033222
-0.00950072 -0.00487453
-0.00507299 -0.00509803
-0.00451918 -0.00465013
-0.00491608 -0.00334311
-0.00397670 -0.00201460
0.00195164 0.00075491
0.00269414 0.00153347
0.00117343 0.00325239
0.00340715 0.00370032
0.00438835 0.00147534
0.00147285 0.00139922
0.00272394 0.00217911
0.00205236 -0.00325708
-0.00403924 -0.00408715
-0.00088350 -0.00338800
-0.00327203 0.00000996
-0.00390736 -0.00350435
0.00000000 0.00000000
0.00000000 0.00000000
0.00000000 0.00000000
0.00000000 0.00000000
0.00000000 -0.00121286
0.00389592 0.00289324
-0.00345743 0.00359142
0.00459121 -0.00363622
0.00293846 0.00311391
-0.00387968 -0.00362349
-0.00057726 0.00087157
0.00047402 0.00292298
0.00163681 0.00141343
0.00342335 -0.00380629
-0.00361684 -0.00480231
-0.00351636 -0.00359817
-0.00475321 -0.00414719
-0.00353248 -0.00488452
-0.00787727 0.00497967
0.00439864 0.00659832
0.00696936 0.00528392
0.00667255 0.00634125
0.00583991 0.00000000
0.00000000 0.00000000
0.00000000 0.00000000
0.00000000 0.00000000
0.00000000 0.00000000
-0.00061679 -0.00108972
-0.00099479 -0.00129860
-0.00180448 -0.00196228
-0.00143874 -0.00080147
-0.00090334 0.00031622
-0.00161020 0.00121311
0.00122799 -0.00097523
0.00143917 -0.00257486
-0.00337253 0.00138463
-0.00124787 -0.00145517
-0.00264135 -0.00062186
-0.00021976 0.00047572
-0.00053781 -0.00018369
-0.00188861 0.00111880
0.00052055 0.00013057
-0.00002378 0.00048182
0.00040864 -0.00205434
-0.00227845 0.00021743
-0.00986923 -0.00954232
-0.01060383 -0.00758710
-0.00619238 -0.00808159
-0.00791231 -0.00675072
-0.00862090 0.00055006
0.00120225 0.00185690
0.00132116 0.00143121
0.00189658 0.00334019
0.00321712 0.00289812
0.00122893 0.00127040
0.00165595 -0.00006049
-0.00074734 0.00008606
0.00581092 0.00555043
0.00160899 0.00535029
0.00510787 0.00429750
0.00535759 0.00528213
0.00473039 0.00467878
0.00458807 0.00414579
-0.01049610 -0.01037906
-0.01022120 -0.01017525
-0.00907396 -0.01107219
-0.01009230 -0.00979861
-0.01052711 0.00000000
0.00000000 0.00000000
0.00000000 0.00000000
-0.00000000 0.00000000
0.00000000 0.00000000
0.00454760 0.00571661
0.00540215 0.00194313
0.00184975 0.00083809
0.00128863 0.00145328
-0.00019391 0.00904915
0.00842129 0.00771732
0.00679958 0.00653508
0.00633629 0.00699824
0.00703983 0.00621835
-0.00119772 -0.00022451
-0.00067409 0.00014416
-0.00193826 -0.00116699
0.00019941 -0.00182339
-0.00155135 0.00777515
0.00676246 0.01019763
0.00090335 0.00029413
0.00221287 0.00072810
0.00023781 0.00244003
-0.00693766 -0.00682140
-0.00769823 -0.00646902
-0.00587219 -0.00626474
-0.00658905 -0.00679776
-0.00716228 0.00051292
0.00007845 -0.00070016
0.00058744 0.00029317
0.00088583 0.00000915
-0.00019634 0.00007454
0.00029845 0.00070560
0.00187189 0.00018116
0.00052324 0.00108562
-0.00061769 0.00000368
0.00071749 0.00041355
0.00061819 0.00379893
0.00100702 0.00025512
0.00191518 0.00114037
0.00084397 0.00226359
-0.00835199 -0.00811541
-0.00862670 -0.00914597
-0.00848237 -0.00937780
-0.00587414 -0.00436225
-0.00365145 0.00249963
0.00270015 0.00169442
0.00158695 0.00162276
0.00118219 -0.00170152
-0.00074121 0.00021894
0.00031065 0.00587066
0.00481921 0.00419439
0.00796284 0.00775639
0.00092891 0.00740093
0.00786637 0.01648507
0.00244698 -0.00045162
0.00756971 -0.00021531
0.00189070 0.01652495
0.00247959 -0.00169053
-0.00419476 -0.00470977
-0.00624768 -0.00100300
-0.00028712 -0.00264096
-0.00222633 -0.00188117
-0.00270596 -0.00280431
-0.00299311 -0.00209926
0.00570596 0.00479949
0.00292110 0.00917490
0.00714259 0.00378353
-0.01324776 -0.01312823
-0.01274673 -0.01264399
-0.01227198 -0.01264685
-0.00933440 -0.00928849
-0.00962328 -0.00191607
-0.00186668 -0.00241186
-0.00110509 -0.00105333
-0.00161241 -0.00142531
-0.00159811 -0.00168462
-0.00286231 -0.00188879
-0.00100615 -0.00111866
-0.00169984 -0.00117542
-0.00216140 -0.00181623
-0.00190707 0.00041680
0.00114547 0.00114121
0.00078558 -0.00022204
0.00121670 0.00128136
0.00047970 0.00056531
-0.00205316 -0.00248066
-0.00295074 -0.00228290
-0.00248728 -0.00255653
-0.00161699 -0.00198619
-0.00215822 -0.00189619
0.00420890 0.00376980
-0.00208745 0.00247302
0.00269623 -0.00126754
0.00334232 0.00144971
0.00851509 0.00868005
0.01209540 0.00309580
0.00228861 0.00400641
0.00225884 0.00255296
0.00409970 -0.01431745
-0.01030062 -0.01857927
-0.01037068 -0.00518006
-0.01259846 -0.01257410
-0.00686890 -0.01355429
0.00356473 0.00412913
0.00355929 0.00081514
0.00097748 0.00031791
0.00030382 0.00018539
0.00001357 -0.00097521
0.00068872 -0.00136668
0.00220715 0.00342724
-0.00100104 0.00143852
0.00278930 0.00018849
-0.00072048 -0.00052937
-0.00191202 0.00203170
0.00189934 0.00056405
0.00201801 0.00205613
0.00096573 0.01374237
0.01304419 0.01424613
0.01303964 0.01298609
0.01486968 0.00999295
0.00996074 0.01033122
0.00108247 0.00096985
0.00209008 -0.00121991
-0.00066036 -0.00075460
-0.00286039 -0.00356183
-0.00299517 -0.00477131
-0.00428485 -0.00488179
-0.00501749 -0.00345368
-0.00355279 -0.00504883
-0.00353263 -0.00416304
-0.00308670 0.00128122
-0.00090900 -0.00540853
-0.00065819 -0.00253590
0.00437714 0.00767214
0.00810886 -0.00056217
0.00050392 -0.00233589
0.00398367 0.00285203
0.00342839 0.00428933
0.00352793 0.00441355
-0.00419107 -0.00396268
-0.00424007 -0.00190361
-0.00109719 -0.00152813
-0.00208592 -0.00119386
-0.00177366 0.00193200
0.00810206 0.00741204
0.00641546 0.00857053
0.00884444 0.00621687
0.00785398 0.00816696
0.00349789 0.00507149
0.00586686 0.00445665
0.00436379 0.00527572
0.00269368 0.00356941
0.00363192 0.00285636
0.00385246 0.00288496
0.00066319 0.00287812
0.00204124 0.01061619
0.01078703 0.00990463
-0.00478729 -0.00351790
-0.00961867 -0.00015741
-0.00242412 -0.00156730
-0.00012437 -0.00167543
-0.00010017 -0.00906611
-0.01061163 -0.01047402
-0.00936555 -0.00970648
-0.01071411 -0.00785496
-0.00885760 -0.00977645
-0.00109330 -0.00112108
-0.00336532 -0.00199262
-0.00217551 -0.00350227
-0.00222847 -0.00177347
-0.00209954 -0.00651811
0.00828611 -0.00694513
-0.00580118 0.00957157
-0.00309117 -0.00341306
0.00973471 -0.00051924
-0.00535684 -0.00623177
-0.00698360 -0.00612404
-0.00608870 -0.00736367
-0.00714904 -0.00781235
-0.00856575 0.01696862
0.01792365 0.01735758
0.00963945 0.00590751
0.00866118 0.00726795
0.00421035 0.00920961
0.00786923 0.00678273
0.00643045 0.00711737
0.00687585 0.00710311
0.00673855 0.00634481
0.00679990 0.00908621
0.00880286 0.00977988
0.01005150 0.00961112
0.01039355 0.00495040
0.00483970 0.00629635
-0.00427342 -0.00497301
-0.01117759 -0.00061876
-0.00244917 -0.00401263
-0.00202397 -0.00304264
-0.00387654 0.00014952
-0.00073140 -0.00082678
0.00478302 0.00429149
0.00453210 0.00445218
0.00428841 0.00426269
-0.00013508 -0.00032745
0.00015626 0.00057073
0.00068150 0.00092073
0.00084498 0.00078277
0.00080403 -0.00223779
-0.00186869 -0.00149837
-0.00232224 -0.00090865
-0.00170024 -0.00269597
-0.00079686 -0.00139519
0.00019227 -0.00218489
-0.00327631 -0.00034936
0.00142789 -0.00189505
0.00007769 -0.00043087
-0.00079503 -0.00047914
-0.00011644 -0.00170285
-0.00246027 -0.00296630
-0.00320252 -0.00345885
-0.00295692 -0.00288371
0.00177122 0.00213278
0.00129985 0.00188726
0.00243003 0.00207503
0.00288265 0.00310025
0.00258440 -0.00419720
-0.00406688 -0.00424626
-0.00430148 -0.00401889
-0.00443305 -0.00125575
-0.00216978 -0.00350881
-0.00000000 -0.00000000
-0.00000000 -0.00000000
-0.00000000 -0.00000000
-0.00000000 -0.00000000
-0.00000000 0.00166655
0.00078394 0.00206101
0.00022334 0.00032968
0.00052725 0.00061005
0.00052882 0.00049064
-0.00369753 -0.00370185
-0.00414342 -0.00309817
-0.00356986 -0.00391862
-0.00339569 -0.00372055
-0.00393850 0.00155717
0.00019324 0.00220320
-0.00056442 0.00180611
-0.00077623 0.00239449
0.00263709 0.00488964
-0.00000000 -0.00000000
-0.00000000 -0.00000000
-0.00000000 -0.00000000
-0.00000000 -0.00000000
-0.00000000 0.00286832
0.00264417 0.00216531
0.00073488 0.00096338
0.00215373 0.00257907
0.00083059 0.00105979
-0.00337016 -0.00301276
-0.00320323 -0.00339038
-0.00252245 -0.00321171
-0.00417157 -0.00359358
-0.00459509 -0.00080794
-0.00011049 -0.00034334
-0.00034292 -0.00030110
-0.00055252 -0.00081882
-0.00100800 -0.00090694
-0.01512773 -0.01712856
-0.01688036 -0.01702967
-0.01656969 -0.01659285
-0.01457581 -0.01439004
-0.01414821 0.00211460
0.00120183 0.00318919
0.00591513 0.00548438
0.00672937 0.00637151
0.00648382 0.00720575
0.00481224 0.00550647
0.00538882 0.00493229
0.00508892 0.00448120
0.00465503 0.00438157
0.00502474 0.00191035
0.00190706 -0.00252714
0.00325666 0.00332140
0.00073222 0.00223454
0.00117516 0.00006011
0.00422273 0.00444672
0.00390796 0.00094737
0.00027887 0.00089532
0.00025467 -0.00018855
0.00111027 0.00096934
0.00030179 0.00143085
0.00012050 -0.00016707
0.00036185 0.00470382
0.00371540 0.00496954
0.00161002 0.00333364
0.00121733 0.00027137
-0.00007373 0.00010582
0.00192167 -0.00096768
0.00025562 0.00742121
-0.00696620 -0.00414662
0.00347858 -0.00621358
-0.01086906 0.00113140
-0.00705885 -0.00838602
0.00839538 0.00759060
0.00927084 0.00914712
0.00812218 0.00934293
0.00519150 0.00486674
0.00559304 -0.00082203
0.00021177 0.00156634
-0.00103621 -0.00187824
-0.00187309 0.00398612
0.00334481 0.00504928
-0.00145172 0.00024930
0.00048377 -0.00117285
-0.00252884 -0.00234020
-0.00339245 -0.00248016
-0.00213278 -0.00579728
-0.00551909 -0.00530635
-0.00496665 -0.00348418
-0.00416376 -0.00496091
-0.00341784 -0.00408285
-0.00283484 -0.00227701
-0.00200795 -0.00193843
-0.00172810 -0.00011442
-0.00207889 -0.00003405
0.00206414 0.00006355
-0.00004097 0.00197989
0.00396725 0.00401525
0.00490108 0.00329548
0.00368196 0.00343323
0.00000841 -0.00015819
-0.00079386 0.00019579
0.00174668 0.00021507
-0.00357287 -0.00255402
-0.00448046 0.00664575
0.00513433 0.00869482
-0.00068846 0.00112404
-0.00054644 -0.00138467
0.00115369 -0.00089312
-0.00084382 0.00053022
-0.00182759 -0.00237170
-0.00340364 -0.00144694
-0.00207524 -0.00258542
0.00029979 -0.00451724
-0.00562916 -0.00530228
-0.00436421 -0.00414731
-0.00527261 -0.00254595
-0.00304622 -0.00464633
0.00441400 0.00652945
0.00612574 -0.00001884
-0.00049841 0.00004948
-0.00146742 -0.00179211
-0.00125870 0.00625890
0.00663056 0.00880474
0.00023035 0.00148520
-0.00002853 0.00020754
0.00152464 0.00034101
0.00354063 0.00473137
0.00400424 0.00249852
0.00136093 0.00284130
0.00222118 0.00151608
0.00319717 -0.00063884
-0.00097692 0.00011534
-0.00158843 -0.00172156
-0.00091389 0.00148766
-0.00072964 0.00034560
-0.00000000 -0.00000000
-0.00000000 -0.00000000
-0.00000000 -0.00000000
-0.00000000 -0.00000000
-0.00000000 -0.00215519
0.00667397 0.00289832
-0.00299946 0.00387055
0.00192248 -0.00202981
0.00400887 0.00060007
0.00109075 0.00152909
-0.00022549 0.00321164
0.00343695 0.00117336
0.00284106 0.00224710
0.00074577 -0.00271648
-0.00255638 -0.00341876
-0.00254993 -0.00261080
-0.00322021 -0.00198849
-0.00135357 -0.00235239
-0.00146605 0.00124980
-0.00008186 -0.00299735
-0.00073940 -0.00010245
-0.00261603 -0.00024103
-0.00121240 -0.00000000
0.00000000 0.00000000
0.00000000 0.00000000
0.00000000 0.00000000
0.00000000 0.00000000
-0.00318634 -0.00285014
-0.00234040 -0.00200890
0.00384066 0.00393461
-0.00146818 0.00332246
0.00223316 0.00199242
-0.00445371 0.00103309
0.00103769 -0.00771731
0.00160270 -0.00074911
-0.00731174 0.00145519
-0.00119370 -0.00248658
-0.00069944 0.00594466
0.00881333 0.00361446
0.01061872 0.00957643
0.00668271 0.00831223
-0.01205387 0.00083008
0.00994837 -0.02871566
0.00100519 0.00737048
-0.00767044 0.00092774
-0.00842519 -0.00892516
-0.01103740 -0.00398691
-0.00424663 -0.00467645
-0.00418326 -0.00335776
-0.00471868 -0.00081675
-0.00142515 -0.00355083
-0.00132165 -0.00230944
-0.00399262 0.00578757
0.00446893 0.00487292
0.00337071 0.00405091
0.00325488 0.00252311
0.00322817 0.00167220
0.00425170 0.00395880
0.00343528 -0.01880059
-0.01871239 -0.01691307
-0.01095153 -0.01159939
-0.01156093 -0.01296731
-0.01380838 -0.01321953
0.00294898 0.00326205
0.00690703 -0.00340226
0.00019111 0.00062656
-0.00219634 0.00025464
0.00152874 0.00000000
-0.00000000 -0.00000000
-0.00000000 -0.00000000
0.00000000 0.00000000
-0.00000000 0.00000000
-0.00545388 -0.00447831
-0.00847373 0.00071576
0.00045573 0.00181683
0.00110468 0.00088925
0.00231313 0.00847904
0.00759882 0.01081686
0.00956003 0.00947380
0.01060201 0.01276746
0.01233140 0.01356605
0.00034662 -0.00427120
-0.00273453 0.00331676
-0.00439524 -0.00281155
0.00160879 -0.00594317
-0.00460879 -0.00638142
-0.00624093 -0.00710406
-0.00467864 -0.00383328
-0.00493676 -0.00522644
-0.00394016 -0.00540100
-0.00862201 -0.00815680
-0.00939672 -0.00571913
-0.00542275 -0.00598500
-0.00631141 -0.00585611
-0.00655700 -0.00082368
-0.00158176 -0.00176879
-0.00158759 -0.00126320
-0.00244409 -0.00185344
-0.00223900 -0.00222917
-0.00069210 -0.00102401
-0.00224331 -0.00202668
-0.00177118 -0.00330085
0.00054804 0.00024735
-0.00043533 -0.00311932
-0.00034593 -0.00327630
-0.00102625 -0.00033379
-0.00180018 -0.00121850
-0.00016930 -0.00212689
-0.00752562 -0.00881201
-0.00967455 -0.00875323
-0.00864288 -0.01065426
-0.00732159 -0.00660022
-0.00643600 -0.00011583
0.00050245 0.00209807
0.00133689 0.00018338
0.00395679 -0.00106127
0.00151483 0.00435329
0.00005273 -0.00000267
0.00027018 -0.00183659
0.00246715 -0.00001319
-0.00182670 0.00333100
0.00400249 0.02667224
0.00470959 -0.00401049
0.00760204 -0.00031803
-0.00223960 0.01089977
0.00163326 -0.00059126
-0.00208885 -0.00247214
-0.00245458 -0.00207894
-0.00188044 -0.00018915
-0.00172944 -0.00149689
-0.00108305 -0.00295800
-0.00222532 -0.00273429
-0.00168088 -0.00189563
-0.00201548 -0.00233307
-0.00222928 -0.00151852
-0.01207199 -0.01226442
-0.01293956 -0.01252422
-0.01303635 -0.01399127
-0.00881507 -0.00920537
-0.01022461 -0.00276221
-0.00335718 -0.00352919
-0.00277689 -0.00202068
-0.00180508 -0.00407630
-0.00430429 -0.00314425
-0.00005748 0.00078066
0.00150700 -0.00082105
0.00061023 -0.00168209
-0.00290529 -0.00386343
-0.00388631 0.00254354
0.00032337 0.00064750
0.00245152 0.00120020
0.00008966 0.00124718
-0.00011022 -0.00207321
-0.00228779 -0.00237262
-0.00244470 -0.00203348
-0.00097945 -0.00095303
-0.00294554 -0.00289522
-0.00192173 0.00512779
-0.01585025 -0.00797883
0.00398163 -0.01103816
-0.00362844 0.00148581
-0.00827628 -0.00381800
-0.00489970 -0.00519021
-0.00604240 -0.00379217
-0.00354617 -0.00423727
-0.00451590 -0.00349241
-0.00453448 0.00184452
0.00154690 0.00316189
0.00032507 0.00059795
0.00127304 0.00058029
0.00082351 0.00126845
-0.01144469 -0.01187085
-0.01405768 -0.00900264
-0.00977345 -0.01015354
-0.00931261 -0.00947392
-0.01065350 -0.00234065
-0.00236387 -0.00213867
-0.00171024 -0.00346469
-0.00139411 0.00256930
0.00156018 0.00133917
-0.00099860 0.00042330
0.00221047 -0.00167751
-0.00025408 0.00142770
-0.00027170 0.00010535
0.00315672 -0.00681827
-0.00616483 -0.00644976
-0.00387593 -0.00619811
-0.00298699 -0.00617063
-0.00570690 -0.00608361
0.00585068 0.00231479
0.00387209 0.00248281
-0.00077831 0.00042133
0.00198794 -0.00131068
0.00047135 -0.00835672
-0.00920418 -0.01106664
-0.00242585 -0.00342737
-0.00362762 -0.00441393
-0.00493378 -0.00633188
0.00179703 0.00298344
0.00162505 0.00083283
0.00183527 0.00089563
-0.00228318 -0.00107843
-0.00321417 0.00176602
0.00226721 0.00190045
0.00226933 0.00232201
0.00259916 0.00348937
0.00395577 0.00397358
