0.00016769 0.00014812
0.00023244 -0.00014392
-0.00028109 -0.00004147
0.00012937 -0.00005015
0.00014264 0.00250075
-0.00012849 0.00576786
0.00231397 -0.00922458
-0.00515095 0.00442708
-0.01188096 -0.00912996
-0.00000000 -0.00000000
-0.00000000 -0.00000000
-0.00000000 0.00000000
-0.00000000 -0.00000000
0.00000000 -0.00013356
-0.00040831 -0.00010269
-0.00012847 -0.00039358
-0.00001405 -0.00001635
-0.00007044 0.00028504
-0.00000000 -0.00000000
-0.00000000 -0.00000000
-0.00000000 -0.00000000
-0.00000000 -0.00000000
0.00000000 0.00007980
-0.00015529 0.00014519
0.00012581 -0.00036791
-0.00016863 0.00018510
-0.00042247 -0.00032812
-0.00000000 -0.00000000
-0.00000000 -0.00000000
-0.00000000 -0.00000000
0.00000000 -0.00000000
-0.00000000 -0.00000000
-0.00000000 0.00000000
-0.00000000 -0.00000000
-0.00000000 -0.00000000
-0.00000000 -0.00000000
-0.00000000 -0.00000000
-0.00000000 -0.00000000
-0.00000000 -0.00000000
-0.00000000 -0.00000000
-0.00000000 0.00000000
-0.00000000 0.00000000
0.00000000 -0.00000000
-0.00000000 -0.00000000
-0.00000000 0.00000000
0.00150742 -0.01208326
0.00743027 0.00395560
-0.00821572 -0.02123840
0.01244484 -0.00684411
-0.00400513 -0.00000000
-0.00000000 -0.00000000
-0.00000000 -0.00000000
-0.00000000 0.00000000
-0.00000000 0.00000000
-0.01206118 -0.02053073
-0.00258171 -0.01642668
-0.03770440 -0.00798170
0.00022803 -0.02061445
0.00332737 0.00418700
-0.00010886 0.00308272
0.00454543 -0.00412402
-0.00327002 0.00555461
-0.00736444 -0.00951726
-0.00006746 -0.00006597
-0.00004712 -0.00005558
-0.00004929 -0.00000563
0.00002980 -0.00004337
0.00000394 -0.00000000
-0.00000000 -0.00000000
-0.00000000 -0.00000000
-0.00000000 0.00000000
-0.00000000 -0.00000000
-0.00001291 -0.00000755
-0.00000323 -0.00002082
-0.00000772 0.00000458
-0.00000150 0.00001573
0.00002014 0.00023343
0.00004969 0.00004950
0.00030484 -0.00037870
-0.00052108 0.00046784
-0.00044620 -0.00089797
0.00000001 0.00000002
0.00000001 -0.00000001
-0.00000002 -0.00000001
-0.00000002 -0.00000001
0.00000002 -0.00000000
-0.00000000 -0.00000000
0.00000000 -0.00000000
-0.00000000 0.00000000
0.00000000 0.00000000
-0.00000000 -0.00000000
-0.00000000 -0.00000000
-0.00000000 -0.00000000
-0.00000000 -0.00000000
-0.00000000 -0.00000000
-0.00000000 -0.00000000
0.00000000 -0.00000000
-0.00000000 -0.00000000
0.00000000 -0.00000000
-0.00000000 0.00000000
0.00000000 -0.00000000
-0.00000000 -0.00000000
-0.00000000 -0.00000000
-0.00000000 -0.02322810
-0.01700149 -0.00422314
-0.01210396 0.00636420
0.02080904 0.00524943
-0.01275718 -0.01685281
-0.00000000 -0.00000000
-0.00000000 -0.00000000
-0.00000000 -0.00000000
-0.00000000 -0.00000000
-0.00000000 -0.00000000
-0.00000000 -0.00000000
-0.00000000 -0.00000000
-0.00000000 -0.00000000
-0.00000000 -0.00000000
0.00000000 0.00000000
0.00000000 0.00000000
0.00000000 0.00000000
-0.00000000 -0.00000000
0.00000000 0.00000000
-0.00000000 -0.00000000
-0.00000000 0.00000000
-0.00000000 -0.00000000
-0.00000000 0.00000000
-0.00000000 0.00000000
0.00000000 -0.00000000
-0.00000000 0.00000000
0.00000000 -0.00000000
0.00000000 -0.00000000
-0.00000000 -0.00000000
-0.00000000 -0.00000000
0.00000000 -0.00000000
-0.00000000 -0.00000000
-0.00000000 -0.00000000
-0.00000000 -0.00000000
-0.00000000 -0.00000000
-0.00000000 -0.00000000
-0.00000000 0.00000000
-0.00000000 0.00000000
-0.00000000 -0.00000000
-0.00000000 -0.00000000
-0.00000000 0.00000000
-0.00000000 -0.00000000
-0.00000000 -0.00000000
-0.00000000 -0.00000000
-0.00000000 -0.00000000
-0.00000000 -0.00000000
-0.00000000 -0.00000000
-0.00000000 -0.00000000
-0.00000000 -0.00000000
-0.00000000 -0.00000000
-0.00000000 -0.00000000
-0.00000000 -0.00000000
0.00000000 0.00000000
-0.00000000 0.00000000
0.00000000 -0.00000000
-0.00000000 -0.00000000
-0.00000000 -0.00000000
0.00000000 -0.00000000
-0.00000000 -0.00000000
-0.00000000 -0.00000000
-0.00000000 -0.00000000
-0.00000000 -0.00000000
-0.00000000 -0.00000000
-0.00000000 -0.00000000
-0.00000000 -0.00000000
-0.00000000 0.00000000
0.00000000 -0.00000000
-0.00000000 0.00000000
-0.00000000 -0.00000000
0.00000000 -0.00000000
-0.00000000 -0.00000000
-0.00000000 -0.00000000
-0.00000000 -0.00000000
-0.00000000 0.00000000
-0.00000000 -0.00000000
-0.00000000 -0.00000000
-0.00000000 0.00000000
-0.00000000 -0.00000000
-0.00000000 -0.00000000
-0.00000000 -0.00000000
-0.00000000 -0.00000000
-0.00000000 0.00000000
-0.00000000 -0.00000000
-0.00000000 -0.00000000
-0.00000000 -0.00000000
0.00000000 0.00000000
-0.00000000 0.00000000
-0.00000000 -0.00000000
-0.00000000 0.00000000
0.00000000 0.00000000
0.00000000 -0.00000000
0.00000000 -0.00000000
-0.00000000 -0.00000000
-0.00000000 0.00000000
0.00000000 0.00000000
-0.00000000 -0.00000000
-0.00000000 -0.00000000
-0.00000000 0.00000000
0.00000000 -0.00000000
0.00000000 -0.00000000
-0.00000000 0.00000000
-0.00000000 -0.00000000
0.00000000 -0.00000000
0.00000000 0.00000000
-0.00000000 -0.00000000
0.00000000 -0.00000000
-0.00000000 -0.00000000
-0.00000000 0.00000000
0.00000000 0.00000000
-0.00000000 -0.00000000
-0.00000000 -0.00000000
-0.00000000 -0.00000000
0.00000000 0.00000000
0.00009524 0.00040667
0.00054462 -0.00007346
0.00019235 0.00026919
0.00009433 0.00016124
0.00038529 0.00132850
-0.00777083 -0.00145475
0.00720526 -0.00500940
-0.00808939 0.00037520
-0.00724586 -0.01135414
-0.00000000 -0.00000000
0.00000000 -0.00000000
-0.00000000 -0.00000000
-0.00000000 -0.00000000
0.00000000 -0.00012299
-0.00031705 -0.00015016
-0.00022787 -0.00022917
0.00002935 -0.00015655
0.00005401 0.00025837
-0.00000000 -0.00000000
-0.00000000 -0.00000000
-0.00000000 -0.00000000
0.00000000 -0.00000000
0.00000000 0.00000266
-0.00047982 -0.00040252
0.00011642 -0.00030231
-0.00042346 0.00011193
-0.00025846 -0.00026547
0.00000000 -0.00000000
-0.00000000 -0.00000000
-0.00000000 -0.00000000
-0.00000000 0.00000000
0.00000000 -0.00000000
-0.00000000 -0.00000000
-0.00000000 -0.00000000
-0.00000000 -0.00000000
-0.00000000 0.00000000
0.00000000 -0.00000000
-0.00000000 0.00000000
-0.00000000 -0.00000000
0.00000000 0.00000000
0.00000000 0.00000000
-0.00000000 0.00000000
0.00000000 0.00000000
0.00000000 -0.00000000
0.00000000 0.00000000
-0.00134899 -0.03290972
-0.00207880 -0.00448984
-0.01431829 -0.02150401
-0.00158657 -0.00019265
-0.00122418 0.00000000
-0.00000000 -0.00000000
-0.00000000 -0.00000000
-0.00000000 0.00000000
-0.00000000 0.00000000
-0.01118650 -0.02496764
-0.01282430 -0.00145974
-0.03204129 -0.01497522
-0.00370257 -0.00579235
-0.00411870 0.00554529
-0.00553901 -0.00500096
0.00448863 -0.00114940
-0.00891644 -0.00050110
-0.00330258 -0.00802545
0.00016045 0.00020222
0.00007214 0.00006036
0.00005698 -0.00003215
0.00013720 -0.00002646
0.00001093 0.00000000
-0.00000000 -0.00000000
0.00000000 -0.00000000
-0.00000000 0.00000000
-0.00000000 -0.00000000
0.00000838 0.00001301
0.00001436 -0.00000109
-0.00000852 -0.00000807
0.00000705 0.00000541
0.00001550 0.00055277
-0.00043579 -0.00082692
0.00019573 -0.00036728
-0.00085308 -0.00007113
-0.00061460 -0.00057990
0.00000002 0.00000009
0.00000006 0.00000001
0.00000006 0.00000002
0.00000001 0.00000001
0.00000001 -0.00000000
-0.00000000 0.00000000
-0.00000000 0.00000000
-0.00000000 -0.00000000
0.00000000 0.00000000
-0.00000000 -0.00000000
0.00000000 -0.00000000
-0.00000000 -0.00000000
0.00000000 0.00000000
0.00000000 0.00000000
-0.00000000 -0.00000000
0.00000000 0.00000000
0.00000000 0.00000000
0.00000000 -0.00000000
-0.00000000 -0.00000000
0.00000000 -0.00000000
-0.00000000 -0.00000000
-0.00000000 -0.00000000
0.00000000 -0.02144063
-0.01934615 0.00207446
-0.01984558 -0.04130651
0.01696064 0.02036271
-0.02265042 0.01167431
0.00035486 -0.00020193
-0.00020598 0.00018828
0.00011689 -0.00002318
0.00058245 0.00053704
0.00002767 -0.00197331
0.00422070 -0.00713310
0.00664242 0.00561761
-0.00348252 0.00041562
-0.00340201 -0.01522134
-0.00000000 -0.00000000
-0.00000000 -0.00000000
-0.00000000 -0.00000000
-0.00000000 -0.00000000
-0.00000000 0.00035250
-0.00007604 0.00004959
-0.00012417 -0.00076802
-0.00034053 -0.00014138
-0.00022853 0.00003734
-0.00000000 -0.00000000
-0.00000000 0.00000000
-0.00000000 -0.00000000
-0.00000000 -0.00000000
-0.00000000 -0.00018728
0.00008297 -0.00018159
-0.00000582 -0.00006653
-0.00037357 -0.00032983
-0.00030174 -0.00043377
-0.00000000 -0.00000000
-0.00000000 -0.00000000
-0.00000000 -0.00000000
0.00000000 -0.00000000
-0.00000000 0.00000000
-0.00000000 -0.00000000
0.00000000 -0.00000000
-0.00000000 -0.00000000
-0.00000000 -0.00000000
-0.00000000 -0.00000000
-0.00000000 -0.00000000
-0.00000000 -0.00000000
-0.00000000 -0.00000000
-0.00000000 0.00000000
0.00000000 -0.00000000
0.00000000 -0.00000000
0.00000000 0.00000000
0.00000000 -0.00000000
-0.01242975 0.00992851
-0.00680153 -0.00305070
-0.01290095 0.00788692
-0.01411927 -0.00158382
-0.01854750 0.00000000
-0.00000000 -0.00000000
0.00000000 0.00000000
0.00000000 -0.00000000
-0.00000000 -0.00000000
0.02224994 -0.01714709
-0.00830504 0.00756171
-0.02664276 -0.00135023
-0.01077321 -0.06000865
-0.00679567 -0.00597451
0.00405507 -0.00362077
0.00444400 0.00755076
-0.00300136 -0.00047689
0.00081875 -0.00907282
-0.00023516 -0.00006315
0.00011485 -0.00000226
0.00016895 0.00013484
0.00014977 0.00025475
0.00015547 -0.00000000
-0.00000000 -0.00000000
-0.00000000 -0.00000000
-0.00000000 0.00000000
-0.00000000 -0.00000000
-0.00000384 -0.00002151
-0.00000496 0.00000533
0.00002035 0.00001672
0.00001966 0.00000472
-0.00000702 -0.00082919
0.00052725 0.00015999
0.00009396 0.00072642
-0.00029626 -0.00032033
0.00030391 -0.00090289
0.00000006 -0.00000003
0.00000000 -0.00000002
-0.00000000 0.00000002
0.00000006 0.00000007
0.00000001 0.00000000
-0.00000000 -0.00000000
-0.00000000 -0.00000000
0.00000000 0.00000000
0.00000000 -0.00000000
-0.00000000 -0.00000000
0.00000000 -0.00000000
-0.00000000 -0.00000000
0.00000000 -0.00000000
-0.00000000 -0.00000000
-0.00000000 -0.00000000
-0.00000000 -0.00000000
-0.00000000 -0.00000000
0.00000000 -0.00000000
-0.00000000 0.00000000
-0.00000000 -0.00000000
-0.00000000 -0.00000000
0.00000000 -0.00000000
-0.00000000 -0.08146643
0.00980282 0.03277706
-0.01098260 -0.00117212
-0.04822051 -0.00624115
0.00435058 0.05196968
0.00000299 -0.00062680
-0.00029066 0.00039991
-0.00043729 -0.00000758
0.00027239 -0.00015520
0.00020252 0.00636423
0.00165025 -0.00206895
-0.00111309 -0.00019266
-0.00031378 -0.00723865
-0.01400852 -0.01070048
-0.00000000 -0.00000000
0.00000000 0.00000000
-0.00000000 0.00000000
0.00000000 -0.00000000
0.00000000 -0.00015726
-0.00008315 0.00013976
-0.00031731 -0.00039831
-0.00014846 0.00020780
0.00021713 0.00004511
-0.00000000 -0.00000000
-0.00000000 -0.00000000
-0.00000000 0.00000000
-0.00000000 -0.00000000
0.00000000 0.00030477
0.00014099 0.00000709
0.00006038 -0.00008035
-0.00000342 -0.00019723
-0.00049176 -0.00038463
-0.00000000 -0.00000000
-0.00000000 -0.00000000
-0.00000000 -0.00000000
-0.00000000 -0.00000000
-0.00000000 -0.00000000
-0.00000000 -0.00000000
-0.00000000 0.00000000
0.00000000 -0.00000000
-0.00000000 -0.00000000
-0.00000000 -0.00000000
-0.00000000 -0.00000000
-0.00000000 -0.00000000
0.00000000 -0.00000000
-0.00000000 -0.00000000
0.00000000 -0.00000000
-0.00000000 0.00000000
0.00000000 0.00000000
-0.00000000 0.00000000
0.00103207 0.01591280
0.01585596 -0.02202844
-0.00618658 0.00170433
0.00909583 -0.02228512
-0.01398558 -0.00000000
-0.00000000 0.00000000
-0.00000000 -0.00000000
0.00000000 -0.00000000
-0.00000000 -0.00000000
0.00803014 -0.00456615
0.00898129 -0.03489602
-0.01733696 0.01204737
-0.01911969 -0.02053699
-0.00531685 0.00459150
0.00402747 -0.00158432
0.00377395 0.00203764
0.00140349 0.00047029
-0.00912518 -0.00961324
0.00015346 0.00009207
0.00006450 0.00023977
0.00007489 0.00007980
0.00016866 0.00007202
-0.00006952 -0.00000000
0.00000000 0.00000000
-0.00000000 -0.00000000
-0.00000000 0.00000000
-0.00000000 -0.00000000
-0.00000763 -0.00002688
0.00000949 -0.00001059
-0.00003687 0.00001366
0.00001161 0.00000974
0.00000965 0.00062902
0.00023929 -0.00025494
0.00046511 -0.00009805
0.00000093 -0.00019186
-0.00127266 -0.00098025
-0.00000003 -0.00000007
-0.00000005 0.00000005
-0.00000005 -0.00000003
0.00000004 0.00000001
0.00000003 0.00000000
0.00000000 -0.00000000
0.00000000 0.00000000
-0.00000000 0.00000000
-0.00000000 0.00000000
-0.00000000 -0.00000000
-0.00000000 -0.00000000
-0.00000000 -0.00000000
0.00000000 -0.00000000
-0.00000000 0.00000000
-0.00000000 -0.00000000
0.00000000 0.00000000
-0.00000000 -0.00000000
0.00000000 0.00000000
-0.00000000 -0.00000000
-0.00000000 0.00000000
-0.00000000 0.00000000
0.00000000 -0.00000000
-0.00000000 -0.01400842
-0.01750840 0.01756326
-0.00468319 -0.01804883
-0.00621379 0.00812554
0.04743429 -0.05671649
-0.00000163 -0.00001261
0.00003270 -0.00002942
-0.00000408 0.00003122
0.00000790 0.00001789
0.00000045 -0.00089449
-0.00049779 0.00188963
0.00144746 -0.00123280
-0.00002594 0.00122452
0.00129326 -0.00128359
-0.00000000 -0.00000000
-0.00000000 0.00000000
-0.00000000 -0.00000000
0.00000000 0.00000000
-0.00000000 0.00003744
-0.00003287 -0.00001872
0.00004958 0.00003817
-0.00007943 -0.00003669
0.00009450 0.00000171
0.00000000 -0.00000000
-0.00000000 0.00000000
-0.00000000 -0.00000000
-0.00000000 0.00000000
-0.00000000 0.00000144
0.00003168 0.00003355
0.00007408 0.00000254
-0.00000372 0.00003570
0.00004834 -0.00003013
0.00000000 -0.00000000
-0.00000000 -0.00000000
-0.00000000 -0.00000000
-0.00000000 -0.00000000
0.00000000 -0.00000000
-0.00000000 -0.00000000
-0.00000000 -0.00000000
-0.00000000 0.00000000
-0.00000000 0.00000000
0.00000000 -0.00000000
-0.00000000 -0.00000000
-0.00000000 -0.00000000
0.00000000 0.00000000
-0.00000000 0.00000000
0.00000000 0.00000000
-0.00000000 0.00000000
-0.00000000 -0.00000000
0.00000000 0.00000000
-0.00072425 -0.00214560
0.00085272 0.00315148
-0.00175447 -0.00449211
-0.00098506 0.00305767
-0.00396413 0.00000000
0.00000000 -0.00000000
0.00000000 -0.00000000
-0.00000000 0.00000000
-0.00000000 0.00000000
-0.00811509 0.00179208
0.00605982 0.00476838
-0.00767333 -0.00177335
0.00808008 0.00856772
-0.00869605 0.00002541
0.00008526 0.00159855
0.00143196 0.00032769
0.00077657 0.00112603
0.00174211 -0.00007381
-0.00002892 -0.00000640
-0.00001615 -0.00001704
-0.00002186 -0.00002076
-0.00002031 -0.00001222
-0.00000541 0.00000000
-0.00000000 -0.00000000
0.00000000 -0.00000000
-0.00000000 0.00000000
-0.00000000 -0.00000000
-0.00000040 0.00000105
0.00000206 0.00000474
0.00000394 0.00000098
-0.00000154 0.00000266
-0.00000039 -0.00003707
-0.00003451 0.00003524
0.00008268 -0.00000542
0.00007214 0.00005703
0.00005515 0.00001187
-0.00000000 0.00000001
0.00000001 -0.00000000
-0.00000001 -0.00000001
-0.00000001 -0.00000001
0.00000000 -0.00000000
-0.00000000 -0.00000000
-0.00000000 0.00000000
-0.00000000 -0.00000000
0.00000000 0.00000000
-0.00000000 -0.00000000
-0.00000000 -0.00000000
-0.00000000 -0.00000000
-0.00000000 -0.00000000
-0.00000000 0.00000000
0.00000000 -0.00000000
0.00000000 0.00000000
0.00000000 -0.00000000
-0.00000000 0.00000000
-0.00000000 -0.00000000
-0.00000000 -0.00000000
-0.00000000 -0.00000000
-0.00000000 0.00000000
0.00000000 -0.00169403
-0.00469250 0.00383440
0.00661436 -0.00223088
-0.00187883 -0.00157526
0.00517389 -0.00180302
-0.00035750 0.00021702
0.00085036 -0.00059015
0.00045589 0.00058860
-0.00086604 -0.00000527
0.00010241 -0.00043036
0.00194760 0.00471168
0.01063742 0.00333013
-0.00591603 -0.00549452
-0.00452115 -0.01352328
-0.00000000 0.00000000
0.00000000 -0.00000000
-0.00000000 -0.00000000
-0.00000000 -0.00000000
-0.00000000 0.00036178
-0.00003813 -0.00029414
-0.00028948 -0.00053244
-0.00087232 -0.00001970
-0.00016710 -0.00020488
-0.00000000 0.00000000
-0.00000000 -0.00000000
-0.00000000 -0.00000000
-0.00000000 0.00000000
-0.00000000 0.00001573
0.00002831 0.00015548
0.00011792 -0.00011893
-0.00032854 -0.00031359
-0.00038317 -0.00054066
-0.00000000 -0.00000000
-0.00000000 -0.00000000
-0.00000000 -0.00000000
-0.00000000 -0.00000000
-0.00000000 0.00000000
0.00000000 -0.00000000
0.00000000 -0.00000000
-0.00000000 -0.00000000
-0.00000000 -0.00000000
-0.00000000 -0.00000000
-0.00000000 -0.00000000
-0.00000000 -0.00000000
-0.00000000 -0.00000000
-0.00000000 0.00000000
-0.00000000 0.00000000
0.00000000 -0.00000000
0.00000000 -0.00000000
0.00000000 -0.00000000
-0.00641113 -0.01095859
-0.00239419 0.00837311
-0.04042590 -0.00168185
-0.01176883 -0.01221486
-0.01588873 -0.00000000
-0.00000000 -0.00000000
0.00000000 -0.00000000
-0.00000000 -0.00000000
-0.00000000 -0.00000000
0.00054632 0.00192273
-0.00196129 0.00658319
-0.02179651 -0.04215230
-0.00495214 -0.03278649
-0.05875098 0.00154739
0.00005953 0.00533462
0.00557327 0.00496574
-0.00144422 -0.00897215
-0.00015071 -0.00794141
-0.00003106 0.00007281
0.00021608 -0.00014183
-0.00001473 0.00003261
-0.00012274 -0.00000988
0.00015138 -0.00000000
-0.00000000 -0.00000000
-0.00000000 -0.00000000
-0.00000000 -0.00000000
-0.00000000 -0.00000000
-0.00000454 0.00000878
0.00000770 0.00000109
-0.00000002 -0.00001550
0.00002227 -0.00000915
0.00001345 0.00011160
0.00039197 0.00091706
0.00002157 0.00054715
0.00000386 -0.00111589
-0.00018037 -0.00071811
0.00000003 0.00000007
0.00000004 -0.00000005
0.00000008 0.00000001
-0.00000003 0.00000004
-0.00000002 0.00000000
-0.00000000 0.00000000
-0.00000000 0.00000000
-0.00000000 0.00000000
0.00000000 -0.00000000
-0.00000000 -0.00000000
-0.00000000 -0.00000000
-0.00000000 -0.00000000
-0.00000000 -0.00000000
-0.00000000 -0.00000000
-0.00000000 -0.00000000
-0.00000000 -0.00000000
-0.00000000 -0.00000000
0.00000000 0.00000000
-0.00000000 -0.00000000
-0.00000000 -0.00000000
-0.00000000 -0.00000000
-0.00000000 0.00000000
-0.00000000 -0.05375161
0.02155281 -0.01600285
-0.00663012 -0.01509873
-0.02023546 0.03277572
-0.05749448 0.04728596
0.00068759 -0.00009585
0.00002995 0.00095118
0.00002361 0.00014367
0.00078902 -0.00016710
0.00026288 0.00098819
-0.00042721 -0.00640147
-0.00451991 0.00070900
0.00092760 -0.00709647
-0.01336251 -0.00420937
0.00000000 -0.00000000
-0.00000000 -0.00000000
-0.00000000 0.00000000
-0.00000000 -0.00000000
-0.00000000 -0.00026391
-0.00002734 0.00004205
-0.00039696 -0.00026321
0.00001642 0.00012091
0.00005893 0.00012863
0.00000000 -0.00000000
-0.00000000 -0.00000000
0.00000000 0.00000000
0.00000000 -0.00000000
-0.00000000 -0.00000736
0.00001810 -0.00015849
-0.00014175 -0.00015896
-0.00002100 -0.00020804
-0.00040070 -0.00019926
-0.00000000 -0.00000000
0.00000000 -0.00000000
-0.00000000 -0.00000000
0.00000000 -0.00000000
-0.00000000 0.00000000
0.00000000 -0.00000000
0.00000000 0.00000000
0.00000000 -0.00000000
0.00000000 0.00000000
0.00000000 0.00000000
-0.00000000 -0.00000000
-0.00000000 0.00000000
0.00000000 -0.00000000
-0.00000000 -0.00000000
0.00000000 0.00000000
-0.00000000 0.00000000
0.00000000 0.00000000
-0.00000000 0.00000000
-0.02336523 0.00147861
-0.00164733 -0.02960542
-0.02172457 0.00288552
0.00253945 -0.01890773
-0.00435534 0.00000000
0.00000000 0.00000000
-0.00000000 0.00000000
0.00000000 -0.00000000
-0.00000000 -0.00000000
-0.00744871 0.00002451
-0.00839140 -0.03077458
-0.01282633 0.00613494
-0.03059255 -0.01103219
0.01164334 -0.00020933
0.00153070 -0.00041082
-0.00237027 -0.00138885
0.00258987 -0.00162874
-0.00973138 -0.00532531
0.00029312 -0.00014662
-0.00000165 0.00034348
-0.00019385 -0.00001548
0.00027262 -0.00012467
-0.00002283 -0.00000000
0.00000000 0.00000000
-0.00000000 -0.00000000
0.00000000 0.00000000
-0.00000000 -0.00000000
0.00001139 -0.00000709
0.00001624 0.00002132
-0.00000537 0.00001810
0.00002220 0.00000327
-0.00000040 0.00025767
-0.00012695 -0.00010768
-0.00003981 -0.00060781
-0.00007713 -0.00026234
-0.00121055 -0.00082422
0.00000007 0.00000000
0.00000001 0.00000009
0.00000000 0.00000001
0.00000007 0.00000002
0.00000001 -0.00000000
0.00000000 0.00000000
0.00000000 0.00000000
0.00000000 0.00000000
-0.00000000 0.00000000
-0.00000000 -0.00000000
-0.00000000 -0.00000000
-0.00000000 0.00000000
-0.00000000 -0.00000000
0.00000000 0.00000000
-0.00000000 0.00000000
0.00000000 -0.00000000
-0.00000000 -0.00000000
-0.00000000 -0.00000000
0.00000000 0.00000000
0.00000000 0.00000000
-0.00000000 0.00000000
-0.00000000 -0.00000000
-0.00000000 -0.01549747
-0.04758691 0.00746530
-0.01466107 -0.02520097
-0.01970287 -0.01222854
0.04723602 -0.00690515
