-0.28840095 0.21677345
0.41594410 -0.17660731
-0.23231156 0.17328000
0.00292963 -0.16359174
0.13642108 -0.26707688
0.31072986 0.09217139
-0.17322291 -0.13001715
0.22642131 -0.02372900
-0.26808462 0.16228583
0.09751192 -0.21979597
-0.32644483 -0.24910396
0.89877594 0.14350890
0.02694452 -0.05011042
0.05706647 -0.11649438
-0.01724184 0.00803703
0.07323781 0.00117282
0.03251401 -0.01772977
-0.00622718 -0.02209229
0.01843353 0.00243166
-0.03375699 -0.01977921
-0.01113845 0.00541476
0.01562879 0.03366006
-0.01756776 -0.02223784
-0.05264337 -0.00219946
-0.03372788 0.00541731
-0.02004952 -0.02060799
0.00977797 -0.01802098
-0.00770278 -0.02467551
0.00700240 0.00525298
-0.02274424 0.00490534
0.03534164 0.02801460
0.01951041 0.01008956
-0.07116926 -0.06009813
-0.01257676 -0.04387645
-0.05309696 -0.02394844
-0.01532335 -0.06494216
-0.09102350 -0.01358591
-0.08549027 0.02583471
0.06036805 -0.05044427
0.03246372 -0.01597700
-0.05698492 0.10446291
-0.12065376 -0.08148666
0.00778502 0.01071776
-0.04499251 -0.02207505
0.03419949 -0.02406269
-0.11070830 -0.00023706
0.03027022 -0.01574236
-0.05700498 -0.07821365
0.08137175 0.10364628
-0.31478590 0.28323004
0.00976602 0.08406315
0.42075822 0.20735101
-0.13789044 -0.00962478
0.12372158 -0.12620820
0.04025977 0.04098741
0.16854970 0.31029078
1.04658937 0.22031249
-0.30662295 0.33366239
0.29574898 0.29827434
-0.34952524 -0.02427388
-0.10842378 0.11732389
-0.36812419 -0.02298166
-0.12552522 -0.41806823
0.22135235 -0.32168734
-0.07063123 0.25222376
-0.37899601 -0.46929419
-0.45954508 -0.12568262
-0.10094415 -0.15396658
-0.10648619 0.03562265
-0.40048951 0.01115132
-0.14553554 -0.05039924
-0.39389944 -0.04194680
0.07956751 -0.11929157
-0.44137192 -0.06261239
0.15447973 0.10556877
-0.15680604 -0.13234688
-0.40225413 1.94882798
-0.19764453 -0.08441939
-0.66127270 0.29828778
0.15190253 0.05707447
0.24834059 0.11793885
-0.03619645 -0.22843684
0.30840799 -0.22513229
-0.23964787 -0.10723495
0.06554623 -0.13036902
-0.17714785 0.10159153
0.06537193 -0.04333670
-0.13225788 -0.04634437
-0.05343349 0.66571289
-0.40751612 -0.13388732
-0.28909126 0.00803642
-0.32419115 -0.01948960
-0.22772966 -0.20462146
0.04886874 0.04635828
0.00219980 -0.15516163
-0.48744637 -0.03504402
-0.04501139 -0.11776857
0.08921918 -0.06979398
-0.08566057 -0.16817921
0.23221403 -0.22291620
0.04187277 0.16534530
-0.02394131 -0.37150446
-0.21060245 0.02004942
-0.11657277 0.14987168
0.17980924 0.01250546
-0.19646171 -0.12144120
-0.18783882 -0.13686009
-0.00037198 0.09091178
0.03604718 0.02838234
0.00313764 -0.15888759
-0.04454173 0.18982926
-0.38079685 -0.13153243
0.00003325 0.22239028
-0.09189004 0.03933597
0.08186190 0.07090937
0.03179806 0.08592474
-0.33527002 -0.30697104
0.03220289 -0.25127622
-0.25066704 -0.07352112
-0.05027153 -0.34620833
-0.03959579 -0.05821775
-0.01375400 -0.10958257
0.02283656 -0.05492016
0.11302019 -0.15285052
-0.06069510 0.25669640
-0.29468387 -0.20485120
-0.31368834 -0.06987420
-0.15748590 -0.10024609
0.05355345 -0.07213300
-0.10864798 -0.33038345
0.02402349 -0.06554089
-0.10262144 -0.03431516
0.00541239 -0.14734901
0.43222010 0.04608496
0.04135029 -0.00241378
0.71923840 0.10765503
0.67370951 -0.34045222
0.04747336 -0.55161524
0.63346320 0.64170706
-0.21771614 0.01441375
0.63108557 0.09943639
-0.31257740 0.22425760
-0.96961653 0.24498622
-0.12355484 -0.11237539
0.00261906 -0.01380971
0.01109146 -0.01926204
-0.02379576 0.00383195
-0.00548578 0.00689397
-0.00354171 0.00761746
-0.00077465 -0.00941543
0.02072522 -0.00796540
0.01286925 0.00577964
-0.05993976 -0.02740767
-0.02381893 -0.03036326
-0.01690905 0.01208765
-0.00542829 -0.01165989
-0.33735570 -0.14007467
-0.07193654 -0.23760219
-0.19348489 -0.25088012
-0.39939520 0.13213341
-0.14813229 -0.48365688
0.33438542 0.17592464
0.39800605 -0.29853711
-0.11987313 -0.06762422
-0.39284882 -0.12223884
0.00034996 0.35761654
-0.39581838 0.04899782
-0.01900892 -0.04508279
0.05070001 0.01623626
-0.02575409 -0.08908844
-0.00579496 0.05471254
-0.08751252 0.02838402
0.03602187 0.00894690
0.00969718 0.01412174
0.08094478 0.00068229
0.01111082 0.02679460
-0.06248527 -0.11767112
0.08235060 -0.11083052
0.11195301 -0.06469344
0.06277279 -0.07689224
0.10715882 -0.15013845
0.11539582 0.14702795
-0.35229579 0.04322863
0.19985785 -0.49942899
0.14947627 -0.02258857
-0.17414790 -0.43252903
-0.36251312 -0.07145553
-0.19124891 -0.14861754
0.51553774 0.51441586
-0.03361813 0.40011993
-0.47001594 0.26787949
-0.01010396 0.36652243
