-0.00000000 -0.00000000
-0.00000000 0.00000000
0.00000000 0.00000000
0.00000000 0.00000000
0.00000000 0.00000000
0.00000000 0.00000000
0.00000000 0.00000000
0.00000000 0.00000000
0.00000000 -0.00000000
0.00000000 0.00000000
-0.00000000 0.00000000
0.00000000 0.00000000
0.00000000 0.00000000
0.00000000 0.00000000
0.00000000 0.00000000
0.00000000 0.00000000
0.00000000 0.00000000
0.00000000 0.00000000
0.00000000 0.00000000
0.00000000 0.00000000
0.00000000 0.00000000
-0.00000000 0.00000000
0.00000000 0.00000000
0.00000000 -0.00000000
0.00000000 0.00000000
0.00000000 0.00000000
0.00000000 0.00000000
0.00000000 0.00000000
-0.00000000 0.00000000
0.00000000 -0.00000000
0.00000000 0.00000000
0.00000000 0.00000000
0.00000000 0.00000000
0.00000000 0.00000000
0.00000000 -0.00000000
0.00000000 0.00000000
0.00000000 -0.00000000
-0.00000000 0.00000000
0.00000000 0.00000000
0.00000000 0.00000000
0.00000000 -0.00000000
-0.00000000 -0.00000000
-0.00000000 0.00000000
-0.00000000 -0.00000000
-0.00000000 -0.00000000
0.00000000 0.00000000
0.00000000 0.00000000
0.00000000 0.00000000
0.00000000 0.00000000
0.00000000 0.00000000
0.00000000 -0.00000000
0.00000000 0.00000000
0.00000000 0.00000000
0.00000000 0.00000000
0.00000000 0.00000000
0.00000000 0.00000000
0.00000000 0.00000000
0.00000000 0.00000000
0.00000000 -0.00000000
0.00000000 -0.00000000
0.00000000 0.00000000
0.00000000 0.00000000
0.00000000 0.00000000
0.00000000 0.00000000
-0.00000000 0.00000000
0.00000000 0.00000000
0.00000000 0.00000000
0.00000000 0.00000000
0.00000000 0.00000000
0.00000000 0.00000000
0.00000000 -0.00000000
0.00000000 0.00000000
0.00000000 0.00000000
0.00000000 0.00000000
0.00000000 -0.00000000
0.00000000 0.00000000
-0.00000000 0.00000000
0.00000000 0.00000000
0.00000000 0.00000000
-0.00000000 0.00000000
0.00000000 -0.00000000
0.00000000 0.00000000
-0.00000000 0.00000000
0.00000000 0.00000000
0.00000000 0.00000000
0.00000000 0.00000000
0.00000000 0.00000000
0.00000000 0.00000000
0.00000000 0.00000000
0.00000000 0.00000000
0.00000000 0.00000000
-0.00000000 0.00000000
0.00000000 0.00000000
0.00000000 0.00000000
-0.00000000 0.00000000
0.00000000 -0.00000000
0.00000000 0.00000000
0.00000000 0.00000000
0.00000000 0.00000000
0.00000000 0.00000000
-0.00000000 0.00000000
0.00000000 0.00000000
0.00000000 0.00000000
0.00000000 0.00000000
0.00000000 0.00000000
0.00000000 0.00000000
0.00000000 0.00000000
0.00000000 0.00000000
0.00000000 -0.00000000
-0.00000000 -0.00000000
0.00000000 0.00000000
-0.00000000 0.00000000
0.00000000 -0.00000000
-0.00000000 0.00000000
-0.00000000 -0.00000000
0.00000000 0.00000000
0.00000000 -0.00000000
0.00000000 0.00000000
-0.00000000 -0.00000000
0.00000000 -0.00000000
-0.00000000 -0.00000000
0.00000000 -0.00000000
0.00000000 -0.00000000
0.00000000 -0.00000000
-0.00000000 -0.00000000
0.00000000 0.00000000
0.00000000 -0.00000000
0.00000000 0.00000000
0.00000000 0.00000000
-0.00000000 0.00000000
-0.00000000 0.00000000
-0.00000000 -0.00000000
-0.00000000 0.00000000
-0.00000000 -0.00000000
-0.00000000 0.00000000
-0.00000000 0.00000000
-0.00000000 0.00000000
-0.00000000 -0.00000000
-0.00000000 -0.00000000
0.00000000 0.00000000
-0.00000000 0.00000000
0.00000000 0.00000000
-0.00000000 0.00000000
0.00000000 -0.00000000
0.00000000 -0.00000000
-0.00000000 -0.00000000
0.00000000 0.00000000
-0.00000000 -0.00000000
0.00000000 0.00000000
-0.00000000 -0.00000000
-0.00000000 0.00000000
0.00000000 -0.00000000
0.00000000 0.00000000
0.00000000 -0.00000000
0.00000000 0.00000000
0.00000000 -0.00000000
0.00000000 0.00000000
-0.00000000 0.00000000
-0.00000000 0.00000000
0.00000000 0.00000000
0.00000000 0.00000000
-0.00000000 0.00000000
0.00000000 -0.00000000
0.00000000 0.00000000
0.00000000 -0.00000000
0.00000000 0.00000000
-0.00000000 0.00000000
-0.00000000 0.00000000
-0.00000000 0.00000000
0.00000000 -0.00000000
0.00000000 -0.00000000
0.00000000 -0.00000000
0.00000000 -0.00000000
0.00000000 0.00000000
0.00000000 0.00000000
-0.00000000 0.00000000
0.00000000 -0.00000000
-0.00000000 -0.00000000
-0.00000000 -0.00000000
0.00000000 0.00000000
0.00000000 -0.00000000
-0.00000000 -0.00000000
-0.00000000 -0.00000000
-0.00000000 0.00000000
0.00000000 0.00000000
-0.00000000 -0.00000000
-0.00000000 -0.00000000
-0.00000000 0.00000000
0.00000000 0.00000000
0.00000000 -0.00000000
-0.00000000 -0.00000000
0.00000000 0.00000000
-0.00000000 -0.00000000
0.00000000 0.00000000
0.00000000 0.00000000
0.00000000 -0.00000000
-0.00000000 -0.00000000
0.00000000 -0.00000000
-0.00000000 -0.00000000
0.00000000 0.00000000
-0.00000000 0.00000000
-0.00000000 -0.00000000
0.00000000 0.00000000
0.00000000 -0.00000000
-0.00000000 -0.00000000
0.00000000 0.00000000
0.00000000 0.00000000
0.00000000 0.00000000
0.00000000 0.00000000
0.00000000 0.00000000
0.00000000 -0.00000000
0.00000000 0.00000000
0.00000000 -0.00000000
0.00000000 -0.00000000
-0.00000000 0.00000000
-0.00000000 0.00000000
0.01765845 0.01136729
0.00457158 -0.01469653
0.01476531 0.00958452
0.00231101 0.00429231
0.01334348 -0.00000000
-0.00000000 -0.00000000
-0.00000000 -0.00000000
-0.00000000 -0.00000000
-0.00000000 -0.00000000
0.01490459 0.00559568
-0.01232475 0.00194562
0.00991323 -0.00294393
0.00184091 -0.01310160
0.00798213 0.00216202
0.01442206 0.00487727
0.00645110 -0.01468223
0.01487141 -0.02427090
0.01385977 -0.00772881
0.03502797 0.00544631
-0.01126089 -0.00903983
0.02819637 -0.00966956
-0.00974068 0.01617797
0.00280640 0.02857163
0.00847060 0.01050685
-0.00624048 0.02485468
-0.00047858 -0.00082930
0.00512230 0.01167439
-0.00628750 -0.00758900
-0.01051125 0.00921671
0.01114933 0.00478987
-0.00354189 0.01172845
0.01388163 0.02348932
0.00048731 -0.00193643
0.00838493 0.02009335
-0.00032834 -0.00771321
0.00399166 -0.00043355
0.00638933 -0.00279353
-0.00441726 0.00322769
0.01121124 -0.00913297
0.00331175 0.00138896
0.00375469 0.00103463
-0.01148036 -0.04529105
-0.01422322 0.01392846
-0.01120750 -0.02071513
0.01684220 -0.00466400
-0.00276136 -0.00224487
-0.00057049 0.01442670
-0.00146785 -0.01641852
-0.00025890 0.00332770
-0.02396995 0.01524456
0.01159303 0.01162215
0.00722597 0.02007342
0.00575729 0.01427861
0.01524453 0.00524750
0.00944587 0.00369427
-0.00854741 -0.00003823
0.00711751 0.00887889
-0.00523696 0.00272934
-0.01190664 0.01677568
0.01595355 -0.00435159
-0.00717571 0.02127301
0.00259879 0.00756905
0.02865098 0.00616941
0.00000000 0.00000000
-0.00000000 -0.00000000
-0.00000000 -0.00000000
-0.00000000 -0.00000000
-0.00000000 -0.00402023
0.01169313 -0.01623118
-0.00476695 0.00860590
-0.00164215 -0.02398911
-0.00630753 -0.00391588
-0.01020168 -0.00503306
-0.00602355 -0.00465057
0.00113375 -0.00824309
-0.01798249 0.01394398
0.00386695 0.00023891
0.00970223 -0.00869734
0.01528086 0.00049352
-0.00349769 -0.01367818
-0.00738659 -0.00319065
0.02924840 0.00835593
0.01395215 -0.00025263
0.02271658 0.00463442
0.01011334 0.00721430
0.02968354 0.02141729
-0.00326586 -0.00625218
0.02264953 0.00733729
-0.00995445 -0.01647325
-0.00764834 -0.01359572
-0.00003133 0.00868782
0.01131690 0.00264760
0.00621907 0.00555025
-0.00678716 0.01460658
0.01150461 0.03337511
-0.00463073 -0.01141328
-0.01212561 -0.00015304
-0.00020829 -0.00602853
-0.00179379 0.00527749
0.00845696 0.00888547
-0.00406088 0.00609262
0.01232363 -0.00161474
0.01259343 -0.00998273
0.01059627 -0.00052166
0.01337097 0.00471421
0.01096769 -0.00232496
0.00165412 0.00490818
-0.01334422 0.00088128
-0.00000000 0.00000000
0.00000000 -0.00000000
0.00000000 -0.00000000
-0.00000000 -0.00000000
-0.00000000 0.00000000
-0.00000000 -0.00000000
0.00000000 0.00000000
-0.00000000 0.00000000
-0.00000000 -0.00000000
-0.00000000 -0.00000000
-0.00000000 -0.00000000
-0.00000000 -0.00000000
-0.00000000 -0.00000000
-0.00000000 -0.00000000
0.00000000 -0.00000000
-0.00000000 -0.00000000
-0.00000000 0.00000000
0.00000000 -0.00000000
-0.00000000 0.00000000
0.00000000 0.00000000
0.00000000 -0.00000000
-0.00000000 0.00000000
0.00000000 -0.00000000
0.00000000 -0.00000000
0.00000000 0.00000000
-0.00000000 -0.00000000
-0.00000000 -0.00000000
0.00000000 -0.00000000
-0.00000000 0.00000000
-0.00000000 -0.00000000
0.00000000 -0.00000000
-0.00000000 -0.00000000
-0.00000000 -0.00000000
-0.00000000 -0.00000000
-0.00000000 -0.00000000
-0.00000000 -0.00000000
-0.00000000 -0.00000000
-0.00000000 0.00000000
-0.00000000 -0.00000000
-0.00000000 -0.00000000
-0.00000000 -0.00000000
-0.00000000 -0.00000000
-0.00000000 0.00000000
0.00000000 -0.00000000
0.00000000 0.00000000
-0.00000000 -0.00000000
-0.00000000 -0.00000000
-0.00000000 -0.00000000
-0.00000000 -0.00000000
-0.00000000 -0.00000000
0.00000000 -0.00000000
0.00000000 0.00000000
-0.00000000 -0.00000000
0.00000000 -0.00000000
-0.00000000 -0.00000000
-0.00000000 -0.00000000
-0.00000000 -0.00000000
-0.00000000 -0.00000000
-0.00000000 -0.00000000
0.00000000 -0.00000000
0.00000000 0.00000000
0.00000000 0.00000000
-0.00000000 -0.00000000
-0.00000000 0.00000000
0.00000000 0.00000000
0.00000000 -0.00000000
-0.00000000 -0.00000000
-0.00000000 -0.00000000
0.00000000 -0.00000000
-0.00000000 0.00000000
-0.00000000 -0.00000000
0.00000000 -0.00000000
0.00000000 -0.00000000
-0.00000000 -0.00000000
-0.00000000 -0.00000000
0.00000000 0.00000000
-0.00000000 0.00000000
0.00000000 -0.00000000
-0.00000000 -0.00000000
-0.00000000 0.00000000
-0.00000000 -0.00000000
-0.00000000 0.00000000
-0.00000000 -0.00000000
-0.00000000 -0.00000000
-0.00000000 -0.00000000
-0.00000000 -0.00000000
-0.00000000 -0.00000000
-0.00000000 -0.00000000
-0.00000000 -0.00000000
-0.00000000 -0.00000000
0.00000000 0.00000000
0.00000000 0.00000000
0.00000000 -0.00000000
-0.00000000 0.00000000
-0.00000000 0.00000000
0.00000000 -0.00000000
-0.00000000 -0.00000000
-0.00000000 0.00000000
-0.00000000 -0.00000000
-0.00000000 -0.00000000
-0.00000000 0.00000000
-0.00000000 -0.00000000
-0.00000000 0.00000000
-0.00000000 0.00000000
-0.00000000 -0.00000000
-0.00000000 -0.00000000
-0.00000000 -0.00000000
-0.00000000 -0.00000000
-0.00941725 -0.01070055
-0.00663512 0.00810356
0.02794066 -0.00544000
0.00177110 0.01752432
0.01100949 -0.00000000
-0.00000000 -0.00000000
-0.00000000 0.00000000
0.00000000 -0.00000000
0.00000000 -0.00000000
-0.00565980 -0.01284588
-0.00600421 0.00881558
0.02108996 0.00235750
-0.00575216 0.00386793
-0.00564598 0.01680999
0.03310880 0.01135787
-0.00149449 0.00160392
-0.00470748 -0.00226669
0.00254655 -0.00665056
-0.01051873 0.00198262
0.00911008 -0.01175582
0.01463608 0.02686951
0.00151389 0.00278442
0.00151498 -0.00904610
-0.00818497 -0.00773376
0.00207953 0.01618522
-0.00720521 -0.00244597
0.01645142 0.01123992
0.01435811 0.01034193
-0.00146446 0.01098158
-0.00410916 -0.01659661
-0.00366393 -0.00881321
-0.00132941 -0.01716115
0.00755467 0.01152262
-0.01079403 0.01433117
0.01466446 0.00300710
0.00212666 -0.00067972
0.00142056 -0.01344185
-0.00089208 0.00970080
0.01947822 0.00037276
-0.00285336 0.00389735
-0.00218816 -0.00962674
-0.00420960 -0.00144096
0.00567621 -0.00077818
0.00015557 0.00808151
0.00443694 -0.00951678
-0.01078691 -0.00362208
0.00432712 -0.00581424
0.00912208 0.00913661
-0.00256838 0.00783993
-0.00292025 -0.00480189
0.00254194 -0.01943664
-0.00554626 0.02699769
-0.00996269 -0.00856556
0.00551118 -0.00511098
-0.02250006 0.00595878
0.00423908 -0.01862885
0.00985047 0.01354807
-0.00902823 0.00219033
0.00170103 0.00069053
0.00013038 0.00004511
-0.00685288 0.01117380
0.01806000 -0.00510479
0.00339505 0.01054741
-0.00000000 0.00000000
0.00000000 -0.00000000
0.00000000 0.00000000
-0.00000000 -0.00000000
0.00000000 -0.01312135
0.01360090 0.02888061
-0.00866903 -0.00427691
0.00939224 0.01233733
-0.00317401 -0.00861487
0.02852234 0.01579585
0.00128853 0.00565358
-0.02022818 -0.01422429
0.00511397 -0.00951531
-0.00891617 0.01567695
0.02368535 0.00949219
0.00730565 0.00765474
0.00319286 0.00507541
-0.00364411 -0.00534480
-0.00389222 -0.00052484
-0.01335783 -0.00031395
0.03331349 -0.01271598
-0.00467279 0.01164082
0.01290913 0.01045916
0.01932038 0.01293693
-0.00162777 -0.00192201
-0.00515575 -0.00273255
-0.01121009 -0.00460077
-0.01422936 0.00235826
-0.00501692 -0.00387950
0.00984684 -0.00842479
-0.00574130 -0.00035282
0.00048310 0.01501644
0.01014298 -0.01726450
0.00203596 0.00808517
-0.00293229 -0.00945836
-0.00304690 0.00011276
-0.00781430 -0.00953400
-0.00033717 0.00184469
0.02076006 0.00210677
-0.00053538 0.00547689
-0.00387981 -0.00067805
0.00584447 0.00146635
-0.00046882 0.00726059
-0.00305463 0.00100573
0.01025614 0.00789288
0.00329325 0.00380632
0.00260092 0.00476304
0.00395773 -0.00033661
-0.00305853 -0.00260771
-0.00072467 0.00000000
0.00000000 0.00000000
0.00000000 0.00000000
0.00000000 -0.00000000
0.00000000 -0.00000000
0.00669810 0.00102053
-0.00184377 0.00313007
0.00133154 -0.00066805
-0.00003000 -0.00402945
0.00075119 0.00704951
0.00199774 0.00207300
-0.00117790 -0.00569168
-0.00373190 -0.00075672
-0.00414805 -0.00068862
0.00514252 0.00390792
-0.00008806 -0.00407302
-0.00209139 -0.00198884
-0.00500057 -0.00198963
-0.00327130 0.00370541
0.00254222 -0.00049066
0.00299249 0.00235858
-0.00289994 -0.00209967
-0.00275303 -0.00073742
0.01052737 -0.00140407
-0.00791066 0.00467693
-0.00142942 -0.00289492
0.00193928 0.00057997
0.00426454 0.00568374
0.00886904 -0.00051151
-0.00216281 0.00201943
-0.00146010 -0.00098086
-0.00053115 -0.00291778
0.00513406 0.00247509
-0.00059344 0.00285797
0.00270099 -0.00242766
-0.00102383 -0.00040221
0.00017906 -0.00675431
-0.00716928 -0.00315578
-0.00624290 -0.00760212
-0.00479765 -0.00390507
-0.00499825 -0.00532971
0.00666719 0.00322966
0.00118956 0.00104577
0.00274472 0.00047994
0.00011423 0.00088702
0.00063538 0.01094711
0.00493523 0.00051299
0.00289125 0.00273767
-0.00146179 0.00083707
-0.00199170 -0.00173407
0.00614069 0.00830627
0.00066910 -0.00216331
0.00706967 0.00399180
-0.00038691 0.00439935
0.00172681 0.01021142
0.00722391 0.00372911
0.00380547 0.00688628
-0.00297942 -0.00113785
0.00028090 -0.00334223
0.00000000 -0.00000000
-0.00000000 -0.00000000
0.00000000 -0.00000000
-0.00000000 -0.00000000
-0.00000000 -0.00343871
0.00361332 0.00113383
-0.00393977 -0.00249438
-0.00191121 0.00141162
-0.00241665 -0.00553180
0.00246048 -0.00105265
-0.00130085 -0.00168409
-0.00582116 -0.00308446
-0.00216845 -0.00268092
0.00099089 0.00865223
0.00581210 -0.00367522
0.00213138 -0.00012755
0.00023301 0.00152142
-0.00402072 0.00337562
0.00914170 0.00182063
-0.00193742 0.00617209
0.00308375 -0.00175947
-0.00188008 -0.00135463
0.00127504 0.00559120
0.00634191 0.00129311
-0.00075625 0.00125239
0.00101848 0.00159068
-0.00072562 0.00097738
0.00475753 0.00121577
0.00319232 0.00214322
-0.00400888 -0.00303143
0.00056440 -0.00020524
0.00057448 0.00785434
-0.00022118 -0.00214461
-0.00204166 -0.00144208
0.00101178 -0.00351774
-0.00361311 0.00237670
0.00724789 0.00041175
-0.00171907 0.00289391
0.00174975 -0.00105321
0.00055575 -0.00317503
0.00232359 0.00360604
0.00002836 -0.00238069
0.00411452 0.00233933
-0.00111376 0.00147170
0.00094243 0.00189647
-0.00004704 -0.00009905
0.00001716 0.00003600
-0.00011934 -0.00020361
-0.00007881 -0.00005209
-0.00005630 0.00000000
0.00000000 -0.00000000
0.00000000 0.00000000
-0.00000000 0.00000000
0.00000000 -0.00000000
0.00004640 -0.00005233
-0.00003035 0.00009165
0.00005547 -0.00002563
0.00009136 0.00015632
0.00010054 0.00011788
0.00001220 -0.00012657
-0.00007320 -0.00016117
-0.00010756 -0.00007339
-0.00022878 -0.00002090
0.00000945 -0.00046762
0.00017516 0.00000213
-0.00079916 0.00015842
-0.00001440 -0.00075517
0.00009785 0.00006397
-0.00018429 -0.00007189
0.00014246 -0.00019126
-0.00018914 0.00006682
-0.00007642 -0.00002961
0.00006971 -0.00003964
-0.00028251 0.00002099
0.00004209 -0.00026464
-0.00005045 -0.00002388
-0.00010436 0.00005152
-0.00012505 0.00010836
0.00011318 -0.00018965
0.00024773 0.00003781
-0.00012018 0.00015570
0.00002371 -0.00004966
-0.00006202 0.00011328
-0.00005559 -0.00012457
0.00007694 0.00012046
0.00005777 -0.00008376
-0.00013382 0.00007170
-0.00016184 -0.00049804
-0.00015951 -0.00003342
-0.00020856 0.00011187
0.00012533 -0.00006405
-0.00002074 0.00006628
-0.00000905 0.00024165
0.00013018 0.00010663
0.00028978 0.00017374
-0.00015512 0.00004050
0.00002285 -0.00004995
0.00007430 -0.00008251
-0.00012859 0.00013296
0.00025311 -0.00006192
0.00017191 0.00023974
-0.00011449 0.00039670
0.00020557 -0.00003935
0.00037307 -0.00000462
-0.00020926 -0.00007649
-0.00007156 -0.00029699
-0.00008598 0.00001052
-0.00013575 0.00012438
0.00000000 -0.00000000
-0.00000000 -0.00000000
-0.00000000 -0.00000000
-0.00000000 -0.00000000
-0.00000000 0.00008647
-0.00003191 0.00007376
0.00016352 -0.00021923
0.00001167 0.00011072
-0.00011726 0.00003526
0.00005819 -0.00003364
-0.00004260 -0.00016078
-0.00017027 -0.00013468
-0.00013360 -0.00007000
0.00003531 0.00007520
0.00013445 -0.00001466
-0.00002341 0.00016590
-0.00001408 0.00001712
0.00001713 0.00007434
0.00021642 -0.00025010
-0.00005995 0.00025414
-0.00011511 -0.00014336
0.00018100 -0.00002284
-0.00004505 -0.00003100
0.00017307 0.00001545
0.00000181 0.00015951
0.00012467 0.00009186
0.00011384 0.00017140
-0.00001116 -0.00001350
0.00004189 -0.00017991
-0.00018310 -0.00012646
-0.00023886 -0.00022687
-0.00008403 0.00006824
0.00010228 -0.00006821
0.00006210 0.00011133
-0.00004557 0.00015079
0.00000032 0.00011038
0.00018605 -0.00014686
-0.00000720 0.00010996
0.00003684 0.00007843
0.00017576 0.00016142
0.00016812 0.00009495
0.00003169 -0.00009085
0.00009340 0.00014739
-0.00007387 -0.00001383
0.00015264 0.00001229
0.00000000 0.00000000
-0.00000000 0.00000000
0.00000000 0.00000000
0.00000000 0.00000000
0.00000000 0.00000000
-0.00000000 -0.00000000
0.00000000 0.00000000
0.00000000 0.00000000
0.00000000 -0.00000000
0.00000000 0.00000000
-0.00000000 0.00000000
0.00000000 0.00000000
0.00000000 0.00000000
0.00000000 0.00000000
0.00000000 0.00000000
0.00000000 0.00000000
0.00000000 -0.00000000
0.00000000 0.00000000
0.00000000 0.00000000
-0.00000000 0.00000000
0.00000000 0.00000000
0.00000000 0.00000000
0.00000000 0.00000000
0.00000000 -0.00000000
0.00000000 0.00000000
0.00000000 0.00000000
0.00000000 0.00000000
0.00000000 0.00000000
-0.00000000 0.00000000
0.00000000 -0.00000000
0.00000000 0.00000000
0.00000000 0.00000000
0.00000000 -0.00000000
0.00000000 0.00000000
0.00000000 0.00000000
0.00000000 0.00000000
0.00000000 0.00000000
0.00000000 0.00000000
0.00000000 0.00000000
0.00000000 0.00000000
0.00000000 -0.00000000
-0.00000000 -0.00000000
-0.00000000 0.00000000
-0.00000000 -0.00000000
0.00000000 0.00000000
0.00000000 0.00000000
0.00000000 0.00000000
0.00000000 0.00000000
0.00000000 0.00000000
0.00000000 0.00000000
0.00000000 0.00000000
0.00000000 0.00000000
0.00000000 0.00000000
0.00000000 0.00000000
0.00000000 0.00000000
0.00000000 0.00000000
0.00000000 0.00000000
0.00000000 0.00000000
0.00000000 0.00000000
0.00000000 -0.00000000
0.00000000 0.00000000
0.00000000 0.00000000
0.00000000 0.00000000
0.00000000 0.00000000
0.00000000 0.00000000
0.00000000 0.00000000
0.00000000 0.00000000
0.00000000 0.00000000
0.00000000 -0.00000000
0.00000000 0.00000000
0.00000000 -0.00000000
-0.00000000 0.00000000
0.00000000 0.00000000
0.00000000 0.00000000
0.00000000 -0.00000000
0.00000000 -0.00000000
-0.00000000 0.00000000
0.00000000 -0.00000000
0.00000000 0.00000000
-0.00000000 -0.00000000
0.00000000 0.00000000
0.00000000 0.00000000
-0.00000000 0.00000000
0.00000000 0.00000000
0.00000000 0.00000000
0.00000000 0.00000000
0.00000000 -0.00000000
0.00000000 0.00000000
0.00000000 0.00000000
0.00000000 0.00000000
-0.00000000 0.00000000
0.00000000 0.00000000
0.00000000 0.00000000
0.00000000 0.00000000
-0.00000000 0.00000000
0.00000000 -0.00000000
0.00000000 0.00000000
0.00000000 0.00000000
0.00000000 0.00000000
0.00000000 0.00000000
0.00000000 0.00000000
0.00000000 0.00000000
0.00000000 0.00000000
0.00000000 0.00000000
0.00000000 0.00000000
0.00000000 0.00000000
0.00000000 0.00000000
0.00000000 0.00000000
