0.00374910 -0.00759076
0.01619768 0.01458153
0.02310811 0.00359661
-0.00214253 -0.01001032
0.00047569 -0.00086471
0.00342062 0.00340035
-0.00962235 0.00680859
-0.00197714 0.00337892
-0.00534356 -0.01305874
-0.00493254 0.00439727
0.00017350 0.00534888
-0.00011717 -0.01089803
-0.00049520 -0.00241351
0.00252080 -0.00280331
-0.00001184 -0.00450503
0.00498595 -0.00550370
0.00091255 0.00028448
0.00214816 0.00117300
0.00289635 0.02158384
-0.00467261 0.00479723
0.01679239 0.01205624
-0.01166686 -0.00529092
-0.00464853 0.00297729
0.00844342 0.00619973
0.00631261 0.00038657
0.01255278 0.00138975
0.00480150 0.00011787
0.00254924 0.00066069
0.00366753 -0.00394366
0.01082091 -0.00128767
0.00789961 0.00825411
-0.00208667 -0.00700644
-0.01025672 -0.00767152
0.00314975 -0.00037647
-0.00611359 0.00135162
-0.01360132 -0.00970619
-0.00703774 -0.00426515
-0.00447751 -0.00269966
-0.00605365 -0.00403123
-0.01559522 -0.00974218
-0.01397981 -0.00100331
-0.01417119 -0.00676242
0.00136706 -0.00074825
-0.01303106 -0.01300050
0.00298832 -0.01426333
-0.01192716 0.00573211
-0.00979384 -0.00829065
-0.00374023 -0.01202501
-0.00149279 0.00071709
0.00392774 0.00229685
0.00655422 0.00420292
0.00464328 0.00510906
-0.00066906 0.00341857
0.00181900 -0.01124372
-0.00749245 0.00562598
-0.01742185 0.00866160
0.00681380 -0.01080948
-0.00100485 -0.00400291
-0.00932574 0.00138782
-0.00975202 0.00122767
-0.00174392 0.01125179
-0.00450462 -0.01052724
0.00688506 -0.00052462
-0.00074785 0.01203274
-0.01118631 0.00935787
-0.00996775 0.00982846
0.00791926 -0.00027621
-0.00360367 -0.00365093
0.00024628 -0.02193125
-0.01441965 0.00118291
-0.00174569 -0.00523328
-0.00093642 -0.00396462
-0.00537076 0.00515357
-0.00771725 -0.01188760
-0.00288175 0.01081008
0.01330548 -0.00080937
-0.00050250 0.00299767
-0.00474477 0.00229845
-0.00412326 -0.01089473
-0.00269457 -0.00897961
-0.00356365 -0.01893535
-0.00113174 0.00302120
-0.00298501 -0.01432407
-0.00376628 -0.00870417
0.00553513 -0.01546791
-0.00829399 0.00667916
-0.00527216 -0.00380185
-0.00492190 -0.00719639
0.00586171 0.00267535
-0.00478534 -0.00800747
0.01300362 0.00202249
0.00834739 0.00663713
0.00628893 0.00411654
0.00033447 -0.00133490
-0.00366360 -0.00502764
0.01652057 -0.00263846
-0.01475288 -0.00067218
0.00836121 0.00507510
0.01051610 -0.01615384
-0.01657360 -0.00841778
0.00936058 -0.00344733
0.02014387 0.00992659
-0.00118271 -0.00580202
0.01100744 0.00255355
-0.00316950 0.00955745
-0.00587468 0.00708608
-0.00861360 -0.00570111
0.00251730 -0.00367885
-0.00816262 0.00738142
-0.00755868 -0.00366889
-0.00339464 0.00035264
0.00168435 -0.00873704
-0.00978868 0.00397805
0.00837543 -0.00410083
-0.01207589 0.00611860
-0.00214186 0.00168186
-0.00608127 0.00808094
-0.00643383 0.01215512
0.00550315 -0.01056358
0.00455508 0.00145372
0.00297665 0.00381096
0.00163875 0.01263006
-0.00044647 -0.00155948
0.01121537 -0.01138708
0.00522025 -0.01388225
-0.00710706 0.01105236
-0.00756094 -0.01183361
-0.00103875 0.00607973
-0.00850201 -0.01382967
0.00012717 -0.01707828
-0.01167756 0.00508058
-0.00028818 0.00058470
-0.02095344 0.00766732
-0.00938713 0.01285573
0.00974166 -0.00757521
0.01216051 0.01056142
-0.00522542 0.00083814
0.00211610 0.00410237
0.00640831 -0.00382559
0.00745013 0.00018487
-0.00230525 -0.00121091
0.01185523 0.00022366
0.00158630 0.00412120
0.00646472 -0.00338551
0.00460890 -0.00321327
-0.00456930 -0.01482348
-0.00746785 -0.01091063
-0.00269996 0.00575359
-0.01212759 0.01012624
-0.00783304 -0.00302913
0.00274702 0.00865016
-0.02144053 -0.00180117
0.00051018 0.01623451
-0.00836214 0.00074323
0.01212269 0.00955467
0.00265999 0.00425993
0.00205275 -0.00036208
-0.00091684 -0.00949967
-0.01036624 -0.00902697
-0.00548858 -0.00159947
-0.00847497 -0.00712806
-0.01208199 -0.01944967
-0.00239805 -0.00208284
-0.00327593 -0.00617094
-0.00946487 0.00161089
-0.00530011 0.00073174
-0.00473417 -0.00130837
-0.00193809 -0.00318595
-0.00014803 -0.00740696
-0.00567285 -0.00279932
0.00255781 -0.01020488
0.00187423 -0.01120190
-0.00033225 -0.00386030
-0.01119132 0.00204941
-0.00167176 0.01332708
-0.01720604 -0.00170974
-0.01819626 -0.00533772
0.00130583 0.00016278
-0.01060846 -0.00623741
-0.00432270 -0.00741239
-0.00279717 -0.00757877
0.00187449 -0.00228890
0.00529160 -0.00762712
-0.00287419 -0.00053383
-0.01266571 -0.00752850
-0.00058202 -0.00474234
-0.00099340 0.00492460
-0.01045515 -0.01629530
0.00020964 -0.00165506
0.00028342 0.00697034
0.00013080 0.00124202
0.00586782 -0.00345538
0.01542874 -0.00216903
0.00484521 -0.00083017
0.00394194 0.00222267
-0.00560383 0.01063693
0.00103152 -0.00181357
0.00473175 -0.01108074
0.00752225 -0.00348216
-0.00650716 0.00511339
-0.00221932 0.00451366
-0.00371233 -0.00920633
-0.00461938 -0.01111069
-0.00802911 -0.00829403
-0.00399147 0.00002919
0.00267473 0.00140814
0.00294521 -0.01071249
0.00405610 0.00555817
-0.00291311 -0.01409807
-0.00173116 -0.00241037
-0.00268839 -0.01210782
-0.01314009 0.00744238
0.00883069 0.01006351
-0.00677331 0.00015636
0.01389635 0.00052802
-0.00455701 -0.00656779
-0.00170061 -0.00367238
-0.00908693 0.00266938
0.00205102 0.00871106
-0.01399162 -0.00468805
-0.01045994 0.00297419
-0.00121584 0.00709239
0.00399827 -0.00045387
-0.00854394 -0.00714769
0.00546454 0.00412534
0.00399592 0.01497469
-0.00502679 0.01438671
0.01154814 -0.00648430
-0.01141384 -0.01401839
0.00307190 -0.01303970
-0.00069385 -0.00218958
0.00434285 0.00525388
0.00306705 0.00789217
0.01236258 -0.01317450
-0.00689398 0.00824840
0.00080240 -0.00883171
-0.00279006 -0.00199065
0.00196016 -0.02058404
0.00132809 0.00336077
-0.00842406 -0.01058254
-0.01212870 -0.00578016
-0.00002491 0.00893173
-0.00453566 0.01563434
0.00602490 0.00753711
-0.00542836 -0.00267122
-0.01098074 0.00517521
0.01244291 0.00293412
0.00577537 0.00210112
0.00058418 -0.00176473
-0.00844045 -0.00280516
-0.01364059 0.00126854
0.00202437 0.01070810
-0.00519577 0.00214029
0.00167130 0.00325673
-0.00934196 -0.00057547
0.00518455 -0.01246860
-0.00997280 -0.00394664
-0.00827513 0.00688969
-0.00412666 -0.00195335
-0.00681965 0.00527387
0.00310023 0.00208226
-0.00397943 0.00022751
0.00334200 0.00786661
-0.00014200 0.00414807
0.01596561 0.00949422
-0.00273893 -0.00057584
0.01040570 -0.01025522
-0.00253431 0.00294974
0.00624665 -0.00128876
-0.01168186 -0.00728847
0.00053687 0.01234808
-0.00499033 0.00099169
-0.00263270 -0.00345408
0.00295444 0.00278176
-0.00482648 -0.00262474
0.00118966 0.00126057
0.00899344 -0.01143162
0.01823529 0.00851439
-0.01301641 0.01341149
0.00092526 0.00460769
-0.00211238 0.00164228
0.00742153 0.00133305
0.00877111 -0.01659441
0.00457703 0.00106426
0.00267971 0.00704251
-0.00450701 -0.00015312
-0.00952958 0.00010972
-0.00395846 0.00307035
-0.00035640 0.00726632
-0.00258568 0.00280645
0.00247503 0.00578792
0.01122815 -0.01037687
-0.00138300 0.00248740
0.00643872 -0.00337161
0.00188431 0.00484226
-0.00061899 -0.00294213
-0.00439251 0.00456878
0.00045311 0.00809493
-0.00317944 0.00819601
-0.00697595 0.00597546
0.01013363 -0.00508937
0.01600759 -0.00041815
-0.00400573 0.00855100
-0.00393392 0.00093393
0.00057138 0.00106874
0.01327278 -0.00253030
0.00745817 -0.00339879
0.00077722 -0.00693673
0.00208940 -0.01534159
0.00282181 -0.00397944
-0.01208509 -0.00367791
0.00670139 -0.01021483
0.00000760 0.01752840
-0.01068117 -0.00340320
0.00277953 -0.00019458
0.00117643 -0.00076419
0.00731268 -0.01414108
0.01448852 -0.00025775
0.00584330 -0.00343989
0.00745945 0.00279357
-0.00587821 0.00465384
-0.00154475 -0.00462488
-0.01095703 0.00209669
-0.00451068 -0.00561603
-0.00532957 0.01302114
-0.00266101 0.00127671
0.00688967 -0.00788962
0.00494791 -0.00053471
-0.00842797 0.00043621
0.00424383 -0.00072011
0.00949746 -0.00998849
0.00113808 -0.00562625
-0.00740933 -0.00156400
-0.00177816 0.01050352
0.00804010 -0.00527266
-0.00705016 -0.00948665
0.00253982 -0.01171002
-0.00176645 0.00264536
-0.00245140 0.00481737
0.00027738 -0.00519307
0.00218136 -0.01747407
0.00390001 0.00628440
-0.00498339 -0.00262635
0.00552720 0.00836803
0.00171633 0.00322935
0.00420492 0.00152927
0.00035826 -0.00443346
-0.00635757 0.00187492
-0.00839320 0.00494586
0.01399200 -0.00536482
0.00169286 0.00275248
-0.00304957 -0.00065343
0.00151958 -0.00030944
-0.00683879 -0.00020779
0.00884087 -0.00388009
0.00443095 -0.01431873
0.01650989 0.00037252
0.00152345 -0.00723100
-0.00019796 0.01137738
0.00079706 0.00913355
-0.00105753 0.00630596
0.00033069 -0.00536000
-0.00925379 -0.00385681
0.00193116 0.00685072
0.00008926 -0.00740499
-0.00056223 0.00292536
0.00242112 0.01111363
-0.00866495 -0.00598816
-0.00428702 -0.00086845
0.00570605 0.00041777
-0.00818049 0.00442941
-0.00028236 -0.00354309
0.01473804 0.01256543
-0.00328215 -0.00453375
0.01003463 0.00097188
-0.00186572 0.00455466
0.00224890 0.01496845
-0.00079992 0.00865693
0.00651544 -0.00916447
-0.00385757 -0.01085243
0.00464893 0.00169566
-0.00145773 0.01154847
-0.00037352 0.01419235
-0.00019617 0.00117323
0.01308032 -0.00602035
0.00849301 -0.00096471
0.00172176 -0.00966458
-0.00196671 0.00607452
0.00223653 -0.00827407
0.00277779 -0.00457684
0.00701949 0.00536888
0.00165485 -0.00290502
0.00462905 -0.00752371
-0.01046570 0.00506582
-0.00892597 0.00117567
0.00416303 0.00439446
-0.00986832 0.00821365
0.00332843 -0.01076271
0.00381828 -0.00665258
0.00291982 -0.00191914
-0.00450636 -0.00989272
0.01416987 0.00373110
0.00947340 0.00360988
0.00903137 0.01406358
0.00432805 -0.00342537
-0.00405825 -0.00410484
-0.00899319 0.00365068
-0.00006434 -0.00010407
0.00345745 0.00164843
-0.01531173 -0.00193200
-0.00211910 0.00036069
-0.00192824 0.00437644
0.00346093 0.00518185
-0.00556187 0.00266074
0.00231629 0.01182720
-0.00842457 -0.02122873
-0.00027327 -0.01795970
0.00983950 0.01805148
0.00264031 0.00515675
-0.00422298 -0.00132463
-0.00298923 0.00005994
0.00605147 0.00321475
0.01692277 -0.00835105
-0.00187266 -0.00026926
0.01067760 0.00005110
0.00342825 0.00331411
0.00075916 -0.00071472
0.00093630 0.00030604
0.00550267 -0.00260170
0.01600270 -0.00792257
-0.00272036 0.00436622
-0.00049354 -0.01466520
0.00824044 0.00522111
0.00596035 0.00236484
-0.01487227 -0.00563764
0.01502911 0.00725844
0.00199185 -0.00757835
-0.00083501 0.01612853
-0.00476725 0.00112804
-0.00333361 0.00860562
-0.01410088 -0.00609823
-0.00576803 0.00847510
-0.00075202 -0.00150876
-0.00888944 -0.01612005
-0.01303032 0.00739316
0.00668021 0.00664251
-0.01884855 -0.00385015
-0.00330253 0.00707194
0.01181281 -0.00183727
0.00335122 0.00442673
0.00276229 -0.00677543
-0.01596606 0.01194166
-0.00073332 0.00234809
-0.00989360 0.00274235
-0.00936322 0.00174168
0.01206263 -0.00879388
-0.00243858 0.01570714
0.00998655 0.00077809
0.00293743 0.00476737
0.00160524 0.00554878
-0.00530375 0.00554307
-0.00460035 -0.00335142
0.00112280 0.01672622
0.00121720 -0.00167294
0.00198936 -0.00180095
0.00705220 -0.01035047
0.01368782 -0.00120835
0.01079682 -0.00032077
-0.00486025 -0.00219279
0.01540321 -0.00227361
0.00729277 -0.02092261
-0.00306862 0.00002434
-0.00733735 -0.00900815
-0.00493757 -0.01204663
0.00328512 0.00175563
0.00682291 0.00329013
0.00087927 -0.00935771
-0.01199752 -0.00556883
-0.00598854 0.00175872
0.00491823 -0.00074082
-0.00507631 0.00172052
0.00390971 -0.00204056
0.00617484 0.00028828
0.00597910 0.00650942
0.00478027 -0.00241930
-0.00463618 0.00402244
-0.01197677 0.00615296
0.00069911 -0.00735330
0.01072170 0.00321137
-0.00170337 -0.00974871
0.01322977 -0.00569603
0.00056389 -0.00546099
0.00474224 -0.00017013
-0.00172794 0.00567109
0.01805127 0.00435593
0.01171221 -0.00646277
0.00466545 -0.00297819
-0.01555752 -0.01296132
-0.00835537 0.01059242
0.01273045 -0.00248962
0.00262136 0.01395750
-0.00904393 0.00303306
-0.00639010 -0.00566133
-0.00272420 -0.00071708
0.01540206 0.00263737
0.00894985 0.00549268
0.00555045 0.00420211
-0.01102553 -0.00002056
0.00193085 -0.01203086
-0.00283208 -0.00458135
-0.00810562 -0.00112590
-0.01873684 0.00431017
-0.00962628 0.00546728
0.01129715 0.00486272
0.01253205 0.00106807
0.00335278 -0.00403094
-0.00166485 -0.00932771
-0.01196723 -0.00197793
0.00704457 -0.00609386
0.01450658 -0.00268711
-0.00258573 -0.00073018
0.00162469 -0.00338459
-0.00008922 -0.01365257
-0.00460106 0.00212734
0.00240363 0.00046351
-0.00578757 -0.00563644
0.00261123 0.00052026
0.00191467 -0.00593791
0.00130233 -0.01617303
0.00306599 -0.00391687
0.00641867 0.01360941
0.00686526 0.00316522
-0.01223664 0.00521844
0.00117078 0.00807586
0.00877709 -0.00634227
-0.00601370 -0.00503336
0.00762045 0.01494967
-0.00407458 0.02238095
0.00795951 -0.01155057
-0.00945365 -0.01157179
-0.00984008 -0.00914834
0.00083224 -0.00385892
-0.00851015 0.00921523
0.00732059 -0.00474829
0.01023138 0.01088691
-0.01144274 -0.00369317
-0.00267718 -0.00974136
0.00890402 0.00906196
-0.01590342 0.00268007
-0.00095812 -0.00306140
0.01307866 -0.00334984
0.00306485 0.00669218
-0.00063549 -0.01139013
-0.00736695 0.00171624
-0.00300490 -0.00644746
-0.00091557 -0.00415314
-0.00050547 0.00297404
0.00844907 -0.00775499
-0.00621475 -0.00007247
-0.00429113 0.00868571
-0.01779764 -0.00794914
-0.01302669 -0.01197757
-0.00440333 0.00324719
0.00125192 -0.00630792
0.00392780 -0.00170961
0.01315562 -0.00152836
-0.01597525 -0.00110142
0.00243889 0.00378570
0.00054544 0.00137513
-0.00120033 0.01017903
-0.00608492 0.00480087
0.00542101 -0.00304430
0.01058371 -0.00338576
0.00094839 -0.00209135
0.00324294 0.00647211
0.00607524 -0.00347806
-0.01350883 0.00665397
0.01520096 -0.00117169
0.00890373 -0.00210156
-0.00603399 0.00537476
-0.00725914 -0.01219086
-0.00024533 -0.00133367
0.00341206 -0.00215210
0.00021278 0.01061775
0.00330543 -0.00748563
-0.01457327 0.00311933
0.00022260 0.00485093
0.02167598 0.00582257
0.00546186 -0.01176160
0.00566377 0.00662714
0.00448949 0.00771458
-0.00216431 -0.00017581
-0.00488429 -0.00373946
-0.00149880 -0.00167097
-0.00867343 -0.00739302
-0.00969569 -0.00235940
-0.00595440 0.00719731
-0.01662500 0.00448048
0.00770057 -0.00623359
0.00028734 -0.00483004
0.00908625 -0.00214841
-0.01147209 -0.00530441
-0.00861202 -0.00000842
-0.00297482 0.00124046
0.01121653 0.00275422
0.00511521 0.00363184
0.00088536 0.00762651
-0.00143240 0.00984941
0.00295291 0.00042317
-0.01186753 -0.00436884
0.00349790 -0.00940992
-0.00495895 -0.01075001
0.00359643 0.00852778
-0.00083471 0.00254310
-0.00927650 0.00668988
-0.00287059 0.00035473
0.01484983 0.00858853
-0.00421012 -0.00251018
-0.00302845 -0.01102391
0.00129554 -0.00934834
-0.00961454 0.00245908
0.00292223 0.01086760
0.00882187 0.00522988
0.00061617 0.00412090
-0.00169183 0.00356418
-0.00516654 -0.00218226
0.00739171 -0.01057725
-0.01339112 -0.01173509
-0.00695212 0.00583494
0.00423726 -0.00283868
-0.00698697 -0.01103939
0.00441832 0.01914534
-0.00441005 0.00441226
0.00836817 0.00478254
0.00463816 0.00843122
-0.00392604 -0.01070241
0.00181027 -0.00830806
0.00101065 -0.00867648
-0.00624866 0.00382032
0.00453059 -0.00619330
-0.00488433 -0.00272492
-0.00881722 0.00782175
-0.00614265 -0.00182754
0.00018122 -0.01193706
-0.00052480 0.01448319
-0.00273346 -0.00655340
-0.00268700 0.00191047
0.00216235 -0.00232831
0.00025454 -0.00723824
0.00244444 -0.00345064
0.01317284 0.02189528
-0.01296820 -0.00458142
-0.01428634 -0.00998400
-0.00598469 -0.00413831
-0.00929589 -0.00086615
0.00305861 0.00627330
0.00734151 -0.00174686
-0.00912009 -0.00482589
-0.00217918 0.00193774
0.00647809 -0.00405729
0.00719780 0.02213711
-0.00725574 0.02253849
0.00312426 0.02083464
-0.00564079 -0.02725413
-0.00514374 0.00166119
0.01431135 -0.00757783
-0.02253213 -0.01034333
-0.00223195 0.01747852
-0.02369028 0.00397287
0.01615711 0.01864041
0.00427386 0.00768824
-0.01290869 -0.00310658
-0.00797838 -0.00127673
-0.00815215 -0.00032444
-0.00308495 -0.00668831
-0.00343328 0.01130708
-0.00907106 0.01451130
-0.00839311 0.02032403
0.00136788 -0.01830128
0.02869219 -0.00291069
-0.00008606 -0.00481665
0.00047999 -0.00894035
-0.01291427 0.01543717
-0.01475205 -0.00450693
-0.00744942 -0.00141920
-0.00039838 0.00220318
-0.00838675 -0.00719780
-0.00724569 0.00325808
-0.01123063 -0.00602534
0.00167052 -0.00160360
-0.00486716 0.00101886
-0.01476035 0.01881800
0.01006805 -0.01004110
0.00032148 -0.00999789
-0.00483284 0.01126658
0.00998565 -0.00177962
-0.00121204 0.00100163
0.00567763 -0.00151283
-0.00410828 -0.00287274
0.00776745 -0.00351576
-0.00288631 0.00881559
0.00082816 -0.00628363
-0.00938074 -0.01027570
0.01112577 -0.00807112
-0.01350774 -0.00073477
0.00423876 0.00741694
-0.01499312 -0.00667710
-0.00767906 0.00265911
0.01057472 0.00098148
0.00214955 0.00162301
-0.00835028 -0.01119764
0.01253674 0.01182108
0.00415785 0.00322160
0.01418334 0.00405099
0.00504779 -0.02164238
0.01429969 0.00456006
0.00384734 0.00517082
-0.00299652 0.00540901
-0.01674691 -0.00280367
0.00999429 -0.00144685
0.00466965 -0.00842723
-0.00390155 0.01493912
0.02348269 -0.00529860
-0.01756204 0.00738306
0.01704404 -0.01061178
-0.00219883 0.00207284
0.00969424 0.00770466
-0.00955557 -0.00369930
-0.00022690 -0.00804762
0.00613887 -0.00123129
-0.00153786 -0.00078449
-0.00141557 -0.00413630
0.00320889 0.00929415
-0.02020884 -0.00081121
-0.00651384 -0.00862323
-0.00016751 -0.01071172
-0.00145546 0.00287936
-0.00129985 -0.00109757
-0.00979467 0.01585800
0.00217945 -0.00223414
-0.00702066 -0.00350469
-0.00688152 -0.00325479
-0.00174671 -0.01551474
0.01154563 0.01804028
0.00069978 -0.01361646
0.01184428 -0.00050255
-0.00137392 -0.00838465
-0.00954006 -0.00509645
-0.00053097 -0.01461523
-0.01520855 0.01105860
-0.00104245 0.00617798
0.00799050 -0.00424806
0.00228981 0.00906265
-0.02501514 0.00909628
0.01603957 -0.00553924
0.00232915 0.02617795
0.01775181 -0.02678994
0.01591215 0.00380615
-0.00143932 -0.00145936
-0.00203537 0.00804935
-0.01321407 -0.00637461
-0.01193586 0.01380804
0.01073233 -0.00312985
-0.01049888 -0.00899110
0.01697726 -0.00996265
-0.01283538 -0.00536123
-0.01052692 0.00765924
-0.00988995 0.01648792
0.00152103 0.01787684
0.02748933 0.01492511
0.00750914 -0.00511979
0.01779545 0.01351620
-0.01260122 -0.00522259
-0.01437064 -0.01477112
-0.00276999 -0.00031596
-0.01334882 0.01124384
0.00470939 0.00643256
-0.01282226 -0.01025156
-0.00964561 0.00400085
-0.01260002 0.01103138
0.02281465 -0.00402054
-0.01019225 -0.00132797
0.00204895 0.02011000
-0.01193737 0.00292798
-0.00299752 -0.01567689
0.00682906 0.00391932
-0.00208814 0.00096331
-0.01262907 -0.00729172
0.00217064 0.00544645
-0.00080760 -0.00690196
-0.00357314 -0.01090682
0.00002675 -0.00018915
0.00852607 -0.00093863
-0.00629303 0.01187136
-0.01272068 -0.00852740
-0.00306248 -0.01294838
0.00055853 -0.01260841
-0.01672700 0.02306932
-0.01321010 -0.00490100
0.00826341 0.01641430
0.00232164 -0.00339805
0.00944214 0.00659979
0.00966074 -0.01012091
-0.00731155 -0.00532558
-0.00880903 -0.00695016
0.00094670 0.00357827
-0.01410666 0.01095014
-0.00934575 -0.01059145
-0.00700467 0.00009560
-0.00011718 0.00540810
-0.00212574 -0.00481364
-0.00451561 -0.00867697
0.00147736 -0.00464179
-0.00645612 -0.01285949
0.00589275 -0.00363753
-0.00711873 0.00200065
0.00829422 0.00319486
-0.01408566 -0.00332027
-0.00512338 0.00106528
0.00224982 -0.00728377
-0.00253258 -0.00621529
-0.02019948 -0.00218626
-0.00487429 -0.00757515
-0.00729924 0.00170744
-0.00075115 0.00115362
-0.01231995 -0.01489001
-0.01408959 -0.00687792
-0.01254792 -0.00057026
-0.00540640 -0.00483194
0.00510224 0.00285268
0.01415604 -0.00415256
0.01059570 -0.00249306
-0.01183001 0.00477973
-0.00576013 -0.00115078
-0.00744606 -0.00050798
0.00152532 -0.01325995
0.00133224 -0.00571850
0.00189095 -0.00078517
-0.00331647 -0.00831190
0.00566461 -0.00089160
-0.01007818 -0.01008566
-0.01294502 -0.00593454
-0.00429471 -0.00549690
-0.00563038 -0.00270729
-0.01230746 0.00034618
-0.01373642 -0.00110563
-0.01143099 0.00542109
0.00901209 0.01574447
-0.03508501 0.00453039
0.01900316 -0.00393764
-0.02545656 0.00197910
-0.00061061 0.00517964
0.01137541 0.00270081
-0.00514742 -0.00510522
-0.00514426 -0.00512222
0.00647625 -0.00277725
-0.00596098 0.00412969
-0.00133855 -0.00261303
-0.01568101 -0.00777083
-0.00475544 -0.00857581
-0.01354882 -0.00894506
0.00121754 0.01332367
-0.00469224 -0.00329041
-0.00716230 0.00820764
0.00860240 0.01038377
0.01683891 -0.00734458
-0.00065957 -0.00560270
-0.01156478 0.00354541
0.01576313 0.00816691
-0.00307397 -0.00004391
-0.00834010 -0.00350682
0.01695000 0.01135931
0.00441738 0.01512886
0.00709373 -0.00740640
-0.00952007 -0.00266443
-0.00050447 -0.00473782
0.00075857 0.00358436
0.00046679 0.00043927
-0.00019353 -0.00022282
0.00509027 -0.00356885
-0.00856433 -0.00619787
-0.00349329 0.00173732
0.00635684 -0.00223630
-0.00261289 0.00110587
-0.00072745 -0.00661047
-0.00561442 -0.01184210
-0.02112510 0.00489372
-0.00039301 0.01403639
-0.00005271 -0.00156696
0.01324464 0.00204858
0.01062936 0.00507508
0.00229562 0.00054615
-0.00982680 -0.00255447
0.00096115 -0.00886316
0.00885022 0.00263395
0.00085033 -0.00523823
-0.00862680 0.00573420
-0.00426590 0.00532959
-0.01036840 0.01174815
-0.01163253 0.00078239
0.00443755 -0.00760508
-0.00143827 0.00538139
-0.01166519 0.00164821
-0.01613235 0.00052088
-0.00454998 0.00321983
0.01626185 0.00497499
0.00589683 0.00020023
0.00286539 0.01165561
-0.00916773 0.01051462
0.00728657 -0.00445856
-0.01011598 -0.00295797
-0.00081448 -0.01741085
0.00017174 -0.01556893
-0.00550324 0.01769914
-0.00467974 0.00154553
0.00100456 0.00323968
-0.00100870 -0.00583093
0.00087172 0.00648130
-0.00950185 -0.00549260
-0.00030267 -0.00201211
0.01558773 0.00392421
0.00400927 -0.00748868
0.01029705 0.00983887
-0.01224242 -0.00894924
-0.00703101 0.00924800
-0.00130159 0.01226804
-0.00347646 0.00517637
0.00261976 -0.01821761
0.00089412 0.00561240
0.00115055 0.00974406
-0.00273883 0.01555464
0.00724168 0.00476831
-0.00218851 0.00648990
0.00468861 0.00213346
-0.00167386 -0.00679877
-0.00193424 -0.00518830
0.00101078 0.00071787
-0.00235450 0.00816016
-0.01037902 0.01262494
-0.01220305 0.00678729
0.00342941 -0.00748174
-0.01019649 0.00642834
-0.01058958 0.00288616
-0.00001836 -0.00089634
-0.01355700 -0.00100836
-0.00161203 0.00225876
-0.00308375 -0.01374275
0.00067887 -0.00361996
-0.00588849 0.00019211
-0.00534683 0.00219011
-0.00063749 0.01101066
0.00249927 -0.00541276
-0.00579466 -0.00078417
0.00255963 0.00843545
0.00260192 0.01366761
0.00596801 0.00483804
0.00036146 0.00071938
0.00230874 -0.00777531
0.00614251 -0.01358940
-0.00366739 -0.00598893
0.00633954 0.00705857
0.00447161 -0.00818663
0.01109206 0.01747604
0.00889607 0.01355277
0.00213856 0.00406243
-0.01580425 -0.00263366
-0.00926650 -0.01170222
0.00759551 -0.00401884
-0.00811994 -0.00555334
0.00024403 0.01086778
0.00395730 -0.00424615
-0.00225732 -0.00050791
0.01106330 -0.00428866
-0.00447450 -0.00485433
0.00963285 0.00818473
0.00013805 -0.00301130
0.01458538 -0.00700228
-0.00534112 0.00043657
0.00108226 -0.00001828
-0.00030835 -0.00282591
0.00458949 0.00195238
-0.00179758 0.00001466
-0.00750572 0.00081524
-0.00863497 0.00479181
-0.01553766 -0.00076970
0.00673380 -0.00515888
0.00336698 0.00176569
-0.00289252 -0.01065000
0.00808495 0.00660603
-0.00782487 -0.00217257
-0.00357563 0.00237211
-0.00367242 -0.00997549
-0.01100244 -0.00931983
0.00652727 0.00558415
-0.00700745 0.00423048
-0.01017801 0.02016775
0.01132321 -0.00330953
-0.01397193 0.00666283
-0.01104323 0.00226663
0.00430953 -0.00851785
-0.00274508 -0.00344538
0.00468702 0.00907879
0.00152963 -0.00673477
-0.00833511 0.00034618
0.00076703 0.00447626
-0.01019327 0.00877083
-0.01001336 0.01920088
0.00350176 0.00726714
-0.00287528 -0.00211847
-0.00131318 0.00519130
-0.00418269 0.00715772
-0.00617979 -0.02167494
-0.00280189 0.00856085
0.00556925 0.00739572
-0.00660022 -0.00093266
0.00341098 0.00024385
-0.01016028 -0.00664021
0.00911243 -0.00477841
0.00883551 0.00836541
0.00893122 0.01281370
0.00633589 -0.00755306
0.01439379 -0.00712405
0.01137298 -0.01152626
0.00189479 0.00159317
-0.00792452 -0.00465680
-0.00639712 -0.00293401
-0.00348851 -0.00678277
0.00661816 0.00113402
-0.01290317 -0.00129000
0.00160048 -0.01068664
-0.00375772 -0.00305465
-0.00941054 -0.00016994
0.00886951 -0.00568861
-0.00738884 -0.01165000
-0.00131970 0.00072922
-0.00329826 -0.00241927
-0.00494788 -0.01224094
0.00122956 -0.00063621
-0.00398796 -0.00583169
0.00163568 -0.00899895
-0.00884181 0.00504520
0.00289974 -0.00432965
0.00629873 0.00947308
-0.01867850 -0.01832947
0.00630030 0.00360056
0.00760497 -0.00752052
0.00209329 -0.00366873
0.00667527 0.01117536
0.01554630 0.00159263
0.00244997 -0.00178954
-0.00037749 -0.00668954
-0.00705439 -0.00402063
0.00665832 -0.00116429
0.00121424 0.00707602
-0.00485552 0.00659650
0.00985735 -0.00482043
-0.00936080 -0.00411083
-0.00378292 -0.00504347
0.00231596 0.00418316
-0.01393826 0.00449537
-0.00329119 -0.01271878
0.00317950 -0.00122282
-0.00210017 0.00393383
-0.00049906 0.00408446
0.00050890 0.00074675
0.00999397 -0.02017679
-0.00626503 -0.01419211
0.00232881 0.01053715
-0.00679600 -0.00593633
-0.01329385 0.00687103
-0.01010245 0.00238486
0.00237472 -0.00251935
-0.00319157 0.00121722
-0.00447128 -0.00831429
-0.00216561 -0.01535901
-0.00646151 0.00130140
0.00158749 -0.00520453
-0.01096275 -0.00897267
-0.00366295 -0.00758234
0.00998930 0.01712010
-0.00529819 0.00683859
-0.00153204 0.00604162
-0.00419725 0.00533722
-0.00190366 0.00242002
-0.00334086 0.00368636
-0.00200868 -0.00778612
-0.00022815 -0.00146726
-0.00975319 -0.00824103
-0.00670425 0.00102520
0.00830219 -0.00992599
-0.00329393 0.01374945
0.00088318 -0.01214742
0.00672773 0.00384057
0.00643812 0.00377702
0.00236489 0.00538508
0.01076229 -0.01248299
-0.01395648 -0.01096349
0.00972858 0.00218069
0.00532551 -0.00624556
-0.00603648 0.00166981
-0.00257994 -0.00588780
0.00644614 0.01023030
0.00499673 -0.00081098
0.00515804 0.00058072
-0.00108632 0.00242627
0.00339623 -0.00310442
-0.00378545 -0.00154587
0.01454749 -0.00126020
0.00521095 -0.01260746
0.00282230 0.00826738
0.00658523 -0.00402081
0.00701989 -0.00605354
0.00198836 -0.00328735
-0.00632700 -0.00501580
0.01031510 0.00486053
0.00040142 -0.00621878
-0.00345089 0.00197855
-0.01182312 0.00901330
-0.00842295 -0.00278732
-0.00018087 0.00121094
-0.00564001 -0.00100983
0.00765723 -0.00221874
-0.00362724 -0.00003508
-0.01249675 0.00012167
-0.00325787 -0.00526096
-0.00290696 -0.00069551
-0.00883343 -0.00609401
0.00203952 -0.00842648
-0.00060651 -0.01762554
-0.00492431 -0.00481890
-0.01635613 -0.00917888
-0.00415214 -0.00228209
-0.00619149 -0.00074324
-0.00277616 -0.00381784
-0.00385012 0.00154579
0.01621635 0.00563211
0.00970143 -0.00534001
-0.00941921 0.00131138
-0.00632517 -0.00464550
-0.01043229 -0.00314309
0.00173110 0.00756899
0.01000987 -0.00350824
-0.00162682 0.00713927
-0.00529867 -0.01006139
0.00657016 -0.00044119
0.00656273 -0.01361906
-0.00648991 -0.00192363
-0.00235386 -0.00716308
-0.00093822 -0.00271732
0.00740475 0.00330163
-0.01081459 -0.00335282
-0.00641780 -0.00757115
-0.00639246 0.00154877
0.00599564 0.00289939
-0.00182313 0.00014926
-0.00450137 -0.00646793
0.00749454 -0.00293243
-0.00126331 -0.00645660
-0.00958880 -0.00711717
-0.00633723 -0.00904960
-0.00304017 -0.00438144
-0.00102479 -0.00802040
-0.00094447 0.00446507
-0.01180735 0.01348571
-0.01104602 -0.00178821
-0.00017324 -0.01154928
-0.00185505 0.00057362
-0.00055912 -0.00245942
-0.00666592 0.00796413
0.00030724 0.00667268
-0.00235892 -0.00166685
-0.00449164 0.00278876
-0.01021921 -0.00774232
-0.00418958 0.00085781
-0.00966323 -0.00141985
-0.00363913 -0.00083924
0.00854774 -0.00711167
-0.00155260 0.00077640
0.00043085 -0.00279536
-0.00696852 -0.00556602
-0.00936672 -0.01813044
0.00585513 0.00865630
0.00434684 0.00357262
-0.00513905 -0.00836426
-0.01076348 -0.00493128
-0.00578298 0.00111853
0.00654711 -0.00816810
0.00424941 -0.00951490
0.00684168 0.01065922
-0.00769159 -0.00330832
0.00852884 -0.00288557
-0.01031785 -0.00694267
0.00861717 -0.00740266
-0.00212286 -0.00409264
0.01646263 0.00810637
-0.00954529 -0.00664345
-0.00380767 0.01173051
-0.00815694 -0.00441171
-0.00518265 -0.01104476
-0.00246085 0.00658776
-0.00095760 0.02565137
-0.00558603 -0.00244748
0.01294448 -0.00254169
-0.01151328 -0.00792000
0.00181818 0.00220377
-0.00723745 0.00196628
0.00021909 -0.00404015
-0.00368585 0.00474321
-0.00693413 -0.00565920
-0.01533925 -0.00887082
-0.00570958 -0.00795558
0.00010496 0.00562033
0.01253197 0.00270864
-0.00365285 -0.00273234
0.00612686 -0.00222136
-0.00384244 -0.00313479
-0.00822211 0.00695468
0.00041411 -0.00107737
-0.00171936 0.00627404
-0.00404978 -0.00888825
-0.00388241 -0.00975749
-0.00015008 -0.00576242
0.00233789 -0.00018235
0.00424994 0.00201418
-0.00788925 -0.00552248
-0.00920818 -0.00333516
0.00113639 -0.01099050
0.00290034 -0.00247533
-0.00838634 0.00094142
-0.00746190 0.00018107
-0.00736612 0.00633104
0.00382045 0.00230930
0.00793023 0.00844593
0.00972277 -0.00632859
0.01099127 -0.00497406
0.00404244 -0.00595780
0.00469237 -0.00224311
-0.00781942 -0.00843518
0.00554473 -0.01043914
-0.00673543 -0.00012394
0.00487080 -0.00217980
-0.00205024 -0.00622072
-0.00443213 -0.00516395
0.00221794 -0.00283305
0.00024386 -0.00257322
-0.00491407 -0.00945876
-0.01236993 -0.00721169
-0.00531383 -0.00139308
-0.00504054 0.00237383
-0.00377751 -0.01002328
-0.00099896 -0.00013604
-0.00380804 0.00399408
-0.00375238 0.00007242
-0.00557967 -0.00025093
-0.00657982 -0.00958859
-0.00432977 0.00021559
0.00455949 -0.00672495
0.00067331 0.00664682
-0.00188390 -0.00547212
-0.00221981 -0.00746387
-0.01795211 -0.00870476
-0.01461666 0.00089549
0.00030424 0.00394534
-0.00322747 0.00585375
-0.00082554 -0.00555367
0.00451087 -0.00276954
0.00434754 -0.00384412
-0.00021985 -0.00480153
0.00367304 0.00115650
0.00300032 -0.00866604
-0.00919271 -0.00897109
-0.00582950 0.00059288
-0.01030013 -0.00107249
-0.00111668 -0.00323434
-0.00719161 -0.00709405
0.00002870 0.00377337
0.00775864 -0.00044836
0.00064823 0.00460604
-0.00434325 -0.00293983
-0.00349220 -0.00179916
0.00679642 -0.00561142
0.00461294 -0.01031394
-0.00675806 -0.00249412
-0.00676365 0.00221850
-0.00040566 0.00474242
0.00090931 -0.00377286
0.00278829 -0.00966498
-0.00432289 -0.00391983
0.00109430 -0.00507569
0.00301255 -0.00280158
0.00390411 -0.00360693
-0.00281043 -0.00685114
-0.00893000 -0.00773583
-0.00646458 0.00504358
-0.00129915 0.00481386
-0.00704851 0.01468257
0.00400194 0.00697757
-0.00159296 0.00379264
-0.00760847 0.00295625
0.02687157 -0.00296963
-0.01234291 -0.00257302
-0.00121963 -0.00166748
0.00348763 0.00039997
0.00331486 -0.00452049
0.00689032 -0.00172540
-0.00432451 -0.00972525
-0.00431687 0.01203553
0.00164188 -0.00400422
-0.01248666 0.02093534
-0.00893809 0.01207284
-0.00528782 0.00609561
-0.00647882 -0.01023969
-0.00179885 -0.00922341
0.00280723 -0.00455937
0.01938406 -0.00928301
-0.00774483 -0.01527580
0.00884407 -0.00092494
-0.00585828 0.00501548
0.00284363 -0.00487286
0.00186404 0.00270589
-0.00944594 -0.01033805
-0.00600595 -0.00492777
-0.00614476 0.02037586
0.00823298 0.00935559
-0.00537644 -0.00817129
-0.00954001 0.00431444
-0.01627480 -0.01278669
0.00747738 0.01882320
0.00900641 -0.01664583
-0.00594780 -0.01336555
-0.00609300 -0.01048296
-0.00673371 0.02139429
0.01411085 -0.00173331
0.00860591 0.00644212
-0.00591365 -0.00974402
0.00759065 -0.00837220
0.00560903 0.00212641
0.00167035 -0.00676209
-0.01439744 -0.00661729
-0.00018685 -0.00248221
-0.00747097 -0.00569211
0.02128731 0.00920022
0.01832094 0.00762673
-0.00239654 0.00357936
0.01118875 -0.00434366
-0.00499328 0.01257331
0.00279733 0.01846102
-0.00816597 -0.00223376
0.00675472 0.00394423
-0.01334496 0.01766646
-0.01699419 -0.00188810
0.00357842 0.01101621
-0.00848103 0.00263438
-0.00119306 0.01600675
0.01654746 -0.02758432
-0.00852007 -0.00742172
-0.01142288 0.00352400
0.01843911 0.01142007
-0.00407701 -0.00070463
-0.00025743 0.00590854
-0.00032887 0.00149837
0.00036458 -0.00931686
-0.00280614 -0.01966117
0.00901101 -0.00438727
-0.00152292 0.00811180
-0.00532967 0.01881629
-0.01635545 0.00593860
-0.01386450 0.00840975
0.00577775 0.02040328
0.00769708 0.00794716
-0.00854878 -0.00576733
-0.00705781 -0.02951336
-0.00328165 0.01446107
-0.00151782 0.01278854
0.01464145 0.01751150
-0.00107702 -0.01790804
-0.00012164 0.01116388
-0.00001821 -0.00543310
0.00815885 -0.00959303
-0.00227848 -0.00841948
0.00346884 -0.01101596
-0.01853449 -0.00835515
-0.00379510 0.00435118
-0.00578809 -0.00612746
-0.00459316 0.01167281
0.02257894 -0.00137374
0.00649626 -0.00493869
-0.02164425 -0.00535192
-0.00577307 0.00373759
-0.01143266 -0.00566013
-0.00405498 0.00171263
-0.01925560 -0.00715242
-0.00404551 -0.00457807
-0.00657519 -0.00374861
0.00311687 0.00866028
-0.00958010 0.00225321
-0.01556127 -0.01857212
-0.01153151 0.00156665
0.01992645 -0.00247699
-0.00919107 -0.00981161
0.00040087 -0.00437898
-0.01055093 -0.00502748
0.00453098 0.00439145
-0.00711309 -0.01532059
0.01364779 -0.00894356
0.00699692 0.00143283
0.00046955 0.00790527
-0.01413946 0.00157472
-0.00091857 -0.00832190
-0.00890952 0.00933202
0.00055057 0.00018609
0.01931668 -0.00563623
-0.00584486 0.00120584
-0.00255510 -0.00975276
0.01019911 0.00892582
0.00723291 -0.00067045
0.00710878 -0.00496895
-0.01947016 0.00521992
0.00751882 -0.00828937
-0.00794503 0.01531012
-0.01092325 0.00389366
-0.00247819 -0.01779504
-0.00593123 0.00141457
-0.01209650 0.00240236
0.00097260 0.01475965
-0.01965404 -0.00166738
0.00151151 0.00440283
0.00843656 0.00996826
0.00637189 -0.00789412
0.00621313 0.00532822
-0.00274080 -0.00859072
0.01188884 0.01407639
-0.01111764 -0.00089662
-0.00095640 0.00552998
-0.00099872 -0.00281772
-0.00549343 -0.00602290
-0.00179364 -0.00443491
0.00559803 0.00100565
0.00807944 0.00395266
0.00054976 0.00846633
0.00090136 -0.00467467
0.00613835 -0.01553441
0.00431018 -0.00226451
0.02602427 -0.00984392
-0.01109448 -0.01311730
-0.02011477 -0.00380566
-0.01246362 -0.00450153
0.01295709 0.00644565
0.01020386 -0.00742833
0.00340205 -0.00447988
0.00254800 0.01004654
0.00151856 -0.00289496
-0.01561509 -0.00919100
-0.01799344 0.00863384
0.00258273 -0.00821738
-0.00814740 0.00125582
0.01446646 0.01199075
0.00273455 -0.00070598
0.01160990 -0.01304607
0.00159469 -0.00311494
0.00228859 0.00226797
0.00152357 -0.00924022
0.01085130 0.00238335
0.01075520 0.00072592
0.00141856 0.02190148
-0.01194382 0.00074478
-0.01848051 0.02232572
-0.00755206 0.00212841
0.00039079 -0.00436624
-0.00135601 0.00907591
-0.01229145 0.00909083
0.00540015 0.00975454
-0.00338274 -0.00349225
-0.00833060 0.00391668
0.00509387 -0.00765832
0.00763091 0.02008990
-0.00133850 -0.00296912
-0.00562339 -0.00898540
-0.01139043 -0.00041771
0.01231279 -0.00350727
0.00617006 0.00053901
0.02030333 0.00111313
0.00365560 -0.00920795
-0.00591770 0.00805545
0.00383973 0.00413409
-0.00286445 0.00782116
-0.00377052 0.00003965
-0.01405673 -0.01585615
0.00166149 -0.01659034
-0.01235801 0.02149784
-0.00925215 -0.00273446
-0.00103442 0.01594241
-0.00647504 0.01711786
-0.00442794 -0.00204516
-0.01360111 0.00230632
0.00514262 -0.00606066
-0.00294039 0.00357439
-0.00106622 -0.00204816
-0.01307180 -0.01424120
0.02477858 -0.00588633
-0.01293755 -0.00445083
0.00455607 -0.00083562
0.01015268 -0.00334826
0.00357205 -0.00772638
-0.00421827 0.00195478
-0.00867126 0.00601502
0.01910405 0.01459746
-0.00836676 0.00491144
0.00013640 -0.01269085
0.01489508 -0.00490652
-0.01281494 -0.00313773
0.00422695 0.00369619
0.00186947 0.00173236
0.00315235 0.00437548
-0.00083838 -0.00160253
0.00173173 -0.00149692
-0.00895930 0.00534168
0.00561435 0.00877996
0.01455538 0.00485651
0.01294402 0.02411499
0.00350561 0.01329220
0.01304692 -0.01229184
0.00002002 0.00227183
-0.00189746 -0.00751982
0.00890540 0.01667971
0.01567925 0.00607413
-0.00658558 0.01776521
-0.00230321 -0.01017331
-0.00092765 -0.00468849
-0.00346117 0.00235270
0.01491473 0.00401379
-0.00250542 0.00317295
0.00323640 0.01697111
0.00336193 -0.00179159
-0.00481276 0.00450863
0.00883447 -0.00873923
-0.00336660 -0.00379384
-0.01177793 0.00667185
0.00139522 0.01058803
0.00442256 0.01073180
-0.00376955 -0.01012348
-0.01687422 0.00701093
0.00495144 -0.01596296
0.01920834 -0.00103594
0.01624944 0.01395953
-0.01584350 0.00923690
0.00596577 -0.00623117
0.00733739 0.00620619
-0.01760928 -0.00377205
-0.00138972 -0.00089928
-0.02271172 -0.00330623
0.01184945 0.00086022
0.01415661 0.00568534
0.01426770 0.00893776
0.00359131 0.00792987
0.00203871 0.01522564
0.00186521 0.01304870
0.00081183 -0.01001637
-0.00539706 -0.00105821
0.01195952 -0.01952502
0.00611375 -0.01282926
-0.00917368 -0.01755313
-0.00550820 -0.00521533
-0.01600330 -0.00826027
-0.00505134 -0.01203662
-0.00146803 -0.00300460
0.00689886 -0.00144259
0.00499302 0.00989043
0.01316001 0.00086736
0.00122672 0.00123833
-0.01128143 -0.00664052
0.01031314 0.01878798
0.01350416 0.00426441
0.00183853 0.01188599
0.00283909 0.02591009
-0.01180397 0.01008161
-0.02428580 -0.00472168
-0.00194577 -0.02499555
0.01834524 0.00107243
0.01636390 -0.00477883
-0.00168383 0.00250703
-0.00316714 -0.01052546
-0.02183113 -0.00835248
-0.01034379 -0.01129476
0.00208550 0.00282382
-0.00078283 0.00535208
0.00375071 -0.01589535
-0.01436098 -0.03208239
-0.01211341 -0.01584792
-0.01009943 -0.00530427
0.00033711 -0.00106362
-0.00738610 -0.00459081
-0.00578899 -0.00613083
-0.00188303 -0.00137437
-0.00555417 -0.00225303
-0.01491437 -0.00708848
-0.01052800 0.00714532
0.01067204 -0.02646238
-0.00506137 -0.01301971
-0.00691885 0.00055772
-0.00835200 -0.00359846
-0.01058528 -0.01109352
-0.00341214 -0.01701966
0.00006517 -0.00648296
-0.01968635 -0.00127241
-0.01115701 -0.01069895
-0.00209863 -0.00330288
0.00001264 -0.01176250
0.00127813 0.00345035
0.00768334 0.00326533
-0.00015300 0.00888100
-0.00485629 0.03046798
0.00392236 -0.00829500
0.01483317 -0.00241418
0.00321932 -0.01057419
0.00077399 -0.00378772
0.00084497 0.00918028
-0.00885705 0.00112909
-0.00653980 0.00355453
-0.00016370 -0.00985702
0.02013448 -0.00923509
-0.00448620 -0.00175134
-0.01366649 0.01033664
-0.01168143 -0.01499419
-0.00685838 0.00988732
-0.00849893 0.01388329
0.00870883 0.00117441
0.01238886 -0.00779562
-0.00153866 0.00452305
0.01063168 0.01108144
0.02354331 0.01327232
0.00360269 -0.00497661
-0.00649954 -0.02409336
-0.02535712 -0.00870016
-0.01707028 0.00970484
-0.00612253 -0.00789827
0.00772685 0.01557767
0.00133035 -0.01452216
-0.01959835 0.00435650
-0.01433274 0.00404792
0.00194200 0.01530317
-0.00501284 0.00572700
0.00856950 0.01176046
-0.01014699 0.01279928
0.01409281 -0.00152472
0.01060180 -0.02358333
-0.00523294 -0.00940904
-0.01232493 -0.01366903
-0.01299022 -0.00547860
0.00485540 -0.00318988
-0.01608835 -0.01552265
-0.01674091 -0.00282802
-0.01848971 -0.00576288
-0.01548637 -0.01298555
0.00055368 -0.01460005
-0.02849453 -0.01613123
-0.00914218 -0.01699706
-0.01704756 -0.00388363
0.00972150 -0.00716963
-0.00276985 0.01115372
-0.00714656 0.01643515
-0.00999797 0.03648504
0.00544861 -0.00352801
0.00297192 0.01721688
0.01607328 0.00922389
0.00941850 -0.00625533
0.00074907 -0.00013250
0.00961163 0.01447538
-0.00237747 0.01394648
0.00728218 -0.01739508
-0.01463204 -0.00564313
-0.00889378 0.00700529
0.00509609 -0.01223544
-0.00807326 -0.01629054
-0.00450305 -0.00498345
-0.00312247 -0.00924514
0.00684597 -0.00449630
-0.00175346 -0.01244114
0.00830629 -0.01648085
-0.00922609 -0.01243112
-0.00729883 -0.00255899
-0.01760757 -0.00517886
0.00062749 0.00413522
-0.01216132 -0.00913466
0.00544984 -0.00791332
0.00253437 0.00629794
0.00186867 -0.00589145
0.01282298 -0.01430830
-0.00224106 0.00901799
-0.02161543 -0.01078926
-0.01085667 -0.00850125
0.01255015 -0.01569240
-0.00506446 -0.00094170
-0.00695294 -0.01653779
-0.01616380 0.01095045
-0.00925487 -0.00237919
-0.00483582 -0.00780832
-0.01019542 -0.01639466
-0.00623751 -0.00956011
0.00015330 -0.00502641
-0.00303871 0.00735788
0.00084257 0.00397790
0.00866086 -0.00854279
-0.00442320 0.00924838
0.02274094 0.00680868
0.01871988 -0.00350969
-0.01066037 -0.00990949
-0.02261822 0.00142443
-0.01596575 -0.00466378
0.01475294 0.01391762
-0.00482774 -0.00664919
0.01388727 0.01671197
0.01092862 0.00832406
0.00237089 -0.00225746
0.01116427 0.00063825
-0.00844814 -0.01629405
-0.01261619 0.00486172
-0.00258250 0.01247467
0.00413172 0.00158968
-0.01079683 -0.01082782
-0.00886759 -0.00629631
0.00428285 -0.00004634
0.00972785 -0.00149535
0.00497574 -0.00496654
-0.01076615 -0.00947567
0.00322249 -0.00705550
-0.01049294 0.02762461
-0.00156244 -0.00090736
-0.01129796 -0.00046739
0.01141635 -0.00856842
-0.01627202 0.01431921
0.00300929 -0.00508976
0.00618127 -0.00843200
-0.01230423 0.00057845
0.00197035 -0.00544464
-0.00429378 -0.00576564
0.00206135 0.00176643
0.00323410 0.00525792
-0.01077100 -0.00508580
0.00501164 -0.00430750
-0.00518206 0.01480267
0.00254958 0.00198183
0.00947764 0.00584522
0.00995143 -0.02685145
-0.00051890 -0.00329566
0.00991857 -0.00050075
-0.00200714 -0.00809392
-0.01043393 0.00535207
0.00330475 -0.02529068
0.00156928 -0.00930195
0.02004139 0.00620291
0.00498661 -0.00211962
-0.00233222 0.00033746
0.00364473 0.00104809
-0.00155772 0.00844218
0.00549974 -0.00431663
0.00154273 -0.01018986
0.01566329 -0.00396201
0.00672119 -0.00499587
0.00961727 0.00020459
-0.00080074 0.00103036
-0.00143743 -0.00475123
-0.01116751 0.00078737
-0.00697636 0.00824979
-0.00350276 0.00577582
-0.00477838 0.00129979
-0.01235489 -0.00488944
-0.00259567 -0.00313032
-0.01034124 -0.00472224
-0.00147864 -0.01195622
0.00135586 0.00591981
0.00659644 0.00438430
-0.00920100 0.01157297
-0.00383747 -0.00381291
-0.00254091 -0.00457785
0.00260233 0.00337071
0.00012844 -0.01292671
0.00130353 -0.01195735
-0.00977781 0.00035961
-0.00975235 0.00241581
-0.00586826 -0.00332133
-0.00136905 0.00707521
-0.00111995 -0.00817105
-0.01228796 0.00462514
-0.00543329 0.00769611
0.01878405 0.00191438
-0.00119041 0.00263730
-0.00807788 -0.00725358
0.01039765 -0.00613309
-0.01058623 0.01241021
-0.00068477 -0.00545154
-0.00895389 0.00670210
-0.00019477 0.00561561
-0.00274561 0.00095830
0.00686488 -0.00605621
0.02531378 -0.00164348
-0.00790603 -0.00352054
-0.00595928 -0.00691936
-0.00413318 -0.00330704
-0.00247483 0.00867993
-0.00685348 0.01151968
-0.00498677 -0.00307933
-0.00023484 -0.00945492
-0.00984018 0.00069609
0.01334268 -0.01008902
0.00112477 -0.00289772
-0.00076226 -0.00374442
-0.00262118 0.00021722
-0.00534386 -0.00273023
-0.00207260 -0.00613118
0.00868378 -0.00417734
-0.00995127 -0.00468177
-0.01559411 0.01020382
0.00311909 -0.01109227
0.00385425 0.00140862
0.01200719 0.00248387
0.00617559 -0.00667046
0.00214950 0.01126400
-0.00268657 -0.00676881
0.00880942 -0.00620167
-0.00611443 -0.01091490
0.00106551 0.00048386
-0.00468241 -0.02657792
-0.00648733 0.01064624
0.00604642 0.00555473
-0.00678054 0.00618787
-0.00023835 0.00791985
0.00255922 0.00443998
0.00199944 0.00873973
-0.00363173 -0.00245964
0.01151599 -0.01347779
-0.00225797 -0.00015130
0.01272670 0.00133207
-0.01071668 -0.00291365
-0.00005297 0.00347518
-0.00764625 -0.00438986
0.01358599 -0.00228319
0.00006732 -0.00928714
0.01237569 0.00604412
-0.00346075 -0.00263159
0.00400259 -0.00502185
0.00027710 0.00328604
0.01884022 -0.00207298
0.00682458 -0.02163686
-0.01221037 0.01354136
-0.00274936 0.00690714
-0.00260500 -0.00557109
-0.00507837 0.00923362
-0.00190571 -0.00893289
0.00893225 0.00173617
0.00340037 0.00516311
-0.01499189 0.00353104
0.00772214 -0.00279960
0.01243013 -0.01221865
-0.01348227 0.00123313
0.00146533 0.00093610
0.00130215 0.00562877
-0.01000582 0.00107640
-0.00572333 0.01082235
0.01340460 0.01134875
0.00767610 0.00761646
-0.01500274 -0.00687660
-0.01982113 -0.00440675
-0.00054239 -0.00524404
-0.00049087 -0.00562299
0.00574927 0.00014764
-0.00440392 -0.00668263
0.00451334 -0.00170937
0.00189613 -0.01065367
-0.00120369 0.00205332
0.00318262 -0.00686409
-0.00414394 -0.00010041
-0.00015736 -0.00796245
0.00187642 0.00348441
0.00404377 -0.00068171
0.00019727 -0.00188913
-0.00478370 -0.01386141
-0.00386668 -0.00353448
0.00766029 -0.00303000
-0.00873993 0.00948899
0.00591759 -0.00172787
0.00554800 -0.00427965
0.00733753 0.00870578
-0.01384194 0.00822726
0.00545799 -0.01130096
-0.00199955 -0.00516530
0.00122308 -0.00898064
-0.00007835 -0.01163269
-0.00138482 0.00827095
0.00966904 0.00312464
-0.00553421 0.00014157
-0.00217715 0.00455072
0.00551153 -0.00270008
0.00518525 -0.00218141
-0.01318899 -0.00684677
-0.00760578 -0.00217259
-0.00594020 0.00380249
-0.00089538 0.00405096
0.00804046 0.00429129
-0.00290744 0.00067372
0.01297368 -0.00609100
-0.00337653 -0.00557730
-0.00115712 -0.00168435
-0.01154435 -0.00665623
0.00340893 -0.00010856
-0.00111803 -0.00345994
0.00291240 -0.00342301
-0.00005161 0.00124639
-0.00368369 0.00835063
-0.00481481 -0.00132720
0.00308282 0.00023195
-0.00457882 0.00001219
-0.00513067 -0.00859721
0.00166901 -0.00579933
0.00906680 -0.00384840
0.00049666 0.00558859
0.01348482 -0.00202386
-0.00304928 0.00837096
-0.00046927 -0.00652176
-0.00233577 0.00205455
-0.00603918 0.00289476
0.00443693 -0.00956518
-0.00272941 -0.00643536
-0.00947042 0.00425896
0.01098648 0.00832494
-0.00630776 -0.00126351
0.00446263 0.00066581
-0.00033694 0.01028972
-0.00036177 -0.00928785
0.01882933 -0.00457429
0.00344865 0.00075969
-0.00612693 -0.00477630
0.00100596 0.00598034
-0.00385999 -0.00208767
-0.01334049 -0.00812907
0.00526441 0.00507338
-0.00737099 0.00743558
0.00466364 -0.00236743
0.01019086 -0.01612870
0.00557321 -0.00076145
-0.01563232 -0.00464444
-0.01583979 -0.01071250
0.02159952 0.01683623
0.00695738 0.00626477
-0.01945420 -0.00312790
0.00307653 -0.00832195
0.00450032 0.00893977
0.02138129 0.00868694
0.00590703 -0.00598127
0.00501138 0.01125657
-0.00134910 0.00259283
-0.00283876 0.00664919
-0.00325465 -0.00186258
-0.00042390 0.00015988
-0.00618305 -0.00332971
0.00191138 0.00512290
-0.00420522 0.01136211
0.00037020 0.00165333
-0.00179151 0.00621880
-0.01331584 0.00322347
-0.00958981 -0.00255353
-0.00508875 -0.00266408
-0.00425189 -0.00918150
0.00027701 -0.00219491
-0.00209614 -0.00882503
-0.00489601 -0.00945726
0.01237460 -0.00242505
0.01088210 0.00426031
0.00215616 0.00332858
-0.00092021 -0.00647282
0.00358581 -0.00465230
0.00546989 0.00550213
-0.00134521 0.00591042
0.00483024 -0.01412559
-0.00346978 0.00377340
-0.00694879 0.00409005
0.00478702 -0.00692230
0.00757054 -0.00282537
-0.00144909 0.01646267
0.00073346 -0.00640268
-0.01186007 -0.01053347
0.00422351 0.00881045
-0.00481399 0.00507513
-0.00090785 -0.00860018
0.00167777 0.00503050
0.00351045 -0.00444026
0.00769608 0.00822347
-0.00755404 0.00522706
-0.00272414 -0.00329835
-0.00404159 -0.00508374
-0.01888549 -0.00242557
-0.00033344 0.00491657
-0.00435340 -0.00481520
0.00471533 -0.01065438
-0.00544893 -0.00520753
-0.00433687 0.00263024
-0.00251590 0.00559733
-0.00439335 0.00071138
0.01134934 0.00411956
-0.01410530 0.00025375
-0.00362733 -0.00472839
-0.01198821 0.00479756
0.00130623 0.00815484
0.00707627 -0.00928964
0.00325769 0.00479135
-0.00321586 -0.00724387
-0.00505660 0.00588804
0.00390402 -0.00029876
-0.02276289 0.00434869
-0.00832143 -0.00037083
-0.00353779 -0.00354871
0.00582981 0.00597995
-0.00522281 -0.00774067
-0.00615428 -0.00647411
-0.01194890 -0.00149897
0.00437138 -0.00966893
-0.00348852 0.00802479
-0.00050054 -0.00042670
0.00545780 -0.00609748
0.00579046 0.00439875
-0.00335188 0.00193000
-0.00345390 -0.00463030
-0.00845874 0.00361481
-0.00095934 0.00628572
0.00067883 -0.01111786
0.00067863 -0.00661757
0.00344386 -0.00120312
-0.00681497 -0.00268261
-0.00725957 -0.00314564
-0.01470270 -0.01001937
0.00277523 0.00844786
0.00589500 -0.00742861
0.00620616 -0.00014751
0.00086617 0.00000478
-0.00351432 -0.00030237
-0.01154388 -0.00466166
-0.00505293 -0.00672354
-0.00923268 -0.00426283
-0.00353330 0.02189712
-0.00154332 0.00754984
-0.01457547 -0.00808846
0.01080674 -0.01924148
-0.00399710 -0.00327835
-0.01227678 0.00824763
0.01140873 -0.01493965
0.00563096 0.00053647
0.00046905 0.01072411
-0.00670030 0.00496276
0.01302609 0.01276029
-0.01786124 0.00258549
-0.00332243 0.00157529
-0.00010302 -0.01041932
0.00862577 -0.01420199
-0.00445070 -0.01800368
0.00070418 0.00838310
-0.00019019 0.01200485
0.00746152 -0.00243361
0.01574615 -0.00854730
0.00176598 0.00969021
0.00964824 -0.01015443
-0.00753086 -0.00131908
-0.00605606 0.00582471
0.03136760 0.00685453
0.00370258 -0.01695504
0.01814838 -0.00159154
0.00931410 -0.00467721
-0.01684601 -0.00132622
-0.00681382 -0.00449214
0.01189420 -0.00243475
-0.00258410 0.00345183
0.00247324 0.00028931
0.00472614 0.00085776
-0.00795303 -0.00268432
0.00085537 -0.01521427
-0.00534922 0.00016546
-0.00885909 -0.00306404
-0.00815200 -0.01669555
-0.00077667 -0.00984791
0.00922137 0.00488880
-0.00048288 0.00970023
-0.00367277 0.01167214
0.00628947 -0.00664972
0.00239585 0.00654686
0.00637415 -0.01068546
-0.00168642 -0.00472063
0.00312078 -0.00675395
0.00009142 -0.00397257
-0.00342054 0.00342857
0.00501442 -0.00283872
-0.00200967 -0.00225480
-0.00194750 -0.00321693
0.00948125 0.00639626
-0.01051820 -0.00385504
0.00434902 0.00269233
-0.00470100 -0.01007544
0.00219196 -0.00119166
-0.01253648 -0.00983272
-0.00466114 0.01675631
0.00571564 -0.00969707
-0.01050186 -0.00146102
-0.00818655 -0.00576557
0.00440485 -0.00284198
0.00013976 0.00708684
0.00202888 0.00017645
-0.01028300 0.00270981
-0.00417925 -0.01275143
-0.00570233 -0.00235118
0.00104656 0.00535013
-0.00112521 -0.01037958
0.00066778 -0.00336080
-0.00479205 0.00228382
0.00521962 0.00281984
-0.00075653 0.00664286
-0.01417975 -0.00977875
-0.00345601 -0.00335488
-0.00303762 0.00430563
0.00631784 0.00627535
-0.01078836 0.00047793
-0.00377262 -0.00457709
-0.00476317 -0.01537309
0.00364430 -0.00006245
0.00798527 -0.00464735
0.00292207 -0.00109716
0.00360337 -0.00638536
-0.01130584 0.00569160
0.00112105 0.00199570
0.00594206 0.00689300
-0.00455988 -0.00359143
0.00058278 0.00693379
0.00663204 0.00002892
-0.00212195 0.00448967
-0.01025312 -0.01606804
-0.00967834 -0.00874829
0.00164970 -0.01094832
-0.00039810 -0.01278487
-0.00112696 0.00123791
0.00187225 -0.00869756
0.00505276 -0.01581168
-0.00109193 -0.00875426
0.00206255 0.00123552
0.00677921 0.01164543
0.00423497 -0.00843109
-0.00495664 -0.00482530
0.00672356 -0.00441754
-0.01067807 0.00020260
0.00780012 0.00412394
-0.01918587 0.00622300
0.00565348 -0.00549178
0.00807723 0.01413379
0.00579456 -0.00931499
-0.00366505 -0.00259811
0.00200113 0.00599231
-0.01009483 -0.00835139
-0.00584853 -0.00188331
-0.00394894 0.00450865
-0.00390915 0.00264114
0.00471775 0.00217278
0.00721724 0.01154797
0.01494436 0.00862205
-0.00426285 0.00868163
-0.00193797 0.01030453
-0.00039994 0.00461526
-0.01840537 0.02278090
-0.00557357 -0.00077878
-0.00637316 -0.01574391
-0.00840340 -0.00112355
-0.01639499 -0.00838069
0.01053869 -0.01386053
-0.00231627 -0.00127437
-0.00595624 0.00782832
-0.01045670 0.00056180
-0.00633975 0.00017798
0.00013669 0.00603147
0.01141313 0.00601475
0.01472497 -0.00172854
0.02591225 -0.01206813
-0.00277611 -0.00896206
0.00242298 -0.00853596
0.00687525 -0.00359849
0.01870697 0.01008666
0.01242588 -0.01153550
-0.00726985 0.00310830
0.01034582 -0.01870183
0.00761591 -0.00334660
-0.00831870 -0.01330571
0.00427828 0.00228841
-0.00504282 0.00985147
0.00147087 0.01179338
-0.00059262 0.00645883
0.00473583 -0.01001190
0.00029643 -0.01802563
0.01959281 -0.00496418
-0.01317958 -0.01250268
-0.01078810 -0.00403366
0.00730736 -0.00483191
-0.00366496 -0.00092239
-0.00529447 0.00185536
-0.00005089 -0.01342357
-0.00460730 0.00830353
-0.00494851 -0.00587769
0.00079733 -0.00738367
-0.01004756 -0.01464064
-0.00957063 -0.00109889
-0.00248431 0.00482742
0.00398883 -0.00766808
-0.00137725 0.00327080
0.00033140 0.00329107
0.00979188 -0.01693973
-0.00573796 0.00962091
-0.01056533 -0.00237250
-0.00601355 -0.00479612
-0.00525429 -0.00481242
-0.00485539 -0.00714547
0.00346672 -0.00842498
0.00458220 -0.03063745
0.01764053 -0.00248195
0.00753366 -0.00428223
-0.01286259 0.00883715
0.01400150 -0.01292027
-0.00185853 -0.00710452
-0.00087773 -0.00517178
0.00697181 -0.01430276
-0.00134678 0.00163734
0.00821318 -0.01710279
-0.00273720 -0.01067678
-0.00387308 -0.00766731
0.00373025 -0.00431184
-0.00003377 -0.00423409
-0.00082464 -0.00270906
-0.00147650 -0.00195984
-0.00777890 -0.00179334
-0.00334476 -0.00934557
-0.01023073 0.00389467
0.00674866 -0.00078191
0.00235680 -0.00762365
0.00319972 -0.02694796
-0.00347680 0.00959377
-0.00191135 0.00843889
0.00926308 0.00352641
0.00792325 -0.00893442
-0.00414604 -0.00776924
-0.00204661 -0.01327089
-0.00051866 -0.00151193
-0.01018306 -0.00830346
0.00373324 -0.00647436
-0.00200650 -0.00175107
0.00028200 -0.01149090
0.00133882 -0.00430246
-0.00439491 0.00429225
-0.00980442 0.01119682
-0.00272382 -0.00000855
-0.00897379 0.00360070
0.00595110 -0.01252582
-0.00153215 -0.01028077
-0.00270885 0.00318791
-0.01096626 0.00501383
-0.01098453 0.01278730
-0.00255271 0.00229904
0.00353332 -0.01092533
-0.01616373 0.00462681
-0.00818855 0.01060423
0.01303235 -0.01720938
0.00611451 -0.00856393
0.00670098 -0.01617927
0.00582603 -0.00989417
0.00356222 -0.00875521
0.00464835 0.00488172
0.01500505 -0.01240045
-0.00592701 -0.01590028
0.01563547 -0.01554943
0.00069711 0.00666965
0.00979642 0.02851859
-0.00265652 -0.03215771
-0.01082274 -0.00209544
0.00979987 0.01208385
-0.00100562 -0.00694924
0.00602405 -0.01033360
0.01091095 -0.00004273
0.00327158 -0.01453976
0.01105765 0.01373603
0.00867209 -0.00779185
0.01483605 -0.01291520
0.01646969 -0.00095588
-0.01242705 0.01651741
0.00135702 0.01894400
0.00748390 -0.00836990
0.00069984 -0.00439770
-0.01222662 -0.01136394
0.00083183 -0.00105453
0.00747202 -0.00539941
-0.00880634 -0.02129829
-0.00230953 0.02954669
0.01597724 -0.00173199
0.01379810 -0.01493956
0.00754119 -0.02224884
-0.00361960 0.01544468
-0.00259784 -0.00176534
-0.01040793 -0.00735523
-0.01113475 -0.01088580
0.00032036 -0.00188286
-0.00088649 -0.00649796
0.00697902 -0.00602220
0.00414912 -0.00839152
0.00993763 -0.00131518
-0.00493703 0.00022174
-0.00714179 0.00812523
-0.00800244 -0.00264497
0.00939537 -0.00819104
-0.00372341 -0.00583159
-0.00693688 -0.00868495
-0.00167206 -0.00181402
0.01184557 0.01321211
0.01951972 -0.00568215
0.00179086 -0.01851015
0.00747156 -0.00398976
0.00188795 -0.00128589
0.02740266 0.00378892
-0.00120270 -0.00403288
0.00276466 -0.01110323
0.00262115 0.01132666
0.01848776 -0.00106565
0.00107716 0.00154352
-0.00279582 -0.00683854
0.00035517 0.00007000
0.01074385 0.00655406
0.01707443 -0.01133460
-0.00000365 -0.01244919
0.00036714 -0.00314934
0.01029418 0.00690277
-0.00095421 -0.00848683
0.00061390 -0.00545269
-0.00236164 -0.00307056
-0.01340473 -0.00161989
-0.00305498 0.01009675
0.00641314 -0.00802862
0.00784976 0.00357109
0.01505971 -0.00479874
0.00087603 0.00472012
0.00102025 0.00990638
-0.00411469 0.00911230
-0.00391850 -0.01155207
-0.00709761 0.00097246
0.00265418 -0.01403002
-0.00019482 0.00972014
-0.00759808 -0.00217565
-0.00660861 0.00125540
0.00257864 -0.00400648
-0.00501351 0.01031774
-0.00740401 0.00398643
0.00305531 -0.01154025
0.00154679 0.00258254
-0.00007759 -0.00154255
-0.00716903 0.00474358
-0.02130299 0.00113668
-0.00180712 0.00164802
0.00180473 -0.00607712
-0.00424026 -0.00381971
-0.00464752 -0.00231851
0.00876532 0.00387051
0.00317392 -0.00433842
-0.00666767 -0.00685280
0.00136830 0.01191778
0.00243130 0.00233959
0.00166778 0.00579923
-0.00315334 -0.00326612
-0.01199518 -0.00125182
0.01518865 -0.00046010
0.00983044 -0.00894784
-0.00296700 0.00019805
0.00078874 0.00139344
-0.01353535 0.00303600
-0.00337356 -0.00100803
0.02445535 -0.00626900
-0.00314646 -0.01343371
0.00100561 0.00106271
-0.00663811 0.00586326
-0.01124521 0.00254435
-0.00532229 -0.00115847
-0.00688573 0.00249463
0.00394255 0.00109913
0.00326725 -0.00032586
-0.01171286 -0.00475604
0.00808051 -0.00261265
-0.00326326 0.00682524
-0.00346901 0.00657932
0.00372554 0.00913880
-0.00959226 0.00285362
0.00600204 -0.00587617
0.00021653 0.00295689
0.00311446 0.00618372
0.00858211 -0.00183909
0.00654154 -0.01499494
0.00488120 0.00059264
-0.01558461 -0.00468603
0.00486793 0.00797570
-0.00263938 0.00771343
0.01203663 -0.00574045
-0.00850480 0.00600234
0.00860389 -0.00206219
0.01771710 -0.00090536
0.00040000 0.00515405
0.00288561 0.01056521
-0.00077645 0.00544761
0.00404340 -0.00865136
0.00066527 0.00500922
0.00476301 0.00144630
-0.00946425 -0.00352911
-0.00291245 0.00278764
-0.00930556 0.01502962
0.01340083 0.00116231
0.00172601 0.01763757
-0.00332361 0.00490808
-0.01128077 0.00076798
-0.00493191 -0.01531881
-0.01403021 0.01478667
-0.02475198 -0.00421767
-0.01589126 0.00431004
-0.00574736 -0.00282105
0.00468466 -0.00132949
-0.00236297 0.00501574
-0.00353642 -0.00273779
-0.01399692 0.00889770
0.00310124 -0.01447013
0.01271283 -0.00584602
-0.00022328 -0.02031107
0.00749383 -0.00496635
-0.00151563 -0.00459170
0.01178762 -0.00079029
0.00681111 0.00129674
0.00578643 -0.00550054
-0.00111482 -0.01372826
0.00367363 0.00916324
-0.00805117 0.00988220
0.00037463 0.01556174
-0.00260731 0.00634452
-0.00487104 0.01090717
0.00536596 0.00416774
-0.02470569 -0.01876096
0.00579658 -0.00408327
0.00164677 -0.00327999
0.00595243 0.00854741
-0.00714795 -0.00117421
-0.00453220 -0.00133977
0.00157234 -0.00352626
0.00210039 -0.00276743
0.00188959 -0.00202011
-0.00262169 -0.00593945
-0.01223709 -0.00274501
-0.00303818 0.01093792
-0.00398236 -0.00108364
-0.00904759 0.00187749
0.00509026 -0.00922766
-0.00025502 -0.01727855
-0.01262027 0.00492733
-0.00245181 -0.00547215
-0.01348786 0.00930289
-0.00462868 -0.01579706
-0.00292016 -0.01934032
-0.01144459 0.00390582
-0.00929199 -0.00966970
0.00500917 0.00946522
-0.00350007 -0.00217702
-0.00859682 0.00534037
-0.00612981 0.00262667
-0.00374242 0.00931068
-0.01549647 -0.00027638
0.00755555 0.00227875
0.00351908 0.00684826
0.00943748 -0.00492605
0.00554748 0.00109070
-0.00696071 -0.00899268
0.00788728 0.00815292
0.00804952 -0.01235833
0.00353119 0.00394055
0.00976545 0.00017668
0.01349057 -0.00614439
-0.00176107 0.00018326
-0.00356425 -0.00838313
-0.01102185 0.00354608
-0.00435119 0.01087978
0.00820922 0.01379354
-0.00031836 0.00772625
-0.00028567 0.00523509
-0.01903436 -0.00312327
0.01604685 0.01740881
-0.01550622 -0.00743573
-0.00411833 -0.00506369
-0.00805417 -0.00241396
0.01120444 -0.00845341
0.00595980 -0.00031040
-0.00963402 0.00470913
-0.00553392 0.00661850
0.00278427 0.00913274
0.00796590 0.01070189
-0.01417918 0.00071882
-0.00949573 0.00716752
0.00174309 -0.00323865
0.00122017 0.00104505
-0.00885908 -0.00420618
-0.00632576 -0.01402036
0.00305171 0.01401226
0.00152489 0.01105337
0.00120177 -0.00967087
0.00369556 -0.00503599
-0.01210071 -0.02119652
-0.00631908 -0.00921491
-0.00282140 -0.00347842
-0.00268252 0.00866552
0.00154744 0.00184836
0.00288937 -0.00562588
-0.01079634 0.01466401
-0.00660634 -0.01122351
-0.00236100 -0.00225308
0.00229829 0.00519719
0.00987607 -0.00471088
0.01187055 -0.00472242
-0.00068930 -0.00132355
0.01179461 -0.00341603
-0.00362991 0.00048187
0.00203063 0.00287484
0.00781855 0.00980880
-0.00584908 -0.00525129
-0.01128928 0.00804748
0.00610568 -0.00674367
-0.00858845 0.00503864
0.00586815 -0.00084774
-0.00813110 -0.01277583
-0.00958741 0.00024851
-0.00340577 0.01129767
0.01816432 -0.00722810
0.00856423 -0.01238078
-0.00662089 0.00783972
-0.00504528 0.00525979
0.00315062 -0.01122548
0.00433215 -0.01162628
-0.00603312 -0.00879571
-0.02374607 0.00778198
-0.00151147 0.00016784
-0.00746940 -0.00781291
0.00420578 -0.00244007
-0.01062297 0.00571737
-0.01722539 -0.01161497
-0.00834600 -0.01317228
-0.01535484 -0.00405311
-0.00072183 -0.00278251
-0.00248707 -0.01134541
-0.00856768 -0.00706776
0.00120588 -0.00337664
0.00833411 0.00062336
-0.00684178 -0.00278441
-0.01067068 -0.00522212
-0.00521953 -0.01406442
-0.00435565 -0.00996335
0.01358182 0.00387317
0.00815072 0.00413335
-0.00569728 -0.00557537
-0.00614460 -0.00150124
0.00172754 -0.00151999
0.00499416 -0.00757518
-0.00109819 0.00816334
0.00497884 0.01079562
-0.01572292 0.00335392
0.00608045 -0.01093721
-0.00539376 -0.01408557
-0.00556528 -0.01834839
0.00860980 -0.00251896
0.00330363 -0.00023581
0.00861480 0.00615972
0.00261769 0.00681947
-0.00651415 0.00293940
0.00303606 -0.00456113
-0.00282021 -0.00487577
-0.00915489 -0.00513446
0.00621883 -0.00914539
0.00729033 -0.01049991
0.00070755 0.00825207
-0.01104016 0.00699634
-0.00942012 0.00529784
0.01542709 0.00341779
-0.00763465 0.01162341
0.01039261 -0.00395802
-0.00957149 -0.00764456
-0.02535431 -0.00282922
0.00372985 0.00336501
-0.00293650 -0.00065104
0.00510694 -0.01709853
-0.00251362 -0.01847745
-0.00112750 -0.00073125
-0.01771443 -0.00304647
-0.00486158 0.00030791
0.00691813 0.02048942
0.00312773 0.00298628
-0.01951441 -0.00171264
0.00400521 -0.00237369
0.00079861 -0.00255130
-0.01251230 0.01155836
0.00668903 0.00937339
0.00036595 0.00741544
0.00421755 -0.01262726
0.01312063 0.00707716
-0.00992697 0.00589462
-0.00551392 0.00260459
0.00494141 0.00403827
-0.00189329 0.01034445
-0.00110045 0.00011448
0.00787293 -0.00725837
0.01455688 0.00009939
0.01821323 0.00314706
0.00774619 0.00958630
-0.00310795 -0.00712633
0.00430808 -0.00612356
0.02018379 -0.01130856
0.00567442 -0.00695627
-0.00570249 -0.00017295
0.01014101 -0.00545752
-0.00476663 0.00933641
0.00254774 0.00180030
0.00229579 -0.00707811
0.00491428 0.02079505
-0.00545822 0.00671201
0.00118486 0.00125475
0.02821135 -0.00676122
-0.00112796 0.00140156
-0.02537515 -0.01150269
-0.01189409 0.00093060
-0.01091981 0.00138826
-0.01793675 0.00185506
0.00209830 0.00166126
0.00029855 -0.00140184
-0.00148837 -0.00318726
-0.00596656 -0.01298182
-0.00711376 0.01073284
0.00502942 -0.00532901
0.00292657 -0.00021118
0.00085872 -0.00412129
0.00380138 0.00790365
0.00704107 0.00259515
-0.01277006 -0.00557553
-0.00054673 -0.00568190
0.00902060 -0.01440999
0.00481850 -0.00938627
0.00059144 -0.01596664
-0.00687670 -0.01427890
-0.01296676 -0.00679342
0.00329901 0.00944348
-0.00105700 0.00523834
-0.00096042 -0.01316146
-0.00291846 -0.01490492
0.00425974 -0.00476471
-0.00260818 0.00872215
-0.00048587 0.01395794
0.00652725 -0.00174617
0.00180146 -0.00193347
-0.00142749 -0.01346827
0.00212828 0.00939038
0.00113242 -0.00806665
-0.01381845 0.01166741
0.00894593 0.00442955
0.00250434 0.00155425
-0.00811400 -0.02201096
-0.00164264 -0.00385466
-0.00127320 0.00424295
-0.00681492 0.00460256
0.00542016 0.00823711
-0.01274166 0.00560867
-0.02178885 -0.00071593
0.01085042 -0.00218411
0.00765961 0.00581252
-0.00492917 -0.00983120
-0.00492720 0.00290203
-0.00813100 -0.00665219
-0.00682647 0.00514654
-0.00298918 -0.00315424
-0.00705151 0.00186878
-0.00814667 0.00957269
0.00158843 -0.01014075
-0.00285653 0.00241329
0.00665408 0.00295902
-0.00078075 -0.00378259
-0.01048055 -0.00407706
-0.00468190 0.00623458
0.00356314 -0.00074797
-0.00449309 0.00673708
-0.00458597 -0.00030853
-0.00159204 0.00372052
0.00046929 -0.00949182
0.00224118 -0.00163064
0.00464161 0.01277928
-0.00144910 0.00102384
-0.00941097 -0.00759043
-0.01160595 -0.00374455
-0.01734665 0.00250967
0.00405338 0.00005178
0.00244153 -0.02299884
0.01204129 0.00722456
-0.00547647 0.00627203
0.00680348 -0.00846166
0.00543709 -0.01610050
0.00605376 -0.01232194
-0.00154312 -0.00216185
0.00182253 -0.01303865
0.00368090 0.00937007
-0.01925167 0.00566330
-0.00826036 -0.00134565
0.01245517 0.00498996
0.01180199 -0.00613058
0.00171244 0.00003886
0.00529844 0.01790607
0.01108760 0.01450760
-0.00498582 -0.00591062
0.00727331 -0.01429348
0.01076854 0.00250710
0.01342238 -0.00597692
-0.00442386 -0.00181822
0.00746492 -0.00935473
-0.01071224 -0.01035872
0.01551206 0.00993854
-0.00703765 0.01032069
0.00596287 0.00412506
0.00617505 0.00181742
0.00018075 0.01105402
-0.00731375 -0.00021666
-0.01363936 0.00202809
-0.00879710 0.01213218
0.00243858 -0.01068455
0.00838948 0.00097294
0.00872770 0.01044929
-0.00973553 0.00212995
-0.00434736 0.01386923
-0.00691255 -0.00423990
-0.00054166 -0.00493274
0.00824465 -0.00918406
0.00430099 0.00294630
0.00328219 0.00685948
-0.00077685 0.00233097
0.00367313 -0.00013538
-0.01223547 0.00102927
-0.01209447 0.01501950
-0.00628396 0.00325617
-0.00450439 -0.00041104
0.01291350 0.02110914
0.01108756 -0.02232214
0.00092382 -0.01773159
-0.00113391 -0.00651692
-0.00660378 0.01036285
0.00093491 0.00833564
-0.00023697 -0.00621565
0.00119773 0.00493827
0.01056681 -0.00060740
-0.01519813 -0.00651451
-0.00847663 -0.00104955
-0.00067582 0.01300470
-0.00913653 0.00373846
-0.00347498 -0.00551260
-0.00591349 -0.00088152
0.01201295 0.00658608
0.00125316 -0.00724105
0.00497859 -0.00955158
0.01283330 -0.00919990
0.00364571 0.01096419
0.00271332 0.00113212
-0.01345253 0.00421294
0.00569210 0.00144358
0.00135407 0.00557171
0.00687209 -0.00168499
0.00591324 -0.00403587
0.00427693 -0.00504716
0.00042313 0.00095258
-0.00204648 -0.00814103
0.00626831 -0.00112856
0.00957897 -0.00038612
-0.00222562 0.01575451
0.00010672 -0.01347525
0.00000182 -0.00155374
0.00567030 -0.01238549
0.00537069 -0.01028930
0.00930177 -0.01145175
0.00081065 -0.00007969
0.00278286 -0.00030502
-0.01522843 -0.00555748
-0.00251106 -0.00567757
0.00506071 -0.00957866
0.00074270 -0.00123067
-0.00883895 -0.00563863
-0.00168869 0.00752989
-0.00951395 -0.00497996
-0.01135260 -0.00861975
-0.00391240 -0.00090983
-0.01033139 -0.00178738
0.00017272 -0.00834721
0.00282192 -0.00790552
0.01821171 0.00942612
0.00955452 0.00048980
-0.01150109 -0.00826220
-0.01196082 -0.00575686
-0.00080688 0.01007067
0.00626590 0.00275183
-0.00229396 -0.00466262
-0.00255104 -0.00375574
-0.00020035 -0.01390753
-0.00390350 -0.00209474
-0.01040543 -0.00979856
0.00796740 -0.00771716
-0.00450640 -0.01311099
0.00865546 -0.00414123
-0.00318777 -0.00282625
-0.00305342 0.00853415
-0.00029159 0.00737344
-0.00775436 -0.00272489
-0.00311091 -0.00370486
0.00646350 0.00715181
-0.00300519 0.00379700
0.00102780 -0.00494023
-0.00317480 -0.00833097
-0.00551628 0.00095483
-0.00824879 -0.00035698
0.00041267 -0.00469267
0.00057486 0.00064997
0.00180907 -0.01089857
-0.00345469 0.01321707
0.00251065 -0.00961891
0.00238662 0.00799796
-0.00223575 -0.01146284
-0.01443636 -0.00828141
0.01680269 -0.00583191
-0.00910282 -0.00633477
-0.00373250 -0.01806802
0.00920281 -0.00083435
-0.00863404 0.00172036
0.01554250 -0.00059685
-0.01346172 0.00733913
0.00832284 -0.00029993
0.00097145 -0.00161561
0.00553248 0.00763250
-0.00039215 -0.00881558
-0.00867198 0.00270558
-0.00233766 0.01181641
-0.00379840 -0.00091398
0.00244175 0.01136736
0.00020288 -0.00631038
-0.01254572 0.00790818
0.00158194 -0.01107503
0.00251912 0.00691413
-0.00061092 -0.00711008
-0.00636375 -0.00275960
-0.00166867 -0.00783694
-0.00023722 -0.00520222
0.00155351 -0.00519488
-0.00759348 -0.00529296
-0.00596255 -0.01018988
0.00589576 -0.00812960
-0.00692438 -0.00139751
0.00580441 -0.00668234
-0.00982546 0.00158808
0.00242336 -0.00355191
-0.00773007 -0.00867298
0.00527432 -0.01059809
-0.00750312 0.00805731
0.00064104 0.00229012
0.01578190 -0.00103671
0.00313337 0.00578318
-0.00169711 0.00279390
0.01973451 0.00503284
0.00726320 -0.00527217
0.00124961 0.00304960
-0.00179679 -0.00235397
-0.01566723 0.00985904
0.00818993 0.01229511
0.00340182 -0.00385503
-0.01613420 -0.00621516
0.00418751 0.00930975
-0.00138750 0.00025482
0.02562788 0.00090003
0.00426477 -0.00504793
-0.00429192 0.01197316
-0.00101577 -0.01706274
-0.01387323 -0.00776598
-0.00439878 0.00065031
0.00606310 -0.00075769
0.00474436 -0.00912744
0.01422142 -0.00553513
0.00237884 -0.00322978
0.01029418 -0.00372368
0.00776752 0.00291074
-0.00475177 0.00528912
-0.00289873 -0.00343957
0.01161307 -0.00123336
-0.00184433 0.00639383
-0.00779405 0.00177447
-0.00391319 -0.00645784
-0.00251490 0.00086977
0.00268991 -0.00838018
-0.00407846 -0.00338283
-0.00386210 -0.00560838
0.00069884 0.00034001
-0.00977593 0.00059004
-0.00650052 0.00613540
-0.01360285 -0.00412920
0.00604974 0.00541454
-0.00131324 -0.00627575
-0.00531738 -0.00368002
-0.01023466 0.00672360
0.00538268 0.02055817
0.00405693 0.01290988
-0.00701390 -0.01771988
-0.01086446 -0.00998816
-0.01294547 0.00411019
0.00125604 -0.01009392
-0.01120022 -0.00177900
0.00958812 0.00139230
-0.00305875 -0.00014713
-0.00019049 -0.00451803
0.00365961 -0.00810023
-0.00110116 0.00508589
-0.00958973 0.00563218
0.00554802 0.01224821
-0.01135511 0.00278093
-0.00254764 0.00317626
0.00106242 -0.00248722
0.00525531 -0.00365110
0.00960863 0.00863281
-0.01142268 0.00158160
-0.01101684 0.00284724
0.00236751 0.00012378
0.00453859 0.00478561
0.00007827 -0.00056296
0.00050714 0.01160106
0.00296785 -0.00338477
0.00232306 -0.00342858
-0.01067095 -0.01207390
0.01169114 0.00895368
0.01105139 0.00841544
-0.00533687 -0.00621066
-0.01416910 0.01676924
-0.00003792 -0.00914315
0.00667957 -0.00544057
-0.00411801 -0.01401505
0.00076148 -0.00036811
-0.02087623 -0.00083316
-0.00260322 -0.00795996
0.00686332 -0.00592685
0.00559129 -0.00739749
-0.00002801 0.00511330
0.00272925 -0.00277518
0.00097104 -0.02627285
-0.01254271 0.00224158
0.00819678 0.01257543
0.00020265 0.00566778
0.00225508 0.01196854
-0.00009837 -0.00750798
0.00151054 -0.00755088
0.00596113 -0.00408994
0.00265498 0.00085517
-0.00822144 -0.00514101
-0.00349453 -0.00277023
-0.00996562 -0.00584712
-0.01065394 -0.00428391
-0.00139225 -0.00345031
0.00114561 0.00133267
-0.01001017 0.00178102
0.00020296 0.01110416
-0.00042252 0.00184820
0.00413498 -0.00371758
-0.00175631 -0.00899576
-0.00166481 -0.00897293
-0.01552472 0.00366849
-0.01520002 -0.00614787
0.00059860 -0.00120474
-0.00189911 -0.00065271
-0.01439271 -0.00405971
-0.00125809 -0.00128485
0.00043934 -0.00643418
-0.00587822 -0.00321829
0.00994190 0.00378728
-0.00434622 -0.00435390
0.00302449 -0.00801022
-0.01253226 -0.00218541
-0.00692343 0.01282091
-0.00322359 -0.00530496
0.01383294 0.00200790
0.00687139 -0.00189533
0.00044229 0.00708371
-0.00263668 -0.00884823
-0.00517112 -0.00852428
-0.00712778 0.00533686
0.00842210 -0.00306119
0.00022498 0.01522056
0.00937220 -0.00236622
0.00544785 0.00493660
0.00225606 0.00764983
-0.00336038 -0.00676527
-0.00467507 0.00149510
-0.00765858 -0.00086220
-0.00955487 -0.00109211
-0.01795467 -0.00551193
-0.00862366 -0.00445424
-0.00718047 -0.00742580
0.00979722 -0.00338145
-0.00164660 -0.01701123
0.00929323 -0.00708225
0.01592862 0.00043837
-0.00657958 -0.00401372
-0.00109398 0.00277470
0.00271446 -0.00010566
-0.00681045 -0.00517154
-0.00163794 -0.01768479
0.00992794 -0.00991160
0.00384113 0.01232491
0.01003256 0.01091054
-0.01760607 0.00766697
0.01447880 0.01619889
-0.00702281 0.00105495
-0.00988774 -0.01257518
-0.00812959 -0.00299897
0.00077865 -0.00615831
0.00604740 -0.00148352
-0.00582292 0.00102352
-0.00666451 -0.01726976
-0.00674884 -0.00335712
-0.00186525 0.00689099
0.00324776 0.00483493
0.00093033 0.00693830
0.01200286 0.00900869
-0.01242738 -0.01027564
0.00562607 -0.00013566
-0.00522687 0.00137444
-0.00027069 -0.00027401
0.00396463 -0.01153386
0.01931706 0.00382605
-0.00645367 -0.00150487
-0.01203918 0.00200532
-0.00020734 -0.00865638
-0.00338332 -0.00734066
-0.00499752 0.01888502
0.00008665 -0.00618966
0.00795905 0.00423017
-0.00461171 0.00263201
0.01203415 -0.00799832
0.00237373 0.00589481
-0.00503141 0.03149768
-0.00586419 0.00442050
-0.00273955 -0.00347603
-0.00548585 0.01250393
-0.00323501 0.01021678
0.01199934 0.01356478
-0.01996836 -0.01666907
0.00201550 0.00052989
-0.00930482 -0.00492938
-0.00455860 0.01146433
0.01686220 0.00516129
0.00306399 -0.00864766
-0.02456245 -0.00480018
0.02016749 0.00645235
-0.00865967 0.00107135
0.01801709 0.01144045
-0.00596525 -0.01525057
-0.01822957 -0.01026884
-0.00731337 -0.00573730
0.00588229 -0.00569191
-0.01119536 -0.00844378
-0.00447809 -0.00744167
-0.01028333 0.00660477
-0.00414259 0.00127808
0.00126938 -0.00899082
-0.02005413 0.00202579
-0.00801696 -0.00124647
-0.00076918 -0.01297020
-0.00773415 -0.00260304
0.00171711 0.00219017
-0.00554591 0.01267494
0.00067649 0.00850829
0.00730738 -0.00541477
0.00673351 0.00452635
-0.00033002 -0.00005135
-0.00003393 0.00081860
0.00490218 -0.00395875
0.00140945 -0.00900749
-0.00319099 0.01145251
0.00750361 0.00313814
-0.01171941 0.00539527
-0.01606746 -0.00583630
0.01554726 -0.01012306
-0.00597209 0.01624697
0.00573852 -0.00030756
-0.01140350 -0.01723315
-0.00040590 0.00779206
-0.01285578 0.00250672
0.00358010 -0.00886992
-0.00298274 0.02031414
-0.04529076 0.00353234
-0.00707195 -0.00157836
0.02097856 -0.00567710
0.00626651 -0.01421156
-0.00133665 0.00198962
-0.00396444 -0.00301552
0.00443022 0.00116098
0.01264963 -0.01141828
0.01316645 -0.00173202
-0.00163864 0.01104349
-0.01016741 0.00871917
-0.01322304 -0.00196443
0.00111545 0.01080400
-0.00905288 0.00215509
0.00043453 0.00374346
0.00131584 -0.00141602
0.00569146 -0.00490641
-0.01581646 0.00471278
0.00238967 -0.00116697
0.00188328 -0.00068904
-0.00576528 0.00265428
-0.00447490 -0.00285873
-0.00273568 -0.01278186
0.01370748 -0.00325688
-0.00039804 -0.00154349
-0.00424510 0.00365020
-0.00910229 -0.00469045
0.01803981 -0.00237014
0.00453529 0.00866158
-0.00221047 0.00543316
-0.01080275 -0.01746536
-0.01354176 0.00484691
0.01090110 0.00326753
-0.00327580 0.01615917
-0.00886345 0.00732966
0.02099773 0.00082422
-0.00802192 -0.00769665
-0.00460083 -0.00495829
-0.00859444 -0.00881241
-0.00423279 0.01268414
-0.00211965 0.01458157
-0.00655971 0.01946524
0.00117489 -0.00413865
-0.01480353 -0.01225308
-0.00023616 0.00276772
0.00245045 0.01013311
0.00570137 -0.00231834
-0.02056250 0.01237782
0.00695831 -0.00344100
-0.00719406 0.00591925
0.02182552 0.00412378
0.01094655 -0.01156113
-0.00483853 -0.00247610
0.01351638 0.01010358
0.00805594 -0.02241516
0.00969922 -0.00194850
0.01297781 0.00009548
-0.02172232 -0.00503103
0.01003914 0.00626673
-0.01099800 -0.01738254
0.00562268 0.01333089
0.00250456 0.01189346
0.00125988 0.00318876
-0.01302195 0.00392004
-0.01502250 -0.00203851
-0.02765311 0.00800657
0.00480289 -0.01061199
-0.00293067 -0.00449976
0.01239881 0.00908206
0.00384617 -0.01582101
-0.01685876 -0.00605966
0.00563425 -0.00035664
-0.01337563 0.00449878
0.00107690 -0.01375102
-0.00802860 -0.00885350
-0.00790825 -0.00037309
-0.01404112 0.00078797
-0.02047356 0.00143552
0.00961693 0.00090593
-0.01938218 -0.00717115
0.00749755 0.00082963
-0.00066581 -0.00830198
-0.00138637 -0.00781315
-0.00673908 -0.00270695
0.00950965 -0.00408957
-0.00232550 0.02348692
-0.03260492 0.00349112
-0.00970667 0.00266464
-0.01681397 0.00931968
-0.01694262 0.00916013
-0.00946805 0.00359013
-0.01064000 -0.00534632
0.00309795 0.00828364
-0.00639293 0.01522089
-0.00035629 -0.00334240
-0.00278037 -0.01256705
0.00062203 -0.00516373
-0.01281587 -0.00469660
-0.00039064 -0.01085312
-0.00225791 -0.01704527
-0.00751077 0.00319368
0.00270005 0.00525910
0.00575710 0.00968337
-0.01181044 -0.00818774
0.01421727 -0.00485397
-0.00527394 -0.00942761
0.00133274 0.00432488
-0.00326056 -0.00705645
0.00917531 0.00146964
-0.00685505 -0.00120464
-0.01171816 -0.01647102
-0.00585388 0.00538153
0.00433003 0.01319705
-0.01534836 0.00687976
-0.00759154 -0.00473312
0.00260844 -0.00691337
-0.00819683 -0.00625177
0.00470533 -0.00612437
0.00136237 0.00222585
-0.02531882 0.00731738
-0.00893309 0.00871926
0.00666899 -0.00679519
0.01230630 -0.00944492
0.00547596 0.00293445
-0.00577537 -0.00753748
-0.00338481 -0.00698188
-0.01159575 0.00407774
0.00049829 -0.00916048
-0.00501789 0.00623939
-0.00539360 0.00017866
0.00023285 0.00892724
0.00154912 0.01271978
-0.00536836 -0.00455869
0.01531127 -0.01306159
-0.03146062 0.02059321
-0.00130489 0.00526717
0.00275723 0.00490562
-0.00069263 -0.01096691
-0.01111861 -0.00257368
-0.00849255 0.00675681
-0.00272961 -0.01107901
-0.00545742 -0.01276015
-0.00179904 0.00455018
0.01021603 -0.00177356
0.00148469 -0.00808460
-0.00598826 0.00480555
-0.00790149 0.00373185
0.00595264 -0.01116019
0.00825269 0.01847282
0.00487546 -0.00739777
-0.00019179 -0.01701718
0.00894432 -0.00134002
-0.00279785 -0.00054566
-0.00217451 -0.00132773
-0.01012927 -0.00728833
-0.01906669 0.00209873
-0.00119057 -0.01927218
-0.00039298 -0.00360177
-0.00593334 0.00411002
-0.00271982 -0.00112478
0.00564461 -0.01188385
0.00423329 -0.00560472
0.00578757 -0.01390315
-0.00324274 0.00216311
-0.00381200 0.00325561
0.00728373 0.00146258
0.00203021 -0.01160443
0.00731695 -0.00123112
0.00581417 -0.00177801
0.01098925 0.00687585
-0.00882595 0.00582241
-0.00292302 -0.01319044
0.00214800 0.00844784
0.01276288 -0.00046234
-0.00680984 -0.00953519
-0.01464854 -0.00058742
-0.00075469 -0.01405493
-0.01114816 -0.01194889
0.00416109 -0.00645377
0.00410553 0.00421356
0.00568433 -0.00391378
0.00541773 -0.00389285
0.00384798 0.00161065
-0.01247486 0.00465786
0.00626168 -0.00685883
-0.00287928 -0.00229728
-0.00337117 0.00163657
-0.00166486 -0.00244880
-0.00453356 -0.00288865
-0.00360186 -0.00150086
-0.01158533 -0.00273434
-0.01107377 0.00622550
0.00937965 0.00173394
0.00775886 -0.00702231
-0.01131755 0.00031208
-0.01153203 -0.00890690
-0.01277805 -0.00860161
0.00288825 -0.00529570
0.00930282 -0.01337480
-0.00626492 -0.01349063
0.00179516 0.00857058
-0.00929209 -0.00389476
0.00574408 0.00418463
-0.01535139 -0.00588811
-0.00211820 -0.01070428
0.00235393 0.00137015
0.00209278 -0.00896719
0.00741096 0.00950206
0.00273547 -0.01026008
-0.00295222 0.00252198
-0.00745541 0.00638033
-0.00157410 -0.00953127
-0.00177376 -0.00271025
-0.01140340 0.00388004
-0.00523004 -0.00453629
0.00223840 0.00252467
-0.00531168 0.00070646
0.00551283 0.00090777
0.00025869 -0.00759601
-0.01025161 0.00336111
-0.00693166 -0.00210191
-0.00388708 -0.00920477
-0.00758072 -0.01163214
-0.00302629 -0.00349081
-0.00640921 0.00389452
0.00059850 -0.00506876
0.00736271 -0.00345762
0.01022005 -0.01511918
-0.00990904 0.00068686
-0.00169569 -0.00926016
0.00088684 0.00392044
-0.00374373 -0.00336119
-0.01622062 -0.00849224
0.00543038 0.00185015
-0.00598941 0.00036934
-0.00222444 0.00215136
0.00006633 0.00380798
-0.00242185 0.00916323
0.00077809 0.00285109
0.00210159 0.00104418
-0.01035363 0.00164013
-0.00277022 -0.00354268
0.00677117 0.00255684
-0.00344976 -0.00779544
-0.00457707 0.00911253
0.00053486 -0.01350263
-0.00507500 -0.01601908
0.00079677 -0.00267315
-0.00678277 0.01058291
-0.00047481 0.00553825
0.00987235 -0.00328649
-0.00460515 0.00807023
0.00999815 0.00106567
-0.00439649 -0.00479723
-0.00132373 -0.00892697
-0.00038368 -0.01535664
0.01037461 0.00064749
0.01444837 0.00202503
-0.00038115 0.00487683
-0.00100206 0.00236275
-0.00943137 -0.00147213
0.01476041 -0.00603046
-0.00172031 -0.01333895
-0.00047860 0.00301013
-0.00693957 -0.00240175
0.00827477 -0.00353540
-0.00649961 0.00152780
0.00392299 0.01156897
0.00097065 -0.00100805
-0.00140750 -0.00535839
-0.00295496 0.01156347
0.00176655 -0.00044820
0.00532440 -0.00440776
0.00619664 0.00396638
-0.00122038 -0.01223249
0.00497602 -0.00293144
-0.01013294 0.00896757
-0.00332265 -0.00677705
-0.00418240 -0.01214607
-0.00630924 -0.00680967
0.00833859 -0.00309301
-0.00610415 0.00297499
-0.00787946 0.00415033
0.00583334 -0.00337362
-0.00039519 0.00287488
-0.00905935 0.00692083
-0.00011335 0.00062684
-0.00440734 0.00392926
0.00722827 -0.00146268
-0.00342509 -0.00713184
0.00305017 -0.00103280
-0.00364032 -0.01279087
-0.00108988 0.00342432
-0.00338549 -0.00074927
0.00937673 0.00796021
-0.00560028 0.00392826
-0.01448474 -0.00841671
0.00022271 -0.01059671
0.00320064 -0.00668814
-0.00950328 -0.00042679
0.00438751 -0.00214592
0.00748151 0.00339669
0.00095546 -0.00012245
0.00163852 -0.00225323
-0.00087007 -0.00838776
0.00188055 0.00781387
0.00446664 -0.00182548
-0.00516147 0.00390687
-0.00579042 -0.00172196
0.00457416 0.00130113
-0.01422489 0.00146148
-0.00717842 0.00541744
0.00054647 0.00770536
-0.00219486 -0.00541234
-0.00221041 -0.00590204
-0.00280690 -0.00445949
0.00308095 -0.00202043
-0.00541700 -0.00815306
-0.00492985 0.00719691
-0.00477861 -0.00383251
-0.00777633 -0.00297393
-0.00383877 0.00056473
-0.00655193 -0.00324325
0.00855049 -0.00963251
0.00252459 -0.00192624
0.00483226 -0.00299889
-0.00212170 -0.00481254
-0.01051587 0.00227268
-0.00806716 -0.00175342
-0.00297694 -0.00082190
-0.01218746 -0.00873025
-0.00494727 -0.01392045
0.00173800 -0.00872063
0.00104191 -0.01118383
0.00180001 -0.00681453
0.00341848 0.00169472
0.01117887 -0.00331567
-0.00640458 -0.00647487
0.00028114 -0.00499715
-0.01000319 0.00246760
-0.01270052 0.00228527
0.00007001 -0.00817981
0.00329944 0.00314301
-0.00306581 -0.00344319
-0.00252954 -0.00439277
0.00140766 0.00920943
-0.01238567 0.00694819
-0.01531075 -0.00355787
-0.01067619 -0.00088575
0.01089825 -0.01137288
0.00091840 0.00137586
0.00415775 0.00503234
-0.00617415 -0.00191703
0.00344912 0.00566951
-0.00182050 -0.00277429
0.00561066 -0.00592355
-0.00411610 0.00082370
-0.00515080 -0.01166959
-0.00469339 0.00742760
-0.00663820 0.00056531
-0.00982238 -0.01114685
-0.00232571 -0.00186479
-0.01209198 0.00522496
-0.01666201 -0.00713180
-0.01353296 0.00513004
-0.00158735 0.00033760
-0.00297189 0.00214228
