-0.01245579 -0.00681940
-0.00716960 -0.01578851
0.01765162 -0.01384223
-0.00889948 -0.00275714
0.00800042 0.00921515
-0.00313713 -0.00222842
-0.00916971 0.02165854
-0.00840628 0.00402120
-0.00200015 0.01367451
0.00319118 -0.01310701
0.02346179 0.00183807
-0.01030176 0.00160409
0.00174001 0.00948787
-0.01260867 0.00428573
0.00800945 0.00862612
0.00473772 0.00455534
-0.00468502 -0.00382706
-0.01698284 -0.00835215
0.02329821 0.00398847
-0.00980441 -0.00340603
-0.00575460 0.00921443
-0.01044441 0.00813703
0.00241498 -0.01155958
-0.01506269 -0.01044464
-0.00007834 0.00042371
0.02443384 0.00102451
0.00463105 -0.01869006
0.00662317 -0.00410768
0.01006531 0.00823081
0.01150781 0.01710105
-0.01208409 -0.00723868
0.00312594 0.00931271
-0.01433393 0.01168201
0.00008025 -0.00051358
-0.01245888 0.00787435
0.03485369 -0.01131825
0.01423117 -0.01192886
0.00154691 -0.00940895
-0.00018627 -0.00434517
-0.00380607 -0.01196322
0.01182699 0.00165386
-0.00102639 -0.00355467
-0.00440822 -0.00732658
0.00118774 0.01603878
-0.00113992 -0.00555746
-0.01100046 0.00782795
0.00551462 0.00582882
-0.02217572 -0.00681031
-0.00810009 0.01132458
0.02581220 0.00080380
0.01753290 -0.00339751
-0.01735598 0.00228184
0.01354473 -0.00148380
0.00883350 0.00402642
-0.00591883 -0.02054764
0.01724431 -0.00867053
-0.01242845 0.01389294
-0.00195370 0.01249461
0.01307665 -0.01956773
-0.00556433 -0.00287043
0.00598129 -0.00726723
0.00543069 0.01231653
0.01348497 0.00194135
-0.00015469 0.00336692
0.01988993 -0.00454839
-0.01805616 0.00845779
-0.00656932 -0.00810667
0.00092782 -0.00514129
-0.01108395 -0.00836118
0.00089123 -0.02450997
0.00819772 0.00967294
0.00126158 -0.00558983
-0.00558324 -0.00586672
-0.00753252 -0.02026824
-0.01031158 0.00272613
-0.00736266 -0.02526066
0.02428372 0.00031676
-0.01784472 0.00803851
0.00167370 0.00355017
0.01762164 0.01725174
0.00551097 0.00349378
0.00329979 0.00210511
0.00747285 0.00252415
0.00151094 -0.00076393
-0.00758784 -0.00392942
-0.00678684 0.00118671
-0.00512696 -0.00052609
-0.03883673 -0.01014532
-0.00380077 0.00890683
-0.00796962 0.00869622
-0.01571368 0.01524093
-0.00301419 -0.00168940
0.00995796 -0.00330204
0.00759896 -0.00697509
-0.01060511 -0.00472896
-0.01235836 0.00604399
-0.00904261 -0.00618541
0.00217034 0.00846359
-0.01410357 0.01112639
0.00333481 0.01614070
-0.01833437 -0.00245478
0.02968536 0.01386806
0.00810761 -0.02077017
-0.02316903 0.00633633
-0.00115551 -0.00503644
0.00446084 0.00930976
0.00513449 -0.00605832
-0.01322619 0.00234589
-0.01018218 -0.00026993
-0.00207754 0.00960833
-0.02607888 -0.01508145
-0.00741914 0.02539922
-0.01099258 0.02154095
-0.02724406 -0.01483998
0.01828628 -0.02217330
-0.02238392 0.01316501
-0.00130218 -0.01497212
0.01859187 -0.00735503
0.00167091 0.01354446
-0.01903218 -0.01369664
-0.00304563 0.00548185
-0.02228446 -0.01436982
0.00215494 0.00113749
-0.00734071 0.00171533
0.00113279 0.00875594
-0.01273304 -0.00826137
0.01884271 -0.00368034
-0.00532499 0.00603666
0.01301038 -0.00025541
0.01904166 -0.00046162
0.01267580 -0.01148056
0.00925590 -0.01127979
0.01112365 0.00667094
-0.01031464 -0.00309940
-0.00385550 -0.00873688
0.01979823 0.02207454
-0.00604763 0.00232198
-0.00863778 0.02992219
-0.01056626 0.01421598
0.00431458 0.00462874
0.00191188 0.00976912
-0.00439907 -0.01381392
0.01074336 -0.00365937
-0.00908286 0.00606719
-0.01686024 -0.00778027
-0.03014494 0.00433437
-0.00884921 0.00739650
-0.01298012 -0.01316723
0.00924277 0.00255811
-0.00845255 -0.01209523
0.00949127 0.00926166
-0.01782128 -0.01416488
-0.00044540 -0.01818329
0.00148430 -0.00962655
-0.00380579 0.00591710
0.00958243 -0.00174502
0.00074916 0.01102776
-0.01511949 0.00127942
-0.01021954 -0.01579842
0.00679648 -0.00637502
-0.00231735 0.01122351
-0.01569385 0.03476505
-0.00185885 0.00639751
-0.01554202 -0.01396320
0.00711782 -0.00263603
0.00790884 0.00565320
-0.01182205 0.00580442
0.01379723 -0.00763895
0.01384549 -0.01052694
-0.01486297 0.00577468
-0.02803871 -0.00823728
0.01709380 0.01106459
-0.00416476 -0.00326399
-0.00785635 0.01284159
-0.00789364 0.00940822
-0.00159730 0.00697729
0.00437640 -0.01712229
0.00275422 0.01267975
0.00870087 0.00314795
-0.01765977 0.02197255
-0.00708828 0.00305098
-0.00796183 0.01042946
-0.01598722 0.02312658
0.02631761 -0.00829635
-0.01020285 -0.01421500
-0.00728889 0.00552425
0.00191242 -0.02154891
-0.00526532 -0.00627893
-0.00116003 -0.00729128
0.00392779 -0.00232146
-0.02403062 0.00692964
-0.01649503 0.00174080
0.00205872 -0.01953415
0.03013253 0.01292849
-0.01806326 -0.01153193
0.00148249 0.01810808
-0.00144585 0.01287392
-0.02879908 -0.02046364
0.00106095 0.00079119
-0.01637136 -0.00689872
0.02802391 -0.00752589
-0.00110522 -0.01479672
-0.01656458 0.01833658
-0.00690927 0.00053077
-0.00241774 -0.00725052
0.01119663 0.00842971
-0.00506969 -0.00629685
0.01033302 -0.00543558
-0.00919489 -0.00977486
0.00129269 0.00237403
0.00506206 -0.00776770
0.00276073 -0.00030328
-0.00700489 -0.01257779
-0.01540188 -0.00309245
0.00335292 -0.00913797
-0.02416217 0.00640143
-0.00199330 -0.00818825
0.00777971 0.00544472
-0.01462841 0.01989120
0.00611049 0.02116573
-0.00492801 -0.02031709
-0.01165728 -0.00416810
-0.01619943 0.01116516
-0.01499738 0.02137018
0.03261318 -0.01047763
-0.01755777 -0.01097732
0.00293448 -0.01166956
-0.00052939 0.00938388
0.00918114 -0.01015671
-0.02155221 0.00402965
0.00349814 -0.00873898
-0.00521288 0.01274446
0.01187081 0.00998125
0.00139223 -0.02328638
0.01436590 -0.01901547
-0.01878116 -0.00531434
-0.01342394 0.00090046
0.00549364 0.01738933
0.01669834 0.02289790
-0.00314529 0.01532610
-0.00837143 -0.00809927
0.00509463 0.01109099
-0.01272467 -0.01409944
-0.00383478 0.00438552
0.00270360 0.00290415
0.00203724 -0.00433166
0.00369841 0.00615517
-0.00034150 -0.00931647
-0.00028515 -0.01216507
-0.01233772 -0.01440476
0.00519395 -0.00708896
-0.01399012 -0.01509627
-0.01015556 0.00731879
-0.01232292 -0.00704456
0.01378061 -0.01625773
0.00249652 -0.00117386
-0.00474599 -0.01389156
0.00348109 -0.00129665
-0.00969380 0.00222409
-0.01412367 -0.00004353
0.00072927 -0.01033150
-0.01156092 0.01456526
0.00720982 0.00606734
0.01104533 -0.01968724
0.01462591 0.01319363
0.00055106 0.01373007
-0.01304079 0.00332370
0.00615702 -0.01329125
0.00333917 -0.00143232
-0.00063992 0.00366690
-0.00596696 0.00278781
-0.00913876 -0.01575306
-0.01485923 0.02557764
-0.00554239 -0.00026125
-0.00548946 -0.00345696
-0.00858595 -0.00989049
0.02357058 -0.00959566
0.00839852 -0.00305952
0.01982769 0.00598674
-0.00191663 -0.01099860
-0.00424850 -0.00277407
-0.01101412 0.00964149
0.00698668 0.00930651
-0.00390490 -0.00912668
0.00987661 0.00021756
-0.01819529 -0.00552482
0.01698168 0.00542367
-0.01846319 -0.00747793
-0.01322858 -0.01119249
-0.00082623 0.00528169
0.00762057 -0.00862073
-0.00419335 0.03022622
0.00093743 -0.01173377
0.00404772 0.00827313
0.01795684 0.00328388
-0.01315094 -0.01158036
-0.01287294 0.01244784
0.00164509 -0.00172496
-0.01658873 0.01242828
-0.01111772 0.01086445
-0.00836804 -0.00359706
0.00543952 0.00391845
-0.00815710 -0.00018440
-0.02185939 -0.01791193
0.00737382 -0.00272441
0.01059666 -0.01239132
-0.00760600 -0.00368403
-0.00787293 -0.00842729
0.00034953 -0.01358999
0.01522725 -0.00442655
0.00577912 -0.00351029
-0.00628374 0.02023568
-0.01042774 -0.00584667
0.00500476 0.01374528
-0.00672561 0.00415260
-0.00265424 0.00974382
-0.00423084 0.00549306
0.00229756 -0.00039246
-0.01396139 -0.00568332
-0.00514630 -0.00978267
0.00718332 0.00006254
-0.03114488 -0.00079173
0.02460981 -0.02499605
0.03922890 0.00274099
-0.00108703 0.00132308
0.00011589 -0.00116584
0.01015326 -0.00487123
-0.01830625 -0.01941319
-0.00862308 0.01816211
0.00306715 0.00766054
0.02058595 -0.00808376
-0.01299082 -0.01420150
0.00079613 -0.00592249
-0.01861366 -0.00192439
0.01523391 0.00115274
0.01762770 0.00946980
-0.01944361 0.00419924
0.01021990 0.00658191
-0.00641741 -0.00171540
-0.00169545 0.00828614
-0.00409705 0.00605248
-0.03087419 0.03861120
0.00105768 -0.01749635
-0.00225791 -0.01848965
0.01265261 0.01440813
-0.01890082 -0.00151158
-0.00933568 -0.02829958
0.00069059 0.01804881
-0.01203628 -0.00314487
0.00704687 -0.00240471
-0.01190790 0.01120724
0.00332191 0.00045022
0.00775149 0.01340545
-0.01045539 -0.01730771
-0.00879931 -0.01312275
-0.00249724 -0.01436514
0.00852061 -0.00555806
-0.00175125 0.00799350
-0.03300235 0.01381833
0.00643636 -0.01114983
0.00903283 -0.00551669
-0.01843153 -0.01498684
-0.00156756 0.01813965
0.01346031 -0.02290398
-0.03170424 0.01107435
-0.00368800 0.01196345
-0.00038900 -0.00005453
0.00002447 0.01542194
0.01924243 0.00584997
0.00640192 -0.01589305
-0.00817135 0.00014081
0.01291095 -0.00026103
-0.01201295 -0.00430652
0.01728836 0.02554546
0.00729261 -0.01032334
-0.00163900 -0.01685209
0.00412443 -0.00588694
-0.01330514 -0.00091155
-0.01626343 0.01184050
-0.00267306 -0.01059148
0.00178707 0.00156481
0.01223147 0.01001888
-0.01257943 -0.01244069
-0.00066770 0.00333634
0.00628271 0.00024907
-0.01036895 0.00243239
-0.00617657 -0.01144143
-0.01066344 -0.00338314
0.00458600 0.01048798
0.00107720 -0.01485985
0.00379780 -0.00352938
0.00290049 0.02784754
-0.01373321 -0.01175763
-0.00487125 0.00684603
-0.02629720 0.00200528
0.00051242 0.02100965
-0.01861272 -0.00365081
0.00079167 -0.01796998
0.00898703 -0.01230930
-0.01767667 0.00695338
0.00059117 0.00856256
-0.01306023 0.00640460
-0.00002442 0.00276153
-0.00939397 0.00217080
-0.00105303 0.02772326
0.01370237 -0.00882561
-0.01202294 -0.00242256
-0.00992218 0.00719027
0.01461687 -0.02217621
-0.00380351 0.03627311
-0.02794533 -0.00495190
0.00241201 -0.00704433
-0.02042943 0.02000306
-0.01644721 0.00574282
-0.01644284 0.00426394
-0.00846284 -0.01338746
-0.00798065 0.01524444
-0.01387213 -0.00514576
-0.00867207 -0.00544061
-0.01020229 0.01883101
0.01507048 -0.00731862
-0.00942309 0.01008407
-0.02135185 0.01402376
-0.01554818 0.00539292
0.01331168 0.00295690
-0.00091162 -0.00947269
0.00183875 0.00636334
-0.00492729 0.01918210
-0.01235635 0.01804511
0.00336632 0.01589380
-0.01143514 -0.01779963
-0.00009728 -0.00699602
0.03088344 -0.00694258
-0.00776110 0.01421604
0.00824273 -0.00531452
-0.01185072 0.02688429
-0.00966626 -0.01581972
-0.00191786 -0.02188729
0.00484755 -0.01183621
-0.01557884 0.00606312
0.00480752 0.01267111
-0.01610811 0.00305064
-0.00677998 0.00650522
-0.02111868 -0.01749767
0.01273128 -0.00245934
-0.00461167 -0.00559862
0.04361822 0.01118627
-0.01492935 -0.01385810
-0.00522808 -0.00179507
-0.00111145 0.02047388
-0.02032220 0.00026104
-0.00098716 0.01023363
-0.01574391 0.03568797
-0.00207643 -0.00214137
0.01138158 -0.00778757
0.00056198 -0.01014687
0.02602711 0.00912843
-0.02918941 0.00326543
-0.00216910 -0.01215776
-0.00356885 -0.00974694
-0.01053128 -0.00916491
-0.02631321 -0.00367936
0.00533776 0.01191524
-0.00513157 -0.01462672
-0.01590237 -0.00023295
0.00521926 -0.00033869
-0.00057980 0.02738242
0.00401105 -0.01276395
0.00237935 -0.01440214
0.00302161 -0.00829596
0.00305880 -0.00585991
0.00165797 0.02137294
-0.01664770 0.00723469
-0.00859707 -0.02410215
-0.01633236 0.01712977
0.00109866 -0.00196383
0.00307259 0.02753527
0.01258188 0.01034186
-0.00964792 -0.01999307
0.02997094 -0.01460098
0.02324675 0.00162625
-0.00267050 -0.00878801
0.01263274 0.07052121
0.00381335 -0.00688328
-0.00258502 -0.00020874
-0.01023165 -0.01346298
-0.01312459 -0.00631381
-0.00060267 -0.00497601
0.00735269 0.00322025
0.00665127 0.02882103
-0.01969075 0.00266619
-0.02115569 -0.00594260
-0.00559961 -0.00433806
0.00387600 0.00469560
0.00621319 -0.01740147
-0.00184945 0.01013493
0.00264082 -0.01242282
-0.00091778 -0.01077990
0.01283609 -0.00314109
-0.02762744 -0.00913182
-0.00227990 0.02673016
0.00279202 0.00158222
-0.04076657 0.01867692
-0.02086155 0.02201139
-0.00127593 -0.00645333
-0.01373344 -0.00326898
0.00467446 0.01681049
-0.00356882 -0.00298813
0.01481840 0.00730032
-0.01075856 0.02739870
-0.00629397 -0.00558022
0.00718711 -0.02123739
-0.00754125 -0.00122666
-0.01047753 -0.00014160
0.00418608 -0.00411056
-0.02007311 0.02218239
0.02222614 -0.02795135
-0.01338235 -0.00862456
-0.00018740 -0.01534085
-0.00502886 -0.00256618
0.00473899 0.00712486
0.02275890 -0.01727405
-0.01163324 -0.01556484
0.02186216 -0.00522089
-0.00357953 0.00438965
0.01339434 -0.01850072
0.00465163 -0.00448832
-0.02243642 0.01233405
-0.00788915 0.00103552
-0.00929795 0.00709911
-0.02601136 0.00770739
0.01431039 0.00729136
-0.00754212 -0.01698147
-0.01465703 0.01449909
0.01141483 -0.00754537
0.01123059 -0.00041858
-0.00664161 0.00371153
0.00055417 0.00318059
-0.01468512 -0.00346501
0.00232578 -0.03060902
-0.00660143 -0.00359664
0.00021744 0.02112131
-0.00563755 0.00931375
0.00348652 -0.01755351
0.01407155 0.00728991
0.01270122 -0.00905887
-0.01531319 0.00740949
0.02483542 -0.00245284
-0.00236187 0.01192863
-0.00533045 0.00337129
0.02041139 -0.01040309
-0.00881343 -0.01544929
0.02100233 -0.00261888
-0.00647088 0.00026503
-0.02065843 0.00822608
0.01071057 -0.00586078
-0.01435997 -0.00076717
-0.02004222 0.02027265
-0.01184857 -0.01036873
-0.00631300 -0.00909369
-0.01334786 -0.01481819
0.01238149 -0.00903002
-0.00608706 0.00751126
0.00287392 -0.01548226
-0.01012127 0.02087806
-0.00156423 0.01140843
-0.02536362 -0.02992690
-0.01905962 -0.01668179
-0.01682826 0.00957431
0.00241716 0.00723260
-0.00625086 0.00984804
0.00174369 0.00691938
0.02531629 -0.01435551
-0.01149236 0.00311179
-0.01325662 0.00750511
0.03708087 0.00089591
0.01041874 -0.01156968
-0.01469782 0.00171408
0.00472617 -0.02231027
-0.00013247 0.02639237
-0.00386866 0.02056416
-0.01131520 0.03724076
-0.01133297 -0.01462363
0.00715255 -0.01597447
-0.00102204 -0.00439087
-0.01038798 0.01565479
-0.01708258 0.01036493
0.00142754 -0.00575731
-0.01367953 0.05868334
-0.02254443 0.01203463
-0.00637967 -0.00838076
-0.00320719 -0.00378662
-0.00510438 -0.01230446
-0.01138157 -0.00818579
-0.00721314 0.00361959
-0.03729996 0.00859436
-0.00126043 -0.01475910
-0.01540670 0.04661427
0.01202506 -0.00017994
-0.01556978 -0.00014183
0.01118806 -0.00198043
-0.01797687 -0.01293759
-0.00950840 -0.02206168
-0.00356113 -0.02435376
0.00115657 0.00040775
0.00631710 -0.00683076
0.01280767 -0.01752967
0.01409762 -0.01090202
0.00414131 -0.00494561
-0.01932867 -0.00572347
0.00447003 -0.01164090
-0.00467894 0.00303568
-0.01646846 0.00756818
0.00607417 0.00146558
0.00330440 -0.00115087
-0.01691817 0.01735356
-0.01769247 0.01090607
-0.01623653 0.00921370
0.01152307 0.01559401
-0.00806770 -0.00792963
0.00132774 -0.01161210
0.00314327 -0.00155173
0.02738091 -0.01982254
0.00431287 -0.01932410
0.00096627 -0.01750554
-0.01523876 0.00835932
-0.01590385 0.03094786
0.00858997 -0.00649816
0.02881050 0.00442094
0.00497794 0.01242432
-0.00228247 -0.00962226
0.01048808 0.00754269
0.00742084 -0.01363067
-0.00839994 0.00027454
-0.01214730 -0.01766671
-0.01139440 0.03297132
0.01627061 -0.01192589
-0.01652128 0.00520607
-0.00995743 0.00326715
-0.01127552 0.00441607
0.03430116 0.00426164
0.00154621 -0.01986003
-0.02011281 -0.00460975
-0.00484886 0.00446418
-0.02350081 -0.00499568
-0.00786382 0.00008476
-0.00918179 0.00360106
-0.00531228 0.00166201
0.00967246 -0.00180956
-0.01463023 0.01091680
-0.00097314 -0.01380113
-0.00111464 -0.00248271
0.00725225 0.03160031
0.00627436 -0.03039793
0.00067272 -0.01325929
0.00246048 -0.01704191
0.00270392 -0.01276097
-0.00366092 -0.02431936
0.01335430 0.01321936
-0.00594150 -0.00381547
-0.02376192 0.00946770
0.00519731 0.00279593
-0.02452385 -0.01459797
-0.00987278 -0.01024384
-0.00634398 0.02242119
0.01688752 -0.02146997
0.01354350 -0.00467489
-0.00377984 0.00997714
-0.01012485 0.00579102
-0.00578449 0.01256029
-0.02245255 -0.02530723
-0.02727201 0.00209316
0.01758150 0.00386399
0.00204998 0.01093436
-0.00225751 0.00515574
-0.01092209 -0.00298909
-0.00502310 0.00051654
-0.00256654 -0.00247801
-0.01572244 -0.01741067
-0.00074670 -0.01533441
0.00887558 -0.01805812
0.00993115 -0.00668751
-0.00485592 -0.00271366
0.00170078 -0.00291847
0.01041243 0.00736100
0.00948817 0.00258806
0.02271336 -0.03371663
-0.01517059 0.00140920
0.01282396 -0.00295578
0.00905309 -0.01054350
-0.00342809 -0.02573829
-0.01534484 -0.00566309
0.01196711 -0.00204194
-0.00461406 -0.00603733
0.00020793 -0.00166079
-0.01909666 -0.01970784
-0.00360600 -0.00630835
0.01151265 0.00400395
-0.00757938 0.00897699
0.01570593 -0.01074496
-0.01088961 -0.00026511
-0.00459669 0.00081324
0.01845478 -0.00791629
0.01365115 -0.00340346
0.00706187 -0.01633442
0.00255516 0.01041354
-0.00915022 0.00616409
-0.01849356 -0.01628672
-0.00733070 -0.01091625
-0.01503170 -0.02010480
0.02691804 0.01514988
-0.00164686 0.00250088
-0.01535250 0.02067242
0.01307150 0.01403087
0.01102537 -0.01113908
0.01468558 0.01000825
-0.00145874 -0.01859441
0.00616494 -0.02248143
0.01218922 -0.00936253
-0.00184961 0.07085469
-0.00777456 0.00247169
-0.01345300 -0.00847792
0.00840914 -0.03436939
-0.00312309 0.02770921
0.00169417 -0.01087074
-0.02315666 0.00303279
-0.00021255 0.00687379
0.01132420 0.00189101
-0.00548067 0.01571878
-0.00881792 -0.01471754
-0.00049177 -0.00128955
-0.01165740 -0.01559322
-0.00398001 0.00595673
0.00955341 0.00975872
-0.00936411 0.03652889
-0.02539423 -0.00891254
-0.00437581 -0.01025326
0.00664235 -0.02004764
-0.00227978 0.00156120
0.00662810 -0.01770806
0.01716137 -0.00788746
-0.01082042 -0.01013670
0.00005497 -0.01052500
0.00323399 -0.00371970
0.02896050 -0.00138839
0.00183506 0.00377435
-0.01091172 0.00354044
-0.02763560 0.00584019
0.00166168 0.02511472
0.00597654 -0.01804348
0.01341553 0.02605338
0.00785850 0.00202978
0.00656644 -0.00294119
0.01397844 0.00190891
-0.00791994 -0.00384953
0.00824678 -0.02464438
-0.00560318 -0.00629575
-0.02976971 0.00561105
-0.00419240 -0.00237358
-0.00397268 -0.00595874
0.02666048 0.01168524
0.00856573 -0.01181832
0.01328320 0.01273231
-0.00823036 0.01814770
-0.02165211 0.01204769
0.00620681 -0.02034349
-0.01405407 -0.01561164
-0.01071175 -0.01568497
0.00190426 0.03152861
-0.00923107 0.02770373
0.00353167 -0.01012768
-0.00999927 0.00871624
0.00578373 0.00021812
0.00070456 0.02187944
-0.01232749 -0.00674273
0.02096137 0.02281228
-0.00334996 0.00454500
0.00349285 0.05422018
0.00738052 -0.00770421
0.00594575 -0.00888505
0.00937670 -0.01133180
0.01245920 -0.00407529
0.00493743 0.02428917
0.00011996 -0.00123237
0.00407487 0.00924478
0.01508083 -0.00810765
-0.00024896 -0.02139797
0.00542612 0.00391265
0.00495618 -0.00215568
0.00972121 -0.00303657
-0.01778604 0.00264102
-0.00959429 -0.00798904
-0.02891275 0.00397841
-0.01443798 -0.01058548
-0.00476301 0.02462280
0.00808496 0.00594830
-0.01935911 0.00175636
-0.02393226 -0.01249465
-0.00627877 0.00217408
-0.00887495 0.01734858
0.00249122 -0.01209342
-0.00001132 -0.00313261
-0.01455190 -0.00608181
-0.01403756 0.00619750
-0.00251391 0.00578755
-0.01660428 -0.00339103
0.01520483 -0.00705055
0.00795831 0.00077903
-0.00483441 -0.00291703
-0.00300345 0.01362087
-0.00583305 0.00597136
0.01988607 -0.00274204
-0.00594053 -0.00696925
-0.01153023 0.01808803
-0.01881633 -0.01137702
-0.02890480 -0.00331681
-0.00467501 -0.01949686
-0.01665373 0.00455415
-0.00024264 0.01220029
-0.01504555 0.01385392
-0.04329230 -0.00274838
0.00744936 0.01143775
-0.00513361 -0.02371712
0.02404482 -0.01219189
0.00319248 -0.01336240
0.00755384 0.00085799
-0.01197360 0.00713727
0.00628085 -0.01792406
-0.01288790 0.04221473
-0.00735719 0.00651772
0.01604876 0.00935618
0.00931470 -0.02611746
-0.01138917 -0.00629243
0.03251380 -0.01697732
-0.00534759 -0.02271114
0.00649566 0.01560471
-0.00693474 -0.00172085
0.00532121 -0.00068603
0.00950676 -0.00380755
-0.01878894 -0.00917971
-0.01581729 0.03225168
0.02620438 -0.00242551
0.00087743 -0.00649223
-0.00212783 0.03136262
0.00088257 -0.00376052
0.00083986 0.00585015
-0.01087751 0.00780923
0.01923301 0.00095676
0.00977764 -0.00455184
-0.01843068 0.01035779
-0.00579916 0.01727891
-0.00313282 -0.00857492
0.01942645 -0.00762268
-0.00411975 -0.00618819
-0.01494186 -0.00026928
-0.00202198 -0.00223633
-0.02623018 -0.00465416
-0.00217277 -0.01022668
0.01052931 0.00184294
0.00277249 -0.00112234
-0.01743431 -0.00889789
0.01003323 -0.01369196
-0.00084181 -0.01994566
0.00532894 0.00995433
0.01719660 -0.01267359
-0.02775736 -0.00083508
0.00076064 0.00679813
0.01028164 0.00466427
0.02765463 0.00564061
-0.00463336 0.01344849
-0.01185839 -0.00238528
-0.00978398 -0.00134396
-0.00459250 -0.00939456
0.00349710 0.00470753
-0.02333325 -0.01156925
-0.01065326 0.01735900
-0.00802047 0.01393059
0.00957079 -0.00870874
0.01782938 0.00115512
0.00509596 0.00790056
0.00252916 0.00661497
-0.02050640 0.00087458
-0.02169051 0.01327354
-0.00210413 -0.00706733
0.00238051 0.00877284
0.00732643 0.00217159
0.00746946 0.04183444
-0.01333113 0.00372160
0.02796860 -0.00464280
-0.00268936 -0.01282344
-0.01554637 -0.00367240
0.02695633 0.01431136
-0.01296486 -0.01341918
0.01015964 0.00511288
0.01293212 -0.00624810
0.00965541 -0.01494169
0.01607779 -0.00171076
0.01081203 -0.00330198
0.00088216 -0.01731656
-0.01369456 -0.00036258
-0.00567536 -0.01021762
0.00094606 -0.00648442
-0.01644209 0.01011419
0.02572845 0.01417866
-0.01421704 0.00163538
0.01550642 0.00172891
-0.00927447 -0.01673908
-0.00083001 0.00211824
0.00169394 -0.00265795
-0.00336825 -0.00695672
-0.00890799 0.02138355
0.01061543 0.01483375
-0.00478701 0.00474965
-0.02424980 0.00009258
-0.00257755 -0.00056323
-0.01633178 -0.00009594
-0.00107401 0.00591915
0.00168106 -0.01268362
0.00001277 0.02055064
0.00497757 -0.00666421
0.00996562 -0.00427557
0.01626781 0.00520936
-0.01052277 -0.00155359
-0.00897490 -0.00418993
0.01682759 -0.01922638
-0.01019982 -0.02585140
0.00710423 -0.00501021
0.01871072 0.01070129
0.01852635 -0.01210650
-0.00849408 -0.01362543
-0.02223348 -0.01705588
0.00820154 0.00780645
0.03146634 0.01509072
0.01008857 0.01709131
0.00648973 -0.00762500
-0.00190464 -0.01032931
-0.00421962 -0.00460578
-0.01200088 -0.01597065
0.01611265 -0.01351486
0.02125340 -0.00220968
-0.00036591 -0.00831512
0.02611551 -0.02289140
0.00327965 0.00607791
-0.01248957 0.00235022
-0.01926466 0.00144004
0.00697430 -0.00332349
-0.01222349 -0.02361780
-0.00254514 -0.00873647
-0.00710968 0.00890019
0.00034651 0.02450824
0.00303958 -0.00732534
-0.00696362 -0.02000433
-0.00855320 -0.00167017
-0.00629398 -0.00595332
-0.00460583 -0.00545252
0.00172857 0.00215662
0.01506908 0.01381984
-0.00561309 0.00003871
-0.01087269 -0.00381429
0.01045086 0.01584645
-0.00912575 0.01074861
0.02510199 0.01739985
-0.00677406 0.00139181
-0.01272325 -0.01105423
0.02355126 -0.00154726
-0.00545714 0.00958327
-0.02365018 0.01343148
0.00084027 -0.00930176
0.01972400 -0.00696021
-0.01283986 -0.00069967
-0.00704634 0.00656082
0.00579262 -0.02362061
-0.03047094 0.00478312
0.00002669 -0.00340210
0.01056636 0.00171286
0.00237617 -0.00160903
-0.00201617 -0.01292968
0.02633174 -0.00235755
0.00258604 0.00309897
-0.01934677 -0.00306042
-0.01442375 0.00726803
-0.00670053 -0.00032101
-0.01439083 -0.01195783
-0.01298269 -0.01127702
-0.00711200 0.02990832
0.00538620 -0.01665275
-0.02001064 -0.00186080
-0.01750325 -0.00597200
0.01550305 0.01093663
0.00165431 -0.01206157
0.00795755 -0.01658414
-0.01456634 -0.01420663
-0.00695843 0.00746424
-0.01875209 0.00199134
-0.02328335 -0.00329132
-0.01301446 0.03817406
0.00208472 -0.00215960
-0.00865330 -0.01308530
-0.00763663 0.01741521
0.00723440 -0.00323875
0.00392467 -0.01520852
-0.01311765 -0.00553027
0.01194345 -0.00134495
-0.02120605 -0.01106136
0.01378010 -0.01341702
0.01028566 -0.00455705
0.02014714 -0.00275674
-0.00070778 -0.00902741
-0.00532925 -0.00334154
-0.01741165 0.01478497
-0.00681002 0.00355719
0.02298643 -0.02269230
-0.00225981 -0.03081482
-0.01710105 0.01850192
-0.00846413 -0.01412042
-0.00235327 0.00895552
-0.00141110 -0.01559008
-0.00878286 -0.01237858
-0.01159022 0.00158112
0.03651413 -0.01335868
-0.00328358 -0.00009730
-0.00781716 -0.01201883
-0.00784461 0.02286095
0.00291093 -0.00432172
0.02603151 -0.00559332
-0.03015905 -0.00214291
0.01184213 -0.00157402
-0.01144744 0.01116059
-0.00430842 0.00167544
-0.00486606 0.00729642
0.01681329 -0.00065294
-0.01459677 0.01595115
0.02226360 0.00842020
0.00786725 -0.00561369
-0.00067193 -0.00158836
0.00927363 -0.01198456
-0.01095551 -0.00851586
-0.00826094 0.00420398
-0.00820796 -0.00410772
0.00477287 0.01187647
0.02430390 -0.01380315
-0.00351130 -0.00986369
-0.00745194 0.01087048
-0.01200166 -0.01071686
0.00258670 0.01178434
0.00171754 -0.02695480
0.00425048 -0.00851672
-0.01659513 -0.00440764
0.01884375 -0.02181920
0.00586206 -0.00978808
-0.01251808 -0.00483685
0.00162106 -0.00098463
-0.00325117 -0.00543060
0.01032284 -0.00770962
0.01098300 0.01149907
0.00730982 -0.01690303
-0.00304434 0.00970430
-0.02831862 -0.00346553
0.00814588 -0.01229211
-0.00821960 -0.02039470
0.00796389 0.01076452
-0.01320578 0.00389869
-0.01196902 0.00263778
-0.00536250 -0.00233509
-0.01907133 0.00518579
-0.00427620 0.00122708
-0.01467489 0.00908559
0.00904667 -0.03066714
-0.00714765 0.00068654
0.00085980 0.02156406
-0.00791625 0.00297738
-0.01401278 0.01143639
-0.00955013 -0.00147625
-0.01125954 -0.00884212
-0.00069776 -0.01041149
-0.01803087 -0.02044030
-0.00730574 0.01864034
0.00626639 -0.00303454
-0.00406245 0.00663149
0.01476044 -0.01044580
0.00132290 -0.00117310
-0.00629799 -0.00225143
-0.00399605 0.00550281
-0.00112321 0.00293203
0.00260465 0.01693404
-0.01838981 -0.00308649
-0.01243094 -0.00100315
0.00060436 -0.00687467
-0.01310562 -0.00312891
0.00569820 -0.00555451
-0.01750883 -0.01536971
0.00442225 -0.00457150
-0.00397395 -0.01721185
0.00443836 0.00644883
0.00683946 0.00117962
-0.01644797 0.00118533
0.00295306 -0.00228000
0.01427280 -0.00921335
-0.02716977 -0.02373355
0.00798346 -0.00448052
-0.00489554 -0.00103106
0.03117146 -0.00165382
-0.01001890 -0.01714733
-0.01611748 0.00702369
0.00726742 -0.01857510
-0.01759054 0.00638233
0.01088799 -0.00133960
0.00634858 0.00315229
0.00144767 0.00332172
-0.02198930 0.01951223
-0.00587465 0.00703735
-0.00498565 0.00199651
-0.01086064 -0.01259089
0.01574114 -0.01478940
0.00610395 -0.00268100
-0.01910299 -0.00825635
-0.00330795 -0.00921010
-0.00579435 -0.00027795
0.01069822 -0.00155996
-0.00359621 0.00396033
0.01367296 0.01170740
0.01095484 -0.00993464
-0.00303408 -0.00312151
0.00608883 -0.00540975
-0.00908204 0.00047134
-0.01679034 -0.00411514
0.01829435 -0.00688896
-0.00693131 0.00395833
-0.00538294 -0.00927380
-0.00410666 -0.00690814
-0.01711371 -0.00245153
-0.00404302 0.01075059
0.00783596 -0.00104303
0.03999295 -0.00342112
-0.01770706 -0.00478017
0.00345032 0.00621040
0.00722664 0.01160493
0.02340789 0.01885196
0.00171258 -0.01801015
-0.02176416 0.01271078
0.00603341 -0.01128597
-0.00615833 0.01791060
-0.00313904 -0.02317167
-0.01259678 -0.01496832
-0.00822785 0.02583924
-0.00007884 -0.03957132
0.00720909 0.00500223
-0.00752605 0.01201345
-0.00442581 0.01134567
-0.02932090 0.01227178
-0.01316719 0.02664148
0.01845319 -0.00123902
0.01212499 0.00550506
0.00168386 -0.00174364
-0.01034169 0.02235116
0.00769377 -0.00198553
0.01055509 -0.00513964
0.01005868 0.01977686
-0.00808148 -0.01336928
-0.00503292 -0.01565342
-0.01252454 0.03305877
-0.01258984 0.01542265
-0.00029053 -0.02429672
-0.00900315 -0.00613291
0.00706797 0.00128290
-0.00549207 -0.01822003
0.01377519 0.01007052
0.00414049 -0.00226507
0.00662595 -0.00902401
-0.00226267 -0.01611718
-0.00230061 0.02999008
-0.00458270 -0.02771213
0.00077492 -0.00144960
-0.00644428 0.00570893
-0.01635699 -0.01342453
0.00174570 -0.00747035
-0.02169628 -0.01483946
0.01865293 0.01222918
-0.01378265 0.01392646
-0.01237542 -0.00217858
0.00428000 0.00243418
0.01007197 -0.01748060
0.00102143 -0.01033162
0.01387424 0.00662876
0.00849671 -0.00708370
0.01408377 0.00198965
-0.00440623 0.02285473
-0.02629614 0.00336675
0.01457189 -0.02010463
0.01354451 0.00356847
-0.02110234 0.01222637
0.00483901 0.00065885
0.00366923 0.03776135
-0.01212410 0.01330113
0.01220104 0.01818297
-0.01902479 0.00987413
0.01159114 0.00825210
-0.00162848 0.01331135
0.00925786 0.01494878
0.01072456 -0.00555995
0.01252936 -0.00764575
-0.00163326 0.00668330
-0.02563203 0.01009306
0.01944140 0.00049591
0.01797081 -0.01140010
0.01183804 0.00047089
-0.02904981 0.00180564
0.00143577 -0.01805849
-0.01386184 0.00874994
0.00223749 0.01260491
0.00261717 -0.01050651
-0.00710131 -0.00785309
-0.01053350 -0.00999615
0.01906730 -0.00963579
0.02329446 -0.00365637
-0.00132219 -0.00760384
-0.02050732 -0.01452837
-0.00148063 0.01852359
-0.00403107 0.00697110
-0.00662237 -0.02605999
0.01142634 -0.01190469
0.01466421 -0.00501896
-0.01782059 0.00532059
0.00343449 -0.00620337
-0.00205725 -0.01332908
-0.00341058 0.01647409
0.00253708 0.00371611
-0.00475029 0.02698273
0.01516834 -0.00198916
0.02754912 0.00804352
-0.00033689 -0.03245766
0.00805200 0.00447144
-0.01802999 0.00462237
0.00674535 -0.02075159
0.00278906 0.01742209
0.00536576 0.02168627
-0.01149193 -0.01693788
0.00753902 0.01633228
-0.01318130 0.00393571
0.00964388 -0.00475753
-0.00632891 -0.00335989
0.00374124 -0.00175889
-0.01601378 -0.00807553
0.00652978 -0.01809273
0.00503012 0.00544777
0.00399534 0.00374120
0.00535963 -0.01079871
-0.00397247 -0.01098978
-0.00824492 -0.00204531
0.01721544 -0.00761458
0.02251808 0.00807776
-0.01179274 -0.00399494
0.00265010 0.00807836
0.00092872 -0.00555922
-0.00416339 -0.00413071
0.00264557 -0.01151332
0.00376618 -0.01286407
-0.01390988 -0.00087076
-0.00689491 0.00371421
0.00592616 0.00176101
-0.01238186 -0.01318397
-0.00389345 -0.01142400
0.02104520 -0.01007778
0.00216989 -0.00390017
-0.00301286 -0.00462266
0.00031081 -0.01921753
-0.01163414 0.00134319
-0.00367622 0.00149044
-0.01130800 0.00991630
-0.00667629 -0.00034420
0.00521544 0.02000588
-0.01050186 -0.00526019
0.02686474 0.00423716
0.00119026 -0.00142668
-0.00699580 0.01023742
-0.00741459 -0.00468232
-0.00299234 -0.02195615
-0.01906907 0.02460951
0.01857023 0.02427702
-0.01570735 -0.01323083
-0.00946872 -0.01615622
0.01879547 0.01301856
0.00123911 0.02433746
-0.00011872 -0.00574171
-0.01424930 -0.00646564
0.01413299 0.02096698
0.00227063 0.02112553
0.00038539 0.01203085
-0.01721551 0.00436633
-0.01212611 0.01645329
-0.02214194 0.00744189
0.01281785 -0.03028657
0.00033499 0.01439133
-0.00145822 -0.01175014
0.00639322 0.00588063
0.00634834 -0.00138205
-0.00826537 0.01948035
0.00039760 0.01602301
0.01528579 -0.00576825
-0.01048621 0.01706197
0.00213086 0.00198014
-0.00482623 -0.01001771
0.01394574 0.00563806
0.00286298 -0.01373638
0.01567892 -0.00492460
-0.00991294 -0.00314884
0.01083385 0.00229557
-0.00628854 0.00487046
0.00250556 -0.01580144
0.01331220 -0.01176955
0.00612920 -0.00065239
0.01916256 0.00812633
-0.01134543 -0.00952944
0.00584104 -0.02536347
-0.00449303 -0.00546135
-0.00424357 -0.01160741
-0.00453346 0.01357052
0.00733768 -0.00508791
0.01428332 0.00248920
0.00852166 0.00501228
0.00407612 -0.01111040
0.01077595 0.00009563
-0.02195307 -0.00809798
0.00026675 0.00149600
0.00249393 -0.00571126
-0.00504439 0.00560627
-0.00062357 -0.00558000
-0.00282840 0.00142005
0.00876066 -0.00979318
-0.00955834 -0.00939498
-0.00395864 -0.00935158
-0.01515438 0.01834940
-0.00379645 0.00172100
0.01623131 -0.01104868
-0.01423190 -0.00069179
0.01417803 -0.00286371
-0.00527879 0.00462108
-0.01373880 0.00616286
-0.00085264 0.01407874
-0.00538570 0.00152633
0.00933219 -0.00943976
-0.00670105 -0.00494811
-0.00067110 0.04177537
-0.00396282 0.00468232
0.00076705 0.01597962
0.01702422 -0.00052540
0.01472626 0.00013391
-0.00752112 -0.00496848
0.00942114 0.02386792
-0.00344669 -0.02201338
-0.00583654 0.00115215
0.01568785 -0.00766324
0.01019719 0.00409928
0.03291373 0.00002494
-0.00699433 -0.00567985
0.00967742 -0.00107420
0.00678013 -0.00092068
0.01793647 -0.00553824
-0.00687339 0.01085444
-0.00993090 0.00168933
-0.00574366 0.00888896
-0.02089366 0.00857424
-0.00070304 -0.00932032
0.00494853 -0.00124294
0.00784307 0.00881843
-0.01198076 -0.00856977
-0.00087800 0.00130439
0.01728227 -0.00614587
-0.01687825 -0.01693136
0.00629294 -0.01100237
0.00402389 -0.00399994
-0.01010585 0.01471106
-0.00675568 -0.00854507
-0.01280761 -0.00495746
-0.00140815 0.00599115
-0.01362982 -0.01532825
-0.00384241 -0.01012217
0.00551176 0.00863396
-0.01285167 -0.00014684
0.01584011 0.00011421
-0.02324923 0.00701995
-0.01262001 0.02636594
-0.01389325 -0.00142913
0.01595778 -0.01319510
0.00547413 0.00149786
-0.02088223 -0.02596769
-0.00323125 -0.00991561
0.01362506 -0.00112130
0.02160398 -0.00464113
-0.00401793 -0.00063136
-0.01654126 -0.01125528
-0.00360212 0.00959861
-0.01262273 -0.00105758
0.02213678 0.00612323
0.02048118 -0.02616475
-0.00970554 -0.01517877
0.00285716 -0.01981046
0.00359771 0.00610415
0.01646210 0.00039407
0.01541511 -0.01831394
-0.01415682 -0.01676950
0.00112401 -0.01843240
-0.00466397 0.00200915
0.00120142 0.00884762
-0.01101985 0.00542865
0.00675877 -0.01560979
0.00311794 -0.00884007
0.00538032 0.00357277
0.00089259 -0.00708885
-0.00723901 -0.01282916
-0.01335401 0.01989746
-0.00955842 -0.00647865
-0.01843747 -0.00744096
-0.00308027 0.00772562
0.02348261 -0.00612913
-0.01636661 -0.02463371
-0.00044262 -0.00733523
-0.00871796 -0.00984548
0.02452214 0.00517428
-0.00957312 -0.00996748
0.00397963 0.01331662
0.02788484 0.01246171
0.00212762 -0.00991634
-0.01065707 0.01600755
-0.02078239 0.01373823
0.02686555 -0.00863539
0.01955698 -0.00018340
-0.00787843 -0.00544102
0.02118835 -0.00198863
-0.00948029 -0.01354676
-0.01270904 0.01571671
-0.01044546 0.01945511
-0.01090630 -0.00705353
-0.01217742 -0.00562692
-0.01034392 0.01067471
0.01285815 -0.00175922
-0.00699921 0.00709877
0.00242613 -0.01463821
0.00047888 0.01592409
0.00318866 -0.01276943
-0.01685264 -0.00779718
-0.00054511 0.01696407
0.01667082 -0.00800734
0.02118120 -0.00339471
-0.00778595 -0.00872086
0.00306098 0.00960277
-0.01506216 -0.00245025
0.01188243 0.01235169
-0.00957146 0.01092532
-0.00435850 -0.00455624
-0.00100833 0.00558208
-0.01147483 0.00961950
0.01092689 -0.01198486
-0.00128398 -0.01667485
-0.00083868 -0.01284799
0.00346543 0.00150391
0.00670450 -0.01578784
-0.01345202 0.02651536
-0.02027982 -0.01649349
-0.01780667 -0.00250029
0.01566198 0.02262141
0.00800843 0.00269300
0.00697174 0.00059760
0.00318491 -0.02489004
-0.00541325 0.00861085
-0.03169677 -0.01115803
-0.00067661 -0.00686989
-0.01476248 -0.00045830
-0.00733344 -0.01216279
0.01155806 -0.00111274
-0.00685591 -0.00702730
0.00694472 0.02158191
-0.00759002 0.01582034
0.01491765 0.00489916
-0.00722889 0.00307852
-0.01100033 -0.01517275
-0.00062048 0.00649763
-0.00029554 -0.00367118
-0.01717811 -0.02169173
0.00632297 -0.01664467
0.00761171 0.02542712
-0.01676506 0.00590818
0.00461630 -0.00501992
0.00171375 -0.00280795
-0.01011373 -0.01365565
-0.02307749 0.00738355
-0.00464244 0.01246066
-0.02001128 -0.00198304
-0.01370799 0.01726516
0.01178389 0.00343832
-0.00687140 0.01246758
-0.03092294 0.02256112
0.00239309 -0.01501914
-0.00344240 -0.02148571
-0.00424227 -0.02552024
0.01025572 -0.01295307
-0.00655056 0.00510805
-0.00701814 0.03486877
-0.00233860 -0.02724165
0.01377262 -0.00187777
-0.00054484 -0.00061107
0.00632700 0.01058444
-0.01896392 -0.01117241
-0.00004955 -0.00380617
-0.02940404 -0.00769553
0.01055966 -0.00773342
0.02064658 0.01067282
-0.00612765 0.00405973
-0.00677539 -0.00511684
0.00602534 0.00336435
0.00236321 0.00248958
-0.00795779 0.00230255
-0.01992652 -0.01205526
-0.01153662 0.02089351
-0.01227794 -0.01494316
0.00140763 -0.00878907
0.00036384 0.01193351
-0.01730081 -0.01608888
-0.00518160 -0.00878269
-0.00416409 0.00303979
-0.00120859 -0.01353272
-0.00368817 0.00582702
-0.02506132 0.01380138
-0.00776453 0.00558963
-0.00174432 0.00262078
-0.00167562 -0.00254096
0.00788736 -0.00806186
-0.00821808 -0.00665140
0.00958036 0.00302496
-0.00591562 0.01884599
0.00038083 -0.02645771
0.01760051 -0.00869786
0.01824431 0.01645562
0.02995400 -0.01184043
0.02142597 -0.01142218
-0.00704568 -0.01932768
-0.01489675 -0.01233109
-0.00506076 0.00299672
0.00392035 -0.01022281
0.00597976 0.01479033
0.00792722 -0.02341414
-0.00712241 0.00667072
0.00481685 0.01443798
-0.01378564 -0.00353448
-0.01258704 -0.00003773
-0.02333982 0.03058107
-0.02875402 0.00739777
-0.00667664 0.00278626
-0.01343965 0.01412984
0.00483256 0.01286422
-0.00086900 -0.00704561
-0.00484028 -0.00010948
-0.00300958 -0.00554537
0.01667499 0.00480844
-0.00228654 0.00521809
0.01112940 0.00722902
-0.00683227 0.00719469
0.00503692 -0.01262519
0.01425153 -0.01395951
-0.00589418 0.00509626
0.00003735 0.00007664
-0.00045389 0.01692316
-0.02446428 -0.00239361
-0.02177162 -0.00821341
0.00926342 -0.00041648
0.00736489 -0.02241379
-0.01384565 0.02447665
0.00173254 -0.00900133
-0.00178719 0.01018104
0.00378459 -0.00919857
0.00073305 0.02150046
-0.00467876 0.00670417
-0.00007754 -0.00965079
-0.00151038 -0.00219068
-0.01774103 -0.01134248
0.00083310 -0.00097425
-0.01910750 0.01284458
-0.01863785 0.00207080
-0.00343611 0.01333973
0.02025467 0.01771663
-0.01280611 -0.01140255
-0.02880477 0.00076298
-0.00060927 -0.01154505
0.00013052 0.01855469
-0.01019866 -0.01210243
0.00570355 0.01325283
-0.02166683 -0.02327506
0.01833378 -0.01780146
-0.00720152 -0.01574283
-0.00017057 -0.00620661
-0.00696097 0.00117894
0.01047376 0.00194272
-0.00777818 0.00151606
0.01823049 0.01679296
-0.00692161 -0.02302249
-0.01969630 -0.00870519
0.00282177 0.01604820
-0.00690738 -0.00518592
0.03458253 0.00842482
-0.00747224 0.00757723
0.00082858 0.01145652
-0.00950526 -0.00176677
0.03654778 0.00691998
0.00110389 -0.01811175
-0.01549661 -0.01292754
0.00043111 -0.01077246
0.01319376 -0.01438979
-0.01625074 -0.01605588
-0.00957357 -0.01123947
-0.01064349 0.00177318
0.01640720 -0.01168760
-0.00332253 -0.00677442
0.00124150 0.00636916
-0.00655856 -0.01164834
-0.00242655 0.01545158
0.00386069 -0.00587524
-0.02133401 -0.00356914
-0.01231319 -0.00292415
-0.01051334 0.00683733
0.01250265 -0.00365741
-0.00657351 -0.01021304
0.01044006 -0.00566191
-0.00090260 -0.01044671
0.00901651 0.00332808
0.02279005 -0.00094229
-0.02312093 0.01557692
0.02158211 -0.00051349
-0.03509719 0.00230425
0.01249651 -0.01371864
0.00832896 0.00156211
-0.00201218 -0.01316313
-0.00217418 0.00584471
0.00281108 -0.00357063
-0.00418349 0.00620095
-0.00118126 0.02540436
-0.00555906 0.01445986
0.00025245 -0.01028179
0.00227466 -0.00051140
0.00786969 0.00683639
0.00067476 0.00137703
-0.01187347 -0.01421002
0.00451520 -0.00978108
0.01119509 -0.00496939
-0.00685614 -0.01583358
0.00684643 0.00777896
-0.00952076 0.00397694
0.02061952 -0.01162186
0.01999399 0.00488548
-0.00470288 -0.01722934
-0.00345428 0.00981477
-0.00423363 -0.02352083
-0.00108777 0.00576950
0.00398601 -0.00681648
0.00925001 -0.01566619
0.01328926 -0.00399830
0.00325598 0.00730943
0.00219586 -0.00913004
-0.00638565 0.00005969
-0.00104978 -0.01289402
-0.01192758 0.01639644
0.00443264 0.00421581
0.00508451 -0.01447445
0.00601622 -0.00127074
-0.02733158 -0.02521948
0.00338653 -0.00272881
-0.01401350 -0.00982710
-0.01472953 -0.01821016
-0.00860923 0.01384063
0.00314132 0.01056296
-0.00653994 -0.01003032
-0.00628330 0.00280859
0.01753772 0.00061944
0.03773610 -0.00201267
0.00850681 -0.01004918
-0.01966793 0.00023701
0.01646417 0.00006588
0.02043222 0.01218657
-0.00024944 -0.00477851
-0.01475012 -0.02310622
-0.01038391 -0.00541334
-0.01945973 0.02382804
0.01474954 -0.02444955
-0.01097452 -0.01087162
0.02382898 0.00175583
-0.00530586 0.01350090
0.00313677 0.00072381
-0.03087363 0.03079911
0.02431757 0.00130083
0.00727092 0.02361054
-0.00470612 0.00868530
-0.01391441 0.00835725
-0.00952452 0.01698015
0.00686516 -0.01261753
0.00166004 -0.01952253
0.00166183 -0.01784907
-0.01901196 -0.00019326
0.01909748 0.02778157
-0.00741626 0.01836133
-0.01138607 0.01789966
-0.00245888 -0.00465787
-0.00495930 -0.00158184
0.00273617 0.00231497
0.01512357 0.00261821
0.00429743 -0.00780743
0.01382849 0.00470645
-0.02409518 -0.02209073
0.01730612 0.00141719
-0.00096873 0.01383862
0.00064627 0.00953778
-0.00287664 -0.01527295
-0.01209962 -0.00901878
-0.01071042 0.02203043
-0.01282969 0.02346821
0.01172697 -0.01963077
0.03214538 0.00202309
-0.00164099 0.01733684
-0.01269691 -0.01235486
0.00164191 -0.00700151
-0.00738283 0.01150521
0.00048230 -0.01469607
-0.00585485 0.02250520
-0.00953087 0.03658541
0.00562301 0.00559507
-0.01177085 -0.01284917
0.00744591 -0.01303594
-0.01196626 0.00253209
-0.00526243 -0.00134567
0.00769484 0.01923769
0.00379215 0.00343684
-0.00517240 0.00702588
-0.00692221 0.00882670
0.00142022 0.01280462
-0.00822555 -0.00309731
-0.02077739 0.00369518
-0.00348483 -0.00364349
-0.00189063 -0.00867660
-0.00945895 0.00405206
0.00366147 -0.00253004
-0.00138291 -0.01329856
-0.01159927 0.00220648
-0.00635894 -0.00427273
-0.01858080 -0.00298490
-0.00168050 -0.00724076
-0.00020846 0.00103890
-0.00825625 -0.01409450
0.02484964 -0.02016777
0.00645334 0.00188197
-0.00638609 -0.01523686
0.00791499 0.00437864
0.01501059 0.00380619
0.02210542 0.01967530
-0.00972786 -0.00603303
-0.00365985 -0.03017518
0.00533053 0.00340706
0.03505501 -0.01567667
0.00819409 -0.01591549
0.01376675 -0.00278084
-0.00551849 -0.00744118
0.01230579 -0.01176558
0.00857277 0.01352020
-0.00206707 0.01510965
0.01564415 -0.02001450
-0.01492255 -0.01508514
0.02273123 0.02635539
-0.00706153 -0.01883223
-0.00300156 0.01548757
0.01668761 -0.02137704
-0.01286866 0.02115507
0.00132741 0.01395396
-0.00209285 0.00988081
-0.02094868 -0.01930710
0.00603287 -0.02474570
0.00350322 -0.00326304
-0.00505995 0.01427435
-0.01390025 0.00192707
-0.01714823 0.01718265
0.01472600 -0.00608181
-0.00872606 0.02793180
0.00094674 0.00941653
0.00123406 -0.02324959
0.00647529 0.00917271
-0.01847614 0.02838173
-0.01555036 0.01510786
-0.01575307 -0.02340378
0.01442022 -0.01155664
0.00245831 -0.00849839
0.02643108 -0.01524596
-0.00588312 -0.01547215
-0.00511665 0.00301443
-0.00023193 -0.01500277
-0.01620496 0.02730260
-0.01886041 0.03276965
0.01241686 -0.00774000
-0.01653525 -0.01046649
-0.01472557 0.00406277
0.01059266 0.00833117
-0.01202027 0.01382894
-0.01619835 0.00916766
0.02049560 0.01752122
-0.00853367 0.00251503
0.00985674 -0.00082744
0.00806845 0.00371318
-0.01275462 0.01866475
0.01113141 -0.01739800
0.01093862 0.01860943
0.01234900 -0.01202831
-0.00284534 0.02178652
-0.00572640 0.00474200
-0.01810644 0.00951910
-0.01793578 -0.01194375
-0.01370005 -0.01007196
0.01162880 0.03771429
0.00781189 0.01558015
0.00118544 0.00882664
0.01030696 0.00121438
0.01744980 0.01320476
-0.00815066 -0.00797573
0.02134734 -0.01602087
0.00864946 -0.01144302
-0.02050831 -0.00621210
-0.00646390 -0.00945624
-0.01315251 0.00196013
-0.01261312 -0.01515316
-0.02421003 -0.00398065
-0.00961313 0.01952294
-0.01237821 -0.00612874
0.00408799 0.02170012
0.00342388 -0.00258346
-0.01537680 0.00701079
0.01782550 -0.00830129
-0.00112590 -0.01289945
-0.00362446 0.01103251
-0.00380921 -0.00063386
0.00059027 -0.00280546
0.00967618 -0.00966266
0.01245028 0.00188622
-0.00878397 0.00343228
-0.00952622 -0.00893145
-0.00678241 0.00611704
0.01151079 0.00644149
0.00051294 0.01295214
-0.00078339 0.00230871
-0.00600852 0.00836976
-0.00502637 -0.02311729
-0.00442472 -0.00372931
-0.01160288 -0.00630498
0.00629772 -0.01013695
-0.01401127 0.01843535
0.01003361 0.00052529
0.00392396 -0.00930227
-0.01113053 0.00391437
0.01438607 -0.00392329
-0.00191643 -0.01673181
-0.01494743 0.01060838
0.01926210 -0.02208709
-0.01517616 0.01913147
0.01420110 -0.01857408
0.00224846 -0.01192059
0.01140455 0.00486296
-0.00854978 0.01817255
0.01510236 -0.00184651
0.02467965 0.01107340
-0.01182029 0.00798963
0.00403804 -0.00684949
0.00088774 0.01686895
-0.00301129 0.00095851
0.00037137 -0.00007858
0.01287510 -0.01183180
0.00207435 -0.01075870
-0.01143396 -0.01863714
-0.01974654 0.00464414
0.04480103 -0.01413467
-0.00728338 -0.01409400
0.00171474 0.00707050
-0.00028700 0.02306670
0.00088633 0.00778156
-0.00242827 0.00017482
-0.01482283 0.00127821
-0.00274414 -0.02727818
-0.00585576 0.00196190
-0.00748053 0.01867755
0.01015213 0.00065124
0.00150647 -0.00307800
0.01021618 0.00806993
-0.02391495 0.02325734
-0.00034627 -0.00132092
0.02586834 -0.01120645
0.01473676 -0.01192391
0.00153671 -0.00086784
-0.00055402 -0.01700600
-0.01156808 0.00821323
0.00166947 -0.01579440
0.01367540 0.00370806
-0.01417341 -0.00710131
0.00187251 0.00782181
0.00664436 -0.01358573
0.00280430 0.00904135
0.00865360 -0.01527509
-0.00566798 -0.01238013
-0.00093192 -0.00400014
-0.01144073 0.02353656
0.00147391 -0.00409703
0.01207506 -0.01073391
0.00835568 -0.01573345
-0.02659285 -0.00708492
0.00968921 -0.00700272
0.00457650 -0.00614380
0.01576929 0.01123202
-0.01179878 -0.00728763
0.00336446 0.01540549
0.01211778 -0.00201396
-0.00444252 0.02341323
0.02209381 -0.00743875
0.02025027 0.02292460
-0.00729340 -0.01451808
0.00411869 -0.01600376
0.01056515 0.01176047
0.00909500 -0.01426964
0.01988872 -0.00492593
0.00475415 -0.02094615
0.00559586 -0.00001190
0.01184672 0.00042520
0.00028822 -0.01571920
-0.00236378 -0.01398993
-0.00764324 0.00804381
-0.01659010 -0.01573387
-0.00441639 -0.03004249
0.01316890 -0.01522981
-0.01105611 0.01841148
-0.01594318 0.01652759
0.00433316 -0.00853104
-0.00031980 -0.01760607
-0.00573348 -0.00792942
-0.00326466 0.00472636
-0.02087037 0.01706757
-0.02132863 -0.00318503
0.02535351 0.01655800
0.00308373 -0.00453910
0.00600313 -0.01569151
-0.00123824 -0.00455231
-0.01257529 -0.01356337
0.02452639 -0.00896825
-0.01810947 -0.01016763
-0.01101605 -0.01234440
0.02572167 -0.00474749
0.01849931 -0.02378995
0.01171516 0.00062616
0.00252809 0.00260626
-0.01821061 0.00072500
0.01060486 0.00387969
0.00818648 -0.00644099
-0.00675310 0.00485495
-0.00654356 0.00012306
0.00176760 -0.01162747
0.01357248 0.00919881
-0.02212162 0.01293957
-0.01991653 0.00553233
-0.00182968 0.01506637
0.01217846 0.00084051
-0.01089305 0.00447599
0.00913193 -0.00358774
0.00307454 -0.00393468
-0.02595462 0.00872099
0.00874134 0.00210587
-0.00848024 -0.01124174
0.00499265 0.00145458
0.01029441 -0.01848805
-0.00693028 0.00625860
0.03219914 -0.00611892
-0.00618886 -0.02349876
0.00789562 -0.01021959
-0.00630216 -0.00731918
0.00886352 0.00532072
-0.00914481 0.00634719
-0.01323793 -0.01934488
-0.00987353 0.01456917
0.00600193 -0.02406564
0.00025418 0.00113469
0.00489736 0.00852087
0.01620696 -0.01655866
-0.00453215 0.00853606
0.03443422 -0.00562263
0.00592469 0.02510217
-0.01477278 -0.01038642
-0.01248703 -0.00883494
-0.00301885 0.00619021
0.00396399 0.00425870
-0.00267187 -0.01051135
-0.00967147 0.02221330
0.02437984 -0.01497198
0.00332474 -0.00878931
-0.00733723 -0.00185612
-0.00090729 -0.01085945
-0.00179417 0.01335091
-0.01146395 0.02641711
0.00208102 -0.00255574
0.00455661 0.00290944
-0.01123316 -0.01279310
-0.00446517 -0.01649295
-0.00780151 -0.00517647
0.00658367 0.00074264
-0.02172206 0.02162837
0.00146266 0.01341541
-0.00566055 0.00441538
0.01304175 0.01203540
-0.02046028 0.00226499
0.00150711 -0.00597991
0.01467867 0.01910642
0.00349214 0.00619363
0.00040552 -0.01990025
0.01554412 0.00525803
0.00417262 -0.02775704
-0.00336268 -0.00482979
-0.00333360 0.01590192
-0.00076340 -0.00759866
0.00593616 -0.00580727
-0.00954614 -0.02206266
0.00207638 -0.00706539
-0.01019903 -0.00143180
-0.01307397 0.02077166
-0.01755159 0.02131998
0.00204837 -0.02789495
-0.02335465 0.01090024
0.00020875 0.01086412
0.01213721 -0.02044979
0.01003778 0.00702458
0.00454851 0.00434022
0.00168272 0.02036406
-0.00310868 -0.01454790
0.00854144 -0.00408833
-0.01123411 0.00994077
0.00293553 0.00702484
0.00919196 0.00800034
-0.02676263 0.00062253
0.00486521 -0.00898032
0.03476649 -0.01982102
-0.01418442 0.00871957
-0.00060495 0.01143031
-0.02889600 0.00562966
-0.00314054 0.00256896
-0.01875632 0.00345513
0.02038843 0.00284361
0.00734441 0.00825331
-0.00671273 -0.01232875
-0.01151278 -0.01836267
-0.00728769 0.00205157
0.00387824 0.00751545
-0.00738650 0.00631318
0.01260310 -0.02201697
0.01037563 0.00678145
0.00023489 -0.00149511
0.00906377 0.01750801
0.01029116 0.00137618
-0.00415643 0.00935716
-0.01680033 -0.00493000
-0.01242688 0.00052460
-0.01189448 -0.00525774
0.00701363 0.00375463
-0.01198862 -0.00294422
-0.00195082 -0.00116604
-0.00077312 -0.00813114
0.00971080 0.00047373
0.00076496 -0.00693817
0.01778648 0.01685499
-0.00575570 -0.00911124
-0.00597719 -0.01231805
0.01561474 -0.02308832
0.02488292 -0.00778481
-0.00649310 0.00635302
-0.01920110 0.00221393
-0.00790475 -0.00593319
0.00672464 -0.01262759
-0.01228417 -0.00302005
-0.00023625 -0.00152114
0.01039306 0.02420451
-0.01492429 0.00225184
0.00137503 0.00437064
-0.00805409 -0.01131697
-0.00043747 0.02600487
-0.02320806 -0.01887149
0.00469741 -0.00592933
0.01999257 -0.01735432
-0.02189588 0.00183409
-0.00452038 -0.00574525
-0.01143133 0.01263257
0.01386932 0.00515645
-0.00541732 0.00984961
0.00581242 -0.01053454
0.01228465 -0.00265093
-0.02050948 -0.01261815
0.01359079 -0.00333028
0.01101907 -0.00257486
-0.01177658 -0.01044152
-0.00903748 0.00298481
-0.00770666 0.01098265
0.00303582 0.00370035
-0.01176415 -0.00514525
-0.01447075 -0.00734559
0.00662835 -0.01112219
0.01761829 -0.00106335
-0.00359400 0.01046682
0.01890473 -0.02144674
0.01434650 0.00136832
0.01518296 -0.00065484
0.00676820 0.00667959
-0.00503805 -0.02489219
0.01086634 -0.02733972
-0.00063596 -0.01816392
-0.01114825 0.01481381
-0.00266876 0.00734363
0.01436271 -0.01029124
-0.01564571 0.00420851
-0.00969538 -0.00876665
-0.03213618 -0.00810560
0.00780656 0.02005256
0.01467269 -0.01199736
-0.00282544 -0.00940554
-0.00224114 -0.00190191
-0.00560662 0.01818548
-0.01406453 -0.00924188
0.00634657 -0.01695474
-0.00472026 -0.01697493
-0.01138789 -0.00342295
-0.00617272 0.00822228
-0.00427931 -0.01968840
-0.01192904 -0.00201025
0.00723703 -0.00702485
-0.01469740 -0.00183801
0.00277107 -0.00070584
-0.00748410 0.00174467
-0.01743451 0.01476104
0.00196962 0.00996345
0.01905029 0.00353328
-0.00763850 -0.00259759
-0.00431207 0.00947012
0.01186771 -0.00548371
0.01800968 -0.02385788
-0.01716882 -0.01562781
-0.00216861 -0.01832696
0.00492439 0.02174382
-0.00140562 -0.00009876
-0.00803552 0.00048093
-0.01355435 0.01516655
-0.01296026 0.01511494
-0.00729079 0.00520289
-0.00840361 -0.01237682
0.01561770 -0.00240966
0.01768046 -0.00326038
-0.00359776 0.00514930
-0.01485069 0.00483278
0.00216466 -0.01256472
0.00018938 0.01710040
0.00011372 -0.00101329
0.00392788 -0.01017706
-0.01820253 0.01357157
0.01285758 0.00694486
-0.00405533 0.00046979
0.00689956 -0.02432147
-0.00965855 -0.01445847
0.00287293 -0.00871022
0.02317448 0.01347915
0.00363371 -0.00272313
-0.00141812 -0.00819104
0.00442254 0.01747143
-0.01848927 0.01654543
0.00385773 -0.01694504
0.01105999 -0.00629275
0.01051544 -0.00281858
-0.01591294 0.00973803
0.01228821 -0.00871847
-0.01388036 0.00886745
0.00742321 0.00037762
0.00740728 -0.00233148
0.00962330 -0.01109880
-0.00122375 -0.00392228
-0.00785240 -0.00708395
0.02732532 0.00062169
0.00181874 0.01351556
-0.01929590 -0.01408091
-0.01880446 -0.00463691
0.00793682 0.00204954
-0.00903651 0.00072949
-0.02272014 -0.00747941
-0.00787276 -0.00878653
-0.00291309 0.00937008
-0.00668336 0.01489810
-0.00280410 -0.01126136
-0.01539610 0.01166656
0.01435567 -0.00083918
-0.01661553 -0.02131091
-0.01376911 0.00461689
-0.02394803 0.02204332
0.01073003 -0.01347636
0.01071559 0.01282698
0.01154921 0.00092942
0.00758440 -0.01219825
-0.02756648 -0.01164235
-0.00593975 0.00828586
-0.00212003 0.00383285
-0.01609143 0.00638991
-0.00845430 0.00344389
0.00196806 0.00534503
-0.00487363 0.00080336
-0.01224082 0.00990432
-0.01044974 0.01504441
0.01421903 0.00713580
0.00052473 0.00407459
0.00657319 -0.00524858
0.00447902 0.00406659
0.00780553 -0.00583183
0.00308372 0.00853667
-0.00891434 0.00168102
-0.00444316 -0.01169767
0.00416755 0.00314988
-0.00435057 -0.01636719
-0.01019773 -0.00016585
-0.00719305 0.00656080
-0.02428417 -0.00359817
0.01216923 -0.00863269
0.00854113 0.00983390
0.00992109 0.00086898
-0.01089671 0.01235478
-0.02268923 0.00541007
0.00066456 0.00156098
-0.01036477 0.00132066
-0.00876380 -0.00700749
0.00046865 0.01404451
-0.02426443 0.00182842
-0.00115674 0.00556269
0.01462709 0.01142860
-0.01525297 -0.02256253
0.01318370 0.00395634
-0.01178389 -0.00353596
0.00477152 -0.00749986
0.01628443 0.00910096
-0.00811637 0.00892490
-0.00951310 -0.01398950
-0.00215841 0.00395860
-0.00564886 -0.01637352
-0.00315135 0.01189716
0.00560796 -0.00177056
-0.01396960 -0.00553292
-0.00976420 0.00944391
-0.00769583 -0.00888076
-0.00899464 -0.01778061
0.00086643 0.00230558
-0.01947484 0.01993901
0.00183188 0.00826832
-0.02274031 -0.00398197
0.00520077 0.00065499
-0.01061297 0.01861150
0.01387812 -0.00372148
-0.01383963 0.00214558
0.00544331 0.00259154
-0.00528722 -0.00406236
-0.01026559 0.02618111
0.00176302 -0.01354318
0.01661790 -0.00222130
0.00172871 0.01615716
0.00490815 0.00216402
0.00022616 0.00444217
0.00294054 0.00731283
0.00171013 -0.01406187
-0.00201376 0.00093937
0.00050193 0.00714309
-0.01221280 0.00561095
-0.00388481 -0.00444864
-0.00266571 0.00215570
-0.00986847 -0.01664937
0.02965542 0.00339485
0.01795194 0.01417944
-0.00677915 0.01981327
-0.02736986 0.00718040
0.00068518 0.01134330
0.01467963 0.00734103
-0.01007787 0.01717171
-0.00035039 0.00380295
-0.00295621 0.00203330
-0.00043505 0.00199075
-0.01354489 -0.00022521
0.02325833 0.00609101
0.00068469 0.01268876
-0.00508881 -0.00140239
-0.00525725 -0.01699613
0.01708677 -0.00204221
0.00086145 0.00156317
0.01091815 -0.00685377
-0.01510697 -0.00114385
0.00661998 -0.00246138
-0.00630782 -0.00403144
-0.00807387 -0.00413120
-0.00883638 -0.01234601
-0.00189828 -0.00812478
0.00625852 -0.00133974
0.00266766 0.01998363
0.00974638 0.00657880
-0.00792705 0.00587455
0.00001499 -0.00112149
-0.00848680 -0.01152301
-0.00163072 0.00546694
-0.00568694 -0.00544605
0.00243568 -0.01127829
0.01874891 0.01955827
-0.00054409 0.04171299
-0.02288714 -0.00254929
-0.01585210 -0.01315331
-0.00803628 0.00430566
-0.00241746 -0.00923555
0.00978060 -0.01708438
-0.01954480 0.01100547
0.02109857 -0.01845566
0.00723557 -0.02024538
-0.01577096 0.01501354
-0.01456129 -0.00508653
0.00483365 -0.00360257
0.00623456 0.02415947
-0.01214078 0.00113821
-0.00326515 -0.00645500
-0.00124886 -0.01189820
0.00511256 -0.00892788
0.00283403 0.03018777
-0.00802492 0.00002002
-0.01946106 -0.00536667
0.00438147 -0.00079621
-0.01015765 0.00785415
0.00741356 -0.00310348
-0.00419812 -0.01113316
0.00560273 0.01450546
0.00731292 -0.01750890
-0.01088719 -0.00328659
0.00260405 0.01161897
0.01804912 -0.01857598
0.02284124 -0.00542549
-0.00000879 0.01283264
-0.00400118 0.00413801
0.00523625 0.00284200
-0.00277076 -0.00620182
0.01042100 0.01319599
0.01138551 0.00365710
-0.00601299 -0.02173537
0.00241738 -0.02059769
-0.00911523 0.00407024
-0.01401900 -0.00836355
0.00847411 0.01431748
-0.00374725 0.04298787
-0.00245950 -0.00480143
0.00093349 -0.00218080
-0.01575444 -0.01284258
-0.00850847 -0.01875864
-0.00430978 0.01179932
0.00560791 0.00707964
-0.00408656 0.00488853
-0.00907238 0.00879852
-0.01179544 0.00055479
-0.00596937 -0.02485891
-0.00119507 0.02147510
-0.00044881 0.00877963
-0.00698056 -0.00580109
-0.02675250 0.00852644
-0.00358428 0.01251267
-0.00234497 -0.00073107
0.00110134 -0.00237573
-0.00112270 0.02597220
-0.00317516 0.02510864
0.00273643 -0.00836187
-0.00739007 0.01640647
0.01114270 -0.04080601
-0.01241889 0.00359877
-0.01041611 0.00493475
-0.00653822 0.00594943
-0.00020440 -0.00431115
0.00621759 -0.01086473
-0.00592660 -0.00816131
-0.02152157 0.01595253
0.00640563 -0.00131060
0.00706449 -0.01495606
-0.01521388 -0.00336180
-0.01109704 -0.00950593
0.01585088 0.00579099
-0.00976303 0.00485071
-0.00426090 -0.00573436
0.00776810 0.00219813
-0.00554745 -0.01052597
0.01530188 -0.00823966
-0.01402410 -0.00747204
0.01380723 0.00584249
-0.01610705 -0.01805351
0.00436113 0.00248885
0.02204392 0.01923454
0.00066547 0.01582530
0.01569977 -0.00300248
0.00294728 -0.01620149
0.01257467 0.00417222
0.00046558 -0.01057261
0.01073556 0.01159992
0.00634944 -0.01168468
0.00770213 -0.00558898
0.01650790 -0.00278195
-0.01117933 -0.01400769
0.00383716 -0.00377960
-0.01304586 -0.00366047
-0.00539354 -0.00760203
0.01748954 -0.00507182
-0.00942859 0.00260042
0.00520101 0.00954425
0.00422262 0.00315909
0.00115706 0.01240848
-0.01588843 -0.01510553
-0.00765528 -0.00322650
-0.01191395 0.00452395
0.00217803 -0.00039878
-0.00162502 0.01617100
0.00955761 -0.00689666
-0.00104392 -0.00173061
0.02055589 -0.02211747
-0.01428875 0.01365884
0.01533718 0.01445176
-0.01303515 -0.02330763
-0.01500470 -0.00088768
0.00209328 0.00585871
0.00464808 -0.00343370
-0.00080456 -0.00845244
0.00667422 0.01093162
0.00446392 0.02662511
0.00923345 0.02644865
0.00776404 -0.00886536
0.00449894 0.00483348
0.00913072 -0.00112971
0.00484997 -0.00811613
0.01036251 -0.01548460
-0.02459701 -0.01678868
0.00613619 -0.00744663
0.01732021 -0.00245268
0.02903232 0.01760388
-0.01009610 -0.01010073
-0.00204050 -0.00445113
0.00972054 0.02050564
-0.00941317 -0.01887635
-0.00803727 0.00839916
-0.00244008 0.00184739
0.00250210 -0.02568987
-0.00343041 0.01217842
-0.00264170 -0.00750552
0.02815131 -0.00024431
-0.00875732 -0.00159677
0.00458543 -0.00534822
0.01351464 -0.02530124
0.01596584 -0.00380594
0.00634334 0.00228786
0.01951850 0.01103921
-0.01160004 0.00785961
-0.01130886 0.00035126
-0.00642016 0.00460637
-0.00830232 -0.00142019
0.00333167 -0.01462963
0.00019835 -0.00046300
-0.00066444 -0.02656241
-0.00570467 -0.00391116
0.02252437 -0.01140206
0.01528691 -0.01191892
-0.00855784 -0.01798460
0.02026730 0.00934320
0.00474111 -0.01077332
-0.01769722 -0.01037741
0.01861067 0.00029116
0.01178652 -0.02405856
0.00138149 -0.00526454
0.01081292 -0.00924424
-0.01864723 -0.00028981
-0.01192299 0.02308659
-0.00656043 -0.01096499
-0.02242001 -0.00987256
-0.01497773 0.00069170
-0.01357494 -0.00713423
-0.00445372 0.01317812
0.01724111 0.01385523
-0.01661736 0.00159231
0.00016507 0.00550260
-0.00036555 -0.01394470
-0.01933723 -0.01886780
-0.01656880 -0.00817353
-0.01685024 0.01112524
0.02311182 -0.00943754
0.00551597 0.02310422
-0.00948689 0.01113405
0.01894616 -0.01413826
-0.01091088 -0.01413235
0.00581050 0.00247654
0.00580803 0.01766083
-0.00678696 -0.00109151
-0.00401792 -0.00054904
-0.01973343 -0.00194135
-0.00168278 -0.01882149
0.00739294 -0.00398777
-0.01919281 -0.00505787
-0.00570286 -0.01468410
-0.03012528 0.00618459
0.00442272 0.00093605
0.00043989 -0.01388821
-0.01266253 -0.00911871
-0.01262798 0.01410545
-0.00689841 -0.01219410
0.00054427 0.00569276
-0.01023399 -0.00841622
0.00121369 0.00177479
-0.00967125 -0.01019740
-0.01158659 0.00621514
-0.01025484 0.00429152
-0.00301349 -0.01118720
-0.02844363 -0.00416978
-0.00307548 0.00382927
-0.00314976 0.00307585
0.00129306 -0.01423481
-0.01085451 0.00194152
0.01568766 -0.01152213
-0.01534148 -0.01513742
0.00058018 0.01166457
-0.01449571 -0.02093231
-0.00207521 0.00253988
-0.01459782 -0.00137382
0.00245584 0.00875215
0.00684645 -0.00856134
0.00589448 0.00295298
0.01764219 0.00061798
-0.01197248 -0.00009036
0.00316580 -0.00486446
0.01227561 -0.00339391
0.00906961 0.00478972
-0.00566871 0.00067392
-0.00555884 0.00188408
-0.00601524 0.02311099
-0.00448596 0.00370374
-0.01092887 0.00215966
0.00247215 0.02728214
0.02888478 0.00648476
-0.01070314 -0.01535860
-0.00712416 -0.01058367
-0.00529159 0.01716795
-0.00798408 -0.02285362
0.01508552 0.00941280
-0.00766738 -0.01313046
0.00144781 -0.01196200
0.01227846 -0.00797279
0.00868309 -0.00498792
-0.00859229 -0.00494156
0.01217500 -0.00848816
-0.01096920 0.00077491
-0.01017095 -0.00135462
-0.00932375 -0.00277547
-0.00947105 -0.00965465
0.00288160 -0.01361836
-0.02003408 -0.01219868
0.01778369 0.02332028
0.00361208 -0.01213678
0.00860430 0.01843018
-0.01320448 -0.01856540
-0.03206015 -0.00718448
-0.00533875 0.00725973
-0.00952889 -0.00543754
-0.00155267 0.00798919
0.01128922 -0.00651057
0.00478900 -0.00182226
-0.00481386 -0.01084973
0.01146374 -0.01385394
0.01397617 -0.00155758
0.00406802 -0.00493667
0.00356820 -0.00293565
0.00847836 -0.01066097
-0.01117908 -0.00244775
0.02147419 0.00167981
-0.00948005 -0.00062867
0.00197841 -0.00239990
0.00233249 0.00728800
0.01644513 0.00649783
-0.00748018 -0.00522199
0.02218787 -0.00836244
0.00420313 -0.00816269
0.01307926 0.00719232
-0.00066216 -0.02540757
-0.00749781 -0.02365410
0.00106864 0.01388159
-0.00098974 0.00102104
-0.00569383 0.01383272
0.01253546 0.00046313
0.00037136 -0.01203542
-0.00750182 -0.00236364
0.01190442 0.01173889
-0.00734941 0.01249422
0.00707640 0.00373991
-0.01044215 0.00933607
-0.01252067 -0.00055402
-0.00375730 -0.01265503
0.01227429 -0.01987831
0.02561927 -0.00695469
0.00408363 0.01572198
-0.00954572 -0.00905879
0.00983535 0.00953418
0.00275334 -0.02067105
-0.02356675 0.00489136
-0.00122830 -0.01738168
-0.00068869 0.01094934
0.00682481 0.00377370
0.00229251 -0.00606383
-0.00798297 -0.00712220
-0.01258519 0.00182689
-0.00354833 0.02601959
0.01087365 -0.01182470
-0.01630327 0.00550978
-0.01637920 -0.00861974
-0.00728344 -0.02037671
-0.01436246 -0.00551649
0.01708228 0.00966201
0.00800503 -0.01097630
-0.00939269 -0.00258638
0.00012521 0.00836121
0.00516554 0.01979332
0.00617752 -0.01109745
-0.00928594 -0.02576813
0.00293871 -0.00428274
0.01184899 0.00364032
-0.00021986 -0.01157458
0.00331642 -0.00925819
0.00588362 -0.00917391
-0.00840894 -0.02382104
0.00563987 0.00610013
0.02012131 0.00359162
0.00412491 -0.01207731
0.00171972 0.01145966
-0.01609461 0.01291115
0.01597926 -0.00413779
-0.02637261 -0.00542397
-0.00599071 0.01644759
-0.00290504 -0.01339330
-0.00665309 0.00016384
-0.01384647 -0.00801487
-0.00593074 0.01229941
0.02852101 -0.01728973
0.02201241 -0.00357138
0.00706552 0.00037351
-0.00394105 0.01092895
0.01805581 -0.00878081
0.01337355 -0.01839868
-0.01568417 0.01511335
-0.01107608 0.00037326
-0.01119755 -0.00404565
0.00198187 -0.00068491
0.01244927 0.01372128
-0.01138468 0.01068195
-0.02198758 -0.00159960
0.02848103 0.00690220
-0.01101390 0.01194556
-0.01483201 -0.02550055
-0.00671862 -0.00364957
-0.00593199 0.00781080
-0.00242531 0.01162097
0.01818986 0.00589279
0.01426800 0.00620295
-0.00435002 0.00265414
-0.00240978 -0.02073822
-0.02465185 -0.03330536
0.03036391 0.00665360
-0.01409757 -0.00319521
0.00062920 0.00369615
-0.00426184 -0.02526070
0.01639692 0.00279591
-0.00260896 -0.00778553
0.00696838 -0.01968052
0.00480267 0.01308746
0.00395488 -0.02541224
0.00812370 0.00379981
0.00605253 0.00762270
0.01933872 -0.01432142
-0.00697142 0.00683211
-0.01423215 0.00792201
-0.00051541 0.01494487
-0.00646867 -0.01085557
-0.00139849 -0.00041172
-0.01646163 -0.00158005
-0.02187362 0.00561016
-0.01265729 0.00128974
-0.00086827 -0.02273721
-0.00802004 0.00053732
-0.03355500 -0.00038743
-0.00296483 0.00259899
0.01608262 0.00820529
-0.00772239 0.02154457
0.00330203 0.02997675
0.01457226 -0.01670793
0.00764471 0.00001635
0.02459292 -0.01586855
0.01505289 0.00393420
-0.02200496 -0.00671891
0.02402231 -0.00359544
-0.00577082 0.00450872
-0.01941249 0.00190626
0.03016214 0.02587340
-0.00957750 0.00028217
0.03012648 -0.01233669
-0.00634240 -0.00529098
-0.01044045 0.00291785
0.01187042 0.02433901
0.01155205 0.01562423
-0.00321764 -0.00360920
-0.00443164 0.00263846
-0.00858836 -0.00919079
0.00357157 -0.01400997
-0.00185613 0.02187889
-0.00444570 -0.00910966
0.00211673 0.04121369
-0.00317350 0.03090520
0.00829008 0.01073141
-0.00766887 -0.01195277
0.01647218 0.00085905
0.00309905 -0.01330327
-0.01118764 0.00353696
-0.00502403 -0.00751392
-0.00323868 -0.00436817
-0.00394121 -0.00377831
0.03157284 -0.01030513
-0.01153820 -0.00411132
-0.00993339 0.00805243
-0.00943735 0.00097750
0.00314286 0.00228494
-0.03450834 0.02944155
-0.01323545 0.00154875
0.01037173 0.00185677
-0.02081056 -0.00914601
0.00791389 -0.00197884
0.00027600 0.00326466
0.00773666 -0.01008509
-0.02319185 0.00541828
-0.00840467 0.01925245
-0.00480527 -0.01037075
0.02652014 -0.02090288
0.01123405 0.00892781
0.00393930 -0.00727333
0.01137835 -0.02451877
0.01494190 -0.00910865
-0.00107157 -0.00796673
0.02214541 -0.00526776
-0.02643607 0.00927462
-0.01984587 -0.00417170
-0.01186707 0.00446964
0.00171811 -0.00704543
-0.02230336 -0.00031049
0.00604013 -0.00875378
0.00784171 -0.00733724
0.01691185 -0.00617756
0.02173898 -0.00261678
-0.00512019 -0.03218268
-0.01260629 -0.02101512
0.00166485 0.01024038
0.02093621 0.01089742
-0.00324464 -0.02576557
-0.01167227 -0.01503338
-0.00629680 0.00473560
0.01573756 -0.00310944
0.01302634 0.01008685
-0.01150229 -0.01482695
-0.00636465 0.00565534
0.00166618 0.01039387
-0.00292109 -0.02014236
-0.01542681 -0.02512445
0.00698347 -0.00881679
-0.00952437 -0.00713319
-0.00873035 -0.01744152
-0.01710370 0.00365863
0.00310753 -0.00692231
0.01565239 0.02399472
-0.01448876 0.00702413
0.00441233 0.00513904
-0.01849133 -0.00934646
-0.00749266 -0.01647454
0.02101186 -0.02072806
-0.00184306 -0.00245790
-0.02017231 0.00815772
-0.01055582 0.00276962
-0.01300488 -0.01180919
-0.00966645 -0.01164309
0.02602872 0.01964128
-0.01125407 -0.00944271
0.04294436 0.00669321
0.00333074 -0.01616977
0.00004139 -0.01995932
-0.00048159 0.00398125
0.00638506 0.00058430
0.00525823 -0.00737621
-0.01626515 0.01357321
-0.01127431 0.00889223
0.01773728 -0.01615842
-0.01266687 -0.00185174
-0.01856708 -0.02362610
-0.01774702 -0.00565761
0.00730604 -0.01479404
0.00434837 0.01240941
-0.00359809 -0.00984592
-0.02314156 0.00408154
0.01782694 0.02151535
0.00394291 0.00621453
-0.00446901 0.03038884
-0.02028922 -0.00096606
-0.01224697 -0.00693537
-0.00683983 -0.01055927
0.00136807 -0.02274692
-0.00333544 -0.00118726
0.01765495 -0.01774575
-0.00685005 0.01276496
-0.00044738 -0.00878247
-0.01341334 -0.02385604
0.00164179 0.00799458
-0.01584728 -0.00398247
-0.01283508 0.00209384
-0.00930588 -0.00701469
0.00158035 0.00027992
-0.01292951 0.00101561
-0.00373147 0.01030210
0.00052292 0.04188574
0.00096409 0.00283766
-0.00468089 0.00883404
0.00658129 0.00431591
0.00088677 -0.01733466
-0.02195703 -0.02258681
-0.02723174 -0.00999434
-0.01357493 -0.00670916
-0.00100363 -0.00186483
-0.00508568 -0.01193428
-0.00109232 -0.00425858
0.00248207 -0.00992146
-0.01324972 -0.00436063
0.01586446 -0.00031067
0.01991365 -0.01472806
-0.00510499 -0.00042012
-0.00203390 -0.02351724
0.02206544 0.00503828
0.01178906 -0.00919037
0.00324484 -0.01477575
0.00523454 0.01412795
-0.02442437 0.01389678
-0.00906169 0.02225976
0.04071096 0.01146508
-0.02559504 -0.00367143
0.00880714 0.02076150
-0.01393149 0.00178328
-0.02472746 0.01258748
-0.00612436 -0.01766913
0.00899154 -0.00707705
-0.00052276 0.00404619
-0.01014106 -0.01210769
0.00100322 -0.02178293
0.00166708 -0.01029736
-0.00526520 0.01885494
-0.00635588 0.02031423
0.00203149 0.00414945
-0.01123816 -0.00311136
0.01081718 -0.01269866
-0.01100873 0.02014638
-0.01347352 0.00963430
0.01277049 -0.01349811
-0.01151462 -0.00061954
-0.00649447 -0.00261672
-0.00786963 -0.01923725
0.02128142 -0.00102627
0.00314471 0.00705217
0.01337304 -0.00504286
-0.01723954 0.00800571
0.00739749 -0.01494114
0.01831756 -0.00950389
0.00167354 0.02176038
-0.00692366 0.00854869
-0.01339461 0.02747592
-0.01782991 -0.00964441
-0.01416323 0.00866350
-0.01650720 -0.01075942
0.01461263 0.00577859
0.00329354 0.02846037
-0.00672890 -0.01723826
-0.01879917 -0.01136275
-0.00288093 -0.00358464
-0.01567866 0.00235075
0.01724322 0.01130851
0.00452612 -0.00976306
0.01728898 0.02147853
-0.02518231 -0.00246744
0.01218963 -0.01259478
0.01278905 -0.01041694
-0.00417698 0.00660724
-0.02285152 0.02223773
-0.00466353 -0.00465223
0.00554810 0.00056956
0.00234910 0.00079156
0.00840299 -0.01304698
-0.00996401 -0.00916821
-0.00627812 0.00816714
0.00962961 0.01629303
0.01517909 0.01651491
0.00911020 0.01929682
0.00272684 -0.00528425
-0.00502408 0.00546277
0.01308639 -0.00485002
-0.00782433 0.02109496
-0.00988004 -0.00718625
-0.02409550 0.02257771
0.00858065 0.00336409
0.00034673 0.00044349
0.00122313 -0.02614949
-0.00079168 -0.00463759
0.02326213 -0.02372684
-0.00723085 -0.01373694
-0.01584307 0.01433044
-0.03367412 0.00826728
0.02457538 0.00730082
-0.01168127 0.00002392
-0.00766284 -0.00437648
-0.01271721 0.01027856
-0.00698655 0.00150437
0.00204386 -0.01074356
0.00890362 -0.03553844
0.03851124 -0.00845855
0.00487295 0.00331813
-0.00748308 0.01750681
0.00716943 -0.00363509
-0.01904623 -0.00347646
-0.01105348 0.02539455
0.01663484 -0.00074778
0.01722657 -0.01971802
-0.00344455 -0.00067038
0.01237178 -0.01102620
-0.01019822 0.00306701
0.01637310 -0.01182669
-0.02453114 -0.02805454
0.00367444 0.02301395
0.00496661 -0.00879534
-0.01927385 -0.02829626
0.02155023 -0.02049512
0.02372136 -0.01597927
-0.01036903 0.00267351
-0.00454256 -0.01205643
0.01609647 0.02001100
-0.00769017 0.01744082
0.00750346 -0.01365108
-0.01994370 0.00261076
-0.00468755 0.00853686
0.01658753 -0.01867548
0.00550179 -0.01049573
-0.00141866 -0.00145213
-0.02866106 -0.01558740
0.00413575 0.00880969
0.00844517 -0.00479703
-0.00357577 -0.00212355
-0.00079962 -0.00065584
0.00421872 -0.00393933
0.00830894 -0.01377336
-0.01004614 -0.00010009
0.00946221 -0.00309460
0.00135011 0.01144890
0.00286508 0.01026924
-0.01263306 0.00568524
-0.00359057 -0.00090212
-0.00651052 -0.00672774
0.01456402 0.00419666
-0.00937680 -0.00498003
-0.00768350 -0.00220659
-0.02007621 0.00261399
0.00685636 0.01397676
-0.00252104 -0.01212166
-0.01736765 0.01832324
-0.03073593 -0.01075768
-0.00138309 0.01586885
0.01337030 0.00049441
-0.00845813 -0.00821694
0.00593042 -0.00970748
-0.01182324 -0.00415440
-0.02293244 0.01822310
-0.00179437 -0.00130869
0.01021966 0.00351467
-0.01395236 -0.00160584
-0.00697994 -0.00194007
0.02553682 -0.00510944
0.00049308 -0.02014467
-0.01500387 -0.01029384
0.01044075 -0.00205090
-0.00404504 -0.00504959
-0.00525861 0.00473914
0.01560565 0.02439355
-0.02358999 -0.01468638
0.00221042 -0.00100489
-0.00960703 0.01088188
0.01116831 -0.00968812
0.02833029 -0.01961340
-0.01970162 -0.02161862
0.03085213 0.00886859
-0.01054429 -0.01440303
-0.00864975 0.01111716
-0.02046133 0.01193437
0.00500403 0.00047356
-0.02569956 -0.00481112
0.00513020 0.01358348
0.00889989 -0.00655408
-0.01540050 0.00195650
-0.01297485 0.00715369
0.00508921 -0.01335435
0.00708413 0.01502617
-0.00333260 0.02192025
-0.01706175 -0.00914862
-0.02157555 -0.00748612
-0.00102504 -0.01062968
0.00869296 0.00582673
-0.02000618 0.01543206
-0.01479192 0.00605014
0.01236091 0.00527257
0.02410388 0.00320306
0.00929621 -0.01061909
-0.01085719 -0.00463034
0.00857860 -0.00028220
-0.00012606 0.00847668
0.02311442 -0.00575527
0.01648482 -0.01018586
-0.00300114 -0.00745891
-0.00668883 0.00790100
-0.01305606 0.00447305
-0.00489047 -0.00669391
0.00980692 0.00866273
0.00033636 -0.00695138
0.02072675 0.01347023
-0.02468187 0.01166685
-0.00269901 0.01548118
0.00833808 -0.01623287
-0.00255770 0.01453801
0.00264175 -0.00870423
-0.02080477 0.01175033
-0.00036199 -0.00615148
-0.01683062 -0.00465804
-0.00420986 0.00453052
-0.01387096 0.00670544
-0.01586185 -0.00032563
-0.00286646 -0.01232187
-0.00263045 0.00442055
0.03815850 0.01225015
-0.01644726 -0.00855566
-0.01797735 0.00409316
0.00307735 -0.00519541
0.01173953 0.00312273
0.00560705 -0.00056405
0.02231637 -0.02145571
-0.01111892 -0.00251212
-0.00516441 0.00213685
-0.01491642 0.01765248
-0.00681195 -0.00558606
-0.01321060 0.00367261
0.00862365 -0.01599996
-0.01051088 0.01933935
-0.00834528 -0.01947617
-0.00841508 0.01105782
0.00327596 0.00420777
-0.00806322 0.02526184
-0.01434037 0.01748508
-0.00839542 -0.02374546
-0.00165384 -0.00176616
-0.00851851 0.02033947
0.02513338 -0.00463971
0.00877535 0.00707851
-0.00909336 0.00277470
-0.00567825 -0.01232453
0.00547105 0.00155806
0.00949666 -0.01119275
0.02798428 -0.01236491
0.00272920 -0.00137534
-0.01294451 -0.00682532
-0.00086111 0.00233319
-0.01202542 0.00024878
-0.02108348 -0.00414871
-0.00521187 0.02155287
0.01263214 -0.00951579
-0.00593531 -0.00721549
-0.00486858 -0.00535905
-0.00176499 -0.00048780
-0.00073675 0.01623728
0.00508693 -0.00067003
-0.00489865 -0.00248300
-0.00591517 -0.01241553
-0.00934418 -0.00365900
-0.00610845 0.01007464
0.01251378 0.01028028
0.00175111 0.00255822
-0.00832934 0.00047305
-0.00348762 -0.00287604
0.00824254 0.01611534
-0.00695285 0.00102468
-0.00553606 -0.01565915
0.00314550 -0.02235476
0.01133545 -0.00092179
0.01109754 -0.00008731
0.00592105 -0.00360021
0.00225756 -0.00667600
-0.01653698 -0.00313884
-0.00604539 -0.00057515
-0.00237963 0.00488458
-0.00675990 0.00855747
0.00938829 -0.00270938
-0.01100094 -0.00131647
-0.01746062 -0.01546599
-0.00808663 -0.01021286
-0.00829179 -0.01219642
-0.01074689 -0.00597270
-0.01944547 -0.01382162
-0.00174811 -0.00758792
-0.03291258 -0.00938402
0.00176507 0.00816521
-0.02059712 -0.00656519
0.00405069 -0.00652702
-0.02062823 0.00607463
0.00184315 -0.00706783
-0.00709633 -0.01504264
-0.00551752 -0.00069981
0.01304333 0.00137454
0.00995604 0.01459009
-0.01038154 0.01458679
-0.00138408 -0.01523891
0.00841683 -0.01026255
-0.00422883 0.00355121
-0.01078018 0.00720352
0.00104971 0.00176438
-0.00496138 0.01042548
-0.01183188 -0.00853700
0.01225101 -0.00014766
-0.01948184 -0.01636386
-0.00420330 -0.00713993
0.00414540 -0.01077686
0.00111648 -0.02760818
0.00342721 -0.00296836
-0.02568209 -0.01113677
0.00608791 0.02433551
-0.02167704 -0.00914661
0.02285691 0.00040377
0.01657563 0.01580419
0.00004074 -0.01168948
-0.00622208 -0.00955670
-0.01055745 0.02229954
0.00218553 0.00414407
0.00120174 0.01109297
-0.01095546 0.02600692
-0.02391058 -0.00033748
0.00544670 0.00878958
-0.01280885 -0.00165009
0.01825084 0.00215227
0.00943362 -0.01144680
0.01383434 -0.02063864
-0.01402317 0.00078564
0.00297190 -0.00001404
-0.00470834 -0.00774352
-0.00302959 -0.00937799
-0.00965065 0.00420212
0.00570750 0.01189929
-0.00161118 0.00736306
-0.01121820 -0.02168208
-0.00959015 -0.00090914
-0.00984768 -0.00236831
0.01578755 0.00921139
0.00520003 -0.00713038
0.00091734 -0.00022457
-0.01154794 0.00886035
-0.00895712 0.01022918
0.00305290 0.00740500
-0.02034421 -0.00204003
-0.00538553 0.02770531
-0.01489993 -0.01010472
-0.02721418 -0.00803673
-0.00100791 0.00597923
-0.00048184 0.00735600
0.00372887 -0.01651492
-0.02358244 0.00388191
-0.00871338 0.00384653
-0.01822571 -0.00521811
0.01229081 0.00584848
-0.00996069 0.01654293
0.00276384 0.00628958
0.00134455 0.00407500
-0.00469221 0.02752754
-0.01107251 -0.01264186
0.00205105 0.00415452
0.01086965 -0.00332512
-0.00834495 0.01042265
0.00988684 0.00245236
-0.01340516 -0.00058971
0.00198820 -0.00530942
0.01813875 -0.00316678
0.00206767 0.01270983
-0.00278984 0.00639468
0.00235965 -0.01591833
-0.00341675 -0.00511937
-0.00875380 -0.00104767
-0.02298824 0.01292556
0.00553640 0.00006558
-0.00639994 -0.01826330
-0.01199985 -0.02003476
0.00599759 0.00188692
-0.00742756 -0.00684349
-0.01050720 0.00258173
-0.00795549 -0.00259362
-0.00725331 -0.00248315
0.01067088 0.00857332
0.00201073 -0.00015091
-0.01469273 0.01024650
-0.00981213 -0.00362263
0.00589909 -0.01437557
-0.00939115 -0.00343386
-0.00890113 -0.02065983
0.00348963 0.00370526
0.02338897 0.00288312
-0.00777262 -0.01554228
-0.00159197 -0.01270935
0.01581148 0.00086529
0.00204891 0.00842002
-0.00296155 0.00049204
-0.02583206 0.00672585
0.00524892 -0.00328484
-0.00341391 0.01056483
0.00700417 0.00514469
-0.01212950 -0.00486385
0.00642664 0.00130374
-0.00060735 0.02912348
-0.00908664 -0.00722027
-0.00151594 -0.00627433
-0.01700408 -0.01619429
0.00924495 -0.01753112
-0.01185539 0.00148708
-0.00357132 -0.00394269
-0.00263271 0.02157328
0.00309142 0.01262134
0.00839609 -0.01357365
0.00418835 -0.01854425
0.00246299 -0.00907745
-0.00387507 0.00990063
-0.00020272 0.00464910
-0.00122700 -0.00769204
-0.01010712 -0.00012030
0.00128090 0.02232658
-0.01888843 0.01435644
-0.01477795 0.00171937
-0.01121738 0.00131404
-0.00184967 -0.01299371
-0.01137819 -0.00332333
-0.01442485 0.00412272
-0.01049340 0.00147036
0.02814263 0.00173518
-0.00831585 -0.00468973
-0.00241332 -0.00950912
-0.00422443 0.01400391
-0.00644294 0.00974732
-0.00736178 0.01451621
-0.00941554 0.00041955
-0.01806458 -0.01405565
-0.00948367 0.00951103
-0.00147331 0.00026780
0.00807414 -0.00569366
-0.00869996 -0.00997706
-0.01179572 -0.01551727
-0.01526248 -0.01329673
-0.00068521 -0.00479925
0.00259557 0.00520170
0.02551101 0.00173345
-0.02077799 -0.01328789
0.00529415 -0.02164643
-0.00878623 -0.00976133
0.00945597 -0.01929228
0.00961930 0.00604093
0.00991486 0.00927230
-0.00273223 -0.01217071
0.00227791 -0.00573235
-0.01169829 0.00469035
0.00044259 0.00575475
-0.02157526 -0.01284474
-0.01512559 0.00246980
0.01861690 0.01228494
-0.00979231 -0.01121908
-0.00554085 0.00303204
-0.00391697 -0.01396335
-0.01306738 -0.00685662
-0.01186066 0.01319928
0.00098924 -0.00045504
0.00558828 -0.00941544
0.00674714 0.00554606
0.02290815 -0.00509050
-0.00984817 0.00203630
0.00640598 -0.00802399
-0.00956815 0.00811559
0.00824898 0.00300470
-0.00249370 0.00186250
0.00323948 -0.00680545
0.00350538 -0.00730449
-0.00574057 0.00085617
-0.01923175 0.00388412
0.00417445 0.00549804
0.00411297 0.00074717
-0.00549189 -0.02559528
-0.00093548 0.00771939
0.01064502 0.00879903
-0.02262100 -0.00241046
0.03128074 0.00323260
0.00840601 -0.00878667
-0.00618784 0.00809138
-0.02189670 0.00122464
-0.02174008 0.00748501
0.00500046 -0.00136588
-0.01072542 -0.00809080
-0.00809197 -0.00727570
0.00475618 0.02166395
-0.01562919 -0.01207628
-0.01278220 0.02247215
0.00588778 0.00941468
-0.01339874 -0.01062489
0.00551080 -0.00334237
0.00443176 0.00758597
-0.00665281 -0.00320692
0.00154393 0.00391466
0.00074445 -0.01419243
-0.01671435 -0.00627560
0.01542090 -0.01265382
-0.00034724 0.00064287
0.01139961 -0.01035128
-0.00580754 0.01606297
0.01362124 0.01172064
-0.00637847 -0.00406779
0.01515715 -0.02723480
-0.00374173 0.00368798
-0.00789468 -0.01449958
0.02637827 0.00191664
-0.00663080 0.00484749
0.01663391 0.00466177
-0.00338238 0.00143118
0.01231171 0.00753834
-0.01556314 -0.00569663
-0.00070511 0.01188020
0.00135282 0.02200907
0.00324468 -0.01767202
0.01783279 -0.00841436
0.01169795 0.00131157
-0.01489716 -0.01575307
-0.00533445 -0.00818086
0.02175451 -0.00827289
0.00119598 0.00126152
-0.00684326 0.00513055
0.00052537 0.00406326
-0.00379987 0.00337736
0.01579140 -0.00152409
-0.00430607 -0.00305395
-0.00899200 -0.00331114
0.01864586 -0.00326370
0.01392715 -0.01613320
-0.01320826 -0.00502883
-0.00679708 0.00808339
0.01260699 -0.00689854
-0.00583141 0.00157544
-0.00530582 -0.00555948
-0.00948925 -0.00106218
0.00268557 0.01051753
0.00696717 -0.00400554
0.00002342 -0.00649348
0.00410526 -0.00149243
0.00937474 0.00255636
-0.00446633 -0.02220279
-0.01661232 -0.00382416
0.00380222 -0.01015410
-0.00556351 -0.00383625
0.02920266 -0.00709710
-0.00814671 -0.01268790
0.01007855 -0.01183548
-0.01686008 0.00245486
-0.01775673 0.02825708
-0.00050272 -0.00315166
0.00826197 -0.00337388
-0.02044570 0.02690071
0.02410825 0.00606819
-0.00939071 0.01408914
0.00760532 0.00278922
-0.00295142 0.01171049
0.00952596 0.00651828
-0.01227340 -0.02329168
-0.01456340 0.00451378
-0.00321899 -0.00051288
-0.01635544 -0.01165613
0.01990291 0.00107267
-0.00171770 0.00726619
-0.01213205 -0.00428000
0.00146355 0.00155177
-0.00776701 -0.01977606
-0.00686994 -0.00468245
0.01482145 -0.00249057
-0.00566354 -0.00781060
0.01268467 0.01141561
0.01364012 0.00156798
-0.01052062 0.00314805
-0.00411946 -0.02248638
0.00790334 0.01886104
-0.00034305 0.00254646
-0.01286008 0.00467668
-0.00195607 0.00305081
-0.00552122 0.01149600
-0.00915438 -0.00380663
0.00747651 -0.00226515
0.00872867 -0.00460025
-0.00775731 -0.00053703
-0.00051165 0.01702644
-0.00923370 -0.00173848
0.01996240 0.01330554
-0.01457665 0.01236786
0.01011067 -0.00557943
-0.00459048 0.00473662
-0.00684121 0.00396075
0.01044649 -0.00693603
-0.01318241 0.01892412
0.00303488 0.00342952
0.01366747 -0.00251801
0.00260566 -0.00006871
0.00604586 0.00312463
-0.00797974 -0.00114823
0.00454536 0.01600834
0.00061344 0.00059917
0.02531247 -0.00046511
-0.00371668 0.00165434
-0.00901319 0.00517078
-0.01206628 0.00585687
-0.00657421 -0.01125182
0.00375633 0.00229451
0.01703948 -0.02076228
-0.01265178 -0.01106673
-0.00123438 -0.00876323
-0.00672031 0.00379608
0.01850609 -0.00133208
-0.00235506 0.00402451
0.00968558 0.00274591
-0.01158443 -0.00455722
0.00148881 -0.00143318
0.01069514 0.03320772
0.02664183 -0.01250198
-0.01108235 0.00282075
0.01957930 -0.00995369
-0.01554252 -0.00034724
0.00823864 -0.01397772
0.00990299 0.00139166
-0.00581856 -0.01925735
0.01470068 0.02260495
0.00106598 0.00973597
0.01282309 -0.00625279
-0.01379587 0.00938064
0.00302433 0.00884583
0.00495040 -0.02170896
0.00994611 -0.00260544
0.00289143 -0.00373352
-0.00163114 -0.00446591
0.01123995 0.01935230
-0.00882823 -0.01487354
-0.00486763 -0.00960711
0.01378639 -0.00706312
-0.00192889 -0.01375778
0.02602025 0.02396945
0.01686718 -0.00110612
-0.00218460 -0.00125542
-0.00548308 -0.01108478
-0.00691318 0.00399307
0.00821801 -0.00296630
0.00159777 -0.00552933
-0.00885616 0.00225263
-0.00430115 -0.01903500
-0.00105961 -0.00483741
-0.01350310 0.02039201
-0.00672241 -0.00996924
-0.01897090 -0.02469031
-0.01311137 0.00946305
-0.00447666 -0.03042752
0.00862186 -0.01170253
0.00247573 0.00808770
-0.01068285 -0.00098805
0.01258021 -0.01429950
0.00976190 0.00160887
-0.00757941 -0.01021532
0.00288691 0.00551173
-0.01122796 -0.02382524
-0.00707940 -0.01171012
-0.01291095 -0.01542077
0.01447968 -0.00853288
0.00727503 0.01445172
-0.01523851 0.00559373
0.01349362 -0.00936332
-0.00778046 0.00037914
-0.01027794 0.00705014
0.00055300 -0.00048780
0.00294139 -0.00781844
0.01056135 0.01039100
0.01559048 -0.02408044
0.02189039 -0.00084222
0.01041555 -0.01086246
-0.01133143 0.01605012
-0.00530212 -0.00296013
-0.00393023 0.00435509
0.00199655 0.00915871
-0.00232691 -0.01035435
0.00423005 -0.00270581
0.01286954 -0.02550264
-0.00805484 -0.00406598
-0.00742491 -0.00018388
0.00461113 -0.00508827
-0.00713890 0.00246573
-0.01441821 0.00792724
0.00266177 -0.00494892
0.03267326 -0.01724443
0.00599478 0.01992811
-0.01156654 0.00951097
0.00489063 -0.00480903
0.00911079 -0.00475788
-0.02102620 -0.02532397
0.00168662 0.00371689
-0.00366659 -0.01548074
0.01727370 -0.00395196
0.00053535 0.00241631
-0.01894127 -0.00560265
-0.00294564 -0.00134610
-0.00544857 0.02012514
0.01468083 -0.03806632
0.00120986 0.00646125
-0.01775494 0.00503889
0.01183180 -0.01555267
0.00258792 0.00655955
0.00319966 0.00759274
0.00406934 0.00084343
-0.00562196 0.00606640
0.02591723 -0.00582773
0.02343665 -0.01936096
0.00520117 -0.00210834
-0.01057078 -0.00475703
-0.00282936 -0.01471057
0.02056125 -0.01214267
0.01045935 -0.01613889
0.00009653 -0.00640845
-0.01147739 -0.00478114
-0.01269234 0.00744699
0.00505544 -0.00993642
-0.01457172 -0.00488979
0.00094932 0.01630690
-0.00391761 -0.00561325
0.00453058 -0.01586194
0.00532823 -0.00132764
0.01628994 -0.00954031
-0.01550375 -0.00808856
0.01085594 0.00601053
0.01703524 -0.02778760
-0.01023477 -0.02506435
-0.01681519 -0.00986051
0.00707559 -0.01479522
-0.00169709 -0.01473604
-0.00284202 -0.02601579
-0.00654524 0.00036694
0.01399713 -0.00600011
0.00701468 0.00567896
-0.00123946 -0.01912215
-0.01500467 0.01356408
0.00244687 -0.00826342
-0.00617416 0.00190617
-0.01483744 0.00061494
0.00822791 0.00130348
0.02422711 -0.01356018
0.01040886 -0.00260680
0.00313905 0.00805919
-0.00798836 -0.01284043
0.00891551 -0.01035751
-0.00307724 0.00254395
0.00236983 -0.00025908
-0.00943794 -0.01860839
0.01840584 -0.00231579
-0.00966501 0.00352434
-0.00260423 0.01423481
-0.00266481 -0.00145257
-0.01362717 0.03016947
-0.01576471 -0.01227392
-0.00639259 -0.01462524
-0.00046490 -0.00458821
-0.00037292 0.01535225
0.00543796 -0.00185750
0.00145807 -0.00608342
0.00369259 0.00873731
-0.02772767 0.00511327
-0.01308128 0.00186387
0.02121577 0.01634020
-0.00066354 -0.00024987
0.00276161 0.01870374
-0.00836494 -0.01395572
-0.01209081 0.02114537
-0.01964751 0.00716374
-0.00338089 -0.00551871
0.00674214 -0.00693433
0.01440621 0.00355642
-0.00380106 0.01308136
0.00127446 -0.01086398
-0.00213533 0.00548049
0.00337052 0.01124696
-0.01168998 0.00520512
-0.00329787 -0.00980358
0.00408542 -0.01895265
-0.00391009 0.00091998
0.00403783 -0.01136399
0.00487906 -0.00005275
-0.01015058 -0.01471643
0.01137475 -0.00533116
0.00999245 0.00344111
-0.01446240 0.01121727
0.00034932 -0.01652826
-0.00720515 -0.00333513
0.01090833 -0.00610218
0.01245865 -0.00204957
0.01282712 -0.01424366
-0.01609674 -0.00235296
0.02077742 0.00035883
0.00043179 -0.00640139
0.01140247 -0.01797899
-0.00505593 -0.00586474
-0.00414946 -0.00938776
0.00285490 0.00023004
0.00890523 -0.00465611
0.01909760 -0.01119119
0.00035831 0.01294265
-0.00791418 -0.01057160
-0.01688061 0.00251348
-0.00711915 0.01201194
-0.00393530 -0.00918366
-0.00709674 -0.00426364
-0.00690863 -0.00009728
-0.01567498 0.00570640
0.00732781 -0.01687235
0.00310159 -0.00871620
0.01813087 -0.00130573
-0.01276062 -0.00414793
-0.00563254 -0.00381134
0.00971663 0.00921929
-0.00521458 -0.00272595
0.00093093 0.01355110
-0.01301369 0.01175576
-0.00204901 -0.00008049
-0.00168014 -0.00453436
-0.03424849 0.02646435
0.00594672 0.00607072
0.01481787 -0.00818060
-0.00604761 0.00665409
-0.01229841 0.02580402
0.00227239 0.01628486
0.00081945 -0.00369158
0.02397665 -0.01337420
-0.00954062 -0.00412704
-0.01017014 0.01254823
0.00703908 -0.00250381
-0.00757292 0.00374814
-0.00568387 0.00558716
0.00106787 0.00855272
0.00875085 -0.01598486
0.00029831 0.00262368
0.00004599 -0.00765507
0.00051018 0.01025184
-0.00401000 -0.00162362
0.00082968 0.01562379
-0.01977774 0.03183343
-0.00375268 0.01295061
-0.02481433 -0.00741498
0.03388485 0.00349253
-0.01161408 -0.00356101
0.00146973 -0.01003124
-0.00193139 -0.01999634
-0.00429868 -0.00491115
-0.00773826 0.00190278
-0.01097041 -0.00863072
0.00704921 -0.01983144
-0.00801238 0.00392984
-0.01627550 0.02401363
0.01157639 -0.00073608
-0.00299729 -0.00142509
0.00087495 0.00662307
-0.00746764 -0.00504009
-0.00422354 -0.01923624
0.01738120 -0.01749281
0.00720911 -0.01778821
0.00866992 -0.01000256
0.00828852 0.00910875
0.00142465 -0.00337049
-0.01356044 0.01635514
-0.01587565 0.00058736
0.01521766 0.00032823
0.00053136 -0.00942150
-0.01271357 0.02348755
-0.02569937 0.00651986
0.00354996 0.00598316
-0.00688749 0.01397598
-0.01143846 0.00159795
0.02598740 -0.00138905
0.00490006 0.01190568
-0.01247576 0.00306124
-0.00017283 0.00829297
-0.00157965 -0.01087899
0.02474819 0.00382926
-0.00283497 -0.02247386
0.01352641 -0.01640855
0.00003015 0.00235276
0.01854325 -0.00612462
0.00279014 0.00646995
-0.01752098 0.00658767
-0.00990955 0.00513665
0.02240443 0.00340704
-0.01173070 -0.00613256
0.00840730 -0.01254351
-0.01112341 -0.01552008
-0.00008075 -0.00559367
-0.00478206 -0.00063051
-0.00358839 -0.01392035
-0.00837810 -0.00569303
-0.00482371 -0.01211036
0.00809360 -0.00405006
-0.01710603 -0.00118160
-0.00874044 -0.00690256
-0.01302618 -0.00950269
-0.01048744 -0.00139595
-0.00691359 0.00642247
-0.01999475 -0.00635092
-0.01860332 0.01695609
-0.00496319 -0.01818388
0.00032361 -0.02567285
-0.00389722 -0.00532358
-0.00321727 0.00726124
-0.00982375 -0.02352704
0.00756958 0.01482069
-0.00772002 0.01195545
0.00884151 -0.00211662
-0.00114405 0.02611224
-0.00471918 -0.01173558
-0.02624542 -0.02522950
-0.01204289 -0.00632386
0.00266575 0.00059486
-0.00702989 -0.00730720
0.01139620 -0.02062773
-0.02001305 -0.01566561
-0.00462305 0.02498726
-0.02469167 0.00559304
-0.00291131 0.00941595
0.00230914 -0.01241753
0.01161446 -0.00279851
-0.00558183 -0.00496877
-0.01526700 -0.00536028
-0.00793318 -0.01466606
-0.00329629 -0.01032368
-0.00876803 0.01911574
-0.01473687 0.00911226
0.00069784 0.01927777
-0.00610610 -0.00961791
-0.01026355 0.00885539
0.00145936 0.00329840
-0.01016144 0.00723664
-0.02098098 0.01997190
-0.02462647 0.01957636
0.00366392 0.00571489
-0.01082845 -0.01839233
0.00578832 0.01409108
-0.01736361 -0.03149747
0.00437586 -0.00636624
0.00021682 -0.00841168
-0.01455789 -0.00740128
0.00072795 0.01099646
0.00850104 -0.02356467
-0.00257428 0.01092678
-0.00841187 -0.00337011
-0.01159540 0.00112844
0.01024098 0.00620876
0.01616355 0.00117712
-0.01496532 -0.01125633
0.00167777 0.01432146
-0.01586899 -0.01582007
-0.01309066 0.00636856
-0.00927512 -0.00827199
0.00645165 -0.01183611
-0.01177469 0.01100555
-0.01464624 0.00275608
-0.00360005 -0.01360999
-0.00291947 -0.01343532
0.01866756 -0.00493599
-0.00364143 0.00696526
0.01506063 0.01101679
-0.01184663 -0.00497830
-0.00398285 -0.01372097
0.00185352 -0.01123904
-0.02161231 0.01999645
0.00542206 -0.01530359
-0.01033504 -0.00606809
-0.00524765 -0.01732290
0.00191855 -0.00570832
0.00392265 0.01311404
0.01130113 0.00177938
-0.00017227 0.00821546
0.00190975 -0.01236977
-0.02226553 0.01040528
-0.00985113 -0.00526341
-0.01103529 0.00857582
-0.01322589 -0.00445966
0.01697039 -0.01975325
-0.01424611 0.00008885
0.00197603 0.00853738
-0.00439169 -0.00267167
-0.00201896 -0.00603165
-0.00276444 -0.01816029
0.00126501 0.01969598
-0.00174651 -0.00461390
0.01531968 0.00795911
0.00301680 -0.01230729
-0.00459897 -0.01001963
-0.00268826 -0.02776808
-0.00709099 -0.00594405
-0.01608917 0.00857255
0.01065931 -0.01452157
0.00094910 -0.00345477
-0.00130585 0.00780348
0.00190883 0.03307360
-0.00874558 0.00015635
-0.00250509 -0.01203981
0.02512631 0.02893093
0.01060788 0.01595881
-0.01795638 -0.00324722
-0.01754424 -0.00185805
0.01373670 0.01241131
0.00041340 0.00468450
-0.00967707 0.00680461
-0.00190832 0.01301546
-0.01468444 -0.01512583
0.00062385 0.00269000
0.01392794 -0.03171162
0.00959408 -0.01436226
-0.00004392 -0.03227884
-0.00061931 0.00600724
-0.01601883 0.01238792
-0.02541059 -0.00625139
-0.01381407 0.00096359
0.02846574 -0.02772415
-0.01482123 0.00685604
-0.01010126 -0.00067792
0.01036406 -0.01688130
-0.00632838 0.00104129
0.00559241 -0.01005409
-0.01647191 0.01764102
0.00277076 0.00683250
-0.00229196 0.00286917
-0.02894258 -0.01898254
0.00220604 0.00172246
-0.01058554 -0.01187802
-0.00170159 0.01245322
-0.00135509 -0.00597900
-0.00854964 0.00588247
-0.01170000 0.00786756
0.00438263 -0.00694539
0.01883906 0.00089540
-0.00628655 0.00460759
-0.01661706 -0.01661364
-0.01208014 -0.00415137
0.01312104 -0.01013367
-0.00226710 0.02367523
0.01150694 0.01707330
0.00132742 -0.02476677
-0.00635714 -0.00668716
0.00180645 -0.01059639
0.02051434 -0.00065308
0.01051073 -0.00582597
-0.00443671 -0.00852467
0.00568397 0.01428214
-0.01083526 -0.01726366
-0.00640213 0.01572494
-0.01070079 0.00363386
0.00376754 -0.01304732
0.01460337 -0.00073250
0.00631679 -0.01074896
-0.00912913 -0.01133152
-0.01170579 -0.00559622
-0.01522446 0.01578857
0.01807229 -0.00679034
-0.01031775 -0.01255320
-0.01760373 0.01545660
0.00104207 0.00970472
-0.02355210 -0.00790981
-0.00848096 -0.00211687
-0.01559322 -0.01109075
0.02028088 0.00018423
-0.00855400 -0.00611708
-0.01780823 0.01608407
-0.00108527 -0.00763023
-0.01701744 -0.00997938
0.00742958 0.00835679
0.00376259 0.01759423
0.00979189 0.00980286
0.00953210 -0.01503881
-0.01747743 0.02081763
0.00665694 0.02931061
-0.00066242 0.03238792
-0.00845194 0.00231214
0.00278520 0.00559816
-0.00406748 -0.01402710
0.00726985 0.00373815
-0.00465255 -0.01529689
0.00600018 0.00624737
-0.01421822 0.01840360
0.00815760 -0.02272560
-0.00180521 0.00411128
0.00013094 -0.01195723
-0.00220357 0.01443372
0.00727629 -0.00751962
0.00160343 0.00305074
0.01262386 0.01648079
-0.01451518 -0.00462343
0.00666318 0.00918113
-0.01003573 0.00789673
-0.00951417 0.00101707
0.00438512 -0.00457874
-0.00184268 0.00347361
-0.00453876 0.00875639
-0.01137804 0.00740659
0.01961857 -0.01344858
-0.00610460 0.00723550
0.01518662 -0.02648052
-0.00319087 0.00560376
-0.00717368 0.01960137
0.02348177 0.00430004
-0.01042172 -0.01915844
0.01621498 -0.00005399
0.02126330 -0.00172553
-0.02007770 -0.00342860
-0.00279618 -0.01530599
-0.01541392 -0.00587378
-0.01345558 0.01610710
0.00406802 0.01602427
0.00495357 0.00738980
-0.00173924 0.00841810
0.01289111 -0.00088444
-0.01230194 -0.00864412
-0.00545923 -0.00416603
-0.00336167 -0.01615681
-0.00887223 -0.01796787
-0.00804982 -0.00280578
-0.01743776 -0.00930110
-0.00969452 -0.00386943
0.00747888 -0.01045061
0.00096104 0.01603526
-0.00155135 -0.00281084
-0.00209287 -0.01656060
0.01814699 -0.00648284
-0.01183633 -0.02370547
-0.01288754 0.01982214
-0.00607395 0.00890746
-0.01754152 0.00540815
0.00029897 0.01047147
-0.00133757 0.00183735
0.00032570 -0.01212945
0.00968458 -0.01425888
0.00081430 -0.00055915
0.01218233 -0.00548554
-0.00968712 0.00842589
-0.00614348 -0.01676344
-0.01245539 -0.00611085
-0.00211628 0.01890702
0.00014617 0.01383284
0.00805325 0.00912402
-0.01056106 0.00588766
-0.00872817 -0.00686384
-0.01487730 0.01849782
-0.00279399 -0.01794091
-0.01633096 -0.00659325
-0.00421854 0.00400996
-0.00588820 -0.00412990
0.00741415 -0.01616166
0.00381210 -0.01126766
0.00712015 -0.00700679
0.00781217 0.00946948
-0.00675493 -0.01170375
0.00361776 -0.01017670
0.03245039 -0.00964384
-0.00978866 -0.00856189
-0.00691592 -0.00337895
-0.00719458 -0.00757372
-0.01671361 -0.00578173
-0.00184901 0.01250982
-0.01151905 -0.01451499
0.00924069 -0.00601392
-0.00087967 0.00190778
-0.00879306 -0.02068187
-0.01758164 0.00226218
-0.01470565 -0.00524662
0.00668089 -0.00480681
-0.01148925 -0.00586380
-0.00015794 -0.00285426
0.00037380 0.00791212
-0.00165408 -0.02184111
0.00498669 -0.01751739
0.00628059 0.00470215
-0.01458435 0.03468562
0.01209204 -0.01945862
0.00488359 0.00486950
0.00887189 -0.02656819
0.01487602 0.00626937
-0.00815513 0.00664747
0.01350834 -0.01081606
0.00284214 -0.01200358
-0.00330134 0.00843353
-0.02046025 -0.00727396
0.01118692 -0.00197687
-0.02633719 0.00337975
-0.00491220 0.01147442
-0.00829489 -0.02169397
-0.00202501 0.00239715
-0.00817495 0.00935517
-0.00111968 0.00461776
0.00664308 0.00296498
0.00066103 -0.01978514
0.01087832 0.00772846
-0.00441002 -0.01680802
0.01020989 -0.00028436
-0.01240621 -0.00434526
-0.01173926 -0.00056074
0.00386240 -0.00678148
-0.01742171 0.00535967
0.00382250 -0.00776599
-0.00731571 -0.00286951
-0.00173673 0.00179676
-0.01137595 0.02010937
-0.01714632 -0.00881121
-0.01038625 0.00144297
-0.02198534 -0.01362537
-0.01516079 -0.00338765
0.00391854 0.00516099
0.02850509 -0.01025673
-0.03329634 0.01689387
-0.00750315 -0.00177255
-0.00410878 0.00397547
0.01398446 -0.01274763
-0.00365415 0.00581892
0.01050989 -0.02480396
-0.00663555 -0.00031387
0.00063721 0.00048946
0.01395667 -0.00017070
-0.00500950 -0.00050907
0.01883586 0.00067365
-0.00742725 -0.00446784
0.00295799 -0.00215720
0.01381994 -0.00422231
-0.00010603 -0.00742259
0.00132584 0.00266246
0.00376515 0.00163365
0.00621379 -0.00864178
0.01688284 -0.00539278
0.00038267 0.00628776
0.00679596 0.01164280
-0.01209368 0.00022836
-0.00485824 -0.02242898
0.00564074 -0.00844321
-0.00722592 -0.00178984
-0.01365837 0.01074219
0.01476188 0.01476144
-0.01545378 -0.00891235
-0.01004555 0.00594607
0.00618008 -0.00139893
-0.00641903 0.00567711
-0.00144338 0.00457405
-0.01121372 -0.00336938
-0.00006495 0.03070238
-0.00135031 -0.00769058
0.00266156 -0.00473886
0.01740589 -0.02344155
-0.01247019 0.00456826
-0.01471285 0.02638453
0.01490021 -0.02046398
-0.00749999 -0.00254239
-0.01124953 0.00585674
-0.01958730 0.00866234
0.01118520 -0.00812317
0.00846907 0.00082029
0.01742070 0.00089926
-0.00490231 -0.01665391
-0.00671494 -0.00967262
-0.00308740 0.00048740
0.00813118 0.01148116
0.01021022 -0.00076323
-0.01403325 -0.02094258
-0.00969612 -0.00643068
0.03076652 0.01947144
0.00078744 -0.00957339
-0.01487555 0.00233007
0.01518826 -0.01962243
0.00095568 -0.00387801
0.00060183 -0.00186934
0.00299275 0.00624907
-0.00102851 -0.01511463
-0.00159204 0.00498543
0.00261712 0.00829448
0.00554589 0.00698489
0.00895213 -0.00158291
-0.00678384 -0.01593778
0.01728163 0.00015186
-0.00158456 0.00820627
-0.01728073 -0.00376391
-0.00807424 0.01308784
0.00058749 0.00544846
-0.00787999 -0.00443526
-0.01217278 -0.01036228
-0.01498035 -0.01175380
-0.00786582 -0.00856491
-0.00168381 0.01576391
-0.00903327 -0.00931656
0.00697640 -0.01509644
-0.02585116 -0.00633392
0.00416018 0.01925074
0.01769001 -0.00536959
0.00651866 -0.00329643
-0.00445105 0.00561784
0.01125909 -0.00312208
0.01195274 -0.02085089
0.01413205 -0.00282203
0.01221855 0.00535988
0.00698365 -0.01949209
0.00150187 -0.01283524
0.00184466 -0.01057610
0.01748629 0.01665280
-0.00481898 -0.03188862
0.00830107 -0.00435154
0.00493868 0.01313450
0.02120854 0.01460552
-0.01654779 0.00154988
0.02587872 -0.01004345
-0.01144919 -0.00953830
0.00305430 0.00897023
-0.01628398 0.03717434
0.00056872 0.00568375
-0.00697979 -0.00901411
-0.00792643 -0.00354975
-0.00530225 -0.01129501
0.00494407 -0.00555498
-0.00117542 -0.00174859
0.02129568 0.00507313
-0.00000655 -0.02411941
-0.00905515 -0.00915404
-0.00549584 0.00461573
0.00345288 -0.00064698
-0.00603861 -0.00752866
0.00591468 0.00099926
-0.00485655 -0.00320760
0.01998998 -0.01272574
0.01278019 0.01672909
0.00767818 -0.02104641
-0.01012729 0.02021751
0.02880167 0.00833159
-0.00167763 0.00090793
0.00264014 -0.01193892
0.01817772 -0.01094899
0.01124428 -0.00437663
-0.02481498 -0.00762365
0.00496192 0.00280519
-0.00209661 0.01119574
-0.01942996 -0.00229180
-0.00481763 -0.00524707
-0.01012511 0.02165434
-0.00419143 -0.02010581
0.02060190 -0.01243643
-0.00925856 -0.01581209
-0.01124334 -0.00050332
0.00374666 0.00530606
-0.00304894 0.00811411
-0.01138865 0.00003270
-0.00536480 0.00046831
-0.02356827 0.01090264
-0.00021825 -0.00992818
0.01489643 0.00325599
0.00733761 0.00240577
-0.01720130 -0.00721423
-0.00981759 0.00306813
-0.01150390 -0.01304685
0.00501028 0.00042347
-0.00433501 -0.01591343
0.02160623 0.02068347
-0.00898952 -0.00739291
-0.00803794 0.00831923
-0.01083402 -0.00557979
-0.00430595 -0.01287114
0.00674044 0.01796671
-0.01214825 0.00663987
0.00284073 -0.01319294
0.00894355 -0.01122409
0.00247510 0.00888327
-0.00395000 0.00803365
0.00943116 0.00021451
0.00579604 0.00835401
0.01091619 -0.00374133
0.00550333 -0.01138795
0.00219544 0.02310205
-0.02385870 -0.00542921
0.02148359 0.00144472
0.00629033 -0.01565645
-0.00463828 -0.01678174
-0.02019013 0.00778995
-0.00608406 -0.00164768
-0.02181873 -0.02526594
0.02245887 -0.01974497
0.01497483 0.00448992
0.00813947 -0.01399314
-0.01149120 -0.00567610
0.00042483 0.01419992
-0.00549011 0.01048970
-0.00041807 0.02312322
-0.01115720 -0.00312258
-0.01907166 0.00545328
-0.00025675 -0.01111350
-0.00195932 -0.00994960
-0.00164775 -0.00727029
-0.01024055 -0.01888449
0.01302239 -0.01635620
0.01736589 -0.02364869
-0.02221550 0.00364117
-0.01198539 0.00757533
-0.00182565 -0.00620507
-0.00573403 -0.01220536
0.00674829 -0.00378046
-0.01506808 0.00535367
0.00554951 0.01482544
0.00958769 0.00080974
-0.00338571 0.01031311
-0.02116020 -0.01262752
-0.01929028 0.00082372
0.01184022 0.00806813
0.00981069 0.01016342
0.00775162 -0.02964672
0.01012940 -0.02005059
-0.00901059 -0.00266535
0.00690267 -0.00566846
-0.01877202 0.02037514
-0.00321757 -0.00494075
-0.01589282 0.00699995
-0.01933300 0.01435804
-0.01331661 -0.01080099
-0.00253199 -0.00053019
0.01148154 0.01774047
0.02129303 0.00135052
-0.00684411 -0.00630508
0.00064683 -0.01446506
0.00316128 -0.02037357
-0.01731380 0.00048491
0.00616591 -0.00011980
0.00292659 -0.00279585
-0.00034730 0.00495106
0.01039864 0.02470211
0.00307658 -0.00413339
0.00098678 0.00781143
0.01648992 0.00701614
0.03507412 -0.00904180
-0.00135840 -0.00805008
0.00449872 -0.00333865
-0.00785097 0.01368359
0.00593355 -0.00657968
0.01327242 -0.00076126
0.01210074 -0.01038297
-0.01024523 0.01031507
0.01502985 -0.00872025
0.01562500 0.00471985
-0.01456688 0.00465787
-0.00395684 -0.01346913
0.00926876 -0.02646574
-0.01028831 0.02299062
0.00420987 -0.01044363
-0.00309244 -0.00562202
0.01208214 -0.00536782
-0.00870129 0.00503209
0.00586856 -0.00636215
-0.00965731 -0.01372677
-0.00755264 0.00713618
0.01851114 0.00000320
-0.00320411 0.01049831
-0.01427003 -0.01120605
0.01846948 0.00301691
0.00391527 0.00034637
-0.00291095 0.01426992
-0.01360037 -0.01201816
0.01321042 -0.01997328
-0.00207411 -0.01382464
0.00660968 -0.02089153
0.01838755 -0.01253564
0.02157935 -0.00024275
0.00044345 0.00172694
-0.01362399 -0.01565420
-0.00440276 0.03347490
-0.00358706 -0.01055869
-0.00230228 -0.00769950
-0.01037770 -0.00464033
-0.00616039 -0.00518977
-0.00565323 0.00130335
0.00999069 0.00265557
-0.00634147 -0.00239772
0.00192193 0.00874982
0.01371278 0.01512884
0.00401635 0.00362629
-0.02564093 -0.01403310
0.00268757 0.00178716
-0.00063878 -0.00831142
0.03426391 -0.01093356
-0.01590265 -0.01016083
-0.00947651 -0.01962452
0.00757659 -0.00248297
-0.01638290 -0.00027164
-0.00226511 0.00189500
-0.01090316 -0.01160515
0.00788820 -0.01342056
0.00334423 -0.01267332
-0.01122715 0.00192154
-0.00170948 0.00280776
0.01307965 -0.03899225
0.00202170 0.00708621
0.00280133 -0.00526389
-0.01723469 -0.01053504
-0.00300756 0.00543421
-0.00146476 0.00645944
0.00667847 0.00007667
-0.00661985 -0.00776039
0.02005453 0.01285816
-0.00131903 -0.00571961
-0.01645690 -0.00431982
0.00209191 0.00703017
-0.00654680 -0.00984459
0.00949522 -0.00353171
0.02605256 -0.00835835
-0.00364428 0.00906223
-0.00170505 -0.02481817
-0.01696278 -0.00084823
-0.00885321 0.00527858
-0.01297428 -0.00292858
0.02307123 0.00950930
