0.00021570 0.00034123
0.00037316 -0.00018168
-0.00014386 -0.00008635
0.00011475 0.00018242
0.00026949 -0.00181458
-0.00539757 -0.00111215
-0.00105261 -0.00579242
-0.00980600 0.00093167
-0.00495368 -0.00814828
-0.00000000 -0.00000000
-0.00000000 -0.00000000
-0.00000000 -0.00000000
0.00000000 -0.00000000
-0.00000000 -0.00015284
-0.00029530 -0.00025068
-0.00012279 -0.00012630
-0.00004767 -0.00017247
0.00013699 0.00016588
0.00000000 -0.00000000
-0.00000000 -0.00000000
-0.00000000 -0.00000000
0.00000000 0.00000000
-0.00000000 -0.00013006
-0.00037487 -0.00028105
-0.00004305 -0.00028365
-0.00029859 0.00005243
-0.00025968 -0.00024888
-0.00000000 -0.00000000
-0.00000000 -0.00000000
-0.00000000 -0.00000000
0.00000000 -0.00000000
-0.00000000 0.00000000
-0.00000000 -0.00000000
0.00000000 -0.00000000
0.00000000 0.00000000
0.00000000 0.00000000
0.00000000 -0.00000000
-0.00000000 0.00000000
-0.00000000 -0.00000000
0.00000000 -0.00000000
-0.00000000 0.00000000
-0.00000000 0.00000000
0.00000000 0.00000000
-0.00000000 -0.00000000
-0.00000000 -0.00000000
-0.01129643 -0.02023200
-0.00510212 -0.00480405
-0.00681892 -0.01485277
0.00452127 -0.00194666
0.00495732 0.00000000
-0.00000000 -0.00000000
0.00000000 -0.00000000
-0.00000000 0.00000000
-0.00000000 -0.00000000
-0.00846509 -0.01953765
-0.00869487 -0.01212894
-0.03091860 -0.02323303
0.00400335 0.00344163
0.00317273 -0.00001404
-0.00499552 -0.00399825
-0.00163950 -0.00345536
-0.00661990 -0.00061819
-0.00322790 -0.00652463
0.00011262 0.00004913
0.00001075 0.00001353
0.00001104 -0.00009312
0.00011297 0.00003725
-0.00005705 0.00000000
0.00000000 -0.00000000
0.00000000 -0.00000000
-0.00000000 0.00000000
-0.00000000 -0.00000000
-0.00000073 0.00000680
0.00000594 -0.00001830
-0.00002072 -0.00001501
-0.00000169 0.00001002
0.00001537 -0.00018084
-0.00048463 -0.00066715
-0.00045870 -0.00056302
-0.00079844 -0.00008045
-0.00043382 -0.00057140
0.00000001 0.00000002
0.00000001 0.00000000
-0.00000001 -0.00000001
-0.00000000 -0.00000002
-0.00000000 0.00000000
0.00000000 0.00000000
-0.00000000 0.00000000
-0.00000000 0.00000000
0.00000000 0.00000000
0.00000000 -0.00000000
-0.00000000 0.00000000
-0.00000000 -0.00000000
-0.00000000 -0.00000000
-0.00000000 -0.00000000
-0.00000000 -0.00000000
0.00000000 -0.00000000
-0.00000000 -0.00000000
-0.00000000 -0.00000000
0.00000000 -0.00000000
-0.00000000 0.00000000
-0.00000000 -0.00000000
0.00000000 -0.00000000
-0.00000000 -0.00070379
-0.01089380 -0.01001949
-0.01260095 -0.00953169
0.01339391 0.01613251
-0.01465056 -0.03280443
-0.00046563 -0.00042862
-0.00028968 -0.00028633
-0.00026217 -0.00008604
-0.00034967 -0.00027963
-0.00027214 0.00533548
0.00779728 0.00840053
0.00631218 0.00139972
0.00204608 0.00141123
-0.00657416 -0.00430225
-0.00000000 -0.00000000
-0.00000000 -0.00000000
-0.00000000 -0.00000000
-0.00000000 0.00000000
-0.00000000 0.00011995
-0.00015973 0.00012589
-0.00011046 -0.00039716
-0.00003663 -0.00002700
0.00020277 0.00023678
0.00000000 -0.00000000
-0.00000000 0.00000000
-0.00000000 -0.00000000
-0.00000000 -0.00000000
-0.00000000 0.00030804
0.00033710 0.00033439
0.00030524 -0.00001637
0.00003437 -0.00008337
-0.00030097 -0.00022125
-0.00000000 -0.00000000
-0.00000000 -0.00000000
-0.00000000 -0.00000000
-0.00000000 -0.00000000
-0.00000000 -0.00000000
0.00000000 0.00000000
-0.00000000 -0.00000000
-0.00000000 0.00000000
-0.00000000 -0.00000000
-0.00000000 -0.00000000
-0.00000000 -0.00000000
-0.00000000 -0.00000000
-0.00000000 -0.00000000
-0.00000000 -0.00000000
0.00000000 -0.00000000
-0.00000000 0.00000000
-0.00000000 -0.00000000
-0.00000000 -0.00000000
0.00456078 0.01736508
0.00449944 0.00954934
-0.00701436 -0.01502382
-0.00068246 -0.00400823
-0.01838067 0.00000000
0.00000000 0.00000000
0.00000000 -0.00000000
-0.00000000 -0.00000000
-0.00000000 -0.00000000
0.00891509 -0.00150958
0.00240339 -0.00320495
-0.03421349 0.00022089
-0.01213324 -0.02487304
-0.00608909 0.00339646
0.00628298 0.00387470
0.00764726 0.00277366
-0.00064252 0.00231834
-0.00219402 -0.00442565
-0.00014198 0.00002577
0.00006170 0.00005392
0.00005702 0.00004833
0.00000173 -0.00002567
-0.00010524 -0.00000000
-0.00000000 -0.00000000
-0.00000000 -0.00000000
-0.00000000 -0.00000000
-0.00000000 -0.00000000
-0.00002774 -0.00002696
-0.00000279 -0.00001403
-0.00000482 0.00001173
-0.00000168 0.00001010
0.00000657 0.00065200
0.00087438 0.00064474
0.00079027 0.00040096
0.00017890 0.00001880
-0.00027035 -0.00027746
-0.00000002 -0.00000003
-0.00000001 -0.00000002
-0.00000002 0.00000002
-0.00000001 -0.00000001
0.00000001 0.00000000
0.00000000 -0.00000000
-0.00000000 0.00000000
0.00000000 0.00000000
-0.00000000 0.00000000
-0.00000000 -0.00000000
-0.00000000 -0.00000000
-0.00000000 -0.00000000
-0.00000000 -0.00000000
-0.00000000 -0.00000000
-0.00000000 -0.00000000
0.00000000 -0.00000000
-0.00000000 0.00000000
0.00000000 0.00000000
0.00000000 -0.00000000
-0.00000000 0.00000000
-0.00000000 -0.00000000
0.00000000 0.00000000
-0.00000000 -0.04999930
-0.01875089 0.03323933
0.00343125 0.00231269
-0.00173348 0.02697683
0.01485585 -0.03169675
0.00042446 0.00003166
0.00034627 0.00028135
-0.00017928 0.00023128
0.00057759 0.00016460
0.00070528 0.00713415
-0.00040704 -0.00798736
-0.00156089 -0.00282426
-0.00322140 -0.00132823
-0.00251781 -0.00524560
-0.00000000 -0.00000000
-0.00000000 -0.00000000
-0.00000000 0.00000000
-0.00000000 -0.00000000
0.00000000 -0.00034237
-0.00020997 0.00003188
-0.00012472 -0.00012442
0.00001961 -0.00007859
-0.00017733 -0.00005086
-0.00000000 0.00000000
0.00000000 -0.00000000
-0.00000000 -0.00000000
0.00000000 -0.00000000
-0.00000000 0.00015116
-0.00020130 -0.00037462
-0.00014339 -0.00024244
-0.00016440 -0.00009456
-0.00031042 -0.00025466
-0.00000000 -0.00000000
0.00000000 -0.00000000
-0.00000000 -0.00000000
0.00000000 -0.00000000
-0.00000000 -0.00000000
-0.00000000 -0.00000000
-0.00000000 -0.00000000
0.00000000 0.00000000
-0.00000000 -0.00000000
-0.00000000 -0.00000000
0.00000000 -0.00000000
-0.00000000 -0.00000000
0.00000000 -0.00000000
-0.00000000 -0.00000000
0.00000000 0.00000000
0.00000000 0.00000000
0.00000000 0.00000000
-0.00000000 -0.00000000
0.00581205 -0.00280135
-0.00669351 -0.01233751
-0.01177399 -0.00810904
-0.00355623 -0.01765421
-0.01169234 -0.00000000
0.00000000 -0.00000000
-0.00000000 -0.00000000
-0.00000000 0.00000000
-0.00000000 -0.00000000
0.00191378 -0.00443327
-0.01027405 -0.00856024
-0.01243872 0.00521766
-0.00271771 -0.00504043
-0.00165861 0.00573700
-0.00012945 -0.00674447
-0.00346841 -0.00221067
-0.00451012 -0.00170520
-0.00331832 -0.00535055
0.00029284 -0.00002256
-0.00003259 0.00006124
-0.00019315 -0.00013123
0.00012520 -0.00004487
-0.00000619 -0.00000000
0.00000000 0.00000000
-0.00000000 -0.00000000
-0.00000000 0.00000000
-0.00000000 -0.00000000
0.00001892 0.00000565
0.00001343 -0.00000120
-0.00002734 -0.00000176
0.00001205 0.00000428
0.00002047 0.00065869
-0.00018966 -0.00096275
-0.00043001 -0.00070320
-0.00068340 -0.00026357
-0.00068341 -0.00064820
0.00000004 0.00000002
0.00000002 0.00000003
0.00000001 0.00000002
0.00000002 0.00000002
0.00000005 -0.00000000
0.00000000 0.00000000
0.00000000 0.00000000
-0.00000000 0.00000000
-0.00000000 0.00000000
-0.00000000 -0.00000000
-0.00000000 -0.00000000
-0.00000000 -0.00000000
-0.00000000 -0.00000000
0.00000000 0.00000000
-0.00000000 -0.00000000
0.00000000 -0.00000000
-0.00000000 -0.00000000
-0.00000000 -0.00000000
-0.00000000 -0.00000000
-0.00000000 0.00000000
-0.00000000 -0.00000000
-0.00000000 -0.00000000
-0.00000000 0.01095773
-0.03577700 -0.02755512
-0.02491730 -0.03619075
-0.01815424 -0.03548250
-0.01082485 -0.03620142
0.00013851 0.00006401
0.00026711 0.00012729
-0.00027802 0.00006616
0.00046797 0.00001739
0.00070027 0.00480081
-0.00157514 -0.00281576
0.00310498 -0.01127407
-0.01321378 -0.00344266
-0.01116131 -0.00987112
-0.00000000 0.00000000
-0.00000000 -0.00000000
-0.00000000 -0.00000000
0.00000000 -0.00000000
0.00000000 -0.00019321
-0.00052390 -0.00010998
-0.00018931 -0.00035053
-0.00001049 -0.00021810
-0.00023807 -0.00011637
0.00000000 -0.00000000
0.00000000 0.00000000
-0.00000000 -0.00000000
0.00000000 -0.00000000
-0.00000000 0.00018752
-0.00026852 -0.00005830
-0.00010573 -0.00056302
-0.00037615 -0.00014946
-0.00052319 -0.00039005
-0.00000000 -0.00000000
0.00000000 -0.00000000
-0.00000000 -0.00000000
-0.00000000 -0.00000000
-0.00000000 0.00000000
-0.00000000 -0.00000000
-0.00000000 -0.00000000
-0.00000000 -0.00000000
-0.00000000 0.00000000
-0.00000000 -0.00000000
0.00000000 0.00000000
-0.00000000 -0.00000000
0.00000000 -0.00000000
-0.00000000 -0.00000000
-0.00000000 -0.00000000
0.00000000 0.00000000
0.00000000 0.00000000
-0.00000000 -0.00000000
0.01673093 -0.00847893
0.01196136 -0.01077055
-0.02352514 -0.01109093
-0.00688332 -0.01856296
-0.01281274 0.00000000
0.00000000 0.00000000
-0.00000000 -0.00000000
-0.00000000 0.00000000
-0.00000000 -0.00000000
-0.00407484 -0.02510673
0.00388890 -0.00228276
-0.03947566 -0.00291783
-0.01652645 -0.01072964
-0.00088704 0.00631535
-0.00277903 -0.00247909
0.00085224 -0.00856995
-0.00950363 -0.00081971
-0.00932446 -0.00974232
0.00012995 -0.00009266
-0.00013083 0.00002267
-0.00025402 -0.00019524
-0.00003603 -0.00025427
-0.00001967 -0.00000000
-0.00000000 0.00000000
0.00000000 -0.00000000
-0.00000000 0.00000000
-0.00000000 -0.00000000
0.00001178 0.00000827
0.00002067 -0.00000132
-0.00002052 0.00000349
-0.00000225 0.00001643
0.00002988 0.00059899
-0.00032319 -0.00075757
-0.00010078 -0.00107184
-0.00129092 -0.00032205
-0.00101676 -0.00123899
-0.00000000 0.00000002
0.00000001 0.00000000
-0.00000000 -0.00000004
-0.00000000 -0.00000001
0.00000005 -0.00000000
0.00000000 0.00000000
0.00000000 0.00000000
-0.00000000 -0.00000000
0.00000000 0.00000000
-0.00000000 -0.00000000
0.00000000 -0.00000000
-0.00000000 -0.00000000
-0.00000000 -0.00000000
-0.00000000 0.00000000
-0.00000000 -0.00000000
0.00000000 0.00000000
0.00000000 -0.00000000
0.00000000 0.00000000
-0.00000000 -0.00000000
0.00000000 -0.00000000
-0.00000000 -0.00000000
-0.00000000 -0.00000000
-0.00000000 0.00020788
-0.05331197 -0.00364746
-0.03078930 -0.03207684
-0.02597624 -0.01588760
-0.00344730 -0.03491984
0.00084341 0.00008887
0.00032371 0.00059675
-0.00030368 0.00008736
0.00093256 0.00015173
0.00096158 -0.00102787
-0.00924397 -0.00992678
-0.00928775 -0.00852516
-0.00001525 0.00162600
-0.01027984 -0.00717251
-0.00000000 -0.00000000
0.00000000 -0.00000000
-0.00000000 0.00000000
0.00000000 -0.00000000
0.00000000 -0.00055733
-0.00029770 0.00014856
-0.00022657 -0.00041311
-0.00012063 0.00010320
-0.00029488 0.00003137
-0.00000000 -0.00000000
0.00000000 -0.00000000
-0.00000000 -0.00000000
0.00000000 -0.00000000
0.00000000 -0.00017542
-0.00047383 -0.00038731
-0.00028261 -0.00045176
-0.00014095 0.00012594
-0.00050473 -0.00051160
-0.00000000 -0.00000000
-0.00000000 -0.00000000
-0.00000000 -0.00000000
0.00000000 -0.00000000
-0.00000000 -0.00000000
-0.00000000 -0.00000000
-0.00000000 -0.00000000
0.00000000 -0.00000000
-0.00000000 -0.00000000
-0.00000000 -0.00000000
0.00000000 -0.00000000
-0.00000000 -0.00000000
0.00000000 -0.00000000
-0.00000000 -0.00000000
0.00000000 0.00000000
-0.00000000 0.00000000
0.00000000 0.00000000
-0.00000000 0.00000000
-0.01110913 -0.01227384
-0.00758763 -0.01377204
-0.02611509 -0.00420754
0.00812904 -0.03446575
-0.02785432 -0.00000000
-0.00000000 0.00000000
-0.00000000 -0.00000000
0.00000000 -0.00000000
-0.00000000 -0.00000000
-0.01948297 0.00191119
0.00293278 -0.03422326
-0.03241144 0.00073100
-0.00610756 -0.02280434
0.00493159 0.00234481
-0.00699491 -0.00642791
-0.00573730 -0.00845044
-0.00084212 0.00335280
-0.00839745 -0.00906116
0.00033651 -0.00013741
-0.00003037 0.00009900
-0.00032967 -0.00019940
0.00021737 -0.00007266
-0.00006390 -0.00000000
-0.00000000 0.00000000
-0.00000000 -0.00000000
-0.00000000 0.00000000
-0.00000000 -0.00000000
0.00002652 -0.00001307
0.00001466 0.00001111
-0.00004504 0.00000448
0.00001957 -0.00000805
0.00001289 0.00035505
-0.00078542 -0.00092749
-0.00044078 -0.00121711
-0.00059327 0.00031911
-0.00111618 -0.00126912
0.00000008 0.00000003
0.00000005 0.00000008
-0.00000004 -0.00000003
0.00000008 -0.00000001
0.00000001 -0.00000000
-0.00000000 0.00000000
0.00000000 0.00000000
-0.00000000 0.00000000
-0.00000000 0.00000000
-0.00000000 -0.00000000
-0.00000000 -0.00000000
-0.00000000 -0.00000000
0.00000000 -0.00000000
-0.00000000 0.00000000
-0.00000000 -0.00000000
0.00000000 -0.00000000
-0.00000000 -0.00000000
-0.00000000 -0.00000000
-0.00000000 -0.00000000
-0.00000000 -0.00000000
-0.00000000 -0.00000000
-0.00000000 -0.00000000
-0.00000000 0.01679780
-0.05238695 0.00456484
-0.02875700 -0.03854941
-0.03398634 -0.03351459
0.00277963 -0.05394862
-0.00032665 -0.00015250
0.00014152 -0.00042488
-0.00046297 0.00002291
0.00033474 0.00044716
0.00068598 0.01081426
0.00931401 0.01358803
-0.00045806 -0.00709532
-0.00613234 0.00065895
-0.01400559 -0.01407689
-0.00000000 -0.00000000
-0.00000000 -0.00000000
-0.00000000 -0.00000000
0.00000000 0.00000000
0.00000000 -0.00014038
-0.00025457 -0.00001971
-0.00030120 -0.00040262
-0.00010118 -0.00015211
0.00015644 0.00035200
-0.00000000 -0.00000000
-0.00000000 -0.00000000
-0.00000000 -0.00000000
0.00000000 -0.00000000
0.00000000 0.00056216
0.00017762 0.00040727
0.00027235 -0.00032567
-0.00013332 0.00001992
-0.00068420 -0.00052042
-0.00000000 -0.00000000
0.00000000 -0.00000000
-0.00000000 -0.00000000
0.00000000 -0.00000000
-0.00000000 -0.00000000
-0.00000000 0.00000000
-0.00000000 -0.00000000
-0.00000000 0.00000000
-0.00000000 -0.00000000
-0.00000000 -0.00000000
0.00000000 -0.00000000
-0.00000000 -0.00000000
0.00000000 -0.00000000
-0.00000000 -0.00000000
0.00000000 0.00000000
0.00000000 0.00000000
-0.00000000 -0.00000000
-0.00000000 0.00000000
0.01530771 0.00950976
0.02679928 -0.00834284
-0.00196900 -0.02571912
-0.00258839 -0.02065635
-0.01186671 0.00000000
-0.00000000 0.00000000
-0.00000000 -0.00000000
0.00000000 -0.00000000
-0.00000000 -0.00000000
0.00104637 -0.00473970
0.00888521 -0.02928022
-0.03304967 -0.00376235
-0.01389495 -0.00518512
0.00041043 0.01024884
0.00624484 0.00856620
0.00637630 -0.00086768
-0.00440217 0.00286736
-0.01203040 -0.01438001
0.00017231 0.00014828
0.00012266 0.00014300
-0.00002880 0.00000258
0.00028877 0.00003262
-0.00007364 0.00000000
-0.00000000 -0.00000000
-0.00000000 -0.00000000
-0.00000000 -0.00000000
-0.00000000 -0.00000000
-0.00003243 -0.00002224
0.00000317 -0.00006343
-0.00005014 -0.00001004
-0.00001382 0.00003427
0.00002643 0.00124293
0.00043063 0.00055560
0.00067238 -0.00040513
-0.00038025 0.00021134
-0.00138996 -0.00122242
-0.00000001 -0.00000003
-0.00000003 -0.00000002
-0.00000008 -0.00000002
-0.00000004 -0.00000002
0.00000008 0.00000000
-0.00000000 -0.00000000
-0.00000000 -0.00000000
-0.00000000 -0.00000000
0.00000000 0.00000000
-0.00000000 -0.00000000
-0.00000000 -0.00000000
-0.00000000 -0.00000000
-0.00000000 -0.00000000
-0.00000000 -0.00000000
-0.00000000 -0.00000000
0.00000000 -0.00000000
-0.00000000 -0.00000000
-0.00000000 -0.00000000
-0.00000000 -0.00000000
-0.00000000 -0.00000000
-0.00000000 -0.00000000
0.00000000 -0.00000000
-0.00000000 0.00645836
-0.01093773 -0.00275392
-0.02154913 -0.03089013
0.05087420 0.00553321
0.00644357 -0.10110962
0.00002707 -0.00000037
-0.00007940 0.00001265
-0.00000657 -0.00009522
-0.00007071 -0.00004712
-0.00010902 0.00428390
-0.00205933 0.00092465
0.00616214 -0.00383237
-0.00220989 0.00002711
0.00000371 -0.00276741
-0.00000000 -0.00000000
-0.00000000 -0.00000000
-0.00000000 0.00000000
0.00000000 0.00000000
0.00000000 -0.00003139
-0.00016672 -0.00008633
-0.00008808 -0.00013808
-0.00007076 -0.00029969
-0.00009720 0.00010243
0.00000000 0.00000000
-0.00000000 -0.00000000
-0.00000000 -0.00000000
0.00000000 -0.00000000
0.00000000 0.00036173
0.00007105 -0.00005249
0.00028266 -0.00007637
-0.00013073 0.00007410
-0.00014962 -0.00018345
-0.00000000 -0.00000000
0.00000000 -0.00000000
-0.00000000 -0.00000000
0.00000000 -0.00000000
-0.00000000 -0.00000000
-0.00000000 -0.00000000
-0.00000000 -0.00000000
-0.00000000 -0.00000000
-0.00000000 0.00000000
0.00000000 -0.00000000
-0.00000000 -0.00000000
-0.00000000 -0.00000000
0.00000000 -0.00000000
-0.00000000 -0.00000000
0.00000000 -0.00000000
0.00000000 0.00000000
-0.00000000 -0.00000000
-0.00000000 0.00000000
0.01258769 0.00582001
-0.00008929 0.00964890
-0.00792628 -0.00738115
-0.00763352 -0.01354308
-0.01468060 0.00000000
0.00000000 -0.00000000
-0.00000000 -0.00000000
-0.00000000 -0.00000000
-0.00000000 0.00000000
-0.01219899 -0.00408397
-0.00688283 0.00521837
-0.00733621 0.00158726
-0.01939605 -0.00943914
0.00473951 0.00860711
0.00118662 0.00126573
0.00714669 -0.00172027
-0.00156481 0.00097631
-0.00209466 -0.00406814
-0.00004269 -0.00005271
-0.00005647 0.00006452
-0.00004544 -0.00008758
0.00012866 -0.00000677
-0.00010917 0.00000000
-0.00000000 -0.00000000
0.00000000 -0.00000000
-0.00000000 0.00000000
-0.00000000 -0.00000000
-0.00000454 -0.00000348
0.00000187 -0.00000517
-0.00000465 0.00000332
-0.00000425 0.00000299
0.00000209 0.00085348
0.00018043 -0.00017209
0.00077910 -0.00008518
-0.00036490 0.00032473
-0.00023442 -0.00047017
-0.00000001 -0.00000000
-0.00000000 -0.00000001
-0.00000001 -0.00000000
-0.00000001 -0.00000000
-0.00000000 -0.00000000
0.00000000 -0.00000000
0.00000000 -0.00000000
-0.00000000 -0.00000000
0.00000000 0.00000000
-0.00000000 -0.00000000
-0.00000000 -0.00000000
-0.00000000 -0.00000000
0.00000000 -0.00000000
-0.00000000 0.00000000
-0.00000000 -0.00000000
0.00000000 -0.00000000
-0.00000000 -0.00000000
0.00000000 0.00000000
-0.00000000 -0.00000000
-0.00000000 -0.00000000
-0.00000000 -0.00000000
-0.00000000 -0.00000000
0.00000000 -0.00471371
-0.02174977 0.02903882
-0.01116178 -0.01590979
-0.00503875 -0.00051342
-0.01285792 -0.01679306
-0.00016572 -0.00022433
-0.00023456 0.00003899
0.00002368 -0.00000986
0.00002217 -0.00005732
-0.00006485 -0.00035901
-0.00203113 -0.00047684
-0.00018970 -0.00153553
-0.00146328 0.00037611
-0.00218669 -0.00325264
0.00000000 0.00000000
0.00000000 0.00000000
0.00000000 0.00000000
-0.00000000 -0.00000000
0.00000000 -0.00006362
-0.00011970 0.00001563
0.00002964 -0.00010869
-0.00002426 0.00003478
-0.00001842 -0.00000216
-0.00000000 -0.00000000
-0.00000000 -0.00000000
0.00000000 -0.00000000
-0.00000000 -0.00000000
0.00000000 -0.00002374
-0.00010478 -0.00005989
0.00000891 -0.00010748
-0.00007711 -0.00000827
-0.00008269 -0.00011321
-0.00000000 -0.00000000
-0.00000000 0.00000000
-0.00000000 -0.00000000
0.00000000 0.00000000
-0.00000000 0.00000000
0.00000000 0.00000000
-0.00000000 -0.00000000
0.00000000 0.00000000
-0.00000000 0.00000000
-0.00000000 -0.00000000
-0.00000000 -0.00000000
-0.00000000 -0.00000000
0.00000000 0.00000000
-0.00000000 0.00000000
0.00000000 -0.00000000
-0.00000000 -0.00000000
0.00000000 -0.00000000
-0.00000000 0.00000000
-0.00363669 -0.00045792
0.00249809 0.00109843
-0.00571327 0.00040583
0.00235739 -0.00339507
-0.00631382 -0.00000000
-0.00000000 0.00000000
0.00000000 -0.00000000
-0.00000000 -0.00000000
0.00000000 -0.00000000
-0.01432133 -0.01262246
0.00045411 -0.00381715
-0.01531703 0.00020395
0.00166759 -0.00625682
-0.00533548 0.00117810
0.00021404 0.00039880
0.00121344 0.00000524
-0.00122659 0.00160233
-0.00003381 -0.00226083
0.00000562 -0.00002494
-0.00004452 0.00009908
0.00002411 0.00000601
0.00000522 0.00002172
-0.00002551 -0.00000000
-0.00000000 -0.00000000
0.00000000 -0.00000000
-0.00000000 0.00000000
0.00000000 -0.00000000
-0.00001040 -0.00001076
0.00000061 -0.00000086
0.00000114 0.00000581
-0.00000099 -0.00000078
-0.00000033 0.00007376
-0.00005251 0.00003972
0.00004607 -0.00006676
-0.00013417 0.00000063
-0.00011233 -0.00023123
-0.00000001 -0.00000001
-0.00000000 0.00000000
0.00000001 0.00000002
0.00000001 0.00000001
-0.00000000 0.00000000
0.00000000 0.00000000
0.00000000 0.00000000
0.00000000 0.00000000
0.00000000 0.00000000
-0.00000000 -0.00000000
-0.00000000 0.00000000
-0.00000000 -0.00000000
0.00000000 0.00000000
0.00000000 -0.00000000
-0.00000000 0.00000000
-0.00000000 -0.00000000
-0.00000000 0.00000000
-0.00000000 -0.00000000
-0.00000000 0.00000000
0.00000000 -0.00000000
-0.00000000 0.00000000
-0.00000000 0.00000000
0.00000000 -0.01080361
-0.01131223 0.01661891
0.00582209 -0.00829838
-0.00204161 0.00070981
0.00786024 0.00062244
