-0.00006019 -0.00006961
-0.00008379 -0.00006627
-0.00007277 -0.00006283
0.00000191 -0.00001902
0.00000117 -0.00159674
0.00022872 -0.00021473
0.00213764 -0.00095579
-0.00004258 0.00030888
-0.00119962 -0.00154093
0.00000000 -0.00000000
-0.00000000 -0.00000000
-0.00000000 -0.00000000
-0.00000000 -0.00000000
-0.00000000 0.00000150
-0.00006130 0.00000091
-0.00001188 -0.00005642
-0.00005664 -0.00000443
0.00004417 0.00001988
-0.00000000 -0.00000000
-0.00000000 0.00000000
0.00000000 -0.00000000
0.00000000 -0.00000000
-0.00000000 -0.00005500
-0.00003145 -0.00002514
0.00003632 -0.00006697
-0.00003947 0.00001036
-0.00005990 -0.00007479
-0.00000000 -0.00000000
-0.00000000 -0.00000000
-0.00000000 -0.00000000
-0.00000000 -0.00000000
-0.00000000 -0.00000000
-0.00000000 0.00000000
-0.00000000 -0.00000000
-0.00000000 -0.00000000
-0.00000000 -0.00000000
-0.00000000 -0.00000000
-0.00000000 -0.00000000
-0.00000000 -0.00000000
0.00000000 -0.00000000
-0.00000000 0.00000000
-0.00000000 0.00000000
-0.00000000 -0.00000000
-0.00000000 -0.00000000
0.00000000 -0.00000000
-0.00193512 -0.00106885
-0.00174757 0.00289368
-0.00380883 -0.00023731
0.00038858 -0.00021935
-0.00176920 0.00000000
-0.00000000 -0.00000000
0.00000000 -0.00000000
0.00000000 0.00000000
-0.00000000 -0.00000000
-0.00916676 -0.00696468
-0.00173763 -0.00633485
-0.01726958 -0.00346184
0.00021499 -0.00297737
-0.00411101 -0.00083890
-0.00038911 -0.00021196
0.00165322 0.00019423
0.00026743 0.00047477
0.00018209 -0.00055898
-0.00002346 -0.00000162
0.00000186 -0.00001013
0.00001634 -0.00000025
0.00003914 0.00007598
0.00005607 -0.00000000
-0.00000000 -0.00000000
-0.00000000 -0.00000000
-0.00000000 -0.00000000
-0.00000000 -0.00000000
-0.00000882 -0.00000675
-0.00000401 -0.00000267
0.00000335 0.00000071
0.00000058 0.00000085
-0.00000250 -0.00005211
-0.00000399 -0.00004385
0.00017817 0.00003408
-0.00000452 0.00000636
-0.00004617 -0.00006726
-0.00000001 -0.00000000
0.00000000 -0.00000002
-0.00000001 -0.00000001
-0.00000001 0.00000001
-0.00000001 -0.00000000
-0.00000000 -0.00000000
0.00000000 0.00000000
0.00000000 0.00000000
0.00000000 -0.00000000
-0.00000000 -0.00000000
-0.00000000 -0.00000000
-0.00000000 -0.00000000
-0.00000000 -0.00000000
-0.00000000 -0.00000000
-0.00000000 -0.00000000
-0.00000000 -0.00000000
-0.00000000 0.00000000
-0.00000000 -0.00000000
-0.00000000 0.00000000
0.00000000 -0.00000000
-0.00000000 -0.00000000
-0.00000000 -0.00000000
-0.00000000 -0.00440214
0.00568135 0.00596076
0.00449254 0.00067063
-0.00441359 0.00413952
-0.00139767 0.00104981
0.00006359 0.00018369
0.00021306 -0.00007328
0.00046877 0.00043063
0.00021714 0.00043318
0.00044460 -0.00302029
0.00374830 -0.00072651
0.00583396 0.00181915
-0.00539204 0.00355607
-0.00233296 -0.01207861
-0.00000000 -0.00000000
-0.00000000 -0.00000000
-0.00000000 -0.00000000
-0.00000000 -0.00000000
-0.00000000 0.00015626
-0.00018270 0.00007499
-0.00010945 -0.00057974
-0.00033374 0.00026816
-0.00025746 -0.00009053
-0.00000000 -0.00000000
-0.00000000 0.00000000
-0.00000000 -0.00000000
-0.00000000 -0.00000000
-0.00000000 -0.00009736
0.00003325 -0.00031632
0.00010284 -0.00022129
-0.00050146 -0.00003115
-0.00028728 -0.00050221
-0.00000000 -0.00000000
-0.00000000 -0.00000000
-0.00000000 -0.00000000
0.00000000 -0.00000000
-0.00000000 -0.00000000
-0.00000000 0.00000000
-0.00000000 -0.00000000
-0.00000000 -0.00000000
-0.00000000 0.00000000
-0.00000000 -0.00000000
-0.00000000 -0.00000000
-0.00000000 -0.00000000
0.00000000 -0.00000000
-0.00000000 0.00000000
-0.00000000 0.00000000
-0.00000000 -0.00000000
0.00000000 -0.00000000
0.00000000 -0.00000000
-0.01885753 -0.00881016
-0.00351349 -0.01388552
-0.03492283 -0.00531277
-0.00044819 -0.01604434
-0.02616655 0.00000000
0.00000000 -0.00000000
0.00000000 -0.00000000
-0.00000000 -0.00000000
-0.00000000 -0.00000000
0.00738441 0.00430235
-0.01112375 0.01302301
-0.00927649 -0.00830905
-0.00884514 -0.03300994
-0.02062441 -0.00605579
-0.00043972 -0.00378937
0.00180641 0.00154429
-0.00710919 -0.00048432
-0.00162924 -0.00883160
-0.00013555 0.00006540
0.00013525 -0.00012050
0.00004251 0.00000466
0.00002938 0.00010025
0.00027929 -0.00000000
-0.00000000 -0.00000000
-0.00000000 -0.00000000
-0.00000000 -0.00000000
-0.00000000 -0.00000000
0.00001142 0.00000569
0.00001083 0.00002590
0.00002998 0.00001569
0.00004540 -0.00000634
0.00000853 -0.00052501
0.00014161 -0.00039723
0.00030022 0.00025577
-0.00065590 -0.00005383
-0.00000575 -0.00074546
0.00000004 0.00000003
0.00000003 -0.00000001
0.00000009 0.00000003
0.00000004 0.00000011
0.00000000 0.00000000
-0.00000000 -0.00000000
-0.00000000 -0.00000000
0.00000000 0.00000000
0.00000000 -0.00000000
-0.00000000 -0.00000000
-0.00000000 -0.00000000
-0.00000000 -0.00000000
0.00000000 -0.00000000
-0.00000000 -0.00000000
-0.00000000 -0.00000000
-0.00000000 -0.00000000
-0.00000000 0.00000000
0.00000000 0.00000000
-0.00000000 -0.00000000
-0.00000000 0.00000000
-0.00000000 -0.00000000
-0.00000000 -0.00000000
-0.00000000 -0.04966365
0.00607706 0.00624775
-0.02348433 -0.01882625
-0.02936501 0.00435985
-0.04549585 0.05472597
-0.00003510 0.00030106
0.00032645 -0.00021366
-0.00015621 -0.00000876
0.00029356 0.00017383
0.00039283 0.00333905
0.00148224 0.00247764
-0.00053211 -0.01478548
-0.01795000 0.00282044
-0.00938078 -0.00678892
-0.00000000 -0.00000000
-0.00000000 -0.00000000
-0.00000000 -0.00000000
-0.00000000 -0.00000000
0.00000000 -0.00047201
-0.00076311 -0.00025996
-0.00019294 -0.00016861
0.00032993 -0.00025329
-0.00006822 0.00032256
0.00000000 -0.00000000
-0.00000000 -0.00000000
-0.00000000 -0.00000000
0.00000000 -0.00000000
-0.00000000 0.00026622
-0.00022447 -0.00009964
0.00000649 -0.00061903
-0.00048825 0.00018209
-0.00042477 -0.00027647
-0.00000000 -0.00000000
0.00000000 -0.00000000
-0.00000000 -0.00000000
-0.00000000 -0.00000000
-0.00000000 -0.00000000
0.00000000 0.00000000
-0.00000000 0.00000000
-0.00000000 -0.00000000
-0.00000000 0.00000000
-0.00000000 -0.00000000
-0.00000000 -0.00000000
-0.00000000 -0.00000000
0.00000000 -0.00000000
0.00000000 0.00000000
-0.00000000 -0.00000000
0.00000000 0.00000000
-0.00000000 -0.00000000
0.00000000 -0.00000000
0.00875860 -0.03057111
0.02514129 -0.00206639
-0.01595519 -0.03133191
0.00533603 -0.01122045
-0.00339153 0.00000000
0.00000000 -0.00000000
-0.00000000 -0.00000000
-0.00000000 0.00000000
-0.00000000 -0.00000000
-0.00672414 -0.03179878
-0.00518075 -0.02185763
-0.04657310 -0.01190905
-0.00776008 -0.00029455
0.01182759 0.00954824
0.00024217 -0.00091941
0.00210518 -0.00996577
-0.01431955 0.00436535
-0.00863921 -0.00856021
0.00012855 0.00011368
0.00001861 0.00012812
0.00000745 -0.00000812
0.00020063 -0.00007376
0.00003272 -0.00000000
-0.00000000 -0.00000000
0.00000000 -0.00000000
-0.00000000 0.00000000
-0.00000000 -0.00000000
-0.00000195 0.00002538
0.00000863 -0.00002101
-0.00002772 -0.00001980
-0.00001246 0.00002020
0.00003640 0.00092094
0.00018587 -0.00060976
0.00010183 -0.00085789
-0.00158021 0.00024748
-0.00063174 -0.00105125
-0.00000002 0.00000007
0.00000002 -0.00000003
0.00000000 -0.00000004
-0.00000004 -0.00000002
0.00000002 -0.00000000
0.00000000 0.00000000
0.00000000 0.00000000
-0.00000000 -0.00000000
0.00000000 0.00000000
-0.00000000 -0.00000000
0.00000000 -0.00000000
-0.00000000 -0.00000000
-0.00000000 -0.00000000
0.00000000 0.00000000
-0.00000000 -0.00000000
0.00000000 0.00000000
-0.00000000 0.00000000
0.00000000 0.00000000
0.00000000 0.00000000
-0.00000000 0.00000000
-0.00000000 -0.00000000
-0.00000000 -0.00000000
-0.00000000 -0.01906771
0.00568555 -0.02315333
-0.05254574 -0.02171745
0.03936123 0.01462719
-0.02237379 -0.03025347
0.00058912 0.00010122
0.00004401 0.00040058
0.00002514 0.00012388
0.00061124 0.00024870
0.00039072 -0.00495127
-0.00132811 -0.00928852
0.00010298 -0.00136693
-0.00947561 -0.00249854
-0.00326370 -0.01406060
0.00000000 -0.00000000
-0.00000000 0.00000000
0.00000000 -0.00000000
-0.00000000 0.00000000
-0.00000000 -0.00004864
-0.00033326 -0.00022173
-0.00010518 -0.00064267
-0.00055805 0.00048957
-0.00035030 -0.00026436
-0.00000000 -0.00000000
-0.00000000 -0.00000000
-0.00000000 -0.00000000
-0.00000000 -0.00000000
-0.00000000 -0.00031419
-0.00023131 -0.00065271
-0.00023890 -0.00022102
-0.00060434 -0.00012644
-0.00015965 -0.00060138
-0.00000000 -0.00000000
-0.00000000 -0.00000000
-0.00000000 -0.00000000
0.00000000 -0.00000000
-0.00000000 0.00000000
0.00000000 -0.00000000
0.00000000 -0.00000000
-0.00000000 0.00000000
-0.00000000 -0.00000000
-0.00000000 0.00000000
-0.00000000 -0.00000000
-0.00000000 -0.00000000
0.00000000 -0.00000000
-0.00000000 0.00000000
0.00000000 0.00000000
0.00000000 -0.00000000
0.00000000 0.00000000
0.00000000 0.00000000
-0.02480515 -0.01076244
-0.01970848 -0.02084287
-0.02666478 0.00230911
0.00527459 -0.00810265
-0.00877147 0.00000000
0.00000000 -0.00000000
-0.00000000 0.00000000
-0.00000000 -0.00000000
-0.00000000 -0.00000000
-0.01011435 0.00435775
-0.01263609 0.00122562
-0.02529039 -0.01928750
0.00091951 -0.04065874
-0.02155262 -0.00439404
-0.00132148 -0.00779355
-0.00483770 0.00038742
-0.00538911 -0.00414940
0.00036963 -0.00998295
-0.00007507 -0.00008810
0.00008771 -0.00010176
-0.00002223 -0.00004644
0.00000077 0.00020720
0.00018605 -0.00000000
-0.00000000 -0.00000000
-0.00000000 -0.00000000
0.00000000 -0.00000000
-0.00000000 -0.00000000
0.00002065 -0.00000898
0.00000132 0.00001599
-0.00000024 0.00000352
0.00002037 -0.00001186
-0.00000535 -0.00057360
-0.00023739 -0.00061408
-0.00065632 -0.00023842
-0.00076041 -0.00058026
-0.00004706 -0.00116432
0.00000008 -0.00000000
0.00000002 0.00000006
0.00000000 0.00000001
0.00000006 0.00000004
0.00000001 -0.00000000
-0.00000000 0.00000000
-0.00000000 -0.00000000
0.00000000 0.00000000
0.00000000 0.00000000
-0.00000000 -0.00000000
-0.00000000 -0.00000000
-0.00000000 -0.00000000
-0.00000000 -0.00000000
0.00000000 -0.00000000
-0.00000000 -0.00000000
-0.00000000 -0.00000000
-0.00000000 -0.00000000
-0.00000000 0.00000000
-0.00000000 -0.00000000
0.00000000 -0.00000000
-0.00000000 -0.00000000
-0.00000000 -0.00000000
0.00000000 -0.02409599
-0.02010905 0.00852536
-0.00753398 -0.00511721
-0.06516854 -0.00131318
-0.01226559 0.05179988
-0.00009351 -0.00012342
0.00000926 -0.00011431
-0.00017621 -0.00003081
-0.00009571 -0.00014618
0.00004671 -0.00475520
-0.00232860 0.00057655
-0.00169046 -0.00153405
0.00121094 -0.00185647
-0.00403719 -0.00391373
-0.00000000 -0.00000000
-0.00000000 -0.00000000
-0.00000000 -0.00000000
-0.00000000 -0.00000000
-0.00000000 -0.00001152
-0.00003675 0.00007450
-0.00000104 -0.00018991
-0.00009616 0.00009630
-0.00010822 -0.00008039
0.00000000 0.00000000
0.00000000 0.00000000
-0.00000000 -0.00000000
-0.00000000 -0.00000000
-0.00000000 -0.00020689
-0.00002160 0.00016676
-0.00017490 -0.00014214
0.00002034 -0.00007883
-0.00017711 -0.00014307
-0.00000000 -0.00000000
-0.00000000 -0.00000000
-0.00000000 -0.00000000
-0.00000000 -0.00000000
-0.00000000 -0.00000000
0.00000000 0.00000000
-0.00000000 0.00000000
-0.00000000 -0.00000000
-0.00000000 -0.00000000
-0.00000000 -0.00000000
0.00000000 -0.00000000
-0.00000000 -0.00000000
-0.00000000 -0.00000000
-0.00000000 -0.00000000
0.00000000 -0.00000000
0.00000000 -0.00000000
0.00000000 -0.00000000
-0.00000000 -0.00000000
-0.00725642 0.00240148
0.00876366 -0.00663011
-0.01388608 -0.00397137
0.00542928 -0.00421426
-0.01415770 0.00000000
-0.00000000 0.00000000
-0.00000000 -0.00000000
-0.00000000 -0.00000000
-0.00000000 -0.00000000
-0.00736958 -0.00057037
0.01032876 -0.01770970
-0.01668892 -0.00336769
-0.00787419 -0.02679624
-0.00675158 -0.00517347
-0.00156709 -0.00030402
-0.00162128 -0.00221469
0.00080024 0.00161617
-0.00184840 -0.00337836
-0.00007441 -0.00008629
-0.00003643 -0.00001405
-0.00005148 0.00002201
-0.00001316 -0.00004825
-0.00001867 -0.00000000
-0.00000000 0.00000000
-0.00000000 -0.00000000
-0.00000000 -0.00000000
-0.00000000 -0.00000000
-0.00001280 -0.00000761
-0.00000225 -0.00000479
-0.00000373 0.00000890
-0.00000281 -0.00000352
0.00000548 -0.00054332
-0.00008047 0.00000820
-0.00024580 -0.00017345
-0.00009399 -0.00003247
-0.00017244 -0.00048631
-0.00000001 -0.00000000
0.00000001 -0.00000001
-0.00000001 -0.00000001
-0.00000001 0.00000000
0.00000001 -0.00000000
0.00000000 -0.00000000
0.00000000 -0.00000000
0.00000000 0.00000000
-0.00000000 0.00000000
-0.00000000 -0.00000000
0.00000000 -0.00000000
-0.00000000 -0.00000000
-0.00000000 -0.00000000
-0.00000000 -0.00000000
-0.00000000 -0.00000000
-0.00000000 -0.00000000
-0.00000000 -0.00000000
0.00000000 -0.00000000
0.00000000 -0.00000000
0.00000000 -0.00000000
-0.00000000 -0.00000000
0.00000000 -0.00000000
-0.00000000 -0.02592351
0.00298925 0.00206419
-0.01044426 -0.00492761
-0.00336257 0.00690811
0.00041153 -0.00319335
-0.00009106 0.00004864
0.00023299 -0.00017554
0.00017842 0.00037419
0.00006812 0.00053787
0.00055938 -0.00643617
-0.00255689 0.00082383
-0.00160082 -0.00424349
-0.00046204 -0.00099729
-0.00112952 -0.00445040
-0.00000000 -0.00000000
0.00000000 0.00000000
0.00000000 0.00000000
-0.00000000 -0.00000000
-0.00000000 0.00001169
-0.00003902 0.00008644
0.00004046 -0.00009758
-0.00029509 0.00023832
-0.00018206 -0.00039627
0.00000000 -0.00000000
0.00000000 0.00000000
-0.00000000 -0.00000000
0.00000000 -0.00000000
-0.00000000 -0.00015558
-0.00023086 0.00005851
-0.00010799 -0.00012578
-0.00010586 0.00005274
-0.00000987 -0.00023606
-0.00000000 -0.00000000
0.00000000 -0.00000000
-0.00000000 -0.00000000
-0.00000000 -0.00000000
-0.00000000 -0.00000000
-0.00000000 0.00000000
-0.00000000 -0.00000000
-0.00000000 -0.00000000
-0.00000000 -0.00000000
-0.00000000 0.00000000
0.00000000 -0.00000000
-0.00000000 -0.00000000
-0.00000000 -0.00000000
-0.00000000 -0.00000000
0.00000000 0.00000000
0.00000000 -0.00000000
-0.00000000 0.00000000
0.00000000 0.00000000
-0.00233657 0.00218742
0.01158697 -0.00564891
-0.01261161 -0.00094317
0.00172240 -0.00818665
-0.00906892 0.00000000
0.00000000 0.00000000
-0.00000000 0.00000000
0.00000000 -0.00000000
0.00000000 0.00000000
-0.01519262 0.00055743
0.00230816 0.00404495
0.00043661 0.00311250
0.01849044 -0.01128429
-0.02383778 -0.00068896
-0.00024149 -0.00048246
-0.00212499 -0.00082270
-0.00113968 -0.00010382
0.00118799 -0.00317970
-0.00003610 -0.00010766
0.00001290 -0.00015786
-0.00000247 0.00005243
-0.00012380 0.00009433
0.00020501 -0.00000000
-0.00000000 -0.00000000
-0.00000000 -0.00000000
-0.00000000 -0.00000000
-0.00000000 -0.00000000
-0.00000346 -0.00000693
0.00000143 0.00000013
-0.00000695 0.00000704
0.00001224 -0.00000393
0.00000238 -0.00023159
-0.00031630 0.00005761
-0.00044952 -0.00018062
-0.00012993 -0.00035003
0.00016791 -0.00032368
0.00000003 -0.00000000
0.00000001 -0.00000000
-0.00000001 0.00000000
0.00000001 0.00000004
0.00000002 -0.00000000
-0.00000000 0.00000000
-0.00000000 0.00000000
0.00000000 0.00000000
0.00000000 0.00000000
-0.00000000 -0.00000000
-0.00000000 -0.00000000
-0.00000000 -0.00000000
-0.00000000 -0.00000000
-0.00000000 -0.00000000
-0.00000000 -0.00000000
-0.00000000 -0.00000000
-0.00000000 -0.00000000
-0.00000000 -0.00000000
-0.00000000 0.00000000
0.00000000 -0.00000000
0.00000000 -0.00000000
0.00000000 -0.00000000
-0.00000000 -0.00197711
-0.01036264 0.00334920
-0.01418309 0.01816088
-0.02133969 -0.00556144
-0.06687587 -0.00428614
-0.00055797 0.00020916
0.00053355 -0.00048604
0.00010759 0.00035872
0.00028347 0.00060232
0.00107214 0.00611501
-0.00335767 0.00108373
0.00015655 -0.00673571
-0.01092484 0.00790051
-0.00071887 -0.00158389
-0.00000000 0.00000000
-0.00000000 -0.00000000
-0.00000000 -0.00000000
0.00000000 -0.00000000
-0.00000000 -0.00041242
-0.00038744 -0.00032740
0.00005371 -0.00001952
0.00009600 0.00004567
0.00000799 -0.00002899
0.00000000 0.00000000
0.00000000 0.00000000
-0.00000000 -0.00000000
0.00000000 -0.00000000
-0.00000000 0.00034090
-0.00037858 -0.00009861
0.00008582 -0.00042529
-0.00047198 0.00044125
-0.00015408 -0.00012298
0.00000000 -0.00000000
-0.00000000 0.00000000
-0.00000000 -0.00000000
0.00000000 -0.00000000
-0.00000000 0.00000000
-0.00000000 -0.00000000
0.00000000 0.00000000
0.00000000 -0.00000000
-0.00000000 0.00000000
0.00000000 -0.00000000
-0.00000000 0.00000000
-0.00000000 -0.00000000
0.00000000 -0.00000000
-0.00000000 -0.00000000
-0.00000000 0.00000000
-0.00000000 0.00000000
0.00000000 -0.00000000
0.00000000 -0.00000000
0.03515462 -0.02926268
0.01932409 0.01119791
-0.00659063 -0.02069594
0.00397012 -0.00693943
-0.01548917 0.00000000
0.00000000 -0.00000000
-0.00000000 -0.00000000
-0.00000000 0.00000000
-0.00000000 -0.00000000
-0.00554341 -0.01279896
0.00472723 -0.00809168
-0.02225307 -0.02776646
0.01459755 0.00491958
-0.00264421 0.01276445
-0.00285747 -0.00170088
-0.00025788 -0.00520526
-0.01268756 0.00407356
-0.00093588 -0.00559547
0.00020832 0.00015931
-0.00005300 -0.00005866
-0.00001628 -0.00012030
0.00017773 0.00002282
0.00006979 0.00000000
-0.00000000 -0.00000000
0.00000000 -0.00000000
-0.00000000 0.00000000
-0.00000000 -0.00000000
-0.00000420 0.00002412
0.00000833 -0.00000718
-0.00002953 -0.00003551
-0.00000756 0.00000854
0.00004138 0.00112959
-0.00030115 -0.00066773
0.00016078 -0.00071364
-0.00116717 0.00040403
-0.00027736 -0.00028248
-0.00000012 0.00000001
-0.00000001 -0.00000008
0.00000004 -0.00000001
-0.00000000 0.00000001
0.00000003 -0.00000000
-0.00000000 0.00000000
-0.00000000 0.00000000
0.00000000 -0.00000000
0.00000000 -0.00000000
0.00000000 -0.00000000
-0.00000000 -0.00000000
-0.00000000 -0.00000000
-0.00000000 -0.00000000
-0.00000000 0.00000000
-0.00000000 -0.00000000
0.00000000 0.00000000
0.00000000 0.00000000
0.00000000 -0.00000000
0.00000000 0.00000000
-0.00000000 0.00000000
-0.00000000 -0.00000000
0.00000000 -0.00000000
-0.00000000 0.03824488
-0.00103142 -0.02873763
-0.04070714 -0.07781839
-0.01586227 0.00479263
-0.05510285 -0.03772679
0.00010678 0.00035029
0.00057429 -0.00011929
0.00037097 0.00037564
-0.00040278 -0.00012408
-0.00004792 -0.00510325
-0.00550543 -0.00764197
0.00086838 -0.00130686
-0.00354172 -0.00392221
-0.00319601 -0.00590037
0.00000000 -0.00000000
-0.00000000 0.00000000
-0.00000000 -0.00000000
0.00000000 -0.00000000
-0.00000000 -0.00000823
-0.00022708 -0.00002101
-0.00023732 -0.00034953
-0.00020478 0.00014089
-0.00028619 0.00005396
0.00000000 0.00000000
-0.00000000 0.00000000
-0.00000000 -0.00000000
0.00000000 -0.00000000
-0.00000000 -0.00049002
-0.00042216 -0.00034151
-0.00032534 -0.00041790
-0.00024009 -0.00020294
-0.00022323 -0.00012872
-0.00000000 -0.00000000
-0.00000000 -0.00000000
-0.00000000 -0.00000000
-0.00000000 -0.00000000
-0.00000000 -0.00000000
-0.00000000 -0.00000000
-0.00000000 -0.00000000
-0.00000000 -0.00000000
-0.00000000 -0.00000000
-0.00000000 -0.00000000
-0.00000000 -0.00000000
-0.00000000 -0.00000000
0.00000000 -0.00000000
-0.00000000 0.00000000
-0.00000000 0.00000000
-0.00000000 -0.00000000
0.00000000 0.00000000
0.00000000 -0.00000000
-0.03166667 -0.03935331
-0.01237062 -0.02035990
-0.03434613 0.00743196
-0.00851112 -0.00397465
0.00869603 -0.00000000
0.00000000 -0.00000000
-0.00000000 0.00000000
0.00000000 -0.00000000
-0.00000000 -0.00000000
-0.00970826 -0.00461415
0.00834551 0.01282106
-0.00580880 -0.01705144
-0.01190689 -0.01539296
-0.00599255 -0.00895219
-0.00756295 -0.00503619
-0.00464346 -0.00424070
-0.00370516 -0.00630597
-0.00025630 -0.00334895
-0.00019675 -0.00004177
0.00005215 -0.00017736
0.00003731 -0.00010168
-0.00009060 0.00006332
-0.00003186 -0.00000000
-0.00000000 -0.00000000
-0.00000000 -0.00000000
-0.00000000 -0.00000000
-0.00000000 -0.00000000
0.00001312 0.00000635
0.00001604 0.00000758
0.00000524 0.00000760
0.00001097 -0.00000766
0.00001113 -0.00110684
-0.00059109 -0.00072508
-0.00092269 -0.00040864
-0.00043989 -0.00094638
-0.00019670 -0.00044394
0.00000007 0.00000007
0.00000004 -0.00000000
0.00000011 0.00000003
0.00000004 0.00000006
-0.00000000 -0.00000000
-0.00000000 -0.00000000
-0.00000000 -0.00000000
0.00000000 0.00000000
0.00000000 -0.00000000
-0.00000000 -0.00000000
-0.00000000 -0.00000000
-0.00000000 -0.00000000
0.00000000 -0.00000000
-0.00000000 -0.00000000
-0.00000000 -0.00000000
-0.00000000 -0.00000000
-0.00000000 0.00000000
0.00000000 -0.00000000
-0.00000000 -0.00000000
-0.00000000 -0.00000000
-0.00000000 -0.00000000
-0.00000000 0.00000000
-0.00000000 -0.03450883
0.01850371 -0.00957685
-0.01981689 -0.03482980
-0.03318922 0.01098843
-0.03993082 0.09044008
