0.02800167 -0.00385878
0.02001633 -0.00351421
-0.00082558 -0.00716745
0.00384259 -0.00823385
-0.02316805 0.01048693
0.02519115 -0.01496126
-0.00575224 0.00624775
0.00484642 -0.00180185
0.01288283 -0.01619744
-0.01186505 0.01436877
-0.02350129 0.00385092
0.01044666 -0.02147382
0.01761944 0.00733806
0.01767814 0.00138433
0.00045312 -0.01478597
-0.02002854 -0.00514561
-0.00395988 -0.00063662
0.00526776 0.00481554
0.01283959 -0.00499287
0.00823272 -0.01378059
0.00824653 0.00371899
-0.00319543 -0.00453875
-0.01269081 -0.00586146
-0.00254384 -0.01171544
-0.00026541 0.00250415
0.01662205 -0.03695119
0.01115399 -0.01582694
-0.02479800 0.01494944
-0.00111622 -0.00959119
0.01940093 0.00456766
0.00689592 -0.00273702
-0.01831301 0.04210750
-0.00772318 0.00226939
-0.00897712 0.02449286
0.01545396 -0.02580561
-0.01099961 -0.02070617
-0.00150785 0.00674659
-0.00899016 0.00251094
0.01090658 -0.02659598
-0.01122610 -0.01891588
-0.00841708 -0.02340448
-0.02057806 -0.00361169
-0.00874666 -0.00780992
0.00009049 -0.01171447
0.00096230 0.00440023
0.00504687 -0.01230700
0.01804216 0.00449198
0.00730662 0.01579772
0.00668689 -0.01018496
-0.01794230 -0.01688028
-0.00475803 -0.00762487
0.00015683 0.00763035
0.01524819 -0.00194214
-0.02489747 -0.01350512
0.00591501 -0.01581808
0.01256207 0.00435136
0.01179234 -0.00261951
0.00632312 0.01937589
0.02152955 0.00457390
-0.00219277 -0.00124002
0.00753646 0.01084526
0.00472786 -0.01115880
0.00478865 0.01454978
0.00832164 0.00767497
-0.00426364 0.00149803
-0.00577957 0.00742342
0.00940885 0.01131997
-0.01127834 0.00417326
-0.01613132 -0.00821758
0.00742136 -0.01946016
0.00989097 -0.02685439
0.04860299 0.01718583
0.00370746 -0.00677607
-0.01026075 0.00487825
0.00831788 0.01449830
0.00619236 -0.00653394
0.00141631 0.00468902
-0.00118364 -0.00989955
0.00513762 -0.00132863
-0.00338496 0.00994320
-0.00468354 -0.01998412
0.01776866 -0.00344561
-0.00304854 0.00206019
0.00045654 0.02442275
-0.01815277 -0.00060824
-0.00285521 0.00193256
-0.02958529 -0.00326724
0.00542096 0.02382926
0.00380857 -0.02124907
-0.00163504 -0.01058136
-0.00886544 -0.00447047
0.00865035 0.00376700
-0.01834779 0.00858679
-0.00679010 -0.01507788
-0.00654175 -0.01272666
-0.01041210 -0.00387062
0.00439028 0.00702122
0.00914006 0.00601331
-0.00158396 0.00653013
-0.02662660 0.01854149
-0.00964723 0.02209666
-0.03072704 -0.00423046
0.02295044 0.00534402
-0.01165318 -0.00355687
-0.00373331 0.01275663
-0.02324969 0.00912850
-0.02804709 -0.00036991
0.00242814 -0.00368994
-0.01024209 -0.00480569
-0.01955722 0.02969962
-0.00664738 0.00521433
-0.01058359 -0.01961322
0.00529719 -0.00849123
-0.00522297 -0.00894190
-0.00291889 0.00137212
0.01081608 -0.00221570
0.01046869 0.00630232
-0.02375799 0.01184689
0.00028050 -0.01599666
0.01248598 -0.01010290
0.02801784 -0.00723919
0.01085588 -0.00355142
-0.00853814 0.01818195
-0.00304487 -0.01297071
0.00028981 0.00089159
0.01963168 -0.00355518
-0.00301348 0.00080694
0.01037452 0.00123054
0.00081840 0.01310570
-0.01088040 -0.02207078
0.00158445 0.00941745
0.00465714 -0.00189613
-0.00397266 0.00595823
-0.00047922 -0.01233725
-0.01051354 -0.00003675
-0.00118642 0.01321194
-0.00015508 0.00115136
0.02218842 -0.00791879
0.01433859 0.01532156
-0.00499598 -0.00415055
0.00579340 0.01487251
-0.00115511 -0.02391203
0.00388826 0.01931096
0.01506776 0.01095359
-0.00758061 0.03646923
-0.01449200 0.01179503
-0.00954793 -0.00782171
0.00391844 0.00142639
0.02617533 -0.01751320
-0.01379885 -0.00787188
-0.02393865 -0.00021031
0.00270638 0.00963612
-0.00132582 0.00229144
0.00768575 -0.00032758
0.00134906 -0.00776950
0.01087009 -0.00635456
-0.00985409 0.02140518
0.00285032 -0.01719934
-0.01003716 -0.00365471
-0.00467641 0.01186606
0.01167689 -0.00455249
0.01531816 -0.01822982
-0.01696471 -0.00463109
-0.00259886 -0.01239549
0.02130526 -0.00648223
0.00288132 -0.00876357
-0.00674561 -0.00393017
-0.00830412 -0.00642119
-0.01075844 -0.00012729
0.01213330 -0.00670900
0.01683364 0.01197509
-0.02100978 -0.01219311
-0.01185011 -0.00732350
0.01001687 -0.00260542
0.01786859 -0.00739786
0.00444053 0.02389097
0.04164210 -0.02074541
0.00708562 -0.01066362
0.01554808 -0.00989423
-0.01573468 0.00474039
-0.00293875 -0.01471120
-0.00082709 -0.00176383
-0.01038871 0.01955354
0.02926956 -0.00817313
-0.02199007 -0.00953943
0.00920273 0.01745166
0.00577285 0.02053650
-0.00883770 -0.01530906
-0.01406277 0.02606880
0.00052082 0.00663013
-0.01727254 -0.02268208
0.01366542 -0.00282174
-0.00358751 -0.00785860
-0.00517654 -0.01267747
0.00711541 0.01356726
-0.00200778 -0.00102222
-0.00310131 0.00242112
0.00692007 -0.00252974
-0.00598611 -0.00195942
0.01101510 -0.00472621
0.00994678 -0.00405971
-0.00544463 -0.01047528
-0.02725761 -0.02011116
0.00331139 -0.02217375
0.00298742 0.01198988
0.00461716 -0.00268565
0.00935562 0.01417185
-0.00903562 -0.02827398
-0.00371751 -0.00100561
-0.00142496 -0.00417010
0.00973380 -0.02471199
-0.02008714 0.01131145
-0.00764226 -0.00978136
0.00350304 -0.02587822
0.00935799 -0.01527711
-0.00292324 0.00819490
0.00334464 0.00984202
-0.01101546 0.02491327
0.00856637 -0.02564295
0.00285974 -0.00343787
-0.00682849 0.01933628
-0.00857085 -0.02676927
0.01055091 0.01999047
0.00144595 0.02523084
-0.02795761 -0.03112589
-0.01701119 0.01062074
0.00322840 0.02410490
0.01519081 -0.00206186
0.00519554 0.01067318
0.00000535 0.01556508
0.01206235 -0.00664316
0.01302220 0.00819840
-0.00883809 -0.01387994
-0.01546617 -0.00707859
-0.00397164 0.00293575
0.00377340 0.01351011
-0.00815020 0.01370672
0.02412322 -0.00281986
0.01312886 -0.00002282
0.01379077 -0.00663553
0.00003471 -0.02644864
0.00509429 0.00870989
-0.01752565 0.00124321
0.00869463 -0.00956191
-0.01181462 0.00315561
-0.00558909 0.00628851
0.00740325 -0.01605569
0.00063122 -0.01759796
0.01099422 -0.00375392
0.01009281 -0.00338903
-0.00395598 -0.01732100
0.03820860 -0.00553750
-0.00198759 0.01320630
-0.01469814 -0.01869369
-0.01343127 -0.01584109
-0.00183463 -0.00016056
0.00270299 -0.01607819
0.00925120 -0.00121802
-0.00817220 -0.00460281
0.03178171 0.00063957
0.00322691 0.00037515
-0.00195086 -0.00875754
0.03574637 0.01096610
0.00715034 0.00162152
-0.01466699 -0.00959025
-0.00376217 0.00639494
-0.02552145 -0.00757451
-0.01237423 -0.01814735
0.00920223 0.01269594
0.00040302 0.00820570
0.00169478 -0.00115925
-0.00736012 0.00505876
0.01584826 -0.00856832
-0.00653771 0.00431948
0.03709811 -0.00811161
-0.00869108 -0.00300181
0.00894119 0.00837129
0.00594648 0.01577435
-0.00189496 -0.03446409
-0.01583625 0.00002609
0.02283090 -0.01903196
0.01543417 0.00412271
0.01346192 0.01647776
-0.03466722 -0.00654162
0.01732054 0.01187197
-0.02037592 -0.00341685
0.00078691 0.02255374
0.00073757 -0.01922097
-0.02822104 -0.01249809
0.02947013 -0.00569566
0.02190237 -0.00913427
0.01124238 0.02250835
0.01274902 -0.02148526
0.00633086 0.01447034
-0.01134828 -0.01559832
0.00717006 -0.01138572
-0.01410327 -0.01293812
-0.01067609 -0.00214065
-0.00036283 -0.00505705
0.02537587 0.01999070
-0.00488138 -0.00947694
0.01012781 0.00108210
-0.00001952 0.00915658
0.00193609 -0.02775145
0.00656682 0.00261115
0.00090006 -0.02183002
0.02663228 -0.02939724
-0.00526817 0.01900078
0.00972202 -0.00788903
-0.02572845 0.00122058
0.00049875 -0.02188362
-0.00293751 -0.00704322
0.00569762 0.00386290
0.00404517 -0.00029333
0.01344623 0.02468823
-0.00553476 -0.01256793
0.00670207 -0.00380577
-0.00487286 -0.00838277
0.01371118 0.02073611
0.01675769 -0.00994353
0.00118498 -0.02400625
-0.00604775 -0.01064912
0.01508945 0.00163511
-0.00241894 0.02350588
-0.01004949 0.01302471
0.00851288 0.01657761
0.02608705 0.00539388
-0.01160818 0.00622425
-0.03125176 -0.01988707
0.01120568 -0.02693441
0.02806890 -0.00241867
0.00094428 0.02703148
0.01875971 0.01162721
0.00044306 0.01702609
-0.00553180 0.00335522
-0.02878481 -0.01365279
-0.00293984 -0.01510571
0.02498948 -0.00520426
-0.00444981 -0.01887606
-0.01334812 -0.01475134
0.02462927 0.00230099
-0.00698087 -0.00068368
-0.01225020 0.00704488
0.01038217 -0.00922270
0.00056133 0.00482822
0.01873290 -0.00293961
-0.00272395 -0.01075975
-0.00655948 -0.00756968
-0.00456645 -0.01053481
-0.01945102 0.01824106
-0.01053067 -0.01783973
0.01303718 -0.01536833
-0.00711780 0.00901162
0.00076085 0.01204599
0.00727011 -0.01565721
-0.02686937 0.00994306
-0.00819617 -0.02592787
-0.00029434 -0.01481954
-0.01096035 -0.03653550
-0.01010522 0.00590221
0.00887042 -0.01819415
-0.00426662 0.00152137
-0.00431265 -0.00115310
-0.01585431 0.01192796
0.02914696 -0.00924052
-0.00702932 0.00094428
-0.02604486 -0.01304032
0.00516495 -0.00804111
0.00510420 0.00695818
0.00811508 0.01212837
-0.01506242 -0.00479753
-0.00511132 -0.00524119
0.01213094 -0.00118098
0.00634773 -0.02232222
0.00567515 -0.00012186
-0.01351294 -0.01109640
-0.01030803 -0.00059627
-0.00124169 -0.00131156
0.01873516 0.01129286
-0.00055542 -0.02344143
-0.00673763 -0.02284989
0.02508857 -0.00816173
0.00717424 0.00927941
-0.00503959 -0.01427298
-0.02037746 0.02495097
0.01010288 -0.01462467
0.00731163 -0.00957371
-0.00521242 0.01934474
-0.00410296 0.00402289
-0.01172594 0.01043491
0.02756771 -0.01214104
0.02560094 0.01432208
0.00919970 0.02099038
0.00658601 -0.01355223
-0.01853191 0.00810100
-0.01472295 0.01218045
0.00660150 0.01126685
0.01519202 0.00754778
-0.00200184 -0.01440490
0.00604396 0.00993181
-0.02623930 -0.00123604
0.00631440 0.00044363
0.00896858 -0.00492686
0.00403411 -0.01030304
-0.01581904 0.01662905
0.02977783 -0.00376733
-0.01260886 -0.01530399
-0.00542729 -0.02552486
-0.01184328 -0.00020155
0.02127353 0.01519664
-0.00648536 -0.01241987
-0.02258102 -0.00776040
-0.00590474 0.00834715
-0.00313062 -0.01436832
-0.01335168 -0.00422296
-0.03388566 -0.00046459
0.00942110 -0.01641370
0.01121922 -0.02173718
-0.00233518 0.04115507
-0.00062711 0.01482362
-0.01240363 -0.00096995
0.00169184 -0.00214538
-0.00817223 0.02216710
0.00451224 -0.00872544
0.01973217 0.01099833
0.00589746 0.02333118
0.00681772 0.00754399
0.00292965 -0.01087251
-0.00141445 0.01815107
0.01616203 -0.00932991
0.00163644 -0.01452450
0.00738373 -0.01129354
-0.00561200 0.00443709
0.01126521 0.00349289
0.01482353 -0.01572962
0.00324151 -0.01846774
0.00550898 0.00098238
0.00822737 0.00166197
-0.00050728 0.01895125
0.00728974 0.00246864
0.00134729 -0.00871004
-0.00341045 0.00823671
-0.01208272 0.01408889
-0.01970851 0.01312654
0.01542472 0.01827865
-0.01078796 -0.00296930
0.00863217 0.00745253
-0.01059203 -0.00156117
0.00036683 -0.01758785
-0.01966268 0.01393848
-0.01767029 -0.02637283
-0.00693685 -0.01063446
-0.01840179 0.01509010
-0.01969845 -0.00228189
-0.00056927 0.00772684
0.00538584 -0.00002927
-0.00168763 -0.00676062
-0.00739474 0.01282865
-0.00060375 0.00931929
0.03459573 0.01841843
0.00535132 0.00396755
0.00942708 0.00254417
-0.01099183 -0.01925016
0.01361013 -0.00344970
0.00734671 0.00463171
-0.01455528 -0.00044112
-0.02103699 0.01516038
-0.00940225 0.01408353
0.01195192 0.01705112
0.02416670 -0.00811507
-0.00207160 0.01431157
-0.02429597 -0.00628574
-0.01354154 -0.00251152
0.01929478 -0.00247003
0.00930742 0.00151778
0.02958299 0.01296809
0.00344157 -0.01732885
-0.01626587 -0.00484115
0.03128886 -0.00218562
0.02866521 -0.01077326
0.03424512 0.00789025
0.00261452 -0.01134664
0.01082138 0.00106911
0.02408785 -0.01357245
-0.01018243 0.00963512
-0.00172652 -0.00519472
0.00621641 -0.00600072
0.00476465 -0.00925014
-0.02084054 0.00809752
-0.00880940 0.00294297
-0.00339300 0.00265358
-0.00530059 0.00653102
0.00987966 -0.00397680
-0.00954110 -0.00050044
0.00396629 -0.01958027
0.01434341 -0.01201274
0.00960659 0.00384648
-0.00400341 0.00822036
-0.01091705 -0.00990382
0.00744837 -0.01973588
-0.00399514 -0.00776581
-0.00141595 -0.00282911
-0.00534557 0.01817691
0.00315029 -0.01080308
-0.02367960 -0.00526234
0.00322724 0.00270583
0.01087110 0.00841545
0.01650555 0.02149278
0.01396679 0.01997399
-0.01859476 -0.01378189
0.01522152 -0.00103983
0.00195687 -0.00968374
-0.00093141 -0.01175791
-0.00495951 -0.01304883
0.00604410 -0.00381617
0.00316792 0.01081675
-0.01580943 0.01121283
-0.00916751 -0.00608521
0.01294658 -0.00088693
-0.02060798 -0.01073873
-0.00158749 -0.00203185
0.01287975 -0.01807537
-0.03975589 -0.00692737
-0.00154389 0.01610247
-0.01364253 0.03612281
-0.01610734 0.00889274
-0.01211813 -0.00943584
0.00508232 -0.01261480
-0.00407430 -0.00853606
-0.00243463 0.01070537
-0.00705478 -0.01408424
0.00274665 0.01251811
0.00198895 0.01198190
-0.01094399 -0.00800955
0.00848123 0.01258546
0.00131838 -0.00056859
-0.02222079 -0.02403018
0.01358886 -0.02058923
0.01435008 -0.02712236
0.01289388 0.01366283
-0.00170735 -0.00144977
-0.02908352 0.00416431
0.00225056 -0.01220160
-0.00611421 0.00176469
-0.01297799 0.01939762
-0.00387013 -0.00407972
-0.00108169 -0.03054804
0.01726057 -0.00283023
0.00331918 0.02179714
-0.01463288 -0.01004079
0.00933747 -0.01277783
-0.01200950 -0.01212416
-0.00928085 0.01078922
-0.00125473 0.01036861
0.02124392 0.00349653
-0.02385376 0.01718226
-0.02315279 0.00370826
-0.00227468 -0.01575982
0.01799460 -0.00322706
-0.00509023 0.02285755
0.00107888 0.02833198
-0.01568878 -0.01236855
-0.01971440 -0.01066861
0.00270711 0.01368414
0.01686765 -0.00904050
0.00165834 -0.01999159
-0.00467773 -0.01013766
0.01154494 0.02460183
-0.02175917 0.01025043
-0.00168668 -0.00615431
0.02541277 -0.03996389
0.03801839 -0.02109946
-0.01802771 -0.00320178
-0.01181722 -0.01856839
0.00443466 -0.01337355
0.00238808 0.00599288
-0.00580235 0.00811046
0.01618465 0.03881291
0.01466305 0.00488872
0.00202876 0.01305554
-0.01629257 -0.00792360
-0.00638423 -0.00675639
-0.01923880 0.00584450
-0.00034500 0.01378032
0.00569036 -0.01440374
-0.00986524 0.00319661
0.02522762 0.01238467
-0.00329794 -0.02963994
-0.00935533 -0.02455384
-0.01475177 0.00937476
-0.01895932 0.00846558
0.01824600 0.00876007
-0.01680003 0.02212464
-0.01079186 -0.02084699
-0.01961989 -0.00217347
0.01101188 0.01174635
-0.01587742 -0.00787174
0.01694462 0.00520056
0.01066728 0.00126432
0.00865019 0.01464466
0.00083196 -0.01539867
0.00578465 -0.01126838
0.02471179 0.01518042
-0.01552011 0.00447775
-0.00114057 -0.00166030
-0.00691051 0.00073367
0.02139490 -0.01185210
0.01215073 -0.02373197
0.01515970 0.01581050
-0.00317543 0.00098566
0.02903157 0.00654401
0.02622714 -0.00120959
0.00253144 -0.00279022
-0.00947037 0.00410412
0.00350022 -0.01481741
-0.00341546 -0.01535304
0.01982504 -0.01887614
-0.01450921 -0.01377888
-0.00265408 -0.01732618
-0.01021055 0.00370112
-0.01894922 -0.01538419
-0.00892866 0.00602179
-0.00105614 -0.02180196
-0.00460059 -0.00881053
0.00724970 -0.00182495
-0.00357924 -0.01250245
0.02522286 -0.00647654
-0.00159546 0.02528316
-0.03345975 -0.02671515
-0.00634708 -0.00561395
-0.00163086 0.00976166
-0.03210212 -0.00513926
-0.00755563 -0.02348841
0.01312964 0.00499935
0.00869237 0.02791592
-0.01608497 0.02004573
0.00300463 0.00906821
0.01144144 -0.00988156
-0.02194269 -0.01580764
0.01558781 -0.00001341
0.00352704 -0.01470231
-0.01589216 -0.00247689
0.00099294 -0.00595195
0.00681329 0.00581623
-0.01449371 0.00977012
-0.01509808 0.00072687
0.03165521 -0.01436998
-0.00807234 0.01833261
-0.00237349 -0.02731375
-0.00391781 0.02307860
-0.01299436 -0.00753579
0.01328826 -0.01060613
-0.01448320 0.01406311
0.01849418 -0.01940453
-0.01460871 -0.00960454
0.02030252 -0.01456793
-0.01233002 0.00839988
0.00948455 -0.00201031
-0.01285646 -0.00415567
0.00744330 -0.01447075
-0.00119885 -0.02127211
-0.01329925 0.01177206
-0.01032205 0.00269962
0.00836617 0.01145784
-0.01131470 -0.00168386
0.00679191 0.00245139
-0.01291509 0.01194677
0.00222805 -0.01355248
-0.00013603 0.00413546
0.01045806 0.00701983
0.02317310 0.00517083
-0.01201109 0.00000106
-0.00785056 0.00006167
-0.00148731 0.00471824
0.00688107 0.00895771
-0.00233845 -0.00177170
-0.00489166 -0.01170934
-0.00199400 0.00771151
-0.00462397 -0.01018420
-0.00233561 0.00604617
0.00737452 -0.00296000
0.00402920 0.00590030
-0.02196225 -0.01198533
0.00423497 -0.00545342
0.00068290 -0.00016376
-0.01152269 -0.00106076
-0.00203109 -0.00082554
0.00577230 0.00530333
0.00950019 -0.02100495
0.00444692 -0.02359397
0.01980938 0.00449465
-0.00263017 0.01248900
-0.00450944 0.00340852
-0.01321573 -0.02282517
-0.00282250 0.00399552
-0.00309963 -0.01149706
0.00264251 -0.00616593
-0.01127377 0.01778208
0.00002512 0.00364530
0.01481200 -0.01079829
-0.00560369 -0.00887107
-0.01118449 -0.00094532
0.01321958 0.00086134
-0.01170657 -0.00733613
-0.02028004 -0.00837118
-0.00761350 0.00071748
0.00489274 -0.00011816
-0.01756047 0.01091937
0.00180157 0.00693844
0.00546852 -0.02425037
-0.00304019 -0.00581381
-0.00623183 0.00849055
-0.02620127 -0.00085988
0.02199495 0.01032689
-0.00147050 -0.00939435
-0.00670369 0.01175301
-0.00644627 -0.00505270
0.01360339 0.00599753
0.01225946 0.02085889
0.00269616 -0.00232730
0.01649959 -0.01367509
-0.00362555 -0.00560033
0.00513742 0.00069602
0.02007230 0.01142428
-0.01363799 0.01366916
0.00210584 0.00115654
0.00592590 0.02633612
-0.03193566 -0.02407186
-0.01220213 -0.01366635
-0.00067788 0.02788279
0.00547212 0.00362257
-0.01550127 0.02915346
0.02013174 -0.02066231
0.00596057 0.01205985
0.01924722 0.00143778
0.00269097 -0.01254414
-0.00466320 0.00296345
-0.01316925 -0.00452651
0.00429886 -0.00066909
0.00397348 -0.00951468
0.01208066 -0.01962672
-0.00782856 0.00390898
-0.00993151 0.01394071
0.00850478 -0.01022396
-0.00666932 -0.00075628
-0.01986708 0.00951024
-0.00320244 -0.00545521
0.01707574 0.00313280
0.01761895 -0.00336266
0.03129412 -0.00662469
0.03167661 0.01616211
-0.01167737 0.01344031
0.00344523 0.01183278
0.01302250 -0.02513873
-0.00342618 -0.01460373
-0.01844826 0.01522075
-0.00274846 -0.01467150
0.01233372 -0.00381719
-0.01548236 0.00121628
0.01571180 -0.00364541
-0.01619990 0.01927341
0.00546472 -0.01977599
0.00790187 -0.03083174
-0.00248014 0.00810407
0.01197667 0.01689642
-0.00509423 0.00670104
0.00694396 -0.00605938
-0.01513404 0.00483293
-0.00190139 0.00921410
-0.01847194 -0.00528732
-0.01460765 0.00589241
-0.01016297 -0.00580098
0.01068341 0.00121611
-0.00021531 -0.00507010
-0.00922403 0.00285480
-0.00858087 -0.00392747
0.00064723 -0.02240428
-0.00828286 -0.01667385
0.01259138 0.01009390
-0.01917247 0.00660848
0.00505872 -0.01368930
-0.01625521 -0.01184034
-0.02172008 0.01318713
-0.01997315 0.01831326
-0.00322275 0.00140703
-0.01372605 -0.00005447
-0.02329990 0.00029011
0.03131670 -0.00343473
0.00821741 -0.00329861
-0.00635225 -0.00243706
0.00555628 -0.02660607
0.00942988 -0.00003599
0.00349721 0.00160574
0.00206528 -0.01850370
-0.01487690 -0.00913952
-0.00540775 -0.00826070
-0.01931320 -0.02136155
0.01354206 -0.00339029
-0.00155437 -0.02825639
-0.00573282 0.01669972
-0.00585581 -0.00165160
-0.00501798 -0.00313949
-0.01666552 -0.01608018
0.01786031 -0.00412308
-0.01340908 0.00127624
0.00175940 0.01089207
0.01849425 -0.01450626
-0.00673248 0.02554248
-0.00677248 -0.03540283
-0.01425816 -0.00762251
-0.01285458 0.01050067
0.00118174 -0.00356609
-0.02937740 0.01493799
0.01005828 -0.01387171
0.01628061 0.00906848
-0.01722262 -0.00857012
-0.01282565 -0.00241315
0.01875980 -0.01979160
0.00965351 -0.02181150
-0.00385696 0.00857631
0.01309146 0.01501020
0.00906243 -0.01157377
-0.00550991 0.02549817
-0.00157186 0.02960956
-0.00404720 0.01132950
-0.00986715 -0.01818072
0.00615118 -0.00404010
0.00322606 0.01745706
-0.03079993 -0.00224527
0.01057891 0.00336278
0.00268641 -0.02924232
0.01173023 -0.00474229
-0.04528086 -0.00885780
0.02151257 0.01093365
0.00454807 -0.01089969
-0.00013444 -0.00709677
-0.02032032 -0.00251984
0.00986641 -0.00881035
-0.01177113 -0.00924344
-0.01786578 0.01597693
-0.00935456 0.01005524
-0.01001635 0.00182662
0.00406741 0.01221813
0.01945076 0.00411748
-0.01481214 -0.00374174
-0.00636994 0.01265432
0.02693264 -0.01811522
0.00501898 -0.00646566
-0.00249372 -0.01667403
-0.01171106 0.00657336
-0.01480097 -0.00461639
-0.01196516 0.00928141
-0.01179927 -0.00703711
0.00625505 -0.01975923
0.00871803 0.00426725
0.01805467 -0.00812862
0.01402070 -0.00611131
0.01753892 -0.02572251
0.00089107 -0.01288035
0.01160481 -0.01591203
-0.00208523 -0.02437514
-0.02488352 0.01461405
-0.01624724 0.00934847
0.00997498 0.02255081
0.01685847 -0.00856651
0.01593219 -0.00622732
-0.00492753 0.03510703
-0.00885077 -0.00802411
-0.00906427 -0.00035248
-0.00087135 0.02330438
0.03616703 -0.00042761
-0.01247308 -0.01770864
-0.00893776 -0.00060914
-0.00275353 0.00147964
-0.01668857 -0.00296163
-0.01806811 -0.00592627
-0.01077172 0.00578224
-0.00910283 -0.01384915
-0.02789695 0.00508484
0.00188910 0.01746691
-0.00355124 0.00714024
-0.01407646 -0.00075243
-0.02345470 0.01781711
-0.00111376 -0.00799308
-0.00750611 0.01365173
-0.00577726 -0.01270440
-0.00029788 -0.00544207
0.01715697 0.00064093
-0.01631173 0.00935649
-0.00768331 -0.01905598
-0.01127249 -0.00376234
-0.00358792 0.00196407
0.00930465 0.00945498
-0.00229706 -0.00260780
-0.00648133 -0.01088482
-0.01265247 0.01251736
0.00701349 0.00695257
-0.01426610 -0.01925218
0.01766543 0.00036067
-0.00699847 0.00490340
-0.00266612 0.01601188
-0.01918921 -0.01741889
0.01651111 -0.00646919
0.00475421 -0.01315642
-0.00160955 0.01358243
0.00223483 0.00549082
0.01456740 0.01780332
0.00021823 0.00008027
-0.01851568 -0.00750861
-0.00054244 -0.01110074
0.01504803 -0.00478621
-0.01939326 -0.01515298
-0.01821772 0.01070290
-0.01984494 -0.00528070
-0.02211103 -0.00301294
0.02504119 0.00642145
-0.00864377 0.00205675
-0.01243726 -0.00882789
-0.01531821 -0.00801725
-0.00287516 -0.00129320
0.00184650 -0.00939290
-0.01535836 0.00577435
0.01957769 -0.00603280
-0.00702299 0.01116000
0.01447474 -0.02741644
-0.01731823 -0.00339025
0.00171067 0.00538707
-0.01509409 0.02020325
-0.01982537 0.00161499
-0.01205795 -0.00301596
-0.01122078 0.01339495
-0.00151836 -0.00160951
-0.00381477 0.00818362
-0.00198488 0.00004199
0.01824352 -0.02074930
-0.00535069 0.00798682
0.00215701 -0.00003511
0.01020940 0.01047138
0.01892801 -0.00226043
0.02351897 -0.00159816
-0.00429343 -0.00331434
0.01289450 -0.00384835
-0.01947031 0.00708995
0.00313533 0.00618870
0.00730176 0.00041074
0.00894405 -0.00177027
-0.01370716 -0.00491032
0.01086181 -0.00259040
-0.00745789 0.02309045
-0.00776687 0.00040739
-0.00414599 -0.00625285
-0.00746417 -0.00204428
-0.00235466 -0.02022015
-0.03325456 0.02782678
0.01162179 -0.00384073
0.00745773 0.02079610
-0.01238035 -0.00031410
-0.00089011 0.00408094
-0.00653614 -0.01613503
0.00527115 0.00881154
-0.00460292 -0.01927473
-0.00190431 -0.00751375
-0.00798855 0.01289637
0.01262116 0.02175866
-0.00085002 0.02269201
0.00019012 0.00444780
-0.00836990 0.00078285
-0.01979203 -0.00191456
0.01306127 -0.01712459
0.02526207 0.01931380
-0.01375017 -0.00703314
-0.01153950 -0.00430374
0.00161961 0.01041520
0.00081742 0.01830735
-0.01665877 -0.01218629
-0.01836619 0.01085414
0.01693774 -0.01720342
0.01244598 -0.01570109
0.00042925 0.01593445
-0.01761195 0.01796681
-0.00212029 0.01463245
-0.00398106 -0.01934185
-0.00266698 -0.02125745
-0.00325943 -0.00801750
0.01450143 -0.00237364
0.00237197 -0.00517493
0.02940025 0.00294814
0.01101661 0.00756503
-0.00768647 0.00504819
0.01783455 0.01321947
0.00226685 0.00894582
-0.00094604 -0.01922542
-0.03142803 -0.00795357
0.02289358 0.00309586
-0.00797041 -0.02096428
-0.00773869 -0.00533595
0.00452061 -0.03097829
-0.00610534 -0.00410428
0.01014407 0.02145814
0.01025102 -0.00220373
-0.00264064 -0.00460429
-0.00137976 -0.01560378
0.00873317 0.01823502
0.00387651 0.02369741
-0.00186867 -0.01703562
-0.02488452 0.01330925
-0.01330231 -0.00769708
0.02063563 -0.00252843
0.00379630 0.00912129
0.01484102 -0.00068424
0.00769054 0.00171028
-0.00867524 -0.01607747
0.00462156 -0.00339280
-0.02056519 0.00614554
-0.00163907 -0.00986864
-0.02443312 0.00279993
0.00839441 -0.00242666
0.00592580 -0.01872636
0.00099331 0.00210893
0.00069228 -0.00817702
0.00817357 -0.00719318
-0.00305703 0.02110237
0.01564582 0.00663196
-0.01749814 -0.01769511
0.01474784 -0.00221961
-0.00006721 -0.01864827
-0.01212184 -0.02293533
0.00598492 -0.00506618
-0.00620984 -0.00564583
0.00716043 -0.02271638
-0.00328037 0.01731224
0.02673083 0.00802956
0.01035243 -0.00981291
-0.01344830 -0.01345778
0.00415605 -0.01494079
-0.00915275 0.00736242
0.00805623 0.02468513
-0.03316435 -0.01830930
-0.00316265 -0.00214599
0.00259350 -0.00443237
0.00599735 0.02682089
0.00774799 0.00520398
-0.00061671 0.00462624
-0.00135341 -0.00683302
0.00379793 -0.00054926
-0.00582416 0.00139454
-0.01781299 -0.01536689
-0.01957900 -0.00875264
0.02428871 0.01322788
-0.01306669 -0.00610259
0.00843315 0.02027695
0.01782924 0.00469496
-0.00538621 -0.00041637
-0.00025602 0.01250595
0.01154428 0.00490976
0.01081549 0.00564890
-0.01528761 0.01080488
0.02851588 0.01270925
0.00380643 0.02307856
-0.00116394 -0.00599694
0.01635720 -0.02589405
-0.00602331 -0.00765773
-0.01970903 -0.01622753
0.01617475 -0.01384993
0.00409950 -0.00546671
-0.00080211 -0.01233497
0.00442560 -0.02635544
0.01993849 0.01138561
-0.00435370 -0.00592556
-0.00683844 -0.00364270
-0.01202883 -0.01431616
-0.01753342 0.00648841
-0.02324589 -0.00270869
0.02004139 -0.02087108
-0.00869363 -0.02069100
-0.00359574 0.00072577
0.00447605 0.00048997
0.01102853 0.03387149
-0.00511616 -0.00561549
0.01325502 -0.01604526
-0.00254500 -0.00351362
-0.02053392 -0.00880718
0.01808999 -0.00917702
-0.00539995 -0.00824664
0.00960725 0.00758160
-0.00279049 0.03512185
0.00694017 -0.01140581
-0.00203641 -0.00993176
-0.00568127 -0.00124129
0.00181894 0.02934062
0.00292545 0.02704748
-0.01251557 -0.01345231
-0.00170678 -0.00505090
0.00279160 0.01793768
-0.01201169 -0.02699532
-0.00542197 0.00274462
-0.03018706 -0.01810306
-0.00739371 -0.02041314
-0.00787847 0.01359969
0.00174727 0.01534816
-0.01072892 0.00463825
0.01275371 -0.01070899
-0.00948346 0.02264862
0.00141146 0.00505191
0.00470363 -0.00889271
-0.00813193 -0.01177951
-0.00688288 0.00290770
-0.01664696 -0.01241366
0.01997479 0.01531599
-0.00568405 -0.00610017
0.00304920 -0.00755314
-0.01100721 -0.00504294
-0.00947202 -0.01997044
-0.00688244 0.02201962
-0.02054117 0.01184980
0.00499833 0.00269229
-0.00611318 -0.00555839
0.02169873 0.01358604
0.01072188 0.00979506
-0.00244317 -0.01635319
0.00651619 -0.00618918
-0.00850534 0.00944316
0.00831264 -0.00710225
-0.00974274 -0.00635919
0.00551701 -0.00205589
-0.02563059 -0.00527769
-0.01012260 0.01066272
-0.00268402 0.01838049
0.01991680 0.00533763
0.00865059 0.00703416
-0.01662918 -0.01097569
-0.00476399 -0.00464683
0.00214001 0.00372319
-0.01391325 0.03434517
0.02436947 0.00283486
0.00249342 -0.00295235
-0.00421680 0.02200618
-0.01410417 0.00314317
-0.00427763 -0.02545718
0.00310558 -0.00908206
-0.01294030 0.00236566
-0.00720174 -0.00281240
0.00584703 0.01498002
0.01025315 -0.00929708
-0.01259660 0.02995020
-0.01962308 -0.00601089
-0.00893572 0.00034755
0.00022234 0.01301214
0.02341401 0.01146467
-0.01303972 0.00303881
-0.00219839 0.01182813
0.00036882 -0.00865969
0.00249630 -0.00092364
-0.00788258 -0.01090491
-0.00215357 -0.00010655
-0.00630374 -0.00726214
0.00597897 -0.00852539
0.00298194 0.00758274
-0.00901270 -0.01119680
-0.00557872 -0.00896147
-0.00197055 -0.00478612
-0.00567603 0.01647098
0.00239986 0.00706587
0.01289970 0.00690336
0.00440366 -0.00743803
0.00009237 0.03334364
-0.00297889 0.00766584
-0.00475370 0.01563966
-0.01044811 0.00362796
-0.00969559 0.01077754
0.01128567 0.00562014
-0.00566359 -0.01453759
-0.00999023 -0.01920035
0.00270154 -0.00091198
0.01041238 0.01939842
-0.00113487 0.00509597
-0.00043637 0.01234996
-0.00611887 0.00394226
-0.01403602 0.00401200
0.02890979 0.03157752
0.00262162 -0.00079034
0.00531176 0.00040232
-0.00660315 0.01689096
-0.01392298 -0.02238047
0.01421764 0.00325910
0.01215365 -0.01597174
0.00505116 0.01201280
-0.00414882 0.00055679
0.02041542 0.01551370
0.01290116 -0.00012985
0.00175435 0.00272215
-0.02135065 0.00594062
-0.01171360 0.01109685
-0.00164108 -0.00607174
-0.01325629 0.00295162
0.01659396 0.00527708
-0.03558001 -0.00122553
0.00259706 0.01514329
-0.01632479 -0.03000793
-0.00403982 -0.01069134
0.00504303 -0.01473847
-0.01171270 0.00524418
-0.01634095 -0.00401960
-0.00761384 -0.00996324
0.01255213 -0.00052503
-0.00473494 0.01468570
-0.02154111 0.00814664
0.00567413 -0.00601866
0.00116425 0.00698313
-0.00816605 0.00464103
-0.00436840 0.01469499
-0.01993285 0.00138866
0.00479087 0.00166616
0.01539997 0.00426893
-0.00348720 0.00389515
-0.01164152 -0.01845432
-0.01919048 0.02254458
0.00124081 0.00570179
-0.00778663 -0.00703961
-0.00656826 -0.00039515
-0.00629321 -0.01233535
0.00881760 -0.02020742
-0.00710792 0.00384461
-0.00731557 0.01271393
0.00158242 0.01824288
-0.00689382 -0.00256892
-0.02280041 0.01442005
-0.01942578 0.00785805
-0.00344847 -0.01094879
-0.01076749 0.00288787
0.00749553 -0.01344143
0.00550397 0.01906168
-0.02287501 -0.00866625
0.02029903 -0.00649152
-0.00818222 -0.00749298
-0.01315293 0.00151994
-0.00146921 0.00424501
-0.00416631 -0.01174257
0.01214465 -0.00758592
0.01559902 0.03031650
-0.00325029 0.01396022
-0.00126106 -0.00508682
-0.00485779 -0.02204933
-0.01298868 -0.01229829
-0.00166641 0.01179537
-0.01287082 -0.00374161
0.00377827 -0.01130166
-0.01222140 0.02426276
-0.01880920 0.00206299
-0.00892418 -0.00262213
0.00242337 0.00880268
-0.00182285 0.01414100
0.01670584 0.00692743
0.00497205 -0.01669912
-0.00639285 0.00217646
-0.03570607 0.00407568
0.00749681 -0.00606298
-0.01682867 0.01444937
-0.01087936 0.02646763
-0.02062932 0.01838546
-0.00206505 -0.00748698
0.01750228 -0.00253338
0.00516609 0.00695883
-0.01050066 -0.00235595
-0.01271805 -0.00498674
-0.01826523 -0.01663744
-0.01880713 -0.01513114
-0.02303368 0.02191379
-0.01864990 -0.01847560
-0.01454372 -0.00611399
0.00438884 0.00680166
-0.00049597 -0.01641686
0.00644985 -0.01078582
-0.02527184 0.01178679
-0.01975179 0.00617333
0.00794813 -0.02458026
0.00802230 0.00250274
0.00059456 -0.01334012
-0.00405030 0.01129474
0.00562114 0.00025765
-0.01990871 0.00931498
-0.00510036 0.01082083
-0.00127295 0.00553830
0.01606571 0.02702898
-0.00365071 0.00650253
0.01070758 0.00676160
0.00305549 0.00425655
0.00682238 0.00139284
-0.02830220 0.02300656
0.00019955 -0.00942153
0.01622990 -0.00153890
0.00977998 0.01804755
0.00849944 0.00104444
-0.00961672 -0.01106333
-0.01196283 -0.01004396
-0.01823497 -0.02212899
0.01033990 0.00318330
0.01575203 0.01681669
0.01259094 0.01808808
0.00079491 0.00084349
-0.01071986 -0.00752400
0.01166720 -0.00172609
0.00081250 0.02105921
-0.00543878 -0.01029037
-0.01505128 0.00373111
-0.00505050 -0.00002715
-0.01564658 -0.01132369
-0.00150865 0.00507689
-0.01680051 -0.00731507
0.00551877 -0.01129380
-0.00106970 0.01093237
0.00695278 0.00719601
-0.01448854 0.00770314
-0.00137014 -0.01731674
0.01626281 0.01048440
0.02574665 0.01015972
0.00698041 -0.00931425
-0.01156883 0.00939939
-0.01252887 -0.00219255
-0.01746663 -0.00013439
-0.02291748 -0.00370775
-0.01067422 0.02103397
0.00883269 -0.01962787
0.00772538 -0.00680786
-0.01186319 -0.00235764
0.01075245 -0.02189464
0.00363468 0.00558413
0.01437485 -0.00399136
-0.00347405 0.01304908
-0.01603215 -0.00253417
0.00203117 0.01034984
-0.01357149 0.01412998
0.00677895 0.03907851
-0.02315073 -0.02640945
0.00086339 -0.01764228
-0.01929256 0.00531359
-0.00240523 0.01704329
-0.00194647 0.01627257
-0.01016567 -0.01550874
-0.01682756 -0.00286178
-0.01298176 -0.00480638
0.00046075 -0.00497555
-0.02251073 0.01238417
0.00041201 -0.00657183
-0.01430056 0.02935503
0.01541613 -0.03881745
0.01124335 0.00891521
-0.02327538 -0.01249116
-0.00570490 0.00841110
0.01197800 -0.00534553
-0.00327969 -0.00572253
-0.00182397 -0.00643680
-0.01280361 -0.01330235
-0.01549613 -0.00715336
-0.00401955 -0.02693711
-0.00259351 0.02602633
0.02613764 -0.01751944
0.01447435 0.00516444
0.01167619 0.00919991
0.02911264 0.01457247
-0.00016169 -0.00916898
0.00912944 -0.01340630
-0.00462892 -0.00913553
0.01607669 -0.00591983
-0.02887772 0.01062555
-0.00461878 0.00799969
0.00358677 0.01451607
-0.00560825 -0.01271624
0.02227064 -0.01026863
0.00451508 0.00629560
-0.00910233 -0.02159573
-0.01181307 -0.00087910
0.00807149 0.00786863
0.00971731 -0.01299316
-0.00133211 -0.00492018
0.00309292 -0.00364587
0.00983052 -0.00754669
0.00749067 0.01946392
-0.00348719 -0.01140632
0.00981560 0.02035377
-0.00846839 -0.03720988
0.00985541 0.00511693
0.00581766 0.00247344
0.02190712 0.00996087
-0.00526252 0.01514289
-0.00203950 -0.00175846
0.00439535 0.01043016
0.01912661 -0.00278220
-0.02046122 -0.01871792
-0.01133487 0.00036771
-0.00848406 0.00341962
-0.00669659 -0.00490427
-0.00206580 0.00958051
0.01654429 0.00117944
0.00627024 -0.00814583
0.00464298 0.02348254
-0.01824805 -0.01477262
0.00185474 -0.00507264
-0.01158838 0.01521221
0.02860516 -0.00788998
-0.01446881 0.01646363
0.00746856 -0.00766631
0.00158252 -0.01184650
-0.00431535 -0.00545193
0.01516207 -0.00766973
-0.00849319 -0.01050295
0.01052924 0.00372394
-0.01667206 0.02081483
0.00385480 0.00585774
0.00159769 -0.00813105
-0.01668181 0.00083456
-0.01208334 -0.00538106
0.01090687 -0.01925586
-0.00184575 -0.02254189
-0.00663110 0.02090949
0.02775458 -0.00855500
0.00104508 0.00368434
0.00355392 -0.00146523
0.00566886 -0.00607315
-0.01447117 -0.00755207
-0.00359942 -0.01371687
-0.00044080 -0.00856960
-0.01245810 -0.00648822
-0.02918739 -0.01050419
0.00442029 0.02154958
-0.01541562 -0.00295802
-0.00435001 -0.01267311
0.02973947 0.01230129
-0.00354868 -0.00113804
0.01495958 0.00252871
-0.00923701 -0.01916584
-0.01173185 0.01760201
-0.01928567 0.01163143
0.00362061 0.00489699
-0.02129116 -0.00555608
0.00254505 -0.00714635
-0.00960442 0.00994485
0.00630502 -0.01856561
0.00432872 0.00738351
0.00925808 -0.01674042
-0.00429828 0.01083801
-0.00729815 0.02438782
-0.00737585 -0.00774148
0.00179303 0.01250787
0.02919199 0.02409794
-0.01804678 -0.00807975
0.02533798 0.02269939
-0.01128689 0.01117845
-0.00767861 0.00247313
0.01152228 0.01254130
0.00434594 -0.00964079
-0.00071334 0.00431176
0.01350994 0.00921006
-0.01828950 -0.00643721
-0.00158691 0.00888679
-0.01187012 -0.03728053
-0.00268280 0.01196342
-0.02075249 -0.01069427
-0.01247296 0.00651872
-0.02885037 0.01623600
-0.01063504 -0.00042989
0.00103588 0.00411755
-0.01151554 0.00604430
-0.00798963 0.00679609
0.01950158 -0.00201624
0.00205333 -0.00246093
0.01772578 -0.00497777
-0.01020767 -0.01433453
-0.00609098 -0.01522492
-0.01228714 -0.00508906
0.01129331 -0.01366587
-0.03212360 -0.00822383
-0.01739242 0.03116911
-0.00948661 -0.01089451
0.00264675 -0.00933399
0.01522397 0.02672458
-0.00092071 -0.00799433
-0.00609517 0.01490933
-0.00204471 0.00529679
0.01158394 -0.01708927
0.00629853 -0.01858352
0.00032774 0.00421997
-0.00569663 0.02753665
0.01782466 -0.01022006
-0.00748595 -0.01000337
-0.00667676 0.01945332
-0.00851527 0.01553344
0.00161150 0.00248966
-0.01134693 0.00034927
0.01304199 -0.01811490
0.00923517 -0.01192551
0.00618364 0.02838727
0.00585073 -0.01857518
-0.02671652 0.00555346
0.01676098 -0.01282396
0.01154340 -0.00174504
-0.02698637 -0.01000553
-0.02599815 0.00550835
0.00503465 -0.00265935
-0.02032992 -0.00304423
0.00058314 0.00077697
-0.00491042 0.01521765
-0.00333826 0.01357664
0.00337320 -0.00857070
0.01661116 -0.00166935
0.00247941 -0.00514185
0.01225145 -0.00850144
-0.01711457 0.02205677
-0.01441878 -0.01399835
-0.00613177 -0.00833443
0.00318019 0.01006572
0.00924301 -0.00638340
-0.00746947 -0.00004696
0.01870214 0.00056509
-0.00390911 0.01157083
-0.01178118 -0.01079971
0.00198793 0.01854641
0.00094951 -0.01883366
0.01175196 0.00744807
0.01593568 -0.01431181
-0.02108494 -0.02963087
-0.00733433 -0.00329727
0.01150945 0.00826866
-0.01392323 -0.01378168
-0.00547257 -0.01597635
-0.00441251 -0.00760247
0.00977152 0.02425775
-0.00208823 -0.01282631
0.02923577 -0.00849537
-0.03573166 0.00231118
0.02711314 0.03149595
0.00794361 -0.00213222
0.03093448 -0.02469228
-0.02029708 0.00934103
-0.00817328 0.00698221
0.01053672 -0.02614291
-0.01597523 -0.00041782
-0.00266665 -0.01934029
0.01110872 0.01646253
0.00817985 0.01372656
-0.00020102 -0.01930767
0.01234330 -0.00906270
-0.01364379 0.00123536
-0.01038350 -0.01357724
-0.00960522 0.00173108
0.00350233 -0.00422787
-0.01050257 0.00487612
-0.02717346 -0.01839961
0.02505418 -0.00460849
-0.03241107 -0.00516282
-0.02509027 -0.00338423
0.01425350 0.00579893
-0.00458525 -0.01250903
-0.00650071 -0.01138002
0.00588365 -0.01556858
-0.00434607 -0.00261654
-0.01576894 0.00864074
0.00545858 -0.03328756
-0.02299264 -0.00979687
-0.01647542 -0.01032196
0.00112125 0.01105987
0.01885583 -0.01154443
-0.00505090 0.00508672
0.00284881 0.01367456
0.00159598 0.02481233
0.00244028 0.00785935
-0.00096792 -0.02565986
-0.00004333 0.00538562
0.00351319 0.01450558
-0.00826186 -0.00587564
-0.01828633 0.01151408
-0.01210846 -0.01484666
-0.00816701 -0.00135847
-0.00028302 -0.03657240
0.00337068 0.00424747
0.00173212 -0.01004814
0.00639877 0.00437582
-0.00444442 0.00212280
0.00689348 -0.01277122
0.00974178 -0.00245817
0.00766175 0.02312994
-0.00072508 0.00152702
0.01674904 -0.01416159
-0.01226197 -0.00731868
-0.00902701 -0.00468526
-0.01421255 0.00552197
-0.00906070 0.00447628
-0.00786690 -0.00529779
-0.00025393 -0.00160409
-0.00481066 0.00572192
0.01081034 -0.02094688
-0.01896366 0.00044351
0.01275350 -0.00803056
0.01854166 -0.01180700
-0.00688721 0.01135662
-0.01826401 0.01220943
0.00968740 0.01444227
-0.01151336 -0.00457592
-0.01596495 0.01478497
0.00543761 -0.00011109
0.00860086 0.00844173
-0.01448453 0.00889249
0.00889044 0.01078782
0.01673548 -0.00690684
-0.00041800 0.00247813
-0.00606921 0.01668718
-0.03188526 -0.00095572
-0.02030819 -0.01321274
0.03324283 0.00964544
-0.01623451 0.01083896
-0.00748478 0.02128400
-0.01960767 0.00148849
-0.01282228 -0.01981781
0.00599013 -0.00266362
-0.00399429 -0.01655878
-0.00594003 -0.00994658
-0.00265210 -0.00368874
0.00344763 -0.02353872
0.00426344 -0.01071816
-0.01135226 0.01853690
0.00443525 -0.01039485
-0.00016118 0.01377395
0.00289446 0.01694467
0.02349310 -0.01439081
-0.00834878 0.02162279
-0.01229373 0.00794404
-0.00848806 -0.00264968
-0.00439994 0.00293626
0.00238852 -0.00261074
0.00591358 -0.00768809
-0.01763334 0.01175337
-0.00308671 -0.02373067
-0.01356687 -0.01084380
0.02650530 -0.00051065
-0.00138603 -0.00659041
-0.00906892 0.02508297
0.00114129 0.01217776
0.00116448 0.00783382
0.01101745 0.01125332
-0.00770947 -0.00750202
0.01266458 0.00919962
-0.01619109 -0.03179643
-0.02697596 -0.00887392
0.01651739 -0.01831433
-0.00816201 -0.00480373
-0.00008531 0.00547024
-0.01015316 0.00334081
0.00724947 0.00667816
0.00091023 0.00126863
-0.00086841 0.01390962
-0.00698138 -0.01912129
0.00789869 0.00217085
0.01268645 0.00371272
0.02642902 0.00748941
0.00336602 -0.02597363
-0.00694136 -0.00375752
-0.00438433 0.00741180
0.00782446 -0.00844215
0.02207414 -0.00165524
-0.00200415 0.01962147
0.01058304 -0.02000294
-0.00423774 -0.02644039
0.00233927 0.00954675
0.00471237 0.01975534
-0.02045206 0.01314456
0.00044114 0.01427675
-0.00013973 0.01105152
-0.00052699 -0.00457274
-0.01810338 0.00008354
-0.00595584 -0.00655689
0.01038811 0.00566260
-0.02404040 0.01645408
-0.02480814 -0.00889747
0.01972269 -0.01766976
0.00972049 0.00271753
-0.00536989 -0.01332287
-0.01196699 -0.00024577
0.04129968 0.01403740
-0.00820616 -0.00736435
-0.01045787 0.03265398
-0.00291448 -0.01056412
-0.01016194 0.00392650
-0.00017191 0.01295613
0.02473959 0.02529301
-0.00472429 -0.01724302
0.02198023 -0.00119169
-0.01452236 -0.02972580
0.02275019 -0.00639468
-0.01081830 0.00466894
0.01751957 -0.00480279
0.02031412 0.00189022
0.00408658 0.01307923
-0.00158181 -0.00468123
-0.01902539 0.00257015
-0.00833173 -0.00157585
0.02577471 0.00113463
-0.00512768 -0.01995294
0.00276380 -0.01033017
0.01107132 0.00307946
0.00594370 -0.03139040
-0.00123836 0.00517827
0.00541917 0.01053165
0.01287746 -0.00420379
0.02131124 -0.01413968
0.00956323 0.01945968
-0.02606828 -0.01554912
0.01117028 -0.00175753
0.00968139 -0.00100384
0.00441077 0.00558876
-0.02679127 0.01197556
-0.00793979 0.01280644
-0.00574931 0.00330219
0.01972038 -0.02561269
-0.00034168 -0.00469441
0.01484931 0.01823934
0.00518442 -0.00718698
-0.00986972 -0.00877638
0.00276360 0.01663042
-0.01392125 0.01328497
0.00688221 0.00655601
-0.00262479 -0.03600459
0.00415823 -0.00356116
-0.00318796 0.01901018
0.04368689 0.00601054
-0.00424376 -0.00279795
0.00383657 -0.01527023
-0.00232383 -0.00282446
-0.01154054 -0.00767764
-0.01444850 0.00286088
0.01933310 -0.01388257
0.00546910 -0.01554196
-0.00015977 -0.02052041
0.00361232 0.01287278
0.00504466 -0.01203932
-0.01117166 -0.01396627
-0.01450943 -0.00372658
0.00247382 0.00297937
-0.00263415 -0.00999660
-0.00076960 -0.00948253
-0.01485816 0.01579865
-0.00108830 0.01158477
0.01905739 -0.00918854
-0.00904118 -0.02228362
0.02683780 -0.02509597
0.00459677 -0.00168593
-0.00885896 -0.00925701
-0.02569601 0.00568703
0.03094027 -0.00300445
-0.02273136 -0.00391557
-0.02001486 0.00084353
-0.02448410 0.03080022
0.01651123 -0.00818420
-0.00806632 -0.01315431
0.01239102 0.02202295
0.00215584 -0.03133202
0.00669315 -0.00574357
0.02419595 -0.01575477
-0.02418747 0.00055170
-0.01186092 -0.00419782
0.02641756 0.02452052
0.01038365 -0.02912874
-0.01484387 0.01103319
0.01355364 0.01045926
-0.00772985 0.00601906
0.00122438 0.02117598
0.01473509 -0.00131616
0.00087395 -0.01389669
-0.00395881 0.00492506
-0.01048608 -0.00444307
-0.01095088 -0.01397693
-0.03573777 -0.00019584
0.01012329 0.01912832
-0.01012027 0.02112293
0.00942184 -0.01555718
0.03008397 0.00020532
-0.00316961 0.01806923
0.00909305 -0.00112924
-0.00967384 0.01460090
-0.00598723 -0.00637258
0.00289317 0.02477038
-0.00133390 0.01410389
-0.00937975 0.00580202
-0.00472341 -0.01544191
0.01565203 -0.00924103
-0.00505102 -0.02789862
0.00666836 0.00599585
-0.01329276 -0.00495867
-0.00896768 -0.00248852
0.02527072 -0.00153460
-0.00657814 -0.01646804
0.01360079 0.02869081
-0.00970336 -0.01272098
-0.00686794 -0.00570851
-0.00288809 -0.01412394
-0.01022948 0.00083950
-0.00823242 0.01068987
-0.00298935 0.00226373
0.00266945 0.00284645
-0.01061856 -0.00577824
-0.02727275 0.03235845
0.00840070 -0.00530361
-0.00711169 -0.00265942
-0.00243753 0.02474551
-0.01866846 -0.02405887
-0.01588231 0.00710216
-0.00997462 0.03369621
-0.01202430 -0.00939186
0.01184621 0.00966341
0.00179186 0.01253299
-0.01812495 0.00933343
0.02108385 0.01104223
-0.01079408 0.02051174
-0.02354248 -0.00010395
-0.00920994 0.01100312
-0.01489447 -0.01459188
-0.01479416 -0.02249212
0.00057481 -0.03111346
0.00502055 0.02619697
-0.03511272 -0.01806423
0.00410332 0.01869151
-0.00617617 0.00642628
-0.00602200 0.01123247
-0.02237200 -0.02142673
-0.01219747 -0.03398453
0.00975134 0.01706221
-0.00697406 0.01304828
0.00256832 -0.00641121
0.00599694 -0.00249300
0.00237627 0.00956552
0.00504109 -0.01743455
0.00070438 0.01641407
-0.00866857 0.00644947
0.00475171 0.00370654
0.00025675 0.01114483
-0.01293010 0.01682491
0.00202573 -0.02505490
-0.00035307 -0.01085267
0.00917892 -0.01433046
-0.01250942 -0.00211352
-0.00858552 0.00911079
0.02116876 0.00759454
-0.01097023 -0.02198965
0.00374257 0.01569429
-0.01294237 -0.00026657
-0.00843993 -0.00910457
-0.00060105 -0.01917274
0.00430401 0.00831099
-0.00082319 -0.02216588
0.01732792 0.00903022
-0.01439988 0.01238001
0.01139093 -0.01367678
0.01961723 0.02083700
-0.00797345 0.00448712
-0.00838935 -0.00123395
0.00144112 0.01879383
-0.01307086 -0.01893741
0.01566601 -0.00730796
-0.01544679 0.01353184
0.02066197 0.03344304
0.01493174 -0.01243246
0.01027855 -0.00630804
-0.00294868 -0.01133084
-0.01600548 -0.02715579
0.00026397 0.02170703
0.00173327 -0.00914570
-0.00063054 0.02023883
0.00535859 -0.03338822
-0.03103091 -0.00084583
-0.00853000 0.00581179
-0.01357673 0.01311281
-0.00964058 -0.00885888
0.00060625 -0.01370251
0.00138392 -0.02545382
0.04211199 0.00770352
0.00455746 0.00897465
-0.00767255 0.00639768
-0.02115416 0.03164302
0.02384607 0.01985961
-0.00573003 0.00189341
-0.02005400 -0.01288640
-0.02732016 -0.00078469
0.00628686 0.01838094
0.00241768 0.04319964
0.00539782 -0.00073846
-0.00953795 -0.00942058
-0.01459158 0.00124484
0.01706732 0.00448831
0.03088387 0.01037482
-0.02710428 0.01939665
-0.02237701 0.01459634
-0.00682125 -0.01573941
-0.00695960 0.00005928
0.02003256 0.00376090
0.00999507 0.00974713
0.00579021 -0.03517270
0.00370824 -0.01106776
-0.00037755 -0.02751893
-0.00717278 -0.00267627
-0.00607907 0.00583321
-0.00255931 -0.00562353
0.01917776 -0.01090350
0.00133656 -0.01603438
0.01129204 -0.01189604
0.00697395 -0.00677323
-0.01628781 0.00898715
-0.01144688 -0.01796714
-0.00068379 -0.02085194
0.00997769 0.03024274
0.00264376 0.00450285
0.00190977 0.01523080
-0.01331360 -0.02271671
-0.00747696 -0.00573128
-0.00988734 -0.00714804
-0.01425367 -0.00727870
-0.01418380 0.00287328
-0.01079311 -0.02104988
0.00135168 -0.01879434
0.00974595 -0.00753509
-0.00587378 -0.00974326
0.00899275 0.01071536
-0.00812586 -0.01454659
0.00433291 0.02274446
-0.00045591 0.00408143
0.02282156 -0.01846099
0.02105575 -0.01043446
-0.03478280 -0.01006757
0.01843812 0.00531184
-0.01885049 -0.00468036
0.01311472 0.01902819
-0.00396697 0.00191342
-0.02135332 -0.02282281
0.00142928 0.00088149
0.01011546 0.00361219
-0.00033860 -0.00421820
0.00155603 -0.01037677
-0.00264652 0.02430923
0.00078289 0.00959021
-0.00044067 -0.00345257
0.00071153 0.00365316
-0.01260875 0.00061798
-0.00825433 0.01657060
-0.01258702 -0.02398826
-0.01348571 -0.01358789
0.00097655 0.03413919
0.02398734 -0.01109854
-0.00520410 -0.00076485
0.01305050 0.02822831
-0.03328340 0.01800332
0.02896862 -0.00181514
0.00893779 0.00761888
-0.00790818 -0.01467241
-0.00705685 0.02246827
-0.00307784 0.01563374
-0.01552113 0.00446256
0.00669229 -0.00691584
0.00123845 0.01723097
0.02448767 0.00845394
-0.00598714 -0.01899397
-0.04221497 0.00131408
0.00551267 -0.00476637
0.02152843 -0.00688694
-0.00766599 -0.00218075
-0.00702643 0.00619665
0.00161171 -0.01104900
-0.00219749 -0.01214835
-0.00734819 0.00137641
0.01628317 -0.01962948
-0.01008949 -0.01194820
0.00078548 -0.00984249
0.00353676 -0.00798423
0.00320131 -0.00552993
-0.02090236 -0.01842152
-0.00798996 0.00874536
-0.00209020 -0.01325509
-0.00358646 -0.00534862
0.00332418 -0.01740077
-0.00515241 -0.00048381
-0.00629371 0.02764330
0.01088739 0.00888667
0.01024778 -0.00006257
0.00035259 0.00359226
-0.02485009 0.00676582
0.00626172 0.03590889
0.01466407 -0.02664110
-0.02422864 -0.00963675
0.01837636 0.01273362
-0.00974685 -0.03597848
0.01383529 0.02773909
0.00282301 0.00990271
0.00755274 -0.01329641
-0.00280916 -0.01823589
-0.00030458 -0.00647829
0.01829385 0.00547411
-0.01108190 -0.00078651
-0.01423529 0.00314168
-0.00126371 0.01492294
-0.00465741 -0.00961310
-0.00612029 0.01033356
-0.00208804 0.00089589
0.01655284 -0.00165061
-0.00896056 0.00202602
0.00057669 -0.01438306
0.01119104 0.01833627
-0.02987988 -0.00757405
-0.01879270 0.01400592
-0.00084884 -0.01932721
0.00028801 -0.00126843
-0.00278163 0.01131073
0.02156228 0.01254541
0.02050931 -0.02001472
-0.00382157 -0.01882706
-0.00588459 -0.00547218
0.00562711 -0.00427384
0.00333577 0.00143866
0.00633726 0.00411355
-0.00529066 -0.01796870
0.00498809 -0.00726047
0.01395482 -0.01846978
-0.00332552 -0.00099659
-0.00264756 0.00389671
0.00535653 -0.02246074
0.01275456 0.01157951
-0.01096792 -0.00558882
-0.01177792 0.01302922
0.00376568 0.00214020
0.00276315 -0.01994700
-0.00876515 -0.00253553
0.00696141 0.01354820
0.01020680 -0.00597616
-0.00787145 0.01840771
-0.01150279 -0.03436783
-0.00411604 -0.01400597
0.01958450 0.00626584
0.00936710 -0.00327238
0.01366111 -0.03085429
0.00866118 -0.01850994
-0.00006241 -0.01836892
-0.00744944 0.00577506
0.02941894 0.03545794
0.00656419 -0.01696198
-0.00342099 0.03036243
-0.00425494 -0.00394503
-0.00935118 -0.01009435
-0.00747088 0.00732807
-0.00120231 -0.00443167
0.00211469 -0.00433191
0.00278441 -0.02993096
0.02022346 -0.00311966
0.01336681 -0.02012174
-0.01246147 0.01228953
-0.00551590 -0.00272538
0.00091823 -0.02116845
0.01696580 -0.00659661
-0.01528035 -0.00780217
0.00924359 -0.01327007
-0.01203111 0.01015761
0.01956165 0.00090730
0.00875622 -0.01349124
-0.00252665 -0.01200002
0.02533491 -0.00892833
-0.00570780 -0.00962883
-0.01873781 -0.01800221
-0.02438822 0.00857626
0.01913559 0.01200629
-0.00975568 0.00016580
0.01243535 0.01128838
0.00569091 -0.00172855
-0.00259982 0.00227783
0.01806495 0.00046508
0.00247599 -0.01988688
0.00537773 -0.02234027
-0.00042483 0.01848349
-0.01408382 -0.01608389
0.01567722 -0.00734047
-0.02590164 -0.02301864
-0.00638116 0.00854458
0.00758452 -0.01337912
-0.00840924 -0.00667131
-0.00535628 -0.00088606
-0.00221192 -0.00030397
0.02060076 -0.00832020
0.01818595 0.00030186
-0.00172478 0.01167861
0.00915339 0.00650207
0.02476411 0.00569194
0.01229648 -0.02017589
0.02143260 -0.01426834
-0.00444195 -0.01513404
0.00280502 0.01277974
-0.01821993 0.00201727
0.01167729 -0.01090913
-0.00271330 -0.00725756
0.01310920 0.03635387
0.00642458 0.00414867
0.00770217 0.00177409
-0.00779310 -0.02073642
-0.00490982 -0.00738079
0.00024722 0.02233538
0.01206322 0.00516348
0.01655143 -0.01372532
-0.01568239 -0.00627575
0.00321109 -0.01936986
-0.01995854 0.01400070
0.01070639 -0.00374242
0.00794892 0.00609046
0.01154754 -0.01207093
0.00262954 -0.02640250
0.00656941 0.01627616
0.02286951 0.01965889
0.01459107 0.00840283
-0.03800658 0.01096033
-0.00642370 -0.02711970
0.00720606 0.00415995
0.00373993 -0.00806265
-0.00167965 -0.00382692
-0.02178692 0.01189585
0.00073929 -0.02255179
-0.00250463 0.00511674
0.00125964 -0.00602715
0.00333233 0.01032567
-0.01071796 -0.01491724
-0.02116564 0.00916418
0.00686491 0.02060023
0.00743610 0.00447720
0.01660792 0.00241883
-0.00420126 -0.00071396
0.00225502 -0.02353327
-0.00157182 0.00140321
-0.01584447 0.00642527
-0.00589713 -0.02286045
-0.01705140 0.01050416
0.00287799 -0.00578711
0.00237247 0.00883268
0.01073315 0.01804907
0.01597301 -0.01809451
0.02428073 -0.00946173
-0.01094140 0.01791529
0.00791844 -0.00727240
-0.01316010 0.00459357
0.03589724 -0.00642224
-0.00653709 0.00461882
0.00574245 0.00932498
0.00768267 -0.01679167
-0.00444064 0.01993247
0.02674821 -0.01161766
-0.01308013 0.01733921
-0.02727120 -0.00160890
-0.01828987 -0.00663540
0.01361980 -0.00464780
0.00509168 0.00757185
-0.00371836 -0.01150856
-0.00818864 -0.00575218
0.00262743 -0.00982173
0.00752347 -0.00252508
0.02352570 -0.01362160
-0.01499257 -0.01923749
-0.01346411 0.00450665
0.00440024 -0.00953432
0.03273436 -0.00260253
0.00731568 -0.00081128
0.01959334 -0.01056184
0.00630007 -0.01556748
-0.00087764 -0.01588424
-0.01381648 -0.01161912
-0.01936529 -0.00097606
0.01394808 0.00350444
0.00938060 0.00853372
0.00632153 0.00691915
-0.00710744 0.01729345
0.01106602 -0.04114486
-0.00863322 0.01039789
-0.02225273 -0.01304103
-0.00034156 -0.01656816
-0.00875743 -0.00746544
-0.01107345 0.02288948
-0.01132890 -0.00794608
-0.01318361 -0.00441369
-0.02033930 0.02024220
0.00506473 0.00269843
-0.02279714 0.03923682
-0.01028575 -0.00403866
-0.00508032 -0.01119313
0.00739781 0.00503709
0.01150094 -0.00606765
0.00882753 -0.00927783
0.00452292 0.00015498
-0.00007880 0.01840923
-0.00917480 -0.00006394
-0.00479651 0.00141336
0.00552794 0.02681802
0.02472932 0.01347103
-0.01172021 -0.00429304
0.00271230 -0.00393038
0.00804542 -0.01129351
-0.00751224 0.02425744
-0.02904187 0.01259569
-0.00114658 0.00781941
-0.01654897 -0.00498551
-0.01577782 -0.00187477
-0.00114414 0.02296248
-0.00229122 -0.00832831
-0.01971920 0.02941689
-0.00892533 0.01357970
-0.03388851 0.00275050
-0.00135736 0.00243231
0.01988548 0.00908989
-0.01524138 -0.01540377
0.00589012 -0.00949681
0.01846662 -0.00896711
0.00189568 0.01031091
-0.00989136 0.01330771
-0.00487553 0.01437826
0.00146163 0.01239803
-0.00974542 0.00703312
-0.02006388 0.01146408
-0.01313084 0.02358250
0.00012149 0.00663989
0.01860289 -0.00113772
-0.02059549 0.02038198
0.00915319 -0.00464986
0.02216522 0.02221758
-0.02673715 -0.00312836
-0.00702010 -0.01276405
-0.00488965 -0.03009848
0.01239255 -0.00299910
-0.00460528 -0.01258358
-0.02164035 0.00580146
-0.00161098 -0.00746974
-0.00756082 0.02998216
-0.02087219 0.03588658
-0.01127301 -0.02466406
0.01777484 0.00913858
-0.01152626 0.00681070
0.02459319 0.00674563
-0.00989763 0.00798539
0.01113784 0.01082124
0.01371241 -0.02411271
-0.02447849 -0.00033693
-0.01123480 -0.00367140
-0.00661597 0.00532223
-0.00429090 -0.00989044
0.00169664 -0.00413778
0.00213627 0.01601923
-0.00812314 -0.00088507
-0.00788307 -0.00900536
-0.01396907 0.02201029
-0.01771089 -0.00965349
0.01981190 -0.00683091
-0.00593554 0.00033540
-0.01426638 -0.00621558
0.00315294 -0.02135174
-0.02292100 -0.00547274
-0.01768717 0.01509189
0.01225226 0.00187655
-0.01549129 -0.01108215
-0.00167236 0.00021708
-0.01647693 -0.02082016
-0.00287564 -0.00094066
-0.00792416 -0.02298259
0.00048732 0.01177430
-0.00004932 -0.00398895
0.00562842 -0.00563424
-0.03744164 -0.00861868
-0.01242528 -0.01013080
0.01934381 0.00790705
0.01280218 -0.02000811
-0.01448890 0.00462756
-0.00304969 -0.00037880
-0.00068599 0.02214340
-0.01028876 0.00022276
-0.00587031 0.00541524
0.00265153 0.00723210
0.00347882 -0.00181313
-0.00198396 -0.02247670
0.00085330 -0.00942656
-0.01173138 -0.01956854
0.00223520 0.00500777
-0.01023082 -0.01094115
-0.00321993 -0.02668170
0.01787143 0.00465706
-0.02028813 -0.00903559
-0.01231494 0.00518199
-0.01855421 -0.02605881
-0.00203227 -0.01638972
0.01179581 -0.01603938
0.00274090 -0.01480774
-0.02736591 0.00221178
-0.00625768 0.00540931
0.01136802 -0.01549433
0.00974124 -0.00520177
0.01062935 0.01268599
-0.02999059 0.01906552
-0.00689742 0.00261496
-0.00420723 0.00676552
0.00659954 -0.02448845
-0.00150571 0.02208235
-0.01284982 0.01703529
0.01877435 -0.00924409
0.00266729 0.00520625
0.01277204 0.00383259
0.01674338 -0.01262652
-0.01272640 0.00292704
0.01278526 -0.00748546
0.00394073 0.01251217
0.01427895 0.04183948
-0.00534118 0.00806272
0.01615191 0.01057324
-0.01202285 -0.01951570
0.00261464 0.00919961
0.01437261 -0.02093482
-0.00981044 0.00211208
0.00606459 -0.00996115
0.00994115 -0.02138149
-0.00248617 -0.00785807
-0.01437643 -0.01903507
-0.01067069 -0.00765397
-0.00895070 -0.02134306
-0.01567268 -0.00795210
-0.01398071 0.00801602
-0.02850596 -0.00878697
-0.01060246 0.00761324
-0.00865495 0.00303789
-0.00132566 0.00831395
0.01273429 -0.00336238
-0.00238488 0.01715469
-0.01365310 -0.01187291
-0.00353161 -0.00155823
-0.00800971 0.01852934
0.01658371 0.00446981
-0.01022189 0.00090956
-0.01111339 -0.00233076
-0.01938275 -0.00537294
0.00070401 0.01833607
0.00236596 0.00680244
-0.00130281 0.02210953
-0.02602206 0.00206055
-0.00818356 -0.01100286
0.01038785 0.00030837
-0.00346093 0.00278229
-0.00035252 -0.00784733
-0.00678376 0.01855220
0.01456612 0.02516543
0.02152239 -0.00637277
-0.01024003 -0.02249103
0.00109469 -0.00587289
0.00525891 0.00528860
-0.00528518 0.00391102
0.01543307 0.00575048
-0.00493685 -0.00714892
-0.00048966 0.00936165
-0.01400942 -0.00717504
0.01284253 0.01069281
-0.01039357 -0.00863680
0.01785583 -0.01683706
-0.00092607 0.00617471
-0.02299911 -0.00655140
-0.01661032 0.00739605
0.01433303 0.01391212
-0.00587129 0.00736636
0.01280179 -0.02386233
-0.00024771 0.00469423
-0.00052626 0.02098895
-0.00121184 0.00403162
-0.00600855 -0.00580278
-0.00799515 0.01982918
-0.00401249 0.01343504
-0.00276471 -0.00724196
-0.00545414 0.00951851
-0.01290599 -0.01569902
-0.00868930 -0.01405550
-0.00783659 -0.00202323
-0.01248336 0.02101819
-0.01592592 -0.01289876
0.00804494 -0.00200973
-0.02032834 0.00166112
-0.02455731 0.00150303
0.00167103 -0.00420771
0.00458700 0.01773716
-0.00010551 -0.01071694
0.01522863 -0.00515529
0.01965533 -0.00081196
-0.02036628 0.01987880
0.00457911 -0.00946395
0.01041051 0.00357593
0.00162184 0.00896444
0.01179946 0.01324026
-0.02238867 0.01797937
0.00606160 -0.01144439
0.00701525 0.01960435
0.00820949 0.01759436
-0.00000261 -0.01982655
0.00072779 -0.00819097
0.00318482 -0.01408768
-0.00426215 0.01816925
-0.00217406 -0.00196665
-0.00189356 -0.01043823
-0.00588366 0.00184656
-0.00044446 -0.00152047
0.00924561 -0.00686703
0.00412111 -0.01177995
0.01247210 -0.01593075
-0.00090898 0.02059311
0.01069243 -0.01624327
0.02227047 0.00195532
-0.00564280 0.01582818
-0.00506111 0.00577458
0.01303914 0.01618911
0.01689736 0.00731928
-0.01467608 -0.00260765
-0.01594643 0.00833063
-0.01562849 -0.00392961
-0.01100213 -0.00041851
-0.01159691 -0.00928352
-0.00446261 -0.00955069
0.02008300 -0.01513804
-0.00256186 0.00702119
0.00112405 -0.00653351
0.00017432 -0.01490754
0.00894795 0.01823140
-0.01349623 -0.02184046
0.00504827 0.01613531
0.00602056 -0.00860717
-0.01296374 0.01707798
-0.01447353 0.00297547
0.00374063 -0.00084649
-0.00045238 0.00480046
-0.00877893 0.00234829
-0.00872423 0.00354040
0.00664377 0.00568704
0.00897981 0.00696461
0.01218148 0.00060373
0.02222936 0.00593526
-0.01037636 -0.00126716
-0.01509828 -0.00032805
0.01058802 -0.00147124
-0.00615896 -0.00666022
-0.00998100 0.00003001
0.00323335 0.01005668
0.01326999 0.01377879
-0.00080411 -0.01526210
-0.00235508 0.00032401
0.01102297 0.04136649
-0.00251256 -0.00278859
0.00878207 0.01357706
0.00226505 0.00799215
-0.00832511 -0.01359490
0.00711691 0.01400208
0.00001447 0.00696332
-0.01257253 0.00124888
0.00416348 -0.03571697
-0.00329488 -0.00414256
0.02072789 -0.01215234
-0.01275822 -0.00288714
-0.00659495 -0.00890811
-0.00348848 0.01689714
0.01975852 0.01452963
0.02021929 0.02128164
0.01223276 0.00641087
-0.00423108 -0.01273478
-0.00477237 0.00486309
-0.01419506 -0.00776895
-0.00533157 0.02334770
0.00803078 -0.01467890
-0.01248911 0.02457574
-0.01190590 -0.02505415
-0.00361262 -0.00620570
-0.02269056 0.02331112
0.02930803 -0.01122079
0.00965632 -0.01184990
0.01590746 0.00904222
0.01020787 0.00584102
-0.00726329 0.00459526
-0.01750604 -0.00719327
-0.01237971 -0.01838079
0.00450802 -0.00166329
0.01319916 -0.00689997
0.00281488 -0.01123358
0.01448697 -0.01102171
0.00988470 -0.01628749
0.00537866 -0.01325224
0.00515538 -0.01604247
0.00048608 -0.01305164
0.00176557 0.01124261
-0.01552975 0.00719345
0.00137081 -0.00210591
0.01110835 0.00614273
0.00054323 0.02118050
-0.01536447 0.00996942
-0.00142790 -0.01122481
-0.00384459 0.00124243
0.00713261 -0.00283494
0.01308310 -0.01336544
0.00041165 -0.00794864
0.00087031 0.00165841
-0.00235326 -0.01152532
0.00147357 -0.01928719
-0.00357083 -0.00278774
-0.00908942 0.00082099
-0.01554487 -0.01264150
-0.00694618 -0.00774464
-0.01152982 0.01918230
-0.00059374 0.00426120
-0.00308624 0.01847526
-0.00941377 0.01761495
-0.02056588 -0.01709885
0.00032419 -0.00082591
0.01860325 -0.01775814
0.01557348 -0.00216696
-0.00081757 -0.00415902
-0.00395910 0.01137639
-0.01894742 0.00012276
0.01853139 -0.00671425
-0.00351696 -0.01100302
-0.00199123 0.01519960
-0.01991957 -0.02400524
-0.02597268 0.00675726
0.00850098 0.00026316
0.00823636 0.00720478
0.01615044 -0.00392720
0.01206366 -0.00905622
-0.00321427 0.00354952
-0.01331798 0.00172986
-0.00095118 -0.01581124
0.01087398 0.00919380
-0.00736593 -0.01955240
-0.00180900 0.02755156
0.01885294 -0.00001577
-0.02031545 -0.03252710
-0.00640038 -0.00397004
-0.00823965 -0.00570682
0.00757708 0.00431104
-0.00882013 0.01259131
-0.00113136 0.02161043
-0.01363481 -0.00872600
-0.00245271 0.01037879
0.00154435 0.02180913
0.00704253 -0.00623487
-0.00188426 0.01208894
-0.00329054 0.01782106
0.00421296 -0.00618360
0.01634539 -0.01198532
-0.00553922 -0.00632760
-0.00813812 -0.03589829
0.01867360 0.00895944
0.01202895 -0.00127017
0.01856447 -0.00308493
-0.01467707 -0.01815052
-0.00928632 0.00863129
-0.01124825 -0.00976088
0.00489225 0.00507722
-0.00110341 -0.02488172
-0.00131074 0.01114078
0.00165886 0.01879870
-0.00674739 -0.00660618
-0.01438944 -0.01417821
0.00459123 0.00686667
0.01816292 0.00191173
0.01133789 0.00529388
0.02051092 -0.01413480
-0.01948220 -0.01300005
-0.00057878 -0.00854432
0.00454085 0.03389481
0.00215010 -0.02477152
0.01153955 0.00478032
0.00456975 0.01314630
-0.00004022 -0.02967050
0.00216310 0.01324778
-0.01392179 -0.00943592
-0.00464461 0.01095176
0.00007528 -0.00108910
-0.00410024 -0.00135353
-0.00792756 -0.00076422
-0.02089688 -0.03307443
0.00242654 -0.00478110
0.00353973 -0.01091160
0.00313584 -0.00723290
0.00286355 0.01108913
0.00212827 0.00921214
-0.00437926 -0.00006111
-0.00826894 0.00874316
-0.01481079 0.02516039
-0.01362414 -0.00559763
0.00018935 0.00203561
-0.00359814 0.01025852
-0.02682145 0.02570402
0.00589557 0.01161819
-0.00553671 -0.00025645
0.01013180 0.00514268
0.00383171 0.00339573
0.00078320 -0.00730229
0.00198741 -0.00935748
0.00327189 0.00961468
-0.02237141 0.01855790
0.00158095 -0.00103140
0.01032166 -0.00498829
0.01372888 -0.00808395
0.01328677 0.00129750
0.01346761 -0.00534076
-0.01551231 -0.00346351
-0.01834681 0.00273118
0.00355455 -0.04510741
0.03394351 0.00382258
-0.01262750 0.00822361
0.00073906 -0.01395840
-0.00349388 0.00975703
-0.01814752 0.02031781
0.00658175 0.00477703
0.00148656 0.00299595
-0.00120006 -0.00281962
-0.01554809 -0.00487039
-0.00551435 0.01895738
-0.00583094 -0.00828664
0.00170463 0.00030016
0.01499048 -0.00725423
0.01596744 -0.00864262
0.00138502 -0.03705881
0.01351310 -0.00137885
0.01789453 0.00107275
0.01284243 -0.00529497
-0.00446739 0.02539958
0.01535628 -0.00157196
0.00693075 -0.00237277
0.02288373 0.00152656
0.00087256 0.01867485
-0.01338192 -0.00793893
0.00769241 0.01503485
0.02165089 0.01872512
-0.00522418 -0.00980335
0.01474052 -0.01516172
0.00015757 -0.01083961
0.00080297 0.01077900
-0.00190742 -0.00851017
0.00854583 0.01787376
-0.02281209 0.00131227
0.01012848 0.00021684
0.00485055 -0.00453241
-0.00030549 -0.01646721
0.00378487 0.00087956
-0.00684352 0.00056647
0.00225736 0.01891919
-0.01837953 -0.01735818
0.01228458 0.01632121
-0.00624782 0.00280297
0.02129705 -0.00696835
0.02314981 -0.00915493
-0.00483826 -0.00870760
-0.01491268 -0.00290257
0.00743772 -0.00028041
-0.00159288 -0.00692519
-0.00576916 -0.01324837
-0.00631566 -0.00157066
0.00536118 0.00402811
0.02576084 0.00631871
0.00139539 0.00692411
0.00203901 0.01094525
0.01326088 0.00347091
-0.00109283 -0.00700467
-0.02017243 -0.01535445
-0.01397643 0.01206450
-0.00193852 0.00087190
0.00435538 0.00753086
0.01397461 0.01113530
-0.00929544 -0.01992961
-0.01421311 -0.00582589
-0.01689798 -0.00679259
-0.00904368 -0.00254450
-0.00375876 -0.00631751
-0.00066811 0.01039900
-0.00985534 -0.00500399
0.00862534 -0.00151735
-0.01193331 -0.00972917
-0.01538670 -0.00464149
-0.00683355 -0.02279417
0.00946573 -0.01790701
-0.00673254 -0.00780430
-0.00588773 -0.01518976
-0.01724291 -0.01184609
-0.00248040 0.01046989
-0.00416173 0.00645008
0.00393062 0.00424096
-0.00352342 -0.00403100
-0.00076642 0.01095445
0.00979086 0.00610426
-0.00140594 -0.00143733
-0.01460845 0.00398478
-0.00462774 -0.00801959
-0.00074641 -0.00928868
-0.00001798 -0.02583828
0.00946962 -0.00964763
-0.00728640 0.00512095
-0.00060405 0.00057879
-0.01494291 -0.01835113
0.00068052 0.01687964
0.00845535 -0.01360102
-0.01793856 -0.00773274
-0.02195437 -0.01350340
0.00435276 -0.00654775
0.00394762 0.01389651
0.01962008 0.03436363
-0.00275468 0.00254148
-0.00732535 0.01217334
-0.01000074 0.00489812
-0.00752609 -0.00477970
-0.00201291 0.00835945
-0.00772406 -0.00712607
-0.01510613 -0.01816831
0.00191021 -0.00303130
-0.00177240 -0.00720934
0.02489663 0.00799163
-0.00134714 0.00893499
-0.01175850 -0.02195882
0.00316697 -0.01497265
-0.01943010 0.01917171
-0.00579828 0.00929613
-0.01121785 -0.01686185
-0.00554206 -0.01619634
0.01992871 -0.00489915
-0.00293086 -0.00395443
0.03263221 0.00052119
0.00033223 0.02933544
0.00397276 -0.04126497
0.01474092 0.00003949
-0.00141866 0.00330034
0.00070988 -0.01502133
0.00827335 -0.01678943
0.00041794 0.00538130
0.00035665 0.01187038
0.02173773 0.00263558
-0.00951801 0.01060184
0.00209917 -0.01783612
-0.00835506 -0.00135632
-0.02008737 -0.00790202
-0.00772600 0.03003882
-0.02666035 0.00545515
-0.01886969 -0.01402840
-0.01796767 0.01801015
-0.00562506 0.00850896
-0.01107152 -0.01317669
-0.00766878 -0.00526925
-0.00919856 -0.00283100
0.00360544 -0.01433438
0.00557157 -0.01529084
-0.00610245 0.00039106
0.01010371 0.00072092
0.00424763 0.00427599
0.01305317 -0.00562708
0.02011716 -0.00506397
0.00848080 0.00405097
-0.00869463 -0.00554327
-0.01670836 0.01315510
0.00617742 0.00650873
0.02334069 0.01884878
-0.00352814 0.00261643
-0.00176081 0.00926142
-0.00415977 0.01224586
0.00920082 0.01762222
0.00927498 0.00695448
0.01074448 -0.01457549
0.02431274 -0.00797623
0.00774581 0.00997614
-0.00923754 0.00955059
-0.00638212 0.00383193
-0.00077607 -0.00232355
-0.00710327 0.00437653
0.01685940 0.00650853
-0.01109614 -0.00591365
0.01992219 0.00763250
0.01087370 -0.01767659
0.03662692 0.00037021
-0.00138002 0.01970332
0.00766374 0.01451225
0.00790613 0.00501982
-0.02094294 -0.02749320
0.00734912 -0.00808056
0.00277494 0.02395979
0.00027307 -0.00192825
0.00185458 -0.01028757
-0.00378112 0.02064313
-0.01342142 0.00031278
0.01432762 0.00060655
0.01932708 -0.02296906
-0.00870386 0.00661813
-0.00303755 0.00881296
0.00964026 -0.00895272
-0.00359127 0.00606269
0.00993937 -0.02518600
0.01969737 -0.00138520
-0.00078553 -0.01788406
0.00953106 0.00574251
0.02190553 -0.00841327
-0.00872125 -0.00019937
-0.02712991 0.00160559
-0.00817044 0.02233814
-0.00408960 0.00784099
-0.00859115 -0.01412670
-0.00273279 -0.00473477
0.00699248 -0.02819773
0.00146700 -0.02135789
0.01512781 -0.02149648
-0.00239250 0.00221295
-0.00906049 0.01709125
0.01482291 0.00491595
-0.01288237 -0.00812348
0.00387796 -0.00138398
-0.02121948 -0.00768467
-0.01888871 -0.01655875
0.00273540 -0.00620533
-0.01263841 0.01446281
0.00517451 -0.00567430
-0.01024640 -0.00190512
0.01298704 0.00736981
-0.00154507 0.00820325
0.00894285 -0.00834215
0.00806785 -0.01655820
-0.00847902 -0.00350509
-0.01557761 -0.01101736
0.00352739 -0.00854222
-0.00624724 0.01719617
-0.00487737 0.00185956
-0.00267996 -0.00803778
-0.00468577 -0.01468105
0.01153919 -0.02074234
0.00828452 0.00776977
0.00129422 -0.00983566
-0.00588063 -0.00169464
0.00088095 -0.00186869
0.01212040 -0.00873959
0.00322882 -0.00042952
-0.01923178 -0.00482062
-0.00444155 0.02168729
-0.02364894 0.00487505
-0.00397708 0.00850068
-0.00862604 0.01097256
0.00425913 0.00116311
-0.01370676 0.01754090
0.01543581 -0.00180549
-0.01192549 0.00349100
0.00292155 -0.01812404
-0.00045712 -0.02877176
-0.02556247 -0.00059140
-0.01028229 0.00321944
-0.01414548 0.01951030
-0.01324887 0.00867730
-0.01110954 -0.01218702
-0.02292497 0.00179035
-0.00654446 0.00936060
-0.00248235 0.01665773
0.00063914 -0.01523555
0.02052242 -0.00830745
-0.00058428 -0.00634224
-0.01700812 -0.00461492
-0.02110220 0.00703296
-0.00162556 -0.00858081
0.00647622 0.00402225
0.01877147 -0.00540284
-0.00868841 0.03229829
0.01286020 -0.00639671
-0.00253742 -0.00306371
-0.00010074 -0.01819593
0.01560734 -0.00758864
0.00841508 -0.01411115
0.00083205 -0.02992091
0.02415629 0.00028460
0.00701401 -0.01194943
0.01363957 0.02175605
-0.01197453 -0.01751764
-0.01277567 0.00792934
0.01019427 -0.02544652
-0.00348946 0.02191273
-0.00255215 0.00227710
0.03271857 -0.00722787
0.00110953 0.00776189
-0.01781821 -0.00729933
-0.00068901 -0.00221703
-0.00796768 -0.00482735
0.03014925 0.00374530
0.01898526 0.01218359
-0.00543651 0.00947827
0.01429129 -0.01243336
0.00078804 -0.01350731
0.00261235 -0.00718576
-0.01794808 -0.00402169
0.00218984 -0.01270193
-0.00274464 0.01501476
-0.00256001 -0.02511884
-0.00610829 -0.01578759
0.01015891 0.00462939
-0.00242147 -0.00704244
0.00465026 0.01676872
-0.00054260 0.00520338
-0.00471476 -0.00910234
0.02838818 -0.01319346
-0.01063835 0.03160157
0.00416113 0.00903447
0.00333071 0.00920291
-0.02285340 -0.00057882
0.00798336 -0.00422433
-0.00492069 0.03826622
0.00152597 -0.00264127
0.00839213 -0.00965078
-0.00915163 -0.01601851
0.00428623 0.00583750
0.01466756 -0.00815750
-0.00152969 -0.01074868
0.00361513 0.00829714
-0.02486622 0.00938327
0.00902952 -0.00631602
-0.00639765 -0.01489734
-0.00862271 -0.00838926
-0.00603437 -0.01257777
-0.01547246 0.00941454
0.01334334 0.01444820
-0.00356702 0.00439323
0.03321803 0.00758372
0.00627663 0.01185905
0.00429655 -0.01904776
-0.01391418 -0.00833763
-0.01183572 0.01845768
-0.00780927 -0.02331736
0.01516143 0.02086788
0.00780039 -0.01508566
0.00007644 -0.00520683
-0.00712107 -0.01437458
0.00765885 0.00469312
-0.00152824 -0.00559141
0.00612329 -0.00614337
0.01120118 0.02942446
-0.00730376 -0.00059204
-0.00948116 0.01386887
0.01317847 -0.01618092
0.00368878 0.01030168
0.02016696 0.01358279
0.02305406 -0.00540017
-0.00104275 -0.01636878
-0.00061771 -0.00106205
0.01435139 -0.00516575
0.03170406 0.00483509
-0.00220779 0.00193131
-0.02510117 -0.02399326
-0.00236683 0.00484966
-0.00850420 0.00931876
0.00669357 -0.00206158
0.00845522 -0.00378439
-0.02621995 -0.01610944
0.02084626 -0.00486934
0.01312614 0.01571932
0.00128456 -0.01240349
-0.00544011 0.00171362
0.00194088 -0.00803640
-0.01159038 -0.00922867
-0.01622501 0.02411552
-0.02082007 -0.01986702
0.00154469 0.01962393
-0.00347070 -0.00638985
-0.02026965 0.02060689
-0.00049653 0.00470410
0.01296562 -0.02054982
0.00238842 0.02529648
0.00785519 -0.01947365
-0.01736087 0.03230108
0.01736668 -0.00206766
0.00517728 -0.02308159
-0.00582307 -0.01317469
-0.00066563 -0.00483354
0.00602728 0.00888959
-0.01323705 -0.00476011
0.00380943 -0.00426985
0.00236290 0.01441743
0.00924602 0.00464026
-0.00439438 -0.01395557
0.00653719 0.00245499
-0.00451006 0.00165624
0.02135696 -0.00850404
-0.02392540 -0.00553360
-0.01275362 -0.01272046
-0.00612365 0.00346036
0.02584772 0.00359676
-0.00130281 -0.00314665
0.00067518 0.00103006
-0.00104275 0.00035900
0.03370488 -0.02804133
-0.00767884 -0.00484791
0.01164260 0.01339619
0.00337836 0.00489045
0.00388419 0.01537482
0.01877123 -0.01143194
0.00466211 -0.00013832
-0.01421139 -0.00857934
-0.01107682 0.00444397
0.01025584 0.02971286
-0.00258504 -0.00743039
0.00192066 -0.02389934
0.00579183 -0.00414421
0.01829540 -0.01904111
0.01379115 0.00539844
-0.02069031 0.01287767
0.00080912 0.02288191
0.01315987 -0.00449168
0.02256137 -0.02636079
-0.00821721 0.00378217
-0.00226147 -0.00602860
-0.00157288 0.00637635
0.00393412 0.00277086
-0.01174685 -0.01981982
-0.00359047 0.01785727
0.01228600 0.00949197
-0.01163055 -0.00912356
0.00438312 0.00617449
-0.00997068 0.03459113
-0.00388351 0.01262573
0.00098663 -0.01022203
0.01359566 -0.00587604
-0.00543218 -0.00022787
0.00230792 0.00349589
-0.01568983 -0.01050072
-0.00921434 0.00660602
0.00456315 -0.02646223
0.00265356 -0.01308626
-0.00265538 -0.01440809
-0.01163786 0.01509480
-0.00966952 -0.01034944
-0.01447305 -0.00357466
-0.01729668 0.00617514
-0.01892553 -0.01595321
-0.00266927 0.01720526
0.00317725 -0.02321887
0.00659365 0.02815196
-0.01382425 0.01935128
-0.02304836 -0.01515575
0.00009941 -0.00271448
0.01940371 -0.00880437
0.01790356 0.01307039
0.01111406 -0.02233038
-0.00004573 0.00193801
0.01578425 0.01043278
-0.00944933 -0.00600176
-0.01562553 0.01169597
-0.00837683 0.02608978
0.02085970 -0.01745873
-0.01189637 0.01088259
0.01421353 -0.00894717
-0.00340604 -0.01405302
-0.01431888 -0.01583265
-0.01289486 -0.01231643
0.00162758 -0.00723942
0.00878484 -0.00116677
-0.01198180 -0.01340902
-0.00234926 -0.03057850
-0.01796607 0.02978103
0.00621299 -0.00082312
-0.00041789 -0.00353768
-0.00825363 0.00759423
0.00683879 0.00689386
-0.00448487 -0.00839019
0.01479367 -0.01127539
0.01456213 0.01473443
-0.00364494 -0.00915772
-0.00791735 -0.01913023
-0.02939516 -0.02200444
0.01420622 -0.00259521
-0.00149052 -0.02072268
-0.00905167 0.00758705
-0.01029978 -0.01735954
0.01381122 0.00482537
0.02603029 0.00028383
0.00405545 -0.02008949
0.00707825 -0.00297365
0.01880560 -0.00548061
-0.00289392 -0.00956317
0.00216963 -0.00807821
-0.01692534 -0.01892883
0.00252859 -0.01590138
0.01771321 -0.00078581
-0.02380919 -0.00166120
-0.01652596 0.00951746
-0.01026690 -0.01149336
0.00286364 0.01129864
0.01935177 0.02431290
-0.00682597 -0.00651486
-0.01301399 0.00084612
0.00731714 0.01144537
-0.00043122 -0.00228193
-0.01305095 -0.00300018
0.00289581 0.00447652
-0.00575742 0.00343078
-0.02741687 -0.01460557
0.00546716 -0.02815934
0.00270027 0.03040237
0.02126055 0.01016950
0.00251462 0.00545239
0.00998798 0.00062451
0.00337824 -0.00461814
-0.01070903 0.01278205
0.01466803 0.00620240
0.01798015 0.01726452
-0.01407563 -0.00989704
0.02516633 -0.00042515
-0.00734261 0.00704539
-0.01218022 -0.02131566
0.00533550 0.01202164
-0.00345102 0.00339803
-0.00202693 0.02081058
-0.00808391 -0.00755826
-0.00329677 0.00500956
0.00729642 0.01265423
-0.00903893 0.00696508
-0.00779431 0.00158959
0.00245006 -0.00211479
-0.01273702 0.00044170
-0.00090623 0.00355152
-0.00843880 0.01406936
0.02804343 0.00603988
0.01070495 -0.01460974
0.00157130 -0.02168162
-0.01038802 0.01041321
0.00243647 0.02730306
0.00325850 0.00858354
-0.00882499 -0.01930236
0.00765667 -0.01467270
-0.02800288 0.00103992
0.00856015 -0.01122594
0.00084671 0.00066863
-0.01227974 -0.00922648
0.01176478 0.00335580
-0.02933436 -0.00499852
0.01596534 0.00640409
-0.00268959 0.02086950
-0.01451798 -0.01245402
-0.00194171 0.02275350
0.02844375 -0.00856446
0.02644496 0.00444033
0.02370988 -0.00115865
-0.00752665 -0.02179918
-0.01903271 0.02189811
-0.01331004 0.00520367
-0.01021863 0.00557538
-0.00747519 -0.01304038
0.01015839 -0.01539974
0.01219844 -0.00354746
-0.00649975 -0.01309605
0.00369742 0.05156733
-0.02191499 -0.02546298
-0.00193779 -0.00636663
0.01595761 0.00797667
0.01962181 -0.01190274
-0.02148969 -0.01068877
0.00044339 0.00174733
-0.01593330 0.01249875
-0.01718464 0.00820673
0.00910883 0.00424981
-0.02204853 0.00423978
-0.00619144 -0.00027949
0.00400153 -0.00411028
-0.03816077 -0.00353555
0.02023366 -0.00344351
-0.01380937 -0.00554517
-0.00855279 0.00859001
-0.01928184 0.00906735
-0.00958055 -0.02653356
0.00361953 0.02604542
0.01759842 -0.00793884
-0.01279723 0.01403010
-0.00564098 -0.00751683
0.00681565 -0.02447207
-0.02772871 -0.02357592
-0.00770088 -0.00599138
-0.00694047 -0.01805394
0.00853735 0.00528750
0.01202099 -0.00298604
0.01315384 -0.00441076
0.00254312 -0.00817759
0.00926224 0.00690421
0.00263013 0.00669562
-0.00852887 0.03255155
-0.03372235 0.00861096
0.01137585 0.00676127
-0.00607272 -0.00968492
-0.00517980 -0.01203457
-0.01447251 -0.01217473
-0.00780640 -0.01100333
0.00632516 0.01550431
0.00855815 -0.00666995
0.00906797 0.01094020
0.00078956 0.00878584
0.00561432 0.01443834
-0.02093136 -0.02624714
0.00325609 0.00655714
0.00636521 0.01638639
-0.02052793 0.01082084
0.00177498 0.02054172
-0.00682237 -0.02635403
0.00365916 0.00871602
-0.00044202 -0.00189362
0.01038120 0.01068054
-0.01982720 -0.01610433
-0.00903273 -0.01462617
-0.01350301 -0.01274214
-0.00870165 0.00317963
0.01926783 0.01649575
-0.02283002 0.02594712
0.01429701 0.01673942
0.00416341 -0.02670132
0.00757298 -0.00781821
0.01239311 -0.02530721
-0.01544919 -0.00284287
-0.00469630 -0.00882869
-0.00830675 0.00567457
0.00538625 0.01412063
-0.00206721 -0.02528192
-0.00364622 0.02946723
-0.00686216 0.01169551
0.01877793 -0.00855204
-0.01059480 -0.00670644
0.00626725 0.00393185
0.01327979 -0.00129746
0.00691127 0.00253077
-0.00112759 0.01674757
-0.00488714 0.02522289
0.00313485 -0.00183012
-0.02388309 -0.00139591
-0.00092741 -0.02192896
-0.01332751 -0.02765914
0.00332761 -0.00277897
0.00992532 -0.01851149
-0.00254157 -0.01644468
-0.00748378 0.01265574
0.01803112 -0.01463771
0.00569978 -0.00895816
-0.01171257 -0.00712268
-0.01801524 0.00653559
0.01240205 -0.01851997
0.00792371 -0.01267032
0.00144869 -0.00486572
0.00614737 -0.01558810
0.00624424 0.00755766
-0.01783442 0.01212322
0.00664033 0.00628393
0.01743424 -0.00441000
-0.01360646 -0.00144140
-0.00186715 0.00972773
-0.02890919 0.01030137
0.00495329 0.01492714
0.00419105 -0.02124210
-0.00290036 -0.00683586
0.00684590 -0.01953817
0.01730566 -0.02133843
-0.00094904 -0.01439187
-0.00550281 -0.00198914
0.00447347 -0.01300286
0.00215331 0.00478144
0.00308869 -0.01502304
-0.00111603 -0.01057476
-0.00804077 -0.00618378
0.02043884 -0.00619117
0.02960284 0.00070090
-0.00053063 -0.01856338
0.01378651 -0.00495125
-0.00914561 0.01806600
-0.01822839 -0.02361611
0.00341335 -0.03152369
0.01870378 0.00955065
-0.00845466 0.00278150
-0.00094697 -0.01359018
0.01804512 0.01119175
0.00245745 -0.02378066
-0.00864046 0.00707904
-0.01045022 0.00510978
0.01957024 0.00696129
-0.00771795 -0.00289540
-0.01177303 -0.00847697
-0.00917978 0.01310807
0.00786258 -0.00045279
0.01149905 -0.01424341
-0.00360545 0.00604378
0.00262290 -0.00490075
0.02089985 -0.00342862
0.04275434 -0.00485187
-0.01891113 0.01763014
-0.03958897 0.00233649
0.03094786 -0.00637896
-0.01068362 -0.01437622
0.02096340 0.02009637
0.01117596 0.00783028
-0.01366634 -0.01301822
-0.01914584 0.00672221
-0.01163455 -0.01709529
0.01050951 0.01300512
-0.00671341 -0.02598501
0.01174154 -0.00636327
-0.01636908 0.01330277
0.01216245 0.02168773
-0.02308084 -0.02906911
0.00862051 -0.00559094
0.00914069 0.01576059
-0.01594458 0.01291848
0.01910047 -0.00793553
-0.00683276 -0.01117107
-0.00595113 0.00532369
-0.00322999 -0.00559279
-0.01333372 -0.00400560
0.03643593 -0.02259446
-0.00733400 0.00220315
0.01959381 -0.00187371
0.01680215 -0.00926414
-0.01965560 0.01444402
-0.00441750 0.00732852
-0.00339397 -0.01447958
0.00112417 0.00590806
-0.00051339 -0.00065712
0.02821347 0.00410210
-0.00295633 -0.00975052
0.01253136 -0.00495821
0.00211135 0.00412623
0.00580986 0.00482809
-0.00688165 -0.00350329
0.02942690 0.00324092
0.01476347 0.00554134
-0.00120976 0.00248169
-0.01567954 -0.01238160
0.00199382 0.00038957
-0.01149591 0.00044132
-0.00063370 0.00680829
-0.00461283 0.00414953
0.01326005 0.01431583
-0.01645865 -0.02226198
0.00304007 -0.01429419
-0.01208197 0.01466720
0.00171176 0.00750541
0.01054310 -0.00007243
0.00105506 -0.01788226
0.00086319 -0.01219716
0.00944401 0.01573743
-0.02960951 0.00793802
0.00953565 -0.00626660
0.01921364 -0.01355990
-0.01587760 0.01621125
-0.01190884 0.00685118
-0.01237526 0.01231417
-0.00247000 -0.00543490
0.02501041 0.00529135
0.00843058 0.00423276
0.00042625 0.02039533
-0.00993221 0.02841429
-0.02163096 -0.01713522
-0.01402706 -0.00761315
0.01467642 -0.00392021
0.00210485 0.01609625
-0.00542042 -0.02125196
0.00291396 -0.00803546
-0.00400502 -0.00300599
-0.01383816 -0.01580745
0.00515477 -0.00187083
0.01198484 0.02159360
-0.00966676 -0.00651244
-0.01800874 0.00126686
0.01640946 0.01588343
-0.01348228 -0.00415675
0.00988603 0.00126114
-0.01513692 -0.02129465
-0.00326485 0.01669399
-0.00697022 0.00216828
0.00620276 0.00157098
-0.00520690 -0.00757465
0.00177221 -0.01586657
-0.01229768 0.01931495
-0.01309031 0.00941494
-0.01631775 0.02936209
0.02288928 0.00199211
0.00326096 0.00156902
0.00314600 -0.00048890
0.00196023 -0.00316344
0.00168559 -0.00753262
0.00788415 -0.00718539
-0.02581144 -0.00521175
-0.01958934 0.00868816
0.01718145 -0.01474277
-0.00680650 -0.01807804
0.03430819 -0.01944389
-0.01992268 0.01673087
0.00460519 -0.01210070
0.00250383 0.00420397
-0.01863283 0.01734648
-0.00653834 0.01574194
0.00646215 0.01931540
-0.01962440 0.00395557
-0.01091054 -0.02175540
0.02281069 -0.01173667
0.00323908 -0.01305326
0.02395657 -0.00029070
0.00555144 0.00055320
-0.01538756 -0.01990230
-0.01556024 -0.00126492
0.01529352 -0.03204938
-0.01397116 0.00601433
0.00000540 0.02501050
-0.04082640 0.00320292
-0.03376684 -0.01618143
-0.00767939 0.01083922
-0.00273789 0.01703873
0.00904097 -0.01646158
-0.00933895 -0.01193077
0.00574793 0.02052718
0.00419375 0.00801984
-0.01766817 0.00568063
0.02847985 -0.00364872
-0.00697638 -0.01085781
0.01318892 -0.00102087
-0.00046290 -0.00099122
0.01125928 -0.01795296
-0.01973796 0.02122767
0.00050832 -0.01207722
0.02689650 -0.00800162
-0.01357962 -0.00868038
0.00300596 0.00044139
-0.00900557 0.02262406
0.00876921 -0.02105777
0.03186940 0.00228152
-0.00945325 0.02843972
0.01616144 -0.00224461
0.00412521 -0.00780876
-0.00626441 -0.00632917
-0.00542481 -0.02058426
-0.00445544 0.00577939
0.01637129 0.00462988
-0.03265791 -0.02484190
0.00383163 -0.01608408
-0.00692473 0.01715972
-0.02362084 -0.01611608
0.02647873 -0.01734423
-0.02215542 -0.01065951
-0.02055868 -0.00401488
0.01854088 -0.00924815
0.02093520 0.02030695
-0.00360410 -0.00470650
-0.00107997 0.01864299
-0.01019248 0.03019565
-0.00910080 -0.00238157
-0.01793643 0.00947972
-0.00059784 -0.00705105
0.00852414 -0.00866401
-0.00375414 -0.00051719
0.01619275 0.01145181
-0.03050859 -0.00816536
-0.00147632 0.00741089
0.00576799 -0.00716569
-0.00019075 -0.00703813
-0.01635696 0.00266491
-0.00524615 0.02298318
-0.01347687 0.03426898
-0.02277892 0.00810298
-0.00203177 -0.00821093
-0.00106264 0.02006968
-0.00878042 0.02109640
0.01348741 -0.01705748
-0.01397542 0.03798776
-0.00971529 -0.02859010
-0.00044230 0.01399025
0.00199540 -0.01236464
-0.00778415 -0.01058286
0.01284712 -0.00203613
-0.01007159 0.01643259
-0.00597510 -0.00396215
0.00147384 -0.00744053
-0.00986553 -0.00710587
0.00036961 0.01228336
-0.00984136 -0.00351262
0.02666505 -0.02012076
-0.02541577 -0.00120551
-0.00219721 -0.00311472
-0.00705965 0.01027558
0.00380087 -0.00245859
0.01636950 0.00856120
0.00806666 -0.00886810
0.01097704 0.02861528
0.00216029 0.00347847
0.01699043 -0.00660142
0.00868846 -0.02306549
-0.00730302 0.00001888
-0.01234982 0.00983095
0.00199288 0.00762719
0.00053601 0.02282365
0.01469962 -0.00308929
0.02481411 -0.02450667
-0.02162244 -0.00204103
-0.01244405 -0.01216613
-0.00699890 -0.00417119
-0.00282331 0.01743171
-0.00531229 0.00823359
0.00218073 0.00360231
-0.01299210 -0.02919131
-0.00960931 -0.01395892
0.01300308 -0.01085913
0.01112409 -0.01829717
-0.00905134 -0.00537186
0.01020521 -0.00665214
-0.02620437 0.00074912
0.00358807 -0.01248945
-0.02346116 -0.01346879
-0.01943479 -0.00687761
0.03423371 -0.01464420
-0.02324291 -0.02202581
0.00661815 -0.00579440
-0.00279028 -0.01114716
-0.01395050 0.00480405
0.02151540 0.01833597
-0.00094857 0.01118530
-0.01443681 -0.01687511
0.00193244 0.00673880
0.00354162 -0.02555614
0.01468549 0.00031267
-0.01041759 0.00564363
0.02790018 -0.01001450
0.00796370 0.00919348
0.00434134 -0.00354350
0.01796528 -0.00464212
-0.01668572 0.00195726
-0.03616088 -0.01443772
-0.01663487 0.00980138
-0.01619305 -0.01439876
-0.00438285 0.00277494
-0.00591181 0.00406821
0.00735035 -0.00553673
-0.00817482 -0.00985649
-0.00933081 0.00964824
-0.01379203 0.00041468
0.03094133 -0.00597438
-0.01066564 -0.01765394
-0.01131519 0.02436927
0.00322896 -0.00380387
-0.02246327 0.00249685
-0.01497796 0.00727281
-0.00821895 -0.00479303
0.00455234 -0.00341279
0.01038054 -0.00970665
0.00658081 -0.00350423
-0.00558234 -0.00554976
-0.01411234 0.00832387
-0.00710365 0.00982763
-0.01368396 -0.00041297
0.00204030 -0.02554877
-0.01339289 0.00250459
-0.01149513 -0.02418678
0.01794331 -0.00646303
-0.00032075 0.01481116
-0.01047955 0.00516688
-0.01386321 -0.00305002
-0.01214254 0.00857198
-0.00073455 -0.00502907
0.01220552 -0.00143353
0.01965537 -0.00602373
-0.00616138 0.00930013
-0.00257720 0.00374358
-0.01887794 0.00165451
-0.01525228 0.02699002
0.00404534 -0.00723052
0.02580471 0.00664929
0.00540809 0.02150220
0.00121207 0.00274691
-0.01281685 -0.01067506
0.01920248 0.02964599
-0.00515329 0.01884682
-0.00791529 0.00229314
-0.00653779 -0.03024053
0.01844868 -0.01426020
0.01854498 0.00088638
0.01169256 -0.02315247
0.00963963 0.00994285
0.00158421 -0.01638563
-0.02605823 -0.00195073
-0.00640989 -0.00285645
0.00074086 -0.00227168
-0.01385601 -0.00951509
-0.00634014 -0.00036410
-0.00143519 -0.00151260
0.00601162 0.01301793
-0.01698470 -0.00230588
0.00910929 -0.00565455
-0.00447968 0.02219827
-0.00558864 0.00484868
-0.00121274 -0.00082584
-0.01468085 0.00814157
-0.01178406 0.00853973
-0.02617547 0.00761234
-0.00639324 0.01114442
0.01629880 -0.00932800
-0.01030806 -0.01670701
-0.00898378 -0.01294383
0.00390063 0.00553442
0.00312517 -0.00332761
-0.00563903 0.00778840
-0.02090052 -0.00788412
0.00996405 -0.00042708
0.01166724 -0.02172282
-0.01053011 -0.01545612
-0.01997158 -0.01582699
0.01033024 -0.00344361
-0.00537296 0.00598271
-0.00130359 -0.03044450
0.00088323 -0.00104824
-0.01176784 -0.00831505
0.00595891 0.00909557
0.00249041 0.01873809
-0.00406692 -0.00150479
0.01071563 -0.01711179
-0.01241174 -0.02127352
-0.00174120 -0.01038215
0.00208587 -0.00267498
-0.00661808 0.01430221
-0.01833577 -0.01765198
-0.00579579 -0.00658553
-0.01167900 -0.01005685
-0.00160484 -0.02003708
-0.01335153 0.00161891
-0.00969680 -0.01613112
-0.02069581 0.00924986
-0.01194454 0.01093260
0.00365310 0.02852670
0.00461129 0.00285762
-0.02333790 -0.01201156
-0.00872267 -0.02134362
-0.01492115 0.00658377
-0.00610902 0.00357181
-0.00404045 0.01258380
0.00917445 0.02273158
0.01553271 -0.00712953
0.01413640 0.01063196
0.00027547 -0.01227828
0.00266648 -0.01984074
0.01912061 0.00637418
-0.00239705 0.00843144
-0.00426515 0.01251796
0.00053927 -0.00837269
-0.00353863 0.02070158
-0.00970806 0.00043903
0.01648060 0.02387641
-0.01668174 0.00599260
0.01155609 -0.00008575
-0.01535141 0.00715962
-0.01524473 -0.00897186
0.00562329 -0.00165084
-0.00554488 0.00489854
0.00804054 -0.01064017
0.00735343 -0.00810604
-0.02779346 -0.01553031
0.00940408 0.00409385
-0.00235590 -0.00282902
0.00060229 0.00104799
0.00293138 -0.00347972
-0.00721481 0.00296025
0.00564857 0.02666421
-0.02035069 -0.01337175
-0.00178212 -0.00833862
0.01646310 0.01899957
0.00949942 -0.01125507
0.01192174 -0.01657945
-0.02677216 -0.00971991
-0.00027963 0.00366090
-0.00150698 0.00013272
-0.01866874 0.00606783
0.01548123 -0.02088277
-0.01186299 -0.01489689
-0.00586756 -0.00176751
0.01187255 -0.00083903
0.00151125 -0.00229401
-0.02049843 0.01300635
0.00362653 -0.01842861
0.01034643 -0.00703634
-0.01417151 -0.01721998
-0.00504643 0.00974700
-0.01053238 0.02177722
-0.00994129 -0.00880016
-0.00176899 0.00304004
-0.01126460 0.00124339
0.00130962 -0.00584908
0.01798944 -0.01335221
-0.00365128 -0.01317304
-0.02525914 0.00613671
-0.00798772 -0.00706933
0.02663801 0.01000695
0.02057429 0.01076516
0.00827952 -0.00839939
-0.00114752 -0.00956720
0.00433425 -0.02360470
0.00883595 -0.01387080
0.01974255 -0.01474421
-0.01475960 -0.00717521
0.00089604 -0.00338847
0.00733730 -0.01885013
-0.00142849 -0.02354015
-0.01753412 -0.02622131
-0.01500670 -0.01617054
-0.00112945 0.01130635
0.01959258 -0.01084490
0.00005924 -0.00645391
0.02057819 -0.00696239
-0.00858626 0.00489261
0.01106027 0.00736934
0.01656240 0.00164810
-0.00271337 -0.00429746
0.00508757 -0.00116813
-0.00738017 -0.00800618
0.00448333 0.00947551
-0.00155572 0.02402535
-0.00813242 0.00877831
0.00782807 0.02769620
-0.00578118 -0.02822972
0.00632302 0.00334174
-0.01164189 0.01756910
0.00098331 -0.00259601
-0.00921948 0.00400096
0.01447173 0.01614175
-0.01539608 -0.01583220
-0.00593205 0.01294699
-0.02365159 0.00904019
-0.01653424 0.01911791
0.00836184 0.01967127
-0.01448222 -0.00749403
0.01097687 -0.00948919
-0.00064638 0.00500602
0.00933627 -0.01978621
-0.00755854 -0.00841654
-0.01057060 -0.00418752
0.00484898 0.00041603
-0.02386476 0.00654418
-0.00811874 0.00771733
-0.00482723 0.02664476
-0.01991861 -0.00878975
0.00004749 -0.01574976
-0.00829501 -0.01601254
0.00628249 0.01128269
0.00404447 0.01915634
0.00661520 0.00502325
-0.01371933 -0.01742293
-0.00257351 -0.02318366
-0.01604459 0.01684667
-0.01653101 -0.01264256
-0.02095528 -0.01049853
0.01404710 -0.00555567
-0.01095219 0.00702577
-0.00067803 -0.02803080
-0.00061998 0.01822863
0.00602721 0.00436949
-0.02163667 -0.00597287
-0.02633994 0.01306083
0.00564726 0.00262484
0.00047940 0.00722694
-0.01087831 -0.00300295
0.00535788 0.00172458
-0.00179175 -0.01146755
-0.00372648 0.00432376
-0.00926548 -0.00111826
0.00220812 0.00163715
0.00301251 -0.00324928
-0.00196633 0.00827260
0.00730061 -0.00648712
-0.00785604 -0.02325130
0.01165199 -0.01917909
-0.00098908 0.01125588
-0.00954914 -0.00719941
-0.01061123 -0.00172916
-0.00446577 0.00956980
0.00230588 -0.00977136
0.00411704 0.01075501
-0.01477946 0.00032563
-0.00591241 -0.01692391
-0.00891591 -0.01073105
0.00256398 0.00528916
-0.00194983 -0.00534061
0.00118049 -0.01460455
0.01440044 -0.00202140
-0.01436675 0.00889216
0.01187473 -0.01638533
0.02043961 0.00663215
0.00830000 0.00261469
0.01279311 -0.01492763
0.00949895 -0.00611000
0.02200368 -0.01466521
-0.01601652 0.00391959
-0.00301830 -0.00604224
-0.01893005 -0.01818387
-0.00521842 0.00581405
0.01202811 -0.00619071
-0.00066684 0.02131155
0.00491240 -0.01863245
0.01364233 0.01185918
-0.00748010 0.00184252
-0.01801300 0.00584520
-0.02750928 -0.01742987
0.01843637 -0.00069937
-0.02089817 0.01504237
-0.00928355 -0.00613969
0.00344037 -0.00689366
0.02673556 0.00302951
-0.00802898 -0.00572619
0.01841476 -0.01106585
-0.02087298 -0.02091995
0.00896429 -0.01846218
0.03186890 0.00448010
0.00910501 -0.02121026
0.01227991 -0.00463981
0.01122632 -0.00451152
0.00196602 -0.00698052
-0.01677456 -0.00319777
-0.00936883 0.00417281
-0.01459849 0.00635934
0.00130210 -0.01443540
0.02599155 -0.00470388
-0.02780879 -0.00570330
-0.00104085 0.01503919
-0.00113752 0.00559689
-0.01440649 -0.02362506
-0.00351673 -0.01097261
-0.00275092 -0.01023494
-0.00939708 -0.00068957
0.00717288 0.00778375
0.00252889 -0.02230713
-0.01748925 0.00601649
0.00210565 -0.01892876
-0.00060410 0.00339118
-0.00059550 -0.00576060
-0.00234764 -0.01203281
-0.01869452 0.01666256
0.01036634 -0.01543993
-0.00634854 -0.00653310
0.00376315 0.01886332
-0.00094259 0.01254882
-0.00085427 -0.00734155
-0.03377371 0.02331999
-0.01977512 -0.00907411
0.00109192 -0.01591830
0.00527040 -0.01216550
0.01655782 -0.01435423
-0.01074298 0.00515697
-0.00124230 0.00702954
0.01401994 0.03144939
-0.00726553 0.01273305
0.00339130 -0.00550291
0.00540477 -0.03739531
0.00049099 0.00590595
0.00223907 -0.02314753
-0.01541060 0.00306204
0.02195918 0.00545586
-0.00549498 0.01293247
-0.00080782 -0.00843192
-0.00870587 -0.01558812
-0.00385934 -0.00844412
0.00623665 -0.01021499
-0.01853969 0.01004052
-0.00606948 0.01769475
0.01546220 -0.00066184
-0.01212857 0.01766055
0.00454410 0.02262424
-0.01539195 0.00040171
-0.01590884 -0.03292763
-0.00728041 0.00087836
0.02826555 -0.01386247
-0.00675907 -0.00540908
0.00852933 0.00252243
-0.03634128 0.01987445
-0.02018356 -0.01772536
-0.00641870 -0.01911166
-0.00210136 -0.00204188
0.01568451 0.00420077
-0.00207924 -0.00546500
-0.00069449 -0.02197678
-0.01721805 -0.01286264
0.00298349 0.02439719
0.01281601 -0.00395360
0.00712943 -0.02167886
-0.01188872 -0.00023327
-0.00614928 0.00515516
-0.01307692 0.00954907
-0.01284453 0.01590341
-0.00737222 -0.00938612
0.01107969 -0.00103229
-0.01699990 0.00264659
-0.01518296 0.00581966
-0.01486185 0.00603277
0.00330050 -0.00115021
-0.00803805 -0.00606615
0.00924593 0.00139487
-0.02652243 -0.01894586
-0.01149252 -0.00323500
0.00353006 0.00904413
-0.02852297 0.01618182
0.00765355 0.01727843
-0.00191652 -0.00398217
0.00676798 -0.00563354
-0.01216217 -0.03213064
0.00983955 0.00849792
0.00786570 -0.00217695
-0.01425128 -0.00117684
0.01636785 -0.00120682
0.01175174 -0.00660507
0.02683128 -0.01207585
0.00517179 0.00950884
-0.00813912 -0.00183891
-0.00102027 -0.00111530
-0.00703466 0.02150030
-0.00372128 0.00393013
0.01268494 0.00428187
-0.00804929 0.00911221
0.00010511 0.00707932
0.01827509 -0.01762487
-0.00600268 -0.02358843
0.01147229 0.00822615
-0.00014810 -0.00464565
-0.00642932 0.00492360
0.01096357 0.00910603
-0.00385090 0.00713145
0.01158155 -0.00573582
0.03251681 0.00566551
0.00232337 -0.02532539
0.01411215 0.01996914
-0.00482391 0.01003575
0.00731889 -0.01120474
0.00525021 0.00845179
0.00473661 0.00804441
-0.00077769 -0.02572758
0.00380232 0.03453985
0.00505448 0.01470308
0.00027788 -0.00039675
-0.00053662 -0.00756251
-0.01085017 0.00007309
0.00507284 -0.00266928
-0.01452427 -0.02475236
-0.00138097 0.00083939
0.01427651 0.01013727
0.01042067 0.03305553
-0.00860435 0.00524053
0.00454212 -0.00432172
-0.00903616 0.01876540
-0.00430007 0.00180633
0.00454765 0.01821254
0.01157050 -0.00091077
0.01425923 -0.01028368
-0.01423613 -0.01999468
-0.01719064 -0.02908016
-0.00385766 -0.00159728
-0.00134425 -0.00398131
0.01655637 -0.00244128
-0.01922226 -0.00344086
-0.01818589 -0.01543775
-0.02269407 0.00934609
-0.00782395 0.00032907
-0.00216748 -0.00849269
-0.02441029 0.00886101
0.00135623 -0.00522102
-0.00369862 0.01160726
-0.00961105 -0.00033709
0.00361762 -0.01775620
-0.00836510 0.01349169
0.00564306 0.00143538
0.00330949 0.01210831
0.00168840 -0.00147711
0.00734597 0.01338815
-0.00868362 -0.01153530
0.00232724 -0.01642947
0.00029726 0.01926886
-0.01728804 0.01880911
-0.00718344 -0.00037023
-0.00038051 0.00447547
0.01031936 -0.01252885
0.00170998 -0.00759519
0.00742637 -0.00659859
0.00011549 -0.01299613
-0.00907389 0.01045490
0.00730944 0.00353411
0.00629062 -0.01002198
0.01326556 -0.02787758
0.00802125 -0.00240324
-0.00890229 -0.01677258
0.01862993 -0.00406876
0.00872779 -0.00899492
-0.01393097 0.00111113
-0.00835605 0.00859062
0.00922531 -0.00170316
-0.00848763 0.01834186
0.01314633 0.00161664
0.00706608 -0.01128160
0.00194405 -0.00107763
0.00341431 0.00529030
-0.01065559 0.00099643
0.00097577 -0.01001031
-0.00815299 0.00040901
0.02878127 -0.00153392
-0.01797254 -0.00847958
0.00083454 -0.01917401
-0.00556791 -0.00022927
-0.01153390 -0.00677709
0.01706899 -0.00630309
-0.00065260 0.02509089
-0.00567766 -0.01035000
-0.01403921 -0.01232850
0.00127730 -0.01066469
0.00215558 0.01133798
-0.01449702 0.00378811
0.01144634 0.00832323
-0.00642181 0.00449293
-0.01966727 -0.00012684
0.00899145 -0.00246053
0.01386631 0.01077010
-0.00127782 0.00358317
-0.01397169 -0.01666330
0.00284973 0.00560590
-0.01972614 -0.00883558
0.01432055 0.00834295
-0.01205142 0.00555617
0.00889322 -0.01246140
0.02504309 0.05116383
0.00311983 -0.00677522
-0.01729562 0.00956214
-0.00738288 0.01132019
0.01809551 0.00095356
0.02544408 -0.03283961
-0.00663872 0.01082170
0.00487773 0.01069211
0.00593137 0.00163230
-0.01245683 -0.01824898
0.00429458 -0.01115849
-0.01584722 0.00273622
-0.01955965 -0.00672136
-0.00370452 0.01562352
0.00090509 0.01030765
-0.03858618 0.00709855
-0.00560705 0.01308482
-0.00952457 0.00409611
-0.00170982 0.02721908
-0.01087413 -0.00657038
0.01055302 -0.01579876
0.00889219 -0.00499268
0.01180722 0.00946628
-0.00520937 0.02120576
-0.00554198 -0.00594261
-0.01949674 -0.00935861
-0.01672518 0.01965797
-0.00733997 0.00620567
0.01641208 0.01842972
-0.02153167 0.00225595
-0.01502804 0.00703153
-0.00351627 0.01686224
-0.01291039 -0.00691942
0.00650381 -0.00284611
-0.01974708 -0.00014012
-0.01407675 -0.00828198
-0.02033316 -0.00956749
0.01828498 0.00209449
-0.01854420 0.01678152
0.00432438 -0.00531850
-0.00217937 0.00997603
-0.01482316 0.02968629
-0.02052690 -0.00100447
-0.00377326 0.02151872
0.01113287 0.00710758
-0.02926679 -0.01027959
0.00166778 -0.00180977
0.01149010 -0.00181110
-0.02239058 -0.00666276
0.00879869 -0.00620326
-0.00933612 -0.01610680
0.00530881 -0.00437461
-0.00301458 -0.00781771
0.00095579 -0.00035472
-0.01217688 -0.00425615
0.01174868 0.01758675
0.00927912 -0.00579890
0.00509227 0.00877294
-0.01659413 -0.00749652
-0.01444790 0.00099221
-0.01180237 0.00649251
0.01383241 -0.01966861
-0.01373345 -0.00135265
-0.01049125 0.01175412
0.00009088 0.02206536
-0.00840741 -0.00507514
-0.01281280 -0.00550003
-0.01227399 0.00842832
-0.00118108 -0.00346715
0.01220633 -0.02736796
0.02394433 0.00396793
-0.00450046 0.01286421
-0.01208618 0.01894164
0.02170803 -0.01436602
0.00795462 -0.00771163
-0.00208733 -0.00269501
-0.00687547 -0.01479293
-0.00975204 -0.00216024
-0.00237820 -0.01428133
-0.01196898 -0.00766847
0.00724924 -0.00614970
-0.00169073 0.02003718
0.01011606 -0.01432578
-0.00886353 0.00112874
0.01139278 0.02075720
-0.00244203 -0.02269395
-0.00546201 -0.00676274
-0.00269906 0.00165505
0.01824046 0.00150734
0.04060312 -0.00139343
-0.00684667 -0.00554934
-0.00537622 -0.00147427
0.01070890 -0.00221173
-0.00743628 -0.00180775
-0.01606756 -0.00744179
-0.00323145 0.02861225
-0.00784839 -0.01207940
0.00827824 0.00175805
0.01706525 -0.00350635
0.00128545 0.00605395
-0.00835221 -0.01548604
0.02050241 -0.00784429
0.00145703 0.01068308
0.00519495 -0.01416656
-0.02224738 -0.00406732
-0.01074800 -0.00777324
-0.01317727 -0.00413778
-0.00244656 -0.00603404
-0.00603827 -0.00832902
-0.00620119 -0.01906189
0.00517573 -0.01841106
0.00065656 -0.00840591
0.00103846 -0.01881406
-0.01129895 -0.00678775
-0.01917478 -0.01084671
-0.00161933 0.01235461
-0.01632831 -0.01163896
0.02464038 0.00575518
0.00992876 -0.00840035
-0.00302358 -0.02873381
0.02575254 -0.01767499
-0.00058917 -0.00325109
0.00068566 -0.00062288
-0.01161192 0.01315392
-0.00944939 0.01340802
-0.00061194 0.01622899
0.01239893 0.00240437
0.00451713 0.01419643
-0.00121232 0.00326308
0.00212692 0.00113757
-0.00188777 0.01729068
-0.00662366 -0.00425212
-0.01024047 -0.00619291
-0.00110475 -0.00650874
0.00116905 0.01149367
-0.00768304 0.00738569
0.01798834 -0.00160448
0.03378921 0.00633672
0.03103533 0.00883436
-0.02288935 -0.02130942
0.00666938 -0.01454185
0.01454945 -0.00518789
0.00964411 0.01157690
-0.00672557 -0.02694150
0.00637641 0.02484061
-0.00576272 -0.01585405
-0.00910695 -0.01109231
-0.00336888 -0.00361634
0.02254036 0.01643826
0.02530021 -0.02454240
-0.02010119 -0.00942918
-0.00211633 0.01008624
0.00207229 -0.02064309
0.01737773 -0.00704654
-0.00730035 0.01998684
-0.00117431 -0.01062930
-0.00712983 -0.00317945
0.00095268 0.01841908
-0.00137345 -0.00210766
0.00373740 -0.02380856
0.03497893 0.00875318
0.00130373 0.00989806
-0.00009612 -0.00195366
0.01333798 0.00676367
-0.01574752 -0.01154911
0.00431283 0.00096608
-0.01402528 0.02567551
-0.00884312 -0.00050690
0.01162566 0.01035466
-0.01001973 0.00514162
-0.00466901 -0.01229402
0.06007985 0.00735437
-0.00998921 -0.00409236
0.00974386 0.01845234
0.00011041 -0.01036763
-0.00339241 0.00140933
0.00260052 -0.00326355
0.00296202 -0.00596102
0.00902563 -0.00696943
-0.00537336 0.00173461
0.00304013 0.03030551
0.00486037 0.00161484
-0.01646669 0.00759926
0.00735344 -0.00395918
0.01236153 -0.02692351
-0.00223126 0.00216442
-0.01213934 0.01493191
-0.01391271 -0.00626937
0.00260932 -0.00226520
-0.00997465 0.00732941
-0.00441004 -0.01854260
0.00604731 -0.00733207
-0.00878353 -0.01459651
0.01339141 0.00474087
0.02454694 -0.01888835
-0.00671990 -0.01758848
0.01173259 -0.00354439
-0.00985421 0.00221077
-0.00123920 -0.00663134
-0.01306413 -0.00498154
-0.00426640 -0.00721634
-0.01131030 0.00054832
-0.01528976 0.01389260
0.01748124 0.00142757
0.02301697 0.01169562
-0.03167696 -0.00229190
0.00613711 0.00485520
0.00511508 -0.02352467
0.00295356 -0.01390687
-0.00784004 0.00689999
-0.01038743 -0.00673201
-0.00839473 0.01019743
0.00152864 -0.01480077
0.01011197 -0.00437370
0.00683417 0.00954722
0.01266159 0.00152531
0.00455498 0.01548705
-0.02380692 -0.01058815
-0.02057427 -0.01895141
0.00827075 0.00394569
0.00322928 -0.00208953
0.00434269 -0.02382798
-0.00502830 -0.00765567
0.00089772 0.00294249
-0.00556980 0.01802054
0.02537928 0.01768558
0.01168794 0.01242747
-0.00348057 -0.01498893
-0.01980789 0.01535335
0.00407155 -0.00620592
0.00653883 -0.00699971
0.02183326 -0.02079653
-0.00163279 0.01485255
0.00644180 -0.01645648
0.00795878 0.00896674
0.02130434 -0.00198247
0.03672170 -0.00483010
0.00009638 0.02109581
0.00037907 0.02171408
-0.01434040 0.01641373
-0.00346968 0.01734461
-0.00164002 0.00090909
-0.00633777 0.01746569
0.01595034 -0.01022839
-0.01468360 0.02946075
-0.02853575 0.01591965
0.02278012 0.00649756
0.01109680 0.00238159
-0.01400802 0.00557708
0.02542505 0.01379423
0.00185088 -0.01526927
0.00026984 -0.00789966
0.00942676 0.02864518
-0.00596440 0.00643114
-0.01584081 -0.01120412
-0.00799297 -0.01334596
-0.00069378 0.00520913
-0.00316258 0.00515344
0.00164007 -0.01588884
0.00735966 0.00127282
-0.00007593 0.03687787
0.00604526 0.02643187
0.00675937 0.01314540
-0.00774956 0.00343118
-0.01118566 0.00424985
-0.00735568 -0.00038199
0.00629718 -0.01056614
0.02508797 -0.01329161
-0.00528677 -0.00975577
-0.00739216 -0.02582990
-0.01283728 -0.02608282
0.00710528 0.02357721
-0.02286908 -0.00996509
0.00238033 0.02869071
-0.01066196 0.01103243
-0.01042710 0.00308036
-0.00658796 0.01672463
0.00252968 0.01388755
0.00248080 -0.00004005
-0.00643007 0.01626456
-0.01562432 -0.01410070
0.00682019 0.00390489
-0.01221498 0.00793099
-0.01114528 0.00268621
-0.02502900 -0.00508246
-0.00611959 0.00088735
0.00038861 0.00652739
-0.01552417 0.01005970
0.01769153 0.02987113
-0.00315655 0.00873588
0.01285484 -0.01004472
-0.00289155 -0.00869797
0.00190876 -0.00917378
0.00766004 0.00394413
-0.00289737 0.04073032
0.00711479 -0.01440951
-0.01844963 -0.00262039
-0.00348982 -0.00686326
-0.00224918 0.01858839
0.01857719 0.00765313
0.00139761 -0.00514561
-0.01694937 0.02189769
-0.00410456 0.02611060
-0.00070099 -0.00086521
0.02184461 0.01857534
0.01286124 -0.03151108
0.00168251 0.00330890
0.02503330 -0.01017031
-0.01863511 -0.00710717
0.00357750 0.00552288
0.00231024 -0.00061950
-0.01594687 -0.00452828
0.00963443 -0.01640748
-0.00075333 0.00011597
0.00429400 -0.01616470
0.00944278 0.01064134
0.02495830 0.00409502
0.02099911 -0.01178855
-0.02159750 0.00272513
-0.01257073 -0.02273785
0.01202179 -0.00719725
-0.00478525 0.00028491
-0.01048458 0.00755711
-0.01344382 -0.01218514
